// Neural Network File Format by Kyle Julian, Stanford 2016
7,4,9,45,
4,45,45,45,45,45,45,9,
0,
-8000.0,-100.0,-100.0,0.0,
8000.0,100.0,100.0,40.0,
0.0,0.0,0.0,20.0,-0.4325993796315559,
16000.0,200.0,200.0,40.0,3.102300000999995,
-3.25514e-01,-4.21260e-03,-5.17890e-02,2.88426e-01,
-7.75848e-01,-8.12443e-02,6.19465e-02,2.51458e-01,
1.06355e+00,-1.91104e-01,1.48418e-01,-1.95598e-01,
-1.00823e-01,4.98190e-01,1.81307e-02,-1.30610e-02,
1.61095e-01,-1.67160e-01,-2.86387e-01,9.42119e-02,
-9.32356e-01,2.13550e-01,-1.53683e-01,-2.02272e-01,
-1.05954e+00,7.69769e-02,1.88784e-01,2.29971e-02,
2.59765e-01,2.25546e-02,2.11593e-01,-3.33659e-01,
9.20757e-01,-3.34937e-01,-7.59486e-02,-3.95849e-03,
4.82140e-01,-2.91757e-01,1.85620e-01,1.60014e-01,
-1.84769e-01,-1.06589e-01,9.75215e-02,-4.16452e-01,
-2.69308e-01,-3.85765e-01,2.18852e-01,9.20429e-02,
5.88445e-01,-8.20794e-04,3.08594e-01,-3.35561e-02,
7.96868e-01,-2.16840e-01,1.85580e-01,-9.73816e-02,
2.05860e-01,1.95402e-01,2.26612e-01,2.13304e-01,
4.11853e-01,5.95569e-02,-9.95241e-02,-4.14416e-01,
5.38715e-01,-1.18273e-01,2.27383e-01,9.02509e-02,
-4.94428e-01,-1.62774e-01,6.12469e-02,-1.07243e-01,
6.77679e-01,-1.16123e-01,-5.63402e-02,3.64493e-01,
5.11486e-01,1.54629e-01,-1.59524e-01,-1.34498e-01,
-5.91560e-01,-2.15430e-01,3.01363e-01,6.58561e-02,
-1.11581e-01,1.86058e-01,-5.87537e-02,2.43035e-01,
8.38660e-01,1.60027e-01,2.26908e-01,-1.23612e-03,
-6.32835e-02,5.23028e-01,1.26367e-01,-5.17247e-02,
-1.98173e-01,-4.57748e-01,2.43982e-01,-7.87864e-03,
-7.30597e-01,1.47337e-01,2.51146e-01,-1.41904e-01,
-7.65236e-01,2.69332e-01,-3.07472e-01,9.30648e-02,
2.87238e-01,1.58518e-01,-1.58369e-01,2.06681e-01,
-5.62270e-02,-2.02500e-01,-1.53149e-01,-7.57488e-02,
-8.25467e-01,-1.24880e-01,-1.06042e-01,1.26982e-02,
-1.43812e-01,-4.94508e-01,-1.86462e-01,3.12383e-02,
5.27233e-01,-9.30233e-02,-1.87717e-01,-3.92830e-01,
-6.93279e-01,1.01533e-01,-2.69976e-01,-1.31537e-01,
-8.26412e-01,4.64894e-01,2.43598e-01,-1.16005e-01,
-3.98711e-01,-1.16748e-01,5.03736e-02,3.27528e-01,
5.76421e-01,2.87764e-01,-1.73964e-01,-1.54982e-01,
-5.66543e-01,1.48470e-01,-6.95934e-02,-4.40908e-01,
-8.27205e-01,-8.03677e-02,-1.36518e-02,-3.50042e-02,
1.27506e+00,1.94599e-01,-2.47529e-01,-2.44901e-01,
-1.10330e-02,4.29381e-01,-4.48564e-01,-3.93983e-02,
-9.52156e-01,2.29640e-01,-1.45233e-01,-1.42017e-01,
-7.33249e-02,2.91533e-01,1.95775e-01,1.79410e-01,
1.85233e-01,2.60615e-01,-1.20231e-01,1.73512e-01,
-4.23917e-01,2.46427e-02,1.61741e-01,-4.40024e-02,
5.36897e-02,-5.09478e-01,-8.13895e-02,1.45629e-02,
8.76434e-02,
2.36475e-02,
-1.33304e-02,
6.94892e-02,
-7.33874e-03,
1.01206e-03,
4.99679e-02,
3.67156e-02,
3.56429e-02,
-2.26072e-03,
-1.75211e-01,
3.30676e-02,
2.48023e-02,
1.34336e-02,
5.81517e-02,
2.11886e-03,
5.32543e-02,
2.49682e-02,
5.03229e-02,
-4.43195e-02,
5.85768e-02,
3.72592e-02,
6.02589e-02,
-1.94252e-02,
-8.21598e-02,
2.98978e-02,
5.08965e-02,
4.72259e-02,
1.24429e-01,
4.70997e-02,
7.52753e-02,
-1.02799e-01,
1.83716e-02,
-2.18682e-02,
1.69557e-03,
8.68287e-04,
-8.26477e-02,
4.90799e-02,
-1.62866e-02,
-3.24444e-02,
1.34331e-02,
4.81546e-02,
5.35395e-02,
-1.22340e-02,
-1.28695e-02,
1.82599e-01,3.32730e-04,1.35280e-01,-1.58729e-01,1.48093e-01,2.40446e-01,7.33889e-02,1.08599e-01,-2.04928e-01,1.46316e-01,3.95156e-01,-1.81815e-01,1.22434e-01,7.55856e-02,-1.04951e-01,1.51531e-03,4.24350e-02,-1.27995e-01,-1.28854e-01,1.08663e-01,8.02820e-02,6.46744e-02,-3.14062e-02,1.86769e-01,1.31242e-01,7.83003e-02,6.09924e-02,-5.87350e-02,-5.14916e-02,-2.01172e-02,1.06877e-01,2.10242e-01,1.14514e-01,-7.30799e-02,1.16169e-01,-3.37546e-02,4.82524e-03,-1.96352e-01,-2.43154e-01,-1.54157e-01,-2.51598e-02,1.21450e-01,2.95227e-01,-6.52251e-03,1.67378e-01,
-8.32695e-02,6.16312e-02,-7.47362e-02,2.45867e-01,-7.70613e-02,9.87309e-02,2.63549e-01,6.75882e-03,-1.73344e-01,-3.80062e-02,-3.03357e-01,5.22413e-02,1.04173e-01,-2.52387e-01,-1.09803e-01,1.29899e-01,-2.01530e-01,-5.61988e-02,1.06511e-01,-8.40168e-02,-2.34031e-01,-2.70718e-01,-2.20116e-01,1.36423e-01,-2.15570e-01,-1.02395e-02,2.73305e-01,-5.99755e-02,8.72175e-02,1.71778e-01,1.06736e-01,1.14460e-01,2.41361e-01,-1.81607e-01,1.68071e-01,-1.19164e-01,-1.86389e-01,-1.06111e-01,1.13230e-01,2.87939e-01,2.07571e-01,1.85604e-01,1.49759e-01,1.45905e-01,7.50416e-02,
-9.82530e-03,2.82341e-01,1.26136e-01,1.92331e-01,-1.71150e-01,1.53494e-01,1.83673e-01,1.91592e-02,9.63387e-02,-7.71865e-02,-5.53673e-02,-1.74582e-01,-1.84960e-01,-5.44444e-02,-2.02417e-01,2.11977e-01,2.14063e-01,-6.89822e-02,1.86779e-01,-2.72151e-01,1.53972e-01,-2.21352e-01,1.34416e-01,-8.92682e-02,1.83314e-02,-2.82025e-02,3.28739e-01,1.09259e-01,-3.51736e-01,9.72849e-02,-8.44936e-02,-2.62952e-01,-1.79096e-01,5.66368e-02,2.16674e-01,-1.95805e-01,2.18403e-01,4.05765e-02,-1.63486e-01,-3.11194e-02,1.47752e-01,-1.65766e-01,1.82783e-02,3.26730e-01,-2.64899e-01,
-6.06817e-02,1.80646e-01,3.53632e-02,2.92795e-01,2.49386e-01,2.64799e-01,-3.63147e-02,-4.64563e-02,2.54917e-01,8.34552e-02,-4.57819e-02,3.26247e-02,7.55508e-02,2.95872e-01,-1.20753e-01,1.58879e-01,-1.51748e-02,-2.59349e-01,-1.87611e-01,-2.78659e-02,-2.50058e-01,1.35048e-01,1.07215e-01,2.28034e-01,1.99262e-01,-5.02499e-02,1.53869e-01,1.06662e-01,1.46054e-01,-3.21131e-01,-2.14902e-01,-1.52929e-01,1.50829e-01,3.11894e-01,-2.63323e-03,1.46826e-01,1.73539e-01,-2.07228e-01,-2.00150e-01,-1.99807e-01,-1.54216e-01,5.42618e-02,2.10576e-01,9.97595e-02,2.52963e-01,
2.67198e-01,2.37588e-01,1.58653e-01,-4.54229e-02,2.37413e-01,-2.95010e-01,2.44595e-01,-1.80858e-01,-1.06913e-02,2.47887e-01,-5.03823e-01,3.00272e-01,-1.09896e-01,-3.13700e-01,4.53572e-02,8.60268e-02,-5.36396e-02,-1.32378e-01,-3.62770e-02,2.44696e-02,-8.58940e-02,-1.22552e-01,8.18381e-02,1.54773e-01,4.29688e-01,-1.25784e-01,-1.67534e-01,-1.93116e-01,3.63107e-02,1.73920e-02,2.03895e-01,-1.92744e-01,7.25081e-02,1.19673e-01,1.21852e-02,2.00707e-01,2.15936e-02,3.48923e-02,1.00513e-02,2.85202e-01,-8.97650e-02,5.49311e-02,-1.08642e-01,-3.24624e-01,3.25604e-01,
-2.00316e-01,2.55679e-01,2.09012e-01,-1.15420e-01,-5.33383e-02,-8.36158e-02,5.73953e-02,7.06832e-02,-1.51650e-01,1.45406e-01,-1.81292e-01,2.42282e-01,2.02506e-01,2.88189e-01,1.59072e-01,-1.40216e-01,-2.25018e-02,3.10487e-01,-2.34461e-01,3.89011e-02,4.60393e-02,7.18770e-02,-1.86329e-01,-5.61333e-02,2.51986e-01,1.73163e-01,1.12252e-01,5.52217e-02,1.48115e-01,3.36685e-01,-1.72877e-01,-3.88340e-02,-2.90279e-01,6.32481e-02,2.32765e-01,2.98318e-01,2.79189e-04,-1.35100e-01,-1.52269e-01,3.63722e-01,-2.11190e-01,-1.34531e-01,-6.25653e-02,-1.83432e-01,2.86976e-03,
-1.52341e-01,5.60531e-02,-2.44761e-01,2.82363e-01,7.30458e-02,1.36833e-02,5.12118e-02,-2.08180e-01,6.55298e-03,1.69806e-01,3.51490e-01,-3.96316e-03,2.68815e-01,3.19038e-02,-1.33733e-01,-8.09707e-02,2.96596e-01,-2.64445e-02,-3.71177e-01,6.83442e-02,1.14117e-01,-5.85451e-02,-1.08899e-01,1.09725e-01,4.92172e-01,1.94697e-01,1.77389e-01,1.49369e-01,-2.63284e-01,-1.56848e-01,7.03422e-02,-1.98216e-01,-9.43442e-03,-7.09760e-02,4.08496e-02,2.36677e-01,1.32181e-01,2.72811e-01,-6.44928e-02,-3.05853e-03,-2.50001e-02,1.66429e-01,1.48296e-02,-4.98729e-02,2.25443e-02,
3.37391e-01,2.62951e-01,4.20480e-02,1.10504e-02,3.88349e-02,1.82397e-01,-2.38455e-01,-1.43850e-01,-9.10025e-02,-8.36247e-02,3.10917e-01,-1.86351e-02,1.08056e-01,-1.53465e-01,-1.92710e-02,1.65980e-01,-1.65619e-01,1.31405e-01,-5.92548e-01,3.14465e-02,1.72277e-01,-4.91823e-01,-6.62646e-02,4.25659e-02,2.16811e-01,-1.86730e-01,-6.57373e-02,-3.37456e-01,-9.96873e-02,-7.71329e-02,7.34923e-03,5.89935e-02,-1.46687e-01,1.59257e-01,1.78074e-01,3.24888e-01,3.20464e-01,-1.70969e-02,3.57391e-01,-2.59015e-02,-1.04361e-01,1.02107e-01,-2.99585e-01,1.44640e-01,1.65044e-01,
-1.63597e-02,-2.87604e-01,5.73759e-02,-2.32349e-01,-1.73971e-01,8.84558e-02,-6.12216e-02,1.77493e-01,2.45324e-01,2.71854e-02,1.51160e-01,1.47921e-01,1.88766e-01,1.01279e-01,1.84912e-01,1.06085e-01,1.42431e-01,1.02055e-01,1.88792e-01,-2.02855e-03,-1.53114e-01,2.58424e-01,1.41169e-01,2.97306e-01,2.74562e-01,-1.93386e-01,3.92170e-02,1.49167e-01,2.57391e-01,-8.19699e-02,2.60754e-03,-4.92333e-03,-1.47372e-01,1.42508e-01,-2.19338e-01,1.06862e-01,-1.87751e-01,-2.10194e-01,8.20801e-02,2.67944e-01,-1.39118e-01,-2.42759e-01,1.81111e-02,-2.03574e-01,-1.54992e-01,
4.11748e-02,-2.81427e-01,2.51850e-01,8.54791e-02,2.53287e-01,4.00647e-02,-1.77566e-01,9.84449e-02,5.95083e-02,-2.40804e-01,1.23363e-02,1.91689e-01,-2.59637e-02,8.28943e-03,1.48498e-02,1.40466e-01,-1.51465e-01,-7.90771e-02,-1.17968e-01,1.28305e-01,1.42597e-01,3.39944e-01,4.49364e-02,2.02523e-01,3.43784e-01,7.18235e-02,-6.91203e-02,-1.74823e-01,2.15775e-01,-2.53852e-01,-4.06998e-02,2.11826e-01,2.14366e-01,1.77410e-01,2.31006e-01,8.39190e-02,1.59457e-01,-1.83517e-01,1.33128e-01,3.48750e-02,1.46104e-01,7.30679e-02,2.87569e-02,1.16654e-01,2.23666e-03,
9.61887e-02,-2.27587e-01,2.56578e-02,2.60619e-01,-2.41145e-01,9.64016e-02,2.33252e-03,-1.83538e-01,2.23871e-01,-2.37142e-01,3.38989e-01,1.11654e-01,1.09608e-01,-1.24121e-01,2.21915e-01,6.03479e-02,-7.41487e-02,-1.56497e-02,-2.53836e-01,-2.85542e-03,-5.62076e-02,1.31748e-02,-3.05897e-02,8.99920e-02,-2.95767e-01,2.72154e-01,-3.53903e-02,1.50031e-01,-1.24907e-01,2.72485e-03,-2.89613e-02,-2.23219e-01,1.84611e-01,7.17479e-02,-1.82651e-03,-1.70849e-01,-2.16227e-01,-1.65280e-01,1.35007e-01,-8.60056e-02,-7.81908e-02,8.12101e-02,2.44705e-01,-1.60754e-01,-5.54862e-01,
2.18368e-01,-4.33787e-02,4.36333e-02,-9.55125e-02,-2.41121e-01,2.49359e-01,-1.52920e-01,1.95603e-01,-2.70974e-01,1.97750e-01,1.09713e-01,3.80977e-02,6.97792e-03,-3.30981e-02,6.56621e-02,2.42877e-01,-2.09977e-01,2.22319e-01,5.26002e-02,-1.37714e-01,-1.95436e-01,8.07055e-02,-5.58827e-03,3.20424e-01,1.18748e-01,-1.12060e-01,-2.06819e-01,-6.34211e-02,-2.97627e-02,6.21834e-02,9.29998e-02,2.97533e-01,-1.96451e-01,2.18839e-03,8.54609e-02,2.59692e-01,2.46817e-01,7.96732e-02,1.23602e-01,2.09126e-01,1.02723e-01,1.72335e-01,-3.35872e-02,-1.48560e-01,2.64417e-01,
2.16443e-01,2.65711e-01,1.69432e-01,-4.23060e-02,7.13818e-03,1.20165e-02,3.49435e-01,1.99456e-01,3.29758e-02,-1.31471e-03,-1.65861e-01,-6.30720e-02,-1.37397e-01,3.28445e-02,-3.66021e-02,-2.30148e-01,-6.45904e-02,2.95919e-01,-2.13330e-01,8.79645e-02,-8.88421e-02,-7.62936e-02,-3.40712e-02,1.23285e-01,1.97437e-01,2.88296e-02,9.55137e-02,1.04767e-01,-3.43965e-03,1.88302e-01,-9.30409e-02,-1.24734e-01,-8.85570e-02,2.13455e-01,-3.32564e-02,-1.23643e-01,2.04294e-02,-1.21388e-01,-5.96137e-02,-1.65403e-02,1.80245e-01,-9.30454e-02,7.87186e-02,1.42138e-01,3.68927e-01,
1.03104e-01,-2.60497e-01,-1.46739e-01,7.21695e-02,-9.35230e-02,9.39623e-02,-1.59308e-01,2.72074e-01,-4.06697e-02,1.46712e-01,2.22399e-01,-1.25991e-01,6.37631e-02,-2.47669e-01,4.68669e-03,-1.78476e-01,-2.25163e-01,1.17897e-01,7.75852e-02,2.74994e-02,1.18562e-01,-2.61278e-02,-1.78236e-01,-1.61695e-01,-8.15566e-02,2.71300e-01,1.82983e-01,1.68566e-01,-1.07823e-01,2.67815e-01,-1.86729e-01,7.84544e-02,1.85427e-01,1.28410e-01,1.46250e-01,-1.27084e-01,-1.37237e-01,8.17010e-02,-2.13090e-01,-1.38450e-01,3.02619e-01,2.58350e-01,1.69589e-01,2.14924e-01,1.61342e-01,
1.04133e-01,-2.26911e-01,9.95025e-02,-5.20079e-02,3.46134e-01,-5.81094e-03,2.15292e-01,3.56207e-02,2.73702e-01,6.29116e-03,5.99533e-01,-3.87873e-01,-2.23577e-01,2.02639e-01,-9.19233e-02,3.11990e-01,3.75445e-02,2.14420e-01,-5.00379e-02,-6.40902e-02,6.83955e-02,3.05885e-01,-1.76154e-01,-1.08068e-01,1.44786e-01,-3.75370e-02,2.79413e-01,-1.53667e-01,-8.95773e-02,7.92811e-02,1.34452e-01,2.07016e-01,4.74698e-02,1.18934e-01,-1.84991e-01,1.32754e-01,1.56868e-01,1.11699e-01,2.12527e-01,1.14659e-01,1.12301e-01,1.82481e-01,3.36391e-01,1.71646e-01,2.49669e-01,
-3.66477e-02,2.44093e-01,1.63010e-01,2.66553e-01,-7.80532e-02,4.50117e-02,2.83068e-02,-1.59452e-01,1.96465e-01,-1.53529e-01,-9.62691e-02,2.09990e-01,-3.68443e-02,-2.45111e-01,9.32826e-02,2.11013e-01,-2.78949e-03,2.69220e-01,1.16324e-01,9.40279e-03,2.64840e-01,-1.83151e-01,6.00606e-02,-3.40610e-02,-1.76877e-02,-8.80120e-02,1.99683e-01,1.46107e-01,-1.59705e-01,7.12145e-02,1.16610e-01,7.55109e-02,-2.06980e-01,1.54538e-01,-2.01721e-01,-1.76982e-02,-1.65693e-01,-1.31528e-01,-4.13255e-02,-2.50522e-01,2.85797e-01,-8.16138e-02,-2.11390e-01,8.32819e-02,-7.53067e-02,
5.43609e-02,-1.55869e-01,-3.18947e-02,1.84419e-01,-1.64635e-01,-1.95088e-01,1.88102e-03,5.32145e-02,-1.39700e-01,1.56483e-01,1.43766e-01,-2.03677e-01,8.50430e-02,-1.40449e-01,-2.12164e-01,2.09818e-01,1.98145e-01,6.88245e-02,-1.84165e-01,-6.44549e-02,-7.96640e-02,1.15206e-01,2.14630e-02,-3.12395e-01,-7.28509e-02,-9.44884e-02,-3.74672e-02,2.61062e-01,1.62319e-01,2.67817e-01,6.74442e-02,1.57773e-01,1.09804e-01,8.52439e-02,-1.26130e-01,9.65037e-02,-2.35757e-01,2.96716e-01,4.68445e-02,9.88191e-02,1.62538e-01,-2.54890e-01,2.63036e-01,2.59351e-01,-1.20721e-01,
1.48148e-02,-1.72622e-01,-5.65869e-02,1.48113e-02,-2.05628e-01,8.53942e-02,-3.95964e-01,2.72854e-02,-3.61706e-01,-1.92726e-01,2.86810e-01,-2.72791e-01,8.12525e-02,2.47895e-01,2.72463e-01,2.82121e-01,1.39320e-01,-5.36076e-02,1.98593e-01,-4.79483e-02,-2.96113e-01,1.11389e-01,3.82834e-01,-6.21779e-02,-7.85522e-02,1.10895e-01,3.60129e-02,4.00930e-01,-1.00212e-01,-8.50697e-02,-2.12524e-01,-1.58817e-01,9.07888e-02,-2.96533e-01,-6.80344e-02,1.80868e-01,-1.87047e-01,-2.03606e-01,7.04529e-02,2.12737e-01,2.04547e-02,-4.46943e-02,-7.48337e-02,-2.04295e-02,-1.02125e+00,
-5.69862e-02,-1.82975e-01,-4.05246e-02,-3.57480e-01,3.74214e-01,-1.56241e-01,-2.12860e-01,3.05318e-02,1.85830e-01,-4.86930e-02,-1.14201e-01,2.20068e-01,1.88591e-01,1.53473e-01,1.38995e-01,-1.65881e-01,-1.06018e-01,-1.73616e-01,2.64199e-01,-3.46731e-03,7.84669e-02,-3.52821e-02,-6.71000e-02,-1.33851e-01,-1.03805e-01,-1.51286e-01,-2.27885e-01,5.62752e-02,7.31992e-02,-2.89120e-01,1.17971e-01,-1.80104e-01,-1.32398e-01,1.57092e-01,-1.37009e-02,3.51263e-02,-2.68604e-01,1.23784e-01,-2.28429e-01,-1.50902e-01,-1.35621e-01,-1.73304e-01,9.64743e-02,9.87950e-03,1.71116e-01,
-1.40091e-01,-3.86665e-02,1.30234e-02,1.82239e-01,2.64378e-02,-2.84989e-02,-7.94895e-02,-1.39089e-01,-6.13164e-01,-1.42186e-01,-1.72597e-01,-2.54785e-03,-2.36671e-02,3.38953e-01,2.34267e-01,1.91281e-01,3.31584e-02,-3.73319e-01,1.52513e-02,1.72878e-01,-8.21469e-02,9.61427e-02,4.18469e-02,2.44438e-01,1.55479e-01,-1.06380e-01,3.83479e-02,2.60248e-01,-1.43756e-01,-1.29766e-01,-5.95727e-01,-1.56730e-01,3.91162e-02,2.30447e-01,-1.65049e-01,1.57007e-01,1.52327e-01,-1.45573e-01,4.70742e-02,1.10170e-01,7.37805e-02,-1.08950e-01,2.49642e-01,5.00649e-02,2.13107e-02,
1.74131e-01,4.82949e-02,-1.54652e-01,-1.50144e-01,1.58677e-01,3.30441e-01,-1.92085e-01,-1.53250e-01,-2.36772e-01,1.68402e-01,1.13134e-01,-1.57658e-01,2.20048e-01,7.99229e-02,-1.37886e-01,2.38525e-01,2.14132e-01,2.37342e-01,1.19305e-02,-9.03457e-02,2.72089e-01,-1.83102e-01,-5.51982e-02,1.09940e-01,-1.46661e-01,2.47982e-01,1.60013e-01,-1.81203e-01,4.90429e-02,-1.65621e-01,1.23676e-01,-8.91297e-02,7.17230e-02,2.56482e-01,1.03857e-01,-9.84229e-02,8.58947e-02,-1.84896e-01,-2.79108e-01,-1.08115e-01,1.92737e-01,-2.54700e-01,-1.74303e-02,-8.59811e-02,-1.52814e-01,
2.94533e-01,-2.51933e-01,-5.23375e-02,-1.25722e-01,2.31940e-01,-1.72383e-02,1.59217e-01,2.89897e-02,-1.48298e-01,1.42286e-01,4.02848e-01,-3.14971e-01,6.99827e-02,7.96231e-02,-2.22226e-01,1.11322e-01,-2.84672e-01,-1.16666e-01,9.06833e-02,2.25688e-01,-1.92387e-01,2.76040e-01,-2.97689e-01,-5.27186e-02,-4.73459e-01,-1.14818e-01,-5.12330e-02,-1.11008e-02,1.98190e-01,1.21048e-01,4.45001e-02,-9.93476e-02,-2.96776e-02,3.00591e-01,-8.92630e-04,8.63194e-02,4.63321e-02,-6.52681e-02,-1.93777e-01,1.21616e-01,1.86600e-01,-5.72325e-02,-1.62592e-02,2.92220e-01,-2.50172e-01,
-9.92864e-02,2.21208e-01,-8.24016e-02,1.01958e-01,-1.24066e-02,-2.29301e-01,4.33432e-02,1.47445e-01,9.53711e-02,-2.66350e-01,-3.72969e-01,-8.93340e-02,1.76571e-01,1.42571e-01,1.57030e-01,3.39764e-02,1.47150e-01,1.90112e-01,-2.96004e-01,4.11727e-01,1.98678e-01,-1.76450e-01,-8.43276e-02,-4.97343e-02,-2.75456e-01,-1.03202e-01,-2.58465e-01,-4.20998e-01,2.80234e-01,-5.33926e-02,-1.48700e-01,-1.13155e-02,-1.53708e-01,-9.60209e-02,9.19497e-02,2.69664e-01,-3.15152e-01,-1.91510e-01,1.80526e-01,-5.69180e-02,-3.77760e-01,1.97060e-01,-2.70497e-01,1.27655e-01,-1.92589e-02,
2.08807e-01,8.81247e-03,-4.14496e-01,7.39951e-02,-9.93334e-02,1.79204e-01,3.17223e-01,-2.16750e-01,-6.18472e-02,-1.75857e-02,3.95899e-01,2.55082e-01,-9.79081e-02,-5.63870e-01,1.56261e-01,-1.61918e-01,-2.41820e-01,2.93476e-01,-1.54055e-01,-1.95179e-01,1.53204e-01,1.98900e-01,3.70419e-02,1.55230e-01,-2.56030e-01,6.17840e-02,1.30503e-01,-2.48114e-01,-1.39851e-01,9.75495e-02,1.00486e-01,-3.33214e-02,3.81425e-01,1.25955e-02,1.20876e-01,-8.02977e-02,1.10602e-01,2.72251e-01,-1.04619e-01,-1.61229e-01,2.81207e-01,-8.56716e-02,-2.42537e-01,-2.83041e-01,4.81412e-02,
-2.74432e-02,2.02856e-01,-2.92310e-01,1.21459e-01,1.00016e-01,2.18192e-01,3.30108e-01,1.10066e-01,-2.38928e-01,-2.98094e-01,5.07206e-01,1.69010e-01,-2.76097e-01,-2.41486e-01,3.84655e-02,1.60981e-01,-2.36080e-01,-5.44253e-03,-1.95447e-01,-8.71154e-02,-3.34109e-02,2.60767e-02,-1.46566e-01,-7.16001e-02,3.58640e-01,-1.49531e-01,3.98861e-01,-1.37087e-02,1.08057e-01,3.28631e-01,1.84497e-01,-1.92514e-01,-1.00449e-01,2.40886e-01,8.33562e-04,-1.62525e-01,3.51567e-01,3.38977e-01,-2.44095e-01,-2.08101e-01,2.27000e-01,-1.69117e-01,2.42955e-02,2.80173e-01,-4.66314e-02,
2.47924e-01,-5.63002e-02,3.60019e-01,-1.19334e-01,-1.00734e-01,-1.21962e-01,-2.51648e-01,1.23854e-02,-2.10972e-01,-1.28950e-01,6.63080e-02,1.46500e-01,-5.22238e-02,7.75614e-02,-1.29033e-01,-1.87192e-01,-6.28082e-02,1.46344e-01,2.86176e-01,-2.37129e-02,-2.69289e-01,2.97198e-02,8.92761e-02,2.71078e-01,-3.30316e-01,2.19388e-01,-5.06137e-03,8.20924e-02,1.96146e-01,-5.98840e-02,6.20454e-02,-1.24561e-01,-1.54774e-01,1.28921e-01,-7.11098e-02,-6.48194e-02,2.01504e-01,-1.28440e-01,-2.45755e-01,-1.13312e-01,2.38328e-01,-4.57435e-02,1.19702e-01,1.75195e-01,1.08614e-02,
6.38369e-02,1.01607e-01,-3.30722e-02,2.43275e-01,1.44717e-01,-2.64598e-01,-1.35620e-01,3.01669e-01,2.88232e-01,-3.90012e-02,-3.31928e-01,-1.12220e-01,-4.44362e-02,2.77141e-01,9.03986e-02,-5.44327e-02,-1.43543e-01,2.20061e-02,1.75529e-01,3.57890e-01,2.03494e-01,1.07270e-01,3.39843e-01,4.75746e-02,-3.16917e-02,-1.58500e-01,2.58989e-03,-7.45164e-02,-1.20948e-01,8.17445e-02,5.18571e-02,-7.36448e-02,2.06760e-01,-2.39629e-01,-2.93271e-01,1.16703e-01,-2.52023e-01,-2.77109e-01,2.50318e-01,2.38020e-01,-2.67898e-01,-2.29583e-01,1.99111e-01,1.41510e-01,2.05762e-01,
9.42480e-02,-2.06767e-01,6.04754e-02,4.28323e-02,6.53160e-02,1.38065e-01,-2.51537e-01,2.66074e-01,2.39360e-01,-9.28145e-02,3.52639e-02,-2.91487e-01,-9.68281e-03,2.68826e-02,2.56568e-01,8.01699e-02,2.86987e-01,-2.66625e-01,-2.95024e-02,3.97301e-01,-2.17958e-01,3.80432e-02,3.69736e-01,1.73461e-01,-2.44601e-01,-1.25022e-01,-2.76282e-01,1.32579e-01,-1.07066e-02,1.30672e-02,1.04846e-01,-2.31107e-02,-2.21137e-01,5.11770e-02,-2.38049e-01,-5.58028e-02,1.05537e-01,-2.80727e-01,2.36555e-01,-2.08125e-01,-2.46011e-01,-1.76228e-02,-5.38631e-02,-2.25380e-01,-1.29113e-01,
-4.45357e-03,-2.00312e-01,4.36077e-03,-1.08136e-01,1.93080e-01,2.97450e-01,3.32039e-01,-2.18805e-01,1.16763e-01,-2.54672e-01,3.48368e-01,3.66250e-02,-2.15059e-01,1.02457e-01,1.47318e-01,1.86801e-01,-8.40862e-02,2.32861e-01,-7.62582e-02,-1.38523e-01,1.72205e-01,5.07694e-03,-2.81976e-01,2.42835e-01,8.49836e-02,2.06818e-01,3.62744e-01,5.54344e-02,1.52081e-01,1.19187e-01,2.49353e-01,-2.88188e-01,1.63005e-01,7.96568e-02,-1.54512e-01,1.02636e-01,-3.23159e-02,2.94050e-01,-1.53333e-01,2.59130e-01,3.44072e-02,-2.92651e-02,7.68897e-02,-5.70590e-02,4.26687e-02,
1.90891e-01,1.48239e-01,2.13939e-02,2.40633e-02,-1.08850e-01,-1.12665e-01,1.54920e-01,-7.27175e-02,-1.44275e-01,2.23291e-01,-1.65284e-01,1.31579e-01,1.09971e-02,-3.41705e-03,-7.04402e-02,2.10176e-01,8.50584e-03,1.90157e-01,-5.53270e-02,7.03883e-02,1.68192e-01,-2.84861e-01,2.26019e-01,-3.43741e-01,9.87138e-02,-1.19061e-01,1.31349e-01,-1.68880e-02,2.99489e-01,1.43153e-01,-1.22633e-01,-1.03308e-01,9.35742e-02,-1.91625e-01,-2.36201e-01,2.30872e-01,-1.13134e-01,-1.38911e-01,3.12318e-02,-3.05807e-01,-1.86051e-01,1.41112e-02,-2.43036e-02,1.45029e-02,2.66887e-02,
5.46468e-02,9.18590e-02,1.46841e-01,-2.49420e-01,2.82960e-01,1.42902e-02,-1.15658e-01,-6.47382e-02,2.50433e-01,3.05312e-01,9.84418e-03,2.36000e-02,-1.88672e-01,-1.50809e-02,5.23277e-02,7.10018e-02,-8.64349e-02,2.04741e-01,2.95827e-02,-9.11228e-02,1.38084e-01,-2.20920e-01,-2.63273e-01,-9.16904e-02,2.46506e-01,2.65277e-01,2.09594e-01,-1.44818e-01,1.91347e-01,2.30663e-01,2.61506e-01,-1.45749e-02,-1.25279e-01,8.18421e-02,-1.50928e-01,-2.15621e-02,2.51337e-01,9.65255e-02,2.27313e-02,-1.37644e-01,-4.06651e-02,2.19004e-01,-9.31189e-02,1.38020e-01,3.20369e-01,
-3.12757e-01,-2.37483e-01,2.39036e-01,1.44540e-01,-1.50150e-01,-4.34405e-01,-8.02802e-02,6.55876e-02,3.16084e-01,-6.63284e-02,-2.49705e-01,2.84856e-02,-1.31577e-01,-3.10503e-02,2.08451e-01,4.08236e-02,-2.40141e-02,-1.38377e-01,3.00572e-01,-2.14649e-01,-1.90033e-01,-3.00725e-01,1.36233e-01,-1.26290e-01,-8.69446e-02,1.03943e-01,-4.83962e-01,-4.08272e-02,1.50464e-01,2.49187e-01,-1.71638e-01,-3.88163e-02,-2.62573e-01,1.18443e-01,1.94912e-01,-1.28744e-01,-3.74940e-01,-2.08861e-01,7.36569e-02,-1.72173e-01,-2.14877e-02,1.11393e-01,-9.20246e-02,9.79419e-02,-4.06720e-02,
2.08184e-01,-9.04306e-02,-8.73279e-02,-3.11141e-01,1.25751e-01,-6.50262e-02,1.75617e-01,1.84831e-01,1.13346e-01,-8.71829e-02,-3.51563e-01,2.36438e-01,-2.73653e-01,-6.01110e-02,-9.33209e-02,1.96114e-01,1.82443e-01,2.00384e-01,-2.35961e-01,-2.50524e-01,1.18566e-01,6.14143e-02,-2.54044e-01,-2.72807e-01,-2.14935e-01,-1.36257e-01,-3.78104e-02,2.24959e-01,1.42708e-01,3.09503e-01,5.53230e-02,-1.48304e-01,-1.45494e-01,-3.12374e-01,-1.63666e-01,5.78722e-02,1.51284e-01,4.56830e-02,-2.48291e-01,-6.92630e-02,-2.20343e-01,-1.02642e-01,-1.56724e-01,1.03936e-01,-2.97711e-01,
-2.01157e-01,6.81841e-02,-3.42061e-01,-9.31198e-02,-1.03952e-01,2.32047e-01,2.23068e-01,7.68743e-02,-2.41792e-01,-2.46263e-01,-1.12383e-01,3.50485e-02,-4.87876e-02,-2.37520e-01,1.55221e-02,9.25682e-02,-4.51226e-02,2.02327e-01,-1.89333e-01,2.60504e-01,-8.31753e-02,1.31169e-01,2.40986e-01,2.77012e-01,2.23333e-01,2.55396e-01,2.15038e-02,5.89072e-02,-1.71123e-01,-3.31526e-02,2.49895e-01,-8.17863e-02,1.41401e-01,2.78443e-02,8.44924e-02,-4.66105e-02,9.84585e-02,2.56775e-02,1.10659e-01,7.09461e-02,-1.65472e-01,2.27708e-01,2.51220e-01,-8.44438e-03,8.34069e-02,
1.16600e-01,-2.12261e-01,-9.29681e-02,1.61803e-01,1.04546e-01,-1.42029e-01,2.35552e-01,-1.62599e-01,1.83415e-01,-1.00099e-01,5.61301e-02,1.38704e-01,-3.74633e-02,-1.53824e-01,-1.11573e-01,1.15764e-01,-5.88848e-02,-1.52710e-01,1.46474e-02,-2.46493e-01,2.78687e-01,-8.50307e-02,4.92970e-02,1.11869e-01,-7.05952e-02,-2.06539e-01,-4.32366e-03,-1.68069e-01,2.75840e-01,6.37993e-02,1.54332e-02,-4.68198e-03,1.86097e-01,1.68983e-01,1.36720e-01,-1.79169e-01,-8.59450e-03,-2.15404e-01,-4.09442e-02,1.23212e-01,-3.71981e-02,-1.16687e-01,5.91910e-02,-1.70535e-03,-1.54277e-01,
1.40359e-01,-1.64787e-02,2.98699e-01,3.63711e-02,1.25982e-01,-7.41706e-02,1.93491e-01,1.35950e-01,6.53073e-02,1.02769e-01,8.87937e-02,2.60577e-01,2.22631e-01,1.88298e-01,1.52289e-01,-3.17212e-03,1.44133e-01,-1.90329e-01,-6.84316e-02,2.22286e-01,2.68417e-01,1.24255e-01,-6.11260e-02,1.87814e-01,2.81840e-01,-4.99660e-02,-4.63654e-01,-3.30232e-01,-7.70660e-02,-3.03177e-01,2.28568e-02,2.86978e-01,8.28819e-02,-1.86384e-01,-1.27560e-01,4.25402e-02,2.60292e-01,-1.61985e-01,2.55473e-01,-2.37849e-02,-2.06335e-01,1.08570e-02,-1.56402e-01,-8.45019e-02,-1.48923e-01,
-1.01811e-01,1.82987e-01,-1.86433e-01,2.65327e-02,-1.38516e-01,2.16985e-01,1.77059e-01,1.54571e-01,-7.89023e-02,-7.97875e-02,2.84408e-01,-2.43474e-02,-1.19426e-01,1.45296e-01,2.86580e-02,-2.81570e-01,1.70344e-01,-2.09855e-01,-1.32639e-01,-1.04576e-01,-8.29610e-02,-5.35632e-02,-3.83770e-02,-2.01956e-02,2.33618e-01,6.17721e-02,1.12158e-01,-1.44321e-01,6.44219e-02,2.43882e-01,-2.23679e-01,1.95678e-01,-9.72318e-02,1.49368e-01,9.76413e-02,1.67059e-02,1.89074e-01,1.10621e-01,-2.62786e-01,2.52410e-01,1.20057e-01,1.73753e-01,2.53776e-01,6.91019e-02,1.78755e-01,
6.28604e-02,-2.19699e-01,1.50596e-01,8.19700e-03,-1.67523e-01,1.01739e-01,2.59076e-02,2.75340e-01,7.14025e-02,1.10188e-01,-2.36087e-01,6.58281e-02,-2.54828e-01,-9.97556e-02,1.65092e-01,2.99414e-01,2.77903e-01,9.88332e-02,-1.41297e-01,-1.15312e-01,-1.36415e-01,5.19343e-03,2.16237e-01,-5.55301e-02,-3.45704e-01,2.38684e-01,-4.17889e-02,-3.08183e-01,6.61343e-02,-2.20943e-01,2.31751e-01,2.77764e-01,1.58426e-01,-1.68956e-01,6.47334e-02,-4.98290e-02,1.56621e-01,-1.55988e-02,-1.34126e-01,-2.22154e-01,-1.66598e-01,2.58556e-01,-1.42959e-01,-1.29448e-01,-1.41945e-01,
2.41378e-01,-2.37550e-01,1.76621e-01,1.01775e-01,-1.53677e-01,-1.77853e-01,3.41575e-02,1.41920e-01,8.48041e-02,-6.40255e-02,6.31652e-01,-2.06231e-01,-1.59700e-01,2.85428e-01,2.25256e-01,1.18305e-01,-2.24092e-01,-1.73847e-01,-1.64323e-01,-2.17315e-01,-6.42777e-02,2.20444e-01,-9.86947e-02,-4.73460e-02,-2.11453e-01,1.60519e-01,-1.27618e-01,8.05805e-02,-4.92424e-02,1.58650e-01,-1.58243e-01,-1.40432e-01,2.16350e-02,-2.16144e-01,-2.75675e-01,1.91090e-01,2.30901e-01,2.17931e-01,-8.79378e-02,-6.18521e-02,5.71702e-02,2.03360e-01,2.90763e-01,-2.52191e-01,6.03577e-02,
1.48197e-01,-1.47966e-01,-1.32109e-01,5.99312e-02,2.47247e-01,5.26408e-02,2.00920e-01,-5.74252e-02,-1.32741e-01,-1.66022e-01,-3.69891e-02,1.17026e-02,-2.46725e-01,-2.21886e-01,-1.16354e-01,-7.45980e-02,1.57475e-01,-4.95337e-02,1.19735e-01,2.11354e-01,1.92927e-01,-1.27841e-01,2.36562e-01,-2.58292e-01,-2.35656e-01,8.54114e-02,9.76224e-02,2.75464e-02,-1.37568e-01,2.55236e-01,-1.75315e-01,3.78593e-02,-2.29322e-02,1.06495e-01,1.25697e-01,-9.77784e-02,1.91441e-02,-6.58695e-02,-1.18714e-01,3.29331e-02,-7.21023e-02,1.59234e-01,-1.32443e-01,-7.83542e-02,-3.70046e-01,
1.31322e-01,1.15691e-01,5.05389e-02,2.49431e-01,-1.51648e-01,7.86233e-02,3.10589e-01,1.30142e-01,-2.39348e-01,-1.24699e-01,3.59294e-01,2.04392e-01,-1.87351e-01,8.00288e-02,-2.42031e-02,1.90212e-02,-1.52392e-01,-4.47528e-02,-1.74271e-03,-4.79021e-01,-5.71444e-02,2.38898e-01,-2.28645e-01,6.94681e-02,1.18253e-01,2.24377e-01,-1.00159e-02,-4.59672e-02,1.65450e-01,-1.09225e-02,-6.77883e-02,-3.74070e-02,3.59287e-01,-2.00521e-01,2.37051e-01,-2.72246e-01,1.97931e-01,1.51514e-01,-2.19982e-01,-1.06146e-01,2.25088e-01,-1.23574e-01,-1.68321e-01,2.95371e-02,-9.98775e-03,
2.54972e-01,1.13022e-01,3.30935e-01,1.73864e-02,8.60327e-02,-1.79276e-01,-3.65967e-02,-2.02289e-01,2.89169e-01,1.19917e-01,-2.31980e-01,1.24739e-01,1.91581e-01,2.13559e-01,-1.77732e-01,4.80064e-02,1.21164e-02,9.65009e-02,1.27589e-01,-9.29156e-02,1.86905e-01,4.52579e-02,7.71431e-03,1.91034e-02,-2.43904e-02,-2.76700e-03,-9.89216e-02,-8.31161e-02,1.50566e-01,1.96235e-01,-5.68562e-02,1.75941e-01,-7.14569e-02,1.94674e-01,-7.32659e-02,-5.39259e-02,1.91193e-01,-1.23607e-02,2.20719e-01,-1.64733e-01,-5.23510e-02,1.64428e-01,-6.77337e-02,-8.11106e-02,-1.09781e-01,
1.69472e-01,2.11225e-01,1.50920e-01,1.90668e-01,-4.24691e-03,-1.37496e-01,-4.49514e-02,-3.99997e-02,-3.13975e-01,-1.94767e-02,-3.85590e-01,-1.10992e-01,2.18249e-02,1.15853e-01,5.69991e-02,9.38645e-02,1.41265e-01,3.97020e-02,1.04209e-01,8.99806e-02,5.88263e-02,-1.06273e-01,-1.86924e-01,1.01251e-01,-1.97546e-01,7.48676e-02,1.77235e-01,-1.68563e-01,-1.33985e-01,-4.64699e-03,-1.94714e-01,1.65452e-01,6.24193e-02,-2.28391e-01,-2.60010e-01,1.22185e-01,-3.05555e-01,2.92082e-01,1.30916e-01,-1.61915e-01,-2.80507e-01,2.33474e-01,1.25997e-01,-1.07713e-01,-1.76940e-01,
-2.06859e-01,1.05662e-01,1.30260e-02,-7.83298e-03,7.16262e-03,3.62196e-01,2.29418e-01,-1.15723e-01,-2.11419e-01,-2.28502e-02,4.12646e-01,-1.31973e-01,-9.91602e-02,-1.20958e-01,-3.10852e-01,1.84970e-03,1.26985e-02,2.30141e-01,1.53240e-01,-3.62185e-01,1.25422e-01,-1.99942e-01,-2.55353e-01,-1.24299e-01,5.17412e-01,2.43664e-01,2.48366e-01,2.83014e-01,2.40587e-01,2.60849e-01,1.35292e-01,-1.86783e-01,-1.35859e-01,5.14581e-02,1.94900e-01,2.35000e-01,-2.19125e-02,3.47762e-01,-2.16540e-02,-2.15934e-01,5.78263e-02,-1.51883e-01,1.76868e-01,1.26485e-02,-2.36919e-01,
-2.57918e-01,2.79474e-01,1.86827e-01,-5.62792e-02,-9.97085e-02,2.43470e-01,1.61950e-02,-3.15608e-02,2.45330e-01,1.11745e-01,-2.46716e-01,1.77787e-01,-2.31465e-01,2.51010e-01,3.84579e-02,5.49009e-02,-1.04828e-01,1.34880e-01,2.45345e-01,3.77386e-01,-2.28442e-01,-2.84546e-01,-1.08503e-01,2.01196e-01,3.04780e-01,-1.17250e-01,-2.93035e-01,-4.02010e-01,-1.56070e-01,-7.73654e-02,2.64752e-01,-2.06478e-02,-1.18763e-01,-3.89907e-02,9.26532e-02,-7.44407e-03,-9.03310e-02,3.98052e-02,3.56838e-01,5.92619e-02,1.81019e-01,1.25741e-02,-3.46090e-01,2.00854e-01,4.59432e-02,
-9.87778e-03,
2.58730e-02,
-2.31184e-02,
-3.79114e-02,
2.69975e-02,
1.83649e-02,
2.81132e-02,
-9.41826e-02,
-3.83315e-02,
-4.27763e-02,
6.99881e-02,
3.04722e-03,
-4.31060e-02,
4.33316e-02,
-7.18153e-02,
2.90873e-02,
4.96122e-02,
2.41990e-02,
-4.58378e-02,
-5.71793e-02,
3.05997e-02,
7.36289e-03,
3.63555e-02,
-1.67878e-02,
-2.34852e-02,
6.35886e-02,
1.96768e-02,
4.00458e-02,
7.57939e-03,
8.51514e-02,
4.80207e-02,
6.57175e-02,
9.01209e-02,
1.51307e-03,
-2.17710e-03,
1.17419e-02,
-2.70768e-02,
6.66070e-02,
3.30414e-02,
6.51738e-02,
-2.13304e-02,
1.99138e-02,
2.37014e-02,
-5.85479e-02,
-4.34391e-02,
-1.37915e-01,2.05816e-01,1.52686e-01,7.73249e-02,-4.26408e-02,5.48642e-03,-1.66609e-03,-4.64847e-02,-9.59043e-02,1.92317e-01,1.40447e-01,4.90074e-02,7.62389e-02,-2.91961e-02,-2.58648e-02,-2.65035e-03,2.35179e-01,3.75846e-01,-3.71781e-01,-1.87982e-01,6.30372e-03,-1.11350e-01,4.81578e-02,-3.17586e-01,2.24624e-01,-1.34406e-01,7.28011e-02,7.98260e-02,2.14981e-03,-8.64372e-02,-1.88134e-01,1.20260e-01,8.82254e-02,-2.10596e-01,4.33854e-02,-6.54204e-02,-2.60178e-01,-7.94050e-02,-9.85873e-02,-1.41513e-01,3.57916e-02,1.16074e-01,2.46786e-02,-2.98353e-01,1.37204e-01,
1.25788e-01,1.70126e-01,1.58260e-01,1.02162e-01,-1.76364e-01,1.17635e-01,-6.94725e-02,5.59497e-02,1.54135e-02,2.85265e-01,3.69418e-02,-1.50699e-01,1.11508e-02,2.50626e-01,-6.50120e-02,-4.50998e-02,-2.81244e-02,-7.61503e-02,2.07122e-01,-2.52493e-01,1.58358e-01,-1.96589e-01,3.39400e-02,1.64250e-01,-2.16830e-01,1.41186e-01,1.39928e-01,-1.80472e-01,-1.12266e-01,-3.25978e-01,1.46490e-02,-2.88849e-01,-3.20220e-01,-2.23801e-01,5.11345e-02,1.31693e-01,2.54954e-01,7.79580e-02,-5.91604e-03,-1.20386e-03,2.38774e-01,-1.19610e-01,-1.62209e-01,-1.74123e-01,-3.89217e-01,
-1.02494e-01,-2.12191e-01,8.87285e-02,-5.20520e-02,-1.04354e-01,-1.53759e-01,-9.71005e-02,9.42897e-01,1.06304e-01,2.85585e-01,-2.70151e-01,-4.82187e-03,3.24773e-03,2.66991e-02,-4.51330e-02,2.23320e-01,-7.99092e-02,-8.45433e-02,2.64930e-01,-9.75276e-02,-2.30759e-01,5.74154e-02,3.47345e-01,-4.10793e-02,-1.06919e-01,8.17744e-02,1.74225e-01,2.16671e-01,-1.42755e-01,-2.11629e-01,2.23725e-01,3.68004e-01,-7.44502e-02,2.64707e-01,-2.32890e-01,1.38806e-01,-2.33296e-01,2.77294e-01,-2.90239e-02,1.16889e-01,-1.28655e-01,2.08329e-01,3.50706e-02,8.25905e-02,4.53598e-01,
-1.11176e-02,-4.79839e-02,-7.14734e-02,1.70520e-01,1.33487e-01,4.50272e-02,-8.30425e-02,3.18001e-02,3.13351e-01,1.72807e-01,-8.81737e-03,2.06515e-01,-1.86922e-01,1.28245e-02,-1.18858e-01,-2.11750e-01,1.46687e-01,2.96897e-02,-8.97646e-02,1.59941e-01,3.84893e-02,-1.17831e-01,2.64721e-01,-7.43679e-02,-2.37469e-01,-2.67217e-01,2.34847e-01,-1.32338e-01,-6.24672e-02,1.17316e-01,2.53039e-01,-1.97907e-01,8.11876e-03,7.11597e-02,8.91559e-03,-1.64094e-01,-8.81233e-02,8.00253e-02,-9.78995e-02,9.30057e-02,-8.92613e-02,1.86443e-01,-2.58385e-03,-1.08387e-01,-1.38305e-01,
1.17150e-01,-7.56335e-02,-6.45814e-02,-5.37487e-02,5.88275e-02,1.08364e-01,-1.00499e-01,1.37054e-01,9.60926e-02,-1.18385e-01,-1.52709e-01,2.46037e-01,-5.84457e-02,-1.91679e-01,-1.19024e-01,2.27717e-02,-5.36498e-02,2.20173e-01,-3.17372e-01,-5.96287e-02,1.87642e-01,-1.27926e-01,-1.90511e-02,3.22212e-01,8.39721e-02,-1.30136e-01,-7.50599e-02,-1.95368e-01,1.60267e-01,-1.88322e-02,2.25401e-02,-4.24897e-01,-9.73141e-02,-1.76462e-01,-1.87156e-01,9.50254e-02,1.14785e-01,3.55489e-02,2.45781e-01,-3.06374e-01,-1.18246e-01,1.81086e-01,-4.11239e-03,1.48981e-01,3.57999e-02,
-1.07068e-02,2.02877e-01,-1.83739e-02,-1.95321e-01,6.31427e-03,1.68020e-01,1.30376e-01,-1.79349e-01,1.68338e-01,-7.11207e-02,-1.91011e-01,-1.00895e-01,2.54438e-01,9.67693e-02,-1.89019e-02,1.95512e-01,1.31081e-01,-3.69431e-01,-4.99262e-01,-9.33399e-02,-3.06138e-02,-2.13635e-01,-1.57607e-01,-2.74862e-01,7.47185e-02,1.52993e-01,-2.44638e-01,-2.40133e-01,2.98263e-01,-3.08392e-02,7.24650e-02,-4.61839e-01,2.54646e-01,-9.45044e-02,6.76313e-02,-1.21013e-01,1.43805e-01,1.71676e-01,7.98038e-02,2.80538e-02,1.11271e-01,3.90702e-02,7.70469e-02,-2.76042e-01,-2.57159e-01,
-1.04678e-02,2.22512e-04,9.52989e-03,-1.22692e-01,-2.54733e-01,1.87181e-02,2.48429e-01,-4.71329e-01,-4.98002e-02,-4.91506e-02,2.26442e-01,-2.28783e-01,-2.25791e-01,8.77948e-02,1.45976e-01,2.12763e-01,1.99292e-01,5.15894e-02,1.57805e-01,-2.16949e-02,-2.97933e-01,2.40290e-01,-5.28649e-01,-5.85955e-02,1.32630e-01,-1.24294e-02,3.15851e-01,1.27618e-01,-1.05321e-01,1.27113e-01,-6.92270e-02,9.39600e-02,1.99713e-01,1.53871e-01,1.65052e-01,-5.40123e-01,-3.14967e-01,-6.71843e-02,-1.77290e-01,2.28944e-01,-7.36136e-02,-2.71612e-01,-5.27236e-04,8.47665e-02,-5.26813e-01,
-1.26621e-01,1.39417e-01,-2.22049e-02,-1.19848e-01,-1.27711e-01,4.21054e-02,-6.68558e-02,-1.92263e-01,-1.70710e-01,-2.08374e-01,-1.41032e-01,-1.79757e-01,-1.67907e-01,1.80544e-01,1.80978e-01,-1.30774e-01,4.19094e-02,-1.26295e-01,-1.04622e-01,-6.90773e-02,1.81046e-01,3.83166e-02,1.71258e-01,-5.51915e-01,-2.05793e-01,3.60162e-01,1.39880e-01,3.11766e-01,1.28608e-01,6.71396e-02,-2.40174e-02,-3.47693e-02,1.22072e-01,1.14689e-01,-6.03852e-02,-1.21190e-02,7.68411e-02,4.01605e-03,2.26945e-01,-4.83537e-02,-2.06194e-01,1.23433e-01,-2.89676e-02,-7.74683e-02,-1.40737e-01,
1.68259e-01,-5.27129e-02,-4.29879e-01,1.59072e-01,-2.22632e-01,2.75812e-02,-1.27928e-02,-1.25963e-01,1.90562e-01,1.14404e-01,2.50055e-01,1.43115e-01,-1.01389e-01,9.26039e-02,2.28642e-01,-1.74754e-01,2.68092e-02,-1.97174e-02,2.20061e-01,1.61837e-01,-2.51608e-01,1.58918e-01,5.30652e-02,1.24725e-01,1.60736e-01,1.79835e-01,5.75784e-02,2.81627e-02,1.08681e-03,-6.84775e-02,-1.58924e-01,-1.39344e-02,-1.56535e-02,-1.64809e-02,2.30395e-01,3.47366e-01,2.50582e-01,3.37746e-01,3.05378e-01,-2.19351e-01,2.51429e-01,2.10779e-01,2.32219e-02,4.50630e-02,1.85825e-01,
4.86761e-02,-9.83924e-02,1.84677e-02,-2.09956e-01,-2.41516e-01,-2.71359e-01,1.23765e-01,-2.39389e-01,-8.41219e-02,-2.09720e-01,1.04138e-01,-2.21899e-03,1.79040e-01,-1.25822e-01,2.31286e-02,-1.55534e-01,-2.48555e-01,8.88388e-02,-7.68332e-02,1.42154e-02,-1.01757e-01,-1.89723e-01,-1.08113e-01,1.02965e-01,-2.24172e-02,1.73629e-01,-2.41053e-01,2.13225e-01,-1.37101e-01,-1.54809e-01,1.12830e-01,2.89210e-02,7.55881e-02,-2.47856e-01,5.67741e-02,-1.45269e-01,-8.75464e-02,6.33744e-04,-1.15729e-01,2.01259e-01,8.04103e-02,1.42643e-01,-7.61140e-02,-2.44127e-01,-2.50883e-01,
2.24393e-01,9.65273e-02,-2.29787e-01,2.86107e-01,-2.52849e-01,2.50787e-01,1.12390e-01,1.98867e-01,6.46787e-02,2.78932e-01,-1.05381e-01,1.53869e-01,-1.28119e-01,-2.74443e-01,1.47382e-01,-2.85970e-01,-7.83730e-02,2.51699e-01,-2.57686e-01,-1.81236e-02,4.82297e-02,1.76302e-01,-1.42541e-01,-5.22266e-01,-2.53757e-01,-1.53278e-01,1.35206e-02,1.26400e-01,-3.04933e-02,9.66100e-02,-1.86092e-01,-2.15413e-01,-2.02107e-01,3.05571e-02,-1.14506e-01,-1.22389e-01,-1.52774e-01,4.69231e-02,3.03796e-01,-1.18665e-02,-2.30419e-01,-2.92460e-01,1.88257e-01,1.22034e-01,1.17276e-01,
-1.72861e-01,1.52271e-01,-3.00249e-02,8.80036e-02,-9.33190e-02,3.27543e-01,-2.05472e-03,5.26334e-01,1.62396e-01,-1.82767e-01,-8.29385e-02,1.61797e-01,2.22820e-01,-3.79961e-02,-8.73153e-02,2.50380e-01,1.08249e-01,3.77602e-01,-1.91706e-01,-9.50876e-02,1.15783e-01,1.35907e-01,3.36932e-01,-4.50502e-01,-1.32254e-02,-1.17519e-01,-7.22672e-02,-2.89918e-02,-2.19683e-01,3.39485e-01,-9.48188e-02,3.27535e-01,4.14168e-02,-1.34253e-01,-1.24170e-01,1.66559e-01,-8.51730e-02,1.24868e-02,4.13230e-02,-2.64423e-01,-2.50910e-01,1.24331e-01,1.26339e-01,4.24100e-02,2.42173e-01,
3.09478e-02,-5.32459e-02,3.51331e-02,-1.45089e-01,2.71177e-02,-1.15201e-02,-1.74282e-01,7.15115e-01,-1.14070e-01,9.05814e-02,-1.62227e-01,6.48256e-02,2.77333e-01,-3.92644e-02,3.50560e-02,-9.57168e-02,1.22108e-01,7.69962e-02,1.48550e-01,-2.40817e-01,2.46063e-02,9.02320e-02,6.02600e-02,-1.53508e-01,3.44825e-02,2.23694e-01,1.26695e-03,3.60531e-01,1.46159e-01,1.27136e-01,-8.41258e-02,-1.16332e-01,2.64244e-01,7.29747e-02,-1.92712e-01,2.89541e-01,-1.12637e-02,1.13610e-01,-3.49889e-01,-1.14190e-01,-9.00090e-02,2.32732e-01,-3.24798e-01,-2.22946e-01,-1.41028e-02,
2.05537e-01,-7.24008e-02,-3.41974e-01,3.83952e-02,1.40206e-01,-1.59766e-01,-1.80395e-01,5.54948e-01,1.08181e-02,1.52775e-01,2.15394e-02,1.83653e-01,-3.12425e-01,-1.60420e-01,1.09810e-01,-2.94065e-01,-1.28929e-02,2.12197e-01,4.09229e-01,9.11374e-02,-6.34017e-02,3.04056e-01,6.02435e-02,-2.94721e-01,-4.78222e-01,2.50307e-01,-9.27179e-03,2.67697e-01,-3.13514e-01,1.15334e-01,-1.71840e-01,-1.59558e-01,-1.14757e-01,-2.99043e-02,7.60569e-02,3.13074e-02,-6.60285e-02,2.55562e-01,1.10276e-01,-3.60968e-03,-1.26172e-01,1.67214e-01,2.84229e-02,-3.85170e-01,5.81051e-01,
2.12198e-01,-6.23075e-02,2.26104e-01,-1.86133e-01,9.97780e-02,3.58958e-01,4.37773e-02,3.77180e-01,1.33871e-02,1.19118e-01,1.13469e-01,-2.18614e-01,-1.34467e-01,-7.58979e-02,-5.61299e-02,-1.17892e-01,4.61942e-02,-6.30922e-02,-1.37898e-01,3.74341e-01,-2.33061e-01,-4.41867e-03,2.25254e-01,-4.83604e-02,-4.01717e-01,2.34559e-01,-9.87960e-02,-5.93083e-02,1.12414e-01,1.31811e-01,-9.80929e-02,3.00259e-01,4.06879e-02,-2.38006e-01,2.87718e-02,2.95427e-01,-1.21278e-01,-1.19854e-01,-5.20193e-02,-9.39802e-02,-9.43690e-03,1.56834e-01,2.38255e-01,7.27985e-02,-1.94771e-01,
6.99232e-02,1.42390e-01,1.80594e-01,-9.51421e-02,5.52405e-02,2.23303e-01,5.56209e-02,-4.10977e-01,-1.41925e-01,-1.49193e-01,2.22873e-01,-1.15475e-01,-1.74599e-01,-3.99885e-03,1.49924e-01,7.94603e-02,1.98785e-01,1.75279e-01,-9.29377e-02,-1.88216e-01,-1.12469e-01,1.91408e-01,7.34398e-02,-1.23616e-01,5.26392e-02,-2.84686e-01,-1.75309e-01,7.41684e-02,2.27803e-02,-1.63290e-01,-2.44949e-01,1.36750e-01,-1.50995e-01,2.95972e-01,1.11553e-01,-4.31006e-01,-2.13155e-01,-1.42128e-01,-1.67999e-01,-1.27673e-01,2.71669e-01,-4.17857e-01,-8.67382e-02,5.19659e-02,4.55996e-02,
7.81603e-02,-8.42287e-02,-3.46475e-02,3.48227e-01,-2.72885e-01,-2.25776e-01,-3.04235e-01,4.88591e-01,3.25930e-01,-5.28577e-02,-2.60909e-01,2.21926e-01,-9.19269e-02,6.40255e-02,3.20424e-01,-2.01136e-01,-6.57111e-03,3.42048e-01,-2.22530e-01,1.25984e-01,-4.65159e-02,3.07315e-02,-1.86997e-01,-2.61945e-01,3.68250e-02,7.33444e-02,-1.60561e-01,1.58344e-01,-2.45716e-01,2.10220e-01,4.61922e-02,-1.39909e-01,-2.80100e-01,-4.64400e-02,9.78884e-02,2.92351e-01,1.19838e-01,1.67044e-01,2.43129e-03,-2.06217e-01,6.06328e-02,-8.78947e-02,4.89248e-01,-3.28728e-01,2.24927e-01,
-1.01754e-02,3.85861e-02,-9.33445e-02,-1.13607e-01,1.18474e-01,3.42509e-01,2.18965e-01,4.14371e-01,2.76519e-01,7.85412e-03,2.19388e-01,9.93013e-02,1.00633e-01,-2.37274e-02,3.62240e-02,-1.13779e-01,1.81340e-01,3.40516e-01,-5.88765e-01,2.08557e-01,2.29480e-01,5.43576e-01,-2.05136e-02,-9.86121e-02,1.71520e-01,-4.40350e-02,2.22592e-01,1.03119e-01,-1.80641e-01,-6.94248e-02,-1.26988e-01,-2.28377e-01,-2.18088e-01,-1.80962e-03,-2.02218e-01,-1.00727e-01,-2.77765e-01,-2.03411e-01,-1.65579e-01,-2.01644e-01,3.73853e-03,-2.76509e-01,1.59330e-02,8.79436e-02,-7.23487e-02,
-2.62491e-01,1.50103e-02,5.67677e-02,1.02887e-01,-1.52846e-01,2.18642e-02,-8.48936e-02,3.59696e-02,-7.29392e-02,6.45643e-02,-2.26773e-01,-2.33354e-01,2.19214e-01,-2.31081e-01,-4.82620e-03,7.85115e-02,1.04143e-02,-2.22421e-01,2.49464e-02,-2.36600e-02,-1.04386e-01,-5.98720e-02,1.21730e-01,2.54409e-01,-2.42623e-01,1.77691e-01,-2.96706e-02,1.40845e-01,-2.90865e-02,-2.42357e-01,-7.65373e-03,-6.99991e-02,-8.97151e-02,-2.48631e-01,-2.32265e-01,-4.29903e-02,9.37839e-02,2.17378e-01,-1.85774e-01,-3.44291e-02,-6.88126e-02,-9.58648e-02,2.46799e-01,-1.17913e-01,-5.19644e-03,
1.64563e-01,9.07882e-02,-8.22867e-02,2.15386e-01,1.89413e-01,-1.61579e-01,-6.18870e-02,3.13196e-01,-1.56602e-01,-8.58527e-03,-1.43646e-02,-1.10612e-01,6.76951e-02,1.38503e-01,1.46985e-01,-4.63440e-02,-1.65932e-02,3.21309e-01,-8.55393e-02,2.51869e-01,-2.78331e-01,1.82322e-01,2.32904e-01,2.78030e-01,1.94132e-01,-2.01631e-01,9.06606e-02,1.04659e-01,-4.51604e-02,1.88474e-01,-6.88250e-02,-3.14219e-01,-1.95313e-01,1.46963e-02,5.90137e-02,1.70016e-01,-1.36253e-01,-2.14163e-01,1.28085e-01,2.10468e-01,-2.73772e-01,1.17640e-01,1.83241e-01,1.83395e-01,3.74137e-01,
-7.81631e-02,2.48712e-01,3.31353e-01,-9.05539e-02,-1.22110e-02,1.05346e-01,1.90760e-01,-2.37584e-01,-5.14081e-02,-1.34378e-01,-5.48688e-02,1.03874e-01,2.98866e-01,-1.90639e-01,2.43738e-01,-2.09881e-01,-1.34345e-01,1.65702e-02,4.82945e-02,1.20483e-01,-1.48461e-01,1.01248e-01,3.67962e-02,-3.98805e-02,1.08122e-01,-3.16559e-01,2.61839e-01,1.04927e-01,1.15313e-01,-1.45883e-01,-2.01397e-01,3.88693e-01,7.96213e-02,2.70561e-01,9.06892e-02,-4.44483e-01,2.35536e-02,1.63370e-02,-2.43833e-01,1.33256e-01,1.65004e-01,-2.57733e-01,-1.86988e-01,2.24783e-01,-6.03895e-01,
-1.63831e-01,2.06514e-01,4.58982e-02,1.66918e-01,2.26159e-01,1.81093e-01,-2.68843e-01,9.27956e-02,2.57264e-01,-2.13537e-02,1.89695e-01,9.98563e-02,1.58799e-01,-2.28859e-01,-5.53076e-02,-1.91907e-01,1.02925e-01,-2.63429e-01,-1.93363e-01,6.76611e-02,-5.60318e-02,3.10282e-01,-2.17833e-01,1.85968e-01,-7.63084e-02,-2.09253e-01,2.07012e-01,-1.82880e-02,-1.88478e-01,1.78477e-02,1.16140e-01,-1.50553e-01,-1.31901e-01,-2.58139e-02,1.22686e-01,7.85441e-02,2.55144e-01,1.28403e-01,1.73453e-01,5.76368e-02,-2.97346e-01,1.44218e-01,-8.28247e-02,1.99993e-01,1.27075e-01,
8.12941e-02,-1.36608e-01,3.07400e-02,3.44187e-01,-8.97754e-02,6.55018e-02,-2.47836e-01,-4.24184e-01,-6.25503e-02,2.56163e-01,2.31601e-01,1.01313e-01,-7.85607e-02,-1.54853e-01,1.04840e-01,-1.90802e-01,-2.19740e-01,-1.40722e-01,-5.62904e-02,2.98135e-01,-1.88371e-01,-1.93904e-01,1.92624e-01,1.62938e-01,1.95548e-01,7.69470e-02,-4.82820e-02,-1.12031e-01,2.16320e-01,-6.08927e-02,1.17045e-01,2.15386e-01,2.05425e-01,1.16451e-01,1.65674e-01,4.64250e-02,-2.35067e-02,6.29886e-02,2.75745e-02,1.74363e-01,1.22383e-01,2.35733e-01,2.34075e-01,8.11902e-02,-2.76364e-01,
1.34067e-01,2.54305e-01,3.21714e-03,7.95979e-03,-9.68842e-02,1.18599e-01,4.97191e-02,-5.52867e-01,-1.94342e-01,2.06609e-02,2.21902e-01,1.96931e-01,1.65571e-01,6.47014e-02,1.64748e-01,-2.27823e-01,-1.08165e-01,-2.03618e-01,-7.24946e-02,1.46742e-01,1.36942e-01,-2.22069e-01,-3.37388e-01,-7.62735e-02,3.67572e-01,1.38974e-01,-1.37522e-01,7.69997e-02,2.16721e-02,6.69376e-02,-1.38308e-02,2.01375e-01,-3.92940e-02,4.51953e-02,-2.23082e-01,-1.62294e-01,1.35928e-01,2.18245e-01,8.98353e-03,-5.62882e-03,3.72691e-01,-2.49185e-01,2.22419e-01,-2.67750e-01,-4.60356e-02,
3.18094e-01,-1.23885e-01,-1.27102e-01,-1.08829e-01,1.47159e-01,7.55627e-02,-2.22483e-01,-1.90140e-01,2.83304e-01,2.15696e-01,-2.10347e-01,2.91276e-01,1.65307e-02,2.75179e-01,-6.28401e-02,2.00086e-01,5.87739e-02,-1.81797e-01,1.75931e-01,-9.07326e-02,-5.92181e-02,-3.33914e-01,-4.00654e-01,-2.21536e-01,1.35564e-01,1.95482e-01,2.11018e-01,-2.37137e-01,2.82775e-01,7.01685e-02,8.72097e-02,-5.48088e-02,2.79321e-01,5.68451e-02,-2.94009e-02,8.93028e-02,-3.57820e-02,-6.92415e-02,2.12106e-01,8.00428e-02,-1.69725e-01,4.99641e-02,-1.86590e-01,-1.70909e-01,-1.61222e-01,
-1.71482e-01,1.26465e-01,-3.01934e-01,-2.02249e-01,-2.84422e-02,-8.41119e-02,1.41562e-01,-3.64641e-02,-3.21308e-01,8.12067e-02,4.05124e-03,-2.72662e-01,6.16460e-02,3.15223e-03,-1.44498e-01,1.15131e-01,-2.08282e-01,-2.81430e-01,-2.44211e-01,-8.89790e-02,2.54139e-01,-5.77965e-01,3.15374e-01,5.25100e-01,-2.76941e-01,-3.06220e-01,1.96240e-01,-1.38473e-01,-8.29211e-02,-2.09973e-01,-1.84986e-01,-7.92530e-02,1.11183e-02,2.49595e-01,3.61707e-01,-1.20486e-01,2.32724e-02,4.25778e-01,-1.08155e-01,1.38913e-01,1.84422e-01,1.39117e-01,2.30565e-01,-3.12895e-02,1.66664e-01,
1.76638e-01,-1.67859e-01,-3.49803e-01,3.50165e-01,-9.54207e-02,1.25102e-02,1.21452e-01,1.99105e-01,2.26802e-01,-3.21370e-02,2.63413e-01,1.22713e-01,-1.69536e-02,-4.25359e-02,2.34312e-01,-6.09453e-02,-2.52833e-01,2.77260e-01,4.31936e-01,3.14381e-01,-7.06958e-02,1.81410e-01,-2.30781e-02,1.68735e-01,-8.71438e-02,2.33187e-01,9.51755e-02,1.17265e-01,2.12176e-01,1.98297e-01,5.94423e-03,-2.88705e-02,2.34512e-01,2.88529e-01,1.13618e-01,4.30448e-03,8.52645e-02,-1.81914e-01,1.34500e-01,2.13200e-01,-3.19216e-01,-1.50975e-02,1.06919e-01,-1.02012e-02,3.30938e-01,
3.27687e-02,-1.32594e-01,-1.82119e-01,1.99260e-01,3.48573e-01,-8.41074e-02,3.59765e-01,-3.87203e-01,2.23189e-01,-1.53185e-01,-1.18105e-01,1.53752e-02,1.76075e-01,1.33461e-01,-2.11208e-01,-7.41935e-03,2.13368e-01,-4.25376e-01,1.88089e-01,-1.60646e-01,-2.37963e-01,-1.41894e-01,3.30139e-03,-1.49528e-01,1.80587e-01,-1.55336e-01,-2.18625e-01,4.33484e-03,-8.14841e-02,9.29198e-02,1.96378e-01,4.85440e-02,-2.02601e-01,1.36514e-01,2.22762e-01,2.01409e-01,-4.99621e-02,-1.60914e-02,-9.10443e-02,-7.02428e-02,2.50671e-01,-1.29894e-01,-2.14078e-01,1.40863e-01,2.68030e-01,
2.98765e-01,2.34410e-01,-1.81115e-01,-8.86858e-02,-8.09933e-02,3.66243e-01,2.19553e-01,-4.89028e-01,1.18240e-01,6.12291e-02,-2.02366e-01,-5.69861e-02,-6.16480e-02,1.28994e-01,-2.48802e-01,-3.57966e-03,1.20813e-01,3.28888e-01,-3.32214e-01,1.07805e-01,2.02901e-01,1.22132e-01,-3.25355e-01,-3.65667e-01,-1.77289e-01,8.29793e-02,-1.20634e-01,5.37333e-02,1.58913e-01,4.33834e-02,-4.99416e-01,-2.36671e-01,-5.30692e-01,8.70538e-02,-1.79256e-01,-3.38774e-01,3.23502e-01,-2.48040e-01,-6.67396e-02,-6.19335e-02,8.29084e-03,-3.58564e-01,1.87259e-01,1.63620e-01,-1.28984e-04,
-1.66822e-01,-1.49690e-01,1.19544e-01,-1.93007e-01,-2.81844e-01,-1.65979e-01,8.45115e-02,-2.15114e-01,-4.81668e-02,-6.44088e-02,-7.37297e-02,-2.46395e-01,1.21351e-01,1.45620e-01,-2.13434e-01,1.76727e-01,2.71828e-01,4.47935e-02,-9.93163e-02,5.82676e-02,7.62358e-02,2.78588e-01,2.07613e-02,1.17216e-01,-1.34554e-02,2.32003e-02,2.18902e-01,8.77603e-02,2.86626e-02,-6.96390e-02,-1.55336e-01,1.93493e-01,2.52071e-01,-2.20539e-01,-4.89190e-02,-1.67688e-03,2.47936e-02,9.23105e-02,1.01503e-01,2.60907e-01,7.75047e-02,7.91224e-03,1.11143e-01,3.53690e-01,-2.41731e-01,
1.53722e-01,-1.81456e-01,7.30568e-02,3.03707e-01,1.99934e-01,3.40895e-02,5.54874e-02,-3.04735e-01,2.07755e-01,-1.59862e-02,-1.76651e-01,2.45275e-01,2.64528e-01,1.65291e-01,-9.01143e-02,-1.74246e-01,1.83138e-01,1.03575e-02,-8.36514e-02,-1.17230e-01,2.86155e-01,1.65748e-01,-3.48408e-01,1.42114e-01,1.26328e-01,-3.79946e-02,-2.71989e-02,-1.06081e-01,3.00542e-01,-8.81600e-03,2.12582e-01,-2.36869e-01,3.17861e-01,-7.66712e-02,-2.21566e-02,-4.52232e-02,-2.43310e-02,9.02348e-02,-1.21996e-01,-2.19541e-01,1.36339e-02,-1.81304e-01,-6.62607e-02,-9.38403e-02,-3.79198e-01,
2.06087e-01,-1.67210e-01,-2.78904e-01,2.72745e-02,-1.66399e-01,2.08103e-01,-3.17853e-01,7.07506e-01,2.22222e-01,1.84672e-01,-8.55909e-02,2.76254e-01,-5.07296e-02,-2.66605e-01,-2.33669e-01,-9.71742e-02,-2.00432e-01,-1.09184e-01,-2.87411e-01,3.17618e-01,-7.95429e-02,-2.34521e-02,2.72480e-01,4.26988e-02,-2.74370e-01,-6.22925e-02,2.66842e-01,2.38915e-01,6.18136e-02,-1.26997e-01,-5.15994e-02,3.70153e-01,-4.51099e-02,-1.93783e-01,2.30537e-01,3.73587e-01,-6.17080e-02,2.34645e-01,2.01590e-01,7.03171e-02,3.76067e-02,1.87328e-02,2.77819e-01,-2.24726e-01,1.01512e-01,
3.26956e-02,-2.60987e-01,-1.80972e-02,-1.33608e-01,2.38646e-01,3.80054e-01,-7.59909e-03,-2.05064e-01,-1.96805e-01,-2.51403e-01,-1.44044e-01,-8.31110e-02,-6.61669e-02,-2.48050e-01,-2.10537e-01,2.73572e-02,-7.09290e-02,-8.60626e-02,-3.45465e-02,-5.60581e-01,-6.15208e-02,-1.67013e+00,2.31105e-01,8.99410e-02,-3.58465e-01,-4.86320e-02,2.06507e-01,-2.19590e-01,-2.89533e-01,1.60249e-01,-1.07418e-01,1.99741e-01,1.21490e-01,-2.46057e-01,-1.34588e-01,4.40015e-02,7.00996e-02,8.06186e-02,-2.77131e-02,8.76793e-02,-1.36757e-01,2.91950e-01,2.00196e-01,-3.30696e-01,2.20590e-01,
-1.85172e-01,-9.89803e-02,5.16225e-02,4.84961e-02,-1.14119e-01,-1.70500e-01,2.42516e-01,-1.88960e-01,1.74303e-01,9.34553e-02,3.35127e-02,2.13286e-01,8.27373e-02,1.26105e-01,-1.59515e-01,2.39341e-01,-1.05153e-01,-2.85934e-01,-1.80715e-01,-9.51414e-02,2.51503e-01,-1.14477e-01,6.24758e-02,-1.76226e-01,-8.78449e-02,1.17611e-02,-8.15642e-02,-1.93759e-01,5.91378e-02,-2.25866e-01,1.44531e-01,3.87149e-02,-2.02156e-01,1.20571e-01,2.57605e-01,-4.52795e-02,1.79475e-01,-8.62510e-02,1.77061e-01,1.23128e-01,1.35309e-01,9.49562e-02,2.81256e-01,2.01721e-01,-1.98641e-01,
-1.84615e-01,-3.51824e-02,-1.33017e-01,1.88243e-01,3.62113e-02,2.79339e-01,-2.29115e-01,-1.18629e-01,-2.16214e-01,2.42088e-01,9.85557e-02,2.42309e-01,-1.62695e-01,-1.84269e-01,1.91708e-01,6.10896e-02,1.15813e-01,-2.34192e-02,1.95529e-01,1.74221e-01,2.45568e-01,1.97895e-02,1.78941e-01,3.13306e-01,-3.96100e-02,2.18291e-01,1.47633e-01,1.95212e-01,3.81666e-02,-1.54275e-01,2.01477e-01,2.97568e-02,1.66782e-01,1.04830e-01,1.06512e-02,8.51930e-02,-2.23383e-01,1.53801e-02,2.55010e-01,5.47507e-02,1.97961e-01,-5.49961e-02,-1.69836e-01,-1.86690e-01,1.17711e-01,
2.03437e-01,-1.39354e-01,-1.84669e-02,2.67036e-01,-2.81661e-01,-1.97937e-01,-8.72812e-02,-5.47899e-01,-1.63125e-01,2.73917e-01,8.41270e-02,1.22994e-01,-7.25729e-02,-2.19560e-01,1.86502e-01,9.81626e-02,2.05183e-01,2.98195e-01,1.65090e-01,2.33756e-01,1.17039e-01,-1.49282e-01,-2.49268e-01,-4.32592e-01,2.92970e-01,2.70657e-01,-1.87115e-01,-1.77131e-02,-1.34455e-01,2.37484e-01,-4.55569e-02,-2.02518e-01,-1.17646e-01,8.32365e-02,-8.97449e-02,-8.10546e-02,1.41359e-01,3.35825e-01,1.15392e-02,-2.02833e-02,2.84807e-01,-1.05553e-01,3.63053e-01,-2.49998e-01,-2.23031e-01,
-1.86569e-01,-1.02635e-01,-3.20079e-01,7.58872e-03,-1.38976e-01,-1.54137e-01,1.33764e-01,1.28354e-01,1.11350e-01,4.73560e-03,-1.31425e-01,1.76228e-01,-2.06913e-01,1.00650e-01,-2.76255e-01,-1.59497e-02,7.89957e-02,4.62854e-01,6.60511e-02,8.48112e-02,-2.17046e-01,2.10831e-02,2.40529e-01,-4.10778e-01,-1.16522e-01,1.55246e-01,2.15060e-01,2.82985e-01,-8.32275e-02,3.34327e-02,-1.11471e-02,3.24926e-01,-9.40425e-02,1.89333e-01,-2.58511e-01,2.03734e-01,-3.05406e-01,8.75701e-02,-1.44207e-02,2.40336e-02,-1.87331e-01,-2.70036e-02,1.54376e-01,-5.99505e-02,4.67826e-01,
-1.37426e-01,1.47945e-01,-2.33261e-01,2.28212e-01,8.72192e-02,-1.04716e-01,-2.14484e-01,4.92188e-02,-7.06103e-02,-5.12821e-02,2.13601e-01,-1.61468e-01,-1.46386e-01,-1.41438e-01,-2.96440e-02,5.76765e-02,-2.05678e-01,-3.79824e-01,1.58570e-01,2.61244e-01,-2.00060e-01,1.92272e-01,4.76968e-01,-2.04859e-02,-2.29033e-01,2.71181e-01,2.91714e-01,9.44938e-03,3.30838e-02,1.73027e-01,1.59745e-01,3.46085e-01,1.71373e-01,1.62878e-01,1.75509e-01,2.47884e-01,-1.15936e-01,1.19886e-01,-1.27056e-01,2.17133e-02,-1.34811e-01,1.73376e-02,-2.77990e-01,-2.92239e-01,-4.32021e-02,
1.49430e-01,-5.16751e-02,2.02996e-01,1.60943e-01,-3.36878e-03,-1.60507e-01,-2.57069e-01,-4.82323e-02,1.54187e-01,-1.18857e-01,-2.19014e-01,2.72875e-01,-1.97115e-01,3.10449e-02,-1.30982e-01,-1.82933e-02,-1.12568e-01,3.21204e-01,-3.61824e-01,-1.29524e-01,3.03003e-01,-1.07615e-01,6.62294e-02,-5.61786e-01,-2.46213e-01,2.74599e-01,1.93407e-01,3.30140e-01,-1.36003e-01,1.73927e-01,2.71796e-01,8.34072e-02,6.53322e-02,3.28160e-02,2.39309e-01,2.50762e-01,-1.93168e-01,-1.01406e-01,-2.09532e-01,1.03454e-01,-1.34498e-01,-1.62016e-01,-4.02620e-01,-3.42302e-01,-1.85179e-01,
-1.63351e-01,5.79016e-02,-9.95788e-02,2.77441e-01,-2.58691e-01,-1.03219e-01,1.90137e-01,-9.64085e-02,-7.13583e-02,-1.26079e-01,-1.33415e-02,2.51610e-01,2.33594e-01,1.75409e-01,-1.86497e-02,1.31598e-01,4.97701e-02,2.66227e-01,8.33932e-02,1.09326e-01,-2.16864e-01,-2.95889e-01,-3.59563e-01,-7.18619e-02,2.21535e-02,1.94400e-01,3.06298e-02,9.31383e-02,-2.37164e-02,2.65634e-02,-4.89201e-02,3.13190e-02,9.67858e-02,9.09933e-03,1.83297e-01,1.52336e-01,-2.34689e-01,-1.19276e-01,1.61712e-01,-1.87109e-01,1.48269e-01,1.08084e-02,-1.70622e-01,-1.93542e-02,-2.29757e-01,
-6.56809e-02,-1.36403e-01,-2.55012e-01,1.48116e-01,2.47664e-01,1.08418e-01,-7.74083e-02,1.02491e+00,6.35123e-02,-1.27933e-01,-1.46914e-01,-1.04383e-01,1.38360e-01,-1.07850e-01,-1.29651e-01,1.65002e-01,-7.40592e-02,-3.59497e-03,-2.54432e-01,-2.29223e-02,-2.46629e-01,2.75864e-01,3.01724e-01,-2.87332e-01,-6.51333e-01,1.69924e-01,8.64125e-03,2.36319e-02,1.44458e-02,1.59138e-01,2.02332e-01,1.04857e-01,1.01049e-01,5.72643e-02,-1.96648e-01,6.36843e-02,9.63781e-02,1.66753e-02,-2.59531e-01,-2.70352e-01,-2.02428e-01,-1.43601e-01,4.70903e-02,-3.83357e-01,-1.36826e-01,
-2.59451e-01,1.52312e-01,3.81756e-02,-3.24176e-01,1.27328e-01,1.23805e-01,6.44582e-02,-7.68326e-02,-1.48216e-01,1.74486e-02,1.69397e-01,1.24211e-01,-3.06699e-01,1.75951e-01,-1.62204e-01,1.32340e-01,-4.00682e-02,7.34295e-02,-3.33738e-01,-5.67326e-02,-1.17397e-01,-3.24623e-02,2.19290e-01,-1.85408e-01,5.03940e-02,1.25193e-01,-3.02270e-02,-1.55537e-01,-1.08141e-01,1.63397e-01,1.87898e-01,2.34603e-01,2.42706e-01,2.33454e-01,2.24163e-01,2.06141e-01,-6.93345e-02,1.59143e-01,-3.12932e-01,3.10387e-01,-1.30073e-02,-1.32225e-01,7.79714e-02,1.07058e-01,-2.34557e-01,
2.20080e-01,1.39711e-01,-1.02971e-01,-5.91768e-02,3.18211e-01,1.04603e-01,-1.51595e-01,-2.04400e-01,4.83789e-02,1.90232e-01,2.44804e-01,1.83576e-01,2.34209e-01,-1.39102e-02,3.02043e-01,1.30103e-01,1.46863e-01,-1.40128e-01,8.56702e-02,-6.85549e-02,2.05423e-01,-3.00250e-01,3.27285e-02,-4.22970e-01,7.96636e-02,-9.47949e-02,-2.32462e-01,2.01492e-01,1.29761e-01,1.97956e-01,2.46279e-01,-2.24038e-01,7.06050e-02,-7.39768e-02,1.56553e-01,2.19426e-01,7.03537e-02,2.07964e-03,5.68642e-02,-1.39492e-01,-1.25529e-02,1.09445e-01,-8.48268e-02,1.36098e-01,5.33625e-02,
-1.11507e-01,-1.22457e-01,-1.14904e-01,1.06912e-01,-1.40702e-01,-4.85642e-02,-2.73911e-01,-1.78378e-01,1.20226e-02,-8.36269e-03,5.67708e-02,-1.90811e-01,1.24008e-01,7.79512e-02,5.55460e-02,1.68940e-01,5.59165e-02,-2.81687e-01,2.52436e-01,6.55718e-02,9.47712e-02,-1.85093e-01,1.49978e-01,3.93451e-01,6.68287e-02,2.12997e-01,-8.15928e-04,2.36896e-01,-1.66675e-01,2.18045e-01,-1.29232e-01,5.07687e-02,-3.69518e-02,-1.74605e-01,5.33063e-02,-7.33845e-02,-9.24389e-02,2.89207e-01,-8.59341e-02,-1.18992e-01,1.18932e-01,2.27323e-01,8.61164e-02,-2.89487e-01,8.78388e-02,
4.42222e-02,-1.74481e-02,-1.56923e-01,-7.23922e-02,8.51196e-02,-1.79296e-01,2.63475e-01,-4.61160e-01,-2.14378e-01,8.77967e-02,6.46082e-02,-2.05192e-01,-6.64741e-02,-1.48250e-01,-9.10038e-02,-1.50005e-01,2.18050e-01,-1.96827e-01,-2.44461e-01,1.62392e-01,2.56352e-01,-1.66680e-01,-1.22263e-01,-1.03617e-01,2.10843e-01,-9.31187e-02,1.14578e-01,-1.32990e-01,1.24631e-01,1.87896e-01,-6.39171e-02,-2.92234e-01,2.69283e-01,2.42790e-01,-1.60311e-01,-2.52268e-01,7.98724e-02,2.45833e-01,-1.14768e-01,-2.17033e-01,4.70085e-02,1.65132e-01,2.87177e-02,-9.48369e-02,2.34705e-02,
8.33943e-02,
7.23600e-03,
-3.64958e-02,
-7.52854e-03,
2.41855e-03,
7.65596e-02,
2.68599e-02,
4.59339e-02,
4.98806e-03,
-3.64364e-02,
1.49507e-02,
1.14071e-02,
2.37014e-02,
2.95976e-04,
3.31735e-03,
3.89129e-02,
-9.15162e-02,
-2.05801e-02,
-1.07025e-02,
-5.25852e-02,
-1.21261e-02,
7.19410e-04,
-8.94373e-03,
-3.02888e-03,
6.36359e-03,
4.83736e-02,
-3.90226e-02,
3.38661e-02,
-1.85742e-02,
6.95306e-02,
7.79335e-03,
2.96029e-02,
1.27901e-02,
3.20143e-02,
9.89186e-03,
-8.19592e-03,
5.32071e-02,
9.29259e-03,
5.21979e-02,
4.05486e-02,
4.66741e-03,
2.21429e-02,
-8.11824e-03,
2.53547e-03,
6.13116e-03,
-1.72488e-01,5.06207e-02,-3.75613e-03,-1.82008e-01,-1.99561e-01,-1.25105e-01,-8.75510e-03,7.80975e-02,2.74233e-01,4.69737e-02,4.74872e-02,-8.16059e-02,1.60126e-01,1.69344e-01,-1.53309e-02,-8.70201e-03,-2.63530e-01,-1.89198e-01,-1.25083e-02,3.09254e-01,-3.10549e-01,2.88973e-01,-2.17789e-02,-1.88976e-01,7.29099e-02,1.31497e-01,2.73879e-01,4.20095e-02,3.42591e-01,9.46981e-02,1.06661e-01,8.04559e-02,-1.68172e-02,4.36576e-02,2.01624e-01,-2.21399e-01,8.68878e-02,-1.03144e-01,-5.97534e-02,1.36609e-01,-3.24983e-02,-1.36363e-02,-4.87318e-02,3.11028e-01,-7.10026e-02,
6.82892e-02,1.53857e-01,-2.71642e-01,-1.96742e-01,-3.19389e-01,4.46430e-02,-1.64893e-01,-1.41546e-02,1.51369e-02,-2.24790e-01,5.93471e-02,-2.63106e-01,1.44146e-01,1.59645e-01,3.73726e-01,6.44148e-02,-1.37241e-01,3.03640e-01,-1.16269e-01,-1.24186e-01,-1.97568e-02,2.12641e-01,-3.86721e-02,3.47217e-02,-2.57521e-01,3.30547e-01,-1.55692e-01,-4.04773e-01,2.05040e-01,3.73517e-01,-2.37987e-01,1.24696e-01,-1.12272e-01,2.46184e-01,2.50810e-01,-6.82811e-02,3.56131e-01,7.45764e-03,-2.79405e-01,-1.95804e-01,-6.95893e-01,1.92159e-01,-4.33776e-02,-9.48699e-02,-5.71762e-02,
-4.76754e-02,-1.94248e-01,-3.17434e-01,-2.96406e-01,-7.17040e-01,-1.71554e-01,9.72852e-02,-1.51297e-01,9.81352e-02,1.62855e-01,-1.59815e-01,-3.77967e-02,-2.53851e-01,2.54138e-01,-1.80320e-01,-3.00486e-02,-4.37978e-02,2.09793e-01,1.99480e-02,1.37123e-01,1.29365e-01,-1.15834e-01,1.19204e-01,3.64300e-02,-7.93493e-03,-1.74830e-01,2.12977e-01,-9.58149e-02,2.66994e-01,1.49363e-01,1.23416e-01,-3.07006e-01,9.59160e-02,-4.22542e-02,-2.43836e-01,2.72315e-01,-8.88169e-02,-1.44585e-01,-1.80041e-01,8.12129e-02,-8.39084e-02,-3.34572e-01,5.44661e-04,1.75606e-01,8.85409e-04,
1.03439e-01,-1.98767e-01,-3.22351e-01,-4.75964e-02,1.85960e-02,6.07530e-02,3.65987e-01,1.39228e-01,1.78457e-01,-1.79103e-01,-2.54951e-02,-1.54939e-01,-2.31617e-01,-3.90811e-01,-1.63483e-01,2.25439e-01,3.51823e-01,-3.97512e-02,-1.84882e-01,-3.26692e-01,3.03011e-01,7.51488e-02,-1.30353e-02,3.22935e-01,2.22244e-01,-2.56331e-01,-1.97861e-01,-3.02869e-02,5.83765e-02,-2.78731e-01,1.64623e-01,1.87792e-01,7.13819e-01,1.31525e-02,1.56026e-01,1.63459e-01,-1.10585e-01,-2.02618e-01,2.58117e-01,5.52688e-02,6.05448e-01,-8.23430e-02,2.04913e-01,-1.45735e-01,1.90256e-01,
-1.06376e-02,2.41920e-01,2.10057e-01,-1.83521e-01,-1.90129e-01,3.73289e-02,-3.60599e-01,4.03874e-02,-8.58780e-02,-1.29043e-01,-2.73418e-02,-2.87605e-02,3.62146e-01,-5.77820e-02,7.16855e-02,-5.99935e-02,-1.64210e-02,-1.55018e-01,-1.58573e-01,-1.51753e-01,-2.36516e-01,-2.66025e-01,-1.14347e-01,-1.94324e-02,-5.24683e-02,2.01133e-01,1.08604e-02,-3.70746e-02,2.02817e-01,1.19296e-01,-1.67455e-01,-1.53131e-01,-4.07816e-01,1.21793e-02,-1.03285e-01,3.33994e-01,1.57343e-01,-1.16123e-01,-4.28704e-02,-2.23392e-01,-1.68112e-01,2.61233e-01,-1.78215e-01,2.46043e-01,-1.50341e-01,
-9.20627e-03,6.16164e-02,-5.97904e-02,-3.82523e-02,9.43785e-02,1.64128e-01,4.81896e-02,2.14866e-01,-1.31429e-01,7.26297e-03,3.61390e-02,8.84559e-02,-2.73524e-01,1.10921e-01,1.13955e-01,8.37490e-03,1.77912e-02,-1.49034e-01,2.49222e-01,-6.58857e-02,-1.22794e-01,1.62125e-01,-2.27078e-01,-1.74933e-01,-6.42746e-02,1.03683e-02,-1.39126e-01,-2.40193e-01,-2.33238e-01,1.73370e-01,-1.08809e-01,-8.06478e-02,1.68186e-01,-1.05523e-02,-1.07899e-01,-5.52570e-02,-1.28451e-01,2.25513e-01,-2.10902e-01,1.97637e-01,-2.04250e-01,-2.84511e-02,-2.33592e-02,-1.08766e-01,-2.34434e-01,
-6.94632e-02,-1.82356e-01,3.35294e-02,4.03489e-02,1.04665e-01,1.07834e-01,-1.44391e-01,-1.99559e-01,-6.35539e-02,-1.29468e-01,7.10891e-02,-2.09815e-01,3.07840e-01,8.36101e-02,1.73584e-01,-1.09235e-02,3.02464e-01,1.78588e-01,1.95470e-02,-1.63294e-01,-2.78260e-01,9.78502e-02,-5.99609e-02,-1.80156e-01,2.81194e-02,2.55024e-02,1.90217e-01,-2.85096e-01,3.03714e-01,-3.81119e-01,-8.71795e-02,4.09573e-01,5.88636e-01,-6.46670e-02,1.44840e-01,1.59959e-01,9.13650e-02,-5.53374e-02,-2.89591e-02,-3.41553e-02,-3.41791e-01,-1.64393e-01,4.20825e-02,1.77634e-01,-1.09598e-01,
3.38515e-01,1.17998e-01,-2.77285e-01,2.59191e-01,-6.17043e-02,1.32647e-01,2.50899e-02,2.02341e-01,-2.67184e-01,2.49223e-01,2.86563e-01,2.89873e-01,9.25573e-03,2.80128e-01,-2.66145e-02,-1.03145e-01,5.50349e-02,-3.68880e-02,-2.26664e-01,-3.90963e-01,2.57038e-02,-2.23723e-01,2.57976e-03,-1.81834e-01,-1.05756e-01,-6.90403e-01,1.53967e-01,-3.49249e-04,-6.24044e-01,-3.85873e-01,-2.38137e-01,-1.35729e-01,-1.52335e-01,-1.11160e-01,1.84353e-01,-1.37383e-01,2.21942e-01,-2.12666e-01,1.10277e-01,1.77104e-01,-1.62297e-01,2.39170e-01,5.00555e-02,4.66234e-02,7.09366e-02,
-5.54754e-02,-1.20308e-01,-1.81856e-01,1.00392e-01,6.82539e-02,2.70165e-01,5.11976e-02,-2.85401e-01,1.45209e-02,-2.55465e-01,-3.94640e-01,-1.63196e-01,-1.19926e-01,-5.66286e-01,2.86119e-01,-2.54947e-01,-3.71478e-01,2.17314e-01,-4.58189e-02,3.03766e-01,4.65848e-02,-7.32009e-03,2.28784e-01,2.14754e-01,5.33585e-02,-1.81986e-01,-1.08224e-01,-2.78405e-01,-3.29197e-01,-8.02575e-02,2.12988e-01,-2.74174e-01,2.57623e-01,1.16108e-01,-7.07939e-03,-6.39996e-02,-1.38138e-01,5.35190e-02,3.63944e-02,-1.44056e-01,4.20622e-01,1.70269e-01,-1.42652e-01,1.02879e-01,5.70206e-02,
-1.99192e-01,-5.53719e-01,1.46013e-01,1.16164e-01,1.08932e-02,2.77179e-01,-4.01694e-01,1.35102e-01,-2.34559e-01,2.52892e-01,-4.57565e-01,-1.20068e-01,2.48769e-01,-4.07748e-02,8.98950e-02,-2.12538e-01,2.63991e-01,-7.59645e-01,-1.10236e-01,-2.16230e-01,-1.50612e-01,3.27520e-01,2.23241e-01,-2.17834e-01,-9.72865e-02,9.87693e-03,-5.32415e-02,8.25708e-02,1.91216e-01,-8.82817e-02,3.13020e-01,7.75610e-02,2.30221e-01,-7.32103e-02,7.31691e-02,6.66132e-03,-2.94159e-01,2.56065e-01,3.22879e-01,-2.19916e-01,-7.84753e-02,-2.42111e-01,2.18056e-02,-2.31649e-01,2.26397e-01,
-1.91577e-01,2.88273e-01,-1.95720e-01,-1.94494e-01,3.81458e-01,3.15393e-01,-4.22678e-01,2.48134e-01,1.90885e-01,-7.37568e-02,-2.29178e-01,-2.53616e-01,-1.03359e-01,-2.82296e-01,-8.02830e-02,1.01439e-01,-1.06485e-02,-5.08886e-01,-1.60293e-01,-3.45703e-01,-3.19730e-01,-8.50393e-02,7.17721e-02,2.39518e-01,1.80844e-01,1.72803e-01,-2.30808e-01,-2.90518e-01,2.07485e-01,2.81476e-02,2.92510e-01,1.96750e-01,1.04843e-01,1.69515e-01,-8.36023e-02,-8.42463e-02,-2.37177e-01,6.74338e-03,-9.74666e-02,4.24520e-02,3.40928e-01,1.17678e-01,9.58126e-02,-2.33114e-01,1.45495e-01,
-2.62527e-02,3.57721e-01,-5.19752e-01,2.93370e-02,-1.77208e-01,1.68562e-01,-1.63368e-01,-2.25742e-01,1.75660e-01,-2.27836e-01,-6.96454e-02,-2.03038e-02,1.05241e-01,-5.52791e-02,7.47555e-02,-5.88853e-02,-9.74055e-03,7.35722e-02,1.89225e-01,1.24075e-01,2.12561e-01,-1.58159e-01,2.38658e-01,1.98255e-01,-1.22901e-01,1.39938e-01,-8.23091e-02,1.91280e-02,3.29399e-02,-3.19618e-01,2.20757e-01,1.32603e-01,-3.26547e-01,-1.98666e-01,5.47287e-02,9.39325e-02,-3.32556e-01,1.32027e-01,-3.54514e-03,6.42997e-02,-2.71582e-01,-1.79139e-01,1.69038e-01,-1.66433e-02,5.00879e-03,
1.42529e-01,2.03499e-01,1.80991e-01,-1.60156e-01,3.50239e-02,1.25118e-01,-1.93190e-01,-1.34494e-01,3.27807e-01,-1.13644e-01,1.30185e-01,3.56311e-02,-2.00651e-01,-1.80031e-01,-1.14707e-01,-1.80909e-01,-2.03142e-01,2.09270e-01,-1.54622e-01,2.84844e-01,-9.67218e-02,-1.67308e-01,2.77330e-01,2.79707e-01,-1.36490e-01,4.00827e-01,2.04461e-01,-1.38579e-01,1.91901e-01,-1.72853e-01,-7.66239e-03,1.26350e-01,-5.89008e-01,2.07347e-01,-7.34417e-02,2.17179e-01,2.43751e-01,-8.08816e-02,-4.01655e-01,5.05829e-02,-4.82632e-01,-1.17649e-01,5.95233e-02,1.36910e-01,-1.20422e-01,
3.92518e-02,-2.49644e-02,-1.54582e-01,7.83558e-02,1.10630e-01,3.54629e-01,8.66404e-02,2.22834e-01,-6.40774e-03,-1.42518e-02,-3.19106e-01,2.64431e-01,4.04317e-01,7.09964e-02,-2.34547e-01,2.56068e-01,-1.38912e-01,-4.85228e-01,-8.53844e-02,-1.85245e-01,2.45740e-01,1.71285e-01,-3.24497e-01,-1.38156e-01,1.68129e-01,-3.82900e-01,-2.07884e-01,-2.63982e-01,-1.38382e+00,1.04201e-01,2.19706e-02,-7.92996e-02,4.11001e-01,-1.74162e-01,-5.62512e-02,-2.01408e-01,-7.37286e-02,9.37317e-02,2.00103e-01,-1.65147e-01,-1.39527e-01,5.72017e-02,3.36975e-02,1.92464e-01,1.22232e-01,
1.32909e-01,-1.42518e-01,2.11841e-01,-6.43628e-02,1.21527e-01,-3.76802e-02,-7.04876e-02,-6.02714e-02,-1.01291e-01,1.42955e-01,-2.07922e-01,-7.95323e-02,2.93378e-01,2.41501e-01,-5.01383e-01,2.78972e-01,-2.52248e-01,-2.50190e-03,-2.33517e-01,-1.82523e-01,-8.62192e-02,7.28609e-02,5.98468e-03,3.05492e-01,-8.61565e-03,-1.79667e-01,3.68282e-02,3.41571e-01,-6.78009e-01,1.06552e-01,-1.53895e-01,-1.76004e-01,-2.35102e-03,-2.37882e-01,-1.51976e-01,1.90180e-01,2.75460e-01,-1.38374e-01,-3.85882e-03,1.27218e-01,6.87376e-02,-5.80276e-02,-2.53103e-01,5.11896e-02,-1.77106e-01,
2.75168e-02,-2.67289e-02,5.26749e-01,4.98632e-02,-1.79371e-01,-2.92032e-01,-1.71905e-01,7.54581e-02,-1.57510e-01,-1.05809e-01,3.17345e-01,1.65810e-02,3.62169e-01,2.38473e-01,4.53344e-01,-2.28420e-01,3.94759e-01,4.73055e-02,-8.14876e-02,2.11159e-01,-1.71859e-01,-4.48668e-02,-1.42306e-01,-3.89415e-01,3.65794e-02,3.31267e-01,3.24361e-01,-2.66524e-01,-8.67493e-02,1.02060e-01,-2.58188e-01,6.51099e-02,2.48037e-02,-4.97389e-02,-1.78081e-01,-6.10864e-01,2.21227e-01,2.79046e-01,2.30692e-01,-1.71592e-01,-2.60987e-01,-5.41096e-02,-2.04144e-01,3.41825e-01,-9.78296e-02,
-4.37795e-02,1.56715e-01,4.39644e-02,-2.63606e-02,-1.55330e-02,2.69239e-01,2.12283e-01,-4.68882e-02,-6.65047e-02,1.53583e-01,-2.80211e-01,-2.14495e-01,1.03132e-01,-4.69762e-01,3.41981e-01,-2.08259e-01,-3.14694e-01,-2.33079e-01,1.37411e-01,-6.06846e-03,1.30529e-02,-2.68703e-02,-1.21695e-01,2.62318e-01,1.09132e-01,-1.93228e-02,4.12065e-02,-1.97788e-01,-1.35093e-01,-1.28521e-02,-8.47300e-02,1.96127e-01,3.92801e-01,1.95755e-01,5.88471e-02,-6.71867e-02,-3.82885e-01,1.30377e-01,-1.42649e-01,-1.55922e-01,-2.48081e-02,1.07066e-01,6.47137e-02,-2.33524e-02,2.95336e-01,
-5.74889e-02,7.71781e-02,3.24095e-01,6.62731e-02,-3.96040e-01,-2.19359e-01,3.49646e-02,1.24434e-01,-1.19214e-01,1.98404e-02,2.26890e-01,-2.51880e-01,-1.49794e-01,-1.31943e-01,2.29577e-01,-3.08426e-02,5.25582e-02,-8.89986e-02,-4.42177e-02,-4.68461e-02,1.56360e-01,-1.07639e-01,2.34786e-02,8.16895e-02,2.04065e-01,7.73100e-02,2.24972e-01,1.98426e-01,-1.53925e-02,3.59470e-01,-1.43536e-01,-3.45654e-03,-3.88917e-02,-6.96061e-02,1.83994e-01,-2.51671e-01,-1.24392e-02,7.81400e-02,7.98479e-02,-1.59335e-02,-4.06703e-01,1.66249e-01,-7.86411e-02,2.31164e-01,-4.52384e-02,
2.83103e-01,3.60998e-02,5.74784e-02,7.11467e-02,-2.81988e-01,7.65254e-02,-3.94837e-02,-5.54944e-02,-3.86233e-02,2.37487e-01,3.32989e-01,4.03953e-01,1.77457e-01,1.25196e-01,-3.09642e-01,9.89576e-02,1.05921e-01,-1.51349e-02,2.04372e-01,2.17318e-01,-5.65411e-02,-1.95546e-01,2.93515e-01,1.56881e-01,-2.27689e-01,-2.32021e-01,1.27947e-01,2.38581e-01,-1.49237e-01,7.27844e-02,-9.60163e-02,2.53397e-01,-3.85350e-01,-1.13117e-01,1.35921e-01,2.85217e-01,2.89194e-01,2.14512e-01,2.83845e-01,4.14808e-02,-4.00395e-01,2.78621e-01,2.60291e-01,-1.73016e-01,1.26206e-01,
5.22716e-02,3.37394e-02,1.44164e-01,-1.66141e-01,1.70384e-02,1.06494e-02,-1.87099e-01,1.73728e-01,-2.63512e-01,2.00752e-01,9.69644e-02,-1.78387e-01,-9.35762e-02,-2.10938e-01,9.20359e-02,-4.89446e-02,-2.37466e-01,1.31218e-01,-1.73018e-01,1.19530e-01,-2.47312e-01,-2.29007e-01,-2.65431e-01,7.42303e-02,1.12348e-01,1.22406e-01,3.05301e-02,-2.10887e-01,1.40697e-01,1.77783e-01,4.31886e-02,-1.23115e-01,-2.36695e-01,-1.70163e-01,6.88288e-02,1.08950e-01,-3.18464e-02,-2.07046e-01,-2.48733e-01,-1.69760e-01,9.15026e-02,7.74308e-03,1.02073e-01,-6.90955e-03,-1.86264e-03,
-1.88782e-01,-2.10593e-01,-2.25579e-01,-1.06174e-01,9.45732e-02,2.42221e-01,-2.02357e-01,6.93038e-02,3.75486e-02,1.66216e-03,7.65707e-02,2.11906e-02,-2.22780e-01,2.72569e-02,4.08499e-02,-2.34688e-01,-6.80076e-02,-1.99000e-01,-1.40491e-01,2.46688e-01,-3.46624e-02,-1.14378e-01,6.86135e-02,-1.16306e-01,2.16903e-01,-4.46156e-02,-1.70008e-01,-2.24913e-01,-1.64681e-01,-1.45235e-01,-1.87412e-01,1.40633e-01,9.52213e-02,-1.88267e-01,-2.60171e-01,-1.61317e-02,9.18488e-02,-2.05033e-01,-1.35674e-01,1.38348e-01,3.73072e-02,-2.21277e-01,-2.15747e-01,-1.64587e-03,-2.53944e-02,
4.10387e-02,4.07993e-02,1.08201e-01,5.30452e-02,-3.05818e-01,-7.15542e-02,-2.13070e-01,-1.32774e-01,-8.92170e-03,-7.45509e-02,2.06199e-01,-1.16912e-01,5.94388e-02,2.21990e-01,2.14089e-01,2.31534e-02,-4.71794e-01,-1.32010e-01,-7.56758e-02,-2.66043e-01,5.97572e-02,2.17106e-01,-1.32494e-01,2.77875e-01,1.56599e-01,8.64986e-03,2.19602e-01,-1.94573e-02,4.59689e-01,2.15121e-01,2.56253e-02,2.36154e-01,-1.96695e-01,-2.11167e-01,-2.40882e-01,5.82638e-02,3.41225e-01,1.84057e-01,-2.78107e-01,-1.00281e-02,-6.12768e-01,-1.62045e-01,2.44329e-01,3.81038e-02,-3.54545e-03,
9.00128e-02,-2.05839e-01,2.87437e-01,8.17458e-02,2.46430e-01,5.61320e-02,-8.12065e-02,-1.68332e-01,9.48235e-02,-7.75482e-03,-1.33538e-01,3.95551e-01,1.35346e-01,2.73167e-01,1.90984e-01,9.45985e-02,-4.94413e-03,-1.43693e-01,1.18037e-01,-1.50161e-01,-2.00192e-01,8.21753e-02,8.54210e-02,-1.03927e-01,2.18902e-01,-3.27646e-01,1.07718e-01,-1.32873e-01,-1.22579e-01,2.37402e-01,2.00308e-01,2.16512e-01,-1.24657e-01,-7.44994e-02,-2.70393e-02,1.31201e-01,2.26006e-01,1.53243e-02,2.04599e-01,-9.18565e-02,-9.15890e-02,1.78363e-02,-1.10910e-01,1.07190e-01,-8.96226e-02,
5.01678e-02,-3.64730e-01,3.41596e-01,1.47511e-01,-3.52145e-01,-2.36758e-01,-2.58927e-01,1.58061e-01,4.42261e-02,-1.63851e-01,3.72659e-01,-4.45520e-02,3.15253e-02,2.92037e-01,-3.76724e-02,-2.55098e-02,-1.46553e-01,-7.63800e-02,-9.43562e-02,2.01425e-01,-3.35307e-01,-1.46885e-01,1.04618e-01,-4.55501e-04,-4.57784e-02,-2.53121e-01,-2.37617e-01,5.52637e-02,2.40986e-01,-2.09852e-02,1.19270e-01,2.73921e-01,-6.93885e-04,-7.87704e-02,2.20777e-01,-1.37365e-01,4.46720e-01,1.72724e-01,1.30104e-01,2.32945e-01,-6.47436e-01,1.72514e-01,-2.49099e-01,7.56546e-02,-7.82813e-02,
-1.04592e-01,-2.89652e-01,2.51034e-01,1.18478e-02,-1.15432e-01,-8.31410e-02,6.23281e-02,-3.78670e-02,1.00642e-01,7.21483e-02,1.36325e-01,3.81693e-01,-1.72390e-01,2.59838e-01,-7.37996e-02,9.94075e-03,3.20533e-01,8.52826e-02,1.85721e-01,9.42513e-02,8.65886e-02,1.20209e-01,7.52457e-02,-5.14464e-03,2.31082e-01,8.76349e-02,2.14003e-02,-9.13956e-02,5.06438e-01,-1.77941e-01,2.43728e-01,-4.64448e-02,1.36894e-01,-8.57920e-02,1.53120e-01,8.32185e-02,2.94546e-01,1.28429e-01,1.54754e-01,2.56805e-01,-1.28210e-01,-2.16708e-01,6.84444e-02,2.35882e-01,2.07885e-01,
5.33579e-03,-3.30390e-02,4.19234e-02,-2.32652e-02,-5.93996e-02,-2.23120e-01,2.11257e-01,1.91205e-01,-9.11437e-02,2.26507e-01,-3.30524e-02,-1.70714e-01,-3.20991e-01,-1.41111e-01,-4.00411e-02,5.74211e-01,-6.04646e-01,2.25182e-01,2.26049e-02,-1.46341e-01,-1.25623e-01,1.00769e-01,-1.73894e-01,2.08453e-01,1.84598e-01,-9.43834e-02,6.22903e-02,2.40370e-01,3.43545e-02,1.16586e-01,-1.16635e-01,-1.76977e-01,-2.87807e-02,1.32117e-01,1.63785e-02,1.25636e-01,-6.55753e-02,-2.97142e-01,-1.26401e-01,2.00051e-01,2.18520e-01,-8.94122e-02,-2.15266e-01,-2.09029e-01,-1.57170e-01,
1.05503e-01,1.10760e-01,-3.86098e-01,-7.23812e-03,3.93601e-01,2.09463e-01,3.13840e-01,1.26172e-01,-6.90179e-02,1.01247e-01,-6.56093e-02,-2.44578e-01,1.96953e-01,-3.33177e-01,6.37462e-02,4.24292e-04,1.55079e-01,-2.09885e-02,-1.52132e-01,-1.85947e-01,1.34344e-01,-5.75567e-02,-8.13402e-02,4.29190e-02,1.66256e-01,-5.57475e-02,1.67860e-02,-9.72907e-02,2.88162e-02,7.33444e-02,2.82605e-01,-2.55842e-01,7.89197e-02,1.83285e-01,-2.23454e-01,3.27719e-01,4.26053e-02,-1.08791e-01,3.33788e-01,3.15221e-01,4.90151e-01,1.84526e-01,-2.00973e-01,-2.80427e-01,1.88865e-01,
2.67269e-01,1.19601e-01,-1.44296e-02,-9.38488e-02,7.35326e-02,-1.27830e-01,-2.64171e-01,1.98816e-01,1.88113e-01,1.76512e-01,2.89027e-01,9.67289e-02,2.75046e-01,1.03299e-01,2.00794e-01,-5.49174e-03,8.37759e-02,-3.76005e-02,1.67921e-01,2.04393e-02,2.07023e-01,-1.36515e-01,-4.56519e-02,1.33252e-01,7.11703e-02,2.60321e-02,-2.90991e-01,-8.08827e-02,-1.05004e-01,2.33012e-01,7.08408e-03,2.65717e-01,9.85131e-02,-1.01992e-01,1.37765e-01,-1.22731e-02,-9.53086e-02,-2.07944e-01,-4.55893e-02,1.28766e-01,-5.71397e-02,1.20267e-01,-3.22543e-02,-5.55686e-02,1.63777e-01,
7.41096e-02,-3.36899e-01,-4.08431e-01,3.30384e-01,1.08912e-01,-7.87642e-02,-3.87320e-01,2.33234e-01,1.27864e-01,-2.01531e-01,-2.23483e-01,-2.76136e-02,1.11699e-01,-1.57348e-01,4.34394e-02,-1.60928e-01,-1.38605e-01,-2.39702e-01,2.44680e-01,-2.33027e-01,1.20194e-02,-2.24134e-02,2.25236e-01,2.09657e-01,9.51171e-02,2.49981e-01,1.12063e-01,-5.12510e-02,1.01242e-01,-4.10433e-02,7.50333e-02,-9.70842e-02,8.89642e-02,2.16813e-02,-1.27930e-01,1.76130e-01,-2.48600e-01,-8.62982e-02,-1.44816e-01,-3.15603e-02,2.54934e-01,2.61014e-01,-9.91316e-02,-2.46364e-01,2.43620e-01,
-1.49400e-01,-3.00527e-02,9.64975e-02,-1.18691e-01,-3.69336e-01,-1.34383e-01,-2.52890e-01,-3.74046e-02,1.65975e-01,-3.23659e-02,-2.08287e-01,1.05026e-01,1.64432e-01,2.81057e-01,4.54877e-02,-9.19738e-02,8.06790e-02,-6.39818e-02,-2.39366e-01,1.64912e-01,-1.15769e-01,6.26285e-02,-5.93433e-02,-2.92481e-01,-2.15033e-02,1.65115e-01,2.96509e-01,-2.40615e-01,7.00983e-02,-1.62800e-01,-3.12328e-02,-5.90389e-02,3.56274e-01,-5.45230e-02,-1.23312e-01,-1.77322e-01,-8.78033e-02,7.33684e-02,1.65394e-01,1.73373e-02,7.01180e-02,-9.84635e-02,-7.38298e-02,1.40358e-01,-2.61560e-01,
2.06971e-01,-7.93161e-02,3.61413e-02,-1.40128e-01,2.59976e-01,-1.13457e-01,-1.96676e-01,-6.21468e-02,-3.21145e-03,-9.00265e-03,2.73919e-01,3.03514e-01,2.54747e-02,9.92505e-02,1.28131e-01,2.16627e-01,-1.39560e-02,7.98505e-02,-2.04661e-01,1.05431e-01,1.83853e-01,-3.71211e-02,2.15832e-01,-2.28549e-01,2.15062e-01,-1.00983e-01,3.53421e-02,-1.76545e-01,-5.59661e-02,1.26641e-01,2.91949e-02,2.33634e-01,-8.75129e-02,-6.76209e-02,6.57878e-02,-1.40227e-01,3.53656e-01,-5.44320e-02,3.11584e-01,7.03711e-02,5.07222e-01,2.25158e-01,2.14963e-01,4.44257e-02,1.84510e-01,
-1.51771e-01,-1.12135e-02,7.49818e-02,-1.05462e-01,-1.09865e-01,2.77489e-01,-5.93331e-02,1.47814e-01,2.34732e-01,8.38365e-02,1.75932e-01,2.97017e-01,-2.29524e-01,-2.57166e-01,1.79186e-01,-1.30499e-01,-6.10145e-02,7.78505e-02,-1.97987e-01,-5.68426e-03,-7.64959e-02,1.98179e-01,2.06176e-01,1.23709e-01,1.00402e-01,3.14440e-03,1.53887e-01,-4.28506e-02,-7.33951e-02,-6.64739e-02,-7.69529e-02,2.51989e-01,6.16563e-01,1.85438e-01,-1.17692e-01,2.77921e-02,-2.40843e-01,-1.83044e-02,-2.00808e-01,2.47863e-01,1.69885e-01,2.14021e-01,1.41446e-01,2.34277e-01,4.58496e-02,
-4.08718e-01,-1.29438e-01,9.93321e-02,-8.70862e-02,1.56950e-01,-3.17512e-02,-3.29995e-01,-2.76868e-01,5.57696e-02,6.67374e-02,-2.22102e-01,-5.53056e-02,2.23661e-01,-1.65858e-01,-5.77066e-02,-2.56137e-02,-1.64256e-01,1.74551e-01,2.57302e-01,1.91356e-01,-4.81221e-01,1.90095e-02,-2.17377e-01,1.23340e-01,-1.07031e-01,-1.80974e-02,3.31679e-02,6.20793e-02,-9.79933e-02,-1.53436e-01,2.79910e-02,-4.74663e-02,2.50973e-01,1.21749e-01,-5.84710e-02,-2.02744e-01,-2.11846e-01,2.16056e-01,-1.82033e-01,-4.36368e-01,-1.44803e-01,2.36357e-01,-1.50451e-01,1.00992e-01,-1.26672e-01,
-1.65843e-01,4.77919e-02,-1.88035e-01,1.46008e-02,1.10568e-01,-2.46935e-01,1.82207e-01,1.53450e-01,-8.55712e-02,-2.33372e-01,-4.54390e-02,-2.50028e-01,-1.11810e-02,2.02209e-01,2.04089e-01,5.41313e-02,-5.29060e-02,1.46384e-01,-7.25857e-02,-2.10542e-02,9.50736e-02,-2.53121e-01,2.38242e-01,-2.33258e-01,-2.22515e-02,3.82647e-02,-2.49702e-01,8.24013e-02,2.51348e-01,-1.77756e-01,2.07424e-01,1.12989e-01,-5.02091e-02,-2.29102e-01,5.09102e-03,-8.09807e-02,-1.46908e-02,-7.76549e-02,-1.05810e-01,-1.81343e-02,-1.23159e-02,1.93238e-01,-1.02707e-01,6.14686e-02,-1.64189e-01,
-2.58429e-01,9.29066e-02,-2.42683e-01,-1.09316e-01,-3.63014e-02,8.45123e-02,-1.41241e-01,-1.48389e-01,1.01969e-01,-2.47116e-01,9.73348e-03,-3.17814e-01,-3.05647e-02,-3.56409e-01,3.23455e-02,-3.02840e-01,3.49580e-02,-2.83923e-01,-2.24381e-01,-2.48111e-01,1.61339e-01,2.44427e-01,6.71544e-02,8.46203e-02,1.66083e-01,8.09244e-02,4.63937e-02,-2.09593e-01,-1.26903e-01,-1.70431e-01,3.27652e-01,1.32981e-01,-1.47785e-01,-9.76053e-04,-1.56606e-01,-3.48537e-03,-3.13823e-01,2.26265e-01,1.27600e-01,8.25211e-02,7.11854e-02,5.80612e-02,8.46025e-02,7.63865e-02,-5.48839e-02,
-2.45518e-01,-1.92872e-01,2.54933e-01,1.67874e-01,1.15314e-01,-1.16987e-02,2.36596e-01,-2.91728e-01,-6.69791e-02,1.20140e-01,2.12385e-01,4.07474e-02,1.93740e-01,1.10100e-01,7.37415e-02,-1.06542e-01,5.26056e-01,2.37417e-01,-2.32245e-01,2.56118e-01,-2.01120e-01,2.70996e-01,-5.66323e-02,-3.02641e-01,1.88863e-01,1.62348e-01,-6.72287e-02,-3.21956e-01,3.12634e-01,2.52170e-01,1.60561e-01,1.98033e-01,1.05926e-01,-2.43639e-01,6.06252e-02,3.31186e-01,4.68442e-01,-2.26533e-01,-1.41396e-02,-1.36923e-01,1.96708e-01,-8.52108e-02,9.32554e-02,2.21940e-01,-5.54866e-02,
2.59580e-03,-2.66211e-02,-1.09830e-01,-1.84877e-01,-2.38481e-01,2.81872e-01,-2.13403e-01,8.23581e-02,-2.88391e-02,2.12044e-02,-1.49273e-01,3.35171e-01,1.14686e-01,1.65165e-01,9.38253e-02,-3.69589e-01,5.27557e-01,-1.36324e-01,4.28717e-02,-1.49226e-01,-3.69810e-02,-9.56865e-02,1.90122e-01,1.57620e-01,-2.14212e-01,1.33657e-01,-1.40139e-02,-4.13237e-01,-1.35861e-03,-9.74241e-02,3.13068e-01,2.25834e-01,1.78609e-01,-2.07274e-01,9.31054e-02,1.22735e-01,-2.73127e-01,6.46217e-02,3.46364e-01,1.36054e-01,1.15383e-01,-2.28976e-01,1.22074e-01,-1.83504e-01,-1.27407e-01,
5.93975e-02,-7.19004e-02,6.68987e-02,7.99182e-02,-1.53893e-01,2.10763e-01,-5.67303e-02,5.66121e-02,2.98489e-02,-1.62435e-01,-1.39908e-01,-2.85038e-01,2.55265e-01,3.60965e-02,-1.66564e-01,-9.58905e-02,-1.96739e-01,-4.18872e-01,-1.29874e-02,-9.73593e-02,1.19498e-02,9.31583e-02,1.74952e-01,1.15664e-01,1.86219e-01,-2.99198e-01,-1.48006e-01,-4.31034e-02,-6.88703e-01,-2.28844e-01,-9.38760e-02,1.59597e-01,-2.54447e-01,2.94124e-01,-3.04695e-02,1.63107e-01,-1.23634e-01,-1.44709e-02,2.59941e-01,-9.46490e-03,-2.46011e-01,4.27044e-02,1.76740e-01,-2.03847e-01,2.68461e-02,
8.82996e-02,2.85999e-01,-1.96667e-01,-1.96847e-01,9.84784e-03,1.30664e-01,2.09790e-01,-2.39976e-01,-1.90365e-01,5.78547e-02,-2.68298e-01,-2.50641e-01,2.50745e-01,-2.94887e-01,-4.12397e-01,-1.95121e-01,-4.11382e-02,-3.97021e-01,-1.26607e-01,1.99772e-01,-3.27898e-01,2.30570e-01,1.11288e-01,1.34463e-01,8.99756e-02,-2.16604e-01,-2.17638e-01,1.07893e-01,-5.05100e-01,-3.33946e-01,2.67295e-01,6.07075e-03,6.27348e-03,1.80661e-01,1.62603e-01,2.15539e-01,-1.73768e-01,-2.79409e-01,1.32786e-01,1.75044e-01,2.36038e-01,1.22047e-01,1.73791e-01,-9.45232e-02,-8.85400e-02,
2.08646e-03,-2.39419e-01,-1.60209e-01,1.39311e-01,9.71788e-02,1.65883e-01,-2.49153e-01,-2.27871e-01,1.55039e-01,6.93306e-02,-5.91149e-02,-6.32021e-02,2.88800e-02,3.55666e-02,1.96541e-01,6.03302e-02,-1.10067e-01,7.96252e-02,1.80461e-01,3.23093e-01,-3.12044e-01,2.62506e-02,2.31532e-01,2.37603e-01,-1.06607e-02,-2.13933e-01,-1.02741e-01,-6.36330e-02,3.25833e-01,1.12823e-01,2.31851e-01,2.12958e-01,-8.04996e-01,8.94308e-02,1.27958e-01,1.66501e-01,-1.59647e-01,-2.27767e-01,-2.87383e-01,2.37867e-01,-5.92734e-01,-8.72958e-02,3.63421e-02,-8.58895e-02,-5.75345e-02,
1.45687e-01,-1.38166e-01,-2.36115e-01,-9.03220e-03,-1.74989e-01,2.66022e-01,-1.91946e-01,1.17125e-01,-2.16224e-01,4.15198e-02,1.68170e-01,-2.54059e-01,7.25121e-02,-1.27717e-01,-1.92001e-01,-3.29432e-01,-2.87909e-01,-2.88931e-01,-1.56317e-01,3.06396e-02,-1.68643e-01,1.49552e-01,3.32195e-01,6.70080e-02,1.01712e-01,-8.77163e-02,6.77666e-02,2.40858e-01,-5.44669e-01,2.14872e-01,2.31045e-02,2.30869e-01,-8.69754e-01,-9.43713e-02,1.08026e-01,1.73544e-01,-1.73016e-01,-2.03858e-01,-3.17889e-02,-9.22129e-02,-5.71418e-01,9.45913e-02,-1.80520e-01,-9.63966e-02,3.31921e-01,
1.79692e-01,2.98063e-02,-3.18067e-02,-1.36610e-01,-1.18870e-01,-1.31056e-01,-2.14232e-01,-1.00308e-01,-2.48478e-01,-1.36989e-01,-1.30028e-04,-2.53642e-01,7.92711e-03,1.38543e-02,-1.22108e-01,2.13281e-01,2.50909e-01,3.09788e-02,1.53684e-01,-1.67909e-01,-1.06172e-01,7.48163e-02,-2.30017e-01,2.06941e-01,-1.35253e-01,7.81103e-02,-1.05557e-01,-3.65450e-02,-9.76357e-02,-7.52870e-02,1.96136e-01,2.05804e-02,9.48885e-02,2.22181e-01,-2.53096e-01,-2.43746e-01,-3.71566e-02,1.42746e-01,1.23199e-01,-1.11488e-01,1.27628e-01,2.18790e-01,-5.60881e-02,4.73827e-02,-4.03745e-02,
4.99498e-03,1.79200e-01,-3.03035e-01,-1.25529e-01,4.05223e-01,-4.96266e-02,-8.61570e-04,1.92251e-01,1.53486e-01,-1.08017e-01,-1.25886e-01,-6.92391e-02,-1.64639e-01,-5.47702e-01,-3.89358e-03,-6.95199e-02,-2.53570e-01,-1.93616e-01,1.45111e-01,-2.49757e-01,3.91569e-01,1.17596e-01,5.51348e-02,2.71957e-01,1.01513e-01,-1.31099e-01,-1.44574e-01,-7.77684e-02,-9.70667e-02,-7.95300e-02,3.84876e-02,-2.70993e-01,2.13430e-01,1.91238e-01,1.34300e-01,1.56913e-01,-4.75374e-01,-1.54071e-01,7.91774e-02,1.84540e-01,3.87372e-01,-2.30601e-01,1.32637e-01,-1.96292e-01,3.91515e-03,
-2.11998e-01,4.18664e-01,-4.88710e-02,-6.37378e-02,6.85609e-02,9.38740e-02,-1.71649e-01,-3.31432e-01,-5.55552e-02,5.83171e-02,-3.67468e-01,-3.36347e-01,1.79054e-01,-5.54371e-01,-2.26044e-01,3.97308e-02,2.54116e-01,-9.35844e-02,-1.47021e-02,7.06631e-03,-3.08001e-01,-2.76683e-01,2.55412e-01,1.59039e-01,2.06084e-01,2.56284e-01,-1.43248e-01,-9.91941e-02,-8.46951e-02,-1.43305e-01,-8.97000e-02,-2.86239e-01,2.11737e-01,9.52210e-02,3.86585e-02,3.06521e-01,-2.80497e-01,-3.91095e-01,-2.63162e-01,6.35331e-02,-6.05826e-03,1.51768e-02,1.85805e-01,2.51008e-01,1.72405e-01,
8.66933e-02,-2.32991e-01,-8.95803e-02,1.95917e-01,-4.46879e-02,-1.19332e-01,-1.51375e-01,1.57662e-01,-1.28502e-01,2.92767e-02,1.96311e-01,-8.07958e-03,1.84013e-01,1.17430e-01,-2.17505e-01,-6.92831e-02,-2.29888e-01,-2.18404e-01,-3.48956e-02,1.41818e-01,-1.04920e-01,-1.99252e-01,8.41280e-03,-1.43360e-01,-1.16147e-01,6.35408e-02,-2.17121e-02,9.87075e-02,-9.71719e-02,2.08590e-01,1.83121e-01,-4.60246e-02,-1.77613e-02,-1.33666e-01,-2.48926e-03,8.58751e-02,5.70663e-02,-1.55333e-01,-2.13641e-01,-2.19291e-02,5.37453e-02,-2.62753e-01,-1.62005e-01,-1.99101e-02,-1.17438e-01,
2.85338e-03,
5.56484e-02,
-1.26936e-02,
2.86320e-02,
-3.63257e-03,
-2.96380e-02,
-7.96247e-02,
4.21422e-02,
-1.49447e-02,
-4.63642e-03,
3.32852e-02,
3.94041e-04,
9.34442e-03,
3.32130e-02,
2.50597e-02,
3.57030e-02,
1.97517e-02,
5.67850e-03,
-3.03959e-03,
-1.60246e-02,
-8.04344e-04,
1.55704e-02,
-2.61363e-02,
1.01669e-02,
-9.99611e-03,
7.97872e-02,
1.57286e-02,
6.34103e-02,
3.17534e-02,
-1.87579e-02,
1.21285e-02,
2.98307e-02,
1.33823e-02,
-7.83229e-03,
-1.57156e-02,
-5.20872e-02,
-1.23170e-02,
1.28677e-02,
2.47375e-02,
-1.06403e-02,
1.75669e-02,
-4.00076e-03,
5.49155e-03,
-2.65762e-02,
-8.83568e-03,
7.56904e-02,-1.33673e-01,1.68832e-01,1.01478e-01,7.82790e-03,-1.83057e-01,1.23477e-02,-9.63696e-02,1.43828e-01,3.13761e-01,1.01347e-01,-9.23872e-02,-1.63016e-01,-1.32946e-01,7.68339e-02,-5.32258e-03,-1.62931e-01,-5.89919e-02,3.60058e-02,1.00443e-01,2.46736e-01,6.81087e-02,2.47210e-01,2.03566e-01,-3.78692e-02,6.93376e-02,-1.63152e-01,1.53590e-01,4.72035e-02,-2.79472e-01,-1.80930e-01,7.51642e-02,-2.69312e-01,1.47077e-01,-1.13223e-01,-1.38696e-01,9.41804e-02,5.82545e-02,2.22509e-01,1.93865e-01,-1.77022e-02,1.12111e-02,2.41333e-02,4.65977e-02,1.62698e-01,
2.05384e-01,-2.47998e-01,-1.81181e-01,1.16223e-01,-6.55816e-02,-1.92821e-01,-5.23172e-02,1.34737e-01,-2.18162e-01,9.46256e-02,-1.58372e-01,1.47795e-01,-9.63097e-02,4.71048e-02,2.64910e-01,-3.49414e-01,-2.26674e-01,-7.75580e-02,2.04792e-01,-1.36087e-01,1.30181e-01,8.99926e-02,-1.50439e-01,3.94388e-02,5.66997e-03,-4.14450e-02,1.47201e-01,1.62964e-01,-8.81769e-02,1.13170e-01,3.62654e-02,1.68993e-01,-1.09611e-01,4.98645e-02,5.37262e-02,1.45742e-01,-1.90726e-01,1.17829e-01,1.23865e-01,-2.39666e-01,2.12381e-01,-2.55971e-01,-5.46911e-02,-1.55892e-01,-1.69757e-01,
1.90051e-01,6.71553e-02,-7.54594e-01,1.17116e-01,3.64945e-01,-2.56909e-01,-1.94029e-01,6.81654e-02,-9.54281e-01,-7.87454e-01,-3.33932e-01,-5.62841e-03,3.11848e-01,-1.58896e+00,-3.91317e-01,3.14291e-02,-5.34151e-01,-6.45289e-02,-6.09668e-02,-3.39213e-02,-1.99182e-01,1.93436e-01,-1.06013e-01,1.35036e-01,-3.41959e-02,2.96058e-01,1.86516e-03,2.78005e-01,2.81005e-01,-3.61376e-01,-1.08446e-01,-1.78933e-01,-1.20893e-01,1.95146e-01,1.71177e-03,1.31507e-01,1.19408e-01,-3.52872e-01,-1.47243e-01,-3.82876e-02,-1.75017e-01,2.25617e-01,-3.02647e-01,-7.98169e-01,-7.91316e-02,
8.52276e-02,-2.96327e-02,7.95051e-02,-1.57047e-01,-1.08324e-01,3.11946e-02,1.63413e-01,1.25399e-01,-9.04150e-02,1.55035e-01,-2.96173e-01,2.00258e-01,3.38522e-01,-7.94812e-02,4.48608e-02,-2.62824e-02,-1.25778e-01,2.40171e-02,-1.25647e-01,1.99795e-01,1.70381e-02,1.71621e-01,-1.07183e-01,1.00391e-01,8.96656e-02,-2.33317e-01,-1.96743e-01,-3.09529e-01,5.04426e-02,-2.27389e-01,-1.66170e-01,7.92332e-03,2.30869e-01,-2.72763e-02,2.63147e-01,1.32616e-01,-3.71391e-03,2.62901e-01,6.62861e-02,1.00947e-01,-2.24258e-01,1.93899e-02,2.58587e-01,-1.05022e-01,1.52806e-01,
1.24061e-02,-5.39407e-02,3.24518e-01,1.48046e-01,1.06722e-01,-8.30831e-02,1.15224e-01,-2.57635e-01,1.67834e-01,-2.87985e-01,-5.48256e-02,-2.58202e-01,3.69120e-01,-1.43924e-01,-1.00337e-01,8.29196e-02,-1.78147e-01,9.11863e-02,1.23276e-01,-1.26058e-01,1.26229e-02,9.02355e-02,-4.50836e-02,1.71434e-01,2.60453e-01,-5.37805e-01,1.10950e-01,-2.41161e-01,1.38242e-01,-3.06479e-01,-7.98644e-02,-1.98008e-01,2.06326e-01,3.60814e-02,1.24713e-01,1.66702e-01,-1.26274e-01,-1.68834e-01,-9.54686e-03,-2.51383e-01,-1.78101e-01,2.62341e-03,2.15938e-01,2.60931e-01,-2.47678e-01,
2.60924e-01,2.34551e-01,2.34919e-02,-1.84957e-01,3.06594e-02,2.14319e-01,-2.30091e-01,-6.33033e-02,1.15988e-01,-2.99890e-01,-3.29531e-01,-1.07587e-01,-3.42182e-01,7.40370e-02,-6.66219e-02,-4.05974e-01,-2.78661e-01,-1.07457e-01,3.25549e-01,7.84628e-03,1.99872e-01,2.68956e-02,1.34320e-01,4.09342e-01,1.09520e-01,-3.07612e-01,-3.51749e-01,2.44651e-01,-1.13601e-01,3.81399e-01,1.43891e-01,-4.78820e-02,-2.76139e-03,1.60586e-01,-2.49525e-01,5.40922e-03,-2.66686e-01,2.21075e-01,-2.83986e-01,1.65276e-01,2.13667e-01,1.28538e-01,-2.77409e-01,1.00215e-01,-1.77457e-01,
-2.85380e-01,7.98123e-02,2.20357e-01,1.47711e-01,4.51244e-01,1.64945e-02,-5.70702e-01,1.36312e-01,-3.13737e-01,1.95116e-01,-1.19920e-01,-1.32535e-01,1.60816e-01,2.84759e-01,-6.19870e-01,4.05951e-01,1.76317e-01,4.98844e-02,-1.13620e-01,4.70615e-02,1.05840e-01,2.09969e-01,-2.10592e-01,-6.86856e-01,1.37893e-01,1.37013e-01,1.72335e-02,-9.77231e-02,1.69053e-01,-4.31689e-01,-1.88183e-01,3.69094e-02,2.08110e-01,-1.38543e-01,3.03266e-02,-2.89539e-01,-1.67553e-01,2.72218e-01,-5.10459e-04,-3.30761e-01,-1.78085e-01,-1.09554e-01,2.47918e-01,-4.41264e-01,8.05980e-02,
-6.46106e-02,-5.43092e-02,-1.77332e-02,-1.91717e-01,-2.16338e-01,-1.54997e-01,-2.37909e-01,2.00362e-01,1.28600e-01,-1.76521e-01,-4.65409e-02,-2.00869e-01,1.55074e-01,3.79617e-02,1.50736e-01,2.01094e-01,1.60971e-01,6.26277e-02,-1.77288e-01,-1.73326e-01,-1.20483e-02,-5.73620e-02,-1.22063e-01,-2.02792e-01,-2.28596e-01,-2.09930e-01,1.32221e-01,-1.96598e-01,-4.88352e-02,-1.01377e-01,-1.21570e-01,-1.20440e-01,8.52847e-02,5.08808e-02,-9.81769e-02,-1.79014e-01,5.21064e-02,7.65617e-02,4.85521e-02,-2.26339e-01,2.07395e-01,1.18058e-01,-8.33612e-02,1.19262e-01,1.66033e-01,
1.56338e-01,-1.29283e-01,1.62862e-01,-1.54673e-01,5.05079e-02,-8.32561e-02,-1.47016e-02,5.88939e-02,1.20423e-01,-3.11032e-02,-2.37405e-01,1.29378e-01,-6.94807e-02,1.82927e-01,3.03843e-01,3.59520e-01,1.66955e-01,-9.15459e-02,4.16895e-02,1.31727e-01,-8.00516e-02,-2.77783e-02,-2.53873e-01,-2.58132e-01,-4.80502e-02,1.66955e-04,-8.14490e-02,1.99446e-01,-4.21265e-02,3.90853e-02,1.86523e-02,7.13446e-02,4.21085e-02,-1.88130e-01,2.06339e-01,-1.46913e-01,6.20318e-03,1.08872e-01,2.34699e-01,9.70796e-02,1.82852e-01,-2.31197e-01,-4.16890e-02,-1.33784e-01,1.30487e-01,
2.57674e-01,-2.57617e-01,-2.52597e-01,-1.92583e-01,-2.16768e-01,9.31133e-03,-2.09119e-01,-1.02936e-01,1.95592e-01,3.22083e-01,2.64109e-01,2.09402e-01,3.22867e-02,-1.79897e-01,-2.03809e-01,2.18461e-01,2.53727e-01,-3.26666e-02,5.79753e-03,-1.79572e-01,2.26596e-01,-1.43585e-01,1.50648e-01,2.06247e-01,6.32108e-02,5.67101e-02,-1.04780e-01,-3.47149e-02,-1.23659e-01,-1.59978e-01,5.41575e-02,1.48702e-01,2.00971e-01,2.87545e-02,1.14651e-01,3.65976e-01,1.76862e-01,-2.04557e-01,8.08743e-02,8.99423e-02,2.02407e-01,1.88957e-02,-3.89690e-01,2.62449e-01,2.09010e-01,
1.23887e-01,1.94229e-01,2.01273e-01,6.88116e-02,-3.22852e-01,-8.75265e-02,-3.71826e-01,-2.16650e-01,-6.74554e-02,-1.24084e-02,-2.00606e-01,1.77754e-01,-2.21294e-01,-1.20945e-01,-9.90962e-02,-2.89976e-01,1.50584e-01,-1.16350e-01,-1.95580e-02,-7.04586e-02,6.93807e-02,1.68237e-01,-1.84517e-01,1.44337e-01,2.39028e-01,-2.07877e-01,6.14382e-02,9.56137e-02,-1.39642e-01,4.14853e-01,7.60806e-02,8.25897e-02,-2.60039e-01,1.82175e-01,-1.69468e-02,-3.04330e-01,1.33777e-01,4.35507e-02,-2.17227e-01,-1.53664e-02,1.01506e-01,1.19639e-01,-4.49001e-02,1.01341e-01,-1.63603e-01,
-2.34441e-01,9.25722e-02,1.00598e-01,-1.50467e-01,-1.16418e-01,-2.57684e-01,-3.23729e-01,2.25076e-01,-1.53134e-01,2.58747e-01,2.47422e-01,1.35715e-01,7.50291e-03,-1.54354e-02,-1.44736e-01,-2.71897e-01,-5.41430e-02,6.77214e-02,3.15234e-02,-9.57284e-02,2.34419e-01,-5.10651e-02,1.01125e-01,1.03992e-01,4.84661e-02,-5.72042e-01,2.88582e-01,1.69374e-01,-1.05634e-01,3.12157e-01,-5.31606e-02,1.22867e-01,-1.58755e-01,-1.56850e-01,1.22150e-01,1.06756e-01,2.28921e-01,1.98092e-01,1.65119e-02,2.18989e-01,1.50363e-01,-2.52937e-02,-3.80709e-02,-1.95470e-01,1.26271e-01,
1.13547e-01,-1.00548e-01,-1.39014e-01,3.52953e-02,-1.12410e-01,7.93193e-02,-3.36558e-01,1.16912e-01,-1.38708e-02,-2.20315e-01,6.26444e-02,-2.59774e-01,-7.95927e-02,7.57500e-02,-1.37311e-02,1.22886e-01,-1.61447e-01,-8.47318e-02,2.81707e-01,2.34776e-02,-1.40207e-01,-4.74483e-02,1.08515e-01,2.63335e-01,1.19177e-01,-2.79101e-01,-2.35311e-01,1.04095e-01,1.20159e-02,-1.63904e-01,1.71068e-01,-1.40133e-01,2.30673e-01,-2.60809e-01,-3.40102e-01,3.81599e-04,4.19550e-02,1.63812e-01,-8.35211e-02,2.00883e-01,-1.04934e-01,-1.44769e-01,-9.93938e-01,-3.34661e-01,3.63307e-02,
-1.33196e-01,1.50203e-01,-2.08052e-01,8.91546e-02,-5.31173e-02,7.60642e-02,7.15173e-02,2.52495e-01,-1.35267e-01,1.88697e-02,2.29216e-01,-6.19278e-02,-3.30617e-01,1.93580e-01,5.31142e-01,-3.65767e-01,1.70286e-01,2.46918e-02,7.46620e-02,-9.75055e-02,1.63418e-01,-2.55145e-01,-9.12576e-02,-2.12008e-01,-9.89923e-02,-1.57768e-01,1.08369e-01,1.59721e-01,-1.33735e-01,4.47061e-01,3.05393e-01,2.31444e-02,-2.87662e-01,1.51890e-01,3.19345e-02,-2.30430e-01,4.57437e-02,1.16306e-01,1.68555e-01,-3.70853e-01,2.78114e-01,-5.93218e-02,7.65168e-03,-5.19746e-02,-2.27433e-01,
-1.77108e-01,-8.27136e-02,1.73192e-01,-2.02712e-01,-3.07327e-01,2.03765e-01,-2.98317e-01,2.48389e-01,5.35280e-02,-2.76738e-02,-3.60046e-01,2.18638e-01,-2.50310e-01,-9.61597e-03,7.93908e-01,1.04474e-01,-3.23220e-01,1.58987e-01,-6.91665e-02,-8.87223e-02,1.93668e-04,1.40123e-01,2.68959e-01,2.16895e-01,1.20599e-01,-2.54102e-01,3.86741e-01,-1.29480e-01,1.64253e-01,3.01070e-01,2.80288e-01,1.74128e-01,-2.15001e-01,-1.31986e-01,5.63819e-02,1.34061e-01,2.50846e-02,1.77576e-01,-2.07985e-01,3.21422e-02,-6.42220e-02,-1.58543e-01,-5.59388e-01,-2.27517e-01,2.94317e-02,
-1.49619e-01,-6.63994e-02,-8.56909e-03,7.29147e-02,9.38915e-02,3.55078e-02,-7.18239e-02,-1.04030e-01,-3.24017e-01,-1.43364e-01,-1.33057e-02,1.73501e-01,-1.00362e-01,-9.48182e-03,1.66453e-01,-4.40503e-01,-2.72425e-01,-1.00221e-01,2.22382e-01,3.94422e-02,9.90910e-02,-2.17973e-01,3.91137e-02,4.37949e-02,3.18372e-02,-2.68944e-01,-2.64557e-01,-7.84960e-02,2.19023e-02,-9.02042e-01,9.93019e-02,-1.92317e-01,-1.08674e-01,-2.00401e-01,-1.05336e-01,5.60648e-02,4.19806e-01,1.57514e-01,8.48378e-02,2.20777e-01,-1.77129e-01,2.51125e-01,-3.53523e-01,-6.34647e-02,2.01707e-01,
-1.60647e-01,-1.30416e-01,2.83470e-01,-1.20983e-01,4.73005e-02,-4.15248e-02,1.52139e-01,3.97037e-02,-2.44353e-01,2.59074e-01,2.14052e-01,1.46060e-01,-2.94896e-02,2.05465e-01,2.39958e-01,3.51739e-02,3.11267e-01,2.17624e-01,-5.07430e-02,-2.40925e-01,-2.09357e-01,-1.01289e-01,3.88641e-02,-1.92513e-01,-1.64446e-01,5.60613e-02,-7.62423e-02,2.10287e-01,2.30136e-01,-4.36049e-01,7.37697e-03,6.80068e-02,1.64772e-01,-2.49688e-01,-2.26348e-01,-2.29134e-01,-2.38376e-01,1.45950e-01,1.59309e-01,1.17987e-01,-1.95312e-03,5.66628e-02,1.46380e-01,-4.65597e-02,1.46272e-01,
-4.85608e-02,-4.76148e-02,1.79584e-01,-1.88508e-04,-3.28215e-03,-1.15163e-01,1.46334e-01,1.06274e-01,-2.77174e-01,-7.67968e-02,2.49190e-01,1.39024e-01,2.47731e-01,2.20360e-01,3.67063e-01,1.16392e-01,-1.46524e-01,-1.00945e-01,8.50019e-02,1.57447e-01,1.38710e-01,-6.84976e-02,1.63278e-01,-5.91250e-02,-2.12505e-01,9.80758e-02,2.15008e-01,-1.91586e-01,-1.45440e-01,-3.67363e-01,2.37572e-01,2.00627e-01,-3.97100e-02,-8.20177e-02,5.15707e-02,-7.74867e-02,1.72589e-01,1.49391e-01,3.17922e-02,-2.43955e-01,-2.33660e-01,-7.01161e-02,-5.69056e-02,-1.39288e-01,-5.04901e-02,
-1.04316e-01,2.44311e-01,-4.46636e-01,3.43892e-02,9.25018e-02,-1.01447e-01,-1.18095e-01,2.71829e-01,-3.32291e-01,-1.92428e-03,2.48725e-01,6.51707e-02,5.27999e-02,2.93982e-02,-1.71881e-01,-2.34472e-01,2.97421e-02,-7.52983e-03,-7.12327e-02,1.04121e-01,1.82628e-01,2.05864e-01,-2.16069e-01,2.93214e-01,-4.83597e-02,-2.57570e-01,-1.54841e-01,6.54900e-02,1.49938e-01,5.25941e-01,1.40841e-01,3.23110e-02,1.44861e-01,-8.51936e-02,1.83677e-01,-4.57631e-01,-1.02434e-01,2.92946e-01,-8.47098e-02,-1.31777e-01,-6.35847e-04,-2.66173e-01,-6.74600e-02,-5.80812e-01,9.58860e-02,
-1.08660e-01,-1.14773e-01,-5.48855e-03,1.95558e-01,-6.96338e-02,1.35890e-01,-3.63598e-01,1.60787e-01,1.56788e-01,-2.06030e-02,1.92107e-02,3.18128e-02,-1.66399e-01,-2.44706e-01,-1.19773e-01,-4.29902e-01,3.75580e-03,1.86719e-02,2.69292e-01,-2.42874e-01,-1.31149e-01,2.16414e-02,7.24932e-02,1.09499e-01,-5.99279e-02,-2.09867e-01,5.86171e-02,9.52948e-02,4.29169e-03,3.14146e-01,2.85572e-01,2.41470e-01,8.14510e-02,2.22218e-01,1.16975e-01,4.20463e-02,-3.23443e-02,-1.27844e-01,2.96610e-01,1.11309e-01,-5.15991e-02,8.72208e-02,-1.08611e-01,2.85388e-01,-8.77092e-04,
1.99843e-02,-3.16338e-01,9.63011e-02,7.82466e-02,4.72149e-02,-2.33474e-01,-4.51197e-01,-4.94108e-02,9.79106e-02,-2.48709e-01,2.22153e-01,-1.70177e-01,-2.40187e-01,-5.19164e-02,2.93759e-01,-4.44358e-01,2.15676e-01,1.38370e-01,-1.92562e-01,-5.11148e-03,1.57368e-01,3.94148e-02,1.39551e-01,1.09312e-01,2.79585e-01,-5.91403e-01,-1.22762e-01,-3.33445e-02,1.78399e-01,3.89933e-02,1.98799e-01,1.79443e-01,-6.32097e-02,-1.06587e-01,1.02732e-01,-2.88349e-02,1.39910e-01,-1.22968e-01,2.52445e-01,1.25236e-01,8.65998e-02,-2.63459e-02,-2.08362e-02,-1.16529e-01,-1.35344e-01,
-3.83558e-02,3.03771e-01,-6.35164e-02,-2.50579e-01,1.09271e-01,-2.23716e-01,-7.37610e-02,-1.36908e-01,1.61623e-01,3.75617e-01,-1.24979e-02,5.43157e-02,-1.86712e-01,-1.42145e-01,-2.40180e-01,1.69192e-01,2.26526e-01,5.77786e-02,9.66091e-02,2.12977e-01,-1.28660e-01,-8.38944e-02,-2.67391e-01,1.41693e-01,-1.15268e-01,-2.02618e-02,-7.09486e-02,5.50306e-02,2.51745e-01,-1.30517e-01,4.01773e-02,9.93356e-02,4.68178e-02,-1.34035e-01,6.71287e-02,8.95197e-03,1.05540e-01,-1.83764e-01,-6.16440e-02,-2.63499e-01,8.46511e-02,-1.09923e-01,-4.10090e-02,1.43733e-01,-1.47212e-01,
2.20349e-01,-4.76981e-02,4.79590e-02,-1.85662e-01,2.71824e-02,1.62371e-02,-5.16403e-01,-1.08961e-01,-2.33949e-01,1.37371e-01,-1.85157e-01,1.32143e-01,3.39341e-02,-8.34852e-02,-3.87645e-02,6.20833e-02,1.44929e-01,2.07653e-01,2.38644e-01,-1.19766e-01,6.68938e-02,1.32415e-01,-6.48593e-02,8.44142e-02,2.14863e-01,1.49115e-01,3.79484e-02,1.84092e-01,4.97209e-02,1.71690e-01,-1.51848e-01,8.66177e-02,1.90253e-01,-7.56210e-02,1.77659e-01,2.30070e-02,6.12623e-03,-5.51720e-02,-1.47489e-01,1.14151e-02,-1.40723e-01,-1.78287e-01,-1.26347e-01,-7.52217e-02,1.12736e-01,
1.67180e-01,-6.83667e-02,-8.00881e-02,1.63686e-01,-1.84321e-01,-1.51670e-01,-1.01939e-02,2.32481e-01,9.38714e-02,1.64364e-01,-2.38415e-01,-2.42124e-01,-1.46843e-01,1.99389e-01,2.92550e-01,6.07160e-02,-1.14506e-01,2.17143e-01,2.01283e-01,-1.08317e-03,2.37218e-01,2.27493e-01,1.85114e-01,1.29494e-01,-6.75239e-02,-3.18562e-01,9.61260e-02,2.36574e-01,1.06867e-01,3.73930e-01,-3.89540e-02,2.13597e-01,-9.91908e-02,1.63464e-01,5.84814e-02,-1.85688e-01,2.19700e-01,-5.89008e-02,-2.19122e-01,1.94777e-01,1.70828e-01,-1.53023e-01,-2.81499e-01,1.22291e-01,9.06209e-02,
3.43869e-03,-3.01929e-03,-3.39876e-02,7.45502e-02,-1.01043e-01,5.43866e-02,1.12317e-01,-2.51812e-01,-2.18608e-01,1.90478e-01,-2.94325e-01,-2.99695e-01,-2.49495e-01,1.76380e-01,-5.61568e-02,9.75733e-02,1.73067e-01,-2.07011e-01,-4.26435e-02,4.05746e-02,2.01186e-02,2.23092e-01,4.27843e-02,1.62987e-01,1.57650e-01,1.37162e-01,-1.08309e-01,5.55573e-02,2.81826e-01,1.24116e-01,1.22078e-01,2.25757e-01,-2.22632e-01,1.04224e-01,-3.37292e-01,-1.23981e-01,3.93347e-02,4.91306e-02,-3.35437e-01,6.65959e-02,-1.26989e-01,-1.40885e-01,5.00247e-02,3.49034e-01,-5.20046e-02,
1.35320e-02,-3.20503e-01,4.53755e-01,-2.75436e-01,5.27325e-01,1.58333e-01,-3.11626e-01,2.43857e-01,-1.31235e-01,-7.30445e-02,1.62301e-01,2.78470e-01,-1.08051e-02,1.33027e-02,3.96689e-02,-8.52204e-01,9.03699e-02,8.44568e-03,1.77244e-01,6.86887e-02,2.17231e-01,-7.72133e-02,-1.39970e-01,7.94321e-02,2.38884e-01,-3.77105e-01,3.10512e-02,4.73212e-02,4.44170e-02,2.53710e-01,1.45574e-01,-2.69611e-01,-2.65953e-01,4.93544e-02,-4.36664e-02,-2.50436e-01,2.28494e-01,2.08909e-01,-2.13247e-01,1.51534e-01,3.08808e-01,5.70615e-02,-2.75022e-01,-2.40449e-01,-1.09958e-01,
9.89623e-02,2.62830e-02,-1.57331e-01,2.40494e-01,-3.32063e-02,2.13152e-01,2.91051e-02,2.72827e-04,-2.49293e-01,4.16106e-01,1.09036e-01,-1.44504e-01,1.10709e-01,2.97537e-01,6.71388e-02,-6.43669e-02,4.73296e-02,-1.52607e-01,-1.47923e-01,-1.41364e-01,3.39337e-02,2.51557e-01,1.85696e-01,1.74066e-02,7.61756e-03,1.02673e-01,1.92886e-01,-5.57767e-02,1.85294e-01,2.72162e-01,-1.25647e-01,1.77804e-01,-3.05425e-02,-1.23873e-01,1.04842e-01,-1.19904e-01,-1.45574e-01,-7.37149e-02,9.76704e-03,1.21963e-01,1.47786e-01,-2.42863e-03,-3.06534e-01,-1.00530e-01,1.20620e-01,
-2.62023e-02,-1.48823e-02,-9.18907e-02,9.55997e-03,-3.29002e-01,7.43202e-02,5.06072e-02,-7.41784e-01,1.25313e-01,-2.03912e-01,-7.02399e-02,1.58883e-01,1.71182e-01,6.13031e-02,-9.38689e-02,-1.96643e-02,-1.08003e-01,-2.68076e-01,-7.23023e-02,-1.31302e-01,1.37845e-01,-1.33572e-01,1.49761e-01,-6.46533e-01,-6.26908e-03,-8.45099e-02,3.49170e-02,-8.25067e-02,1.16518e-01,-1.92387e-01,6.84061e-02,-1.10217e-01,-1.02040e-01,-1.78039e-02,-2.56938e-02,1.75676e-01,-1.05437e-01,1.73816e-02,3.11772e-01,1.73170e-02,1.12302e-03,-1.42229e-01,5.58471e-02,1.77010e-01,-1.89739e-01,
9.32462e-02,-5.46570e-02,-4.47039e-01,-8.54235e-02,1.18108e-01,-1.15694e-01,9.91150e-02,-2.47272e-01,-3.26426e-01,8.37900e-02,-1.09866e-01,2.95989e-03,2.94268e-01,-9.07038e-01,-3.79793e-01,-3.21854e-01,-2.85181e-01,2.84896e-01,1.95510e-01,4.39144e-02,7.72247e-02,-1.55656e-01,1.31045e-01,1.60164e-01,1.30580e-02,5.65168e-02,-3.97298e-01,5.12430e-02,2.78402e-01,2.17655e-01,2.08709e-01,-1.80888e-01,1.94504e-01,-1.41038e-01,-2.52683e-01,1.74098e-01,-1.20710e-01,-1.75657e-01,-3.22100e-01,-3.31091e-02,-1.17307e-01,5.16914e-03,8.25076e-02,2.27517e-01,8.46595e-02,
1.56388e-01,9.01731e-02,2.79687e-01,1.82097e-02,1.52064e-01,1.36920e-01,-1.18410e-01,3.31306e-03,1.85920e-01,-1.13379e-01,-3.19406e-01,1.75207e-01,-2.34313e-01,-8.41955e-02,-2.46997e-02,-1.36005e-01,-1.49592e-01,7.48019e-02,-1.16785e-01,1.00554e-01,1.76065e-01,7.66284e-02,1.18501e-02,-1.75143e-01,-2.65843e-02,-1.19282e-01,1.45268e-01,2.06260e-01,2.15065e-01,2.04627e-01,3.29387e-02,1.87484e-01,-2.64104e-01,1.20574e-01,1.00481e-01,4.01297e-01,1.31337e-01,8.02706e-02,-2.20548e-01,5.03509e-02,-1.69600e-01,-9.35233e-02,-5.33868e-02,3.90040e-01,2.38321e-01,
-2.51395e-02,-1.36711e-01,4.80492e-01,1.00556e-02,6.37391e-02,-8.63636e-02,1.13137e-01,2.53996e-01,1.15053e-01,5.96737e-02,2.94388e-02,-2.43894e-01,-9.90315e-02,2.69013e-01,4.54897e-02,2.37427e-01,-3.23290e-01,5.39993e-02,1.31264e-01,6.95097e-02,4.70736e-02,2.72729e-01,1.74547e-01,3.52380e-01,1.43182e-01,4.06370e-02,-3.39329e-01,2.28210e-01,-2.96399e-01,-6.25924e-02,1.22550e-01,-4.51630e-02,-8.84010e-02,-2.15263e-03,-3.34833e-01,5.13759e-02,-1.17713e-01,7.65985e-02,-5.41103e-01,-4.03857e-01,-1.44015e-01,-8.60815e-02,-6.74993e-02,1.94780e-01,-2.29199e-01,
-8.35320e-02,2.29458e-01,-2.86050e-01,-2.48243e-01,1.76066e-02,-1.91224e-02,2.10323e-01,6.30008e-02,-2.08015e-01,9.90523e-02,-8.49842e-02,-7.41996e-02,7.47627e-02,2.25273e-01,-2.86088e-02,4.20270e-02,2.04596e-01,-2.54263e-01,-4.58653e-02,-3.55371e-02,-2.38710e-01,1.23591e-01,1.71861e-02,-9.60735e-02,-2.19711e-01,-1.57682e-01,1.19294e-01,5.45702e-02,-4.03684e-02,2.66184e-01,-1.37695e-01,1.64391e-01,-8.11470e-02,-1.75797e-01,-1.87481e-01,-1.05905e-01,1.30799e-02,-7.45975e-02,1.61267e-01,6.48971e-02,-1.18510e-01,-1.48042e-01,-7.97636e-02,-1.79171e-01,-2.24498e-01,
8.23962e-02,3.22321e-01,-7.47148e-02,1.02684e-01,-5.82071e-01,-5.18797e-02,-5.18198e-01,-3.85461e-01,-1.99988e-01,2.82411e-01,2.00070e-01,3.18646e-02,8.65179e-02,-1.12297e-01,-4.60130e-01,1.43338e-01,2.37030e-01,-1.14057e-01,-2.15867e-01,-4.95263e-02,-9.59335e-02,-1.13371e-01,-2.39157e-01,-5.00257e-01,-1.53232e-01,3.69619e-01,-1.39333e-02,1.42525e-01,2.24182e-01,-1.39533e-01,-5.00182e-02,-1.02341e-01,4.92275e-01,-1.53960e-01,1.29067e-01,-5.65623e-01,4.72734e-02,1.96549e-01,1.31463e-01,1.96244e-01,1.85175e-01,1.33594e-01,3.54571e-01,-1.25071e-01,-3.62439e-02,
