// Neural Network File Format by Kyle Julian, Stanford 2016
7,4,9,45,
4,45,45,45,45,45,45,9,
0,
-8000.0,-100.0,-100.0,0.0,
8000.0,100.0,100.0,40.0,
0.0,0.0,0.0,20.0,-0.4325993796315559,
16000.0,200.0,200.0,40.0,3.102300000999995,
3.03228e-01,-1.00583e+00,4.46840e-03,1.37525e-03,
1.42961e+00,6.16870e-02,4.05602e-01,1.64798e-01,
-2.80645e-01,1.81257e-01,-1.84876e-01,-2.65809e-04,
1.65500e-01,-8.58964e-01,-5.14626e-03,-5.91320e-05,
4.43223e+00,-1.38923e-03,-3.08091e-03,1.35378e-02,
-9.55274e-01,-2.06664e-02,-1.14306e-01,-5.19303e-01,
2.48421e+00,-2.10266e-01,2.00176e-01,-7.74209e-02,
9.08400e-02,1.68002e-01,-1.68149e-01,5.61155e-01,
2.15668e-01,-9.88693e-02,2.21206e-01,-9.74577e-03,
8.43845e-02,-1.21684e-01,-1.86868e-01,2.88269e-01,
-4.00926e-01,1.92172e-01,1.70489e-01,-4.19499e-01,
-5.05638e-02,3.45513e-01,-6.77911e-02,3.20813e-01,
-3.73340e+00,-3.46081e-02,1.03934e-01,3.82862e-02,
-2.19973e+00,1.67754e-01,-1.99449e-01,1.28359e-01,
-1.80529e+00,-8.33966e-02,1.05659e-01,-4.22203e-01,
5.47904e-03,-1.07927e-01,-7.61035e-02,-2.12923e-01,
-1.13858e+00,-7.11990e-02,-7.52853e-02,1.31562e-01,
-8.11250e-01,-1.11369e-01,1.16786e-01,-5.53280e-01,
-2.27543e-01,-3.10029e-01,1.90540e-01,3.57996e-01,
-2.98346e+00,8.07891e-02,-6.69327e-02,5.70344e-02,
-8.43020e-01,1.28526e-01,-1.15937e-01,3.27587e-01,
3.51169e+00,7.62604e-02,-8.17806e-02,3.70554e-02,
-5.78109e-01,-1.66707e-01,4.58094e-01,-1.67831e-02,
5.11362e-03,2.60989e-01,7.43566e-02,1.36326e-02,
-2.67273e-01,-2.77370e-01,2.34091e-01,3.96046e-01,
5.52865e-01,3.14212e-01,-3.81346e-01,1.44136e-01,
1.16549e+00,-6.24709e-01,-7.12833e-02,2.50357e-02,
1.54456e+00,2.07211e-02,1.63314e-01,-4.01590e-02,
1.86965e+00,-2.31282e-01,1.95098e-01,-1.63200e-02,
3.76148e-02,-1.08370e-01,1.34871e-01,3.23415e-01,
7.26792e-02,4.55841e-01,2.60713e-01,5.76755e-02,
-6.54471e-02,-4.78517e-01,4.67868e-01,1.67696e-01,
5.26049e-01,2.07221e-01,-2.38703e-01,3.75033e-01,
3.92645e-01,-6.01089e-02,-1.78919e-02,-8.16735e-01,
1.22309e+00,2.70453e-01,-2.68394e-01,-9.45199e-02,
1.22737e+00,-3.91841e-03,2.12321e-01,-2.12620e-02,
-8.46035e-01,5.51994e-01,4.67006e-02,-2.37271e-02,
2.33947e-01,9.53103e-02,1.05016e-01,-4.41532e-01,
8.88594e-01,1.56757e-01,7.87458e-02,7.57962e-02,
-5.09798e-01,2.76617e-02,1.01829e-01,2.42642e-01,
1.80967e+00,-2.04734e-01,2.28436e-01,3.05650e-01,
1.68789e+00,2.44183e-01,-2.18813e-01,-3.23553e-01,
-5.57928e-01,-7.58624e-01,-1.70082e-02,-1.84907e-02,
2.76697e-01,8.64102e-01,-6.46877e-03,2.47725e-03,
2.58727e-02,5.48524e-01,-4.43339e-01,2.78050e-02,
-1.07196e-01,
-5.43181e-02,
4.95172e-02,
1.15141e-01,
1.06432e-02,
-1.25623e-01,
3.64600e-02,
2.20737e-01,
-1.09876e-02,
-3.19838e-02,
-9.12280e-02,
-1.31849e-02,
1.34710e-01,
8.84278e-02,
-1.16203e-01,
1.41983e-02,
5.99914e-02,
-2.64738e-01,
3.29832e-02,
1.26258e-01,
1.52777e-01,
1.67573e-01,
5.48848e-02,
-1.01765e-01,
9.89275e-02,
1.25386e-03,
9.32519e-02,
9.89156e-03,
4.47077e-02,
1.40764e-01,
-5.58570e-02,
7.58771e-02,
1.45644e-01,
-1.71106e-01,
-3.12513e-02,
1.38866e-02,
-3.53670e-02,
-1.22274e-01,
6.41812e-02,
7.12062e-02,
1.76330e-01,
-3.20957e-02,
-4.93404e-02,
-1.06527e-01,
-4.34795e-02,
-2.57623e-01,-2.88271e-01,3.94154e-03,2.91951e-01,-1.05778e-01,7.52208e-02,4.21314e-01,2.63492e-01,-3.05392e-01,-2.42815e-01,4.53763e-02,1.46596e-01,-4.97879e-01,-1.15077e-01,-2.01814e-01,2.67745e-01,-3.25988e-01,1.21493e+00,-1.88259e-01,-4.32433e-01,-1.10768e-01,2.62896e-01,2.79699e-01,1.48423e-01,-2.79549e-01,-7.51360e-01,-2.48414e-01,-1.43365e-01,-6.95674e-02,-1.97647e-01,3.61002e-01,4.87944e-01,1.24368e-01,1.99533e-01,-2.67428e-01,-1.46036e-01,7.79738e-02,3.04804e-02,4.13986e-02,3.21682e-01,-6.95899e-02,2.05725e-01,-5.42465e-02,-2.28107e-01,8.12752e-02,
-2.02243e+00,-2.96341e-01,1.04719e-01,2.09935e-01,6.26876e-02,9.42650e-02,-2.26384e-01,3.26371e-02,3.49897e-01,1.52793e-01,-3.77818e-02,-4.09338e-01,-1.80103e-01,-2.08710e-01,-3.74960e-02,-2.98790e-02,-1.64030e-02,-5.12032e-01,9.08259e-03,-1.56030e-01,-8.68997e-02,7.85527e-03,3.32146e-01,3.53699e-01,-4.25371e-02,6.51851e-02,7.47964e-02,7.11196e-02,-4.50055e-02,1.46417e-01,3.35246e-01,-6.62698e-02,2.67758e-01,-7.97008e-02,1.31541e-01,2.20365e-01,-3.56201e-01,-9.47268e-02,1.61034e-01,-6.59769e-02,-1.36358e-01,3.18788e-01,-6.40086e-01,-4.56789e-01,1.69831e-02,
2.36597e-02,5.45767e-01,-1.75375e+00,1.92204e-01,-4.97684e-01,-5.85801e-01,4.87306e-01,-3.43629e-01,2.94735e-01,9.11355e-02,-4.96972e-02,-3.11973e-02,3.24592e-01,-4.29411e-01,-7.89624e-01,5.36402e-02,1.91290e-01,-1.56197e+00,5.41496e-01,1.36591e-01,-3.57434e-01,1.48422e-01,9.60613e-02,-1.02494e+00,4.55096e-01,-3.95046e-01,6.64295e-02,5.44792e-02,3.31301e-01,1.24361e-01,-1.55061e-01,2.57895e-01,-6.56876e-01,-7.46537e-02,-9.46446e-01,2.07724e-01,-1.35396e-01,-2.78788e-01,-6.16286e-02,1.55994e-01,2.61313e-01,2.57287e-02,-2.05526e-01,-2.45984e-02,2.60488e+00,
-5.46075e-02,2.01047e-02,1.05591e-01,-2.35195e-01,1.17614e-01,-1.34391e-01,1.72750e-01,-2.86902e-01,-2.84063e-01,-1.76492e-02,-1.71891e-01,-2.65452e-01,1.35623e-01,1.90053e-01,-6.94293e-01,-1.05887e-01,8.36817e-02,-2.29774e-02,2.07213e-01,1.56861e-01,2.20555e-01,-5.05681e-02,1.16875e-01,-2.23144e-01,3.43836e-01,-1.45926e-01,2.54501e-02,-3.41343e-01,-1.21531e-01,6.96445e-02,-2.87681e-01,3.97845e-01,-8.09689e-02,-7.54604e-02,9.66065e-02,-1.94393e-01,-1.23239e-01,-7.79186e-02,-9.13807e-02,-4.35810e-01,1.78810e-01,9.01054e-02,-4.43946e-01,2.00299e-01,-3.90521e-01,
1.54172e-02,7.99963e-02,-7.56515e-02,-1.43039e-01,-9.82257e-02,3.78673e-01,-3.20890e-02,8.95090e-02,2.65477e-01,1.88124e-01,-1.34100e-02,4.43498e-01,-1.63418e-02,3.07599e-01,4.94134e-01,3.12330e-01,-5.54160e-01,8.33640e-01,-1.25017e-01,1.75232e-01,2.63856e-01,-3.08813e-01,2.35631e-01,1.94386e-01,1.07545e-01,2.43242e-01,-1.24900e-01,2.98217e-01,-5.95803e-02,-1.98606e-01,-4.51843e-02,-2.47404e-01,-1.03562e-01,5.50478e-01,6.81451e-02,9.46136e-02,1.78378e-02,3.79131e-01,-5.10916e-02,3.75567e-01,-2.95264e-01,1.90410e-01,-2.91988e-01,3.94432e-01,4.85053e-01,
-2.28798e-01,-6.16889e-02,-1.95043e-01,2.51432e-01,-2.51045e-01,2.02418e-01,1.71891e-01,1.03900e-02,7.89583e-02,-1.99839e-01,-2.29006e-01,5.37258e-01,1.48135e-01,-1.92876e-01,2.67152e-01,2.49807e-01,3.06331e-01,4.47358e-01,6.53042e-02,4.17432e-01,5.33724e-02,-5.15668e-01,3.35053e-01,3.16847e-01,2.71670e-01,-4.44648e-01,-3.36884e-01,2.05531e-01,-2.80418e-02,1.24944e-01,-2.50798e-01,3.95044e-01,-3.44046e-01,3.08706e-01,2.61232e-01,3.38425e-01,-5.73123e-01,3.80511e-01,-2.97227e-01,-8.10146e-02,-1.94827e-01,1.33150e-01,4.30203e-01,2.86474e-01,2.39799e-01,
-1.04621e-01,3.44423e-01,4.86503e-01,-3.48260e-02,1.37537e-01,4.54477e-01,-2.02282e-01,-1.71978e-01,-6.70897e-02,-1.68471e-01,1.00370e-01,4.44843e-01,2.89695e-02,-2.81863e-01,-5.20170e-02,2.00576e-01,1.01860e-01,3.90991e-01,6.74785e-02,3.90374e-02,-1.17588e-01,-1.94544e-02,-1.33520e-01,2.60573e-01,1.57601e-01,-1.90474e-01,3.37045e-01,-1.54394e-01,-2.30613e-01,7.39802e-02,2.79202e-01,-3.84168e-01,-3.89648e-02,1.87216e-01,6.09961e-02,-1.34683e-01,3.63307e-02,-1.95538e-01,7.93205e-03,4.47198e-01,1.01507e-01,5.96048e-02,2.68087e-01,1.91583e-01,-8.26564e-01,
-1.12684e-01,-6.77258e-02,4.47032e-01,3.17773e-01,2.57572e-01,-2.49121e-01,-4.30693e-02,-1.96111e-01,-1.11476e-02,9.09183e-02,4.52733e-02,-2.38937e-01,-1.19857e-01,2.11203e-01,-1.50112e-01,-3.59033e-02,2.32279e-01,1.04082e-01,1.73828e-02,1.02760e-01,1.67231e-01,1.63288e-01,1.66650e-03,5.59797e-01,3.26126e-01,1.39092e-01,2.32835e-01,1.51685e-01,-1.34547e-01,1.13467e-01,-3.29524e-02,1.06498e-01,-3.09148e-01,3.93564e-02,-1.60814e-01,2.49434e-01,-7.64975e-01,3.37373e-01,-3.95100e-01,-2.08558e-01,3.05807e-02,-2.08354e-01,-2.34705e-01,-2.46977e+00,1.13629e-02,
-1.99234e+00,-7.99228e-03,1.71497e-01,-1.63968e+00,1.55344e-01,7.79782e-03,-6.06524e-02,-1.22394e-02,1.00894e-01,3.47526e-02,1.19611e-02,-7.42268e-02,-1.83016e-01,-3.58913e-03,-2.56913e-02,4.22142e-02,2.18963e-02,-5.08033e-02,-9.95233e-02,-2.67436e-02,-2.71757e-02,2.20773e-01,5.46847e-02,-2.08936e-01,4.25435e-02,9.72319e-02,-8.85927e-01,1.01725e-01,-1.84937e-01,-7.76035e-02,-3.01467e-02,2.20116e-02,6.78633e-02,-4.76160e-03,-3.44982e-02,-3.42335e-02,-3.83787e-01,4.46478e-02,4.35493e-01,1.53773e-01,-2.31992e-02,5.12946e-02,-8.54406e-01,3.54489e-01,1.22795e-02,
-2.41845e-01,-1.35289e-01,-2.56037e-01,1.68767e-01,-6.98250e-03,1.78809e-01,-1.68471e-01,-2.11758e-01,2.07327e-01,2.29268e-01,-1.35153e-01,-6.12614e-03,-1.57416e-02,-6.51330e-02,-2.05700e-01,-1.84520e-01,-5.22286e-03,-2.54082e-01,-1.36379e-01,-1.42251e-01,1.05000e-01,2.70820e-02,-1.71747e-01,-8.36450e-02,-1.57278e-01,-1.94472e-01,5.69385e-02,-1.10428e-01,-9.62314e-02,-1.06384e-01,2.82373e-02,-2.06869e-01,2.00974e-01,6.21614e-02,5.99807e-02,8.83573e-03,-2.23700e-01,-1.08893e-01,-2.96596e-02,9.17021e-02,-1.99236e-01,5.07509e-02,-2.57737e-01,-8.89330e-03,-1.43215e-01,
-2.49285e-01,1.28865e-01,-2.84092e-01,1.07099e-01,-5.38134e-01,-4.84211e-01,2.16318e-01,-1.38715e-02,-1.26755e-01,1.10746e-01,-1.66356e-01,-1.59742e-01,-5.34787e-02,1.03070e-01,-2.37358e-02,2.01558e-01,3.24451e-02,-1.12825e+00,1.95622e-01,2.80816e-01,-1.89982e-01,4.43612e-01,1.67056e-01,-9.41411e-02,4.00702e-02,-4.05630e-01,1.52598e-01,2.52714e-01,-1.82893e-02,2.56512e-01,3.51412e-02,-1.11249e-01,-5.92010e-01,-5.00926e-01,-4.17465e-01,2.80534e-01,1.28490e-01,-1.68123e-01,4.02785e-01,2.53862e-02,4.11293e-01,-4.32998e-01,2.48133e-01,-1.50681e-01,-1.02016e+00,
-6.37186e-02,2.30957e-01,2.75208e-01,-2.69200e-01,1.80214e-01,1.53739e-02,-4.53337e-01,5.10360e-01,-9.23197e-02,1.92347e-01,-2.95648e-02,-1.00259e-01,-2.85427e-01,2.83540e-01,4.65196e-03,2.93755e-01,5.12523e-01,-2.41522e-01,-5.34947e-01,1.27626e-01,4.10528e-01,7.54699e-02,-1.37910e-01,6.62496e-02,-4.78828e-01,2.70283e-01,2.36314e-01,1.08168e-01,-3.25495e-01,7.01053e-03,1.00048e-01,-8.88985e-01,3.30187e-01,-2.96780e-01,-2.32228e-01,-3.87551e-02,-2.18974e-01,-3.60741e-03,1.65308e-01,-3.72461e-02,-8.05519e-02,-9.88874e-02,-9.34173e-02,3.55257e-02,-1.77275e-01,
-3.25933e-01,6.74953e-02,-5.73572e-01,-9.67659e-02,-1.30251e-01,-1.51239e-01,-4.73819e-02,-1.85825e-01,-7.52697e-02,2.96445e-02,-3.97232e-01,2.97009e-01,5.30178e-03,-3.12567e-01,-2.13725e-01,-7.07169e-02,-1.24595e-01,-2.31050e-01,-2.09743e-01,2.60703e-02,-1.23370e-01,5.52946e-02,4.03527e-01,-1.66071e-01,1.98732e-03,1.22066e-01,-2.00998e-01,-7.48849e-02,1.45639e-01,2.30145e-01,1.59098e-01,5.26647e-01,2.30214e-02,-1.62892e-01,1.70687e-01,2.03162e-01,-4.26428e-02,-4.42381e-01,-2.45144e-01,1.33021e-01,4.18431e-01,4.83327e-02,3.26659e-01,-1.76375e-01,5.20019e-02,
-2.08734e-01,-4.57632e-01,9.32302e-02,1.21712e-01,-1.33363e-02,-5.44470e-01,-4.93940e-02,3.06275e-01,3.16466e-01,-1.93151e-01,7.84826e-02,-7.92452e-03,-1.16509e+00,-5.96191e-01,-2.96435e-01,-4.81373e-01,3.56890e-01,-1.40235e+00,4.15991e-03,-1.78779e-01,-9.41340e-02,4.61078e-01,-4.22555e-02,-8.83262e-02,1.61498e-01,-4.85452e-02,5.33670e-02,4.15798e-03,6.39656e-03,2.13840e-01,-1.48953e-02,-7.70384e-01,-5.16153e-02,-1.00690e-01,-5.41371e-01,-1.56203e-01,-1.65166e-02,1.26677e-01,2.89350e-01,-2.72506e-01,4.18093e-01,-4.63228e-01,-1.28424e-02,-2.10359e-01,-5.20231e-01,
3.56307e-01,-2.66419e-01,3.16369e-01,7.13194e-02,-8.76880e-02,-2.24427e-01,3.25250e-01,1.25494e-01,-4.73748e-01,9.14628e-02,6.10597e-01,3.92282e-01,-3.86284e-01,-8.26803e-02,-2.96600e-01,9.13161e-02,-1.67746e-01,-1.07235e+00,-2.69703e-01,-4.09262e-01,-1.63392e-01,3.99137e-01,4.39749e-03,-7.63039e-02,-3.01298e-01,5.92115e-02,4.24860e-01,-5.76908e-01,3.07890e-01,-4.06586e-02,-4.44001e-02,2.80973e-02,2.55193e-01,-2.04463e-01,-8.36119e-02,-2.94257e-01,1.79322e-01,-2.26938e-01,-3.05142e-01,-2.04855e-01,3.10795e-01,-1.04992e-01,-2.23025e-01,-5.77235e-01,2.20033e-01,
-1.04191e+00,3.72071e-01,1.17411e-02,-2.98651e-01,-2.51652e-01,-1.82363e-01,-3.04150e-02,7.02072e-02,-2.66770e-01,-8.83799e-02,-1.01558e-01,-5.76121e-02,3.62340e-01,1.39451e-01,-9.89559e-02,2.68400e-02,-2.25476e-01,-8.17093e-02,1.01454e-01,1.31516e-01,8.47439e-02,-4.88595e-01,1.85871e-01,4.98946e-01,1.18339e-01,3.59443e-01,-6.54072e-02,1.49863e-01,-3.98393e-01,-2.54681e-02,6.19109e-03,-9.25078e-02,-9.99148e-02,-4.18752e-02,-1.09635e-01,3.11468e-01,-3.91194e-01,2.59579e-01,2.73188e-01,-1.53772e-01,-1.46664e-01,6.47235e-02,-3.78985e-01,-2.53290e-01,-1.15613e-01,
-1.10471e-01,8.54877e-02,-8.42860e-02,-3.44804e-03,-9.53188e-02,1.96882e-01,1.64374e-01,-8.17669e-01,-4.28369e-02,2.26566e-01,1.15380e-01,-3.35321e-01,-5.75242e-01,-4.59413e-01,-2.59572e-01,8.23562e-02,-9.70474e-02,-2.15119e+00,4.68070e-01,-4.18450e-01,-3.17838e-01,1.75076e-01,9.55836e-02,-1.33992e-02,6.76041e-01,-6.12815e-02,5.19785e-02,-6.82865e-02,4.17592e-01,3.17882e-01,-1.49790e-01,2.74888e-01,-3.30365e-01,3.08268e-01,2.66429e-01,1.71169e-01,2.94073e-02,1.71296e-01,8.07055e-02,1.84203e-01,3.81718e-01,4.52867e-01,2.24758e-02,-6.17738e-02,6.32533e-02,
-1.55972e-01,-3.46019e-01,7.39091e-02,2.23355e-01,-2.29762e+00,1.69297e-01,-2.66248e-01,1.19447e-02,2.59666e-03,-2.29552e-01,2.07148e-01,5.75652e-02,3.81236e-01,-1.82447e-01,-8.85832e-02,8.15397e-02,-1.19386e-01,3.90493e-01,6.29316e-02,3.62190e-01,2.99858e-01,-9.16229e-01,7.10630e-02,3.02893e-02,2.03715e-01,-1.38923e-01,-1.53184e-01,-1.09309e-01,-3.74128e-01,2.59593e-01,1.38023e-01,-6.74729e-02,7.23634e-02,4.97967e-01,-3.72389e-01,-7.49484e-02,1.22228e-01,1.20566e-01,-6.47334e-02,1.77243e-01,-1.22838e-01,-1.34870e-01,-8.48199e-02,-1.16669e-02,1.42269e-01,
-1.64998e-01,-5.07426e-02,2.34859e-01,6.25668e-02,-1.74947e-01,3.69274e-02,-2.23123e-01,3.87561e-02,-4.39844e-02,-3.32010e-01,-1.36435e-01,-1.89767e-01,2.91941e-01,-9.09261e-02,-7.39060e-01,-3.05248e-01,-3.30351e-02,1.79895e-01,-1.26160e-01,4.68154e-01,1.33850e-01,-5.63323e-01,1.07917e-01,2.68357e-01,2.94123e-01,-2.73138e-01,2.51763e-01,1.28697e-01,-1.50987e-01,1.39984e-01,-1.19019e-01,-4.92224e-02,-3.16478e-01,-3.32943e-01,1.74708e-02,7.91381e-02,-1.37265e-01,3.56734e-02,3.38634e-01,1.52958e-01,4.99341e-02,2.82794e-02,-1.12677e-01,-5.06333e-02,-3.30884e-01,
6.06958e-03,5.80699e-02,1.00109e-01,3.65202e-01,-6.63729e-02,-9.85908e-02,-9.88688e-01,5.06804e-01,-2.03360e-01,-2.66432e-01,-1.47360e-01,-2.13996e-01,3.37217e-01,-1.62397e-01,-5.82820e-02,-2.71236e-03,-8.21497e-03,-1.40933e+00,-3.03190e-01,7.13955e-02,7.79019e-02,-1.76559e-02,3.28823e-02,1.75262e-01,-2.37024e-01,4.13880e-04,7.10797e-02,1.15341e-01,-3.59738e-01,-2.71773e-01,1.53386e-01,-8.37155e-02,7.12809e-02,-6.00442e-01,-1.18593e-01,1.82596e-01,-1.04932e-01,-1.12506e-01,1.71776e-01,-5.34246e-02,-3.65475e-01,-1.18210e-02,-2.49493e-01,9.62948e-02,2.65364e-01,
-2.94068e-01,-4.47407e-02,2.08502e-01,-1.16318e-01,-6.51390e-02,4.30089e-01,9.35150e-02,1.02862e-01,2.28078e-01,-1.09591e-01,3.06340e-01,-2.26731e-01,-4.21006e-01,2.51372e-01,-3.34263e-02,1.52028e-01,3.07779e-01,-3.28375e-02,-3.03307e-02,-2.48220e-01,1.21436e-01,1.95811e-01,-1.66697e-01,-2.79701e-01,-2.26215e-01,4.77454e-01,1.71767e-01,-2.95338e-02,-2.44979e-02,1.22357e-01,-1.05125e-01,-2.46196e-01,3.02935e-01,1.37267e-01,-1.11981e-01,7.25124e-02,-6.34787e-02,4.23138e-02,-2.65484e-01,-1.45309e-01,8.67844e-03,-4.68388e-01,8.72138e-02,-3.38299e-01,3.24055e-01,
-1.66504e-01,-1.02638e-01,2.13114e-01,-3.55500e-02,-1.09885e-01,7.24316e-01,1.88540e-03,-9.51653e-01,-1.05410e-01,5.70559e-01,4.88114e-01,-3.23286e-01,-2.68171e-01,-4.46445e-01,4.66999e-01,2.85568e-01,4.40328e-02,-1.94619e-01,-7.27350e-01,-1.37929e+00,-8.84701e-01,2.39020e-01,1.49683e-01,1.51049e-02,-1.85068e-01,1.65308e-01,6.45632e-02,4.22341e-02,-1.96213e-01,1.21669e+00,-1.83166e-01,-4.23277e-01,-2.77742e-01,7.83339e-01,1.27553e-01,1.69382e-01,-1.12933e-01,2.22696e-01,-1.11043e-02,-4.56659e-01,-1.01765e-01,4.60203e-01,1.85945e-01,6.36486e-02,3.33737e-01,
-1.29068e-01,4.77549e-01,-1.53616e-01,2.82338e-01,1.02837e-01,-1.02890e-01,-2.60459e-01,7.56772e-01,-1.85110e-01,1.37779e-01,2.52527e-01,4.00720e-01,5.01586e-01,1.52434e-01,6.80325e-01,3.67488e-02,-1.96415e-01,1.37712e+00,-1.99258e-01,-8.79588e-02,2.81951e-01,-3.54645e-01,1.71818e-01,2.45377e-01,-7.56304e-01,5.26432e-02,-7.86312e-03,1.91286e-01,-1.15428e-01,-5.76477e-01,-1.20339e-01,-2.95301e-01,4.50619e-01,-1.99647e-01,-1.24721e-01,-1.33903e-01,-9.02876e-02,-6.35906e-03,2.19247e-01,-7.01929e-01,-6.12230e-01,3.50992e-02,1.33265e-01,-1.08014e-01,2.88655e-01,
6.70063e-01,-5.11994e-01,1.56214e-01,-9.81161e-01,9.06927e-04,-6.64548e-02,8.02173e-02,3.17974e-02,3.41628e-01,3.07590e-01,-8.66235e-02,-2.57286e-01,-1.32638e-01,9.89209e-02,2.94250e-01,-3.14156e-01,2.82620e-01,7.29681e-01,8.71789e-03,2.35414e-01,-1.34631e-02,-1.74813e-01,-1.87478e-01,-3.90519e-02,-1.45611e-01,2.05003e-01,2.25463e-01,5.67646e-01,-9.14081e-02,4.17258e-02,9.13427e-03,-8.98784e-02,-4.66355e-02,-1.37278e-01,-4.40572e-01,1.44954e-01,-3.15912e-01,4.04840e-01,2.83890e-01,-2.39384e-01,-3.61995e-01,1.94419e-01,-1.10515e-01,-1.13376e-01,-2.52222e-02,
-8.36419e-02,-2.49076e-01,9.24034e-02,-1.27994e-01,6.09826e-01,7.08105e-02,7.58425e-02,-8.95334e-02,-3.92760e-02,1.67627e-01,-4.90037e-02,-9.52636e-02,-7.98440e-01,-5.66407e-01,-1.74306e-01,2.99861e-02,-8.01983e-02,-5.81849e-01,-1.39956e-01,-2.85961e-01,1.77149e-01,7.06681e-01,1.65490e-01,9.40397e-02,5.23996e-03,9.42527e-02,2.49150e-01,4.39567e-03,3.37515e-01,-1.12257e-01,1.14544e-01,-5.32448e-02,-2.38052e-02,9.99826e-02,3.04538e-01,1.84487e-02,-1.78566e-01,6.00462e-02,-6.56994e-02,2.62490e-01,2.25959e-01,1.01207e-01,-1.49070e-01,1.52048e-01,3.26172e-03,
9.42834e-03,5.88117e-01,2.84640e-01,1.32927e-01,2.61156e-02,3.59562e-01,-1.55905e-01,4.22255e-01,2.65985e-01,1.24571e+00,2.50349e-01,-6.35438e-01,2.28938e-01,3.27099e-01,2.79828e-01,1.05965e-01,-4.91545e-02,8.82009e-02,-1.57366e-01,-3.11789e-01,-2.65235e-01,1.30657e-01,3.18003e-01,-6.24278e-01,-2.13636e-01,5.04627e-01,1.46633e-01,-2.59820e-02,1.02599e-01,3.42045e-02,3.56889e-01,-4.01366e-01,2.25755e-01,7.10456e-01,-3.59135e-01,4.01851e-01,-4.25671e-01,6.20703e-01,-3.67745e-01,-3.96756e-01,-7.79488e-01,-8.50517e-02,3.06314e-01,-4.67388e-01,3.08864e-02,
1.14771e-01,1.64195e-01,1.07237e-03,1.11520e-01,5.62220e-01,2.27333e-01,8.26463e-02,1.55257e-01,1.30702e-01,-9.74683e-03,-6.44128e-02,9.98889e-02,-7.53207e-01,-4.95746e-01,-3.34286e-01,1.97837e-01,-3.78055e-01,6.78367e-01,-1.74710e-01,-7.30599e-01,5.21385e-02,4.40534e-01,-3.91422e-01,2.60815e-01,1.99303e-01,-6.04184e-02,6.40519e-02,3.32014e-01,2.15328e-01,2.40931e-01,1.53718e-01,-1.74602e-01,7.65637e-02,5.92302e-01,-5.19234e-02,3.14667e-01,-6.25373e-02,1.49670e-01,2.80916e-01,-2.09991e-01,1.65697e-01,4.19356e-01,-2.86209e-01,3.19128e-01,4.19814e-02,
3.43645e-01,2.68812e-01,-1.61510e-02,4.03035e-01,-2.03142e-01,-2.94461e-02,1.06730e-01,-2.89822e-01,4.43592e-02,-1.53399e-02,-3.21198e-02,1.03481e-01,1.61442e-01,-7.17725e-02,-3.17955e-01,7.77341e-02,1.37023e-02,-1.46680e-01,1.59678e-01,3.69415e-01,-8.41830e-02,-1.93020e-01,-4.45449e-01,9.23726e-01,2.38044e-01,1.00834e-01,-8.78897e-02,-7.16062e-02,1.19588e-01,1.10385e-01,-3.03890e-01,3.32377e-03,1.10617e-01,-1.45686e-01,1.64749e-01,1.70432e-01,-1.04126e+00,-4.31814e-04,2.52526e-01,-1.02376e-01,1.37182e-01,9.33999e-02,3.80073e-01,-8.66054e-01,1.82998e-01,
-2.59481e+00,8.47932e-02,1.67531e-01,-5.61367e-01,-3.70323e-01,1.07556e-01,-1.10679e-01,-1.00854e-01,-7.13693e-02,7.71092e-02,1.50268e-01,4.31241e-02,7.83867e-02,-1.62317e-01,5.75834e-02,-2.76695e-02,-3.45582e-01,-2.23046e-01,9.11792e-02,1.68369e-01,3.30532e-01,1.60770e-01,5.68635e-02,1.26003e-01,-3.05978e-01,-2.23883e-01,-1.97687e-02,7.57862e-03,8.85606e-02,-1.12076e-02,8.83947e-02,-9.26789e-02,8.71714e-02,-9.44008e-02,-1.77200e-01,3.00459e-01,1.03850e-01,5.70737e-02,8.90413e-02,1.34336e-01,6.75672e-02,9.46760e-02,-8.73450e-01,2.61284e-01,-1.51796e-01,
8.47769e-02,-2.15907e-01,-7.29233e-02,3.06367e-01,-8.57473e-01,-2.81054e-01,-3.92924e-01,-6.88837e-02,-1.62806e-01,1.86166e-01,-3.55664e-01,-4.53297e-01,1.29755e-01,1.24043e-01,4.15027e-02,1.44991e-01,4.15283e-01,4.37236e-01,2.15544e-01,1.54609e-02,1.55375e-01,-5.74205e-01,1.73046e-01,1.16074e+00,8.47331e-02,2.09336e-01,1.52998e-01,4.85065e-01,-3.67024e-01,7.99737e-02,6.84484e-01,-2.47340e-02,8.33467e-03,-1.16157e-01,-3.72968e-01,-1.12912e-01,-9.30893e-01,-1.87767e-01,-3.13595e-01,-3.91224e-01,-5.48578e-02,-2.24459e-01,4.67955e-01,-1.27560e-01,-4.92617e-01,
6.35666e-01,4.35561e-01,-7.60718e-02,2.65896e-01,-3.13319e-01,1.02986e-01,1.95404e-01,-2.51893e-01,2.42236e-01,1.74542e-01,2.52264e-02,2.11731e-01,2.18058e-01,-1.36393e-01,-2.28669e-01,-1.68444e-03,-8.76440e-02,2.88343e-02,3.06275e-01,-1.25449e-01,1.54684e-02,-2.39506e-01,4.56395e-01,3.76243e-01,2.59999e-01,-1.74708e-01,1.42909e-01,3.39343e-01,1.87973e-02,-4.57753e-02,7.08266e-01,3.84977e-01,-9.10064e-02,2.61196e-01,4.95331e-01,7.58807e-02,6.23301e-01,-9.17110e-02,2.22741e-01,1.21813e-01,-2.08317e-01,2.73641e-01,1.34170e-01,2.91983e-01,3.76238e-01,
6.91101e-01,-3.74838e-01,1.58462e-01,4.06139e-01,3.44149e-01,9.42533e-02,-1.75243e-01,-1.06860e-01,-2.06156e-01,-1.61029e-01,1.72165e-01,-6.85783e-02,1.04013e-01,1.58653e-01,-2.48505e-01,-2.50220e-01,1.86890e-01,-2.30956e-01,6.73812e-02,-9.08521e-02,1.08458e-01,-2.22108e-01,3.44194e-01,1.37995e-01,-1.56239e-01,-2.00844e-01,4.89506e-01,-1.90036e-01,1.49678e-01,-1.17761e-01,2.62597e-01,8.87463e-02,-1.12782e-01,-2.25663e-01,-1.74632e-01,-1.10159e-01,2.92451e-01,-1.98123e-01,8.58398e-02,2.87119e-01,9.07646e-02,-3.87788e-01,3.91309e-01,3.17074e-01,4.03742e-01,
6.12365e-02,-2.47154e-01,-6.36611e-02,1.78090e-01,3.84754e-02,-4.95583e-01,2.01046e-01,-4.28558e-02,4.34711e-02,-2.89536e-01,1.17161e-01,-1.95144e-02,-5.07590e-01,-3.91931e-01,-5.64150e-01,4.31012e-02,-2.09250e-01,-1.86690e+00,-1.77866e-01,-1.34822e-01,-3.78434e-02,6.45614e-01,3.22082e-01,4.69014e-02,-1.62202e-04,-1.04007e-01,-2.59059e-02,5.64892e-02,9.82549e-02,3.42400e-01,-5.17194e-02,1.52643e-01,-8.61178e-02,-2.79304e-01,-1.69535e-01,-9.93770e-03,-1.34601e-01,-1.65843e-02,1.33358e-01,1.04024e-01,4.16155e-01,1.73462e-01,4.25879e-02,-1.64192e-01,-1.05519e-01,
6.22572e-01,3.56144e-02,-4.50925e-02,1.16772e-01,-1.01991e-01,1.40066e-01,-1.37746e-01,4.26237e-02,4.09588e-02,4.30247e-02,3.07465e-01,1.74636e-01,-3.41551e-02,4.23931e-02,2.58172e-01,-2.17825e-01,-1.80702e-01,4.31028e-02,2.52309e-01,9.50245e-02,1.02931e-01,1.99736e-01,6.38519e-02,4.26538e-01,9.61121e-02,2.57187e-01,1.46687e-01,-2.83902e-01,-1.08457e-02,-3.33585e-01,-2.97947e-01,-1.52436e-01,-2.03745e-01,-3.30818e-01,2.72003e-01,-3.23333e-01,1.72772e-01,-1.53616e-01,-3.98405e-02,-1.74507e-02,1.25580e-01,2.03480e-01,4.76529e-01,-1.49542e-02,3.11908e-01,
-6.89767e-01,-2.46049e-02,-2.69405e-02,-3.04603e-02,9.75934e-02,9.40169e-01,1.03459e-01,1.92072e-01,-1.03853e-01,-1.01103e-01,-2.18679e-01,-1.50279e-01,7.11097e-02,-6.22447e-02,5.52214e-01,-3.70185e-01,1.21842e-01,1.87552e+00,3.04100e-01,1.51263e-01,1.06827e-01,2.25994e-01,-5.91150e-02,-1.12272e-01,5.85108e-02,-2.76461e-01,-2.99135e-01,-6.89439e-01,-2.64510e-01,-2.77566e-01,-2.45026e-01,-7.84778e-02,-6.61914e-02,-3.02529e-01,4.61390e-01,-4.48022e-01,1.14527e-01,-9.97731e-01,1.39089e-02,8.55977e-02,3.06843e-01,-1.48889e-01,-1.02102e-01,-5.36341e-02,-5.62379e-01,
1.60895e-01,1.13040e-01,1.32767e-01,1.27692e-02,-1.97173e+00,9.45875e-02,-9.04414e-02,-1.93728e-01,1.92855e-01,1.08174e-01,7.00861e-02,-3.90418e-02,4.78228e-01,2.23502e-01,5.28495e-03,9.81824e-02,-2.55142e-01,6.59816e-02,-1.40623e-01,3.70588e-01,-1.20071e-02,-3.73932e-01,-6.56998e-02,-8.62439e-02,2.25796e-01,8.53775e-02,-2.17757e-02,-1.05101e-01,1.41071e-01,5.36227e-02,1.16627e-01,9.91149e-03,-1.54385e-01,4.27609e-02,-2.07849e-01,1.42144e-01,1.21776e-01,3.16538e-02,-1.59470e-02,1.24239e-01,-3.72516e-01,-9.58975e-02,-8.32586e-02,-1.87684e-02,6.95059e-02,
-3.06922e-01,1.26933e-02,-1.07196e-01,-2.55247e-02,-3.09621e-01,4.97658e-02,-3.23220e-02,-3.88329e-01,-6.73554e-01,-2.13774e-01,-9.55058e-02,-2.80354e-01,7.78145e-02,-4.32898e-01,7.74212e-02,2.28713e-01,-1.72299e-01,-6.48149e-01,2.82623e-01,1.14252e-01,-1.18871e-01,-8.58876e-03,3.16097e-01,-3.09571e-02,2.65656e-01,3.02410e-01,-1.44430e-01,2.60474e-02,1.15154e-01,4.16517e-01,7.88205e-02,1.53040e-02,-2.06112e-01,1.85873e-01,1.75338e-01,1.19571e-01,1.82168e-01,2.80748e-01,-1.57776e-01,2.46019e-01,2.60139e-01,3.19872e-01,1.05939e-01,1.91411e-01,1.57694e-01,
2.53076e-01,-1.58915e-01,5.03108e-02,2.02758e-01,-1.89194e-02,8.93975e-02,2.93163e-01,-5.49522e-01,1.45968e-01,-7.51372e-01,2.74426e-02,-1.97181e-01,-1.27419e-01,-5.41894e-01,-1.73476e-01,9.40938e-02,-1.99188e-01,-8.61580e-01,8.43543e-02,-5.18514e-01,-1.30995e-01,-6.63766e-03,-2.71560e-01,5.30178e-02,-3.05266e-01,-1.46595e-01,-1.15964e-01,4.77653e-03,2.28119e-01,1.27947e-01,2.51110e-02,1.86295e-01,-1.10353e-01,3.48053e-01,-1.82626e-01,7.85956e-02,-1.63585e-01,-5.39635e-02,1.23065e-01,1.84441e-01,9.20359e-02,9.87725e-02,-6.36850e-02,2.04382e-01,-1.64356e-01,
-2.24848e+00,7.66882e-02,2.14663e-01,-1.80323e+00,1.42157e-01,4.49524e-02,7.41231e-02,9.17232e-02,-1.29307e-01,-1.07240e-01,-1.98520e-02,2.44526e-01,2.05617e-01,-1.50690e-01,-5.56895e-02,6.76256e-02,1.14201e-01,9.72904e-02,-3.92194e-02,7.11987e-02,-6.20183e-03,1.68821e-01,1.15156e-01,3.07866e-01,-3.45698e-02,1.42004e-01,-8.40548e-01,-3.85340e-02,-1.47236e-01,-1.57825e-01,2.71682e-01,-9.54539e-02,-1.63483e-01,-4.57704e-02,1.11055e-01,2.01249e-01,4.67360e-01,5.72597e-02,2.01045e-01,-7.59896e-02,1.93993e-01,-2.28624e-02,-2.66382e+00,1.06034e+00,3.44312e-01,
3.35226e-01,-1.33751e-01,7.30741e-02,-1.21565e-01,1.81319e-01,3.36268e-01,3.59122e-01,1.65712e-01,2.17041e-02,8.06128e-02,-5.75227e-02,3.05721e-01,-2.06589e-02,2.72870e-02,5.06005e-01,4.76884e-01,-7.54589e-02,7.41826e-01,-4.07187e-01,-4.16198e-01,-6.94403e-02,2.74431e-01,-3.60061e-01,2.24882e-01,-2.91645e-01,-1.10587e-01,-1.62188e-01,-2.35795e-01,5.46707e-01,1.95410e-01,9.45345e-02,-1.81658e-01,-9.92695e-02,2.84486e-01,-2.40036e-01,-1.98730e-01,3.45061e-01,2.00105e-01,3.54412e-02,-1.05475e-01,2.22138e-01,-8.20040e-02,5.61192e-02,2.67775e-01,1.33848e-01,
-1.90842e+00,-3.72479e-01,-2.61905e-01,-3.58263e-01,-2.78775e-01,-3.25585e-01,1.55906e-01,1.71159e-01,-6.95580e-02,-3.21561e-02,7.72652e-02,3.16961e-01,-1.40085e-02,1.00273e-01,-8.27908e-02,-1.85278e-01,9.41452e-02,4.78111e-01,-4.99020e-01,1.16889e-01,1.29623e-01,3.61400e-02,1.25223e-01,-6.62297e-01,-2.45081e-01,1.54569e-01,-2.37271e-01,-2.25350e-01,3.98892e-01,2.02678e-01,3.53610e-01,2.21515e-01,-1.52555e-01,-2.77100e-01,-3.41789e-01,2.89758e-02,7.34829e-02,-7.93184e-01,-8.43428e-02,-4.49835e-02,1.44387e-01,-2.65015e-01,-7.04162e-01,2.33754e-01,2.11721e-01,
-1.04570e-01,4.88795e-02,1.45374e-01,-2.58584e-01,7.08551e-02,-1.43966e-01,-5.43731e-02,3.95118e-01,-4.75325e-01,-1.64035e-01,5.46414e-02,4.41389e-01,3.94165e-01,-2.63342e-01,2.80531e-01,4.92903e-01,-4.83342e-02,-9.09706e-01,-3.86348e-01,2.72107e-01,5.33263e-02,-3.28892e-01,5.04696e-02,7.49259e-02,-1.17582e-01,-4.11130e-02,1.08233e-01,-3.46467e-01,1.52427e-02,-5.23667e-01,9.15395e-02,-8.89046e-02,1.40926e-01,9.55477e-02,-4.22809e-02,-1.07918e-01,7.13222e-02,-2.13898e-01,-1.00638e-01,-5.50051e-01,-6.18083e-01,-1.64320e-01,3.02757e-01,4.73861e-01,-1.75946e-01,
-1.40550e-01,-6.42737e-01,1.78744e-01,8.03907e-02,-3.86775e-01,2.37579e-01,-3.41087e-01,3.18982e-01,2.54316e-02,4.43476e-01,4.84462e-01,-1.58475e-01,2.01645e-01,2.29557e-01,1.82063e-01,3.63596e-02,3.62194e-02,9.95044e-01,2.12441e-01,2.39859e-01,-3.10110e-02,-2.59642e-01,-2.92593e-01,-1.12977e-01,-4.81268e-01,1.39964e-01,1.66227e-01,-1.83559e-01,-3.63000e-01,-2.89705e-01,7.23810e-02,-1.48166e-01,3.39208e-01,1.24835e-01,-1.68463e-02,8.15124e-02,1.57948e-01,4.30752e-01,3.24577e-02,-2.18406e-01,-3.16781e-01,1.49473e-01,-1.38863e-01,1.90412e-01,-1.24254e-01,
1.99562e-01,-3.29152e-01,-3.44013e-02,2.61593e-01,-1.10862e+00,2.15022e-01,-3.09065e-01,3.08003e-02,-6.99788e-02,1.25699e-01,5.77102e-02,7.46649e-03,5.78320e-01,2.73451e-02,-1.88250e-01,3.11398e-01,-3.15914e-01,-9.96866e-01,-8.62989e-02,4.05032e-01,-4.92403e-02,-6.45897e-01,3.85547e-01,1.71888e-01,-6.52399e-02,-8.41553e-01,-2.50216e-01,8.81274e-02,-2.34853e-01,2.22770e-01,2.07484e-01,-8.97431e-02,-2.74754e-01,7.61805e-03,-3.92732e-01,-1.13880e-01,-9.23504e-02,3.79764e-02,8.18144e-03,2.00021e-01,-2.86321e-01,-2.63290e-02,-2.76893e-02,-9.94377e-02,-4.71149e-01,
2.76559e-01,-4.42287e-02,3.92163e-03,1.14302e-02,-1.02108e+00,3.45027e-01,-1.47217e-01,3.84572e-02,-2.73148e-01,1.05321e-01,1.31055e-01,7.50636e-02,3.91096e-01,-1.80505e-01,5.00786e-01,3.10207e-01,4.51409e-03,-3.39186e-01,1.55725e-01,1.08061e-02,-1.77323e-01,-3.18053e-01,7.23552e-02,-2.76166e-01,1.24933e-01,3.58796e-01,-4.25400e-02,-1.36302e-01,-2.71477e-01,-9.11824e-03,-2.72451e-01,-2.62183e-01,1.73457e-02,4.90970e-01,-3.52820e-02,-2.43173e-01,-7.66792e-02,-8.46168e-03,2.47022e-02,1.25409e-01,-1.55597e-01,2.46893e-01,7.20799e-02,-3.05567e-02,-1.00367e-01,
4.61612e-02,
7.61564e-02,
-2.17672e-01,
1.18169e-01,
-5.95579e-02,
-1.19979e-01,
1.12247e-03,
2.88276e-02,
2.40846e-01,
-9.37242e-03,
8.29235e-02,
1.01779e-01,
4.19338e-02,
2.03727e-01,
2.43764e-02,
1.82793e-01,
5.39554e-02,
1.27166e-01,
2.42904e-01,
1.71932e-01,
2.40901e-02,
-1.11429e-01,
5.68094e-02,
1.63913e-01,
7.93076e-02,
-1.11221e-01,
5.71322e-02,
1.01869e-02,
1.99299e-01,
-6.81888e-02,
-1.81384e-01,
-1.27595e-01,
2.22870e-01,
-6.80923e-02,
-1.24916e-03,
1.46288e-01,
5.51983e-02,
1.70858e-01,
2.81271e-02,
-7.42195e-02,
9.80703e-02,
1.57428e-01,
9.08403e-02,
1.37748e-01,
8.32768e-02,
3.15758e-01,-5.18170e-02,-5.04178e-02,-8.88321e-02,1.47234e-01,-3.00696e-01,3.66678e-01,-2.10265e-01,-4.90043e-01,1.80900e-01,3.15791e-01,-2.42006e-01,4.01007e-01,-4.06803e-01,-4.08917e-01,-5.02714e-03,2.38423e-01,3.84105e-01,1.58901e-01,-2.80682e-01,-3.45500e-01,-9.22640e-02,-9.25984e-02,-8.40114e-01,1.02482e-01,2.32818e-02,2.80419e-01,-2.03806e-01,7.35573e-01,-2.18246e-01,-4.54646e-01,-2.52045e-01,-1.09766e-01,-4.07510e-01,2.32779e-01,1.12415e-01,8.66339e-02,-1.01281e-01,-3.64481e-01,-4.21843e-01,4.95271e-01,4.78629e-02,-1.40925e-01,5.84618e-02,1.79207e-01,
-1.91423e-02,5.15070e-02,7.90351e-01,-1.86678e-01,1.36186e-01,-1.55174e-01,-5.50052e-02,-2.76144e-02,-2.01206e-01,-1.81355e-01,-3.44259e-01,3.83776e-01,-8.26977e-02,4.18157e-01,1.41138e-01,-3.62479e-02,-3.73658e-01,1.78040e-01,-1.77610e-01,1.08719e-01,5.77630e-02,1.29024e+00,9.43957e-02,3.55945e-02,1.35042e-01,4.16672e-02,-2.66066e-03,-1.49159e-01,-2.59441e-01,-2.91192e-01,7.57647e-02,2.54126e-01,-1.22828e-01,-1.30869e-01,-1.80199e-01,-1.53353e-01,-9.66895e-03,-4.01742e-01,7.94596e-02,8.09023e-02,2.59604e-01,-5.90002e-02,1.04764e-01,2.77572e-02,2.14543e-01,
4.23791e-01,2.41090e-02,-9.43900e-01,-3.95546e-01,2.42558e-01,2.87081e-01,1.52918e-01,-1.71816e-01,-2.17361e-01,2.11505e-01,-5.39335e-01,-1.85749e-01,-3.37866e-01,-8.01021e-02,-6.88646e-01,-4.62010e-02,-1.84695e-01,-8.77782e-02,-2.95872e-02,2.30291e-01,6.53259e-02,3.50770e-01,-1.00129e-01,-1.91514e-01,-1.05858e-02,5.19410e-01,3.40879e-01,-3.55633e-01,1.61003e-01,-1.06484e-01,4.88172e-01,-1.86324e-02,-6.17988e-01,1.07258e-01,-5.50011e-01,7.52685e-02,8.76526e-03,-1.56063e-02,7.30963e-02,5.69813e-01,8.12654e-02,3.77694e-01,-1.12509e-01,-2.59369e-01,2.22479e-01,
2.70612e-01,1.92160e-01,-1.90640e-02,2.14598e-02,-1.69510e-02,-1.18511e-01,1.83637e-01,5.90624e-01,-3.71513e-01,-1.38839e-01,2.95591e-01,1.37741e-01,2.19406e-01,-2.16389e-01,-1.00989e-01,-1.56340e-01,-2.25348e-01,3.02995e-01,1.09568e-02,2.60092e-01,-5.29532e-02,1.06022e-01,-1.96660e-02,-2.71234e-01,2.39206e-01,2.50931e-01,-8.58562e-04,-1.80687e-01,-8.77174e-03,2.63121e-01,-3.52701e-01,-1.89815e-01,1.22519e-01,-2.75324e-01,-4.95212e-02,-1.12756e-01,1.35687e-01,-3.45550e-03,-6.52581e-01,-1.92287e-01,2.64035e-01,-2.71144e-01,-1.37448e-01,-1.93217e-01,-3.08423e-01,
1.73236e-01,3.95294e-01,-4.12624e-01,-1.17616e-01,2.18823e-01,-1.26392e-01,-1.59383e-01,3.86412e-01,-1.65509e-01,8.39150e-02,2.56133e-01,-3.91096e-02,-3.65800e-01,1.79660e-01,3.22943e-01,2.73242e-01,5.74444e-02,-1.92818e-01,2.25286e-01,2.09920e-01,-1.43519e-01,-2.74579e-01,5.49802e-02,1.79558e-01,1.48208e-01,-4.10735e-01,-9.53095e-03,-5.19076e-02,2.85224e-01,3.02424e-01,2.98368e-01,2.61482e-01,9.31375e-03,-1.77519e-01,-1.05065e-01,6.68983e-03,8.25503e-02,-3.90970e-01,-4.25370e-01,-1.67030e-01,-1.96757e-01,-9.87603e-02,-4.02446e-01,-5.77895e-02,-7.74173e-02,
3.27239e-01,-7.28347e-02,-1.42787e-02,-1.63426e-01,9.42151e-02,-1.59310e-01,1.78067e-01,1.18005e-01,-2.63870e-01,1.45685e-01,1.62077e-01,-3.39885e-01,1.12736e-02,-2.05855e-01,-3.21612e-01,-2.03543e-01,1.51544e-01,1.13617e-01,-1.59992e-01,8.53558e-03,1.01886e-01,-2.65432e-01,-3.88592e-02,-4.57602e-02,-2.75565e-02,-7.21579e-02,-3.03906e-02,4.97890e-02,3.20880e-01,-9.99478e-02,1.23940e-01,-4.08939e-01,3.93755e-01,-4.91536e-02,-2.43014e-01,7.47613e-03,6.36338e-02,1.36656e-01,-3.17254e-01,-2.23292e-02,-1.40042e-01,-1.34385e-01,1.94914e-02,-8.97102e-02,1.86628e-01,
-1.16065e-01,1.79380e-02,-3.53952e+00,-3.85911e-01,2.58935e-01,6.78156e-02,4.07348e-02,-2.11535e-01,-3.68324e-02,-1.21312e-01,7.57577e-02,-2.03256e-01,-3.00247e-03,9.76467e-01,-1.16304e-01,-1.57330e-01,2.88459e-01,1.52648e-01,-1.33629e+00,-4.46650e-01,2.62201e-01,6.13726e-01,-4.00267e-01,-6.53084e-02,1.15557e-01,3.48081e-01,3.03901e-01,-1.13262e-01,-1.70424e-01,-2.72614e-01,8.59866e-02,-9.97552e-02,-2.12566e-01,6.26664e-02,3.72475e-02,1.01317e-01,9.23933e-02,-1.44705e-02,-1.04985e-01,2.92041e-01,-1.62962e-01,-3.76209e-03,-1.32217e-01,2.80508e-01,2.04663e-01,
1.09130e-01,2.08084e-01,-1.03775e+00,-2.33980e-01,2.20422e-01,-7.98219e-01,1.41777e-01,1.85727e-01,1.84149e-01,-2.27379e-01,2.43968e-01,1.97179e-01,6.30418e-02,-3.25278e-01,-1.99654e-01,-8.69984e-03,-9.14035e-02,-5.07630e-03,1.38567e-02,4.21575e-01,-1.98788e-01,4.02238e-01,3.83401e-02,2.25979e-02,-3.50192e-01,1.71378e-01,-6.32168e-02,3.45296e-01,8.30895e-02,-1.31443e-01,-2.98469e-01,-2.15156e-01,5.44456e-01,2.17073e-01,-7.59665e-02,-2.75324e-01,8.93653e-02,-3.86002e-01,-1.57591e-01,-1.81076e-01,-9.86932e-03,-2.48822e-03,-2.12712e-01,-4.12761e-01,1.26779e-01,
-1.93065e-01,2.33225e-03,6.47479e-01,1.31053e-01,-1.08952e-01,-3.04412e-01,2.60429e-02,-1.33329e-02,-1.91542e-01,7.57177e-02,-3.45922e-01,-2.93192e-03,-1.36965e-01,-2.91456e-01,-1.05487e-01,-1.91023e-02,-5.54522e-01,3.71165e-01,-1.64762e-01,3.41862e-01,-1.69710e-01,-1.17665e+00,-2.71035e-02,1.84880e-01,-2.14598e-01,-3.10065e-01,1.92150e-01,2.75942e-01,1.37432e-01,-5.96275e-01,5.43889e-01,-2.16290e-01,-1.15521e-01,-2.08011e-01,1.49835e-02,2.33536e-01,-2.70051e-01,-6.01874e-01,6.52258e-01,3.55401e-01,1.29423e-01,4.17026e-01,2.16692e-01,1.25678e-02,-1.20548e-01,
1.06212e-01,-3.12793e-01,7.05741e-01,1.09713e-01,-4.93743e-02,8.89211e-03,-1.97644e-01,-1.07846e-01,-1.97552e-01,1.01619e-01,6.08143e-02,-3.93572e+00,3.55929e-01,-5.25119e-01,-1.67611e-01,2.84512e-01,3.89213e-01,2.22672e-01,-2.20790e-01,-3.27749e-01,-6.32961e-02,4.12476e-02,-4.70091e-02,-1.99153e-01,-2.16258e-01,-5.56545e-02,8.79824e-02,5.16627e-02,-6.71624e-02,2.68589e-01,3.55048e-01,6.90444e-03,1.48593e-01,1.23968e-01,1.41885e-01,1.63675e-01,2.40059e-01,-2.14163e-01,-2.12896e-01,-5.36597e-02,2.01196e-01,-5.75747e-01,-1.79789e-01,2.39492e-01,-6.25256e-02,
3.38141e-01,-9.84867e-02,-1.88223e-01,-3.53727e-01,-1.38873e-01,-1.56957e-01,-9.91807e-02,1.10989e-02,1.05057e-01,-1.20540e-01,4.13437e-01,7.10437e-02,5.47485e-02,3.03614e-02,4.95994e-03,-1.03234e-01,1.62137e-01,-4.91365e-03,1.49050e-01,-1.15814e-01,-7.74802e-02,7.09625e-01,-5.68620e-01,-1.30279e-01,-1.03653e-02,4.17443e-01,-2.53984e-01,3.51052e-02,-1.19425e-01,-3.37241e-01,-2.36478e-01,2.51028e-01,2.44521e-01,-5.98944e-02,-1.10531e-01,-6.30176e-02,3.57103e-01,3.41022e-01,1.18722e-01,-1.55738e-01,2.30751e-01,-2.73175e-01,-5.42085e-01,-2.30926e-01,-7.62843e-02,
2.63427e-01,2.78427e-01,-1.01131e+00,-5.78482e-01,2.64311e-01,2.75776e-01,1.05856e-03,1.52130e-01,-1.64108e-01,3.58770e-02,-3.84597e-01,-3.21929e-02,-2.17188e-01,-2.29618e-01,3.30269e-01,3.74674e-01,-2.40177e-01,-3.30185e-01,-2.05254e-01,3.60063e-01,4.23196e-01,8.61451e-02,4.03437e-02,7.31198e-03,-2.01260e-01,3.83532e-01,5.38438e-02,-2.17080e-01,9.91693e-02,-3.93579e-01,2.44890e-01,-8.00619e-02,2.07368e-02,1.03308e-01,-5.68638e-01,1.65096e-01,2.64575e-01,-4.26037e-02,-2.81680e-01,3.64912e-01,-1.59565e-01,2.50838e-01,2.80238e-01,1.39348e-01,3.10313e-01,
1.96184e-01,3.51623e-01,-1.34450e+00,4.76691e-02,-5.56028e-01,2.11212e-01,-3.44758e-02,-9.98304e-01,3.28258e-01,-1.97419e-01,8.68944e-02,-2.22612e-01,3.21804e-01,-7.50201e-02,-7.19155e-01,2.00785e-01,-8.57438e-02,1.89480e-01,-2.24908e-01,-2.07096e-02,1.25895e-02,-3.80570e-02,-4.66030e-01,-8.77191e-03,-1.00758e-01,-7.86409e-02,2.32041e-01,-1.35780e+00,2.39120e-01,9.06192e-01,1.19824e-01,-1.06382e-02,2.27542e-01,-4.38117e-01,-5.92128e-02,3.49179e-03,1.52395e-02,1.08500e-02,1.53051e-01,-6.83013e-02,6.97026e-02,-2.44198e-01,-8.20904e-01,3.95794e-02,7.86592e-02,
-7.55089e-02,1.87750e-01,-3.00466e-01,-4.31301e-02,3.72410e-01,-2.79012e-01,-5.92391e-02,2.92325e-01,1.18802e-01,2.24219e-01,-2.14087e-02,-3.36308e-01,6.47731e-02,3.70658e-01,-5.98805e-03,-1.13962e-01,-7.03099e-02,-1.21656e-01,-3.34060e-02,6.74216e-02,-4.94602e-02,-1.12148e-01,6.01409e-02,-3.95416e-01,6.13288e-02,-9.10883e-02,-4.32388e-02,-2.08914e-02,2.76191e-01,-6.98216e-01,2.87088e-01,2.15523e-01,8.81794e-02,-6.12644e-02,-1.99821e-01,-3.46316e-01,1.53797e-01,-9.57955e-02,6.12384e-01,1.18613e-01,2.25197e-01,2.12872e-01,2.10311e-01,2.66045e-01,-1.52076e-01,
2.46948e-01,3.26738e-02,-9.22814e-01,-7.86576e-02,1.51140e-01,3.09288e-01,-2.91836e-01,-2.07690e-01,-2.15095e-01,5.10284e-02,-9.16873e-02,-3.04830e-02,-1.79094e-01,4.17893e-01,1.83121e-01,5.65938e-02,9.46076e-02,2.35846e-01,-4.16607e-01,1.87789e-01,2.25981e-01,6.80624e-01,9.63294e-02,3.13461e-01,-4.80472e-01,5.11857e-01,-5.38110e-01,-5.95044e-02,-7.57870e-02,-9.50240e-03,2.25369e-01,-1.09500e-01,-5.14099e-01,-1.61647e-01,-5.41434e-01,2.19302e-01,2.46015e-01,4.86396e-01,1.63208e-01,-3.00513e-02,9.20980e-02,1.94950e-01,2.11999e-01,5.53718e-02,3.95156e-01,
-3.07721e-01,-1.30801e-01,-3.29987e-01,-1.04247e-01,7.90311e-02,-8.67306e-01,1.28375e-01,3.50103e-03,-1.02742e-01,-2.54078e-01,2.85982e-02,1.24541e-03,-1.56097e-01,-2.56735e-01,-7.83533e-02,2.89103e-01,-4.63196e-01,8.54525e-01,2.38638e-01,2.54696e-02,-1.67365e-01,-2.89803e-01,8.71265e-02,-1.02006e-01,-1.05792e+00,2.47610e-01,-1.07727e+00,-2.38572e-03,2.85427e-01,-4.00273e-01,5.02204e-02,-1.11294e-01,-4.55094e-01,-1.66053e-01,-2.19128e-01,4.28942e-01,6.89601e-02,-5.44162e-02,-1.89585e-02,-2.21574e-01,4.98628e-02,2.26876e-02,3.45777e-01,4.93159e-01,1.93972e-01,
3.21144e-01,-1.48370e-01,2.39815e-01,-6.62492e-01,-4.61886e-02,1.28875e+00,-1.11748e+00,6.57969e-03,-2.26551e-02,-2.28265e-01,-5.26771e-01,-3.93135e-03,3.24264e-01,3.48234e-01,2.73128e-01,-2.20711e-01,-1.89908e-01,-1.52245e-01,-4.66956e+00,1.38865e-01,2.23481e-01,2.21578e-01,-3.19598e-02,-5.38098e-02,3.41245e-01,2.02258e-01,-2.10527e-01,-3.92963e-02,-3.23402e-01,-1.44916e+00,-2.99999e-02,-3.23929e-01,5.28320e-02,-5.49882e-03,9.28187e-02,2.09834e-02,-3.84704e-01,-1.79087e-01,1.42902e-01,2.74249e-01,-2.15888e-01,5.80171e-02,9.33545e-02,-2.19046e-01,-1.19806e-01,
1.52528e-01,-3.22587e-02,1.02061e-01,4.50394e-01,3.41607e-01,6.57149e-02,1.19427e-01,-2.28401e-01,-1.51171e-01,-6.01487e-02,3.04615e-01,-4.62425e-01,2.63177e-02,-1.58728e-01,-8.38811e-02,-2.42113e-01,5.73684e-01,6.72409e-02,1.71908e-02,-3.56019e-01,-2.23696e-01,7.71015e-01,-5.83050e-01,3.10133e-01,1.11194e-02,2.27675e-01,2.82798e-01,2.57179e-01,-1.77305e-01,2.91335e-01,1.27517e-01,-9.32926e-02,6.58053e-02,1.07914e-01,-2.59282e-01,-1.76338e-01,3.29980e-01,1.86542e-01,6.94137e-02,8.52085e-02,-5.51722e-01,-1.01802e-01,-1.04857e-01,-5.28343e-01,-1.81977e-02,
1.85839e-01,5.25811e-02,1.68364e-01,-3.93634e-02,5.14362e-03,-2.42882e-01,3.10521e-01,1.63273e-01,-1.66170e-01,-5.11596e-02,1.92845e-01,2.67732e-01,8.67440e-02,-2.60696e-01,-2.54192e-01,-5.61224e-01,-3.82402e-01,9.69455e-02,-2.27806e-01,2.64484e-01,-1.20602e-01,-2.99899e-01,2.01674e-01,-3.40845e-01,1.55702e-02,1.25144e-01,1.40627e-01,1.49840e-01,-3.58512e-01,9.62676e-02,1.09660e-01,-1.79049e-01,-4.00706e-02,-1.50487e-01,-6.43175e-02,9.72084e-02,-2.96479e-02,1.48143e-01,1.89262e-01,-3.13680e-01,-2.56368e-01,9.74047e-02,1.61134e-01,2.13108e-01,3.75735e-01,
1.83798e-02,-1.35797e-01,4.41576e-01,1.86860e-02,-1.46414e-01,3.16939e-02,2.23504e-01,1.74715e-02,2.50932e-01,-1.48541e-01,1.71931e-01,2.20174e-01,9.69947e-02,-2.55392e-01,3.58035e-01,-1.90401e-01,6.90452e-02,-9.03591e-02,2.51550e-02,-8.46734e-02,5.89767e-02,1.70665e-01,2.39358e-01,3.24587e-01,1.13910e-01,-1.87047e-01,-2.44730e-01,4.25473e-01,-8.43808e-01,1.36973e-01,4.20373e-01,4.31821e-01,2.09340e-02,2.68273e-01,3.13493e-02,-5.99484e-02,2.06441e-01,4.66111e-03,2.78236e-01,1.19802e-01,-2.33457e-01,1.72540e-01,1.24173e-01,-1.15979e-01,-1.76367e-01,
2.40614e-01,-2.40799e-01,5.79724e-01,1.49528e-01,-1.42784e-01,-1.81789e-01,-4.59950e-01,1.55426e-02,-4.60535e-02,-2.22346e-01,2.53717e-01,-4.56028e-01,4.68460e-01,1.10651e-01,1.64721e-02,1.98758e-01,1.30110e-01,3.08067e-02,-2.66578e-01,1.53430e-01,-3.94969e-02,8.87896e-01,2.34575e-01,-4.47847e-02,6.89435e-02,-3.88845e-02,2.90334e-01,5.15972e-02,-3.17177e-01,-1.75703e-02,-6.15360e-02,3.94404e-01,2.69823e-01,6.74192e-02,-2.77907e-01,-5.75204e-03,2.85199e-01,9.36397e-02,9.77880e-02,6.97650e-02,3.97713e-01,-9.41482e-01,-2.98140e-01,-3.70526e-01,-4.88890e-01,
3.23367e-01,9.49194e-02,1.13766e-01,2.90343e-02,-3.31895e-01,9.89169e-02,-7.98912e-02,2.75199e-01,-6.22658e+00,9.80377e-02,3.83829e-02,2.05806e-01,5.95848e-02,-7.36214e-02,6.53278e-02,-3.24917e-01,1.07687e-01,1.96792e-01,2.95451e-02,5.23792e-03,1.26302e-01,6.23631e-02,2.71451e-01,-1.01767e+00,3.75003e-02,4.34221e-01,-1.62464e-01,4.58800e-02,-6.83502e-01,3.58213e-02,6.92056e-02,-4.12296e-02,2.13517e-01,-1.86818e-02,5.00081e-02,1.89954e-01,2.81135e-01,-8.21111e-02,-4.62099e+00,-4.47619e-02,-1.97656e-01,-8.51721e-02,5.01610e-02,9.14064e-02,2.02388e-01,
1.53056e-01,-8.31906e-02,-1.79145e-01,-2.07416e-01,8.66239e-02,-1.96510e-01,-9.55443e-02,-1.36435e-01,-1.74150e-01,3.08988e-02,-5.34604e-02,-2.42243e-01,-5.14850e-02,-2.55546e-01,1.12437e-02,-8.70937e-02,-1.99622e-01,3.21328e-02,-1.92620e-01,8.54771e-02,-1.58473e-01,7.07898e-02,-9.42210e-02,-1.65211e-01,5.39526e-02,-1.70480e-01,-7.25656e-02,-1.85716e-01,-2.21628e-01,1.69786e-01,1.26294e-01,1.46258e-01,-1.24875e-01,9.30764e-02,-1.66605e-01,2.36978e-01,1.72042e-01,1.26466e-01,-1.32687e-01,-2.61461e-01,1.64491e-01,-1.90454e-01,-2.25294e-01,-1.18173e-01,-1.28407e-01,
7.20861e-02,-6.81618e-02,-3.56096e-01,-9.62643e-02,-4.73070e-01,-3.76907e-02,-9.35780e-02,-1.48226e-01,4.68617e-02,-2.02336e-01,-4.07585e-01,8.39460e-02,-5.70041e-02,4.56997e-01,-1.93081e-01,2.98775e-03,2.62604e-01,-1.04499e-01,1.65385e-01,1.40770e-01,-3.41054e-01,6.41165e-01,8.46604e-02,3.75536e-01,-2.83135e-01,2.92813e-01,-1.44995e-01,2.18850e-01,-3.75870e-02,1.67997e-01,6.71107e-02,5.17305e-02,-2.24748e-01,-4.88454e-02,1.70604e-01,-1.87913e-01,2.00466e-01,1.72635e-01,5.83299e-03,4.00295e-01,1.26070e-01,2.14539e-01,-3.49851e-01,1.74324e-01,7.21878e-02,
2.00467e-01,-1.32941e-01,1.90417e-01,8.92342e-02,2.16918e-01,-1.37621e-01,1.60356e-01,-8.62610e-02,2.75521e-01,1.63312e-01,-4.66402e-01,3.19545e-01,-1.40329e-01,-8.82174e-02,-1.16076e-01,-5.44544e-02,1.48534e-01,3.66583e-01,-8.23648e-02,5.32355e-02,-9.84970e-02,5.09840e-01,8.97522e-02,-4.48053e-02,4.51747e-02,2.75536e-01,8.02481e-02,3.41576e-01,8.16163e-03,1.80716e-01,5.92707e-02,-3.67858e-01,-6.44018e-01,-2.98845e-01,-3.03912e-01,-8.89130e-02,-1.06629e-01,1.28368e-01,4.21520e-02,1.90013e-01,-4.92414e-02,1.31204e-01,-6.41200e-02,-2.35624e-01,2.67744e-01,
2.21148e-01,-8.73273e-03,-1.42501e-01,-1.04410e-01,-1.15138e-01,-6.98552e-02,4.31101e-02,1.44185e-02,-7.50615e-02,-1.07634e-01,1.59123e-01,-3.69936e-01,1.48552e-01,-4.92313e-01,-1.89056e-01,1.09344e-01,5.53607e-01,-3.88201e-02,2.90558e-01,-4.86140e-01,7.42625e-02,5.00226e-01,-6.29527e-01,1.70789e-01,-4.67755e-02,2.84039e-01,2.86140e-01,-4.71006e-03,2.13086e-01,-7.46412e-02,1.27682e-01,-1.28213e-01,2.06063e-01,-1.91326e-01,-1.21034e+00,-2.89868e-01,2.18839e-01,4.10214e-01,8.93664e-02,2.16159e-01,2.76086e-01,9.37139e-02,-4.22088e-01,-2.34140e-01,2.07060e-01,
2.62922e-01,-2.57373e-02,-9.48265e-02,2.65429e-01,1.93109e-01,-2.70413e-01,-2.30884e-01,-6.50290e-03,1.64586e-01,-9.80521e-02,4.36052e-01,1.93834e-01,1.15681e-02,-2.00355e-01,1.08207e-02,-3.03052e-01,6.20239e-02,1.68573e-01,-4.62710e-02,1.17196e-01,-3.43877e-02,4.14815e-01,2.81769e-02,1.52593e-01,-2.19854e-02,-5.67226e-01,-1.80576e-02,-1.23067e-01,-8.95349e-02,-4.54805e-02,5.02538e-01,5.45159e-02,1.30722e-01,-2.83151e-01,-3.54178e-02,1.12777e-01,-1.20105e-01,1.56317e-02,5.79854e-01,1.59401e-01,-1.06056e-01,-5.09753e-01,-1.52001e-01,-2.02488e-01,2.61184e-01,
2.22428e-02,3.89722e-02,1.67523e-01,-1.23021e-02,-2.42436e-01,-2.20520e-01,-2.07781e-01,8.20014e-02,-2.70843e-01,2.22257e-01,-2.57536e-01,5.53686e-02,5.98338e-02,-3.70877e-02,-2.38533e-01,-2.53741e-01,1.51698e-01,2.17561e-03,-5.66952e-02,-2.29562e-01,-1.53449e-01,-1.85162e-01,1.41291e-01,1.99187e-01,-2.16903e-01,1.24878e-01,-6.64444e-02,-2.12784e-01,-1.38605e-01,-1.10082e-01,-1.06307e-01,-3.60783e-02,-1.33195e-01,3.66598e-02,-1.40149e-01,-2.45220e-01,2.37394e-01,-1.57719e-01,5.21819e-02,4.83123e-02,-9.62818e-02,1.80194e-01,-5.15377e-02,-2.26346e-01,-1.39558e-01,
-2.31880e-02,1.11201e-01,4.62087e-01,3.37183e-02,3.26157e-01,1.30802e-01,2.84772e-01,-3.03694e-01,5.26714e-01,-6.90000e-02,3.67212e-01,-1.67903e-01,-4.01801e-01,-2.11576e-03,-7.05099e-02,1.47879e-01,-1.07497e-01,-1.53042e-01,-6.34569e-02,-1.19943e-01,-2.20252e-01,4.40540e-02,-6.31925e-02,3.98480e-01,8.40504e-03,7.05645e-02,2.11654e-01,1.62874e-01,3.11211e-01,2.22768e-01,-5.22442e-01,-1.13321e-01,-4.97057e-02,4.33506e-03,-1.20791e-01,-7.65886e-02,2.10519e-01,1.64354e-01,3.58989e-01,-1.76732e-02,1.53802e-01,2.34792e-01,2.74496e-02,-2.50521e-01,-1.38090e-01,
-5.74608e-01,-5.67105e-01,2.02066e-01,4.34763e-01,3.61951e-01,-2.54416e-01,-2.31029e-01,-1.87241e-01,4.54231e-02,4.37375e-02,6.28318e-02,1.01025e-01,1.05611e-01,-5.71515e-01,-5.97408e-01,1.45125e-01,-6.96613e-01,2.03043e-01,8.96459e-02,1.05261e-01,-1.29102e-02,4.41637e-01,-4.56003e-02,-8.84546e-02,-4.71154e-02,-1.34003e-01,2.79627e-01,-7.17215e-01,5.32646e-01,-5.90404e-01,-2.93769e-01,-3.02418e-01,-3.47349e-01,-4.54696e-01,1.29011e-01,1.29973e-01,1.35349e-01,-9.17519e-01,-3.01336e-01,-1.36547e-01,5.96340e-01,7.32489e-02,-1.72116e-02,-1.26913e-01,-9.63911e-02,
1.51549e-01,2.44261e-01,9.10227e-01,4.77107e-02,-4.17533e-01,-7.87310e-02,-1.58601e-01,-2.35785e-01,2.00513e-01,8.39667e-02,-2.26795e-03,3.83484e-01,1.05836e-01,-2.75192e-01,1.61950e-01,6.62514e-02,2.35486e-01,1.68888e-02,2.16362e-01,3.12557e-01,4.43740e-01,5.09852e-02,-3.69285e-01,5.11260e-02,2.22162e-01,-1.37292e-01,-8.16529e-02,-3.45062e-01,-2.02578e-01,7.03418e-02,3.56351e-01,1.54799e-03,1.58390e-01,-4.30334e-01,-2.05111e-01,1.48497e-02,6.43671e-02,6.42332e-02,-5.34784e-02,-9.05076e-02,-3.42478e-01,-1.62810e-01,-1.11739e-01,-1.03838e-02,-3.83116e-01,
6.46537e-03,5.26011e-01,-1.20108e+00,1.97305e-01,1.81868e-01,-1.05039e-01,-8.38432e-02,-7.06341e-03,-5.09162e-01,-5.56042e-02,-2.15019e-02,3.08510e-01,4.92288e-03,2.29137e-01,6.35637e-02,3.72213e-01,-2.22051e-01,1.50646e-01,4.26649e-02,2.14568e-01,-1.23614e-02,3.40029e-01,8.60413e-02,-5.37702e-02,-1.00306e-01,-1.14674e-01,7.27021e-02,2.90456e-02,6.25019e-01,-3.77633e-01,1.29601e-01,-2.03135e-01,8.38121e-02,-2.15497e-02,4.72883e-01,1.04744e-01,-3.61254e-02,3.40410e-03,1.29904e-02,2.02319e-01,4.85506e-01,-8.01150e-02,-6.32490e-03,-8.69513e-02,-1.36942e-01,
6.77593e-02,-1.40707e-01,4.00538e-01,1.52851e-01,2.42583e-01,-4.20413e-02,-1.39982e-01,4.23488e-01,-2.51999e-01,2.15855e-01,-2.93730e-01,3.79004e-01,8.93872e-03,1.60812e-01,1.00550e-02,-2.35214e-01,-3.95518e-01,1.10060e-01,2.26405e-01,3.09758e-01,5.33107e-01,-1.05368e-01,1.42163e-01,7.32799e-02,-1.29802e-01,2.05711e-01,-1.22963e-01,2.39586e-01,-2.35806e-01,-1.19954e-01,-1.74909e-02,3.73129e-01,-8.14492e-02,-6.75166e-02,-1.99237e-01,1.41899e-01,8.69673e-02,-2.91546e-01,-1.63108e-02,-2.86491e-02,-2.14523e-01,1.53204e-01,4.69029e-01,-2.84716e-01,-1.20572e-01,
-8.52577e-02,-3.79712e-01,-3.60791e-01,-3.22147e-01,4.41423e-01,4.07940e-01,-1.63921e-01,-9.10996e-03,9.71481e-02,1.33974e-01,-1.38055e+00,1.89124e-01,2.51516e-01,9.21915e-02,4.09479e-01,3.75640e-02,-4.21269e-01,1.89540e-01,-2.25881e-01,4.84723e-01,1.50356e-01,-6.86767e-01,3.43494e-01,-1.68902e-01,5.51900e-02,2.68930e-01,-5.39415e-02,6.64602e-02,-2.92329e-03,1.56741e-01,-2.99028e-02,-1.52997e-01,-1.31584e-01,3.33076e-02,-6.47747e-01,6.83677e-02,3.97763e-01,3.56677e-02,-1.99742e-01,3.50812e-01,1.18150e-01,3.21520e-02,1.75130e-01,-2.20617e-01,-1.64290e-01,
8.60866e-02,2.05952e-01,-9.70228e-02,-5.22840e-01,6.32330e-01,2.22150e-01,4.39832e-02,3.24189e-01,-1.00602e-01,7.15953e-02,8.60811e-02,-1.32557e-01,-5.45700e-02,-3.11806e-02,2.17571e-01,1.92197e-02,2.90556e-01,-9.63717e-02,-3.95830e-01,6.55697e-02,-2.22048e-02,3.16134e-01,1.05487e-01,-4.05244e-01,-2.19302e-02,5.72350e-01,-1.85994e-02,1.80505e-01,5.08985e-01,2.73457e-01,4.41342e-01,3.91190e-01,-2.56729e-01,2.12181e-01,-6.41677e-01,-1.28619e-01,-1.85562e-02,-4.96732e-02,1.92998e-01,-7.31924e-02,3.03722e-01,-1.00434e-01,9.42505e-02,-4.21017e-02,6.15178e-02,
5.32199e-02,-3.65055e-01,-5.63220e-01,3.79367e-02,-1.59813e-01,2.62108e-01,1.44337e-01,7.14271e-02,-1.86654e-01,2.07265e-01,-1.22292e-01,1.22652e-02,2.97136e-01,4.44585e-01,8.23855e-02,-2.48671e-01,2.23610e-01,-4.76841e-02,-4.85268e-02,-2.65156e-01,-6.67506e-02,3.27621e-01,1.22547e-01,-1.59100e-01,-1.96263e-01,1.65280e-01,1.82709e-01,-5.59365e-03,-3.73434e-01,9.91848e-02,-5.81476e-02,-2.67556e-01,1.80676e-02,-2.39452e-01,7.39631e-04,-8.78842e-02,5.83272e-02,3.34679e-02,-2.74301e-01,-1.37329e-01,-5.85832e-02,4.41805e-01,2.38585e-01,-6.26716e-02,1.36455e-01,
-1.43785e-02,-1.80559e-01,3.14624e-01,-1.80880e-01,2.26326e-01,8.12747e-02,1.90692e-01,-6.07572e-02,1.40886e-01,1.91880e-01,-3.70659e-01,-2.76847e-02,4.90560e-02,-4.85827e-01,1.24034e-03,-6.63565e-01,-2.82292e-01,8.05434e-02,4.78775e-03,-3.33686e-01,-1.34513e-01,-2.02078e-01,-7.18003e-01,-1.70572e-01,-1.65494e-01,1.17076e-01,3.07903e-01,1.18773e-02,1.53309e-01,-2.25238e-01,2.10631e-01,-8.77447e-02,-2.72037e-01,8.37339e-02,1.84695e-01,9.32937e-02,2.09923e-01,2.13975e-01,1.62136e-01,2.39213e-04,-2.81455e-01,-5.54460e-02,1.10633e-01,5.13637e-02,8.54426e-02,
4.77057e-02,-2.76345e-01,-4.30699e-01,-1.41769e-01,-2.33362e-01,2.67896e-01,2.46437e-01,-2.00240e-01,3.44129e-01,-1.03144e-01,1.05195e-01,-1.99614e-01,9.87847e-02,-2.20570e-01,-1.17950e-01,-4.59633e-01,-8.24926e-02,5.40063e-02,-1.00909e-01,-6.31323e-02,1.97490e-02,8.74184e-03,-7.91290e-02,-1.81137e-01,-3.20585e-02,6.74196e-02,1.45591e-01,-2.87243e-02,-2.18954e-01,-4.28406e-01,-1.25399e-01,7.70760e-02,1.67949e-01,1.20777e-01,-1.90877e-01,3.92673e-01,-8.21404e-02,1.07066e-01,4.59339e-01,8.92195e-02,3.83877e-01,-2.92312e-01,-8.08027e-02,-3.28109e-02,2.96569e-01,
2.48204e-01,6.12811e-01,6.98137e-01,1.57079e-01,-4.93876e-03,1.53124e-02,-1.71684e-01,2.72441e-01,-2.62547e-01,-2.55157e-01,-2.44872e-01,4.34989e-01,-2.70178e-01,-3.97369e-01,1.93696e-03,2.89156e-01,-3.51820e-01,2.34179e-01,-2.00628e-01,-1.35862e-01,2.86318e-01,-7.92286e-02,-6.77338e-02,3.34089e-01,-2.05399e-01,1.45454e-01,3.10461e-02,3.63771e-02,3.13187e-01,-2.21024e-01,3.12804e-01,-3.04305e-01,-2.69773e-01,-1.12973e-02,-2.41878e-01,1.55969e-03,3.64823e-01,-4.54446e-02,-2.61525e-01,-3.71046e-02,-8.44208e-02,-1.41609e-01,-7.17013e-02,2.53927e-01,-6.96810e-02,
-2.39866e-01,-5.44541e-02,-1.05095e+00,-1.27049e-01,-9.63599e-02,5.17958e-01,2.10668e-01,-3.13953e-01,5.95046e-03,-2.56248e-01,-2.03968e-01,3.32795e-01,-1.52427e-01,-1.70094e-03,1.48752e-01,-4.84964e-02,-1.64876e+00,2.08140e-01,-1.32142e-01,4.39212e-01,1.87089e-02,-9.66988e-01,5.29811e-01,-1.24798e-01,-1.26829e-01,2.58553e-01,6.50084e-02,-2.14342e-01,1.49392e-01,-5.49692e-02,-1.17926e-01,-3.24293e-01,-2.50372e-01,2.22145e-01,-4.86204e-01,-7.07102e-02,-3.98846e-01,-6.32376e-01,2.66052e-03,5.34558e-02,-2.99283e-01,3.06966e-01,4.63149e-02,-1.01743e-01,3.52216e-01,
-1.74547e-01,7.53269e-02,-1.85265e-01,-8.86575e-02,-9.65032e-02,-4.33115e-01,-7.00703e-02,2.84745e-01,1.77039e-01,2.73907e-02,-1.86601e-01,-1.49051e-01,-3.01887e-01,1.37328e-01,4.06209e-01,-7.06652e-02,-2.88259e-01,3.53781e-02,1.70393e-01,1.89993e-02,3.42353e-01,-3.93251e-01,8.51434e-02,1.66264e-01,-2.43631e-01,-5.03710e-01,4.24529e-02,3.26072e-01,9.00488e-02,-2.33752e-01,2.59115e-01,-6.10621e-02,9.21137e-03,1.04155e-01,-1.60729e-01,1.47580e-01,-5.62726e-01,2.40255e-01,-5.29141e-01,1.25260e-01,-9.78847e-02,-1.55228e-01,1.49327e-01,1.31727e-01,3.06368e-01,
-1.64149e-01,-7.25032e-02,-2.76288e-01,-2.02034e-01,-6.11530e-01,2.11961e-01,1.58326e-01,-5.94212e-03,2.60860e-01,-8.94468e-02,-2.52399e-02,1.01014e-01,4.58224e-01,2.37451e-01,-1.68852e-02,3.52990e-01,2.60678e-01,-1.11414e-01,-2.27212e-01,4.94713e-02,8.64217e-02,-2.33337e-02,5.38294e-02,-4.46783e-01,1.55596e-02,1.71143e-01,3.18747e-01,3.72521e-02,2.23819e-01,-1.11988e-02,-1.40289e-01,-1.36958e-01,2.60227e-01,-4.36834e-01,1.22306e-01,2.20546e-01,-1.90088e-01,-1.47380e-02,-5.85935e-02,-4.35329e-02,4.44336e-01,5.98415e-02,9.50638e-03,-2.65716e-01,-2.82465e-01,
3.91878e-01,-1.41215e-01,2.31076e-02,-7.20739e-02,-1.21427e-01,-3.19702e-01,7.39350e-02,1.24483e-01,1.28956e-01,-5.94387e-03,-4.99722e-02,-1.25107e-01,-9.80009e-02,3.08608e-01,4.14352e-01,-2.87922e-01,2.90404e-01,-9.89801e-01,-3.44819e-01,-3.29856e-02,5.70044e-02,1.45739e-02,-1.52161e-01,3.23884e-02,7.36967e-01,7.93082e-02,1.03768e+00,-1.00661e-01,3.22177e-01,-3.70892e-01,-3.38841e-02,1.04146e-01,5.51096e-01,7.86290e-02,-1.71614e-02,-9.11516e-01,-1.20085e-01,6.31845e-02,1.15799e-02,3.02362e-01,-4.63124e-02,6.71350e-03,-1.63629e-01,-8.45290e-01,-2.74424e-01,
3.73585e-01,-4.61636e-01,-8.66143e-01,7.62873e-02,2.96898e-01,-5.40640e-02,2.62304e-01,3.07992e-01,2.84835e-01,1.16490e-02,5.05222e-02,-3.29069e-01,1.17460e-01,7.04555e-01,3.13656e-01,7.62279e-02,-2.11275e-01,1.34138e-01,3.28755e-01,1.78933e-01,-1.17050e+00,5.72954e-01,-2.63533e-02,-4.08486e-01,4.93839e-01,7.15882e-02,-2.90805e-01,1.14051e-01,-1.14538e-01,5.43225e-02,-1.78998e-01,1.44606e-01,-9.31632e-01,-2.84192e-01,1.10550e-01,-8.94368e-02,-1.17469e-01,-5.20767e-01,-2.68788e-01,3.63227e-01,5.70745e-02,-4.38922e-01,-1.44513e-01,2.34031e-01,-4.97690e-02,
1.08262e-01,1.40553e-01,-6.18746e-01,-7.48066e-02,5.10331e-02,8.11224e-02,6.22357e-02,3.22090e-01,-5.01795e-02,4.93374e-02,2.29907e-01,-1.30594e-01,-7.64561e-02,-2.02866e-01,2.68357e-02,3.17192e-01,-1.38743e-02,-2.14024e-01,3.61602e-02,-3.86178e-02,6.79568e-02,-1.81945e-01,-3.15025e-01,2.14638e-01,1.07184e-02,6.47775e-02,3.56719e-01,3.36642e-01,2.92490e-01,3.52103e-01,2.61848e-01,4.39040e-01,9.37397e-02,1.56551e-01,2.88072e-01,-4.50634e-02,2.12500e-02,1.75072e-01,-7.89472e-01,3.96770e-01,2.80995e-01,-2.02946e-01,-3.60537e-01,-9.68003e-02,1.21923e-01,
6.54058e-02,
-1.95764e-01,
-1.03651e-01,
2.72882e-01,
3.41950e-02,
2.55533e-01,
-2.06188e-01,
1.39626e-01,
-2.07217e-01,
-3.06942e-02,
2.17210e-01,
2.83924e-01,
6.04455e-03,
-1.64436e-01,
-1.84672e-01,
-5.67114e-03,
-1.71057e-01,
-4.46590e-02,
7.25310e-02,
-1.11671e-01,
-3.31552e-01,
1.11305e-01,
-1.20842e-02,
1.81040e-02,
1.31038e-01,
4.33207e-02,
-2.41062e-02,
-5.23900e-03,
8.41578e-02,
8.45180e-02,
5.03036e-02,
-3.74728e-02,
2.27974e-02,
-1.78528e-01,
-5.52925e-01,
2.79042e-01,
1.57015e-01,
6.64404e-02,
2.02179e-01,
7.02262e-02,
9.75782e-02,
7.22649e-02,
7.80866e-02,
2.38278e-02,
-2.02498e-02,
4.19208e-01,-6.13498e-01,4.89446e-01,2.50492e-01,-2.65423e-01,6.97541e-02,-4.09375e+00,-2.99716e-01,1.30724e-01,-6.61239e-01,-1.22247e-01,-4.92007e-01,-2.36742e-01,4.48011e-01,2.18682e-02,1.46356e-01,-2.51990e-01,-2.27130e+00,8.42691e-02,5.29412e-01,7.96914e-01,-1.01795e-01,-1.64605e-01,-1.60858e-01,1.76249e-01,-2.55449e-01,-1.05230e-01,2.10008e-01,-4.61790e-02,1.07354e-01,3.63617e-01,-1.47163e-01,-5.39580e-02,7.19932e-02,5.30369e-01,-1.79087e-01,-4.00329e-01,-2.35904e-01,2.12475e-01,1.93064e-01,-9.13532e-02,1.09231e-01,-1.31500e+00,3.30010e-01,1.31068e-01,
-1.26101e-02,-2.37120e-01,-3.63389e-01,9.40271e-02,-1.24058e-01,-8.84215e-02,-1.31738e-01,4.12411e-01,-9.90921e-02,-8.43901e-01,-3.36618e-01,1.97037e-01,4.33715e-01,-1.71677e-02,1.02977e+00,-1.05165e+00,-9.50930e-02,-3.73822e-01,3.34512e-01,6.76250e-02,-5.22832e-01,-5.06637e-02,7.61954e-02,-4.44469e-02,5.68257e-02,-8.16125e-03,1.22329e-01,2.10690e-01,2.17422e-01,4.26089e-01,2.31701e-01,-1.27457e-01,1.84015e-01,3.20746e-01,2.30982e-01,-1.99917e-01,-1.67963e-01,-2.66557e-01,-1.35918e-01,-8.19450e-01,-3.17341e-01,-2.59187e-01,1.39725e-01,-1.52716e+00,2.78806e-02,
-4.39752e-02,9.82338e-02,-1.49491e-01,-1.11944e-01,2.68310e-02,5.36740e-05,6.45609e-02,-6.89531e-02,1.03408e-01,5.20545e-03,-2.03164e-01,-1.09061e-01,-9.93349e-02,-1.46821e-01,6.02001e-03,-2.52013e-01,-5.04282e-03,6.90322e-02,-2.41404e-01,-2.26441e-01,-1.00302e-01,-1.60549e-01,7.86964e-02,-1.93551e-01,1.38390e-01,-2.26981e-01,-2.30778e-02,4.29935e-02,-2.34344e-01,2.93614e-02,-1.83137e-01,-8.54701e-04,-1.05085e-01,2.05486e-01,7.33216e-02,1.33200e-01,1.83565e-01,3.49555e-02,-1.37797e-01,-1.11725e-01,-1.69591e-02,9.22555e-02,-7.84800e-02,-1.43734e-01,-9.33179e-02,
-1.00005e-01,2.60933e-02,4.67938e-01,1.02310e-01,2.86746e-01,-1.97511e-01,-8.67015e-02,-4.14543e-02,4.83822e-02,1.71030e-02,8.66802e-02,3.83277e-02,5.48706e-01,3.91058e-01,-1.40101e-01,1.16734e-01,-3.26056e-01,-7.17359e-02,-1.25096e-01,-5.40323e-02,-5.52031e-01,7.41826e-01,2.38588e-01,-2.27789e-02,1.65492e-01,2.99324e-01,3.45002e-01,2.93061e-02,1.33634e-01,2.49786e-01,-1.25490e-02,5.50341e-02,7.12308e-02,1.25063e-01,-9.73516e-02,-1.70402e-01,-2.44599e-01,9.11381e-02,-6.72605e-02,-1.95251e-02,-1.88312e-01,-5.85992e-02,1.52885e-01,1.71754e-01,-1.71008e-01,
3.03653e-01,-5.18663e-01,2.26250e-01,2.76761e-01,-1.65233e-01,2.78269e-01,-1.01506e+00,6.11379e-02,1.07084e-01,-3.73620e-01,-3.30969e-01,1.98253e-01,7.43687e-02,4.39346e-02,-2.64323e-01,-1.66530e-01,8.57303e-01,-6.23655e-02,-2.41265e-02,1.17493e-01,1.85680e-01,1.27280e-02,-1.99955e-01,2.57708e-02,1.09536e-01,-2.35572e-01,1.16914e-02,1.19741e-02,1.41008e-01,-2.35354e-01,2.74297e-01,6.90204e-02,-1.53585e-01,-1.75337e-01,-6.14306e-02,4.34688e-03,1.82238e-01,-2.37166e-01,2.66034e-01,-2.58852e-01,-3.56779e-01,3.85141e-02,-5.69843e-02,-9.04802e-02,-3.28948e-01,
1.98499e-01,-4.64411e-02,4.54171e-01,2.70528e-02,2.32028e-01,-1.03975e-01,-3.23505e-01,3.12350e-01,3.45682e-01,1.05829e-01,-1.24156e-02,-1.37291e-01,-2.90196e-02,1.26088e-01,6.74435e-02,-2.69192e-01,-6.11838e-01,-4.38725e-04,1.23675e-01,2.45638e-02,3.30211e-02,-4.03977e-01,-3.71954e-02,4.05593e-02,2.69502e-01,2.13076e-01,5.62288e-02,1.82221e-01,-1.94052e-01,-2.13970e-01,-1.06799e-01,-7.31978e-02,3.66213e-01,-7.32985e-01,-2.94794e-02,2.08992e-01,-3.86727e-01,-4.84966e-02,7.60748e-02,-3.14973e-01,1.98713e-01,-5.49638e-02,-4.33690e-02,4.02620e-01,9.26746e-03,
-2.55216e-01,-4.03354e-01,1.38763e-01,1.86527e-01,-1.18499e-02,6.01417e-02,4.97282e-01,3.80410e-03,4.40218e-01,-1.97892e-01,6.38999e-02,-1.86884e-01,1.46401e-02,2.60662e-01,4.17712e-01,-1.97115e-01,-8.54229e-02,7.66071e-02,2.19087e-01,1.45822e-01,-1.89937e-01,-2.91541e-02,1.90890e-01,-1.63140e-01,-6.99491e-03,-2.68571e-01,1.77761e-01,-1.26768e-01,3.28523e-01,-1.09064e-01,-4.26621e-01,3.20585e-01,-1.29585e-01,6.52543e-03,8.59588e-01,5.40519e-01,1.85246e-01,1.08643e-01,1.06856e-01,-1.79343e-01,-1.58370e-01,2.37249e-01,-1.77588e-01,2.89669e-01,2.80089e-01,
2.26815e-01,-6.13742e-01,4.35025e-02,2.07385e-02,-3.63378e-02,-3.86032e-02,1.56569e-01,-1.47386e-01,3.30156e-01,5.21303e-01,-1.53985e-01,2.37918e-01,-1.04195e+00,-1.39501e-01,1.13397e-01,2.04216e-01,3.47597e-01,-3.03108e-01,-1.03134e-01,7.91922e-02,-1.24352e+00,1.07491e-01,-1.32009e-01,1.36192e-01,-1.33690e-01,-5.34240e-01,1.87639e-01,1.64617e-01,-2.25428e-01,-2.75210e-01,6.59543e-01,-1.79649e-01,1.92398e-01,2.58160e-01,1.28182e-03,-1.22855e-01,-2.74051e-01,1.35403e-01,2.75146e-01,-1.53591e-01,2.40479e-01,-1.84318e-02,-3.90323e-01,-3.59429e-01,-4.16871e-02,
3.35757e-01,-1.77047e-01,5.23287e-01,1.23003e-01,6.94953e-02,-7.06904e-01,-1.11266e-01,-1.69107e+00,6.71912e-02,-5.36620e-01,3.89420e-01,-4.23028e-01,-3.53846e-03,5.25094e-02,-6.04809e-01,3.96547e-01,1.98326e-01,-1.17620e+00,-6.64329e-02,1.83174e-01,1.14992e-01,8.29126e-03,2.03438e-01,1.90097e-01,1.02779e+00,3.47689e-01,-4.41297e-01,-6.55252e-02,-3.53100e-01,5.04077e-02,5.77197e-02,-1.98405e-01,2.94306e-02,-1.52667e+00,1.32990e-01,-1.37528e-01,-3.93812e-01,9.73327e-02,3.04706e-01,-5.94769e-03,-5.76039e-02,-2.57324e-01,-6.93330e-01,3.89500e-01,1.66710e-01,
1.66055e-01,1.05501e-03,-1.40288e-01,2.95073e-02,-1.59259e-01,1.85036e-01,2.88323e-02,-6.06024e-02,-6.65127e-02,1.28333e-01,6.99409e-02,4.33398e-01,-1.86360e-01,-3.76299e-02,-3.46229e-01,-1.13218e-01,2.77856e-01,-5.83881e-01,2.76424e-02,-8.59392e-02,3.13828e-01,-1.16296e-01,-2.04388e-01,-7.18386e-02,-5.66221e-02,-5.19116e-02,-1.74676e-01,-2.34453e-01,3.76036e-01,-2.90325e-02,-1.42270e-01,-2.33033e-01,-4.82169e-01,-6.77771e-01,-2.10926e-01,-1.00902e-01,-7.94127e-04,3.91663e-01,2.87458e-01,-9.90847e-01,-1.15967e-01,2.56198e-02,-8.26997e-02,6.11942e-02,2.17606e-01,
-3.68698e-01,-6.60323e-01,7.32352e-02,-3.71802e-02,-6.51632e-02,-3.45563e-01,-6.67059e-01,4.29635e-02,2.06078e-01,1.08822e-01,1.27645e-02,1.00894e-01,-8.92922e-02,3.63894e-01,1.46819e-01,-3.01032e-01,6.40534e-01,-1.62973e-01,4.89333e-02,1.61930e-01,-2.87287e-01,-1.15887e-02,1.16582e-01,-1.67500e-01,2.15728e-01,-3.51604e-01,2.71190e-01,1.69284e-01,-1.36197e-01,-9.06205e-02,-2.19989e-02,1.78300e-01,4.49924e-01,-3.05724e-02,4.03509e-01,-3.69582e-03,-2.14372e-01,-1.41058e-02,3.08688e-01,-2.28681e-01,8.80890e-02,-5.93168e-03,7.58792e-03,1.40626e-01,5.65832e-03,
2.89859e-01,-1.83401e-01,5.12504e-01,-1.19989e+00,4.53321e-01,-3.37675e-01,-3.38154e-02,2.18368e-01,6.84454e-01,-1.53376e-01,-3.12166e-01,-1.52596e-01,-2.22681e-01,1.24401e-01,-1.85118e+00,-3.49151e-02,3.40971e-01,-1.23379e-01,4.39108e-01,3.63272e-01,1.16797e-02,2.70302e-01,6.81743e-02,-9.33581e-01,3.13926e-02,1.03983e-01,3.08373e-01,-2.56819e-01,2.73857e-02,-4.08617e-01,-3.33721e-02,-1.29473e-01,-1.14358e+00,-3.90516e-01,1.10845e+00,-7.41688e-01,2.00266e-01,3.48875e-02,-5.11330e-01,-1.30888e+00,1.03872e-01,-1.81263e-01,6.74233e-02,-1.82314e+00,-4.37183e-01,
-1.15817e-01,3.08500e-01,7.10668e-02,-3.10241e-02,1.73537e-01,-3.99557e-01,-1.20291e-01,-4.49601e-02,-3.47489e-01,1.50308e-01,-1.30594e-02,2.93181e-01,1.33774e-01,-2.48193e-01,1.43370e-01,8.93059e-02,2.92459e-02,-1.60129e-01,-2.78980e-01,2.89508e-01,-3.82806e-02,-3.04495e-01,-2.23222e-02,7.88802e-01,-5.31515e-04,-3.73073e-01,3.91689e-02,-2.42984e-01,-2.06898e-02,3.19541e-01,2.08638e-01,-5.46055e-02,-4.41536e-01,-5.26199e-01,-5.40128e-02,-3.70994e-01,1.38820e-01,-1.30226e-01,-2.68222e-01,2.04687e-02,2.02816e-01,-2.95978e-01,1.84148e-01,2.75128e-01,-2.13411e-01,
-6.20567e-03,-1.22696e-02,2.51098e-01,1.22150e-01,-1.73818e-01,1.68793e-01,-2.95250e-01,1.46473e-01,5.78617e-02,4.66138e-02,1.33179e-01,-5.63499e-02,-4.97597e-03,9.96072e-02,-1.84511e-01,-1.49980e-01,4.34409e-01,-1.22627e-02,-1.74253e-01,-3.32516e-02,9.06419e-02,-4.31740e-01,-2.31721e-01,1.63723e-01,-1.90107e-01,4.99501e-02,5.79358e-02,1.09865e-01,1.37434e-01,-3.43161e-02,-1.10564e-02,-3.30469e-02,9.61692e-02,1.31331e-01,-2.71502e-01,8.43582e-02,1.87157e-01,1.52185e-01,6.18542e-02,2.18343e-01,4.79031e-02,-4.21561e-02,-3.42045e+00,-7.80340e-02,2.63406e-02,
-2.24302e-01,1.14003e-01,-4.64736e-01,-1.63013e-01,7.49244e-03,-4.45023e-04,5.39240e-01,-3.47493e-01,7.42149e-02,2.61387e-01,-1.07995e-01,2.69962e-01,-2.16654e-01,9.00189e-02,-2.76990e-01,-1.19978e-01,5.00560e-01,1.47906e-01,-2.04392e-01,-7.10364e-02,-3.40888e-01,2.79415e-01,-6.65629e-02,2.45033e-01,-3.43988e-01,-4.14382e-01,-4.36888e-01,1.74829e-01,7.52878e-02,3.68707e-01,-2.97907e-01,-1.79349e-01,-1.77803e-01,-4.79684e-02,-2.71427e-03,2.37686e-01,-1.49307e-01,4.37121e-01,1.12013e-01,4.86764e-01,-1.59475e-01,3.72680e-02,-2.06810e+00,8.92028e-02,-1.01392e-01,
-5.03255e-02,-8.77796e-01,-3.76052e-01,-5.77536e-02,-1.39546e-02,2.62395e-01,-8.30649e-02,-6.12338e-01,2.51642e-01,3.14452e-01,1.31250e-01,2.22505e-01,-1.54792e-01,-1.68995e-01,-6.16262e-01,-2.46741e-01,3.53609e-01,-6.71456e-02,-2.15315e-01,-2.89698e-01,3.75159e-01,1.39717e-01,1.94874e-01,3.33223e-01,-2.08109e-01,-3.20094e-01,4.88458e-02,1.18545e-01,6.97204e-02,1.34632e-01,3.09768e-01,-5.55630e-01,-2.20368e-03,2.31916e-02,-4.11081e-01,-1.51511e-01,2.02297e-01,2.81105e-01,3.54978e-01,1.68577e-01,-2.10977e-02,2.64149e-01,-1.91036e-01,7.10118e-03,2.62633e-01,
-1.01096e-01,-2.74729e-01,3.56646e-02,-2.39631e-01,-5.60464e-03,4.53204e-02,-6.23157e-01,-5.07689e-02,-3.27254e-01,-6.85089e-02,-2.60763e-01,5.19189e-01,1.18798e-01,-7.30598e-02,-3.42203e-01,5.49690e-02,1.88302e-01,-3.04941e-01,1.77086e-02,-1.35741e-01,-9.06900e-01,-1.14951e-02,-1.65506e-03,2.01654e-01,-1.49455e-01,-3.29121e-01,-2.68660e-01,-1.40679e-01,2.63920e-01,-1.19374e-01,-7.73043e-02,-1.34244e-01,1.91996e-02,2.61203e-01,-1.16975e-01,2.45443e-01,-1.94137e-02,1.53000e-01,3.35176e-02,-1.09860e+00,1.82806e-01,-2.06323e-01,4.83118e-02,-3.59550e-01,-9.99593e-02,
-4.22844e-01,-5.29763e-01,7.56218e-01,1.37255e-01,-8.95603e-02,1.83599e-01,1.50142e+00,1.08451e-01,2.24039e-01,1.06149e-01,1.73833e-03,-1.12211e-01,2.04557e-01,-3.31229e-01,1.34093e-01,9.56139e-02,-1.73286e-01,1.95175e-01,-2.26457e-01,1.76186e-02,-3.11906e-01,4.70190e-02,8.53894e-02,3.57910e-01,3.67122e-01,2.02535e-01,3.29568e-02,1.78046e-01,-2.99957e-03,-3.49644e-02,-1.10514e-01,1.43517e-01,1.85801e-01,-4.59936e-02,6.44517e-01,1.11230e-01,-2.50073e-01,-1.25996e-03,-9.58057e-02,6.26358e-02,7.48260e-02,-1.43414e-01,-1.22708e+00,-3.90502e-01,-6.32590e-03,
-2.75703e-01,1.04580e-01,3.55798e-02,2.28614e-01,-1.63433e-01,-5.53539e-02,-4.37982e-01,-1.09787e-01,-1.26331e-01,-1.99783e-01,1.52850e-01,1.35507e-01,-1.58989e-01,1.50156e-01,-1.64744e-01,1.80376e-01,5.43121e-01,-9.32643e-02,-3.35308e-02,3.88344e-01,9.96152e-02,5.23066e-02,-4.06568e-02,-2.93789e-01,7.58985e-02,1.79891e-01,-3.36319e-01,-9.89939e-02,1.33111e-01,-8.63589e-02,2.22781e-01,-1.87727e-01,-1.62411e-01,3.36126e-01,1.08013e-01,-5.83468e-03,3.65651e-01,1.29757e-01,-3.44626e-01,-2.17218e-01,-2.86000e-02,2.33644e-01,-1.30418e-01,1.71026e-01,1.66274e-01,
-9.45661e-02,9.97572e-02,2.56450e-01,4.07460e-02,-1.17825e-01,1.73463e-01,1.93993e-01,-1.09737e-01,2.37025e-01,-6.24425e-02,4.07086e-02,3.62880e-01,4.09287e-02,3.73638e-01,4.21093e-01,-2.11142e-01,-6.07314e-01,2.05450e-02,2.70534e-01,1.23003e-01,-8.57703e-03,-1.85052e-01,1.67836e-01,-6.16693e-02,2.16105e-01,-1.88352e-01,-2.99127e-02,5.64111e-02,1.99820e-01,6.44840e-02,-1.49479e-01,3.40696e-02,2.33126e-01,-2.18546e-01,6.97267e-01,-3.39371e-02,1.54677e-01,1.12897e-01,1.43465e-01,-5.32631e-01,-4.43695e-01,-1.72291e-02,3.47340e-02,1.97623e-01,8.78391e-02,
3.18038e-01,-1.17276e-01,2.98769e-01,2.35815e-01,-2.48843e-01,1.63845e-01,2.30195e-01,-1.42388e-01,-4.68386e-01,-5.72906e-01,-1.51077e-01,1.02596e-01,1.44690e-01,-2.28298e+00,5.76872e-01,-7.49944e-02,-3.94086e-01,7.60749e-02,-8.50287e-02,-8.82853e-02,-2.89626e-01,-2.13273e-01,-1.14948e-01,2.62902e-02,-3.71501e-02,-6.16001e-02,-8.16822e-01,8.62704e-03,-3.11261e-01,-2.73688e-01,1.30242e-01,-1.65784e-01,1.85513e-01,7.19901e-02,-1.53107e-01,1.36594e-01,3.34872e-01,-2.48966e-01,5.89830e-02,-5.97825e-01,2.27286e-01,-7.92325e-03,-3.51916e-02,-3.30385e-01,2.20130e-02,
6.22476e-02,-4.99506e-01,8.04622e-02,2.83218e-01,8.28755e-02,-3.21358e-01,-9.36896e-01,1.33739e-01,-6.04925e-01,-2.22417e-01,2.40471e-01,-1.19128e-01,-1.67228e-01,2.16652e-01,2.02969e-01,-1.56041e-01,-2.93641e-01,-5.59383e-02,-1.50237e-01,-1.80691e-01,-1.99101e-01,1.31780e-01,1.15960e-01,-2.00962e-01,2.89425e-01,-1.31827e-01,-2.01473e-01,-1.71395e-01,2.20638e-01,2.28723e-01,-4.49422e-01,2.51428e-01,1.98256e-01,-3.40466e-03,-3.88791e-01,-1.74026e-01,2.27081e-01,2.09221e-01,2.36687e-01,1.44665e-02,1.95365e-01,7.27031e-02,-7.57797e-02,4.33273e-01,3.85721e-02,
-1.69730e-01,3.44996e-01,-4.82499e-01,-1.04852e-03,-1.57988e-01,-2.06318e-01,-1.23983e-01,7.25368e-02,4.84822e-02,-3.17584e-02,-4.67084e-01,-1.88334e-01,-1.66266e-01,-4.61564e-02,-5.55552e-01,-4.13384e-01,5.29992e-02,-4.87248e-01,6.16505e-03,-1.12928e-01,-2.97848e-02,-5.21267e-02,2.58709e-02,2.30331e-01,-1.44371e-01,-2.97756e-01,6.28459e-02,-2.13270e-01,-5.97602e-02,2.13803e-01,-6.38085e-02,-2.20317e-01,-1.15401e-01,2.76551e-01,9.29216e-03,-1.38553e-01,3.38696e-01,-1.12746e-01,1.80092e-01,5.94772e-01,1.10535e-01,1.67413e-02,1.20256e-01,1.86769e-01,5.24771e-03,
7.24667e-02,1.70360e-01,-1.21217e-01,2.11343e-02,-1.90722e-01,-1.17101e-01,-5.48029e-02,6.87188e-02,2.37741e-01,-5.48215e-02,-7.96066e-04,-2.04063e-01,-5.49415e-02,-4.29900e-02,4.26112e-02,1.69597e-01,-2.48010e-01,1.92277e-01,-2.93952e-01,-8.25492e-02,-7.82595e-02,2.22277e-01,1.67415e-01,3.57145e-02,2.53178e-01,-8.73424e-02,-2.83845e-01,2.53438e-01,1.06867e-02,-1.32057e-01,-9.50121e-02,-1.14369e-01,-1.64623e-01,4.80501e-01,-1.41645e-01,3.81992e-02,-5.57939e-01,-2.46611e-01,-2.18336e-02,-3.29403e-01,-3.18267e-01,-1.30168e-01,-1.46701e-01,2.78132e-01,1.90706e-02,
-6.54794e-02,-4.67531e-01,2.26859e-01,-1.68731e-01,-2.57963e-01,-1.51098e-01,-6.72282e-01,2.54412e-01,-1.46121e-01,-3.67556e-01,-1.97404e-01,4.41197e-01,-1.95981e-01,-1.07048e-01,3.46400e-01,5.66586e-02,2.83492e-01,-2.12973e-01,1.57692e-01,-5.45347e-02,7.38420e-01,5.49759e-02,-2.25611e-01,3.68622e-01,4.55696e-01,-3.54786e-03,-4.36757e-02,6.60579e-02,1.30221e-01,1.62085e-01,-2.90338e-01,-1.24103e-01,-2.28630e-01,-4.85941e-02,-1.38895e-01,1.25283e-01,2.34335e-01,5.73495e-02,2.41014e-01,3.88891e-01,-4.46889e-02,-1.11461e-01,-1.07868e-01,2.12048e-01,7.62752e-02,
-2.34174e-01,-1.67961e-01,2.23867e-01,3.23593e-02,1.97054e-01,7.83147e-02,5.09799e-01,3.58998e-01,-5.37857e-01,1.87045e-01,6.05207e-02,1.41754e-02,4.12986e-01,-2.05276e-01,2.19414e-02,1.44669e-01,-4.12450e-01,4.58593e-01,-1.95579e-01,1.21389e-01,-7.66028e-01,-5.34819e-01,1.33177e-01,1.90925e-01,1.48514e-01,1.02507e-01,-3.08244e-02,-1.05563e-01,2.62769e-01,-1.64324e-01,1.34620e-01,-2.55318e-02,-2.33064e-01,3.14964e-02,1.10846e-01,1.74929e-01,1.11512e-01,-1.63240e-01,-5.73153e-02,2.05856e-02,9.63337e-03,-9.68667e-02,9.78964e-02,8.93603e-02,-1.14050e-01,
3.35653e-02,-4.17707e-01,9.26946e-03,7.16676e-03,2.56127e-01,-3.04854e-01,2.14675e-01,2.85076e-02,-2.81279e-01,-2.01590e-01,-1.45767e-02,-5.25727e-02,5.51705e-02,-2.03736e-02,1.72905e-01,-3.57107e-02,-2.99055e-01,-1.28512e-01,2.38530e-01,-1.84178e-01,3.58656e-01,-2.50335e-02,1.57868e-01,9.41002e-02,2.16854e-01,-2.51846e-01,-5.77901e-02,-1.00535e-01,3.28410e-02,-2.05009e-01,3.85222e-01,2.14467e-01,2.99708e-01,-5.42796e-01,3.95903e-01,-6.86799e-03,-1.25261e-01,-9.41605e-02,8.72120e-02,2.29324e-02,1.07734e-01,5.04708e-01,-1.58133e-01,-8.70514e-03,-2.29166e-02,
-3.74812e-02,-2.60389e-01,2.44383e-01,1.57834e-01,2.25699e-02,1.11502e-02,-1.16153e-01,6.59058e-02,-5.82637e-01,3.59032e-02,6.19253e-02,-2.84800e-01,1.27264e-02,-1.75661e-02,5.65085e-02,-9.21725e-03,2.43183e-01,-3.21902e-02,1.94580e-01,3.81705e-01,-6.21348e-01,3.48787e-01,-1.94399e-01,2.67024e-01,-1.17465e-01,2.41975e-01,2.52045e-01,-4.17642e-02,-2.96496e-03,-2.38538e+00,6.74203e-03,-2.93557e-01,-4.62624e-02,1.39523e-01,-1.71648e-01,-4.41047e-02,1.17058e-01,1.99731e-01,-2.01638e-01,3.20171e-01,2.89561e-02,-1.16908e-01,-1.67599e+00,1.80919e-01,-1.02276e-01,
-5.39657e-01,-2.26002e-01,1.95702e-01,3.56790e-02,-2.34719e-02,-1.17049e-01,3.68849e-01,-5.05345e-02,-8.79773e-01,5.73712e-02,1.52757e-01,-2.13814e-01,1.87344e-01,-2.22802e+00,1.99089e-02,4.55510e-02,-9.42972e-01,-1.16850e-02,2.90292e-01,5.13855e-01,-4.72103e-01,4.94386e-01,-1.45861e-01,-2.54554e-02,1.03154e-01,-1.60437e-02,4.30637e-02,1.70158e-01,-2.35801e-01,-3.27430e+00,4.00738e-02,-4.57644e-01,1.29279e-01,1.71093e-02,-5.63184e-02,2.21272e-01,1.91195e-01,1.55105e-01,-3.51038e-01,1.14185e-01,7.05451e-02,-3.37343e-01,-2.57628e+00,3.15254e-01,-2.03267e-02,
3.47286e-01,1.43233e-01,2.30274e-02,7.05881e-02,4.49515e-02,1.65842e-01,-8.05229e-02,7.09111e-02,4.10251e-02,-1.12840e-01,2.37496e-01,2.18060e-02,1.89795e-01,-1.52086e-01,-2.37579e-02,-2.39067e-01,-1.72548e-01,1.60419e-01,-2.04603e-01,-2.09191e-01,-2.39847e-01,6.69444e-01,-6.03051e-02,2.63034e-01,-2.29211e-01,4.00938e-02,-4.47381e-01,-5.84828e-03,-2.44257e-01,-3.21729e-02,-1.21994e-01,8.25807e-02,1.85068e-01,1.09977e-01,-3.46607e-01,2.20818e-02,2.53660e-01,-7.62881e-02,5.26682e-02,2.12060e-01,-2.25585e-01,9.23712e-03,4.50764e-02,1.60281e-01,1.52283e-01,
-3.11925e-01,-1.98812e-01,5.08982e-01,-1.20751e-01,-4.76824e-01,-1.81889e-01,3.76787e-01,1.62705e-01,-1.84254e-01,9.83396e-02,-6.19814e-01,2.99275e-01,4.81696e-01,-5.43724e-01,3.86226e-01,-2.62834e-01,-1.27117e-01,2.57338e-01,-2.50935e-01,-9.66800e-02,-1.39613e+00,-6.40977e-02,1.83370e-01,-8.21128e-02,1.22110e-01,-4.87971e-01,-1.52720e-01,-2.78062e-02,-9.27263e-02,4.03083e-02,-1.45238e-01,6.41993e-02,3.62736e-01,5.55053e-01,5.64627e-01,-2.43364e-01,2.27083e-01,-2.44457e-01,2.16394e-01,9.74618e-02,-1.71381e-01,7.09147e-03,2.95053e-01,5.09953e-01,-1.45421e-01,
1.81982e-02,4.01300e-01,-1.25208e-01,2.41945e-01,2.89246e-01,-1.08080e-01,4.15229e-01,-1.03430e-01,1.49344e-02,2.54822e-01,3.55747e-01,-3.42050e-02,3.70291e-01,1.86969e-01,-1.04722e+00,-1.77312e-02,-6.39742e-01,1.74085e-01,-2.56004e-02,3.60979e-02,-9.86832e-01,-1.95287e-01,-1.67796e-01,-1.68032e-02,-2.72443e-01,1.91435e-01,1.45123e-01,-3.12672e-04,-1.95662e-01,2.63282e-01,2.40090e-01,1.52463e-01,-3.70350e-01,-5.72591e-03,7.21623e-02,-1.49379e-01,2.73326e-03,1.43074e-01,-1.89006e-01,-9.37979e-03,1.41931e-01,1.29717e-01,4.80465e-02,4.38376e-01,3.72527e-01,
-2.83837e-02,-3.56947e-01,4.05614e-01,4.03019e-02,2.66557e-01,-7.60424e-02,3.38169e-01,-1.60812e-01,-5.28651e-01,-2.20381e-01,-2.53060e-01,9.71883e-02,-3.72678e-01,-1.97152e-01,3.17589e-02,7.02959e-02,-2.89201e-01,-1.98928e-01,3.75978e-02,5.98032e-02,-1.81192e-01,8.60977e-02,1.31787e-01,-2.88901e-02,2.63837e-02,2.66251e-01,-3.63586e-02,-1.80418e-01,1.39800e-01,1.54263e-01,-1.50320e-02,4.80837e-03,4.23201e-02,-5.26736e-02,4.59393e-01,1.55644e-01,-1.63668e-02,-2.12354e-01,2.92219e-01,3.98227e-01,-1.76596e-01,1.33513e-02,5.27362e-02,5.88738e-01,-1.36836e-01,
-4.09392e-01,-2.11020e-01,-4.89798e-02,1.84668e-02,-1.72313e-01,-1.43122e-01,-2.48977e-01,-1.11874e-01,-9.08106e-02,9.23879e-02,-1.45035e-01,-1.37774e-01,-8.25293e-02,-1.57329e-01,1.61585e-01,1.62294e-01,-2.05789e-01,-6.26421e-02,-1.10665e-01,-1.69898e-01,-2.39181e-02,1.78612e-01,9.61002e-02,1.73473e-01,1.65632e-01,-3.72691e-02,-2.18054e-01,5.65329e-02,6.21212e-02,-2.46351e-01,-1.54903e-01,-8.25890e-02,-4.36498e-03,3.23971e-01,-4.96237e-02,-1.53641e-01,8.27208e-02,9.28828e-02,-2.17786e-01,-5.76340e-02,-1.91780e-01,2.06137e-01,1.77733e-03,-1.21751e-01,-2.54664e-02,
7.27764e-02,2.50308e-01,3.88307e-02,2.19161e-01,6.11857e-03,-4.83644e-02,-4.51873e-01,-2.18591e-01,2.12618e-02,-2.87673e-01,1.14819e-01,-6.64549e-02,1.03863e-01,-1.35493e-01,-3.80250e-01,-4.48480e-01,3.44953e-01,-2.62500e-03,5.99405e-01,-3.21091e-02,-1.62519e-01,-7.82479e-01,-9.91556e-02,-3.04722e-02,-1.74710e-01,4.47318e-02,1.76692e-01,1.30149e-01,-6.01469e-02,1.41652e-01,1.17224e-03,-6.65952e-02,1.48671e-01,1.56640e-01,-1.60992e-01,2.83966e-02,-1.51299e-02,3.10841e-01,-8.80749e-02,2.33958e-01,2.67277e-01,2.09132e-01,2.84176e-02,6.20049e-02,-4.22252e-02,
-1.89124e-01,6.62006e-02,1.45009e-01,-7.61314e-01,-4.03934e-01,-2.69760e-01,2.21805e-02,-2.36678e-02,-4.60605e-01,-1.48942e-01,-7.44999e-02,-5.61285e-02,4.30643e-01,2.59283e-01,-1.34147e-01,-2.95416e+00,-2.66995e-01,1.31787e-02,-1.11552e-01,1.72108e-01,-1.60829e-01,-7.45188e-01,-1.95598e-01,5.23421e-02,1.93620e-01,7.88739e-02,3.67455e-01,-1.51508e-01,5.00588e-01,8.38797e-02,2.04914e-01,4.90449e-02,-2.12492e-01,1.77068e-01,-3.18424e-01,-5.20877e-01,9.74312e-02,2.86016e-01,-1.10010e-01,3.10808e-01,-2.69868e-01,3.35104e-01,1.17517e-02,-2.62156e+00,-6.88658e-01,
9.03394e-02,-5.76516e-01,-2.49242e-01,3.22566e-02,4.02837e-02,-2.21028e-02,-2.23645e+00,3.09817e-01,7.02427e-01,-6.47734e-02,-8.60192e-02,1.43611e-01,4.44985e-01,1.33339e-01,-2.98987e-01,8.20290e-02,-8.68714e-02,-5.08558e-01,3.97479e-02,-5.90141e-02,1.48353e-02,3.58682e-01,5.38490e-02,3.30109e-02,-2.61928e-01,-8.31071e-01,-7.85918e-01,2.38043e-01,-5.80544e-02,-1.28012e-01,-1.14851e-01,-3.09464e-01,2.68179e-01,1.61319e-01,-8.78062e-02,2.09113e-01,-2.17015e-01,-2.89456e-01,-1.02498e-01,-3.20418e-01,-1.18847e-01,1.70189e-01,5.78814e-02,-9.13534e-01,1.35834e-01,
4.21441e-01,1.28136e-01,-5.15727e-02,1.92458e-01,2.92085e-01,-9.60338e-02,3.87001e-01,2.26241e-01,3.15343e-01,2.48907e-01,3.72363e-01,2.60345e-02,-2.52018e-01,-6.29127e-02,-3.22204e-01,-2.83606e-01,3.57329e-01,1.88075e-01,9.95386e-02,-1.47766e-01,-8.72121e-01,1.45073e-01,5.80278e-02,1.19491e-01,-3.23713e-01,3.34728e-01,9.27421e-02,-2.49155e-01,3.77206e-01,4.83966e-02,9.96965e-02,-1.73694e-01,-2.38027e-01,3.03712e-01,2.28562e-03,-1.88088e-01,-5.54785e-01,3.09924e-01,-1.70622e-03,7.99739e-01,-2.01874e-01,-1.05199e-01,-1.39013e-01,3.40102e-01,1.57583e-01,
2.42638e-01,-1.11739e-01,4.70182e-01,-6.89917e-02,-1.06829e-01,-1.75785e-02,-2.09207e-01,3.14398e-01,1.97865e-01,3.11859e-01,1.59432e-01,-4.17589e-01,-4.63820e-02,-4.26353e-01,3.89762e-02,1.47355e-02,3.57543e-01,-1.58627e-01,1.14405e-01,-2.75246e-01,2.31077e-02,-1.24192e+00,5.68767e-02,-4.93513e-02,5.82849e-01,-6.88937e-02,-2.62709e-02,2.18942e-02,-5.81482e-02,2.00437e-01,2.59226e-02,-2.71409e-01,6.56664e-02,-7.90231e-01,2.50928e-01,-3.65028e-02,-1.15398e-01,-1.01111e-01,-1.47578e-01,8.75436e-02,9.57973e-02,1.95911e-01,7.09626e-02,-5.83534e-02,-2.03022e-01,
9.67158e-02,-1.15834e-01,-5.53443e-02,3.39255e-02,8.90785e-02,2.77277e-01,-3.86929e-03,2.15715e-02,-7.49144e-02,-2.36639e-01,-1.48999e-01,2.10196e-01,3.58061e-01,-8.54822e-02,3.98435e-01,-1.22958e-01,3.46161e-01,1.73996e-04,2.84038e-01,1.20806e-01,3.40220e-01,4.62676e-01,-2.32150e-01,1.95610e-03,2.43694e-01,-1.89594e-01,-6.77086e-03,-4.19079e-02,-1.41660e-01,1.73216e-01,-1.68576e-01,2.82746e-02,-2.56265e-02,-2.29313e-01,-1.21142e-01,7.53455e-02,-7.07500e-02,9.92980e-02,-8.71399e-03,-5.33373e-01,1.51012e-01,-8.68044e-02,-5.24137e-02,-4.07258e-01,-1.69283e-02,
-4.40519e-01,-9.09125e-01,3.22754e-01,-6.17824e-03,-7.93696e-02,-4.71855e-03,-3.03550e+00,3.09853e-02,-1.80333e-01,2.61109e-02,-3.92062e-01,1.85735e-01,-7.76344e-01,-1.98232e-01,3.84056e-01,3.19930e-01,-3.10720e-01,-9.61002e-01,5.49376e-02,-7.80286e-02,3.20841e+00,1.85385e-01,-1.01432e-01,2.60827e-01,1.61123e-01,-1.69668e+00,1.39711e-01,2.22884e-01,-8.87508e-02,1.75484e-01,-7.08934e-01,-2.41426e-01,7.99174e-02,3.95100e-01,2.52848e-01,1.69369e-01,-3.17104e-02,2.50426e-01,-2.25467e-02,1.63310e-02,-1.74195e-01,3.56667e-01,-1.39368e+00,1.87367e-01,-8.86529e-02,
-1.77141e-01,9.16771e-01,3.50746e-01,7.35144e-02,2.14953e-01,4.70690e-02,-4.21201e-01,-2.51922e-02,-5.15733e-02,2.85150e-01,1.17231e-01,2.64969e-01,-4.58602e-01,1.14571e-01,-2.24946e-01,-3.64442e-02,-6.01506e-01,-7.55580e-02,-2.30814e-01,-1.44502e-01,-7.91181e-01,2.46093e-01,9.44264e-03,5.03994e-03,1.43956e-01,4.49891e-01,2.37307e-01,2.10860e-01,1.35326e-01,1.64983e-03,3.85199e-03,1.16578e-01,-2.27438e-01,-4.70824e-01,-2.94163e-02,3.85334e-04,6.99860e-02,-2.33687e-01,-1.21820e-01,1.25351e-01,1.96835e-01,-1.97822e-01,-7.46833e-05,7.65455e-02,-7.58298e-02,
-1.26956e+00,-3.35641e-01,7.75167e-02,-4.49792e-01,1.08365e-01,-3.13402e-01,-6.61441e-02,3.07200e-02,-2.33184e-01,-7.94174e-02,-3.02478e-01,-3.81946e-02,-4.68960e-01,4.15959e-02,1.36715e-01,-1.21352e-02,-2.94380e-01,-5.00600e-03,-3.71418e-02,4.89112e-01,2.36581e-01,9.46872e-02,-1.59326e-01,1.09288e-01,-2.73695e-01,-4.50436e-02,-2.63889e-01,-2.49075e-02,-3.83968e-01,2.54631e-01,-1.47632e-01,4.57242e-03,-4.35251e-02,-1.71216e+00,1.29377e+00,-2.56890e-01,-3.61161e-01,-6.81871e-02,-4.36778e-01,-6.01392e-01,1.25956e-01,-5.30671e-01,1.41962e-01,-1.77899e-01,3.21753e-01,
1.52807e-01,1.29110e-01,-8.48908e-02,-2.45338e-01,1.85287e-01,-7.14072e-03,-8.42908e-01,1.05913e-01,-3.23219e-01,-8.82661e-01,-1.08759e+00,2.94390e-01,1.73214e-01,1.04217e-01,1.39308e-01,-5.22750e-02,8.23025e-01,-1.90970e+00,2.50590e-01,-5.59099e-03,8.21159e-01,-2.07081e-01,1.41959e-01,-5.62334e-02,-8.85384e-02,-1.00603e+00,1.21322e-02,2.17485e-01,2.02706e-01,1.51520e-01,-7.88549e-02,6.89509e-02,-6.80888e-02,1.44112e-01,-1.35718e+00,-7.88604e-02,3.17802e-01,3.14873e-02,2.01405e-01,-1.73808e-01,-2.19659e-03,-1.34887e-01,1.40251e-01,3.01644e-02,-7.27211e-03,
2.69653e-01,-9.66147e-02,-1.02973e-02,-4.57776e-01,1.51317e-01,1.07054e-01,-4.66179e-01,-2.77894e-01,2.13282e-01,1.04470e-01,-2.28182e-02,2.34189e-01,4.10575e-02,1.26780e-01,8.33564e-02,-3.45950e-01,5.24166e-01,-2.35942e-01,3.16406e-01,-2.32854e-01,8.72889e-02,-2.49616e-01,1.39601e-01,7.02467e-02,1.74800e-01,2.92211e-01,1.75535e-01,8.46975e-02,-1.88501e-01,3.35720e-01,3.23346e-01,-8.38843e-02,2.86746e-01,-6.40398e-01,-4.42732e-02,1.84296e-01,3.04138e-01,1.35854e-01,1.18375e-01,-5.49451e-01,1.33836e-01,9.54199e-03,-1.20192e-01,9.75378e-03,8.11531e-02,
8.69189e-03,
-1.63146e-01,
0.00000e+00,
-1.16091e-01,
2.23814e-01,
5.78186e-02,
-9.73980e-03,
2.43635e-01,
-1.13766e-01,
2.11443e-01,
4.03321e-02,
-3.56805e-01,
-5.80525e-02,
2.94488e-02,
1.60241e-01,
2.33167e-02,
3.43111e-01,
-1.00948e-02,
3.95602e-02,
9.43831e-03,
1.61982e-02,
1.90858e-01,
-1.60804e-01,
-1.77244e-02,
-8.53650e-02,
3.12426e-02,
1.90224e-01,
-2.17036e-01,
-8.45254e-02,
-1.51327e-02,
-2.13162e-01,
-1.21950e-01,
4.95546e-02,
-5.36516e-02,
2.18136e-01,
-1.29966e-01,
-3.95068e-02,
8.49484e-03,
-8.89910e-02,
5.12028e-02,
-8.07596e-02,
1.60774e-02,
-7.19392e-01,
-2.88220e-02,
4.82361e-02,
9.45077e-02,2.87607e-01,-1.82171e-01,-7.11239e-02,-1.82908e-03,1.24574e-01,3.85936e-01,-6.40318e-02,1.14228e-01,6.91471e-03,-1.65052e-02,3.95106e-01,7.60650e-02,-5.38489e-01,2.20859e-01,-1.06844e-01,6.56947e-02,3.61725e-02,2.28540e-01,2.25964e-01,5.06172e-02,-6.50597e-02,-2.76775e-01,-2.26977e-01,-2.15288e-02,9.24164e-04,1.60732e-02,-5.95701e-02,-1.52277e-01,1.14390e-01,5.50673e-02,2.77430e-02,1.85631e-01,-1.38503e-01,2.60692e-02,6.14779e-02,1.50119e-01,9.89463e-02,9.76745e-02,1.04610e-01,-2.36807e-01,-5.44690e-02,6.75448e-01,-1.45400e-01,2.39879e-01,
1.95867e-02,1.45526e-01,-3.63605e-02,9.20405e-03,9.72597e-02,-1.84565e-01,5.34010e-01,6.72767e-03,4.09632e-02,-2.76280e-02,1.07604e-01,5.36603e-01,1.50901e-01,-2.37974e-01,-6.78797e-01,4.70472e-02,-3.70456e-01,4.00029e-02,1.76348e-01,3.19491e-01,4.08610e-01,-2.83609e-02,-8.19303e-01,-3.37901e-01,1.94859e-01,2.65807e-01,-5.26848e-02,-1.95658e-01,-6.58061e-01,5.02683e-01,-2.15172e-02,-2.07659e-02,-7.80629e-01,1.63312e-01,1.13210e-01,-1.34412e-02,-2.07787e-01,-5.45085e-02,6.07431e-01,-1.69796e-01,-4.31136e-01,-8.43887e-02,-1.89331e-01,-3.07798e-01,-4.23018e-01,
-3.46428e-01,-1.77023e-01,8.27454e-02,9.43073e-02,-3.75493e-01,1.35987e-01,-1.26898e-01,7.37719e-02,-1.92506e-01,3.25209e-02,2.48761e-01,2.72424e-01,-3.92122e-01,-9.05825e-01,-3.82616e-01,3.18796e-01,-3.97891e-02,-2.99457e-01,7.54278e-02,2.55192e-01,3.34144e-01,-1.94225e-01,-1.00886e-01,-1.07286e-01,-4.31236e-02,-7.45337e-02,1.96669e-01,2.74830e-02,-8.66914e-02,2.20052e-01,-1.84136e-01,1.61883e-01,4.05625e-03,-2.63760e-01,3.83915e-01,-1.73489e-01,1.26668e-01,-5.34641e-02,3.66352e-01,9.14539e-02,-1.04252e-01,-6.53855e-02,3.88186e-01,4.63152e-02,-3.50711e-02,
1.30399e-01,1.34492e-01,-2.28866e-02,8.60831e-02,-2.28124e-01,-4.19401e-02,-1.21975e-01,-1.73765e-01,-1.47165e-01,1.50758e-01,-2.49241e-01,1.07172e-02,-5.32365e-02,1.53502e-01,-2.17154e-01,-8.85263e-02,1.05643e-01,-1.22599e-01,-1.56308e-01,2.08383e-01,2.50933e-01,3.55828e-02,-1.15983e-01,-6.48712e-02,-5.77544e-02,-2.33384e-01,-1.41636e-01,-2.25751e-01,7.01520e-03,-2.29586e-01,-2.40204e-01,-1.43834e-01,1.52228e-01,-1.05025e-01,-1.75327e-01,-1.49167e-02,1.99548e-01,-6.58327e-02,2.25591e-01,-2.37297e-01,-6.26927e-02,-2.30708e-01,7.48388e-02,-1.75805e-01,-7.45392e-02,
-9.00680e-02,-1.00824e-01,-1.70295e-01,-1.02757e-01,-1.16652e-02,-1.83438e-01,-1.12538e-01,-6.12134e-02,3.80762e-02,-1.89598e-02,-1.60781e-01,-1.55062e-01,-1.40300e-01,1.29692e-01,-6.65940e-02,-8.59944e-04,-5.54864e-02,-6.70165e-02,-2.49879e-03,-5.41715e-02,-2.39458e-01,6.30697e-02,1.88676e-01,-2.27088e-01,1.89065e-01,-1.57244e-01,-2.48507e-01,1.45541e-01,-1.91010e-01,3.03385e-02,4.42871e-02,6.77368e-02,5.99282e-02,1.07964e-01,-2.40996e-01,-1.49380e-01,-6.16697e-02,-1.36034e-02,-2.31951e-01,-2.95694e-02,-1.30731e-01,6.73487e-02,-6.56100e-03,6.50147e-03,4.40588e-02,
2.77493e-01,3.47612e-01,1.62756e-01,-1.54828e-01,1.50054e-01,5.06669e-02,7.04674e-02,-2.48678e-03,7.19919e-01,1.08043e-01,-3.40835e-03,-5.02324e-02,-3.27781e-02,4.91485e-01,-1.78117e-02,1.42483e-01,-1.52452e-04,5.76285e-02,3.63137e-01,1.01983e-01,-8.25981e-02,5.02789e-02,-3.33978e-02,-9.09780e-02,-1.03768e-01,-1.69621e-01,-1.48673e-01,-2.30083e-01,2.50262e-01,1.08183e-01,1.60393e-01,6.09196e-02,2.39206e-01,-1.10936e-01,-2.97140e-01,1.54535e-01,-5.83929e-02,-1.14654e-01,1.29093e-01,9.04234e-02,-8.71613e-03,1.88910e-01,1.50593e+00,3.51611e-02,-9.49065e-02,
-2.10883e-02,1.41717e-01,5.66401e-02,4.06298e-01,-2.81445e-02,3.10798e-01,1.91555e-01,-5.44684e-02,1.54687e-01,-1.50845e-01,-2.69339e-03,5.96819e-01,3.68390e-01,-2.06427e-01,4.52528e-01,3.32461e-02,-4.73973e-02,3.42066e-01,-8.48802e-02,-6.20774e-02,8.30952e-01,-3.77613e-01,-7.82699e-01,-1.11784e-01,-3.23419e-02,-2.94618e-01,-5.51070e-01,-2.19823e-01,-2.18699e-01,1.71973e-03,-3.76120e-01,1.85538e-01,-2.31585e-01,3.56531e-02,-3.11682e-01,-1.69241e-02,5.95120e-01,-2.40979e-02,-1.64297e+00,2.23429e-01,-8.19552e-01,1.70152e-01,7.86873e-01,-1.23858e-01,3.44944e-01,
-2.64619e-01,-2.31348e-01,-2.45436e-01,1.96156e-01,-7.44568e-02,1.92335e-01,3.53138e-02,1.50704e-01,-8.03796e-02,-4.20411e-01,6.18189e-03,-4.77174e-01,-1.01594e+00,3.46511e-01,1.06445e-01,2.06363e-01,2.61178e-01,1.19888e-01,2.58385e-01,-2.23467e-01,1.20466e-01,7.78744e-02,-9.22917e-01,-2.41977e-01,-1.75772e-01,-6.13388e-01,-4.04254e-02,-3.43106e-02,4.85580e-01,7.96401e-01,-3.80065e-02,-1.13537e-02,1.91395e-01,2.16669e-01,-5.90326e-01,-8.99630e-01,2.09830e-01,2.44813e-01,-5.83398e-01,5.78744e-01,-5.01663e-02,1.85835e-01,-3.74572e+00,-1.09119e-01,-1.69224e-01,
-3.95441e-01,4.39199e-01,1.47620e-01,-1.69640e-01,-1.96063e-02,9.84929e-02,1.55174e-01,-6.22372e-01,7.12756e-03,3.80351e-01,-3.28379e-01,7.61656e-02,-4.19438e-01,8.39574e-02,9.14602e-01,1.12000e-02,5.58122e-02,-2.29649e-01,2.04355e-01,1.20729e-01,1.63750e-01,-2.74686e-01,-1.86164e-01,1.45264e-01,-1.98374e-01,3.12337e-01,-1.80714e-01,1.73787e-01,-1.08348e-01,1.23916e-01,2.54248e-02,1.09163e-01,8.36160e-02,-3.34303e-02,-1.80454e-01,-6.85732e-02,-7.41446e-01,-3.77916e-01,8.81283e-01,3.80024e-01,-5.77008e-01,1.51564e-01,3.28943e-01,-1.35857e+00,2.45534e-01,
9.85135e-02,-1.43780e-01,-1.78719e-01,-2.30757e-01,6.11554e-02,1.42999e-01,-1.18307e-01,-1.69242e-01,-2.42936e-01,1.26525e-01,-5.26478e-02,-4.21114e-01,1.16371e-01,-2.05697e-01,-3.48875e-02,8.75738e-02,1.84526e-01,1.69559e-01,1.57181e-01,3.67934e-01,3.15075e-01,1.51038e-01,3.39346e-01,-9.08162e-02,-3.29447e-01,8.52284e-02,-1.52624e-01,2.09009e-02,2.19501e-01,2.05240e-01,-2.32027e-01,-6.40643e-02,2.80985e-01,5.55977e-05,1.13373e-03,1.87223e-01,-1.82213e-01,1.98836e-01,-4.46561e-02,4.70802e-02,-3.22945e-01,7.01701e-02,8.50793e-01,-3.32277e-01,1.16770e-03,
-2.73668e-01,2.96261e-01,-1.51155e-01,-1.14395e-01,1.91798e-01,-7.75856e-02,7.40092e-02,-1.90901e-01,4.71802e-01,3.87494e-01,-1.33962e-01,-3.99370e-01,2.93659e-02,-6.61872e-02,1.84146e-01,-2.95551e-01,5.05905e-01,-8.12606e-02,-1.60304e-01,1.93865e-01,1.48816e-01,-2.84060e-02,7.72600e-01,-1.43727e-01,-2.11620e-02,3.15083e-02,-3.60457e-01,8.82025e-02,5.29235e-02,-7.29004e-03,5.58111e-02,-5.81497e-01,-1.73713e-01,6.54569e-02,-1.52766e-01,-2.27946e-02,-1.05281e-01,-2.70476e-01,-1.57704e+00,1.04406e-01,-4.55210e-01,2.07078e-01,-1.40991e+00,-5.02442e-01,1.41591e-01,
3.39405e-01,1.40459e-02,-5.99070e-02,-5.66503e-01,-1.59332e-01,3.39875e-01,1.64379e-01,1.74138e-01,-5.11855e-01,3.11316e-01,-3.39914e-01,7.49175e-01,-6.40320e-01,5.38962e-02,1.05478e-01,1.22175e-02,-4.81892e-02,2.51298e-01,1.38170e-01,-1.31149e-01,3.60659e-01,2.80883e-01,-1.22599e+00,-1.95223e-01,-7.26314e-02,-3.04595e-01,2.16436e-02,-2.30532e-01,-9.16119e-02,-3.18821e-02,7.39690e-01,-4.44923e-02,-1.07754e-01,6.64374e-02,-4.79507e-02,1.94777e-01,-1.14477e-01,2.31809e-01,-1.69798e+00,-6.83382e-02,-1.21308e+00,1.03650e-01,-2.90880e+00,-1.07985e+00,-1.07791e-01,
1.44993e-02,2.92586e-01,5.49638e-02,-2.77123e-01,9.33877e-02,-1.84514e-01,-3.68043e-02,4.22021e-02,4.36336e-01,1.97745e-01,2.43478e-01,-6.65370e-01,2.74674e-01,-3.18889e-01,2.33054e-01,-3.12557e-01,9.74757e-02,-4.72030e-03,-1.73394e-01,1.73424e-01,-3.79406e-02,3.22226e-01,-2.77007e-01,2.83231e-01,3.50028e-01,-2.42573e-01,-7.06691e-02,5.18449e-01,-1.26382e-01,-2.93612e-01,-9.19582e-02,-5.65760e-01,5.20729e-02,-2.78362e-01,-2.83311e-02,-1.08525e-02,-7.42782e-02,-1.41640e-01,-8.46507e-02,-1.32294e-01,-1.75818e-01,1.54999e-01,-2.02011e-01,1.83654e-01,6.35717e-02,
-4.52819e-01,-8.01406e-02,-2.39974e-01,-2.14788e-01,1.99147e-01,9.21145e-02,4.03123e-02,-3.15235e-02,3.12587e-01,2.25874e-01,1.12740e-01,4.13519e-01,-2.19799e-03,-1.64607e+00,-3.03833e-01,7.51580e-02,-7.52117e-02,-4.11834e-01,-1.29123e-01,8.58144e-02,2.32200e-01,5.74384e-02,-1.91788e-01,5.59688e-01,-1.71984e-01,2.74489e-01,-1.56886e-01,-8.02780e-01,-1.40222e+00,-1.22159e-01,8.55142e-02,-4.07227e-02,-1.38611e-02,-1.92474e-01,1.73757e-01,4.95797e-03,-3.04331e-02,1.37599e-01,-1.24921e-01,-3.40359e-01,-1.85309e+00,3.25950e-01,-2.52723e+00,2.19348e-01,-1.85145e-02,
1.03017e-01,-7.08045e-02,1.13373e-01,1.75442e-01,-2.02150e-01,-2.60721e-01,-1.73228e-01,-3.00449e-01,-9.50504e-02,1.76072e-01,-2.96822e-01,7.17774e-02,1.12975e-01,2.01834e-01,-8.68608e-02,-1.15928e-01,-1.65777e-02,1.93339e-01,-1.61367e-01,-6.26360e-02,-7.75639e-02,1.08702e-01,-5.20255e-02,5.25380e-02,-3.67369e-02,-1.58818e-01,-2.80122e-02,-2.65464e-02,-7.78259e-02,-1.53479e-01,1.65744e-01,-5.21286e-02,-8.41306e-02,-2.24470e-01,-1.30610e-01,-1.12276e-01,1.12234e-01,-2.44804e-01,1.55201e-01,-4.91505e-02,9.03710e-02,-1.54723e-01,-1.28250e-01,4.62182e-02,-3.68768e-02,
-4.10187e-01,2.11220e-01,-1.06301e-01,1.92561e-01,2.16723e-03,3.59615e-01,-8.57536e-02,-2.87654e-01,4.85807e-01,1.69721e-01,-2.00152e-01,-2.43935e-02,8.01089e-02,-1.05789e-01,3.61807e-02,-9.75278e-02,1.16841e-01,2.51612e-01,2.21957e-01,2.19576e-01,-1.67192e-01,-5.24996e-02,-6.44326e-01,-9.43604e-02,-2.27719e-01,1.51241e-01,-5.05946e-02,-8.96900e-01,-5.35494e-01,-3.78528e-01,4.22956e-01,-4.66857e-02,-1.56630e-01,1.68744e-01,-3.63158e-01,5.90210e-02,-3.17627e-02,-1.19859e-02,-3.59141e-01,1.18221e-01,-3.85560e-01,5.75569e-02,8.83536e-01,-4.73795e-01,2.22263e-01,
3.32040e-01,1.76747e-01,2.27497e-02,6.00378e-02,3.94840e-02,2.33651e-01,-2.36588e-02,6.97535e-02,-2.50644e-01,-2.70292e-01,1.59075e-01,-2.54774e-02,2.24742e-02,-1.02155e-01,-1.98416e-01,-1.33252e-01,6.20333e-02,8.32328e-02,-2.89751e-02,-2.24220e-02,-5.70930e-01,-1.20496e-01,3.35782e-01,3.30937e-01,2.38575e-02,2.84231e-01,1.70156e-01,1.21392e-01,-2.73458e-01,-2.24137e-01,2.51530e-02,-1.16261e-01,-1.08023e-01,1.24871e-01,1.05036e-01,-1.72713e-01,1.41672e-01,-7.44946e-02,-1.39209e-01,3.13071e-01,-2.55862e-01,1.29312e-01,9.18035e-01,-6.33474e-01,2.90859e-01,
2.67992e-03,2.31112e-01,1.12549e-01,-1.96458e-01,-3.23343e-01,1.65758e-01,4.64720e-02,-1.00163e-01,5.07626e-02,1.05480e-01,1.06318e-01,1.24521e+00,1.88953e-02,-1.00482e+00,8.08534e-02,6.33612e-02,5.27580e-02,1.60714e-02,7.17859e-02,-2.31766e-01,-9.14651e-02,8.63094e-02,1.29716e+00,-1.52899e-01,7.99290e-02,3.24679e-01,2.21492e-02,-4.15497e-02,8.65820e-01,-6.41082e-02,-1.58053e-01,-8.44195e-02,-1.08520e-01,-1.09844e-01,2.50135e-01,-3.22871e+00,-1.95979e-01,2.62974e-02,-3.01730e-01,1.89761e-01,9.35520e-02,4.78735e-02,-1.38933e+00,-1.61691e-02,5.72319e-02,
1.76453e-01,-3.02415e-02,2.00505e-01,1.43381e-01,1.45378e-01,-1.06583e-01,1.47826e-02,1.03376e-01,-2.23747e+00,2.52719e-01,1.16581e-02,-3.28211e-01,-1.77847e-01,-3.43261e-01,3.36642e-02,-4.73366e-01,-3.20855e-01,-5.38188e-01,-1.44897e-01,-2.01608e-01,-6.57157e-01,7.88687e-02,4.20030e-01,-2.87950e-01,-7.09134e-01,1.25906e-01,-3.08671e-01,-2.17006e+00,-1.92017e+00,1.07824e-01,4.76497e-02,2.97866e-01,-9.78983e-02,6.38137e-02,1.53507e-02,2.76552e-01,-4.57399e-02,3.96003e-01,1.73863e-01,-7.15949e-02,-5.65292e-01,1.02913e-01,-1.88600e+00,-3.67833e-01,1.85426e-01,
-1.44529e-01,-6.53545e-01,-1.64367e-01,7.38075e-03,-6.93304e-02,-6.95501e-02,-1.33654e-01,9.87108e-02,4.02689e-01,-1.36584e-01,1.34648e-01,-1.48670e-03,-2.56217e-01,-1.00287e-01,-1.43021e-01,1.54873e-01,-3.41048e-01,-7.05176e-03,2.42741e-01,3.75524e-01,1.71631e-01,-1.96200e-01,-8.06951e-01,-2.12407e-01,4.16469e-02,2.17567e-01,-6.11766e-02,-5.29783e-02,2.58960e-01,1.81646e-02,5.25175e-01,-8.44450e-03,1.32690e-01,3.73193e-01,-2.26946e-02,-8.00385e-02,2.65606e-01,3.41034e-01,-7.98145e-02,3.78333e-02,1.34196e-01,2.11231e-01,1.17683e+00,3.67646e-01,-1.85846e-01,
7.83977e-02,-5.90968e-01,9.80186e-03,-1.83273e-01,1.36882e-01,-3.45774e-03,-1.04141e-01,5.00460e-01,-7.41746e-01,-5.12577e-02,-3.39808e-01,1.62626e-01,-1.52187e-01,-5.95370e-02,3.11090e-01,1.41848e-01,5.72145e-02,6.32506e-01,1.95774e-01,-2.73527e-01,2.91100e-01,1.39656e-01,-2.32215e-01,2.75016e-01,-6.15230e-01,7.36439e-02,-2.85377e-01,-2.95851e-01,-1.46413e-01,2.44435e-02,-2.91322e-01,-1.68540e-02,-8.28322e-02,-2.57105e-01,-2.71985e-02,3.04959e-01,9.38046e-02,-4.99648e-02,2.13945e-01,-6.48894e-02,-9.08658e-02,9.04593e-02,-1.62420e+00,3.32575e-02,4.44261e-01,
3.88941e-01,-4.83332e-01,-1.84543e-01,-5.92633e-02,-7.43932e-01,8.41533e-02,3.67315e-01,1.09503e-01,3.88941e-01,-9.64282e-02,-3.89110e-01,2.60599e-01,-2.60617e-01,1.65820e-01,-5.85030e-01,4.81878e-01,-1.14855e+00,-7.20704e-01,-3.05777e-01,2.51647e-02,-4.91424e-01,-3.85810e-01,-1.59201e+00,3.22552e-01,-1.20102e+00,3.39863e-01,3.12730e-02,1.47438e-01,1.59197e-01,1.42082e-01,2.53054e-01,3.22267e-01,-2.68187e-01,-1.17419e-01,-3.27649e-01,2.51546e-02,9.46349e-01,1.79169e-01,-1.97097e-01,-1.00669e-01,-6.63654e-01,3.99681e-01,-9.49535e-01,-9.11631e-02,-2.02079e-01,
9.46005e-02,5.00961e-02,1.82224e-01,-1.84884e-01,1.47707e-01,-1.38141e-01,1.25442e-01,-1.88583e-01,-2.75980e-01,4.46523e-01,-1.37609e-01,1.33936e-02,1.14082e-01,-1.75345e-02,4.16151e-01,2.43933e-02,3.52644e-01,-5.90786e-02,-2.09900e-01,2.85427e-01,4.87756e-02,-2.61003e-01,1.09848e-01,3.32326e-01,-4.38797e-01,1.75119e-01,-1.72192e-01,-2.32811e-01,1.98848e-01,1.70012e-01,-5.76915e-01,6.83078e-02,-1.46634e-02,1.68829e-02,-8.37608e-02,4.52017e-03,-9.78095e-02,-8.51645e-02,-2.77158e-01,2.48775e-01,-4.39978e-01,2.09004e-01,1.49358e+00,-1.19456e-01,5.43125e-02,
6.20285e-01,3.39735e-01,1.56338e-01,-6.12278e-03,-3.13994e-02,2.10423e-01,-6.46973e-02,-3.21326e-01,-9.04299e-02,4.16628e-01,7.48471e-02,-1.79229e-01,-4.21074e-01,-4.39033e-02,2.62413e-01,5.08244e-01,2.49298e-01,6.85745e-02,-8.98054e-02,8.93247e-02,-1.14339e-02,-1.43845e-01,1.26902e-01,-1.53811e-01,-2.41300e-01,1.42797e-01,-1.64203e-01,-2.36493e-01,1.23340e-01,2.47496e-01,-1.01389e+00,3.16754e-01,-1.58736e-01,1.14236e-02,-2.68040e-01,-6.80443e-02,-6.85384e-01,-2.84713e-01,1.35816e-01,1.37454e-01,-8.63127e-01,2.43834e-01,8.38792e-01,-4.72726e-01,3.24069e-01,
-1.90825e-01,3.82412e-02,-2.07540e-01,2.57028e-01,-3.28495e-02,7.37411e-02,1.93144e-01,-3.45529e-01,-2.00035e-01,-1.12017e-01,6.48273e-02,3.26478e-01,1.34716e-01,-2.09164e-01,-6.18002e-01,5.15572e-02,3.74879e-02,-1.03091e+00,1.35945e-01,-2.78973e-01,-6.59004e-01,-2.96924e-02,-2.90898e-02,-5.38070e-01,1.55159e-01,-1.04067e-01,-1.14153e-01,-9.50017e-01,-9.34280e-01,3.91625e-01,-1.17879e-01,-1.37960e-01,2.56163e-01,-6.96680e-02,-1.79324e-01,2.43868e-02,3.80803e-01,2.75012e-02,-6.20563e-03,2.78514e-01,-6.90581e-01,1.42153e-01,-3.10674e+00,-5.39597e-02,-1.61135e-01,
-1.64713e-02,-7.66443e-02,-1.21143e-01,-8.44228e-02,1.39471e-01,-5.90193e-03,2.16621e-01,-2.02373e-01,2.40051e-01,-1.81939e-02,-2.23787e-01,-9.65587e-02,1.98061e-01,-7.61666e-01,-1.42188e-01,-2.10237e-01,-5.11964e-01,-2.63758e-01,2.44867e-01,7.86361e-02,-3.30136e-01,-3.59541e-02,-1.85283e-01,1.83333e-01,4.52255e-01,2.07277e-01,1.68916e-01,1.35371e-01,-6.17973e-02,-1.36338e-01,1.97095e-01,-1.60564e-01,1.13382e-01,1.41713e-01,3.38620e-01,3.87611e-02,-3.66963e-01,2.59321e-01,2.10239e-01,1.16040e-01,9.06662e-02,-2.53932e-01,1.37265e+00,1.73705e-01,-3.39078e-02,
7.90690e-03,-1.93261e-01,1.39634e-01,1.46299e-01,4.00946e-02,-4.69195e-02,5.12478e-02,-3.61160e-02,6.06493e-01,2.19221e-01,-2.34766e-02,1.12728e-01,-3.37486e-01,1.17547e-01,-6.85754e-03,-3.53368e-02,-4.94268e-01,-9.64649e-02,1.76312e-01,3.24196e-01,1.19030e-01,-2.51309e-01,2.15962e-02,-4.42289e-02,-4.64711e-02,1.13897e-01,-1.38863e-01,-9.89512e-02,7.62141e-02,1.42843e-01,1.29245e-01,1.95080e-01,6.11860e-02,-2.59143e-01,3.98500e-02,1.97599e-01,-2.00633e-01,4.58173e-01,-2.53686e-01,-2.94394e-01,4.86309e-01,2.22123e-01,-3.28345e-01,2.84476e-04,2.17299e-01,
-9.11837e-02,2.88012e-01,-3.08149e-02,-3.38701e-01,1.59164e-01,-4.60567e-02,2.15972e-01,1.36088e-01,-2.09273e-01,-3.43154e-02,3.92175e-01,-6.19388e-01,-4.03314e-01,-3.46039e-01,2.25179e-01,1.41195e-02,4.50916e-01,-1.98602e-01,-6.91710e-02,3.34230e-02,2.82245e-01,-1.63920e-01,4.29644e-01,1.95689e-01,-1.47395e-01,-1.15726e-01,1.30425e-01,-1.33633e-01,2.72168e-01,1.94217e-02,2.25080e-02,-5.10895e-02,-1.13196e-01,1.16597e-01,-1.00369e-01,-4.23824e+00,-1.09587e-01,1.73164e-01,3.88347e-02,1.04036e-01,1.24603e-01,-3.05893e-01,-1.39702e+00,9.03325e-02,-1.43078e-01,
9.80361e-02,-9.90455e-02,2.01549e-01,-1.76496e-01,-3.58614e-01,2.20741e-01,4.90091e-02,-6.80345e-02,-1.70103e-02,-1.50344e-01,1.81056e-01,2.92051e-01,1.25902e-01,-5.98851e-01,7.29050e-02,1.56823e-01,2.56781e-01,-6.25730e-03,3.10393e-01,-1.47461e-01,-5.14672e-02,-6.63511e-02,4.11384e-02,-1.59182e-01,-2.51309e-02,-8.42256e-02,-6.72994e-02,-1.53300e-01,1.08627e+00,2.70266e-01,-1.29483e-01,-4.37148e-03,-1.82895e-02,1.18330e-01,3.19692e-03,2.14874e-01,4.50750e-02,1.58479e-01,-7.79477e-02,2.78442e-01,9.67929e-02,7.91531e-02,-1.52589e+00,-1.36570e-01,-9.16247e-02,
-2.83488e-01,-5.05468e-03,-7.78148e-02,3.43462e-01,7.87096e-04,-5.73110e-02,2.25962e-01,-2.32281e-01,-4.07421e-01,3.32109e-04,5.57913e-02,-4.21243e-02,-1.49564e-01,-4.97046e-01,4.18811e-01,-2.27411e-01,9.91406e-03,6.06220e-01,-1.89773e-01,9.84740e-02,2.44067e-01,3.24080e-02,-6.37647e-02,-4.64444e-02,2.06774e-01,-3.74794e-01,-2.22666e-01,-2.89768e-01,-2.36471e-01,-2.32224e-01,-2.89216e-01,-2.63021e-01,-1.25102e-01,1.87824e-01,-2.08605e-01,6.28283e-01,-3.59583e-01,3.84636e-01,-1.00087e-01,-4.11495e-02,-3.71415e-02,-4.46370e-02,5.73698e-01,-5.73117e-03,1.91364e-01,
-4.76981e-01,8.91666e-02,4.40605e-02,-1.04085e-01,2.96145e-01,-2.05498e-01,1.15336e-01,3.03958e-01,2.39269e-01,3.37878e-01,-9.22195e-02,2.54491e-01,-2.44178e-01,2.66741e-01,-4.97225e-01,3.84417e-02,-1.76069e-01,-7.62457e-01,2.32828e-01,3.46379e-01,4.19913e-01,2.08901e-01,-2.68544e-01,-9.82902e-02,-2.50894e-01,-2.87413e-01,-2.40232e-01,4.41672e-01,-1.14693e+00,-1.66338e-01,-2.21215e-01,-1.03149e-01,-5.84849e-01,-1.87963e-01,-7.67611e-02,5.65905e-02,3.07494e-01,2.67734e-01,-6.48954e-01,-2.93056e-01,-1.62920e+00,1.69167e-01,-1.65885e+00,3.05440e-01,-3.85105e-01,
-2.77449e-02,-1.95870e-01,-8.90648e-02,-3.30385e-02,-9.34463e-02,1.18578e-01,-2.21288e-01,-1.48943e-02,-2.40916e-01,-2.73650e-01,-5.07136e-02,-3.02664e-02,3.62922e-03,-1.80760e-01,-2.38172e-01,2.86400e-02,-2.23432e-01,-1.36634e-01,1.44558e-02,2.97393e-02,-3.04915e-01,-9.11870e-03,-3.26133e-01,4.27009e-02,1.92440e-01,-2.52907e-01,7.35383e-02,-2.41874e-01,2.75911e-01,-6.03927e-02,2.74310e-01,3.01867e-01,1.44050e-02,-2.51443e-02,8.29456e-02,2.91229e-01,-8.36024e-03,1.98039e-01,-4.63700e-01,5.52722e-02,-4.11770e-02,6.13639e-02,1.89929e+00,9.09526e-02,-8.28364e-02,
-2.91557e-01,-1.57165e+00,4.01594e-02,1.72007e-01,-4.09872e-01,1.07512e-01,1.79615e-01,9.92668e-02,3.78671e-01,-6.53699e-01,1.19941e-01,-9.85813e-01,-3.60907e-01,2.35034e-02,-2.46570e-01,-2.45144e-01,-3.23230e-01,-1.53774e-01,-1.98620e-01,2.64253e-02,3.46091e-01,2.47210e-01,-1.00050e+00,8.36794e-02,2.81110e-01,4.85016e-02,1.83381e-01,8.91873e-02,-1.38521e-01,-8.34798e-02,6.60670e-01,-1.57690e-01,6.17590e-02,-1.00432e-01,-9.86070e-02,3.18386e-02,-1.72818e-01,-1.76113e-01,-2.03507e-01,-5.90550e-02,8.93435e-02,-2.89316e-01,1.10773e-01,1.51873e-01,-2.90689e-01,
