// Neural Network File Format by Kyle Julian, Stanford 2016
7,4,9,45,
4,45,45,45,45,45,45,9,
0,
-8000.0,-100.0,-100.0,0.0,
8000.0,100.0,100.0,40.0,
0.0,0.0,0.0,20.0,-0.4325993796315559,
16000.0,200.0,200.0,40.0,3.102300000999995,
3.95901e-01,-8.64378e-01,3.91724e-03,3.75658e-03,
1.11327e+00,1.67231e-01,3.45341e-01,1.72602e-01,
-2.30481e-01,5.97155e-02,-1.57516e-01,-1.07285e-02,
1.43086e-01,-6.77809e-01,-5.68751e-03,7.26419e-04,
2.14687e+00,1.20072e-02,-7.33494e-02,2.22535e-02,
-8.76187e-01,2.27875e-02,-1.15132e-01,-4.32132e-01,
2.03561e+00,-2.22118e-01,2.19527e-01,-8.41274e-02,
-4.24098e-02,1.69467e-01,-1.66100e-01,5.25105e-01,
2.71370e-01,-1.17068e-01,3.06721e-01,-3.88296e-02,
8.26177e-02,-8.04613e-02,-1.16441e-01,2.38775e-01,
-5.49419e-01,2.29891e-01,1.95907e-01,-3.90483e-01,
-5.27353e-02,3.47773e-01,-1.12094e-01,3.11137e-01,
-2.72635e+00,-1.21729e-02,7.79814e-02,2.21068e-02,
-1.73225e+00,1.25952e-01,-1.76023e-01,1.22253e-01,
-1.33613e+00,-6.67912e-02,9.72145e-02,-3.46945e-01,
-1.74878e-03,-1.79633e-01,-1.08903e-01,-2.39400e-01,
-1.12364e+00,-1.25006e-01,-1.32198e-01,1.56702e-01,
-6.13693e-01,-8.70970e-02,8.37204e-02,-4.36605e-01,
-2.45044e-01,-3.19280e-01,1.56522e-01,2.97882e-01,
-2.22733e+00,7.40632e-02,-5.61468e-02,1.11888e-01,
-7.17874e-01,1.46729e-01,-1.29117e-01,2.95779e-01,
2.69993e+00,2.82055e-02,-7.57104e-02,3.10175e-02,
-7.69841e-01,-1.51254e-01,4.68080e-01,-3.87223e-02,
3.12472e-01,1.51054e-01,-4.63059e-02,-4.54764e-02,
-2.64104e-01,-2.48799e-01,2.07805e-01,3.66222e-01,
6.82181e-01,3.07123e-01,-3.56167e-01,1.23456e-01,
1.13553e+00,-5.06961e-01,-1.84110e-01,3.10365e-02,
1.47017e+00,8.17829e-02,1.62140e-01,-6.36682e-02,
1.61315e+00,-2.15285e-01,1.60781e-01,-2.58389e-02,
-6.77539e-02,-8.30486e-02,1.00488e-01,2.85879e-01,
-1.50385e-01,4.15913e-01,3.02464e-01,7.75046e-02,
-2.80346e-01,-4.19006e-01,4.28011e-01,1.63258e-01,
4.58493e-01,1.91345e-01,-2.58887e-01,3.31088e-01,
4.11754e-01,-6.41541e-02,-3.32017e-02,-6.85522e-01,
1.08837e+00,2.75157e-01,-1.87239e-01,-7.35531e-02,
1.07518e+00,-3.27845e-03,2.29576e-01,1.47240e-02,
-7.93972e-01,5.07396e-01,4.64119e-02,-2.59997e-02,
4.45215e-01,5.87587e-02,8.74923e-02,-2.95006e-01,
9.42820e-01,2.41144e-01,8.69390e-02,9.23907e-02,
-4.01590e-01,9.98496e-02,1.17936e-01,2.61506e-01,
1.63875e+00,-1.56616e-01,1.90305e-01,2.70482e-01,
1.28771e+00,2.65747e-01,-2.26073e-01,-2.91079e-01,
-4.26557e-01,-5.56520e-01,-3.16261e-02,-4.31462e-02,
3.38611e-01,5.94430e-01,1.02962e-02,-3.43538e-03,
1.06232e-01,4.63079e-01,-3.42129e-01,-1.07010e-02,
-8.31032e-02,
-4.22707e-02,
3.88781e-02,
8.86375e-02,
2.48279e-02,
-7.77488e-02,
1.94686e-02,
1.95648e-01,
-2.42579e-03,
2.26359e-03,
-6.00657e-02,
-4.93397e-03,
1.04819e-01,
7.55080e-02,
-8.57289e-02,
2.49370e-02,
8.40705e-02,
-2.08413e-01,
2.77617e-02,
1.11185e-01,
1.50285e-01,
1.18405e-01,
5.28095e-02,
2.72486e-02,
1.01196e-01,
6.79991e-03,
7.28752e-02,
2.12496e-02,
4.59584e-02,
1.26033e-01,
-4.41473e-02,
6.18413e-02,
1.31749e-01,
-1.18779e-01,
-1.89539e-02,
2.45208e-02,
-2.52830e-02,
-6.11388e-02,
5.77044e-02,
6.96421e-02,
1.51811e-01,
-2.55031e-02,
-2.45485e-02,
-6.93952e-02,
-3.18790e-02,
-2.67676e-01,-2.57539e-01,2.71713e-02,2.85747e-01,-5.36071e-03,-1.35334e-01,3.96985e-01,2.36303e-01,-2.30835e-01,-1.97765e-03,7.59033e-02,2.02580e-01,-3.91143e-01,-3.90246e-02,-1.37546e-01,2.25891e-01,-1.82288e-01,6.89663e-01,-2.48063e-01,-2.94638e-01,-1.39839e-01,3.03476e-01,3.09310e-01,1.12532e-01,-2.63850e-01,-5.87347e-01,-1.49010e-01,-1.42837e-01,-3.77269e-02,-1.71799e-01,3.41002e-01,3.20461e-01,2.00831e-01,5.53006e-02,-1.13653e-01,-9.56315e-02,-1.16817e-01,7.96337e-02,9.60227e-02,3.26120e-01,-1.80939e-02,2.15686e-01,-1.15765e-01,-2.29600e-01,1.08145e-01,
-1.37727e+00,-1.08794e-01,5.36790e-02,1.16585e-01,-4.39789e-02,1.17815e-01,-2.20386e-01,7.82678e-02,1.83628e-01,-1.17755e-01,-6.78456e-02,-2.15457e-01,-1.66226e-01,-1.62243e-01,-5.87048e-02,-1.50672e-01,-2.70310e-02,-6.16155e-01,9.52624e-03,-1.17638e-01,-1.93937e-02,1.22664e-01,2.65301e-01,1.56886e-01,-7.25550e-02,1.11202e-03,-2.23480e-02,8.12799e-02,-7.53250e-03,1.32906e-01,2.98821e-01,-1.52846e-01,2.50226e-01,-1.59527e-02,-7.34647e-02,2.28896e-01,-5.36397e-01,-3.33215e-02,2.65793e-01,-4.28624e-02,-9.80714e-02,2.95295e-01,-4.23559e-01,-3.49627e-01,7.37093e-02,
1.21566e-01,5.13067e-01,-4.96711e-01,1.19516e-01,-6.14390e-01,-7.53383e-01,4.48050e-01,-2.70263e-01,2.36087e-01,5.43908e-05,-7.69703e-02,-1.18153e-02,1.21813e-01,-3.86787e-01,-6.67294e-01,3.01558e-02,2.74161e-01,-1.26871e+00,4.75120e-01,9.68372e-02,-2.74063e-01,1.06639e-01,1.05491e-01,-2.01858e-01,3.94774e-01,-4.00290e-01,-2.00275e-03,6.74477e-03,3.15443e-01,1.00916e-01,-2.11476e-01,2.02182e-01,-5.92335e-01,-1.95253e-01,-6.54876e-01,1.99996e-01,-1.42471e-01,6.57713e-02,-1.11288e-01,2.29018e-02,2.34143e-01,4.81183e-02,-2.45414e-02,-7.76018e-02,3.50324e-01,
-4.05671e-02,1.15354e-01,1.51372e-01,-2.13351e-01,1.16897e-01,-6.17005e-02,1.73926e-01,-2.29568e-01,-2.63272e-01,-9.67051e-02,-1.92287e-01,-3.75117e-01,1.27994e-01,1.82483e-01,-5.40038e-01,-2.24340e-01,1.06498e-01,-1.63467e-01,6.44296e-02,1.11481e-01,2.23170e-01,2.70532e-02,1.91917e-01,-9.95245e-02,2.30256e-01,-1.10116e-01,-4.23763e-02,-2.33275e-01,-1.85189e-01,6.57486e-02,-2.74262e-01,2.86455e-01,-8.24618e-02,-4.31776e-03,4.67180e-02,-1.01736e-01,-1.04386e-01,1.40027e-01,6.82349e-02,-3.92300e-01,2.15977e-01,1.08370e-01,-3.52800e-01,1.71078e-01,-2.78134e-01,
7.25801e-02,1.18179e-01,-1.10983e-02,-1.45038e-01,7.98507e-03,3.52704e-01,-1.03603e-01,5.17885e-02,2.54749e-01,4.38665e-01,5.99306e-02,3.82092e-01,2.30542e-02,3.17726e-01,5.69360e-01,2.52338e-01,-4.42328e-01,8.42437e-01,-1.89658e-01,2.16154e-01,2.79814e-01,-3.33413e-01,2.03966e-01,1.65066e-01,6.23962e-02,1.98195e-01,-1.06186e-01,1.40486e-01,-1.51648e-01,-3.41622e-01,-3.77037e-02,-2.76013e-01,-1.44229e-01,3.54858e-01,1.01847e-01,-1.71393e-02,2.30081e-02,2.41545e-01,-6.13138e-02,2.91883e-01,-2.47363e-01,2.31979e-01,-1.04316e-01,1.69504e-01,3.41190e-01,
-1.23846e-01,7.64913e-02,-1.61443e-01,2.14392e-01,-4.18037e-01,2.47958e-01,1.44618e-01,-7.59571e-02,1.19029e-01,-2.01368e-02,-1.97972e-01,3.67220e-01,4.30774e-02,-1.70150e-01,2.31090e-01,2.66617e-01,2.50571e-01,3.42207e-01,7.57798e-02,3.58918e-01,4.36698e-02,-5.20993e-01,3.32767e-01,-2.57364e-01,2.02863e-01,-3.03087e-01,-3.35866e-01,7.15147e-02,-7.04251e-02,9.82359e-02,-3.94690e-02,3.67200e-01,-2.69303e-01,2.09656e-01,5.13378e-01,1.67050e-01,-2.30514e-01,1.87227e-01,-2.91957e-01,-1.07107e-01,-1.25946e-01,1.60662e-01,3.16560e-01,1.24028e-01,-1.81867e-01,
6.82097e-02,1.59853e-01,3.90532e-01,-4.15311e-02,7.67518e-02,3.49662e-01,-1.79398e-01,-1.98396e-01,-2.10839e-01,-2.51262e-01,1.43535e-01,3.35290e-01,7.58222e-02,-2.72354e-01,-1.66269e-01,5.04882e-02,1.13739e-01,1.39291e-01,-8.58466e-02,3.86110e-02,-7.37824e-02,-3.38480e-02,9.01135e-03,3.87344e-02,1.42714e-01,-1.93365e-01,3.35978e-01,-1.15942e-01,-1.25327e-01,9.13671e-02,2.84385e-01,-2.37621e-01,-1.17465e-01,1.47396e-01,1.22536e-01,-8.96304e-04,1.28127e-01,-8.75074e-02,-4.33209e-03,3.60372e-01,1.22496e-01,7.09638e-02,1.76065e-01,7.97683e-02,-3.14245e-01,
-1.98678e-01,-1.39853e-01,3.40348e-01,3.22201e-01,2.16473e-01,-1.87498e-01,-6.91255e-02,-2.15195e-01,1.24061e-01,1.08918e-01,1.71615e-01,-2.53163e-01,-1.02607e-01,1.80315e-01,-5.82678e-02,1.57927e-02,2.57731e-01,-1.05635e-01,2.33224e-02,6.12966e-02,8.91335e-02,1.71511e-01,-2.49926e-02,-8.81614e-03,2.84288e-01,1.27994e-01,3.09149e-01,1.23402e-01,-1.23042e-01,1.63227e-01,-5.71937e-02,8.92197e-02,-2.43881e-01,2.36726e-02,-1.84479e-01,2.48800e-01,-7.41119e-01,1.09485e-01,-3.48872e-01,-2.45550e-01,7.05974e-02,-2.01744e-01,-1.11806e-01,-1.11449e+00,-4.96865e-02,
-1.48475e+00,1.55434e-02,1.30463e-01,-1.26026e+00,2.43293e-01,9.07868e-02,3.44067e-02,2.34694e-02,1.21417e-01,-1.05802e-01,7.43617e-02,-6.41819e-02,-2.86651e-01,7.09144e-02,-1.27395e-01,8.33863e-02,7.88610e-02,-4.54192e-01,-2.29667e-01,-1.09440e-01,-2.55686e-02,5.47456e-02,-4.01062e-03,2.61104e-01,8.91560e-02,1.79071e-01,-7.52888e-01,1.52447e-01,-2.52118e-01,-1.11797e-01,-5.57282e-02,-4.53079e-03,1.65355e-01,-8.82618e-02,9.01939e-02,4.59341e-03,-3.63258e-01,9.01602e-02,4.08690e-01,2.14755e-01,-5.85748e-02,6.39930e-02,-1.42104e+00,1.76713e-01,1.59008e-02,
-2.41845e-01,-1.35289e-01,-2.56037e-01,1.68767e-01,-6.98250e-03,1.78809e-01,-1.68471e-01,-2.11758e-01,2.07327e-01,2.29268e-01,-1.35153e-01,-6.12614e-03,-1.57416e-02,-6.51330e-02,-2.05700e-01,-1.84520e-01,-5.22286e-03,-2.54082e-01,-1.36379e-01,-1.42251e-01,1.05000e-01,2.70820e-02,-1.71747e-01,-8.36450e-02,-1.57278e-01,-1.94472e-01,5.69385e-02,-1.10428e-01,-9.62314e-02,-1.06384e-01,2.82373e-02,-2.06869e-01,2.00974e-01,6.21614e-02,5.99807e-02,8.83573e-03,-2.23700e-01,-1.08893e-01,-2.96596e-02,9.17021e-02,-1.99236e-01,5.07509e-02,-2.57737e-01,-8.89330e-03,-1.43215e-01,
-1.88544e-01,6.16055e-02,-1.48664e-01,1.19674e-01,-4.79417e-01,-4.56242e-01,1.70218e-01,3.84774e-02,-1.51823e-02,5.02455e-02,-1.66212e-01,-2.98184e-01,-8.04187e-02,5.54306e-02,-2.77812e-02,2.00621e-01,2.39863e-02,-8.54696e-01,2.99998e-01,2.07614e-01,-1.41389e-01,3.39706e-01,2.09146e-01,-1.69822e-01,8.59100e-02,-4.95112e-01,1.52318e-01,2.51887e-01,-5.84656e-02,3.06879e-01,1.16371e-01,2.46427e-02,-4.82774e-01,-3.94305e-01,-3.29210e-01,3.32721e-01,1.67250e-01,-8.20054e-02,3.68242e-01,-7.51781e-02,1.46453e-01,-2.11385e-01,3.19254e-01,-9.36540e-02,-5.53827e-01,
-2.09965e-02,3.03156e-01,2.55427e-01,-2.86398e-01,2.33050e-01,-4.17399e-02,-2.39036e-01,3.78113e-01,-8.07680e-02,2.48902e-01,7.97239e-02,-2.10938e-02,-2.06063e-01,2.70275e-01,-9.36033e-02,1.89022e-01,4.17633e-01,-1.03388e-01,-4.93575e-01,1.27336e-01,3.20592e-01,8.43960e-02,-6.27473e-02,5.21418e-04,-4.40322e-01,3.52106e-01,1.59338e-01,3.22878e-01,-3.07667e-01,9.95584e-02,-6.62787e-04,-5.82609e-01,2.28786e-01,-3.10734e-01,-2.29730e-01,6.29025e-02,-1.97054e-01,8.69605e-02,9.14777e-02,-4.24638e-02,-1.76216e-01,-6.25768e-02,-1.76928e-01,1.19723e-01,-2.89609e-02,
-2.29873e-01,1.01814e-01,-1.76228e-01,-9.20611e-02,-1.66924e-01,1.71133e-01,-5.54261e-02,-1.62900e-01,-7.42766e-02,1.43603e-01,-2.97358e-01,-3.64605e-02,-5.68913e-02,-2.21958e-01,-1.12385e-01,-6.65648e-02,-1.35379e-02,4.18223e-02,-6.60642e-02,7.01104e-02,-1.73669e-01,8.24049e-02,3.75261e-01,1.16940e-01,-3.34568e-02,7.90945e-02,-1.36048e-01,-1.70910e-01,8.18019e-02,2.06584e-01,2.54702e-02,4.68572e-01,1.28984e-01,-5.67945e-02,1.71249e-01,1.22591e-01,-2.12504e-02,-2.34622e-01,-3.47235e-01,8.10917e-02,3.66863e-01,1.50459e-01,2.30984e-01,-9.65893e-02,-1.22656e-01,
-1.70720e-01,-2.43278e-01,1.41028e-01,4.64328e-02,1.09478e-02,-4.06975e-01,-6.76664e-02,2.64053e-01,4.57391e-01,-1.07431e-01,1.09205e-01,3.95320e-02,-9.34044e-01,-4.76162e-01,-1.18950e-02,-3.91414e-01,2.75794e-01,-3.64583e-01,-7.80312e-03,5.79510e-02,-1.50807e-01,4.62612e-01,-1.24294e-01,1.96153e-01,1.12986e-01,1.19231e-02,5.47170e-02,1.75398e-01,-1.47196e-02,1.45739e-01,-2.04101e-02,-6.24874e-01,-6.19340e-02,-1.30750e-01,-4.40150e-01,-9.08198e-02,-1.11218e-01,2.85142e-02,2.55588e-01,-3.22791e-01,4.10697e-01,-2.37505e-01,-2.58468e-02,-1.93382e-01,-5.17192e-01,
2.72959e-01,-2.32679e-01,2.34122e-01,5.77605e-02,-6.16545e-02,-2.09099e-03,4.22891e-01,9.39382e-02,-3.06697e-01,1.33406e-01,2.77534e-01,2.54046e-01,-2.98256e-01,-1.22638e-01,-2.69264e-01,1.40707e-01,-9.59356e-02,-3.73520e-01,-1.07517e-01,-4.19063e-01,-1.98818e-01,3.92964e-01,4.60817e-02,-8.41367e-02,-1.89178e-01,4.06222e-02,4.68022e-01,-4.00054e-01,4.35613e-01,1.11496e-02,-1.79702e-01,1.49862e-01,2.65725e-01,-6.89798e-02,-4.60061e-02,-1.12175e-01,-2.20609e-02,-2.22454e-01,-2.80807e-01,-1.43574e-01,3.86887e-01,-3.20512e-02,-1.59033e-01,-3.82570e-01,1.36320e-01,
-1.09337e+00,-6.43849e-02,2.18761e-02,-3.10851e-01,-3.36892e-01,-1.68244e-01,6.46347e-02,9.72411e-02,-2.32006e-01,1.01328e-01,-1.17629e-01,1.19295e-01,3.92041e-01,1.81394e-01,-2.88027e-02,7.71608e-02,-2.23809e-01,1.36782e-01,4.12423e-02,1.72126e-01,1.29258e-01,-3.17701e-01,2.70039e-01,3.00881e-01,7.07347e-02,2.21927e-01,-2.18520e-01,-6.93971e-02,-3.64636e-01,-8.03641e-02,-9.03899e-03,-5.75151e-02,-1.20460e-01,1.15187e-02,-1.32000e-01,2.14913e-01,-2.20379e-01,1.24330e-01,1.80168e-01,-9.64346e-02,-1.87393e-01,4.26517e-02,-2.55959e-01,-1.61767e-01,-1.64867e-01,
-7.65088e-02,1.45185e-01,-5.05389e-02,-7.59378e-02,3.97626e-02,2.10236e-01,1.17256e-01,-6.50222e-01,-6.13791e-02,2.48809e-01,1.51604e-01,-2.57672e-01,-5.08348e-01,-3.81944e-01,-1.58943e-01,8.14406e-02,-2.16060e-01,-1.66803e+00,4.40772e-01,-2.98289e-01,-1.83658e-01,1.63017e-01,7.29850e-02,7.87793e-02,5.40809e-01,-9.38910e-02,1.01133e-01,-1.16362e-01,3.82851e-01,2.45170e-01,-1.64208e-01,1.45127e-01,-2.66838e-01,2.48150e-01,2.91855e-01,2.18177e-01,-8.74307e-03,1.37099e-01,1.22320e-01,9.69107e-02,2.96094e-01,3.66938e-01,5.87990e-02,-1.33554e-01,-1.74222e-02,
-1.81747e-01,-2.75770e-01,1.15887e-01,2.26530e-01,-7.78695e-01,1.67999e-01,-2.07495e-01,3.71905e-02,3.64951e-02,-1.75019e-01,2.40332e-01,1.26904e-02,3.43873e-01,-9.38837e-02,3.38054e-02,4.21522e-02,-3.88650e-03,7.08917e-01,3.17014e-02,3.70824e-01,3.30122e-01,-7.52895e-01,1.52986e-02,3.20533e-03,2.24860e-01,-2.50182e-01,-1.76146e-01,-1.45689e-01,-3.72358e-01,2.46676e-01,1.24924e-01,-4.53163e-02,1.02508e-01,3.46267e-01,-4.45615e-01,-8.13598e-02,1.97089e-01,-1.44534e-02,-1.28402e-01,2.05216e-01,-8.80729e-02,-2.05546e-01,-1.12601e-02,-1.86445e-02,-2.53984e-02,
-1.00543e-01,2.96836e-02,1.67736e-01,1.09737e-01,6.05976e-02,9.57533e-02,-1.66186e-01,2.42486e-02,-9.52978e-03,-1.54801e-01,-1.96397e-01,-1.75460e-01,3.12219e-01,-2.32799e-03,-5.15033e-01,-2.85335e-01,7.06921e-02,1.55572e-01,-4.36713e-02,3.96173e-01,9.07761e-02,-5.08815e-01,1.48481e-01,5.90989e-02,1.52712e-01,-1.46727e-01,2.36548e-01,1.00422e-01,-1.49077e-01,2.87285e-02,-1.26043e-01,-8.98720e-02,-3.67222e-01,-2.19211e-01,4.42195e-02,2.63661e-02,-1.79505e-01,4.08572e-02,2.70173e-01,2.07163e-01,-8.09691e-02,6.23660e-02,-7.13017e-02,-8.29888e-02,-1.67260e-01,
1.07442e-01,2.18795e-01,1.43517e-01,3.60140e-01,-1.03895e-01,-9.28984e-03,-7.77077e-01,4.43231e-01,-3.86572e-01,-1.72323e-01,-1.21690e-01,-1.78390e-01,3.20544e-01,-7.93158e-02,-1.37769e-01,-2.76969e-02,6.81562e-02,-6.57172e-01,-1.73750e-01,-1.87396e-03,1.42460e-01,-1.15224e-01,-1.72679e-02,2.00717e-01,-2.87625e-01,3.44975e-02,1.53065e-01,8.24761e-02,-2.33937e-01,-3.49971e-01,1.08259e-01,-2.25774e-01,5.29001e-02,-4.44351e-01,-1.44572e-01,1.01728e-01,-3.86136e-02,8.72975e-03,2.02066e-01,1.11857e-01,-3.35171e-01,7.07638e-02,-1.27928e-01,7.63948e-02,1.70780e-01,
-1.89233e-01,9.47224e-02,1.05828e-01,-1.80535e-01,1.09715e-01,2.94454e-01,2.47185e-01,2.54481e-02,2.98252e-01,-4.55130e-02,1.55514e-01,-7.09656e-02,-3.49961e-01,2.59186e-01,2.12107e-02,1.27519e-01,2.63334e-01,4.42478e-01,-1.15257e-01,-2.16767e-01,8.67807e-02,2.68500e-01,2.20808e-02,1.25120e-01,-1.65168e-01,4.09792e-01,8.92209e-02,4.52586e-02,5.98766e-02,1.92178e-01,-9.90545e-02,-2.44593e-01,2.46709e-01,1.53318e-01,3.33430e-02,1.67629e-01,-5.48834e-02,-4.65158e-02,-1.36917e-01,-2.74471e-02,1.08126e-01,-4.12809e-01,4.15429e-02,-4.85979e-02,2.19000e-01,
-6.99738e-02,1.71049e-01,2.51241e-01,-2.73251e-03,-1.04120e-01,5.53518e-01,-5.01110e-02,-7.87902e-01,-6.21300e-02,2.76671e-01,4.40497e-01,-2.81583e-01,-1.50678e-01,-3.81700e-01,3.32871e-01,2.71982e-01,-9.73226e-02,1.09179e-01,-4.04040e-01,-1.23120e+00,-6.43159e-01,2.28319e-01,7.82262e-02,2.07492e-01,1.00493e-01,4.57530e-02,5.29919e-02,1.92240e-02,-2.47098e-01,1.07878e+00,-1.02485e-01,-3.66505e-01,-2.67526e-01,5.78892e-01,1.01318e-01,2.34768e-01,-8.51304e-02,1.29882e-01,4.55725e-02,-2.62468e-01,-2.21631e-01,3.74941e-01,7.51416e-02,1.08807e-01,3.28561e-01,
-3.34334e-02,2.73076e-01,-1.47132e-01,2.64100e-01,3.88188e-02,-1.13604e-01,-2.06658e-01,5.95284e-01,-1.60547e-01,1.05771e-01,2.36425e-01,1.69358e-01,4.58430e-01,1.92673e-01,5.39609e-01,-3.30272e-02,-8.80685e-02,1.09047e+00,-1.76338e-01,-1.47420e-01,3.15389e-01,-3.74896e-01,1.22094e-01,2.87472e-01,-5.95571e-01,5.95880e-02,-6.46333e-03,1.80190e-01,-7.38640e-02,-4.87657e-01,-1.19476e-01,-2.09667e-01,3.43186e-01,-1.64500e-01,-1.27893e-01,-2.30741e-01,-1.27293e-02,-3.09878e-02,2.20927e-01,-4.92249e-01,-5.60326e-01,6.41223e-02,1.40199e-01,-1.40748e-01,2.26888e-01,
-1.23486e+00,-5.58010e-01,1.28332e-01,-9.65009e-01,1.46083e-01,2.89976e-03,1.01454e-01,8.48759e-03,2.50569e-01,-2.87487e-02,-3.85022e-03,-9.72759e-02,-1.13985e-01,1.15945e-01,2.98174e-01,-2.54760e-01,1.94591e-01,4.63703e-01,-1.22791e-01,2.09851e-01,6.99134e-03,-2.13405e-01,-1.95989e-01,5.92575e-02,-3.99041e-02,2.08007e-01,6.35634e-02,4.36907e-01,-7.10290e-02,2.88182e-02,6.86045e-02,-1.32741e-01,3.43049e-03,-1.46154e-01,-3.45600e-01,2.42421e-02,-2.78582e-01,3.37392e-01,2.51115e-01,-1.58026e-01,-2.47641e-01,2.27024e-01,-2.14918e-01,-6.09505e-02,5.02421e-02,
-9.56705e-02,-1.47855e-01,1.50368e-02,-1.70026e-01,3.34702e-01,3.49891e-02,1.24552e-01,-1.55062e-01,-1.85187e-02,1.63517e-01,-9.30173e-02,-1.30226e-01,-5.73125e-01,-5.52569e-01,5.74839e-02,-9.53080e-02,-9.75242e-02,-9.17570e-01,-5.12960e-02,-1.25341e-01,1.30461e-01,5.84825e-01,1.96970e-01,7.78452e-02,6.21535e-02,1.53616e-01,2.94211e-01,1.02302e-01,3.90608e-01,-1.14284e-01,9.36693e-02,4.92677e-02,-8.05358e-02,4.01351e-02,4.25392e-01,6.72326e-02,-2.20180e-01,1.21579e-01,-3.03718e-02,2.66940e-01,2.65832e-01,1.10573e-01,-2.09279e-01,1.31846e-01,1.39005e-01,
2.69733e-02,1.46050e-01,3.56997e-01,6.08316e-02,6.72010e-02,2.78437e-01,-1.29918e-01,2.46320e-01,2.80968e-01,1.08388e+00,1.93791e-01,8.48159e-02,2.41155e-01,2.46024e-01,2.00081e-01,1.34127e-01,-7.04265e-02,-3.44206e-02,-5.96608e-02,-3.33786e-01,-3.24401e-01,5.97990e-02,2.71850e-01,-1.85458e-01,-1.02836e-01,2.61983e-01,6.68728e-02,-7.13270e-02,1.91679e-01,1.16046e-01,2.04706e-01,-3.60342e-01,1.89055e-01,4.98305e-01,-1.99621e-01,2.78242e-01,-3.29693e-01,4.77804e-01,-3.82862e-01,-2.48298e-01,-6.06274e-01,-5.32979e-02,2.94441e-01,-3.55417e-01,4.28575e-02,
1.48432e-01,2.88865e-01,-8.86414e-02,1.25306e-01,2.88040e-01,1.22143e-01,8.05769e-02,1.43688e-01,-7.75442e-02,-9.81170e-02,-1.67738e-01,9.83900e-02,-4.91852e-01,-4.97310e-01,-1.69291e-01,1.30235e-01,-3.43596e-01,5.55991e-01,-1.31205e-01,-5.65386e-01,4.58136e-02,2.87837e-01,-4.20156e-01,1.62180e-01,2.47455e-01,3.83486e-02,1.05055e-01,3.48351e-01,2.03357e-01,2.69876e-01,1.48593e-01,-1.75774e-01,4.26513e-02,4.66839e-01,3.62594e-02,2.50793e-01,-1.32618e-01,1.07997e-01,3.26533e-01,-1.86354e-01,1.99183e-01,3.83653e-01,-2.48297e-01,2.90926e-01,1.60139e-01,
2.13359e-01,1.57945e-01,-9.98800e-02,3.94045e-01,-1.89993e-01,3.40460e-02,1.03152e-01,-3.16332e-01,1.80391e-01,3.57583e-02,-5.32488e-02,-1.25803e-01,1.74393e-01,-8.59295e-02,-2.28160e-01,3.92381e-02,2.08055e-02,-1.84534e-02,2.09859e-01,3.36588e-01,-1.09366e-01,-1.96310e-01,-3.26549e-01,3.72221e-01,2.37124e-01,1.63823e-01,-3.98643e-02,-1.80489e-01,2.00865e-01,1.13083e-01,-4.49210e-01,1.08652e-01,1.53698e-01,-2.13477e-01,5.85405e-02,1.08338e-01,-7.48691e-01,-3.41721e-02,2.12141e-01,-1.60144e-01,8.36888e-02,-2.14155e-02,3.13331e-01,-5.06604e-01,1.11070e-01,
-1.67242e+00,1.57136e-01,1.32620e-01,-4.05540e-01,4.63880e-02,1.62637e-01,-1.91395e-01,-1.17004e-01,-1.02552e-01,-2.14221e-01,2.13035e-01,1.80872e-01,9.12988e-02,-2.02562e-01,6.88417e-02,-3.77331e-02,-2.78448e-01,-2.66434e-01,5.21813e-02,1.50357e-01,3.78142e-01,-4.76895e-02,6.26557e-02,9.16753e-02,-3.19866e-01,-3.20835e-01,-1.31913e-01,-5.19300e-02,-1.32386e-01,1.28336e-02,2.37479e-01,-7.83532e-02,8.79993e-02,-1.63916e-01,-2.07636e-01,2.18550e-01,-3.06695e-02,8.58720e-03,1.86478e-02,1.39702e-01,1.01982e-01,1.07880e-01,-5.15736e-01,1.95155e-01,-2.55714e-01,
1.17314e-01,-2.37080e-01,-8.18929e-02,2.03651e-01,-1.82920e-01,-9.99134e-02,-2.44077e-01,-6.56978e-02,-2.16098e-02,1.83332e-01,-1.15465e-01,-1.51944e-01,1.19997e-01,1.91716e-01,1.08323e-01,4.81944e-02,4.14422e-01,4.91204e-01,2.28858e-01,2.61230e-02,1.86123e-01,-4.31375e-01,1.84363e-01,1.42399e-01,5.97493e-02,8.67281e-02,8.30608e-02,4.75769e-01,-1.78273e-01,8.86412e-02,2.06135e-01,-3.26519e-02,9.27552e-02,-5.57774e-02,-6.26617e-01,-1.23893e-02,-6.64908e-01,2.21983e-01,-4.82014e-01,-3.51689e-01,-8.91935e-02,-3.06982e-01,1.79763e-01,-1.74393e-01,-2.85424e-01,
4.99585e-01,1.47071e-01,1.88615e-02,2.41673e-01,-3.02003e-01,4.13865e-02,1.20437e-01,-2.15088e-01,1.73068e-01,8.34656e-02,1.89955e-02,2.64819e-01,1.65247e-01,-1.29232e-01,-1.83601e-01,4.80248e-03,-4.53516e-02,1.72072e-01,4.00477e-01,-1.26921e-01,6.38216e-02,-2.90347e-01,3.94807e-01,2.25104e-01,2.40781e-01,-2.16130e-01,3.59016e-02,2.02388e-01,-8.10526e-02,-5.73430e-02,4.53470e-01,3.37115e-01,-5.37352e-02,2.81527e-01,3.96786e-01,-7.13872e-02,4.58106e-01,-4.98851e-02,9.09443e-02,7.88936e-02,-3.14511e-01,1.98309e-01,1.37754e-01,7.60710e-02,3.05752e-01,
5.30517e-01,-2.58719e-01,1.24441e-01,2.89688e-01,3.98222e-01,1.55777e-01,-2.06556e-01,-7.49203e-02,-2.42940e-02,-1.70777e-01,1.63597e-01,-3.55497e-03,4.32714e-02,8.45298e-02,-1.78202e-01,-2.91631e-01,2.17231e-01,-2.22391e-01,1.49736e-01,-1.58356e-01,1.79950e-01,-1.66986e-01,3.71892e-01,1.24965e-01,-1.70491e-01,-1.43009e-01,3.28197e-01,-1.41452e-01,1.20747e-01,-7.97079e-02,1.98207e-02,1.29212e-01,-4.79564e-02,-2.82398e-01,6.70249e-02,-6.37218e-02,5.26301e-02,-9.47476e-02,1.55903e-01,2.92475e-01,1.86521e-02,-2.82767e-01,3.44466e-01,1.37204e-01,2.71749e-01,
1.07157e-01,4.99466e-03,-1.82265e-02,1.10519e-01,-2.18528e-02,-3.71378e-01,2.34366e-01,-3.90054e-02,2.70873e-02,-2.60369e-01,8.77222e-02,-6.70700e-02,-4.42742e-01,-2.18400e-01,-4.51583e-01,7.30414e-02,-1.96951e-01,-1.58600e+00,-2.24609e-01,-5.12191e-02,-4.39536e-02,5.67186e-01,2.48426e-01,-3.56400e-02,-4.82674e-02,-2.07414e-02,3.43197e-02,2.28333e-01,1.90489e-01,3.10006e-01,-1.45937e-01,1.51273e-02,2.01406e-02,-2.10031e-01,-7.05641e-02,1.26556e-01,-2.17511e-01,4.55026e-02,2.16296e-01,6.35885e-02,4.40593e-01,2.90274e-01,1.16239e-03,-2.61165e-01,-1.23101e-01,
5.05477e-01,7.49111e-03,-1.32625e-01,7.66209e-02,-4.78437e-02,2.24344e-01,-5.48266e-02,4.16521e-02,-9.24432e-02,2.52394e-02,2.83816e-01,3.69380e-02,-3.24503e-02,8.15997e-02,2.10795e-01,-2.37908e-01,-8.94158e-02,1.76788e-01,2.13128e-01,9.56127e-02,1.88827e-01,1.86910e-01,1.48706e-02,2.69517e-01,1.26777e-01,8.66981e-02,1.48620e-01,-2.33545e-01,8.51477e-02,-2.67148e-01,-2.77876e-01,-1.54461e-01,-1.82973e-01,-1.45505e-01,2.20966e-01,-2.88146e-01,3.82803e-02,3.00002e-02,-1.05398e-02,-5.66600e-02,4.90322e-02,2.84633e-02,3.94595e-01,-6.28197e-02,-4.63220e-03,
-8.15111e-01,-8.98659e-02,-1.81969e-01,-5.08738e-03,1.17006e-02,6.17515e-01,6.78844e-02,1.43510e-01,-7.43721e-02,8.12031e-02,-1.86280e-01,-3.14565e-02,8.91570e-02,-1.97098e-01,6.82081e-01,-4.57771e-01,2.44939e-02,1.01434e+00,1.63614e-01,1.20723e-01,3.23030e-02,3.54333e-01,7.98996e-02,-8.86468e-03,1.64869e-01,4.54043e-03,-2.27879e-01,-6.33648e-01,-3.30738e-01,-2.17327e-01,-2.18721e-01,-7.28964e-02,-6.05782e-02,-2.40231e-01,3.07133e-01,-2.63189e-01,3.09375e-03,-6.33806e-01,-1.21751e-02,1.38287e-01,3.17213e-01,-1.51818e-01,-7.02739e-02,-4.98102e-03,-3.01495e-01,
1.93510e-01,2.69983e-01,1.18614e-01,-2.23364e-02,-6.69041e-01,1.03334e-01,-2.70071e-02,-1.60484e-01,2.86644e-01,2.36650e-02,1.27641e-02,-6.27367e-02,4.16512e-01,3.41611e-01,2.62641e-01,5.70200e-02,-2.02609e-01,3.94414e-01,-1.03288e-01,3.57872e-01,1.76029e-02,-2.31921e-01,-1.99845e-02,-3.41481e-02,2.65133e-01,1.72379e-02,-1.16306e-01,-1.33760e-01,1.45935e-01,1.29464e-02,6.11611e-02,6.42098e-02,-1.36014e-01,-5.65100e-03,-2.09684e-01,1.97972e-01,1.49220e-01,-5.74360e-02,-5.47294e-02,1.48923e-01,-4.04199e-01,-1.64487e-01,-7.58513e-03,-6.18090e-02,-1.01729e-03,
-2.88777e-02,-1.89224e-01,-1.10131e-01,-5.35336e-02,-2.55181e-01,4.45327e-02,-4.09643e-02,-3.15630e-01,-4.36129e-01,1.33104e-02,2.81786e-03,-7.56629e-02,2.24291e-02,-4.07171e-01,6.21527e-02,1.85670e-01,-2.46158e-01,-5.72493e-01,2.55382e-01,9.75857e-02,-7.02680e-02,1.72686e-02,3.52712e-01,2.01078e-01,2.84120e-01,1.97583e-01,-2.05180e-01,-1.90658e-01,1.35544e-01,3.55185e-01,1.29145e-01,2.00723e-02,-1.78368e-01,2.39511e-01,9.85026e-02,1.33579e-01,1.90332e-01,2.27595e-01,-1.45848e-01,2.27082e-01,1.00514e-01,1.80226e-01,1.93079e-01,1.67150e-01,2.06859e-01,
2.56252e-01,-1.92959e-01,-3.95706e-03,1.81296e-01,1.56409e-01,1.57638e-01,2.91883e-01,-2.94653e-01,1.98588e-01,-1.58790e-01,9.20738e-02,-1.00507e-01,-5.57402e-03,-4.14120e-01,-2.46589e-02,-4.64122e-03,-2.22103e-01,-4.11278e-01,2.23327e-01,-4.34544e-01,-1.27726e-01,-3.68589e-02,-1.77396e-01,1.57764e-01,-1.79246e-01,-1.55595e-01,-1.13613e-01,-4.74355e-02,2.18842e-01,1.08797e-01,-1.01087e-01,1.56095e-01,-1.87665e-02,4.03131e-01,-6.80409e-02,1.73849e-01,-1.91227e-01,-2.76004e-02,1.52324e-01,2.57175e-01,8.77206e-02,1.38533e-01,-5.74595e-02,2.18651e-01,-8.69423e-02,
-1.47400e+00,1.06797e-01,2.61365e-01,-1.47781e+00,2.41374e-01,1.43342e-01,1.01266e-01,1.49024e-01,-6.82367e-02,-1.64707e-01,1.49410e-01,3.49324e-01,1.88293e-01,-1.78383e-01,-6.53426e-02,8.03524e-02,1.00626e-01,-2.25417e-01,-7.47646e-02,6.93694e-02,1.58974e-02,1.89283e-01,1.45292e-01,2.89746e-01,-6.59499e-02,2.52230e-01,-6.46963e-01,-9.11467e-02,-1.49159e-01,-1.80727e-01,1.98319e-01,-2.13763e-01,-1.45062e-01,-7.16788e-02,7.78916e-02,9.41489e-02,4.82627e-01,1.43764e-02,1.59624e-01,-5.54948e-02,1.67269e-01,-7.06366e-02,-2.61821e+00,5.21770e-01,4.03574e-01,
3.75196e-01,-8.48816e-02,1.12137e-01,-1.32064e-01,2.36798e-01,2.35128e-01,2.82085e-01,1.42755e-01,1.22988e-01,2.88084e-02,-7.35639e-02,2.73468e-01,2.88073e-02,8.12797e-03,4.12090e-01,4.13726e-01,-1.68193e-01,5.28176e-01,-2.69356e-01,-3.41142e-01,-1.17912e-01,2.89599e-01,-3.29249e-01,1.45997e-01,-2.77207e-01,-7.61583e-02,-1.75096e-01,-2.09303e-01,5.18568e-01,2.25793e-01,1.93739e-01,-2.26452e-01,-7.28742e-02,1.90089e-01,-1.80929e-01,-2.60094e-01,3.55007e-01,1.52810e-01,1.26368e-01,-9.48815e-02,2.41786e-01,-9.25170e-02,5.70200e-02,2.07828e-01,2.02263e-01,
-1.33214e+00,-2.63681e-01,-7.57638e-02,-3.06635e-01,-2.49033e-01,-3.47936e-01,-3.93864e-03,2.20228e-01,-1.59265e-02,-3.02341e-01,1.02466e-01,2.86946e-01,-5.49616e-02,6.87169e-02,-1.83507e-01,-1.31616e-01,1.28855e-01,2.89960e-01,-4.76941e-01,1.07518e-01,1.76914e-01,9.76615e-02,6.45307e-02,-2.90695e-01,-2.31086e-01,1.87335e-01,-3.89854e-01,-1.67104e-01,7.99595e-02,1.69120e-01,3.57203e-01,9.09270e-02,-1.66469e-01,-1.35576e-01,-2.45722e-01,1.40493e-01,6.21243e-02,-5.74026e-01,-6.91971e-02,-2.30939e-02,1.59088e-01,-1.59153e-01,-3.73272e-01,7.35289e-02,1.14089e-01,
-1.84284e-02,-6.96623e-02,1.22404e-01,-3.48216e-01,1.87879e-01,-1.25978e-01,9.18826e-02,4.03834e-01,-3.90346e-01,-2.46822e-01,1.16258e-01,3.48215e-01,4.16814e-01,-9.45269e-02,2.49133e-01,3.22028e-01,2.03755e-02,-2.19887e-01,-2.43829e-01,2.29947e-01,1.95418e-01,-3.38375e-01,2.51546e-02,-5.66200e-02,-1.22997e-01,1.14406e-01,1.73687e-03,-2.47552e-01,7.78217e-02,-5.28361e-01,1.51467e-01,-9.37301e-02,1.60471e-01,1.76889e-01,5.52409e-02,-1.02676e-01,1.79996e-01,-1.93650e-01,-7.07278e-02,-3.64442e-01,-5.11500e-01,-8.21740e-02,2.76891e-01,4.43317e-01,-4.91014e-02,
-1.56131e-01,-3.47924e-01,6.85004e-02,6.20495e-02,-2.60964e-01,2.56361e-01,-3.40918e-01,2.68309e-01,-1.05122e-02,1.01471e-01,4.01365e-01,-1.15041e-01,2.75525e-01,2.66991e-01,1.19782e-01,-2.48945e-02,1.29286e-01,7.97125e-01,1.38071e-01,2.73565e-01,-2.98291e-02,-2.86837e-01,-2.24780e-01,-1.55911e-01,-3.98742e-01,2.29112e-01,1.50629e-01,-2.37062e-01,-3.39050e-01,-2.17289e-01,1.09994e-01,-7.36607e-02,2.79293e-01,9.18664e-02,-4.11490e-02,2.42241e-02,2.20317e-01,3.12377e-01,-4.73452e-04,-2.03010e-01,-2.12148e-01,7.79479e-02,-7.58024e-02,1.83775e-01,-1.37380e-01,
2.50757e-01,-1.47428e-01,-4.06998e-02,2.72776e-01,-3.25535e-01,2.48147e-01,-3.14614e-01,6.23429e-02,1.46790e-02,-3.07219e-02,-4.66843e-02,-2.55798e-01,4.80468e-01,1.70776e-01,-2.65737e-02,2.23631e-01,-2.28134e-01,-2.43422e-01,-4.40418e-02,3.48166e-01,-3.77556e-02,-5.75699e-01,3.55408e-01,2.41767e-01,3.96967e-02,-6.48786e-01,-2.85758e-01,-6.86806e-02,-2.69442e-01,2.11046e-01,2.06865e-01,3.89978e-02,-2.45493e-01,-3.34304e-02,-1.64772e-01,-1.13585e-01,-6.34857e-02,-6.40196e-02,-1.05555e-01,1.25869e-01,-3.13537e-01,-1.65613e-01,1.78396e-02,3.98175e-03,-6.22085e-02,
2.94304e-01,1.35282e-01,4.52881e-02,1.63844e-02,-4.00223e-01,1.82387e-01,-2.97780e-02,2.07498e-02,-2.11669e-01,1.44204e-03,1.05295e-01,1.79542e-01,4.76358e-01,4.63971e-03,4.54669e-01,3.20616e-01,7.37045e-02,-1.68169e-01,1.27242e-01,8.84660e-02,-1.42512e-01,-3.17322e-01,1.07666e-01,-2.19727e-02,1.40747e-01,1.33649e-01,-9.55302e-02,-1.82991e-01,-1.90398e-01,-5.52455e-02,-1.61022e-01,-2.15949e-01,2.50240e-03,3.51494e-01,-1.17708e-01,-2.74930e-01,-1.22468e-01,-1.86844e-01,-9.45352e-02,7.76274e-02,-2.35727e-01,1.86704e-01,3.82057e-02,-1.57829e-01,-1.53050e-01,
3.04278e-02,
6.58811e-02,
-1.38064e-01,
9.62111e-02,
-3.81396e-02,
-6.54142e-02,
1.43052e-02,
4.14065e-02,
1.50661e-01,
-9.37242e-03,
6.37709e-02,
6.41093e-02,
1.54785e-02,
1.10122e-01,
1.77171e-02,
1.33145e-01,
1.47663e-02,
7.60925e-02,
1.51197e-01,
8.08295e-02,
-3.07196e-02,
-9.16235e-02,
4.11329e-02,
1.03740e-01,
3.87787e-02,
-8.34301e-02,
1.52676e-02,
2.79783e-02,
1.70138e-01,
-8.49425e-02,
-1.09945e-01,
-5.41279e-02,
1.30363e-01,
-4.05925e-02,
1.82380e-02,
1.03100e-01,
4.07525e-02,
6.42654e-02,
3.68875e-02,
-4.91714e-02,
1.09599e-01,
7.07042e-02,
4.58151e-02,
7.50601e-02,
7.69101e-02,
1.99616e-01,4.34084e-02,3.49852e-02,-1.39313e-01,-3.84967e-02,-3.42114e-01,2.69132e-01,-2.70768e-01,-4.17076e-01,1.80900e-01,2.14446e-01,-8.33089e-02,2.56543e-01,-1.10703e-01,-1.89964e-01,5.38312e-02,1.70956e-01,2.96544e-01,1.07416e-01,-1.52649e-01,-3.33193e-01,-1.69484e-02,-8.82165e-02,-5.36914e-01,1.45564e-01,6.95149e-02,2.41021e-01,-1.99317e-01,5.28353e-01,-3.11642e-01,-3.80086e-01,9.32499e-02,-1.32678e-01,-1.05799e-01,1.59351e-01,1.69351e-01,1.95177e-02,1.06754e-01,-4.08775e-01,-4.00567e-01,4.91924e-01,2.05175e-02,-1.78669e-01,7.87772e-02,1.68308e-01,
-6.24626e-02,1.82993e-02,-1.14148e-01,-2.01877e-01,5.16229e-02,-9.56330e-02,-7.79535e-02,1.22516e-01,-1.66283e-01,-1.81355e-01,-5.20449e-01,3.07934e-01,-3.21915e-01,3.50664e-01,1.66359e-01,-1.15140e-01,-3.07088e-01,7.54799e-02,-1.05863e-01,-5.90491e-03,-5.42470e-02,1.05050e+00,9.82563e-02,5.09924e-02,1.15744e-01,-5.11348e-02,-6.15779e-02,-6.79163e-02,-2.19496e-01,-9.34468e-02,2.38389e-01,1.57434e-01,-3.33689e-02,-1.27935e-01,-3.34312e-02,-1.80474e-01,1.94468e-02,-2.65860e-01,1.00634e-01,7.97591e-02,3.71259e-01,-1.35197e-01,3.11517e-02,4.02594e-03,1.19204e-01,
2.36693e-01,-1.67789e-01,-8.07568e-01,-5.08632e-01,1.62409e-01,1.79585e-01,1.39300e-01,-1.36311e-01,-2.78294e-01,2.11505e-01,-4.37262e-01,-1.58727e-01,-3.01638e-01,-2.72327e-01,-5.17495e-01,4.74032e-02,1.54365e-02,-2.19652e-02,8.80070e-02,1.11342e-01,1.22889e-02,1.35989e-01,-1.86886e-01,-3.64428e-01,8.75703e-02,3.22607e-01,2.16410e-01,-2.00651e-01,1.19403e-01,-5.74923e-02,4.03816e-01,-3.25199e-02,-3.32981e-01,9.95302e-02,-4.82317e-01,9.24691e-02,2.74200e-02,9.58345e-02,-6.18389e-02,3.58615e-01,1.87950e-01,3.53484e-01,-1.69215e-01,-1.61289e-01,1.43011e-01,
2.77489e-01,2.19540e-01,-1.75145e-01,-4.22701e-02,-8.73484e-03,-1.43683e-01,2.25219e-01,4.82192e-01,-2.91905e-01,-1.38839e-01,2.63867e-01,8.93209e-02,2.63075e-01,-1.48638e-01,-4.32683e-02,-6.59014e-02,-1.90637e-01,2.37165e-01,-3.74752e-02,2.33019e-01,-1.22339e-01,-2.20724e-02,-1.56738e-02,-2.83574e-01,2.62176e-01,2.30882e-01,1.43527e-02,-1.30389e-01,-2.94957e-02,2.60761e-01,-4.32092e-01,-1.97728e-01,2.18154e-01,-3.58073e-01,-3.71538e-02,-2.21528e-02,6.15859e-02,2.31222e-02,-4.95527e-01,-2.78331e-01,1.69458e-01,-1.90880e-01,6.34321e-03,-1.58556e-01,-1.80828e-01,
2.41511e-01,2.86223e-01,-3.91863e-01,2.00384e-02,1.64246e-01,7.98423e-02,-4.03767e-02,3.50482e-01,-9.78310e-02,8.39150e-02,1.83369e-01,-1.00821e-02,-2.71500e-01,8.71384e-02,2.92755e-01,1.33531e-01,3.57486e-02,-1.05964e-01,2.07457e-01,1.85249e-01,-1.21963e-01,-3.18677e-01,4.43139e-02,1.06894e-01,8.69476e-02,-2.71943e-01,-3.81041e-02,1.53641e-01,2.13326e-01,9.59734e-02,2.12472e-01,2.62054e-01,1.24405e-02,2.72273e-02,-4.69460e-02,-2.58525e-02,8.44358e-02,-2.44190e-01,-3.25420e-01,-2.69135e-01,-1.43284e-01,-9.17591e-02,-2.23900e-01,-2.51376e-03,-5.12035e-02,
2.96484e-01,-9.90097e-02,1.50351e-01,-1.67675e-01,1.80853e-01,-1.70342e-01,2.00888e-01,3.82554e-02,-2.54417e-01,1.45685e-01,9.72669e-02,-2.21480e-01,3.20193e-02,-1.06930e-01,-2.04151e-01,-6.19343e-02,3.40274e-01,1.54214e-01,-1.34929e-01,3.11722e-04,5.14720e-02,-1.13320e-01,3.13599e-02,-1.34034e-02,8.35215e-02,7.61192e-02,8.88745e-02,5.51518e-02,3.29562e-01,-1.13637e-01,5.63856e-02,-3.64716e-01,4.03450e-01,2.34756e-02,-7.57009e-02,-2.11536e-02,7.95913e-02,1.91123e-01,-3.41725e-01,-1.43282e-01,-2.25353e-01,-1.75831e-01,-2.14858e-02,-7.78823e-02,2.06886e-01,
-1.98601e-01,-6.44067e-03,-1.98424e+00,-3.44293e-01,2.81578e-01,-3.38575e-02,-2.61980e-02,-1.28010e-01,6.34546e-03,-1.21312e-01,4.53029e-02,-1.36992e-01,1.80304e-02,8.53921e-01,-1.58416e-01,4.87280e-03,2.95312e-01,-3.93960e-02,-7.37271e-01,-4.53108e-01,2.75467e-01,5.01181e-01,-2.36739e-01,-2.19592e-01,1.24528e-01,3.53377e-01,2.49989e-01,-1.39530e-02,-2.04030e-01,-2.26301e-01,2.80749e-02,-6.63764e-02,-1.84635e-01,1.36936e-01,-9.48695e-02,-1.29665e-01,2.65709e-02,-2.64784e-02,-8.59142e-02,3.36737e-01,-3.36881e-02,-1.87780e-02,-9.17778e-02,1.45282e-01,1.56204e-01,
9.91557e-02,4.01462e-01,-4.41433e-01,-2.21936e-01,2.52347e-01,-4.79247e-01,-1.31983e-02,2.11382e-01,2.06683e-01,-2.27379e-01,1.40207e-01,2.63655e-01,6.93888e-02,-3.10737e-01,-7.73155e-02,4.40215e-02,-1.71735e-04,2.13867e-02,5.54328e-02,3.18709e-01,-1.10886e-01,4.12882e-01,2.99911e-02,-4.42477e-02,-2.61522e-01,2.37136e-01,-1.27195e-01,3.29509e-01,2.04628e-01,6.57477e-02,-4.59486e-01,-2.16852e-01,1.71196e-01,1.19581e-01,-8.30565e-02,-3.39675e-01,2.17571e-01,-1.58152e-01,-1.39996e-01,-1.04809e-01,1.36251e-01,7.07284e-02,-2.12283e-01,-2.55690e-01,5.27939e-02,
-1.31130e-01,-2.11002e-01,3.90732e-01,-1.04169e-01,-1.04775e-01,-2.75603e-01,1.23818e-01,-1.01274e-01,-1.61113e-01,7.57177e-02,-2.17603e-01,-7.07349e-02,4.34158e-02,-1.69795e-01,-2.44660e-01,-3.18012e-02,-3.31948e-01,3.62597e-01,-1.90108e-01,3.22650e-01,-1.88756e-01,-6.66119e-01,-2.31021e-02,6.18165e-02,-1.96958e-01,-2.38582e-01,2.52582e-01,2.31108e-01,2.84156e-02,-5.87920e-01,4.88319e-01,-1.19391e-01,-7.31423e-02,-1.94110e-01,-6.10254e-02,2.19918e-01,-2.14864e-01,-3.34335e-01,5.45590e-01,2.12295e-01,1.35344e-01,3.64345e-01,2.29859e-01,-3.49535e-02,-1.12823e-01,
9.30206e-02,-1.10825e-01,7.24969e-01,1.13374e-02,-1.34783e-01,-2.18030e-02,-6.57876e-02,-1.20183e-01,1.92104e-02,1.01619e-01,-1.15356e-03,-1.72564e+00,2.81457e-01,-3.30960e-01,-1.20221e-01,1.76659e-01,2.33084e-01,1.65131e-01,-2.43591e-01,-5.01173e-02,8.21760e-02,2.42915e-01,-1.04500e-02,-2.61175e-01,-2.31958e-01,4.01800e-02,1.73926e-01,6.45020e-02,-9.44775e-03,3.71028e-01,2.88790e-01,1.82578e-02,2.08916e-01,1.45650e-01,2.01177e-01,1.86916e-01,1.66922e-01,-1.15107e-01,-1.26896e-01,-2.06599e-03,3.24083e-01,-5.58153e-01,-1.46024e-01,1.96044e-01,-5.63276e-02,
3.08735e-01,-2.19473e-02,-2.62053e-01,-1.46878e-01,-2.62940e-01,-1.64197e-01,-1.90891e-01,4.51097e-03,1.39004e-01,-1.20540e-01,4.20798e-01,1.09455e-01,-1.34787e-02,-2.81382e-02,3.87649e-02,-3.63653e-02,2.51790e-01,-1.41286e-01,7.40450e-02,-3.83812e-02,-5.09723e-02,6.61138e-01,-4.67413e-01,-8.38928e-02,-2.67453e-03,2.08066e-01,-2.40000e-01,2.70883e-02,-1.18879e-01,-2.34603e-01,-2.06980e-01,2.60909e-01,2.40924e-01,-6.78555e-02,-1.13961e-01,1.18445e-02,3.27372e-01,2.47748e-01,1.83280e-01,-2.93500e-01,1.69707e-01,-1.00081e-01,-4.86560e-01,-1.33621e-01,-9.42491e-02,
2.99200e-01,2.23875e-01,-7.37139e-01,-3.83407e-01,3.19987e-01,1.99460e-01,-4.43239e-02,5.37393e-03,-7.07184e-02,3.58770e-02,-3.56895e-01,-2.07458e-01,-5.85120e-02,-1.20780e-01,2.88658e-01,3.73704e-01,-2.12276e-01,-2.26704e-01,-5.12325e-02,2.81146e-01,3.11453e-01,9.23765e-02,1.02274e-01,-1.14116e-01,-2.09395e-01,3.54245e-01,7.04034e-02,-2.95364e-01,1.93804e-01,-2.69502e-01,1.67746e-01,-2.19601e-03,1.41592e-02,1.62023e-01,-5.35115e-01,1.26037e-01,2.22677e-01,-1.55409e-01,-2.42642e-01,3.63991e-01,-9.25369e-02,1.80627e-01,2.43801e-01,9.23481e-02,2.38293e-01,
1.48891e-02,3.39044e-01,-8.44099e-01,1.63073e-01,-5.52118e-01,7.62533e-02,6.29072e-02,-5.60992e-01,1.76326e-01,-1.97419e-01,1.84259e-01,-2.36637e-01,9.91754e-02,-1.49494e-01,-6.32558e-01,2.03899e-01,-3.43663e-02,1.60085e-01,-1.35833e-01,-4.92516e-03,1.15557e-01,-3.03478e-01,-5.56088e-01,-1.66514e-02,-6.09941e-02,9.50287e-02,2.83847e-01,-1.16437e+00,1.88234e-01,2.66493e-01,8.81095e-02,-4.49989e-02,2.25765e-01,-1.28829e-01,-1.01308e-01,-2.69347e-02,-1.07833e-01,-4.25984e-03,1.62790e-01,2.78986e-02,3.26230e-02,-3.80364e-02,-6.71231e-01,8.81761e-02,1.02310e-01,
-1.14330e-02,1.86306e-01,-6.71593e-02,-2.07719e-01,3.11604e-01,-7.71339e-02,9.09120e-03,2.13304e-01,5.91739e-02,2.24219e-01,-6.51906e-02,-2.35081e-01,1.96068e-02,2.86212e-01,3.39212e-02,-4.90348e-02,1.00999e-02,-1.33994e-01,2.20673e-02,1.85735e-01,-2.03910e-02,-6.13869e-02,-7.70972e-03,-3.55469e-01,1.85401e-02,-3.25723e-01,-8.49472e-02,8.70009e-02,2.83185e-01,-3.23430e-01,3.36272e-01,4.63861e-02,7.81201e-02,-2.08893e-01,-1.10381e-02,-3.85383e-01,7.80067e-02,-1.74435e-01,4.03291e-01,9.56443e-02,1.72996e-01,1.34753e-01,1.70939e-01,1.74356e-01,-1.04220e-01,
1.73774e-01,-7.09461e-02,-1.03656e+00,-1.57695e-01,1.29696e-01,2.79365e-01,-1.48173e-01,-1.59961e-01,-2.09174e-01,5.10284e-02,-9.64523e-02,-2.44191e-02,-7.97937e-02,3.93661e-01,1.43350e-02,-7.99673e-02,-1.51415e-01,1.93234e-01,-4.01097e-01,1.52915e-01,2.21057e-01,5.16431e-01,2.23360e-01,2.32260e-01,-5.03979e-01,4.71384e-01,-3.93273e-01,-1.10787e-01,-1.15354e-02,6.83091e-03,2.46703e-01,-1.13686e-01,-3.47484e-01,-3.92740e-02,-4.12881e-01,1.88515e-01,2.02871e-01,3.68794e-01,1.32390e-02,2.02181e-02,1.17798e-01,6.60057e-02,2.22745e-01,4.49729e-02,3.20599e-01,
-3.10220e-01,-1.06079e-02,-6.84194e-01,-9.83073e-03,1.23429e-01,-5.26270e-01,3.88680e-02,-4.62142e-03,-1.37471e-01,-2.54078e-01,5.31989e-02,-3.87961e-02,-5.10716e-02,-2.81280e-01,-8.36737e-02,3.01561e-01,-3.83453e-01,5.91398e-01,1.85279e-01,4.94272e-02,-2.07324e-01,-6.50331e-02,1.10592e-01,-5.94026e-02,-7.31189e-01,2.67868e-01,-8.34355e-01,-2.53688e-01,2.72031e-01,-3.47620e-01,4.84896e-02,-7.65632e-02,-3.63885e-01,-8.96118e-02,-2.11045e-01,3.80892e-01,4.29492e-02,-8.16672e-02,-3.94117e-02,-1.86670e-01,7.31686e-02,8.76179e-02,3.82475e-01,3.13262e-01,1.99361e-01,
2.02696e-01,-1.35859e-01,9.39761e-02,-5.00949e-01,-1.03581e-01,8.64342e-01,-8.72655e-01,-1.76042e-01,5.69452e-02,-2.28265e-01,-4.75238e-01,-9.12526e-03,8.18914e-02,3.31647e-01,2.48084e-01,-1.57854e-01,-1.17921e-01,-1.29260e-01,-2.15150e+00,-1.14773e-02,3.06659e-01,1.28051e-01,1.43450e-01,-9.42834e-02,2.98499e-01,1.97886e-01,-2.11661e-01,8.27673e-02,-2.35943e-01,-1.28389e+00,-2.37350e-01,-2.03207e-01,-5.03287e-02,-1.27734e-01,-3.12336e-01,-1.22184e-01,-5.63994e-01,-1.18754e-01,2.11174e-01,3.04265e-01,-1.45168e-01,1.46582e-01,2.44272e-01,-1.03965e-01,-1.48730e-01,
3.56468e-02,7.48259e-03,-2.69802e-02,3.07717e-01,3.41257e-01,4.52555e-02,2.15201e-01,-1.12622e-01,-1.39830e-01,-6.01487e-02,1.41020e-01,-3.33116e-01,1.69367e-01,-9.21545e-02,6.17433e-02,-2.11480e-01,5.12906e-01,-1.10544e-02,-1.14510e-01,-4.01755e-01,-2.64141e-01,6.35086e-01,-4.96495e-01,2.63017e-01,-2.30172e-02,2.17140e-01,2.44202e-01,2.61170e-01,-2.23831e-01,1.76626e-01,1.49330e-01,-8.85475e-02,8.08598e-02,6.95568e-02,1.47700e-01,-1.62697e-01,3.18399e-01,1.31976e-01,1.51827e-01,1.21084e-01,-2.67153e-01,-1.46954e-01,-2.09159e-01,-4.07365e-01,-1.06354e-01,
1.54905e-01,-1.99696e-02,2.84788e-01,-7.08245e-02,1.07449e-01,-1.36065e-01,2.52624e-01,8.74946e-02,-2.11604e-01,-5.11596e-02,-2.66153e-02,2.26692e-01,6.43089e-02,-9.38146e-02,-1.63134e-01,-5.17422e-01,-2.90891e-01,2.40495e-01,-2.10325e-01,2.98789e-01,-1.48600e-02,-3.58005e-01,1.66779e-01,-1.64588e-01,5.47314e-02,-3.94225e-02,1.26786e-01,2.58161e-01,-2.52746e-01,2.73920e-03,1.23145e-01,-1.97293e-01,-9.95530e-02,7.15108e-02,1.12612e-01,1.50728e-01,-1.44216e-01,2.03824e-01,2.44899e-01,-1.55385e-01,-2.38689e-01,5.62476e-02,1.66961e-01,2.43107e-01,4.46983e-01,
1.67482e-01,5.06992e-02,4.08383e-01,-1.15567e-01,-8.18231e-02,7.76995e-02,2.43274e-01,-6.80635e-04,2.09643e-01,-1.48541e-01,1.73410e-01,1.96935e-01,-5.68666e-02,-1.93068e-01,2.90975e-01,-9.46051e-02,-1.59478e-01,-1.70878e-01,9.36769e-04,-4.19950e-02,-1.90549e-01,3.11404e-01,1.95332e-01,5.12420e-01,1.10041e-01,-1.36111e-01,-2.14931e-01,4.14955e-01,-4.42272e-01,2.91768e-01,4.31721e-01,3.76542e-01,-7.24866e-02,2.13701e-01,-1.83278e-02,-7.27170e-02,6.38371e-02,-9.36478e-02,1.62871e-01,2.12211e-01,-1.54822e-01,2.12446e-01,1.25460e-01,-1.34901e-01,-1.00527e-01,
2.81083e-01,-2.26406e-01,4.58270e-01,4.10758e-02,-2.04768e-01,-2.48945e-01,-4.50408e-01,-1.55560e-01,-4.78502e-02,-2.22346e-01,3.14281e-01,-3.82094e-01,3.29804e-01,8.65270e-02,1.69012e-01,-1.47734e-01,1.81967e-01,1.69314e-01,-1.31152e-01,1.11529e-01,-3.26359e-02,6.16587e-01,-4.61559e-02,-4.10389e-01,5.07579e-02,-1.88753e-02,2.54818e-01,-2.06546e-03,-1.88152e-01,-2.43935e-01,-4.79511e-02,3.04979e-01,2.96158e-01,2.39315e-01,-2.29804e-01,-5.99631e-02,1.73343e-01,2.17058e-01,1.16770e-01,1.13293e-01,4.73225e-01,-2.78699e-01,-6.81661e-01,-3.83823e-01,-6.99348e-01,
1.01737e-02,2.02908e-02,1.73379e-01,2.39606e-02,-3.72944e-01,1.04538e-01,-3.13744e-02,3.11667e-01,-3.79602e+00,9.80377e-02,1.82033e-01,2.00295e-01,-2.34584e-02,-1.65224e-01,1.08291e-01,-4.82996e-01,1.17661e-01,7.40008e-02,-4.80428e-02,-8.97720e-02,1.85214e-01,-6.00165e-02,2.60059e-01,-8.12680e-01,-2.73816e-02,3.99446e-01,-1.98796e-01,1.34658e-01,-7.09220e-01,2.20677e-01,2.17431e-02,4.88271e-02,2.12216e-01,8.99702e-02,3.48701e-02,1.64611e-01,2.24410e-01,-5.98936e-02,-2.75606e+00,3.00015e-02,-1.11082e-01,-3.71855e-02,1.39470e-01,1.27559e-01,2.98709e-01,
1.53056e-01,-8.31906e-02,-1.79145e-01,-2.07416e-01,8.66239e-02,-1.96510e-01,-9.55443e-02,-1.36435e-01,-1.74150e-01,3.08988e-02,-5.34604e-02,-2.42243e-01,-5.14850e-02,-2.55546e-01,1.12437e-02,-8.70937e-02,-1.99622e-01,3.21328e-02,-1.92620e-01,8.54771e-02,-1.58473e-01,7.07898e-02,-9.42210e-02,-1.65211e-01,5.39526e-02,-1.70480e-01,-7.25656e-02,-1.85716e-01,-2.21628e-01,1.69786e-01,1.26294e-01,1.46258e-01,-1.24875e-01,9.30764e-02,-1.66605e-01,2.36978e-01,1.72042e-01,1.26466e-01,-1.32687e-01,-2.61461e-01,1.64491e-01,-1.90454e-01,-2.25294e-01,-1.18173e-01,-1.28407e-01,
-1.07630e-01,1.91070e-01,-1.33488e-01,-6.81859e-02,-4.34035e-01,-2.66073e-02,8.06994e-02,-1.52547e-01,1.44430e-02,-2.02336e-01,-3.37946e-01,-8.66683e-03,2.67023e-02,3.90242e-01,-2.71028e-02,6.55522e-02,1.49587e-01,-1.62571e-01,1.70352e-01,1.20622e-01,-1.87080e-01,4.11445e-01,1.56434e-01,1.55779e-01,-2.22516e-01,3.09508e-01,-1.27751e-01,2.47980e-01,1.32018e-01,1.20555e-01,1.95769e-02,2.33122e-01,-1.30181e-01,1.29038e-01,-1.45635e-01,-1.48678e-01,1.31178e-01,1.71904e-01,-1.09003e-01,2.20377e-01,2.13889e-01,2.36594e-01,-1.97528e-01,1.75382e-01,1.04332e-01,
1.88025e-01,-8.11038e-02,-4.65286e-02,6.00867e-02,2.52436e-01,5.55865e-02,1.01332e-01,-8.82259e-02,2.93703e-01,1.63312e-01,-4.83150e-01,2.49781e-01,-1.44032e-01,1.04852e-01,-4.18528e-02,1.45064e-02,6.86806e-02,2.77558e-01,-7.23712e-02,-9.16873e-02,-1.41624e-01,5.01389e-01,1.47241e-01,2.02948e-02,4.44660e-02,2.01749e-01,5.97427e-02,3.31479e-01,-3.88287e-02,1.05734e-01,1.49682e-01,-3.41400e-01,-4.00156e-01,-2.99112e-01,-1.58927e-01,-2.88612e-02,2.28012e-03,1.55367e-01,4.99772e-02,2.11665e-01,-1.43367e-01,2.13655e-01,-9.78358e-02,-2.20086e-01,6.01835e-02,
1.65513e-01,4.38881e-02,-2.59820e-01,-2.22965e-02,-5.71639e-02,-4.94461e-02,1.01025e-01,5.24278e-02,-1.56839e-01,-1.07634e-01,1.82449e-01,-3.65004e-01,2.95277e-02,-2.55020e-01,-1.31552e-01,2.16296e-02,3.56660e-01,1.38124e-02,2.31827e-01,-3.47710e-01,9.51280e-02,4.00848e-01,-5.66921e-01,9.17682e-02,-2.11589e-02,1.06175e-01,2.67689e-01,-3.49567e-02,1.56489e-01,-1.83216e-01,1.41807e-02,-1.27268e-01,2.18453e-01,-1.59924e-01,-8.09309e-01,-2.19467e-01,1.89515e-01,2.63456e-01,1.81584e-01,2.56016e-01,2.10336e-01,8.26964e-02,-4.36602e-01,-1.50932e-01,1.56316e-01,
2.26464e-01,-1.31950e-01,-2.16082e-01,2.26777e-01,2.62884e-01,-3.13073e-01,-1.80295e-01,-2.20481e-02,1.56524e-01,-9.80521e-02,3.75120e-01,2.24272e-01,6.97517e-02,-6.33825e-02,-1.01196e-01,-2.63903e-01,5.06247e-02,1.30639e-01,-3.71950e-02,8.52843e-02,1.03131e-01,1.24165e-01,3.73157e-03,7.81434e-02,3.25015e-02,-2.79973e-01,-8.13254e-03,-1.00364e-01,-2.53795e-02,-1.13574e-01,4.53537e-01,7.26487e-02,8.70752e-02,-2.00026e-01,-2.19335e-01,5.87810e-02,-4.30606e-02,1.93030e-02,4.99119e-01,6.68233e-02,3.23901e-02,-3.72008e-01,-1.03070e-01,-1.48772e-01,2.11333e-01,
2.22428e-02,3.89722e-02,1.67523e-01,-1.23021e-02,-2.42436e-01,-2.20520e-01,-2.07781e-01,8.20014e-02,-2.70843e-01,2.22257e-01,-2.57536e-01,5.53686e-02,5.98338e-02,-3.70877e-02,-2.38533e-01,-2.53741e-01,1.51698e-01,2.17561e-03,-5.66952e-02,-2.29562e-01,-1.53449e-01,-1.85162e-01,1.41291e-01,1.99187e-01,-2.16903e-01,1.24878e-01,-6.64444e-02,-2.12784e-01,-1.38605e-01,-1.10082e-01,-1.06307e-01,-3.60783e-02,-1.33195e-01,3.66598e-02,-1.40149e-01,-2.45220e-01,2.37394e-01,-1.57719e-01,5.21819e-02,4.83123e-02,-9.62818e-02,1.80194e-01,-5.15377e-02,-2.26346e-01,-1.39558e-01,
4.51938e-02,1.99973e-01,1.79643e-01,4.93665e-02,3.13561e-01,8.16099e-02,3.61681e-01,-2.60718e-01,4.33895e-01,-6.90000e-02,3.14471e-01,-2.13899e-01,-2.82651e-01,6.03245e-02,2.16802e-02,1.76591e-01,-8.76424e-02,-1.54758e-01,2.93841e-02,-1.13739e-01,-9.81763e-02,1.90749e-02,1.90831e-02,3.56566e-01,6.03138e-02,5.13620e-02,2.67338e-01,1.04759e-01,3.00156e-01,1.20471e-01,-3.49198e-01,-1.81454e-01,-2.95246e-02,-1.87362e-01,1.10280e-01,-8.26125e-02,2.10836e-01,1.13346e-01,2.21036e-01,5.87174e-02,1.45254e-01,3.07289e-01,-6.51811e-02,-3.44653e-01,-1.46152e-01,
-1.83840e-01,-1.73711e-01,7.04512e-02,2.80657e-01,3.71631e-01,-1.39469e-01,-2.11980e-02,-2.09843e-01,2.59158e-01,4.37375e-02,7.13849e-02,-4.01501e-03,7.87022e-02,-3.41240e-01,-3.35236e-01,3.48740e-02,-4.18150e-01,2.27995e-01,8.88820e-02,-5.20956e-02,-9.33003e-02,1.69685e-01,-1.10754e-01,-2.47139e-01,-8.89058e-02,-1.84047e-01,1.88898e-01,-5.31805e-01,1.77375e-01,-4.48216e-01,-3.24883e-01,-1.00203e-02,-3.53893e-01,-4.23845e-01,1.81910e-01,1.64151e-01,2.04085e-02,-4.08790e-01,-1.33255e-01,-1.25379e-01,4.03494e-01,8.09229e-02,-5.60317e-02,-1.25631e-01,-8.58327e-02,
2.02143e-01,1.79971e-01,7.27517e-01,4.90585e-02,-3.82334e-01,-3.44564e-02,7.33746e-02,-1.82611e-01,2.29346e-01,8.39667e-02,1.34868e-01,3.37034e-01,2.01917e-02,-1.46560e-01,-1.94853e-02,-1.13532e-01,1.62586e-01,-5.18281e-02,1.99194e-01,3.14378e-01,2.91434e-01,-1.58273e-01,-2.51450e-01,1.39300e-01,2.02656e-01,-6.68329e-02,-8.14668e-02,-3.28130e-01,-1.66666e-01,1.35378e-01,2.71091e-01,5.02791e-03,1.88159e-01,-3.83817e-01,-4.03104e-02,6.46942e-02,1.85939e-03,1.10649e-01,2.46346e-02,-2.25192e-01,-2.41216e-01,-2.28483e-02,-3.53195e-02,4.09232e-02,-1.99100e-01,
-1.25415e-01,3.26910e-01,-9.30876e-01,1.62226e-01,1.81839e-01,-1.82044e-01,-4.15146e-02,1.18662e-02,-4.01916e-01,-5.56042e-02,1.25716e-01,2.41764e-01,-3.63161e-02,3.35875e-02,6.65726e-02,3.03180e-01,-2.84471e-01,1.72606e-01,9.40926e-02,1.64066e-01,6.08059e-02,2.08686e-01,-2.57171e-02,-5.63586e-02,-9.49351e-02,-1.43971e-01,4.47810e-02,-7.74805e-03,4.89427e-01,-2.43089e-01,1.96071e-01,-1.12824e-01,1.25212e-01,1.70958e-01,3.32276e-01,1.20187e-01,1.13956e-01,-3.91870e-02,1.42934e-01,3.18115e-01,2.99692e-01,-2.79582e-01,-1.90223e-02,-7.86228e-02,-2.17363e-01,
1.86053e-01,-1.90892e-01,5.33283e-01,1.38461e-01,3.46636e-01,-5.34912e-02,-1.10470e-01,2.69886e-01,-2.98108e-01,2.15855e-01,-2.58428e-01,2.99095e-01,-2.79694e-02,1.90839e-01,8.53554e-02,-2.92415e-01,-1.98634e-01,1.03197e-01,2.43989e-01,2.86486e-01,2.57198e-01,3.47833e-02,1.70159e-01,-2.70698e-03,-1.52698e-01,1.74834e-01,-1.95342e-01,1.54385e-01,-1.44155e-01,-6.82872e-02,-1.23647e-02,2.76094e-01,-4.33344e-02,-8.83620e-02,-1.03219e-01,1.15276e-01,-3.91573e-02,-1.78586e-01,-5.54947e-02,1.55738e-01,1.28608e-02,2.53354e-01,4.54191e-01,-1.41223e-01,-1.78786e-01,
-9.03592e-02,-3.23745e-01,-3.57922e-01,-3.28878e-01,4.68134e-01,2.89824e-01,-5.55903e-02,-1.62988e-02,1.99028e-01,1.33974e-01,-5.35616e-01,5.36285e-02,3.05743e-01,1.04025e-01,2.82530e-01,-1.18029e-01,-2.57196e-01,1.53468e-01,-2.32917e-01,4.35049e-01,1.97399e-01,-3.39981e-01,3.14818e-01,-2.75057e-01,-8.55527e-03,1.09621e-01,-6.75399e-02,-1.83125e-02,-4.27976e-02,1.46569e-01,-4.83279e-02,-1.72903e-01,-1.90111e-01,-2.09608e-02,-2.52760e-01,-3.53400e-02,3.12581e-01,1.06803e-01,-1.34543e-01,2.92487e-01,2.18156e-01,2.44410e-01,1.88560e-01,-3.02897e-02,-2.70195e-01,
4.71477e-02,-4.14806e-02,-2.33163e-02,-3.41762e-01,4.69533e-01,1.96463e-01,1.10575e-01,2.32229e-01,5.34051e-02,7.15953e-02,1.53603e-01,-3.08926e-02,9.60586e-03,-1.90574e-01,1.94474e-01,7.60493e-02,2.39109e-01,-7.18629e-02,-3.95575e-01,9.29917e-02,-2.36053e-02,2.49922e-01,1.24792e-01,-1.79626e-01,7.83972e-02,3.85965e-01,4.38693e-02,9.51884e-02,4.38162e-01,2.83315e-01,2.64639e-01,1.92390e-01,-2.86169e-01,1.13897e-01,-3.56584e-01,-1.70723e-01,-4.97860e-02,8.84780e-03,9.27075e-02,-3.04520e-02,2.65027e-01,-1.39551e-01,1.46369e-01,-5.14447e-02,8.55697e-02,
-6.10159e-02,-2.84200e-01,-5.86058e-01,1.60253e-01,-9.59665e-02,2.60004e-01,1.97678e-01,1.03367e-01,-2.25788e-01,2.07265e-01,-4.29521e-02,1.88627e-02,2.97433e-01,3.96106e-01,2.57543e-01,-1.82831e-01,1.51258e-01,3.68138e-02,-7.65687e-03,-2.61920e-01,-1.22875e-01,4.35749e-01,5.69221e-02,-1.44347e-01,-1.68491e-01,2.36466e-01,2.35372e-01,1.03217e-01,-3.14605e-01,9.24358e-02,-2.53088e-02,-1.81319e-01,6.88158e-02,-1.20314e-02,8.04919e-02,-1.31274e-01,8.33867e-02,-1.64804e-03,-1.97665e-01,-1.16026e-01,-7.66579e-02,2.26175e-01,1.93503e-01,-1.15386e-02,3.50739e-02,
1.82237e-02,-1.18742e-01,8.87244e-02,-1.82740e-01,1.51423e-01,4.45155e-02,1.62769e-01,-1.38466e-01,9.83898e-02,1.91880e-01,-4.46752e-01,-2.62920e-02,4.15132e-02,-3.52274e-01,2.95125e-02,-4.72673e-01,-2.31926e-01,1.09886e-01,5.51379e-02,-2.27859e-01,-2.27395e-01,-1.04128e-01,-4.99073e-01,-2.92322e-01,-1.26989e-01,1.69392e-01,3.66363e-01,-1.38536e-02,2.10547e-01,-1.60632e-01,1.55618e-01,-7.29251e-02,-1.75382e-01,1.42804e-01,-1.55096e-01,4.49491e-02,1.76307e-01,2.54133e-01,7.81571e-02,5.21295e-02,-3.10566e-01,6.26813e-02,1.78792e-02,2.39206e-02,3.20711e-02,
-9.36914e-02,-1.96244e-01,-2.74304e-01,-1.24390e-02,-1.22659e-01,2.15100e-01,8.95252e-02,-1.81555e-01,3.14233e-01,-1.03144e-01,3.18084e-02,-1.28547e-01,-1.71403e-03,-1.89930e-01,-7.99226e-02,-4.32847e-01,3.36473e-02,1.30351e-01,-1.11999e-01,-1.90735e-01,7.04464e-02,-1.81179e-02,-1.06966e-01,-1.33008e-01,6.98074e-03,-8.23272e-02,1.23061e-01,3.85026e-02,-1.01838e-01,-2.47616e-01,-7.89476e-02,1.51465e-01,1.24920e-01,1.40444e-01,-1.22540e-01,3.51024e-01,2.30616e-02,-1.06518e-01,3.95630e-01,1.37908e-01,3.26050e-01,-3.01816e-01,-6.09145e-02,-1.10715e-01,3.58133e-01,
1.58842e-01,4.32148e-01,4.04568e-01,8.97872e-02,6.40366e-02,-1.78474e-02,-1.48769e-01,2.25244e-01,-3.09486e-01,-2.55157e-01,-3.54339e-01,4.25362e-01,-1.79007e-01,-2.84177e-01,-4.98837e-02,3.55036e-01,-3.49441e-01,2.10911e-01,-1.35959e-01,-1.07925e-01,2.89738e-01,-1.01786e-01,1.94910e-01,1.32353e-01,-1.54642e-01,9.10240e-02,4.74950e-02,3.79071e-02,1.04566e-01,-1.04883e-01,2.05357e-01,-1.84430e-01,-2.60078e-01,7.77103e-02,-2.13060e-01,7.02102e-02,1.74208e-01,-1.55406e-02,-3.00783e-01,-6.88915e-03,-4.70416e-02,-4.84033e-02,4.44323e-02,2.94391e-01,-2.02207e-04,
-1.35926e-01,-3.54313e-02,-7.66019e-01,-5.08290e-02,1.42042e-02,5.87340e-01,7.81895e-02,-3.29033e-01,-4.04628e-02,-2.56248e-01,-2.83104e-01,2.32957e-01,3.95027e-02,-6.99046e-02,4.23609e-02,1.13393e-02,-1.24206e+00,2.09872e-01,-1.14043e-01,3.45263e-01,7.62381e-02,-5.62563e-01,4.04327e-01,-1.43478e-01,-1.70924e-01,1.83265e-01,3.63538e-02,-6.65794e-02,1.82507e-01,-2.50956e-02,-2.03722e-01,-2.52700e-01,-4.21094e-02,2.61063e-01,-3.63052e-01,-1.93100e-02,-3.06380e-01,-3.97243e-01,5.83184e-02,6.51006e-02,-1.55183e-01,2.65033e-01,1.01990e-02,-1.28811e-01,3.56593e-01,
-3.55275e-01,3.89027e-02,-3.60414e-02,-1.12466e-01,-1.21405e-01,-3.05167e-01,1.35889e-01,3.56679e-01,1.30901e-01,2.73907e-02,-1.76294e-01,-1.32771e-01,-2.65215e-01,4.42404e-03,3.39310e-01,-4.01626e-02,-1.61157e-01,-3.21216e-02,2.13796e-01,1.22611e-01,2.34144e-01,-2.87723e-01,1.13560e-02,2.58607e-01,-2.45457e-01,-3.76183e-01,6.64322e-02,3.80673e-01,1.98636e-01,-1.60162e-01,2.46261e-01,-5.76642e-02,-9.03512e-02,2.47082e-01,6.48819e-03,5.26806e-02,-4.45016e-01,1.54902e-01,-4.74886e-01,1.11721e-01,1.00146e-02,-9.98354e-02,1.78053e-01,2.22365e-01,3.10131e-01,
-2.42460e-01,1.21154e-01,-4.13098e-01,-8.21609e-02,-4.97918e-01,9.02559e-02,1.48084e-01,6.40692e-02,3.17608e-01,-8.94468e-02,-3.05984e-02,1.43173e-01,2.73553e-01,1.42547e-01,-1.67132e-02,2.87193e-01,2.60396e-01,-1.32008e-01,-1.57563e-01,-1.10835e-02,1.38384e-01,-5.10525e-02,-2.00657e-01,-1.81377e-01,-8.57399e-03,1.37021e-01,2.93260e-01,4.62094e-02,2.09943e-01,6.19578e-02,-1.27214e-01,-1.05534e-01,3.07863e-01,-3.61943e-01,3.01379e-02,2.29215e-01,-5.66590e-02,1.03925e-01,3.12691e-02,3.15474e-03,3.38410e-01,1.92575e-02,8.01504e-02,-2.66862e-01,-2.10040e-01,
2.45914e-01,5.72021e-02,-9.00524e-03,-5.21403e-02,-7.91765e-02,-4.30155e-01,3.49496e-02,7.92055e-02,1.01914e-01,-5.94387e-03,1.97390e-03,-7.33666e-02,-1.16006e-01,2.57818e-01,4.85211e-01,-1.80622e-01,3.18727e-01,-6.71443e-01,-3.05856e-01,-1.29217e-01,1.16571e-01,1.54954e-02,-1.62673e-01,1.22530e-01,5.15810e-01,5.27833e-02,6.22368e-01,-8.35092e-02,3.46533e-01,-2.08856e-01,-3.11796e-02,1.55786e-01,4.88273e-01,1.44697e-01,1.01864e-01,-5.65130e-01,-1.12906e-01,7.51290e-02,8.87333e-02,3.41734e-01,1.20325e-01,-1.46846e-03,-1.75330e-01,-7.38720e-01,-2.53017e-01,
1.13377e-01,-3.93155e-01,-6.50117e-01,7.51945e-02,-2.49863e-02,-5.95640e-02,1.40576e-01,2.34096e-01,6.43568e-01,1.16490e-02,7.54722e-02,-3.33619e-01,8.22163e-02,9.90163e-02,-1.25539e-03,1.60149e-01,3.96283e-02,1.02617e-01,3.19483e-01,-8.11627e-02,-9.10726e-01,3.65089e-01,4.25037e-04,-4.12086e-01,2.70624e-01,-9.31531e-02,1.91541e-01,3.50071e-02,1.17863e-01,1.47324e-01,-2.59789e-01,1.32365e-01,-7.86694e-01,-2.43944e-01,1.16956e-01,-5.30828e-02,-1.02145e-01,-4.07011e-01,-8.58832e-02,3.25832e-01,-6.56767e-02,-3.42721e-01,-2.48875e-02,2.24938e-01,-4.23012e-03,
9.31571e-02,2.56162e-01,-5.34232e-01,-8.25955e-02,-6.72552e-03,1.83156e-01,1.50514e-01,2.28119e-01,1.13679e-01,4.93374e-02,1.94802e-01,-3.14927e-02,-2.16475e-01,-1.69448e-01,-2.24632e-02,2.07040e-01,-6.65934e-02,-1.90255e-01,2.11620e-02,4.20523e-02,1.59584e-01,-1.62416e-01,-2.09195e-01,1.09047e-01,-9.39630e-02,1.14869e-01,2.92276e-01,3.26824e-01,2.29466e-01,3.97745e-01,1.69563e-01,3.26781e-01,3.09996e-02,9.53998e-02,2.96433e-01,-9.35842e-02,-4.58153e-02,2.35668e-01,-5.96493e-01,3.02377e-01,2.24664e-01,-1.87713e-01,-3.54431e-01,-9.63228e-02,2.65396e-01,
2.78088e-02,
-1.31903e-01,
-2.17883e-03,
1.80028e-01,
1.26243e-02,
1.23102e-01,
-1.37668e-01,
6.73514e-02,
-1.19511e-01,
-7.96321e-02,
1.43464e-01,
1.70701e-01,
-8.00178e-03,
-8.58634e-02,
-1.24675e-01,
-3.33465e-02,
-1.35380e-01,
-4.74602e-02,
-7.43588e-03,
-5.58390e-02,
-2.37852e-01,
7.70106e-02,
-1.20842e-02,
6.90060e-03,
9.53740e-02,
-1.89859e-03,
-9.60819e-03,
-5.23900e-03,
5.84042e-02,
7.58821e-02,
1.19708e-02,
-8.95573e-03,
-8.03129e-03,
-1.05143e-01,
-3.55840e-01,
1.59822e-01,
8.07707e-02,
6.09435e-02,
1.33852e-01,
7.03990e-03,
6.83733e-02,
6.52546e-02,
-1.62131e-02,
6.09083e-03,
-4.36285e-02,
2.81711e-01,-7.97506e-01,4.09512e-01,1.75397e-01,-1.85580e-01,-1.09817e-01,-2.09329e+00,-1.82812e-01,2.23601e-01,-4.01828e-01,-2.31202e-01,-3.89508e-01,4.41286e-02,4.70245e-01,3.42023e-02,1.03132e-01,2.78738e-01,-1.81689e+00,9.75692e-02,3.05478e-01,1.76626e-01,2.96484e-02,-1.64605e-01,-1.18253e-03,7.75028e-02,4.89835e-01,-8.91160e-02,2.10008e-01,-1.15239e-01,1.20283e-01,-8.79088e-02,-4.94711e-02,3.93124e-02,2.02330e-02,3.23980e-01,-8.71592e-02,-2.69816e-01,-2.28892e-01,1.87254e-01,8.95273e-02,-9.32409e-02,1.72824e-01,-8.87850e-01,3.07654e-01,-7.03382e-02,
1.92456e-01,-4.14721e-01,-3.83216e-01,-3.55622e-02,-1.03602e-01,1.08945e-02,-1.17622e-01,3.42631e-01,-2.65317e-01,-2.16586e-01,-2.54906e-01,2.05584e-01,4.50585e-01,4.99047e-02,4.33658e-01,-1.38631e+00,3.66824e-02,-2.60802e-01,2.55735e-01,1.08186e-01,-5.01182e-01,-7.79670e-02,7.61954e-02,-1.57648e-01,-6.65026e-02,-3.13979e-02,1.20766e-01,2.10690e-01,1.78383e-01,9.33950e-02,9.00858e-02,-8.56089e-02,1.22308e-01,5.00865e-01,4.82588e-02,-1.39151e-02,-2.17928e-01,-2.45746e-01,-2.69961e-01,-7.88954e-01,7.12470e-02,-2.25019e-01,1.66840e-01,-8.94136e-01,7.61509e-02,
-4.39752e-02,9.82338e-02,-1.49491e-01,-1.11944e-01,2.68310e-02,5.36740e-05,6.45609e-02,-6.89531e-02,1.03408e-01,5.20545e-03,-2.03164e-01,-1.09061e-01,-9.93349e-02,-1.46821e-01,6.02001e-03,-2.52013e-01,-5.04282e-03,6.90322e-02,-2.41404e-01,-2.26441e-01,-1.00302e-01,-1.60549e-01,7.86964e-02,-1.93551e-01,1.38390e-01,-2.26981e-01,-2.30778e-02,4.29935e-02,-2.34344e-01,2.93614e-02,-1.83137e-01,-8.54701e-04,-1.05085e-01,2.05486e-01,7.33216e-02,1.33200e-01,1.83565e-01,3.49555e-02,-1.37797e-01,-1.11725e-01,-1.69591e-02,9.22555e-02,-7.84800e-02,-1.43734e-01,-9.33179e-02,
-2.92271e-02,-3.17910e-02,3.86133e-01,1.62899e-01,2.06264e-01,-2.08307e-01,-1.17175e-01,-1.28927e-01,-3.06054e-02,6.42495e-03,1.49715e-01,4.81977e-03,5.65708e-01,3.19437e-01,-1.64925e-01,1.04083e-01,-3.11146e-01,6.04723e-02,-5.20125e-02,4.90853e-02,-4.63915e-01,4.65465e-01,2.38588e-01,-2.41669e-03,1.69624e-01,3.54178e-01,2.26203e-01,2.93061e-02,-2.63493e-03,1.25209e-01,-3.53140e-02,1.94689e-01,9.99871e-02,2.29627e-01,-1.98684e-01,-2.13411e-01,-2.21261e-01,1.64395e-01,-5.17911e-02,9.94855e-02,-2.57212e-01,-1.36375e-01,2.41221e-01,1.34863e-02,-1.33143e-01,
1.56945e-01,-5.12234e-01,1.99831e-01,2.96215e-01,-1.68427e-01,2.71316e-01,-8.80190e-01,1.14725e-01,5.43932e-02,-2.52896e-01,-3.72279e-01,1.93612e-01,1.47262e-01,-4.07897e-02,-1.43682e-01,-1.19370e-01,7.26914e-01,-5.38403e-02,-7.52357e-02,2.29953e-01,3.25832e-01,9.18801e-02,-1.99955e-01,1.28595e-01,7.83820e-02,-3.12045e-01,-3.41451e-03,1.19741e-02,1.50515e-01,-1.33063e-01,1.83855e-01,8.76073e-02,-1.55812e-01,-1.05441e-01,-3.75604e-01,-8.46634e-02,1.22783e-01,-2.43907e-01,2.84175e-01,-4.78705e-01,-4.11359e-01,-1.41327e-02,-8.92265e-02,-5.97412e-02,-2.25053e-01,
-3.88827e-02,-3.56949e-02,4.68787e-01,4.79769e-02,2.56638e-01,-4.19136e-02,-5.07004e-02,3.96050e-01,4.01209e-01,1.59828e-01,4.65806e-02,-1.14649e-01,-1.04205e-01,8.77096e-02,2.08391e-01,-1.88481e-01,-3.21389e-01,-9.41390e-02,2.18149e-01,2.00635e-02,2.27636e-01,-2.97850e-01,-3.71954e-02,1.20395e-01,2.43842e-01,1.72819e-01,6.21224e-02,1.82221e-01,-1.27389e-01,-3.72971e-01,5.96108e-02,6.57716e-02,1.93555e-01,-3.72292e-01,-7.08660e-02,1.29059e-01,-3.62033e-02,-5.48390e-02,-1.17971e-01,-2.50825e-01,9.50740e-02,-1.13636e-01,-7.26671e-02,4.47160e-01,1.59903e-01,
-1.38931e-01,-4.17132e-01,2.29754e-01,2.62553e-01,8.47452e-02,1.23077e-02,2.17515e-01,-1.62018e-01,4.16671e-01,-3.35330e-01,1.27146e-01,-1.82993e-01,-1.03930e-01,2.31368e-01,3.97026e-01,-1.86194e-01,9.30667e-02,2.66111e-02,2.93129e-01,1.26465e-01,-6.64827e-02,-6.29590e-02,1.90890e-01,-1.24013e-01,1.28907e-01,-1.72033e-01,1.64352e-01,-1.26768e-01,2.60998e-01,-2.03528e-01,-3.13295e-01,3.30768e-01,-1.41556e-01,-6.21181e-03,7.18763e-01,3.08563e-01,4.24758e-01,6.67286e-02,9.34964e-02,-2.78887e-01,-7.60904e-02,1.70755e-01,-2.20427e-01,2.08232e-01,2.57604e-01,
-5.54233e-02,-3.23285e-01,6.52676e-02,2.98666e-02,1.42071e-01,7.19060e-02,-1.05948e-01,-9.00937e-02,3.69491e-01,5.24687e-01,-4.41001e-02,1.56897e-01,-9.25994e-01,-4.53414e-02,2.28260e-01,9.10765e-02,-1.14774e-01,-3.72302e-01,8.25689e-02,2.02504e-02,-1.26190e+00,1.28583e-01,-1.32009e-01,-1.09296e-01,-6.99341e-02,-4.53201e-01,2.01317e-01,1.64617e-01,-1.74011e-01,-2.92448e-01,5.58685e-01,-1.94287e-01,1.36386e-01,3.58929e-01,-1.20317e-02,-2.00628e-01,-1.92210e-02,1.28874e-01,2.52418e-01,-3.47677e-01,2.17101e-01,2.63981e-02,-4.16679e-01,-4.32340e-01,3.60527e-02,
2.67570e-01,-1.14285e+00,2.37941e-01,3.29222e-02,2.66545e-02,-5.39093e-01,-1.11351e-01,-1.15746e+00,2.23225e-01,-2.77205e-01,-1.66394e-01,-3.86765e-01,1.37984e-01,1.22109e-01,-9.34705e-01,4.35192e-01,1.98326e-01,-3.62813e-01,-1.49511e-01,1.34685e-01,1.10380e-01,5.64393e-02,2.03438e-01,3.15090e-01,5.36394e-01,3.04113e-01,-3.01896e-01,-6.55252e-02,-3.91677e-01,2.94738e-02,1.63169e-01,-1.57164e-01,4.99376e-02,-6.49335e-01,4.71268e-01,-1.48700e-02,-2.32228e-01,-3.72810e-02,2.18489e-01,1.78702e-02,-8.11551e-02,-7.12795e-02,-6.93330e-01,3.06455e-01,9.99905e-02,
1.41144e-02,2.42183e-01,1.96024e-02,5.22561e-03,-2.20221e-01,1.20534e-01,-8.10943e-02,9.37787e-03,6.19689e-02,5.70025e-03,1.52883e-01,4.09032e-01,-2.76267e-01,-1.78924e-01,-2.67909e-01,-1.91556e-01,3.32806e-01,-4.47379e-01,-2.57120e-02,-2.74518e-02,2.14787e-01,-1.51050e-01,-2.04388e-01,1.77145e-01,2.87756e-02,-1.15187e-02,-1.74239e-01,-2.34453e-01,3.01510e-01,-4.87040e-02,-1.19767e-01,-2.13695e-01,-3.00740e-01,-4.73350e-01,-4.94274e-01,-6.55539e-02,-5.39560e-02,3.00187e-01,2.04045e-01,-7.58099e-01,-7.87256e-02,9.97941e-02,-1.57010e-01,3.35355e-01,1.83688e-01,
-1.43475e-01,-3.07817e-01,4.04300e-01,-1.06194e-01,5.83965e-03,-2.21272e-01,-5.57361e-01,-3.61728e-02,2.33794e-01,5.67961e-02,-2.46136e-02,1.24941e-01,-2.37479e-01,4.09608e-01,2.53759e-01,-4.05310e-01,4.72613e-01,-1.02107e-01,6.73158e-02,1.27191e-01,-5.89414e-02,-3.26878e-02,1.16582e-01,-2.02472e-01,2.54907e-01,-2.79966e-01,2.03768e-01,1.69284e-01,-1.27171e-01,-7.90603e-02,9.95427e-02,1.14920e-01,3.09886e-01,-3.88997e-02,1.88546e-01,1.66670e-01,-1.40958e-01,-1.07923e-02,2.64616e-01,-2.67172e-01,-1.94433e-02,7.74322e-04,-1.00656e-01,8.56824e-02,1.44583e-01,
4.50107e-01,-4.41762e-02,2.77321e-01,-4.92401e-01,1.65647e-01,-3.32035e-01,-5.77199e-02,2.05575e-01,4.65872e-01,6.59849e-02,-1.58793e-01,-1.00448e-01,-2.45111e-01,7.46155e-02,-9.00888e-01,1.02481e-01,2.85162e-01,2.38844e-03,2.71544e-01,1.60663e-01,1.51134e-03,1.72452e-01,6.81743e-02,-6.59910e-01,1.34561e-01,1.33123e-01,2.58456e-01,-2.56819e-01,6.97070e-02,-5.22477e-01,1.42733e-02,-1.14844e-01,-1.08825e+00,-6.78848e-02,6.51821e-01,-4.44374e-01,8.06910e-02,-5.81067e-03,-1.47336e-01,-5.03031e-01,9.72677e-02,-7.08733e-02,1.10605e-01,-7.14540e-01,-3.54655e-01,
-1.75598e-01,-2.74981e-02,9.46541e-03,-1.07776e-01,2.45908e-02,-2.11046e-01,-2.06396e-02,3.72836e-02,-6.19756e-02,1.51336e-01,-3.69680e-03,1.56810e-01,2.14691e-01,-1.45771e-01,1.91650e-01,5.29605e-02,6.92219e-02,-4.59717e-02,-1.79585e-02,-1.09661e-01,5.17443e-02,-4.02856e-02,-2.23222e-02,6.31745e-02,-4.77107e-02,-2.55317e-01,7.78263e-02,-2.42984e-01,-1.06777e-01,1.71659e-01,1.88523e-01,-1.41393e-02,-2.34048e-01,-6.68105e-02,-1.83661e-01,-2.47494e-01,1.02169e-01,-1.74144e-01,-2.58592e-01,-2.20300e-01,5.47768e-02,-2.61940e-01,1.57128e-01,1.08097e-01,-1.14612e-01,
1.48775e-01,1.95817e-01,9.77003e-02,7.54904e-02,-1.73931e-01,3.26908e-02,-1.18084e-01,2.34720e-01,1.10571e-02,1.92414e-01,7.73032e-02,-5.27908e-03,1.41530e-01,-9.57680e-02,-1.52920e-01,-1.74346e-01,-4.39881e-02,-1.44563e-01,-2.48498e-01,-1.32472e-01,-2.16878e-01,2.00662e-02,-2.31721e-01,4.54447e-02,-2.33486e-01,9.54785e-02,6.29759e-02,1.09865e-01,3.38681e-02,-1.57268e-01,-1.48207e-01,-1.60515e-01,1.73593e-01,6.67720e-02,2.01619e-01,-2.57111e-01,-1.32716e-01,6.20702e-02,1.22907e-01,5.76316e-02,-5.98140e-02,-1.75294e-01,-5.73198e-01,1.33519e-01,-8.87585e-02,
-9.57237e-02,-5.30619e-01,-4.63112e-01,-3.78332e-01,9.87821e-02,1.19981e-02,1.68248e-01,-2.57434e-01,-1.09981e-01,8.67890e-02,-1.86655e-01,1.69326e-01,-2.62756e-01,9.83875e-02,-6.71144e-02,-7.32584e-02,4.90806e-01,1.65836e-01,-2.09395e-01,-1.37959e-01,6.23553e-01,1.61170e-01,-6.65629e-02,9.31917e-02,-2.10135e-01,-3.43657e-01,-3.15689e-01,1.74829e-01,-2.12683e-02,3.04996e-01,-3.23464e-01,-9.60749e-02,-1.97703e-01,1.19105e-01,-1.41747e-01,7.45686e-02,-9.78276e-02,3.01297e-01,2.79262e-01,5.45365e-01,-1.64863e-02,5.42144e-02,-4.72297e-01,-2.13256e-02,-1.36641e-01,
-1.19859e-01,-4.19510e-01,-3.31118e-01,-1.23670e-01,-1.10396e-01,2.85294e-01,-3.17254e-01,-4.33057e-01,3.48867e-01,4.35449e-01,1.09969e-01,2.60733e-01,-1.74732e-01,-1.85672e-01,-4.87987e-01,-2.57867e-01,9.47205e-02,-9.85120e-02,-2.33738e-01,-8.83629e-02,3.37751e-01,2.09033e-01,1.94874e-01,8.51484e-02,-1.47595e-01,-3.67036e-01,-4.45139e-02,1.18545e-01,2.20855e-02,1.95168e-01,3.64962e-01,-3.31123e-01,-1.07841e-01,3.78202e-01,-5.57148e-01,-1.11610e-01,5.89594e-02,3.50000e-01,2.74379e-01,-2.10769e-03,-1.54542e-01,2.14658e-01,-2.44997e-01,1.19514e-02,2.41219e-01,
-9.39268e-02,-1.19683e-01,2.09098e-02,-1.99201e-01,-3.39899e-02,4.67168e-02,-6.87892e-01,1.95929e-02,-1.92344e-01,-1.49783e-01,-2.24271e-01,4.19931e-01,1.12600e-02,-1.96580e-02,-2.59118e-01,2.29558e-02,7.76431e-02,-2.62535e-01,1.06033e-02,-2.69626e-01,-6.58716e-01,8.50637e-02,-1.65506e-03,1.40883e-01,-1.75746e-01,-2.88486e-01,-1.90701e-01,-1.40679e-01,2.71551e-01,-2.02160e-01,-2.56225e-02,-2.11495e-01,-4.40141e-02,1.49602e-01,-1.84290e-01,2.28272e-01,5.80908e-03,8.48287e-02,7.72310e-03,-8.59112e-01,2.03931e-01,-1.75380e-01,8.51500e-02,-2.38145e-01,-1.23037e-01,
-3.89675e-01,-1.59581e-01,4.40934e-01,1.59068e-02,-7.97279e-02,6.01561e-02,7.21492e-01,3.35554e-01,2.38918e-01,1.83633e-01,2.30072e-02,-1.68102e-01,2.34636e-01,-2.59949e-01,1.36269e-01,1.52713e-01,-3.99354e-01,1.03945e-01,-3.27891e-01,2.14905e-01,-3.10086e-01,2.40353e-02,8.53894e-02,2.61695e-01,2.98907e-01,5.33930e-02,-5.65232e-02,1.78046e-01,6.56363e-02,-1.40172e-01,-1.35462e-01,1.06353e-01,1.74070e-01,6.58864e-02,3.90557e-01,2.32120e-01,-1.63704e-01,1.46623e-01,-1.97521e-01,-1.64424e-02,6.94193e-02,-1.36567e-01,-1.16786e+00,-4.05801e-01,-1.25399e-02,
-1.35860e-01,1.85359e-01,-7.07924e-02,1.69851e-01,-2.37203e-01,-5.68226e-02,-3.80914e-01,1.60391e-02,-3.37243e-01,-3.25662e-02,9.37681e-02,1.32650e-01,-2.81873e-01,1.30277e-01,-3.09340e-02,9.18641e-02,5.17869e-01,2.58390e-02,-7.74339e-02,4.07486e-01,7.31473e-02,1.17493e-01,-4.06568e-02,-3.59937e-01,3.60683e-02,2.47994e-01,-2.60122e-01,-9.89939e-02,2.47880e-01,-9.98484e-02,1.53762e-01,-1.01347e-01,-8.80159e-02,2.20599e-01,1.50537e-01,7.66611e-02,2.16212e-01,1.34546e-01,-3.80863e-01,-1.10545e-01,6.67749e-02,8.64329e-02,-2.03180e-01,2.31784e-01,2.38871e-01,
-1.49481e-01,-1.17160e-01,6.60377e-02,-6.67979e-02,-6.07674e-03,1.77693e-01,2.28164e-01,-5.89238e-02,1.37505e-01,-1.04119e-01,1.23471e-02,3.24017e-01,1.43509e-01,3.57465e-01,3.90683e-01,-2.08587e-01,-5.12656e-01,-7.60648e-02,2.49203e-01,1.73270e-01,5.90417e-02,-1.68422e-01,1.67836e-01,9.06116e-02,1.68319e-01,-1.70756e-01,6.90175e-02,5.64111e-02,1.08369e-01,-3.95110e-02,-1.14099e-01,4.52774e-02,1.99424e-01,-1.91879e-01,4.55784e-01,-3.53184e-02,6.92636e-02,1.64474e-01,1.35918e-01,-4.29098e-01,-2.61995e-01,-1.73095e-03,-1.74184e-03,2.11229e-01,1.38300e-01,
3.38242e-01,1.84242e-01,1.79965e-01,1.64261e-01,-4.36200e-03,4.77014e-02,3.63549e-01,-9.05873e-02,-2.43144e-01,-4.05398e-01,-1.51211e-01,1.15718e-01,3.70685e-01,-8.31833e-01,5.27108e-01,2.62434e-02,-3.48053e-01,1.26296e-01,-1.21278e-01,-7.36659e-02,-3.84488e-01,-2.45761e-01,-1.14948e-01,1.36262e-01,2.84943e-02,-5.70999e-02,-4.42600e-01,8.62704e-03,-1.52441e-01,-5.55899e-01,2.31442e-01,-3.29690e-01,1.77925e-01,-2.52341e-01,-8.83041e-02,4.46863e-03,3.00508e-01,-1.22469e-01,3.70063e-02,-6.60691e-01,9.30016e-02,4.03975e-03,-3.84184e-02,-1.28542e-01,5.34644e-02,
1.54906e-01,-6.95618e-01,-1.80419e-02,2.93456e-01,3.05520e-02,-2.21202e-01,-7.31927e-01,1.57478e-01,-5.55845e-01,-2.51530e-01,1.72152e-01,5.65242e-03,-1.43988e-01,2.05641e-01,1.25436e-01,-3.09043e-01,-4.03601e-01,-3.48366e-02,-1.31210e-01,-2.60872e-01,-1.86879e-03,1.10277e-01,1.15960e-01,-1.83552e-01,2.65728e-01,-1.33075e-01,-2.81411e-01,-1.71395e-01,2.38159e-01,1.91636e-01,-3.25606e-01,1.93641e-01,1.29377e-01,4.00322e-02,-1.54313e-01,-2.64633e-01,2.17884e-01,2.16289e-01,2.77538e-01,-9.00556e-03,2.48603e-01,7.53073e-02,-8.25975e-02,4.24107e-01,-6.55615e-02,
-1.70014e-01,2.89302e-01,-1.45693e-01,-8.50594e-02,-2.09050e-01,-3.67766e-01,-1.35694e-01,1.52766e-02,-1.38952e-01,-3.17584e-02,2.36662e-04,-8.46617e-02,-1.79729e-01,-1.63191e-01,-4.26350e-01,-3.70732e-01,1.38246e-01,-1.37584e-01,4.16149e-02,1.23621e-01,-2.76826e-01,-1.14479e-01,2.58709e-02,7.58214e-02,-1.47328e-01,-7.90469e-02,1.72556e-01,-2.13270e-01,-1.21883e-01,-2.38825e-01,3.81438e-03,-1.71990e-01,-1.92884e-01,2.65345e-01,-4.31150e-01,-9.76031e-02,1.59598e-01,-3.01995e-01,9.80940e-02,4.37635e-01,4.15251e-03,1.36912e-01,1.46004e-01,1.86769e-01,-2.52544e-01,
5.38505e-02,-2.21199e-01,-2.15333e-01,3.30682e-02,-2.40117e-01,6.39756e-02,-5.48029e-02,6.20469e-02,1.93032e-01,-2.02036e-01,-2.42264e-01,-1.21273e-01,-4.66401e-02,-1.60529e-01,4.08733e-02,1.56958e-01,-2.48010e-01,2.15497e-02,-2.01431e-01,-3.65366e-03,-8.02869e-02,2.14793e-01,1.67415e-01,-7.70122e-02,-6.53480e-02,-1.65003e-01,-2.00151e-01,2.53438e-01,9.82919e-02,-1.50832e-01,-5.76618e-02,-1.37070e-01,-1.12318e-01,9.31450e-02,-1.95559e-02,8.35505e-02,-2.62380e-01,-8.26201e-02,-7.90217e-02,-2.58293e-01,-1.89810e-01,-2.03845e-02,-1.46701e-01,2.00442e-01,3.71891e-02,
-3.74144e-02,-5.86529e-01,3.19272e-01,-1.62615e-01,-2.58133e-01,-1.26934e-01,-4.66999e-01,2.30882e-01,-4.84189e-02,-3.52397e-01,-1.71125e-01,3.23113e-01,-9.43599e-02,-5.25564e-02,3.55255e-01,9.03173e-02,-1.21554e-01,-2.04588e-01,9.95821e-02,-2.14529e-02,8.54766e-01,-6.22688e-03,-2.25611e-01,3.59242e-01,3.71454e-01,3.40873e-02,-7.27326e-02,6.60579e-02,1.63843e-01,1.36120e-01,-2.14471e-01,-1.53707e-01,-8.28099e-02,1.31106e-01,-1.20990e-01,9.68709e-02,1.08833e-01,1.12073e-02,2.20931e-01,2.77097e-01,-2.01042e-02,-1.30467e-01,-1.34294e-01,1.19210e-01,1.10850e-01,
-2.09055e-01,2.82619e-02,1.74468e-01,1.50093e-01,1.60503e-01,6.45251e-02,5.21699e-01,3.41824e-01,-4.56230e-01,4.12083e-02,2.98684e-02,7.15892e-03,4.28284e-01,-6.16996e-03,-2.81120e-02,1.11184e-01,-4.63698e-01,3.94142e-01,-1.36661e-01,1.99016e-01,-7.27686e-01,-4.76083e-01,1.33177e-01,-1.14687e-01,-2.97968e-02,1.89580e-01,4.86885e-02,-1.05563e-01,1.90889e-01,-6.40315e-02,8.71750e-02,-9.86166e-02,-8.62688e-03,1.01298e-01,5.22874e-01,1.28974e-01,-9.48079e-02,1.03335e-02,-2.51714e-01,-3.87553e-02,5.64664e-02,-1.32015e-01,9.18228e-02,-6.63092e-02,-1.37648e-01,
-6.15185e-03,-2.94470e-01,1.98114e-02,-6.25838e-02,1.44529e-01,-2.80765e-01,4.09553e-02,1.59986e-01,-3.33193e-01,-1.34388e-01,-1.11021e-02,-9.54456e-02,-8.87556e-02,-1.75889e-01,1.81420e-01,-6.69259e-02,-1.55063e-01,4.51671e-02,2.12510e-01,-4.70351e-02,3.14378e-01,-6.85064e-02,1.57868e-01,-1.06294e-01,2.37895e-01,-1.91163e-01,-1.18839e-01,-1.00535e-01,-2.45839e-02,-2.08255e-01,3.39053e-01,1.91488e-01,1.95186e-01,-3.19036e-01,5.59625e-01,-8.82871e-02,-3.48881e-01,-1.19322e-01,8.42300e-02,2.62441e-01,8.53070e-02,4.45253e-01,-1.57991e-01,1.68063e-01,1.07270e-01,
-6.95384e-02,6.65956e-02,1.99637e-01,1.75630e-01,1.03930e-01,1.02178e-01,-2.42150e-01,-9.78344e-03,-5.56083e-01,-2.01368e-02,-7.16386e-02,-2.85998e-01,-1.31066e-02,-5.09369e-02,2.14561e-01,-9.44650e-02,3.76061e-01,1.47254e-02,2.18384e-01,3.72201e-01,-4.11569e-01,3.44340e-01,-1.94399e-01,1.80967e-01,-2.54216e-01,1.83274e-01,2.06946e-01,-4.17642e-02,6.36698e-02,-6.31145e-01,4.67960e-02,-2.24941e-01,-1.26454e-01,1.41374e-01,-1.32279e-01,-2.85730e-02,2.54683e-02,1.89396e-01,-1.23546e-01,2.32549e-01,-1.27066e-02,-1.49509e-01,-1.05182e+00,2.11535e-01,-6.13081e-02,
-4.70302e-01,-3.10187e-01,1.14433e-01,3.04619e-02,2.66183e-02,-9.84738e-02,5.61525e-01,-2.06578e-01,-1.20948e+00,6.09881e-02,1.34863e-01,-1.41598e-01,1.87344e-01,-1.90085e+00,6.81393e-03,4.91266e-02,-6.15866e-01,-3.76144e-02,2.78855e-01,3.65637e-01,-3.75304e-01,4.22303e-01,-1.45861e-01,-1.27267e-01,3.22219e-02,-1.72578e-01,-2.27789e-02,1.70158e-01,-3.87171e-01,-1.05581e+00,1.28279e-02,-4.25920e-01,1.77986e-01,-3.92875e-02,5.25892e-02,2.32381e-01,2.70749e-01,-1.61081e-02,-3.26910e-01,9.73502e-02,2.24165e-03,-2.93521e-01,-1.46940e+00,3.49391e-01,1.58117e-02,
2.93361e-01,1.27170e-01,4.22314e-02,5.23306e-02,2.45498e-02,8.50014e-02,4.12270e-02,1.60288e-01,5.11334e-02,-1.80585e-01,2.98187e-01,3.18234e-02,6.14838e-02,-1.30714e-01,-2.19828e-02,-1.52200e-01,-5.64197e-02,2.51088e-01,-5.24819e-02,-3.27455e-01,-3.09383e-01,2.70829e-01,-6.03051e-02,1.82283e-01,-2.76079e-01,-2.50252e-02,-3.47064e-01,-5.84828e-03,-2.16384e-01,2.14111e-03,-4.41330e-03,-1.66670e-04,1.99812e-01,1.06408e-01,-1.60208e-01,1.27540e-01,3.44495e-01,-6.03247e-02,-2.20836e-02,1.90732e-01,-2.02164e-01,-9.19564e-03,3.89346e-02,1.87634e-01,1.25815e-01,
-2.42292e-01,1.62868e-01,2.78274e-01,4.88824e-03,-2.88546e-01,-1.46524e-01,2.94156e-01,1.04587e-01,-3.30761e-01,2.58220e-01,-5.75508e-01,2.52002e-01,5.65561e-01,-2.58804e-01,3.93038e-01,-2.27550e-01,3.96759e-03,2.95106e-01,-1.80639e-01,9.25868e-02,-1.00317e+00,-1.17235e-01,1.83370e-01,-2.32340e-02,5.80713e-02,-4.42554e-01,-1.15076e-01,-2.78062e-02,-8.33979e-02,2.42414e-01,4.51307e-02,5.48009e-02,3.88495e-01,2.79288e-01,3.05993e-01,-1.23204e-01,2.94458e-01,-1.76653e-01,1.15313e-01,1.09481e-01,-1.86694e-01,-8.93316e-02,2.91057e-01,4.17370e-01,-1.03918e-01,
1.22160e-01,2.49302e-01,4.73027e-03,3.33043e-01,2.83036e-01,7.00320e-02,3.85271e-01,-7.31052e-02,3.00946e-01,2.60009e-01,2.61103e-01,1.11682e-01,2.99985e-01,1.64745e-01,-6.40185e-01,-1.07282e-01,-5.87126e-01,2.26477e-01,1.72885e-01,3.41657e-02,-7.51302e-01,-1.73367e-01,-1.67796e-01,1.40330e-01,-2.06505e-01,2.15209e-01,8.48528e-02,-3.12672e-04,-1.37952e-01,-9.49633e-03,2.30908e-01,2.59927e-01,-2.17874e-01,1.07412e-01,-1.61171e-02,-7.03889e-02,-3.93883e-02,1.16017e-01,-1.89482e-01,1.82929e-01,1.05221e-01,6.50388e-02,2.54595e-02,7.26376e-02,4.13076e-01,
-4.44395e-02,-2.75555e-01,2.70963e-01,3.95583e-02,2.73444e-01,-3.33751e-02,3.60597e-01,-1.46054e-01,-5.56071e-01,-1.62525e-02,-3.01425e-01,8.09022e-02,-4.63022e-01,-1.82542e-01,-2.60034e-02,5.48357e-02,-2.45915e-01,-1.46831e-01,1.20106e-01,4.83041e-02,-1.94165e-01,3.37348e-02,1.31787e-01,6.21721e-03,1.17919e-01,1.23473e-01,3.02103e-02,-1.80418e-01,9.54148e-02,3.71512e-02,3.52022e-02,7.26808e-03,2.26738e-02,-7.68096e-02,1.53237e-01,1.42578e-01,2.33312e-01,-2.07905e-01,3.09686e-01,3.74977e-01,-1.69050e-01,1.34279e-02,4.83311e-02,4.13029e-01,-1.60982e-01,
-2.58575e-01,-1.86041e-01,-2.23880e-01,-2.29583e-02,-1.27851e-01,-1.33472e-01,-2.59758e-01,-9.51651e-02,-6.58002e-02,1.45621e-01,-1.51625e-01,-1.46208e-01,-8.25293e-02,-1.72617e-01,1.66232e-01,1.95152e-01,-2.05789e-01,-8.65382e-02,-9.96741e-02,-1.56254e-01,-2.39181e-02,1.97013e-01,9.61002e-02,5.24660e-02,2.32319e-02,-4.33619e-02,-2.03917e-01,5.65329e-02,5.34595e-02,-1.77826e-01,-7.36085e-02,-8.80852e-02,8.44172e-03,1.70084e-01,-2.20779e-01,-1.69346e-01,7.74175e-03,-9.84488e-03,-1.55198e-01,-8.69486e-02,-1.64209e-01,2.51718e-01,1.77733e-03,-9.38290e-02,2.18317e-02,
-6.37470e-03,3.16050e-01,-2.16725e-01,1.47816e-01,1.93132e-02,-4.29136e-02,-5.38640e-01,-8.31919e-02,1.29342e-01,-2.71060e-01,1.38973e-01,-6.53091e-02,1.83265e-01,-3.37994e-02,-1.02928e-01,-4.54094e-01,3.30275e-01,1.19312e-01,4.62281e-01,-1.14189e-01,-2.22380e-01,-6.30971e-01,-9.91556e-02,1.12414e-01,-1.47087e-01,1.05070e-02,3.87536e-02,1.30149e-01,5.18595e-02,2.05372e-01,-1.21209e-01,-1.34354e-01,6.46231e-02,3.84314e-02,-3.69563e-01,-1.09375e-02,1.22550e-01,2.42978e-01,-1.59050e-01,2.88054e-01,3.59214e-01,2.30115e-01,7.36083e-02,1.69004e-01,3.36269e-02,
7.39553e-02,1.33165e-01,2.15799e-01,-6.28784e-01,-4.88455e-01,-3.02313e-01,9.13172e-02,-4.88192e-03,-4.15449e-01,-2.02928e-01,-1.14944e-01,-3.70171e-02,4.55672e-01,1.35657e-01,-1.21969e-02,-2.20854e+00,-2.46804e-01,1.07962e-01,-1.16809e-01,1.50789e-01,-1.81362e-01,-7.45188e-01,-1.95598e-01,-6.54985e-02,1.37338e-01,1.39275e-01,2.34240e-01,-1.51508e-01,3.77445e-01,-3.72309e-02,2.01185e-01,5.58356e-02,-2.49527e-01,4.49091e-02,2.61924e-02,-4.62890e-01,2.46421e-02,2.49039e-01,-2.08688e-01,4.58990e-01,-4.99269e-01,2.72200e-01,-2.78657e-03,-2.13250e+00,-5.48889e-01,
-4.93776e-02,-5.84943e-01,5.66384e-02,-3.39306e-02,-6.37062e-02,4.61707e-02,-1.98437e+00,1.54260e-01,5.92483e-01,3.41783e-02,6.91045e-03,1.60552e-01,3.59540e-01,2.26108e-02,-1.48776e-01,4.76494e-02,-1.20044e-01,-4.81994e-01,1.95149e-02,-9.30459e-02,4.98198e-02,2.25806e-01,5.38490e-02,-6.04268e-02,-4.29483e-01,-6.57837e-01,-3.68571e-01,2.38043e-01,-1.76566e-01,-1.41724e-02,-7.48358e-02,-2.55665e-01,2.20586e-01,2.47523e-01,-1.47570e-01,2.50517e-01,-7.20779e-02,-3.98157e-01,-1.21524e-01,-8.85385e-02,-6.76684e-02,2.82682e-01,1.29146e-02,-3.50561e-01,1.51141e-01,
2.20985e-01,2.51718e-01,-1.50099e-01,2.02832e-01,1.54992e-01,-8.06602e-02,3.06314e-01,1.88467e-01,2.59844e-01,7.58765e-02,3.07464e-01,-1.37584e-02,-1.13657e-01,-1.56552e-01,-2.28698e-01,-3.26030e-01,1.68258e-01,1.68576e-01,-3.57113e-02,-4.52782e-02,-6.64545e-01,1.30798e-01,5.80278e-02,1.12548e-01,-2.29563e-01,3.90557e-01,3.27222e-03,-2.49155e-01,2.69038e-01,5.19831e-03,-7.17425e-03,-1.67992e-01,-1.18339e-01,2.61132e-01,5.88247e-02,-5.03081e-02,-3.64012e-01,2.05875e-01,2.36537e-02,8.06790e-01,-2.02300e-01,-1.44850e-01,-1.01140e-01,4.77459e-01,1.72598e-01,
3.63222e-01,3.89634e-03,-6.37633e-02,-7.21167e-03,-2.76307e-01,1.28897e-02,-1.62534e-01,2.09678e-01,1.26411e-01,1.89047e-01,-2.25840e-02,-3.41456e-01,-1.40979e-01,-1.00182e-01,-8.90337e-02,6.16996e-02,-5.04004e-02,-8.79035e-02,1.97460e-01,-4.23203e-01,9.38221e-02,-9.12110e-02,5.68767e-02,-8.16294e-02,1.70245e-01,-4.45019e-03,-8.28850e-03,2.18942e-02,6.58100e-03,1.93634e-01,-3.70577e-02,-2.36535e-01,1.17947e-01,-3.18055e-01,1.66489e-01,-1.58785e-01,-3.23784e-01,-1.19269e-01,-6.25904e-02,-1.60650e-01,8.24250e-02,1.91116e-01,-8.47408e-02,-1.68674e-01,-1.22858e-01,
1.31817e-01,-1.03555e-01,1.09166e-01,1.01943e-01,6.55934e-02,2.82718e-01,-9.36535e-02,7.69975e-02,-1.39360e-02,-2.58535e-01,-9.35238e-02,2.64634e-01,3.69741e-01,-9.60597e-02,3.15924e-01,-1.63863e-01,2.11729e-01,-3.29550e-02,2.67951e-01,6.05973e-02,2.58310e-01,3.58479e-01,-2.32150e-01,1.81394e-01,2.21988e-01,-1.95005e-01,4.05654e-02,-4.19079e-02,-1.87464e-02,1.26835e-01,-8.29839e-02,-5.70932e-03,-5.73889e-02,-8.15514e-02,-2.75398e-01,1.50687e-01,1.28224e-01,5.15758e-02,-4.20191e-02,-4.76103e-01,8.83317e-02,-1.17523e-01,-1.37472e-01,-4.51540e-01,8.85115e-02,
-2.74908e-01,-6.75327e-01,2.54699e-01,7.16357e-02,-1.13862e-01,2.00161e-02,-3.05422e+00,4.57020e-02,-2.08678e-01,1.20155e-01,-3.78426e-01,1.38904e-01,-1.05450e-01,-1.39304e-01,3.36329e-01,3.34773e-01,-7.31219e-02,-9.52687e-01,-4.86401e-02,1.24385e-01,1.09188e+00,2.08212e-01,-1.01432e-01,2.16571e-01,1.27610e-01,-1.47024e+00,1.51025e-01,2.22884e-01,8.27822e-03,1.51213e-01,-3.67029e-01,-3.08960e-01,1.47116e-01,1.74590e-01,3.16599e-01,7.86927e-02,-7.28009e-02,1.64181e-01,-2.67360e-02,8.36715e-03,-1.70319e-01,-5.12682e-02,-9.20003e-01,1.02722e-01,-1.84010e-02,
-6.04130e-02,5.74068e-01,3.15412e-01,8.37262e-03,1.34285e-01,1.28043e-01,-1.02728e-01,3.41492e-02,-9.62299e-02,2.07192e-01,9.03519e-02,2.43021e-01,-4.97585e-01,-2.92242e-02,-1.51444e-01,-6.87711e-02,-4.37724e-01,-1.33532e-01,-1.94890e-01,-1.40781e-01,-5.00623e-01,2.12059e-01,9.44264e-03,1.09819e-02,1.43357e-01,4.50121e-01,2.12813e-01,2.10860e-01,2.21173e-01,4.64024e-02,-1.16267e-02,1.35726e-01,-1.48067e-01,-7.72387e-02,5.13890e-02,-2.70706e-02,1.21963e-01,-2.47615e-01,-1.43280e-01,1.18526e-01,1.24078e-01,-1.52918e-01,-8.95598e-02,3.17349e-01,-1.77979e-02,
-1.12888e+00,-3.72198e-01,6.55288e-02,-3.43054e-01,1.22448e-01,-1.96357e-01,1.02229e-02,-1.98361e-02,-1.32641e-01,-3.71392e-02,-1.97614e-01,-5.16573e-02,-4.68960e-01,-1.49022e-01,7.85421e-02,-7.53129e-02,-2.20466e-01,1.55385e-02,4.12773e-02,4.15712e-01,1.96689e-01,1.55864e-01,-1.59326e-01,1.81303e-01,-2.88938e-01,3.89262e-02,-2.76052e-01,-2.49075e-02,-2.65089e-01,2.54631e-01,-1.89359e-01,-4.24526e-03,4.46533e-02,-1.03522e+00,1.05367e+00,-1.00634e-01,-1.82549e-01,-1.12315e-01,-3.36795e-01,-3.39643e-01,1.46115e-01,-4.40494e-01,2.25106e-01,-1.04171e-01,2.97495e-01,
2.19607e-02,-1.86519e-02,7.19621e-02,-2.88410e-01,3.60502e-02,4.49177e-02,-1.11872e+00,8.69567e-02,-2.27606e-01,-5.85606e-01,-7.79769e-01,2.48354e-01,-1.04285e-01,1.11431e-01,8.93327e-02,2.16560e-03,5.31026e-01,-1.51729e+00,1.80238e-01,1.22365e-03,1.00749e+00,-5.13292e-02,1.41959e-01,-1.35788e-01,-4.82089e-02,-7.03915e-01,-7.61930e-02,2.17485e-01,2.25157e-01,9.19857e-02,-1.14261e-01,8.16975e-02,-4.51310e-02,-2.53269e-03,-9.41444e-01,5.30450e-03,3.16346e-01,-6.53777e-02,1.25087e-01,-1.62372e-01,-9.38883e-02,-3.24752e-02,2.20892e-01,9.15674e-02,-3.95979e-02,
3.14730e-01,-2.80192e-01,6.34123e-02,-3.63596e-01,-7.00111e-03,2.15569e-01,-5.14518e-01,-1.47427e-01,1.89397e-01,4.73595e-02,2.10325e-02,2.67341e-01,5.99981e-02,9.65996e-02,2.11504e-01,-3.23500e-01,3.92513e-01,-3.20349e-01,3.50686e-01,-1.52433e-01,2.37372e-01,-2.67267e-01,1.39601e-01,1.53886e-01,2.28680e-01,7.45872e-02,1.97838e-01,8.46975e-02,-4.39831e-02,3.33594e-01,2.15664e-01,-2.08085e-01,2.14324e-01,-3.93965e-01,-1.67711e-01,2.01318e-01,4.08087e-01,1.31455e-01,1.38859e-01,-5.19563e-01,5.97991e-04,2.55866e-03,-1.64548e-01,-1.28612e-01,1.30597e-03,
1.08865e-02,
-8.73878e-02,
0.00000e+00,
-5.79084e-02,
1.39605e-01,
-1.88431e-02,
-3.67167e-02,
1.44968e-01,
-8.67980e-02,
1.42928e-01,
5.59797e-02,
-1.73415e-01,
-6.68262e-02,
1.66448e-02,
9.52275e-02,
-1.46212e-02,
2.19675e-01,
-2.11799e-03,
1.97377e-02,
-2.89096e-03,
2.83245e-02,
7.97362e-02,
-3.03056e-02,
-3.76472e-03,
-7.11073e-02,
1.16655e-02,
9.76004e-02,
-1.44671e-01,
-8.31106e-02,
1.63306e-02,
-1.00139e-01,
-3.15485e-02,
2.00903e-02,
-1.81747e-02,
1.10181e-01,
-1.15630e-01,
-3.37174e-02,
-1.13992e-02,
-1.68008e-02,
3.20995e-02,
-1.87826e-02,
5.89707e-03,
-5.42399e-01,
-3.73231e-02,
5.58302e-02,
2.95417e-01,2.63576e-01,-1.82171e-01,-4.88648e-02,-2.83286e-02,1.78315e-01,3.36088e-01,-1.54716e-01,7.90706e-02,1.09352e-01,2.50678e-02,-5.38149e-02,1.71893e-03,-2.08574e-01,1.35070e-01,-1.77709e-01,8.94127e-02,1.58953e-02,2.67092e-01,2.39976e-01,6.67697e-02,-6.67800e-02,1.61788e-01,-8.69812e-02,5.44718e-03,2.46221e-02,-2.69842e-02,-1.95636e-01,-1.06204e-01,1.94192e-01,-6.12187e-02,4.12867e-02,2.15657e-01,-1.15671e-01,-1.15714e-01,1.58803e-01,9.53831e-02,8.77118e-02,-1.46702e-01,2.24130e-01,-2.36986e-01,4.65968e-04,4.82866e-01,-2.09709e-01,2.05277e-01,
2.86806e-02,9.50037e-02,-3.63605e-02,-3.07091e-02,7.26399e-02,3.50630e-02,4.01701e-01,4.98434e-03,3.72076e-01,-1.89367e-01,1.99914e-01,5.44668e-01,1.50068e-01,-2.64993e-01,-2.93190e-01,2.36222e-02,-6.73016e-01,1.53212e-01,-3.00839e-02,3.42528e-01,2.81214e-02,-1.40877e-01,-6.15938e-02,-1.81048e-01,3.74267e-01,2.49041e-01,-1.70562e-01,-2.79888e-01,-6.60329e-01,5.22765e-01,-2.70109e-02,1.35475e-01,-6.24787e-01,1.93085e-01,1.90189e-01,1.52858e-01,-1.64528e-01,1.91718e-02,7.46640e-02,-1.27233e-01,-3.26711e-01,-1.69394e-01,-1.01311e+00,2.03677e-01,-2.44236e-01,
-1.35505e-01,-1.38198e-01,8.27454e-02,1.34691e-01,-3.53899e-01,2.05565e-01,-1.43393e-01,-2.62272e-02,-1.62641e-01,-2.02517e-02,1.43920e-01,1.70401e-01,-1.08988e-01,-9.73471e-02,-3.14509e-01,2.99055e-01,1.99681e-01,-3.25015e-01,3.82094e-02,2.17845e-01,3.43136e-01,-8.26062e-02,7.95701e-02,-8.62627e-02,-7.07917e-02,-2.01389e-01,1.57842e-01,2.60534e-01,1.27292e-01,5.75411e-02,7.07418e-03,1.80411e-01,-6.62664e-02,-1.69900e-01,2.68856e-01,-2.67510e-01,1.05602e-01,-1.31728e-01,3.25089e-01,7.81690e-02,-1.69488e-01,-1.16624e-01,3.92384e-01,-1.01145e-01,7.25246e-02,
1.30399e-01,1.34492e-01,-2.28866e-02,1.20690e-01,-2.28124e-01,-1.75370e-02,-1.21975e-01,-1.73765e-01,-1.47165e-01,1.50758e-01,-2.49241e-01,1.07172e-02,-5.32365e-02,1.53502e-01,-2.17154e-01,-8.14601e-02,1.05643e-01,-1.22599e-01,-1.20451e-01,2.36083e-01,2.50933e-01,3.55828e-02,-1.15983e-01,-6.48712e-02,-5.46619e-02,-2.27029e-01,-1.30248e-01,-2.25751e-01,7.01520e-03,-2.29586e-01,-2.40204e-01,-1.12556e-01,1.52228e-01,-1.05025e-01,-1.75327e-01,-1.49167e-02,1.99548e-01,-6.58327e-02,2.25591e-01,-2.15013e-01,-6.26927e-02,-2.30708e-01,1.11277e-01,-1.75805e-01,-7.45392e-02,
-9.00680e-02,-1.00824e-01,-1.70295e-01,-1.02757e-01,-1.16652e-02,-1.83438e-01,-1.12538e-01,-6.12134e-02,3.80762e-02,-1.89598e-02,-1.60781e-01,-1.55062e-01,-1.40300e-01,1.29692e-01,-6.65940e-02,-8.59944e-04,-5.54864e-02,-6.70165e-02,-2.49879e-03,-5.41715e-02,-2.39458e-01,6.30697e-02,1.88676e-01,-2.27088e-01,1.89065e-01,-1.57244e-01,-2.48507e-01,1.45541e-01,-1.91010e-01,3.03385e-02,4.42871e-02,6.77368e-02,5.99282e-02,1.07964e-01,-2.40996e-01,-1.49380e-01,-6.16697e-02,-1.36034e-02,-2.31951e-01,-2.95694e-02,-1.30731e-01,6.73487e-02,-6.56100e-03,6.50147e-03,4.40588e-02,
1.62817e-01,2.22462e-01,1.62756e-01,-8.16056e-02,9.05928e-02,-8.99660e-02,1.61466e-01,7.95109e-02,5.17977e-01,6.82664e-02,-1.46622e-02,-3.02252e-02,1.16652e-01,-3.98109e-03,1.03765e-02,2.15005e-01,1.08832e-01,-1.71519e-02,4.02981e-01,9.17382e-02,-9.87515e-02,2.37319e-01,-4.83881e-01,-9.99096e-02,1.43181e-02,-1.50205e-01,-1.52096e-01,-1.38099e-01,3.36728e-01,1.85770e-01,9.09725e-02,-9.41242e-02,1.93416e-01,-7.84927e-02,-2.00450e-01,2.05727e-01,-1.42175e-01,-4.61083e-02,4.84714e-02,1.44604e-01,-7.59507e-02,1.23393e-01,1.32295e+00,-3.95227e-02,-1.27819e-01,
8.67971e-02,9.09410e-02,5.66401e-02,2.86425e-01,1.69048e-01,-3.11329e-02,2.43570e-01,-1.71935e-02,-9.40182e-02,-1.80065e-01,4.82330e-02,1.86145e-01,1.79523e-01,-3.36757e-01,3.88161e-01,-6.35788e-02,-1.65997e-01,2.41966e-01,-1.00362e-02,-6.29036e-02,5.87425e-01,-3.23992e-01,-3.09548e-01,-2.03130e-01,-2.22493e-01,-1.25060e-01,-4.35463e-01,-1.60241e-01,-5.00145e-02,-1.36182e-01,-3.26505e-01,5.03646e-02,-2.08562e-01,3.56531e-02,-2.03872e-01,2.04020e-02,3.20633e-01,9.98036e-03,-6.31697e-02,2.13273e-01,-5.15679e-01,1.68754e-02,1.36364e+00,-1.94614e-01,1.69997e-01,
-9.18868e-02,-1.43096e-01,-2.45436e-01,1.15565e-01,-3.73484e-02,1.58635e-01,4.09915e-02,2.03633e-01,-1.91590e-02,-3.27223e-01,1.37803e-01,-2.67122e-01,-1.23806e-01,5.18572e-02,2.43873e-01,8.62806e-02,2.51010e-01,1.08519e-01,2.03083e-01,-2.00448e-01,-1.06737e-02,1.34490e-01,3.55276e-02,-1.29272e-01,-4.89312e-02,-5.99109e-01,-2.92339e-02,-3.03739e-02,2.47449e-01,5.06725e-01,-1.87173e-01,1.25336e-02,8.81654e-02,1.88365e-01,-4.23750e-01,-6.68289e-01,2.45194e-02,3.33991e-01,-5.35141e-02,3.47197e-01,-8.27657e-02,2.82788e-01,-3.07535e+00,-1.23778e-01,-2.13812e-01,
-7.26121e-01,-7.80820e-02,1.47620e-01,-8.79509e-02,-2.62856e-02,2.22050e-01,1.64151e-01,-5.34938e-01,3.56607e-02,1.87203e-01,-3.40161e-01,3.02529e-02,2.29030e-01,-7.70785e-02,6.73030e-01,-4.23526e-02,-1.04091e-01,-3.50767e-01,2.92393e-01,7.84308e-02,7.88050e-03,-1.64232e-01,-1.18768e-01,1.45264e-01,-1.90064e-01,3.84341e-01,-2.13455e-01,6.64052e-02,-7.31193e-02,2.00110e-01,-8.02187e-02,4.64739e-02,1.16529e-01,-3.34303e-02,-2.85583e-01,-9.09536e-02,-3.50868e-01,-2.94380e-01,9.06937e-02,2.91193e-01,-4.59325e-02,1.22237e-01,3.24175e-01,-7.73272e-01,1.96173e-01,
3.76509e-02,-2.33732e-01,-1.78719e-01,-1.30222e-01,1.83951e-02,4.19976e-02,-2.21130e-01,-4.28917e-02,-1.60226e-01,2.46828e-01,1.49172e-02,-2.47666e-01,2.01340e-01,-1.94810e-02,-5.92061e-02,2.01288e-01,-1.05673e-02,9.34205e-02,2.93442e-01,3.83982e-01,3.35556e-01,1.55732e-01,-2.63546e-01,-5.40602e-02,-4.06926e-01,2.10413e-01,-1.29822e-01,-2.32338e-02,1.84355e-01,2.56361e-01,-1.70263e-01,-1.67434e-01,2.71294e-01,7.04722e-02,2.27339e-02,2.30802e-01,-1.91954e-01,2.98908e-01,4.06626e-01,4.28369e-02,-4.21166e-01,1.09152e-01,6.39486e-01,-2.58528e-01,3.70160e-02,
-3.44026e-01,2.80032e-01,-1.51155e-01,-1.94122e-01,3.03327e-01,-7.20578e-04,1.45543e-01,-1.07811e-01,7.15115e-01,2.91644e-01,-1.01763e-02,-1.03019e-01,-2.54881e-02,-1.57172e-01,-5.45590e-02,-5.04734e-01,5.36819e-01,-1.20918e-01,-1.25936e-02,2.20232e-01,1.24681e-01,-1.17888e-02,-1.53924e-01,-2.24675e-01,-7.38085e-02,-5.54871e-02,-4.00232e-01,3.93356e-02,4.27628e-02,-1.10298e-01,-1.82869e-02,-3.84822e-01,-2.23136e-01,8.69677e-02,-2.00055e-01,-7.68055e-02,9.81314e-02,-2.80023e-01,-1.50854e-01,1.52961e-01,-5.45628e-01,1.73455e-01,-1.31421e+00,-5.78766e-01,1.32567e-01,
2.28660e-01,-4.68189e-01,-5.99070e-02,-4.25750e-01,-8.85355e-02,1.29788e-01,3.84912e-01,2.91572e-01,-3.48368e-01,2.25669e-01,-2.43073e-01,2.05462e-01,-1.38936e-01,-2.99663e-01,1.12922e-01,3.51762e-03,-1.56548e-01,-1.08569e-01,7.07965e-02,-2.04906e-02,2.70358e-01,2.84611e-01,-4.26396e-01,-2.17082e-01,2.81083e-03,-4.59210e-01,7.10054e-02,-1.82914e-01,-4.79983e-02,-4.56085e-02,6.93533e-01,1.20374e-01,-2.41379e-01,6.64374e-02,-5.25083e-02,-1.11128e+00,-4.65919e-01,8.43044e-02,-1.77969e-01,-5.12646e-02,-9.07202e-01,1.55011e-01,-9.60293e-01,-1.10915e+00,3.55521e-02,
-9.28984e-02,2.15496e-01,5.49638e-02,-2.76909e-01,4.88773e-02,-5.32363e-02,-4.92872e-02,-1.40089e-02,4.76392e-01,1.72562e-01,3.29755e-01,-2.77998e-01,-6.61786e-02,-1.72919e-01,2.73819e-02,-1.18476e-01,1.66216e-02,4.38374e-02,-7.70151e-02,1.62583e-01,6.38093e-02,3.71621e-01,-2.06698e-01,1.84029e-01,4.06465e-01,-3.10302e-01,3.98608e-02,5.12256e-01,-1.75867e-01,-1.56802e-01,-1.01590e-01,-3.04901e-01,1.24816e-01,-2.31997e-01,-3.31782e-02,-6.17291e-02,-1.85037e-01,-2.42537e-01,-1.45556e-01,-1.23907e-01,-2.65180e-01,1.52425e-01,1.24366e-01,2.12982e-01,1.70132e-01,
-1.12314e-01,9.75573e-02,-2.39974e-01,-2.87985e-01,1.62146e-01,1.69642e-01,1.28054e-01,-7.38566e-02,3.33616e-01,2.63994e-01,2.58742e-01,4.71795e-01,1.59591e-02,-3.18089e-01,8.96066e-03,8.69997e-02,-1.06127e-01,-9.54686e-01,5.87634e-02,4.05376e-02,2.67291e-01,6.09525e-02,-6.24497e-02,1.55366e-01,-3.34123e-01,3.35804e-01,-1.87781e-01,-7.35882e-01,-1.25294e+00,-1.11130e-01,7.99663e-02,5.20856e-02,-7.96910e-02,-1.92474e-01,2.34802e-01,-1.70682e-02,-1.25219e-01,1.32939e-01,-3.26968e-01,-2.95629e-01,-8.36375e-01,2.31080e-01,-1.63484e+00,9.23382e-02,7.34940e-02,
1.03975e-01,-7.08045e-02,1.13373e-01,1.88742e-01,-2.02150e-01,-2.60721e-01,-1.70204e-01,-2.85258e-01,-9.50504e-02,1.76072e-01,-2.84895e-01,7.17774e-02,1.12975e-01,2.02244e-01,-8.54545e-02,-1.15928e-01,-1.65777e-02,2.08375e-01,-1.61367e-01,-5.06403e-02,-7.75639e-02,1.19818e-01,-5.20255e-02,5.25860e-02,-1.64254e-02,-1.58818e-01,-2.00565e-02,-2.65464e-02,-7.78259e-02,-1.53464e-01,1.85092e-01,-5.21286e-02,-6.91623e-02,-2.24470e-01,-1.30542e-01,-1.12276e-01,1.12234e-01,-2.38284e-01,1.55201e-01,-4.90522e-02,1.07512e-01,-1.54554e-01,-1.28250e-01,5.59234e-02,-3.68768e-02,
-1.27086e-01,-1.74643e-01,-1.06301e-01,1.90679e-01,5.79359e-03,3.29966e-01,3.35397e-02,-3.54526e-01,-6.78608e-02,8.00706e-02,-3.38346e-01,-3.15481e-01,1.30072e-01,-1.76447e-01,3.91792e-01,-1.03097e-01,4.13167e-02,-2.61957e-02,2.92426e-01,2.25369e-01,-2.14545e-01,-7.66240e-02,1.05473e-01,2.46622e-01,-2.24793e-01,9.41667e-02,-8.32105e-02,-5.02398e-01,-2.46146e-01,-2.52842e-01,5.30509e-01,-3.64234e-03,4.58546e-02,1.68744e-01,-2.51147e-01,2.33550e-01,1.97856e-02,-1.09286e-01,2.60844e-02,8.30151e-02,-1.53725e-01,1.61034e-01,9.58897e-01,-4.74344e-01,2.03055e-01,
3.56483e-01,-1.05151e-01,2.27497e-02,-8.50789e-02,-4.92458e-03,1.83883e-01,-2.86551e-02,1.30519e-01,-1.08325e-01,-1.71674e-01,9.77441e-02,2.24178e-01,-1.54137e-01,-2.85756e-01,-2.50509e-01,-1.41077e-01,-1.14114e-02,-1.28638e-01,4.68758e-02,-2.86474e-02,-1.60065e-01,-1.25927e-01,6.30026e-02,4.55338e-02,-8.67863e-02,2.47036e-01,1.62062e-01,2.73471e-01,-3.89694e-01,-1.57671e-01,-9.04019e-04,-7.91695e-02,-7.76636e-02,8.05957e-02,9.56837e-02,-5.17298e-02,3.11298e-02,-9.34941e-02,1.06852e-01,1.95209e-01,-1.61268e-01,5.54955e-03,1.07452e+00,-2.74694e-01,2.09073e-01,
1.51247e-01,4.69843e-01,1.12549e-01,-2.60675e-01,-3.74164e-01,1.59640e-01,2.15518e-02,-1.21246e-01,-2.47021e-02,1.25434e-01,1.99049e-01,3.83975e-01,2.13694e-02,-1.44103e-01,-1.16005e-01,1.93845e-02,3.84747e-02,2.56481e-02,3.91324e-02,-2.27746e-01,5.71476e-04,4.01633e-02,4.95538e-01,-2.05882e-01,1.37576e-01,3.03728e-01,4.15263e-02,-7.08791e-02,6.32025e-01,-1.45874e-01,-2.14735e-01,1.86356e-02,8.37071e-03,-1.37232e-01,2.14295e-01,-2.02387e+00,-5.06565e-02,7.12724e-02,-3.11500e-01,1.71551e-01,5.53380e-02,-2.05622e-02,-6.02264e-01,-8.73545e-03,1.77683e-01,
1.93777e-02,-7.04705e-02,2.00505e-01,1.78945e-01,1.48461e-01,-1.26857e-01,-2.22585e-02,1.29254e-01,-1.01813e+00,9.54382e-02,-9.14386e-02,-1.24498e-01,-1.19521e-01,-7.70412e-02,1.03468e-01,-4.58147e-01,-1.92401e-01,-6.10418e-01,-1.43140e-01,-5.01590e-02,-3.80437e-01,8.51452e-02,-1.21907e-02,8.32630e-02,-5.64543e-01,7.86408e-02,-1.72513e-01,-1.82754e+00,-1.75946e+00,1.18669e-01,2.09370e-01,2.50473e-01,-1.25346e-01,6.38137e-02,6.27937e-02,3.75257e-01,-3.51299e-02,2.55420e-01,1.47371e-01,-1.17528e-02,-5.41532e-01,1.04604e-01,-1.59193e+00,8.47530e-02,1.10229e-01,
-2.32097e-02,-4.22714e-01,-1.64367e-01,8.76404e-02,-1.94597e-01,-2.19123e-01,-1.71668e-02,1.70023e-02,2.74235e-01,-3.50852e-02,1.57052e-01,1.27302e-01,1.06218e-01,-2.43673e-01,-2.46361e-01,2.08966e-01,-2.08588e-01,-6.70890e-03,2.87165e-01,2.46712e-01,1.34388e-01,-1.55617e-01,-2.73438e-01,-2.16666e-01,9.53485e-02,9.62930e-02,5.77188e-02,-1.97959e-01,2.57748e-01,-2.83845e-02,4.75543e-01,-3.82524e-03,1.64507e-01,2.41970e-01,-1.50926e-01,-4.45864e-02,6.74346e-02,2.36323e-01,-1.39080e-01,8.58237e-02,1.56863e-02,2.71480e-01,1.72935e+00,3.24588e-01,-1.36476e-01,
7.54337e-02,-6.15158e-01,9.80186e-03,-2.91429e-01,2.11477e-01,1.41407e-01,1.02843e-01,4.40629e-01,-5.15622e-01,-9.10064e-02,-1.68180e-01,-3.97987e-01,2.40332e-01,-1.06224e-01,2.94720e-01,2.31292e-02,-2.02620e-02,4.00428e-01,5.43523e-02,-2.59708e-01,2.54177e-01,3.35295e-03,-6.53784e-02,8.21800e-02,-4.50512e-01,1.43753e-01,-2.34867e-01,-2.11491e-01,-2.01530e-01,2.91636e-02,1.19185e-01,3.82478e-02,7.44593e-03,-2.22031e-01,-1.31638e-01,3.79787e-01,-6.88756e-02,-9.66705e-02,3.70262e-03,-1.28922e-01,-7.96020e-04,-1.99865e-02,-2.21672e+00,-9.69639e-03,3.09492e-01,
3.56576e-01,-3.58850e-01,-1.84543e-01,-8.33807e-02,-7.13475e-01,1.26940e-01,3.59714e-01,1.82143e-01,5.76884e-01,4.76755e-02,-4.26568e-01,8.70605e-02,1.55080e-01,5.73313e-02,-4.66877e-01,3.89443e-01,-6.30755e-01,-5.09792e-01,-1.95695e-01,-6.94792e-02,-3.31671e-01,-3.29549e-01,-7.45344e-01,2.44344e-01,-7.00064e-01,2.89710e-01,-8.73995e-02,2.66085e-01,-1.46174e-01,2.08200e-01,4.81838e-01,2.75787e-01,-1.57800e-01,-1.17419e-01,-2.41448e-01,2.32744e-02,3.31457e-01,1.16856e-01,1.56563e-01,-1.95017e-01,-9.16107e-01,3.36456e-01,-1.14574e+00,6.84616e-02,-2.79096e-01,
7.98796e-02,-2.03430e-01,1.82224e-01,-1.94724e-01,1.30310e-01,-1.30312e-01,1.54386e-01,-1.89883e-01,-4.85032e-01,3.59575e-01,-1.35206e-01,9.25525e-02,1.93286e-01,-1.14330e-01,3.44995e-01,2.73406e-01,2.77437e-01,-3.01185e-02,-1.55097e-01,2.69713e-01,-1.05719e-01,-2.08694e-01,1.35109e-01,-3.78939e-02,-3.82671e-01,1.79823e-01,-2.49973e-01,-1.89163e-01,2.05175e-01,1.73122e-01,-6.70180e-01,1.49834e-01,-7.44518e-02,4.57000e-02,-1.32019e-01,-4.01958e-02,-2.36341e-01,-8.00143e-02,-8.10099e-02,2.02682e-01,-3.88752e-01,2.08859e-01,1.65867e+00,-1.80386e-01,1.26510e-01,
3.84014e-01,1.02340e-01,1.56338e-01,-5.77463e-02,3.71543e-02,6.48426e-02,3.48373e-03,-3.24480e-01,-5.54996e-02,3.04535e-01,-4.94939e-02,-1.08936e-01,-6.70932e-02,1.10349e-01,2.36489e-01,5.00929e-01,2.53808e-01,7.34984e-02,-1.33048e-02,5.41163e-02,-5.89167e-02,-2.11151e-01,2.41876e-01,-6.80861e-02,-3.69533e-01,1.57733e-01,-3.40983e-01,-1.31114e-01,1.10458e-01,2.47370e-01,-8.75502e-01,2.11806e-01,-1.89366e-01,1.14236e-02,-1.82492e-01,-1.17223e-01,-4.61701e-01,-1.34001e-01,-8.13658e-02,1.34320e-01,-7.25018e-01,2.68181e-01,5.27515e-01,-6.58134e-01,2.93193e-01,
9.80406e-02,-2.02582e-01,-2.07540e-01,2.05793e-01,2.88865e-03,-9.14956e-02,2.10700e-01,-1.75866e-01,-3.90014e-01,-2.27927e-01,-6.41413e-02,-1.25612e-01,-1.29733e-01,4.93800e-01,-2.03902e-01,1.66224e-01,1.42717e-01,-1.19430e+00,4.96531e-02,-1.22403e-01,-3.06489e-01,1.44166e-01,-1.47236e-01,-1.54905e-01,-1.24715e-01,7.14696e-02,-1.31488e-01,-5.73898e-01,-6.28927e-01,2.43424e-01,-1.35897e-01,-1.72917e-01,9.75869e-02,-6.96680e-02,-8.79240e-02,1.64734e-01,3.70827e-01,3.18000e-01,-3.04783e-01,1.79194e-01,-9.02396e-01,4.28697e-02,-1.15020e+00,1.65345e-01,-1.37991e-01,
-9.44811e-02,-1.25196e-01,-1.21143e-01,-1.65335e-01,7.54728e-02,-1.08652e-01,1.90612e-01,-2.52902e-01,2.13828e-01,-1.12366e-02,1.83504e-03,-2.94489e-01,7.79611e-02,-3.03674e-01,-2.08144e-01,-7.43089e-02,-3.71902e-01,-3.39431e-01,8.64633e-02,3.99382e-02,-1.55599e-01,-1.58619e-02,-1.04292e-01,-9.36826e-02,4.22350e-01,2.34121e-01,1.91383e-01,1.19884e-01,-4.08664e-02,-2.33235e-01,3.43825e-01,1.50006e-02,1.50159e-01,2.60427e-01,3.38438e-01,5.58925e-02,-2.38508e-01,2.47750e-01,2.54407e-01,7.37370e-02,1.49523e-01,-2.44511e-01,8.26968e-01,2.83538e-01,-3.10173e-02,
4.43382e-02,-1.41664e-01,1.39634e-01,2.41906e-01,-8.73202e-02,-2.26318e-02,-4.23478e-02,-5.78640e-02,3.42004e-01,2.23186e-01,4.68811e-02,3.83329e-03,-1.52924e-01,1.28769e-01,1.91266e-02,3.71895e-03,-4.13258e-01,-6.95636e-02,1.38569e-01,2.71013e-01,6.67311e-02,-1.95300e-01,-8.34909e-07,-1.17755e-01,-6.16533e-02,-3.46265e-02,-6.87909e-02,-2.54258e-01,7.83540e-02,2.19703e-01,2.23687e-01,1.58752e-01,9.04989e-02,-2.05005e-01,-2.45874e-02,4.07504e-01,-1.43917e-01,3.40173e-01,7.90829e-02,-2.18771e-01,3.81112e-01,3.40838e-01,1.14034e-01,-4.06511e-02,1.71712e-01,
-6.92232e-02,2.30126e-01,-3.08149e-02,-1.85056e-01,1.53601e-01,-1.31923e-01,1.91984e-01,5.17633e-02,-5.88677e-02,1.64061e-01,3.03313e-01,-4.30339e-01,-1.92278e-01,-2.20046e-01,2.12163e-01,-3.46231e-02,4.13273e-01,-1.90258e-01,-2.17760e-02,6.48295e-03,3.34841e-01,-1.62971e-01,3.50644e-01,-2.30522e-03,-1.79317e-01,-1.94638e-01,2.15035e-01,-1.35288e-01,2.52346e-01,-4.62556e-02,-2.18284e-01,-1.25259e-01,-1.57321e-01,5.15481e-02,-1.79587e-02,-3.26324e+00,-1.07280e-01,7.52961e-02,1.31864e-01,1.30212e-01,1.56456e-01,-2.79348e-01,-1.92683e+00,1.54578e-01,-1.35122e-01,
7.68665e-02,-5.92788e-02,2.01549e-01,-9.40299e-02,-4.00181e-01,1.63968e-01,7.09440e-02,-7.82408e-02,-8.11988e-02,-2.18458e-01,2.67968e-01,1.05004e-01,1.05512e-01,-1.95150e-01,-5.19017e-03,1.27856e-01,4.83478e-01,2.64169e-02,3.19837e-01,-9.50485e-03,3.64879e-02,-1.20387e-01,2.00747e-01,3.31633e-02,-1.45704e-02,-1.92081e-01,-7.63422e-02,9.86918e-02,9.48425e-01,2.20162e-01,-2.49646e-01,8.97010e-02,2.22747e-02,4.18137e-02,7.67658e-02,-1.84608e-02,2.86528e-01,1.38114e-01,-3.40629e-02,4.92970e-02,8.84129e-02,-1.51683e-01,-1.72973e+00,-1.66159e-01,-1.18623e-01,
-1.57873e-01,-5.91230e-03,-7.78148e-02,2.41942e-01,-7.81256e-02,-1.23441e-01,1.61430e-01,-1.87597e-01,-4.48417e-01,1.25502e-01,2.11058e-01,4.62608e-02,-6.59334e-04,-1.26228e-01,-1.12335e-02,1.07715e-01,-3.56558e-02,4.72677e-01,-5.16612e-02,8.57454e-02,1.04205e-01,4.72049e-02,-1.32649e-03,-5.75245e-02,4.99390e-01,-1.14522e-01,-9.75237e-02,2.74935e-01,-2.72331e-01,-1.98843e-01,-2.16759e-01,-2.35695e-01,-1.46082e-01,1.36913e-01,8.79846e-02,4.79370e-01,1.72308e-01,3.86249e-01,-1.10149e-01,-3.94657e-02,-4.32048e-01,-7.94203e-02,-4.39089e-01,-1.13990e-01,2.18546e-01,
-2.75035e-01,2.38358e-01,4.40605e-02,-5.95667e-02,2.31219e-01,-4.25758e-01,6.20166e-02,4.11479e-01,2.03645e-01,2.09408e-01,-7.72162e-02,6.90240e-02,-1.75164e-01,9.33858e-02,-2.40460e-01,-5.30733e-02,-3.44210e-01,-4.34475e-01,1.14362e-01,1.74116e-01,4.66863e-01,2.20168e-01,2.12853e-01,-2.12104e-01,-2.22240e-01,-1.89171e-01,-1.21711e-01,-1.73321e-01,-6.42605e-01,-3.49166e-01,-3.78730e-01,-1.58328e-01,-6.41448e-01,-1.87963e-01,-8.52812e-02,1.69820e-01,4.31425e-01,2.67787e-01,1.07709e-01,-5.29118e-02,-8.00730e-01,2.46805e-01,-1.11903e+00,4.06460e-01,-3.37673e-01,
-5.32578e-02,-2.13599e-01,-8.90648e-02,5.87700e-02,-1.23609e-01,1.44482e-01,-2.68791e-01,-6.43213e-02,-2.65582e-02,-3.31935e-01,4.64589e-02,2.94993e-02,-1.14013e-01,1.27051e-01,-2.17763e-02,-4.10474e-02,-7.26642e-02,-1.12462e-01,1.05747e-02,4.23935e-02,-1.07664e-01,-1.19373e-02,-3.22971e-01,-6.45839e-03,1.65238e-01,-2.55573e-01,9.70729e-02,-1.30102e-01,3.56795e-01,8.61492e-02,2.94708e-01,1.75323e-01,7.67978e-02,-5.75969e-02,6.24028e-02,3.71872e-01,-8.04363e-02,1.83950e-01,-3.49360e-01,1.64173e-01,-1.76816e-01,-3.46144e-02,1.54774e+00,8.48044e-02,-6.62873e-02,
-2.85461e-01,-5.04608e-01,4.01594e-02,1.20043e-01,-2.99122e-01,1.81054e-01,8.89995e-02,4.21031e-02,1.52923e-01,-4.69740e-01,1.71330e-01,-2.33769e-01,-1.53565e-01,1.66559e-01,-1.99031e-01,7.00592e-02,-1.14399e-01,-1.18394e-01,-1.43384e-01,-2.63816e-02,4.58467e-01,3.38265e-01,9.18133e-02,1.77427e-01,2.13043e-01,3.78944e-02,1.56921e-01,1.39128e-01,-1.02555e-01,-8.64970e-02,3.07091e-01,-2.78462e-01,1.15979e-01,1.48392e-02,1.30415e-01,2.12651e-03,-2.84376e-02,-8.78446e-02,-1.70318e-02,-1.72003e-01,1.16372e-04,-1.18040e-01,-6.88237e-01,-3.96955e-02,-1.57491e-01,
