// Neural Network File Format by Kyle Julian, Stanford 2016
7,4,9,45,
4,45,45,45,45,45,45,9,
0,
-8000.0,-100.0,-100.0,0.0,
8000.0,100.0,100.0,40.0,
0.0,0.0,0.0,20.0,-0.4325993796315559,
16000.0,200.0,200.0,40.0,3.102300000999995,
2.43202e+00,1.56559e-01,-2.16168e-01,-1.19450e-01,
1.45252e-01,-9.32268e-01,9.61977e-04,1.76154e-03,
9.50830e-01,3.22514e-01,-1.83718e-01,1.32992e-01,
-1.63621e-01,-1.73961e-01,-9.01623e-02,7.89265e-02,
-4.80899e-01,-1.08554e-01,1.25661e-01,4.94036e-01,
-8.19261e-02,-1.28467e-01,8.43761e-02,1.52354e-01,
1.63207e+00,1.06228e-01,-6.20718e-02,-4.00027e-01,
1.73874e+00,-1.64546e-01,1.91075e-01,-2.50486e-01,
-7.63548e-01,-1.16158e-01,9.77527e-03,2.76284e-02,
8.39084e-02,1.27517e-01,1.04952e-01,-3.40623e-01,
3.65088e-01,-5.42011e-01,6.03596e-02,1.04919e-01,
-2.32054e+00,1.26602e-01,-1.34139e-01,-3.03694e-01,
-1.13682e+00,-3.68246e-01,1.44483e-01,-1.93645e-02,
-9.98081e-01,-3.33453e-01,3.74455e-01,6.19837e-02,
5.96016e-01,2.84284e-01,-1.31014e-01,-5.78583e-01,
1.48879e+00,-8.43877e-02,6.44831e-02,1.57692e-01,
1.66099e-02,1.05824e+00,-1.23113e-02,2.30485e-03,
8.33168e-03,8.58526e-02,-7.18584e-02,9.10817e-02,
-1.69392e-01,-5.12705e-02,-1.50769e-01,-1.57417e-02,
5.13278e-02,-6.11092e-01,-3.57418e-02,2.12970e-02,
1.04811e+00,-1.54719e-01,1.81298e-01,3.63335e-01,
-1.13005e-01,1.52836e-01,2.54184e-01,1.54605e-01,
2.14291e+00,-1.43765e-01,1.50820e-01,1.38506e-01,
-2.21689e+00,1.88637e-01,-1.80645e-01,3.13850e-01,
3.48828e+00,7.64029e-02,-8.21664e-02,-9.31948e-03,
-1.97642e+00,2.42735e-01,1.11737e-01,-3.18638e-02,
1.36608e-01,-7.68258e-01,-4.34697e-02,-3.00332e-03,
2.00847e-01,1.28139e-01,-3.46779e-02,1.22649e-01,
2.86859e-01,3.04312e-01,4.50477e-02,-2.65287e-03,
-7.45486e-01,2.23656e-01,-2.25092e-01,4.81738e-01,
-5.94197e+00,-5.55100e-03,6.21033e-03,-6.86511e-02,
9.86555e-01,1.23512e-01,-2.07004e-01,4.47992e-02,
8.04185e-01,-3.84899e-01,4.29172e-01,1.38349e-01,
-8.21751e-01,-6.16508e-02,6.08375e-02,-6.93327e-01,
2.37773e+00,-1.55321e-01,9.68185e-02,-4.68768e-01,
-6.24501e-03,-5.84606e-01,5.77859e-01,7.62183e-03,
6.00436e-02,-6.07666e-01,1.60519e-02,2.49541e-01,
1.32895e-02,7.07969e-01,-7.03972e-01,-1.80535e-03,
-5.90122e-01,-4.86600e-01,-4.97827e-03,6.12941e-03,
-7.61873e-01,3.63316e-02,-5.92116e-02,-7.38604e-01,
-1.36646e+00,-9.53279e-02,7.24862e-02,-5.32142e-01,
-1.75781e+00,-9.21568e-02,1.54168e-01,-2.24458e-01,
1.18315e+00,-4.42151e-01,3.12209e-01,-2.61301e-02,
9.35720e-02,-6.43559e-02,4.47850e-02,-3.67894e-01,
-9.76419e-01,-4.14914e-01,-2.11514e-01,4.69109e-02,
1.84108e-02,
1.23768e-01,
-3.98811e-02,
2.93060e-02,
2.19680e-01,
2.85490e-02,
-1.74063e-01,
-1.74891e-02,
3.66443e-02,
-1.02905e-01,
-2.43955e-02,
-6.12542e-02,
-2.55987e-02,
3.24791e-03,
-1.91528e-01,
-9.28796e-03,
-1.22338e-01,
2.43443e-02,
1.16262e-02,
8.21153e-02,
1.58679e-01,
9.67526e-03,
9.22772e-02,
1.69183e-01,
1.63620e-01,
3.35673e-02,
1.00297e-01,
-1.49238e-03,
-8.80685e-02,
2.02102e-01,
4.86715e-02,
4.23234e-02,
7.86660e-02,
-2.80800e-01,
-1.21563e-01,
-9.14301e-02,
-1.50067e-01,
-1.12293e-01,
-5.63608e-02,
-1.88950e-01,
-1.67305e-01,
-5.44692e-02,
-1.10037e-02,
-4.92834e-02,
-2.54542e-01,
2.87205e-01,1.77529e-01,7.52035e-02,-3.89198e-02,-3.40012e-01,-1.12715e-02,-5.64261e-01,-1.35445e-01,3.26127e-03,3.48842e-01,1.59894e-01,-9.56799e-02,1.75632e-01,1.32221e-01,5.82246e-02,-2.66289e-01,3.19477e-02,3.17536e-02,3.02912e-01,-1.99728e-01,4.28852e-02,-1.98442e-02,9.59461e-02,-3.99546e-01,7.09779e-01,-1.05408e-01,-5.11812e-02,1.21830e-01,-1.54671e-01,2.72346e-01,-2.40673e+00,-6.24461e-02,-5.87080e-02,-8.11491e-02,-3.55518e-01,2.88700e-01,7.64114e-03,1.51879e-01,-3.14642e-01,1.51995e-01,1.69088e-02,-3.17811e-01,1.50496e-01,2.97395e-01,-6.01441e-01,
-1.88534e-01,9.70736e-02,-2.35086e-02,-2.80042e-02,5.35075e-01,2.91184e-01,3.78440e-01,-1.83941e-02,1.05952e-01,-2.28478e-02,8.39875e-02,-6.02457e-01,-2.16925e-01,4.82367e-01,1.89077e-01,-4.15496e-01,6.10036e-02,-7.81163e-02,-1.90470e-01,-1.30213e-02,3.16625e-01,2.20650e-03,2.27835e-01,-7.36978e-01,5.51752e-01,-1.38754e-01,-1.48208e-01,-8.71495e-02,-2.73151e-01,-5.61827e-01,-9.51279e-01,-2.79480e-01,5.49415e-01,-5.54438e-01,2.25787e-01,2.65486e-02,-5.88354e-02,-1.42844e-01,3.34216e-01,-2.93379e-01,-5.13794e-01,-2.07073e-01,-5.74748e-02,2.08263e-02,-3.05513e-01,
1.30841e-01,-7.26724e-02,-3.01304e-01,-4.92045e-02,1.99186e-01,1.46868e-01,6.51380e-01,-2.95863e-01,8.46242e-02,3.02235e-01,4.76452e-01,6.85581e-01,-1.19035e-01,3.52734e-02,8.33198e-01,-1.81442e-01,-1.49736e-01,3.17700e-02,2.78146e-01,2.33566e-01,-3.11630e-01,-1.33372e-01,1.06848e-01,-2.10330e-01,-8.47329e-02,1.77406e-01,1.05908e-01,-3.79498e-01,-2.14896e-01,-2.66596e-01,3.08300e-02,-3.79471e-03,-1.72127e-01,5.02060e-01,-1.12070e-01,-2.50240e-01,9.10266e-01,3.92038e-01,2.34780e-01,4.63905e-01,-4.22848e-03,1.21975e-01,5.12581e-02,-4.90753e-02,1.00433e+00,
-8.31085e-02,-1.24291e-02,1.77547e-01,7.17543e-02,-4.67129e-01,-3.40062e-01,-3.30918e-01,-1.41057e-01,1.04838e-01,3.59230e-01,-5.58170e-02,-4.74967e-02,4.15998e-02,-3.60437e-01,-2.96776e-01,2.99773e-01,-3.21200e-02,3.73719e-01,1.56325e-01,1.70297e-01,-5.47791e-01,5.97093e-02,-6.33950e-01,3.79882e-01,-5.19171e-01,4.06411e-02,2.04872e-02,1.10932e-01,1.54615e-01,3.85980e-01,2.39050e-01,2.40526e-01,-3.17231e-01,6.68972e-01,-6.67026e-01,-1.68365e-01,-5.17742e-01,-1.45436e-01,1.17460e-01,2.05968e-01,4.20014e-01,3.66741e-01,-2.25079e-01,3.90532e-01,-3.99792e-01,
1.55433e-01,-4.98058e-01,6.03794e-03,-5.55419e-03,2.22203e-01,-8.41429e-02,-3.12008e-01,-1.97286e-01,-2.69089e-01,4.26015e-01,-8.53612e-01,1.00297e-02,-2.05619e-01,8.92013e-02,2.19624e-01,-3.02628e-01,6.11455e-01,7.55687e-02,2.92685e-02,-3.80065e-01,4.59535e-01,1.50345e-01,1.34223e-01,-2.12908e-01,3.94446e-01,1.00421e-01,-2.81433e-01,-1.92716e-01,-1.90854e-01,-2.27167e-02,1.45091e-01,2.78826e-01,-1.72703e-01,2.31699e-01,4.02785e-02,4.06382e-02,-7.42576e-01,-9.83026e-02,-2.99646e+00,1.41836e-01,5.36624e-01,1.41770e-01,-2.54886e-01,2.54054e-01,-2.46761e-01,
-4.84745e-02,1.45830e-01,-2.51835e-01,-1.16960e-01,1.86656e-01,-1.47423e-01,-1.83794e-01,1.42317e-01,-4.29033e-01,1.67713e-01,4.29390e-02,1.02239e-02,1.68276e-01,-2.46058e-01,2.34547e-01,-1.33392e-01,-4.93782e-02,4.45147e-01,-2.64181e-01,-2.28523e-01,-1.95488e-01,-3.70814e-03,-1.05659e-04,1.56314e-01,2.42197e-01,-1.48462e-01,1.20834e-01,9.89595e-02,-3.62687e-02,3.00334e-01,1.86817e-01,1.61242e-01,-2.06480e-01,-4.93973e-01,2.15137e-01,-1.87587e+00,1.70676e-01,-1.57143e+00,7.38133e-02,4.71664e-02,-1.74530e-01,-2.75830e-01,2.28712e-01,-4.39203e-02,7.27568e-01,
-4.05045e-01,-1.22067e-01,-4.61078e-02,2.10434e-01,1.93152e-01,2.35140e-01,-4.12957e-01,-8.20086e-02,3.11992e-01,1.81338e-01,1.69823e-01,6.21373e-02,3.47220e-01,1.50315e-01,3.71639e-02,-1.47474e-01,-1.98309e-01,-2.56915e-01,7.38486e-02,7.17518e-02,-2.11865e-02,-3.72606e-02,-5.04460e-01,4.67045e-01,-9.41245e-01,3.11368e-01,-1.14454e-01,9.81762e-02,4.26054e-02,-1.19669e-01,1.52390e+00,-2.01580e-01,-1.91673e-01,-1.36714e-01,-1.65188e-01,8.70198e-02,5.37081e-02,2.49545e-01,-3.88820e-02,2.06467e-01,2.78594e-02,-1.51095e-02,-1.88817e-01,8.70585e-02,-3.33095e-01,
-5.05548e-01,-2.84030e-01,-3.16258e-01,2.74748e-02,-8.35362e-02,-9.73400e-03,9.76429e-02,1.08664e-01,3.29433e-03,2.46412e-01,7.04635e-02,6.90874e-02,7.57549e-02,-2.15579e-01,2.91418e-03,-2.28738e-01,-2.11062e-01,5.44801e-02,-2.62428e-01,2.82970e-02,-6.27395e-02,7.37096e-02,-3.84096e-01,2.97172e-01,-2.10424e-01,2.84732e-01,-1.41925e-01,3.09172e-02,2.96642e-02,1.78923e-01,2.09883e-01,-1.58258e-01,-1.23436e-01,-8.13975e-01,-3.53933e-01,2.88914e-01,-1.93635e-02,8.48261e-02,3.64509e-02,-1.66163e-01,2.76699e-03,1.76071e-02,-8.00784e-02,2.65022e-01,1.39553e-01,
-1.00148e-01,1.76157e-01,3.89480e-01,-2.79339e-01,1.85812e-01,-8.74075e-02,-2.57924e-01,-1.47516e-01,-7.48385e-02,-2.07718e-01,-2.49058e-01,-5.08200e-01,7.98611e-02,1.33959e-01,-7.29117e-01,-2.10410e-01,8.35506e-02,-8.63063e-02,1.13140e-01,8.55116e-02,1.13434e-01,2.12907e-01,-1.09874e-01,1.69056e-01,-5.55321e-01,3.51249e-01,-2.81360e-03,2.86920e-01,-7.69454e-03,5.50001e-02,1.00741e+00,-2.68892e-01,1.15468e-01,-7.51410e-01,-3.91438e-01,1.34985e-02,-3.20011e-01,-4.25970e-01,1.08917e-01,-2.06847e-01,-4.75168e-01,1.04589e-01,-7.04141e-02,2.11915e-02,-1.22723e-01,
-1.08822e-01,7.23177e-01,-4.45552e-02,1.73170e-01,9.54802e-02,-1.46195e-01,-1.33154e-01,1.12517e-02,6.86563e-02,1.97812e-01,-3.53616e-02,2.53852e-01,1.29786e-01,-2.65415e-01,-7.38935e-02,2.96304e-01,-2.97211e-01,-3.66256e-02,2.52786e-01,6.07736e-01,-1.94438e-01,3.67855e-01,2.20952e-02,5.41782e-02,1.53878e-01,1.58018e-01,7.35501e-01,-1.06467e-01,-2.00109e-02,-1.28006e-01,3.24035e-02,1.99662e-01,9.23962e-02,-1.47582e-01,-8.88311e-02,-5.39929e-01,1.49380e-01,-2.55611e-01,1.90686e-01,-1.32343e-01,-3.41667e-01,4.60137e-01,-2.26296e-01,1.58755e-01,4.99392e-01,
1.19135e-01,5.37621e-01,1.17223e-01,-2.61352e-01,-5.66989e-01,-1.95813e-02,-4.40900e-01,-8.59523e-02,6.66164e-02,2.10882e-02,3.82904e-01,4.46018e-01,7.97747e-02,-3.54950e-01,3.22380e-01,3.54862e-01,-1.53981e-01,-2.17503e-01,2.00565e-02,1.03990e-01,-6.48708e-02,-3.24958e-01,-1.59893e-01,-4.52923e-01,-1.83592e-01,2.19935e-01,3.10555e-01,2.11360e-03,-6.93558e-02,-8.67538e-02,-8.74285e-02,2.09620e-01,2.69215e-01,4.56256e-02,-1.57160e-01,1.75341e-01,7.70886e-01,3.46031e-01,-3.13780e-02,3.91377e-01,1.37619e-01,-3.85905e-02,2.86448e-01,9.50022e-02,6.60771e-01,
-1.20947e-01,4.14947e-01,2.68385e-01,1.70834e-01,1.04282e-01,-1.87339e-02,4.78782e-01,-7.25331e-02,-3.32926e-02,1.86186e-01,1.09889e-01,-9.27975e-02,4.50242e-01,-5.09778e-02,-9.00403e-01,-3.38193e-01,1.52092e-01,4.27859e-01,1.01149e-01,1.35217e-01,-2.65470e-01,-1.83024e-01,1.13010e-01,7.71595e-02,-1.51906e-01,-2.49103e-01,4.23211e-01,3.16857e-01,1.85775e-01,-1.16313e-01,1.51192e-02,2.49217e-01,9.19508e-02,6.04090e-02,4.52991e-02,3.31711e-01,2.04687e-01,2.98733e-01,3.01962e-01,-4.73674e-02,2.69839e-01,3.20806e-02,2.97115e-03,1.44895e-01,1.48321e-01,
-2.09200e-02,2.69484e-01,-4.34233e-01,-1.06344e-01,2.34905e-01,-8.01345e-02,-4.57781e-01,-6.76858e-02,1.35499e-01,3.44504e-01,-1.64273e-01,-2.62823e-01,-4.50819e-03,-1.58749e-01,-2.34734e-01,-2.25325e-01,1.70706e-01,-1.32757e-01,-5.72396e-02,-6.21258e-02,4.59475e-02,-2.76332e-02,-3.62023e-01,1.22299e-01,-8.42997e-01,-2.50188e-01,-2.63173e-01,-1.62381e-01,-2.10147e-01,8.37203e-02,5.14920e-01,3.60834e-02,-1.28366e-01,-1.80855e-01,-1.12467e-02,-3.37279e-01,-6.20787e-02,-7.00530e-01,2.63197e-01,2.06264e-01,2.31649e-02,5.96210e-02,-4.68105e-02,1.10756e-01,-2.66930e-03,
2.39298e-01,2.15555e-01,1.72396e-01,-4.43223e-02,6.11628e-01,-4.29113e-01,1.47421e-01,2.24661e-01,-9.72703e-02,1.61520e-01,1.20888e-02,2.15118e-01,-1.09968e-01,-9.38746e-02,4.68423e-01,-2.30450e+00,-4.41672e-02,1.82561e-01,-8.00232e-02,1.62493e-02,3.43965e-01,-1.59015e-01,-4.10575e-01,-9.65908e-01,2.81471e-01,-1.85335e-01,-7.99922e-02,-1.85892e-01,-1.01319e-01,-8.23667e-01,-2.25073e-01,8.27407e-02,-7.35984e-01,4.46859e-01,7.26726e-01,6.05393e-02,4.56347e-04,1.84424e-01,-1.87714e-01,7.00789e-01,2.20230e-01,1.03229e-01,-2.82944e-01,4.44932e-01,-5.28737e-01,
-3.49778e-01,-2.09642e-01,1.78479e-01,-2.74283e-02,3.30763e-01,3.28171e-01,-3.55578e-01,2.01570e-01,1.40916e-01,-1.64710e-01,-4.72445e-01,1.34659e-01,-1.97334e-01,1.41051e-01,1.41588e-01,1.33003e-01,1.88401e-01,-4.27212e-01,3.18453e-01,1.44794e-01,1.13999e-01,1.86902e-01,1.50186e-01,-4.20755e-02,3.93104e-02,-2.86117e-01,9.54647e-02,2.51573e-01,2.18483e-01,2.50787e-02,-1.81612e-01,-3.56256e-01,8.92570e-02,4.88785e-01,1.44420e-01,3.30950e-01,-1.09413e+00,3.71054e-01,-1.23133e-01,6.85773e-01,2.22797e-01,-2.98987e-01,1.44064e-01,-1.03857e-01,-1.30097e+00,
-3.10141e-01,1.74367e-02,-1.18192e-01,1.35681e-01,3.39548e-01,4.48197e-03,-2.59591e-01,1.56281e-01,-3.88449e-02,3.53672e-01,3.17899e-01,-6.01698e-01,3.02781e-01,7.96928e-02,9.83951e-02,2.69292e-01,-1.93231e-01,-5.61960e-01,-1.79866e-02,1.32427e-01,-2.49956e-02,-1.90658e-02,5.62300e-02,1.17454e-01,-4.99332e-02,7.11410e-02,-2.34546e-01,-7.94258e-02,1.70777e-01,-2.79093e-01,-5.99785e-01,-1.10829e+00,4.60858e-01,-3.35568e-02,3.65562e-01,4.17780e-01,6.77491e-02,6.01579e-01,-9.29313e-02,9.66326e-02,-3.67648e-01,1.83238e-01,4.07393e-01,-1.97896e-01,7.22560e-01,
-1.88809e-02,9.67812e-02,-1.20737e-01,-6.82061e-02,-5.19925e-01,6.23531e-02,1.31195e-01,-5.54505e-01,1.76632e-01,1.04367e-01,1.34911e-01,-1.38593e-02,-8.68571e-02,-6.08818e-01,-8.36154e-02,-1.02286e-01,-5.31713e-02,-1.45773e-01,-1.32153e-01,-9.94266e-02,-4.12668e-01,-2.04032e-01,-3.42652e-01,4.56627e-01,-2.58281e-02,2.01347e-01,1.27465e-01,-4.28966e-01,-1.04755e-01,3.79547e-01,2.62191e-02,-1.10408e-01,-1.01890e+00,-1.57204e-01,-7.73652e-01,-4.78518e+00,7.72510e-02,-3.10868e-01,-2.29567e-01,-4.98729e-02,-3.49655e-01,-1.82336e-01,-9.25523e-01,2.04591e-02,2.94697e-01,
4.92486e-02,-2.44060e-02,2.77062e-01,7.11269e-02,-1.81226e-01,4.72725e-01,-4.99349e-02,5.35135e-01,4.48963e-02,3.90548e-01,1.96553e-01,-5.02150e-01,2.15933e-01,-2.33163e-01,-1.75536e-02,-4.22956e-01,-7.65104e-02,2.20704e-01,1.09141e-01,-3.21980e-03,-4.49522e-01,5.10076e-02,-2.70720e-01,-4.30970e-01,3.63725e-01,1.46412e-01,4.93371e-02,2.49283e-02,2.44578e-01,-3.23676e-01,-7.26406e-01,3.76389e-02,-1.68785e-01,2.27622e-01,3.25188e-01,-4.29910e-01,-5.88783e-01,1.09994e-03,6.60523e-02,-8.01874e-02,-9.76487e-02,6.52988e-02,-3.13914e-02,2.83888e-01,-1.83412e-01,
3.71904e-01,-8.43847e-02,-3.38847e-01,-1.88711e-01,3.81502e-01,8.65472e-02,1.94099e-01,3.73409e-01,-1.95512e-01,-6.09290e-02,2.39524e-01,-2.76961e-01,-2.09653e-01,-4.14409e-01,2.18473e-01,-9.89614e-01,2.19110e-02,-8.28815e-02,8.83058e-03,-7.21928e-02,5.76534e-01,-1.25206e-02,2.17154e-01,-7.27580e-01,-1.15134e-01,1.36652e-01,-7.25753e-02,8.74631e-02,-1.62444e-02,-5.50487e-01,-5.77234e-01,2.88090e-01,8.29523e-02,6.55706e-01,1.91412e-01,-2.64039e-01,1.06014e-01,-2.58257e-01,1.87606e-01,5.79944e-01,2.03123e-01,-8.40256e-04,-5.51000e-01,5.69031e-01,-1.23599e-01,
-1.73876e-01,-1.58519e-01,-2.51401e-01,-3.08044e-01,1.74566e-01,-1.37921e-01,-6.01199e-01,-6.99026e-02,1.80642e-01,-3.44545e-01,2.31828e-02,-4.59380e-01,1.97753e-01,3.37786e-01,-5.73733e-01,-8.70493e-01,-2.50292e-01,-3.62352e-01,-3.74683e-01,-9.54827e-03,2.84015e-01,3.75483e-01,3.06015e-01,-1.93486e-01,-3.36818e-01,1.00820e-01,1.94245e-01,-2.97514e-04,1.35377e-01,-3.30792e-01,3.42591e-01,-2.86642e-01,2.50660e-01,-2.67197e-01,-3.95390e-01,2.80838e-01,6.23209e-02,-8.75726e+00,5.47849e-02,-2.98555e-01,-2.01911e-01,-2.87351e-02,-1.75583e-01,-1.20210e-01,4.08090e-01,
9.49784e-02,8.46226e-02,1.03839e-01,2.73338e-01,2.75193e-01,-2.76677e-01,3.96064e-01,-2.10606e-01,-9.03759e-01,3.26360e-01,2.00649e-01,-1.85784e-01,-1.35453e+00,-2.12673e-01,4.65323e-02,2.18429e-01,5.50296e-02,5.46273e-01,2.54295e-01,-1.14732e-01,-9.99508e-02,2.99911e-01,4.86026e-03,-2.53451e-01,1.26888e-01,2.95420e-02,3.91271e-01,-8.11385e-02,-1.93250e-01,7.87804e-02,2.32411e-01,2.29374e-01,-6.44474e-01,-3.48152e-01,1.65425e-01,-2.32038e+00,-2.73248e-03,-3.32993e-01,-3.11824e-01,3.34494e-01,-7.41989e-01,-8.45423e-01,-1.20499e+00,-1.50240e-01,-6.44198e-01,
-1.35411e-01,5.05867e-02,-1.22298e-01,-2.22983e-01,-1.11369e-01,-1.38818e-01,2.45309e-01,8.06016e-02,-1.40207e-01,-1.17298e-01,-1.47131e-01,-1.67598e-01,1.59320e-01,-1.29193e-01,-1.36790e-01,-1.53728e-01,-2.84318e-02,1.06896e-01,4.75175e-02,7.57065e-02,-2.39634e-01,-1.32854e-01,6.50543e-02,-2.40244e-01,1.08544e-02,6.38700e-02,1.17158e-01,-4.55832e-02,-1.87738e-01,1.90229e-01,-9.95917e-02,-7.98323e-02,-1.57624e-01,-2.62097e-01,-4.54014e-02,2.38358e-02,-7.39706e-02,-7.37500e-03,1.83619e-02,-1.83859e-01,-2.06957e-01,1.11622e-01,9.79597e-02,-5.79848e-02,-3.59207e-02,
1.40196e-01,-1.67181e-01,-5.67173e-01,-4.70842e-01,3.01742e-01,5.26421e-02,4.06323e-02,-7.66406e-03,1.44613e-01,4.41267e-03,-4.48942e-01,-4.90914e-01,-3.94649e-01,3.59743e-01,3.63089e-01,-1.84716e-01,2.22640e-01,-3.49225e-01,-2.60087e-01,-6.14391e-02,-1.42269e-01,2.08453e-01,-9.88707e-02,2.07980e-02,2.23172e-01,1.86827e-01,-8.63658e-02,2.21868e-02,-1.34948e-01,-2.54715e-01,-4.59816e-01,-4.69349e-01,2.66041e-01,-3.56873e-01,3.37061e-01,-3.16836e-01,-5.95257e-01,-3.26428e-01,-1.08726e+00,-2.13476e-01,-4.04575e-01,-9.22547e-02,-6.74767e-03,8.48888e-02,8.01339e-01,
-6.93349e-02,-4.29255e-01,-3.28258e-01,1.86890e-01,1.20460e-01,-1.67859e-01,1.34585e-01,-1.06661e-01,1.21633e-01,-3.95956e-01,2.20340e-01,1.60733e-01,1.94351e-01,-3.09443e-01,-3.12364e-01,1.70273e-01,-5.33786e-02,-6.02687e-02,1.57325e-01,-3.36212e-01,3.01572e-01,2.16575e-01,4.41728e-04,-2.16517e-01,4.74927e-01,1.34690e-01,-1.91326e-01,1.56488e-01,3.22078e-01,-1.48801e-01,-1.75694e-02,2.06463e-01,-9.66795e-02,6.70738e-02,-4.35264e-01,-7.53358e-02,6.48077e-02,-1.51128e-01,4.72695e-02,-4.01596e-01,9.45913e-02,-5.62761e-02,-2.35108e-02,-4.09994e-01,-6.41472e-02,
1.86232e-01,1.03921e+00,-2.83512e-01,1.25170e-01,-3.98094e-03,3.03110e-01,-8.09931e-02,-6.52604e-02,1.96645e-01,6.47283e-02,8.93608e-04,-7.38171e-02,2.04551e-01,8.28519e-02,-6.37230e-02,-2.98554e-01,-2.18811e+00,-2.97797e-02,3.14021e-03,4.82078e-01,2.03410e-02,-1.16730e-02,-3.03751e-01,-7.73188e-02,3.66147e-01,5.15028e-02,7.58253e-01,-2.38820e-01,-4.63400e-01,2.93812e-01,-7.80192e-02,-8.88322e-02,1.33025e-01,5.82788e-02,2.46378e-02,2.81984e-02,9.75630e-03,-7.33272e-02,7.35177e-01,1.64603e-01,1.54780e-01,3.60847e-02,1.92831e-01,-1.43093e-01,-8.23012e-02,
5.92103e-04,-6.49013e-02,2.60922e-02,1.04112e-01,1.17563e-01,-1.64656e-01,-1.06080e-01,1.92549e-01,8.69143e-02,1.33069e-01,-9.08494e-02,-8.44565e-01,1.06562e-01,-3.36035e-02,-4.08444e-01,-4.26585e-01,-3.02348e-01,-2.03559e-01,3.84410e-01,-7.90532e-02,2.56996e-01,9.03757e-02,2.49013e-01,-8.45194e-02,4.10925e-01,7.49752e-02,2.43836e-01,-1.74561e-01,4.15840e-01,-9.12499e-02,-4.67665e-01,-4.06814e-01,1.98157e-02,-5.63336e-01,-1.17114e-01,-1.28563e-01,-3.94617e-01,-4.71314e-01,-3.50105e-02,-4.38485e-01,1.53950e-02,2.36482e-01,-2.31606e-01,4.46996e-02,-7.83283e-01,
-2.31583e-01,3.86190e-02,-1.70707e-02,-1.03316e-01,9.89728e-02,7.80531e-02,1.26293e-01,1.46563e-01,3.29675e-01,-9.40358e-02,-1.52946e-01,3.46338e-01,9.28785e-02,-1.83244e-01,3.54991e-01,-8.22260e-02,-1.53665e-01,-1.58756e-02,3.44989e-02,-3.00300e-03,-1.05619e-01,-3.31361e-01,-3.19029e-01,3.68026e-03,3.24780e-01,3.80647e-02,-7.78135e-02,2.82673e-01,-1.54777e-01,-1.17249e-01,-1.64664e-01,8.08700e-02,7.11512e-02,-3.19935e-01,-1.71833e-01,-1.67397e-01,-6.54940e-02,-3.42576e-01,1.70793e-02,2.32994e-01,2.29840e-01,1.73264e-01,-2.05590e-01,2.51273e-01,-2.68434e-01,
-1.66238e-03,1.05423e-02,1.59192e-01,1.16498e-01,1.97201e-01,-3.89176e-01,-5.62382e-02,4.23611e-01,1.72856e-03,3.70764e-01,1.62684e-01,1.34811e-01,1.16431e-01,1.21035e-01,2.23599e-01,-2.44321e-01,1.37815e-01,3.10014e-01,2.77454e-01,-7.55737e-02,1.37407e-01,-1.02406e-01,-1.70441e-01,-1.97704e-02,-2.83985e-01,-7.08720e-02,2.02439e-01,6.21802e-02,-2.25702e-02,1.71943e-01,5.12156e-01,-2.22047e-02,1.37575e-01,-1.21058e-01,2.70274e-01,3.03941e-01,9.49604e-02,1.93395e-01,1.83862e-02,3.93191e-01,1.82892e-01,9.59958e-02,1.12016e-01,9.15234e-02,-3.85493e-02,
1.00281e-01,-1.10909e-01,1.65190e-01,5.68861e-02,1.88009e-01,-9.66500e-02,3.18320e-02,-2.66597e-01,1.01531e-01,2.08786e-01,-8.35774e-02,-4.78985e-01,1.77262e-01,-2.47204e-01,-2.47071e-01,-2.99534e-01,2.72427e-01,-2.53250e-01,9.67064e-02,2.66705e-01,-5.51492e-02,-2.56583e-01,2.05946e-01,-4.94902e-02,5.25264e-01,-1.68000e-01,2.97814e-01,1.21655e-01,4.38565e-02,1.16659e-01,-1.80231e+00,1.75372e-01,-1.60341e-01,-4.09601e-02,-9.72086e-02,-1.73089e-01,-8.05011e-02,-2.84849e-01,2.10309e-01,2.21569e-01,-1.44617e-01,-2.29984e-01,-1.47979e-02,-1.81744e-01,-1.57761e-01,
-5.25927e-02,-7.07848e-01,-1.84436e-01,-4.10765e-01,-2.89233e-02,3.89158e-02,-2.48250e-01,1.87220e-02,-2.71265e-01,1.21505e-01,-6.31131e-01,2.29084e-01,-4.89721e-01,-8.68405e-02,1.07636e-01,-1.08794e-01,-8.92580e-01,1.86221e-01,-4.52449e-03,-6.57060e-01,3.12736e-01,3.61030e-01,2.52782e-02,-2.61939e-02,4.08105e-01,2.95789e-01,-5.11779e-01,2.12174e-01,-7.78969e-02,9.97363e-02,2.05228e-01,3.49785e-01,3.26940e-01,-8.40766e-02,6.07979e-02,-2.87536e-01,-2.51549e-01,-3.29245e-01,-5.15786e-01,-3.85744e-02,-1.18181e-01,2.76556e-02,-9.49310e-02,-4.44550e-02,5.59168e-01,
6.32156e-02,1.69827e-01,8.64086e-02,-1.88403e-02,-5.02242e-01,-2.85649e-01,-3.43546e-01,-1.90420e-01,-4.05333e-02,2.39324e-01,-1.78311e-01,-1.16603e-01,-1.14543e-01,1.67765e-01,-1.44669e-01,-2.09221e-01,1.76880e-01,1.63499e-01,3.83397e-01,1.28249e-01,-2.22209e-01,1.72511e-01,-1.88840e-02,-1.22239e-02,-2.39053e-01,1.17501e-01,2.01949e-01,2.73247e-01,2.15747e-02,3.78510e-01,-1.68982e-01,2.01779e-02,-1.59559e-01,4.72546e-01,-6.13521e-01,-3.05214e-01,5.15772e-02,2.32031e-01,-1.99043e-01,-5.65760e-01,3.27933e-03,2.07393e-01,-9.02384e-01,-6.70757e-03,4.66812e-01,
-6.68149e-02,4.25703e-01,-2.61383e-01,1.16351e-01,1.63613e-01,3.34990e-01,-1.74045e-01,4.42868e-02,1.22316e-01,-9.30471e-02,-2.79124e-03,1.91630e-01,1.94840e-01,1.55852e-02,-7.76678e-02,8.51438e-02,-9.58645e-02,-4.22368e-02,4.59466e-02,3.97221e-01,-1.35653e-01,8.69655e-02,8.44374e-02,8.62535e-02,4.12470e-01,-1.44558e-01,1.25760e-01,3.92969e-02,8.40449e-02,-1.05591e-01,-1.50926e-01,3.97731e-03,-4.61382e-01,-1.11137e-01,7.50179e-02,1.18700e-01,-2.83355e-01,-1.28923e-01,4.86054e-01,1.49871e-01,1.98631e-01,-1.92164e-01,-1.04511e-01,-1.34473e-01,-1.98458e-02,
3.78232e-01,-4.45079e-01,5.67860e-02,6.77208e-01,-4.38439e-02,6.98613e-01,7.91357e-02,1.26585e-01,8.07698e-02,2.57664e-01,-8.86093e-02,-3.33738e-01,5.27562e-01,1.29029e-01,2.10101e-01,-4.24653e-01,9.07987e-02,-1.33984e-01,5.03281e-01,8.60317e-03,-2.69857e-01,3.54764e-01,-1.77288e-01,1.41711e-01,2.87644e-01,-7.45031e-02,-5.10728e-02,-2.35741e-01,-5.17504e-02,-2.07699e-01,-3.38663e-01,2.34365e-01,2.80693e-01,-3.54073e-02,-4.73781e-01,1.58581e-01,-1.26372e+00,-1.51195e-01,-1.69837e-01,2.23170e-01,4.30640e-01,2.86458e-01,-6.38313e-02,3.98820e-01,9.60447e-01,
-8.14915e-02,-3.49710e-02,-7.74084e-02,1.71840e-01,6.77227e-02,2.93522e-01,-1.27315e-01,2.92057e-01,-1.62779e-01,1.73546e-01,-1.87411e-01,-1.30942e-01,-3.89904e-02,2.18032e-02,1.74818e-01,2.72773e-01,4.06984e-02,-2.94171e-01,-7.60535e-02,9.88275e-02,1.60108e-01,6.24917e-01,-2.12162e-01,-2.18248e-02,1.98696e-01,1.46945e-01,-5.26851e-03,7.29122e-02,3.54223e-02,-5.47759e-01,-1.62323e-01,-4.21866e-01,-1.76119e-01,-5.10234e-01,1.51663e-01,2.19967e-01,-2.54752e-01,8.58666e-02,2.28304e-01,5.03676e-01,5.66893e-01,1.01042e-01,-2.90530e-01,2.70473e-01,-2.96910e-01,
-4.93499e-01,8.09494e-02,-3.92951e-01,1.93211e-01,-6.15282e-02,7.93796e-02,5.45348e-01,1.94509e-01,2.06770e-01,-1.13717e-02,-4.66224e-02,-1.33754e-01,-8.46415e-01,-6.65904e-01,2.96405e-01,-2.06713e-01,-1.40447e-01,-1.51501e-01,-1.55434e-01,-1.33299e-01,6.21672e-02,3.49855e-01,2.78134e-01,2.23488e-01,-4.55745e-01,-4.00738e-01,-6.27928e-02,2.35169e-01,2.11405e-01,1.36978e-01,-1.90419e-02,-1.97704e-03,-3.40371e-01,-4.14103e-01,3.78049e-01,-1.42258e+00,-2.98369e-01,-2.07690e+00,3.43004e-01,-4.56161e-01,-6.05875e-01,-7.23415e-01,-4.14827e-01,-1.23441e-01,-6.45929e-01,
3.76177e-01,-1.56085e-01,4.88954e-01,4.99524e-01,1.57024e-01,3.58398e-01,5.23796e-01,4.52517e-01,-2.09241e-01,3.12166e-01,3.68763e-01,-1.36661e-01,6.36339e-02,2.10861e-01,2.75659e-01,-2.74628e-01,-4.19549e-04,4.36026e-01,-4.04523e-03,1.74201e-01,1.05310e-01,-4.71223e-02,-1.28764e-01,5.01382e-02,-1.21121e-01,3.27606e-02,7.81091e-02,2.72559e-01,1.25184e-01,-2.39462e-01,2.32831e-01,-1.98224e-02,-1.77997e-01,1.06384e-01,-2.60126e-01,-7.90493e-01,4.27138e-01,-3.82611e-01,4.20487e-02,8.75602e-02,-8.97161e-01,5.22050e-01,-7.98770e-01,3.71723e-01,-1.17079e-01,
-4.10465e-01,1.02776e-01,5.12676e-01,-7.34931e-02,-1.36122e+00,-1.91134e-01,4.60080e-01,3.58782e-01,-1.97528e-02,1.89683e-01,-3.95609e-02,-9.61877e-02,2.77150e-01,1.47967e-01,-8.78045e-02,-5.27347e+00,-1.88337e-01,8.38620e-01,-6.97294e-02,-1.69102e-01,-8.06088e-01,3.40989e-01,-8.02900e-01,-6.84896e-01,-4.61725e-01,-1.63059e-01,-1.34585e-01,-1.16315e-01,4.04001e-01,-5.56323e-01,4.61558e-02,-1.01829e+00,2.29226e-01,9.13855e-01,5.07320e-01,4.89541e-02,-2.24539e-01,9.11667e-01,2.16154e-01,4.84315e-01,4.21896e-01,4.81220e-01,2.01257e-01,3.70222e-01,-4.54818e+00,
-4.35264e-01,-1.75511e-01,6.05461e-02,-1.08282e-01,-7.58248e-01,-5.05691e-01,-4.69749e-01,3.02915e-01,-1.53084e-01,8.30503e-02,5.17451e-02,3.93537e-01,9.20135e-02,1.87514e-01,-1.43095e-01,1.04332e+00,-1.82694e-02,2.23268e-01,1.30389e-01,1.13510e-01,-4.91238e-01,-2.79776e-01,-6.39161e-01,7.13473e-01,-3.04817e-01,2.08113e-01,1.87598e-01,-9.89303e-02,-1.12855e-01,4.69997e-01,3.41363e-01,2.48627e-01,-5.61132e-01,6.40981e-01,-4.35465e-02,3.67584e-02,-2.95662e-02,-2.38337e-01,-9.44743e-02,5.33694e-01,5.15985e-01,2.18226e-01,-2.32777e-01,3.04885e-01,1.36676e-01,
-1.41392e-01,-1.86603e-01,-1.44842e-01,9.41106e-02,1.28464e-01,-2.23967e-01,7.70082e-02,-3.59962e-01,7.84392e-02,-1.85871e-01,-2.73162e-01,-3.61310e-01,3.17387e-01,-2.67770e-02,-1.74715e-01,-7.02565e-01,4.21577e-01,4.94287e-02,9.43438e-02,-3.87591e-02,-2.47594e-01,8.92706e-02,2.28861e-01,-1.51762e-01,3.89673e-01,-4.11538e-01,8.92572e-02,1.17317e-01,2.65377e-01,7.49881e-02,1.69899e-01,8.08650e-02,1.69092e-01,-7.49349e-01,-9.16581e-02,-1.73688e-01,-8.19091e-02,-7.40447e-01,1.63950e-01,-2.98524e-01,-2.22626e-01,-3.66667e-01,5.01769e-01,-1.29425e-01,-3.78972e-01,
5.63694e-02,1.03745e-01,1.62434e-01,3.89199e-03,-3.44324e-02,-4.69228e-02,4.29054e-01,1.26606e-01,4.22083e-01,3.61955e-01,4.23098e-01,-3.69846e-02,3.42456e-01,2.39374e-01,1.31996e-02,3.45553e-01,4.26579e-01,-7.35020e-02,1.31310e-01,4.47315e-01,-1.61887e-01,7.17444e-02,-6.26494e-02,-1.36099e-01,1.83828e-02,-1.71203e-01,3.15637e-01,3.82237e-02,6.57861e-01,7.96463e-02,-6.59307e-03,-1.07337e-01,-3.60209e-01,-4.82072e-01,-3.79839e-01,1.67516e-01,5.24079e-02,-4.28844e-01,4.27762e-01,-3.11750e-01,1.07793e-01,2.67033e-02,7.17833e-02,-6.69998e-02,-7.57125e-04,
-8.93231e-02,9.96442e-02,-2.04214e-01,-3.22158e-01,-1.32360e-01,2.41879e-02,-3.31006e-01,1.30282e-01,7.55338e-02,-1.68317e-01,3.00256e-01,4.51958e-01,-3.18897e-01,-5.43589e-01,2.93389e-01,6.74883e-01,1.88373e-03,-3.36374e-01,7.61613e-02,5.20248e-03,4.38877e-02,-1.93171e-01,-2.10260e-01,6.70317e-02,-1.26801e-02,2.72743e-01,3.69226e-02,-8.71791e-02,-5.94277e-02,4.08175e-03,6.13225e-02,1.98028e-01,1.58491e-01,-4.12228e-02,-2.24695e-01,-9.32926e-01,3.62713e-01,-3.22315e-01,-6.22755e-02,3.33419e-01,2.78165e-01,-2.23962e-01,7.38260e-02,1.19485e-01,-5.95325e-01,
6.51099e-02,5.24927e-02,3.47320e-01,-3.59466e-01,-2.97193e-01,-1.93592e-01,1.02247e-01,-1.93995e-02,-1.08608e+00,1.19175e-01,7.65907e-01,6.95663e-02,-2.07054e-01,-2.45215e-01,6.90690e-02,7.64035e-02,1.08972e+00,-1.38181e-01,-7.93516e-01,-1.69677e+00,-1.69017e-01,4.44559e-01,-6.84757e-02,1.14328e-01,-4.21856e-02,1.99372e-01,8.53291e-01,1.90016e-01,4.41359e-01,2.00428e-01,1.61396e-01,-2.22593e-01,-2.33354e-02,-4.08902e-02,-6.57872e-02,-1.88421e+00,-1.05992e+00,9.21251e-02,-5.84476e+00,-1.18652e-01,-1.41327e-01,-9.88379e-03,2.39663e-01,-1.70862e-01,-1.12776e-01,
2.88384e-01,-2.47893e-01,1.71267e-02,4.04584e-01,2.05675e-01,-2.06458e-01,-3.45463e-02,1.24993e-01,2.95187e-01,1.97248e-01,-1.53245e-01,8.28979e-02,2.24096e-02,8.81603e-02,-2.27580e-02,-3.08340e-02,-8.00179e-02,8.87837e-02,5.15838e-01,2.84362e-02,-9.51547e-02,5.78663e-02,-1.90622e-01,-9.99715e-02,1.38746e-01,4.50456e-02,-1.08419e-01,2.31300e-01,5.20382e-01,1.17883e-01,-5.70888e-01,2.22575e-01,1.95006e-01,3.21615e-01,1.78479e-01,1.57681e-01,1.78028e-01,4.63582e-01,-1.17410e-02,2.84877e-01,2.11707e-01,-3.51299e-01,-2.78324e-01,4.61994e-02,-5.03715e-02,
2.87709e-02,1.29309e-01,-5.91559e-01,-1.59246e-01,1.40741e-01,2.13478e-01,-3.03062e-01,4.51275e-02,-1.02742e-01,4.09365e-02,2.99155e-01,4.39384e-01,-4.13136e-01,-1.46209e-01,1.65507e-01,1.99329e-01,1.11259e-02,-3.96110e-01,-3.21446e-01,3.57022e-02,6.44891e-02,1.83759e-02,1.36222e-01,3.50539e-01,-1.11032e-01,3.23747e-02,-1.74510e-01,-3.00003e-01,1.28751e-01,-5.21853e-02,-3.34924e-01,-3.30825e-01,1.20629e-01,7.05014e-01,-5.24026e-02,2.27953e-01,-3.16134e-02,-7.82211e-02,-1.99672e-01,7.22795e-01,3.78902e-01,-3.53710e-01,2.87617e-01,2.76014e-01,-1.53948e+00,
-1.31544e-01,7.48238e-02,-2.93994e-03,3.74667e-02,6.25625e-02,-5.01641e-02,-3.22642e-01,-5.97888e-01,1.53867e-01,-1.93341e-01,7.93587e-02,-3.58888e-02,1.19164e-01,-1.74708e-01,6.53301e-02,-2.61055e-01,1.25761e-01,5.69752e-02,2.38500e-01,2.75121e-01,-1.45705e-01,9.61350e-02,-3.03655e-01,4.46021e-01,-3.46524e-01,1.07242e-01,-1.06836e-01,-6.89934e-02,-5.73758e-02,3.90273e-01,7.09071e-01,1.59112e-01,-3.70522e-01,6.95389e-02,-1.01522e+00,-1.91288e-02,-1.59793e-01,4.23531e-01,8.71710e-02,-6.23065e-03,-7.93812e-02,7.45367e-02,4.77276e-02,-2.80934e-01,-3.74589e-01,
9.39529e-02,
5.53685e-02,
-2.76144e-01,
2.13572e-01,
-1.36582e-02,
-9.45848e-02,
8.31067e-02,
2.48920e-01,
1.77468e-02,
3.49321e-03,
-1.94212e-01,
-1.79183e-01,
3.08365e-01,
-1.22184e-01,
-1.47697e-01,
-8.90273e-02,
2.27009e-01,
1.06334e-01,
6.76887e-02,
1.59007e-01,
-9.60897e-02,
-4.76305e-02,
1.81986e-01,
2.04343e-01,
1.40738e-01,
2.35859e-01,
9.07013e-02,
-1.17762e-01,
9.40249e-02,
3.39995e-01,
2.06922e-01,
-3.77595e-02,
-1.35510e-02,
1.06886e-01,
2.46541e-01,
-9.81610e-02,
-2.09854e-01,
3.35017e-02,
4.44724e-02,
-1.09312e-01,
2.08371e-02,
-4.95458e-01,
7.60657e-02,
-7.41753e-02,
1.01895e-01,
-1.02598e-01,-1.15288e+00,-1.21156e-01,-1.00719e-01,2.67773e-01,-8.40539e-01,5.66633e-02,-1.77098e-01,-4.15506e-01,6.43720e-02,-4.88464e-02,2.88407e-01,4.08837e-01,3.88955e-01,3.99350e-01,9.77157e-02,-1.40162e-01,-1.44614e-01,-1.87071e-02,-6.81542e-02,-2.40292e-01,-2.15060e-01,5.92622e-02,-5.34754e-03,8.24888e-02,-1.04001e-01,2.37132e-01,9.80253e-02,1.05410e-01,-6.82070e-02,-3.28233e-01,-2.27109e-02,-9.78469e-02,5.35767e-01,3.80274e-01,-4.22089e-01,4.65285e-01,3.35728e-02,9.25500e-02,-7.12247e-02,-7.47553e-02,1.17441e+00,1.35920e-01,3.40930e-01,-6.22951e-01,
-9.23927e-01,2.09034e-01,2.43880e-01,-4.13388e-01,1.98480e-01,1.52799e-01,1.75673e-01,-1.97321e-01,1.39077e-01,1.58589e-01,1.43762e-01,1.34994e-03,5.02300e-01,-1.02734e-01,-6.82199e-02,-4.51265e-02,2.13123e-01,1.22505e-01,-5.50537e-01,-4.65353e-03,-9.63753e-01,1.69852e-01,3.15185e-01,5.29922e-01,-8.31511e-02,8.53522e-02,-1.45911e-01,8.23200e-02,-2.23007e-01,1.98778e-01,-4.11798e-01,-8.55119e-02,-3.40089e-02,-1.60361e-01,9.36933e-02,-1.62988e-02,4.05745e-01,-6.11533e-01,1.26593e-01,-3.02363e-01,2.78539e-01,-7.12297e-01,1.67290e-02,4.60446e-01,-9.61324e-02,
6.19014e-01,-1.29636e+00,-6.93301e-03,1.52280e-01,-2.83722e-01,-5.78839e-01,-1.32565e+00,-8.73345e-02,4.97512e-02,-8.24881e-02,-3.00298e-02,7.69475e-02,-3.08510e-01,-4.14653e-01,4.32654e-01,2.57049e-01,-1.01817e-01,1.59411e-01,-6.43499e-01,5.13229e-01,-3.50028e-02,2.52933e-02,2.23034e-01,7.16666e-02,3.00666e-02,-2.39017e-02,1.47212e-02,-5.87636e-01,1.32459e-01,-1.95597e-02,2.74681e-01,-2.34899e-01,2.03291e-01,4.76816e-02,-1.81289e-01,-6.61158e-01,-3.31857e-01,-4.92817e-01,-4.89579e-01,4.55171e-01,3.86195e-01,7.26417e-01,1.92987e-01,5.57464e-01,-3.85527e-01,
-4.74817e-01,-3.07373e-01,-4.75375e-01,1.44135e-01,-5.96973e-01,2.35064e-01,1.91839e-01,3.22925e-01,-4.07247e-01,-2.06889e-01,2.20582e-01,-2.18923e-01,1.81272e-01,8.39030e-02,2.69060e-01,-1.15142e-01,5.88213e-01,-1.98838e-01,3.22296e-01,-1.36671e-01,3.43396e-01,-3.01034e-01,3.24475e-01,2.30042e-01,-3.29471e-02,-3.73246e-01,1.30963e-01,-6.82405e-02,3.45480e-02,7.77242e-02,2.57936e-01,-1.58320e-01,-1.97028e-01,1.99293e-01,1.21909e-01,1.47190e-01,4.71426e-01,5.01412e-01,1.21917e-01,-2.71766e-03,2.93546e-01,-3.07371e+00,-7.25821e-02,6.92894e-02,-3.94065e-02,
5.23389e-02,-2.93746e-01,-8.34264e-02,5.53099e-01,-4.23769e-01,-4.71818e-02,2.92020e-01,-2.91788e-01,-2.35394e-01,-4.29307e-02,3.30200e-02,-7.64842e-02,2.93121e-01,2.16167e-01,4.13333e-02,2.24850e-01,-5.32796e-01,-3.74789e-01,4.20515e-01,-1.88423e-01,5.97590e-01,1.35091e-01,-3.03380e-01,-4.66672e-01,-9.39001e-02,-8.22513e-02,6.34272e-02,1.71065e-01,1.46164e-03,2.78118e-02,3.73670e-01,-9.20347e-02,-1.82777e-01,4.00134e-01,2.47094e-01,-2.13068e-01,8.22202e-01,-2.65973e-03,2.10627e-01,1.04336e-01,-1.98371e-01,-1.16945e+00,-5.14989e-02,-4.11542e-02,-2.24797e-01,
-7.88514e-01,4.40743e-01,-7.87502e-01,4.78953e-01,-6.92082e-02,-4.45908e-01,2.73376e-04,-1.14564e-01,-2.01674e-01,1.22291e-01,2.79809e-01,-1.59318e-01,3.00719e-01,-1.54552e-01,-7.76482e-02,-3.67029e-01,-3.25114e-01,2.94172e-02,1.77515e-01,-6.91912e-03,-1.79575e-01,5.10094e-02,-7.64078e-02,1.55809e-01,-1.04177e-01,2.08070e-01,9.29040e-02,5.55022e-02,-2.79160e-01,5.67093e-02,-1.15182e-01,1.97481e-01,-3.01229e-01,2.27595e-01,-4.55132e-01,-1.97404e-01,3.62593e-01,6.13417e-03,2.71714e-02,1.62519e-02,-7.53455e-02,8.36483e-01,2.58860e-02,1.28841e-01,2.93055e-01,
-3.30362e-02,2.56944e-01,-4.70355e-01,6.00615e-01,-2.32909e-01,3.00311e-01,-2.70827e-01,7.44045e-02,1.96444e-02,-1.28922e-01,1.35649e-02,1.19277e-01,-3.94381e-01,-7.87749e-02,-2.67850e-01,-5.71679e-01,-2.75017e-01,-2.52648e-01,-4.80248e-01,2.54633e-01,8.03396e-01,2.46015e-03,2.15499e-01,8.88762e-02,4.43613e-02,-1.92371e-01,-9.42097e-02,-5.37060e-02,-1.13594e-02,-3.34354e-02,9.02716e-03,-1.06379e-01,-8.74056e-02,4.50215e-01,-6.71428e-01,-1.83423e-01,-6.52412e-01,1.37845e-01,7.62437e-02,-1.52789e-01,-2.93644e-01,-3.22395e-01,2.07149e-01,-9.18975e-02,4.27123e-01,
5.92693e-01,3.35571e-01,6.56175e-01,-5.84702e-02,1.18998e-01,8.03151e-02,-1.46533e+00,-3.72244e-01,-6.95550e-01,-5.43436e-02,3.53918e-02,-1.21580e-03,-5.43025e-01,9.06204e-01,9.71128e-02,-1.66907e-01,-1.43696e-01,-2.41752e-01,4.73491e-01,-1.39904e-01,-1.59751e-01,2.39549e-01,1.79062e-02,1.75101e-01,-9.95401e-02,1.11311e-01,2.14964e-01,-1.59006e-01,6.00413e-01,1.70956e-02,-7.22364e-02,2.68043e-01,5.42664e-02,-1.32894e-02,-1.84542e-03,3.21408e-01,7.55947e-01,9.56801e-02,4.68906e-01,-8.38628e-02,-1.43225e-02,8.22438e-02,1.81900e-01,2.22697e-01,-3.06068e-01,
4.54011e-03,-1.27359e-01,4.69637e-02,-3.89680e-01,-1.37761e-01,-3.35560e-01,-4.46602e-01,-1.65898e-02,-3.88838e-02,3.53355e-02,-8.80621e-02,1.57105e-01,1.45868e-01,1.20888e-01,-1.37069e-01,-1.92421e-01,-5.40943e-01,5.67197e-03,1.10369e-01,2.50673e-01,-8.84477e-01,-1.66904e-01,-6.06438e-02,-2.68077e-01,1.04739e-01,1.29058e-02,3.68063e-01,4.58097e-02,1.48364e-01,-8.08227e-02,-8.05224e-02,-2.06066e-01,6.95943e-02,2.95415e-01,6.56687e-01,-7.57924e-02,-6.23798e-01,-4.14675e-01,-5.22715e-01,1.30845e-02,-2.82773e-02,-7.52032e-01,1.91547e-01,-5.28117e-02,-3.41039e-01,
2.72958e-01,-2.51342e-01,-2.62204e-01,1.61093e-01,-2.62850e-01,-5.33187e-02,-3.70366e-01,-3.77858e-02,3.66237e-01,-3.48173e-01,5.32159e-02,-1.53037e-01,2.85825e-01,-1.44415e-01,1.18434e-01,2.60609e-01,-1.75003e-02,2.43458e-01,-1.94552e-01,1.91965e-01,-1.16142e-01,-2.17890e-01,-2.09684e-01,-1.16638e-01,8.86875e-02,-5.05791e-01,2.70016e-01,-1.02691e-01,9.03482e-02,2.95073e-01,-2.18564e-01,2.36805e-01,7.50570e-02,1.26084e-01,2.31333e-01,4.97544e-01,-1.68679e-01,5.44405e-01,4.64799e-02,1.20088e-01,-2.66891e-02,-6.65768e-01,-5.83757e-02,-1.02097e-02,-4.43666e-01,
1.42083e-01,-8.76072e-02,2.84135e-01,6.73278e-02,-1.38220e-01,-2.10314e-01,-1.03134e-01,4.88532e-01,1.32896e-01,1.18497e-01,3.67339e-01,2.93670e-01,-1.37295e-01,-3.53011e-01,1.27744e-01,-4.57223e-03,6.27515e-02,2.50456e-03,1.07558e-01,-3.13302e-01,-1.03316e+00,-1.15013e-01,1.70505e-01,-2.20609e-01,3.28403e-01,-6.12545e-02,8.19201e-03,1.22084e-02,-2.02155e-01,1.80611e-01,9.19781e-02,1.24514e-01,3.25523e-01,1.61423e-01,1.24629e-01,-1.48723e-02,3.00121e-01,-2.87046e-01,-7.81496e-02,2.49929e-01,9.09831e-02,-2.70387e+00,3.32064e-01,3.13311e-02,7.99155e-03,
4.88999e-01,-2.57982e-01,-4.19297e-01,3.40155e-01,-5.31398e-02,4.78427e-01,-6.88536e-02,2.38670e-01,-3.28015e-01,-8.42376e-02,-2.64455e-02,5.81313e-02,4.10189e-01,-2.31490e-01,1.42779e-01,-1.83511e-01,2.11387e-01,-6.98792e-02,-4.20960e-01,-1.23035e-01,-3.00901e-01,8.13508e-02,-3.81382e-01,7.23133e-02,9.41073e-03,-4.81265e-01,1.60448e-01,2.33350e-01,2.05512e-01,-3.17366e-02,7.97290e-01,-7.64811e-02,3.68289e-01,4.68986e-02,-1.66153e-01,1.73697e-01,3.03484e-01,9.39976e-02,-6.43119e-01,6.59821e-02,-2.44678e-01,-1.39005e+00,2.06671e-01,-7.25317e-02,-1.56130e-01,
2.26298e-01,2.07892e-01,-2.74979e-02,-1.41145e-01,-9.65457e-02,4.64099e-02,-1.43630e-01,-1.88016e-02,2.79378e-01,-7.17817e-03,-1.03945e-01,-4.72894e-02,1.69345e-01,-1.07268e-01,1.30885e-01,2.14596e-01,-9.34131e-02,-1.14412e-01,1.72229e-01,1.78959e-01,-1.41143e-01,-2.00836e-01,2.25472e-01,-2.59678e-01,-2.60915e-01,-2.64668e-01,7.62853e-03,-1.50025e-01,1.06364e-01,-2.58475e-01,-2.04702e-01,1.16700e-02,1.34501e-01,-2.67205e-01,-3.00139e-01,-1.24220e-01,-8.97733e-02,1.95867e-01,-3.42443e-02,-3.21508e-02,2.15232e-01,-5.28994e-02,-9.02355e-02,5.26210e-02,-3.17924e-02,
5.59822e-01,4.71788e-01,3.17817e-02,-1.57166e-01,4.74986e-02,-9.84820e-02,-3.07832e+00,-1.99406e-01,-9.13837e-01,5.51246e-02,-1.07249e-01,2.09859e-02,-3.80763e-01,2.78535e-01,4.08014e-02,9.58634e-02,-3.43819e-01,-1.33204e-01,7.87653e-02,-2.55395e-01,5.34388e-01,5.94431e-04,2.34069e-01,2.49782e-01,-2.60344e-02,4.04583e-01,-6.01782e-03,-1.19361e-01,6.11687e-01,1.99979e-01,4.21370e-02,3.23484e-02,-4.03565e-01,2.02776e-01,-1.02344e-01,-1.93710e-01,-1.52590e+00,-1.44923e+00,-2.30838e-01,-1.54006e-01,-8.14420e-02,2.57787e-01,-2.95943e-02,-8.32238e-02,2.90844e-02,
4.37679e-01,-4.54700e-01,9.77438e-02,-3.13511e-01,4.41101e-02,-2.32736e-01,-3.15883e-01,-1.47936e-01,-1.04547e-01,-1.33671e-01,-1.08829e+00,4.34932e-02,1.53410e-01,-4.50168e-01,-1.89309e-02,-4.12782e-01,-5.66625e-02,2.62426e-01,-6.39527e-02,3.10973e-01,-1.64628e-01,4.80590e-02,6.85105e-02,2.85490e-01,-3.00090e-01,-1.31192e-01,-1.68959e-01,1.58121e-01,4.25852e-01,2.01361e-01,8.82707e-02,-5.44080e-02,1.61369e-01,5.10874e-02,-3.27030e-02,-2.78419e-01,4.78975e-02,-1.20564e-01,-2.19901e-01,-3.57768e-02,1.45296e-01,-2.63557e-01,2.07224e-01,1.46988e-01,-4.44602e-01,
-2.88393e-01,2.52366e-01,-2.19118e-01,1.23942e-01,2.25678e-02,9.62948e-02,-2.50328e-03,-2.96267e-01,-2.56474e-01,4.88362e-01,3.79427e-01,6.53052e-01,3.23708e-01,1.66371e-02,1.10758e-01,1.59515e-01,1.89065e-01,-7.98681e-02,-3.45543e-01,6.63282e-03,-2.07982e-01,4.09682e-02,-2.32912e-01,-2.10834e-01,2.84988e-01,-2.36077e-01,3.68499e-02,2.20421e-01,2.13690e-01,-1.19728e+00,3.79913e-01,4.67820e-01,-3.54560e-01,9.11330e-02,-2.89666e-01,-9.33627e-03,2.75664e-01,1.99206e-01,2.00525e-01,5.94598e-01,1.58019e-01,1.70794e+00,-1.09901e-01,-4.23312e-02,1.00338e-01,
4.37546e-01,-1.13508e-03,1.27251e-01,-7.91344e-01,3.62770e-01,-2.65395e-01,-1.35851e-01,-6.56792e-01,-2.45798e-01,-1.33918e-01,2.10234e-01,3.03108e-01,-2.49346e-01,7.50371e-01,4.64407e-01,3.89144e-01,-1.52140e+00,1.22544e-01,1.90728e-01,2.13419e-01,7.44968e-01,-4.50257e-02,-2.06477e-01,7.01174e-03,1.65762e-01,-3.64593e-02,-1.21225e-01,1.03162e-02,4.45886e-01,1.30318e-01,-6.03921e-01,1.83315e-01,2.03276e-01,2.56952e-02,-2.15915e+00,6.98081e-02,6.58967e-01,2.90453e-02,-1.13896e-01,-4.33787e-02,-4.43297e-01,-1.12127e+00,3.47226e-01,-7.19987e-02,-8.76513e-01,
1.21656e-01,2.51370e-02,3.86762e-02,2.21515e-01,1.80747e-01,3.78322e-01,6.49869e-02,-3.19056e-01,2.45080e-01,3.16719e-01,-3.10350e-01,-2.73169e-01,3.06888e-01,-2.27019e-01,-1.97259e-01,2.42253e-01,1.85465e-01,-1.68532e-01,-1.19931e-01,-5.16249e-02,1.23834e-01,2.67585e-01,-1.60724e-02,-3.19608e-02,2.36772e-01,-1.56036e-01,2.00952e-01,-2.78371e-01,2.73715e-01,7.72994e-02,-2.30509e-01,-1.83065e-01,-1.96902e-02,-9.30749e-02,1.73475e-01,-1.76806e-01,-1.23768e-01,-1.25404e-01,3.45799e-01,-2.50044e-01,1.55924e-01,1.05789e-01,-2.61324e-01,-1.66814e-01,-2.42560e-01,
1.80459e-01,-3.09337e-02,-5.45810e-01,-9.45875e-02,9.72136e-02,1.35406e-01,-2.12951e-02,3.42093e-02,-2.35625e-01,-5.00258e-01,-3.29546e-02,-5.23590e-02,5.06780e-02,-2.43477e-01,-6.29430e-01,2.11209e-01,3.76237e-01,-2.38034e-02,-7.94389e-01,-4.35930e-01,-2.09885e-01,2.08669e-01,-1.93593e-01,2.08562e-01,1.68233e-01,1.21388e-01,5.59913e-02,-2.32349e-02,-4.16982e-02,-3.33536e-02,2.26781e-01,1.25650e-01,-4.13913e-01,-6.00232e-01,2.24351e-01,-3.09907e-01,6.43276e-01,1.12550e-01,1.41127e-01,-1.47476e-01,-2.96524e-02,-1.35608e+00,2.89771e-01,-5.66085e-02,6.40371e-01,
-2.25091e-01,-1.78753e-01,8.95919e-01,-4.00520e-01,2.77460e-01,-1.09854e-01,-3.53847e-01,-8.57372e-02,3.02647e-01,-1.49929e-01,3.27383e-01,-1.44247e-01,1.28149e-01,4.23563e-01,4.06751e-01,-1.33151e-01,-6.55115e-01,3.57594e-01,3.56514e-01,-1.76811e-01,-2.57317e-01,9.03331e-02,-3.24083e-02,-1.07474e-01,6.01117e-02,8.24031e-02,3.14546e-01,-2.96850e-02,-1.71053e-01,-2.87104e-01,-3.04828e-01,1.79219e-01,2.58989e-01,3.11622e-01,7.92833e-03,-6.79286e-02,-6.59330e-01,-2.33316e-01,8.88267e-02,9.26960e-02,1.45578e-01,1.81837e+00,2.39525e-01,2.76139e-01,-6.62887e-01,
-4.58510e-01,-2.28387e-01,-9.18375e-01,-5.66850e-01,-1.62539e-01,-5.89815e-02,-1.75878e-01,2.27766e-02,2.42117e-02,-7.93789e-02,-8.03118e-02,-6.94171e-02,1.52870e-01,-1.00103e-01,-1.39658e-01,1.44690e-02,-8.88900e-02,2.20201e-01,2.89795e-01,4.01618e-01,-1.19838e-01,2.27832e-01,2.80056e-01,1.09371e-01,1.25636e-01,5.31169e-01,1.02173e-01,2.46565e-01,-4.28901e-02,1.04238e-01,3.04917e-01,-1.78567e-02,-1.10924e-01,6.53719e-02,-3.76075e-01,-2.26516e-02,-6.81283e-01,-8.49132e-01,2.27121e-01,3.05571e-01,-1.15055e-01,1.12022e-01,-8.90509e-02,-3.14442e-01,-2.22917e-01,
-1.04522e-01,1.21951e-01,-4.96299e-01,1.62545e-01,-5.78073e-02,-3.00555e-01,4.02884e-01,-3.09399e-03,-4.48691e-02,-4.89327e-01,7.03661e-01,2.44268e-02,2.43542e-01,-1.68133e-01,-3.54266e-01,-9.47787e-01,5.56348e-02,8.68254e-02,-3.81351e-01,1.20534e-01,-3.53931e-01,1.68756e-01,2.35672e-01,-2.15218e-01,-2.40912e-01,-3.23039e-01,9.69415e-02,-2.81234e-01,4.81747e-03,6.42811e-02,1.91629e-01,-3.66609e-01,-2.62204e-01,-3.89512e-01,2.06467e-01,1.53718e-02,6.14411e-01,-4.56335e-01,-3.08177e-01,6.80194e-02,6.82200e-01,-5.36295e-01,1.68648e-01,3.52352e-01,3.05975e-01,
-5.66297e-01,-1.61798e-02,6.37968e-01,-3.26272e-01,2.79040e-01,-3.68912e-01,-8.73865e-04,-2.09285e-01,1.81325e-01,1.42192e-01,-8.29645e-02,1.59136e-01,2.56649e-01,5.06087e-01,3.25163e-01,1.52125e-01,-3.18196e-01,1.61223e-01,3.20978e-01,1.84040e-01,5.70530e-01,1.63226e-01,-9.08530e-02,1.38951e-01,-2.87943e-01,1.09961e-01,1.27817e-01,9.74299e-02,-1.49589e-01,-3.05785e-02,1.96671e-01,-9.14338e-03,4.64642e-01,4.14706e-01,-6.89717e-01,5.85307e-02,-1.90198e-01,-8.64136e-01,-4.75699e-02,-4.45848e-02,-1.50814e-01,-2.00019e+00,8.19405e-02,2.54869e-01,1.93752e-01,
1.05085e-01,-5.86319e-01,-2.58081e-01,3.41699e-01,4.01087e-01,-3.40848e-01,-9.39433e-03,-2.13000e-01,-1.27939e-01,-3.20800e-01,-8.56393e-03,1.64124e-01,2.92219e-01,-2.43364e-01,1.95536e-02,-4.76257e-01,3.32942e-01,-6.15318e-01,-7.62635e-01,-1.87511e-02,3.10991e-01,-2.69331e-01,-3.75513e-01,3.39258e-01,1.65947e-01,-5.36377e-01,-1.92684e-03,-2.91859e-02,2.72884e-01,1.39752e-01,4.44940e-01,8.31218e-02,7.70662e-02,-1.73586e-01,1.51587e-01,-1.41554e-01,1.09070e+00,1.12417e-01,3.10293e-01,-2.37981e-02,5.40267e-01,2.38844e+00,-1.77606e-01,2.91553e-01,2.15916e-01,
-1.29598e-01,-3.59182e-03,6.60723e-01,-2.50764e-01,1.45266e-02,-2.38646e-02,1.18816e-02,3.30202e-01,3.72637e-01,6.57202e-02,3.85042e-01,5.22257e-02,-2.08912e-01,2.73821e-01,-2.01970e-01,-5.02057e-01,-5.34745e-01,1.86208e-01,2.76800e-01,-6.53249e-02,-9.73877e-02,-1.17789e-01,2.18027e-01,-2.65322e-02,2.08098e-01,1.02089e-01,2.69263e-01,1.56879e-01,-3.73870e-02,-5.41794e-02,-6.73180e-01,5.56622e-02,1.48678e-01,5.87818e-02,6.34526e-01,-8.51274e-02,-4.04376e-01,-7.28053e-01,-4.25143e-02,2.30535e-01,2.24883e-01,-1.12950e+00,2.08292e-01,-1.34311e-01,-2.13842e-01,
-3.14952e-01,-4.05668e-01,6.68870e-01,1.97750e-01,2.83926e-01,5.94198e-01,-1.00975e-01,1.07553e-01,-2.11968e-02,1.51131e-01,5.01651e-01,2.32914e-01,-3.17164e-01,1.97590e-01,2.26988e-02,-6.30391e-01,2.38647e-01,-4.71420e-02,6.15080e-01,-2.14771e-01,3.31502e-01,-2.40981e-02,-4.43923e-02,2.31103e-01,2.01828e-01,1.53497e-01,6.57583e-02,3.37904e-01,7.47462e-02,1.16952e-01,1.39480e-02,2.56407e-01,2.55520e-02,8.55125e-02,3.83519e-01,-2.46344e-01,5.09149e-01,6.83578e-02,8.37190e-02,-2.94138e-01,-3.14874e-01,1.82122e+00,-7.96598e-02,2.01612e-01,-1.05113e-01,
3.01776e-01,-1.17285e+00,-3.47113e-01,3.10953e-01,1.76671e-01,4.19185e-01,-9.70804e-02,9.99850e-02,-2.60455e-01,-1.34718e-01,4.72538e-01,1.71992e-01,-2.97861e-02,2.82604e-01,2.13216e-01,-1.04308e-01,7.98181e-02,-1.22621e-01,1.56969e-01,-3.81089e-01,-5.80964e-01,1.67494e-01,-3.07237e-02,2.35335e-02,-4.66055e-02,-3.68757e-01,2.90566e-01,4.67326e-01,-2.66048e-01,3.77002e-02,-9.76893e-02,-2.94079e-02,1.88360e-01,5.84177e-01,-9.42403e-01,4.43743e-01,4.11169e-01,2.91465e-01,3.00047e-01,-7.61937e-02,-9.15464e-03,1.24657e+00,1.71552e-01,3.10600e-01,1.79192e-01,
1.35943e-01,-2.65579e-01,8.27371e-02,8.81110e-02,4.29127e-01,1.63284e-02,-1.94115e-01,1.50447e-01,4.98457e-02,-6.99268e-01,-7.44302e-01,-5.17779e-01,-2.37025e-01,7.69856e-02,-2.74224e-01,-2.33035e-01,1.16459e-01,-1.44152e-01,6.60730e-02,-7.14972e-02,-3.23346e-01,1.64353e-01,2.59909e-01,2.79669e-01,-6.35035e-01,1.09982e-01,2.19395e-02,-2.64143e-02,8.04632e-02,7.86581e-01,-2.26971e-02,-4.55772e-01,3.03473e-01,8.22892e-02,-7.52980e-03,3.03099e-01,-3.17457e-01,2.30116e-01,3.58227e-02,1.91330e-02,-9.67199e-02,1.75674e+00,3.04934e-01,9.80753e-02,2.10365e-01,
-5.36271e-01,1.53072e-01,-9.41824e-01,-1.94560e-01,4.33508e-01,-3.59836e-01,1.95121e-01,1.45250e-01,4.60928e-02,-5.99454e-03,-1.65585e-01,-2.13418e-02,3.03640e-04,1.28067e-01,1.68137e-01,-1.04948e-01,-1.23254e+00,-5.53129e-01,1.74696e-01,-6.54507e-02,1.21470e+00,-1.80558e-01,-1.72077e-01,-2.73783e-02,6.66270e-02,-1.89344e-01,1.72785e-01,-4.57487e-03,3.22482e-02,-2.28008e-01,-2.72125e-02,2.15505e-02,8.19583e-02,2.45273e-01,-6.08186e-01,-3.00786e-01,2.53481e-01,5.07408e-01,2.46775e-01,1.55610e-01,6.57790e-02,2.58438e+00,1.36108e-01,2.73782e-01,-3.58070e-02,
3.43767e-01,1.33316e-01,2.46121e-03,4.23602e-02,-1.51920e-02,5.74062e-03,-1.68287e-01,4.70471e-02,1.86241e-01,-3.32230e-01,-1.76467e-02,-2.12851e-01,6.19791e-02,-3.33347e-02,3.80750e-01,3.37354e-01,2.72631e-01,2.63671e-02,3.64280e-01,2.95687e-01,1.24090e-01,1.81328e-02,-3.10161e-01,-5.20460e-02,-1.49268e-01,8.79731e-02,-3.65940e-01,-3.36168e-01,3.39115e-01,-4.40377e-01,7.05804e-01,2.58060e-01,-4.19543e-02,-1.71392e-01,2.15622e-01,-1.32333e-01,2.38551e-01,4.46541e-01,-2.61893e-02,-1.99234e-01,-4.99398e-02,1.10263e+00,-1.20006e-01,4.97095e-02,8.37251e-02,
-1.14068e-01,-1.80881e-02,6.79007e-01,2.06859e-01,-2.03586e-02,1.55104e-01,7.35454e-02,-9.52625e-01,-3.88560e-01,3.16104e-01,-9.85520e-02,-1.46111e-01,-8.57092e-01,2.30906e-01,4.14478e-01,3.68425e-01,4.58863e-01,4.38082e-02,1.64149e-01,-6.95208e-01,2.34949e-01,1.84495e-02,-2.41859e-01,1.86955e-01,-2.58760e-01,-3.96869e-02,3.56383e-01,4.84660e-02,1.00007e-01,-2.12535e-02,-4.70908e-01,6.87372e-02,3.13148e-01,4.57339e-02,9.45197e-02,-1.26709e-01,9.99734e-01,1.67412e-01,5.88491e-02,2.11805e-01,5.94458e-01,-6.94359e-01,1.38986e-01,3.95320e-02,-6.86221e-01,
7.92835e-02,-6.50864e-02,-3.78126e-01,-1.67062e-02,4.68784e-01,-4.46798e-02,-5.55357e-02,2.55685e-01,1.47332e-02,-1.32550e+00,-2.84818e-01,-6.79968e-01,3.36762e-02,-3.73023e-02,8.41682e-02,-3.76291e-01,8.29051e-02,1.56648e-02,2.67213e-02,-5.75970e-02,-2.20217e-01,2.12602e-01,1.45628e-01,3.00987e-01,-2.11014e+00,4.73490e-02,-8.57175e-02,5.11479e-02,1.02845e-01,2.98169e-01,3.49665e-02,-6.47079e-01,3.29553e-01,1.19280e-01,-4.63739e-02,1.27360e-02,-5.71160e-01,2.51594e-01,3.75575e-02,2.87540e-01,-2.05061e-01,-1.42952e+00,4.20500e-01,-6.22359e-02,-1.48928e-02,
5.82655e-01,-2.02956e-01,-2.12810e-01,-3.36202e-01,1.54508e-01,1.57315e-01,-2.14449e-01,-2.90297e-02,1.97603e-01,1.71685e-01,-7.66450e-01,9.56076e-02,-1.74399e-01,-3.80549e-01,3.05597e-01,-2.64063e-02,3.14489e-01,-1.13862e-02,-3.20886e-01,9.74342e-02,3.58334e-01,-8.53264e-02,-1.21211e-01,9.17097e-03,1.05517e-01,1.25805e-01,-2.91526e-02,-2.12495e-01,-3.43386e-02,-1.89676e-01,-1.15653e-01,7.67943e-02,2.20268e-01,1.64445e-01,-1.13317e-02,-5.17470e-02,-6.71385e-01,5.31628e-02,-2.23957e-02,-6.41540e-02,2.55932e-01,2.09432e+00,-9.08915e-02,7.85214e-02,-3.33456e-02,
-6.37352e-01,-1.53687e-01,2.51339e-01,7.79319e-01,-7.81439e-02,-2.68249e-01,-2.68040e-02,-1.08605e-01,-2.16129e-01,1.59061e-01,-3.05441e-01,-1.36002e-02,2.69170e-01,-2.34435e-01,2.11147e-02,-2.82173e-01,8.73568e-02,-3.04843e-01,1.26872e-02,-1.11493e-01,-2.21976e-01,-2.38958e-01,3.93614e-01,8.03434e-02,7.83003e-03,-1.87936e-01,-3.68383e-03,-1.39133e-01,-1.48131e-01,1.01800e-01,-1.92319e-03,2.57246e-01,3.70426e-03,9.80135e-02,4.82604e-01,2.28813e-01,5.23360e-01,2.09250e-02,9.58769e-04,-1.24545e-01,-4.72887e-02,4.73285e-01,1.83505e-01,3.37672e-01,-2.66444e-01,
6.09856e-03,-4.56842e-01,-6.72633e-01,1.42873e-01,2.89836e-03,6.10269e-01,1.01102e-01,-8.22049e-02,-2.36568e-01,1.33368e-01,-6.41953e-01,-1.45979e-02,2.30968e-01,-4.17851e-01,-2.38704e-01,-8.90044e-01,-5.63098e-01,-1.08598e-01,-3.82055e-01,-5.23024e-01,-3.87413e-01,2.41669e-01,6.22815e-02,2.21142e-01,-2.62256e-02,1.66700e-01,3.39701e-01,-3.01520e-01,4.27080e-01,3.37674e-02,-5.44684e-02,2.78244e-02,2.41552e-01,-7.00117e-02,3.10912e-01,-1.77367e-01,-7.61535e-02,-2.78120e-01,3.65819e-01,1.96954e-01,-1.97378e-04,-5.16517e-01,2.61183e-01,-3.26325e-01,5.04436e-01,
2.08862e-02,-1.95485e-01,8.88041e-02,-1.30431e-01,1.02322e-02,3.76197e-01,-2.14836e-01,5.33887e-01,-1.70188e-01,3.40846e-01,-2.53016e-02,-2.15609e-01,-2.27147e-01,-3.82250e-02,-4.54092e-01,-1.41747e+00,-3.50692e-02,-3.31501e-01,2.47228e-01,-7.42978e-01,1.05326e-01,1.22453e-01,1.96711e-01,5.97730e-02,1.06806e-02,1.42654e-01,2.78094e-02,-2.76965e-01,-2.14167e-01,1.29282e-01,6.13342e-02,-7.81748e-02,-3.76414e-01,-4.83421e-01,-7.62599e-01,2.92884e-01,-2.79190e-01,1.49246e-01,-1.47587e-01,-1.25476e-01,1.95822e-01,1.46638e+00,6.23705e-02,1.26738e-02,4.02847e-01,
-4.85290e-01,3.96627e-01,5.20345e-01,4.53784e-02,3.25189e-01,5.30586e-01,8.13262e-02,9.52784e-02,-3.25653e-01,-2.10236e-01,2.77241e-01,1.49663e-01,-3.66624e-01,-9.22343e-02,1.89537e-02,2.57455e-01,2.66302e-01,4.18297e-02,8.06537e-02,2.29109e-01,8.12900e-01,1.75042e-01,1.78252e-01,1.05998e-01,-3.31438e-01,1.32807e-01,7.86810e-02,-5.15933e-02,-3.53628e-01,3.36246e-01,-8.56103e-02,-1.86482e-01,1.63332e-01,-3.97246e-02,-5.56606e-02,1.65935e-01,-1.50910e-01,1.14482e-02,-3.13270e-01,-1.41559e+00,-6.92910e-02,1.16867e+00,1.04029e-01,-5.48807e-01,-2.74759e-03,
6.89349e-01,5.22268e-02,1.80675e-01,-6.68762e-01,-3.71031e-01,-7.18287e-01,-2.43293e-01,-4.56977e-02,2.65168e-01,1.73961e-02,8.91314e-02,6.23526e-02,5.45224e-02,-2.49525e-02,1.63711e-02,1.70347e-02,1.90706e-01,1.45674e-01,-1.24911e-01,7.76425e-01,2.09208e-01,6.49082e-02,3.18700e-01,-1.08926e-01,-9.19523e-02,-3.49957e-02,-2.09900e-01,-1.47804e-01,3.88926e-02,2.01552e-01,7.67143e-02,1.07469e-01,2.50096e-01,3.33513e-01,-2.58891e-01,8.06998e-03,-7.99337e-01,-8.78172e-01,-3.00620e-01,-1.33675e-01,-9.80508e-02,-1.19250e-01,3.05161e-01,-3.12100e-01,9.70144e-02,
-3.60721e-01,7.57544e-01,-6.66681e-01,-6.83365e-01,-5.91815e-02,-1.84737e-02,3.27584e-03,-2.64210e-01,3.28264e-01,8.99779e-02,-1.59316e-03,-3.12566e-02,3.10662e-01,1.08752e+00,-1.41120e-01,-2.28962e-01,5.05835e-01,6.80108e-02,8.34804e-01,4.68749e-01,2.06497e-01,-1.92612e-01,3.91804e-01,-6.90538e-02,6.63547e-02,1.87679e-01,-6.84197e-01,1.65431e-01,-1.32385e-01,1.44578e-01,-3.06165e-01,4.86652e-02,-8.75554e-02,-4.17870e-01,8.57409e-02,3.71570e-01,-4.32059e+00,-1.14775e+00,9.47330e-02,-3.26946e-01,7.09858e-02,2.72665e-01,-5.08130e-01,-5.28797e-01,1.86851e-01,
5.81502e-02,-1.22825e+00,-3.97966e-01,-4.50628e-02,9.64201e-02,-6.51434e-02,-1.98527e-01,3.03833e-02,-7.89722e-03,1.03542e-01,-3.71886e-02,3.61338e-03,2.07920e-01,-5.54148e-01,-1.73128e-01,-8.20546e-01,3.30266e-01,2.77779e-01,-2.54832e-01,-8.83833e-01,-6.21295e-01,1.63068e-01,4.77752e-02,-2.35719e-02,-2.35908e-02,8.19583e-02,2.73496e-01,-4.35053e-01,-1.14470e-01,-6.15183e-03,4.18072e-01,-1.92833e-01,1.58310e-01,-2.11352e-03,1.56786e-01,-1.46538e-01,8.31002e-01,-6.71924e-01,3.82516e-02,6.32213e-02,4.12366e-01,-1.84436e-01,-2.69429e-01,-1.63988e-01,3.01354e-03,
7.56485e-02,2.65455e-02,2.78600e-02,-1.57207e-01,-1.47927e-01,-1.87517e-01,-9.53204e-02,1.50873e-01,-2.76316e-01,3.27656e-03,-1.38247e-01,-6.65454e-02,-1.21560e-01,2.17591e-01,3.05850e-02,-2.31034e-01,1.25390e-01,-2.83727e-01,2.13685e-01,1.99675e-01,1.15730e-01,3.67814e-02,1.85976e-01,1.24110e-01,-2.41641e-01,-2.11062e-01,1.81812e-01,-1.21480e-01,-2.20506e-01,-2.62181e-01,1.38845e-01,1.02468e-01,-2.43571e-01,7.56801e-02,9.84316e-02,1.55074e-01,-1.46801e-01,-4.76422e-02,-1.77628e-01,-5.26863e-02,1.20773e-01,-2.05588e-01,-2.85464e-01,-2.69145e-01,-5.91054e-02,
3.79598e-01,-5.92172e-01,-8.20885e-01,2.85292e-01,3.70812e-02,1.51432e-02,-3.11549e-01,2.48100e-01,-2.23479e-01,7.30115e-02,1.23223e-01,2.70879e-01,1.94203e-01,-2.05964e-01,3.27491e-01,-2.79042e-01,3.99840e-01,4.75054e-01,-4.89255e-01,1.21863e-02,9.89669e-02,2.40124e-01,-1.34552e-01,1.95206e-01,-9.07479e-02,1.90695e-01,-1.36111e-01,-6.14142e-02,-4.80947e-02,8.68325e-02,1.96716e-02,2.91932e-01,-1.37700e-02,-2.24125e-02,2.03547e-01,-1.94513e-01,-2.36963e-02,-3.50392e-01,-1.44993e-01,-1.39732e-02,-1.60354e-01,-1.13289e+00,3.06649e-01,1.03284e-01,-4.97657e-01,
1.01247e-01,-2.17030e-01,-3.95720e-02,-2.27694e-01,-9.01453e-02,-1.38850e-01,1.77152e-01,-2.50458e-01,1.62742e-01,1.33498e-01,-2.05371e-01,-2.43357e-01,1.74795e-02,-6.32834e-02,-2.44347e-01,-1.97878e-01,-2.47998e-01,-1.02264e-01,7.92319e-02,-2.72713e-01,-2.32626e-01,3.27789e-02,3.93527e-02,6.29216e-03,1.14480e-01,-1.73637e-01,4.59838e-03,-2.23335e-01,-2.03027e-01,1.90129e-01,-1.44126e-01,-6.60888e-02,-2.17730e-01,-2.36003e-01,-1.44350e-01,-2.13771e-02,-2.16662e-01,-1.02980e-01,-1.09888e-01,-6.95971e-03,-2.95733e-02,-6.40441e-02,-1.10447e-01,-7.75951e-02,-1.37427e-01,
1.08768e-01,1.43440e-01,-2.05826e-01,-2.81910e-01,4.48880e-01,-3.71785e-02,-1.23038e-01,-6.66333e-02,1.22953e-01,5.10121e-01,-1.96292e-01,-2.59679e-02,1.38079e-01,1.26372e-01,2.36237e-02,-8.10614e-03,1.07802e-01,-5.18155e-02,2.14288e-01,1.12732e-01,2.62750e-01,4.32593e-02,1.21938e-01,1.20509e-01,4.17759e-01,-1.14669e-01,1.97589e-02,2.62113e-01,-1.70712e-01,-6.68807e-01,3.57509e-02,6.62953e-02,5.92646e-02,-3.26285e-02,-1.24109e-04,1.77309e-02,-5.44116e-02,1.05765e-01,-7.67756e-02,9.27381e-02,1.08006e-01,3.35819e+00,-2.44896e-01,2.47903e-01,2.29460e-01,
-4.02160e-02,-2.44986e-01,7.11018e-01,1.20563e-01,-2.60514e-01,2.47236e-02,-1.35484e-01,-1.16166e-01,-1.01069e-01,1.83973e-01,-5.31482e-01,-1.88655e-01,9.90854e-02,-8.44957e-02,-3.20205e-03,-7.34338e-01,-2.21041e-01,-2.33640e-01,2.09886e-01,-2.55277e-02,-1.84194e-01,1.55629e-01,5.21487e-01,1.73082e-01,-1.08545e-01,9.66242e-03,4.00295e-01,-3.39559e-01,-1.48876e-01,-9.74222e-02,4.55882e-01,-1.29421e-01,3.93397e-01,-2.36773e-01,6.72891e-01,5.83364e-01,7.58328e-01,-1.35267e-01,2.32407e-01,-2.12011e-01,-1.91528e-01,-2.07808e+00,-2.94941e-01,-1.62148e-01,-2.38489e-01,
9.93194e-02,
5.77081e-02,
1.01967e-01,
3.09659e-01,
3.42489e-02,
3.31080e-02,
1.44978e-01,
1.06272e-01,
2.60881e-01,
1.48942e-01,
-2.55534e-01,
1.32994e-01,
-4.21177e-02,
3.22923e-02,
1.11113e-01,
-3.10928e-01,
-2.87499e-01,
-9.10736e-02,
1.65312e-01,
1.05892e-01,
3.84414e-01,
1.10900e-01,
1.32800e-01,
-4.95819e-02,
-9.73497e-02,
-2.12843e-01,
-5.13506e-02,
1.60409e-01,
-3.19983e-02,
-3.13837e-01,
7.89156e-02,
7.56779e-02,
-2.56025e-02,
1.50979e-01,
1.64900e-01,
1.41601e-01,
-7.28895e-02,
5.71711e-02,
-2.21198e-01,
3.34907e-01,
-3.20289e-02,
3.64499e-01,
-6.85788e-02,
-2.05416e-01,
2.27534e-01,
2.39669e-01,1.04032e-01,4.28174e-01,2.93256e-01,1.92024e-01,1.46453e-01,3.93522e-02,-1.45657e+00,-8.98190e-01,8.62640e-02,2.45379e-03,2.40585e-01,2.58290e-01,-3.40262e-01,6.34919e-01,9.80175e-02,3.00897e-01,2.90705e-01,-7.71994e-02,-8.33012e-01,-9.72876e-01,3.23347e-01,-1.63941e-01,8.95510e-02,-3.03711e-01,-8.20039e-02,4.56075e-01,-6.33820e-02,-2.47478e-01,1.50523e-01,1.81929e-01,1.03400e-01,-3.41914e-01,1.00055e-01,9.79979e-02,-8.80466e-01,7.09703e-01,2.77936e-01,7.75270e-01,-1.26184e+00,1.40280e-01,-9.00920e-01,6.51730e-02,2.12625e-01,-4.07362e-01,
6.40695e-02,-2.97290e-02,2.87939e-01,7.92334e-02,3.21361e-01,1.84503e-01,4.87141e-01,2.78852e-01,-5.71655e-03,5.76549e-02,-9.67138e-02,-8.39502e-02,4.47440e-03,5.36090e-01,-1.14458e-01,4.59212e-02,-2.12864e-02,2.78259e-02,-2.57287e-02,-6.43598e-02,3.88295e-02,-1.32961e+00,-1.00641e-01,-7.31727e-01,-1.23058e-01,-8.19479e-02,-1.64201e-01,1.28341e-01,-1.14980e-01,-6.54347e-01,5.72833e-02,1.01597e-01,2.10001e-01,-4.99613e-02,-1.23462e+00,-6.26004e-01,-5.96400e-01,5.99393e-02,-2.88646e-02,-3.69626e-01,-2.11439e-01,-9.54550e-02,1.69017e-01,1.46659e-01,-9.20920e-01,
7.85810e-02,1.76413e-01,5.48586e-02,1.16891e-01,1.43882e-01,3.54472e-02,2.20603e-01,-3.06311e-02,-2.41846e-02,9.30406e-02,1.37177e-01,5.14712e-02,2.26781e-01,-2.81527e-01,2.92664e-01,-1.69548e-01,1.82113e-02,-2.93586e-01,-1.11312e-02,1.07492e-01,3.15378e-02,-3.15976e-01,1.11740e-01,-9.27757e-02,-3.80580e-01,-1.79690e-01,-4.12384e-01,-1.26209e-02,5.60081e-01,5.15777e-01,3.37324e-01,1.73690e-01,4.16430e-01,2.98811e-02,5.54900e-02,1.57781e-02,-7.79843e-01,-3.52745e-01,-3.37052e-01,-1.50067e-01,-2.26786e-01,-6.52406e-02,2.32173e-01,-1.44839e-01,-1.93743e-01,
-2.74888e-02,-4.10406e-02,-1.98405e+00,2.08798e-01,3.29672e-01,7.86618e-02,-2.16817e-01,-2.69513e-01,-5.12206e-01,-6.37856e-01,1.88253e-01,5.13002e-02,6.32946e-02,-9.53589e-01,-5.99969e+00,9.72445e-02,-1.76947e+00,-1.85197e-01,2.75059e-01,-1.93137e-02,-5.09192e-02,3.05045e-01,4.95016e-01,-1.17802e-01,-6.89642e-02,1.10142e-01,-1.33137e-01,-1.13903e-01,5.04911e-02,2.78075e-01,1.09705e+00,-6.20174e-02,-1.79180e+00,9.04323e-02,1.04318e-01,2.98366e-01,6.15446e-02,-7.19807e-02,-1.62734e-01,2.89789e-01,1.40626e-01,-1.88956e+00,-1.86925e-01,-1.29163e-01,-1.76776e+00,
2.22544e-01,7.39767e-01,2.98448e-01,-8.64482e-01,-2.60093e-01,-1.06727e+00,-4.54831e-01,3.45669e-02,5.23375e-01,-6.63369e-02,-3.79823e-01,-1.99601e-01,2.67827e-01,2.71509e-01,-4.32564e-01,-5.27541e-03,1.73453e-01,-2.33356e-01,-4.89267e-01,3.47162e-01,-1.90547e-02,-7.91304e-01,2.30882e-03,-1.36543e-02,2.24368e-01,7.14644e-03,2.62729e-01,-4.69548e-02,-5.13864e-01,-3.37699e-01,7.54580e-02,1.06669e-01,-2.33224e-02,-4.57860e-01,-6.94045e-02,1.20821e-01,-8.62523e-01,-7.22597e-02,-4.35521e-01,-5.34724e-01,-2.11822e-01,4.80480e-02,-1.27918e-01,-1.41195e-01,-4.99384e-02,
2.69632e-01,-6.78633e-03,-1.52758e-01,-2.02822e-01,5.29403e-02,2.61842e-01,8.14522e-01,-5.54837e-02,-3.06118e-01,8.29689e-02,1.67153e-01,1.26859e-01,-1.52542e-01,2.63106e-01,-2.06060e-01,8.67428e-02,-5.20861e-01,1.55149e-01,-5.43290e-01,-3.65670e-01,9.09414e-02,-8.92014e-02,2.25364e-01,6.10566e-02,1.65245e-01,-1.27766e-01,-3.13084e-01,1.90064e-02,4.64953e-02,7.89466e-01,3.29548e-01,-8.87052e-02,-2.68825e-02,-3.99884e-01,2.47738e-02,-1.66671e-01,3.92191e-02,9.71946e-02,-1.01466e+00,4.74693e-01,2.27602e-01,-9.31816e-02,4.90994e-02,-1.96765e-01,5.23799e-01,
5.70257e-01,-2.25612e-01,3.04376e-01,7.86164e-02,8.81916e-02,-7.72816e-02,1.59494e-01,-5.48765e-01,-3.70297e-01,4.81054e-01,1.24937e-01,2.32366e-01,-2.42059e-01,-1.88628e+00,3.64087e-02,5.28006e-02,1.38421e-02,-3.70934e-02,-1.25269e-01,1.27637e-01,-8.39754e-01,5.30337e-02,1.62769e-02,-2.47037e-01,-2.04669e-01,3.52143e-01,2.26978e-01,-5.01676e-02,-8.74312e-03,-1.51590e-01,1.64306e-01,1.06259e-02,6.80875e-02,-1.01451e-01,1.08216e-01,-3.41592e-01,-2.18815e-02,-3.67526e-01,-3.65313e-01,5.06349e-02,-9.92976e-02,-4.30044e-02,2.92069e-02,-1.09574e-01,-9.34590e-02,
1.17750e-01,3.59173e-01,-5.20584e-02,-5.34670e-01,-2.66237e-01,1.38855e-01,5.35290e-02,-1.14583e-01,2.40913e-01,-1.78134e-01,-4.17777e-01,-2.60971e-01,-2.50307e-02,-7.36909e-02,2.00794e-01,-2.13792e+00,5.06934e-01,-3.27908e-01,2.08741e-01,1.25755e-01,2.32164e-01,-9.28319e-01,8.06897e-02,5.61260e-02,-2.53395e-01,-6.79696e-01,-4.15752e-01,3.16019e-01,-8.16304e-02,1.81824e-01,-1.16168e-01,-1.79725e-01,-2.06951e-02,-7.89333e-02,2.00320e-01,-6.10568e-01,-1.74934e-01,-4.75490e-02,1.09760e-01,2.10800e-01,-1.44316e-01,8.04788e-02,1.79722e-01,-4.63965e-01,5.02516e-01,
-4.15757e-02,1.83461e-01,3.50188e-02,-3.99373e-01,-2.02291e-01,8.52064e-02,-1.00401e-01,-7.55298e-02,8.83458e-02,-1.04349e-01,4.19452e-02,3.60984e-01,7.44665e-03,9.53991e-02,-1.78946e-01,1.56538e-01,2.42716e-01,-6.39282e-03,3.59597e-01,2.91308e-01,1.53988e-01,3.32810e-01,5.52619e-01,4.24001e-01,7.45527e-02,2.90402e-01,9.10634e-02,1.88819e-01,-1.18534e-01,1.51765e-01,4.84169e-01,-3.44593e-01,1.85833e-01,5.58120e-02,-2.06164e-01,1.53381e-01,-2.87454e-01,3.44949e-01,-2.30855e-01,-3.99845e-01,-2.59944e-01,-1.86822e-01,7.18038e-02,8.17187e-02,-1.31037e-01,
2.97474e-01,1.59657e-01,6.73906e-02,-1.44385e-01,-2.61573e-01,2.18872e-01,1.48544e-01,2.76926e-01,2.24659e-01,1.64826e-01,8.34946e-02,-4.09242e-02,-1.83968e-01,-1.52681e-01,-1.08864e-01,1.80774e-02,3.67999e-02,8.11701e-02,-6.52257e-01,4.10242e-01,4.20440e-01,-1.38785e-01,2.63331e-01,-4.73959e-01,-1.69601e-01,-4.86180e-02,-8.92859e-02,1.45773e-01,-2.04772e-01,-3.22722e-01,1.50355e-01,6.80596e-02,-1.25732e-01,-7.39990e-02,-4.93062e-01,-2.21516e-01,6.42272e-02,2.87025e-01,-6.74189e-01,2.25577e-01,4.37102e-03,-3.60808e-02,-1.93421e-01,-1.51488e-01,8.65300e-03,
3.70805e-03,-3.58381e-01,-5.80448e-01,-5.37725e-01,-3.79328e-02,-2.79195e-03,-2.08005e-01,8.17342e-03,-8.80334e-02,2.02730e-02,4.54613e-01,-1.59506e-01,-4.40928e-02,2.82579e-01,-6.61568e-01,7.45776e-01,6.86130e-02,2.05799e-02,-2.80729e-01,-1.49030e-01,-1.05143e-01,-3.60857e-01,-2.02672e-01,1.23559e-01,1.94158e-01,2.45234e-01,-1.13622e-01,-2.40214e-01,-1.38629e-01,-7.57138e-01,-5.08022e-03,-1.21465e-02,1.94328e-01,-8.25247e-02,-3.07356e-02,-5.80933e-02,-8.37629e-01,5.76044e-02,3.13180e-02,-1.45553e-01,-2.84260e-02,5.39027e-02,-1.76326e-02,5.89272e-01,-6.17405e-02,
9.79984e-02,3.48168e-01,-2.23844e+00,-1.69350e-01,-1.25454e-01,2.77919e-01,4.53176e-01,-9.90353e-02,-4.96768e-01,-2.04286e-01,8.03291e-02,-5.26176e-01,-1.32433e-01,-7.96408e-02,-1.48220e-01,-1.93607e-01,-2.23709e-01,1.18887e-02,-1.89423e-01,-9.60749e-02,2.38715e-01,4.22948e-01,4.13586e-01,1.73484e-01,-2.50100e-01,8.24431e-02,-1.03004e+00,2.55449e-02,2.40766e-01,-5.56022e-01,-7.43166e-01,2.14120e-01,-1.15456e-01,-4.57760e-01,-6.77169e-01,-1.41847e+00,-6.97148e-02,3.48164e-01,3.66826e-02,4.13921e-01,4.07793e-02,3.54723e-01,-1.79159e-01,1.44265e-01,-1.35821e-01,
1.03805e-01,3.26178e-01,-2.74850e-01,-2.87394e-01,-6.23514e-01,-4.28054e-01,-1.39548e-01,2.75468e-02,4.74424e-01,-8.50172e-02,3.02340e-01,-3.64941e-01,-2.04011e-01,-2.23179e-02,-9.79374e-02,-6.69437e-02,3.81272e-01,1.75420e-01,-6.97804e-01,3.37991e-01,6.09587e-01,-1.34378e-01,2.08561e-01,-2.54778e-01,3.15112e-01,-1.98978e-01,-8.90450e-02,-2.40214e-02,-4.18815e-01,-5.59857e-01,2.00917e-01,-1.18970e-01,-7.25390e-02,-4.72260e-01,-3.65567e-01,-6.37103e-02,2.23973e-01,3.55106e-01,-9.69842e-01,-5.16460e-01,1.38214e-01,-2.39463e-01,-1.30139e-01,6.68789e-02,4.50284e-01,
1.84366e-02,2.62989e-03,5.34746e-01,-1.46528e-01,2.70250e-01,-4.74584e-01,1.80794e-01,-2.41738e-01,1.20981e-01,1.68586e-01,-4.17782e-02,-1.07619e-01,1.70149e-01,-3.11472e-03,-1.12071e-02,-1.01961e-01,-5.30050e-02,7.31687e-01,1.07763e-01,-4.71001e-01,-3.89168e-01,2.28932e-01,-1.20234e-01,4.23057e-01,-1.95289e-01,-9.87438e-02,2.80489e-01,7.12910e-03,-1.51647e-01,-1.19147e-01,-3.89401e-01,1.65606e-01,-7.54074e-02,-7.05469e-02,2.83005e-02,2.52420e-01,-5.34699e-02,4.58809e-01,1.29594e-01,1.11314e-01,1.19664e-01,1.02040e-01,-2.45939e-01,-1.76082e-01,-2.24071e-01,
-2.11446e-01,-9.82304e-02,5.83969e-01,4.32599e-02,2.24833e-01,-1.37825e-02,3.74353e-01,-1.40599e-02,-2.79738e-01,-2.45214e-01,3.12528e-01,1.99423e-01,1.80506e-01,-7.54115e-02,-1.19295e-01,-3.50865e-02,4.75927e-01,-5.94291e-01,3.65314e-01,-7.34253e-02,-2.00097e-01,-3.69218e-01,2.58138e-02,1.89650e-01,-5.13871e-01,1.58205e-01,-1.32367e-01,-1.16740e-01,-2.55144e-02,-2.66115e-01,-6.37127e-03,7.79328e-02,1.24757e-01,2.33105e-01,-1.32984e-01,3.02357e-01,1.84301e-01,3.82713e-01,-2.49916e-01,-1.91663e-01,-1.60804e-01,-1.93551e-02,-2.06384e-01,-1.53998e-01,-3.67249e-01,
-1.24383e-01,1.36959e-01,-1.95031e-01,7.32453e-01,2.25807e-01,4.79884e-02,2.52595e-01,-7.13016e-02,-8.18555e-02,1.69178e-01,-2.02112e-01,2.79609e-01,2.11493e-01,6.38579e-02,2.66299e-01,-1.22167e+00,-6.33052e-02,-1.88444e-01,1.79773e-01,-7.95112e-02,1.06493e-01,2.96149e-01,2.99328e-01,-3.22975e-02,-1.67992e-01,-2.44166e-01,-1.23703e-01,-7.22220e-01,-4.89886e-02,1.21010e-01,1.73846e-01,3.94673e-01,-5.84957e-01,7.72165e-02,-2.41070e-02,6.27855e-02,-1.02249e-01,2.29532e-01,-1.86241e-01,-6.75019e-02,5.97577e-02,2.03064e-01,8.95078e-02,-7.75804e-01,-7.22460e-03,
-1.87078e-01,-1.94870e-01,3.43495e-01,-1.07691e-01,2.01285e-01,2.86491e-01,-5.50839e-02,-2.15759e-02,-2.27299e-01,-4.53120e-02,2.99651e-01,1.91533e-01,1.12975e-01,-1.56077e-01,-1.57841e-01,-7.01249e-01,-4.41569e-01,-4.02073e-01,9.76994e-02,-4.53169e-01,-2.66536e-01,-2.31843e-01,-2.09780e-01,2.08101e-01,-5.99612e-01,-3.32143e-01,1.40450e-01,-2.24962e-02,1.38373e-01,-1.54621e-01,7.98317e-02,-2.50361e-01,2.00129e-02,-2.63041e-03,2.27007e-01,1.42282e-01,7.11857e-03,-3.41035e-01,-3.43596e-02,3.25967e-02,7.68148e-02,8.92125e-02,-1.85100e-02,-1.93773e-01,-2.93572e-01,
-5.45662e-01,4.09642e-01,-2.39312e-02,-1.76133e-01,-2.02376e-01,-2.80927e-01,3.70375e-01,1.65670e-01,3.56482e-01,-1.67806e-01,5.98908e-03,-5.99825e-01,1.54550e-01,-3.30707e-01,2.15906e-01,2.03310e-01,-3.72654e-01,1.14529e-03,3.35396e-01,-2.75427e-01,2.06639e-01,4.44911e-02,3.26864e-01,-1.01669e-01,-4.73312e-02,-2.55285e-01,-8.64689e-01,-1.92094e-01,-3.19831e-01,8.79352e-01,-3.72524e-01,-5.30228e-02,-2.53947e-01,-1.75026e-01,8.90312e-02,9.50828e-02,9.85435e-02,3.92740e-01,-3.64495e-01,-4.33610e-01,1.68151e-01,5.68739e-02,1.32680e-01,1.83867e-01,3.38609e-01,
4.95611e-01,4.21188e-02,1.55882e-01,-1.44901e-01,-2.54071e-01,-5.33619e-02,6.31420e-01,2.83754e-01,-1.75099e-01,8.72264e-02,1.73725e-01,-2.05537e-01,-2.10603e-01,9.52118e-03,6.30956e-02,-6.20032e-02,-3.77473e-01,1.37999e-01,-4.43395e-01,4.65214e-02,2.09284e-01,3.97814e-02,-8.15338e-02,-3.92313e-01,-2.30743e-01,1.06114e-01,1.07878e-01,7.26655e-02,-1.66978e-01,-1.52462e-02,5.03174e-01,-1.84034e-01,4.20680e-01,-9.40327e-02,-2.51602e-01,1.44463e-01,1.37405e-01,-4.27542e-01,3.30675e-01,-1.08569e-01,-1.33237e-01,2.16790e-01,1.35046e-02,-2.18336e-01,-1.91859e-01,
4.46441e-02,-3.46071e-02,-8.68291e-02,-6.80566e-02,1.06699e-01,1.80562e-01,-1.54782e-01,1.40656e-01,-3.53172e-02,1.97596e-01,7.03596e-02,1.21669e-01,2.71990e-02,-1.78948e-01,1.53607e-01,-4.34250e-02,-1.65078e-01,-2.04363e-01,-4.55517e-01,-1.26946e-01,4.15725e-03,4.25749e-01,-1.76960e-01,-3.91206e-01,-3.74234e-01,4.34453e-02,-3.49333e-01,1.78412e-01,7.54523e-02,7.91012e-01,2.37522e-02,3.39278e-02,-1.38340e-01,2.14630e-01,4.11560e-02,3.03678e-01,2.16631e-01,-2.26714e-01,-2.73512e-01,3.46659e-01,-1.96886e-01,2.11225e-01,1.74191e-01,1.70504e-01,-2.82360e-01,
1.37000e-01,2.82534e-01,-3.39829e-01,-1.22844e-01,3.10329e-01,8.03002e-02,1.44805e-01,-4.87883e-02,-2.13554e-01,1.32585e-01,-4.20199e-02,2.29287e-01,-2.47251e-01,2.75725e-01,-1.09592e-01,4.59239e-02,-1.45389e-01,-2.52266e-01,-1.15839e-03,-1.16045e-01,-1.04684e-02,2.98194e-01,3.21905e-02,1.25106e-01,-2.04748e-01,-9.74975e-02,-6.99032e-02,-2.78252e-01,-4.19556e-01,-2.93072e-01,-3.08677e-01,-5.63124e-02,4.40166e-02,-8.87027e-02,-1.09798e-01,-1.96819e-01,-5.36749e-01,-4.18064e-02,-2.99314e-02,-2.66776e-01,-2.15333e-01,2.07668e-01,9.11484e-02,1.93679e-02,-4.24812e-01,
1.00910e-01,7.49313e-01,-1.55116e-01,1.15475e-01,-8.74292e-02,-2.62236e-02,3.14229e-01,1.05781e-02,5.31340e-02,-3.31190e-02,7.35300e-02,-7.42534e-02,1.80907e-01,3.50429e-02,-5.10255e-01,2.47140e-01,-1.36719e-01,-2.57972e-01,1.82782e-01,2.84291e-02,-3.60944e-01,2.50026e-02,-1.17418e-01,2.45677e-01,3.80328e-01,-2.53442e-01,-3.24768e-02,1.54231e-01,3.01610e-01,2.37465e-01,2.67729e-01,1.74228e-01,-5.99343e-02,-3.34186e-03,-4.88197e-02,9.74480e-02,3.27654e-01,3.23141e-01,2.36971e-01,-5.39744e-02,5.05880e-02,2.82914e-01,1.58051e-01,-1.05195e-01,9.57709e-02,
-3.31389e-01,-1.45065e+00,-7.74582e-01,-2.32554e+00,-1.75269e+00,-3.24235e-01,-9.09761e-01,-4.11059e-01,-1.49173e-01,-3.68404e-01,4.55888e-01,1.21257e-01,-3.13366e-01,1.30197e-02,-2.37980e+00,3.50923e-01,4.15083e-01,-2.15335e-02,-3.76902e-01,-1.17728e-01,-5.40865e-01,-1.55273e-01,-6.68024e-01,-5.09085e-01,3.24755e-01,3.90407e-01,-6.84725e-01,-2.40379e-01,-7.50604e-01,-5.16196e-01,-2.36859e-01,2.09976e-01,-5.06902e-01,-4.35577e-01,-3.19615e-01,5.80352e-02,-1.13099e+00,2.70424e-01,-2.08713e-01,2.40681e-01,-1.70703e-01,-1.82593e-02,-8.20082e-02,3.34804e-01,-1.48758e+00,
-7.82638e-01,-1.05530e-01,8.97260e-02,2.38428e-01,-4.95280e-01,-3.01410e-02,1.26853e-01,-2.47813e-01,1.43767e-01,6.01352e-02,3.53094e-02,-1.14783e-01,-4.31498e-02,-3.81773e-01,-9.57188e-03,-9.27959e-02,2.57851e-01,6.73576e-02,2.55490e-01,-2.66474e-01,3.62547e-01,-2.71052e-01,-3.24390e-01,1.26664e-01,2.11134e-01,9.53603e-02,-4.27640e-02,1.55254e-01,1.38366e-01,-2.32535e-01,-6.31892e-01,1.87496e-01,4.82520e-02,1.54472e-01,2.63877e-01,-7.16544e-02,-2.72854e-01,2.06272e-01,3.01393e-02,4.20445e-01,8.57378e-02,-4.56399e-03,-1.29857e-03,-4.24780e-02,-2.12117e-02,
5.35218e-01,1.64915e-01,2.46930e-01,-1.64022e-01,3.98084e-01,-1.65607e-01,-4.00526e-02,1.96271e-01,-1.63586e-02,1.81480e-01,7.17205e-02,2.26536e-02,7.00352e-02,-1.25002e-01,-1.27096e-01,1.41481e-02,1.31627e-01,-2.02756e-01,2.85443e-01,-1.40628e-02,-1.52361e-01,2.57876e-01,2.31548e-01,-1.95138e-01,-1.30184e-01,3.04057e-01,2.44020e-01,-6.92259e-02,-2.43277e-01,2.01692e-01,6.14975e-01,-1.90408e-01,-3.33063e-01,2.42277e-01,3.13480e-01,-5.91229e-02,8.82692e-02,-6.90518e-02,1.80000e-02,1.20012e-01,1.20458e-01,-2.73458e-01,-3.20703e-02,5.20981e-02,-1.97585e-01,
-9.11921e-02,2.96596e-02,-9.98872e-01,-2.52740e-02,2.06501e-02,5.71581e-03,2.66340e-01,-7.57787e-01,3.22070e-01,-2.11479e-01,-2.46245e-01,1.48753e-02,4.25660e-03,-2.42062e+00,-2.09692e-01,-5.36785e-02,3.65293e-01,-3.94895e-02,4.76309e-02,3.21667e-01,-4.01242e-02,1.52635e-01,3.97966e-01,-1.64247e-01,4.00722e-03,2.26519e-01,-1.45828e-02,-4.78928e-01,-3.66605e-02,-5.17223e-01,4.29568e-01,-3.40773e-03,-1.52187e-01,3.16250e-02,2.46780e-01,7.87279e-02,-5.12305e-01,1.31736e-01,2.81478e-01,-7.78350e-02,-2.33887e-01,1.08562e-01,2.46747e-01,1.26650e-01,-2.41262e-01,
3.55449e-03,1.37559e-01,9.84655e-01,1.39543e-01,-2.40307e-02,2.70006e-01,2.45879e-01,-1.90359e+00,-6.44313e-02,-2.85995e-02,1.92662e-02,-4.70300e-01,1.17041e-01,-4.00015e+00,-8.43153e-01,-4.33723e-03,5.83685e-02,5.26244e-02,2.54595e-01,2.83899e-01,-1.86540e-02,-3.60683e-01,4.91443e-02,4.50092e-02,1.14886e-01,4.65471e-02,1.10206e-01,-2.57142e-01,4.11220e-01,-1.19581e-01,1.36965e+00,-1.32043e-01,-1.91993e-01,8.52411e-02,-1.79872e-02,4.93464e-01,1.51407e-02,2.53673e-02,1.32232e-01,-2.93995e-01,-1.39842e-01,-3.51482e-01,1.89875e-01,1.29049e-01,1.07235e-01,
-4.17142e-03,3.59113e-01,-1.99574e+00,-3.15709e-03,4.78208e-02,1.04659e-01,3.04268e-01,-1.89270e+00,3.19386e-02,1.54283e-01,1.16008e-01,8.38322e-02,-7.07606e-02,-2.03593e+00,-1.12274e+00,8.33138e-02,-2.04610e-01,2.34319e-01,-3.47228e-02,4.16504e-02,8.32451e-02,-4.27495e-02,1.78060e-01,1.59503e-01,-1.91470e-01,2.21279e-01,2.70677e-01,-6.93336e-03,5.44171e-02,-6.00988e-01,9.92502e-01,1.11539e-01,-2.44466e-01,2.51418e-01,-1.11817e-01,4.03793e-01,3.58382e-01,-1.94412e-01,-3.13418e-02,-4.35304e-01,1.32199e-02,-2.98402e-01,-9.90732e-02,1.42592e-01,3.43600e-01,
1.11001e-01,1.71787e-01,-4.06775e-01,-4.09840e-01,2.70167e-01,1.93122e-01,-4.48054e-01,2.23457e-01,1.11692e-01,-2.12919e-01,1.52116e-01,-2.88273e-01,1.52036e-01,-1.24918e-01,3.17518e-01,-1.69226e-01,-4.54147e-01,2.42469e-01,1.88159e-01,-1.26095e-01,3.55462e-01,4.40946e-01,1.54852e-01,1.40070e-01,6.23276e-03,-1.31432e-01,2.17388e-01,1.86791e-01,1.17566e-01,-1.43896e-02,6.10163e-01,-2.45957e-01,2.06120e-01,-5.27953e-01,1.56067e-01,-1.76842e-01,2.01995e-02,-1.52961e-01,2.74349e-01,-3.14360e-01,-1.26279e-01,2.51934e-02,1.73030e-01,8.52577e-02,-4.25778e-01,
3.07164e-01,2.65115e-01,2.45618e-01,6.39711e-03,-1.98404e-01,8.85696e-02,-2.57391e-02,9.28556e-02,3.75059e-01,1.17304e-01,3.31014e-01,3.03792e-01,1.21904e-01,1.01800e-02,-3.09348e-01,-3.05236e-01,-9.33366e-02,-1.67744e-02,-1.27498e-01,-3.93297e-01,5.15588e-02,-3.03990e-01,2.36807e-02,-6.59092e-01,7.17681e-02,-1.47480e-01,-3.39533e-01,-4.31142e-02,-4.91043e-01,-5.95803e-02,-1.46728e-01,-1.97584e-01,-1.90772e-01,2.60819e-01,8.79325e-03,-3.59436e-01,3.69157e-02,6.59829e-02,-4.47910e-01,3.94721e-01,-1.68435e-01,2.56011e-01,-1.44819e-01,2.02769e-01,-1.37552e-01,
-3.51987e-01,-1.74153e-01,5.38363e-01,8.97952e-02,2.23348e-01,4.37563e-02,1.96004e-01,-5.28296e-01,-6.47204e-01,4.65169e-02,3.05131e-01,6.04940e-01,-1.95246e-01,3.29687e-01,-1.43558e-01,5.78849e-03,-6.98819e-03,3.69084e-01,2.15863e-01,-9.11992e-01,-5.71178e-01,-3.26612e-01,2.72448e-02,2.85703e-01,-1.18187e-01,2.00792e-02,-1.24258e-01,-2.24610e-01,2.25327e-01,-1.79610e-01,-4.72373e-01,-4.26495e-01,3.19419e-01,1.51578e-01,6.77489e-01,-1.88255e-02,-6.73704e-02,-5.62777e-01,-1.87035e-01,2.35937e-01,5.22880e-03,-1.01487e-03,1.84084e-01,1.33737e-01,-7.30669e-02,
-5.08235e-01,1.32101e-01,2.77322e-01,1.92998e-01,3.63130e-02,1.68426e-01,-5.12676e-01,-1.26281e-01,1.36548e-01,-5.43607e-02,-7.23474e-02,1.83539e-01,-2.23111e-02,1.65883e-01,-4.61489e-01,-1.98387e-01,2.89847e-02,2.55782e-01,-7.77097e-02,-6.25534e-01,-2.05312e-01,-9.03731e-01,-1.56175e-01,-2.60361e-02,-6.49116e-02,-2.25328e-01,3.84122e-01,1.72638e-01,-5.98579e-02,-2.19743e-01,-1.62793e-01,-2.96139e+00,4.28852e-01,6.06043e-02,-1.28710e-02,-1.58555e-01,-7.45662e-01,1.24496e-01,1.60926e-02,4.10588e-02,4.01520e-02,-1.09203e-01,-1.17678e-01,2.71532e-01,-1.45254e-01,
-2.41789e-01,-2.07980e-01,1.55578e-01,1.27692e-01,-2.44792e-01,-9.77923e-02,-1.18560e-01,8.97838e-02,6.46463e-02,-2.07832e-01,-2.45115e-01,-9.44744e-03,2.19878e-01,-2.33367e-01,-9.75734e-02,-1.01775e-01,-2.45948e-01,-8.47077e-02,4.90782e-02,4.32267e-02,-2.10189e-01,-2.02504e-01,-2.56298e-01,2.12988e-02,-5.07674e-02,-1.78398e-01,-7.96694e-02,3.49723e-02,9.81594e-02,1.72929e-01,2.36880e-01,-4.99983e-02,7.14346e-02,3.74788e-02,-2.88531e-01,-1.54133e-01,6.69296e-03,8.48941e-02,-2.21124e-01,1.60532e-02,1.44692e-01,-7.60578e-02,2.34138e-01,1.31378e-01,1.62147e-01,
-3.75264e-02,3.51646e-01,-1.80094e+00,3.43237e-01,-5.30545e-01,3.45809e-01,1.90870e-01,-2.64439e+00,-2.41640e-01,1.94804e-02,-2.29929e-01,-4.76342e-02,1.28857e-01,-1.60143e+00,-3.40919e-01,1.11297e-01,2.11446e-01,2.98471e-01,9.90636e-03,-6.78504e-01,-1.27162e-01,2.40221e-01,2.98205e-01,2.70355e-01,1.97318e-01,4.31487e-02,2.59054e-02,3.52406e-02,-3.26760e-01,4.50057e-01,-2.43344e-01,-1.28804e-01,-7.06655e-01,3.09905e-01,1.02498e-01,2.75525e-03,5.18562e-02,-4.91686e-01,5.77401e-01,-1.09220e-01,-4.95646e-02,-3.03654e-01,-1.10065e-01,-1.04912e-01,-3.37158e-02,
3.47233e-01,-5.11143e-01,-9.50003e-03,6.73417e-02,7.15960e-02,-3.17342e-01,2.94064e-01,-3.55302e-01,2.33093e-01,3.83752e-01,2.42274e-01,4.14543e-01,-8.34240e-02,-4.18809e-01,3.25280e-01,-1.16839e-01,-1.19312e-01,-2.38013e-01,5.01588e-02,-1.91445e-01,-1.88889e-01,-2.41724e-01,-2.12388e-01,-2.78949e-02,3.32870e-02,-2.07953e-01,3.81920e-01,-3.19135e-02,6.32464e-01,-2.76125e-01,-1.34473e-01,1.88034e-01,1.68383e-01,3.58490e-02,1.52079e-01,1.19055e-01,5.47631e-01,-7.90734e-02,1.30925e-01,1.36768e-01,1.46427e-01,-2.75047e-02,-1.06987e-01,7.49394e-02,2.63259e-01,
1.26804e-02,3.98831e-01,1.34040e+00,1.48041e-01,-1.32917e-01,-2.84548e-01,-9.41681e-02,-2.54858e-02,-1.01480e-01,-3.97720e-01,-2.43646e-01,-4.08248e-01,5.14955e-01,2.35347e-01,-1.00701e-01,-9.14577e-02,-3.80330e-02,-3.95288e-01,-2.53667e-01,-3.96180e-01,2.82534e-01,9.72255e-03,1.54515e-01,-2.46796e-01,1.52125e-01,-2.96097e-01,-9.56154e-01,2.84902e-01,4.45577e-01,4.60382e-01,-2.13850e+00,-7.23559e-02,-7.65484e-01,-1.51842e-01,1.48494e-02,-2.09916e-01,-2.90920e-02,-3.87902e-01,-3.89331e-01,-2.25999e-01,-9.98782e-02,1.22847e-01,-8.18222e-02,-1.93527e+00,7.29110e-02,
2.87274e-02,-1.95514e-02,-2.15858e-03,1.22768e-01,1.16230e-01,-1.97317e-01,-1.03343e-01,-1.21690e-01,-7.19993e-02,-9.72537e-02,-2.29664e-01,-1.84351e-01,-4.44259e-02,5.53912e-02,-1.66374e-01,-1.99675e-01,-8.47120e-03,1.45000e-01,-2.25022e-01,-3.94432e-03,-9.28877e-02,-1.86681e-02,-1.01160e-01,5.97311e-02,-2.11808e-01,-2.02611e-01,3.29190e-02,-4.08237e-02,-2.41035e-01,5.33942e-02,1.91516e-02,-1.42796e-01,2.17224e-01,2.26266e-02,-1.82249e-01,-1.61706e-01,-2.75070e-02,-6.18150e-02,2.41927e-01,-1.60879e-01,4.73754e-02,-2.55411e-01,-3.39123e-02,-7.59928e-03,-1.41328e-01,
-1.75905e-01,2.49959e-01,-2.27874e-01,-2.99331e-01,-7.23755e-01,-4.94421e-01,-1.03379e-01,3.84690e-01,3.40235e-01,1.46921e-01,1.27667e-01,-4.63370e-01,-1.63282e-02,4.74545e-01,2.88105e-01,2.48264e-02,-1.03244e-01,8.81019e-02,-6.57655e-02,1.76501e-01,2.13408e-01,-6.93195e-01,1.58288e-01,2.38262e-01,2.71043e-01,-1.41300e-02,-1.94771e-01,1.55001e-01,-3.57588e-01,-7.20351e-01,1.47320e-01,7.11591e-02,-5.59442e-01,-5.46941e-01,-3.51200e-01,-4.23712e-01,-1.45694e-01,1.07535e-01,-9.27128e-01,-7.70701e-01,-5.49622e-02,-2.44843e-01,-1.99472e-01,1.03017e-01,-2.85509e-01,
-8.52168e-02,-6.01716e-02,-1.31787e-01,2.07536e-01,-1.47314e-01,-1.11500e-01,-1.30378e-01,-1.57448e-02,-1.57476e-01,1.85254e-01,-3.55481e-01,1.30489e-01,-1.36436e-01,1.30271e-01,-4.88640e-02,-7.11537e-01,2.00713e-02,-5.27396e-01,-9.75388e-02,-2.21728e-02,-1.63079e-01,4.54831e-01,2.48230e-01,-1.38660e-01,-7.78135e-02,5.67295e-02,1.09720e-01,1.53278e+00,-1.13082e-02,-4.25827e-01,-2.01736e-01,-2.20566e+00,-2.67033e-01,-1.63735e-01,-1.05617e-01,-1.58817e-01,8.43995e-02,1.21135e-01,-1.34230e-01,-4.17300e-02,1.47236e-01,2.79641e-01,2.18552e-01,-1.44226e+00,3.88407e-02,
3.44626e-01,-6.36740e-02,2.14894e-01,-2.34455e-01,1.97946e-01,-2.52041e-02,4.25347e-03,1.76177e-01,2.48715e-01,1.46434e-01,-7.69776e-02,-2.06495e-01,5.14853e-02,2.87414e-02,-3.90545e-01,2.74379e-02,-4.16138e-01,1.15076e-01,-1.80997e-01,-2.01965e-02,-1.58025e-01,1.55651e-01,-1.39273e-01,-1.44838e-01,-6.67885e-02,-2.70542e-01,-1.52640e-02,8.56231e-02,4.26430e-02,-1.45202e-01,-5.43444e-02,-3.14155e-01,2.67749e-01,-1.50426e-01,4.41860e-02,2.03875e-01,-1.08969e-01,-2.82245e-01,3.19891e-01,-3.99091e-01,4.51368e-02,-1.13617e-01,1.73773e-01,1.76746e-01,-9.15420e-02,
-9.75481e-04,1.32928e-01,-6.08957e-01,-8.41270e-02,3.66763e-02,-3.52173e-01,3.76305e-02,1.95559e-02,9.54794e-02,4.19578e-01,1.30699e-01,-1.75896e-01,1.56718e-01,5.32460e-01,7.03570e-02,-2.87244e-01,3.07704e-01,1.17947e-01,6.53849e-02,4.60642e-02,1.94670e-01,4.74642e-01,2.48588e-03,7.42736e-02,-2.73532e-02,-7.98766e-02,-5.59166e-01,3.38567e-03,-3.43672e-01,1.95508e-01,7.61054e-02,-3.82036e-01,-2.03328e-01,-1.68481e-01,2.35413e-01,3.18751e-01,2.98055e-01,3.39809e-01,-5.12842e-01,-3.27076e-01,-4.72305e-02,5.32652e-02,1.47975e-01,-3.57217e-02,7.18466e-02,
4.65930e-01,-1.13944e-01,1.73031e-01,2.45536e-01,7.86509e-02,1.27979e-01,2.41796e-01,7.94661e-02,-3.31065e-02,-1.72187e-01,3.43124e-01,3.31918e-01,6.55681e-02,-7.21682e-02,-2.64604e-01,-1.17196e+00,-4.47246e-01,-3.33977e-01,1.27508e-02,-2.06732e-01,9.80768e-02,-2.98496e-02,-4.36863e-02,1.00748e-01,-2.59123e-01,6.93345e-02,6.25861e-02,2.58593e-01,7.11944e-02,-3.09550e-01,6.94150e-02,-6.77184e-02,2.17703e-01,1.07807e-01,2.43818e-01,1.05712e-02,-1.09019e-01,-3.31719e-01,2.24589e-02,-5.36588e-02,-1.88769e-01,-1.60379e-01,4.15665e-02,-4.62366e-01,-9.02285e-02,
-7.30310e-02,-1.66156e-02,2.96637e-01,-2.74939e-02,-1.43921e-01,-2.33708e-01,2.73074e-01,3.17756e-01,-3.78605e-02,-2.05281e-01,-1.36687e-01,1.77136e-01,5.77324e-02,2.48833e-01,-5.12727e-01,-5.64090e-03,-4.72108e-01,7.49562e-02,-3.12782e-01,-5.66362e-02,9.73790e-02,1.39043e-01,-8.18252e-02,1.54754e-01,7.43496e-03,2.19033e-01,-1.11336e-03,1.38670e-01,2.11645e-01,-3.72083e-01,-3.55044e-01,1.33441e-01,2.39455e-01,3.93180e-02,2.69599e-01,2.12466e-01,-3.04723e-01,-2.48697e-02,7.21645e-02,-1.21115e-01,1.18261e-02,-1.39583e-01,-3.20127e-02,-2.00643e-02,-2.49234e-02,
-7.26361e-02,3.69925e-01,4.86790e-01,-1.48464e-01,-1.44419e-01,9.56354e-02,5.96957e-02,2.20754e-01,3.58370e-01,-2.53188e-02,1.88224e-01,8.05970e-02,2.56672e-02,-4.99805e-03,4.26303e-02,-1.09983e-01,4.10546e-01,2.49223e-01,-8.12389e-02,-5.98184e-01,-6.15040e-02,6.25750e-03,1.89793e-01,-3.97128e-02,2.52620e-01,4.95706e-02,1.18670e-01,-1.67683e-01,-7.44832e-02,-2.27730e-02,-1.72928e-02,4.81553e-01,-1.14800e-01,3.08462e-01,2.16603e-01,-3.16224e-01,1.49346e-02,-4.54133e-01,-3.33872e-01,-3.43621e-01,1.96042e-01,7.79827e-03,-1.87445e-01,2.28631e-02,6.77386e-02,
-1.47440e-01,2.75739e-04,-2.84311e-01,-1.29237e-02,7.80093e-03,2.25590e-03,1.78366e-01,5.17498e-02,3.53981e-01,1.40211e-01,9.08492e-02,-4.34581e-03,4.88512e-02,1.22096e-01,-3.84065e-01,7.17090e-02,9.13892e-03,1.48338e-02,-7.74221e-02,-8.36853e-02,-6.32425e-02,-1.36536e-01,-9.32823e-02,-1.26380e-01,-8.17831e-02,-3.45624e-02,2.16617e-01,-2.73430e-01,1.09356e-01,-5.57918e-01,-1.55267e-01,-5.58223e+00,1.27815e-01,-6.65899e-02,-6.46503e-02,1.14934e-01,-1.85834e-01,4.43647e-02,1.43148e-01,1.84344e-01,2.48348e-01,3.58774e-01,-2.45361e-01,1.38944e-01,-5.83930e-02,
-9.40768e-02,
-2.15019e-01,
1.32288e-01,
-9.96926e-02,
-1.53494e-01,
9.94453e-02,
4.19099e-02,
4.23847e-02,
-2.44892e-01,
2.65660e-01,
-5.89359e-01,
6.99136e-02,
3.58583e-02,
2.50433e-02,
2.07586e-01,
2.64684e-01,
2.30718e-01,
5.42256e-02,
-6.45074e-03,
1.38504e-01,
3.21918e-01,
-1.53792e-01,
-7.27706e-01,
8.72544e-02,
-8.50470e-02,
1.72062e-01,
-4.57593e-03,
1.72461e-01,
1.99426e-02,
2.23901e-01,
1.78866e-01,
2.22275e-01,
-3.73531e-02,
6.87118e-02,
1.77414e-01,
-2.29981e-02,
-2.15407e-02,
-2.05162e-01,
1.22385e-01,
-5.84481e-02,
1.24608e-01,
8.85963e-02,
3.32766e-03,
-4.39399e-02,
1.95259e-01,
-5.85006e-01,-1.55923e-01,9.67794e-02,5.91472e-01,6.21319e-01,1.83868e-01,2.08347e-01,3.49416e-01,2.51173e-02,1.11629e-01,4.40480e-02,2.89205e-01,3.28008e-01,-3.94871e-01,2.28088e-03,-5.55325e-02,6.07063e-01,-1.21071e-01,-1.54851e-01,-1.51811e-02,-1.04347e-01,5.68555e-02,-7.33566e-01,3.52451e-01,-1.07835e-01,1.78985e-01,2.56635e-02,2.58366e-02,9.28005e-02,-1.26773e-01,-2.73820e-02,-8.59718e-02,-1.07929e-01,1.07844e-01,-2.38605e-01,-1.73921e-01,1.93433e-01,-8.75297e-02,-4.18020e-02,1.79089e-01,2.71164e-01,-2.31196e-01,1.73705e-01,7.67229e-02,1.12927e-01,
-8.84520e-01,7.41081e-02,-3.60029e-02,1.68924e-01,-1.64712e-01,2.93818e-01,-1.89481e-01,2.08525e-01,1.80321e-01,-2.69490e-02,-7.74619e-02,3.39398e-01,8.72146e-02,-3.81650e-01,3.89315e-02,2.54537e-02,4.66329e-02,1.23747e-01,-1.03677e-01,2.86537e-02,9.13527e-02,9.23368e-02,-1.10261e+00,-3.06573e-01,-1.95610e-01,2.61288e-01,-1.74591e-01,-1.95050e-01,1.34924e-01,1.58215e-01,1.88475e-01,-1.52381e-01,-1.38649e-01,-1.08311e-01,1.38806e-01,-2.87691e-01,-2.53471e-01,-2.63068e-01,8.78502e-02,3.32315e-02,-1.46419e-01,1.59393e-01,-8.57005e-02,2.52262e-01,1.94043e-01,
-3.07388e-01,-5.13663e-02,-1.39417e-01,1.40281e-01,1.16386e-02,1.26103e-01,-7.65840e-02,2.09360e-01,-4.07626e-01,-4.20521e-02,-5.20937e-01,-7.90646e-02,1.11946e-01,-4.34631e-01,3.00810e-02,9.13569e-02,2.34456e-01,-3.55782e-01,3.06852e-01,-1.50914e-01,3.76642e-01,4.52104e-02,-2.16756e-01,5.63208e-02,2.54409e-01,1.28069e-01,-3.14999e-01,5.51875e-02,5.03261e-02,2.09538e-02,-1.86093e-01,1.02373e-01,-1.56358e-02,6.15715e-02,-1.61385e-01,-1.69335e-01,-6.13451e-02,-2.76090e-01,-1.52365e-02,-4.94920e-01,-9.41999e-02,6.62641e-03,-8.64680e-03,-3.07222e-01,6.11848e-02,
2.55398e-01,-1.42100e+00,2.71580e-01,-3.00040e-01,-1.62663e-01,1.54898e-01,-6.10800e-02,-6.68247e-02,3.05023e-02,2.54736e-01,6.39245e-02,2.48925e-02,-2.50149e-01,2.08089e-01,-1.10690e-01,-1.71323e-01,3.17695e-01,-2.45743e-01,9.38841e-02,1.47115e-01,-1.93111e-01,4.21075e-02,-1.97935e-02,-3.25340e-02,1.41623e-01,2.46769e-01,-1.88167e-01,-5.47435e-02,-2.47934e-01,1.52144e-01,-1.14821e-01,-2.78030e-02,-2.04875e-01,1.82303e-01,5.71816e-03,-3.02362e-02,-6.54497e-02,-4.68073e-01,-3.15385e-01,-1.60722e-01,6.13744e-02,-1.36522e-01,-4.44072e-02,-8.56460e-02,1.77256e-01,
-5.32964e-01,-1.02325e-01,7.55014e-02,1.66011e-01,1.17633e-01,1.02702e-01,-3.87281e-01,9.55022e-02,-3.01964e-02,-1.13000e-02,3.63988e-02,-1.12817e-01,4.88912e-02,-5.86581e-01,-1.51503e-01,-7.25887e-02,2.95479e-02,-2.46374e-01,5.00138e-02,2.83935e-01,1.93698e-01,-2.77807e-02,-1.14409e-01,-1.01733e-01,4.73328e-02,2.04308e-01,-2.87953e-01,2.31485e-01,-1.60447e-01,1.03401e-01,-1.32509e-01,-2.67877e-01,-2.11428e-01,-1.70124e-01,1.02133e-01,-2.75798e-01,-2.38797e-01,2.32120e-02,1.07481e-01,-1.60606e-01,-2.69503e-02,1.29509e-01,5.95343e-02,1.58372e-01,-6.96886e-02,
9.87284e-02,-7.53465e-01,1.04952e-01,5.13510e-01,-4.53254e-02,-2.68272e-01,-2.61809e-01,-4.72239e-01,-1.48008e-01,-5.16645e-01,-1.40730e+00,2.55442e-01,2.51745e-01,-9.70922e-02,6.33860e-01,-7.71872e-02,2.05763e-01,-1.52594e-01,-4.29281e-01,1.40741e-01,2.86121e-02,-4.21310e-01,-8.42087e-02,1.91888e-01,5.36918e-01,1.83778e-01,-1.46728e-01,-2.26919e-01,1.50822e-01,1.22423e-01,-8.69591e-02,-1.93609e-01,9.64163e-02,-3.64359e-01,-7.84504e-02,-2.42250e-01,-8.24214e-02,-8.14231e-02,-1.83704e-04,-1.33911e-01,1.69797e-01,1.91915e-01,1.28091e-01,-2.95506e-01,-9.24311e-01,
-3.19009e-01,2.20810e-01,1.20646e-02,-1.85994e-01,3.20914e-02,3.35108e-01,-6.39532e-01,1.21487e-01,1.35961e-01,-1.28743e-02,7.94360e-03,8.37353e-02,-3.55609e-01,1.52102e-01,-2.68838e-01,2.46119e-01,-2.42045e-01,-2.35497e-01,6.75510e-02,1.05735e-01,7.97103e-02,-3.86804e-02,-2.90156e+00,-2.41778e-01,-1.59961e-01,-1.99804e-02,-1.18993e-01,4.74613e-01,-2.21297e-01,2.51054e-01,-5.50764e-02,5.48775e-02,4.22366e-02,-5.02385e-02,1.94231e-02,9.32058e-03,-1.20574e-01,-2.63487e-01,3.46827e-02,2.44291e-01,-1.53077e-01,9.56031e-02,1.29959e-02,9.27170e-02,-2.81804e-01,
-1.41436e-01,9.32445e-02,-3.91836e-02,6.92729e-02,1.00067e-01,2.92737e-02,4.80595e-01,-1.58083e-01,-4.78707e-02,8.04371e-02,-4.30353e-02,2.64982e-01,2.71699e-01,-1.41389e-01,2.12575e-01,-7.37866e-02,2.30532e-01,1.35270e-02,-3.40743e-01,-1.06597e-01,-6.28091e-02,2.05122e-01,-1.11921e+00,1.70467e-02,1.37838e-01,-5.98414e-02,8.33573e-02,2.35372e-01,4.79392e-02,1.13572e-01,-2.52783e-01,-9.65699e-02,-1.88099e-01,-1.28715e-01,2.78662e-01,-3.05688e-01,-2.03842e-01,-8.73499e-02,-2.77619e-02,1.59321e-01,4.69137e-02,-3.39645e-02,-4.34291e-02,-9.92896e-02,6.98154e-02,
-4.52541e-01,-2.07775e-01,2.80981e-01,2.24568e-01,-5.65656e-01,-6.07233e-02,-4.20727e-01,2.31102e-01,-2.19269e-01,-2.28034e-02,-4.23325e-02,-2.04060e-01,-6.78022e-01,-8.50965e-02,2.42420e-02,1.68069e-01,-3.84052e-01,1.55797e-01,1.50907e-01,-1.34907e-02,-1.07358e-01,6.42550e-02,-3.82907e-01,-1.94931e-01,3.57523e-01,-6.27491e-02,-2.45557e-01,1.92401e-01,2.02055e-01,2.34699e-01,2.52289e-01,4.18587e-02,2.14446e-02,1.70247e-01,8.04566e-02,-1.11945e-01,1.60508e-01,-4.10084e-01,-2.28354e-02,1.03236e-01,1.75295e-01,2.02377e-01,-1.24148e-01,8.75442e-02,-2.15319e-01,
-6.29440e-01,1.10002e-01,2.58334e-01,4.56902e-02,3.61599e-02,1.09138e-01,6.65405e-01,1.54487e-01,1.94551e-02,3.51408e-01,8.04397e-02,-6.05872e-02,-4.87110e-02,-1.34498e-01,-4.19814e-01,2.48503e-01,1.98298e-01,-5.07672e-02,-2.23862e-01,-3.85464e-01,-1.14999e-01,5.16881e-02,1.71771e-01,4.50061e-02,-7.91843e-02,-2.17767e-01,5.80625e-03,-3.24354e-01,-1.32187e-01,1.98045e-01,-6.45835e-01,-3.99798e-02,2.22494e-01,1.76205e-01,-4.20032e-01,4.70716e-01,-6.37584e-02,-4.63420e-01,6.63478e-02,-1.37343e-01,1.81876e-01,-2.14099e-01,-5.04152e-02,2.74154e-01,-2.32327e-01,
-8.47836e-01,2.89837e-01,-1.51457e-01,8.68604e-01,-1.07914e-01,3.38506e-01,-2.56427e-01,-6.14486e-02,-4.82184e-02,-1.66193e-02,1.50492e-02,1.13817e-01,-4.20540e-01,-1.91071e-01,-4.53418e-02,1.74311e-01,-3.90108e-01,1.36576e-02,-2.04580e-01,2.28714e-01,-6.13100e-02,-3.53740e-02,-1.11921e+00,-2.90356e-01,1.61228e-01,-7.98421e-02,-2.42559e-01,1.74408e-01,-1.32872e-01,3.79920e-01,-1.38958e+00,-6.50681e-01,1.19290e-01,-1.98012e-01,2.09756e-01,-2.85356e-01,-1.96090e-01,-5.14744e-01,1.28563e-01,1.49844e-01,-3.51979e-01,8.50787e-02,1.48713e-01,-4.45487e-02,2.93988e-01,
2.62719e-01,2.87038e-01,-2.78550e-03,-2.93743e-01,-2.13215e-01,1.56690e-01,-2.09178e-01,1.24301e-01,1.56168e-02,4.04154e-01,6.93582e-02,-2.76277e-01,-6.13257e-02,-5.04717e-02,-3.26200e-01,1.81111e-01,-1.27737e-01,-2.54730e-01,8.17318e-02,2.69494e-01,3.36794e-02,-3.21468e-03,-3.20054e-01,-1.81463e-01,-7.53669e-02,-5.13859e-01,-4.29871e-01,6.81561e-02,-1.26421e-01,8.97793e-02,1.30234e-01,2.88795e-01,1.18031e-01,2.88079e-01,-1.16963e-01,2.35333e-01,1.91569e-01,-3.27632e-01,3.09541e-02,2.07688e-01,-8.58399e-02,-4.19653e-01,-2.61653e-01,-1.58047e-02,-1.33243e-02,
-3.76928e-01,1.10078e-01,5.97075e-01,-1.92469e+00,5.29615e-01,2.07457e-02,-1.03301e+00,1.60099e-01,-1.94082e-01,4.25787e-01,1.71146e-01,4.69717e-01,-6.82688e-01,-6.18985e-01,-2.60153e-02,-1.79241e-01,-3.73684e-01,1.49942e-01,-4.90184e-01,-4.27690e-01,-2.24378e-01,-2.27240e-01,-3.08358e-01,1.29920e-01,-2.19480e-01,-2.65408e-01,-5.14467e+00,7.82298e-03,-2.12423e-02,-5.35105e-01,-2.07256e+00,-1.08917e-01,1.21825e-01,1.78420e-02,-1.68408e-01,-1.13507e-01,1.08404e-02,2.19543e-02,-9.48723e-01,-1.15222e-01,-2.62334e-01,-6.71118e-02,9.81474e-02,2.14897e-01,-3.17725e-02,
1.05627e-01,-3.59788e-01,3.64781e-01,-1.97091e-01,-2.35023e-01,4.61596e-01,5.11728e-01,1.85729e-01,-9.99044e-02,-1.37974e+00,-3.11909e-02,1.37711e-01,-3.19985e+00,-7.32657e-02,-5.44600e-02,1.01547e-01,-5.40267e-02,-1.27685e-01,-4.26803e+00,1.34754e-02,1.08193e-01,7.65943e-03,-4.46948e-01,7.64005e-02,-2.43120e-01,-6.09787e-02,2.98994e-01,-1.31562e-01,-1.78901e-01,-1.00467e-01,5.36048e-02,-2.73152e-04,1.98224e-01,2.48595e-02,-2.97606e-01,-3.29105e-01,-1.66302e-01,-2.47439e-01,6.66475e-03,-1.14134e-01,2.11707e-01,4.64978e-02,3.19180e-02,-2.33006e-01,2.38918e-01,
1.72919e-01,4.28271e-02,1.30412e-01,2.05937e-01,2.26030e-01,1.08078e-02,-4.09325e-01,1.12037e-01,-6.41848e-02,-8.25479e-02,2.18742e-01,3.68455e-02,-8.08532e-02,2.83451e-01,-4.24682e-02,2.75474e-02,2.37440e-01,1.77899e-03,1.19472e-01,-1.72331e-01,4.18451e-02,-1.21740e-01,6.03275e-01,1.87400e-02,-5.29684e-02,5.69433e-01,1.35648e-02,1.33008e-01,-5.83954e-03,2.93120e-01,4.42785e-03,-8.97215e-02,1.52681e-01,-6.77694e-01,-1.76092e-01,-1.69930e-01,2.05276e-01,9.19913e-02,2.39803e-01,1.60437e-01,1.19173e-01,-8.97267e-02,-8.53437e-02,-2.74194e-01,-5.08290e-01,
7.55979e-01,-3.53356e-01,-1.06233e-01,-8.96729e-01,9.46082e-02,5.12797e-02,2.12558e-01,-1.71442e-01,1.68113e-01,-4.21398e-01,-1.02538e-01,-4.24467e-01,4.88458e-01,3.15802e-01,-2.76913e-01,5.43062e-02,5.05436e-02,1.31390e-01,1.87685e-01,-1.18616e-01,-2.21795e-01,-1.31643e-01,-7.03367e-01,1.64239e-01,3.75655e-03,1.57598e-01,-3.54508e-01,1.70769e-01,-5.57798e-02,-2.36066e-01,-6.63706e-02,-1.14875e-01,-2.31613e-01,9.87168e-02,1.44560e-01,-6.72449e-03,-1.22365e-01,2.45066e-01,2.09482e-02,-2.49866e-01,2.17746e-01,-3.23437e-02,1.85502e-01,4.66681e-01,-2.13298e-01,
-4.36651e-02,-6.60568e-02,-4.36080e-02,6.97741e-02,-1.40103e-01,1.19963e-01,-1.26316e-02,-1.95930e-01,-1.28455e-01,-1.04218e-01,-5.94663e+00,4.64883e-02,5.55100e-02,-9.94875e-03,-2.20535e-02,-8.01834e-02,-3.27166e-02,1.76009e-01,-1.96062e-02,6.90266e-02,1.36229e-01,-6.46922e-02,-1.76170e+00,6.37806e-03,-2.12339e-02,2.52744e-01,1.29335e-02,1.11987e-01,-2.24629e-02,-1.00035e-02,7.94102e-02,-2.20176e-04,-2.55640e-01,-3.70890e-02,4.96892e-03,2.23982e-02,6.28654e-03,2.44533e-01,-3.95325e-02,2.30266e-01,-4.75876e-02,-3.60454e-02,-2.85284e-01,3.25195e-02,2.25730e-02,
-2.96372e-02,-7.75481e-02,4.10246e-02,-8.59048e-02,3.19901e-02,4.12135e-02,-2.46258e-01,2.91778e-01,3.48239e-01,-9.84967e-02,4.45548e-02,-6.03860e-01,-1.45109e-02,5.79856e-02,1.36068e-01,-7.13573e-03,-1.83098e-01,-6.58995e-02,5.92951e-02,3.49168e-02,1.76919e-01,1.90248e-01,1.21758e-01,-2.09935e-01,1.36233e-01,2.03670e-01,-2.11655e-01,-5.54760e-03,-1.82857e-01,1.38935e-01,-1.44287e-01,1.23124e-01,-6.90623e-02,-4.72165e-02,6.53429e-02,3.56938e-01,1.88483e-01,-2.39672e-01,-3.89997e-02,-6.00347e-02,-2.08349e-01,3.93185e-02,3.18594e-01,-1.90587e-01,-2.88742e-03,
-7.60077e-02,2.62974e-01,1.83229e-01,-7.19091e-02,4.10465e-01,-1.21272e-01,2.91600e-01,-1.98850e-01,-1.34164e-01,-1.26053e-01,-3.43082e-02,-1.83670e-02,-1.12155e-02,-9.83710e-02,1.59977e-03,1.60416e-01,-1.18804e-02,1.86406e-01,1.55689e-01,-1.27376e-01,3.34842e-01,-2.32771e-01,-5.08679e-01,-2.19120e-01,-3.07823e-02,5.92905e-01,1.02564e-01,5.00629e-02,-2.89225e-01,1.92047e-01,9.43253e-02,6.78215e-02,3.49281e-02,-3.87216e-02,1.91803e-01,-5.30561e-01,-2.34830e-01,2.13888e-01,-2.69485e+00,-1.94921e-01,-1.36719e-01,-3.91328e-01,3.62903e-02,-1.53689e-02,3.59205e-01,
-8.57158e-02,-5.02293e+00,-1.50685e-01,-2.41391e-01,-1.26096e+00,2.65783e-01,-3.70619e-01,-5.47720e-01,2.96351e-01,-2.87940e-02,-1.81098e-01,1.09452e-01,9.58549e-02,-2.11525e-01,-2.41561e-01,-4.06861e+00,-4.74528e-01,2.44876e-01,-1.20447e-01,7.52754e-02,-4.30602e-02,3.80130e-01,-4.58103e-01,2.34594e-01,4.04510e-02,3.75001e-01,-3.78495e-01,1.01566e+00,-9.31764e-02,-1.37612e-01,1.79572e-02,-6.33864e-02,-3.36719e-02,-3.61342e-01,1.58663e-01,5.57110e-01,-1.03632e-01,-5.95648e-01,-3.76866e-01,2.73076e-02,-2.68627e-01,4.22278e-01,-3.92909e-01,2.45286e-02,-1.16870e-01,
-3.33419e-01,-4.18109e-01,-2.95503e+00,3.80465e-02,-5.89453e-01,6.30188e-02,-7.10246e-02,-3.53825e-01,3.16245e-01,-3.41639e-01,7.92004e-01,-3.72036e-01,-1.43318e-01,1.75959e-01,-2.82398e-01,-1.38520e-01,-2.16703e-01,-6.93379e-03,-3.52540e-01,-6.89051e-02,-1.68439e-01,2.31022e-01,8.95786e-01,-7.73672e-02,2.15825e-01,-1.59442e-01,-4.72776e-01,3.28186e-02,-3.80692e-01,-3.14928e-01,-2.33105e-01,-3.81122e-01,-2.10609e-01,-2.43241e-02,-2.97179e-01,1.53572e-01,-4.64840e-02,1.89058e-01,-5.34200e-01,-7.04051e-03,-4.83504e-01,-1.69390e-02,-2.94634e-01,3.43221e-02,-1.50493e-01,
-4.11895e+00,-8.73432e-02,-4.96907e-01,-3.30821e+00,-8.46367e-02,2.26140e-02,-8.51197e-02,-7.03877e-02,6.24946e-02,2.00541e-01,2.83104e-02,1.15929e-02,-2.91586e-02,-3.35788e-02,-5.84770e-02,1.38792e-01,-1.06007e-01,-7.50833e-02,-1.82667e-01,3.25782e-01,-4.88398e-02,2.57076e-01,4.20801e-01,4.58709e-02,7.49426e-02,1.68692e-01,-1.78012e+00,-1.10376e+00,-7.35012e-02,-4.01209e-01,-2.66983e-01,-2.60437e-01,2.06456e-01,-2.88381e+00,7.53340e-02,4.72875e-02,2.85636e-02,5.07365e-02,-1.06648e+00,-7.27968e-03,-1.92276e-01,-6.03885e-04,1.65492e-01,1.61920e-01,-4.14825e-01,
-6.18254e-01,-2.88366e-01,2.29081e-01,7.76225e-01,-2.62082e-01,-2.72407e-01,8.08322e-01,1.88817e-01,-1.03836e-01,-1.89300e-02,1.21945e-01,1.77399e-01,9.02588e-03,-3.61454e-03,1.69978e-01,-4.17220e-02,-1.19922e-01,-1.62000e-01,1.32343e-01,1.32989e-01,-1.25354e-01,-3.31319e-02,5.59324e-01,1.17834e-01,1.06668e-01,1.12771e-01,-6.88054e-01,-7.73893e-02,2.44247e-01,-2.25337e-01,-1.60289e-01,-9.69329e-02,6.06481e-02,-1.94111e-01,9.60941e-02,-2.24829e-01,-5.42809e-02,1.54301e-01,-1.79508e-01,-5.54948e-02,4.07740e-02,-4.14147e-02,1.38953e-01,-7.68377e-03,-3.14500e-02,
1.95512e-01,1.18104e-01,4.27585e-01,-1.96308e-02,-4.65524e-02,6.75725e-01,3.98440e-01,3.84661e-02,-7.32518e-02,-1.22185e-01,8.22549e-02,5.35543e-02,1.68463e-01,3.50606e-01,-1.84641e-02,5.04968e-02,2.23028e-01,2.92213e-01,1.58644e-01,-5.17782e-02,-1.18334e-01,-3.29846e-01,5.64847e-01,-1.82914e-01,2.76006e-01,3.46061e-01,3.42633e-01,-1.52684e-01,-3.00943e-02,-2.70214e-01,-3.96760e-01,-2.23925e-01,1.38778e-01,7.54873e-02,1.18429e-02,2.37574e-01,-2.27995e-01,-9.33912e-02,2.92023e-04,2.47141e-01,-1.37308e-01,-2.95820e-01,-6.95143e-01,4.91172e-02,-3.65999e-01,
-1.34641e-01,1.70979e-01,3.06274e-02,6.79826e-02,2.42479e-02,-1.65894e-02,9.20783e-02,-1.72520e-01,-1.62058e-01,1.51890e-01,-1.97878e-01,-2.57914e-02,-3.00849e-02,-7.06285e-02,2.03444e-01,5.19535e-01,1.46640e-01,-3.96488e-02,5.66873e-02,1.87754e-02,-2.57553e-01,2.26915e-03,-7.47380e-01,-7.18114e-02,-5.30966e-02,-1.46129e-01,1.34578e-01,-8.97509e-02,1.40118e-03,9.24039e-02,-1.38406e-01,-5.14123e-02,-5.98598e-02,2.22590e-01,-1.31908e-01,3.22571e-01,1.98888e-01,-4.99125e-02,1.70497e-01,3.27365e-01,-1.12707e-01,-2.68080e-01,5.41238e-02,5.49271e-02,-1.26602e-01,
-9.96794e-02,1.92073e-01,4.86403e-01,4.66501e-01,2.05347e-01,7.94679e-02,7.97872e-01,2.09799e-01,-2.91752e-01,-1.90727e-01,3.18137e-01,1.13168e-01,3.50922e-01,5.80060e-01,-4.39936e-02,-1.27847e-01,8.29521e-02,4.72051e-02,8.59970e-02,3.81301e-02,-5.28010e-02,-3.38066e-01,1.00670e+00,-1.25313e-01,4.95694e-02,2.15198e-01,-6.53922e-01,-2.31794e-01,1.16282e-01,-2.07102e-01,-3.67400e-02,2.25779e-02,1.62410e-01,2.27970e-01,-2.91283e-01,-1.46299e-02,-1.81933e-01,5.53106e-02,5.26437e-02,2.02630e-01,-5.10928e-02,1.88394e-01,-1.63077e-01,-1.18110e-01,-2.10206e-01,
-1.77751e+00,-5.07165e-02,6.44862e-02,7.24433e-01,7.17807e-02,-9.15189e-02,2.50176e-01,-3.32825e-01,-1.41196e-02,3.15459e-01,6.14345e-02,2.53080e-01,-2.77345e-01,1.12829e-01,-1.88043e-01,-3.28528e-01,7.63706e-01,-1.61629e+00,1.27896e-01,1.45630e-01,5.42085e-01,-7.15535e-02,-2.82205e-01,2.82902e-01,-6.14196e-02,-1.61916e-01,-3.00220e-01,-7.48047e-01,4.17916e-01,-2.82121e-01,-7.21892e-01,-5.15995e-01,-4.43427e-03,7.92481e-01,-5.04472e-01,-9.15182e-01,-3.72238e-02,9.12956e-02,3.40583e-02,-2.08091e-01,-4.47292e-02,-1.16264e+00,-1.68284e-01,1.97476e-01,7.09420e-02,
-8.52151e-01,8.48312e-02,-4.41110e-02,9.83538e-01,3.95955e-01,4.06208e-02,2.48216e-03,2.94948e-01,1.88724e-01,8.58232e-02,-1.02660e-02,4.00653e-01,3.36715e-01,-2.63137e-01,-1.01201e-01,4.20112e-02,3.00295e-01,3.43567e-01,-5.83405e-01,1.16049e-01,-2.94593e-01,-2.73029e-01,-1.19773e+00,2.30107e-01,-4.05027e-01,-2.26362e-02,-2.13097e-01,-1.76087e-03,-5.39847e-02,-2.46015e-01,3.04487e-01,3.50097e-02,-7.30078e-02,5.98433e-02,-4.34829e-01,-3.01520e-02,6.37222e-02,1.06358e-01,-7.30728e-02,-1.09332e-01,3.37156e-01,-1.42267e-01,-1.66218e-02,-1.51775e-01,6.92412e-02,
-2.09973e+00,3.41885e-02,-3.98961e-02,3.54023e-01,-1.09503e-02,2.97789e-02,2.58099e-02,-1.88228e-03,8.13581e-03,-3.18448e-03,1.35984e-01,-6.73410e-03,5.25142e-03,1.94838e-02,2.08969e-02,-1.99589e-02,-1.11549e-02,2.06686e-02,-7.29263e-02,-1.68524e-02,-4.00913e-04,1.20275e-02,-8.30205e-01,-1.70306e-02,-6.47687e-03,1.84259e-01,-8.38434e-02,-1.29747e+00,7.75942e-03,5.30853e-02,-2.13172e-02,-1.19960e+00,2.08921e-01,-2.75800e+00,1.89233e-02,5.49321e-03,-2.21792e-01,-1.74933e-02,1.81056e-02,-1.86832e-01,8.60003e-03,5.54159e-02,-4.08529e-02,-1.50092e-02,-2.51040e+00,
-1.03161e-01,-1.64346e+00,-2.28220e-02,-3.50836e-01,1.38702e-01,6.03314e-01,5.15312e-02,-1.07002e-01,-2.27158e-01,-4.21779e-02,1.22486e-02,-1.02418e-01,-2.20403e-01,7.13985e-01,-8.67946e-01,-4.55233e-02,1.65882e-01,-9.71997e-02,1.41772e-02,-5.01157e-02,4.78397e-02,2.75496e-01,2.55041e-01,-9.30086e-01,5.14741e-01,9.07104e-02,-2.53240e-01,-4.35860e-01,3.23077e-01,-4.35532e-02,4.06239e-01,-2.53314e-01,-2.28529e-01,-3.46656e-01,-5.41428e-01,-1.38016e-01,-1.06270e-01,5.42952e-02,-3.25666e-02,-1.15610e-01,2.75052e-01,2.24213e-01,2.04687e-01,-8.10295e-02,-1.01436e-01,
-1.31548e+00,1.33271e-01,8.93517e-02,1.46189e+00,-1.24668e-01,1.55294e-01,-7.91508e-02,-6.17081e-02,-2.79200e-02,1.95205e-01,-1.62982e-01,-3.62033e-02,-1.95768e-01,-1.25239e-01,1.04406e-01,6.43305e-02,-4.15158e-02,-3.67101e-01,-1.52547e-01,1.75275e-01,-1.10438e-01,-8.50227e-02,7.05391e-01,-1.92553e-02,2.09207e-01,-1.09011e-01,3.75683e-01,-2.90693e-01,1.03158e-02,1.83285e-01,-3.15214e-01,-1.60646e-01,-6.25179e-02,-4.56319e-01,2.58487e-01,-2.09873e-01,-8.45194e-02,-2.32326e-01,5.12678e-02,-2.10302e-02,-7.93108e-02,-3.80696e-02,8.40594e-02,3.14016e-02,1.20938e-01,
4.12994e-01,2.20675e-03,-4.29595e-01,-9.12605e-01,4.57904e-02,1.71855e-02,3.98330e-02,1.77678e-01,1.98464e-03,6.52550e-02,-8.51882e-02,-1.33577e-01,2.84527e-02,2.21317e-01,6.65753e-02,-3.11681e-02,-8.93206e-02,-1.34873e-01,-3.03942e-01,9.81080e-02,3.37358e-02,1.83233e-02,5.66753e-02,8.44434e-02,-2.02625e-01,-1.43489e-01,1.52164e-02,1.27848e-01,2.92726e-02,2.13048e-01,-1.59479e-02,-1.48653e-01,-1.07509e-01,1.12967e-01,5.87650e-02,9.14882e-02,1.12601e-01,-5.55597e-02,-7.01234e-02,-2.06575e-01,1.88116e-01,-9.85289e-02,-1.46998e-01,-5.46184e-02,1.68444e-01,
-3.85187e-01,2.14195e-02,3.60930e-01,-2.48756e-02,-9.33065e-01,1.97934e-01,-5.52840e-01,-1.52665e-01,-3.14849e-02,3.27195e-01,1.10221e-02,5.23599e-01,-1.39227e-01,3.15130e-01,-2.79414e-01,-1.24874e-01,1.61482e-01,2.95508e-01,3.06828e-01,-3.25818e-01,-1.84638e-01,7.88504e-02,-1.82015e-01,-6.39052e-03,2.64799e-01,1.73274e-01,5.36271e-02,-1.42593e-01,-1.94108e-01,-1.46293e-01,6.53527e-01,-1.47422e-02,8.70013e-02,-1.49694e-01,-3.03984e-02,9.50697e-02,-9.83621e-02,-2.24602e-01,9.47719e-02,-9.30771e-02,2.61785e-02,1.13109e-01,6.67250e-02,4.03849e-01,-1.17554e-01,
