// Neural Network File Format by Kyle Julian, Stanford 2016
7,4,9,45,
4,45,45,45,45,45,45,9,
0,
-8000.0,-100.0,-100.0,0.0,
8000.0,100.0,100.0,40.0,
0.0,0.0,0.0,20.0,-0.4325993796315559,
16000.0,200.0,200.0,40.0,3.102300000999995,
7.85035e-03,-5.85239e-01,-1.66706e-03,2.16081e-03,
9.87739e-01,5.92388e-02,-1.90710e-01,-3.84135e-01,
-1.08398e+00,-5.46264e-03,-6.42290e-02,7.55596e-02,
5.54895e-01,-2.72264e-01,1.56056e-02,-2.45310e-01,
4.06837e-01,4.19655e-01,-4.13998e-01,7.27755e-04,
-5.66117e-02,2.94251e-01,2.65731e-01,-7.09719e-02,
1.14846e+00,2.38086e-01,-2.01554e-01,-4.15732e-01,
-1.22405e+00,5.65773e-02,-6.37491e-02,-4.34501e-01,
-8.92528e-01,-1.38811e-01,-8.48071e-02,-2.33901e-01,
1.51917e+00,-5.31476e-02,5.04973e-02,6.71849e-02,
8.40500e-03,-1.46985e-01,1.86181e-02,-5.42325e-01,
8.28616e-01,-1.54290e-01,1.60160e-01,2.51929e-01,
4.77406e-01,1.42169e-01,-2.86373e-01,-1.44593e-01,
1.44492e-01,5.65061e-01,-1.95513e-01,4.99419e-02,
-1.02218e-01,1.97440e-01,-2.57042e-01,1.66840e-02,
-1.53798e+00,3.98654e-02,-1.41403e-01,-1.57384e-03,
-7.73883e-01,3.96759e-02,1.59609e-01,7.63888e-02,
-7.11460e-01,1.33068e-01,-1.28217e-01,3.32621e-01,
7.41455e-02,3.43521e-01,1.61029e-01,2.19101e-01,
3.38689e+00,-4.17730e-03,-6.46429e-03,-3.70426e-02,
-2.18971e-01,3.85476e-01,1.14024e-01,-7.74476e-02,
3.60140e-01,6.00225e-02,-8.37532e-02,3.21189e-01,
-2.79889e-01,-2.23265e-01,2.94119e-01,3.26651e-01,
4.74636e-01,1.69155e-01,-2.03442e-01,1.43008e-01,
-3.78063e-01,-3.95759e-02,-4.37542e-02,2.63760e-01,
1.24982e-01,-6.30491e-01,3.16453e-04,4.28837e-04,
-1.12416e+00,-1.91170e-01,2.66813e-02,-2.64668e-01,
1.50843e+00,-1.67338e-01,6.14406e-02,-1.05597e-01,
-1.36132e+00,2.49419e-01,-2.37175e-01,-5.96230e-02,
2.67251e-02,-4.49124e-01,4.49442e-01,-4.17555e-02,
-5.87076e-01,1.17687e-01,-1.37816e-01,-2.38373e-01,
-7.20944e-01,-1.46345e-01,-1.72242e-01,-5.70105e-02,
-1.01910e-03,-3.30009e-01,-2.58854e-01,8.77628e-02,
-5.07280e-01,1.88688e-01,-1.95014e-01,3.52263e-01,
9.24739e-01,1.15670e-01,1.15725e-01,7.09515e-02,
4.27670e-01,-4.14877e-01,-3.04584e-02,3.08444e-03,
2.42317e-01,7.39121e-02,1.61604e-01,-4.57666e-01,
-1.11815e+00,1.25314e-01,-1.37709e-01,-3.57532e-01,
3.12358e-02,6.51674e-01,1.00077e-02,4.17561e-02,
-1.71591e-01,1.81488e-01,-1.59111e-01,-8.29002e-02,
-1.93911e+00,-2.19188e-02,1.20143e-01,-1.02885e-01,
-3.11181e-02,-7.57430e-01,-2.13502e-03,-7.77937e-04,
-2.26367e-01,4.89422e-02,-2.75508e-01,2.51337e-01,
1.11352e+00,-1.50048e-01,2.06998e-01,-1.99462e-02,
1.26606e+00,1.01571e-01,-9.25883e-02,-2.62256e-02,
7.78248e-02,
-7.79757e-02,
7.98580e-02,
6.16047e-03,
-7.00897e-02,
2.80644e-02,
-1.30231e-01,
-1.27421e-01,
-3.61441e-02,
5.65228e-02,
-8.89258e-02,
1.30155e-01,
4.19470e-03,
-5.61123e-02,
6.88120e-02,
1.63728e-02,
2.69922e-02,
1.50905e-01,
3.52354e-02,
2.69712e-02,
2.71140e-03,
1.41830e-01,
1.38480e-01,
5.46068e-02,
3.98979e-02,
8.05350e-02,
-3.96571e-02,
-1.00615e-02,
3.83212e-02,
-7.20279e-02,
-8.27761e-02,
8.10178e-03,
2.78770e-04,
1.22540e-01,
5.88057e-02,
-9.07924e-03,
-1.11540e-01,
-4.86735e-02,
-3.29415e-02,
1.94784e-02,
5.10936e-02,
-9.23992e-02,
-2.49024e-02,
2.60067e-02,
8.12541e-02,
-1.52296e-01,-1.71320e-01,2.50011e-01,-2.68758e-01,-2.88191e-01,-3.65756e-01,-6.45735e-02,-5.79870e-02,-5.34897e-02,-1.41509e-02,2.00710e-01,-3.73915e-02,-2.66925e-01,1.91907e-01,-9.32203e-02,1.02094e-01,-2.32619e-01,2.79254e-01,2.00859e-02,5.41980e-02,-2.64453e-02,-1.73401e-02,-4.87000e-01,1.23822e-01,-1.54519e-01,-4.95122e-01,1.47244e-01,-7.95832e-01,2.93185e-01,1.03074e+00,2.28514e-01,7.93842e-03,-9.92469e-02,2.65218e-01,-7.82492e-03,-7.62882e-02,1.74162e-01,2.63588e-01,-1.72873e-01,2.48475e-01,-1.29442e-01,-1.45282e+00,1.44878e-02,-2.84643e-01,7.58395e-02,
-2.40404e+00,3.51249e-02,1.00494e-01,-7.38940e-02,9.58966e-02,4.00136e-03,-7.43902e-02,2.50266e-02,1.54424e-01,2.87633e-01,-8.84607e-02,-1.20074e-01,-5.29387e-02,7.93138e-02,-8.76821e-02,4.94028e-02,-2.39940e-01,6.16398e-02,-2.14861e-01,1.50186e-01,1.74178e-01,1.73999e-01,6.80722e-02,-9.62043e-02,2.09410e-01,-2.97616e+00,3.36860e-01,-8.70824e-02,1.09842e-01,1.26704e-01,1.70112e-01,1.07051e-01,-4.27344e-01,-1.54111e-01,-2.08073e-02,-6.47707e-01,-1.10122e-01,1.88765e-02,2.10521e-01,1.17911e-01,1.60336e-01,5.05809e-02,1.67175e-01,1.78056e-01,1.39314e-01,
2.23804e-01,-6.28614e-02,-1.33059e-01,5.18589e-02,-1.36007e-01,5.11190e-02,1.18916e-01,6.11858e-01,2.16149e-01,-1.24748e-01,1.17568e-01,-8.37481e-02,-3.36454e-01,-2.79381e-01,-5.70131e-01,2.69757e-01,-9.43225e-02,-7.09832e-02,8.82259e-02,-3.99329e-01,4.56937e-02,2.94438e-01,3.10793e-01,-1.95262e-01,-3.29856e-02,-2.58584e-02,2.67557e-01,2.47578e-01,-1.21592e-01,-1.63266e-01,5.06539e-01,7.96271e-02,-3.67803e-02,-2.99559e-01,3.84426e-01,-3.68020e-02,3.38839e-02,3.05510e-01,-2.07953e-01,-3.40185e-01,1.55231e-01,-3.18376e-01,1.54265e-03,2.88903e-01,-1.74690e-01,
2.16861e-01,-3.05839e-01,-9.31202e-02,1.51044e-01,7.82101e-02,1.59869e-01,2.31868e-01,1.59798e-01,6.27069e-02,-4.59975e-01,1.34884e-02,-4.82333e-02,-2.12956e-01,-1.12629e-01,-7.58995e-02,3.68065e-01,-1.87437e-01,2.73187e-01,-2.95025e-01,-2.13131e+00,4.32870e-02,-1.88818e-02,8.11583e-02,-3.23064e-01,1.32797e-01,-4.76514e-02,4.73835e-02,-2.70332e-02,4.28484e-01,5.72824e-02,2.06625e-01,-1.83126e-01,-9.30955e-02,1.69418e-01,-8.23431e-02,-1.46643e-01,2.76118e-01,2.13064e-01,8.30026e-02,2.38198e-01,3.56846e-01,2.18963e-01,-1.50070e-01,-9.10922e-02,-3.18192e-01,
3.17107e-01,2.83062e-01,5.38242e-02,2.64562e-02,4.80343e-02,-1.40452e-01,1.01500e-01,-5.45753e-01,-1.64916e-01,1.98869e-01,-2.04502e-01,1.12274e-01,1.39340e-01,-1.60206e-01,-1.39575e-01,-4.33149e-01,2.78790e-02,-2.91589e-01,-9.41155e-02,-2.59529e-01,2.34003e-01,-2.80335e-02,-2.64812e-02,3.83646e-01,-2.58715e-01,-4.15826e-02,-1.43714e-01,1.13739e-01,1.36292e-01,2.33067e-01,2.96727e-02,1.38272e-01,2.42890e-01,-3.81635e-01,-2.89278e-02,-2.89018e-02,-6.22190e-02,-1.59447e-01,1.35256e-01,-1.25401e-01,3.22047e-01,-1.75907e-03,-1.16581e-01,-2.42681e-01,-1.01839e-01,
-4.68556e-02,-2.10339e-02,1.00448e-01,1.57732e-01,-1.03819e-01,2.19251e-01,3.92739e-01,-3.69526e-01,1.04891e-03,2.75057e-01,1.81193e-01,6.63678e-02,1.62041e-01,-5.21426e-02,-1.14627e-02,4.94500e-03,-4.41730e-02,-3.17058e-01,2.38985e-01,6.13904e-02,-1.50137e-01,-5.35113e-01,4.88968e-01,-1.12735e-01,1.65975e-01,-1.62410e-01,-4.20454e-02,5.52722e-02,-3.47253e-01,-3.02752e-01,7.61441e-02,-8.61248e-02,-7.45105e-02,-3.53395e-01,1.17782e-01,1.63670e-01,-1.15652e-01,-4.36714e-02,-9.05600e-02,-1.01959e-02,-3.00699e-01,7.05901e-02,-2.94278e-01,3.02477e-01,2.33310e-01,
1.58397e-01,1.42098e-01,-9.71101e-02,-2.79726e-02,2.16195e-01,1.85549e-01,1.78880e-01,1.38092e-01,1.92817e-01,-1.16260e-01,-2.22103e-01,6.28569e-02,3.58481e-01,-3.97962e-01,-2.77206e-01,3.62256e-02,1.41863e-01,4.51479e-02,4.41812e-01,-6.61321e-01,5.37596e-03,1.75598e-01,-1.98781e-01,1.55624e-02,-3.23489e-01,-2.23260e-01,1.83428e-01,3.66215e-01,-9.24257e-02,1.12393e-01,-1.32327e-01,1.13616e-02,4.25027e-01,6.78931e-02,2.19025e-01,-8.79323e-02,8.09906e-02,-2.07831e-01,1.22321e-01,2.39465e-01,6.62340e-04,2.45070e-01,2.73705e-02,-1.72100e-01,-8.01447e-02,
-2.46274e-01,5.52695e-02,-2.30812e-01,-2.27715e-02,4.02250e-01,-2.10247e-02,4.61988e-01,2.34288e-01,1.67249e-01,-1.45730e-01,3.14420e-01,-1.13687e-01,1.68968e-01,-1.25082e-01,-9.23233e-02,-3.38915e-02,1.43616e-01,-9.13348e-01,-1.32310e-01,3.60542e-01,1.36424e-01,-3.28294e-01,-2.84789e-02,-2.02978e-01,1.58517e+00,1.10771e-01,-1.92147e-01,-8.50195e-03,-1.95535e-01,-6.23848e-01,6.36665e-02,7.23490e-02,2.37681e-01,-4.53824e-01,-3.07176e-01,5.01827e-02,4.18282e-01,2.42527e-01,1.10627e-01,1.48739e-01,-3.13116e-01,-1.19516e-01,-5.25652e-02,3.98355e-02,6.55560e-02,
1.77415e-01,3.50382e-01,-1.78760e-01,-1.74675e-01,1.65063e-01,1.25335e-01,3.46955e-01,-4.38320e-02,-1.73230e-01,3.42658e-01,1.32598e-01,4.79661e-01,-2.17968e-02,-1.65549e-02,6.93112e-02,-6.93822e-02,-1.19246e-01,3.09472e-02,1.75612e-01,3.91097e-01,-7.02528e-02,-2.92811e-02,3.62591e-01,-1.51606e-01,-1.62844e-01,2.01350e-01,-2.48442e-01,6.43426e-02,-1.14555e-01,-2.68413e-01,1.90408e-01,-5.21466e-04,-1.34688e-01,-6.29843e-02,5.81554e-05,7.39478e-02,9.99726e-02,-1.74265e-01,-2.22332e-01,1.36973e-01,-1.37334e-01,3.43231e-01,-1.23961e-01,1.46219e-01,-2.79809e-01,
1.69507e-01,-5.14981e-02,-3.04185e-01,1.26952e-01,-3.68321e-01,2.81927e-01,-8.80366e-03,3.46252e-02,-1.70743e-02,-3.82277e-01,-7.82287e-02,-3.48330e-01,-3.38202e-02,3.06404e-01,7.54825e-02,2.32344e-01,-1.08614e-02,-1.87564e-02,1.70618e-02,-8.25207e-01,2.91108e-01,3.88455e-01,-9.94690e-02,2.05230e-01,5.72000e-02,-1.12032e-01,1.28694e-01,-8.87155e-02,-1.63966e-02,2.06892e-01,-1.40276e-02,4.13969e-02,1.22540e-01,-1.69201e-01,-3.11252e-01,2.89000e-01,2.27932e-01,2.98913e-01,3.52174e-01,2.93014e-02,1.28066e-01,2.65259e-01,1.07188e-01,-2.90704e-01,-2.51614e-01,
-2.40440e-03,2.75168e-01,-6.61534e-02,2.85222e-01,-9.24509e-03,-3.99318e-01,-5.27186e-02,2.53572e-01,1.67520e-01,3.16117e-01,6.56102e-02,3.98751e-01,1.82813e-01,7.49708e-02,-1.50348e-01,-7.50089e-01,-1.18841e-02,1.48548e-01,-9.11518e-02,1.13955e-01,-1.15448e-01,-5.16781e-02,-2.98753e-02,6.51825e-02,1.53763e-01,3.54796e-02,5.18654e-03,2.97307e-01,-3.73859e-01,-1.79119e-01,4.53482e-02,-2.20759e-01,-2.24216e-01,-3.38168e-01,-1.65693e-01,-1.51762e-01,5.30581e-02,-1.09559e-01,-4.11817e-01,1.91325e-01,-2.03301e-01,-2.11872e-01,-2.62609e-01,1.96495e-02,-2.74537e-02,
-5.17945e-01,-9.69502e-02,-6.94888e-02,4.86877e-02,-4.68304e-02,1.83078e-01,6.40089e-02,3.20846e-02,-4.22802e-02,-9.45705e-02,-9.66306e-02,-8.05242e-02,-2.41733e-02,-3.59301e-02,2.98512e-01,5.68832e-02,1.09379e-01,1.07859e-01,1.08125e-01,-1.15426e-01,1.63693e-01,-1.38615e-01,3.15961e-02,1.52098e-01,1.49565e-02,-1.98755e-01,-1.15474e-01,1.41656e-01,1.62633e-01,-3.28280e-01,-1.04352e-01,4.70120e-02,-2.73478e-01,-2.42743e-02,3.08996e-01,-2.05919e-01,1.04159e-01,-5.05866e-02,-2.09344e-01,2.86159e-02,2.14087e-01,-2.64357e+00,-8.47901e-02,3.09880e-03,1.20632e-01,
5.06216e-02,-3.59600e-02,-2.80795e-02,7.00958e-02,6.13848e-02,9.44641e-02,1.19177e-02,2.75988e-01,-1.76618e-01,3.11219e-03,3.58671e-01,8.92001e-02,1.45222e-01,9.08600e-02,-6.45225e-02,-5.35608e-01,-1.33928e-01,3.54825e-01,-7.03963e-02,-5.44105e-01,1.81931e-01,1.39445e-02,-6.39708e-02,-1.42168e-01,1.56060e-02,7.31007e-02,1.49357e-01,-1.83894e-01,3.57890e-01,1.73056e-01,-2.35861e-01,-2.78993e-01,6.03599e-02,-1.23700e-01,-9.97743e-02,2.39767e-02,8.19191e-02,4.33249e-01,-1.92529e-01,2.81980e-02,-3.20526e-01,-3.77639e-02,-3.93488e-02,-2.93272e-02,1.17839e-01,
1.60684e-01,2.57370e-01,1.73042e-02,-8.52057e-02,-1.19045e-01,-2.06608e-01,2.02294e-01,-8.87589e-01,-1.50323e-01,1.22777e-01,-2.70273e-01,2.84433e-01,-1.70514e-01,-1.15564e-01,5.51954e-02,-6.86159e-02,-1.42049e-01,7.26624e-02,-3.19099e-02,-2.68754e-01,-1.45812e-01,-3.29311e-01,2.58061e-01,-2.53641e-01,-4.54686e-02,3.09049e-01,-2.81322e-01,6.17185e-02,1.08229e-01,-1.16478e-02,5.20929e-01,-3.18294e-01,-3.25448e-01,-1.13419e-01,7.39042e-02,-4.44772e-01,-1.64162e-01,-1.76438e-01,-4.39738e-01,6.00517e-02,-2.34322e-01,-1.06494e-02,-6.81464e-02,1.24803e-01,2.00315e-01,
3.00463e-01,-1.08587e-01,2.72009e-02,2.12323e-01,1.36694e-01,4.98423e-02,-6.43882e-02,-1.95203e-02,1.83226e-01,2.25121e-01,-1.11777e-01,-9.52963e-03,8.13253e-02,9.92295e-02,-7.58375e-02,-5.02649e-02,8.36287e-03,-4.87903e-02,2.79511e-01,-9.97613e-03,-7.22708e-02,-1.21873e-02,-1.40948e-01,5.01597e-02,-1.63805e-03,3.45687e-01,1.65115e-01,-5.07951e-02,1.23869e-01,-6.34892e-02,-2.50956e-01,2.55677e-01,4.16555e-01,1.54214e-01,-8.06025e-02,2.83397e-01,-7.91665e-03,1.73801e-01,3.76082e-01,3.43895e-01,1.83027e-01,4.74953e-01,9.28394e-02,4.92152e-02,-1.67522e-01,
-7.79108e-01,-1.08474e-02,-3.23034e-01,8.96538e-02,-2.83285e-01,3.12134e-01,9.88335e-02,4.82019e-02,3.95504e-02,2.49062e-01,1.33023e-01,1.27488e-01,2.75034e-01,-1.52628e-01,5.56751e-02,-2.15923e-01,-5.13321e-02,-1.75113e-01,1.83770e-01,4.07480e-02,6.45472e-02,-1.19706e-01,1.84420e-01,9.87293e-02,2.10020e-01,-6.93874e-01,-1.66994e-01,-5.70591e-02,9.28644e-03,-1.08019e-01,-5.23877e-02,-1.12136e-01,1.89170e-01,-2.79422e-01,1.24800e-01,-4.80912e-01,1.57322e-01,-1.42555e-01,-1.39673e-01,1.40504e-01,-1.97877e-01,9.22629e-01,-8.13014e-02,-1.92212e-01,1.03409e-03,
-6.71362e-01,-1.48643e-01,-2.43150e-01,-2.18647e-01,1.72983e-01,1.65868e-01,2.85298e-01,-1.91580e-01,-5.34541e-02,2.63568e-01,-4.77623e-01,-6.84732e-02,1.38723e-01,1.94488e-01,-2.44553e-01,4.43191e-01,1.65782e-02,2.11054e-01,-3.56789e-02,-4.02015e-02,-1.03167e-01,1.42681e-01,2.60795e-02,-9.68408e-02,-2.27632e-01,-7.51357e-01,-5.55403e-01,2.74653e-02,4.10318e-02,3.81890e-03,-1.86357e-01,1.28621e-01,-1.76598e-01,-3.08616e-04,1.53812e-01,1.89586e-01,5.40503e-02,-2.95870e-01,-1.03224e-01,-1.30922e-01,-2.13791e-01,4.11547e-01,-1.10555e-01,2.44295e-02,1.74360e-01,
1.71452e-01,2.94942e-01,-1.41131e-01,1.68769e-01,1.21620e-01,-1.24519e-01,3.47481e-01,-6.63480e-02,-6.65619e-02,3.75315e-01,9.46422e-02,4.10922e-01,1.22387e-01,-1.22833e-01,-6.06289e-02,-5.83419e-01,-1.08249e-01,-1.03559e+00,-1.92065e-01,7.08740e-02,2.58146e-01,-7.82104e-01,5.34169e-02,2.38003e-02,1.02486e+00,2.19599e-01,3.15125e-02,1.81508e-01,-1.53000e-01,-5.21775e-01,-1.16709e-01,1.93135e-01,-1.10230e-01,-8.05915e-01,2.73796e-01,-2.24682e-01,1.14540e-01,1.87251e-02,9.99967e-02,3.00713e-01,-6.39616e-02,4.08623e-03,-5.76491e-01,2.15857e-01,8.16684e-02,
-1.78575e-01,-3.36330e-01,-9.91514e-02,2.12606e-01,-5.68737e-02,-1.01110e-01,-5.65351e-03,5.10988e-02,-2.83778e-02,-1.69760e-01,8.16294e-02,-9.94150e-02,-3.04857e-01,1.34300e-01,2.72115e-01,7.04689e-02,7.42241e-02,1.00987e-01,1.00489e-03,2.58835e-01,-5.81206e-01,2.77905e-01,1.98774e-01,-4.48343e-02,1.21272e-01,-1.39556e-01,1.54059e-01,-1.74443e-01,-7.35369e-02,-6.82795e-01,1.60734e-03,-2.66199e-03,-2.41287e-02,-1.53767e-01,2.06150e-01,-2.04366e-01,-6.04857e-01,2.59304e-01,8.51468e-02,-3.67403e-01,-1.32265e-01,-9.29266e-01,-8.61264e-02,-2.36739e-01,-1.43720e-01,
2.31460e-01,2.00249e-01,1.00376e-01,1.07247e-01,2.16094e-01,3.24031e-01,-2.69998e-02,-1.66533e-01,8.22500e-02,1.76689e-01,-1.36176e-01,-4.69155e-02,-1.42172e-01,9.21120e-02,9.75890e-02,4.67579e-03,3.72994e-01,4.24186e-02,5.54686e-02,-1.41469e-01,2.66467e-01,-2.44300e-01,1.28813e-01,-1.97933e-01,-3.45732e-02,3.72961e-01,1.09675e-01,3.96833e-02,1.75813e-01,2.28699e-01,3.01088e-01,-1.16243e-01,-8.73545e-02,-2.69545e-01,2.50217e-01,1.39971e-01,-2.22699e-01,-5.32841e-02,7.71918e-02,1.82861e-01,6.42382e-02,4.47277e-01,1.88029e-01,2.96322e-01,-6.83851e-02,
-2.64053e-01,-2.45730e-02,-8.98805e-02,-3.61930e-02,-2.44639e-01,-1.60396e-01,-2.31044e-01,-7.73047e-03,-4.72613e-02,-1.27397e-01,4.15083e-02,5.06612e-02,-2.51001e-01,1.95985e-01,1.07854e-01,7.84719e-02,2.07533e-01,-1.56379e-01,-1.20965e-01,3.69683e-02,2.44804e-01,1.86428e-01,-2.56697e-01,5.40613e-02,1.89066e-01,1.17177e-01,8.50738e-02,-1.58969e-01,-1.25706e-01,2.02659e-01,-1.20532e-01,-1.79951e-01,-6.89837e-02,-1.74196e-01,-1.88187e-01,-6.72995e-02,-8.05626e-02,-2.38483e-01,-2.97213e-02,-1.99060e-01,-1.91131e-01,1.49157e-01,6.12348e-02,-1.89739e-01,-7.04184e-03,
2.27027e-01,-3.48935e-01,9.33347e-03,7.17741e-02,-3.42039e-02,2.54089e-01,-1.09658e-01,-8.71762e-02,2.17896e-01,-3.06777e-01,-1.18709e-01,-3.24869e-01,1.24508e-01,-3.73693e-02,1.94682e-01,5.54131e-02,-2.67072e-02,-1.67191e-01,-3.46969e-02,-1.19074e-01,-1.76413e-01,1.79832e-01,2.26350e-02,1.78441e-01,-3.33662e-01,-1.24910e-01,1.00993e-01,-1.16380e-01,-2.54638e-01,-3.17577e-01,-9.63513e-02,1.54088e-01,-1.40174e-01,5.80443e-02,2.02040e-01,-2.04180e-01,-1.15155e-01,1.13927e-01,-8.00088e-03,2.42233e-01,1.29450e-01,1.45151e-01,-4.37872e-02,-9.16196e-02,-2.23352e-01,
7.91621e-02,-3.65359e-01,-5.74819e-02,1.48844e-01,-2.58880e-01,2.60247e-01,-7.82330e-02,-9.50584e-02,-1.04451e-01,1.87765e-01,-2.07938e-02,-1.39563e-01,9.03664e-02,4.02512e-02,1.43408e-01,6.54066e-02,6.84171e-02,4.02154e-02,-5.67315e-02,3.04135e-01,6.78631e-02,-1.07148e-02,-2.42896e-01,2.19483e-02,1.67663e-01,9.96327e-03,4.57684e-02,-3.45357e-01,-1.34516e-01,-4.89946e-01,8.28278e-02,-4.33077e-02,-1.41028e-02,1.40568e-01,-2.05745e-01,9.52616e-02,4.28629e-01,1.48578e-01,3.07122e-02,-1.58921e-01,-7.41329e-02,2.33428e-02,2.34729e-01,-1.26780e-02,1.53847e-01,
2.49737e-01,-1.39114e-01,1.62198e-01,-7.50942e-02,-3.53826e-01,-4.00562e-01,-1.36309e-01,5.54637e-02,7.72585e-02,1.07864e-01,2.17361e-01,8.38843e-02,1.29358e-01,-5.46165e-01,3.62269e-01,-1.06625e-01,-1.02122e-01,1.50399e-01,-2.23980e-01,2.87794e-01,-3.47737e-01,-1.72373e-01,-2.35297e-01,8.92142e-02,-8.04612e-02,-8.42335e-02,9.67353e-02,-1.97831e-01,-1.17312e-01,-8.82989e-01,9.36992e-02,1.57965e-01,2.13870e-01,1.10627e-01,-2.26270e-02,-2.40989e-01,-9.85741e-02,-1.11110e-01,-9.82392e-01,-1.54437e-01,-1.67329e-01,-1.55551e-01,1.72532e-01,-2.20672e-01,-6.89659e-02,
-2.32575e-01,2.58814e-01,-2.73539e-01,2.07025e-01,2.64962e-01,-1.54545e-01,5.65129e-01,3.90837e-01,-1.85871e-01,1.56745e-01,2.08756e-01,5.80100e-02,-4.91343e-02,1.12891e-01,-7.88193e-02,-2.93238e-01,-1.51708e-03,-2.29327e-01,2.64246e-01,3.23174e-03,9.09175e-02,-1.05975e-01,4.96730e-01,-2.04776e-01,4.43200e-01,2.39818e-01,-5.94526e-02,-6.37694e-03,-1.56325e-02,4.00774e-02,-1.76089e-01,2.23925e-01,1.54767e-01,-2.68230e-01,-2.19037e-01,-8.46581e-02,2.47926e-01,3.37195e-01,-8.64652e-02,-5.21536e-02,-6.68329e-02,2.37331e-01,-1.90691e-01,5.03274e-02,-3.13642e-01,
-1.07625e-01,-2.14923e-01,3.18302e-01,-5.47833e-02,-4.15048e-01,4.11006e-02,-2.51420e-01,6.07793e-02,2.89650e-01,-4.27466e-01,3.60277e-01,-5.12909e-01,-3.73199e-02,-2.39004e-01,2.34283e-01,9.27149e-02,-1.07509e-01,-2.56983e-02,-9.87193e-02,-8.28847e-01,2.21848e-01,4.57802e-01,-3.42442e-01,2.77416e-01,4.19750e-02,1.77048e-02,1.62279e-01,-2.88860e-01,-9.92986e-02,3.95723e-02,1.61226e-02,1.96291e-01,-3.86040e-02,-2.02723e-01,-7.04732e-02,1.46231e-01,3.40252e-01,5.30563e-02,1.60566e-01,1.86160e-01,9.05017e-02,-9.48685e-03,4.78511e-01,7.11893e-02,-9.98886e-02,
-2.04639e-01,1.31469e-01,-3.72879e-01,3.87922e-01,1.45227e-01,1.13450e-01,-3.20663e-01,2.09556e-01,2.24973e-01,-1.89520e-01,3.82164e-01,-4.22697e-01,1.68944e-01,2.61677e-01,-2.39428e-02,4.82666e-02,-1.22297e-01,2.53524e-01,2.23381e-01,-1.41211e-01,4.86182e-02,2.59597e-01,-1.66860e-01,1.85268e-01,-2.17875e-01,-1.46907e-01,3.03336e-01,3.81798e-01,-1.37999e-01,2.39305e-01,8.17204e-02,-4.10321e-02,-3.43100e-01,1.99248e-01,2.32700e-02,-2.35822e-02,3.01724e-01,-9.98099e-02,2.20602e-01,-1.27984e-01,6.44017e-02,2.06325e-01,-2.26359e-01,1.68620e-01,-1.11753e-01,
-1.03507e-02,-3.29321e-01,-4.42399e-02,1.36637e-02,8.01956e-02,9.11762e-02,9.68064e-02,-4.52064e-01,-4.75815e-02,2.04388e-01,-8.29450e-02,3.59852e-01,-2.86029e-01,-5.33755e-02,-4.54616e-02,-7.07958e-01,-5.54226e-02,5.76672e-02,-4.31856e-02,4.35725e-02,4.72253e-02,7.28474e-02,-2.11862e-01,2.49970e-02,-2.79313e-01,2.48346e-01,-3.74999e-01,2.85179e-01,-4.99820e-01,9.55903e-02,3.93259e-02,1.23967e-01,-1.43339e-02,1.55620e-01,2.46230e-01,8.26009e-02,2.07616e-01,-3.04476e-01,-1.60387e-01,1.04160e-01,-2.75954e-01,1.22828e-01,-2.03434e-01,-3.11866e-02,2.28878e-01,
-8.36738e-02,-3.96739e-01,8.40307e-02,-1.64787e-01,4.08387e-01,5.06971e-02,-7.06909e-01,-2.25163e-01,2.44112e-01,2.01604e-01,-3.65980e-01,4.75428e-02,-8.09256e-02,1.43913e-01,-2.92637e-02,-2.55866e-02,3.44703e-02,1.74122e-01,-2.79209e-01,-2.32125e-01,-1.55503e-01,-5.68639e-02,1.08363e-01,-1.55256e-01,8.15500e-02,1.15944e-03,1.70773e-01,-1.58088e-01,6.00255e-02,2.11664e-01,8.12611e-01,2.29288e-02,5.86063e-02,-1.60665e-01,1.31934e-02,1.95951e-03,-2.83685e-01,-3.63076e-01,3.32402e-02,1.92745e-01,-1.92302e-02,3.17997e-02,-5.28995e-01,-1.39164e-01,1.01753e-01,
1.79877e-02,2.30368e-02,2.48578e-01,1.29102e-01,-1.68246e-01,2.18060e-01,3.56791e-01,-6.06273e-01,7.78083e-02,-7.84303e-02,-1.13636e-01,-1.96114e-02,2.04166e-01,5.34825e-02,1.07217e-01,1.84880e-01,-1.67412e-01,-1.86592e-01,-1.23759e-01,1.84833e-01,4.74753e-02,-5.04075e-01,3.66432e-01,-2.36815e-02,-4.59345e-02,-1.61486e-01,-1.54626e-01,-2.39854e-01,-5.20781e-01,1.57778e-01,1.24422e-01,1.02778e-01,6.97807e-02,-4.87762e-01,1.26990e-01,-3.51574e-02,-2.55579e-01,-4.98549e-01,-1.31856e-01,-2.85228e-01,-6.93617e-02,9.03611e-02,-3.26646e-01,-1.46098e-01,1.46968e-01,
-5.71039e-02,3.29347e-02,-2.61600e-01,-4.16245e-02,4.18722e-01,8.74778e-02,-2.89934e-01,-1.19226e-01,-4.98133e-02,1.03692e-01,1.10167e-01,-2.31215e-01,2.50146e-01,1.88714e-01,1.70654e-01,1.42513e-01,-1.20209e-01,3.00467e-01,-1.41378e-01,-5.07232e-02,-6.72267e-02,-1.15228e-01,-3.99341e-01,-1.33807e-01,6.03590e-03,-4.05122e-02,-2.92846e-01,3.20704e-02,1.72560e-01,5.44812e-01,7.33965e-03,8.09753e-02,2.94472e-01,2.65168e-01,9.50949e-02,-1.82910e-02,2.37760e-01,-8.72688e-02,1.69690e-01,2.22546e-01,-1.99798e-01,3.13862e-01,4.04972e-01,1.54924e-01,1.26025e-01,
-1.89958e-01,3.66434e-01,-3.61483e-01,2.86849e-01,-1.39057e-02,2.82195e-01,3.09562e-01,-2.27471e-03,1.45415e-01,3.48647e-01,2.02684e-01,6.05831e-02,3.55116e-02,2.83043e-01,-1.87179e-01,-1.26986e-01,1.56732e-01,-1.92972e-01,2.16981e-01,-1.56583e-01,1.35547e-01,-3.32672e-02,-3.02680e-01,1.81535e-01,2.10053e-01,-1.06618e-01,3.68330e-01,3.28503e-02,-1.44363e-01,2.05911e-01,-1.37922e-01,-1.37009e-01,2.21169e-02,1.90532e-01,2.01389e-01,1.00310e-01,-1.24166e-01,2.50188e-01,4.50445e-01,7.62234e-02,6.99480e-02,-1.20982e-01,-5.25844e-03,-8.05723e-02,2.92806e-01,
2.52998e-01,-2.79585e-01,6.03703e-02,-2.60184e-01,-8.12776e-02,2.17811e-01,1.37932e-01,-1.40738e-01,-3.12683e-01,7.18066e-02,-6.80523e-01,7.04010e-02,-2.26317e-01,2.64143e-01,7.28355e-02,2.15751e-01,3.87324e-01,3.12410e-02,8.78045e-02,-1.60594e-01,1.04053e-01,2.62005e-02,2.59155e-01,-2.56108e-02,-3.55277e-01,2.75003e-01,-5.41365e-01,1.48554e-01,2.31590e-01,-1.00795e+00,4.15580e-01,1.25664e-02,-2.33757e-01,-3.70257e-02,1.80883e-01,-4.28747e-01,-3.69489e-01,-1.89211e-02,3.41315e-01,2.75096e-01,-2.28850e-01,1.13913e-02,6.28548e-02,1.40347e-01,-1.19000e-01,
2.87548e-01,-2.11309e-02,3.17089e-01,7.03781e-02,-3.15787e-01,2.10044e-01,3.05669e-01,8.05425e-02,-1.06562e-01,-2.35934e-01,4.44152e-02,-9.45687e-02,-1.59844e-01,-2.86443e-01,7.20374e-02,-1.64147e-01,1.01275e-01,1.98345e-01,-1.41258e-01,-8.73599e-01,6.03442e-02,-1.80209e-02,1.16385e-01,1.29913e-01,-2.91734e-01,-1.88165e-01,-1.36274e-01,-1.17360e-01,9.99517e-02,-9.79804e-02,-2.79529e-02,3.07779e-01,-7.95400e-02,8.45822e-02,-2.68400e-01,-5.61322e-02,4.11376e-02,1.50700e-01,9.45267e-02,3.18939e-02,1.56607e-01,-1.67873e-01,-1.72316e-01,-2.59453e-02,3.08913e-02,
-7.06322e-02,-2.53748e-01,1.88181e-01,-2.08952e-01,-3.11653e-01,2.00368e-01,-8.98976e-02,-7.27168e-02,2.92332e-01,1.36889e-02,-1.17122e-01,-1.72741e-01,7.66179e-02,-1.26183e-02,-1.23500e-01,-2.92827e-03,-2.98822e-01,-1.78313e-01,4.85651e-02,-3.47061e-01,4.01730e-02,1.64606e-01,-1.17532e-02,2.30296e-01,-1.48483e-01,-9.67120e-02,-9.31920e-02,-3.09896e-01,2.71938e-01,-1.68714e-01,-1.29787e-01,-9.41874e-02,1.10454e-01,4.33624e-02,-1.66468e-01,2.61030e-01,-2.88986e-01,1.43210e-01,-2.48344e-01,-3.48726e-02,5.45041e-02,-2.25976e-01,-2.08427e-01,2.87329e-02,3.16434e-01,
-1.13423e-02,-1.65667e-01,2.92116e-01,-8.31482e-02,3.82689e-02,-1.29544e-01,-6.21044e-01,-2.99663e-01,1.31465e-01,-1.38199e-01,-1.51373e-01,1.15723e-01,-2.63971e-01,-3.78916e-01,-5.32518e-01,2.64296e-01,2.71549e-01,-2.17277e-03,2.35603e-01,-6.73061e-01,1.02680e-01,-1.30913e-01,1.79753e-01,1.05568e-01,-1.04224e-01,1.26586e-01,-7.26767e-02,-3.88574e-01,-6.08870e-01,8.19386e-02,-1.56910e-01,1.31555e-01,-1.58213e-01,-2.61390e-01,2.62061e-01,-5.50805e-02,-2.32839e-01,5.72667e-02,1.17720e-01,-2.97462e-01,3.60368e-01,-2.05944e-01,-9.85939e-02,1.47934e-01,-1.44306e-01,
-2.06249e-01,-8.66657e-02,1.26446e-01,9.10651e-02,8.74337e-02,-7.33266e-03,-2.09050e-01,1.39694e-02,-5.78849e-02,4.84367e-02,1.14776e-02,-2.32869e-01,1.72952e-01,-2.14837e-01,3.42639e-01,-2.51751e-01,-1.92220e-01,5.28373e-02,-9.82673e-02,2.14634e-01,1.54674e-01,2.13012e-01,-2.46718e-01,1.12716e-01,-1.14333e-01,1.25282e-01,2.96318e-01,1.15710e-01,1.50534e-01,-5.12807e-02,-3.17056e-01,2.12552e-01,-1.01977e-01,4.15723e-01,-2.84448e-03,-2.70081e-01,6.07405e-03,-1.07218e-01,-2.43543e-01,2.04283e-01,1.01954e-01,-2.16479e-01,-2.24220e-01,-3.58432e-01,-8.35407e-02,
-9.38434e-02,-2.77994e-01,3.59415e-01,-5.75348e-02,-1.18926e+00,-1.94538e-01,-4.92716e-03,-4.02763e-01,4.74540e-02,-3.88569e-01,1.84654e-02,-2.61070e-02,-6.44341e-02,-3.62438e-01,2.98745e-01,8.49134e-03,-8.97587e-02,-1.71942e-01,-1.67882e-01,-7.36575e-01,-2.68722e-01,1.51645e-01,1.37357e-01,2.94485e-01,-2.38187e-01,8.27521e-02,2.15728e-01,-2.66021e-01,-1.69311e-01,4.55755e-01,4.03514e-01,2.62903e-01,-1.28358e-01,1.30043e-01,-3.15763e-01,1.19130e-01,-4.67775e-01,-4.90010e-01,-1.38384e-01,-8.48913e-02,-2.44300e-02,-6.27389e-02,1.65654e-02,-1.41599e-01,2.42941e-01,
-7.83064e-02,1.16064e-01,-4.17486e-02,9.27429e-02,6.62897e-02,-2.12216e-01,-1.78567e-01,-2.44553e-01,6.49053e-02,-4.82917e-02,-5.36025e-02,-8.77472e-02,1.05964e-01,-6.34217e-02,8.70576e-02,-1.11786e-01,1.73493e-01,-9.59718e-03,4.35800e-02,-1.04503e-01,-5.91955e-02,-1.70085e-01,-1.78930e-01,-8.28723e-02,-2.09885e-01,1.77487e-01,-2.55534e-01,1.90872e-01,-2.18160e-01,8.08214e-02,1.59893e-02,-1.58483e-01,-1.66759e-01,1.33040e-01,-9.01531e-02,-1.25730e-01,-2.03692e-02,4.22846e-02,8.33979e-02,1.87082e-01,-1.46711e-01,1.59405e-01,1.96810e-01,-2.48974e-01,-5.95607e-02,
9.15533e-02,-1.33769e-02,2.08523e-02,6.82165e-02,-9.20203e-02,1.48290e-01,6.25476e-02,2.04235e-02,-1.79717e-01,1.63340e-02,-2.57138e-01,-1.15469e-01,-1.08085e-01,1.54351e-01,2.07740e-01,-2.11502e-01,-1.50637e-01,-8.56801e-02,-2.08114e-02,-3.20157e-01,1.43588e-03,1.07866e-01,-1.13238e-01,3.88507e-01,-4.96911e-02,1.45914e-01,2.91713e-02,-1.45840e-01,1.31332e-01,3.32172e-01,-1.67379e-02,-7.87248e-02,-2.05959e-01,5.83204e-02,-1.94650e-02,-8.31797e-02,-4.26253e-02,1.53252e-01,2.92888e-01,2.86835e-01,-1.69356e-01,-2.81075e-02,-3.21219e-02,-6.61390e-02,2.97597e-01,
-3.99192e-01,-3.82537e-02,1.66717e-01,-8.98851e-02,2.71422e-01,1.88988e-01,1.74038e-01,-3.78118e-02,1.79962e-02,-1.40372e-01,-8.29981e-03,-4.54292e-02,-5.97449e-02,8.76235e-02,-1.02708e-01,-1.57479e-01,-4.42863e-02,6.94998e-03,-8.45719e-02,-1.02485e-01,-2.33876e-01,2.02206e-01,7.74963e-02,-6.87566e-02,-7.81073e-02,-4.62581e-01,1.30851e-01,-1.49656e-03,-2.17950e-01,-7.22352e-02,-4.95558e-02,-1.79611e-01,-1.11367e-01,-7.14360e-02,2.04720e-01,-2.58897e-01,3.91009e-03,1.26997e-01,-6.00983e-01,1.11132e-01,2.04655e-01,-1.87575e+00,-4.31446e-02,1.39705e-01,1.92730e-01,
-2.03118e-01,1.82372e-01,-2.98720e-01,1.90925e-01,-5.74515e-01,1.10900e-01,-8.77627e-02,-1.95585e-01,1.47738e-01,2.07435e-01,-2.24847e-02,2.93730e-01,-1.51057e-02,-2.72443e-01,-7.81093e-02,-5.76327e-01,-1.09387e-01,-8.66479e-02,-3.16928e-02,3.51528e-01,2.31329e-01,-3.29632e-01,6.01515e-02,-2.31814e-01,1.74174e-01,2.30630e-01,1.66556e-01,2.25979e-01,-1.18412e-01,-9.27155e-02,7.78945e-02,-5.33170e-02,2.04441e-02,-2.84773e-01,3.15915e-01,1.65226e-01,8.18333e-02,-2.50348e-01,-1.33578e-01,2.33606e-02,-4.30232e-01,-2.12659e-01,8.06071e-02,2.76619e-01,2.39270e-01,
-2.48712e-01,2.40705e-02,-7.23507e-02,1.07904e-01,-1.01081e-01,4.14160e-02,-2.70545e-01,2.50027e-01,1.29355e-02,-1.64742e-01,9.92314e-02,-6.15553e-02,-6.59324e-04,-8.73564e-02,5.18949e-02,-3.19529e-01,-6.05486e-02,1.22308e-01,1.85640e-01,-1.40237e-02,1.10519e-01,5.16376e-01,-3.06409e-01,1.51768e-01,-5.37205e-01,-1.12054e-01,1.64547e-01,1.21579e-02,1.34403e-01,3.35122e-01,-3.20206e-02,-1.90215e-01,2.50042e-01,3.29176e-01,-1.43145e-01,1.87668e-01,-3.57078e-02,1.70999e-01,-6.93187e-02,1.99823e-01,2.46359e-01,7.87005e-02,-1.92605e-01,-1.54849e-01,-5.89209e-02,
-8.13881e-02,1.22154e-01,-1.67280e-01,-1.03054e-01,4.44513e-01,4.01911e-02,2.74188e-01,-1.96150e-01,1.83653e-01,-6.21374e-02,-1.28858e-02,-3.20392e-02,1.53903e-01,1.95210e-01,2.28125e-01,1.49871e-01,1.06204e-01,2.01951e-01,5.93727e-02,2.40334e-01,-1.68041e-01,1.20527e-01,-6.43614e-02,-1.32461e-01,1.30997e-01,1.18885e-01,-2.25927e-02,7.53279e-02,-1.54515e-01,3.70828e-01,-2.02178e-01,1.84574e-01,-1.43226e-01,-1.57591e-01,2.82815e-01,-3.01761e-01,5.50143e-02,-2.66393e-01,-2.38013e-01,-1.55219e-01,-1.46042e-01,-3.33924e-01,3.12757e-01,9.83516e-02,-1.94693e-01,
-3.67580e-02,-4.41641e-02,2.10094e-01,-2.64018e-01,-1.51877e-01,1.83498e-01,-3.72874e-01,2.44560e-01,1.08068e-01,-6.30836e-01,6.04039e-02,-3.95809e-01,-1.24324e-01,-2.37591e-01,-2.00724e-02,3.85902e-01,4.26149e-02,1.30651e-01,7.39939e-02,-1.61618e+00,2.92408e-02,-1.58796e-02,1.19286e-02,-8.56584e-02,1.42695e-01,-1.26141e-01,9.94251e-02,-3.67911e-01,4.70739e-01,2.01443e-02,-4.68108e-02,-1.69934e-02,-2.41198e-01,1.30544e-01,4.73444e-02,4.30277e-03,-1.47927e-01,2.69042e-01,-5.21198e-02,-7.87388e-02,2.66274e-01,2.13261e-01,-4.86991e-02,5.87166e-02,-2.46627e-01,
2.76180e-02,
-2.50710e-02,
-2.54973e-02,
5.39033e-02,
7.49007e-02,
5.69306e-02,
-9.78267e-03,
-1.19391e-01,
-1.68835e-02,
-4.45957e-02,
8.30324e-02,
1.31046e-01,
2.24997e-02,
1.05664e-01,
-7.62211e-02,
8.12289e-02,
8.69245e-02,
4.09783e-02,
8.64503e-02,
-5.91044e-02,
-7.11721e-03,
8.84119e-02,
8.59394e-03,
8.47919e-02,
-2.94518e-02,
5.59411e-02,
-1.54196e-01,
9.63085e-02,
1.24861e-01,
9.04824e-02,
-5.88481e-02,
-8.61555e-02,
-1.11068e-01,
1.67689e-01,
1.28931e-01,
1.00878e-01,
8.07771e-02,
9.44369e-02,
-6.84785e-03,
4.14479e-02,
1.13992e-01,
8.20132e-02,
-2.07354e-02,
-1.24991e-02,
3.95499e-02,
-1.67330e-01,-9.42893e-02,-1.03304e-01,-3.62101e-01,3.87983e-01,-3.35405e-01,-1.46593e-01,-1.10912e-01,1.19837e-02,1.93339e-02,-1.43671e-02,9.11029e-02,2.71748e-01,2.15775e-02,-1.77035e-01,2.07596e-01,2.02145e-01,6.57180e-02,1.44377e-02,3.51118e-01,8.58913e-02,1.81281e-01,8.94505e-02,5.68789e-02,9.14262e-02,-2.12914e-01,-8.23535e-01,2.66577e-01,8.35822e-02,-3.50154e-02,-1.18788e-01,-2.92276e-01,-1.75307e-01,-1.16956e-02,1.71522e-01,-9.71442e-02,-1.78455e-01,2.08749e-01,2.20144e-01,3.31812e-01,8.48441e-02,-4.39632e-02,-8.34032e-02,5.02989e-02,-5.38387e-01,
2.01212e-01,-3.51851e-01,-4.32079e-02,-4.67200e-01,4.70581e-03,-2.81412e-01,-8.33596e-02,-2.05111e-01,-6.81332e-02,4.05416e-01,2.66163e-01,5.35559e-01,-1.84877e-02,-1.61165e-02,-1.43255e-01,1.48727e-02,-1.94720e-01,3.82735e-02,1.04081e-01,2.45529e-01,-5.34234e-02,3.31630e-01,8.51656e-02,1.76057e-01,-2.72764e-02,7.24866e-02,2.08075e-01,-1.21193e-01,-1.45220e-01,1.63659e-01,-1.64059e-01,1.37330e-01,3.58408e-02,-2.94758e-01,9.21379e-02,8.75059e-02,6.30784e-02,-1.44682e-01,2.33923e-02,-1.02854e-01,5.11175e-01,2.61389e-01,-2.70388e-01,1.94992e-01,-2.60170e-01,
2.21859e-02,-2.11404e-01,1.65047e-01,-3.49243e-02,6.04162e-02,-3.36683e-02,-1.43904e-01,-1.52510e-01,5.96421e-02,4.23737e-03,8.83998e-02,-2.66582e-01,2.01424e-01,-2.32644e-01,1.15770e-01,-2.08023e-01,-1.27969e-01,-1.37087e-01,2.87872e-02,2.39653e-01,-5.33704e-04,-7.68311e-02,8.38593e-02,1.40409e-01,5.20424e-02,-3.88417e-02,4.01198e-01,7.02707e-02,8.10196e-02,-3.68078e-01,1.59768e-01,2.24333e-01,-2.43511e-02,-1.23823e-01,1.25664e-01,-7.18247e-02,8.25247e-02,-2.27511e-01,-1.64944e-01,1.55153e-01,-3.59165e-01,9.14896e-02,1.07956e-01,-1.47013e-01,-2.39515e-01,
4.70789e-01,5.28505e-02,-4.28298e-01,-4.68467e-02,1.65009e-01,6.54548e-02,-1.44556e-01,-1.69123e-01,-1.64126e-01,2.17813e-02,7.63416e-03,1.10740e-01,-3.93565e-01,-1.54024e-01,1.34986e-01,-1.84531e-01,9.00015e-02,-2.26676e-01,-3.64766e-02,-1.86490e-01,-1.98556e-01,-3.10240e-03,2.70705e-01,3.14520e-01,-6.06284e-01,-1.09175e-01,5.31080e-03,2.61027e-01,2.88616e-01,3.19569e-01,-1.20705e-01,1.55552e-01,1.32914e-01,6.89720e-02,1.85659e-01,-5.15309e-01,2.21481e-01,6.72451e-02,5.00789e-02,2.77354e-01,1.78724e-02,-1.77496e-01,1.62648e-01,-7.58285e-02,-3.09194e-02,
-1.52313e+00,-1.30609e-01,-1.74466e-01,-3.66761e-02,8.15299e-02,-1.59916e-02,1.30123e-01,-2.93235e-02,1.96225e-01,1.08117e-01,-9.25525e-02,-1.73303e-01,3.51498e-02,-1.34486e-01,4.22355e-01,-4.67560e-01,-4.30527e-01,-1.25649e-02,-5.73750e-01,3.62872e-01,2.34110e-01,-3.00096e-02,1.67529e-02,-2.02560e-02,1.82560e-01,8.90594e-02,-9.69134e-02,1.47113e-01,2.31384e-02,8.53598e-04,1.45597e-01,5.95533e-05,-5.91990e-01,-1.62738e-01,-2.18004e-01,-9.63392e-02,-4.23770e-01,1.19159e-01,2.85441e-03,-3.70222e-02,-1.28603e-01,-1.73628e-01,2.39406e-02,-1.67628e-01,1.12295e-01,
3.40948e-01,-9.48336e-02,3.01578e-01,-3.12641e-02,-1.25243e-02,-1.56227e-01,2.81119e-01,-7.38141e-01,7.69658e-02,-8.54435e-02,-3.47082e-01,3.39082e-01,-1.26960e-01,-2.60137e-01,1.41327e-01,-2.53358e-01,1.54370e-02,-3.93080e-01,1.40637e-01,-6.12292e-03,-3.00759e-02,6.96057e-02,-1.68713e-01,9.62449e-02,8.83749e-02,2.86387e-02,2.17049e-01,1.00413e-01,2.17897e-01,1.05746e-02,8.92616e-02,-2.54979e-01,-3.61450e-01,-1.71198e-02,2.22239e-01,-2.11500e-02,-2.85628e-02,-9.91863e-02,-4.46365e-02,-1.16513e-01,-2.73390e-02,1.82377e-02,-1.16865e-02,-1.60129e-01,1.58017e-01,
2.21841e-01,2.79834e-01,-1.00980e+00,-2.61678e-01,-2.81713e-01,-9.79455e-01,-1.78173e-01,-4.77512e-01,1.50815e-01,-3.58594e-01,1.18334e-02,1.79147e-01,6.65521e-02,1.47069e-01,-1.05576e-01,-1.66493e-01,-1.64776e-01,-9.58401e-01,4.75872e-02,7.13064e-02,-8.52122e-02,6.80537e-02,-1.18116e-01,3.72740e-02,-7.11047e-01,1.86796e-01,-1.68235e-01,5.30660e-02,-6.60117e-03,-4.45199e-01,-6.54811e-02,3.38602e-01,1.14861e-01,-2.82705e-02,2.72087e-01,-5.06874e-01,2.85546e-01,2.30580e-01,1.06532e-01,1.89898e-01,-2.59371e-01,-4.64793e-01,1.71722e-01,9.66088e-02,-3.30340e-01,
-8.48620e-02,-8.67808e-02,-1.85325e-01,-3.50901e-01,1.90393e-01,4.22781e-01,1.01960e-01,1.49322e-01,-1.20401e-01,3.87125e-01,-2.12155e-01,1.78393e-01,1.60083e-01,7.30489e-02,1.92784e-02,1.53501e-01,-1.47185e-01,-5.26196e-02,6.32629e-02,2.19389e-01,1.67415e-01,-2.54811e-01,1.23015e-01,-2.73838e-02,1.83059e-01,-2.67006e-01,-2.29622e-01,3.12734e-01,3.83396e-01,2.08528e-01,3.64884e-01,-1.19275e-01,-1.48657e-01,-2.87213e-01,-3.35476e-01,1.09448e-01,3.61532e-02,9.59045e-02,-2.51124e-01,5.10838e-02,1.45773e-01,1.29735e-01,-1.18778e-01,-2.57110e-01,-9.05938e-02,
-2.62671e-01,-9.87029e-02,-1.25091e-01,2.99393e-01,-6.94130e-02,-1.75225e-02,-9.57366e-02,-1.38263e-01,2.29579e-01,-2.64393e-01,-2.85797e-03,1.04362e-01,-1.88417e-01,-3.52721e-01,-1.70480e-01,2.02916e-01,-1.39017e-01,1.68370e-01,2.92646e-01,-1.95663e-01,-2.31543e-01,1.01949e-01,-2.54881e-02,3.57703e-03,2.92620e-02,-2.46397e-02,-2.47241e-01,-7.31659e-03,3.03131e-01,-3.40058e-02,1.39200e-01,-1.57989e-01,1.32903e-01,3.04583e-01,1.75644e-01,6.37872e-02,-8.02148e-02,-8.73550e-02,-1.08225e-01,1.23614e-01,-2.96709e-01,8.96404e-02,-6.78474e-02,5.78535e-03,6.18836e-02,
1.12163e-01,1.01122e-01,3.00644e-02,2.56292e-01,1.44072e-01,9.24615e-02,-6.11721e-02,2.31642e-01,2.28426e-01,4.70072e-02,2.41176e-01,-1.45564e-01,-1.15095e-01,-1.24968e-01,1.08540e-01,-1.24096e-01,-4.56197e-02,2.82994e-01,-1.82938e-01,2.00828e-01,-2.34332e-01,1.76503e-01,7.85448e-03,8.01886e-02,-1.81696e-01,-1.20081e-01,1.37933e-02,1.23403e-01,9.22439e-02,9.18455e-02,-7.86756e-02,1.99318e-01,3.64709e-01,4.02851e-02,2.50360e-01,-2.15814e-01,-1.34098e-02,-2.45770e-01,-1.04651e-01,-2.36680e-01,-1.56751e-01,-2.40482e-01,-6.98811e-02,1.21894e-01,-3.09621e-01,
2.28743e-02,-2.13819e-01,2.27334e-01,2.10998e-01,-2.78520e-01,-5.08454e-01,9.54923e-02,-6.28501e-01,-1.84686e-01,-1.24627e-01,2.84452e-02,1.40841e-02,2.26509e-01,9.03211e-02,1.20359e-01,2.52640e-01,-1.31381e-01,-2.99218e-02,1.74740e-01,-1.66128e-02,-1.18771e-01,2.21636e-01,-2.43583e-02,2.46811e-02,3.44159e-01,3.57888e-01,6.98157e-01,-3.98150e-01,-2.36386e-01,-4.11082e-01,1.69732e-01,-9.54362e-03,1.99444e-02,5.60018e-02,-1.14061e-02,-2.15927e-01,1.73651e-01,-4.82067e-02,-1.32680e-01,-2.81218e-01,2.17675e-01,-2.29430e-01,2.36413e-01,-1.30045e-01,6.33083e-02,
1.70630e-01,-5.64632e-01,-2.93344e-02,-2.81523e-01,3.37533e-01,-1.91750e-01,-3.05435e-02,-5.66925e-02,-1.20408e-01,7.53928e-02,-7.36190e-02,3.56099e-01,-5.04941e-02,1.18511e-02,-5.53907e-03,-2.17452e-01,-9.20443e-02,1.82107e-01,8.08361e-02,-9.58078e-02,2.53416e-01,-2.94382e-01,-2.58581e-01,2.71783e-01,1.14001e-01,-2.98190e-01,-3.15974e-01,-2.89869e-01,-5.22538e-02,2.15106e-01,-2.77999e-02,2.15655e-01,2.65472e-01,-3.33011e-01,-2.25960e-01,-1.62095e-01,1.76774e-01,1.38095e-01,1.70766e-01,-7.33965e-02,9.09841e-02,-1.86520e-01,2.23932e-01,3.41580e-02,-7.82973e-01,
2.50972e-02,5.06020e-02,7.80058e-02,5.62821e-01,-3.63290e-02,-4.17617e-02,2.68956e-01,-6.52430e-01,-2.32346e-01,3.38311e-01,1.27114e-01,2.50925e-01,1.92508e-01,5.10327e-02,-9.06438e-02,-2.61015e-01,-3.46108e-02,-7.58100e-02,7.68661e-03,1.09887e-01,2.07298e-01,-6.75827e-02,-2.91987e-01,-1.24405e-01,-1.19495e-01,5.23545e-01,6.20922e-01,-2.68769e-02,-1.35017e-01,1.46268e-01,-1.31747e-01,-2.60060e-01,2.76177e-01,-2.12973e-02,1.98032e-01,4.24525e-02,-2.24181e-01,3.05085e-01,5.60924e-02,6.12584e-02,-1.08120e-01,-1.79655e-02,1.34566e-01,-1.23487e-01,1.43884e-01,
-7.26810e-03,-1.01015e-01,3.37740e-01,-5.17120e-02,2.69720e-01,-1.99154e-01,-1.09041e-01,-5.28110e-01,-3.90608e-01,2.47516e-01,-2.72376e-01,7.93863e-02,2.47681e-01,1.38391e-01,-1.02080e-01,2.72180e-02,-8.38326e-02,-2.91843e-01,9.55436e-02,6.76872e-02,-3.35920e-02,1.13669e-01,-1.71583e-01,1.21543e-01,-8.05269e-02,6.86159e-02,-7.76897e-01,-2.24656e-01,-7.09215e-01,-2.74063e-01,1.55124e-01,1.09407e-01,-5.82903e-01,2.43331e-01,3.12427e-01,-1.90599e-01,4.01520e-02,-1.66906e-02,-1.56033e-01,2.73813e-01,1.35407e-01,-2.43555e-01,1.82787e-01,-6.62684e-02,1.23561e-01,
-4.44490e-01,-6.24005e-02,7.45697e-02,9.01728e-02,-1.11635e-01,-1.82379e-01,-1.80118e-01,3.53585e-01,1.39330e-01,-2.88986e-02,5.52546e-02,3.61724e-02,3.87810e-01,2.44256e-01,2.13632e-01,2.89072e-01,1.16968e-02,-1.48544e-01,-1.77539e-01,4.88693e-02,-1.98050e-01,-9.78331e-02,-1.27885e-01,1.32541e-01,-9.87948e-02,-1.35470e-01,4.79659e-01,-2.34034e-02,1.44990e-01,-1.47433e-01,-7.66501e-02,3.69871e-01,-1.93697e-01,-4.73542e-01,1.94395e-01,-4.41408e-02,6.16366e-02,8.90578e-02,-7.19654e-02,3.33853e-01,1.16654e-01,-5.04485e-03,-1.18144e-01,-1.22903e-01,1.60520e-01,
-7.98728e-02,1.19076e-01,2.10683e-01,2.37358e-02,-1.16583e-01,-9.10334e-02,2.25915e-01,-2.25857e-01,2.03493e-01,1.44792e-01,-2.46208e-01,-2.02322e-01,-4.81358e-03,5.28387e-01,1.09915e-01,-5.67359e-02,3.90197e-01,-8.17697e-02,-3.10648e-01,1.84516e-01,-2.16598e-01,8.28902e-02,-1.97456e-01,-3.32312e-01,-3.68859e-02,-2.36988e-01,9.84952e-01,-1.35495e-01,-9.69062e-02,1.83473e-01,2.44281e-02,3.19587e-01,5.84052e-01,1.09000e-01,-1.86319e-02,1.38158e-01,-5.38817e-01,-1.52765e-01,3.28639e-02,-1.85035e-01,-2.62528e-01,1.05059e-01,-1.95326e-01,-1.12814e-02,2.49124e-01,
-4.98881e-01,-4.04367e-01,2.66214e-01,-6.78894e-01,-1.17378e-01,-2.09468e-02,-5.77071e-03,-1.16348e-01,5.98295e-02,-2.32705e-01,-3.67784e-02,2.25459e-01,-2.30801e-01,-7.33341e-02,1.06860e-01,2.96419e-01,2.03576e-03,-1.48668e-01,-3.74385e-02,-2.45998e-01,1.13810e-01,1.04212e-01,-6.82261e-02,1.56236e-01,1.34148e-01,-3.93413e-01,-8.48591e-01,2.56380e-01,-9.71439e-02,2.19938e-01,8.81500e-02,-2.35105e-01,1.25199e-03,-1.63502e-01,3.58681e-02,3.96511e-01,1.65948e-01,-1.52498e-01,-1.40385e-01,-1.73918e-01,3.67097e-01,2.05396e-01,2.18971e-01,-1.15854e-01,2.71283e-01,
-9.90308e-03,-8.58236e-03,4.20127e-01,-2.99676e-02,-6.83997e-02,7.08190e-02,-2.39048e-02,3.93689e-01,-2.25529e-01,-3.77846e-01,1.51538e-01,-1.95209e-01,-1.09902e-03,-4.13880e-01,-1.24703e-01,-1.38535e-01,-2.29101e-01,2.92230e-01,4.09789e-02,1.95842e-01,-2.25918e-01,1.57899e-01,6.18334e-02,-8.79963e-02,4.18228e-01,3.22882e-02,-2.11777e-01,-2.70916e-01,-1.26362e-01,-9.92304e-02,-7.60646e-02,2.00178e-01,-3.19367e-01,1.79718e-01,1.68244e-01,1.63668e-01,5.64240e-02,-5.41638e-02,1.29910e-01,6.04025e-02,2.33160e-01,1.19826e-02,-6.84971e-02,-1.42003e-02,-1.24451e-01,
-1.84991e-01,-7.39366e-01,1.42283e-01,-3.66418e-03,-2.17143e-01,1.21315e-01,1.98573e-01,1.76719e-02,2.07661e-01,6.81556e-02,-2.52427e-01,4.48352e-03,9.44527e-02,4.14662e-02,2.05764e-02,2.61749e-01,7.69166e-02,-2.25947e-01,-3.70042e-01,-4.46657e-02,-1.37557e-01,1.32495e-01,-9.26337e-02,1.55036e-01,-7.62196e-02,5.12663e-02,-2.68717e-01,2.25590e-01,-1.02352e-01,1.64833e-01,-3.27029e-01,6.11106e-03,-1.03434e-01,2.69930e-02,1.74684e-01,-8.04869e-02,-7.05566e-04,3.02021e-01,-2.22725e-01,-1.29702e-01,-1.38181e-01,-2.52132e-01,1.15618e-01,4.11276e-01,1.93893e-01,
-2.68348e-01,-2.24983e-02,-2.31445e-01,-3.72105e-01,-2.83326e-01,1.32243e-01,-2.34628e-02,4.53426e-01,1.22103e-01,-8.79455e-02,1.79783e-01,1.82155e-01,1.26603e-01,2.76890e-01,5.10551e-02,1.23470e-01,-1.44424e-01,3.13406e-01,5.13935e-02,-2.59545e-01,-1.50019e-01,-1.15281e-01,-2.79288e-01,-2.29035e-01,4.52570e-01,4.69416e-02,3.11987e-01,1.25061e-01,1.18404e-01,-3.34042e-01,-1.37150e-01,1.05249e-01,-1.65949e-01,2.65628e-01,-8.27190e-02,-2.39074e-01,1.13830e-01,-1.56104e-01,2.51532e-01,2.24232e-02,1.93140e-01,4.79812e-02,4.99096e-02,-1.28983e-01,-3.29977e-01,
-5.50124e-01,-1.46920e-01,5.22431e-02,1.02678e-02,1.79018e-01,-8.40108e-01,2.75916e-01,-4.74058e-01,2.36967e-02,3.35576e-01,-5.10498e-01,-8.29112e-01,-7.04980e-02,-5.79596e-01,4.42575e-01,-2.89868e-02,-1.02534e-01,-4.12923e-01,-3.48607e-01,-2.62696e-02,-5.52972e-02,-1.23739e-01,-2.35146e-02,1.02412e-01,-1.07727e-01,2.80790e-01,3.94604e-01,-5.01290e-02,-8.19066e-02,-2.38166e-01,1.02382e-01,-5.45196e-01,4.32332e-02,-1.89079e-01,5.71150e-02,-1.34686e-01,-4.91510e-01,2.10589e-01,-2.19599e-01,2.17580e-02,8.81401e-02,-4.80100e-01,-6.24374e-01,-3.55235e-01,1.07232e-01,
-2.68761e-01,4.05861e-02,-1.90585e-03,1.33217e-01,2.74818e-01,4.97792e-01,-2.51258e-01,1.66517e-01,5.57234e-02,-1.45611e-01,8.79010e-02,-1.46670e-01,9.77720e-02,8.48908e-02,1.31345e-01,4.17847e-01,-2.97765e-01,1.86884e-01,7.93104e-02,-3.05821e-01,4.23956e-02,-8.49071e-02,1.95225e-01,1.40647e-01,1.29375e-01,-1.07529e-01,-5.12718e-01,4.01685e-02,-4.22664e-02,8.29302e-02,1.69237e-01,1.58252e-01,-2.02739e-01,-3.57382e-01,2.81709e-01,3.22227e-02,-4.65801e-02,-1.11041e-01,-1.39911e-01,-3.36374e-02,-3.71298e-01,-5.95644e-02,-1.60351e-01,-4.56647e-01,-1.03836e-01,
-2.12544e-01,-1.16079e-01,9.14080e-03,1.73745e-01,-1.06581e-02,-7.68852e-02,1.30828e-01,1.94344e-02,1.22700e-02,2.00754e-01,4.11401e-02,1.27982e-01,2.50469e-01,9.33744e-02,8.14634e-02,1.71968e-01,5.46471e-02,-3.71467e-02,-3.62837e-01,2.59753e-01,-1.54390e-01,-1.87831e-01,9.25855e-02,-4.31722e-02,8.51786e-03,2.34980e-01,-2.19173e-01,-1.43428e-01,-1.01237e-02,-2.52074e-01,3.32447e-02,4.76521e-02,-2.04238e-01,2.97706e-02,8.91005e-03,1.81340e-01,7.68206e-02,-1.81694e-01,4.19320e-02,1.35232e-01,-3.60040e-02,3.15523e-02,-1.57746e-01,1.39796e-01,-2.44277e-01,
-5.03012e-02,-9.52186e-02,-2.90157e-01,5.11760e-02,-7.36335e-02,4.22708e-01,6.62017e-02,1.10199e+00,2.46008e-01,-1.57726e-01,-6.22830e-02,5.16206e-02,-2.17652e-01,3.63652e-02,-1.92344e-01,-7.38218e-02,-1.07917e-01,4.20665e-01,3.56780e-01,-2.64773e-02,4.45911e-02,-2.82973e-01,-2.15688e-01,-7.33459e-02,2.43063e-01,-7.14385e-01,-1.86513e-01,2.88741e-01,3.13946e-01,2.34181e-01,6.60568e-02,1.08330e-01,-3.39193e-01,-2.90793e-01,-1.87664e-01,3.11409e-01,-4.42414e-01,1.35958e-01,2.57475e-01,-2.04668e-01,8.74191e-02,1.69845e-01,-1.10547e-01,5.27634e-04,9.98838e-02,
-6.47521e-02,-1.83299e-01,-5.36532e-01,-1.05795e+00,-1.49413e-01,3.66405e-01,-2.10783e-01,3.00080e-01,3.63537e-01,-2.20956e-01,2.56705e-01,-4.01578e-02,7.79858e-02,2.16444e-01,3.42386e-02,-3.86189e-02,-1.75412e-01,7.88010e-02,6.68937e-02,1.06866e-01,-1.62014e-01,-1.29482e-01,4.32283e-02,1.45222e-02,1.87457e-02,-3.81853e-01,4.07785e-01,2.00387e-01,2.61818e-02,-1.55383e-01,-7.58248e-02,1.34246e-01,6.41968e-02,-3.43433e-01,-5.06352e-02,-3.29653e-01,-6.86902e-02,-4.58278e-01,-7.76558e-02,2.87757e-02,-3.07459e-01,2.16335e-01,-3.64374e-01,-1.00340e-01,-1.16997e-01,
-1.52856e-01,-2.76585e-02,2.70966e-01,1.89936e-01,-7.83896e-02,3.92597e-02,-2.60585e-01,1.74951e-01,-3.26441e-01,8.50660e-03,2.85574e-01,9.67922e-02,2.22986e-01,3.95850e-02,1.78829e-01,9.80527e-02,-3.50123e-01,2.46025e-01,-2.96830e-01,5.24390e-02,5.70810e-02,1.80396e-02,1.19987e-01,2.61166e-01,4.07624e-01,2.24859e-01,5.47588e-01,-1.26225e-01,-3.40292e-01,-1.61080e-01,-3.23839e-02,3.86802e-01,4.71145e-01,-8.90454e-02,-2.36766e-01,-1.19982e-02,-1.03882e-01,9.58557e-02,-2.25679e-01,1.86524e-01,7.07037e-02,-1.08521e-01,9.70089e-02,-1.29348e-02,-2.49887e-01,
-1.44482e-01,1.38822e-01,3.56159e-02,1.17057e-01,6.15856e-02,-2.79534e-02,-1.84305e-01,2.03297e-02,2.09720e-02,1.02912e-01,1.65324e-01,6.06241e-02,-2.03202e-01,2.01082e-01,-1.11230e-01,1.57476e-01,-1.13140e-01,-1.33567e-01,2.46288e-01,5.56791e-03,1.98437e-01,9.51772e-02,-1.66332e-01,-1.99738e-02,-2.69688e-01,-2.38835e-01,-7.94992e-02,-2.30178e-01,3.49356e-02,-2.02263e-01,-8.04573e-04,-1.22953e-01,-2.04974e-01,-2.48898e-01,-1.48660e-01,3.37980e-02,-2.37017e-01,1.22477e-01,-1.92852e-01,2.48267e-03,-1.41930e-01,-7.78356e-02,1.25057e-01,1.14378e-01,5.22395e-03,
-1.66176e-01,-2.08983e-01,3.72952e-01,3.40094e-01,1.83490e-01,-8.74204e-02,1.78242e-02,6.22964e-02,-1.04964e-01,-2.13843e-01,3.16363e-01,-1.17480e-01,5.44860e-02,4.07378e-01,1.41802e-01,-3.40994e-01,-9.40602e-02,-1.55636e-01,4.87988e-02,2.61012e-01,3.73042e-02,9.14587e-02,-2.43787e-01,-1.38983e-01,-2.78477e-01,3.15946e-02,-1.61274e-01,-3.68629e-02,2.99669e-01,6.32683e-02,-2.18211e-01,-6.15560e-02,-8.23280e-03,9.41677e-02,-5.32985e-02,8.55222e-02,2.73667e-02,2.24002e-01,4.10704e-02,3.12757e-01,-3.29440e-01,1.79372e-01,-7.84776e-02,2.20114e-01,-7.76714e-02,
1.47854e-02,7.00459e-01,3.17817e-02,-8.10323e-01,-1.61407e-01,1.33964e-01,1.67100e-01,2.94247e-02,-1.58759e-01,8.36756e-02,-3.91277e-01,2.68627e-01,-1.29542e-02,-4.06602e-01,-2.41512e-01,2.42052e-01,3.30634e-01,-4.79548e-02,5.24181e-02,-2.83361e-01,2.09695e-01,3.51479e-02,1.27300e-02,-8.11937e-01,3.97623e-02,7.84558e-02,-8.44812e-04,1.52993e-01,4.47122e-02,1.48075e-01,1.42589e-01,3.03856e-01,-7.95708e-03,-2.31503e-01,-1.10845e-01,9.94961e-02,7.13371e-02,-1.25196e-01,1.73708e-01,-8.02345e-02,1.47011e-01,-7.99413e-03,2.06216e-01,-1.79208e-01,-2.40047e+00,
2.52589e-01,-2.23280e-01,2.72125e-01,1.17467e-01,-1.68404e-01,-8.42803e-02,1.40330e-01,-1.09613e+00,-2.41958e-01,-8.96323e-02,-3.12606e-01,-2.11611e-01,-3.71060e-02,4.60759e-01,1.57466e-01,-4.56412e-01,-1.52815e+00,-4.99975e-01,1.86294e-01,-7.98417e-02,4.64077e-02,1.71787e-01,1.46507e-01,3.10962e-01,-2.02048e-01,4.13612e-01,3.90240e-01,-1.09906e-01,-2.07277e-01,-2.24225e-01,1.01238e-01,-1.41466e-01,5.35949e-02,-9.62833e-02,2.62768e-02,-2.48110e-01,-7.44425e-02,1.14194e-01,9.25291e-02,1.18191e-01,4.67126e-01,-8.89344e-02,-2.90334e-01,-3.44097e-01,1.74422e-01,
4.27026e-01,-3.60416e-01,-3.06489e-01,-5.05662e-01,-6.37995e-02,1.69229e-01,1.47572e-01,1.56034e-01,-1.25692e-02,6.73320e-02,1.61574e-01,1.32752e-01,-3.52374e-01,6.98516e-02,2.54281e-01,3.03980e-01,1.72431e-01,-1.06596e-01,7.61852e-02,-2.85709e-01,9.40943e-02,-1.25282e-01,2.65298e-01,2.01811e-01,-2.79106e-01,3.02703e-01,-5.88802e-01,-2.86058e-02,-1.13720e-01,2.46709e-01,-7.34394e-02,1.28358e-01,1.45093e-01,-8.51674e-02,1.56220e-01,1.43182e-02,2.94675e-02,5.16455e-02,1.36813e-01,2.43318e-01,1.44211e-01,-1.13616e-01,-2.14506e-02,-1.79805e-02,-3.14731e-01,
-7.59921e-02,9.61167e-02,3.52996e-02,1.32861e-01,-2.76649e-02,4.51387e-02,1.71059e-01,-2.60942e-01,1.70287e-01,-4.74309e-02,4.25980e-02,4.15691e-02,2.43307e-01,-3.63285e-01,1.07893e-02,8.70164e-02,-8.34878e-02,1.75279e-01,-7.61707e-02,-3.93780e-02,2.42867e-01,-8.13367e-02,3.28737e-01,1.68963e-03,1.11796e-02,3.95181e-01,-1.08685e-01,-3.62944e-02,-3.97069e-01,4.80307e-03,-1.76079e-01,-2.33295e-01,-1.25292e-01,-2.14724e-01,7.92675e-02,1.14438e-01,-1.22057e-01,7.25999e-02,-1.04577e-01,2.11183e-01,-1.86463e-01,3.48199e-02,1.23974e-01,-2.78158e-01,2.41587e-01,
5.66432e-02,-3.28425e-02,-8.91316e-02,1.62716e-01,5.65979e-02,6.67846e-02,-2.64451e-01,3.83521e-01,-1.70798e-01,-1.55481e-01,6.45272e-02,6.02967e-02,1.17576e-01,-1.27343e+00,1.08877e-01,-2.34099e-01,-1.82205e-01,3.32897e-01,3.51237e-01,1.05910e-01,-5.41650e-02,-3.17524e-03,-3.58474e-02,5.29166e-02,-1.03990e-01,-2.64923e-01,-5.23686e-01,-3.68659e-02,-1.29007e-01,-1.35179e-01,1.65205e-01,1.35795e-01,-1.36762e-01,1.17058e-01,-3.05929e-01,9.66806e-02,-6.28946e-02,2.28709e-01,-2.58280e-01,-4.39937e-02,2.43394e-01,1.97157e-01,-3.47811e-01,-2.64313e-01,-4.06733e-01,
-9.79655e-02,-1.07100e-01,-3.79396e-01,1.33765e-01,-1.03945e-01,4.79807e-01,2.71684e-02,6.48462e-01,1.78521e-01,1.78545e-01,1.34095e-01,-3.14195e-01,-7.11802e-02,6.78301e-02,-1.73741e-01,-1.52916e-02,3.99460e-02,1.62597e-01,-1.04672e-01,1.74947e-01,2.42378e-01,-6.01330e-02,6.86308e-02,-8.50693e-02,1.96091e-01,-5.51923e-01,-5.53796e-01,2.58020e-01,9.01100e-02,1.00133e-01,-3.89396e-02,1.88751e-01,-4.36819e-01,-7.95080e-02,-5.26770e-01,3.75487e-01,1.31832e-03,4.48205e-01,2.29282e-01,1.17752e-01,-4.87257e-03,2.52047e-01,-3.31095e-01,1.04172e-01,-1.90251e-01,
-5.35239e-01,1.89995e-01,2.85065e-01,-1.71237e-01,-1.64231e-01,1.66704e-01,1.65167e-01,-4.63971e-01,1.84988e-01,-4.98496e-01,-5.78757e-01,2.63217e-01,-2.81270e-01,1.20866e-02,-7.79097e-02,2.06392e-01,1.38082e-02,-2.16581e-01,-1.51864e-01,2.27774e-01,1.84915e-01,-1.28329e-01,-3.34343e-01,-2.59501e-01,2.60925e-01,-4.58953e-01,-2.73458e-01,-1.55055e-02,-2.70553e-01,1.57343e-01,4.11941e-01,-2.87170e-02,-1.30012e-01,1.15063e-02,-2.99460e-01,1.85167e-01,-5.27668e-01,-5.85897e-01,2.03954e-01,-2.83435e-01,-4.09501e-01,2.23072e-01,1.67809e-01,1.90038e-02,3.37660e-01,
4.41947e-01,3.34602e-02,-2.28367e+00,2.66595e-01,3.43367e-02,6.90546e-02,-7.95894e-02,1.04589e-01,1.17026e-01,-5.22963e-01,-1.61911e-01,-2.68968e-02,-3.61177e-02,1.02872e-01,-4.32507e-02,1.18775e-01,6.18528e-02,1.17938e-01,1.62466e-01,-2.90321e-01,-1.09709e-01,-1.84534e-01,2.97040e-01,1.75553e-01,-2.56246e-01,-1.03284e-01,-5.92789e-01,-7.28854e-02,-2.69819e-02,-1.11588e-01,-9.65909e-01,-3.88162e-03,-2.20965e-01,-9.58514e-01,-8.12537e-02,-2.26604e-01,8.23188e-02,6.99813e-01,1.61817e-02,1.77075e-02,-4.04868e-02,-4.70189e-02,3.77312e-02,-1.09075e-01,2.56647e-01,
-1.20279e-01,-4.71154e-01,-5.12112e-01,-7.13337e-01,-2.98120e-01,3.18707e-01,-1.34831e-02,3.98424e-01,3.05395e-01,-1.39540e+00,-2.17364e-02,-1.74108e-01,1.59120e-01,-2.03506e-01,-3.38960e-01,8.80314e-02,-4.99662e-02,1.48407e-01,2.75968e-01,-6.74879e-03,2.07850e-01,-5.27246e-01,-1.66711e-01,-1.74050e-01,-1.28323e-01,-3.97728e-01,-1.67534e-01,-4.83916e-03,2.22408e-01,7.25390e-02,3.95382e-02,-2.49097e-01,-3.13355e-01,-2.83643e-01,-2.88762e-01,-6.28098e-02,-5.39416e-02,1.17505e-01,1.36061e-02,-3.72470e-02,2.40683e-01,3.08201e-01,-2.31117e-01,-1.00364e-01,-2.52493e-01,
-1.23455e-01,-1.77023e-01,3.94809e-01,-2.29272e-03,-6.15395e-04,-1.17602e+00,1.55274e-01,-8.95235e-01,-2.71291e-01,2.93857e-01,-4.79050e-02,-1.15173e-01,1.03572e-01,1.46992e-01,6.17986e-02,-1.94203e-01,4.74602e-02,-4.60394e-01,-2.11660e-01,6.49360e-02,-3.34066e-02,-5.72360e-02,1.27166e-01,-5.06495e-02,-8.12968e-03,1.20599e-01,2.74377e-01,2.27857e-01,-1.54091e-01,-5.67478e-01,1.92065e-01,-4.32770e-02,8.70371e-03,1.92376e-01,-2.86129e-02,9.28069e-02,1.02502e-01,-2.78198e-01,-5.52569e-03,2.35544e-01,9.68589e-02,-5.31093e-01,1.64393e-01,2.00581e-02,1.86064e-01,
-6.07001e-01,-1.66879e-01,1.22714e-02,-8.29888e-02,8.20079e-02,-5.25364e-02,2.56061e-01,2.84442e-01,2.51540e-01,-9.74387e-03,2.85788e-02,2.32808e-01,1.90332e-01,4.72483e-02,1.30802e-01,3.71765e-01,-4.33093e-01,-1.99423e-02,-2.46569e-01,2.73892e-02,-2.55777e-01,9.10859e-02,1.02200e-01,-4.24275e-01,-8.22612e-02,-5.69537e-01,-2.26151e-01,-2.76929e-02,3.47672e-01,-2.57450e-01,5.27176e-02,-4.36139e-01,-2.21732e-01,-1.40484e-01,-1.64751e-01,2.36639e-01,-1.35788e-01,-2.59382e-01,1.78994e-01,-2.73833e-02,1.37665e-01,-1.62375e-01,2.18158e-01,2.86988e-01,2.75156e-01,
-1.04589e-01,-1.37085e-01,2.18640e-01,8.87496e-02,1.03240e-01,1.28374e-01,1.67122e-01,-1.77311e-01,2.78158e-02,-1.98329e-01,-8.54815e-02,1.80565e-01,4.39440e-02,-1.27966e-01,-1.26491e-01,3.51959e-02,1.98803e-01,-6.82449e-02,-2.26257e-01,-1.44732e-01,7.15593e-02,-3.22010e-02,1.42557e-01,3.46049e-01,-9.43249e-02,3.49924e-02,-1.43092e-01,2.36156e-01,-1.38973e-01,1.41239e-01,3.33757e-01,-6.03373e-02,1.61490e-01,5.41648e-02,1.51360e-01,-2.64109e-01,1.79706e-01,5.50781e-02,-1.47635e-01,1.10192e-01,8.03442e-02,-2.16955e-02,-5.56037e-02,7.63004e-02,-2.43275e-01,
-9.83229e-02,1.87538e-01,8.74793e-02,1.30684e-01,1.70398e-01,-4.07117e-01,-2.68085e-01,-8.02849e-01,-7.09260e-02,-5.82149e-02,-1.40708e-01,3.93897e-01,1.14530e-01,1.37646e-01,-2.11088e-01,-4.06090e-01,1.88801e-01,-8.42922e-02,-1.01061e-01,-1.67739e-01,1.35422e-01,1.13402e-01,-7.68022e-02,2.35572e-01,8.73210e-02,2.78553e-01,2.12639e-01,-3.75972e-02,-2.33094e-01,-4.64889e-01,-2.57641e-01,-4.66753e-02,-2.10058e-01,2.06877e-01,1.32035e-01,9.68712e-02,6.06090e-03,1.40037e-01,7.04872e-02,2.79064e-01,1.94063e-01,1.57710e-02,-5.70422e-02,4.86077e-03,-1.16236e-01,
-5.18664e-02,2.33995e-01,-4.66689e-02,2.25924e-01,8.83878e-02,2.45918e-01,1.57967e-01,5.37894e-01,9.99053e-02,-5.44702e-02,-1.84993e-01,3.59719e-01,2.64641e-01,-5.68560e-03,-1.37696e-02,-6.02380e-02,1.63239e-01,1.24467e-02,-2.52390e-01,1.41001e-01,-1.83084e-02,-8.47825e-02,1.26586e-01,-7.40421e-02,6.98127e-02,-7.21875e-02,6.53444e-01,-1.61238e-01,-3.07544e-02,-2.04011e-01,-1.88348e-01,3.90448e-01,1.24268e-01,6.01463e-02,5.03305e-02,-2.02221e-01,-2.29806e-01,6.19899e-02,-2.44297e-01,2.61324e-01,1.18283e-01,-1.35040e-01,1.09761e-01,-5.25400e-02,-3.24805e-02,
3.10465e-01,3.41291e-01,-6.96042e-02,6.53099e-02,-2.36280e-01,4.72640e-01,3.55605e-01,-6.42510e-02,8.51825e-02,-3.70625e-01,-7.29977e-02,2.86721e-01,-6.57234e-02,-8.28966e-02,2.00666e-01,2.96868e-02,3.53646e-02,-5.04301e-03,2.29831e-02,3.37016e-02,2.29181e-01,-2.73495e-01,5.35929e-02,-1.44666e-01,4.62958e-02,-1.68736e-02,6.83608e-01,-1.55299e-01,7.10772e-02,-1.55951e-01,1.67397e-01,5.92388e-02,3.64794e-01,2.36329e-02,2.29393e-02,2.45899e-01,-2.16549e-02,1.94312e-02,2.37751e-01,1.41177e-02,-4.29264e-02,1.94476e-01,1.29061e-01,7.83703e-02,-3.40433e-01,
-8.55091e-02,-1.25991e-01,4.28246e-01,-6.80643e-02,-7.62837e-02,3.16514e-02,-2.83015e-01,-4.53344e-01,1.37207e-01,-7.58939e-02,-2.03324e-02,1.18736e-01,-1.81876e-01,-2.82396e-01,1.72313e-01,-2.43657e-01,1.83495e-01,-2.95012e-01,-2.11903e-01,2.54839e-02,-6.55821e-02,2.21327e-01,-6.09569e-02,4.23017e-01,-1.85055e-01,2.07066e-01,9.27943e-01,-1.59728e-01,-2.22204e-01,5.49962e-02,3.83688e-01,5.67746e-02,1.27627e-01,-2.01265e-01,2.52351e-01,5.22984e-02,3.09276e-01,-1.24379e-01,-1.02770e-01,-2.22405e-01,1.07255e-01,-8.43574e-02,9.26773e-02,4.45486e-02,1.82239e-01,
-6.02656e-01,-3.24518e-01,9.74750e-02,4.29162e-01,1.55734e-01,-2.41885e-01,-7.15485e-02,-4.19226e-01,-1.33543e-01,2.28721e-01,-4.21417e-02,-8.37105e-01,-1.40651e-01,-2.88385e-02,3.33721e-01,3.52295e-01,-1.09987e-01,-2.74587e-01,-2.78699e-01,-8.31796e-02,-1.70036e-01,3.41499e-03,4.46926e-02,1.45360e-01,1.73101e-01,2.76737e-01,8.25070e-01,-2.97082e-02,-1.34027e-01,-1.11822e-01,1.14694e-01,1.35066e-01,3.06756e-01,2.05154e-02,5.94163e-02,1.48388e-01,1.01669e-01,2.22747e-01,1.22391e-01,1.70966e-01,-7.29916e-01,-2.20983e-02,6.16866e-02,-2.37991e-01,2.49966e-01,
1.31087e-01,
8.10403e-02,
7.50360e-02,
2.77544e-02,
-3.79466e-01,
4.88751e-02,
3.13058e-03,
-9.33952e-03,
2.51650e-02,
-3.19211e-02,
4.49710e-02,
7.92803e-02,
-3.20407e-02,
6.33328e-02,
-1.92885e-02,
-2.62192e-02,
4.75266e-02,
9.98894e-02,
5.18468e-02,
3.26337e-02,
-1.47793e-01,
8.20825e-02,
2.74341e-02,
-2.93729e-02,
1.95110e-02,
-6.52701e-02,
-4.23598e-02,
6.87838e-02,
-4.66263e-02,
-2.20125e-02,
6.10715e-02,
8.46308e-02,
1.01303e-02,
-6.27725e-02,
-7.78627e-02,
7.90161e-02,
4.13324e-02,
3.06703e-02,
8.66207e-03,
6.24895e-03,
4.18422e-02,
2.81970e-03,
-2.08574e-02,
2.74230e-02,
2.29248e-02,
2.79966e-01,-6.69458e-02,1.04465e-01,5.94429e-02,-1.48433e+00,6.91277e-02,9.17328e-02,8.24990e-02,-2.15717e-01,2.64501e-02,-3.76909e-01,-4.39402e-03,-9.67746e-01,3.41027e-01,1.68875e-01,2.77633e-01,-6.74949e-02,-6.16794e-02,-4.12879e-01,1.21949e-01,-1.42840e-01,-3.35608e-02,-4.74140e-02,9.67606e-02,3.57533e-02,2.36153e-01,1.43945e-01,-3.84147e-01,8.76963e-01,1.94872e-01,1.94397e-01,-5.87964e-02,-2.51112e-01,1.97698e-01,-1.98318e-01,1.54430e-01,-1.34320e-01,-8.91355e-02,-4.62683e-02,-1.23548e-01,1.61179e-01,8.32519e-02,5.74629e-02,7.17786e-02,2.66217e-01,
-8.61752e-02,-1.09486e-02,8.25019e-02,8.86431e-02,-3.38513e-01,1.01406e-01,2.05307e-01,-8.77188e-02,2.68305e-01,-8.21459e-02,5.88283e-02,-8.94545e-02,7.37856e-02,4.98915e-02,-5.52334e-02,-2.52364e-01,6.40649e-02,-2.66925e-01,-4.87303e-02,6.82858e-02,2.95981e-01,5.16759e-03,-8.73609e-02,1.69672e-01,8.80132e-02,1.29783e-01,4.81585e-02,-6.98555e-02,7.09572e-01,-8.73567e-02,3.39382e-01,-2.26785e-01,-1.82078e-01,-6.51773e-02,3.24965e-01,1.58187e-01,-4.00256e-02,4.07360e-01,-1.87909e-01,2.08733e-01,1.75445e-02,1.75083e-01,2.72443e-01,-9.74719e-02,3.32230e-01,
1.09339e-01,3.60680e-01,9.69062e-02,1.46498e-01,1.15816e+00,1.72850e-01,-5.36679e-02,2.83635e-01,-9.75090e-02,1.85380e-01,-2.38842e-01,1.27892e-01,1.76184e-01,1.84176e-01,1.14063e-01,-9.16461e-02,5.82073e-01,-1.54398e-01,6.33859e-02,2.02407e-01,-3.24603e-01,5.26905e-02,-1.59805e-01,-9.20707e-02,2.92017e-01,-2.38539e-01,9.74691e-02,-4.25245e-01,-1.48130e-01,9.73151e-02,2.25715e-01,1.08202e-01,-1.89438e-01,1.31669e-01,-2.79690e-01,6.47038e-02,1.18403e-01,-2.88722e-02,2.78688e-01,4.51610e-02,-1.22730e-01,-1.91295e-01,-5.47433e-02,2.01826e-01,-4.11327e-01,
-4.91406e-02,1.25405e-01,2.22771e-01,-2.90881e-01,2.12447e-01,-1.58037e-01,-2.29917e-01,-1.02997e-01,3.36220e-02,-1.13560e-02,2.03408e-01,8.07130e-02,-2.91150e-01,8.48976e-03,-3.22209e-02,1.54203e-02,-2.66507e-01,4.44480e-02,2.44080e-02,3.90864e-01,-3.48266e-01,-1.05555e-01,2.30597e-01,6.31137e-02,-2.79905e-01,2.49796e-01,1.61617e-02,1.56468e-01,-2.32790e-01,3.99339e-01,1.66593e-01,2.25821e-01,2.37832e-01,-2.13093e-01,-2.13237e-01,-2.05987e-01,8.10193e-02,-2.64156e-01,-2.28342e-01,4.87475e-02,-2.37597e-01,1.14997e-01,6.63648e-02,1.42966e-01,2.25251e-01,
2.04166e-01,7.80569e-02,-2.36312e-01,-3.09271e-01,1.79537e+00,-2.51319e-01,-3.06215e-01,6.65630e-02,8.61085e-02,1.38580e-02,-5.16866e-01,3.61353e-01,-6.00630e-02,-2.81649e-01,-4.29466e-02,-1.13120e-01,8.19347e-02,1.38443e-01,1.44397e-01,3.81414e-01,8.15506e-01,1.36800e-01,1.14746e-01,-4.19405e-01,4.73135e-02,2.98382e-01,-2.16960e-01,1.13698e-01,-3.43729e-02,2.86719e-01,-2.15252e-02,2.15815e-01,1.78013e-01,1.06994e-01,1.63733e-01,-6.58943e-01,7.76434e-02,-4.62252e-01,2.46802e-01,-1.95088e-01,-3.89576e-02,2.39130e-01,1.66293e-02,-3.54028e-01,-2.14330e-01,
-1.56798e-01,2.81815e-02,1.01741e-01,8.41133e-02,1.68457e+00,-1.40394e-02,2.46451e-01,-4.87178e-02,-6.01564e-02,1.62246e-01,-1.06443e-01,-1.59501e-01,-6.26883e-01,9.15568e-02,-1.79792e-02,-3.92674e-02,-2.81967e-01,3.83296e-01,-2.34306e-01,1.62516e-01,6.12721e-01,1.27563e-01,2.72331e-01,-1.40921e-01,9.19106e-02,2.21577e-01,-1.22859e-01,-5.37492e-02,7.76367e-01,-2.51067e-01,-2.47713e-01,8.75160e-02,1.22788e-01,-2.92044e-01,-6.03474e-02,-5.66145e-02,-1.75857e-02,-5.98870e-01,2.92707e-02,1.93715e-01,-1.36975e-01,2.11197e-01,2.40076e-01,-2.50197e-01,-2.55426e-01,
-2.53448e-01,-9.28098e-02,-2.47772e-01,-2.10150e-01,-2.16253e-01,-1.27940e-01,-1.07839e-01,1.38236e-01,1.31429e-01,7.66645e-02,-2.20392e-01,1.55933e-02,-2.14897e-01,-2.54342e-01,6.96873e-02,-1.97931e-01,5.13261e-02,1.36389e-01,-2.81934e-01,-2.30692e-01,-2.63578e-02,-4.64145e-02,4.56222e-02,-1.81450e-01,-1.47189e-01,1.03195e-01,1.40546e-01,-3.99702e-03,-1.74777e-01,-1.64237e-01,-1.48740e-01,-2.42180e-01,1.51475e-01,1.01862e-01,1.76536e-01,1.38941e-01,2.10183e-01,-9.92597e-02,-1.87156e-01,2.03946e-01,3.69160e-02,-1.66779e-01,4.42913e-02,2.33961e-01,-2.54375e-01,
1.50724e-01,6.55531e-02,-3.90337e-02,-1.16784e-01,4.76134e-01,-2.15276e-01,-2.09189e-01,-5.14944e-02,-1.80714e-02,2.14195e-02,-2.08138e-01,1.32612e-01,7.28745e-02,9.35660e-02,-1.79383e-01,-4.39721e-02,8.35015e-02,2.59451e-01,-7.77093e-02,-3.94193e-02,2.99407e-01,3.16031e-01,1.63358e-01,2.22537e-01,-6.48464e-02,-2.32376e-02,1.49257e-01,1.45747e-01,3.75074e-01,-1.08933e-01,1.07968e-03,2.13482e-01,4.13991e-01,-2.67090e-01,2.56391e-01,-1.71690e-02,1.53853e-01,-3.91535e-01,-1.68203e-01,-6.29960e-02,1.54141e-01,-2.81749e-02,-1.46378e-01,1.63514e-01,2.78926e-02,
-4.79064e-02,1.95912e-01,5.72825e-03,-4.76537e-01,3.94275e-01,-1.66738e-01,-1.26517e-01,4.54267e-01,7.91076e-02,-1.85556e-01,1.64084e-01,9.11099e-02,-6.46175e-02,-1.43370e-01,3.12338e-01,4.57650e-01,1.85232e-01,9.88092e-02,3.04557e-01,-2.23818e-01,1.17428e-01,1.75325e-01,1.23767e-01,-1.14268e-01,-3.33543e-01,-2.81726e-01,1.21288e-01,-6.98709e-02,1.08798e-02,1.48286e-01,-6.66288e-02,1.05752e-01,8.81904e-02,-2.26249e-01,-3.63940e-01,-3.87129e-01,2.43557e-01,-3.74876e-02,-2.03731e-01,1.12534e-01,3.08067e-01,-5.65434e-02,2.00719e-01,1.61579e-01,-2.08297e-01,
-1.17340e-01,8.44540e-02,-1.15259e-01,2.66095e-01,1.06756e+00,-2.87063e-01,-3.14521e-01,-1.34237e-01,-5.79539e-02,1.22902e-01,1.37371e-01,1.43527e-01,-2.08634e-01,-3.58930e-02,9.72470e-02,2.84235e-01,-6.60813e-02,2.84745e-01,-7.92749e-02,3.19389e-01,2.98169e-02,1.85046e-01,9.62378e-02,-2.23847e-01,-2.39151e-01,3.97384e-02,-2.03263e-02,2.64107e-02,-9.53063e-02,1.13660e-01,-1.34885e-01,2.70666e-01,-1.09123e-01,-6.04498e-02,-2.70357e-01,-2.05241e-01,-1.63879e-01,-3.63235e-01,1.37325e-01,1.02436e-01,5.93329e-02,4.41129e-02,2.04854e-01,7.39524e-02,1.01776e-01,
-7.85256e-02,1.17289e-01,4.86072e-01,5.67490e-03,-5.53303e-01,-1.27049e-01,2.05699e-01,1.94354e-01,-2.36368e-01,3.77032e-02,-1.66182e-02,-2.24167e-01,8.35108e-02,2.64808e-01,2.18184e-01,2.03748e-01,-1.13126e-01,-1.11967e-01,-3.94233e-01,4.95331e-02,1.82165e-01,-1.57358e-01,1.86848e-01,-3.76404e-02,2.97171e-02,3.27650e-02,-1.90860e-01,-3.65727e-01,1.52953e-01,8.91827e-02,-1.20046e-01,5.18686e-02,-1.48894e-02,2.75998e-02,-3.11459e-01,2.87042e-01,-1.77084e-01,-2.92672e-01,-1.98139e-01,-1.98631e-01,5.98850e-03,2.82725e-01,2.16512e-01,-1.72484e-01,-5.09966e-01,
-1.20963e-01,-1.27287e-01,-1.34153e-01,-6.12317e-02,-2.19139e-01,6.80263e-02,4.55620e-02,-3.52321e-03,-2.42541e-01,-5.56556e-02,-4.50968e-02,-1.87482e-01,-2.13821e-01,-1.69014e-02,8.81911e-02,2.28326e-01,4.13302e-03,2.09316e-01,2.13882e-01,-1.00096e-01,1.04440e-02,-1.87592e-02,-1.74741e-01,-5.84047e-02,-4.83899e-02,-1.38381e-01,-1.66448e-01,-1.12857e-01,-1.68914e-01,-3.27435e-02,-1.47585e-01,2.71178e-02,-2.22560e-01,-9.85881e-02,2.66062e-02,-1.13319e-01,-1.43817e-02,4.27774e-02,-1.48508e-03,4.35961e-03,-8.14860e-02,-1.09076e-01,-8.94066e-02,1.41298e-01,-1.57154e-01,
8.39937e-02,2.41970e-01,-1.25893e-01,-3.97069e-01,7.18849e-01,-6.38544e-02,-7.13733e-01,3.04903e-01,1.30799e-01,2.77267e-01,-3.51215e-01,4.87365e-01,-4.24379e-02,-2.37517e-01,2.18457e-01,-2.09880e-01,-5.11076e-02,2.31708e-01,-2.12584e-01,2.24249e-01,8.43843e-01,2.80929e-01,7.64136e-02,-4.55359e-01,4.27170e-02,-8.32190e-02,-2.24109e-01,1.74415e-01,1.70010e-01,3.30365e-01,-5.27142e-02,5.60481e-02,2.37057e-01,-5.73589e-02,-2.23572e-01,-2.89342e-01,-1.79970e-01,-3.56709e-01,1.94408e-02,-9.28691e-02,3.62744e-02,3.17225e-02,3.09924e-01,-1.95671e-01,-1.49090e-01,
4.12104e-02,2.52057e-01,-3.39664e-02,-5.16016e-02,2.22784e+00,1.53092e-01,-5.63685e-02,6.44131e-02,-2.58886e-01,5.49388e-03,-3.21868e-01,-3.44796e-02,-1.34569e-01,-1.29967e+00,2.77382e-01,4.18109e-01,-1.17956e-01,3.89614e-02,-1.67026e-01,-2.29352e-01,1.04806e+00,1.48253e-02,-7.84627e-02,1.80878e-01,2.97407e-01,1.41056e-01,-1.14846e-01,-1.39084e-01,-3.34637e-02,-2.72827e-01,1.04269e-01,2.99668e-01,1.06428e-02,-3.10353e-01,-4.15171e-02,1.05779e+00,3.27787e-02,1.59425e-01,1.46594e-01,-6.11972e-02,-3.34159e-01,9.25134e-02,-2.31999e-02,1.57112e-01,1.75267e-02,
1.39324e-01,1.51564e-01,1.92023e-01,-1.58124e-01,-2.76606e-01,-1.34442e-01,-2.96584e-01,1.84539e-02,4.02368e-02,-2.20588e-01,-5.35991e-02,2.95117e-01,4.02214e-02,2.09042e-02,7.41141e-02,-1.38295e-01,-3.79238e-01,3.95686e-01,-1.54031e-01,3.85984e-02,2.86367e-01,-8.01439e-03,1.19284e-01,-1.81857e+00,-4.01067e-01,7.82065e-02,1.98663e-01,5.82185e-02,-8.59052e-02,1.10138e-01,1.69112e-01,2.39957e-01,4.67796e-02,-8.44933e-01,-6.23921e-01,-3.05644e-02,-4.89804e-01,-4.13337e-01,-5.03407e-03,1.17774e-01,-2.06069e-02,5.27138e-02,-3.19936e-01,8.33583e-02,1.95478e-01,
-9.20736e-01,1.26109e-01,1.97399e-01,-3.57670e-01,-3.36039e-01,-1.29819e-01,6.12277e-02,-2.87661e-01,1.18056e-01,3.11186e-01,2.39345e-03,-5.08522e-01,6.94524e-02,-1.85053e-01,-7.21082e-02,6.14775e-02,2.01232e-02,1.24756e-01,4.17488e-02,-2.79852e-01,2.24667e-01,-7.70048e-02,-2.11115e-01,-1.24370e-01,-7.94919e-02,4.61473e-01,8.01573e-02,1.62790e-01,9.08518e-02,1.11029e-01,-4.90073e-01,-2.38612e-02,1.23714e-01,-1.69885e-01,-5.70515e-01,6.52955e-02,-3.41591e+00,-3.28146e-01,-2.36087e-01,-3.01268e-01,1.92276e-01,2.35520e-01,3.34935e-01,-8.12964e-03,1.13689e-01,
2.75773e-02,1.28009e-01,4.83235e-02,-3.70446e-01,-1.15573e+00,1.47624e-01,-5.23720e-01,2.57263e-01,2.34910e-01,-1.69894e-01,-3.53746e-01,2.20236e-01,-3.66407e-01,-5.74214e-01,1.18792e-01,-2.91752e-02,-1.24331e-01,4.27636e-01,-4.43548e-02,1.09622e-01,7.11554e-01,4.11685e-01,1.12731e-02,-1.30142e-01,1.66342e-01,2.71682e-01,-2.03660e-01,-2.25430e-01,-1.07144e-01,5.03158e-01,-1.58209e-01,6.17708e-02,4.63477e-01,1.31243e-01,-2.61694e-01,-9.33119e-02,-8.79179e-02,-9.82581e-01,-2.26872e-01,-4.49716e-02,-1.17480e-01,6.26614e-02,4.42952e-02,-4.18861e-01,-2.57056e-01,
9.46052e-02,4.14106e-01,-2.41717e-01,-1.21937e-01,1.38667e-01,-4.29169e-02,-6.55310e-03,-2.36781e-01,-6.43003e-03,-2.95470e-01,1.10917e-01,3.11574e-01,1.23954e-01,2.42909e-01,-5.60534e-02,-2.33149e-01,-2.06244e-01,1.06068e-01,6.66123e-02,3.03391e-02,7.89063e-02,-2.49838e-01,2.06631e-01,3.93243e-03,-8.53895e-02,-1.34474e-01,2.29424e-01,-1.79302e-01,-3.77026e-02,4.34596e-02,2.03771e-01,-2.85701e-02,2.33508e-01,-8.15057e-02,1.20380e-01,-3.08396e-01,3.78770e-01,-1.14170e-01,2.82158e-01,2.04899e-01,4.92677e-01,3.81084e-02,2.12722e-01,-1.09388e-01,-3.72722e-01,
-3.75085e-01,-2.96717e-02,2.65319e-01,2.35983e-01,1.50065e+00,-7.00381e-02,-6.32257e-04,-1.17293e-01,6.46320e-02,1.13378e-01,3.19789e-01,4.14870e-02,-6.83555e-02,3.26778e-01,-5.25246e-03,-1.37754e-01,-2.32557e-01,1.46616e-01,-1.39376e-01,1.96514e-02,-5.23056e-02,-2.03008e-01,2.91687e-02,1.69067e-01,-2.49472e-01,3.55323e-01,1.51815e-01,-2.40976e-01,1.00271e-01,-2.53692e-01,8.68976e-02,1.44160e-01,4.38952e-02,-5.01047e-01,2.27323e-02,-4.12780e-02,-1.94139e-01,3.40738e-01,4.53922e-02,4.10161e-02,2.49405e-01,-1.79889e-01,-6.58092e-02,5.77138e-02,2.38153e-01,
-6.02706e-02,-2.13817e-01,-1.83533e-01,-3.67668e-02,1.00425e-01,1.57632e-01,-7.46334e-02,-1.41817e-01,1.90046e-02,3.81984e-02,-3.39676e-01,-1.10657e-01,-1.35047e-01,-2.94821e-02,1.85581e-02,-2.49114e-02,4.95728e-02,2.75452e-01,1.15127e-01,-3.93541e-01,-1.06959e-01,1.67039e-01,1.13644e-01,-3.49885e-02,-2.18777e-03,-2.52200e-01,9.63474e-02,-2.43267e-01,6.38273e-01,7.47175e-02,1.21369e-01,8.00813e-02,-1.85265e-01,-4.81846e-03,-6.85356e-02,-7.15303e-02,-3.76797e-02,-2.92284e-02,1.05963e-01,1.56607e-01,2.65030e-01,3.78638e-01,6.75459e-02,-5.04181e-02,1.87569e-01,
1.13834e-01,6.07193e-02,-3.72425e-02,-8.44310e-02,1.36448e+00,3.89254e-03,1.97558e-01,1.49780e-01,1.79463e-01,8.43143e-02,-3.22739e-01,-1.47125e-01,3.44822e-03,-7.07791e-02,-1.35056e-01,-2.83545e-01,-1.99159e-01,-2.55771e-01,1.67921e-01,1.35826e-01,-7.50416e-02,-1.10897e-01,1.35653e-02,-2.00235e-01,-3.97985e-02,2.31122e-02,1.12380e-01,2.07946e-01,5.78962e-02,1.26218e-01,2.12406e-01,1.58787e-01,1.93099e-01,1.69201e-01,2.56574e-01,3.72724e-01,-4.31689e-01,-2.13750e-02,-1.83783e-01,-3.00006e-01,2.36566e-01,1.56466e-01,-4.37817e-02,4.48863e-02,-2.11489e-02,
4.35224e-01,3.88340e-01,-1.40011e-01,-1.07794e-01,1.32935e+00,-1.03816e-01,3.52778e-02,1.17381e-01,-5.12821e-01,1.77576e-01,1.12877e-01,3.49919e-01,-1.24652e+00,8.22381e-02,-2.60061e-01,-3.58725e-01,2.08639e-01,6.84573e-02,-1.56657e-01,1.50971e-01,-1.85802e+00,-3.02834e-01,2.65494e-02,1.09991e-01,1.98448e-01,1.24560e-01,-5.25965e-02,-2.88133e-01,-3.82305e-01,7.10521e-01,1.43142e-01,1.06564e-01,2.81850e-01,-2.60110e-01,7.36086e-02,4.00751e-03,-1.91470e-01,-1.24096e-01,1.94406e-01,8.96241e-02,3.51236e-02,-2.12163e-01,9.93834e-02,2.71449e-02,-4.74686e-01,
2.19910e-01,-1.52861e-01,-1.66387e-01,7.39431e-02,3.97282e-01,-1.55448e-01,2.41778e-01,-4.83134e-02,-2.15793e-01,1.44876e-01,1.52492e-01,5.19898e-02,-1.95379e-01,6.82634e-02,1.15037e-02,4.49538e-02,-3.15409e-01,7.97988e-02,-1.14497e-01,4.33851e-02,-9.89182e-03,1.65802e-02,1.89731e-01,6.59068e-02,-2.43276e+00,-1.85776e-01,1.66342e-02,3.54809e-01,8.44719e-02,7.06825e-02,-1.37140e-01,-5.14090e-02,-9.26377e-02,-3.38125e-02,-3.36495e-01,5.52662e-01,-1.41613e+00,9.99922e-02,1.40943e-01,-2.27994e-01,1.97792e-01,1.89079e-01,-2.17268e-01,-2.95926e-01,8.27905e-02,
2.24627e-01,-5.19898e-02,-6.49364e-02,-2.59847e-01,-4.74172e-01,-7.04699e-04,-1.73644e-01,4.13454e-03,7.43314e-02,1.01992e-01,1.06599e-01,3.03546e-01,-1.90063e-01,1.02135e-01,1.73353e-01,4.83764e-02,1.13925e-01,-1.31530e-01,2.51513e-01,-1.29352e-01,1.90501e-01,-2.59786e-01,1.15207e-01,4.22031e-01,3.06219e-02,-6.91032e-04,2.21505e-01,1.39001e-01,-8.02109e-01,5.04086e-02,-5.13550e-02,-3.78268e-02,-2.15820e-01,-1.67211e-01,-8.02815e-02,-1.90604e-01,3.87192e-01,-1.47282e-01,-4.05327e-01,-1.86010e-01,1.42625e-01,2.61047e-01,2.58332e-02,-9.56139e-02,-7.18502e-02,
1.33413e-01,-1.94485e-01,9.44018e-02,1.49741e-01,7.13992e-01,-2.28073e-02,-1.47016e-01,-5.47434e-01,1.41543e-01,6.41997e-03,1.93843e-01,-3.14207e-02,-6.13836e-02,-8.22941e-03,-3.54391e-02,-6.54438e-02,1.60944e-01,-1.96913e-01,4.15726e-02,-9.98562e-02,-4.24530e-02,1.21094e-01,1.81439e-01,-9.49658e-02,-1.98524e-01,-5.76671e-02,-2.44233e-01,1.60977e-01,-1.83249e+00,-1.12093e-01,7.46207e-03,1.19490e-01,2.02519e-02,6.36766e-02,-1.07344e+00,-2.92095e-03,8.79837e-02,9.00943e-03,-5.06223e-02,-6.52528e-02,-3.77737e-02,7.64053e-02,2.42877e-01,1.40600e-01,-1.41375e-01,
-1.71595e-01,-9.61305e-02,-3.03988e-02,1.14510e-01,1.01852e+00,2.48678e-01,-3.76948e-02,-8.44236e-02,2.91535e-01,1.17672e-01,1.08237e-02,2.30028e-02,-1.20711e-01,-2.00544e-02,2.68329e-01,-1.13143e-01,1.14748e-02,-4.65718e-02,4.71421e-02,-1.67969e-01,8.84841e-02,-5.24001e-02,5.88265e-02,3.93284e-01,-1.80641e-02,-2.17636e-02,-1.72408e-01,1.03975e-01,-2.97177e-01,2.88551e-01,1.01767e-01,2.16233e-01,3.25697e-01,-6.27392e-02,4.94291e-01,1.55929e-02,-3.15133e-01,-2.88139e-01,8.53965e-03,1.53436e-01,2.26038e-02,6.26415e-02,3.68391e-02,1.90449e-01,-7.81164e-02,
1.06658e-02,1.53507e-02,-1.12425e-01,1.10357e-02,6.44071e-01,4.10579e-02,2.19481e-02,1.98820e-01,1.73474e-01,1.62710e-01,8.71921e-02,2.26933e-01,-2.15797e-01,-1.20677e-01,4.73153e-03,7.13843e-02,9.92021e-02,1.72610e-01,1.01333e-01,1.36916e-01,-4.61591e-01,-3.96668e-02,2.39921e-01,-1.67624e-01,-3.12942e-01,5.38868e-02,-1.67713e-01,6.10450e-02,-4.57789e-01,8.14646e-02,-1.74575e-01,-1.24758e-01,-1.40750e-01,7.84378e-02,-1.44666e-02,-1.79245e-01,3.56518e-01,2.43209e-01,-6.81616e-02,2.31524e-01,-5.43476e-02,1.60840e-01,2.03047e-01,-2.22502e-01,-8.80317e-02,
3.15628e-02,-4.36775e-01,2.50834e-01,-1.23162e-01,-5.10186e-01,-1.54226e-01,1.26013e-01,-3.10758e-02,-9.98327e-03,1.86634e-01,-5.90527e-04,-3.06866e-01,-4.59228e-01,-1.95440e-01,8.94942e-02,5.45245e-02,-1.77553e-01,-1.86337e-02,2.75864e-01,-2.89476e-01,-8.24889e-01,3.93780e-01,1.43440e-01,-5.67994e-03,-1.82372e+00,-1.82499e-01,2.12078e-01,1.51541e-01,-2.27723e-01,2.48818e-01,-2.42889e-02,2.90668e-02,9.41872e-02,2.37220e-01,-3.08030e-01,-5.38042e-01,-4.01908e-01,1.65476e-01,-1.70371e-01,-1.82383e-01,-4.06948e-01,-3.26820e-01,-3.52280e-01,5.64482e-03,5.44065e-01,
4.51794e-02,2.34572e-01,1.47640e-01,3.41894e-01,1.65020e-01,-1.72378e-02,1.98587e-01,1.29505e-01,-9.20127e-02,8.37023e-02,-7.33453e-02,1.36635e-01,1.21610e-01,1.76265e-02,-8.70305e-03,-1.59152e-01,-1.29300e-01,-2.47517e-01,-3.06672e-01,-4.48804e-02,-4.08056e-02,3.60346e-02,1.25612e-01,3.59849e-02,-1.76420e-01,-2.17179e-01,-1.61294e-02,1.12912e-01,4.13438e-01,-2.09335e-01,9.21877e-02,2.48768e-01,1.16516e-01,1.63502e-01,-3.21032e-01,1.49365e-01,-3.75718e-01,-1.85389e-01,-8.58270e-01,7.64893e-02,-1.65303e-01,-6.48144e-02,-3.93028e-02,7.83294e-03,1.14482e-01,
2.67354e-01,-8.20690e-02,3.67807e-02,-2.43680e-01,2.20201e+00,-2.21037e-01,4.77378e-01,8.09787e-02,1.57176e-01,1.48874e-01,-8.40958e-02,-1.10372e-01,-3.03215e-01,2.98894e-02,-9.59216e-02,1.63846e-01,-8.50031e-02,-7.28139e-03,-2.49999e-01,2.64379e-01,5.23145e-01,1.06376e-01,-1.07930e-01,-1.30997e-01,-1.51974e-01,2.86108e-01,6.92317e-02,5.71969e-02,1.13536e+00,-1.77110e-01,8.91016e-02,-1.74962e-01,9.14398e-02,2.31575e-01,-1.15409e-01,-2.57671e-01,-2.59065e-01,-1.12987e-01,-1.78587e-01,-5.31049e-02,-7.08405e-02,2.84382e-02,1.80728e-01,8.09571e-03,1.41313e-01,
1.62241e-01,-1.97175e-02,-1.00484e-01,3.62410e-01,-1.18034e+00,-1.67092e-02,-8.01924e-02,-6.32105e-02,-2.99919e-01,-1.07155e-02,-8.35769e-02,2.30559e-02,2.25495e-01,-1.09631e-01,4.94264e-02,2.57326e-01,-3.25602e-01,1.25508e-01,-7.81832e-02,2.15329e-01,9.29001e-02,3.95434e-02,1.32050e-01,-2.29811e-01,1.60100e-03,-1.49732e-02,-8.24078e-02,5.20225e-02,-2.36308e-01,7.54931e-03,4.45315e-01,6.13558e-03,2.30276e-01,1.36724e-01,4.92893e-02,-2.79242e-02,6.62601e-02,1.51459e-01,-2.67007e-01,2.60242e-01,1.38519e-01,-1.62538e-01,-3.24741e-01,4.35532e-02,-1.71099e-01,
1.51618e-01,-1.10886e-01,3.57385e-01,-1.78743e-01,1.85133e+00,-9.05462e-02,-2.84412e-01,1.17449e-01,2.60897e-01,-1.87051e-01,-6.19189e-02,3.73988e-01,8.61743e-02,-1.82789e-01,-9.73403e-02,-3.80231e-02,-2.69544e-01,4.24055e-01,8.55981e-02,-1.49720e-02,-5.01613e-02,-1.02259e-01,-8.19294e-02,-2.18438e-01,-6.56430e-02,1.49656e-01,-2.01660e-01,-1.48518e-01,-3.23054e-02,1.54863e-01,1.01881e-01,8.28115e-02,1.00037e-01,2.40530e-01,-1.55318e-01,2.93235e-01,2.88317e-01,-3.28943e-01,-2.75290e-01,6.98492e-02,1.68750e-01,1.65011e-01,-1.17470e-01,-4.57227e-02,-1.28952e-01,
-8.81512e-02,-5.56400e-02,-4.81243e-02,7.04269e-02,6.30124e-02,-3.16157e-01,-1.17467e-01,-2.81613e-01,-2.90536e-01,-1.71335e-01,3.40988e-01,2.98653e-02,6.94519e-03,4.26425e-01,1.18150e-01,2.16050e-01,-1.56132e-01,7.27166e-02,-2.54526e-01,1.27434e-01,-4.00653e-02,-4.73931e-02,2.71010e-01,-4.88043e-01,3.20564e-01,4.14780e-01,2.23427e-01,2.62047e-02,-9.22553e-02,-3.51319e-01,-5.36125e-02,1.17743e-01,2.11049e-01,-6.59026e-01,-7.36337e-01,1.54121e-01,-5.18455e-01,1.22024e-01,-2.37898e-01,-1.07009e-01,1.15696e-01,1.88104e-01,2.96740e-01,1.39395e-01,4.50533e-02,
4.04519e-01,1.98957e-01,-9.53406e-02,-3.84143e-01,-2.66637e+00,1.52118e-01,-1.85145e-01,-1.52215e-01,5.64882e-03,2.82554e-01,-1.78795e-01,1.40391e-01,2.27945e-01,1.23995e-01,8.04390e-02,-2.81000e-01,-1.25678e-01,-8.18950e-02,5.93602e-02,-1.99351e-01,-8.06905e-02,8.32197e-02,1.70804e-01,-3.96564e-01,2.44834e-01,-2.85831e-01,2.14039e-01,-1.60108e-02,-2.52593e-01,-1.80019e-01,7.49484e-02,-1.21480e-02,-6.50798e-03,-4.98724e-01,3.35785e-01,-4.58911e-01,2.56021e-01,-1.77060e-01,-5.34320e-02,2.95228e-01,2.39909e-01,-4.53492e-02,-4.21067e-02,9.42855e-02,-2.90998e-01,
-8.71918e-02,1.78893e-01,1.49989e-01,1.26970e-01,-9.35640e-01,-2.37418e-01,-2.42744e-01,3.21865e-01,-1.73665e-01,2.71956e-01,-1.94555e-01,-2.16440e-01,4.65603e-01,-4.33408e-02,2.80737e-01,3.93798e-01,2.39473e-01,-5.45835e-01,-1.75665e-02,-9.55069e-02,-6.41304e-01,2.11196e-01,8.61114e-03,9.45539e-02,2.77907e-01,5.97041e-01,1.05432e-01,-4.99143e-01,-1.53129e-01,-2.80270e-01,9.20627e-02,-2.88815e-01,-3.15965e-01,-2.62487e-01,-5.73902e-01,-1.05641e-01,1.85826e-01,1.08292e-01,-9.12762e-02,5.99008e-02,-3.56750e-01,1.22858e-01,1.22815e-01,2.04041e-02,1.15901e-01,
-2.76131e-01,1.01881e-01,-2.91068e-01,9.31045e-02,1.67657e+00,1.28787e-02,-5.10492e-01,-2.43971e-01,2.34246e-01,-1.55925e-01,-1.17371e-01,-1.84237e-01,-4.41870e-01,-1.81270e-01,4.67166e-01,2.49631e-01,1.75316e-01,-2.79640e-01,-1.64250e-01,2.38039e-01,-1.22620e-01,4.70308e-02,1.58633e-01,-6.69245e-01,-3.47450e-01,2.60682e-01,2.17302e-01,2.97130e-02,-2.06074e-01,4.34847e-01,-8.70701e-05,1.79463e-01,-2.25380e-01,-4.55615e-01,-6.10033e-01,1.12631e-01,1.94457e-01,-2.71220e-01,5.31965e-02,-1.59651e-01,8.53559e-02,2.78993e-01,1.64852e-01,1.71082e-01,2.74002e-01,
5.26650e-02,2.94321e-01,8.16224e-02,5.23051e-02,-1.04479e+00,-2.33384e-01,7.33028e-03,-4.39339e-02,4.28767e-02,1.92787e-01,1.46480e-01,-2.20704e-03,-1.83337e-01,-1.93016e-01,-3.22712e-01,1.46914e-01,-1.35373e-01,1.07972e-01,1.65738e-01,3.23972e-01,4.48616e-02,1.09644e-01,-3.11058e-02,1.68835e-02,-4.10071e-01,-6.31707e-02,2.05568e-01,3.12411e-01,-5.68679e-01,1.94957e-01,1.96518e-02,1.84786e-01,5.82390e-02,-9.93906e-02,8.23674e-02,-5.04904e-02,1.33425e-01,9.57230e-02,1.60916e-01,-1.59983e-01,1.42650e-01,-5.35102e-02,-1.44910e-01,-2.66627e-01,5.94448e-02,
4.14106e-02,-1.09921e-01,4.01998e-01,3.60198e-02,-5.48150e-01,-3.01503e-01,3.84790e-01,-2.34337e-01,-9.53426e-03,1.66650e-01,-6.32740e-02,3.08505e-01,7.84058e-02,-3.74892e-02,-1.82138e-01,-3.79337e-01,3.14392e-02,-7.17899e-02,-1.76304e-01,-2.01266e-01,7.93703e-03,-1.69605e-02,8.24546e-02,-1.83179e-02,6.12659e-01,2.62711e-01,2.40079e-01,3.79865e-01,6.91474e-01,-1.86440e-01,-1.91093e-01,2.28496e-01,1.69650e-02,8.92610e-02,1.16906e-01,2.15530e-01,2.42659e-01,-3.44135e-01,1.30244e-02,-1.40545e-01,-7.91644e-02,-6.91152e-02,1.23044e-01,-6.78579e-02,-2.62987e-01,
8.41735e-02,-1.60895e-01,-1.89492e-01,1.33283e-01,1.16613e+00,-1.37303e-01,1.17641e-01,2.27803e-01,-1.62523e-02,-1.36866e-01,4.30480e-02,2.07361e-01,-4.91408e-01,1.32408e-01,1.94429e-01,-1.19498e-01,-2.22055e-01,5.46427e-02,3.10459e-01,1.29379e-01,-3.37077e-01,5.82346e-02,8.56604e-02,-3.79470e-02,-1.62299e-01,4.58087e-02,2.28740e-01,1.28693e-01,-5.48634e-02,1.19609e-01,2.94704e-01,-6.90867e-02,3.04873e-01,-7.32726e-03,3.52029e-01,4.39789e-01,2.36371e-01,2.43597e-01,-1.07920e-01,-1.34572e-01,-2.02407e-01,1.04331e-02,1.82232e-01,-1.76481e-01,9.00980e-03,
2.33698e-01,-1.64251e-01,2.49204e-01,3.66602e-02,-9.46843e-01,-1.14448e-01,5.09131e-01,-2.18709e-01,4.66401e-02,1.42939e-01,-4.74277e-02,1.80065e-01,-1.49945e-01,-6.97162e-02,9.45073e-02,1.63068e-01,-6.66254e-02,1.38385e-01,1.30578e-01,3.83709e-02,-2.11259e-01,-3.61806e-01,-7.62855e-02,1.08450e-01,-2.29996e-01,-3.31360e-02,6.33602e-03,1.02833e-01,-2.11435e-01,1.56470e-01,-1.78890e-01,7.18675e-03,-1.71479e-01,1.97312e-01,6.10832e-01,-4.59127e-01,5.57032e-02,2.19955e-01,1.67682e-01,2.79803e-01,-7.33609e-02,-3.40057e-01,-8.28776e-03,-7.71419e-02,3.01983e-01,
1.19215e-01,2.90829e-01,-3.33394e-01,-1.40454e-01,-8.86825e-01,2.24727e-01,1.48476e-01,-1.96440e-01,1.37094e-01,1.56600e-01,-1.02752e+00,-8.68307e-02,3.42213e-01,-5.24809e-01,-3.73799e-01,-6.52618e-02,3.68916e-01,1.79115e-01,-3.33913e-01,-1.02353e-01,3.88425e-01,-2.80575e-01,3.41956e-02,-1.60217e-01,-9.13361e-03,-2.26953e-01,1.54050e-01,8.25848e-02,-4.05797e-01,-7.11946e-01,-1.39825e-01,-3.77192e-02,2.88220e-01,1.48825e-02,5.09051e-01,-1.78226e-01,2.93800e-01,2.79945e-01,-5.99772e-03,1.18114e-01,3.15564e-01,-9.56676e-02,1.33505e-01,7.41499e-02,-4.40333e-01,
2.82874e-02,-7.17749e-02,-3.33268e-02,-1.96680e-01,1.14836e-01,-1.50901e-01,-1.96354e-01,-1.75020e-01,1.85899e-01,6.11065e-02,8.30497e-02,-3.21591e-02,-3.04156e-01,-2.65590e-01,5.53100e-02,-2.31812e-01,-2.09375e-01,1.92678e-01,3.26061e-01,1.80471e-01,1.63150e-01,2.56020e-01,1.98904e-01,-3.32055e-01,-1.09064e-01,-1.80024e-01,-2.62118e-02,-9.20761e-02,5.09604e-01,6.77216e-01,1.39019e-01,1.90156e-01,2.71930e-01,-1.88675e-02,-3.54648e-01,-2.39159e-01,1.89100e-01,-5.23182e-01,-2.99809e-01,1.73448e-02,-1.22789e-01,-1.88013e-01,1.67011e-01,1.76382e-01,-5.82874e-02,
7.95877e-02,2.16267e-02,9.27474e-02,-1.74819e-01,6.24746e-01,1.91139e-01,-3.89229e-01,9.46112e-02,2.66144e-01,-3.09115e-02,1.19849e-01,2.47357e-01,-1.29844e-02,1.53978e-01,-1.59389e-01,-4.77539e-01,-3.24593e-02,-2.30455e-01,-1.42255e-01,-2.52039e-01,4.77170e-01,3.02053e-01,1.71571e-01,2.18360e-01,-8.13426e-02,-3.37659e-01,6.20443e-02,6.71558e-02,1.01041e-01,-2.42106e-01,-8.08301e-02,-2.85623e-01,-5.50944e-02,-1.27514e-02,-1.64576e-02,-4.89122e-01,2.61789e-02,3.16759e-01,-2.25913e-01,-4.40481e-02,6.58971e-02,-9.22841e-02,-3.13123e-02,5.85405e-02,-1.55591e-01,
1.33164e-01,-1.49976e-02,1.30746e-01,2.39965e-02,-1.61743e-01,3.18178e-02,-6.30512e-02,-1.82225e-03,-5.25255e-02,1.33430e-01,-2.98531e-01,3.02602e-02,-2.45048e-01,-1.24812e-01,6.77940e-02,1.77680e-01,1.43246e-01,1.29786e-01,2.22962e-01,-7.45582e-02,6.37383e-02,-5.51904e-02,1.30941e-01,-2.40945e-01,2.22450e-01,3.89951e-02,6.41435e-02,3.67207e-02,7.02949e-01,4.24600e-01,-2.68265e-01,4.56455e-03,-9.25772e-02,1.08655e-01,-4.54621e-01,-2.75991e-01,5.02366e-02,-1.79220e-02,2.83646e-02,-3.63885e-02,1.41621e-01,2.93740e-01,6.06529e-02,-3.76125e-02,-2.45812e-02,
1.87145e-01,1.49786e-01,3.12525e-02,1.60335e-01,8.99656e-01,8.22425e-03,-3.37086e-01,1.64276e-01,1.43938e-01,-1.67874e-01,-3.07097e-01,1.15325e-01,3.44687e-02,1.91734e-01,-7.58763e-02,-2.92463e-02,8.86729e-02,6.10625e-02,-1.30081e-01,-7.83017e-02,-4.75177e-01,3.64155e-02,2.31482e-01,-2.56420e-01,4.46886e-01,7.24100e-02,9.37631e-02,-1.55524e-01,1.27111e-01,-1.89080e-01,-1.87104e-02,1.33502e-01,2.97964e-02,8.45768e-02,2.33971e-01,-2.41431e-01,-2.26741e-01,-1.73725e-01,-1.79345e-01,-6.15265e-03,1.92649e-01,3.94042e-01,3.68541e-02,-1.03606e-01,-6.28334e-01,
-1.19838e-01,
1.73915e-02,
-2.89466e-03,
8.24726e-02,
2.15938e-02,
7.22911e-02,
-1.36948e-02,
3.79477e-02,
-2.81909e-02,
-1.33051e-02,
-4.60829e-02,
-6.13431e-03,
6.56684e-02,
-1.33392e-01,
6.29824e-02,
5.76620e-02,
4.97175e-02,
3.92228e-02,
-2.01400e-02,
4.89698e-02,
-8.44465e-03,
-4.12266e-02,
1.87528e-02,
3.13789e-02,
1.44710e-02,
-1.49626e-02,
-1.80807e-02,
-9.93746e-03,
-1.57970e-02,
-4.44837e-02,
-1.19794e-02,
3.66364e-02,
-9.18434e-02,
8.39115e-02,
-2.16547e-01,
3.76233e-02,
-2.16641e-02,
3.05594e-02,
-2.14322e-02,
4.12726e-02,
8.65901e-03,
9.73578e-02,
1.04352e-01,
1.23344e-02,
-1.42496e-02,
3.96512e-02,1.02231e-02,-1.92334e-01,4.64391e-02,-3.16584e-02,2.97018e-02,7.02708e-02,2.17068e-01,-4.68371e-02,7.84622e-02,2.30224e-01,2.40590e-01,6.85421e-02,6.25923e-01,-1.25822e-01,-2.60541e-01,-1.86949e-01,1.51657e-02,1.18001e-01,2.04854e-01,-5.26870e-02,-2.14810e-01,2.05586e-01,1.83019e-01,-1.50578e-01,-2.58472e-01,1.41927e-01,-2.33023e-02,1.04454e-01,-1.49068e-01,1.40421e-01,1.48259e-01,-4.57336e-02,-8.96002e-02,1.98343e-01,-4.36093e-01,-1.27098e-01,6.35960e-03,2.81446e-01,1.12556e-01,1.61772e-01,-2.88988e-01,-2.40062e-02,1.98738e-01,1.77318e-01,
-1.83335e-01,-1.24025e-01,4.92509e-02,9.31623e-03,-6.44084e-02,3.02445e-01,1.70174e-01,2.27010e-02,-1.88896e-02,1.31077e-01,9.19332e-02,-1.25558e-01,-8.78975e-02,-1.10040e-02,-9.15157e-03,9.52138e-02,-2.63961e-02,-1.90112e-02,1.25016e-01,1.42731e-01,-1.73336e-02,1.64121e-01,-9.70020e-02,-8.15950e-02,-1.45657e-01,-9.95099e-02,1.81755e-01,4.37183e-02,7.07544e-02,-6.96997e-02,-9.30501e-02,2.98166e-01,1.95096e-01,-1.35226e-01,-1.27777e-01,-7.69929e-02,1.20201e-01,1.95432e-02,1.51549e-01,1.79972e-01,2.15687e-01,-1.01826e-01,1.04318e-01,1.33793e-01,1.18456e-02,
-1.18216e-01,1.06218e-01,1.96100e-01,-9.86916e-02,2.58472e-01,1.28719e-01,-1.72727e-01,3.34878e-02,2.28235e-01,-1.60769e-01,-4.00735e-02,-9.89270e-02,1.36119e-01,-6.13452e-01,-1.30241e-01,4.88102e-02,1.22565e-03,2.91480e-01,6.10175e-02,1.75856e-01,9.04719e-02,-2.19159e-02,-2.57302e-01,-2.27170e-02,-2.68348e-01,-1.41705e-02,1.27673e-01,-8.76479e-01,-2.36159e-02,-1.15191e-01,3.27223e-01,-1.55979e-01,-2.30558e-01,2.29336e-01,1.31367e-02,-1.57033e-01,-2.20080e-01,-1.43015e-01,-8.92689e-02,-1.10573e-01,2.47244e-01,1.03884e-02,1.25809e-01,5.69053e-02,-7.35801e-03,
-1.63063e-01,4.72812e-02,-1.36083e-01,3.36812e-02,-1.74969e-01,2.22707e-01,1.04508e-02,2.59921e-01,1.05056e-01,1.88070e-01,-2.89342e-01,-1.38304e-01,2.24582e-02,-5.46089e-01,-1.66029e-01,-2.59493e-02,1.15770e-02,-7.30610e-02,-1.77625e-01,1.38054e-01,-2.30732e-01,4.44130e-02,-1.04654e-01,1.62690e-01,8.72546e-02,-3.47798e-02,2.79968e-02,2.20501e-01,-4.49734e-02,-2.06782e-01,7.68391e-02,-2.39678e-01,4.55918e-01,-7.44604e-02,3.73987e-01,1.65971e-01,-8.94363e-02,7.92370e-02,2.13591e-01,-2.14693e-01,-2.78471e-01,-1.12562e-01,-1.40299e-02,1.98879e-01,-1.09644e-01,
-4.71523e-02,-1.58852e-01,-1.65141e-01,1.64165e-01,-4.05489e-01,1.92171e-01,3.91522e-02,-4.18575e-02,6.64440e-02,2.35499e-01,1.81065e-01,-7.27709e-02,3.06177e-01,-3.08708e-01,4.31838e-01,3.04329e-01,-5.94570e-01,2.36985e-01,6.64455e-03,7.21162e-02,-3.61299e-03,2.25206e-02,-1.98704e-01,-1.66749e-01,-1.17705e-01,-1.04470e-01,-1.81174e-01,5.21169e-02,7.27701e-02,-2.45742e-01,1.48335e-01,1.13319e-01,3.67469e-01,3.38366e-01,2.75683e-01,-1.07585e-01,1.80291e-01,-1.05629e-01,-9.25517e-02,-2.30321e-01,-2.19962e-01,4.60395e-02,-6.66921e-03,-1.30078e-01,6.37038e-02,
-1.95844e-01,1.03081e-01,-2.38717e-01,-1.76804e-01,1.42395e-01,1.78983e-02,-2.14194e-01,-2.87058e-02,3.60175e-01,4.38465e-03,5.27266e-02,-1.32920e-01,1.57280e-01,-3.77760e-02,-2.24748e-01,3.16174e-01,-1.93363e-01,1.63034e-01,2.48122e-01,1.00076e-01,2.86912e-01,2.06882e-01,2.30692e-01,-2.64398e-02,8.29377e-02,-5.02670e-02,1.70117e-01,2.20793e-02,-2.71151e-01,9.80854e-02,1.45028e-01,2.57173e-01,3.55502e-02,-1.78244e-01,4.55419e-01,3.57725e-01,-2.66338e-01,2.23828e-01,2.26933e-01,-4.88488e-02,6.85719e-02,2.35810e-01,-1.28081e-01,-2.06505e-01,-1.69456e-01,
-1.34991e-01,-2.38193e-01,2.02699e-02,2.53391e-01,2.48947e-01,2.93646e-01,2.17239e-01,-3.82362e-02,-6.93372e-02,2.38897e-01,2.04542e-02,-6.96299e-02,2.09038e-01,2.90214e-01,4.80044e-01,-1.04509e-01,-5.42827e-01,-3.33022e-02,-6.18690e-01,3.09192e-02,-2.29251e-01,-1.47240e-01,-3.43614e-01,-3.42545e-02,7.74044e-02,-1.94594e-01,7.89437e-02,7.53474e-02,-5.45177e-01,1.32938e-01,-1.40507e-01,3.70969e-01,-1.83212e-01,-2.00733e-01,4.16801e-01,1.05768e-01,-1.21559e-01,2.10683e-02,-4.21202e-02,-3.27802e-01,2.36285e-02,3.43927e-01,-5.70913e-02,1.66431e-01,1.91546e-01,
7.21019e-02,-2.22612e-01,5.58271e-02,7.37582e-03,-5.84732e-01,1.72916e-01,-1.87845e-01,2.09971e-01,4.73389e-03,-2.40176e-01,1.08618e-01,-1.99530e-02,-1.63282e-01,1.35205e+00,2.84233e-01,4.12347e-02,-3.02406e-01,-4.91019e-02,-3.73965e-01,7.65654e-02,-3.33697e-01,1.79100e-01,-1.05515e-02,1.61133e-01,1.85191e-01,-3.32471e-01,5.84247e-03,2.42536e-01,1.02287e-01,-2.59280e-01,-1.84478e-01,1.97264e-01,-6.13716e-02,-2.49763e-01,-1.48589e-01,-4.76222e-01,2.85937e-03,-3.74243e-02,2.49843e-01,8.01191e-02,-1.22854e-01,2.50816e-01,1.64464e-02,-1.78918e-02,1.72811e-01,
-9.07025e-01,-1.39934e-01,-8.03906e-02,2.39810e-01,-9.25332e-01,-2.15612e-01,2.68714e-01,1.36628e-01,1.34242e-02,3.40304e-02,-3.43134e-01,2.06094e-01,3.32543e-01,-1.04170e+00,3.95191e-01,-3.16392e-01,-4.04814e-02,-5.46515e-02,-3.19877e-01,-3.15299e-01,3.55822e-02,-2.43766e-01,3.56455e-01,-1.74168e-01,7.42485e-02,1.26274e-01,1.00803e-01,2.23573e-01,-1.21807e-01,-3.30824e-01,2.61036e-01,2.23311e-01,7.95429e-02,9.73036e-02,6.73499e-02,-1.04975e-01,2.76171e-01,-1.69686e-01,1.21113e-01,2.54047e-01,2.56870e-02,-1.45821e-04,-1.96723e-01,-3.38110e-02,-2.86706e-02,
-5.93462e-01,-2.14592e-01,3.01131e-01,1.08604e-01,1.64971e-01,-5.03585e-01,-1.50882e-01,-1.84469e-01,1.07105e-02,9.51106e-02,-2.95440e-01,-2.05462e-01,-2.49726e-01,7.09739e-02,1.96454e-01,-3.94705e-02,4.38337e-01,7.73448e-02,-5.45271e-02,-2.84810e-01,8.41761e-02,5.69363e-01,1.41449e-01,2.32258e-01,1.81516e-01,8.62056e-02,-4.00726e-02,-3.03330e-02,-2.34420e-01,-5.22141e-01,1.03467e-01,2.16811e-01,1.47659e-01,1.15536e-01,2.67639e-02,-1.85568e-01,2.50052e-01,-2.57424e-01,1.62637e-01,1.42407e-02,-6.56967e-02,-2.44495e-01,3.52149e-03,-2.76539e-01,5.26326e-02,
-4.08502e-03,-2.34608e-01,4.60624e-02,2.03718e-01,-2.16322e-02,1.83790e-01,2.44147e-01,4.43258e-01,-6.76843e-03,1.61119e-01,3.42753e-02,2.24697e-01,3.00813e-01,1.38776e-01,4.13656e-01,-3.41220e-01,-4.94507e-01,1.70117e-02,-4.85282e-01,7.57205e-02,-2.01617e-01,-2.58885e-01,-5.07155e-02,1.91203e-01,-1.89614e-01,-6.03556e-02,8.44125e-03,-8.23807e-02,-8.58983e-02,-1.32366e-01,2.23107e-01,1.11777e-01,-6.19464e-01,4.38393e-02,-8.44998e-02,-1.68002e-02,-9.56523e-02,2.56936e-02,-1.60331e-01,-1.05199e-02,-2.43312e-02,1.58816e-01,-3.73933e-01,8.84883e-03,3.11875e-01,
-1.57704e-01,1.14314e-01,-7.41450e-01,2.45160e-01,3.14459e-02,-5.66646e-03,-1.94015e-01,-8.89808e-02,8.55081e-02,-3.78236e-02,4.03143e-01,1.46526e-01,2.97948e-01,-4.34467e-01,7.13813e-02,1.58161e-02,1.21871e-01,-7.65674e-02,1.06158e-01,-1.97723e-01,1.97252e-02,9.58501e-02,2.43332e-01,3.21802e-02,7.14417e-02,-9.05658e-02,3.09848e-01,3.13520e-02,-1.48471e-01,1.73142e-01,6.22434e-02,4.53352e-02,-4.20951e-02,5.52381e-02,1.18568e+00,8.92120e-02,1.20996e-01,-4.31543e-01,-4.26014e-02,1.67047e-01,-6.50907e-02,2.66033e-02,3.26100e-01,-2.65857e-01,-2.49629e-01,
-9.59271e-02,5.10962e-02,3.92356e-02,-1.99846e-01,5.50733e-01,4.31864e-01,1.57212e-01,1.98584e-01,-2.60538e-01,3.21745e-02,5.87487e-02,-3.58616e-03,1.44104e-01,4.57795e-01,1.82174e-02,-2.39740e-01,-2.81089e-01,1.25059e-01,3.53256e-01,-5.48836e-02,9.19839e-02,1.46775e-01,8.59989e-02,-1.65714e-01,3.89046e-02,-1.04717e-01,3.27054e-02,-1.12997e-01,3.00996e-01,2.35243e-01,-1.14011e-01,1.65145e-01,7.49891e-03,-4.28152e-01,-3.67343e-01,-7.15498e-02,-1.35850e-01,3.84858e-01,-1.95038e-01,8.94036e-02,-3.92667e-02,-1.76917e-01,-2.57667e-01,1.10642e-01,1.46254e-02,
-1.62686e-02,-2.17456e-01,-4.34268e-02,1.96221e-02,5.28087e-02,-2.73837e-03,-1.68819e-01,4.27311e-02,2.74602e-01,-1.30303e-02,-1.17338e-01,1.26067e-01,3.99219e-01,-1.33189e-01,-6.50813e-01,-8.93729e-01,7.88472e-02,-3.52456e-01,-5.57551e-01,-4.21374e-02,1.84007e-01,4.03409e-02,1.24572e-01,1.81216e-01,-2.53951e-01,-1.06110e-01,-2.79760e-02,1.86337e-01,-1.17411e-01,1.29790e-01,2.32137e-01,-8.13276e-02,-6.73575e-01,-1.99668e-01,3.58993e-02,2.55076e-01,-4.32990e-02,-4.11457e-02,-1.67869e-01,-3.41185e-02,2.81857e-01,2.05987e-02,5.85480e-02,2.87428e-01,1.84274e-01,
-7.84866e-02,-7.50535e-02,4.29600e-01,1.84432e-01,-4.71691e-02,1.67913e-01,2.09432e-01,-1.90282e-01,4.02634e-02,3.59806e-02,-4.18121e-02,1.55718e-02,1.60880e-01,3.51608e-01,-1.02848e-01,7.03385e-02,-1.88234e-01,4.63407e-01,-4.67796e-02,-4.96256e-01,-1.78419e-01,5.04854e-01,-4.00510e-01,-1.25903e-01,-4.64616e-01,-3.18768e-01,2.21690e-01,-6.15905e-01,2.24402e-01,2.00828e-01,2.53515e-01,-2.63366e-02,2.30987e-02,-2.68902e-01,7.91487e-02,-3.04592e-01,1.19355e-01,-1.85213e-01,2.75211e-01,2.95421e-02,7.51401e-02,-1.29182e-01,-3.74464e-01,-6.69928e-03,2.81134e-02,
3.83040e-02,-1.04534e-01,-4.07745e-02,1.47849e-01,3.63876e-01,1.89012e-01,-1.97491e-02,-2.01036e-01,-1.56797e-01,-1.13122e-01,9.55845e-02,2.13470e-01,3.55269e-02,-6.51610e-02,4.42331e-02,4.24258e-01,1.92830e-01,7.19159e-02,3.51741e-01,1.60183e-01,9.98690e-03,2.56444e-01,-2.98803e-01,-1.60078e-01,5.45560e-02,-3.83861e-01,6.10266e-02,-7.92643e-01,1.23107e-01,2.59811e-01,-1.68274e-02,-1.92156e-01,-2.30086e-01,-2.13642e-01,4.62540e-02,-9.90082e-02,-1.73433e-01,4.37288e-02,-4.32451e-02,-3.87945e-02,1.65759e-01,1.01519e-01,-5.84937e-03,2.93338e-01,2.81880e-02,
-9.10112e-01,-1.12131e-02,-1.89872e-01,3.47155e-01,-5.04919e-01,-1.83587e-01,1.33241e-01,2.95791e-01,1.18676e-01,-4.39576e-02,5.56803e-01,2.05153e-01,1.27990e-01,1.18378e-01,2.38875e-01,3.34865e-02,-1.49847e-01,-7.50206e-02,-3.97420e-01,-1.85941e-01,-3.93705e-02,-1.41190e-01,1.83134e-02,2.13471e-02,-1.74924e-02,2.85819e-01,-1.01877e-01,-2.03805e-01,-1.39142e-01,-3.93809e-01,1.48533e-01,-8.06845e-03,3.58759e-02,-2.57619e-01,-1.76944e-01,-2.75459e-01,1.08003e-01,2.27973e-01,1.84956e-01,2.97744e-01,3.32887e-02,1.12773e-01,-6.07321e-02,1.39533e-01,-2.45821e-01,
1.28055e-01,-8.82269e-02,5.56285e-02,-1.26335e-01,3.81429e-01,-9.87980e-02,1.78361e-01,-2.62036e-02,-2.42487e-01,-7.79642e-02,3.14919e-01,-1.67439e-01,-1.15581e-02,7.44128e-02,-1.38315e-01,-3.76915e-01,-1.05535e-01,-2.31933e-01,1.62290e-01,-6.33866e-03,2.89292e-01,-3.22389e-02,1.37575e-01,-5.56350e-02,2.14191e-01,-1.59094e-01,-2.30233e-01,-1.80541e-01,1.27785e-01,1.91684e-01,2.45500e-01,1.25631e-01,2.35483e-01,-1.08377e-01,-1.99354e-01,2.05892e-01,2.10216e-01,2.33627e-01,-4.35538e-02,1.44629e-01,-1.50405e-01,-5.22305e-01,-9.00077e-02,3.06133e-02,1.10158e-02,
1.32712e-01,-4.26759e-02,1.57610e-02,-5.89362e-03,9.39881e-02,-1.88999e-01,-2.43904e-01,1.82234e-02,2.30607e-01,-3.27243e-02,-8.53608e-02,5.77468e-02,2.08355e-01,5.16469e-01,-6.82350e-02,4.58981e-02,-2.04745e-01,-5.24045e-02,1.54876e-01,2.67649e-02,1.17533e-01,6.19317e-02,1.15858e-01,-1.12337e-01,1.50197e-01,3.13055e-01,-2.72190e-02,-2.38064e-01,1.25375e-01,2.39033e-01,-1.00281e-01,3.44817e-01,-2.66145e-02,-1.98053e-01,-3.03818e-01,-1.61056e-01,-5.14559e-02,1.05494e-01,-2.29963e-01,3.55180e-02,-7.01834e-02,8.27192e-02,-9.80681e-02,-1.40346e-01,5.84578e-02,
2.44170e-02,-6.74208e-02,2.37098e-01,2.63660e-02,-2.52276e-01,-7.17494e-02,-1.34230e-02,3.24937e-01,-1.22087e-01,5.25339e-02,2.34365e-01,2.19963e-01,-2.36394e-01,2.75651e-01,-1.96528e-01,2.44069e-02,2.01508e-01,1.78183e-01,-3.79846e-02,2.11834e-02,8.50300e-02,-5.27061e-02,-4.57509e-01,-1.27286e-01,2.48358e-01,-7.94668e-02,2.57959e-01,5.24253e-02,3.28610e-01,-3.63912e-01,-1.78950e-02,1.35136e-01,2.03866e-01,8.09601e-02,8.47079e-02,-1.48570e-01,-1.46144e-01,-1.89255e-01,4.37492e-02,-1.14256e-01,-1.45662e-01,-1.20496e-01,-2.43058e-02,1.65240e-01,3.05680e-02,
-5.04053e-01,-9.77924e-02,-1.45065e-02,5.88165e-02,6.70019e-02,-3.52625e-01,1.09161e-02,-7.20055e-02,-1.90643e-01,1.77401e-02,1.22798e-01,-1.73254e-02,-3.02122e-01,-6.52556e-01,-9.27068e-02,9.51108e-02,4.66223e-01,-1.72153e-02,1.51596e-01,-8.82283e-02,-2.46959e-01,7.97218e-04,3.87355e-01,3.16454e-01,-9.86159e-03,-2.02150e-01,1.74276e-01,-3.92831e-01,-6.15005e-01,-2.09668e-01,-1.91479e-01,-1.11830e-01,2.79013e-01,4.43687e-02,-1.57840e-01,1.53795e-01,2.14738e-01,-2.60227e-01,1.33907e-01,5.65217e-02,3.94714e-02,-2.95480e-01,2.56463e-01,1.07095e-01,5.86300e-02,
-1.92365e-01,1.70300e-01,-1.48306e-01,-1.37684e-01,5.55290e-01,2.78451e-01,-1.53315e-01,-4.91215e-02,-7.27296e-02,1.65627e-01,-1.76617e-01,-2.22862e-01,1.36541e-01,2.40615e-01,-2.74834e-01,-3.27577e-01,-4.99958e-02,1.10620e-01,2.66960e-01,1.48277e-01,-8.42721e-02,8.98103e-03,1.56877e-02,-3.15950e-01,2.46430e-01,9.14478e-02,9.34939e-02,-3.68714e-02,1.14580e-01,1.15585e-02,-1.00177e-01,-1.19077e-01,-1.35334e-01,-2.12225e-01,-3.16393e-01,1.61530e-01,6.56135e-03,2.95176e-01,-2.55275e-01,-8.82519e-02,2.19385e-01,1.30008e-02,-2.95890e-01,-1.49996e-03,7.65232e-02,
-1.18054e+00,6.16553e-03,8.65041e-02,4.64643e-02,-1.61577e-01,-2.74457e-01,1.27484e-01,-4.17463e-01,1.52806e-01,9.00186e-02,-3.81786e-02,-8.81972e-02,-3.23721e-01,-5.00459e-01,-2.67356e-01,-6.39583e-02,6.82763e-01,4.03249e-01,6.87949e-02,-1.57946e-01,1.14826e-01,-2.05501e-01,-1.39606e-01,3.03034e-01,-1.99029e-01,8.30721e-02,2.98479e-01,2.82215e-01,-3.84391e-03,-9.26360e-01,1.26696e-01,1.73162e-01,-1.53790e-01,1.38643e-01,-1.08160e+00,2.09530e-01,-1.98915e-01,-7.69892e-01,-2.03651e-01,-4.62784e-01,3.33365e-01,-8.65611e-01,-2.24456e-01,-2.54046e-01,2.02621e-01,
-2.94852e-01,-7.47330e-02,-9.96531e-02,-8.91818e-02,2.90733e-01,3.91398e-01,1.42079e-01,6.27360e-02,-1.26498e-01,1.69066e-01,4.73882e-01,-1.25664e-01,1.36273e-01,1.01843e+00,-1.68330e-01,5.27811e-01,-1.64918e-01,4.73070e-02,2.12754e-01,-1.37852e-01,-8.54892e-02,1.63076e-01,4.25344e-02,-1.25777e-02,-2.45826e-01,1.69816e-01,-1.05327e-01,-2.73704e-02,2.08867e-01,1.50631e-01,-1.52495e-01,-2.33671e-02,-5.65984e-01,-1.34399e-01,1.10317e-01,2.56306e-01,4.31686e-02,-1.41654e-01,-1.17840e-01,-1.75226e-01,1.55109e-01,2.41782e-01,3.05886e-02,5.21312e-02,5.02295e-02,
5.40128e-01,-1.22343e-01,-4.49168e-01,2.88255e-01,-3.26860e-01,-2.48054e-01,-1.39243e-01,-6.48524e-02,2.91819e-02,1.51869e-01,4.54808e-01,2.16675e-01,-5.72598e-01,1.00359e+00,9.05939e-02,1.47373e-01,4.95449e-01,7.42358e-02,1.33701e-01,2.99499e-01,-1.56127e-01,-1.14321e-01,5.96637e-02,-9.78324e-02,-2.27045e-01,-1.28617e-01,-9.45066e-03,3.42965e-02,-3.10296e-01,2.57028e-01,-1.32762e-01,1.21284e-02,3.38636e-01,-4.57996e-01,3.70396e-01,-1.77365e-02,-1.96027e-01,-1.49210e-01,-3.67052e-01,-8.32071e-03,-5.90068e-01,-3.61484e-01,1.36977e-01,-1.12625e-01,1.31833e-01,
-6.98468e-02,-5.87728e-02,-2.11995e-02,1.34630e-01,4.25406e-01,-1.99102e-03,1.37640e-01,1.75844e-01,8.61250e-02,1.61885e-01,5.33872e-02,-2.43493e-01,2.98749e-01,-6.42888e-02,3.19056e-02,-5.94034e-01,-1.37385e-01,1.13986e-01,-4.99792e-01,-3.50688e-02,9.06628e-02,-2.73268e-01,-3.39152e-01,1.22813e-01,1.49242e-01,-4.32142e-02,-4.21667e-02,-1.40526e-01,-1.08362e-01,-1.97006e-01,-1.85964e-01,2.89707e-01,-3.70473e-01,-1.25696e-01,-3.29980e-01,1.33424e-01,1.13072e-01,3.22342e-01,-1.10838e-01,-3.10870e-01,2.47160e-01,1.81508e-01,-3.70710e-01,2.20492e-01,1.91654e-02,
7.94623e-02,-2.48621e-01,-3.77379e-01,3.30967e-02,-6.43057e-02,1.34184e-01,-2.41279e-01,-5.72630e-02,2.26679e-01,3.61267e-01,7.07755e-02,-2.22225e-01,-4.21510e-02,-7.69164e-03,3.04106e-02,3.75688e-01,-2.87645e-01,3.12838e-01,1.62844e-01,-1.50500e-01,-8.03974e-02,2.58458e-01,5.20094e-01,-3.35186e-02,1.46875e-01,-2.32328e-02,2.56201e-01,4.68932e-01,-1.12835e-01,3.08814e-01,-3.07421e-03,1.71414e-01,3.90385e-01,-1.93158e-01,1.55198e-01,1.91559e-01,2.69866e-01,-4.51299e-01,1.08185e-01,1.24333e-03,-6.53074e-01,2.35362e-01,4.22035e-01,-3.69910e-01,-1.04326e-01,
-2.45795e-01,1.81101e-01,7.17057e-02,-5.84714e-02,3.92904e-01,-5.29132e-02,-1.99469e-01,-1.50794e-01,-2.59207e-01,1.07691e-01,-1.27146e-01,1.07415e-02,4.39463e-03,3.92111e-01,-7.03208e-01,-8.67203e-01,3.69106e-01,2.15691e-01,2.79993e-01,-1.11799e-01,-3.43486e-02,1.20616e-01,3.35745e-01,-1.70776e-01,-9.60957e-02,9.72915e-03,-1.53981e-01,2.99006e-01,3.03749e-02,1.77580e-01,-3.18506e-01,7.04624e-02,-1.56241e-01,-1.64242e-01,-2.07698e-01,-2.12973e-01,-3.61951e-01,-5.34538e-03,1.98878e-01,1.39178e-01,2.44331e-01,-2.68573e-01,3.07739e-02,1.53158e-01,1.60568e-01,
-1.80245e-01,-2.07255e-01,6.89416e-03,-1.41878e-01,-3.35805e-01,2.71930e-01,-1.93576e-01,2.20421e-01,7.46633e-02,-1.51762e-01,-3.74379e-01,1.92872e-01,-1.49702e-02,6.90170e-01,3.47940e-01,3.60477e-01,-3.36639e-01,1.46112e-01,-3.76864e-02,3.01252e-02,1.75474e-01,2.75001e-03,-5.55429e-02,2.68597e-01,-2.41910e-02,-6.32352e-02,2.47053e-02,-1.37585e-01,6.55660e-02,1.17735e-01,1.55217e-01,1.32227e-01,-1.94627e-02,-1.06850e-01,-1.09623e-01,6.04610e-02,-1.26281e-01,2.72146e-02,3.87604e-01,-2.85456e-01,-1.06345e-01,-5.49703e-02,3.05462e-01,2.41343e-01,-4.23682e-02,
4.06306e-02,8.34783e-02,1.32536e-01,5.84585e-02,2.28129e-01,-3.99225e-01,-1.51136e-01,-3.51464e-01,-8.16285e-01,8.85817e-02,1.59304e-01,-2.39144e-01,-1.37601e-01,1.17964e-01,9.57848e-03,-8.97150e-02,2.50485e-01,1.58387e-01,2.04051e-01,-2.70036e-01,-5.41542e-01,2.51466e-01,-3.34024e-01,4.43989e-02,1.70541e-01,-1.60431e-01,-2.40924e-02,1.98093e-01,-2.29982e-01,-1.03389e-01,1.25309e-01,2.98558e-02,-3.25678e-01,-9.19865e-02,-2.41117e-02,-4.82664e-01,-3.09703e-01,-1.44108e-01,1.23298e-01,2.45796e-01,1.52473e-03,2.15783e-01,-2.57915e-02,-4.04402e-01,4.45621e-03,
-4.85346e-01,-8.25267e-02,-3.26578e-01,2.37380e-01,5.29332e-02,-2.09132e-02,8.80268e-03,1.45390e-01,-2.33217e-01,1.46020e-01,3.44537e-01,-1.42519e-01,1.01500e-02,-8.70498e-02,1.23296e-01,-5.70470e-02,9.36001e-02,-6.30607e-01,-8.08361e-02,2.55602e-02,-5.29829e-02,5.09784e-01,3.22325e-01,-3.29411e-02,1.64869e-01,-2.02195e-01,-1.99030e-01,4.64274e-01,2.28808e-01,3.05984e-01,-2.22083e-01,-1.52813e-01,1.35351e-01,-1.75347e-01,-2.73622e-01,2.21289e-01,-2.04083e-01,-8.54181e-02,1.87382e-01,2.12732e-01,-6.64084e-01,1.45219e-01,-1.82598e-01,7.21792e-02,-3.55768e-01,
3.96558e-02,-1.19101e-01,1.06744e-01,1.21391e-01,8.34525e-02,1.30306e-01,-2.17232e-01,1.49151e-01,-4.10198e-02,-1.64857e-01,-1.52387e-01,-1.72891e-01,2.27843e-01,-1.82214e-01,9.91193e-02,-3.72005e-01,-2.73610e-02,7.16245e-02,9.57932e-02,2.11620e-02,-9.13138e-02,1.31756e-01,1.26220e-01,-2.73236e-01,-9.48599e-02,1.27325e-01,1.62771e-01,-1.20636e-01,1.60507e-01,-3.36283e-02,1.01821e-01,1.19074e-01,1.48291e-01,-1.96490e-01,8.83529e-02,-8.03540e-02,-1.83489e-01,-1.89909e-01,5.97742e-02,2.27455e-01,-1.70357e-01,-2.15237e-01,5.94221e-02,3.45436e-02,2.48205e-01,
-2.58285e-01,-4.20325e-01,-1.18288e-01,6.65510e-02,1.35752e-01,1.00421e-01,-2.40674e-01,6.02885e-02,5.31713e-02,2.01378e-01,2.39894e-01,2.48073e-01,1.29001e-01,1.07381e+00,-2.90805e-02,1.49634e-01,-5.68499e-01,1.80022e-01,-7.79042e-02,-3.06627e-01,2.45104e-01,2.35674e-01,1.85364e-01,6.53909e-02,-3.92497e-02,-5.01151e-04,1.33831e-02,2.50809e-01,-7.98678e-03,3.94783e-01,7.07037e-02,1.16152e-01,1.33410e-01,-2.92323e-01,4.40571e-01,1.14652e-01,2.57025e-01,-1.59279e-01,-6.55716e-02,-4.13258e-02,-1.57766e-01,5.44761e-02,1.85403e-01,-8.03508e-02,-2.97624e-01,
