// Neural Network File Format by Kyle Julian, Stanford 2016
7,4,9,45,
4,45,45,45,45,45,45,9,
0,
-8000.0,-100.0,-100.0,0.0,
8000.0,100.0,100.0,40.0,
0.0,0.0,0.0,20.0,-0.4325993796315559,
16000.0,200.0,200.0,40.0,3.102300000999995,
3.74334e-01,-8.08939e-01,1.19941e-03,-3.41299e-03,
1.02819e+00,2.00687e-01,2.99257e-01,1.59112e-01,
-2.53480e-01,5.92828e-02,-1.65777e-01,-1.09593e-02,
1.17489e-01,-6.32863e-01,-3.16949e-02,1.63930e-02,
1.73705e+00,3.33164e-02,-1.09143e-01,1.63563e-02,
-8.24019e-01,5.84728e-02,-1.04022e-01,-4.08484e-01,
1.86145e+00,-2.30139e-01,2.33548e-01,-8.82344e-02,
-6.88754e-02,1.80576e-01,-1.71063e-01,5.12088e-01,
2.50254e-01,-1.09371e-01,3.12570e-01,-5.38035e-02,
1.24637e-01,-7.44755e-02,-1.11112e-01,2.79317e-01,
-5.25107e-01,2.31105e-01,2.04747e-01,-3.83595e-01,
-4.86602e-02,3.62048e-01,-1.21253e-01,3.15786e-01,
-2.36053e+00,-9.66346e-03,6.33959e-02,1.57721e-02,
-1.56148e+00,1.12906e-01,-1.88023e-01,1.17489e-01,
-1.22708e+00,-6.01447e-02,1.06373e-01,-3.27520e-01,
-5.34506e-02,-1.82052e-01,-1.16142e-01,-2.47905e-01,
-1.07707e+00,-1.49338e-01,-1.47134e-01,1.64788e-01,
-5.75368e-01,-8.85672e-02,8.31884e-02,-4.06777e-01,
-1.89543e-01,-3.11268e-01,1.51712e-01,2.89367e-01,
-1.97048e+00,6.82660e-02,-4.52614e-02,1.20163e-01,
-6.78502e-01,1.66787e-01,-1.26436e-01,2.84023e-01,
2.39759e+00,2.69783e-02,-6.73242e-02,2.03860e-02,
-7.67012e-01,-1.59024e-01,4.58788e-01,-3.67847e-02,
3.42545e-01,1.50493e-01,-5.72254e-02,-7.38658e-02,
-1.94406e-01,-2.49507e-01,2.04878e-01,3.69272e-01,
6.37055e-01,2.93645e-01,-3.42614e-01,1.34520e-01,
1.06072e+00,-4.96894e-01,-2.11793e-01,2.45074e-02,
1.39143e+00,9.66076e-02,1.65978e-01,-5.97307e-02,
1.52379e+00,-2.11726e-01,1.54650e-01,-2.43188e-02,
-7.03027e-02,-7.87706e-02,8.82067e-02,2.84657e-01,
-1.60951e-01,4.18093e-01,2.82384e-01,7.77309e-02,
-3.37061e-01,-4.21950e-01,4.18308e-01,1.76480e-01,
4.21668e-01,1.92431e-01,-2.58433e-01,3.19232e-01,
3.91961e-01,-9.62265e-02,-4.82758e-02,-6.51803e-01,
1.01113e+00,2.76712e-01,-1.79635e-01,-6.88169e-02,
1.01197e+00,4.14274e-03,2.29441e-01,2.02548e-02,
-7.51860e-01,4.83922e-01,5.96525e-02,-2.24801e-02,
5.61035e-01,5.89021e-02,7.17451e-02,-2.39925e-01,
8.60795e-01,2.55751e-01,7.22279e-02,9.71558e-02,
-3.51978e-01,1.24078e-01,1.18073e-01,2.85486e-01,
1.51702e+00,-1.46085e-01,1.77938e-01,2.63154e-01,
1.15681e+00,2.72887e-01,-2.13688e-01,-2.92912e-01,
-3.86218e-01,-5.07883e-01,-8.35653e-03,-5.02024e-02,
3.43061e-01,5.17694e-01,2.24361e-02,1.85533e-02,
1.74729e-01,4.56772e-01,-3.18105e-01,-3.09689e-02,
-7.82798e-02,
-4.08262e-02,
4.25751e-02,
8.99680e-02,
2.41161e-02,
-6.08687e-02,
2.29447e-02,
1.93942e-01,
5.71980e-03,
7.17868e-03,
-5.62211e-02,
-1.08066e-02,
9.49558e-02,
7.17432e-02,
-7.05189e-02,
2.99451e-02,
9.46178e-02,
-1.96121e-01,
2.13133e-02,
1.05624e-01,
1.58557e-01,
1.04674e-01,
4.86889e-02,
4.03761e-02,
9.72639e-02,
9.14071e-03,
7.02763e-02,
2.72720e-02,
4.44565e-02,
1.20010e-01,
-3.97324e-02,
6.59230e-02,
1.28647e-01,
-1.04658e-01,
-1.31535e-02,
3.25066e-02,
-2.06847e-02,
-5.01005e-02,
6.13188e-02,
7.65822e-02,
1.45753e-01,
-2.24766e-02,
-1.20258e-02,
-5.57379e-02,
-2.89998e-02,
-2.61759e-01,-2.15637e-01,6.34222e-03,2.50590e-01,3.75949e-02,-1.58891e-01,3.83408e-01,2.08892e-01,-1.89618e-01,5.35409e-02,8.00679e-02,1.72055e-01,-3.46574e-01,-8.59479e-03,-1.13188e-01,2.17117e-01,-1.82811e-01,5.90681e-01,-2.53606e-01,-2.59006e-01,-1.64614e-01,3.01134e-01,3.34597e-01,1.19718e-01,-2.63617e-01,-5.40208e-01,-1.59192e-01,-1.08941e-01,-3.97492e-02,-1.58011e-01,3.12573e-01,2.93589e-01,1.89778e-01,5.34949e-02,-9.53109e-02,-3.68101e-02,-1.51928e-01,1.01884e-01,1.22794e-01,3.07515e-01,-1.72505e-02,2.00404e-01,-1.24945e-01,-1.96401e-01,1.08452e-01,
-1.20684e+00,-4.29844e-02,3.50706e-02,9.17204e-02,-5.23747e-02,1.49540e-01,-2.00357e-01,8.36934e-02,1.74437e-01,-1.35893e-01,-6.83665e-02,-1.81380e-01,-1.26521e-01,-1.47535e-01,-3.53808e-02,-1.48269e-01,-3.07448e-02,-6.34602e-01,9.00663e-04,-9.17534e-02,-1.53675e-02,1.12000e-01,2.49262e-01,1.56094e-01,-7.51952e-02,4.65901e-02,-5.23817e-02,8.70176e-02,-1.15538e-02,1.35592e-01,2.36066e-01,-1.65015e-01,2.55997e-01,3.36814e-02,-9.12863e-02,2.20272e-01,-5.84469e-01,-5.17394e-02,2.62178e-01,-5.21717e-02,-1.02585e-01,2.92156e-01,-3.91138e-01,-3.70972e-01,7.73103e-02,
9.82818e-02,4.93586e-01,-4.45225e-01,8.76171e-02,-5.72596e-01,-6.54620e-01,4.23202e-01,-2.58288e-01,1.89111e-01,-8.75845e-02,-1.22454e-01,-2.97798e-02,7.27539e-02,-3.79711e-01,-5.97420e-01,4.84181e-02,2.78156e-01,-1.19349e+00,4.26296e-01,1.32368e-01,-2.36703e-01,1.28697e-01,7.57174e-02,-1.80237e-01,3.56302e-01,-3.92550e-01,-4.84078e-02,-2.20671e-02,3.01191e-01,7.88258e-02,-1.61165e-01,1.64775e-01,-5.53790e-01,-1.73067e-01,-7.10527e-01,1.66387e-01,-8.29410e-02,9.99897e-02,-8.94037e-02,-5.41447e-03,2.12022e-01,7.64946e-02,1.01264e-02,-1.27092e-01,2.55645e-02,
-3.96755e-03,1.32128e-01,1.50493e-01,-1.96412e-01,1.03731e-01,-6.07246e-02,1.82603e-01,-2.18179e-01,-2.56926e-01,-9.33097e-02,-1.68153e-01,-3.35477e-01,1.22140e-01,1.71810e-01,-5.15138e-01,-2.22499e-01,9.03657e-02,-2.29883e-01,2.30401e-02,1.02170e-01,2.22856e-01,4.39981e-02,2.17403e-01,-9.20239e-02,1.82708e-01,-1.16454e-01,-6.57675e-02,-2.19170e-01,-1.67066e-01,5.63234e-02,-2.45294e-01,2.77222e-01,-9.27277e-02,2.24343e-02,3.27609e-02,-9.33944e-02,-8.03535e-02,1.57684e-01,7.18009e-02,-3.60704e-01,2.14728e-01,8.93285e-02,-3.24315e-01,1.94012e-01,-2.49629e-01,
1.31376e-01,9.84681e-02,6.02680e-03,-1.46328e-01,6.67645e-03,3.34289e-01,-1.22942e-01,2.31171e-02,2.43797e-01,5.37206e-01,5.85145e-02,3.40124e-01,2.10130e-02,3.07818e-01,5.64150e-01,2.21252e-01,-3.84152e-01,8.85816e-01,-2.17586e-01,2.18268e-01,2.78908e-01,-3.43171e-01,1.97426e-01,1.68351e-01,6.28885e-02,1.38149e-01,-1.02822e-01,1.11540e-01,-1.66886e-01,-3.57907e-01,-3.95615e-02,-2.77498e-01,-1.59426e-01,2.88905e-01,1.11731e-01,-4.63983e-02,1.88587e-02,1.99073e-01,-5.72777e-02,2.56403e-01,-2.48871e-01,2.48903e-01,-5.05276e-02,9.05799e-02,3.10010e-01,
-1.20255e-01,7.98907e-02,-1.41216e-01,2.10676e-01,-3.14149e-01,2.74599e-01,1.36652e-01,-9.35840e-02,1.16187e-01,-1.03778e-02,-1.91925e-01,3.01762e-01,1.51564e-02,-1.52793e-01,2.43233e-01,2.53965e-01,2.58798e-01,3.52760e-01,5.26348e-02,3.51427e-01,4.21905e-02,-5.08817e-01,3.19738e-01,-2.74733e-01,1.61521e-01,-1.96559e-01,-3.23368e-01,7.77702e-02,-8.31279e-02,6.35979e-02,-1.84486e-02,3.45565e-01,-2.76132e-01,2.05058e-01,3.73070e-01,1.41691e-01,-1.50189e-01,1.53241e-01,-2.49659e-01,-9.52710e-02,-1.18253e-01,1.45256e-01,3.01258e-01,1.34704e-01,-2.20160e-01,
6.77920e-02,1.53297e-01,3.57843e-01,-5.67442e-02,6.00242e-02,3.09980e-01,-1.55067e-01,-1.83150e-01,-2.74704e-01,-2.27995e-01,1.35905e-01,3.39292e-01,9.33333e-02,-2.63901e-01,-1.38785e-01,4.44327e-03,1.32735e-01,1.55056e-02,-9.66629e-02,4.21516e-02,-6.26614e-02,-2.09661e-02,1.93798e-02,5.09302e-03,1.40570e-01,-2.23912e-01,3.03226e-01,-1.24281e-01,-1.07047e-01,9.68206e-02,2.71024e-01,-2.21791e-01,-1.55580e-01,1.61840e-01,1.40256e-01,-1.44348e-02,9.99446e-02,1.21614e-04,3.24173e-03,3.57396e-01,1.06245e-01,7.10728e-02,1.73908e-01,7.12268e-02,-2.83560e-01,
-2.09029e-01,-1.27349e-01,3.12019e-01,3.14721e-01,2.08823e-01,-1.46271e-01,-6.27924e-02,-2.29631e-01,1.16164e-01,1.19966e-01,1.09303e-01,-2.87443e-01,-8.08454e-02,1.98012e-01,-4.65969e-03,4.95100e-02,2.50653e-01,-6.47745e-02,6.38910e-02,6.80395e-02,7.67590e-02,1.82938e-01,-1.96686e-02,-2.74220e-02,2.83974e-01,1.11223e-01,3.01187e-01,1.36744e-01,-1.13097e-01,1.73048e-01,-1.19142e-01,1.14516e-01,-2.51123e-01,2.52248e-02,-1.96860e-01,2.56675e-01,-6.48998e-01,4.35655e-02,-3.13965e-01,-2.36867e-01,7.92671e-02,-2.08422e-01,-3.63639e-02,-6.92550e-01,-7.96483e-02,
-1.47854e+00,-1.31677e-03,1.00297e-01,-1.12100e+00,2.30242e-01,1.54642e-01,7.80063e-02,4.73894e-02,1.30871e-01,-1.20472e-01,1.03983e-01,-6.24063e-02,-3.31165e-01,7.00728e-02,-1.37739e-01,8.38151e-02,8.88630e-02,-7.86901e-02,-1.95622e-01,-1.35286e-01,-3.78755e-02,2.83052e-02,-6.32766e-02,2.76909e-01,1.21231e-01,1.71074e-01,-6.65962e-01,1.49044e-01,-2.59997e-01,-1.20219e-01,-5.13924e-02,-1.21069e-02,1.84284e-01,-1.20338e-01,1.11582e-01,1.06261e-02,-3.29909e-01,6.96750e-02,4.06015e-01,2.29064e-01,-6.18996e-02,8.42835e-02,-1.14982e+00,1.45955e-01,7.33032e-02,
-2.41845e-01,-1.35289e-01,-2.56037e-01,1.68767e-01,-6.98250e-03,1.78809e-01,-1.68471e-01,-2.11758e-01,2.07327e-01,2.29268e-01,-1.35153e-01,-6.12614e-03,-1.57416e-02,-6.51330e-02,-2.05700e-01,-1.84520e-01,-5.22286e-03,-2.54082e-01,-1.36379e-01,-1.42251e-01,1.05000e-01,2.70820e-02,-1.71747e-01,-8.36450e-02,-1.57278e-01,-1.94472e-01,5.69385e-02,-1.10428e-01,-9.62314e-02,-1.06384e-01,2.82373e-02,-2.06869e-01,2.00974e-01,6.21614e-02,5.99807e-02,8.83573e-03,-2.23700e-01,-1.08893e-01,-2.96596e-02,9.17021e-02,-1.99236e-01,5.07509e-02,-2.57737e-01,-8.89330e-03,-1.43215e-01,
-1.36250e-01,-2.51600e-02,-1.21297e-01,1.07146e-01,-4.71828e-01,-4.33195e-01,1.73994e-01,5.38610e-02,-8.77771e-03,5.41488e-02,-1.57174e-01,-3.16319e-01,-9.10698e-02,6.59176e-02,-4.80282e-02,2.17213e-01,1.98063e-02,-8.15440e-01,2.95894e-01,1.90924e-01,-1.33881e-01,3.23007e-01,2.11379e-01,-1.59272e-01,7.75968e-02,-5.08856e-01,1.49508e-01,2.28969e-01,-6.20584e-02,3.16271e-01,1.42807e-01,4.47911e-02,-4.43577e-01,-3.54252e-01,-3.15042e-01,3.25274e-01,1.70345e-01,-2.12726e-02,3.79893e-01,-1.12824e-01,6.46648e-02,-1.88464e-01,3.35362e-01,-8.65879e-02,-4.00935e-01,
1.82650e-02,2.99130e-01,2.35957e-01,-2.87689e-01,2.32398e-01,-6.69940e-02,-2.04374e-01,3.54661e-01,-8.68687e-02,1.80284e-01,7.46710e-02,3.78174e-02,-2.11249e-01,2.45741e-01,-7.22606e-02,1.70644e-01,3.64418e-01,-1.63485e-01,-4.31265e-01,1.01819e-01,2.97846e-01,1.04038e-01,-3.62397e-02,-1.04786e-03,-4.14449e-01,3.35710e-01,1.39625e-01,3.48057e-01,-3.09245e-01,1.14692e-01,-1.33505e-02,-5.20679e-01,2.12980e-01,-3.16330e-01,-2.35469e-01,7.17174e-02,-1.65435e-01,6.33136e-02,8.56610e-02,-3.82321e-02,-1.85937e-01,-3.24554e-02,-1.77194e-01,1.46849e-01,-1.65184e-03,
-2.36065e-01,9.51129e-02,-1.39007e-01,-8.92188e-02,-1.84603e-01,2.15342e-01,-7.32189e-02,-1.62750e-01,-9.45716e-02,1.31736e-01,-2.53943e-01,-5.04355e-02,-7.90911e-02,-2.29041e-01,-9.00358e-02,-5.33348e-02,-1.00105e-02,1.00211e-03,-4.29368e-02,7.18022e-02,-1.95475e-01,8.24948e-02,3.76619e-01,1.86846e-01,-4.79279e-02,7.02479e-02,-1.15244e-01,-2.05041e-01,6.09640e-02,2.15407e-01,3.81722e-02,4.53310e-01,1.34161e-01,-8.10406e-03,1.71031e-01,1.01475e-01,1.80944e-02,-1.85073e-01,-3.51615e-01,7.31593e-02,3.44145e-01,1.58753e-01,2.20166e-01,-4.95063e-02,-8.74394e-02,
-1.58594e-01,-1.71977e-01,1.21310e-01,1.95931e-02,2.72747e-02,-3.76175e-01,-9.18038e-02,2.52647e-01,4.33643e-01,-6.65661e-02,1.43067e-01,5.39735e-02,-8.33915e-01,-4.65642e-01,5.00414e-02,-4.03521e-01,2.70107e-01,-6.77764e-01,-2.36604e-05,9.63926e-02,-1.70986e-01,4.58602e-01,-1.45769e-01,2.18419e-01,1.10343e-01,1.49092e-02,5.91392e-02,2.30566e-01,-2.95124e-02,1.26486e-01,1.43908e-02,-6.07887e-01,-6.76034e-02,-1.31407e-01,-3.98050e-01,-7.75933e-02,-1.42025e-01,9.62915e-03,2.53918e-01,-3.23944e-01,4.04260e-01,-1.36626e-01,-3.16304e-02,-1.81563e-01,-5.16874e-01,
2.25645e-01,-2.33286e-01,1.98646e-01,4.29378e-02,-6.58508e-02,2.10282e-02,4.46775e-01,1.00403e-01,-2.80105e-01,1.56766e-01,1.96278e-01,2.58027e-01,-2.70235e-01,-8.51296e-02,-2.87546e-01,1.37117e-01,-8.64288e-02,-2.86203e-01,-7.91933e-02,-4.00276e-01,-1.99478e-01,3.84327e-01,4.73934e-02,-1.06231e-01,-1.63883e-01,7.17181e-02,4.62321e-01,-3.41377e-01,4.49000e-01,3.30011e-02,-2.14414e-01,1.65373e-01,2.90830e-01,-4.21252e-02,-3.51235e-02,-6.88344e-02,-6.14187e-02,-1.96165e-01,-2.78300e-01,-1.33633e-01,3.99708e-01,-3.17653e-02,-1.60460e-01,-2.47262e-01,1.18191e-01,
-9.54754e-01,-7.69541e-02,1.84684e-02,-2.93091e-01,-2.84874e-01,-1.60984e-01,9.05722e-02,1.10444e-01,-2.37032e-01,5.11684e-02,-1.40406e-01,1.31230e-01,3.84510e-01,1.89529e-01,-3.97690e-02,4.97717e-02,-2.10483e-01,2.27642e-01,4.41896e-02,1.71652e-01,1.36178e-01,-2.70176e-01,2.60968e-01,2.96879e-01,7.81678e-02,1.85502e-01,-2.18419e-01,-1.07851e-01,-3.41993e-01,-9.03993e-02,3.82597e-02,-5.80904e-02,-1.12143e-01,2.96943e-02,-1.10497e-01,2.11713e-01,-1.89375e-01,1.14100e-01,1.57676e-01,-7.58021e-02,-1.96968e-01,6.22933e-02,-2.05172e-01,-1.37683e-01,-1.86023e-01,
-3.54104e-02,1.45559e-01,-2.58731e-02,-9.08352e-02,6.90306e-02,2.00610e-01,1.09869e-01,-6.02587e-01,-8.73086e-02,2.99036e-01,1.52044e-01,-3.03427e-01,-4.78750e-01,-3.50552e-01,-1.42078e-01,7.05962e-02,-2.34334e-01,-1.50184e+00,4.24257e-01,-2.69091e-01,-1.60628e-01,1.70636e-01,4.48621e-02,9.31414e-02,5.35154e-01,-9.65421e-02,1.23657e-01,-1.12666e-01,3.78773e-01,2.32652e-01,-1.69594e-01,1.15262e-01,-2.49433e-01,2.36477e-01,3.03524e-01,2.12551e-01,-2.83711e-02,1.33775e-01,1.49177e-01,7.62903e-02,2.86730e-01,3.46295e-01,7.24964e-02,-1.52366e-01,-4.21585e-02,
-1.70072e-01,-2.30662e-01,1.25473e-01,2.21234e-01,-6.06245e-01,1.51162e-01,-1.86327e-01,3.43359e-02,2.73520e-02,-1.84465e-01,2.49707e-01,1.03649e-02,3.08577e-01,-1.02842e-01,4.98631e-02,2.14741e-02,1.61964e-02,6.92933e-01,4.50596e-02,3.50158e-01,3.19993e-01,-6.93336e-01,1.77102e-02,-1.15257e-02,2.16648e-01,-2.67579e-01,-1.81553e-01,-1.42733e-01,-3.46335e-01,2.33929e-01,1.37586e-01,-4.34197e-02,9.72535e-02,3.20411e-01,-4.26941e-01,-9.67510e-02,2.21102e-01,1.49527e-02,-1.30205e-01,2.10658e-01,-7.60386e-02,-2.01000e-01,7.84327e-03,-2.59238e-02,-6.11923e-02,
-1.14162e-01,2.50235e-02,1.90362e-01,1.14778e-01,8.65024e-02,1.18322e-01,-1.78993e-01,3.15167e-02,-2.46681e-02,-1.36235e-01,-1.96115e-01,-1.56584e-01,2.87437e-01,1.03754e-02,-4.44824e-01,-2.63834e-01,6.04957e-02,1.51947e-01,-2.63015e-02,3.68715e-01,8.74031e-02,-4.66532e-01,1.53851e-01,2.71286e-02,1.06372e-01,-1.01939e-01,2.06285e-01,5.65010e-02,-1.48139e-01,-1.82424e-03,-1.43000e-01,-7.64619e-02,-3.65204e-01,-1.92249e-01,4.86351e-02,-2.02180e-02,-1.80858e-01,7.20554e-02,2.45910e-01,2.06774e-01,-1.07279e-01,6.10566e-02,-7.82086e-02,-5.15800e-02,-1.14776e-01,
1.11651e-01,2.09419e-01,1.46286e-01,3.65218e-01,-1.00188e-01,1.34140e-02,-7.20123e-01,4.09241e-01,-4.09229e-01,-1.61808e-01,-1.27495e-01,-1.88384e-01,3.20429e-01,-5.67588e-02,-1.37049e-01,-2.13526e-02,9.93884e-02,-5.11068e-01,-1.38497e-01,-1.52385e-02,1.42440e-01,-1.40569e-01,1.01480e-02,1.72452e-01,-2.93962e-01,1.25182e-02,1.86473e-01,3.75847e-02,-2.25017e-01,-3.39999e-01,1.01412e-01,-2.11269e-01,3.50287e-02,-4.06410e-01,-1.64413e-01,1.05200e-01,-2.29984e-02,2.97300e-02,1.86030e-01,1.43371e-01,-3.20438e-01,7.11479e-02,-9.72337e-02,6.28322e-02,1.47450e-01,
-1.95030e-01,1.08464e-01,6.28704e-02,-1.71927e-01,1.25939e-01,2.68874e-01,2.50423e-01,-3.69750e-03,2.51170e-01,-3.87747e-02,1.24412e-01,-7.86181e-02,-3.15057e-01,2.48114e-01,-3.48023e-02,1.38492e-01,2.33475e-01,4.24302e-01,-1.09073e-01,-2.06435e-01,7.38169e-02,2.84213e-01,2.29671e-02,1.54210e-01,-1.54550e-01,3.84467e-01,1.05089e-01,6.40909e-02,7.96329e-02,2.01071e-01,-1.44962e-01,-2.42408e-01,2.19654e-01,1.37398e-01,5.38456e-02,1.85360e-01,-6.13743e-02,-1.07758e-01,-1.07967e-01,-2.39170e-02,1.46674e-01,-3.83721e-01,1.98980e-02,-2.81920e-02,2.22684e-01,
-5.70519e-02,1.79665e-01,2.64516e-01,-6.28548e-03,-9.92681e-02,5.16385e-01,-3.57720e-02,-7.17437e-01,-7.82997e-02,2.62081e-01,4.35176e-01,-2.29474e-01,-1.22758e-01,-3.54047e-01,3.08187e-01,2.60408e-01,-1.08194e-01,1.73441e-01,-2.93155e-01,-1.15764e+00,-6.09293e-01,2.29047e-01,5.05342e-02,2.09163e-01,1.33407e-01,2.25923e-02,6.65231e-02,1.85515e-02,-2.26938e-01,1.02100e+00,-8.38445e-02,-3.62035e-01,-2.62206e-01,5.34730e-01,9.79610e-02,2.34363e-01,-7.64713e-02,1.21137e-01,5.70825e-02,-2.66737e-01,-2.12250e-01,3.48817e-01,4.28836e-02,8.87681e-02,3.24955e-01,
-3.88247e-02,2.18404e-01,-1.60534e-01,2.59536e-01,5.41430e-03,-1.03931e-01,-1.96738e-01,5.65890e-01,-1.49002e-01,6.40072e-02,2.29841e-01,1.54435e-01,4.43711e-01,2.22055e-01,5.07480e-01,-4.75678e-02,-6.08836e-02,1.01312e+00,-1.85790e-01,-1.54120e-01,3.21115e-01,-3.82774e-01,1.20360e-01,2.74958e-01,-5.38989e-01,5.69746e-02,1.94523e-04,1.77286e-01,-7.35517e-02,-4.64462e-01,-1.11508e-01,-2.00181e-01,3.15461e-01,-1.46966e-01,-1.49192e-01,-2.37996e-01,2.09241e-02,-3.69807e-02,2.08974e-01,-4.38457e-01,-5.29725e-01,7.07320e-02,1.42616e-01,-1.54406e-01,2.13269e-01,
-8.02334e-01,-5.09411e-01,1.35657e-01,-8.99240e-01,1.85761e-01,2.38983e-02,1.28228e-01,2.55524e-02,2.27645e-01,-3.23956e-02,2.62423e-02,-8.98987e-02,-8.05368e-02,1.40120e-01,3.13518e-01,-2.26376e-01,1.80410e-01,3.66337e-01,-1.25485e-01,2.25316e-01,1.65684e-02,-1.87939e-01,-2.07007e-01,5.69714e-02,2.32815e-02,2.05668e-01,2.88243e-02,4.21812e-01,-2.15408e-02,1.78288e-02,6.41604e-02,-1.61927e-01,1.77643e-02,-1.96093e-01,-3.17741e-01,-2.37290e-02,-2.98642e-01,2.89579e-01,2.21233e-01,-1.34725e-01,-2.35731e-01,2.22824e-01,-2.81222e-01,-1.23543e-01,4.67185e-02,
-3.33009e-02,-1.31551e-01,-1.32052e-02,-1.76922e-01,2.33698e-01,1.26921e-02,1.14807e-01,-1.69226e-01,-3.30853e-02,1.70062e-01,-8.27841e-02,-1.60965e-01,-4.96223e-01,-5.31084e-01,6.38412e-02,-1.16774e-01,-9.68758e-02,-8.83770e-01,-6.56291e-03,-7.72631e-02,1.26426e-01,5.35987e-01,1.98421e-01,8.69414e-02,7.85511e-02,1.30418e-01,3.09213e-01,1.25389e-01,3.80424e-01,-1.09013e-01,9.94850e-02,7.21662e-02,-1.04705e-01,1.98836e-02,4.09663e-01,9.79110e-02,-2.23177e-01,1.30881e-01,-2.67020e-02,2.51344e-01,2.59559e-01,1.01624e-01,-2.06227e-01,1.24377e-01,1.42108e-01,
3.37337e-02,2.70797e-02,3.63126e-01,4.96271e-02,8.59161e-02,2.57986e-01,-1.27292e-01,1.75855e-01,2.93044e-01,9.69761e-01,1.85504e-01,2.37525e-01,2.49277e-01,2.15545e-01,1.81287e-01,1.64842e-01,-6.17046e-02,1.65290e-03,-1.13175e-01,-3.28932e-01,-3.42327e-01,4.50846e-02,2.77629e-01,-1.84309e-01,-8.84341e-02,2.22792e-01,7.24844e-02,-5.95536e-02,2.19976e-01,1.11518e-01,2.11533e-01,-3.39967e-01,1.53723e-01,4.57897e-01,-1.70587e-01,2.82661e-01,-3.06941e-01,4.30291e-01,-3.44107e-01,-2.38399e-01,-5.24245e-01,-5.62423e-02,3.19359e-01,-3.54281e-01,6.43298e-02,
1.63273e-01,2.79244e-01,-1.23585e-01,1.28073e-01,1.80606e-01,6.86839e-02,6.29544e-02,1.34485e-01,-6.77158e-02,-8.16397e-02,-1.67793e-01,9.24430e-02,-4.08048e-01,-4.80436e-01,-1.25921e-01,1.09367e-01,-3.37749e-01,4.97858e-01,-1.19792e-01,-5.18022e-01,4.34196e-02,2.16721e-01,-4.02231e-01,1.60278e-01,2.63228e-01,6.74838e-02,1.06003e-01,3.42125e-01,1.76828e-01,2.78481e-01,1.42750e-01,-1.62104e-01,2.53730e-02,4.29132e-01,3.94446e-02,2.46921e-01,-1.40973e-01,9.15292e-02,3.17987e-01,-1.93891e-01,1.87179e-01,3.59076e-01,-2.33159e-01,2.88458e-01,1.96326e-01,
1.78987e-01,9.59302e-02,-8.79852e-02,3.95271e-01,-1.90638e-01,5.69238e-02,1.06541e-01,-3.14632e-01,2.20786e-01,3.99766e-02,-8.31409e-02,-1.46051e-01,1.63784e-01,-7.27297e-02,-2.21027e-01,6.48215e-02,2.40999e-02,1.62387e-02,2.33567e-01,3.24537e-01,-1.06178e-01,-2.00234e-01,-2.80712e-01,3.49127e-01,2.37588e-01,1.98295e-01,-2.76987e-02,-2.11984e-01,1.96988e-01,1.09384e-01,-4.73107e-01,1.39720e-01,1.57719e-01,-1.88492e-01,2.90362e-02,8.21126e-02,-6.17442e-01,-2.62344e-02,2.24491e-01,-1.56423e-01,6.50370e-02,-4.15928e-02,3.16343e-01,-3.53979e-01,9.09080e-02,
-1.41620e+00,1.93167e-01,9.72325e-02,-3.80325e-01,1.27668e-01,1.51723e-01,-1.66439e-01,-1.14147e-01,-7.85489e-02,-2.93772e-01,1.97549e-01,1.22355e-01,1.06407e-01,-1.98568e-01,1.21904e-01,-5.49851e-02,-2.35010e-01,-2.25411e-01,7.26860e-02,1.64900e-01,3.87476e-01,-5.94281e-02,8.37187e-02,8.00110e-02,-3.11934e-01,-3.17293e-01,-1.62937e-01,-6.87874e-02,-1.48131e-01,2.63570e-02,2.33449e-01,-5.94614e-02,8.94540e-02,-1.78812e-01,-1.58627e-01,2.26347e-01,-6.03583e-02,2.08900e-02,2.79047e-02,1.53381e-01,9.67762e-02,1.42887e-01,-4.04367e-01,1.67524e-01,-2.51007e-01,
1.01010e-01,-2.81600e-01,-1.43567e-01,1.65548e-01,-6.95614e-02,-5.34942e-02,-2.02098e-01,-6.99846e-02,-2.36787e-02,1.94178e-01,-1.07466e-01,-1.30774e-01,1.15447e-01,2.01413e-01,1.33253e-01,3.87747e-02,3.98059e-01,4.66188e-01,2.18932e-01,2.66911e-02,1.90830e-01,-3.88084e-01,1.84442e-01,-3.74377e-02,5.64498e-02,3.16389e-02,5.18338e-02,4.16706e-01,-1.55106e-01,8.01715e-02,1.64226e-01,-3.53756e-02,8.43648e-02,-1.80605e-03,-4.01398e-01,-4.43297e-02,-5.80480e-01,2.47671e-01,-4.47575e-01,-3.34668e-01,-9.26437e-02,-2.28074e-01,1.13479e-01,-1.68155e-01,-2.45172e-01,
4.76715e-01,1.00121e-01,2.97506e-02,2.40924e-01,-2.81229e-01,5.27179e-02,1.11909e-01,-2.09242e-01,1.84628e-01,8.62553e-02,1.55903e-02,2.51269e-01,1.51167e-01,-1.35101e-01,-1.59454e-01,2.91944e-03,-3.21834e-02,2.18822e-01,4.11763e-01,-1.37706e-01,6.13446e-02,-2.98135e-01,3.88029e-01,2.12108e-01,2.19344e-01,-2.03053e-01,3.88229e-03,1.89268e-01,-1.06373e-01,-5.46463e-02,4.06035e-01,3.27357e-01,-4.17642e-02,2.68689e-01,3.98281e-01,-8.73547e-02,4.24393e-01,-7.95130e-02,1.05969e-01,5.08404e-02,-3.13443e-01,1.72495e-01,1.56679e-01,3.86693e-02,2.89423e-01,
4.74306e-01,-2.61280e-01,9.62544e-02,2.49184e-01,4.11500e-01,1.44085e-01,-2.14717e-01,-7.83931e-02,-2.29617e-02,-1.88527e-01,8.37258e-02,4.82573e-02,5.08176e-02,9.81542e-02,-2.13620e-01,-2.84778e-01,2.23652e-01,-2.69812e-01,1.59648e-01,-1.62232e-01,1.89094e-01,-1.64310e-01,3.80242e-01,9.33513e-02,-1.58878e-01,-1.34935e-01,2.80640e-01,-1.31493e-01,9.96460e-02,-7.51326e-02,-2.27535e-02,1.57775e-01,-4.51274e-02,-2.87990e-01,9.68823e-02,-6.82818e-02,1.44754e-02,-4.85355e-02,1.94170e-01,2.96127e-01,-1.44543e-03,-2.69851e-01,3.26146e-01,9.92220e-02,1.93078e-01,
1.49606e-01,5.95596e-02,-1.46782e-02,9.65337e-02,-4.86966e-02,-3.51757e-01,2.60243e-01,-3.96863e-02,4.50549e-02,-2.18068e-01,1.05845e-01,-6.84870e-02,-4.19529e-01,-1.80911e-01,-4.40242e-01,7.67399e-02,-2.16873e-01,-1.47535e+00,-2.24660e-01,-2.72228e-02,-5.52115e-02,5.33675e-01,2.20801e-01,-3.51988e-02,-5.69687e-02,9.92566e-03,4.98669e-02,2.40031e-01,2.15211e-01,3.01852e-01,-1.51937e-01,-1.20391e-02,4.29486e-02,-1.85550e-01,-6.41506e-02,1.69808e-01,-2.28307e-01,7.13414e-02,2.08844e-01,5.85997e-02,4.27922e-01,3.08841e-01,1.86704e-03,-2.58528e-01,-9.96050e-02,
4.64439e-01,2.72377e-02,-1.12829e-01,6.36839e-02,-3.85394e-02,2.46623e-01,-2.04611e-02,1.75785e-02,-4.18926e-02,1.80819e-02,3.03379e-01,3.98847e-02,-3.97886e-02,1.08786e-01,1.63748e-01,-2.11651e-01,-6.41989e-02,2.12052e-01,2.04019e-01,9.95899e-02,2.00436e-01,1.83658e-01,9.79042e-03,2.35430e-01,1.26971e-01,4.72951e-02,1.56972e-01,-1.92110e-01,9.65285e-02,-2.70503e-01,-2.27988e-01,-1.69842e-01,-1.89209e-01,-1.03676e-01,1.83375e-01,-2.55462e-01,3.54422e-02,9.29806e-02,-2.63681e-02,-8.66279e-02,4.02520e-02,6.43103e-03,3.82252e-01,-1.01408e-01,-9.76410e-02,
-7.56085e-01,-1.00232e-01,-2.02608e-01,1.16916e-02,-3.82872e-02,5.37867e-01,6.56706e-02,1.34402e-01,-4.20284e-02,1.44842e-01,-1.55227e-01,-6.17764e-02,8.60324e-02,-2.13140e-01,6.23690e-01,-4.65572e-01,-4.33914e-03,7.37001e-01,1.69672e-01,1.08653e-01,1.83732e-02,3.59110e-01,9.27404e-02,1.46678e-03,1.76878e-01,5.00985e-02,-2.30423e-01,-5.75202e-01,-3.31649e-01,-2.17949e-01,-1.81717e-01,-6.07750e-02,-5.91951e-02,-2.28937e-01,2.95650e-01,-2.15774e-01,-4.61070e-02,-5.77429e-01,-2.35428e-02,1.22497e-01,3.03791e-01,-1.17888e-01,-2.48767e-02,8.73364e-03,-2.57436e-01,
1.70156e-01,2.61125e-01,1.24951e-01,-2.90477e-02,-5.45610e-01,1.15273e-01,-1.87992e-02,-1.49718e-01,2.76378e-01,9.61434e-03,1.52466e-02,-6.57714e-02,3.89126e-01,3.40676e-01,3.12455e-01,4.44169e-02,-1.93626e-01,3.84637e-01,-9.08410e-02,3.44197e-01,1.83230e-02,-1.72526e-01,-9.04262e-03,-4.37479e-02,2.62086e-01,3.52875e-02,-1.30961e-01,-1.47682e-01,1.60105e-01,8.80480e-03,5.04258e-02,7.00896e-02,-1.23040e-01,-2.10371e-02,-2.25275e-01,1.81495e-01,1.42027e-01,-5.25196e-02,-5.98296e-02,1.58685e-01,-3.80770e-01,-1.68865e-01,-1.93045e-02,-1.03703e-01,-3.43366e-02,
3.15188e-02,-1.93082e-01,-8.75555e-02,-5.57870e-02,-2.42543e-01,5.23207e-02,-5.59342e-02,-3.06024e-01,-3.62138e-01,5.80323e-02,3.53398e-02,-7.47639e-02,2.02214e-02,-3.84786e-01,6.88751e-02,1.75131e-01,-2.33003e-01,-5.50440e-01,2.30291e-01,1.14011e-01,-5.92295e-02,3.05364e-02,3.60342e-01,2.22584e-01,2.74232e-01,1.95450e-01,-2.03093e-01,-2.32699e-01,1.60681e-01,3.31294e-01,1.54424e-01,2.66773e-02,-1.70767e-01,2.39076e-01,8.45979e-02,1.22449e-01,2.00661e-01,2.08474e-01,-1.68406e-01,2.02596e-01,8.20913e-02,1.55640e-01,1.93609e-01,1.29429e-01,2.18855e-01,
2.49474e-01,-1.00523e-01,-1.98685e-02,1.62524e-01,2.25719e-01,1.53659e-01,2.91288e-01,-2.66604e-01,2.15589e-01,-1.07728e-01,8.93602e-02,-4.96924e-02,4.31473e-02,-3.53913e-01,5.32575e-03,-3.47323e-02,-2.12060e-01,-4.33906e-01,1.75301e-01,-3.84656e-01,-1.46218e-01,-4.87519e-02,-1.62279e-01,1.43209e-01,-1.78158e-01,-1.38343e-01,-9.53205e-02,-6.11661e-02,2.26437e-01,1.22149e-01,-8.44317e-02,1.31041e-01,1.84698e-02,3.82703e-01,-5.67134e-02,2.02253e-01,-1.99789e-01,-4.11936e-02,1.75534e-01,2.99473e-01,1.09256e-01,1.25879e-01,-7.10577e-02,2.08558e-01,-1.04675e-01,
-9.93449e-01,1.07299e-01,2.67200e-01,-1.28518e+00,2.48056e-01,1.32534e-01,1.31350e-01,1.60468e-01,3.14734e-04,-1.18745e-01,1.52033e-01,3.68017e-01,1.85444e-01,-1.86354e-01,-4.46165e-02,5.26219e-02,1.27643e-01,-3.40563e-01,-5.50214e-02,6.88783e-02,1.26325e-02,1.78400e-01,1.39144e-01,2.87564e-01,-6.72760e-02,2.66998e-01,-5.82371e-01,-9.68652e-02,-1.31649e-01,-1.81415e-01,1.89676e-01,-2.12420e-01,-1.36616e-01,-1.02047e-01,8.08559e-02,1.04922e-01,4.45115e-01,-1.11240e-02,1.56216e-01,-6.02484e-02,1.61817e-01,-9.19345e-02,-2.23566e+00,3.93395e-01,4.11000e-01,
4.03847e-01,-6.28445e-02,1.02828e-01,-1.37454e-01,2.17350e-01,2.19934e-01,2.68609e-01,1.45606e-01,1.40256e-01,9.00824e-02,-6.15066e-02,2.90150e-01,3.80876e-02,-5.52205e-03,3.73722e-01,3.81961e-01,-1.62316e-01,4.98513e-01,-2.48838e-01,-3.36222e-01,-1.22083e-01,2.62334e-01,-3.27249e-01,1.60317e-01,-2.55018e-01,-6.36560e-02,-1.81447e-01,-1.92937e-01,5.10404e-01,2.37744e-01,1.77080e-01,-2.26539e-01,-7.25660e-02,1.77982e-01,-1.70308e-01,-2.46652e-01,3.33440e-01,1.40614e-01,1.43624e-01,-7.93361e-02,2.36543e-01,-1.04135e-01,6.01958e-02,1.69863e-01,2.25336e-01,
-1.13972e+00,-2.09353e-01,-4.83037e-02,-2.95112e-01,-1.93657e-01,-3.10363e-01,2.93096e-02,2.25664e-01,2.56528e-04,-3.21418e-01,1.09483e-01,2.70905e-01,-7.73974e-02,4.90072e-02,-1.76585e-01,-7.20551e-02,1.40008e-01,3.07151e-01,-4.63127e-01,9.66684e-02,1.68114e-01,8.03579e-02,4.27924e-02,-2.30663e-01,-2.41204e-01,2.12092e-01,-3.97287e-01,-1.35554e-01,5.62138e-02,1.74714e-01,3.34224e-01,6.04018e-02,-1.59136e-01,-2.19651e-02,-2.37468e-01,1.93613e-01,3.19472e-02,-4.16542e-01,-4.49476e-02,-3.04480e-02,1.54385e-01,-1.31086e-01,-3.05462e-01,1.65211e-02,3.84871e-02,
2.12056e-02,-6.69635e-02,1.29909e-01,-3.60374e-01,2.07731e-01,-1.24239e-01,1.23478e-01,4.08984e-01,-3.63851e-01,-2.15143e-01,1.30389e-01,3.38710e-01,3.88043e-01,-7.42591e-02,2.63428e-01,2.93573e-01,4.73881e-02,-3.27654e-02,-2.02263e-01,2.01067e-01,2.14664e-01,-3.34412e-01,2.31575e-02,-4.64998e-02,-1.19447e-01,1.61053e-01,-1.04327e-02,-2.25240e-01,9.11267e-02,-5.25058e-01,1.51294e-01,-9.00257e-02,1.57900e-01,2.02394e-01,9.38758e-02,-1.03679e-01,1.99473e-01,-1.86184e-01,-6.25766e-02,-3.14040e-01,-4.83046e-01,-5.21557e-02,2.76921e-01,4.07414e-01,-1.50362e-02,
-1.27486e-01,-3.18693e-01,5.03024e-02,8.02089e-02,-2.70262e-01,2.85012e-01,-3.22031e-01,2.54607e-01,-1.54385e-02,6.38937e-02,3.72786e-01,-1.11485e-01,2.75440e-01,2.60441e-01,1.00703e-01,-2.26294e-02,1.42244e-01,7.79628e-01,1.04329e-01,2.71180e-01,-3.65516e-02,-2.79578e-01,-2.11831e-01,-1.91259e-01,-3.81377e-01,2.26977e-01,1.54761e-01,-2.38989e-01,-3.26265e-01,-2.01054e-01,1.12796e-01,-5.33105e-02,2.58532e-01,9.50263e-02,-6.04411e-02,6.47184e-03,2.40571e-01,2.58014e-01,-5.18013e-03,-1.90941e-01,-1.82807e-01,5.58863e-02,-2.64899e-02,1.89629e-01,-1.66023e-01,
2.38235e-01,-1.03358e-01,-3.60086e-02,2.79310e-01,-1.71872e-01,2.47982e-01,-2.83978e-01,5.57835e-02,5.32483e-02,-6.97429e-02,-5.52240e-02,-3.07583e-01,4.31026e-01,1.63725e-01,-3.53440e-02,2.04633e-01,-2.19351e-01,-1.48302e-01,-3.71418e-02,3.15140e-01,-4.43491e-02,-5.17269e-01,3.53732e-01,2.13336e-01,4.23508e-02,-5.94877e-01,-2.84206e-01,-7.50142e-02,-2.50568e-01,1.97193e-01,2.21405e-01,5.87373e-02,-2.53382e-01,-4.04866e-02,-1.72009e-01,-9.76114e-02,-5.80352e-02,-6.15751e-02,-1.02427e-01,1.10199e-01,-3.03182e-01,-1.77813e-01,1.47222e-02,2.29729e-02,-4.87719e-02,
2.73420e-01,4.52360e-02,6.80518e-02,4.64015e-03,-2.71673e-01,1.27533e-01,2.32927e-03,1.84809e-02,-2.01242e-01,-2.47650e-02,9.85475e-02,1.94055e-01,4.74716e-01,4.91710e-02,4.30887e-01,3.13479e-01,8.48695e-02,-1.28426e-01,1.31288e-01,9.52140e-02,-1.31133e-01,-2.91588e-01,1.09324e-01,-5.05856e-02,1.27495e-01,8.58672e-02,-1.13142e-01,-1.50211e-01,-1.80700e-01,-7.39183e-02,-1.70941e-01,-2.16683e-01,-7.15508e-03,3.28596e-01,-1.25051e-01,-2.73520e-01,-9.40045e-02,-1.84081e-01,-1.05019e-01,7.63547e-02,-2.45350e-01,1.85537e-01,2.30899e-02,-1.79485e-01,-1.26221e-01,
2.04631e-02,
6.33113e-02,
-1.05295e-01,
9.25530e-02,
-3.21555e-02,
-6.55754e-02,
1.49551e-02,
4.13312e-02,
1.20377e-01,
-9.37242e-03,
6.89142e-02,
5.73708e-02,
1.27257e-02,
8.15596e-02,
1.63492e-02,
1.14479e-01,
3.79196e-03,
6.05144e-02,
1.35454e-01,
5.70978e-02,
-3.88579e-02,
-8.46435e-02,
3.47187e-02,
8.85444e-02,
3.38057e-02,
-6.84655e-02,
7.05196e-03,
3.92396e-02,
1.56151e-01,
-8.85820e-02,
-9.54573e-02,
-5.57753e-02,
9.94794e-02,
-2.66958e-02,
3.05958e-02,
1.00336e-01,
4.56612e-02,
3.98552e-02,
1.82283e-02,
-5.80802e-02,
9.91207e-02,
5.72380e-02,
3.95284e-02,
6.50821e-02,
7.42199e-02,
1.80730e-01,4.38852e-02,-1.13690e-01,-1.44513e-01,-6.96086e-02,-3.51000e-01,2.23929e-01,-2.77255e-01,-4.27343e-01,1.80900e-01,1.90060e-01,-2.26757e-02,2.38139e-01,-7.09405e-02,-1.58094e-01,7.86900e-02,1.89267e-01,2.71713e-01,1.01665e-01,-6.23696e-02,-2.33031e-01,1.89896e-02,-5.56432e-02,-5.61900e-01,1.32742e-01,4.48143e-02,2.56964e-01,-2.08191e-01,4.54362e-01,-3.62962e-01,-3.68506e-01,1.12568e-01,-1.45936e-01,-1.34681e-01,1.51681e-01,1.75022e-01,-1.78670e-03,1.34075e-01,-3.95613e-01,-3.63395e-01,4.43567e-01,2.00113e-02,-1.89681e-01,7.14902e-02,1.63176e-01,
-6.88364e-02,5.60906e-03,-2.33672e-01,-2.44462e-01,3.08334e-02,-1.55881e-01,-7.20093e-02,1.43681e-01,-1.69486e-01,-1.81355e-01,-4.75195e-01,3.01482e-01,-3.21570e-01,2.83731e-01,1.66055e-01,-1.18144e-01,-2.80739e-01,3.20021e-02,-7.87033e-02,-1.93654e-02,-7.45178e-02,9.95837e-01,8.66318e-02,6.24532e-02,1.10959e-01,-5.33167e-02,-7.65025e-02,-8.69107e-02,-2.05801e-01,-8.18187e-02,2.68727e-01,1.35546e-01,-9.66348e-03,-1.08109e-01,-4.65997e-02,-1.56195e-01,2.72132e-02,-2.47454e-01,1.19108e-01,7.79992e-02,4.12083e-01,-1.24678e-01,4.36833e-02,7.71886e-03,7.82009e-02,
2.00603e-01,-1.42842e-01,-5.78559e-01,-4.69939e-01,1.52890e-01,1.83650e-01,1.23324e-01,-1.49813e-01,-2.89302e-01,2.11505e-01,-4.35128e-01,-1.33994e-01,-3.03909e-01,-3.00478e-01,-4.98919e-01,6.50503e-02,2.18924e-02,-3.67337e-03,9.74695e-02,1.01615e-01,1.45672e-02,1.07356e-01,-1.88422e-01,-3.68991e-01,6.74138e-02,2.88449e-01,1.77116e-01,-1.87724e-01,1.15625e-01,-9.00803e-02,3.70743e-01,2.00237e-03,-2.72011e-01,1.14123e-01,-4.54151e-01,1.03992e-01,1.78141e-03,9.52021e-02,-9.44823e-02,3.24435e-01,2.04253e-01,3.41455e-01,-1.70231e-01,-1.33690e-01,1.36633e-01,
2.66249e-01,2.08327e-01,-2.15059e-01,-3.09342e-02,-2.98243e-02,-1.19184e-01,2.22221e-01,4.30886e-01,-2.70704e-01,-1.38839e-01,2.32104e-01,8.24116e-02,2.85308e-01,-1.33399e-01,-2.85692e-02,-6.07448e-02,-2.02826e-01,2.09974e-01,-8.16081e-02,2.35594e-01,-1.42909e-01,-5.22728e-02,2.31607e-03,-2.89220e-01,2.74902e-01,1.98082e-01,3.44565e-02,-1.27241e-01,-3.60796e-02,2.69612e-01,-4.67163e-01,-1.88405e-01,2.32523e-01,-3.31856e-01,-3.73913e-02,9.69029e-03,7.32611e-02,4.31782e-02,-4.63931e-01,-2.87962e-01,1.32105e-01,-1.89859e-01,2.58588e-02,-1.47539e-01,-1.47816e-01,
2.33973e-01,2.61164e-01,-3.89437e-01,8.40882e-02,1.24326e-01,9.46243e-02,1.33587e-03,3.26984e-01,-8.59463e-02,8.39150e-02,1.73881e-01,-1.31646e-02,-2.27669e-01,8.09114e-02,2.72451e-01,1.09947e-01,1.82976e-04,-7.32644e-02,2.20114e-01,1.87867e-01,-1.36404e-01,-3.46499e-01,1.18932e-02,1.01840e-01,7.19295e-02,-2.12215e-01,-3.94609e-02,2.19015e-01,1.92390e-01,5.76417e-02,1.92684e-01,2.60120e-01,4.88246e-03,1.30422e-02,-5.61867e-02,-5.30267e-02,1.04533e-01,-2.04199e-01,-3.04217e-01,-2.89642e-01,-1.51095e-01,-7.47978e-02,-2.07547e-01,1.21625e-02,-8.91030e-03,
2.63439e-01,-9.92680e-02,2.11319e-01,-1.28013e-01,1.95102e-01,-1.84460e-01,1.91880e-01,4.15937e-02,-2.23687e-01,1.45685e-01,4.88017e-02,-1.66505e-01,2.16230e-02,-5.13117e-02,-1.89719e-01,-6.46424e-02,3.56628e-01,1.64464e-01,-1.22865e-01,6.15336e-03,7.13678e-02,-3.87402e-02,3.55781e-02,-3.69720e-02,9.10955e-02,1.52898e-01,1.07565e-01,6.84704e-02,3.15233e-01,-9.90623e-02,3.35520e-02,-3.56842e-01,3.73319e-01,4.98030e-02,-1.56905e-02,-3.36791e-02,7.93456e-02,2.19867e-01,-3.58190e-01,-1.54399e-01,-2.36939e-01,-1.95656e-01,3.37826e-02,-9.12100e-02,2.19042e-01,
-2.00688e-01,-1.29372e-02,-1.51377e+00,-3.10669e-01,2.76458e-01,-2.24202e-02,-3.45090e-02,-1.06563e-01,9.87734e-03,-1.21312e-01,5.95423e-02,-9.39106e-02,3.02502e-02,8.13549e-01,-1.52480e-01,7.19987e-02,2.96506e-01,-9.08827e-02,-5.54025e-01,-4.25824e-01,2.74508e-01,4.64016e-01,-2.31243e-01,-2.37797e-01,1.37570e-01,3.36243e-01,2.47115e-01,4.84970e-03,-2.02862e-01,-2.26435e-01,4.66931e-02,-7.06401e-02,-1.66396e-01,1.80798e-01,-1.58431e-01,-1.97277e-01,8.87449e-03,-3.49779e-02,-8.15832e-02,3.45406e-01,-4.04461e-02,-1.53145e-02,-1.07060e-01,9.85890e-02,1.15979e-01,
1.25857e-01,3.96780e-01,-2.66535e-01,-2.21052e-01,1.75871e-01,-3.72429e-01,-9.13231e-02,2.04675e-01,1.82520e-01,-2.27379e-01,9.84583e-02,2.63985e-01,7.94079e-02,-3.02876e-01,-6.75839e-03,5.36909e-02,6.82010e-02,1.26642e-02,5.81961e-02,2.69022e-01,-1.53770e-01,3.62176e-01,2.91553e-02,-5.13773e-02,-1.98386e-01,2.36401e-01,-1.66495e-01,3.16599e-01,2.08787e-01,7.76085e-02,-4.99646e-01,-2.15797e-01,8.83324e-02,9.45105e-02,-1.39115e-01,-3.38171e-01,2.22108e-01,-7.94540e-02,-1.48306e-01,-1.35314e-01,1.65349e-01,6.65152e-02,-2.28385e-01,-2.12317e-01,2.21705e-02,
-1.49153e-01,-2.01040e-01,3.46129e-01,-1.22459e-01,-9.21027e-02,-2.61992e-01,1.83614e-01,-1.63390e-01,-1.36404e-01,7.57177e-02,-1.98478e-01,-7.85146e-02,2.84176e-02,-1.95389e-01,-3.36579e-01,-5.47224e-02,-3.25453e-01,3.50817e-01,-1.94779e-01,3.29486e-01,-1.67967e-01,-4.91284e-01,-2.43791e-02,1.06521e-01,-2.05100e-01,-2.33620e-01,2.39677e-01,1.44391e-01,-4.65717e-03,-5.70193e-01,5.01780e-01,-1.00986e-01,-8.97911e-02,-1.63385e-01,-7.47919e-02,2.06172e-01,-1.69058e-01,-3.02098e-01,5.20624e-01,1.80979e-01,1.20117e-01,3.56135e-01,2.55200e-01,-6.13845e-02,-1.18611e-01,
6.65980e-02,-1.24163e-01,6.93574e-01,2.96882e-02,-1.59031e-01,-3.61657e-02,-2.55522e-02,-1.12266e-01,-2.72911e-02,1.01619e-01,-1.74680e-02,-1.40622e+00,2.50193e-01,-3.04393e-01,-8.27113e-02,1.70423e-01,2.17636e-01,1.65310e-01,-2.31714e-01,4.29761e-02,9.25018e-02,3.02623e-01,7.92344e-03,-2.40729e-01,-2.32098e-01,-2.71244e-04,1.90360e-01,8.48026e-02,7.31571e-03,3.56339e-01,2.84458e-01,3.46823e-02,2.15997e-01,1.29679e-01,2.03482e-01,2.05925e-01,1.47972e-01,-1.17106e-01,-1.20364e-01,2.54160e-02,3.75445e-01,-5.28733e-01,-1.59435e-01,2.43068e-01,-8.23000e-02,
3.11382e-01,-1.32754e-02,-2.42797e-01,-1.24762e-01,-2.87898e-01,-1.70047e-01,-1.94970e-01,-1.56212e-02,1.34438e-01,-1.20540e-01,4.09019e-01,1.24151e-01,1.08662e-02,-5.57344e-02,6.26987e-02,-4.01519e-02,2.51659e-01,-1.46952e-01,4.22702e-02,-4.66363e-02,-3.64059e-02,6.24716e-01,-4.43718e-01,-8.49728e-02,2.35696e-02,2.03884e-01,-2.24092e-01,1.88170e-02,-1.42565e-01,-2.04795e-01,-2.21982e-01,2.48639e-01,2.40721e-01,-3.52487e-02,-9.69989e-02,1.39916e-02,3.24192e-01,2.42115e-01,1.78771e-01,-2.94852e-01,9.22466e-02,-7.87034e-02,-4.59610e-01,-1.06614e-01,-8.65469e-02,
2.87085e-01,2.56136e-01,-5.93840e-01,-3.26538e-01,3.31741e-01,1.83260e-01,-8.73351e-02,-1.59872e-02,-3.13661e-02,3.58770e-02,-3.27403e-01,-2.55212e-01,-7.73247e-03,-1.05262e-01,2.63600e-01,3.34492e-01,-1.86838e-01,-2.31922e-01,-1.21497e-02,2.33566e-01,2.80379e-01,1.05346e-01,1.14714e-01,-1.66267e-01,-2.20971e-01,3.31173e-01,6.69815e-02,-2.94821e-01,1.87034e-01,-2.17511e-01,1.65152e-01,-2.70147e-03,1.11327e-02,1.45368e-01,-4.96381e-01,1.21401e-01,2.36352e-01,-1.63597e-01,-2.18965e-01,3.63542e-01,-1.28151e-01,1.62342e-01,2.30600e-01,7.92426e-02,2.16285e-01,
5.22892e-03,3.42639e-01,-6.42617e-01,1.92806e-01,-5.58946e-01,3.40156e-02,-3.24452e-03,-5.09741e-01,1.65037e-01,-1.97419e-01,2.14815e-01,-2.49827e-01,5.79076e-02,-1.28247e-01,-5.84878e-01,1.88372e-01,-4.44036e-03,1.43777e-01,-1.22356e-01,-3.17151e-03,1.46057e-01,-2.93063e-01,-5.42166e-01,-2.30496e-03,-3.42429e-02,1.10648e-01,2.91559e-01,-1.02117e+00,1.84527e-01,2.92658e-01,4.82018e-02,-5.97294e-03,2.35583e-01,-1.26915e-01,-7.72617e-02,-5.05849e-02,-1.15096e-01,-9.65609e-03,1.56647e-01,5.11183e-02,3.33428e-02,2.34692e-02,-6.39853e-01,7.65909e-02,1.24043e-01,
-1.98247e-03,1.80752e-01,-9.87597e-02,-1.92685e-01,2.87989e-01,-4.80206e-02,2.90395e-02,1.54134e-01,6.57206e-02,2.24219e-01,-6.38061e-02,-2.07334e-01,2.32767e-02,2.81864e-01,6.71289e-02,-5.26020e-02,4.49527e-03,-1.32949e-01,5.53658e-02,2.05789e-01,3.59903e-02,-7.52426e-02,-2.23688e-02,-3.30661e-01,6.02515e-03,-3.31143e-01,-9.12734e-02,6.65163e-02,2.66504e-01,-3.61746e-01,3.40732e-01,5.99988e-02,8.35128e-02,-2.19369e-01,4.19251e-02,-3.90736e-01,5.61674e-02,-2.09621e-01,3.59320e-01,9.18004e-02,1.87688e-01,1.13156e-01,1.60449e-01,1.19800e-01,-8.08641e-02,
1.35075e-01,-4.13509e-02,-9.88715e-01,-2.09025e-01,1.76550e-01,2.72245e-01,-1.45981e-01,-1.35202e-01,-2.04463e-01,5.10284e-02,-5.90762e-02,3.30061e-03,-8.49358e-02,2.99599e-01,-3.89861e-03,-1.15554e-01,-2.34071e-01,1.98085e-01,-4.03417e-01,1.77175e-01,2.34101e-01,4.57279e-01,2.68679e-01,2.05957e-01,-5.23147e-01,4.44593e-01,-3.10639e-01,-1.10475e-01,-5.27727e-03,6.04194e-03,2.40801e-01,-8.56444e-02,-3.06284e-01,3.10246e-02,-3.32940e-01,1.88730e-01,1.68306e-01,3.12145e-01,-1.12052e-02,-4.27437e-02,7.80049e-02,4.00847e-02,2.45451e-01,6.57568e-02,3.03990e-01,
-2.94647e-01,-5.23403e-03,-6.89498e-01,4.18601e-03,1.52977e-01,-4.12411e-01,2.36501e-02,-5.01763e-02,-1.37236e-01,-2.54078e-01,1.55748e-02,-3.55330e-02,-9.76524e-02,-2.49972e-01,-6.44416e-02,2.86649e-01,-3.63965e-01,5.44225e-01,1.72459e-01,5.82079e-02,-2.00180e-01,-4.42033e-02,8.54439e-02,-4.08796e-02,-6.50837e-01,2.39151e-01,-7.60036e-01,-3.29071e-01,2.67953e-01,-2.44598e-01,4.15348e-02,-7.69002e-02,-3.36564e-01,-1.15264e-01,-2.27471e-01,3.61030e-01,5.03831e-02,-4.48983e-02,-4.26186e-02,-1.64932e-01,7.64171e-02,8.68767e-02,3.98818e-01,2.87287e-01,1.87710e-01,
1.63795e-01,-9.64268e-02,4.66819e-02,-4.12008e-01,-7.26321e-02,7.67846e-01,-8.10423e-01,-1.91370e-01,9.11573e-02,-2.28265e-01,-4.32783e-01,-2.43366e-02,8.34087e-02,3.53319e-01,2.39934e-01,-1.41265e-01,-1.21248e-01,-6.85319e-02,-1.37396e+00,-1.19912e-01,3.14485e-01,1.86156e-01,8.77587e-02,-4.09333e-02,2.79586e-01,2.61081e-01,-2.13714e-01,1.23861e-01,-2.48449e-01,-8.52892e-01,-3.32322e-01,-1.23755e-01,-6.99485e-02,-8.78415e-02,-2.90148e-01,-2.29485e-02,-5.84763e-01,-1.05761e-01,2.11614e-01,2.95240e-01,-1.50007e-01,1.49573e-01,2.46215e-01,-1.48517e-01,-1.19214e-01,
3.25719e-02,-1.02859e-03,-8.73529e-02,2.81062e-01,3.45449e-01,5.71696e-02,2.24427e-01,-9.15040e-02,-1.38346e-01,-6.01487e-02,1.12485e-01,-2.76001e-01,1.96906e-01,-1.10666e-01,5.76734e-02,-1.87981e-01,5.06862e-01,-4.27526e-02,-1.44479e-01,-3.71066e-01,-2.56490e-01,6.00238e-01,-4.84080e-01,2.43093e-01,-8.28153e-03,2.15466e-01,2.43302e-01,2.46896e-01,-2.33092e-01,1.25683e-01,1.27981e-01,-8.09400e-02,9.26182e-02,7.26455e-02,1.28256e-01,-1.74995e-01,3.05023e-01,1.19670e-01,1.67577e-01,1.35397e-01,-1.66699e-01,-1.55566e-01,-2.31872e-01,-3.75134e-01,-1.26090e-01,
1.64691e-01,-4.87138e-03,2.96599e-01,-4.29624e-02,1.29949e-01,-1.27665e-01,2.38241e-01,5.79642e-02,-1.99504e-01,-5.11596e-02,-8.34386e-02,1.74164e-01,3.94690e-02,-2.44113e-02,-1.66708e-01,-4.79333e-01,-2.80288e-01,2.54720e-01,-2.03870e-01,3.23354e-01,9.18061e-03,-3.15596e-01,1.46995e-01,-7.03213e-02,3.80598e-02,-1.11076e-01,1.36621e-01,2.70669e-01,-2.73749e-01,-1.50337e-02,1.37892e-01,-1.83460e-01,-1.13324e-01,9.62406e-02,1.69277e-01,1.32127e-01,-1.59246e-01,2.22165e-01,2.57670e-01,-1.11023e-01,-2.09952e-01,1.13903e-01,1.58470e-01,2.22583e-01,4.36940e-01,
1.99350e-01,2.98067e-02,3.84337e-01,-1.52586e-01,-6.28610e-02,9.67394e-02,2.36622e-01,-3.23891e-03,1.92915e-01,-1.48541e-01,1.74835e-01,2.17192e-01,-1.03796e-01,-1.76557e-01,2.57842e-01,-3.62161e-02,-1.83175e-01,-1.89478e-01,3.04814e-03,-1.60829e-02,-1.86268e-01,3.07662e-01,1.48376e-01,4.93925e-01,1.03409e-01,-1.35452e-01,-2.05193e-01,3.97876e-01,-3.98679e-01,3.12384e-01,4.32690e-01,3.49748e-01,-7.96557e-02,1.78153e-01,-4.95225e-02,-7.40054e-02,4.49809e-02,-8.96391e-02,1.39460e-01,2.29379e-01,-1.11798e-01,1.92479e-01,1.12984e-01,-1.50140e-01,-7.37568e-02,
2.90614e-01,-1.71621e-01,4.52115e-01,1.57028e-02,-2.60105e-01,-2.37315e-01,-3.43175e-01,-1.68711e-01,-3.52793e-02,-2.22346e-01,3.17825e-01,-3.16847e-01,2.83246e-01,8.33641e-02,1.94093e-01,-2.04006e-01,2.02297e-01,1.69111e-01,-1.26503e-01,8.95119e-02,-1.40167e-02,5.39084e-01,-1.20982e-01,-4.21997e-01,5.39023e-02,-2.48741e-03,2.53495e-01,3.64434e-04,-1.93296e-01,-2.84719e-01,-4.12925e-02,2.95388e-01,3.05896e-01,2.38529e-01,-2.19927e-01,-8.32626e-02,1.18472e-01,2.57555e-01,1.43348e-01,1.31272e-01,4.36882e-01,-2.39166e-01,-7.62715e-01,-2.89835e-01,-6.62319e-01,
-2.33541e-02,5.06826e-03,1.98299e-01,3.32734e-02,-4.04381e-01,1.08425e-01,-1.86665e-02,3.21048e-01,-3.07932e+00,9.80377e-02,2.02188e-01,1.99869e-01,-3.37888e-02,-2.53392e-01,1.01386e-01,-4.58379e-01,1.20020e-01,7.63341e-02,-5.09231e-02,-4.52633e-02,1.98306e-01,-1.22314e-01,2.41086e-01,-7.63881e-01,-4.10761e-02,3.64477e-01,-1.35973e-01,1.28070e-01,-7.40540e-01,2.69311e-01,5.09846e-02,3.06186e-02,2.00999e-01,1.07409e-01,1.05481e-02,2.01232e-01,2.13208e-01,-6.27203e-02,-1.91857e+00,5.20879e-02,-1.60061e-01,-5.45048e-02,1.68922e-01,1.46635e-01,3.29561e-01,
1.60040e-01,-8.31906e-02,-1.75075e-01,-2.07416e-01,9.38676e-02,-1.87924e-01,-9.39112e-02,-1.28729e-01,-1.74150e-01,3.08988e-02,-4.63085e-02,-2.42243e-01,-4.41047e-02,-2.55546e-01,1.80847e-02,-8.70937e-02,-1.93531e-01,3.98944e-02,-1.89639e-01,8.54771e-02,-1.58187e-01,7.55702e-02,-8.82545e-02,-1.65211e-01,5.39526e-02,-1.62510e-01,-7.25656e-02,-1.77455e-01,-2.21628e-01,1.77116e-01,1.34914e-01,1.54252e-01,-1.21054e-01,1.00697e-01,-1.66605e-01,2.45251e-01,1.79868e-01,1.34569e-01,-1.32687e-01,-2.54631e-01,1.64491e-01,-1.88732e-01,-2.24359e-01,-1.10131e-01,-1.20476e-01,
-1.66592e-01,2.20397e-01,-3.87809e-02,-4.96143e-02,-4.05562e-01,-4.80663e-02,1.57354e-01,-1.73850e-01,-1.38233e-02,-2.02336e-01,-3.16669e-01,-1.09346e-02,2.74232e-02,3.36763e-01,5.57054e-03,6.60758e-02,1.54415e-01,-1.87503e-01,1.99579e-01,1.11296e-01,-2.00813e-01,3.56760e-01,1.66750e-01,1.16043e-01,-2.16899e-01,2.92474e-01,-1.14980e-01,2.34581e-01,1.28209e-01,8.10203e-02,4.09506e-03,2.36687e-01,-1.09046e-01,1.50528e-01,-1.88861e-01,-1.31443e-01,1.10163e-01,1.64385e-01,-1.46038e-01,1.94585e-01,2.33729e-01,2.64597e-01,-1.62724e-01,1.86688e-01,1.43635e-01,
1.77159e-01,-8.78999e-02,-4.59788e-02,6.58441e-02,2.47762e-01,6.61361e-02,1.56718e-01,-1.16097e-01,3.28204e-01,1.63312e-01,-4.65044e-01,2.41942e-01,-1.76108e-01,9.86624e-02,-4.55681e-02,5.15106e-02,4.38766e-02,2.20922e-01,-4.68921e-02,-8.38652e-02,-1.14722e-01,4.88807e-01,1.84732e-01,2.79892e-02,5.57468e-02,1.74453e-01,7.91702e-02,3.13400e-01,-5.14808e-02,1.37948e-01,1.35320e-01,-2.94466e-01,-3.57287e-01,-2.33451e-01,-1.23134e-01,-3.09754e-02,-6.59555e-03,1.39962e-01,6.84444e-02,2.44514e-01,-1.31087e-01,2.50557e-01,-1.26017e-01,-2.08206e-01,4.05843e-02,
1.38954e-01,4.22112e-02,-3.09992e-01,-7.99475e-03,-5.80780e-02,-3.52307e-02,1.12907e-01,5.67206e-02,-1.51201e-01,-1.07634e-01,2.02229e-01,-3.26861e-01,3.28982e-02,-1.97679e-01,-1.46048e-01,-3.90913e-02,3.01232e-01,1.98801e-02,2.04836e-01,-3.19235e-01,1.35495e-01,3.62820e-01,-5.37338e-01,8.44580e-02,-1.29025e-02,5.33638e-02,2.62768e-01,-4.07416e-02,1.25379e-01,-1.82117e-01,6.07302e-04,-1.20440e-01,2.17703e-01,-1.62793e-01,-6.81072e-01,-2.21653e-01,1.81258e-01,2.29399e-01,1.81566e-01,2.73971e-01,1.63452e-01,9.54086e-02,-4.37692e-01,-1.23373e-01,1.58275e-01,
1.91344e-01,-1.57954e-01,-2.41288e-01,2.04831e-01,2.84210e-01,-3.09056e-01,-1.24742e-01,-4.62377e-02,1.68446e-01,-9.80521e-02,3.41331e-01,2.23367e-01,3.96913e-02,-4.52322e-02,-1.27853e-01,-2.63455e-01,5.22009e-02,1.16714e-01,-2.49280e-02,5.33208e-02,1.45123e-01,1.03475e-01,-6.40962e-03,7.61868e-02,4.05695e-02,-2.14850e-01,-2.31692e-02,-1.05935e-01,-1.70435e-02,-8.87401e-02,4.23308e-01,7.08143e-02,8.88696e-02,-1.65328e-01,-2.68751e-01,4.23708e-02,-6.64875e-03,1.07443e-02,4.70472e-01,6.53714e-02,6.19185e-02,-3.17501e-01,-1.00788e-01,-1.58790e-01,2.36339e-01,
2.22428e-02,3.89722e-02,1.67523e-01,-1.23021e-02,-2.42436e-01,-2.20520e-01,-2.07781e-01,8.20014e-02,-2.70843e-01,2.22257e-01,-2.57536e-01,5.53686e-02,5.98338e-02,-3.70877e-02,-2.38533e-01,-2.53741e-01,1.51698e-01,2.17561e-03,-5.66952e-02,-2.29562e-01,-1.53449e-01,-1.85162e-01,1.41291e-01,1.99187e-01,-2.16903e-01,1.24878e-01,-6.64444e-02,-2.12784e-01,-1.38605e-01,-1.10082e-01,-1.06307e-01,-3.60783e-02,-1.33195e-01,3.66598e-02,-1.40149e-01,-2.45220e-01,2.37394e-01,-1.57719e-01,5.21819e-02,4.83123e-02,-9.62818e-02,1.80194e-01,-5.15377e-02,-2.26346e-01,-1.39558e-01,
5.89446e-02,2.39949e-01,1.56016e-01,5.61793e-02,3.04159e-01,1.14914e-01,3.31252e-01,-2.29581e-01,4.23950e-01,-6.90000e-02,3.15111e-01,-2.20155e-01,-2.83655e-01,7.38039e-02,6.46771e-02,1.51028e-01,-7.05484e-02,-1.87677e-01,5.68871e-02,-1.27218e-01,-6.57816e-02,2.37732e-02,2.89846e-02,3.62949e-01,6.48955e-02,5.88025e-02,2.62241e-01,1.03848e-01,2.78282e-01,1.09891e-01,-3.35553e-01,-1.72417e-01,-1.52859e-02,-1.70132e-01,1.36180e-01,-3.87917e-02,2.16488e-01,1.25655e-01,1.90432e-01,9.00465e-02,1.33564e-01,3.07429e-01,-9.88276e-02,-3.97941e-01,-1.41729e-01,
-1.57056e-01,-1.46638e-01,-1.05043e-01,2.64649e-01,3.86523e-01,-1.14299e-01,-8.21252e-02,-2.00318e-01,2.69220e-01,4.37375e-02,7.98291e-02,-9.17252e-03,1.18377e-01,-4.06287e-01,-2.46068e-01,1.19124e-02,-3.65300e-01,2.15936e-01,7.91945e-02,-6.82810e-02,-6.83152e-02,8.84861e-02,-7.19954e-02,-1.89634e-01,-7.97045e-02,-2.74258e-01,1.79214e-01,-4.77899e-01,1.36738e-01,-3.80018e-01,-3.08687e-01,8.80795e-02,-3.01346e-01,-3.65621e-01,2.39194e-01,1.66597e-01,1.02716e-02,-3.12044e-01,-1.15267e-01,-1.37377e-01,3.59781e-01,1.01407e-01,-6.75639e-02,-1.35335e-01,-1.03143e-01,
2.32030e-01,1.60500e-01,6.41803e-01,1.03122e-01,-3.43277e-01,-3.36344e-02,1.01146e-01,-1.62676e-01,1.99427e-01,8.39667e-02,1.76406e-01,2.99994e-01,1.33911e-02,-1.13259e-01,-3.93336e-02,-1.60237e-01,1.58621e-01,-7.51094e-02,1.94826e-01,3.21263e-01,2.94172e-01,-1.33671e-01,-2.40857e-01,1.23790e-01,1.84800e-01,-1.50125e-02,-1.01840e-01,-3.08907e-01,-1.79533e-01,4.97130e-02,2.34536e-01,8.33890e-03,2.11232e-01,-3.67979e-01,-1.94033e-02,4.12418e-02,9.41277e-03,1.22529e-01,2.79457e-02,-2.44174e-01,-2.12196e-01,4.54032e-02,-6.59120e-02,6.07927e-02,-1.52472e-01,
-1.20056e-01,2.46856e-01,-8.25856e-01,1.42687e-01,1.47375e-01,-1.65066e-01,-2.98319e-02,-2.05608e-02,-3.27421e-01,-5.56042e-02,1.29591e-01,2.44291e-01,-2.56266e-02,-2.47208e-02,7.57961e-02,2.94873e-01,-2.74879e-01,1.72864e-01,9.88531e-02,1.48948e-01,6.46855e-02,1.58706e-01,9.52521e-03,-2.38695e-02,-7.53572e-02,-1.60197e-01,4.67222e-02,-1.82873e-02,4.70545e-01,-1.93491e-01,1.95445e-01,-9.24006e-02,1.35449e-01,2.22457e-01,3.02843e-01,1.42813e-01,1.31615e-01,-4.81021e-02,1.70256e-01,3.05320e-01,2.61435e-01,-2.70004e-01,-3.10194e-02,-7.12594e-02,-2.26168e-01,
2.12374e-01,-1.87780e-01,5.15787e-01,1.65481e-01,3.48134e-01,-4.10663e-02,-9.37116e-02,2.70853e-01,-3.01478e-01,2.15855e-01,-2.41971e-01,2.76492e-01,-3.56034e-02,1.46436e-01,7.59201e-02,-3.36516e-01,-2.18912e-01,1.07483e-01,2.43885e-01,2.73906e-01,2.11481e-01,7.67074e-02,1.53924e-01,-1.72477e-02,-1.45525e-01,1.76242e-01,-1.68833e-01,1.66491e-01,-1.47487e-01,-6.28372e-02,-2.96806e-02,2.78314e-01,-1.69104e-02,-7.22089e-02,-2.02098e-02,9.64804e-02,-8.18695e-02,-1.75847e-01,-2.93877e-02,2.00412e-01,3.73541e-02,2.49566e-01,4.32016e-01,-1.16143e-01,-1.71616e-01,
-1.18950e-01,-3.18803e-01,-3.43741e-01,-3.01185e-01,4.65816e-01,2.69394e-01,-5.07150e-03,-9.20371e-03,2.22477e-01,1.33974e-01,-4.74434e-01,7.28108e-03,3.20451e-01,9.19378e-02,2.76738e-01,-1.07786e-01,-2.16529e-01,1.61176e-01,-2.30342e-01,3.69866e-01,1.90812e-01,-3.19155e-01,3.11052e-01,-2.91014e-01,-8.01403e-03,6.92458e-02,-8.54981e-02,-4.06752e-02,-5.95166e-03,1.30271e-01,-7.44836e-02,-1.79200e-01,-1.82054e-01,3.20551e-03,-1.37208e-01,-6.12541e-02,2.78368e-01,1.03997e-01,-1.19811e-01,2.69502e-01,2.04825e-01,2.57824e-01,2.26625e-01,4.64353e-03,-2.76189e-01,
3.78906e-02,-2.41445e-02,-1.22990e-02,-3.24870e-01,4.27796e-01,2.00243e-01,1.18857e-01,2.12370e-01,1.07387e-01,7.15953e-02,1.60541e-01,-3.45219e-02,-1.87627e-02,-2.17825e-01,1.78702e-01,4.96112e-02,2.39063e-01,-7.09696e-02,-3.57387e-01,8.74306e-02,-1.26118e-02,2.48210e-01,1.06499e-01,-9.41040e-02,9.51087e-02,3.33477e-01,6.07181e-02,8.03063e-02,3.99279e-01,2.77238e-01,2.51561e-01,1.50107e-01,-2.86657e-01,7.43611e-02,-2.36412e-01,-1.78982e-01,-6.86988e-02,6.17014e-03,7.59872e-02,-2.43047e-02,2.31340e-01,-1.45318e-01,1.63610e-01,-4.49624e-02,9.27874e-02,
-9.08346e-02,-2.66881e-01,-4.54909e-01,1.95637e-01,-7.30193e-02,2.69371e-01,2.23204e-01,1.11407e-01,-1.99936e-01,2.07265e-01,-1.63110e-02,2.43599e-02,2.94482e-01,3.92099e-01,2.76295e-01,-1.72119e-01,1.35445e-01,7.42747e-02,-6.06968e-04,-2.43794e-01,-1.18016e-01,4.47563e-01,3.79330e-02,-1.38260e-01,-1.70294e-01,2.68035e-01,2.42628e-01,1.29908e-01,-3.20387e-01,9.46027e-02,-1.34098e-02,-1.32871e-01,7.37994e-02,2.85381e-02,7.02266e-02,-1.26171e-01,7.98411e-02,-1.11027e-02,-1.66763e-01,-8.19892e-02,-5.58910e-02,1.97871e-01,1.98457e-01,3.06330e-02,2.90839e-02,
8.07579e-02,-1.03831e-01,4.36255e-02,-1.67147e-01,1.52587e-01,5.26399e-02,1.48860e-01,-1.43883e-01,9.75294e-02,1.91880e-01,-4.47957e-01,-6.07408e-02,8.01735e-04,-3.49263e-01,1.97488e-02,-4.97813e-01,-2.43242e-01,1.27400e-01,4.21295e-02,-2.23393e-01,-2.52433e-01,-4.95235e-02,-4.09091e-01,-3.24629e-01,-1.23926e-01,2.07377e-01,3.63711e-01,-4.16381e-02,1.98028e-01,-1.21942e-01,1.24675e-01,-1.34171e-01,-1.69183e-01,1.55090e-01,-1.48571e-01,6.38147e-02,2.06871e-01,2.72567e-01,5.84813e-02,4.30086e-02,-3.03675e-01,8.32123e-02,-2.44310e-02,4.17023e-02,4.64951e-02,
-8.31843e-02,-1.83653e-01,-2.15776e-01,8.58861e-04,-1.18855e-01,2.08809e-01,1.22467e-01,-1.79100e-01,2.89317e-01,-1.03144e-01,2.30807e-02,-1.01489e-01,-5.53722e-02,-1.47633e-01,-5.44576e-02,-3.90662e-01,8.52316e-02,1.40896e-01,-1.11537e-01,-2.28654e-01,8.97953e-02,5.61466e-02,-1.18627e-01,-1.28690e-01,5.74742e-02,-1.24088e-01,1.24645e-01,4.04112e-02,-7.35184e-02,-1.84465e-01,2.19440e-03,1.42459e-01,1.23386e-01,1.32813e-01,-1.04820e-01,3.30870e-01,3.47936e-02,-9.73968e-02,3.76530e-01,1.71226e-01,3.43113e-01,-2.94487e-01,-6.75057e-02,-1.48034e-01,3.55470e-01,
1.25497e-01,4.19410e-01,3.91554e-01,8.44098e-02,6.50822e-02,-1.43345e-03,-1.70851e-01,1.99846e-01,-3.15617e-01,-2.55157e-01,-3.64046e-01,3.93241e-01,-1.73299e-01,-2.72735e-01,-8.09681e-02,3.92945e-01,-3.33289e-01,1.92073e-01,-9.91303e-02,-1.13994e-01,2.72989e-01,-1.24207e-01,2.37357e-01,9.73826e-02,-1.47272e-01,4.43048e-02,4.50707e-02,3.43953e-02,8.79467e-02,-5.24977e-02,1.96810e-01,-1.71554e-01,-2.49712e-01,9.40235e-02,-1.60620e-01,1.10101e-01,1.42096e-01,-2.28355e-02,-2.72532e-01,-5.38993e-02,-2.72480e-02,-2.15807e-02,8.09254e-02,3.17774e-01,1.89075e-02,
-9.36290e-02,-6.48689e-02,-7.09223e-01,-3.42290e-02,2.13263e-02,6.00662e-01,4.53083e-02,-3.05002e-01,-6.21147e-02,-2.56248e-01,-2.99238e-01,2.18493e-01,5.45749e-02,-9.71412e-02,6.97894e-03,3.79053e-02,-1.13375e+00,2.09302e-01,-1.09122e-01,3.58989e-01,5.64937e-02,-5.03677e-01,3.94488e-01,-1.06404e-01,-1.87444e-01,1.73877e-01,1.86205e-02,-4.28544e-02,1.85310e-01,4.10453e-02,-2.34665e-01,-1.92897e-01,-7.45940e-03,2.68319e-01,-3.37033e-01,-2.85506e-02,-2.82498e-01,-3.42232e-01,6.44398e-02,6.82551e-02,-1.28970e-01,2.64098e-01,-1.45150e-02,-1.30661e-01,3.48833e-01,
-3.43814e-01,2.88093e-02,-6.49896e-02,-1.08429e-01,-1.12619e-01,-2.59416e-01,1.36463e-01,3.70744e-01,1.07932e-01,2.73907e-02,-1.81456e-01,-1.44478e-01,-2.87155e-01,-6.68136e-03,2.98015e-01,-5.44696e-02,-1.45397e-01,-2.10384e-02,2.12891e-01,1.23697e-01,2.05511e-01,-2.08884e-01,-2.26710e-02,2.47858e-01,-2.47508e-01,-3.13470e-01,4.44052e-02,3.95335e-01,2.27166e-01,-1.49849e-01,1.68253e-01,-3.72001e-02,-1.18270e-01,2.58846e-01,1.70136e-02,1.23778e-02,-4.29676e-01,1.35436e-01,-4.48116e-01,1.11302e-01,3.42675e-02,-1.31678e-01,1.83914e-01,2.26287e-01,2.95233e-01,
-2.29573e-01,1.79168e-01,-4.58878e-01,-6.47298e-02,-4.51712e-01,8.76887e-02,1.56337e-01,8.58937e-02,2.83293e-01,-8.94468e-02,-3.77764e-02,1.29172e-01,2.29341e-01,1.23820e-01,-1.51115e-02,2.41870e-01,2.54434e-01,-1.28285e-01,-1.45651e-01,-4.82357e-02,1.49589e-01,-2.08136e-02,-2.46572e-01,-1.50892e-01,-1.14078e-02,1.46326e-01,2.78646e-01,4.73998e-02,1.88947e-01,2.65425e-02,-1.51146e-01,-1.13703e-01,3.09941e-01,-3.53977e-01,-3.90961e-03,2.46976e-01,-4.86765e-02,1.16633e-01,2.67313e-02,2.92665e-02,2.93593e-01,1.98284e-02,5.74787e-02,-2.38256e-01,-1.85266e-01,
2.30767e-01,6.65212e-02,-3.91014e-02,-2.50245e-02,-8.42233e-02,-3.78609e-01,2.48357e-02,7.27789e-02,1.16894e-01,-5.94387e-03,8.36907e-03,-8.48793e-02,-1.28135e-01,2.37922e-01,4.79196e-01,-2.26499e-01,3.00873e-01,-6.26789e-01,-2.81018e-01,-1.49511e-01,1.44125e-01,3.02598e-02,-1.49065e-01,8.00820e-02,4.65629e-01,6.19139e-02,5.40056e-01,-8.95593e-02,2.73228e-01,-1.38912e-01,-4.20727e-02,1.78772e-01,4.71257e-01,1.62439e-01,1.13033e-01,-5.28558e-01,-1.45041e-01,7.15760e-02,8.69334e-02,3.41553e-01,1.12297e-01,-1.63837e-02,-1.02269e-01,-6.72180e-01,-2.40259e-01,
4.72381e-02,-4.14453e-01,-5.38900e-01,8.45568e-02,-7.76772e-02,-7.34602e-02,1.30922e-01,2.00820e-01,6.81636e-01,1.16490e-02,5.67501e-02,-3.72325e-01,4.07593e-02,-4.99364e-02,-1.15128e-01,1.98113e-01,-9.08301e-02,8.77753e-02,3.15931e-01,-8.52350e-02,-7.08808e-01,2.60722e-01,4.91940e-03,-3.13633e-01,2.49199e-01,-1.98934e-01,1.64705e-01,4.26196e-03,1.14599e-01,1.73508e-01,-2.25457e-01,1.60006e-01,-7.32317e-01,-1.46455e-01,1.40749e-01,-3.74300e-02,-9.06820e-02,-2.95418e-01,-1.12984e-01,2.19599e-01,-1.28486e-01,-3.35422e-01,3.23788e-03,2.01466e-01,1.10317e-02,
5.80696e-02,2.72477e-01,-5.04868e-01,-6.93073e-02,-2.19391e-02,1.99577e-01,1.97075e-01,1.87678e-01,1.52970e-01,4.93374e-02,1.95831e-01,-3.82232e-02,-2.77698e-01,-1.69018e-01,-4.15023e-02,1.49884e-01,-7.58419e-02,-1.69496e-01,3.74553e-02,6.28291e-02,1.44805e-01,-1.35623e-01,-2.01890e-01,1.04425e-01,-1.29185e-01,1.35908e-01,2.76945e-01,3.17343e-01,1.85108e-01,3.74123e-01,1.71530e-01,3.09677e-01,1.45652e-02,8.08034e-02,2.70712e-01,-1.30818e-01,-3.87910e-02,2.48205e-01,-5.29060e-01,2.75172e-01,1.89236e-01,-1.68551e-01,-3.36720e-01,-4.47069e-02,3.03192e-01,
1.57910e-02,
-1.12132e-01,
-1.83106e-03,
1.51212e-01,
1.11213e-02,
8.54799e-02,
-1.14350e-01,
3.96820e-02,
-9.86209e-02,
-9.54987e-02,
1.22178e-01,
1.45983e-01,
-1.42761e-03,
-7.24017e-02,
-1.20885e-01,
-3.68831e-02,
-1.18533e-01,
-4.54818e-02,
-1.71306e-02,
-4.67694e-02,
-2.05472e-01,
6.89014e-02,
-3.14095e-03,
-9.75603e-04,
8.24796e-02,
-8.59679e-03,
-1.63999e-02,
-5.23900e-03,
5.14467e-02,
4.39974e-02,
2.37823e-02,
-1.62534e-02,
-2.33065e-03,
-8.79978e-02,
-3.06771e-01,
1.35769e-01,
8.49802e-02,
5.01922e-02,
1.12317e-01,
-7.59738e-03,
7.04767e-02,
6.50569e-02,
-2.27131e-02,
1.69448e-02,
-4.57674e-02,
2.44278e-01,-8.94274e-01,4.41524e-01,1.41547e-01,-1.39809e-01,-2.87596e-02,-1.53945e+00,-2.18011e-01,2.68864e-01,-3.55383e-01,-2.88909e-01,-3.48831e-01,4.23680e-02,5.03319e-01,1.96149e-02,1.25123e-01,2.70181e-01,-1.44545e+00,9.34440e-02,2.44194e-01,9.61777e-03,1.14452e-02,-1.64605e-01,-3.87205e-02,8.04828e-02,5.30599e-01,-8.98730e-02,2.10008e-01,-1.48730e-01,1.09439e-01,-1.03934e-01,-2.88979e-02,6.60290e-02,2.85282e-02,2.94283e-01,-1.05674e-01,-2.46948e-01,-2.23801e-01,2.00066e-01,7.95116e-02,-7.68241e-02,1.51695e-01,-7.18965e-01,2.50313e-01,-9.12074e-02,
2.15012e-01,-3.76987e-01,-4.07347e-01,-7.80789e-02,-9.44860e-02,4.39518e-02,-1.39631e-01,2.84441e-01,-2.37718e-01,-3.60570e-02,-2.30627e-01,2.16714e-01,4.46900e-01,4.99619e-02,3.42001e-01,-1.28716e+00,-5.48211e-02,-2.47401e-01,2.19928e-01,7.57883e-02,-5.19537e-01,-7.97566e-02,7.61954e-02,-1.18870e-01,-7.52606e-02,-3.39762e-02,1.23081e-01,2.10690e-01,1.82493e-01,4.25203e-02,5.06861e-02,-1.06884e-01,7.40958e-02,5.42348e-01,-6.06735e-02,4.77552e-03,-2.08454e-01,-1.98996e-01,-3.16262e-01,-6.70228e-01,1.53922e-01,-1.93845e-01,1.83898e-01,-6.18234e-01,5.69828e-02,
-4.39752e-02,9.82338e-02,-1.49491e-01,-1.11944e-01,2.68310e-02,5.36740e-05,6.45609e-02,-6.89531e-02,1.03408e-01,5.20545e-03,-2.03164e-01,-1.09061e-01,-9.93349e-02,-1.46821e-01,6.02001e-03,-2.52013e-01,-5.04282e-03,6.90322e-02,-2.41404e-01,-2.26441e-01,-1.00302e-01,-1.60549e-01,7.86964e-02,-1.93551e-01,1.38390e-01,-2.26981e-01,-2.30778e-02,4.29935e-02,-2.34344e-01,2.93614e-02,-1.83137e-01,-8.54701e-04,-1.05085e-01,2.05486e-01,7.33216e-02,1.33200e-01,1.83565e-01,3.49555e-02,-1.37797e-01,-1.11725e-01,-1.69591e-02,9.22555e-02,-7.84800e-02,-1.43734e-01,-9.33179e-02,
2.43398e-02,-5.04836e-03,3.48263e-01,1.51800e-01,1.64703e-01,-2.13570e-01,-9.41737e-02,-1.17340e-01,-2.17270e-02,-2.51805e-02,1.52532e-01,1.52562e-02,5.34749e-01,2.70337e-01,-1.64768e-01,1.04640e-01,-3.08780e-01,1.35025e-01,-3.26331e-02,8.15103e-02,-4.44317e-01,4.00297e-01,2.38689e-01,-2.46855e-02,1.74943e-01,3.21723e-01,2.07241e-01,2.93061e-02,-2.24953e-02,1.01048e-01,-3.05704e-02,1.77684e-01,1.07803e-01,2.01685e-01,-1.49438e-01,-1.93598e-01,-2.55772e-01,1.76416e-01,-1.72878e-02,1.55769e-01,-2.63077e-01,-1.56265e-01,2.63157e-01,7.08991e-02,-1.03738e-01,
1.39438e-01,-4.47767e-01,2.21367e-01,2.92506e-01,-1.18355e-01,2.50130e-01,-8.49647e-01,1.36655e-01,4.34076e-02,-2.09987e-01,-3.84103e-01,1.97581e-01,1.32551e-01,-8.67475e-02,-7.03508e-02,-9.18173e-02,6.75860e-01,-6.74825e-02,-5.93225e-02,2.18594e-01,3.37221e-01,1.24465e-01,-1.99955e-01,1.93742e-01,8.80389e-02,-3.54097e-01,1.54839e-03,1.19741e-02,1.50681e-01,-1.54144e-01,1.75078e-01,1.07468e-01,-1.72225e-01,-1.47959e-01,-3.79803e-01,-9.14572e-02,1.08658e-01,-2.42747e-01,2.88494e-01,-5.74924e-01,-3.61091e-01,-4.24367e-04,-8.60494e-02,-5.78042e-02,-1.95339e-01,
-1.41429e-01,2.59785e-02,4.15415e-01,5.19509e-02,2.03471e-01,-6.92851e-03,2.09385e-02,4.06810e-01,3.89142e-01,1.49370e-01,9.13218e-02,-1.10800e-01,-1.48344e-01,5.11120e-02,1.65368e-01,-1.07686e-01,-3.15929e-01,-1.79966e-01,2.17437e-01,2.06478e-02,2.41524e-01,-2.71724e-01,-3.71856e-02,1.32447e-01,2.49155e-01,1.81126e-01,6.97836e-02,1.82221e-01,-1.42950e-01,-3.70842e-01,5.85933e-02,1.09536e-01,1.57184e-01,-3.12563e-01,-9.70548e-02,5.23540e-02,-1.56255e-02,-1.70350e-02,-1.75309e-01,-2.35123e-01,1.14933e-01,-1.33374e-01,-7.90776e-02,4.36121e-01,2.08587e-01,
-1.44238e-01,-4.14719e-01,2.26115e-01,2.43299e-01,8.14231e-02,3.44876e-02,1.62450e-01,-1.22630e-01,4.10984e-01,-4.05119e-01,1.52920e-01,-1.81283e-01,-1.58431e-01,1.81265e-01,3.80893e-01,-1.80913e-01,5.23281e-02,5.10916e-02,2.64803e-01,1.04121e-01,-3.18557e-02,-7.51848e-02,1.91068e-01,-1.27731e-01,1.40690e-01,-1.69617e-01,1.37283e-01,-1.26768e-01,2.43162e-01,-1.76490e-01,-2.78468e-01,3.09833e-01,-1.50839e-01,-4.42991e-02,6.30052e-01,2.49726e-01,4.82776e-01,4.04837e-02,8.13462e-02,-3.04285e-01,-1.84963e-02,1.72370e-01,-2.31511e-01,1.80191e-01,2.76494e-01,
-1.55311e-01,-3.23310e-01,-1.62341e-02,5.72635e-02,1.30516e-01,9.20385e-02,-1.03335e-01,-6.35920e-02,3.81102e-01,5.70742e-01,-3.58283e-02,1.20065e-01,-8.48327e-01,-1.74020e-02,2.54684e-01,1.26826e-01,-1.57637e-01,-3.59196e-01,1.24045e-01,-5.04359e-03,-1.21538e+00,1.54438e-01,-1.31795e-01,-1.26381e-01,-1.02423e-01,-4.30975e-01,2.18499e-01,1.64617e-01,-1.51333e-01,-2.48870e-01,4.68737e-01,-1.76510e-01,1.48842e-01,3.86337e-01,6.87680e-03,-1.81163e-01,-8.63358e-03,1.50310e-01,2.38498e-01,-3.33339e-01,1.68726e-01,5.04303e-03,-3.97919e-01,-4.41051e-01,5.38825e-02,
2.48743e-01,-4.11959e-01,7.61646e-02,-5.50717e-03,3.63479e-02,-3.89448e-01,-1.11351e-01,-9.44867e-01,2.62151e-01,-1.90445e-01,-3.91439e-01,-3.50945e-01,1.49512e-01,1.50629e-01,-8.95643e-01,4.43106e-01,1.98326e-01,-5.43905e-01,-1.48184e-01,1.47011e-01,1.10380e-01,1.13508e-02,2.03438e-01,2.71965e-01,2.94370e-01,3.20828e-01,-2.69618e-01,-6.55252e-02,-4.29141e-01,3.40683e-02,1.62947e-01,-1.39174e-01,5.22127e-02,-3.20855e-01,1.13215e-01,1.88879e-02,-2.11464e-01,-7.27346e-02,1.97424e-01,-8.32423e-02,-6.92548e-02,-7.58242e-02,-6.93330e-01,2.63823e-01,5.44142e-02,
-1.22897e-02,2.03232e-01,4.43148e-02,2.49552e-02,-2.16085e-01,1.04568e-01,-1.76788e-01,2.59183e-02,8.18972e-02,-4.30056e-02,1.16812e-01,4.05084e-01,-2.53040e-01,-1.88216e-01,-2.50776e-01,-2.13771e-01,3.75332e-01,-4.09612e-01,-3.89371e-02,-3.67196e-02,1.91853e-01,-1.20010e-01,-2.04388e-01,2.21169e-01,6.29597e-02,-4.66886e-02,-1.61045e-01,-2.34453e-01,2.91387e-01,-1.01297e-01,-1.20702e-01,-1.77237e-01,-2.92679e-01,-4.65436e-01,-5.36668e-01,-5.06281e-02,-4.60561e-02,2.90522e-01,1.85171e-01,-6.79753e-01,-5.18717e-02,1.17104e-01,-1.61163e-01,3.98393e-01,1.88526e-01,
-1.65084e-01,-3.11689e-01,4.53292e-01,-9.41069e-02,1.41957e-02,-2.07344e-01,-5.61151e-01,-6.34231e-02,2.28602e-01,4.71447e-02,-2.17180e-02,1.17962e-01,-2.46474e-01,4.40557e-01,2.88670e-01,-4.13308e-01,5.60556e-01,-1.44663e-01,4.01678e-02,1.56301e-01,-2.19649e-02,-9.21025e-02,1.16213e-01,-1.31876e-01,2.35718e-01,-2.74526e-01,2.03647e-01,1.69284e-01,-1.16814e-01,-1.02447e-01,9.87729e-02,1.02583e-01,3.22999e-01,-1.59407e-02,1.25838e-01,1.58778e-01,-1.47996e-01,1.25227e-02,2.31406e-01,-2.62080e-01,-8.96361e-03,-6.27751e-03,-1.30432e-01,5.21832e-02,1.95045e-01,
4.02023e-01,-1.24184e-02,2.29095e-01,-4.19568e-01,1.28224e-01,-3.32229e-01,-6.57522e-02,1.65965e-01,4.23804e-01,9.36058e-02,-1.42387e-01,-9.47520e-02,-2.30739e-01,6.86285e-02,-1.07860e+00,1.26455e-01,2.35152e-01,-1.19031e-02,2.19080e-01,5.73091e-02,-2.21060e-02,1.72452e-01,6.81743e-02,-6.01707e-01,1.29145e-01,1.07816e-01,2.39230e-01,-2.56819e-01,7.61532e-02,-5.39481e-01,7.62718e-03,-1.09361e-01,-1.03374e+00,-9.44759e-02,5.32660e-01,-3.19722e-01,-3.60051e-02,-1.89414e-02,-8.21820e-02,-3.16147e-01,1.03636e-01,-4.41076e-02,1.22918e-01,-5.33002e-01,-3.52584e-01,
-1.69604e-01,-2.74981e-02,9.46541e-03,-1.07776e-01,2.86328e-02,-2.11046e-01,-2.06396e-02,3.72836e-02,-5.72216e-02,1.57060e-01,-3.69680e-03,1.61027e-01,2.19056e-01,-1.45124e-01,1.93521e-01,6.02486e-02,6.92219e-02,-4.59717e-02,-1.52405e-02,-1.09661e-01,5.17443e-02,-4.02856e-02,-2.23222e-02,6.45158e-02,-4.77107e-02,-2.55317e-01,8.21967e-02,-2.42984e-01,-1.05807e-01,1.77070e-01,1.91257e-01,-7.70726e-03,-2.31901e-01,-6.68105e-02,-1.83661e-01,-2.44835e-01,1.02169e-01,-1.69519e-01,-2.52927e-01,-2.20296e-01,5.64791e-02,-2.61565e-01,1.57128e-01,1.12810e-01,-1.12689e-01,
1.19706e-01,8.62386e-02,1.56890e-01,4.43847e-02,-2.50226e-01,-2.44141e-03,-1.50681e-01,2.24329e-01,-7.40240e-02,1.87556e-01,-3.12951e-02,-4.19388e-02,-1.82932e-02,-7.62149e-02,-8.97705e-02,-8.85653e-02,-1.25617e-01,-1.02768e-01,-1.84098e-01,-1.09925e-01,-1.01362e-01,2.43734e-02,-2.31721e-01,1.02234e-01,-1.82247e-01,6.04323e-03,6.03811e-02,1.09865e-01,7.31393e-02,-8.65230e-02,-1.76371e-01,-2.23551e-01,1.88207e-01,2.25781e-02,2.09801e-01,-2.37350e-01,-9.40052e-02,3.17314e-02,9.38834e-02,1.05923e-02,1.95497e-02,-1.88583e-01,-9.82947e-02,-3.53978e-02,-1.09515e-01,
-8.82835e-02,-4.24792e-01,-3.94680e-01,-3.76602e-01,1.11841e-01,-2.25061e-02,-2.67166e-01,-2.59075e-01,-1.74241e-01,3.72663e-02,-1.99394e-01,1.37337e-01,-2.22587e-01,9.66593e-02,-3.40942e-02,-6.92767e-02,3.33236e-01,1.13336e-01,-2.06268e-01,-1.06330e-01,6.36210e-01,1.36278e-01,-6.64232e-02,1.02637e-01,-1.43985e-01,-2.60769e-01,-2.76449e-01,1.74829e-01,1.08442e-02,2.93298e-01,-2.81483e-01,-1.18363e-01,-1.94035e-01,1.43880e-01,-8.59653e-02,4.29786e-02,-1.29608e-01,2.87755e-01,2.88012e-01,5.36128e-01,8.25844e-03,4.55597e-02,-2.93372e-01,-6.20637e-02,-1.20922e-01,
-1.39389e-01,-3.70121e-01,-3.08443e-01,-1.43631e-01,-1.00128e-01,2.94149e-01,-4.95183e-01,-3.77584e-01,2.89769e-01,4.29098e-01,1.09830e-01,2.65056e-01,-1.57412e-01,-8.52270e-02,-5.01339e-01,-2.68020e-01,7.51186e-02,-1.00459e-01,-2.26040e-01,-4.13689e-02,3.15256e-01,2.16026e-01,1.95255e-01,9.54692e-02,-1.68956e-01,-3.63418e-01,-8.97016e-02,1.18545e-01,1.16788e-02,2.15075e-01,3.67659e-01,-2.73616e-01,-1.18419e-01,3.91171e-01,-5.88633e-01,-1.21965e-01,3.09400e-02,3.15969e-01,2.72242e-01,1.60990e-02,-1.37611e-01,1.72094e-01,-2.40737e-01,-6.16645e-02,2.42938e-01,
-5.08277e-02,-5.56785e-02,9.06917e-03,-1.79346e-01,-1.54407e-02,2.36350e-02,-6.97970e-01,3.71633e-02,-1.67243e-01,-1.38309e-01,-2.17485e-01,3.72305e-01,-5.48379e-02,5.56096e-03,-2.27744e-01,1.68552e-02,-3.04739e-03,-2.48103e-01,3.76357e-03,-2.84918e-01,-4.44497e-01,9.18058e-02,-1.65506e-03,1.29195e-01,-1.51221e-01,-2.72381e-01,-1.63084e-01,-1.40679e-01,2.86644e-01,-1.66540e-01,-1.37919e-02,-2.15057e-01,-4.27721e-02,1.83985e-01,-1.66983e-01,2.08592e-01,-5.71352e-04,8.92537e-02,-1.31952e-02,-8.14777e-01,2.09071e-01,-1.78764e-01,9.45823e-02,-1.91452e-01,-1.31528e-01,
-4.26057e-01,-1.98347e-01,4.33624e-01,-2.08630e-02,-8.92929e-02,4.35071e-02,4.12083e-01,3.42492e-01,2.45609e-01,1.99018e-01,1.11326e-02,-1.79087e-01,2.69151e-01,-2.45975e-01,1.23629e-01,1.90512e-01,-3.93965e-01,5.93162e-02,-3.02711e-01,2.36118e-01,-3.33011e-01,1.57143e-02,8.53288e-02,3.18811e-01,2.96313e-01,5.16806e-02,-6.01422e-02,1.78046e-01,9.38408e-02,-1.90325e-01,-1.69002e-01,6.60845e-02,1.51760e-01,3.89104e-02,2.87306e-01,2.39922e-01,-1.63230e-01,1.78609e-01,-2.11833e-01,-3.97567e-02,9.31245e-02,-1.41086e-01,-1.02845e+00,-3.93270e-01,-3.00980e-02,
-1.19907e-01,1.57707e-01,-6.25260e-02,1.57871e-01,-2.57160e-01,-6.67904e-02,-3.82025e-01,2.28162e-02,-3.35788e-01,-1.82291e-02,1.17056e-01,1.86088e-01,-2.71903e-01,9.10216e-02,-1.43830e-02,5.89502e-02,4.50513e-01,3.52870e-02,-5.30289e-02,4.25212e-01,1.00371e-01,1.37844e-01,-4.03328e-02,-2.96936e-01,1.96769e-02,2.32805e-01,-2.61886e-01,-9.89939e-02,2.72058e-01,2.13899e-02,1.21658e-01,-1.01886e-01,-7.49641e-02,2.15745e-01,4.77810e-02,9.71098e-02,2.31029e-01,1.12458e-01,-3.98018e-01,-6.53796e-02,6.38522e-02,8.80062e-02,-2.23815e-01,2.74752e-01,2.56511e-01,
-1.31419e-01,-1.46176e-01,5.33075e-02,-1.05354e-01,-5.69945e-03,1.72527e-01,2.07434e-01,-4.05420e-02,1.02300e-01,-1.40196e-01,5.49400e-03,2.96905e-01,1.33834e-01,3.57917e-01,4.01408e-01,-2.08973e-01,-4.88692e-01,-9.63987e-02,2.64676e-01,1.77759e-01,-1.11085e-03,-1.36166e-01,1.67757e-01,1.15766e-01,1.80936e-01,-1.18019e-01,8.65371e-02,5.64111e-02,9.66033e-02,-7.78761e-02,-7.74887e-02,3.53541e-02,2.02960e-01,-1.90108e-01,3.45266e-01,-2.58266e-02,7.29353e-02,1.55020e-01,1.15683e-01,-4.02619e-01,-2.40043e-01,2.02530e-02,4.67987e-03,2.07271e-01,1.69690e-01,
3.84392e-01,1.54885e-01,1.14580e-01,1.19652e-01,2.72032e-02,4.19565e-02,3.87552e-01,-1.06899e-01,-5.52745e-01,-4.30831e-01,-1.60970e-01,9.88815e-02,1.86096e-01,-3.64475e-01,4.67718e-01,7.83893e-02,2.42475e-02,1.44359e-01,-8.78570e-02,-8.41442e-02,-5.07347e-01,-2.32581e-01,-1.15101e-01,1.90924e-01,3.10162e-02,-5.10003e-02,-4.53083e-01,8.62704e-03,-1.41559e-01,-5.10405e-01,8.60847e-02,-3.13408e-01,1.19264e-01,-2.74983e-01,-1.01978e-01,-1.79194e-02,3.56907e-01,-8.92118e-02,7.26711e-03,-6.36013e-01,6.80657e-02,8.79049e-03,-2.42440e-02,-1.34393e-01,5.75060e-02,
1.53075e-01,-6.67288e-01,4.52453e-02,2.94664e-01,-1.50697e-02,-1.88936e-01,-6.70567e-01,1.54197e-01,-5.22121e-01,-2.52052e-01,1.35964e-01,2.15594e-02,-2.05517e-01,1.98006e-01,9.98428e-02,-3.66053e-01,-3.76482e-01,-3.76323e-02,-1.33203e-01,-2.34242e-01,-2.21982e-03,1.23767e-01,1.15960e-01,-1.78295e-01,2.64700e-01,-1.40810e-01,-2.69249e-01,-1.71395e-01,2.35218e-01,1.87824e-01,-3.07423e-01,2.14022e-01,1.34787e-01,6.04382e-02,-1.51150e-01,-2.81884e-01,1.97154e-01,1.93732e-01,2.91503e-01,1.34685e-02,2.54834e-01,7.16250e-02,-9.89872e-02,3.45015e-01,-5.05467e-02,
-2.03118e-01,2.08412e-01,-3.87262e-02,7.14024e-02,-1.53570e-01,-1.38863e-01,-1.04371e-01,1.09085e-02,-6.24086e-02,-3.17584e-02,2.01545e-01,-6.86200e-02,-2.04155e-01,-2.22146e-01,-1.95687e-02,-1.41713e-01,2.95006e-02,-2.12888e-01,-7.77920e-02,-7.56808e-02,-2.42261e-01,-1.97853e-01,2.58709e-02,2.33376e-02,-1.96300e-01,-1.98142e-01,1.00074e-01,-2.13270e-01,-1.92220e-01,-2.53246e-01,-5.63244e-02,-1.85274e-01,-2.36217e-01,6.03267e-02,-1.82944e-01,7.32404e-02,-2.31088e-02,-2.35475e-01,4.50470e-02,1.93139e-01,-8.85951e-03,1.31229e-01,1.09071e-01,1.86769e-01,-4.35859e-02,
5.86033e-02,-2.21199e-01,-2.15333e-01,3.27819e-02,-2.38726e-01,6.84761e-02,-5.48029e-02,7.91700e-02,1.89946e-01,-2.16689e-01,-2.45581e-01,-1.15686e-01,-4.66401e-02,-1.60529e-01,4.86631e-02,1.62154e-01,-2.48010e-01,1.88410e-02,-1.90351e-01,2.78804e-02,-8.02869e-02,2.17976e-01,1.67415e-01,-7.23610e-02,-4.85900e-02,-1.65003e-01,-1.88980e-01,2.53438e-01,9.86545e-02,-1.36954e-01,-4.52858e-02,-1.35345e-01,-1.06341e-01,9.31450e-02,-1.95559e-02,8.60128e-02,-2.54098e-01,-7.93845e-02,-7.11707e-02,-2.49284e-01,-1.86035e-01,-7.87485e-03,-1.46701e-01,2.03538e-01,4.05243e-02,
-8.13121e-02,-6.43638e-01,3.36938e-01,-1.59613e-01,-2.40221e-01,-1.24179e-01,-5.04909e-01,2.31978e-01,-5.81971e-02,-3.11842e-01,-1.54432e-01,3.06868e-01,-6.70313e-02,-5.53635e-02,3.75512e-01,1.10320e-01,-9.47451e-02,-1.99615e-01,1.02931e-01,-1.12453e-02,8.46561e-01,-2.70893e-02,-2.25999e-01,3.43654e-01,3.44208e-01,6.22336e-02,-9.31545e-02,6.60579e-02,1.49607e-01,1.10718e-01,-2.31652e-01,-1.61766e-01,-4.79234e-02,1.87631e-01,-9.33444e-02,8.47042e-02,9.60212e-02,1.28530e-03,2.26104e-01,2.98332e-01,-2.84665e-02,-1.48265e-01,-1.36999e-01,1.32081e-01,1.20870e-01,
-2.18877e-01,1.84606e-01,1.45120e-01,1.62787e-01,1.72259e-01,6.26442e-02,4.95854e-01,3.26185e-01,-5.17036e-01,4.16012e-02,4.67451e-02,1.01925e-02,3.68899e-01,1.87291e-02,-2.84955e-02,5.76098e-02,-4.27462e-01,4.04780e-01,-1.32901e-01,1.99449e-01,-6.49287e-01,-4.80008e-01,1.33575e-01,-1.41444e-01,-2.14125e-02,2.24226e-01,6.16323e-02,-1.05563e-01,1.88500e-01,-5.67170e-02,9.18403e-02,-1.02133e-01,4.10753e-03,1.04252e-01,6.14889e-01,8.16324e-02,-9.30333e-02,6.29085e-02,-2.11012e-01,-7.82816e-02,9.19362e-02,-1.51427e-01,6.94546e-02,-1.12615e-03,-1.40523e-01,
-2.23713e-02,-2.79505e-01,-2.38757e-02,-8.32080e-02,1.77291e-01,-2.69771e-01,6.13353e-03,1.88030e-01,-3.47254e-01,-1.06770e-01,4.49349e-02,-1.01680e-01,-8.45370e-02,-2.12504e-01,1.56097e-01,-6.89392e-02,-1.22977e-01,6.64010e-02,2.17953e-01,3.81072e-03,2.99475e-01,-6.20602e-02,1.57952e-01,-8.24132e-02,2.21788e-01,-1.65957e-01,-1.18096e-01,-1.00535e-01,-4.51776e-02,-2.01463e-01,3.22891e-01,1.74001e-01,2.04585e-01,-3.00794e-01,5.05929e-01,-9.23789e-02,-3.61779e-01,-9.97989e-02,7.29466e-02,2.79910e-01,1.03246e-01,4.26808e-01,-1.74837e-01,2.25187e-01,1.73192e-01,
-8.98449e-02,1.17723e-01,1.64285e-01,1.80328e-01,1.06142e-01,1.22729e-01,-2.20737e-01,-4.59208e-02,-4.87099e-01,-5.59425e-02,-7.97437e-02,-2.95635e-01,-1.31066e-02,2.15734e-03,2.23360e-01,-1.20528e-01,3.23854e-01,3.45015e-02,2.15303e-01,3.59956e-01,-3.76504e-01,3.21615e-01,-1.95659e-01,2.01240e-01,-2.74244e-01,1.75324e-01,1.97203e-01,-4.17642e-02,2.11161e-02,-3.82643e-01,1.33173e-02,-1.80802e-01,-1.25072e-01,1.13081e-01,-7.38908e-02,-2.31082e-02,3.71654e-02,1.95506e-01,-1.23386e-01,1.77659e-01,-2.76995e-02,-1.45308e-01,-9.82380e-01,2.05777e-01,-4.58324e-02,
-4.86948e-01,-3.66003e-01,-6.95274e-02,3.02327e-02,2.12591e-02,-9.36923e-02,3.21045e-01,-2.22338e-01,-1.32481e+00,4.92128e-02,1.30572e-01,-1.28956e-01,1.87344e-01,-1.71458e+00,2.83451e-02,7.03364e-02,-4.32445e-01,-5.23723e-02,2.80975e-01,3.38158e-01,-3.86016e-01,4.00885e-01,-1.45284e-01,-1.16105e-01,1.12685e-02,-2.21795e-01,-3.19940e-02,1.70158e-01,-3.88376e-01,-7.70588e-01,2.38565e-02,-4.24621e-01,1.77090e-01,-1.32697e-02,1.18168e-01,2.29424e-01,2.98706e-01,-6.55103e-03,-3.13595e-01,8.93274e-02,-2.30137e-02,-2.59777e-01,-1.35335e+00,3.73849e-01,2.35370e-02,
2.90379e-01,8.53704e-02,5.14193e-02,7.56913e-02,8.45903e-03,7.10039e-02,9.20678e-02,2.29941e-01,8.85267e-02,-1.92192e-01,3.13220e-01,3.22505e-02,-1.71317e-03,-2.11738e-01,-4.22383e-02,-1.55779e-01,-1.16217e-01,2.31446e-01,-4.87221e-02,-2.98892e-01,-3.33648e-01,1.97432e-01,-5.99095e-02,1.28858e-01,-2.98023e-01,-2.36667e-02,-2.60259e-01,-5.84828e-03,-1.98178e-01,1.91341e-02,-8.02839e-03,-6.40375e-02,2.21061e-01,1.24048e-01,-1.74289e-01,1.43748e-01,3.32632e-01,-2.57710e-02,-3.00345e-02,1.68382e-01,-1.69565e-01,-7.25987e-04,4.47096e-02,2.02795e-01,1.19257e-01,
-1.33496e-01,3.16160e-01,1.77601e-01,4.44562e-02,-2.60868e-01,-1.11881e-01,2.57256e-01,5.09046e-02,-3.35529e-01,2.45252e-01,-5.14292e-01,2.41918e-01,4.80987e-01,-1.98895e-01,3.74096e-01,-2.14945e-01,-1.03682e-01,2.90165e-01,-1.66687e-01,1.20040e-01,-9.09459e-01,-1.09475e-01,1.83518e-01,-1.71564e-02,3.23719e-02,-4.03343e-01,-8.38020e-02,-2.78062e-02,-9.12708e-02,2.31333e-01,9.43274e-02,5.97780e-02,3.68377e-01,2.08132e-01,3.09896e-01,-1.30390e-01,3.15315e-01,-2.09731e-01,1.01256e-01,8.42592e-02,-1.62261e-01,-1.47025e-01,2.75384e-01,4.16140e-01,-1.11590e-01,
1.06819e-01,2.09835e-01,-1.05758e-02,3.18692e-01,3.03863e-01,8.79930e-02,3.98889e-01,-9.68723e-02,3.03331e-01,2.39878e-01,2.60417e-01,1.30790e-01,2.91110e-01,1.44237e-01,-6.33204e-01,-1.15413e-01,-5.55364e-01,2.78812e-01,1.93677e-01,6.15443e-02,-7.44184e-01,-1.41973e-01,-1.67626e-01,1.49862e-01,-2.03143e-01,2.11684e-01,8.23211e-02,-3.12672e-04,-1.18454e-01,-1.23365e-01,2.10521e-01,2.72190e-01,-2.14312e-01,1.06297e-01,9.11922e-03,-6.51463e-02,-5.35082e-02,1.36798e-01,-1.98055e-01,1.80924e-01,1.05801e-01,5.16557e-02,3.92126e-02,2.96034e-02,3.70525e-01,
-4.49713e-02,-2.93777e-01,2.58782e-01,5.76633e-02,2.43008e-01,-9.94915e-03,3.84587e-01,-1.61773e-01,-5.50041e-01,-2.28862e-02,-2.55727e-01,5.58257e-02,-5.00322e-01,-1.63162e-01,-8.02220e-03,7.15185e-02,-2.12665e-01,-1.24774e-01,1.64354e-01,6.33542e-02,-2.10095e-01,5.44995e-02,1.31884e-01,7.57559e-03,1.10237e-01,1.10417e-01,5.68134e-02,-1.80418e-01,8.12135e-02,2.72994e-02,3.23857e-02,-5.40780e-03,3.95410e-03,-4.36254e-02,1.05184e-01,1.38300e-01,3.02907e-01,-1.52392e-01,2.90698e-01,3.62041e-01,-1.86691e-01,-9.94670e-03,5.07142e-02,4.03615e-01,-1.86613e-01,
-2.58575e-01,-1.86041e-01,-2.23880e-01,-2.29583e-02,-1.27851e-01,-1.33472e-01,-2.59758e-01,-9.51651e-02,-6.58002e-02,1.45621e-01,-1.51625e-01,-1.46208e-01,-8.25293e-02,-1.72617e-01,1.66232e-01,1.95152e-01,-2.05789e-01,-8.65382e-02,-9.96741e-02,-1.56254e-01,-2.39181e-02,1.97013e-01,9.61002e-02,5.24660e-02,2.32319e-02,-4.33619e-02,-2.03917e-01,5.65329e-02,5.34595e-02,-1.77826e-01,-7.36085e-02,-8.80852e-02,8.44172e-03,1.70084e-01,-2.20779e-01,-1.69346e-01,7.74175e-03,-9.84488e-03,-1.55198e-01,-8.69486e-02,-1.64209e-01,2.51718e-01,1.77733e-03,-9.38290e-02,2.18317e-02,
3.17624e-02,2.40057e-01,-2.60600e-01,1.42223e-01,6.85390e-02,-4.25497e-02,-4.87345e-01,-6.69963e-02,1.80107e-01,-2.79254e-01,9.32657e-02,-8.90614e-02,1.54568e-01,-6.26810e-02,-2.32987e-01,-4.31830e-01,3.16805e-01,1.11555e-01,4.11602e-01,-1.01679e-01,-2.32757e-01,-5.90325e-01,-9.91556e-02,1.39661e-01,-1.29922e-01,3.68059e-03,2.99138e-02,1.30149e-01,9.95172e-02,2.35331e-01,-1.26411e-01,-1.45739e-01,2.41885e-02,2.82014e-02,-3.21675e-01,-6.52195e-02,1.57710e-01,2.18211e-01,-2.03998e-01,2.86155e-01,3.56940e-01,2.50761e-01,9.44955e-02,2.52337e-01,6.89730e-02,
1.32978e-01,8.72661e-02,2.23305e-01,-6.11766e-01,-5.17261e-01,-3.03761e-01,9.79461e-02,2.08236e-02,-4.53719e-01,-2.29389e-01,-1.34480e-01,-3.30878e-02,4.92065e-01,1.13863e-01,-3.29630e-02,-2.00654e+00,-2.14775e-01,1.49637e-01,-1.00667e-01,1.66874e-01,-2.16335e-01,-7.45188e-01,-1.95598e-01,-6.54957e-02,1.30273e-01,1.75156e-01,2.15448e-01,-1.51508e-01,3.50884e-01,-5.95821e-02,1.99304e-01,6.05203e-02,-2.29253e-01,3.05060e-02,4.28805e-02,-4.53398e-01,-3.32151e-04,2.44714e-01,-2.26844e-01,5.34436e-01,-5.29252e-01,2.52624e-01,-1.72215e-02,-1.89958e+00,-5.03855e-01,
-1.16611e-01,-4.30410e-01,-1.47066e-01,-8.30723e-03,-8.04983e-02,4.05040e-02,-1.70351e+00,9.69141e-02,5.86084e-01,5.54057e-02,-1.42326e-02,1.73551e-01,3.45420e-01,5.17897e-02,-1.58909e-01,5.31305e-02,-2.85379e-01,-5.17234e-01,3.80656e-02,-1.02436e-01,7.38740e-02,1.81898e-01,5.38490e-02,-5.66926e-02,-4.57947e-01,-6.66414e-01,-3.07773e-01,2.38043e-01,-2.64542e-01,-4.56674e-02,6.36114e-02,-2.26108e-01,2.22328e-01,2.90518e-01,-1.62000e-01,2.37741e-01,-2.92194e-02,-3.73505e-01,-1.13521e-01,-5.52475e-02,-6.64215e-02,2.55681e-01,8.02624e-03,-2.71672e-01,1.59026e-01,
1.68747e-01,3.61814e-01,-1.31026e-01,1.99925e-01,1.04543e-01,-8.48733e-02,2.90932e-01,1.84755e-01,1.77639e-01,5.29311e-02,2.73924e-01,1.88178e-03,-1.26119e-02,-1.66552e-01,-2.28495e-01,-3.43165e-01,1.15075e-02,1.57786e-01,-8.81468e-02,-4.94663e-02,-5.95591e-01,1.13698e-01,5.84161e-02,1.57409e-01,-2.51335e-01,3.88440e-01,5.60582e-03,-2.49155e-01,2.39161e-01,3.15664e-02,2.72527e-02,-1.33794e-01,-9.72909e-02,2.55527e-01,-3.24608e-02,-3.64619e-02,-2.74840e-01,1.95184e-01,4.88688e-02,7.71172e-01,-2.01393e-01,-1.26582e-01,-1.08463e-01,5.02144e-01,1.37448e-01,
2.99691e-01,-7.14621e-02,-1.47411e-01,-5.33852e-02,-1.64777e-01,-3.43132e-02,-1.48394e-01,1.62169e-01,6.97976e-02,1.58052e-01,-7.97764e-02,-1.80612e-01,-7.14661e-02,-1.52005e-01,-1.17686e-01,4.14226e-02,-4.07970e-02,1.04927e-02,1.22667e-01,-2.66928e-01,1.05785e-01,-5.12837e-02,5.68767e-02,-2.61826e-02,1.04564e-01,2.92939e-02,1.59700e-02,2.18942e-02,9.37850e-03,1.80634e-01,-3.47803e-02,-2.21059e-01,5.91227e-02,-7.92517e-02,2.32145e-01,-1.53501e-01,-1.40313e-01,-1.24652e-01,-4.29131e-02,-2.14429e-01,9.98030e-02,2.13197e-01,-8.43735e-02,-1.58962e-01,-1.71188e-01,
1.36141e-01,-2.80921e-02,1.43898e-01,1.22489e-01,7.85253e-02,2.93275e-01,-5.38900e-02,1.00044e-01,-4.96975e-02,-2.98389e-01,-3.90103e-02,2.67949e-01,3.34421e-01,-6.92078e-02,2.89223e-01,-1.44277e-01,1.89638e-01,-6.42426e-02,2.82492e-01,5.05166e-02,2.35082e-01,3.29512e-01,-2.31188e-01,2.29587e-01,2.10962e-01,-1.99052e-01,4.78513e-02,-4.19079e-02,-2.05515e-02,8.11510e-02,-9.26039e-02,-1.39146e-02,-5.70264e-02,-3.92085e-02,-2.62738e-01,1.71673e-01,1.76373e-01,6.24730e-02,-6.08726e-02,-4.86890e-01,8.26805e-02,-1.25243e-01,-1.71528e-01,-4.37532e-01,1.02048e-01,
-2.28705e-01,-5.62993e-01,2.28135e-01,6.44496e-02,-1.28845e-01,2.24402e-02,-2.90815e+00,9.07245e-03,-1.73162e-01,9.18726e-02,-3.55812e-01,1.27361e-01,-1.31854e-01,-1.42914e-01,2.84962e-01,3.53591e-01,-3.34016e-02,-9.37894e-01,-6.94341e-02,1.49310e-01,1.04590e+00,2.23387e-01,-1.01770e-01,2.15600e-01,1.22528e-01,-1.43641e+00,1.28307e-01,2.22884e-01,-2.76654e-03,1.94584e-01,-3.89841e-01,-2.85632e-01,1.59994e-01,1.60991e-01,3.01287e-01,6.63042e-02,-6.43170e-02,1.48280e-01,-1.99540e-02,-5.93546e-03,-1.52682e-01,-1.30956e-01,-6.92099e-01,1.17263e-01,2.67809e-02,
-4.22821e-02,5.17166e-01,3.41285e-01,1.12334e-02,1.10695e-01,1.06933e-01,8.75000e-02,3.42664e-02,-1.36055e-01,1.66309e-01,9.17829e-02,2.24135e-01,-4.49286e-01,-8.58968e-02,-1.61022e-01,-6.48064e-02,-4.69746e-01,-9.90157e-02,-2.08599e-01,-1.29994e-01,-4.69133e-01,1.82423e-01,9.69688e-03,5.49444e-02,1.51225e-01,4.23651e-01,2.23309e-01,2.10860e-01,2.22234e-01,8.40856e-02,-2.42598e-03,1.47071e-01,-1.45072e-01,-3.56382e-02,-2.51077e-02,-2.62188e-02,1.25331e-01,-1.95822e-01,-1.45776e-01,9.41672e-02,1.42892e-01,-1.41378e-01,-1.02910e-01,3.14360e-01,-1.86015e-03,
-1.05644e+00,-4.20824e-01,4.48103e-02,-3.15135e-01,1.22623e-01,-1.61005e-01,9.47437e-02,-3.48014e-03,-1.32641e-01,-7.27209e-02,-1.77894e-01,-4.65089e-02,-4.68960e-01,-1.85977e-01,5.46381e-02,-1.23910e-01,-2.16717e-01,2.18901e-02,5.96110e-02,3.95658e-01,1.93122e-01,1.57663e-01,-1.59326e-01,1.82612e-01,-2.96413e-01,7.54353e-02,-2.74650e-01,-2.49075e-02,-2.38834e-01,2.54631e-01,-1.89908e-01,-3.64300e-02,5.65020e-02,-8.83443e-01,9.94026e-01,-9.33805e-02,-1.33993e-01,-1.53597e-01,-3.19238e-01,-2.47813e-01,1.37556e-01,-4.12182e-01,2.46818e-01,-1.08474e-01,2.85976e-01,
-1.22766e-01,-1.40430e-02,1.21694e-01,-3.16075e-01,-2.64185e-02,3.12915e-02,-1.09330e+00,9.37979e-02,-1.86775e-01,-5.08453e-01,-6.80407e-01,2.30312e-01,-1.77530e-01,1.19069e-01,1.00799e-01,3.05933e-02,4.81935e-01,-1.36679e+00,1.68599e-01,-2.76865e-02,1.00882e+00,-5.23382e-02,1.41959e-01,-8.78763e-02,-3.24982e-02,-6.43038e-01,-1.12734e-01,2.17485e-01,2.29947e-01,1.00594e-01,-1.30809e-01,8.51178e-02,-1.10788e-02,3.54163e-02,-9.10343e-01,3.62263e-02,3.36666e-01,-9.28801e-02,9.95388e-02,-1.49613e-01,-6.28764e-02,-8.81004e-03,2.51359e-01,1.12561e-01,-2.08407e-02,
3.21791e-01,-2.09985e-01,1.72091e-01,-3.41629e-01,-2.61639e-02,2.08766e-01,-5.02264e-01,-1.46832e-01,1.40714e-01,3.63534e-02,2.14780e-02,2.95804e-01,5.51543e-02,9.74513e-02,2.10310e-01,-3.21843e-01,3.42771e-01,-2.71847e-01,3.17241e-01,-1.36393e-01,2.22109e-01,-2.64217e-01,1.39417e-01,1.89383e-01,2.14728e-01,5.35108e-02,2.00069e-01,8.46975e-02,-4.40777e-02,3.10860e-01,2.22397e-01,-2.15577e-01,1.77439e-01,-3.53918e-01,-1.92031e-01,1.79574e-01,4.16949e-01,1.26944e-01,1.57933e-01,-4.60988e-01,3.41323e-02,1.27319e-02,-1.88727e-01,-1.50549e-01,-2.45672e-02,
7.79742e-03,
-7.21151e-02,
0.00000e+00,
-4.28768e-02,
1.17178e-01,
-1.66168e-02,
-4.75524e-02,
1.21830e-01,
-7.33010e-02,
1.17760e-01,
4.66973e-02,
-1.38734e-01,
-5.94909e-02,
-6.03953e-03,
6.90108e-02,
-2.89286e-02,
1.83178e-01,
-1.03919e-02,
5.90282e-03,
-1.50248e-02,
2.51590e-02,
6.30835e-02,
-3.42312e-02,
-3.39012e-03,
-5.58776e-02,
1.80992e-02,
9.33090e-02,
-1.29476e-01,
-8.50187e-02,
2.80142e-02,
-7.65681e-02,
-3.73213e-03,
1.26777e-02,
-1.81747e-02,
1.02138e-01,
-1.11126e-01,
-3.58373e-02,
-4.55130e-04,
3.57210e-03,
2.12507e-02,
-2.09549e-02,
2.08939e-03,
-4.82838e-01,
-2.27071e-02,
4.99982e-02,
2.99743e-01,2.61112e-01,-1.82171e-01,-3.95891e-02,-5.80100e-02,2.08081e-01,3.12435e-01,-1.67287e-01,2.91738e-02,1.50242e-01,5.57138e-03,-5.34732e-02,1.91561e-03,-1.72975e-01,1.67792e-01,-2.27990e-01,8.53683e-02,-1.97043e-02,2.95177e-01,2.48698e-01,1.36469e-02,-5.95032e-02,1.20198e-01,-1.17140e-01,-8.06740e-03,-5.56110e-03,-2.54201e-02,-2.40059e-01,-1.08181e-01,2.00122e-01,-7.16041e-02,5.74185e-02,1.87985e-01,-1.15671e-01,-1.21820e-01,1.96256e-01,7.45489e-02,7.70432e-02,-5.86564e-02,2.58234e-01,-2.28589e-01,-3.26107e-02,4.45504e-01,-2.55267e-01,2.09171e-01,
2.99566e-02,6.75832e-02,-3.63605e-02,-6.26384e-02,4.41698e-03,6.34538e-02,3.69700e-01,7.71871e-03,4.22254e-01,-1.54509e-01,1.97405e-01,5.13802e-01,1.50068e-01,-2.45069e-01,-2.24359e-01,-3.24414e-03,-6.15581e-01,1.67191e-01,-5.17269e-02,3.45731e-01,-8.53606e-02,-1.64312e-01,-2.26138e-01,-1.81048e-01,4.02591e-01,2.37979e-01,-2.15827e-01,-1.77234e-01,-6.33668e-01,4.80185e-01,-2.66555e-02,1.29831e-01,-6.06927e-01,1.93085e-01,2.02821e-01,1.80653e-01,-1.36990e-01,1.34965e-02,-1.24228e-01,-1.01412e-01,-3.12168e-01,-2.07542e-01,-1.52954e+00,2.93658e-01,-2.08330e-01,
-7.68922e-02,-3.57428e-02,8.27454e-02,1.20550e-01,-3.46531e-01,2.12562e-01,-8.24840e-02,-1.71851e-02,-1.38474e-01,-4.37426e-02,1.37884e-01,7.93223e-02,-1.08618e-01,-1.05739e-01,-2.53414e-01,2.97930e-01,2.40211e-01,-2.73105e-01,-3.40112e-02,2.44563e-01,2.85284e-01,-2.64210e-02,1.43640e-01,-1.09030e-01,-8.56850e-02,-2.10829e-01,1.43730e-01,3.02570e-01,1.90527e-01,1.20565e-02,5.18494e-02,1.51063e-01,-1.05304e-01,-1.69900e-01,2.50576e-01,-2.87627e-01,8.68727e-02,-1.22206e-01,2.71020e-01,7.99028e-02,-1.60406e-01,-1.42750e-01,4.73729e-01,-1.48685e-01,1.04351e-01,
1.30399e-01,1.34492e-01,-2.28866e-02,1.20690e-01,-2.28124e-01,-1.75370e-02,-1.21975e-01,-1.73765e-01,-1.47165e-01,1.50758e-01,-2.49241e-01,1.07172e-02,-5.32365e-02,1.53502e-01,-2.17154e-01,-8.14601e-02,1.05643e-01,-1.22599e-01,-1.20451e-01,2.36083e-01,2.50933e-01,3.55828e-02,-1.15983e-01,-6.48712e-02,-5.46619e-02,-2.27029e-01,-1.30248e-01,-2.25751e-01,7.01520e-03,-2.29586e-01,-2.40204e-01,-1.12556e-01,1.52228e-01,-1.05025e-01,-1.75327e-01,-1.49167e-02,1.99548e-01,-6.58327e-02,2.25591e-01,-2.15013e-01,-6.26927e-02,-2.30708e-01,1.11277e-01,-1.75805e-01,-7.45392e-02,
-9.00680e-02,-1.00824e-01,-1.70295e-01,-1.02757e-01,-1.16652e-02,-1.83438e-01,-1.12538e-01,-6.12134e-02,3.80762e-02,-1.89598e-02,-1.60781e-01,-1.55062e-01,-1.40300e-01,1.29692e-01,-6.65940e-02,-8.59944e-04,-5.54864e-02,-6.70165e-02,-2.49879e-03,-5.41715e-02,-2.39458e-01,6.30697e-02,1.88676e-01,-2.27088e-01,1.89065e-01,-1.57244e-01,-2.48507e-01,1.45541e-01,-1.91010e-01,3.03385e-02,4.42871e-02,6.77368e-02,5.99282e-02,1.07964e-01,-2.40996e-01,-1.49380e-01,-6.16697e-02,-1.36034e-02,-2.31951e-01,-2.95694e-02,-1.30731e-01,6.73487e-02,-6.56100e-03,6.50147e-03,4.40588e-02,
1.78752e-01,1.82826e-01,1.62756e-01,-7.27417e-02,8.37229e-02,-1.03744e-01,1.52707e-01,8.59979e-02,5.09131e-01,8.14593e-02,-1.35650e-02,3.74188e-03,1.16977e-01,-8.47671e-02,-4.48569e-02,2.34038e-01,9.92811e-02,-2.65924e-02,3.74304e-01,8.35643e-02,1.56958e-02,2.20806e-01,-1.16338e-01,-1.27543e-01,1.96615e-02,-1.34206e-01,-8.81090e-02,-1.04573e-01,3.06364e-01,2.07353e-01,6.82424e-02,-1.03167e-01,2.04238e-01,-7.84927e-02,-2.65161e-01,2.50767e-01,-1.57922e-01,-3.84282e-02,-3.90816e-02,1.58374e-01,-8.92935e-02,8.77277e-02,1.31964e+00,-8.35593e-02,-1.15461e-01,
2.03833e-02,3.90454e-02,5.66401e-02,2.55193e-01,2.27066e-01,-1.09959e-02,2.59678e-01,2.86423e-02,-9.40090e-02,-1.69702e-01,7.81874e-02,1.08986e-01,1.79508e-01,-1.86161e-01,3.18604e-01,-3.49347e-02,-1.78679e-01,2.42579e-01,-3.38262e-02,-4.80238e-02,5.07654e-01,-2.68048e-01,-1.68672e-01,-2.03130e-01,-2.33579e-01,-1.23045e-01,-4.04974e-01,-2.01106e-01,-6.81803e-02,-1.77961e-01,-2.19846e-01,5.85116e-02,-2.31049e-01,3.56531e-02,-1.65487e-01,4.24671e-02,1.62831e-01,6.57161e-03,-2.70922e-01,2.14256e-01,-3.40732e-01,-4.21377e-02,1.16625e+00,-8.87746e-02,1.00926e-01,
-8.03229e-02,-2.16574e-01,-2.45436e-01,7.97096e-02,-1.99698e-02,1.32129e-01,7.55704e-03,2.06244e-01,-5.67141e-02,-3.10478e-01,1.67849e-01,-1.03284e-01,-1.23806e-01,1.37584e-01,1.99103e-01,5.05498e-02,2.28462e-01,1.63186e-01,1.23834e-01,-1.86213e-01,-4.17062e-02,1.38181e-01,-5.21911e-03,-1.71043e-01,-8.72111e-03,-6.81695e-01,-1.53727e-02,-4.38564e-02,1.92736e-01,4.10815e-01,-2.03739e-01,8.42660e-02,6.70522e-02,1.88365e-01,-3.64172e-01,-2.58424e-01,3.06057e-02,2.94378e-01,-9.77732e-02,2.75439e-01,-1.15681e-01,2.36009e-01,-2.77161e+00,6.84146e-02,-1.90957e-01,
-6.84014e-01,-1.37069e-01,1.47620e-01,-5.08474e-02,-2.80755e-02,2.48606e-01,1.64546e-01,-5.05198e-01,4.78139e-03,1.76258e-01,-3.77455e-01,1.11652e-02,2.29030e-01,-1.57132e-01,5.76901e-01,-1.08442e-01,-1.13707e-01,-3.96784e-01,3.32729e-01,5.26330e-02,1.40486e-02,-1.37644e-01,-6.79375e-02,1.45264e-01,-2.17384e-01,3.69433e-01,-2.51334e-01,9.14033e-02,-8.52922e-02,2.14830e-01,-1.77406e-01,5.67624e-02,1.13868e-01,-3.34303e-02,-2.76048e-01,-6.96462e-02,-1.76015e-01,-2.59612e-01,3.17332e-01,2.72469e-01,2.98181e-02,1.42527e-01,2.77860e-01,-8.48485e-01,1.77223e-01,
-8.37933e-03,-1.67733e-01,-1.78719e-01,-6.77039e-02,2.18746e-03,6.07654e-02,-2.23076e-01,-3.24310e-02,-1.11805e-01,2.59453e-01,4.10139e-02,-1.66715e-01,2.01340e-01,-2.71423e-02,3.45336e-02,2.30909e-01,-6.60620e-02,6.94379e-02,3.46392e-01,3.60635e-01,3.27160e-01,1.80991e-01,-2.05490e-01,-7.96150e-02,-4.09077e-01,1.93071e-01,-1.16960e-01,-2.22940e-02,1.59818e-01,2.73570e-01,-1.51459e-01,-1.91157e-01,2.82090e-01,7.04722e-02,6.25553e-02,2.63684e-01,-1.37571e-01,3.16302e-01,3.20266e-01,5.37724e-02,-3.93155e-01,9.31209e-02,6.07712e-01,-2.20815e-01,2.31168e-02,
-4.32792e-01,3.58900e-01,-1.51155e-01,-1.87309e-01,3.32228e-01,-3.10183e-02,1.50407e-01,-8.61704e-02,7.20909e-01,2.78429e-01,7.90352e-03,-3.34675e-02,-2.52706e-02,-2.49239e-01,-5.36525e-02,-4.54812e-01,5.05980e-01,-1.29274e-01,1.48855e-04,2.18325e-01,8.94037e-02,-1.67025e-02,-2.33723e-01,-2.41156e-01,-1.24148e-01,-7.85541e-02,-3.75268e-01,5.65155e-02,6.34346e-02,-1.27493e-01,-2.15856e-02,-3.50169e-01,-2.24817e-01,8.69677e-02,-2.03574e-01,-1.08895e-01,1.57361e-01,-2.96616e-01,8.28950e-02,1.53970e-01,-5.69113e-01,1.42478e-01,-1.08389e+00,-5.30075e-01,1.16385e-01,
8.03602e-02,-3.83335e-01,-5.99070e-02,-3.24698e-01,-4.83729e-02,2.03681e-01,3.99039e-01,2.01671e-01,-1.04940e-01,1.83071e-01,-2.20436e-01,1.63061e-01,-1.38936e-01,-1.93339e-01,1.35252e-01,-4.76604e-02,-1.58417e-01,-2.27634e-01,4.30915e-03,-4.75863e-02,2.50825e-01,2.89793e-01,3.25034e-02,-2.29638e-01,-4.58655e-03,-4.94105e-01,1.03076e-01,-1.05550e-01,3.57183e-02,-7.80368e-03,6.25084e-01,1.26173e-01,-2.45602e-01,6.64374e-02,-7.62523e-02,-9.66015e-01,-4.04527e-01,6.63200e-03,-1.08390e-01,-3.56760e-02,-9.89991e-01,1.89156e-01,-7.04606e-01,-9.95159e-01,3.45941e-02,
-1.09296e-01,1.42985e-01,5.49638e-02,-2.88149e-01,4.02043e-02,-2.26984e-02,-4.74416e-02,3.82581e-03,4.84975e-01,1.65646e-01,3.42256e-01,-2.06412e-01,-6.66117e-02,-7.06954e-02,1.39864e-02,-7.56617e-02,-3.90780e-03,6.40143e-02,-1.20183e-01,1.51489e-01,7.69426e-02,3.93158e-01,1.46237e-03,2.25177e-01,4.47318e-01,-3.30349e-01,2.76648e-02,4.84987e-01,-2.11244e-01,-1.60075e-01,-8.30051e-02,-2.35670e-01,1.16471e-01,-2.31997e-01,-5.41365e-02,-9.64004e-02,-2.32049e-01,-2.47213e-01,-1.63245e-01,-1.29253e-01,-2.59374e-01,1.30663e-01,1.14770e-01,2.76694e-01,1.60034e-01,
-8.88214e-02,1.63546e-01,-2.39974e-01,-2.72246e-01,1.61703e-01,1.39698e-01,1.56491e-01,-4.04973e-02,3.68760e-01,2.98633e-01,2.89653e-01,3.99832e-01,1.60419e-02,-1.20771e-01,1.36714e-01,5.61511e-02,-1.16647e-01,-9.07764e-01,7.07164e-02,-9.45232e-05,2.73629e-01,6.87294e-02,-5.25383e-03,1.09296e-01,-3.32948e-01,2.88024e-01,-1.42230e-01,-7.53279e-01,-1.19941e+00,-1.06221e-01,8.83229e-02,8.81272e-02,-1.41489e-01,-1.92474e-01,2.33477e-01,-2.51406e-02,-2.32603e-01,1.00800e-01,-2.43752e-01,-2.54182e-01,-6.18777e-01,1.66389e-01,-1.11520e+00,4.00733e-03,8.09758e-02,
1.10082e-01,-7.08045e-02,1.13373e-01,1.94094e-01,-2.02150e-01,-2.60721e-01,-1.67250e-01,-2.78795e-01,-9.50504e-02,1.76072e-01,-2.81308e-01,7.17774e-02,1.12975e-01,2.02244e-01,-8.10988e-02,-1.15928e-01,-1.65777e-02,2.13185e-01,-1.61367e-01,-4.66705e-02,-7.75639e-02,1.19818e-01,-5.20255e-02,5.25860e-02,-8.99131e-03,-1.58818e-01,-1.47495e-02,-2.65464e-02,-7.78259e-02,-1.53464e-01,1.90192e-01,-5.21286e-02,-6.32675e-02,-2.24470e-01,-1.30542e-01,-1.12276e-01,1.15013e-01,-2.37667e-01,1.55201e-01,-4.90522e-02,1.14156e-01,-1.54554e-01,-1.28250e-01,5.93164e-02,-3.53123e-02,
-6.26007e-02,-1.95746e-01,-1.06301e-01,1.66507e-01,1.27610e-02,2.39627e-01,5.78690e-02,-3.31131e-01,-8.84362e-02,4.54106e-02,-3.49770e-01,-3.51194e-01,1.30409e-01,-8.31626e-02,3.75045e-01,-1.13964e-01,6.01184e-02,-5.03650e-02,2.90780e-01,2.18899e-01,-1.99491e-01,-6.01175e-02,1.42964e-01,2.46622e-01,-2.28704e-01,4.97640e-02,-9.68299e-02,-3.72907e-01,-1.84525e-01,-1.97398e-01,4.95139e-01,2.66648e-02,1.28305e-02,1.68744e-01,-2.58836e-01,2.60135e-01,-6.13670e-02,-9.39075e-02,1.75052e-01,9.20175e-02,-1.48042e-01,1.54508e-01,9.66687e-01,-4.85386e-01,1.83259e-01,
3.47695e-01,-1.09150e-01,2.27497e-02,-9.71102e-02,-1.58568e-02,1.33523e-01,-6.68034e-03,1.45440e-01,-1.49392e-01,-9.44604e-02,2.72554e-02,2.03069e-01,-1.53965e-01,-2.51118e-01,-2.13060e-01,-1.01871e-01,-3.45130e-02,-1.25376e-01,2.96500e-02,-2.13519e-02,-1.55794e-01,-1.39769e-01,2.47453e-01,7.45560e-02,-1.12924e-01,2.18309e-01,1.58714e-01,3.00651e-01,-3.93661e-01,-1.41533e-01,7.35337e-02,-6.57782e-02,-6.98298e-02,8.05957e-02,4.72434e-02,-1.92193e-02,4.08762e-02,-4.43078e-02,-6.82425e-04,1.76232e-01,-1.21285e-01,-3.07027e-02,1.05334e+00,-1.16618e-01,2.05302e-01,
1.39406e-01,5.04116e-01,1.12549e-01,-2.87908e-01,-3.65872e-01,1.35791e-01,1.97543e-03,-1.48465e-01,-4.14684e-02,1.36197e-01,2.32591e-01,4.36495e-01,2.13694e-02,3.99669e-02,-1.25216e-01,1.02020e-02,3.85140e-02,1.14803e-02,5.65210e-02,-2.00145e-01,-1.84508e-02,3.66527e-02,1.25240e-01,-2.23129e-01,1.45785e-01,2.84940e-01,5.03702e-02,-5.92331e-02,5.87054e-01,-1.35125e-01,-1.90933e-01,6.76584e-02,-2.18025e-02,-1.37232e-01,1.93063e-01,-1.78313e+00,-7.72038e-02,9.78529e-02,-2.35472e-01,1.69256e-01,6.35063e-02,-1.05406e-02,-4.59287e-01,2.20915e-02,2.00995e-01,
1.72163e-02,-7.95432e-02,2.00505e-01,1.70375e-01,1.57397e-01,-1.47315e-01,-2.01384e-02,9.43976e-02,-7.43731e-01,5.82247e-02,-9.49440e-02,-1.30128e-01,-1.19521e-01,-1.48347e-01,3.72318e-02,-4.14998e-01,-1.97836e-01,-6.67593e-01,-1.70262e-01,-3.44747e-02,-3.92067e-01,6.24471e-02,-6.92377e-02,8.10245e-02,-5.21853e-01,1.06604e-01,-1.30206e-01,-1.61217e+00,-1.72091e+00,1.30597e-01,2.15364e-01,2.55949e-01,-1.04427e-01,6.38137e-02,6.07725e-02,4.02138e-01,-7.38807e-02,2.20044e-01,2.09405e-01,-1.89696e-02,-3.59381e-01,7.48923e-02,-1.14372e+00,1.76838e-01,8.25235e-02,
1.31916e-02,-3.22486e-01,-1.64367e-01,1.35520e-01,-2.37506e-01,-2.10429e-01,-6.78565e-03,2.99102e-03,1.73359e-01,-2.63535e-03,1.68043e-01,1.11260e-01,1.06531e-01,-2.27752e-01,-2.54284e-01,1.77403e-01,-1.47337e-01,9.92022e-03,3.08353e-01,2.36760e-01,1.73484e-01,-1.39082e-01,-7.10170e-02,-2.22454e-01,1.07261e-01,5.16848e-02,6.83234e-02,-2.03913e-01,2.71546e-01,-4.16443e-02,4.03913e-01,-9.44551e-03,1.89708e-01,2.41970e-01,-1.62952e-01,-2.47003e-03,-4.64383e-02,1.99446e-01,-3.47921e-02,9.08713e-02,2.21142e-03,2.89817e-01,1.80789e+00,3.40791e-01,-1.38546e-01,
-2.66189e-02,-7.19322e-01,9.80186e-03,-3.09133e-01,2.74054e-01,1.48731e-01,1.46571e-01,3.84574e-01,-3.58050e-01,-1.30269e-01,-2.22725e-01,-5.22381e-01,2.40055e-01,-1.73565e-01,2.43744e-01,3.93062e-02,-1.21322e-02,3.73204e-01,7.45740e-03,-2.34102e-01,3.22032e-01,-3.52551e-02,-9.02824e-02,1.02602e-01,-4.78857e-01,1.73455e-01,-1.95384e-01,-1.52222e-01,-1.81090e-01,-7.23547e-03,-7.66376e-02,9.33319e-02,6.82845e-02,-2.22031e-01,-1.62984e-01,3.68378e-01,2.39725e-02,-1.46907e-01,-2.14646e-02,-1.67172e-01,3.22545e-02,-4.75370e-02,-2.57069e+00,-9.53253e-02,2.60813e-01,
4.16649e-01,-3.54001e-01,-1.84543e-01,-7.90256e-02,-6.94898e-01,1.08085e-01,3.40354e-01,1.33201e-01,6.25503e-01,4.66025e-02,-4.36956e-01,1.28956e-01,1.55269e-01,1.17375e-01,-4.16010e-01,4.31620e-01,-5.08272e-01,-4.54554e-01,-1.61778e-01,-1.11264e-01,-2.94725e-01,-3.14879e-01,-2.34611e-01,2.15651e-01,-6.15331e-01,2.79503e-01,-8.92823e-02,3.54981e-01,-1.73081e-01,2.10016e-01,5.21119e-01,2.74310e-01,-1.49419e-01,-1.17419e-01,-2.48973e-01,2.88945e-02,2.12485e-01,1.07021e-01,1.63310e-01,-2.15160e-01,-7.68237e-01,3.27735e-01,-6.98267e-01,2.40857e-01,-2.89382e-01,
1.69920e-01,-2.04671e-01,1.82224e-01,-1.69244e-01,1.15433e-01,-1.24400e-01,1.58075e-01,-1.93763e-01,-4.84048e-01,3.30621e-01,-1.45909e-01,1.34459e-01,1.93286e-01,-5.71651e-02,3.17544e-01,2.76556e-01,2.81886e-01,-5.17850e-02,-1.08843e-01,2.50608e-01,-1.64583e-01,-2.01623e-01,1.68902e-01,-5.29341e-02,-3.83515e-01,1.64893e-01,-2.68874e-01,-1.92788e-01,1.99074e-01,2.00196e-01,-6.76854e-01,1.66688e-01,-6.84931e-02,4.57000e-02,-1.47651e-01,-6.54364e-02,-2.31782e-01,-4.84309e-02,-6.66537e-02,1.96580e-01,-3.20589e-01,1.73749e-01,1.61763e+00,-1.67939e-01,1.22992e-01,
3.04839e-01,1.39711e-02,1.56338e-01,-6.00965e-02,2.50113e-02,2.56157e-02,2.98747e-02,-3.06769e-01,-2.71437e-02,2.45565e-01,-5.27242e-02,-4.90688e-02,-6.71694e-02,2.49309e-01,2.43570e-01,5.20155e-01,2.37699e-01,-1.07999e-02,1.40066e-02,4.06845e-02,-9.49165e-03,-2.37895e-01,2.44680e-01,-4.89143e-02,-3.72535e-01,1.59713e-01,-3.66576e-01,-9.93648e-02,9.99980e-02,2.59722e-01,-8.49868e-01,2.29558e-01,-1.57398e-01,1.14236e-02,-1.66832e-01,-1.24513e-01,-3.95630e-01,-6.90654e-02,-1.14579e-01,1.07590e-01,-6.15506e-01,3.07905e-01,4.95251e-01,-5.38001e-01,2.56931e-01,
1.22954e-01,-1.98833e-01,-2.07540e-01,1.78697e-01,-1.89968e-02,-1.31543e-01,1.79311e-01,-1.50055e-01,-3.09621e-01,-2.18793e-01,-7.85891e-02,-1.30121e-01,-1.29733e-01,1.70940e-01,-1.34257e-01,1.64987e-01,1.28111e-01,-1.10114e+00,1.03283e-01,-1.54052e-01,-2.43282e-01,1.00230e-01,-2.39993e-01,-1.26706e-01,-1.19153e-01,1.16679e-01,-1.18950e-01,-7.40166e-01,-5.94745e-01,2.04696e-01,-2.41543e-01,-1.58987e-01,1.12389e-01,-6.96680e-02,-3.32687e-02,2.58004e-01,4.69768e-01,3.22312e-01,-6.47163e-02,1.78486e-01,-6.76552e-01,1.04621e-03,-7.81550e-01,2.21780e-01,-1.03887e-01,
-1.47314e-01,-9.00328e-02,-1.21143e-01,-1.42778e-01,9.51028e-02,-1.29481e-01,1.74616e-01,-2.60848e-01,1.69025e-01,-5.96523e-02,3.75563e-02,-2.68464e-01,7.79611e-02,-1.68767e-01,-2.18996e-01,-7.02421e-02,-3.11857e-01,-3.15969e-01,6.53291e-02,3.68271e-02,-1.95420e-01,-3.39256e-03,-1.84629e-01,-8.94207e-02,4.07912e-01,2.85408e-01,2.33910e-01,9.28381e-02,-2.35520e-02,-2.37651e-01,3.38817e-01,-3.63909e-03,1.67540e-01,2.60427e-01,3.00379e-01,6.87610e-02,-1.32289e-01,2.35686e-01,1.99052e-01,6.90938e-02,1.34024e-01,-2.66497e-01,9.55098e-01,3.08174e-01,-7.17435e-02,
3.78672e-02,-1.47754e-01,1.39634e-01,2.54338e-01,-9.35380e-02,-1.93010e-02,-7.47033e-02,-8.31646e-02,1.98253e-01,2.24122e-01,6.06525e-02,-3.73506e-03,-1.53108e-01,-6.00049e-02,2.03339e-02,1.33044e-02,-3.92167e-01,-1.04070e-01,1.06174e-01,2.40355e-01,7.34494e-02,-1.72527e-01,-1.91571e-01,-9.13900e-02,-6.55842e-02,-4.36128e-02,-7.47062e-02,-2.51364e-01,8.49395e-02,2.48306e-01,2.71530e-01,1.65915e-01,1.23519e-01,-2.05005e-01,-3.84451e-02,4.65503e-01,-1.70616e-01,2.85573e-01,6.10519e-02,-1.84857e-01,3.52000e-01,3.46938e-01,1.51157e-01,-4.90672e-02,1.42421e-01,
-6.68382e-02,2.18682e-01,-3.08149e-02,-1.42384e-01,1.52588e-01,-1.65865e-01,1.81473e-01,4.49679e-02,-5.57804e-02,2.01467e-01,2.76993e-01,-4.47883e-01,-1.92278e-01,-1.18947e-01,2.28051e-01,-5.02915e-02,3.98281e-01,-1.74462e-01,7.49790e-03,1.65281e-02,3.22214e-01,-1.43583e-01,4.19568e-02,-3.35866e-02,-1.79129e-01,-1.99910e-01,2.43350e-01,-1.10685e-01,2.37970e-01,-6.58257e-02,-2.92139e-01,-1.44365e-01,-1.66820e-01,5.15481e-02,-2.17444e-02,-2.94324e+00,-6.77097e-02,6.65753e-02,1.58826e-01,1.46210e-01,1.78823e-01,-2.68306e-01,-1.91625e+00,7.09613e-02,-1.12287e-01,
-2.99752e-03,5.57094e-02,2.01549e-01,-7.23945e-02,-3.12198e-01,1.73293e-01,4.01818e-02,-9.96594e-02,-1.09724e-01,-2.90184e-01,2.49933e-01,1.05004e-01,1.05512e-01,-1.65708e-01,-1.52174e-02,8.80103e-02,4.55296e-01,9.51652e-02,3.11642e-01,4.97004e-02,5.33361e-02,-1.17325e-01,1.85250e-01,5.54517e-02,-1.30218e-02,-2.17755e-01,-9.40491e-02,1.87216e-01,8.89915e-01,2.35957e-01,-2.42684e-01,1.12597e-01,5.12469e-02,4.18137e-02,1.19896e-02,-1.15085e-01,3.24928e-01,1.13062e-01,-3.40629e-02,-1.89011e-02,7.26404e-02,-1.54461e-01,-1.79386e+00,-2.22415e-01,-1.25760e-01,
-2.17183e-01,-1.19453e-01,-7.78148e-02,2.00907e-01,-1.61386e-01,-1.62569e-01,4.81547e-02,-1.77609e-01,-4.67348e-01,1.01583e-01,2.35343e-01,1.30338e-01,-6.59334e-04,1.96351e-01,-2.19505e-01,1.71690e-01,-5.43859e-02,3.99948e-01,2.48655e-02,7.75755e-02,1.22731e-01,-7.01511e-02,1.83397e-01,-5.75245e-02,5.53893e-01,-1.12507e-01,-3.71116e-02,2.54455e-01,-2.61719e-01,-2.12675e-01,-1.93744e-01,-2.17122e-01,-1.46112e-01,1.36913e-01,1.10980e-01,5.05507e-01,2.03594e-01,3.92054e-01,-9.44183e-02,-2.80230e-02,-5.01935e-01,-5.20951e-02,-4.26295e-01,-1.30704e-01,2.75452e-01,
-2.10154e-01,1.51125e-01,4.40605e-02,-9.28406e-02,1.85069e-01,-4.94381e-01,4.60938e-02,4.08782e-01,1.34855e-01,2.31910e-01,-5.07349e-02,1.18046e-01,-1.75164e-01,3.77966e-02,-6.06534e-02,-1.18377e-02,-3.83046e-01,-5.72734e-01,1.21595e-01,1.58628e-01,4.87784e-01,2.21517e-01,2.32430e-01,-2.12104e-01,-1.23663e-01,-1.82482e-01,-2.92319e-02,-3.50404e-01,-2.27693e-01,-4.16451e-01,-3.86416e-01,-1.69304e-01,-5.71875e-01,-1.87963e-01,-6.78966e-02,2.03572e-01,5.13466e-01,2.73110e-01,1.46094e-01,-2.34872e-02,-7.65670e-01,2.31360e-01,-1.10494e+00,3.04609e-01,-3.20182e-01,
-4.60552e-02,-1.98167e-01,-8.90648e-02,8.90955e-02,-1.15884e-01,1.63295e-01,-2.61189e-01,-7.41283e-02,-2.63009e-02,-3.04823e-01,6.38085e-02,-4.07777e-02,-1.14032e-01,2.33666e-01,1.31189e-02,-2.42081e-02,-4.94842e-02,-9.87140e-02,2.46611e-03,3.06850e-02,-4.67207e-02,-1.49977e-02,-2.23837e-01,-3.50899e-02,1.45487e-01,-2.78543e-01,1.10584e-01,-1.78345e-01,3.53426e-01,1.30190e-01,2.90624e-01,1.48500e-01,6.27348e-02,-5.75969e-02,4.13926e-02,3.56276e-01,-1.67003e-01,2.04240e-01,-2.96113e-01,1.65915e-01,-2.31568e-01,-4.79524e-02,1.49449e+00,8.88409e-02,-8.03376e-02,
-2.25669e-01,-3.54688e-01,4.01594e-02,8.68356e-02,-2.63537e-01,2.01622e-01,4.15992e-02,4.79771e-02,7.17448e-02,-3.96993e-01,1.39514e-01,1.73721e-01,-1.53565e-01,1.88935e-01,-1.62604e-01,1.59629e-01,-1.94560e-02,-7.32929e-02,-7.84230e-02,-1.22707e-02,4.85616e-01,3.30512e-01,2.01753e-01,1.84625e-01,2.09486e-01,5.00533e-02,1.41768e-01,8.71778e-02,-1.03272e-01,-4.83642e-02,2.31934e-01,-3.01529e-01,1.31278e-01,1.48392e-02,1.55652e-01,2.45127e-02,-2.68743e-02,-7.39805e-02,6.44284e-02,-1.77007e-01,-2.52820e-02,-8.92745e-02,-5.06238e-01,-8.92771e-02,-1.17347e-01,
