// Neural Network File Format by Kyle Julian, Stanford 2016
7,4,9,45,
4,45,45,45,45,45,45,9,
0,
-8000.0,-100.0,-100.0,0.0,
8000.0,100.0,100.0,40.0,
0.0,0.0,0.0,20.0,-0.4325993796315559,
16000.0,200.0,200.0,40.0,3.102300000999995,
4.25380e-01,-9.54310e-01,1.23786e-04,8.30067e-03,
1.32910e+00,7.94140e-02,3.97061e-01,1.75427e-01,
-2.25440e-01,1.02382e-01,-1.39325e-01,1.08679e-02,
1.76425e-01,-7.68237e-01,-4.70832e-03,-6.49638e-04,
3.50617e+00,-6.55282e-03,-1.28766e-02,1.61141e-02,
-9.03351e-01,-1.39002e-02,-1.08947e-01,-4.93195e-01,
2.36141e+00,-2.10042e-01,1.89405e-01,-7.47561e-02,
2.51228e-02,1.74145e-01,-1.66676e-01,5.40467e-01,
2.11368e-01,-1.14473e-01,2.39522e-01,-1.11766e-02,
5.42683e-02,-1.13241e-01,-1.59031e-01,2.65357e-01,
-5.72615e-01,2.06525e-01,1.78736e-01,-3.93787e-01,
-3.74834e-02,3.44080e-01,-8.28830e-02,2.98083e-01,
-3.47483e+00,-2.41465e-02,9.70428e-02,3.26456e-02,
-2.07083e+00,1.54619e-01,-1.87943e-01,1.25674e-01,
-1.64505e+00,-6.81612e-02,9.72110e-02,-3.87206e-01,
-1.10526e-02,-1.54551e-01,-8.82982e-02,-2.20067e-01,
-1.17255e+00,-8.92807e-02,-7.63473e-02,1.42206e-01,
-7.60454e-01,-9.97882e-02,1.11298e-01,-5.08674e-01,
-2.19731e-01,-3.11921e-01,1.87204e-01,3.33840e-01,
-2.76477e+00,8.94395e-02,-6.78980e-02,7.16510e-02,
-8.40851e-01,1.17777e-01,-1.13341e-01,3.14493e-01,
3.28843e+00,5.41111e-02,-7.23701e-02,4.49873e-02,
-6.85098e-01,-1.73445e-01,4.77192e-01,-2.33634e-02,
9.15643e-02,8.12175e-02,1.17487e-03,-3.31889e-03,
-3.22666e-01,-2.67576e-01,2.25236e-01,3.87498e-01,
5.77927e-01,3.19282e-01,-3.93830e-01,1.23432e-01,
1.17928e+00,-5.78196e-01,-1.03125e-01,1.51039e-02,
1.61796e+00,5.42024e-02,1.65736e-01,-5.38283e-02,
1.77738e+00,-2.15010e-01,1.81184e-01,-1.32497e-02,
-1.73449e-02,-1.04285e-01,1.20357e-01,3.02603e-01,
-1.83270e-02,4.30920e-01,2.87960e-01,5.50454e-02,
-1.46774e-01,-4.39191e-01,4.46651e-01,1.62406e-01,
5.38596e-01,1.89197e-01,-2.41212e-01,3.65544e-01,
3.81640e-01,-4.76221e-02,-1.16032e-02,-7.72209e-01,
1.17670e+00,2.81430e-01,-2.55602e-01,-8.01613e-02,
1.21442e+00,-2.39827e-02,2.27928e-01,-7.46603e-03,
-8.78064e-01,5.29623e-01,6.07985e-02,-1.25539e-02,
2.63042e-01,9.32717e-02,9.51916e-02,-3.91451e-01,
9.73324e-01,1.98475e-01,8.81727e-02,8.41639e-02,
-5.14089e-01,4.92592e-02,9.80697e-02,2.26421e-01,
1.77636e+00,-1.84310e-01,2.24507e-01,2.89193e-01,
1.58582e+00,2.59539e-01,-2.32835e-01,-3.03085e-01,
-5.01694e-01,-6.71372e-01,-2.92624e-02,-3.24353e-02,
2.95495e-01,7.78915e-01,2.66245e-03,-4.82356e-03,
4.81364e-02,5.13572e-01,-3.99533e-01,1.83580e-02,
-9.92095e-02,
-5.36033e-02,
3.48984e-02,
1.01980e-01,
1.65299e-02,
-1.02164e-01,
3.05595e-02,
2.09856e-01,
-3.91160e-03,
-2.37010e-02,
-7.79205e-02,
-1.48188e-02,
1.29229e-01,
8.39271e-02,
-1.01807e-01,
1.75927e-02,
7.05471e-02,
-2.45154e-01,
3.18255e-02,
1.19618e-01,
1.52326e-01,
1.54700e-01,
5.96732e-02,
-4.85956e-02,
1.00142e-01,
1.32825e-03,
7.55721e-02,
1.50693e-02,
4.78602e-02,
1.33360e-01,
-5.66653e-02,
7.04904e-02,
1.46614e-01,
-1.52191e-01,
-2.61510e-02,
1.46113e-02,
-3.30199e-02,
-1.05866e-01,
6.52122e-02,
6.77065e-02,
1.69224e-01,
-2.75356e-02,
-3.96559e-02,
-9.49774e-02,
-4.03251e-02,
-2.39421e-01,-2.60828e-01,-7.25056e-03,2.75696e-01,-8.98394e-02,3.61920e-03,4.02335e-01,2.74540e-01,-2.63839e-01,-1.91216e-01,7.10709e-02,1.96808e-01,-4.66001e-01,-1.04031e-01,-1.59726e-01,2.40626e-01,-2.58293e-01,1.04711e+00,-1.67906e-01,-3.88274e-01,-1.22327e-01,2.65272e-01,2.84827e-01,1.12609e-01,-2.20975e-01,-7.39963e-01,-2.24362e-01,-1.51194e-01,-6.94552e-02,-1.85335e-01,3.69733e-01,4.45278e-01,1.65816e-01,1.43330e-01,-2.18693e-01,-1.18261e-01,-4.39098e-04,7.21884e-02,4.72658e-02,3.74492e-01,-4.21038e-02,2.35872e-01,-7.79332e-02,-2.60483e-01,9.24245e-02,
-1.73877e+00,-1.70973e-01,9.21889e-02,1.84551e-01,3.75343e-03,5.56547e-02,-2.11034e-01,2.78997e-02,2.96342e-01,1.84464e-02,-5.50140e-02,-3.33360e-01,-1.97467e-01,-1.72612e-01,-7.29024e-02,-6.33963e-02,-3.67246e-02,-6.92071e-01,-3.15402e-02,-1.54490e-01,-6.37783e-02,7.44441e-02,3.00511e-01,1.46701e-01,-7.24775e-02,4.29376e-02,8.26908e-02,9.13620e-02,-1.52757e-02,1.10350e-01,3.78454e-01,-1.04220e-01,2.34266e-01,-8.79964e-02,7.56612e-02,2.49592e-01,-3.91539e-01,-7.64085e-02,2.12136e-01,-6.52684e-02,-1.36128e-01,3.31932e-01,-5.17621e-01,-3.82031e-01,4.14241e-02,
7.79042e-02,5.38112e-01,-6.28111e-01,1.79145e-01,-5.66242e-01,-6.76510e-01,4.75801e-01,-3.16786e-01,2.86848e-01,6.35309e-02,-6.09942e-02,-4.05140e-02,2.78701e-01,-4.19698e-01,-7.50194e-01,5.48130e-02,2.70206e-01,-1.49209e+00,5.39563e-01,9.77272e-02,-3.56098e-01,1.25599e-01,1.14250e-01,-3.69839e-01,4.43916e-01,-4.55725e-01,6.72412e-02,2.91733e-02,3.43800e-01,1.20595e-01,-1.98840e-01,2.50510e-01,-6.52955e-01,-9.87182e-02,-8.13951e-01,2.28145e-01,-1.92082e-01,-1.66286e-01,-8.75106e-02,1.20748e-01,2.61626e-01,5.09640e-02,-1.42237e-01,1.16856e-02,2.52801e+00,
-9.49082e-02,6.56747e-02,1.59941e-01,-2.05123e-01,1.30258e-01,-1.05957e-01,1.62219e-01,-2.65603e-01,-2.42513e-01,-1.48101e-01,-2.07329e-01,-3.60377e-01,1.31664e-01,1.80412e-01,-6.50393e-01,-1.55410e-01,9.29223e-02,-6.98036e-02,1.85926e-01,1.24925e-01,2.26736e-01,-1.90292e-02,1.24147e-01,-7.88889e-02,3.17020e-01,-1.48609e-01,2.03629e-02,-3.07946e-01,-1.50612e-01,7.83411e-02,-2.95582e-01,3.79101e-01,-7.38968e-02,-4.80571e-02,5.89528e-02,-1.45188e-01,-1.31267e-01,7.15610e-03,-5.27459e-02,-4.17597e-01,1.94696e-01,1.15012e-01,-4.13726e-01,2.01182e-01,-3.43909e-01,
1.15901e-02,1.34328e-01,-6.22488e-02,-1.50418e-01,-7.24336e-02,3.73982e-01,-8.03683e-02,1.00751e-01,2.94666e-01,2.49955e-01,2.10400e-02,3.84372e-01,3.96428e-03,3.28018e-01,4.82487e-01,2.95290e-01,-5.24377e-01,8.33508e-01,-1.43820e-01,2.02544e-01,2.88299e-01,-3.23825e-01,2.21150e-01,1.41513e-01,9.35869e-02,2.41924e-01,-1.31606e-01,2.46327e-01,-1.17766e-01,-2.66032e-01,-2.50289e-02,-2.77124e-01,-1.31549e-01,4.88468e-01,6.61206e-02,6.79738e-02,4.82837e-02,3.27531e-01,-5.10691e-02,3.74963e-01,-2.91820e-01,2.07753e-01,-2.55250e-01,3.58022e-01,4.63639e-01,
-1.84224e-01,-8.25885e-02,-1.86780e-01,2.30140e-01,-3.68314e-01,2.05986e-01,1.75678e-01,-3.89488e-02,6.30076e-02,-1.10067e-01,-2.38912e-01,4.83488e-01,1.15948e-01,-1.85718e-01,2.46040e-01,2.68832e-01,2.76140e-01,3.71872e-01,8.64560e-02,3.95672e-01,4.68639e-02,-5.18344e-01,3.39513e-01,-2.65996e-01,2.70908e-01,-4.13877e-01,-3.55547e-01,1.55456e-01,-5.48413e-02,1.27034e-01,-1.91127e-01,3.77670e-01,-3.35612e-01,2.54354e-01,4.10066e-01,2.50030e-01,-4.68251e-01,2.98796e-01,-3.39983e-01,-1.02335e-01,-1.82280e-01,1.34966e-01,3.79795e-01,2.75933e-01,2.71263e-02,
-4.64832e-02,2.46183e-01,4.43705e-01,-3.50438e-02,1.18710e-01,3.80721e-01,-2.08219e-01,-1.88457e-01,-1.40078e-01,-1.51849e-01,1.20866e-01,3.60435e-01,5.12179e-02,-2.90476e-01,-1.15631e-01,1.28106e-01,9.40794e-02,4.16448e-01,3.48498e-03,4.14584e-02,-1.09322e-01,-5.15837e-03,-3.90140e-02,9.29745e-02,1.57436e-01,-1.44779e-01,3.28233e-01,-1.62734e-01,-2.07506e-01,9.61450e-02,2.79969e-01,-3.01099e-01,-5.12236e-02,1.50013e-01,7.54084e-02,-1.40387e-01,1.27004e-01,-1.73893e-01,1.54132e-02,4.18818e-01,1.26177e-01,4.94776e-02,2.03085e-01,1.57572e-01,-5.93448e-01,
-1.49245e-01,-9.41408e-02,4.22988e-01,3.18238e-01,2.52229e-01,-2.25645e-01,-5.72096e-02,-2.00211e-01,6.53676e-02,8.27365e-02,1.20821e-01,-2.45092e-01,-1.08304e-01,2.02187e-01,-1.07830e-01,-1.46370e-02,2.53490e-01,2.40112e-02,-1.65879e-04,9.47295e-02,1.28969e-01,1.65656e-01,-2.80168e-02,-4.22557e-03,3.22573e-01,1.39906e-01,2.60407e-01,1.44847e-01,-1.27548e-01,1.33716e-01,-7.74049e-03,8.56308e-02,-2.80877e-01,4.87773e-02,-1.62906e-01,2.43965e-01,-7.82854e-01,2.48223e-01,-3.85220e-01,-2.28594e-01,4.84653e-02,-1.97698e-01,-2.00351e-01,-2.00752e+00,1.85747e-02,
-1.26696e+00,1.86974e-02,1.64256e-01,-1.51768e+00,2.22580e-01,3.55425e-02,-6.31851e-02,-2.15399e-02,9.72307e-02,-3.82602e-03,-9.38830e-03,-6.48559e-02,-2.26174e-01,2.41575e-02,-1.48527e-02,6.40736e-02,4.39943e-02,-3.14400e-01,-1.71326e-01,-5.65401e-02,-1.18462e-02,1.50531e-01,6.26048e-02,1.63975e-01,4.27172e-02,1.48362e-01,-8.50852e-01,1.33907e-01,-2.23075e-01,-1.02348e-01,-6.70219e-02,1.07390e-02,9.15809e-02,-3.27817e-02,1.39550e-02,-1.71148e-02,-3.87754e-01,5.19674e-02,4.28695e-01,1.86153e-01,-4.68552e-02,5.63141e-02,-1.11734e+00,2.95308e-01,-2.84497e-02,
-2.41845e-01,-1.35289e-01,-2.56037e-01,1.68767e-01,-6.98250e-03,1.78809e-01,-1.68471e-01,-2.11758e-01,2.07327e-01,2.29268e-01,-1.35153e-01,-6.12614e-03,-1.57416e-02,-6.51330e-02,-2.05700e-01,-1.84520e-01,-5.22286e-03,-2.54082e-01,-1.36379e-01,-1.42251e-01,1.05000e-01,2.70820e-02,-1.71747e-01,-8.36450e-02,-1.57278e-01,-1.94472e-01,5.69385e-02,-1.10428e-01,-9.62314e-02,-1.06384e-01,2.82373e-02,-2.06869e-01,2.00974e-01,6.21614e-02,5.99807e-02,8.83573e-03,-2.23700e-01,-1.08893e-01,-2.96596e-02,9.17021e-02,-1.99236e-01,5.07509e-02,-2.57737e-01,-8.89330e-03,-1.43215e-01,
-2.57278e-01,1.03414e-01,-1.76927e-01,1.22539e-01,-5.31705e-01,-4.98514e-01,1.86407e-01,-4.52477e-03,-7.51819e-02,1.26364e-01,-1.63834e-01,-2.25576e-01,-4.95545e-02,7.47767e-02,6.31069e-03,1.90738e-01,4.55206e-02,-1.05288e+00,2.64241e-01,2.59604e-01,-1.96993e-01,4.01484e-01,1.89535e-01,-9.98548e-02,8.53644e-02,-3.95500e-01,1.57415e-01,2.76040e-01,-2.90105e-02,2.73388e-01,4.61262e-02,-5.35270e-02,-5.74263e-01,-4.65075e-01,-4.31993e-01,3.08737e-01,1.50939e-01,-1.31155e-01,3.56415e-01,-3.34661e-02,3.28957e-01,-3.60330e-01,2.69518e-01,-1.35324e-01,-8.57781e-01,
-5.82271e-02,2.66552e-01,2.84034e-01,-2.94699e-01,1.89535e-01,-2.62564e-03,-3.98050e-01,4.63733e-01,-7.10819e-02,2.76873e-01,8.15182e-03,-5.52506e-02,-2.50870e-01,2.92841e-01,-9.39327e-02,2.62621e-01,4.99052e-01,-1.34646e-01,-5.83242e-01,1.40213e-01,3.95766e-01,6.81958e-02,-1.06725e-01,-1.36083e-03,-4.82590e-01,3.17126e-01,2.01644e-01,1.84243e-01,-3.11544e-01,3.28968e-02,6.75041e-02,-7.74570e-01,2.85386e-01,-3.06285e-01,-2.33164e-01,2.43802e-02,-2.19969e-01,6.09330e-02,1.22598e-01,-2.95676e-02,-1.41585e-01,-1.07346e-01,-1.17607e-01,3.40463e-02,-1.24113e-01,
-2.82027e-01,9.12081e-02,-3.27327e-01,-1.10838e-01,-1.17964e-01,-3.31602e-02,-5.85704e-02,-1.73979e-01,-4.97756e-02,3.47077e-02,-3.40875e-01,1.68316e-01,-2.31073e-02,-3.04300e-01,-1.47168e-01,-7.33280e-02,-6.43363e-02,-8.91773e-02,-1.32850e-01,1.71273e-02,-1.42813e-01,7.22592e-02,3.87050e-01,3.22473e-02,8.06205e-03,1.34176e-01,-1.75271e-01,-1.06341e-01,1.21429e-01,2.05079e-01,1.48006e-01,5.27663e-01,6.96057e-02,-1.40071e-01,1.89431e-01,1.72153e-01,-1.71229e-02,-3.53282e-01,-2.95741e-01,1.09492e-01,3.89806e-01,6.30720e-02,2.99880e-01,-1.68331e-01,-1.83224e-02,
-1.71282e-01,-3.78618e-01,1.46281e-01,1.05933e-01,-8.75607e-04,-4.87236e-01,-6.34638e-02,2.90310e-01,4.21871e-01,-1.37385e-01,9.90798e-02,1.33656e-02,-1.11625e+00,-5.20730e-01,-2.00244e-01,-4.06327e-01,3.23806e-01,-2.79087e-01,4.71836e-03,-7.23996e-02,-1.05530e-01,4.60453e-01,-1.09737e-01,9.75191e-02,1.34730e-01,-4.33398e-02,6.48516e-02,6.11327e-02,-1.63047e-02,1.91247e-01,-3.55217e-02,-6.95246e-01,-4.96298e-02,-1.00884e-01,-4.90379e-01,-1.26187e-01,-3.56128e-02,1.10828e-01,2.66789e-01,-2.97018e-01,4.04859e-01,-4.18033e-01,-9.28692e-03,-2.07956e-01,-5.09537e-01,
3.59399e-01,-2.59882e-01,3.01607e-01,8.29737e-02,-7.84662e-02,-1.75015e-01,3.36238e-01,1.17560e-01,-4.34793e-01,1.27875e-01,4.59662e-01,3.82814e-01,-3.47811e-01,-6.77387e-02,-2.82209e-01,9.89567e-02,-9.78144e-02,-8.00836e-01,-2.37025e-01,-3.88173e-01,-1.60146e-01,3.79690e-01,2.86222e-04,-3.24521e-03,-2.82764e-01,6.40485e-02,4.51859e-01,-5.53142e-01,3.36555e-01,-3.05467e-02,-7.47345e-02,4.80491e-02,2.64373e-01,-1.74611e-01,-8.21681e-02,-2.70234e-01,1.61862e-01,-2.31280e-01,-3.17403e-01,-1.69801e-01,3.28001e-01,-1.13893e-01,-1.57639e-01,-5.22838e-01,2.03545e-01,
-1.17506e+00,2.39859e-01,2.20953e-02,-3.22947e-01,-3.27654e-01,-1.27902e-01,-8.38728e-04,6.93432e-02,-2.42737e-01,-1.81425e-02,-1.08963e-01,7.97451e-03,3.79351e-01,1.52201e-01,-3.89179e-02,6.53277e-02,-2.38256e-01,4.09063e-02,6.66999e-02,1.51236e-01,9.74002e-02,-4.33985e-01,2.25554e-01,3.16944e-01,1.03995e-01,3.06786e-01,-1.44615e-01,4.15157e-02,-3.85432e-01,-4.20886e-02,-1.85005e-02,-7.69158e-02,-1.12438e-01,-1.60912e-02,-1.55887e-01,2.51804e-01,-3.28959e-01,1.99831e-01,2.51528e-01,-1.31408e-01,-1.46545e-01,3.77818e-02,-3.57465e-01,-2.26771e-01,-1.29978e-01,
-1.15178e-01,1.76795e-01,-7.08809e-02,-3.37744e-02,-7.86698e-02,2.16133e-01,1.29798e-01,-7.58209e-01,-3.03038e-02,2.63158e-01,1.41263e-01,-2.64337e-01,-5.44808e-01,-4.23428e-01,-2.25971e-01,8.73990e-02,-1.29643e-01,-2.00523e+00,4.62538e-01,-3.65028e-01,-2.69895e-01,1.59583e-01,1.01456e-01,1.91188e-02,6.01191e-01,-1.01623e-01,6.51474e-02,-9.23907e-02,4.03243e-01,2.87763e-01,-1.13687e-01,2.26008e-01,-3.06215e-01,2.82617e-01,2.69978e-01,2.04017e-01,1.98370e-02,1.60805e-01,7.17948e-02,1.70822e-01,3.50415e-01,4.13602e-01,2.88806e-02,-9.73983e-02,2.01990e-02,
-1.82127e-01,-3.98717e-01,8.75416e-02,2.40365e-01,-1.49996e+00,2.09374e-01,-2.46286e-01,2.04857e-02,2.11948e-02,-2.22944e-01,2.28965e-01,3.95587e-02,3.90722e-01,-1.32812e-01,-4.53913e-02,8.82479e-02,-8.05676e-02,5.55315e-01,3.44437e-02,3.84019e-01,3.13895e-01,-8.64575e-01,4.55077e-02,6.37736e-02,2.12780e-01,-1.67814e-01,-1.46729e-01,-1.49854e-01,-3.81661e-01,2.53678e-01,1.21432e-01,-6.15329e-02,8.15929e-02,4.62694e-01,-4.54818e-01,-9.76310e-02,1.52921e-01,4.28459e-02,-9.42372e-02,1.81979e-01,-1.28362e-01,-1.66038e-01,-5.51225e-02,1.39782e-03,8.10325e-02,
-1.65627e-01,1.50717e-02,2.06422e-01,9.89782e-02,-7.33510e-02,5.50328e-02,-2.04909e-01,3.26604e-02,-5.51586e-02,-3.01318e-01,-1.60576e-01,-2.07111e-01,3.24624e-01,-3.96699e-02,-6.53578e-01,-3.16736e-01,5.43927e-02,2.22372e-01,-8.10389e-02,4.44425e-01,1.18631e-01,-5.59731e-01,1.20670e-01,1.87679e-01,2.70359e-01,-1.88622e-01,2.74242e-01,1.47780e-01,-1.51157e-01,9.62586e-02,-1.04249e-01,-8.59241e-02,-3.31379e-01,-2.82218e-01,1.63031e-03,7.96650e-02,-1.57214e-01,4.61854e-02,3.21716e-01,1.85889e-01,-1.29393e-03,6.68242e-02,-9.12421e-02,-8.16815e-02,-2.68716e-01,
6.25282e-02,1.58153e-01,1.21895e-01,3.60178e-01,-6.92573e-02,-6.41530e-02,-9.41253e-01,4.83882e-01,-2.31447e-01,-2.53648e-01,-1.32697e-01,-2.17254e-01,3.22118e-01,-1.41278e-01,-9.32272e-02,-2.24414e-02,2.66442e-03,-1.00393e+00,-2.74054e-01,2.68401e-02,1.02491e-01,-4.30086e-02,3.05458e-03,2.31823e-01,-2.26398e-01,2.48031e-02,8.49507e-02,1.24738e-01,-3.15463e-01,-3.17032e-01,1.28287e-01,-1.53221e-01,6.14065e-02,-5.43662e-01,-1.22590e-01,1.54707e-01,-1.01999e-01,-6.12890e-02,1.98664e-01,3.92609e-02,-3.79108e-01,3.32545e-02,-1.92570e-01,8.95553e-02,2.30382e-01,
-2.12433e-01,2.34736e-02,2.13130e-01,-1.61440e-01,-1.16558e-02,3.69169e-01,1.26339e-01,6.76823e-02,3.98211e-01,-8.20863e-02,2.54397e-01,-2.03876e-01,-4.06319e-01,2.75093e-01,-8.08220e-02,1.28920e-01,3.34333e-01,1.25138e-01,-8.83970e-02,-2.25649e-01,1.16326e-01,1.91097e-01,-9.05865e-03,5.64063e-02,-1.92387e-01,4.22372e-01,1.31332e-01,-2.93654e-03,-1.74296e-02,1.49432e-01,-1.62434e-02,-2.10348e-01,2.74350e-01,1.23709e-01,-1.45977e-02,1.68869e-01,-1.05649e-01,4.84620e-02,-2.57623e-01,-1.11146e-01,1.49006e-03,-4.67701e-01,1.16205e-01,-2.72272e-01,2.66637e-01,
-1.38942e-01,-6.96424e-02,2.17703e-01,-2.53311e-02,-1.15665e-01,6.64430e-01,-2.23419e-02,-9.01371e-01,-8.79209e-02,4.58018e-01,4.73822e-01,-3.24553e-01,-2.20974e-01,-4.36182e-01,4.13827e-01,2.87976e-01,-1.94736e-02,-1.38811e-01,-6.65517e-01,-1.33596e+00,-8.05497e-01,2.39867e-01,1.10846e-01,1.52757e-01,-4.14109e-02,1.27474e-01,4.67202e-02,3.99011e-02,-2.28047e-01,1.17020e+00,-1.84354e-01,-3.70157e-01,-2.76869e-01,7.05137e-01,1.21673e-01,1.80114e-01,-1.23145e-01,1.85347e-01,6.06097e-03,-4.29511e-01,-1.54164e-01,4.32523e-01,1.31587e-01,9.23470e-02,3.36724e-01,
-9.78046e-02,4.40207e-01,-1.58597e-01,3.00524e-01,1.09469e-01,-1.17223e-01,-2.29915e-01,6.97420e-01,-1.79332e-01,1.38862e-01,2.29327e-01,3.07724e-01,4.88004e-01,1.58816e-01,6.33652e-01,1.12633e-02,-1.47415e-01,1.26170e+00,-1.80425e-01,-1.23397e-01,2.97799e-01,-3.55954e-01,1.52561e-01,2.76446e-01,-7.06636e-01,4.64175e-02,7.41087e-03,1.78315e-01,-8.97283e-02,-5.27510e-01,-1.30221e-01,-2.76781e-01,4.13404e-01,-1.95548e-01,-1.35587e-01,-1.74631e-01,-7.29961e-02,-3.51916e-02,2.11661e-01,-6.04511e-01,-5.96434e-01,3.78111e-02,1.50030e-01,-9.51239e-02,2.44434e-01,
2.94693e-01,-5.57193e-01,1.62961e-01,-1.00024e+00,9.00454e-02,-1.77771e-02,4.83173e-02,7.20394e-03,2.55123e-01,1.52078e-01,-7.71572e-02,-2.55717e-01,-1.19303e-01,1.14667e-01,2.93677e-01,-3.07233e-01,2.69251e-01,6.17534e-01,2.49614e-02,2.40841e-01,-8.06951e-03,-1.82059e-01,-1.86121e-01,5.65594e-02,-1.32279e-01,2.10309e-01,1.71460e-01,5.12997e-01,-1.30951e-01,2.01273e-02,8.89383e-05,-9.69937e-02,-3.66797e-02,-1.40998e-01,-3.73336e-01,1.04066e-01,-3.10882e-01,3.57902e-01,3.07108e-01,-2.21428e-01,-2.68705e-01,2.33727e-01,-1.45725e-01,-5.85564e-02,-1.17534e-03,
-1.42632e-01,-1.73779e-01,6.22255e-02,-1.49833e-01,5.28975e-01,9.09264e-02,1.01705e-01,-1.12187e-01,-3.59278e-02,1.86167e-01,-7.20337e-02,-9.44445e-02,-7.33654e-01,-5.76990e-01,-4.86130e-02,-1.42182e-03,-8.89405e-02,-6.68004e-01,-1.28076e-01,-2.34460e-01,1.54183e-01,6.82112e-01,1.72180e-01,5.62350e-02,6.41419e-03,1.13723e-01,2.60923e-01,5.05864e-02,3.69170e-01,-1.23733e-01,9.78298e-02,-4.01376e-02,-3.66972e-02,9.27974e-02,3.92110e-01,3.10992e-02,-2.01442e-01,8.78934e-02,-5.67317e-02,2.76466e-01,2.49074e-01,1.29605e-01,-2.00259e-01,1.47694e-01,5.74011e-02,
-3.02969e-03,4.50218e-01,3.07870e-01,1.09129e-01,3.95198e-02,3.47015e-01,-1.17230e-01,3.68919e-01,2.80850e-01,1.27513e+00,2.21683e-01,-3.92351e-01,2.24119e-01,3.06016e-01,2.54139e-01,1.28735e-01,-6.30217e-02,-6.11187e-03,-1.38275e-01,-3.20298e-01,-2.87482e-01,1.10237e-01,2.80912e-01,-2.62585e-01,-1.92887e-01,3.99946e-01,1.22542e-01,-5.17089e-02,1.22692e-01,5.07409e-02,2.97008e-01,-4.07103e-01,2.31562e-01,6.39091e-01,-3.15068e-01,3.68697e-01,-4.21401e-01,5.73340e-01,-4.29925e-01,-3.57694e-01,-7.45586e-01,-6.61148e-02,2.87461e-01,-4.05740e-01,1.22315e-02,
1.28447e-01,2.33947e-01,-3.82720e-02,1.18321e-01,5.26750e-01,2.06970e-01,9.04145e-02,1.54233e-01,1.44263e-02,-6.08562e-02,-1.06874e-01,1.01363e-01,-6.75539e-01,-5.16480e-01,-2.62367e-01,1.73033e-01,-3.61814e-01,6.79818e-01,-1.70393e-01,-6.77977e-01,4.83568e-02,4.08654e-01,-4.24394e-01,1.34368e-01,1.96649e-01,-3.97403e-02,8.65450e-02,3.55603e-01,2.23701e-01,2.42722e-01,1.55582e-01,-1.98940e-01,7.33437e-02,5.42627e-01,1.19246e-02,2.98313e-01,-8.97623e-02,1.35116e-01,3.05255e-01,-1.94847e-01,1.88488e-01,4.24719e-01,-2.77497e-01,3.13136e-01,8.11475e-02,
3.06029e-01,2.41375e-01,-4.21195e-02,3.95692e-01,-2.00130e-01,1.57175e-03,1.15260e-01,-2.91278e-01,1.16164e-01,1.19046e-02,-1.26881e-02,-1.83408e-02,1.66178e-01,-6.52426e-02,-2.86724e-01,6.01044e-02,2.90966e-02,-1.07813e-01,1.66433e-01,3.64909e-01,-9.03765e-02,-1.88066e-01,-4.09619e-01,4.39415e-01,2.48286e-01,1.23661e-01,-6.46829e-02,-9.45514e-02,1.71159e-01,1.26950e-01,-3.13501e-01,4.44667e-02,1.41608e-01,-1.47098e-01,1.58071e-01,1.60128e-01,-9.60770e-01,-2.33568e-02,2.45212e-01,-1.17291e-01,1.37780e-01,4.76633e-02,3.36917e-01,-7.54939e-01,1.92334e-01,
-2.18582e+00,6.47581e-02,1.65738e-01,-4.96017e-01,-2.46504e-01,1.36094e-01,-1.37310e-01,-1.00535e-01,-7.70709e-02,-3.22913e-02,1.69924e-01,1.25794e-01,7.97772e-02,-1.83815e-01,5.39177e-02,-2.00454e-02,-3.36341e-01,-2.53851e-01,5.92036e-02,1.52766e-01,3.51941e-01,9.28812e-02,4.83697e-02,1.22973e-01,-3.23955e-01,-2.73446e-01,-6.85121e-02,-1.01823e-02,1.83394e-02,-1.06137e-02,1.34737e-01,-1.04164e-01,8.86087e-02,-1.10752e-01,-2.66963e-01,2.54493e-01,5.94725e-02,4.43314e-02,5.41755e-02,1.38693e-01,8.54966e-02,6.82315e-02,-7.46118e-01,2.35896e-01,-2.01276e-01,
1.16701e-01,-2.29511e-01,6.79722e-03,2.72145e-01,-5.83967e-01,-2.15331e-01,-3.35063e-01,-7.43382e-02,-9.27739e-02,1.52390e-01,-2.29265e-01,-2.75834e-01,1.38621e-01,1.58701e-01,6.97214e-02,1.24792e-01,4.28997e-01,4.92536e-01,2.33160e-01,2.84677e-02,1.65863e-01,-5.43096e-01,1.97664e-01,7.77710e-02,7.69417e-02,8.05244e-02,1.24146e-01,5.52490e-01,-2.79002e-01,8.96288e-02,4.20708e-01,-1.59054e-02,3.35869e-02,-1.02317e-01,-4.82199e-01,8.63802e-03,-8.40161e-01,5.88201e-02,-3.50555e-01,-3.79524e-01,-7.38690e-02,-2.80146e-01,3.67268e-01,-2.26131e-01,-2.96576e-01,
5.84176e-01,3.50234e-01,-2.55032e-02,2.58565e-01,-3.32639e-01,6.45699e-02,1.46886e-01,-2.27876e-01,2.27370e-01,5.17784e-02,9.72013e-05,2.42774e-01,1.98846e-01,-1.38593e-01,-2.24579e-01,4.39751e-02,-7.67717e-02,5.47676e-02,3.29904e-01,-1.22668e-01,4.68055e-02,-2.54915e-01,4.27319e-01,2.31516e-01,2.43549e-01,-1.96959e-01,1.15466e-01,2.78404e-01,-1.23875e-02,-5.45442e-02,6.23475e-01,3.56789e-01,-8.23230e-02,2.98580e-01,4.76618e-01,2.63441e-02,5.69797e-01,-7.81858e-02,1.81413e-01,1.13510e-01,-2.51836e-01,2.54646e-01,1.31989e-01,2.19633e-01,3.67962e-01,
6.31452e-01,-3.41782e-01,2.03801e-01,3.67400e-01,3.68599e-01,1.05875e-01,-1.89217e-01,-8.57513e-02,-1.12005e-01,-1.52287e-01,1.90749e-01,-7.28755e-02,6.21172e-02,1.20148e-01,-2.10973e-01,-2.68339e-01,1.83275e-01,-2.42434e-01,9.37531e-02,-1.26362e-01,1.23676e-01,-1.86038e-01,3.64482e-01,3.58964e-03,-1.77265e-01,-1.09283e-01,4.38197e-01,-1.64170e-01,1.51795e-01,-1.08433e-01,1.33110e-01,8.89241e-02,-7.38172e-02,-2.28072e-01,-6.49055e-02,-6.43504e-02,1.79217e-01,-1.43807e-01,1.00899e-01,2.91807e-01,8.07605e-02,-3.25116e-01,3.66186e-01,2.16540e-01,4.14715e-01,
6.67444e-02,-1.28116e-01,-3.03721e-02,1.45884e-01,6.27934e-02,-4.40354e-01,1.99838e-01,-4.04459e-02,9.95837e-03,-2.82816e-01,8.95726e-02,-2.45380e-02,-4.98033e-01,-3.25807e-01,-5.10093e-01,5.79197e-02,-1.91772e-01,-1.83580e+00,-2.04275e-01,-1.15881e-01,-3.48513e-02,6.32993e-01,2.95406e-01,8.59774e-03,-2.20616e-02,-8.84677e-02,-1.33435e-02,1.51986e-01,1.27597e-01,3.33159e-01,-9.27519e-02,1.02685e-01,-3.83318e-02,-2.63548e-01,-9.06006e-02,2.67284e-02,-1.69990e-01,-1.21099e-02,1.90309e-01,8.23538e-02,4.41395e-01,2.19340e-01,2.21729e-02,-2.16657e-01,-1.12017e-01,
5.91081e-01,-1.15533e-02,-1.06535e-01,1.09684e-01,-1.00178e-01,1.64917e-01,-1.11646e-01,5.14206e-02,-4.79429e-02,8.58632e-02,2.88209e-01,7.64118e-02,-3.38199e-02,4.95020e-02,2.48199e-01,-2.42511e-01,-1.51222e-01,7.39918e-02,2.32891e-01,9.03807e-02,1.35727e-01,1.81858e-01,8.19191e-02,3.89184e-01,9.37237e-02,2.18294e-01,1.44937e-01,-2.68920e-01,2.77632e-02,-3.03021e-01,-2.76513e-01,-1.52625e-01,-1.98528e-01,-2.51866e-01,2.61416e-01,-2.99707e-01,1.33261e-01,-9.80024e-02,-3.37544e-02,-2.79785e-02,9.48363e-02,1.35074e-01,4.46229e-01,-2.82169e-02,1.79004e-01,
-7.69576e-01,-4.77380e-02,-8.74660e-02,-2.42863e-02,1.13664e-01,8.38774e-01,1.30501e-01,1.60274e-01,-8.43395e-02,-6.87528e-02,-2.03198e-01,-6.47966e-02,8.34079e-02,-1.24361e-01,6.39481e-01,-3.61299e-01,9.46404e-02,1.69138e+00,2.08079e-01,1.39388e-01,6.74897e-02,2.89343e-01,3.47581e-03,1.00047e-02,8.16456e-02,-1.51090e-01,-2.84364e-01,-7.04928e-01,-2.68700e-01,-2.51582e-01,-2.81251e-01,-1.01765e-01,-7.67360e-02,-2.63227e-01,3.96627e-01,-3.30535e-01,9.09081e-02,-8.98783e-01,-1.62283e-03,1.21588e-01,3.16588e-01,-1.71743e-01,-1.03463e-01,-3.06567e-02,-4.60576e-01,
1.93514e-01,2.15578e-01,1.28056e-01,-2.92479e-03,-1.33824e+00,8.67386e-02,-9.89415e-02,-1.75735e-01,2.39432e-01,8.40841e-02,4.80507e-02,-5.14515e-02,4.60806e-01,2.95354e-01,8.27766e-02,5.93128e-02,-2.24119e-01,2.14837e-01,-9.50606e-02,3.70962e-01,1.09021e-02,-3.57998e-01,-4.60834e-02,-3.93471e-02,2.79308e-01,7.02934e-02,-5.88942e-02,-1.29466e-01,1.21272e-01,5.01366e-02,1.04334e-01,5.59172e-02,-1.49134e-01,3.63703e-03,-1.93427e-01,1.54503e-01,1.57382e-01,-1.82437e-02,-3.50748e-02,1.27261e-01,-4.02574e-01,-1.47644e-01,-3.31745e-02,6.63201e-03,6.82311e-02,
-2.16142e-01,-4.63985e-02,-1.09201e-01,-5.33925e-02,-3.00181e-01,4.17655e-02,-2.21110e-02,-3.58712e-01,-5.57359e-01,-1.28802e-02,-6.48958e-02,-2.20226e-01,6.23579e-02,-4.26746e-01,6.55434e-02,2.07426e-01,-2.08897e-01,-6.46595e-01,2.49570e-01,1.03396e-01,-1.03480e-01,-9.70993e-03,3.37684e-01,1.40306e-01,3.10916e-01,2.63495e-01,-1.70874e-01,-6.95147e-02,1.18305e-01,4.15679e-01,9.60854e-02,2.10464e-02,-1.92747e-01,2.02903e-01,1.44516e-01,1.49557e-01,1.92629e-01,2.82023e-01,-1.44910e-01,2.34910e-01,2.28510e-01,2.51943e-01,1.47147e-01,1.88565e-01,1.70473e-01,
2.42593e-01,-2.22281e-01,6.01424e-02,1.89520e-01,2.08144e-02,1.46648e-01,2.75574e-01,-4.73522e-01,1.42433e-01,-5.61361e-01,4.46086e-02,-2.04172e-01,-9.36794e-02,-5.01118e-01,-8.61896e-02,8.21457e-02,-2.06285e-01,-6.32230e-01,1.32370e-01,-4.96933e-01,-1.16332e-01,-2.07960e-02,-2.39608e-01,1.81897e-01,-2.73465e-01,-1.52845e-01,-1.38657e-01,-1.69052e-02,2.10953e-01,1.11112e-01,-3.19284e-02,1.70755e-01,-9.04336e-02,3.83512e-01,-1.35084e-01,9.44975e-02,-1.63435e-01,-7.09300e-02,1.23459e-01,1.24917e-01,7.75100e-02,1.18570e-01,-6.26916e-02,2.09057e-01,-1.11945e-01,
-2.02508e+00,1.02433e-01,2.61280e-01,-1.72361e+00,1.74272e-01,7.12402e-02,8.56992e-02,1.19002e-01,-1.12702e-01,-1.25545e-01,5.06985e-02,2.86471e-01,1.83603e-01,-1.58108e-01,-8.53039e-02,1.45056e-01,1.06693e-01,-9.85892e-04,-4.88741e-02,6.06873e-02,1.08074e-02,1.88294e-01,1.17130e-01,2.25673e-01,-6.27708e-02,1.92929e-01,-7.65596e-01,-4.52091e-02,-1.45235e-01,-1.78707e-01,2.33571e-01,-1.57992e-01,-1.56682e-01,-4.46415e-02,8.76983e-02,1.70802e-01,4.96279e-01,6.36014e-02,1.98020e-01,-7.04986e-02,1.90832e-01,-3.41058e-02,-2.69805e+00,8.62904e-01,3.96873e-01,
3.29109e-01,-1.27169e-01,9.84958e-02,-1.40171e-01,2.11485e-01,2.94686e-01,3.24444e-01,1.56909e-01,6.82954e-02,6.34271e-02,-9.34411e-02,2.84551e-01,-8.65219e-04,3.63662e-02,4.75028e-01,4.75639e-01,-1.36448e-01,6.67330e-01,-3.62334e-01,-3.67202e-01,-8.34562e-02,3.00140e-01,-3.50123e-01,2.94329e-02,-3.17366e-01,-1.12055e-01,-1.74330e-01,-2.48858e-01,5.24854e-01,1.93475e-01,1.44754e-01,-1.98877e-01,-8.87641e-02,2.46760e-01,-1.90584e-01,-2.40040e-01,3.59212e-01,1.64629e-01,6.68939e-02,-1.03057e-01,2.23972e-01,-7.11119e-02,2.81139e-02,2.60658e-01,1.68183e-01,
-1.70592e+00,-3.31220e-01,-2.31264e-01,-3.53035e-01,-2.42614e-01,-3.47284e-01,8.70873e-02,1.89961e-01,-4.24214e-02,-1.67924e-01,1.18443e-01,3.30957e-01,-2.76941e-02,7.15497e-02,-1.22003e-01,-1.07455e-01,8.31778e-02,3.85504e-01,-4.88854e-01,9.96578e-02,1.48232e-01,8.63294e-02,1.05635e-01,-4.69449e-01,-2.28377e-01,1.00330e-01,-3.00437e-01,-2.38060e-01,2.80960e-01,1.93600e-01,3.40596e-01,1.88449e-01,-1.68904e-01,-2.83662e-01,-3.28814e-01,6.02006e-02,9.99085e-02,-8.22699e-01,-8.56565e-02,-1.61668e-02,1.64583e-01,-2.62380e-01,-6.02069e-01,1.44956e-01,1.91707e-01,
-8.80407e-02,-9.08829e-03,1.24739e-01,-2.99798e-01,1.14425e-01,-1.19398e-01,9.43295e-03,3.94947e-01,-4.41303e-01,-2.29480e-01,6.74516e-02,3.89576e-01,4.09754e-01,-1.86490e-01,2.64644e-01,4.36858e-01,-2.49544e-02,-5.65580e-01,-3.35563e-01,2.58197e-01,1.30886e-01,-3.15338e-01,3.49073e-02,-9.46291e-02,-1.31828e-01,1.24736e-02,7.78686e-02,-3.25312e-01,3.14834e-02,-5.46295e-01,7.99162e-02,-1.19663e-01,1.68257e-01,1.41854e-01,-3.72550e-02,-1.03716e-01,8.31844e-02,-2.00278e-01,-8.72925e-02,-4.83041e-01,-5.83029e-01,-1.28596e-01,2.88796e-01,4.20901e-01,-1.55088e-01,
-1.57697e-01,-4.88715e-01,1.30047e-01,7.33353e-02,-3.11495e-01,2.45824e-01,-3.28836e-01,3.01834e-01,1.93623e-02,2.89199e-01,4.58012e-01,-1.43546e-01,2.24877e-01,2.54600e-01,1.62270e-01,1.41062e-02,8.50265e-02,9.19820e-01,2.14422e-01,2.43642e-01,-2.04534e-02,-2.67902e-01,-2.73277e-01,-8.15186e-02,-4.50306e-01,1.68852e-01,1.58528e-01,-2.06787e-01,-3.44618e-01,-2.58788e-01,8.21164e-02,-1.31390e-01,3.14598e-01,1.32037e-01,-2.67286e-02,6.70220e-02,1.72878e-01,4.10914e-01,2.67749e-02,-2.17214e-01,-2.71722e-01,1.40808e-01,-1.21688e-01,1.99295e-01,-1.24838e-01,
2.33023e-01,-2.99411e-01,-2.07011e-02,2.73109e-01,-8.48605e-01,2.29196e-01,-3.17368e-01,4.30527e-02,-5.03384e-02,3.02573e-02,2.03734e-02,-9.79845e-02,5.73450e-01,1.14535e-01,-1.12203e-01,2.75942e-01,-2.55046e-01,-6.86911e-01,-5.86121e-02,4.05015e-01,-3.44726e-02,-6.53893e-01,3.88763e-01,1.88279e-01,9.36402e-03,-7.99502e-01,-2.62983e-01,2.21054e-02,-2.54440e-01,2.36175e-01,1.88300e-01,-2.24493e-02,-2.75407e-01,-1.30774e-02,-2.75816e-01,-1.13577e-01,-7.33926e-02,1.57489e-04,-5.65904e-02,1.64697e-01,-3.03294e-01,-1.03503e-01,4.27816e-03,-5.06865e-02,-2.85574e-01,
3.06250e-01,1.58113e-02,-6.64206e-03,8.99342e-03,-8.37262e-01,3.01092e-01,-1.05153e-01,3.26789e-02,-2.46995e-01,5.17805e-02,1.06548e-01,1.28216e-01,4.34701e-01,-1.28223e-01,4.71067e-01,3.15483e-01,1.12056e-02,-3.03237e-01,1.45714e-01,4.57124e-02,-1.69552e-01,-3.52382e-01,9.53617e-02,3.97072e-02,1.59258e-01,3.11156e-01,-7.42081e-02,-1.68599e-01,-2.41696e-01,-1.83332e-02,-2.60966e-01,-2.24584e-01,1.50252e-02,4.45731e-01,-2.87245e-02,-2.67813e-01,-1.00053e-01,-9.71333e-02,-1.43956e-02,9.70712e-02,-1.98464e-01,2.27281e-01,6.43282e-02,-6.51229e-02,-9.21498e-02,
2.57148e-02,
7.97783e-02,
-2.00559e-01,
1.12336e-01,
-5.06842e-02,
-9.19370e-02,
4.87504e-03,
4.50285e-02,
2.10342e-01,
-9.37242e-03,
6.71661e-02,
8.73107e-02,
1.16737e-02,
1.73557e-01,
1.33967e-02,
1.70251e-01,
3.53225e-02,
1.18054e-01,
2.06310e-01,
1.37393e-01,
-2.06402e-03,
-1.04565e-01,
4.74255e-02,
1.40959e-01,
6.45682e-02,
-9.67311e-02,
3.87632e-02,
2.16370e-02,
1.93735e-01,
-7.95106e-02,
-1.37350e-01,
-9.36873e-02,
1.94037e-01,
-5.34406e-02,
-3.73926e-03,
1.15309e-01,
4.38288e-02,
1.43215e-01,
5.25787e-02,
-5.94193e-02,
1.07262e-01,
1.20239e-01,
7.39612e-02,
1.13002e-01,
8.27723e-02,
2.58492e-01,-2.60245e-02,5.26072e-02,-1.23425e-01,5.81234e-02,-3.22209e-01,3.29454e-01,-2.62340e-01,-4.31787e-01,1.80900e-01,2.58143e-01,-2.37692e-01,3.36283e-01,-2.55247e-01,-3.61078e-01,-1.32297e-02,2.10283e-01,3.54885e-01,1.25501e-01,-2.79922e-01,-3.37339e-01,-1.20943e-01,-9.56792e-02,-7.51777e-01,8.63609e-02,6.04392e-02,2.30748e-01,-2.17161e-01,6.84756e-01,-2.60858e-01,-4.23647e-01,-1.05727e-01,-1.23973e-01,-2.50832e-01,2.21631e-01,1.24601e-01,4.29494e-02,-2.11118e-02,-4.22354e-01,-4.80509e-01,5.21225e-01,2.47871e-02,-1.43312e-01,5.30672e-02,1.72305e-01,
-1.23168e-02,3.31007e-02,4.39905e-01,-1.28943e-01,1.06497e-01,-9.17445e-02,-7.50362e-02,4.56324e-02,-1.80699e-01,-1.81355e-01,-3.97282e-01,3.49914e-01,-1.21616e-01,4.12967e-01,1.71574e-01,-8.63171e-02,-3.41833e-01,1.75970e-01,-1.92521e-01,5.65395e-02,3.38285e-03,1.20607e+00,1.09515e-01,2.66883e-02,1.26711e-01,2.01210e-02,-2.54025e-02,-1.12717e-01,-2.47099e-01,-2.51488e-01,7.98655e-02,2.32212e-01,-8.76158e-02,-1.56531e-01,-8.97551e-02,-1.92450e-01,-4.88027e-03,-3.41499e-01,6.77787e-02,8.25895e-02,2.97385e-01,-1.00547e-01,7.14644e-02,7.85037e-02,2.11308e-01,
3.54978e-01,-9.23994e-02,-9.65840e-01,-4.76294e-01,2.07875e-01,2.05342e-01,1.80424e-01,-1.31986e-01,-2.69369e-01,2.11505e-01,-5.06842e-01,-2.08192e-01,-3.55316e-01,-2.52239e-01,-5.55675e-01,1.10775e-02,-1.14153e-01,-6.06326e-02,1.00072e-02,1.70363e-01,1.66797e-02,2.43451e-01,-1.44223e-01,-2.68153e-01,1.42448e-02,4.65220e-01,2.80843e-01,-2.65819e-01,1.53984e-01,-8.92531e-02,4.47085e-01,-4.91419e-02,-5.26436e-01,9.74332e-02,-5.46021e-01,9.05484e-02,3.65242e-02,6.66434e-02,6.91996e-03,4.88252e-01,1.07269e-01,3.91915e-01,-9.97194e-02,-2.29613e-01,2.08080e-01,
2.57941e-01,1.91519e-01,-4.77383e-02,-7.82605e-03,1.60685e-03,-1.48656e-01,1.96725e-01,5.78120e-01,-3.24553e-01,-1.38839e-01,2.91661e-01,1.20102e-01,2.21601e-01,-1.96406e-01,-9.10505e-02,-1.35195e-01,-2.04296e-01,3.02395e-01,-2.47396e-03,2.40951e-01,-8.74221e-02,8.41180e-02,-5.64100e-02,-2.79274e-01,2.36515e-01,2.51594e-01,3.08243e-03,-1.43177e-01,-2.91593e-02,2.71498e-01,-3.71631e-01,-2.00233e-01,1.49439e-01,-3.20035e-01,-4.67235e-02,-9.24920e-02,8.79203e-02,1.10695e-02,-5.75392e-01,-2.26282e-01,2.32828e-01,-2.19922e-01,-9.12934e-02,-1.64110e-01,-2.58039e-01,
1.95604e-01,3.26551e-01,-4.00424e-01,-6.76270e-02,2.53068e-01,-3.57343e-02,-1.22981e-01,3.87376e-01,-1.43809e-01,8.39150e-02,1.97351e-01,-3.21446e-02,-3.22848e-01,1.22476e-01,3.08604e-01,2.42049e-01,6.75026e-02,-1.89154e-01,2.34012e-01,2.14717e-01,-1.25491e-01,-2.40700e-01,7.68063e-02,1.60662e-01,1.36466e-01,-3.62954e-01,-3.71688e-03,-4.23539e-03,2.52551e-01,2.19992e-01,2.46788e-01,2.61991e-01,1.89722e-02,-1.19405e-01,-4.53437e-02,-1.95881e-03,7.97232e-02,-3.69607e-01,-3.66197e-01,-1.83854e-01,-1.76817e-01,-9.18148e-02,-3.20985e-01,-5.15342e-02,-1.30429e-01,
3.05847e-01,-6.63680e-02,1.07357e-02,-1.92558e-01,1.20474e-01,-1.76360e-01,2.10902e-01,9.09103e-02,-2.85670e-01,1.45685e-01,1.66360e-01,-3.18177e-01,4.79110e-03,-2.08076e-01,-2.54645e-01,-1.62664e-01,2.39571e-01,1.45611e-01,-1.51981e-01,5.94313e-03,2.60953e-02,-2.47128e-01,-1.30370e-02,-4.13243e-02,2.87641e-02,-7.69567e-02,1.95785e-02,5.29470e-02,3.14662e-01,-1.06157e-01,9.82748e-02,-3.95872e-01,4.09488e-01,-1.10890e-03,-2.07467e-01,-7.26621e-03,5.32015e-02,1.68121e-01,-3.12815e-01,-6.35369e-02,-1.92744e-01,-1.29151e-01,-2.89394e-02,-8.97856e-02,1.95321e-01,
-1.45149e-01,1.72429e-02,-2.92959e+00,-3.53862e-01,2.65667e-01,6.07782e-02,1.30100e-02,-1.87348e-01,-1.89266e-02,-1.21312e-01,7.61328e-02,-1.87435e-01,3.38946e-02,9.36439e-01,-1.45973e-01,-1.11181e-01,2.93832e-01,6.42177e-02,-1.14832e+00,-4.64834e-01,2.67781e-01,5.62624e-01,-3.41435e-01,-1.01785e-01,1.18146e-01,3.41620e-01,2.78570e-01,-6.64949e-02,-1.63872e-01,-2.50962e-01,8.50044e-02,-7.86066e-02,-2.02040e-01,8.22496e-02,3.25548e-02,3.51792e-02,7.92967e-02,-1.12193e-02,-1.01093e-01,3.06944e-01,-7.61389e-02,1.30526e-03,-9.98342e-02,2.55394e-01,2.00737e-01,
7.97951e-02,3.66660e-01,-8.56051e-01,-2.48701e-01,2.44867e-01,-6.71036e-01,8.04949e-02,1.89744e-01,2.25735e-01,-2.27379e-01,2.17740e-01,2.36184e-01,2.78500e-02,-2.90054e-01,-1.96357e-01,7.07471e-03,-2.29555e-02,2.22391e-02,2.68766e-02,3.63300e-01,-8.16711e-02,4.69662e-01,5.19713e-03,1.87845e-02,-3.56522e-01,2.03667e-01,-9.39163e-02,3.57282e-01,1.48914e-01,-4.09632e-02,-3.61557e-01,-2.08745e-01,3.96012e-01,2.23050e-01,-5.64820e-02,-2.85904e-01,1.58743e-01,-2.83908e-01,-1.71251e-01,-1.18802e-01,5.21857e-02,1.18154e-03,-2.18459e-01,-3.46703e-01,1.09320e-01,
-2.01405e-01,-5.53168e-02,4.68927e-01,7.13964e-02,-1.12084e-01,-2.96971e-01,4.74863e-03,2.30292e-03,-1.91317e-01,7.57177e-02,-3.13213e-01,-2.62612e-02,-4.08002e-02,-2.75680e-01,-1.34361e-01,7.70862e-03,-4.71856e-01,3.70803e-01,-1.64512e-01,3.29559e-01,-1.86339e-01,-1.00245e+00,-2.25944e-02,1.28773e-01,-2.11291e-01,-3.05122e-01,2.11101e-01,2.96643e-01,9.07405e-02,-5.72950e-01,5.03062e-01,-1.81826e-01,-1.04218e-01,-2.10896e-01,1.02927e-02,2.41699e-01,-2.64473e-01,-4.65486e-01,6.04399e-01,3.12249e-01,1.44734e-01,3.94269e-01,2.18257e-01,5.40893e-03,-1.30717e-01,
8.83172e-02,-1.82639e-01,6.83274e-01,7.82745e-02,-9.35209e-02,1.69115e-02,-1.64085e-01,-1.08706e-01,-1.08549e-01,1.01619e-01,4.14971e-02,-3.07636e+00,3.52143e-01,-4.70649e-01,-1.68321e-01,2.25226e-01,3.11422e-01,1.88924e-01,-2.35988e-01,-2.48276e-01,1.21715e-02,6.37897e-02,-3.85059e-02,-2.34478e-01,-2.39736e-01,4.91857e-03,1.25691e-01,6.81962e-02,-4.09997e-02,2.99705e-01,3.16113e-01,2.77891e-02,1.78802e-01,1.29194e-01,1.78477e-01,1.41779e-01,2.08385e-01,-1.56714e-01,-1.57039e-01,-4.45218e-02,2.22876e-01,-5.38697e-01,-1.59299e-01,2.07147e-01,-5.32919e-02,
3.09608e-01,-7.18987e-02,-2.14121e-01,-2.83449e-01,-1.85736e-01,-1.32204e-01,-1.44091e-01,1.55451e-02,1.19231e-01,-1.20540e-01,4.19577e-01,9.92010e-02,4.63128e-02,3.30799e-02,3.61787e-03,-9.93989e-02,2.07698e-01,-8.80014e-02,1.39546e-01,-9.66279e-02,-7.86723e-02,7.06665e-01,-5.60102e-01,-9.95693e-02,-1.84056e-02,3.35107e-01,-2.54170e-01,3.35066e-02,-1.21960e-01,-2.85718e-01,-2.10554e-01,2.53061e-01,2.40777e-01,-7.72175e-02,-2.04692e-01,-2.32450e-02,3.55611e-01,3.12781e-01,1.25185e-01,-2.11563e-01,2.35561e-01,-2.01111e-01,-5.31513e-01,-2.11539e-01,-6.96484e-02,
2.84305e-01,2.30061e-01,-9.40862e-01,-5.24153e-01,2.88890e-01,2.60002e-01,-5.84259e-03,1.15380e-01,-1.41093e-01,3.58770e-02,-3.81699e-01,-7.33653e-02,-1.58522e-01,-1.57187e-01,3.37197e-01,3.92186e-01,-2.08875e-01,-2.83582e-01,-1.63207e-01,3.46299e-01,3.78985e-01,8.36267e-02,8.76691e-02,-3.50238e-03,-1.93359e-01,3.71568e-01,6.53306e-02,-2.47872e-01,1.48515e-01,-3.75960e-01,2.23314e-01,-2.52509e-02,3.44535e-02,1.76534e-01,-5.50626e-01,1.59459e-01,2.28028e-01,-5.63675e-02,-2.81822e-01,3.66846e-01,-9.80326e-02,2.41490e-01,2.65982e-01,1.17349e-01,2.88000e-01,
8.79931e-02,3.70255e-01,-1.23081e+00,1.27978e-01,-5.70207e-01,1.03782e-01,1.78674e-02,-9.24444e-01,2.59758e-01,-1.97419e-01,1.52199e-01,-2.22493e-01,2.92796e-01,-1.28464e-01,-7.15521e-01,2.24490e-01,-7.08717e-02,2.10488e-01,-1.55206e-01,-2.54257e-02,4.63631e-02,-1.25071e-01,-4.90261e-01,-2.49519e-02,-9.74981e-02,2.06415e-02,2.37776e-01,-1.38264e+00,2.12620e-01,5.13816e-01,1.13525e-01,-2.31646e-02,2.16754e-01,-3.91936e-01,-1.94900e-02,2.07119e-02,-4.70683e-02,-1.21474e-02,1.55352e-01,-6.13966e-02,6.39196e-02,-1.81682e-01,-7.61066e-01,4.85300e-02,5.85082e-02,
-6.09718e-02,1.62290e-01,-2.20729e-01,-1.18416e-01,3.45573e-01,-1.68491e-01,-2.96734e-02,2.76141e-01,1.02029e-01,2.24219e-01,-4.57204e-02,-3.11413e-01,3.60229e-02,3.65457e-01,1.39114e-02,-6.99141e-02,-7.05929e-02,-1.31089e-01,-3.20428e-02,8.79325e-02,-7.54806e-02,-1.36715e-01,3.15167e-02,-3.83871e-01,4.80100e-02,-2.29322e-01,-4.48186e-02,6.53010e-02,2.57481e-01,-6.08988e-01,2.92721e-01,1.81683e-01,8.84517e-02,-1.33683e-01,-1.10493e-01,-3.33296e-01,1.07144e-01,-7.65721e-02,5.29082e-01,1.27096e-01,1.71680e-01,1.82839e-01,1.80684e-01,2.70658e-01,-1.54461e-01,
2.39655e-01,-6.98215e-03,-9.23817e-01,-7.93309e-02,1.25053e-01,3.03209e-01,-2.00670e-01,-1.99588e-01,-2.22735e-01,5.10284e-02,-1.05409e-01,-4.89625e-02,-9.92006e-02,5.39389e-01,1.17652e-01,9.74005e-03,5.93872e-04,2.27699e-01,-4.11330e-01,1.38158e-01,2.54165e-01,6.46881e-01,1.20355e-01,2.65737e-01,-4.41079e-01,5.33446e-01,-5.02941e-01,-8.67167e-02,-5.54004e-02,2.19398e-02,2.17899e-01,-1.38064e-01,-4.57979e-01,-1.49365e-01,-5.11503e-01,2.00602e-01,2.57178e-01,4.53999e-01,1.16936e-01,1.06628e-02,7.22458e-02,1.34043e-01,2.21407e-01,5.38849e-02,3.79028e-01,
-3.54157e-01,-7.66718e-02,-3.83993e-01,-6.35017e-02,7.69175e-02,-7.99514e-01,9.25594e-02,-1.46917e-02,-1.09080e-01,-2.54078e-01,3.61400e-02,-2.57773e-02,-1.28835e-01,-2.81038e-01,-8.54270e-02,3.07841e-01,-4.35344e-01,7.52282e-01,2.22531e-01,2.92136e-02,-2.08186e-01,-7.19754e-02,1.06327e-01,-7.97263e-02,-9.55275e-01,2.90765e-01,-9.82611e-01,-5.35136e-02,2.79287e-01,-4.32389e-01,3.36341e-02,-8.21146e-02,-4.33414e-01,-9.14982e-02,-2.26884e-01,3.91138e-01,5.22086e-02,-8.97220e-02,-1.55920e-02,-2.07849e-01,6.25077e-02,1.83368e-02,3.52881e-01,4.08577e-01,1.77578e-01,
3.03168e-01,-1.89342e-01,1.56808e-01,-5.88485e-01,-9.60218e-02,1.24080e+00,-9.41428e-01,-6.73977e-02,1.29635e-02,-2.28265e-01,-5.84381e-01,1.93055e-03,2.11881e-01,3.10646e-01,2.77101e-01,-1.91752e-01,-1.25875e-01,-1.62685e-01,-3.96070e+00,1.12910e-01,2.40910e-01,1.91903e-01,7.64054e-02,-5.88701e-02,3.39176e-01,1.91725e-01,-2.02903e-01,-4.98158e-04,-2.99927e-01,-1.56018e+00,3.42116e-02,-2.86406e-01,2.24213e-02,-7.81478e-02,-1.53263e-01,-1.47434e-01,-4.61943e-01,-1.22379e-01,1.46393e-01,3.06201e-01,-1.46544e-01,4.57753e-02,1.68593e-01,-4.25518e-01,-1.25836e-01,
9.95226e-02,-1.23828e-02,5.44145e-02,4.15265e-01,3.36141e-01,7.31881e-02,1.58865e-01,-2.02147e-01,-1.51637e-01,-6.01487e-02,2.59111e-01,-4.17377e-01,6.87706e-02,-9.84442e-02,-2.70064e-02,-2.38843e-01,5.30068e-01,3.07160e-02,-1.28636e-02,-3.89729e-01,-2.39087e-01,7.36671e-01,-5.66461e-01,2.72542e-01,-1.19282e-02,2.38467e-01,2.63163e-01,2.72642e-01,-1.87196e-01,3.32402e-01,1.45811e-01,-8.68215e-02,5.11466e-02,9.76458e-02,-5.76017e-02,-1.38328e-01,3.26943e-01,1.53719e-01,9.96471e-02,8.36478e-02,-4.01258e-01,-1.31001e-01,-1.61439e-01,-4.66283e-01,-3.12514e-02,
1.08577e-01,8.43572e-03,1.67790e-01,-5.36771e-02,2.68954e-02,-2.38946e-01,2.55379e-01,1.54894e-01,-1.96896e-01,-5.11596e-02,1.46248e-01,2.59917e-01,9.50348e-02,-2.06093e-01,-2.24710e-01,-5.78226e-01,-3.54859e-01,1.54863e-01,-2.12219e-01,3.14912e-01,-7.70237e-02,-3.91450e-01,1.84372e-01,-3.09212e-01,4.94221e-02,7.90005e-02,1.33582e-01,1.93841e-01,-2.97943e-01,1.01811e-01,6.94205e-02,-1.70571e-01,-6.31390e-02,-2.89668e-02,-4.20921e-02,1.22994e-01,-9.25622e-02,1.47488e-01,2.44325e-01,-2.89671e-01,-2.34699e-01,1.94575e-02,1.78817e-01,2.43461e-01,4.06281e-01,
9.56020e-02,-8.39139e-02,4.35243e-01,-2.76696e-03,-1.71840e-01,3.63493e-02,2.12631e-01,7.21190e-03,2.51062e-01,-1.48541e-01,1.77217e-01,2.48104e-01,4.41783e-02,-2.11380e-01,3.52937e-01,-1.63058e-01,-2.79487e-02,-1.30097e-01,2.65860e-02,-7.41583e-02,-4.87673e-02,2.46631e-01,2.36333e-01,4.68924e-01,9.23439e-02,-1.86211e-01,-2.58830e-01,4.29842e-01,-6.49237e-01,2.29920e-01,4.02660e-01,4.06951e-01,-1.19090e-02,2.68208e-01,5.35875e-02,-7.96356e-02,1.27733e-01,-4.57795e-02,2.16072e-01,1.31396e-01,-2.29820e-01,1.78035e-01,1.72109e-01,-1.17233e-01,-1.63120e-01,
2.81374e-01,-2.58336e-01,5.18654e-01,9.84191e-02,-1.46737e-01,-2.23478e-01,-5.10639e-01,-6.07700e-02,-6.88206e-02,-2.22346e-01,2.81310e-01,-4.88454e-01,4.25839e-01,1.24433e-01,9.50734e-02,5.07292e-02,1.64950e-01,1.12678e-01,-2.03157e-01,1.00660e-01,-2.07622e-02,8.11586e-01,6.58350e-02,-2.45936e-01,6.57575e-02,-1.00801e-01,2.76201e-01,2.02846e-02,-2.87699e-01,-4.81658e-02,-3.35406e-02,3.56363e-01,2.91298e-01,1.33238e-01,-2.84001e-01,-5.39751e-02,3.07196e-01,1.19315e-01,1.14243e-01,6.37566e-02,3.60439e-01,-7.14187e-01,-3.08721e-01,-3.49536e-01,-5.00422e-01,
2.60190e-01,6.66700e-02,9.21661e-02,1.34780e-02,-3.63305e-01,1.05456e-01,-7.24269e-03,2.72695e-01,-5.38399e+00,9.80377e-02,9.10880e-02,2.27752e-01,4.00550e-02,-1.24998e-01,9.00508e-02,-3.99498e-01,1.14500e-01,1.30143e-01,-1.54039e-03,-3.41235e-02,1.48124e-01,5.45935e-03,2.62148e-01,-9.89862e-01,3.11622e-02,4.27175e-01,-1.97922e-01,7.24246e-02,-6.93258e-01,8.65010e-02,2.42899e-02,-4.95736e-04,2.35037e-01,9.04064e-03,5.67470e-02,1.60367e-01,2.63724e-01,-5.06647e-02,-4.25127e+00,-3.82897e-02,-1.82824e-01,-1.10354e-02,6.57422e-02,1.10828e-01,2.34051e-01,
1.53056e-01,-8.31906e-02,-1.79145e-01,-2.07416e-01,8.66239e-02,-1.96510e-01,-9.55443e-02,-1.36435e-01,-1.74150e-01,3.08988e-02,-5.34604e-02,-2.42243e-01,-5.14850e-02,-2.55546e-01,1.12437e-02,-8.70937e-02,-1.99622e-01,3.21328e-02,-1.92620e-01,8.54771e-02,-1.58473e-01,7.07898e-02,-9.42210e-02,-1.65211e-01,5.39526e-02,-1.70480e-01,-7.25656e-02,-1.85716e-01,-2.21628e-01,1.69786e-01,1.26294e-01,1.46258e-01,-1.24875e-01,9.30764e-02,-1.66605e-01,2.36978e-01,1.72042e-01,1.26466e-01,-1.32687e-01,-2.61461e-01,1.64491e-01,-1.90454e-01,-2.25294e-01,-1.18173e-01,-1.28407e-01,
-1.71564e-02,-1.43343e-02,-3.15462e-01,-7.95320e-02,-4.96179e-01,-3.70783e-02,-8.05403e-02,-1.54626e-01,6.20275e-02,-2.02336e-01,-4.23543e-01,4.95643e-02,2.93076e-03,4.62476e-01,-9.13106e-02,7.46965e-02,1.97124e-01,-9.98075e-02,1.53233e-01,1.52026e-01,-2.87409e-01,5.33555e-01,1.52493e-01,3.29700e-01,-2.39589e-01,2.72049e-01,-1.40403e-01,2.42833e-01,3.21557e-02,1.44782e-01,3.86692e-02,1.47354e-01,-2.06754e-01,2.41927e-02,1.38922e-01,-1.83781e-01,1.25980e-01,1.51784e-01,-3.63375e-02,3.43830e-01,2.08148e-01,2.09856e-01,-3.19805e-01,1.66805e-01,3.81299e-02,
1.76913e-01,-1.31910e-01,1.27061e-01,7.00529e-02,2.24995e-01,-6.02138e-02,1.01939e-01,-8.69089e-02,2.45279e-01,1.63312e-01,-4.96514e-01,2.66703e-01,-1.39751e-01,-2.75916e-04,-5.47966e-02,-3.70689e-02,1.52666e-01,3.57446e-01,-9.31523e-02,-2.90991e-02,-1.20696e-01,5.09464e-01,1.00986e-01,-2.05585e-02,5.03104e-02,2.85927e-01,7.66211e-02,3.59557e-01,-1.57139e-02,8.04574e-02,1.18347e-01,-3.37486e-01,-5.47622e-01,-3.48396e-01,-2.41306e-01,-7.22327e-02,-7.29799e-02,1.74708e-01,4.99236e-02,2.18511e-01,-8.55244e-02,1.46335e-01,-6.02637e-02,-2.31342e-01,1.95299e-01,
1.92457e-01,1.57340e-02,-1.93716e-01,-7.34163e-02,-9.63827e-02,-7.08789e-02,6.66471e-02,2.36948e-02,-1.24485e-01,-1.07634e-01,1.56682e-01,-4.08850e-01,8.28778e-02,-3.99204e-01,-1.19283e-01,8.41697e-02,4.79490e-01,-4.03670e-02,2.98505e-01,-4.39578e-01,5.28609e-02,4.59876e-01,-6.43377e-01,1.35779e-01,-4.59869e-02,2.36178e-01,2.77961e-01,-2.02584e-02,1.93032e-01,-1.30610e-01,9.54104e-02,-1.13735e-01,2.06624e-01,-1.63511e-01,-1.08095e+00,-2.61561e-01,2.05356e-01,3.70872e-01,1.22427e-01,2.09687e-01,2.71858e-01,6.64752e-02,-4.37885e-01,-2.17983e-01,1.88820e-01,
2.73041e-01,-3.90778e-02,-1.55100e-01,2.62776e-01,1.85933e-01,-2.58993e-01,-2.64140e-01,-2.72582e-03,1.20491e-01,-9.80521e-02,4.25993e-01,1.84233e-01,3.14665e-02,-1.53591e-01,-9.20217e-03,-2.72267e-01,4.04840e-02,1.25711e-01,-6.76303e-02,9.56783e-02,-1.90261e-02,3.18018e-01,4.48965e-02,1.37214e-01,-6.11316e-03,-4.84438e-01,-7.02176e-03,-1.18287e-01,-6.20188e-02,-9.09666e-02,4.99795e-01,5.31046e-02,1.07042e-01,-2.71144e-01,-1.05659e-01,1.06337e-01,-9.04449e-02,2.67577e-02,5.38964e-01,1.37886e-01,-8.09292e-02,-4.91674e-01,-1.30292e-01,-1.84892e-01,2.32448e-01,
2.22428e-02,3.89722e-02,1.67523e-01,-1.23021e-02,-2.42436e-01,-2.20520e-01,-2.07781e-01,8.20014e-02,-2.70843e-01,2.22257e-01,-2.57536e-01,5.53686e-02,5.98338e-02,-3.70877e-02,-2.38533e-01,-2.53741e-01,1.51698e-01,2.17561e-03,-5.66952e-02,-2.29562e-01,-1.53449e-01,-1.85162e-01,1.41291e-01,1.99187e-01,-2.16903e-01,1.24878e-01,-6.64444e-02,-2.12784e-01,-1.38605e-01,-1.10082e-01,-1.06307e-01,-3.60783e-02,-1.33195e-01,3.66598e-02,-1.40149e-01,-2.45220e-01,2.37394e-01,-1.57719e-01,5.21819e-02,4.83123e-02,-9.62818e-02,1.80194e-01,-5.15377e-02,-2.26346e-01,-1.39558e-01,
-2.90339e-03,1.17226e-01,3.63916e-01,5.05564e-02,3.15927e-01,8.04647e-02,3.60668e-01,-2.79151e-01,4.75662e-01,-6.90000e-02,3.58681e-01,-1.74027e-01,-3.55618e-01,3.09148e-02,-5.39584e-02,1.79686e-01,-1.12082e-01,-1.40559e-01,-2.77533e-02,-9.69631e-02,-1.91477e-01,4.85183e-02,-3.84975e-02,3.85765e-01,2.14971e-02,6.48259e-02,2.33448e-01,1.28319e-01,3.11430e-01,1.52021e-01,-4.79324e-01,-1.67246e-01,-5.01078e-02,-1.33858e-01,-5.52397e-02,-7.50778e-02,1.96410e-01,1.28044e-01,2.99507e-01,-9.72262e-03,1.66225e-01,2.71221e-01,-1.50425e-02,-2.72639e-01,-1.49705e-01,
-4.42784e-01,-4.75113e-01,1.15748e-01,3.69912e-01,3.73133e-01,-2.42594e-01,-1.71323e-01,-1.96307e-01,1.28297e-01,4.37375e-02,6.51930e-02,8.02661e-02,1.61533e-01,-4.85614e-01,-5.83631e-01,9.52808e-02,-6.09062e-01,2.19452e-01,9.78422e-02,3.57146e-02,-4.64860e-03,3.95734e-01,-7.54449e-02,-1.66248e-01,-8.12895e-02,-1.09992e-01,2.00114e-01,-6.74697e-01,3.59211e-01,-5.63172e-01,-3.40403e-01,-1.97193e-01,-3.43045e-01,-4.53527e-01,1.10969e-01,1.36898e-01,8.71023e-02,-6.79007e-01,-2.47803e-01,-1.40402e-01,5.54206e-01,5.69709e-02,-2.28172e-02,-1.34159e-01,-9.49546e-02,
1.51777e-01,2.24087e-01,9.01154e-01,3.03798e-02,-4.24724e-01,-6.25486e-02,-6.08861e-02,-2.17822e-01,2.28290e-01,8.39667e-02,3.27689e-02,3.73717e-01,7.06519e-02,-2.21443e-01,1.28720e-01,5.85536e-04,1.93563e-01,-3.03910e-02,2.10745e-01,2.87283e-01,3.89116e-01,6.95207e-04,-2.69598e-01,6.01702e-02,2.16423e-01,-1.03712e-01,-8.27362e-02,-3.47913e-01,-1.59769e-01,1.13236e-01,3.42402e-01,6.64661e-03,1.70597e-01,-3.94824e-01,-1.20956e-01,5.10665e-02,3.89087e-02,7.26978e-02,-3.39127e-02,-1.26109e-01,-2.90044e-01,-1.15558e-01,-5.80213e-02,1.24898e-02,-3.22511e-01,
-7.88718e-02,4.63254e-01,-1.12575e+00,1.72521e-01,2.26360e-01,-1.59680e-01,-3.59909e-02,3.82836e-02,-4.98715e-01,-5.56042e-02,6.06417e-02,2.71705e-01,2.40499e-04,1.73761e-01,4.81903e-02,3.31025e-01,-2.57515e-01,1.33899e-01,5.71341e-02,2.27886e-01,2.93782e-02,3.35914e-01,6.50766e-03,-4.62733e-02,-1.31569e-01,-1.15671e-01,5.97334e-02,3.11899e-02,5.52669e-01,-3.49459e-01,2.17466e-01,-1.47425e-01,1.00709e-01,5.58647e-02,4.17912e-01,1.03252e-01,2.41359e-02,-2.03645e-02,5.69688e-02,2.20927e-01,4.11127e-01,-2.03166e-01,-2.41449e-02,-9.69264e-02,-1.77364e-01,
1.48741e-01,-1.46151e-01,4.86317e-01,1.38402e-01,3.10194e-01,-6.60521e-02,-9.73824e-02,3.43103e-01,-2.62043e-01,2.15855e-01,-2.89301e-01,3.65322e-01,3.71911e-02,1.82949e-01,6.53459e-02,-2.46343e-01,-3.23413e-01,1.09976e-01,2.20973e-01,2.94644e-01,4.47184e-01,-1.09868e-01,1.45017e-01,4.62557e-02,-1.43566e-01,1.93563e-01,-1.52795e-01,2.05090e-01,-1.90777e-01,-1.30737e-01,-5.42198e-03,3.37253e-01,-6.39806e-02,-7.68918e-02,-9.27455e-02,1.12120e-01,4.26731e-02,-2.14549e-01,-4.81368e-02,5.31263e-02,-9.65342e-02,1.78756e-01,4.51678e-01,-2.50393e-01,-1.52476e-01,
-5.15758e-02,-3.64976e-01,-2.99798e-01,-3.06808e-01,4.66362e-01,3.76707e-01,-7.64854e-02,-3.66540e-02,1.54676e-01,1.33974e-01,-1.04753e+00,1.65320e-01,2.66443e-01,8.77598e-02,3.68284e-01,-1.56429e-02,-3.87029e-01,1.75576e-01,-2.17021e-01,4.81525e-01,1.93055e-01,-5.65373e-01,3.14455e-01,-2.47361e-01,2.21594e-02,2.22279e-01,-6.25580e-02,5.74938e-02,-2.81785e-02,1.85015e-01,2.20948e-02,-1.24943e-01,-1.59038e-01,2.12140e-03,-5.05491e-01,2.98851e-02,3.93703e-01,7.29247e-02,-1.79841e-01,3.29945e-01,1.66854e-01,1.14493e-01,1.57077e-01,-1.42331e-01,-2.27931e-01,
9.64324e-02,4.48747e-02,-7.09646e-02,-4.44290e-01,5.77488e-01,1.86254e-01,6.08019e-02,2.85953e-01,-5.97609e-02,7.15953e-02,1.19743e-01,-9.56660e-02,2.99723e-02,-9.29823e-02,2.19199e-01,5.96896e-02,2.66739e-01,-9.85150e-02,-4.08402e-01,7.09836e-02,-1.41264e-02,3.25846e-01,1.28576e-01,-3.15594e-01,1.92511e-02,5.19166e-01,2.99777e-03,1.48042e-01,4.74809e-01,2.79606e-01,3.65436e-01,3.20913e-01,-2.75225e-01,1.95051e-01,-5.41691e-01,-1.46010e-01,1.32741e-02,-1.26044e-02,1.50446e-01,-6.73111e-02,2.86615e-01,-1.12672e-01,1.12180e-01,-4.04473e-02,6.86284e-02,
2.00226e-02,-3.47037e-01,-6.31215e-01,7.10180e-02,-1.75398e-01,2.82060e-01,1.45919e-01,6.65632e-02,-2.18413e-01,2.07265e-01,-1.14196e-01,8.31716e-03,3.05030e-01,4.27550e-01,1.73955e-01,-2.02158e-01,2.04365e-01,-5.04040e-03,-3.43635e-02,-2.98786e-01,-1.15638e-01,3.18400e-01,5.36453e-02,-1.47743e-01,-1.72581e-01,1.66513e-01,2.12359e-01,2.06710e-02,-3.35224e-01,8.81966e-02,-4.98888e-02,-2.53191e-01,5.87507e-02,-1.58372e-01,8.28262e-02,-1.01120e-01,4.70014e-02,4.07363e-02,-2.55809e-01,-1.29621e-01,-9.17313e-02,3.41066e-01,1.93487e-01,-5.89890e-02,1.20814e-01,
-4.58437e-03,-1.10244e-01,2.30606e-01,-1.41063e-01,2.02447e-01,7.66570e-02,1.82859e-01,-1.02819e-01,9.82022e-02,1.91880e-01,-4.08096e-01,-1.58483e-02,1.05945e-01,-4.56813e-01,-4.58143e-03,-6.16829e-01,-2.41462e-01,1.28566e-01,2.68582e-02,-3.26647e-01,-2.00009e-01,-1.95456e-01,-6.07033e-01,-2.49079e-01,-1.49403e-01,1.36781e-01,3.35366e-01,7.33392e-03,1.90247e-01,-1.96576e-01,2.08916e-01,-6.58026e-02,-2.38514e-01,6.85090e-02,1.61164e-01,4.20412e-02,1.63052e-01,2.41265e-01,1.13007e-01,4.12095e-02,-3.43965e-01,-2.93020e-02,6.70722e-02,-1.31172e-02,4.63933e-02,
-4.00669e-02,-2.07954e-01,-4.54922e-01,-1.03277e-01,-1.89439e-01,2.65402e-01,1.72502e-01,-1.95491e-01,3.16219e-01,-1.03144e-01,7.19540e-02,-1.73599e-01,4.25874e-02,-2.30789e-01,-1.28611e-01,-4.57149e-01,-4.54626e-02,9.21136e-02,-1.10045e-01,-1.04109e-01,3.01115e-02,-3.61275e-02,-1.11152e-01,-1.42975e-01,-2.87702e-02,-9.05338e-03,1.36749e-01,-3.08242e-02,-1.31577e-01,-3.66019e-01,-1.25259e-01,1.20428e-01,1.52886e-01,9.45376e-02,-1.69946e-01,3.98569e-01,-3.39423e-02,3.75072e-02,4.51551e-01,7.97297e-02,3.65591e-01,-3.12976e-01,-8.44161e-02,-3.21413e-02,3.14910e-01,
2.32620e-01,5.57716e-01,5.53214e-01,1.20301e-01,3.25699e-02,-3.32293e-03,-1.90075e-01,2.80184e-01,-2.80799e-01,-2.55157e-01,-2.93499e-01,4.45701e-01,-2.31746e-01,-3.23778e-01,-2.79215e-03,2.80222e-01,-3.53774e-01,2.36367e-01,-2.11364e-01,-1.23178e-01,2.98894e-01,-9.72991e-02,5.87145e-02,2.78775e-01,-1.69674e-01,1.77630e-01,4.42353e-02,3.68466e-02,1.97474e-01,-2.21735e-01,2.56633e-01,-2.38549e-01,-2.65798e-01,3.39460e-02,-2.82887e-01,1.89410e-02,2.99525e-01,-4.89543e-03,-2.95257e-01,1.01305e-03,-9.32193e-02,-1.22853e-01,-3.39547e-02,2.51314e-01,-6.46151e-02,
-2.18731e-01,-4.76363e-02,-9.27758e-01,-9.92397e-02,-5.27524e-02,5.57266e-01,1.54978e-01,-3.31448e-01,-3.28349e-03,-2.56248e-01,-2.18709e-01,2.96272e-01,-4.57989e-02,-3.72082e-02,9.60464e-02,-4.75397e-02,-1.49926e+00,2.13954e-01,-1.31070e-01,3.83813e-01,4.17439e-02,-8.72942e-01,4.94211e-01,-1.28123e-01,-1.25182e-01,2.46021e-01,6.42588e-02,-1.50369e-01,1.82474e-01,-5.60401e-02,-1.63764e-01,-3.16457e-01,-1.56376e-01,2.42216e-01,-4.09408e-01,-6.42663e-02,-3.73805e-01,-5.46869e-01,2.54313e-02,7.57665e-02,-2.37365e-01,2.89983e-01,3.71886e-02,-1.21821e-01,3.37087e-01,
-2.80165e-01,8.68588e-02,-1.20476e-01,-9.86053e-02,-1.20015e-01,-4.09604e-01,6.48140e-02,3.34588e-01,1.83933e-01,2.73907e-02,-1.60207e-01,-1.36065e-01,-2.23934e-01,5.30120e-02,3.92379e-01,-5.38511e-02,-2.52026e-01,4.10926e-03,1.91619e-01,5.60386e-02,3.02493e-01,-3.36530e-01,6.11616e-02,2.11116e-01,-2.51512e-01,-4.67866e-01,6.66221e-02,3.61535e-01,1.38902e-01,-1.75261e-01,3.51671e-01,-7.30491e-02,-3.25613e-02,1.42079e-01,-1.09092e-01,1.21613e-01,-4.62540e-01,2.17470e-01,-5.37027e-01,1.38942e-01,-9.23492e-02,-1.05369e-01,1.63437e-01,1.76718e-01,3.40042e-01,
-1.72688e-01,1.87166e-03,-3.01087e-01,-1.36869e-01,-6.13079e-01,1.75760e-01,1.61012e-01,4.07433e-02,2.73840e-01,-8.94468e-02,-1.36817e-02,1.33076e-01,3.72845e-01,2.30109e-01,-6.66735e-03,3.43410e-01,2.49642e-01,-1.35655e-01,-1.78528e-01,8.06372e-02,1.24117e-01,-3.60714e-02,-4.42240e-02,-3.35982e-01,1.30590e-02,1.35080e-01,3.12192e-01,4.95086e-02,2.31351e-01,7.16312e-02,-1.47761e-01,-1.05204e-01,2.90055e-01,-4.08298e-01,1.19806e-01,2.01252e-01,-1.69670e-01,7.46780e-03,-3.44036e-02,-4.46485e-02,4.26949e-01,2.50811e-02,-4.96170e-03,-2.63420e-01,-3.01330e-01,
3.20418e-01,-6.59536e-02,3.85364e-02,-6.69541e-02,-1.04947e-01,-4.23647e-01,4.74716e-02,9.69685e-02,1.34289e-01,-5.94387e-03,-2.65047e-02,-9.30816e-02,-9.03802e-02,3.33064e-01,4.71345e-01,-2.34670e-01,3.08366e-01,-8.44539e-01,-3.46590e-01,-1.04407e-01,6.52762e-02,1.59072e-02,-1.70953e-01,6.44953e-02,6.68379e-01,8.06721e-02,9.19918e-01,-9.17935e-02,3.77885e-01,-3.26549e-01,6.99844e-03,1.12167e-01,5.35422e-01,9.49417e-02,5.46247e-02,-7.62277e-01,-1.01473e-01,6.17565e-02,4.31301e-02,3.32024e-01,3.88991e-02,-1.33666e-02,-1.83938e-01,-8.45640e-01,-2.87209e-01,
3.44038e-01,-4.53610e-01,-7.53707e-01,8.49262e-02,2.12216e-01,-4.65076e-02,2.19693e-01,2.91066e-01,4.21297e-01,1.16490e-02,6.68947e-02,-3.50346e-01,9.72984e-02,4.39094e-01,2.39204e-01,9.37428e-02,-4.68732e-02,1.34347e-01,3.41552e-01,7.56848e-02,-1.20944e+00,5.16749e-01,-1.79957e-02,-4.71645e-01,3.57054e-01,6.33863e-02,-9.13669e-02,8.43182e-02,-3.59697e-02,9.50488e-02,-2.31262e-01,1.15668e-01,-8.77277e-01,-2.98328e-01,1.01099e-01,-7.47846e-02,-1.34734e-01,-4.75024e-01,-2.09377e-01,3.84925e-01,5.33415e-02,-3.96863e-01,-1.04958e-01,2.50954e-01,-5.17781e-02,
7.80120e-02,1.97776e-01,-5.76837e-01,-8.32600e-02,5.90544e-02,1.07963e-01,6.04457e-02,2.98605e-01,1.30571e-02,4.93374e-02,2.24291e-01,-6.68742e-02,-1.03282e-01,-1.85458e-01,1.63135e-02,2.99800e-01,-3.17769e-02,-2.48242e-01,3.71586e-02,-6.82790e-03,1.67839e-01,-1.77122e-01,-2.85360e-01,1.63731e-01,-2.20118e-02,8.86914e-02,3.33448e-01,3.44322e-01,2.87030e-01,4.09140e-01,2.22612e-01,4.23895e-01,7.44273e-02,1.62600e-01,2.54499e-01,-6.44498e-02,-3.56696e-02,1.74802e-01,-7.37480e-01,3.63488e-01,2.66979e-01,-1.87843e-01,-3.58368e-01,-1.09725e-01,1.85237e-01,
4.24643e-02,
-1.77307e-01,
-4.35244e-02,
2.37917e-01,
5.26333e-03,
2.08926e-01,
-1.83732e-01,
1.17497e-01,
-1.78283e-01,
-4.97641e-02,
1.90435e-01,
2.41335e-01,
-5.73783e-03,
-1.36772e-01,
-1.49803e-01,
-1.50556e-02,
-1.50108e-01,
-5.49622e-02,
3.76802e-02,
-9.05867e-02,
-2.92378e-01,
1.02430e-01,
-1.20842e-02,
3.04754e-03,
1.16681e-01,
2.70259e-02,
-6.56393e-03,
-5.23900e-03,
7.85361e-02,
1.10957e-01,
3.98962e-02,
-7.62947e-03,
1.13650e-02,
-1.58138e-01,
-4.79126e-01,
2.32692e-01,
1.08344e-01,
6.04785e-02,
1.82528e-01,
4.42689e-02,
8.45618e-02,
8.15851e-02,
3.00619e-02,
6.96422e-04,
-3.41721e-02,
3.56943e-01,-6.55910e-01,4.33233e-01,2.44037e-01,-2.72900e-01,4.35799e-03,-3.36151e+00,-1.99495e-01,1.45178e-01,-6.57501e-01,-1.46661e-01,-4.66888e-01,-8.39040e-02,4.72172e-01,5.72875e-02,1.12125e-01,-7.25503e-02,-2.59272e+00,1.20389e-01,4.87563e-01,7.37174e-01,-4.55217e-02,-1.64605e-01,-5.72442e-02,1.15653e-01,9.93638e-02,-1.00900e-01,2.10008e-01,-7.19199e-02,1.07704e-01,6.98418e-02,-8.79210e-02,-2.58995e-02,2.35742e-02,4.51504e-01,-6.84388e-02,-2.16154e-01,-2.17055e-01,1.64108e-01,1.52310e-01,-7.12632e-02,1.59646e-01,-1.24391e+00,3.99566e-01,5.28754e-02,
-9.68604e-03,-3.52075e-01,-4.00941e-01,4.40401e-02,-1.72599e-01,-9.01102e-02,-1.32276e-01,4.07509e-01,-2.00857e-01,-8.62472e-01,-3.43008e-01,2.03984e-01,4.23830e-01,8.63449e-03,8.76589e-01,-1.02190e+00,-2.61534e-02,-3.01403e-01,2.99515e-01,1.27424e-01,-5.04355e-01,-5.57595e-02,7.61954e-02,2.52599e-02,8.97553e-03,1.71917e-02,1.25147e-01,2.10690e-01,1.98428e-01,4.45100e-01,1.75469e-01,-1.08678e-01,2.08400e-01,4.23934e-01,1.61468e-01,-1.30357e-01,-1.64408e-01,-2.44686e-01,-2.26142e-01,-8.02679e-01,-1.78925e-01,-2.56603e-01,1.60309e-01,-1.20368e+00,4.27027e-02,
-4.39752e-02,9.82338e-02,-1.49491e-01,-1.11944e-01,2.68310e-02,5.36740e-05,6.45609e-02,-6.89531e-02,1.03408e-01,5.20545e-03,-2.03164e-01,-1.09061e-01,-9.93349e-02,-1.46821e-01,6.02001e-03,-2.52013e-01,-5.04282e-03,6.90322e-02,-2.41404e-01,-2.26441e-01,-1.00302e-01,-1.60549e-01,7.86964e-02,-1.93551e-01,1.38390e-01,-2.26981e-01,-2.30778e-02,4.29935e-02,-2.34344e-01,2.93614e-02,-1.83137e-01,-8.54701e-04,-1.05085e-01,2.05486e-01,7.33216e-02,1.33200e-01,1.83565e-01,3.49555e-02,-1.37797e-01,-1.11725e-01,-1.69591e-02,9.22555e-02,-7.84800e-02,-1.43734e-01,-9.33179e-02,
-1.34463e-01,3.19030e-02,3.90860e-01,1.66275e-01,2.88148e-01,-2.06685e-01,-9.73953e-02,-1.08502e-01,4.35030e-02,1.78871e-02,1.18402e-01,3.99102e-02,5.45422e-01,3.90066e-01,-1.31362e-01,1.39118e-01,-3.26922e-01,-6.18228e-02,-9.92137e-02,-2.41733e-02,-5.02925e-01,6.51828e-01,2.38588e-01,-2.47994e-02,1.32754e-01,3.32308e-01,3.11964e-01,2.93061e-02,6.40243e-02,1.88050e-01,4.82932e-03,1.08971e-01,6.79314e-02,2.12244e-01,-1.27526e-01,-2.07968e-01,-2.25671e-01,1.12102e-01,-9.83331e-02,-1.64631e-02,-2.29795e-01,-9.10663e-02,1.75656e-01,1.06755e-01,-1.62683e-01,
2.75911e-01,-5.31662e-01,2.17328e-01,2.94802e-01,-1.83092e-01,2.75771e-01,-9.55051e-01,5.64541e-02,6.07314e-02,-3.32073e-01,-3.24950e-01,1.84431e-01,1.32803e-01,1.04469e-02,-1.66377e-01,-1.49959e-01,7.72190e-01,-7.00786e-02,-7.69833e-02,1.80012e-01,2.46394e-01,5.54218e-02,-1.99955e-01,1.92164e-03,1.03242e-01,-2.64027e-01,1.01687e-02,1.19741e-02,1.43771e-01,-2.08475e-01,2.55111e-01,8.66411e-02,-1.15498e-01,-1.78136e-01,-2.13852e-01,-5.53895e-02,1.70237e-01,-2.04402e-01,2.90942e-01,-3.24658e-01,-4.20315e-01,1.22378e-02,-7.19249e-02,-1.07603e-01,-3.15696e-01,
1.46549e-01,-5.53696e-02,4.29008e-01,1.25805e-02,2.76988e-01,-8.83014e-02,-1.19261e-01,3.59992e-01,4.06249e-01,9.04792e-02,8.19002e-03,-1.31962e-01,-8.11014e-02,1.42574e-01,1.17816e-01,-2.65593e-01,-3.52798e-01,3.32949e-02,1.89197e-01,3.72492e-02,9.78035e-02,-3.85641e-01,-3.71954e-02,3.05259e-02,2.17291e-01,2.10025e-01,8.58957e-02,1.82221e-01,-1.50012e-01,-2.69856e-01,-2.23223e-03,-2.95110e-02,3.01505e-01,-5.20721e-01,8.47636e-03,1.92556e-01,-2.13243e-01,-9.79591e-02,2.23667e-02,-2.89366e-01,1.62879e-01,-8.10884e-02,-6.27731e-02,5.13129e-01,5.10834e-02,
-2.20263e-01,-4.65476e-01,1.86811e-01,2.09788e-01,4.27512e-02,1.68070e-02,3.88867e-01,-9.24094e-02,4.54956e-01,-2.22806e-01,4.63750e-02,-1.93248e-01,-3.20761e-02,2.50022e-01,4.18474e-01,-1.82618e-01,-1.33047e-02,8.85026e-02,2.74539e-01,1.56641e-01,-1.20119e-01,-3.73144e-02,1.90890e-01,-1.01703e-01,6.06254e-02,-2.38892e-01,1.84295e-01,-1.26768e-01,3.10385e-01,-1.38069e-01,-3.74160e-01,3.19139e-01,-1.40543e-01,1.74778e-02,8.37966e-01,4.58924e-01,3.01487e-01,1.07941e-01,1.05303e-01,-2.34271e-01,-1.55255e-01,2.07266e-01,-1.84649e-01,2.47002e-01,2.49761e-01,
1.91495e-01,-5.34253e-01,1.26970e-01,2.35707e-02,5.44226e-02,8.77799e-03,-1.03068e-01,-1.47271e-01,3.89253e-01,4.92219e-01,-8.64817e-02,2.27020e-01,-1.10616e+00,-1.07805e-01,1.16668e-01,1.46213e-01,1.53604e-01,-3.44170e-01,-4.06040e-02,5.33465e-02,-1.28410e+00,8.68200e-02,-1.32009e-01,6.51619e-02,-8.42179e-02,-4.89032e-01,1.85368e-01,1.64617e-01,-1.88666e-01,-2.85060e-01,6.43828e-01,-2.02860e-01,1.75265e-01,2.51905e-01,-8.17461e-03,-1.71340e-01,-2.27599e-01,8.19718e-02,2.78380e-01,-2.26228e-01,2.38979e-01,5.14976e-02,-4.09775e-01,-4.33366e-01,-2.73817e-02,
3.18490e-01,-8.25798e-01,4.51905e-01,1.07549e-01,3.43646e-02,-7.30081e-01,-1.11351e-01,-1.50636e+00,1.17339e-01,-4.46791e-01,2.66124e-01,-4.10778e-01,1.14095e-02,8.92075e-02,-7.15425e-01,4.05008e-01,1.98326e-01,-8.44118e-01,-1.14951e-01,1.31843e-01,1.10380e-01,4.90940e-02,2.03438e-01,2.48503e-01,9.39219e-01,3.17241e-01,-4.18230e-01,-6.55252e-02,-3.43086e-01,3.02605e-02,6.07108e-02,-1.89384e-01,3.26152e-02,-1.32752e+00,2.23710e-01,-1.10238e-01,-4.80455e-01,8.63816e-02,2.96876e-01,1.47043e-03,-9.55341e-02,-1.37372e-01,-6.93330e-01,3.67778e-01,1.72550e-01,
9.61078e-02,1.26453e-01,-7.45034e-02,1.12950e-02,-1.73207e-01,1.47698e-01,3.79158e-02,6.91480e-03,2.95011e-03,8.51272e-02,1.30285e-01,4.36311e-01,-2.26782e-01,-1.00983e-01,-3.22990e-01,-1.40771e-01,2.45756e-01,-5.34368e-01,1.73929e-03,-5.95640e-02,2.99710e-01,-1.50990e-01,-2.04388e-01,5.32609e-03,-1.91743e-02,-1.46711e-02,-2.00040e-01,-2.34453e-01,3.24397e-01,-2.89567e-02,-1.21756e-01,-2.09132e-01,-4.35312e-01,-6.32305e-01,-2.88963e-01,-9.47121e-02,-1.49442e-02,3.62060e-01,2.56990e-01,-9.58531e-01,-1.27663e-01,2.63729e-02,-1.03264e-01,2.21207e-01,1.99525e-01,
-2.42996e-01,-4.60979e-01,2.50501e-01,-1.00016e-01,-7.31299e-03,-2.94425e-01,-6.11980e-01,3.56748e-02,1.74749e-01,1.33212e-01,-2.43688e-02,9.75112e-02,-1.37269e-01,3.55899e-01,2.41651e-01,-3.23335e-01,6.20960e-01,-8.86302e-02,8.31009e-02,1.26263e-01,-2.15397e-01,-3.55475e-02,1.16582e-01,-1.87138e-01,2.56893e-01,-3.14841e-01,2.67958e-01,1.69284e-01,-1.30392e-01,-1.16183e-01,2.23315e-02,1.93044e-01,3.45827e-01,-4.52711e-02,3.21939e-01,4.98766e-02,-1.67460e-01,1.55275e-03,3.17130e-01,-2.45776e-01,3.62862e-02,1.49698e-02,-3.70358e-02,8.49932e-02,8.10466e-02,
4.01527e-01,-2.06274e-01,4.44037e-01,-9.76054e-01,3.42432e-01,-3.67934e-01,-4.22019e-02,2.13493e-01,6.33942e-01,1.19070e-01,-2.43332e-01,-1.18892e-01,-2.34740e-01,9.63322e-02,-1.42863e+00,4.01154e-02,3.24482e-01,-7.04553e-02,3.51041e-01,2.66867e-01,1.59787e-02,2.90056e-01,6.81743e-02,-7.66234e-01,8.66074e-02,1.33476e-01,2.83788e-01,-2.56819e-01,5.64128e-02,-4.35018e-01,-1.04523e-02,-1.34875e-01,-1.15602e+00,-2.21789e-01,8.70966e-01,-6.41834e-01,2.26173e-01,2.48780e-02,-3.59362e-01,-1.02058e+00,1.26257e-01,-1.37342e-01,7.98295e-02,-1.26831e+00,-4.72942e-01,
-1.12131e-01,1.93762e-01,-3.39312e-02,-8.15577e-02,1.71731e-01,-2.18428e-01,-8.92479e-02,-4.84187e-02,-2.49135e-01,1.60867e-01,2.72478e-02,2.26551e-01,9.39996e-02,-2.34367e-01,1.59075e-01,8.56996e-02,4.66785e-02,-1.56849e-01,-1.62992e-01,1.20605e-01,1.69501e-02,-2.34999e-01,-2.23222e-02,5.80625e-01,1.26665e-02,-3.20610e-01,1.02874e-01,-2.42984e-01,-4.94345e-02,2.96572e-01,2.24060e-01,-2.86247e-02,-3.73846e-01,-1.25803e-01,-1.24029e-01,-2.63417e-01,9.62093e-02,-1.66179e-01,-2.63176e-01,3.39009e-02,1.40164e-01,-2.71819e-01,1.73528e-01,2.04318e-01,-2.13339e-01,
6.39297e-02,4.36288e-02,3.34629e-01,9.33803e-02,-9.01930e-02,1.23908e-01,-6.09030e-01,1.81707e-01,7.34057e-02,1.08163e-01,1.31035e-01,-2.32486e-02,6.35528e-02,5.71406e-02,-1.53971e-01,-1.44463e-01,3.63955e-01,1.84099e-02,-2.30241e-01,-1.52901e-01,2.95203e-02,-4.11762e-01,-2.31721e-01,2.24674e-01,-1.91755e-01,2.39798e-02,8.92122e-02,1.09865e-01,8.09714e-02,-1.48423e-01,-8.54559e-02,-3.93015e-02,1.23893e-01,1.47218e-01,-4.66162e-01,-2.63292e-02,1.67822e-01,1.24091e-01,1.01289e-01,1.72598e-01,2.33117e-02,-6.29364e-02,-2.65088e+00,3.47631e-02,-3.92305e-02,
-2.34693e-01,-2.87815e-01,-5.03425e-01,-2.44084e-01,6.00100e-02,-1.59588e-02,6.56498e-01,-2.85118e-01,5.57427e-02,2.16923e-01,-1.06234e-01,2.54233e-01,-2.65362e-01,1.12166e-01,-1.78189e-01,-1.22644e-01,7.24593e-01,2.04209e-01,-1.71718e-01,-1.04955e-01,2.50066e-01,2.22704e-01,-6.65629e-02,1.63556e-01,-3.44768e-01,-4.22153e-01,-3.98831e-01,1.74829e-01,3.03340e-02,3.45122e-01,-2.77351e-01,-1.36419e-01,-1.95764e-01,-2.70579e-03,-2.96001e-02,2.26436e-01,-1.09594e-01,4.02263e-01,1.54153e-01,5.44521e-01,-1.18675e-01,7.43148e-02,-1.62250e+00,7.32725e-02,-1.07539e-01,
-6.10105e-02,-7.53269e-01,-3.03196e-01,-8.93207e-02,-5.55665e-02,2.86996e-01,-1.02988e-01,-5.59615e-01,3.55559e-01,3.17589e-01,1.55886e-01,2.42744e-01,-1.94563e-01,-1.64517e-01,-5.85853e-01,-2.22593e-01,4.36029e-01,-7.49261e-02,-2.39930e-01,-2.31333e-01,3.95912e-01,1.67446e-01,1.94874e-01,2.42758e-01,-1.74288e-01,-2.92797e-01,4.80654e-02,1.18545e-01,6.48915e-02,6.56758e-02,3.01828e-01,-4.55429e-01,-7.00287e-02,7.90831e-02,-4.48070e-01,-1.50095e-01,1.27525e-01,3.21026e-01,3.38878e-01,1.00056e-01,-1.09091e-01,2.68737e-01,-2.58583e-01,1.22767e-02,2.47750e-01,
-1.17469e-01,-2.48030e-01,4.60289e-02,-2.33341e-01,-3.88499e-02,5.12301e-02,-6.45705e-01,-2.90582e-02,-3.31983e-01,-9.79719e-02,-2.43754e-01,4.94218e-01,4.33326e-02,-9.52410e-02,-2.92598e-01,4.98766e-02,1.14050e-01,-2.88409e-01,1.59296e-02,-1.91378e-01,-8.18313e-01,3.81031e-02,-1.65506e-03,1.78008e-01,-1.65658e-01,-3.19003e-01,-2.42272e-01,-1.40679e-01,2.53486e-01,-1.54569e-01,-5.11567e-02,-1.61308e-01,-2.19931e-02,2.29460e-01,-1.89331e-01,2.42387e-01,-1.18178e-02,1.38317e-01,2.80260e-02,-1.03588e+00,1.88699e-01,-1.77090e-01,5.85177e-02,-3.86418e-01,-1.03569e-01,
-3.99517e-01,-4.07128e-01,6.40539e-01,9.08379e-02,-1.18260e-01,1.37529e-01,1.25674e+00,2.53085e-01,2.18388e-01,1.43341e-01,-5.11122e-03,-1.23120e-01,2.46634e-01,-3.01456e-01,1.40306e-01,8.31635e-02,-3.48729e-01,1.47510e-01,-2.71382e-01,9.95132e-02,-2.94679e-01,3.83980e-02,8.53894e-02,2.90833e-01,3.32798e-01,1.17199e-01,-3.71025e-02,1.78046e-01,2.27153e-02,-8.10294e-02,-1.44713e-01,1.37069e-01,1.86858e-01,6.08572e-02,6.40182e-01,1.53998e-01,-1.85244e-01,6.96502e-02,-1.25639e-01,7.65787e-03,7.04444e-02,-1.62508e-01,-1.26384e+00,-3.66260e-01,4.39612e-03,
-2.34237e-01,1.29201e-01,-5.31812e-03,2.17053e-01,-2.38953e-01,-6.71447e-02,-3.82055e-01,-9.57305e-02,-1.98979e-01,-1.32766e-01,1.17160e-01,1.09418e-01,-1.94702e-01,1.40159e-01,-2.92848e-02,1.63381e-01,5.55423e-01,-5.56285e-02,-7.77814e-02,4.36181e-01,4.22202e-02,2.39704e-02,-4.06568e-02,-3.41145e-01,6.41002e-02,1.92209e-01,-3.02995e-01,-9.89939e-02,1.52920e-01,-4.13590e-02,2.62333e-01,-1.85536e-01,-1.19622e-01,2.47568e-01,1.23795e-01,-4.56368e-03,3.52015e-01,1.27198e-01,-3.37098e-01,-1.85011e-01,3.63742e-02,1.97860e-01,-1.51039e-01,1.97092e-01,2.11015e-01,
-1.41675e-01,3.12241e-02,1.74176e-01,2.99418e-02,-8.41542e-02,2.10170e-01,2.35760e-01,-1.24478e-01,2.12868e-01,-1.43985e-02,3.33407e-03,3.45901e-01,9.42151e-02,3.56312e-01,3.65676e-01,-2.03666e-01,-5.24245e-01,-2.78574e-02,2.96552e-01,1.54662e-01,4.16016e-02,-1.78458e-01,1.67836e-01,5.55854e-03,1.88881e-01,-1.90473e-01,-1.08985e-02,5.64111e-02,1.84853e-01,2.33027e-02,-1.40812e-01,3.69413e-02,2.03207e-01,-2.27348e-01,6.70124e-01,-3.40040e-02,1.33722e-01,1.59525e-01,1.25860e-01,-5.03992e-01,-4.08672e-01,-2.68362e-02,2.20215e-03,2.27995e-01,7.55167e-02,
3.34565e-01,-6.99391e-02,2.27675e-01,2.19466e-01,-1.70267e-01,1.16997e-01,3.05084e-01,-1.29604e-01,-1.20346e-01,-4.83921e-01,-1.59938e-01,1.23980e-01,1.90067e-01,-1.94836e+00,5.57709e-01,-7.51809e-02,-4.61455e-01,1.01854e-01,-1.45986e-01,-6.66047e-02,-2.85815e-01,-2.02037e-01,-1.14948e-01,5.89784e-02,-1.30662e-03,-7.19097e-02,-6.91522e-01,8.62704e-03,-2.64810e-01,-2.89156e-01,1.88189e-01,-2.09463e-01,1.99535e-01,-7.45295e-02,-1.55183e-01,8.38298e-02,3.23458e-01,-2.05461e-01,8.43269e-02,-6.77049e-01,1.65674e-01,-2.80840e-03,-3.92919e-02,-2.57884e-01,7.07807e-02,
8.40159e-02,-5.47282e-01,-2.32494e-02,2.91047e-01,1.10538e-01,-3.00102e-01,-8.38578e-01,1.59905e-01,-5.72069e-01,-2.09981e-01,2.20129e-01,-7.80822e-02,-1.61955e-01,2.09007e-01,1.83195e-01,-1.70765e-01,-2.76979e-01,-4.14419e-02,-1.19687e-01,-2.35133e-01,-9.42039e-02,1.08198e-01,1.15960e-01,-2.12130e-01,2.80973e-01,-1.27157e-01,-2.57775e-01,-1.71395e-01,2.24889e-01,2.25334e-01,-4.22483e-01,2.38721e-01,1.74775e-01,-9.65480e-03,-2.79092e-01,-2.20296e-01,2.00534e-01,2.24862e-01,2.59140e-01,9.62525e-03,2.13637e-01,8.26301e-02,-7.56245e-02,4.49837e-01,-1.63980e-02,
-1.70014e-01,3.85257e-01,-2.71666e-01,-5.62026e-02,-9.24693e-02,-5.73188e-02,-1.24705e-01,9.71716e-04,-3.38118e-02,-3.17584e-02,-7.01071e-01,-1.80636e-01,-2.97176e-01,-1.18091e-01,-5.93302e-01,-3.28216e-01,-1.04017e-02,-3.24698e-01,-3.63769e-02,1.14260e-01,-3.25753e-01,1.74659e-03,2.58709e-02,2.96758e-01,-1.75499e-01,-1.02813e-01,1.37159e-01,-2.13270e-01,-8.46321e-02,9.18640e-02,-1.20501e-02,-2.00948e-01,-7.83677e-02,2.91056e-01,-1.59044e-02,-2.25321e-01,3.32065e-01,-2.37694e-01,1.28212e-01,5.40190e-01,1.88590e-01,5.53738e-02,1.54342e-01,1.86769e-01,-1.79948e-01,
1.82405e-02,-2.21199e-01,-2.15333e-01,8.71318e-03,-2.61361e-01,1.10075e-01,-5.48029e-02,4.44566e-02,1.85367e-01,-1.53424e-01,-2.68869e-01,-9.99057e-02,-4.66401e-02,-1.60529e-01,5.09208e-02,1.39032e-01,-2.48010e-01,2.15497e-02,-2.21164e-01,-2.30952e-02,-8.02869e-02,1.98859e-01,1.67415e-01,-2.38101e-02,-3.03884e-02,-1.65003e-01,-1.56358e-01,2.53438e-01,9.82919e-02,-2.23097e-01,-6.81783e-02,-1.68983e-01,-1.33972e-01,9.31450e-02,-1.95559e-02,5.96805e-02,-2.62380e-01,-4.14611e-02,-9.82213e-02,-2.48044e-01,-2.11097e-01,-3.97290e-02,-1.46701e-01,1.82514e-01,1.45955e-02,
-3.61050e-02,-5.68813e-01,2.77392e-01,-1.66241e-01,-2.35455e-01,-1.52376e-01,-5.85053e-01,2.40183e-01,-9.07080e-02,-3.93276e-01,-1.99764e-01,3.81699e-01,-1.92007e-01,-7.83850e-02,3.59364e-01,4.99745e-02,8.28855e-02,-2.12366e-01,1.20055e-01,-7.17119e-02,8.30886e-01,6.64864e-02,-2.25611e-01,3.91265e-01,4.17503e-01,-2.13545e-03,-4.53457e-02,6.60579e-02,1.53888e-01,1.30078e-01,-2.55253e-01,-1.60587e-01,-1.82116e-01,6.14865e-03,-1.27901e-01,1.04628e-01,1.73048e-01,3.10911e-02,2.36994e-01,3.24257e-01,-1.80174e-02,-8.60105e-02,-1.21844e-01,1.35208e-01,7.51120e-02,
-2.57472e-01,-9.56442e-02,2.39240e-01,7.71009e-02,2.02875e-01,9.83495e-02,4.89324e-01,3.73173e-01,-4.80013e-01,1.79885e-01,4.92782e-02,-3.99572e-04,4.43279e-01,-1.13619e-01,-1.03855e-02,1.67886e-01,-5.07868e-01,4.39149e-01,-1.99777e-01,1.51906e-01,-8.02439e-01,-5.10816e-01,1.33177e-01,9.94810e-02,7.99965e-02,1.35814e-01,-5.47426e-03,-1.05563e-01,2.20215e-01,-1.31183e-01,1.39264e-01,-6.75453e-02,-1.57057e-01,8.64750e-02,3.42197e-01,1.74014e-01,4.79181e-02,-1.04858e-01,-1.43442e-01,4.84638e-02,3.61173e-02,-1.02694e-01,1.08630e-01,9.70986e-02,-1.14228e-01,
2.42760e-02,-4.32395e-01,-4.36130e-03,-3.14743e-02,1.87848e-01,-3.04264e-01,1.68235e-01,9.07709e-02,-3.05911e-01,-1.61338e-01,-1.62563e-02,-5.54998e-02,-2.04530e-02,-7.10138e-02,1.52875e-01,-4.93291e-02,-2.46363e-01,-6.91980e-02,2.24874e-01,-1.41182e-01,3.23402e-01,-3.59029e-02,1.57868e-01,4.37324e-02,2.28723e-01,-2.27619e-01,-7.02506e-02,-1.00535e-01,-4.71602e-03,-1.77265e-01,3.75554e-01,2.38191e-01,2.45101e-01,-4.81505e-01,4.54155e-01,-4.15957e-02,-2.31852e-01,-1.10086e-01,9.73621e-02,1.18625e-01,7.01086e-02,4.76050e-01,-1.67388e-01,3.81683e-02,1.96627e-02,
-3.44687e-02,-2.25760e-01,1.85717e-01,1.55560e-01,4.29606e-02,3.95993e-02,-3.42348e-01,9.19318e-03,-6.52536e-01,-4.99630e-03,-6.27662e-03,-3.02019e-01,-1.31066e-02,-3.74088e-02,1.14822e-01,-3.84265e-02,3.81570e-01,3.26204e-03,2.20755e-01,3.76332e-01,-5.94026e-01,3.64485e-01,-1.94399e-01,2.27055e-01,-1.47988e-01,2.48221e-01,2.61495e-01,-4.17642e-02,4.93964e-02,-2.23030e+00,4.45279e-02,-2.96832e-01,-9.32477e-02,1.71960e-01,-2.23520e-01,-2.86612e-02,7.72608e-02,1.95403e-01,-1.81449e-01,2.90529e-01,2.29449e-02,-1.23593e-01,-1.33329e+00,2.30315e-01,-8.90420e-02,
-4.68342e-01,-1.35866e-01,2.09303e-01,2.49011e-02,-1.53019e-02,-9.60836e-02,3.52172e-01,-6.97437e-02,-9.91368e-01,6.26581e-02,1.48807e-01,-1.86356e-01,1.87344e-01,-1.99316e+00,2.28439e-02,4.19602e-02,-7.72647e-01,-4.30548e-02,2.85304e-01,4.49452e-01,-3.63459e-01,4.60863e-01,-1.45861e-01,-9.58518e-02,9.46230e-02,-5.48884e-02,4.64882e-04,1.70158e-01,-3.18075e-01,-2.67451e+00,2.41005e-02,-3.84968e-01,1.46265e-01,-5.89801e-02,-1.61597e-01,2.20286e-01,2.09922e-01,6.22918e-02,-3.16719e-01,1.17120e-01,5.46784e-02,-3.84725e-01,-2.04310e+00,3.02233e-01,-1.78627e-02,
3.18266e-01,1.31092e-01,3.23962e-02,4.78765e-02,5.56823e-02,1.63134e-01,-8.99645e-02,1.01744e-01,1.32240e-02,-1.53539e-01,2.93262e-01,3.02060e-02,1.59724e-01,-1.12227e-01,-3.99422e-02,-1.82952e-01,-9.25223e-02,2.11141e-01,-1.44674e-01,-2.79533e-01,-2.41243e-01,5.01895e-01,-6.03051e-02,2.81600e-01,-2.51399e-01,1.80006e-02,-4.65796e-01,-5.84828e-03,-2.26839e-01,-5.56133e-02,-6.40358e-02,9.93068e-02,1.97012e-01,1.18817e-01,-3.02137e-01,7.15981e-02,3.07926e-01,-5.34067e-02,1.75550e-02,2.22337e-01,-2.23027e-01,2.74536e-02,1.44137e-02,1.74506e-01,1.54321e-01,
-2.58287e-01,-1.15695e-01,4.47905e-01,-8.67237e-02,-3.02771e-01,-1.86312e-01,3.31039e-01,1.34504e-01,-2.66730e-01,1.56987e-01,-6.72459e-01,2.76271e-01,3.54376e-01,-4.16138e-01,3.93593e-01,-2.47039e-01,7.40120e-02,2.43003e-01,-2.28923e-01,-6.69209e-03,-1.22323e+00,-9.17337e-02,1.83370e-01,-1.07016e-01,1.17469e-01,-4.76901e-01,-1.56052e-01,-2.78062e-02,-9.24228e-02,1.15848e-01,-9.34319e-02,6.53021e-02,3.88832e-01,4.37589e-01,5.21277e-01,-1.76148e-01,2.06967e-01,-2.18646e-01,1.80366e-01,1.44973e-01,-1.79372e-01,-1.04332e-02,2.88674e-01,4.81079e-01,-1.05869e-01,
7.97183e-02,3.72927e-01,-9.25302e-02,2.63300e-01,2.93603e-01,-7.80371e-02,3.86950e-01,-1.08434e-01,1.38948e-01,2.04284e-01,3.03779e-01,-5.12211e-03,3.37539e-01,1.55271e-01,-9.46900e-01,1.90407e-02,-6.65798e-01,1.75433e-01,3.90062e-02,2.42663e-02,-8.55611e-01,-2.46074e-01,-1.67796e-01,1.31174e-01,-2.42432e-01,2.00444e-01,7.50518e-02,-3.12672e-04,-2.10567e-01,1.83465e-01,2.32021e-01,1.75329e-01,-2.83733e-01,2.39961e-02,3.51421e-02,-1.29426e-01,-7.29267e-03,1.09165e-01,-1.77623e-01,2.42741e-01,1.56611e-01,1.15509e-01,6.57283e-02,3.21176e-01,4.12001e-01,
-1.13747e-02,-3.46114e-01,3.36262e-01,5.46024e-02,2.67782e-01,-5.54524e-02,2.64925e-01,-1.49044e-01,-5.34453e-01,-1.57183e-01,-2.45910e-01,1.11337e-01,-4.19646e-01,-2.07207e-01,1.47576e-02,6.45595e-02,-1.75571e-01,-1.96061e-01,7.16732e-02,7.49270e-02,-2.01830e-01,5.82029e-02,1.31787e-01,1.25308e-02,7.45580e-02,2.53778e-01,-4.15529e-02,-1.80418e-01,1.35875e-01,1.39009e-01,6.98027e-03,-1.13223e-03,5.92023e-02,-5.84605e-02,3.62322e-01,1.93414e-01,6.80510e-02,-2.73797e-01,3.14806e-01,4.08830e-01,-1.90884e-01,2.88444e-02,2.84555e-02,4.35432e-01,-1.38435e-01,
-2.90472e-01,-1.83888e-01,-1.02883e-01,8.60119e-04,-1.48844e-01,-1.18035e-01,-2.59758e-01,-8.88530e-02,-5.20808e-02,1.14848e-01,-1.51625e-01,-1.62337e-01,-8.25293e-02,-1.72709e-01,1.47413e-01,1.73601e-01,-2.05789e-01,-8.65382e-02,-1.22875e-01,-1.80149e-01,-2.39181e-02,1.72059e-01,9.61002e-02,1.36467e-01,5.94137e-02,-4.33619e-02,-1.98012e-01,5.65329e-02,8.02653e-02,-2.09036e-01,-7.86089e-02,-7.73205e-02,-1.47230e-02,2.06890e-01,-4.34190e-02,-1.91179e-01,3.98311e-02,1.64237e-02,-1.85015e-01,-9.26252e-02,-1.93764e-01,2.50593e-01,1.77733e-03,-1.22793e-01,-3.66402e-03,
5.89676e-02,3.26437e-01,-2.89775e-02,2.00591e-01,-2.00764e-03,-3.75299e-02,-5.05066e-01,-1.69538e-01,3.26558e-02,-2.41005e-01,1.37273e-01,-4.19473e-02,1.02856e-01,-7.98263e-02,-2.43312e-01,-4.78194e-01,3.75093e-01,5.96353e-02,5.86609e-01,-3.56583e-02,-1.82713e-01,-7.35679e-01,-9.91556e-02,1.03160e-02,-1.61314e-01,1.88983e-02,1.42455e-01,1.30149e-01,-3.74225e-02,1.48048e-01,-5.61321e-02,-6.65646e-02,9.16492e-02,1.45453e-01,-2.78692e-01,4.93151e-02,3.87884e-02,2.90841e-01,-9.53559e-02,2.45908e-01,3.00326e-01,1.78943e-01,4.45463e-02,-4.97799e-03,-1.26182e-02,
-1.26425e-01,8.91678e-02,2.45925e-01,-7.05943e-01,-4.24985e-01,-2.86765e-01,5.71433e-02,-1.97928e-02,-3.97224e-01,-1.07519e-01,-7.59063e-02,-3.73490e-02,4.74388e-01,1.91986e-01,-5.08920e-02,-2.64567e+00,-2.53336e-01,3.49596e-02,-1.19408e-01,1.31996e-01,-1.75925e-01,-7.45188e-01,-1.95598e-01,-3.98948e-03,1.50460e-01,9.22455e-02,2.93479e-01,-1.51508e-01,4.40790e-01,3.45072e-02,1.84791e-01,5.02561e-02,-2.41958e-01,1.70361e-01,-1.68562e-01,-5.04619e-01,4.99337e-02,2.81478e-01,-1.46895e-01,3.65508e-01,-3.70148e-01,3.14289e-01,6.85694e-03,-2.60114e+00,-6.42864e-01,
5.84591e-02,-6.64850e-01,-6.91889e-02,1.79445e-03,-2.89487e-02,2.20330e-02,-2.11522e+00,2.71744e-01,6.46000e-01,-1.18157e-03,-1.84058e-02,1.14027e-01,5.75961e-01,-1.60153e-02,-2.54120e-01,1.01090e-01,-2.15751e-01,-5.62766e-01,1.46949e-02,-7.39364e-02,4.23507e-02,3.41503e-01,5.38490e-02,-1.15995e-01,-3.04430e-01,-7.83903e-01,-5.75946e-01,2.38043e-01,-1.59364e-01,-9.30287e-02,-7.73109e-02,-3.33277e-01,2.51055e-01,2.11225e-01,-2.01013e-01,1.81310e-01,-2.79451e-01,-3.60089e-01,-1.42817e-01,-2.33819e-01,-7.88538e-02,2.06610e-01,4.91164e-02,-7.18704e-01,1.45371e-01,
3.67926e-01,1.81524e-01,-6.82504e-02,2.18014e-01,2.43256e-01,-1.05516e-01,3.66969e-01,2.16060e-01,3.49164e-01,1.53322e-01,3.55457e-01,2.03857e-02,-2.46349e-01,-6.81308e-02,-3.19129e-01,-2.72063e-01,3.91984e-01,1.67930e-01,4.82198e-02,-8.20443e-02,-7.68595e-01,1.73172e-01,5.80278e-02,8.15784e-02,-2.98893e-01,3.53303e-01,4.24611e-02,-2.49155e-01,3.49539e-01,1.80959e-02,2.96341e-02,-1.88166e-01,-2.12926e-01,2.70631e-01,5.59084e-02,-1.01987e-01,-5.29065e-01,2.97352e-01,-5.01720e-03,7.50768e-01,-2.34135e-01,-1.11155e-01,-1.09048e-01,3.49877e-01,1.92937e-01,
3.32586e-01,-2.84250e-01,4.69020e-02,-4.65562e-02,-2.70509e-01,-1.20557e-02,-1.48126e-01,3.17519e-01,1.91552e-01,1.97796e-01,8.10225e-02,-3.94336e-01,-3.48833e-02,-2.77718e-01,2.38974e-02,3.65242e-02,-2.15277e-02,-7.35343e-02,1.30071e-01,-2.20148e-02,6.15930e-02,-4.06496e-01,5.68767e-02,5.68935e-02,4.40017e-01,-1.82375e-02,-5.99471e-02,2.18942e-02,-4.73152e-03,2.03698e-01,-3.13309e-02,-2.60362e-01,1.00574e-01,-6.91421e-01,9.90905e-02,-6.77922e-02,-2.48310e-01,-1.48436e-01,-1.46393e-01,3.34325e-02,3.39225e-02,1.92429e-01,2.12829e-02,-6.93730e-02,-3.05879e-01,
9.75745e-02,-7.88597e-02,-2.28679e-02,7.88544e-02,8.71754e-02,2.89255e-01,-2.01845e-02,3.21842e-02,-3.52694e-02,-2.23319e-01,-1.58199e-01,2.08420e-01,4.30042e-01,-7.12849e-02,3.63240e-01,-1.46569e-01,2.99817e-01,-2.28650e-02,2.81574e-01,8.18261e-02,2.87302e-01,4.21181e-01,-2.32150e-01,3.52770e-02,2.41667e-01,-2.05781e-01,1.83164e-02,-4.19079e-02,-6.62397e-02,1.51931e-01,-1.80066e-01,9.15750e-03,-1.93343e-02,-1.70397e-01,-2.33738e-01,1.04585e-01,-3.31378e-02,7.74258e-02,-5.39146e-03,-5.18043e-01,1.01144e-01,-1.08260e-01,-8.09565e-02,-4.62858e-01,3.38000e-02,
-4.20894e-01,-8.44126e-01,2.75055e-01,3.81364e-02,-9.88456e-02,1.11159e-03,-3.09057e+00,3.61298e-02,-2.22979e-01,8.53834e-02,-3.56937e-01,1.71833e-01,-4.65766e-01,-1.59630e-01,3.84055e-01,2.93495e-01,-2.17932e-01,-9.85117e-01,-5.85792e-03,-1.39641e-02,2.48573e+00,1.96660e-01,-1.01432e-01,2.58987e-01,1.60123e-01,-1.64319e+00,1.76939e-01,2.22884e-01,-4.07428e-02,1.47313e-01,-5.88119e-01,-2.93362e-01,1.00307e-01,3.27234e-01,2.45494e-01,1.43618e-01,-2.15008e-02,2.39924e-01,-2.90809e-02,4.10948e-02,-2.04124e-01,2.36560e-01,-1.32886e+00,1.31115e-01,-7.37811e-02,
-1.32328e-01,8.14242e-01,3.29865e-01,5.33510e-02,1.84786e-01,6.92053e-02,-2.74635e-01,2.38656e-02,-8.57267e-02,2.81579e-01,9.88157e-02,2.49254e-01,-4.62018e-01,7.36385e-02,-2.20286e-01,-5.41948e-02,-5.06090e-01,-1.10058e-01,-2.53711e-01,-1.66201e-01,-7.52297e-01,2.33406e-01,9.44264e-03,-3.79492e-02,1.50519e-01,4.89345e-01,2.06116e-01,2.10860e-01,1.90041e-01,2.27209e-02,1.15577e-02,1.25295e-01,-1.82919e-01,-3.71692e-01,-5.14222e-02,-1.15470e-02,1.06042e-01,-2.64404e-01,-1.32719e-01,1.31981e-01,1.54491e-01,-1.64528e-01,-2.05046e-02,2.11824e-01,-6.18208e-02,
-1.20469e+00,-4.24263e-01,9.45406e-02,-3.95178e-01,1.36830e-01,-2.71239e-01,-6.34372e-02,-5.97204e-03,-1.40817e-01,-4.26347e-02,-2.66904e-01,-5.46966e-02,-4.68960e-01,3.37420e-02,9.38173e-02,4.97170e-03,-2.38803e-01,7.36301e-03,6.75819e-03,4.65973e-01,2.24713e-01,1.33063e-01,-1.59326e-01,1.51013e-01,-2.61370e-01,-2.36535e-02,-2.50764e-01,-2.49075e-02,-3.51446e-01,2.54631e-01,-1.51336e-01,3.53919e-02,-1.24294e-02,-1.51292e+00,1.18849e+00,-1.76637e-01,-3.25396e-01,-5.91102e-02,-3.87901e-01,-4.61891e-01,1.47477e-01,-5.04832e-01,1.72199e-01,-9.72398e-02,3.12251e-01,
1.37268e-01,1.72704e-02,-3.75937e-02,-2.28228e-01,1.06886e-01,1.57894e-02,-9.94733e-01,1.23952e-01,-3.15503e-01,-8.38794e-01,-9.61637e-01,2.98780e-01,3.81678e-02,1.22847e-01,1.08375e-01,-4.86429e-02,6.77889e-01,-1.72999e+00,2.02138e-01,9.13678e-02,9.25472e-01,-1.51351e-01,1.41959e-01,-1.54405e-01,-6.97308e-02,-9.30202e-01,-4.23465e-03,2.17485e-01,2.05165e-01,8.80740e-02,-1.19234e-01,7.45799e-02,-6.13335e-02,7.97020e-02,-1.23512e+00,-2.73722e-02,3.11262e-01,-1.94308e-02,2.02153e-01,-1.72514e-01,-5.44409e-02,-1.09017e-01,1.57951e-01,1.49626e-03,-1.82771e-02,
2.57799e-01,-2.04898e-01,-3.60090e-02,-4.15180e-01,6.44776e-02,1.58086e-01,-5.10159e-01,-2.23342e-01,2.21354e-01,7.25097e-02,-2.25329e-02,2.43485e-01,5.59166e-02,1.05949e-01,1.54650e-01,-3.63659e-01,4.75843e-01,-2.65704e-01,3.18669e-01,-2.31973e-01,1.45416e-01,-2.77717e-01,1.39601e-01,7.44398e-02,1.93262e-01,2.06470e-01,1.82076e-01,8.46975e-02,-1.18595e-01,3.74076e-01,2.75966e-01,-1.24507e-01,2.66347e-01,-4.84117e-01,-2.31886e-01,1.98531e-01,3.59947e-01,1.41862e-01,1.16918e-01,-5.38380e-01,8.09450e-02,7.60247e-03,-1.22409e-01,-3.70331e-02,7.33967e-02,
-1.28107e-02,
-1.24854e-01,
0.00000e+00,
-8.01054e-02,
2.06104e-01,
4.12751e-02,
-2.81817e-02,
2.02126e-01,
-9.39730e-02,
1.84059e-01,
4.14308e-02,
-2.77277e-01,
-2.59676e-02,
2.88884e-02,
1.30489e-01,
2.10727e-02,
3.01385e-01,
-1.10026e-02,
2.14472e-02,
8.42601e-03,
3.15961e-02,
1.42959e-01,
-1.03884e-01,
-2.17212e-02,
-8.92144e-02,
2.25936e-02,
1.56208e-01,
-1.92320e-01,
-8.99708e-02,
1.52806e-03,
-1.82133e-01,
-1.25051e-01,
5.18817e-02,
-4.71982e-02,
1.56120e-01,
-1.35680e-01,
-4.23060e-02,
2.94284e-03,
-6.83689e-02,
4.82557e-02,
-4.65007e-02,
9.27009e-03,
-6.62316e-01,
-4.56525e-02,
6.26001e-02,
1.82336e-01,2.93938e-01,-1.82171e-01,-6.96811e-02,-1.27460e-02,9.71508e-02,3.49248e-01,-1.04499e-01,7.13793e-02,6.02860e-02,9.50774e-03,2.14665e-01,1.00474e-01,-5.43637e-01,1.92574e-01,-1.39724e-01,7.15253e-02,4.73527e-02,2.64444e-01,2.08509e-01,1.28093e-01,-3.67170e-02,-1.67183e-01,-1.57527e-01,-5.79956e-03,2.42257e-02,3.88951e-03,-9.37587e-02,-1.18110e-01,1.34745e-01,5.09943e-02,4.95132e-02,2.05251e-01,-1.85647e-01,-9.57505e-04,9.37228e-02,1.70259e-01,9.28025e-02,-6.91424e-02,1.41241e-01,-2.77617e-01,2.61493e-03,5.99850e-01,-1.71789e-01,2.63763e-01,
7.06135e-03,1.50727e-01,-3.63605e-02,-1.41832e-03,1.23640e-01,-7.99073e-02,4.99540e-01,9.60830e-03,1.92594e-01,-9.05068e-02,1.33270e-01,5.22362e-01,6.99318e-02,-2.26127e-01,-4.89218e-01,1.04602e-02,-5.06585e-01,1.13649e-01,6.80280e-02,3.25134e-01,2.25513e-01,-7.66446e-02,-4.48778e-01,-1.81048e-01,2.57065e-01,2.50595e-01,-8.30232e-02,-2.86974e-01,-6.34626e-01,5.10822e-01,-8.08859e-02,5.03139e-02,-7.24992e-01,1.93085e-01,1.56566e-01,3.43794e-02,-1.78997e-01,-5.36263e-02,7.59742e-01,-1.91330e-01,-4.06163e-01,-7.38202e-02,-3.72205e-01,-7.99460e-02,-3.54398e-01,
-3.34760e-01,-2.19720e-01,8.27454e-02,1.21339e-01,-3.59188e-01,1.68956e-01,-1.56358e-01,4.63060e-02,-1.91094e-01,2.16153e-02,1.96731e-01,2.61918e-01,-2.65578e-01,-7.68918e-01,-3.45147e-01,3.20522e-01,5.03813e-02,-4.03615e-01,7.47020e-02,2.50826e-01,2.91690e-01,-1.62405e-01,-9.41312e-02,-9.28828e-02,-3.15690e-02,-9.44180e-02,2.27126e-01,5.64115e-02,2.45381e-03,2.22599e-01,-1.16011e-01,1.37250e-01,-1.70203e-02,-1.81314e-01,3.27680e-01,-2.35773e-01,1.72491e-01,-5.23443e-02,3.14978e-01,5.84729e-02,-8.22638e-02,-1.08658e-01,4.22382e-01,4.73135e-02,-2.93229e-02,
1.30399e-01,1.34492e-01,-2.28866e-02,9.38682e-02,-2.28124e-01,-4.19401e-02,-1.21975e-01,-1.73765e-01,-1.47165e-01,1.50758e-01,-2.49241e-01,1.07172e-02,-5.32365e-02,1.53502e-01,-2.17154e-01,-8.14601e-02,1.05643e-01,-1.22599e-01,-1.47925e-01,2.15561e-01,2.50933e-01,3.55828e-02,-1.15983e-01,-6.48712e-02,-5.77544e-02,-2.33384e-01,-1.38969e-01,-2.25751e-01,7.01520e-03,-2.29586e-01,-2.40204e-01,-1.36844e-01,1.52228e-01,-1.05025e-01,-1.75327e-01,-1.49167e-02,1.99548e-01,-6.58327e-02,2.25591e-01,-2.36503e-01,-6.26927e-02,-2.30708e-01,8.36100e-02,-1.75805e-01,-7.45392e-02,
-9.00680e-02,-1.00824e-01,-1.70295e-01,-1.02757e-01,-1.16652e-02,-1.83438e-01,-1.12538e-01,-6.12134e-02,3.80762e-02,-1.89598e-02,-1.60781e-01,-1.55062e-01,-1.40300e-01,1.29692e-01,-6.65940e-02,-8.59944e-04,-5.54864e-02,-6.70165e-02,-2.49879e-03,-5.41715e-02,-2.39458e-01,6.30697e-02,1.88676e-01,-2.27088e-01,1.89065e-01,-1.57244e-01,-2.48507e-01,1.45541e-01,-1.91010e-01,3.03385e-02,4.42871e-02,6.77368e-02,5.99282e-02,1.07964e-01,-2.40996e-01,-1.49380e-01,-6.16697e-02,-1.36034e-02,-2.31951e-01,-2.95694e-02,-1.30731e-01,6.73487e-02,-6.56100e-03,6.50147e-03,4.40588e-02,
2.61470e-01,3.74524e-01,1.62756e-01,-1.06071e-01,1.30626e-01,-4.23280e-02,1.21540e-01,1.00491e-02,6.87698e-01,6.15334e-02,-5.80399e-02,-9.54524e-02,2.31857e-02,4.44383e-01,-1.44967e-03,1.47655e-01,7.38629e-02,7.25155e-02,3.84761e-01,1.06802e-01,-1.45738e-01,1.34441e-01,-2.18806e-01,-9.15920e-02,-3.76387e-02,-1.57159e-01,-1.69407e-01,-2.12812e-01,3.06658e-01,8.96415e-02,1.37738e-01,1.56275e-02,2.11271e-01,-1.48184e-01,-2.57218e-01,1.53904e-01,-8.51805e-02,-6.40082e-02,6.29328e-03,7.77599e-02,-4.33183e-02,1.84194e-01,1.45242e+00,3.82758e-02,-1.15567e-01,
-2.75514e-02,1.44305e-01,5.66401e-02,3.74025e-01,-2.35243e-02,1.31041e-01,2.10733e-01,-5.72619e-02,4.91645e-02,-9.92251e-02,3.39653e-02,3.59480e-01,3.36823e-01,-2.15235e-01,3.72678e-01,6.63933e-02,-1.08030e-01,3.33776e-01,-7.82145e-02,-5.34573e-02,7.83998e-01,-4.16825e-01,-1.61195e-01,-2.03130e-01,-1.36336e-01,-2.81070e-01,-5.14333e-01,-2.56654e-01,-1.42567e-01,-2.89628e-02,-3.82799e-01,1.15466e-01,-2.13891e-01,3.56531e-02,-3.00634e-01,7.20752e-03,6.02384e-01,2.63737e-02,-7.21300e-01,2.01527e-01,-7.25419e-01,1.61823e-01,1.11401e+00,-2.76319e-01,2.74505e-01,
-2.04471e-01,-6.00672e-02,-2.45436e-01,1.82646e-01,-9.67970e-02,2.19495e-01,1.99400e-02,1.59504e-01,-7.94035e-02,-4.19516e-01,3.94297e-02,-3.88168e-01,-6.42005e-01,2.03484e-01,1.59577e-01,1.61872e-01,3.06464e-01,1.12754e-01,2.92571e-01,-2.04355e-01,3.14618e-02,1.18759e-01,-1.14677e+00,-1.03479e-01,-1.30704e-01,-6.03283e-01,-2.77762e-02,-2.51986e-02,4.04442e-01,6.56599e-01,-5.15331e-02,-4.32364e-02,1.41590e-01,1.65282e-01,-5.55356e-01,-8.90631e-01,1.35047e-01,2.60505e-01,-3.54112e-01,4.93789e-01,-3.99696e-02,2.21534e-01,-3.60465e+00,-1.47868e-01,-1.98609e-01,
-8.37093e-01,2.01401e-01,1.47620e-01,-1.43742e-01,9.70992e-04,1.65516e-01,1.64198e-01,-6.05171e-01,-3.64040e-02,2.84070e-01,-2.77588e-01,4.32842e-02,-5.20135e-01,7.07859e-02,9.33039e-01,5.02700e-02,-3.72525e-02,-2.76078e-01,2.05823e-01,1.17472e-01,4.25266e-02,-2.10902e-01,-1.86164e-01,1.45264e-01,-1.63256e-01,3.74633e-01,-1.56262e-01,9.31515e-02,-1.13930e-01,1.51227e-01,2.05877e-02,8.78338e-02,1.27113e-01,-3.34303e-02,-2.33647e-01,-7.77078e-02,-5.94438e-01,-3.44935e-01,5.76421e-01,3.21996e-01,-4.17810e-01,1.31704e-01,3.48289e-01,-1.22860e+00,2.47820e-01,
3.74212e-02,-1.62584e-01,-1.78719e-01,-2.17394e-01,7.79088e-02,9.69596e-02,-1.78744e-01,-1.09291e-01,-1.79377e-01,1.64376e-01,3.23701e-02,-4.59051e-01,5.51573e-02,-2.10573e-01,-8.03094e-02,1.08015e-01,1.36552e-01,1.45219e-01,2.17524e-01,3.82646e-01,3.48191e-01,1.72318e-01,1.26292e-01,-3.91767e-02,-3.60840e-01,1.44001e-01,-1.66769e-01,2.00258e-02,2.35498e-01,2.22338e-01,-1.60778e-01,-9.62924e-02,3.00852e-01,4.72196e-02,-8.76389e-03,2.01187e-01,-1.68526e-01,2.46053e-01,2.19804e-01,2.79143e-02,-3.62124e-01,6.27689e-02,7.02554e-01,-3.22255e-01,-9.30826e-04,
-2.96937e-01,2.83381e-01,-1.51155e-01,-1.76529e-01,2.35027e-01,9.44981e-03,1.02637e-01,-1.90039e-01,5.61135e-01,3.36168e-01,-6.75483e-02,-3.24040e-01,-6.44860e-02,1.68141e-02,9.68248e-02,-4.19080e-01,5.45988e-01,-1.17360e-01,-1.10987e-01,1.90616e-01,1.35478e-01,-1.72112e-02,7.54771e-01,-2.23831e-01,-1.73490e-02,-1.26890e-03,-3.78121e-01,6.90154e-02,1.25697e-02,-5.98019e-02,-1.71208e-02,-5.25570e-01,-1.95616e-01,8.69677e-02,-1.66250e-01,-3.98690e-02,-2.12217e-03,-2.69932e-01,-1.51113e+00,1.31946e-01,-4.92603e-01,2.18346e-01,-1.48691e+00,-5.29569e-01,1.24509e-01,
3.99525e-01,-5.53751e-02,-5.99070e-02,-5.17934e-01,-1.18591e-01,2.30468e-01,2.53604e-01,2.40867e-01,-5.81905e-01,2.60567e-01,-3.19435e-01,5.01545e-01,-4.03720e-01,1.20912e-01,1.17303e-01,-2.19617e-02,-6.21612e-02,1.15852e-01,1.86690e-01,-6.14246e-02,3.36027e-01,3.07183e-01,-7.70328e-01,-1.80989e-01,-5.78674e-02,-3.40130e-01,-6.42618e-03,-1.58421e-01,-1.50112e-01,-9.22040e-02,8.08093e-01,2.30416e-03,-1.37704e-01,6.64374e-02,-2.74093e-02,-7.77124e-01,-8.12129e-02,2.12188e-01,-1.01684e+00,-5.49207e-02,-1.13285e+00,1.06784e-01,-2.67127e+00,-1.23699e+00,-9.23697e-02,
-2.02189e-02,2.88906e-01,5.49638e-02,-2.46764e-01,7.75272e-02,-1.76624e-01,-7.18764e-02,1.28732e-02,4.91027e-01,2.08505e-01,3.03055e-01,-5.67057e-01,1.94121e-01,-3.06892e-01,1.27470e-01,-2.49821e-01,5.25282e-02,-1.80588e-03,-9.30445e-02,1.66060e-01,4.69882e-02,3.18131e-01,-2.57983e-01,1.63658e-01,3.54007e-01,-2.73688e-01,1.14280e-03,5.38371e-01,-1.73004e-01,-2.67434e-01,-9.09732e-02,-4.68634e-01,7.70983e-02,-1.82794e-01,-1.45360e-02,-3.90221e-02,-1.87091e-02,-1.69946e-01,-1.94671e-01,-1.49642e-01,-2.15385e-01,1.70601e-01,-6.07235e-03,1.78869e-01,1.42826e-01,
-3.81975e-01,-5.28273e-02,-2.39974e-01,-2.67608e-01,1.93491e-01,1.39672e-01,9.44688e-02,-4.40633e-02,3.43239e-01,2.60934e-01,1.58335e-01,4.41151e-01,1.02013e-02,-1.39114e+00,-1.29619e-01,1.06241e-01,-1.32591e-01,-5.68436e-01,-9.24575e-02,8.63165e-02,2.92706e-01,9.21172e-02,-2.06576e-01,1.63051e-01,-2.80270e-01,2.98989e-01,-1.78972e-01,-9.17862e-01,-1.62593e+00,-1.25851e-01,2.92438e-02,-2.26329e-02,-3.02297e-02,-1.92474e-01,2.03088e-01,-1.97017e-02,-8.26871e-02,1.47447e-01,-1.78755e-01,-3.53799e-01,-1.33310e+00,3.29121e-01,-2.40375e+00,2.42663e-01,3.17101e-02,
1.03066e-01,-7.08045e-02,1.13373e-01,1.84722e-01,-2.02150e-01,-2.60721e-01,-1.70988e-01,-2.90361e-01,-9.50504e-02,1.76072e-01,-2.88806e-01,7.17774e-02,1.12975e-01,2.02244e-01,-8.66675e-02,-1.15928e-01,-1.65777e-02,2.03677e-01,-1.61367e-01,-5.43654e-02,-7.75639e-02,1.16207e-01,-5.20255e-02,5.25860e-02,-2.26250e-02,-1.58818e-01,-2.37266e-02,-2.65464e-02,-7.78259e-02,-1.53479e-01,1.79367e-01,-5.21286e-02,-7.40743e-02,-2.24470e-01,-1.30542e-01,-1.12276e-01,1.12234e-01,-2.40031e-01,1.55201e-01,-4.91505e-02,1.02217e-01,-1.54554e-01,-1.28250e-01,5.31070e-02,-3.68768e-02,
-3.86259e-01,5.64015e-02,-1.06301e-01,1.70737e-01,5.51297e-03,4.09301e-01,-5.13318e-02,-3.67331e-01,3.19895e-01,1.49355e-01,-2.52129e-01,-1.42927e-01,1.27958e-01,-1.30155e-01,4.69390e-02,-6.17199e-02,6.51921e-02,1.97970e-01,2.48555e-01,2.44065e-01,-1.80684e-01,-4.43821e-02,7.53519e-02,2.46622e-01,-2.42745e-01,1.57479e-01,-3.59178e-02,-8.51625e-01,-3.74913e-01,-3.43856e-01,4.80064e-01,-1.16957e-02,-5.29833e-02,1.68744e-01,-2.98509e-01,1.27821e-01,1.98792e-03,-4.26299e-02,-2.66048e-01,9.51748e-02,-3.15910e-01,1.13252e-01,9.25712e-01,-4.55036e-01,2.21529e-01,
3.43298e-01,7.12062e-02,2.27497e-02,4.03675e-02,-3.05491e-02,2.10512e-01,-2.34566e-02,6.75756e-02,-1.80743e-01,-2.97585e-01,1.40297e-01,-6.88817e-02,3.81554e-03,-1.26593e-01,-2.41696e-01,-2.24370e-01,7.24080e-02,1.14137e-02,-8.74905e-02,-1.92326e-02,-4.20683e-01,-9.66873e-02,2.25605e-01,1.58691e-02,-2.04707e-02,2.79162e-01,1.64568e-01,1.94084e-01,-3.24514e-01,-2.11679e-01,8.99749e-02,-1.16724e-01,-1.07700e-01,8.11237e-02,1.06320e-01,-1.96252e-01,4.56517e-02,-4.39014e-02,-1.04530e-01,2.78342e-01,-2.30639e-01,6.63903e-02,9.73297e-01,-5.70219e-01,2.41738e-01,
5.55018e-02,2.83546e-01,1.12549e-01,-2.03461e-01,-3.28972e-01,1.60576e-01,3.73249e-02,-9.53453e-02,1.66441e-02,1.48307e-01,1.30019e-01,1.18118e+00,-3.96638e-02,-9.57425e-01,-2.27277e-04,7.63092e-02,2.80743e-02,5.39637e-02,8.35739e-03,-2.73711e-01,-3.99458e-02,7.40595e-02,1.05941e+00,-2.03369e-01,9.40489e-02,3.30580e-01,1.25936e-02,-8.20344e-02,7.71601e-01,-7.45381e-02,-2.01083e-01,-8.05555e-02,-4.82695e-02,-1.77439e-01,2.77471e-01,-2.94390e+00,-1.07443e-01,1.71639e-02,-2.17056e-01,1.81463e-01,7.05276e-02,9.05875e-03,-1.14133e+00,-6.37008e-02,1.03327e-01,
1.65806e-01,-1.54980e-01,2.00505e-01,1.75237e-01,9.75544e-02,-1.16847e-01,-7.14254e-03,1.23645e-01,-1.64410e+00,2.03843e-01,-5.99629e-02,-1.85200e-01,-1.55510e-01,-2.54956e-01,2.55250e-02,-4.57594e-01,-2.64881e-01,-5.33449e-01,-6.56979e-02,-1.57117e-01,-5.14909e-01,7.15845e-02,2.92774e-01,5.91740e-02,-6.19242e-01,5.11322e-02,-2.54152e-01,-2.11755e+00,-1.88172e+00,1.10006e-01,1.09844e-01,3.02204e-01,-1.35913e-01,6.38137e-02,4.96713e-02,3.24352e-01,2.51799e-02,3.65210e-01,1.39169e-01,-2.35673e-02,-5.88912e-01,1.23649e-01,-1.90939e+00,-2.75290e-01,1.37721e-01,
-1.13203e-01,-5.84339e-01,-1.64367e-01,2.01749e-02,-1.02152e-01,-1.21095e-01,-8.27357e-02,9.84534e-02,3.73808e-01,-9.87554e-02,1.65489e-01,1.08642e-01,-1.48702e-01,-8.63466e-02,-1.96082e-01,1.43285e-01,-3.47071e-01,-2.76791e-02,2.62367e-01,3.26944e-01,1.69999e-01,-1.76812e-01,-6.82098e-01,-1.94042e-01,5.85134e-02,1.70927e-01,-1.99851e-02,-1.10444e-01,2.48243e-01,-3.88534e-03,5.19334e-01,-2.76139e-03,1.23918e-01,2.40966e-01,-5.37957e-02,-9.89899e-02,1.77585e-01,3.23544e-01,-1.32364e-01,4.72169e-02,1.22300e-01,1.92505e-01,1.54296e+00,3.56613e-01,-1.93647e-01,
6.50220e-02,-9.49496e-01,9.80186e-03,-1.78903e-01,9.35547e-02,1.47749e-01,-3.24964e-02,4.94706e-01,-6.16873e-01,-7.31451e-02,-2.84122e-01,1.54478e-02,1.25695e-01,-3.25906e-01,2.53033e-01,1.38536e-01,4.08135e-02,5.61377e-01,8.88402e-02,-2.92264e-01,2.38810e-01,8.12914e-02,-2.81463e-01,1.00797e-01,-5.96418e-01,5.31389e-02,-2.57186e-01,-2.88157e-01,-1.84310e-01,3.52182e-02,-1.95697e-02,-2.07489e-02,-5.73500e-02,-2.07440e-01,-8.40821e-02,3.73057e-01,-1.90652e-02,-7.34186e-02,1.46667e-01,-6.28040e-02,-5.95640e-03,6.41335e-02,-1.11832e+00,6.26174e-02,4.20076e-01,
3.40341e-01,-3.76893e-01,-1.84543e-01,-7.51649e-02,-7.33770e-01,1.43745e-01,3.57015e-01,1.94946e-01,4.23726e-01,-2.18584e-02,-3.52413e-01,1.91201e-01,3.65451e-02,2.61872e-01,-5.37547e-01,4.35482e-01,-9.33735e-01,-6.50506e-01,-2.99669e-01,1.04880e-02,-4.17644e-01,-3.48335e-01,-1.78763e+00,2.80155e-01,-1.03407e+00,3.32981e-01,7.08410e-03,1.32168e-01,9.00339e-02,1.89750e-01,3.33892e-01,2.85249e-01,-2.17113e-01,-1.17419e-01,-2.86069e-01,4.29543e-02,7.18525e-01,1.47582e-01,-4.08451e-02,-1.38284e-01,-1.00932e+00,3.87354e-01,-1.42251e+00,-3.42041e-02,-2.61331e-01,
1.01920e-01,6.41197e-03,1.82224e-01,-1.91946e-01,1.33260e-01,-1.25437e-01,1.61541e-01,-1.74591e-01,-3.79079e-01,4.42806e-01,-1.66922e-01,3.06336e-02,1.15744e-01,-2.55109e-02,3.79690e-01,1.30964e-01,3.16118e-01,-1.72807e-02,-1.85493e-01,2.93876e-01,-3.70351e-02,-2.52731e-01,2.43782e-01,-3.78939e-02,-4.35489e-01,1.82815e-01,-1.87720e-01,-2.18650e-01,1.79053e-01,1.71583e-01,-5.58931e-01,6.83065e-02,-4.33407e-02,4.57000e-02,-1.03869e-01,1.07293e-02,-1.26951e-01,-9.86296e-02,-2.08573e-01,2.41752e-01,-4.27749e-01,2.34884e-01,1.48633e+00,-1.62334e-01,8.32480e-02,
6.01894e-01,2.35053e-01,1.56338e-01,-1.34521e-03,8.14768e-03,1.58705e-01,-4.65519e-02,-3.17929e-01,-6.70064e-02,3.69620e-01,2.97882e-02,-1.49149e-01,-3.05167e-01,-3.72771e-02,2.31560e-01,4.87028e-01,2.54198e-01,1.09458e-01,-5.43810e-02,5.07168e-02,-9.21535e-03,-1.72963e-01,1.35905e-01,-5.38647e-02,-3.18621e-01,1.46469e-01,-2.40945e-01,-2.06240e-01,1.24262e-01,2.72162e-01,-9.02939e-01,2.49266e-01,-2.02356e-01,1.14236e-02,-2.22810e-01,-4.70538e-02,-6.11826e-01,-2.68639e-01,5.00724e-02,1.74905e-01,-8.66332e-01,2.45867e-01,8.54586e-01,-5.98433e-01,3.20292e-01,
6.95686e-03,-3.85556e-02,-2.07540e-01,2.27912e-01,-5.00876e-02,4.12001e-02,2.32100e-01,-3.44567e-01,-2.63727e-01,-1.67524e-01,-1.01718e-02,1.53245e-01,1.57630e-01,6.10505e-02,-4.40012e-01,5.88532e-02,9.38172e-02,-1.09735e+00,9.53012e-02,-2.28359e-01,-5.56923e-01,5.93571e-02,-6.13334e-02,-1.32907e-01,1.30516e-01,-4.27428e-02,-1.30698e-01,-6.20544e-01,-8.58903e-01,3.33696e-01,-1.77288e-01,-1.85405e-01,2.08973e-01,-6.96680e-02,-1.07581e-01,3.59811e-02,3.44565e-01,1.57722e-01,-2.04343e-01,2.36437e-01,-1.04704e+00,8.80650e-02,-2.43991e+00,8.00563e-03,-1.58106e-01,
-4.14167e-02,-5.98699e-02,-1.21143e-01,-1.25829e-01,9.70451e-02,-5.70101e-02,2.04445e-01,-1.99613e-01,2.87864e-01,-1.56523e-02,-1.66869e-01,-2.13905e-01,1.29672e-01,-7.15633e-01,-1.77845e-01,-1.99402e-01,-4.45973e-01,-3.31327e-01,1.72331e-01,1.10338e-01,-1.94833e-01,-5.92162e-02,-1.86117e-01,-5.95693e-02,4.36237e-01,2.17914e-01,1.57685e-01,1.59870e-01,-6.52518e-02,-1.23554e-01,2.41222e-01,-9.20249e-02,1.39074e-01,2.69588e-01,3.61029e-01,3.73675e-02,-3.78397e-01,2.34866e-01,3.22827e-01,8.26734e-02,1.25651e-01,-2.05812e-01,1.15574e+00,2.08395e-01,7.76115e-03,
1.09301e-02,-1.79872e-01,1.39634e-01,1.83320e-01,-3.75046e-02,-2.95640e-02,3.22425e-02,-3.69388e-02,5.63402e-01,2.29005e-01,-3.50271e-02,4.65831e-02,-2.73969e-01,1.25523e-01,6.04401e-03,-5.62336e-03,-4.63565e-01,-6.65396e-02,1.55187e-01,3.20028e-01,1.24019e-01,-2.20748e-01,-1.05560e-02,-8.80389e-02,-1.13250e-02,5.77540e-02,-1.11453e-01,-1.40108e-01,1.03086e-01,1.15809e-01,1.68596e-01,2.18537e-01,2.41437e-02,-2.01132e-01,3.03740e-03,2.69877e-01,-3.12643e-01,4.37877e-01,-3.89163e-02,-2.74552e-01,4.59866e-01,2.43565e-01,-8.05190e-02,-3.01336e-02,2.08401e-01,
-6.68376e-02,2.02838e-01,-3.08149e-02,-2.98084e-01,1.74366e-01,-5.75015e-02,2.36430e-01,9.04652e-02,-9.10291e-02,4.61587e-02,3.65986e-01,-3.97745e-01,-2.31029e-01,-3.82185e-01,2.22410e-01,-1.30006e-02,4.40771e-01,-2.02839e-01,-5.95652e-02,1.34850e-02,3.18267e-01,-1.75507e-01,6.08345e-01,3.88417e-02,-1.73512e-01,-1.83381e-01,1.67466e-01,-1.20536e-01,2.75188e-01,1.28188e-02,-6.95789e-02,-4.39922e-02,-1.14240e-01,5.36477e-02,-4.89167e-02,-3.96025e+00,-1.08089e-01,1.37456e-01,1.38375e-01,1.31763e-01,1.43952e-01,-2.79842e-01,-1.63087e+00,1.80733e-01,-1.40754e-01,
1.48558e-01,-3.35017e-02,2.01549e-01,-1.68814e-01,-3.68652e-01,2.06813e-01,7.77314e-02,-7.00313e-02,-3.31152e-02,-1.78149e-01,2.17383e-01,2.42248e-01,-1.83192e-02,1.81500e-01,8.01000e-02,1.85382e-01,3.60828e-01,2.80655e-03,2.89475e-01,-1.51648e-01,-4.04175e-02,-6.82556e-02,-1.75037e-02,7.37322e-02,-2.84504e-02,-1.67278e-01,-6.78034e-02,-7.63672e-02,1.02561e+00,2.57123e-01,-1.71685e-01,3.59549e-02,-1.26850e-02,1.51982e-01,7.70607e-02,2.23620e-01,1.03880e-01,1.38902e-01,-7.79477e-02,2.08987e-01,1.09443e-01,2.74825e-03,-1.58536e+00,-1.46995e-01,-1.06165e-01,
-1.64735e-01,-3.32244e-02,-7.78148e-02,3.18736e-01,-3.25432e-02,-5.65329e-03,2.08837e-01,-2.18582e-01,-4.93087e-01,3.85317e-02,1.47576e-01,-5.37706e-02,-1.73741e-02,-4.86916e-01,3.76177e-01,-1.06228e-01,-7.18521e-03,5.39709e-01,-1.92887e-01,9.50241e-02,1.96014e-01,9.68186e-02,-2.76712e-02,-5.75245e-02,2.67507e-01,-2.80271e-01,-1.86308e-01,-1.45494e-02,-1.52374e-01,-2.07642e-01,-2.94030e-01,-2.64928e-01,-1.00220e-01,1.39003e-01,-1.11790e-01,5.98295e-01,3.12477e-02,3.86327e-01,4.21450e-02,-4.78785e-02,-1.95742e-01,-4.75048e-02,-1.14247e-01,-3.34307e-02,1.65545e-01,
-5.06743e-01,1.63193e-01,4.40605e-02,-8.20562e-02,2.87983e-01,-2.28969e-01,1.16842e-01,3.36905e-01,2.25917e-01,2.61287e-01,-9.62693e-02,1.85872e-01,-2.52590e-01,3.34907e-01,-4.01954e-01,-2.43801e-02,-2.53144e-01,-5.93996e-01,1.99900e-01,2.75541e-01,4.07241e-01,2.13995e-01,5.31944e-02,-2.12104e-01,-1.74733e-01,-2.70046e-01,-1.62009e-01,1.05682e-01,-1.08417e+00,-2.19513e-01,-2.03248e-01,-8.87161e-02,-6.34527e-01,-1.87963e-01,-9.54389e-02,9.90073e-02,3.90672e-01,2.25062e-01,-5.66829e-01,-2.06014e-01,-1.49953e+00,2.11807e-01,-1.25636e+00,3.59123e-01,-3.50233e-01,
-7.88604e-03,-2.27862e-01,-8.90648e-02,2.18460e-03,-1.23335e-01,1.06819e-01,-2.49845e-01,-3.98471e-02,-1.79666e-01,-2.99650e-01,-1.79212e-02,-3.44469e-02,-4.24392e-02,-1.21663e-01,-1.04790e-01,-2.78914e-03,-1.54583e-01,-1.44094e-01,1.46424e-03,3.23890e-02,-2.62158e-01,-4.06954e-02,-4.04181e-01,1.84804e-03,1.72133e-01,-2.29201e-01,1.06444e-01,-1.51244e-01,3.14430e-01,-1.41990e-02,2.75129e-01,2.68367e-01,4.00403e-02,-1.01228e-01,1.04672e-01,3.51856e-01,-4.90604e-02,1.62639e-01,-3.66814e-01,9.87711e-02,-1.00467e-01,2.12019e-02,1.82165e+00,2.52960e-02,-8.17559e-02,
-3.29504e-01,-1.20903e+00,4.01594e-02,1.45409e-01,-3.92021e-01,1.13937e-01,1.72079e-01,7.96520e-02,2.52787e-01,-6.07670e-01,9.95623e-02,-8.96175e-01,3.16206e-02,5.65999e-02,-2.27763e-01,-2.19019e-01,-2.65987e-01,-1.38801e-01,-1.81917e-01,9.61133e-03,3.98191e-01,2.39262e-01,-4.89658e-01,1.51769e-01,2.33641e-01,8.50160e-02,1.73946e-01,1.47362e-01,-1.17148e-01,-7.45553e-02,5.42758e-01,-2.14474e-01,1.00056e-01,8.80689e-03,-6.91280e-03,3.63008e-02,-1.41448e-01,-1.59021e-01,-1.28327e-01,-1.03684e-01,9.34032e-02,-2.57592e-01,-2.71251e-01,1.56673e-01,-2.13591e-01,
