// Neural Network File Format by Kyle Julian, Stanford 2016
7,4,9,45,
4,45,45,45,45,45,45,9,
0,
-8000.0,-100.0,-100.0,0.0,
8000.0,100.0,100.0,40.0,
0.0,0.0,0.0,20.0,-0.4325993796315559,
16000.0,200.0,200.0,40.0,3.102300000999995,
2.54759e-02,-5.21396e-01,-6.20751e-03,-4.83256e-05,
9.19115e-01,2.83627e-02,-2.19560e-01,-3.48013e-01,
-7.52517e-01,-4.78341e-02,-9.27387e-02,4.74255e-02,
4.98276e-01,-2.64776e-01,4.23436e-03,-2.40616e-01,
5.72355e-01,3.66435e-01,-3.63865e-01,4.54700e-03,
-9.98145e-02,3.25662e-01,2.17240e-01,-7.78880e-02,
9.11628e-01,2.26596e-01,-2.10907e-01,-3.64324e-01,
-1.00381e+00,4.59472e-02,-1.06343e-01,-3.95718e-01,
-8.93439e-01,-1.79306e-01,-1.33294e-01,-2.40229e-01,
1.08531e+00,-2.79299e-02,4.76572e-02,1.92734e-02,
4.72720e-02,-1.48818e-01,2.54208e-02,-4.80980e-01,
7.11107e-01,-2.16645e-01,1.29535e-01,2.13316e-01,
5.40300e-01,1.49910e-01,-3.14749e-01,-1.66633e-01,
2.29598e-01,5.20545e-01,-1.79151e-01,3.91014e-02,
-4.27335e-02,1.39197e-01,-2.46965e-01,3.17146e-02,
-1.10637e+00,4.56232e-02,-1.34077e-01,1.57389e-05,
-8.36849e-01,9.17159e-02,2.09455e-01,1.22751e-01,
-6.13099e-01,1.56376e-01,-9.51872e-02,3.10295e-01,
1.40806e-01,3.81460e-01,2.25239e-01,2.46877e-01,
2.10619e+00,-1.43889e-03,-7.62305e-03,-1.97306e-02,
-2.17807e-01,4.31613e-01,1.77332e-01,-8.97187e-02,
2.56246e-01,5.77286e-02,-9.00084e-02,2.82148e-01,
-2.52542e-01,-1.84980e-01,2.83318e-01,2.68317e-01,
3.78856e-01,2.09143e-01,-1.58609e-01,1.20689e-01,
-3.24315e-01,-8.65475e-03,-8.24910e-02,3.28459e-01,
9.52696e-02,-5.60935e-01,-1.15851e-02,9.49674e-04,
-8.87567e-01,-1.96336e-01,1.65821e-02,-2.68288e-01,
1.02454e+00,-2.09969e-01,5.87172e-02,-1.63048e-01,
-1.10534e+00,2.48075e-01,-2.39272e-01,-7.71446e-02,
-1.26496e-01,-4.07523e-01,3.92364e-01,-4.17562e-02,
-5.67076e-01,1.50858e-01,-1.50026e-01,-2.09748e-01,
-7.73686e-01,-1.90768e-01,-2.66790e-01,-1.21168e-01,
-3.21763e-02,-3.29003e-01,-2.58783e-01,7.41191e-02,
-4.08429e-01,1.79663e-01,-2.05836e-01,3.33664e-01,
6.21516e-01,1.31177e-01,1.56012e-01,7.92714e-02,
4.57187e-01,-4.10590e-01,-8.03739e-02,-6.70645e-02,
1.95599e-01,9.49050e-02,1.57491e-01,-4.03812e-01,
-9.64705e-01,1.52042e-01,-1.75555e-01,-3.09806e-01,
-2.68245e-02,5.59263e-01,2.69596e-02,4.50109e-02,
-2.14842e-01,2.58173e-01,-2.09803e-01,-1.35405e-01,
-1.49555e+00,-4.59050e-02,1.59954e-01,-1.35246e-01,
2.69125e-02,-6.27546e-01,-6.27899e-02,-3.15186e-02,
-1.70081e-01,1.66245e-02,-3.22558e-01,3.01896e-01,
7.91004e-01,-1.53267e-01,2.17836e-01,-4.72741e-02,
9.67499e-01,1.53579e-01,-1.23323e-01,-3.66131e-02,
7.15469e-02,
-5.90937e-02,
9.39874e-02,
3.47354e-02,
-5.48550e-02,
2.51329e-02,
-1.01017e-01,
-8.95046e-02,
-1.96696e-02,
3.10251e-02,
-5.67772e-02,
1.15501e-01,
6.38317e-03,
-4.68895e-02,
6.19755e-02,
1.66627e-02,
2.72714e-02,
1.33321e-01,
3.80565e-02,
1.84746e-02,
5.64123e-03,
1.22310e-01,
1.17135e-01,
5.01616e-02,
4.52353e-02,
7.60572e-02,
-1.27571e-02,
4.64953e-03,
2.95667e-02,
-6.75148e-02,
-6.27977e-02,
1.30506e-02,
8.69510e-03,
1.14045e-01,
6.39515e-02,
1.93979e-02,
-7.56207e-02,
-2.52346e-02,
-3.01774e-02,
2.16999e-02,
3.64403e-02,
-5.16053e-02,
-2.06367e-02,
2.83620e-02,
9.58401e-02,
-2.28982e-02,-1.27585e-01,2.55688e-01,-2.08253e-01,-2.54607e-01,-3.26817e-01,5.76109e-02,-1.15388e-01,-8.84928e-02,-4.76399e-02,2.63196e-01,-4.09760e-02,-2.12086e-01,9.53193e-02,-1.16082e-01,6.83479e-02,-1.01957e-01,2.62915e-01,-2.17701e-03,-2.95375e-03,-3.70235e-02,-2.38598e-02,-3.88109e-01,8.18847e-02,-1.70875e-01,-3.47311e-01,8.37357e-02,-4.42960e-01,2.59431e-01,7.77296e-01,1.63370e-01,2.82677e-02,-2.93088e-02,2.35623e-01,-1.05292e-02,-1.46550e-01,1.77737e-01,1.73443e-01,-2.28670e-01,2.28640e-01,-1.65745e-01,-8.17431e-01,2.91888e-03,-3.56308e-01,1.25098e-01,
-1.25739e+00,1.08476e-02,8.51614e-02,-5.86771e-02,1.51939e-01,-6.96667e-02,-1.23684e-01,-9.27050e-02,1.46070e-01,2.90338e-01,-1.83032e-01,-1.47449e-01,-9.89386e-02,1.65283e-01,-6.95549e-02,-9.34322e-05,-2.85369e-01,3.79670e-02,-2.44951e-01,1.92370e-01,1.52360e-01,1.62914e-01,6.51904e-02,-5.57881e-02,1.53682e-01,-1.97708e+00,1.88829e-01,3.21213e-02,1.29363e-01,3.43755e-01,1.60053e-01,1.57539e-01,-1.97624e-01,-1.92077e-01,-5.07848e-02,-5.26020e-01,-2.40616e-01,-2.18120e-02,1.77849e-01,9.13096e-02,1.69119e-01,-9.87353e-02,2.65195e-01,1.98648e-01,1.63257e-01,
2.34876e-01,-9.93629e-02,-7.07458e-02,5.71211e-02,-2.40573e-02,5.38494e-02,-1.64143e-02,4.59728e-01,1.99983e-01,-1.10727e-01,1.06507e-01,-9.76447e-02,-2.94327e-01,-1.64771e-01,-3.79650e-01,2.24522e-01,-2.81328e-02,-1.35347e-02,7.31779e-02,-5.13309e-01,-7.63880e-03,2.54947e-01,2.77855e-01,-1.99079e-01,-1.09874e-01,-3.67819e-02,2.64786e-01,1.76434e-01,-2.04786e-01,-1.73274e-01,3.60186e-01,6.50766e-02,-1.49524e-01,-1.97162e-01,3.30230e-01,-7.46617e-02,-4.84554e-03,1.56821e-01,-2.26754e-01,-3.11794e-01,8.65233e-02,-2.63654e-01,-8.81797e-02,2.35666e-01,-1.47022e-01,
2.50494e-01,-3.40344e-01,-1.38826e-01,9.80823e-02,-2.43744e-02,1.18712e-01,1.42360e-01,1.63015e-01,8.35406e-02,-3.09806e-01,1.12953e-02,-1.68844e-02,-1.71477e-01,-1.63011e-01,-1.12835e-01,2.93077e-01,-2.31196e-01,2.87645e-01,-3.15781e-01,-1.38842e+00,3.82637e-03,1.00880e-02,8.47169e-02,-2.79051e-01,1.95686e-01,-2.98745e-02,6.76405e-02,-4.71893e-02,4.09188e-01,1.32586e-01,1.56650e-01,-2.29781e-01,-5.59699e-02,2.26826e-01,-6.85730e-02,-1.40990e-01,2.49336e-01,2.72893e-01,6.02108e-02,2.39028e-01,2.54620e-01,2.61826e-01,-1.53089e-01,-1.26974e-01,-3.27801e-01,
3.29940e-01,1.52472e-01,-4.79513e-03,3.35763e-02,-5.04455e-03,-1.54358e-01,-7.49826e-03,-3.56601e-01,-1.60956e-01,1.86814e-01,-1.28082e-01,1.05671e-01,1.80707e-01,-8.44312e-02,-1.27823e-01,-3.26591e-01,-2.63561e-02,-2.64519e-01,-1.31742e-01,-2.95178e-01,2.49269e-01,3.11913e-02,-5.62298e-02,3.87507e-01,-3.51297e-01,-3.94432e-02,-1.02589e-01,1.46351e-01,9.61170e-02,3.91145e-01,-1.09435e-02,1.80009e-01,2.62258e-01,-2.74392e-01,-2.99718e-02,-2.74362e-02,-7.05577e-03,-1.16726e-01,2.01154e-01,-9.02982e-02,2.54135e-01,-2.99201e-02,-5.60840e-03,-1.25537e-01,-1.21868e-01,
-5.73039e-02,-5.55117e-02,1.27310e-01,1.35442e-01,-7.12904e-02,1.90213e-01,3.16758e-01,-3.25725e-01,-6.11629e-03,2.63279e-01,1.49616e-01,3.22334e-02,1.62669e-01,-3.81405e-02,-7.58522e-03,3.37341e-03,-2.21398e-02,-2.70293e-01,2.59002e-01,1.10578e-01,-1.77958e-01,-4.42530e-01,4.10347e-01,-8.45431e-02,1.51599e-01,-1.44510e-01,-1.69024e-02,7.27168e-02,-3.53080e-01,-2.53833e-01,3.71783e-02,-1.36485e-01,-5.30821e-02,-3.03969e-01,1.05277e-01,2.00868e-01,-5.29252e-02,-1.41375e-02,-1.28279e-01,-2.06363e-02,-2.25650e-01,1.63233e-02,-1.48530e-01,2.80531e-01,2.06810e-01,
1.59863e-01,9.47409e-02,-7.72909e-02,-9.25860e-02,3.47729e-02,1.72525e-01,1.78878e-01,1.93791e-01,2.09535e-01,-1.52866e-01,-1.80795e-01,1.14125e-01,2.42452e-01,-3.83776e-01,-2.61023e-01,8.37043e-02,2.09441e-01,7.31640e-02,3.34461e-01,-4.20134e-01,-2.61223e-03,1.89020e-01,-1.83298e-01,8.15927e-02,-3.28233e-01,-2.34640e-01,2.11793e-01,2.29755e-01,-4.87391e-02,1.13429e-01,-5.78865e-02,-8.69776e-02,3.53755e-01,8.90389e-02,1.83830e-01,-1.58064e-01,1.48632e-02,-2.03572e-01,1.54759e-01,1.75332e-01,5.31600e-02,2.39147e-01,1.80337e-01,-1.82743e-01,-8.80505e-02,
-2.60846e-01,-3.77851e-03,-1.78104e-01,-4.18523e-02,3.95762e-01,-8.22108e-02,3.97637e-01,1.84068e-01,1.45724e-01,-1.21711e-01,2.60784e-01,-1.37872e-01,1.31835e-01,-1.14340e-01,-1.38960e-01,-2.35576e-03,2.15471e-01,-8.33470e-01,-1.42758e-01,3.76999e-01,1.39199e-01,-1.77693e-01,-1.46812e-01,-2.63487e-01,2.15743e-01,1.22784e-01,-1.24651e-01,6.53468e-03,-2.30339e-01,-3.37155e-01,3.64447e-02,-8.33301e-03,1.52525e-01,-4.07271e-01,-2.01768e-01,7.91168e-03,3.41871e-01,1.94882e-01,1.17354e-01,1.21740e-01,-2.01440e-01,3.04396e-02,6.79740e-02,-5.49532e-02,6.42961e-02,
1.64553e-01,3.24602e-01,-1.41519e-01,-1.87705e-01,2.46156e-01,8.39631e-02,3.14302e-01,-6.35906e-02,-1.55090e-01,3.48499e-01,1.36727e-01,4.21485e-01,-2.33859e-02,2.76672e-02,1.19855e-01,-9.45768e-02,-1.07113e-01,3.82310e-02,2.15407e-01,3.92168e-01,-1.09070e-01,3.06433e-03,2.70664e-01,-8.49136e-02,-1.36041e-01,2.11853e-01,-2.05754e-01,9.02248e-02,-1.74135e-01,-1.99958e-01,1.49461e-01,5.50795e-04,-1.14373e-01,-6.18804e-02,4.28800e-02,6.35670e-02,8.76278e-02,-1.44416e-01,-1.99027e-01,1.55714e-01,-9.61282e-02,3.10114e-01,-8.35490e-02,1.22276e-01,-2.26608e-01,
1.47950e-01,-7.17727e-02,-2.54327e-01,8.62964e-02,-3.33643e-01,2.65095e-01,-6.00276e-02,-6.74267e-02,-7.39630e-03,-2.75951e-01,-1.14023e-01,-3.25183e-01,-2.65486e-02,1.55125e-01,6.35813e-02,3.25301e-01,5.84200e-02,7.49110e-03,-7.13810e-02,-7.36632e-01,2.60162e-01,3.14678e-01,-9.19479e-02,1.86228e-01,6.47131e-02,-1.52689e-01,1.33065e-01,2.18411e-02,3.49787e-02,2.33727e-01,7.21311e-04,4.83656e-02,4.58828e-02,-1.86653e-01,-2.80590e-01,2.40240e-01,1.75631e-01,2.44918e-01,2.89669e-01,-7.48378e-03,1.55443e-01,2.28200e-01,7.93593e-02,-2.20580e-01,-2.11067e-01,
-2.05146e-02,2.31641e-01,-6.32201e-02,3.03239e-01,-1.03548e-01,-4.02634e-01,-6.48433e-02,2.26173e-01,1.22267e-01,3.25589e-01,-1.22662e-02,4.01294e-01,2.49825e-01,5.79137e-02,-1.05796e-01,-7.21466e-01,3.58169e-02,1.49643e-01,1.93597e-02,1.33226e-01,-5.97920e-02,-3.03260e-02,-8.31390e-02,1.39902e-01,1.43159e-01,4.20883e-02,1.66094e-02,3.60079e-01,-4.39109e-01,-7.47573e-02,5.40581e-02,-2.40178e-01,-1.45573e-01,-3.38904e-01,-1.69333e-01,-3.79293e-02,2.14617e-02,-2.01694e-01,-2.72985e-01,1.74690e-01,-1.84707e-01,-1.84743e-01,-3.05168e-01,4.80415e-02,-9.70891e-03,
-4.45448e-01,-9.66312e-02,-9.13242e-02,1.21471e-01,-1.19307e-01,1.18911e-01,3.82583e-02,3.40355e-02,7.38398e-03,-1.80729e-01,-1.41171e-01,-1.33455e-01,-1.36469e-02,-3.23851e-02,3.13183e-01,1.44504e-02,1.31341e-01,9.97900e-02,1.01631e-01,-3.71708e-02,1.29155e-01,-1.37638e-01,2.26670e-02,1.78310e-01,7.31011e-03,-1.14422e-01,-1.28595e-01,8.12507e-02,1.13725e-01,-3.33245e-01,-1.61135e-01,1.22249e-01,-2.29671e-01,-8.62436e-03,2.87844e-01,-2.51362e-01,1.63436e-01,-5.50795e-02,-6.03957e-02,6.94667e-02,2.09286e-01,-7.02782e-01,-2.04569e-01,-2.51625e-02,2.23752e-01,
9.95543e-03,-1.07218e-03,7.16106e-03,9.06477e-02,-1.92656e-02,1.49235e-01,2.28739e-02,2.06771e-01,-1.84742e-01,-2.03698e-02,3.37425e-01,7.69721e-02,8.67054e-02,5.35567e-02,-9.93870e-02,-4.56477e-01,-3.73487e-02,3.24644e-01,-4.66376e-03,-5.28846e-01,2.10833e-01,-5.08058e-02,-5.22266e-02,-1.27960e-01,1.30393e-02,2.74713e-02,1.20965e-01,-1.03975e-01,3.48303e-01,2.24283e-01,-2.19665e-01,-1.67487e-01,1.58448e-01,-1.48186e-01,-1.14738e-01,7.27981e-02,7.13435e-02,3.39619e-01,-1.41141e-01,4.37139e-02,-2.78558e-01,-5.22295e-02,-4.19964e-02,9.62651e-02,4.11005e-02,
1.85910e-01,3.19127e-01,3.04907e-02,-4.33810e-02,-1.56673e-01,-1.33481e-01,1.74185e-01,-4.79249e-01,-1.16551e-01,8.88843e-02,-2.19970e-01,2.85799e-01,-1.47943e-01,-2.15713e-01,1.00336e-01,-1.84736e-01,-1.69109e-01,6.53454e-02,-1.22214e-02,-3.53647e-01,-2.12364e-01,-3.07401e-01,1.78173e-01,-2.11217e-01,-1.37610e-02,3.43628e-01,-2.46357e-01,7.39007e-02,1.30928e-01,-5.38004e-02,4.87706e-01,-2.58302e-01,-3.08906e-01,-1.11883e-01,5.22435e-02,-3.50186e-01,-1.48248e-01,1.79214e-03,-3.30776e-01,1.48764e-02,-3.19366e-01,-1.83871e-02,-3.26766e-04,1.88224e-01,1.57287e-01,
2.59592e-01,-1.05024e-01,-3.27652e-02,1.77887e-01,1.12874e-01,9.89064e-02,-3.56277e-02,-1.72639e-02,2.15022e-01,2.74099e-01,-9.00859e-02,3.12796e-02,9.19402e-02,1.17629e-02,-1.13685e-01,-1.14699e-01,1.51344e-01,-8.63994e-02,2.87631e-01,3.82413e-02,-6.36688e-02,-4.04461e-02,-1.28943e-01,9.88909e-03,1.27784e-02,2.91192e-01,1.85811e-01,-4.44034e-02,8.79425e-02,3.78697e-02,-3.01252e-01,2.10943e-01,3.42466e-01,1.58091e-01,-3.51899e-02,2.70011e-01,9.94644e-03,1.86748e-01,3.26228e-01,3.26119e-01,2.25838e-01,3.63738e-01,1.18015e-01,1.07927e-01,-1.64873e-01,
-6.22603e-01,5.23893e-02,-2.94341e-01,1.89275e-01,-3.13752e-01,2.31949e-01,1.39679e-01,-3.97808e-02,1.61024e-01,2.23201e-01,1.42624e-01,1.15012e-01,2.24280e-01,-1.01494e-01,8.02161e-02,-2.12377e-01,-7.11894e-02,-1.80808e-01,1.80434e-01,2.79324e-02,2.06507e-02,-1.43676e-01,1.77008e-01,1.06160e-01,1.62673e-01,-5.19263e-01,-1.34529e-01,3.33833e-02,3.22418e-02,-1.48000e-01,-7.71388e-02,-4.83103e-02,-2.86382e-02,-2.81482e-01,9.56420e-02,-2.47872e-01,1.44958e-01,-1.89190e-01,-1.18470e-01,1.54888e-01,-2.19831e-01,2.76595e-01,-3.83065e-02,-1.68677e-01,1.66742e-02,
-5.55457e-01,-1.74255e-01,-2.72444e-01,-1.28194e-01,2.37030e-01,1.56690e-01,2.59480e-01,-1.00108e-01,-4.81562e-02,3.30661e-01,-2.79551e-01,-1.70232e-02,1.19904e-01,2.45779e-01,-2.49475e-01,3.17014e-01,-4.12510e-02,1.88585e-01,-8.73845e-02,-8.92456e-02,-5.36886e-02,1.58884e-01,4.83421e-02,-5.16239e-02,-1.88748e-01,-6.49757e-01,-2.48231e-01,1.00199e-01,2.47580e-02,-1.98969e-02,-9.30856e-02,3.00793e-02,8.27431e-02,-8.75622e-03,1.23549e-01,1.30070e-01,6.88925e-02,-1.53365e-01,-8.87491e-02,-1.61331e-01,-2.79526e-01,9.87711e-02,5.87722e-02,1.66235e-01,1.96702e-01,
1.72642e-01,2.82055e-01,-8.38744e-02,1.56194e-01,1.38374e-01,-1.70882e-01,3.00188e-01,-6.76131e-02,-6.84454e-02,2.92038e-01,5.70376e-02,3.36255e-01,1.40190e-01,-1.38900e-01,-5.81147e-02,-5.44263e-01,-2.84400e-02,-9.08701e-01,-1.60365e-01,1.09132e-01,2.23373e-01,-6.21790e-01,-2.08554e-03,2.55378e-02,6.00090e-01,2.51938e-01,7.73005e-02,1.92150e-01,-1.43868e-01,-4.63139e-01,-1.57089e-01,1.62661e-01,-9.19360e-02,-7.26313e-01,2.91459e-01,-2.10855e-01,1.16746e-01,2.17235e-02,9.04741e-02,3.12730e-01,-1.22648e-02,-9.00846e-02,-5.72173e-01,2.22723e-01,4.87916e-02,
-1.81519e-01,-3.09059e-01,-1.41189e-01,1.69212e-01,-1.36739e-01,-1.49515e-02,-9.65887e-02,-2.07480e-01,-2.14522e-01,-7.26728e-02,-7.21341e-02,-9.05774e-02,9.14227e-03,1.10593e-01,2.68618e-01,-1.70421e-02,1.36658e-01,8.08013e-02,2.13801e-02,2.60346e-01,-4.88908e-01,2.57275e-01,1.90070e-01,-9.81173e-02,1.73994e-01,-1.26679e-01,-8.50843e-02,-2.80579e-02,-1.30926e-01,-3.47998e-01,7.24297e-02,1.12167e-01,1.13708e-01,-1.70026e-01,2.56737e-01,-1.64673e-01,-3.47029e-01,2.36323e-01,1.24548e-01,-3.44086e-01,-1.33448e-01,-5.11074e-01,4.50353e-02,-1.93791e-01,-9.57184e-02,
2.37330e-01,1.67256e-01,1.09811e-01,-1.14069e-02,2.28486e-01,2.38477e-01,3.26780e-02,9.62323e-03,1.11600e-01,1.51609e-01,-7.70461e-02,-3.96657e-02,-1.18823e-01,3.40453e-02,5.07692e-02,-6.27958e-02,3.92015e-01,6.15379e-02,3.23108e-02,-9.34366e-02,2.24533e-01,-2.13009e-01,2.66230e-02,-1.63449e-01,5.73550e-03,3.79659e-01,1.49773e-01,1.00012e-02,1.24299e-01,1.68621e-01,3.60613e-01,-1.18019e-01,-9.74136e-02,-2.15787e-01,2.58241e-01,1.35886e-01,-1.96289e-01,-8.34912e-02,1.09780e-01,2.04198e-01,1.11005e-01,3.61819e-01,1.58946e-01,3.06274e-01,-9.43765e-02,
-2.64053e-01,-2.45730e-02,-8.98805e-02,-3.61930e-02,-2.44639e-01,-1.60396e-01,-2.31044e-01,-7.73047e-03,-4.72613e-02,-1.27397e-01,4.15083e-02,5.06612e-02,-2.51001e-01,1.95985e-01,1.07854e-01,7.84719e-02,2.07533e-01,-1.56379e-01,-1.20965e-01,3.69683e-02,2.44804e-01,1.86428e-01,-2.56697e-01,5.40613e-02,1.89066e-01,1.17177e-01,8.50738e-02,-1.58969e-01,-1.25706e-01,2.02659e-01,-1.20532e-01,-1.79951e-01,-6.89837e-02,-1.74196e-01,-1.88187e-01,-6.72995e-02,-8.05626e-02,-2.38483e-01,-2.97213e-02,-1.99060e-01,-1.91131e-01,1.49157e-01,6.12348e-02,-1.89739e-01,-7.04184e-03,
2.33594e-01,-2.90877e-01,5.57195e-02,1.00857e-01,-1.30204e-01,3.11136e-01,-2.84616e-02,8.82255e-04,1.70737e-01,-2.92365e-01,-1.55245e-01,-3.30569e-01,1.32305e-01,-2.13922e-01,1.69265e-01,1.21568e-01,9.77938e-02,-1.73892e-01,-2.18566e-02,-1.20876e-01,-1.58230e-01,1.17551e-01,1.33220e-01,1.33692e-01,-3.05878e-01,-1.38885e-01,4.07347e-02,-6.14349e-02,-2.12586e-01,-2.72912e-01,-5.54019e-02,2.30486e-01,-1.26248e-01,8.76533e-02,1.45446e-01,-1.98524e-01,-8.76435e-02,1.21719e-01,-7.32000e-04,2.04183e-01,2.08955e-01,6.30040e-02,1.87808e-02,-4.45388e-03,-2.60858e-01,
5.17662e-02,-2.57482e-01,-8.80552e-02,1.47217e-01,-2.64226e-01,2.97848e-01,-5.81208e-02,-7.61683e-02,-3.33408e-02,2.50811e-01,1.83665e-03,-1.13927e-01,1.66499e-01,6.04274e-02,1.01402e-01,1.18162e-01,8.34972e-02,6.41000e-03,4.59093e-02,3.71422e-01,1.12476e-01,-4.52026e-02,-2.02474e-01,-3.27079e-02,1.40280e-01,-6.14139e-03,9.52269e-02,-2.41283e-01,-1.92791e-01,-1.56729e-01,-4.44456e-02,-2.27466e-02,5.03681e-02,1.14881e-01,-1.29299e-01,1.79871e-01,3.62485e-01,1.37509e-01,6.74616e-03,-1.90723e-01,-1.18344e-01,-7.20906e-03,2.07966e-01,3.54538e-02,1.46258e-01,
2.32737e-01,-9.35409e-02,9.60424e-02,-4.25679e-02,-3.77561e-01,-3.33580e-01,-1.36263e-01,9.95019e-02,4.77554e-02,1.66582e-01,2.32178e-01,1.44813e-01,2.16982e-01,-4.53762e-01,3.36544e-01,-1.97368e-01,-6.08193e-02,1.31704e-01,-1.75532e-01,2.87747e-01,-2.32506e-01,-1.57644e-01,-2.55202e-01,7.81798e-02,-1.33512e-01,-8.66307e-02,8.15108e-02,-1.20910e-01,-1.85359e-01,-6.45344e-01,4.65334e-02,9.88376e-02,2.11915e-01,9.41164e-02,7.52349e-02,-7.50869e-02,-4.75078e-02,-1.47056e-01,-8.25082e-01,-1.52867e-01,-1.63745e-01,-1.33834e-01,1.71390e-01,-1.58452e-01,-7.26535e-02,
-2.08729e-01,2.07062e-01,-2.30553e-01,2.39573e-01,1.96354e-01,-2.00118e-01,3.98261e-01,3.52935e-01,-1.76034e-01,1.68694e-01,1.83460e-01,8.26759e-02,-1.00532e-01,1.22558e-01,-3.29950e-02,-3.18895e-01,3.70100e-02,-1.47091e-01,2.39398e-01,-3.60565e-02,4.61534e-02,-7.31021e-02,3.98737e-01,-1.75192e-01,3.79824e-01,2.76703e-01,2.85179e-02,-2.36026e-02,-6.02139e-03,-4.15701e-02,-2.18584e-01,1.17533e-01,9.21284e-02,-2.74867e-01,-1.98661e-01,-1.31005e-01,2.06800e-01,2.91791e-01,-4.08175e-02,-3.88955e-02,2.66133e-02,1.74287e-01,-1.91550e-01,-1.92154e-02,-2.89086e-01,
-9.52408e-02,-2.24619e-01,3.33681e-01,-7.44470e-02,-3.78144e-01,-1.49678e-03,-2.31923e-01,2.76695e-02,2.88416e-01,-3.28380e-01,3.19400e-01,-4.48972e-01,-1.56935e-02,-2.33384e-01,1.76225e-01,1.81551e-01,-5.42300e-02,-8.34410e-02,-1.04336e-01,-7.42819e-01,1.79297e-01,3.66082e-01,-2.99811e-01,2.19443e-01,1.12831e-01,9.05647e-03,1.64033e-01,-3.06884e-01,-1.26581e-01,5.47095e-02,-1.07046e-02,2.40276e-01,-8.97658e-02,-1.21382e-01,-9.92028e-02,1.54895e-01,2.81300e-01,1.09518e-02,1.30668e-01,1.64180e-01,7.39808e-02,-2.46554e-02,2.95929e-01,5.83206e-02,-9.59903e-02,
-2.21423e-01,4.95271e-02,-3.16571e-01,2.79655e-01,2.13728e-01,5.01908e-02,-2.43540e-01,1.21268e-01,1.53909e-01,-1.80150e-01,2.71190e-01,-3.38186e-01,1.97843e-01,1.65046e-01,-1.37447e-02,8.00346e-02,-1.82161e-01,2.24648e-01,1.37668e-01,-1.56715e-01,4.44971e-02,2.37929e-01,-1.48014e-01,2.33607e-01,-1.45526e-01,-1.72979e-01,2.13599e-01,3.04825e-01,-9.63171e-02,2.19419e-01,1.66453e-01,1.47282e-03,-3.07475e-01,1.95274e-01,-9.84407e-04,-1.76849e-02,2.56223e-01,-1.29939e-01,1.51930e-01,-7.47841e-02,6.86812e-02,2.51501e-01,-2.56126e-01,1.33967e-01,-1.49502e-01,
-3.31158e-02,-2.34318e-01,-9.98749e-02,-1.49440e-02,1.38040e-01,5.16514e-02,1.29652e-01,-3.28876e-01,-4.70230e-05,2.52424e-01,-3.96873e-02,3.56187e-01,-2.26332e-01,-1.05508e-01,-1.03969e-01,-6.55718e-01,9.78706e-03,6.44280e-02,-3.48837e-02,4.51277e-02,2.27930e-02,9.51329e-02,-2.22146e-01,1.91895e-02,-2.21116e-01,2.43026e-01,-3.05552e-01,2.91125e-01,-3.98917e-01,4.70459e-02,1.27711e-01,1.16290e-01,-8.10390e-02,1.03166e-01,2.64711e-01,3.34418e-02,2.04680e-01,-2.15471e-01,-1.62917e-01,1.51802e-01,-2.59804e-01,1.16114e-01,-8.28878e-02,-1.70165e-02,2.21873e-01,
-8.05988e-02,-3.32333e-01,4.16176e-02,-1.38746e-01,2.92216e-01,1.08854e-02,-5.41620e-01,-1.38038e-01,2.52451e-01,1.75139e-01,-2.92335e-01,1.33390e-02,-6.95027e-02,2.07615e-01,-5.28208e-02,-6.94078e-02,5.25769e-02,1.76975e-01,-2.20972e-01,-1.53320e-01,-1.57396e-01,2.62996e-03,1.01674e-01,-1.66601e-01,1.60144e-01,1.90149e-02,2.12700e-01,-1.74595e-01,9.35622e-03,2.96494e-01,3.48105e-01,3.41540e-02,8.78358e-02,-1.82062e-01,-3.90571e-03,4.10579e-02,-2.66054e-01,-2.00451e-01,5.97806e-02,2.36885e-01,-3.05046e-02,3.08398e-02,-3.19854e-01,-7.45897e-02,1.05355e-02,
1.43616e-02,-2.68056e-02,2.27147e-01,1.29584e-01,-1.49036e-01,2.19328e-01,2.08349e-01,-4.25040e-01,9.64379e-02,5.24562e-03,-1.04918e-01,-1.12173e-01,2.34663e-01,1.92545e-02,1.36304e-01,2.17879e-01,-2.03703e-01,-1.92730e-01,-9.68673e-02,2.16318e-01,7.60361e-02,-4.35139e-01,2.92982e-01,3.00576e-02,-3.60949e-01,-1.48447e-01,-1.34628e-01,-2.46598e-01,-4.24065e-01,1.78382e-01,5.40729e-02,9.50970e-02,1.05757e-01,-4.10939e-01,1.44935e-01,3.39981e-02,-2.25589e-01,-3.22737e-01,-7.14441e-02,-2.50150e-01,-4.95357e-02,8.09072e-02,-3.55922e-01,-1.17773e-01,1.49581e-01,
-2.88677e-02,3.03995e-02,-2.93025e-01,-9.24562e-02,2.39834e-01,1.06573e-01,-1.60398e-01,-2.95740e-02,4.99718e-02,1.53994e-01,2.00539e-01,-1.50071e-01,2.81500e-01,1.56188e-01,8.00157e-02,6.48725e-02,-1.96578e-01,2.88799e-01,-1.99230e-01,-8.49228e-02,-3.36994e-02,-1.44092e-01,-2.66599e-01,-1.80334e-01,1.86211e-02,-2.85038e-02,-2.92350e-01,1.24000e-02,1.25900e-01,3.77548e-01,1.65928e-01,-2.33768e-03,1.89122e-01,2.32482e-01,1.38861e-01,-4.74067e-02,2.31592e-01,-1.18694e-01,1.33374e-01,1.65619e-01,-2.09246e-01,2.79683e-01,3.75552e-01,1.39839e-01,1.38485e-01,
-2.24325e-01,3.27474e-01,-3.50313e-01,2.58773e-01,-6.27393e-02,2.15151e-01,2.93588e-01,-5.99349e-02,1.62057e-01,3.51008e-01,1.31674e-01,6.36622e-02,-2.61738e-02,2.93476e-01,-2.01422e-01,-9.98552e-02,5.96347e-02,-1.93341e-01,2.09851e-01,-1.40372e-01,1.12395e-01,-3.01708e-02,-3.32352e-01,1.89254e-01,1.96801e-01,-1.39085e-01,3.26906e-01,1.02320e-01,-1.27915e-01,1.41694e-01,-1.51955e-01,-1.12287e-01,-9.26356e-02,1.58883e-01,1.92198e-01,2.41780e-02,-1.47151e-01,2.14439e-01,3.83759e-01,7.72811e-02,6.05028e-02,-5.91927e-03,5.99661e-02,-1.14567e-01,2.84242e-01,
2.72350e-01,-2.10095e-01,7.52211e-02,-7.63084e-02,-9.98250e-02,1.52503e-01,9.05067e-02,-1.17037e-01,-2.27662e-01,-3.98659e-02,-5.17571e-01,6.65836e-02,-2.57667e-01,1.66499e-01,8.63009e-02,1.59921e-01,3.03458e-01,2.59079e-02,-1.65355e-02,-1.87852e-01,9.10649e-03,7.81987e-02,2.19874e-01,6.25164e-02,-2.85459e-01,2.90126e-01,-5.00170e-01,2.13440e-01,2.32272e-01,-3.00660e-01,3.61141e-01,8.17663e-02,-2.04105e-01,-2.31422e-02,1.53383e-01,-3.91696e-01,-2.00536e-01,-2.24252e-02,2.23010e-01,2.89503e-01,-2.45382e-01,-2.24143e-01,1.03916e-01,5.74737e-02,-1.23809e-01,
2.57609e-01,-1.00873e-01,2.54802e-01,3.24853e-02,-2.37974e-01,1.41032e-01,2.36425e-01,1.05924e-01,-8.49615e-02,-1.86775e-01,8.17630e-02,-6.74775e-02,-1.22277e-01,-2.30545e-01,3.98340e-02,-7.53681e-02,5.11048e-02,2.19096e-01,-1.25159e-01,-7.29278e-01,-2.10778e-02,6.30733e-03,7.92652e-02,2.28387e-01,-2.02314e-01,-2.42724e-01,-1.19437e-01,-1.73187e-01,1.45937e-01,2.37314e-03,-1.25736e-01,3.08513e-01,-1.21967e-01,1.74170e-01,-3.17757e-01,-9.28732e-02,1.67639e-01,1.44604e-01,1.62077e-01,4.08309e-02,1.89041e-01,-1.11235e-01,-2.87248e-01,-4.93496e-02,-2.08469e-02,
-9.15086e-02,-1.94211e-01,1.85133e-01,-1.17721e-01,-3.56086e-01,2.26270e-01,-2.02730e-02,-2.87646e-02,1.94519e-01,4.57258e-02,-4.04062e-02,-2.29924e-01,8.48295e-02,-4.71834e-02,-1.37679e-01,-6.53711e-03,-2.18838e-01,-1.70392e-01,-3.16774e-02,-3.27175e-01,1.58128e-02,1.55252e-01,1.43762e-02,2.02379e-01,-4.02325e-03,-1.32162e-01,-1.79268e-01,-1.32667e-01,1.66410e-01,-1.33135e-01,-2.30571e-01,-9.49935e-02,1.40176e-01,1.30684e-01,-1.82177e-01,2.54449e-01,-1.52233e-01,1.14375e-01,-2.76062e-01,-9.72899e-02,9.57284e-02,-2.03834e-01,-2.32100e-01,1.76447e-02,3.03450e-01,
3.13486e-02,-1.37198e-01,3.05331e-01,-3.55697e-02,-4.40818e-01,-1.90647e-01,-2.65717e-01,9.11854e-02,1.60831e-01,-1.89496e-01,-1.34225e-01,8.57766e-02,-4.10765e-01,-9.59283e-02,-4.11006e-01,3.32349e-01,2.74698e-01,3.28285e-02,1.18945e-01,-4.88737e-01,2.52990e-02,-1.17600e-01,1.43566e-01,6.89301e-02,-9.78427e-02,1.62268e-01,-1.00221e-01,-3.66449e-01,-4.33837e-01,6.23827e-02,-2.16176e-01,5.29882e-02,-1.08414e-01,-2.06401e-01,1.52486e-01,-5.81604e-02,-2.83088e-02,5.01129e-02,1.00813e-01,-2.82222e-01,2.95765e-01,-1.99489e-01,-1.12698e-01,1.30335e-01,-1.59125e-01,
-1.68233e-01,-8.30929e-03,6.72725e-02,1.56398e-01,1.02150e-01,1.87973e-02,-1.47473e-01,-3.87006e-02,-1.21779e-01,7.66298e-02,5.41883e-03,-2.08058e-01,2.14472e-01,-1.68194e-01,3.30327e-01,-1.79452e-01,-1.51954e-01,2.02611e-02,-1.21378e-01,1.54212e-01,1.75695e-01,1.49660e-01,-1.55549e-01,9.97910e-02,-6.56878e-02,1.49934e-01,2.34371e-01,2.29273e-01,1.77967e-01,-8.53203e-02,-3.11611e-01,1.77153e-01,-9.77350e-02,4.00999e-01,-1.66136e-02,-2.41392e-01,3.39222e-02,-1.36237e-01,-2.60661e-01,1.65642e-01,9.26611e-02,-2.34992e-01,-2.00139e-01,-2.47412e-01,-5.51727e-02,
-1.16837e-01,-2.55094e-01,3.24241e-01,-8.93311e-02,-7.71840e-01,-2.03817e-01,1.61155e-01,-2.24753e-01,8.07786e-02,-3.78214e-01,1.47965e-01,-3.19129e-02,-1.15246e-01,-3.79242e-01,1.79537e-01,7.34642e-02,-3.40536e-02,-1.60338e-01,-1.66367e-01,-4.85190e-01,-1.14743e-01,1.59795e-01,1.63107e-01,1.77013e-01,-2.50324e-01,4.70402e-02,2.49994e-01,-3.11546e-01,-9.91088e-02,4.49846e-01,8.56758e-02,2.11401e-01,-1.82729e-01,1.50703e-01,-2.84643e-01,8.04030e-02,-3.50937e-01,-3.38748e-01,-1.48502e-01,9.48240e-03,-8.39724e-02,-5.80454e-02,4.67606e-02,-1.17347e-01,1.25031e-01,
-7.83064e-02,1.16064e-01,-4.17486e-02,9.27429e-02,6.62897e-02,-2.12216e-01,-1.78567e-01,-2.44553e-01,6.49053e-02,-4.82917e-02,-5.36025e-02,-8.77472e-02,1.05964e-01,-6.34217e-02,8.70576e-02,-1.11786e-01,1.73493e-01,-9.59718e-03,4.35800e-02,-1.04503e-01,-5.91955e-02,-1.70085e-01,-1.78930e-01,-8.28723e-02,-2.09885e-01,1.77487e-01,-2.55534e-01,1.90872e-01,-2.18160e-01,8.08214e-02,1.59893e-02,-1.58483e-01,-1.66759e-01,1.33040e-01,-9.01531e-02,-1.25730e-01,-2.03692e-02,4.22846e-02,8.33979e-02,1.87082e-01,-1.46711e-01,1.59405e-01,1.96810e-01,-2.48974e-01,-5.95607e-02,
1.01435e-01,-2.85879e-02,5.85770e-02,1.10521e-01,-1.49535e-01,1.32024e-01,4.25370e-02,5.10857e-02,-1.99689e-01,4.03557e-02,-1.46811e-01,-9.14695e-02,-1.42608e-01,2.58845e-01,1.35819e-01,-8.27251e-02,-1.46941e-01,-5.67471e-02,-7.97419e-02,-3.08729e-01,1.31362e-02,1.09878e-01,-9.39653e-02,2.84527e-01,-4.17401e-03,1.32245e-01,1.25697e-01,-5.66621e-02,1.55040e-01,2.70597e-01,-1.49141e-01,-6.47542e-02,-1.71272e-01,8.91082e-02,-8.16999e-02,-2.94252e-02,4.61494e-02,1.55423e-01,1.86669e-01,2.54258e-01,-1.61571e-01,8.12871e-02,2.72375e-02,-1.12955e-01,2.21223e-01,
-3.15790e-01,3.52221e-02,9.93811e-02,-7.42948e-02,2.89828e-01,1.44996e-01,1.40619e-01,-7.69506e-02,4.55453e-03,-1.69553e-01,4.53658e-02,-4.09807e-02,-6.53795e-02,4.37414e-02,-1.36873e-01,-3.07535e-01,-7.11659e-02,1.01204e-02,-9.28376e-02,-9.01897e-02,-2.26426e-01,2.35582e-01,1.49545e-01,-3.03056e-02,-7.99290e-02,-3.65181e-01,1.08033e-01,-3.87335e-02,-3.04856e-01,-1.10652e-01,-1.08889e-01,-2.12943e-01,-1.16824e-01,-5.89249e-02,1.12049e-01,-9.40419e-02,-3.28314e-02,1.56701e-01,-4.66430e-01,1.30424e-01,1.52114e-01,-1.05202e+00,-4.37047e-02,1.69203e-01,2.13564e-01,
-2.51620e-01,1.87088e-01,-2.64064e-01,1.71933e-01,-3.11520e-01,9.80051e-02,-1.35515e-01,-7.54734e-02,1.30882e-01,1.64442e-01,-9.33777e-02,2.66702e-01,-1.51925e-02,-3.18463e-01,-2.44701e-02,-4.70373e-01,-8.47649e-02,-3.44710e-02,1.26209e-02,3.91945e-01,1.94599e-01,-2.69188e-01,4.07684e-03,-1.26386e-01,1.46622e-01,2.09999e-01,1.85548e-01,2.88272e-01,-1.00056e-01,-1.07736e-01,1.09960e-01,-1.04100e-01,8.70760e-02,-2.19791e-01,2.99378e-01,1.92050e-01,1.49019e-01,-2.86892e-01,-1.68486e-01,-3.09616e-02,-3.61836e-01,-2.57042e-01,9.17437e-02,2.48286e-01,2.20439e-01,
-2.57689e-01,7.24974e-02,-3.76207e-02,1.16678e-01,-1.32615e-01,3.67109e-02,-1.93498e-01,1.88129e-01,2.39795e-02,-9.64775e-02,8.37436e-02,1.59980e-03,-3.88440e-03,-1.00621e-01,3.06458e-02,-2.53822e-01,1.68479e-02,1.13696e-01,2.09965e-01,-2.72122e-02,1.02660e-01,4.58547e-01,-2.16932e-01,1.25439e-01,-3.63151e-01,-1.49428e-01,9.26357e-02,3.75248e-02,1.75787e-01,1.94137e-01,7.22203e-03,-1.41171e-01,2.27927e-01,2.76208e-01,-1.66089e-01,1.25850e-01,-8.20017e-02,1.73872e-01,-7.10023e-02,2.03106e-01,2.22345e-01,1.47976e-01,-5.98597e-02,-1.26688e-01,-2.86681e-02,
-7.10856e-02,1.24421e-01,-1.70910e-01,-4.31232e-03,4.09224e-01,5.67255e-02,1.78413e-01,-6.98452e-04,1.17487e-01,-6.31839e-02,1.26079e-01,-1.96099e-02,2.12883e-01,1.23022e-01,2.36641e-01,1.52915e-01,7.30817e-02,2.06249e-01,5.04646e-02,2.59191e-01,-2.01166e-01,1.45320e-01,-9.79534e-02,-1.18658e-01,1.17098e-01,1.22143e-01,-8.88815e-02,9.35976e-02,-1.67587e-01,1.34223e-01,-1.34461e-01,8.35440e-02,-1.72196e-01,-1.66245e-01,2.79243e-01,-2.38559e-01,3.41902e-02,-1.46566e-01,-1.83252e-01,-1.29924e-01,-1.25079e-01,-2.61232e-01,3.47278e-01,1.71009e-01,-2.00600e-01,
4.19726e-02,-6.54761e-05,1.58036e-01,-2.79665e-01,-1.51342e-01,1.92142e-01,-3.24393e-01,2.25074e-01,1.13887e-01,-4.41418e-01,8.33910e-02,-3.86567e-01,-1.28011e-01,-2.30086e-01,-4.26656e-02,2.88256e-01,-3.09519e-02,1.06789e-01,6.56632e-02,-9.89634e-01,4.20737e-04,-1.48399e-02,-4.46706e-02,-7.68430e-02,2.20033e-01,-6.96877e-02,1.04503e-01,-2.66877e-01,4.62966e-01,1.45349e-01,-9.00812e-02,-2.23052e-02,-2.08353e-01,1.57529e-01,6.13439e-02,4.56537e-04,-1.43371e-01,3.18103e-01,-4.15452e-02,-9.17416e-02,1.93403e-01,1.29797e-01,-1.27972e-01,1.53361e-01,-2.30427e-01,
2.26190e-02,
-2.74811e-02,
-1.01971e-02,
1.30441e-02,
6.35096e-02,
2.91846e-02,
-1.12579e-02,
-9.33954e-02,
-1.15476e-02,
-3.37222e-02,
6.57279e-02,
1.01793e-01,
1.24137e-02,
8.19655e-02,
-5.83577e-02,
8.00203e-02,
5.32638e-02,
2.32875e-02,
4.77797e-02,
-4.75148e-02,
-7.11721e-03,
8.28496e-02,
-5.02355e-03,
7.97509e-02,
-9.73173e-03,
3.09881e-02,
-1.13915e-01,
5.85780e-02,
1.03781e-01,
6.05766e-02,
-4.84531e-02,
-7.39976e-02,
-7.17358e-02,
7.78068e-02,
9.13932e-02,
7.08731e-02,
7.21426e-02,
5.14964e-02,
-6.84785e-03,
2.78413e-02,
1.03901e-01,
3.31959e-02,
-1.75407e-02,
-1.85640e-03,
4.45498e-03,
-2.31723e-02,-1.71253e-02,-1.47775e-01,-3.49804e-01,3.70663e-01,-4.02957e-01,-1.80726e-01,-1.15178e-01,2.80429e-02,-1.24900e-01,-2.16019e-02,7.96979e-02,2.02578e-01,3.61796e-02,-1.79500e-01,2.13177e-01,2.35187e-01,5.76342e-02,9.72385e-02,3.03576e-01,8.58913e-02,8.93578e-02,7.17483e-02,-1.87698e-02,1.39953e-01,-1.68637e-01,-7.17777e-01,2.70103e-01,6.71511e-02,-3.77675e-02,-7.73176e-02,-2.49877e-01,-1.99208e-01,-4.87311e-02,9.27130e-02,-1.66470e-01,-2.02499e-01,2.09276e-01,2.20144e-01,2.39332e-01,-3.03157e-04,-7.33213e-02,-4.48313e-02,7.50456e-02,-5.33734e-01,
1.28921e-01,-1.88124e-01,-3.73640e-02,-4.38873e-01,-7.03173e-02,-3.09616e-01,-9.62065e-02,-1.57703e-01,-7.96990e-02,3.42929e-01,2.81648e-01,4.25162e-01,-9.14416e-03,1.68011e-02,-2.06777e-01,-4.23236e-02,-2.13881e-01,-2.52109e-02,2.33809e-01,2.08235e-01,-5.34234e-02,2.97207e-01,7.64083e-02,1.85364e-01,2.08666e-02,3.25883e-02,8.63333e-02,-7.76954e-02,-1.28718e-01,1.76275e-01,-1.32979e-01,9.20337e-02,-4.40834e-02,-2.73277e-01,1.33378e-01,8.68998e-02,7.69725e-02,-1.84472e-01,2.33923e-02,-9.64653e-02,3.95210e-01,2.33344e-01,-1.96413e-01,1.78917e-01,-3.74260e-01,
1.89869e-01,-1.32219e-01,1.67112e-01,7.23769e-02,2.74858e-02,8.40028e-02,-1.70778e-01,-8.89557e-02,1.20116e-01,2.51580e-02,7.46324e-02,-2.49414e-01,1.77599e-01,-2.31119e-01,1.07619e-01,-1.35923e-01,-6.83368e-03,-1.43897e-01,5.09477e-02,2.06047e-01,-5.33704e-04,-1.70999e-01,1.25750e-01,1.70816e-01,1.36698e-01,-2.43663e-03,2.76455e-01,6.58336e-02,9.35991e-02,-3.08903e-01,9.05632e-02,3.18203e-01,-1.21519e-01,-1.43473e-01,8.73566e-02,-1.23881e-01,1.14519e-01,-1.64942e-01,-1.64944e-01,1.10350e-01,-3.68172e-01,1.03024e-01,1.85112e-01,-7.88523e-02,-2.76513e-01,
3.67650e-01,5.55310e-03,-3.33047e-01,-5.01394e-02,8.78282e-02,1.78179e-01,-1.09424e-01,-3.33675e-01,-6.14697e-02,1.15595e-01,4.69028e-02,1.77932e-01,-2.74654e-01,-2.84724e-01,1.39334e-01,-3.06063e-01,-5.77677e-02,-2.89243e-01,-2.62130e-02,-2.27181e-01,-1.98556e-01,-1.07521e-01,2.38539e-01,2.69626e-01,-3.47462e-01,-1.61598e-01,1.26908e-01,1.40493e-01,2.48851e-01,1.37991e-01,-2.66691e-01,1.68887e-01,3.61049e-02,4.10383e-02,1.33003e-01,-3.52481e-01,1.46963e-01,4.85510e-02,5.00789e-02,2.31048e-01,1.22487e-01,-8.64153e-02,1.85070e-01,-5.46352e-02,1.44426e-01,
-1.27443e+00,-1.30609e-01,-2.50398e-01,8.84795e-02,6.46900e-02,3.12008e-02,1.14025e-01,-3.32633e-04,1.68965e-01,2.27645e-01,-9.65245e-02,-1.60051e-01,-5.95430e-02,-9.13017e-02,3.17703e-01,-1.34375e-01,-1.25254e-01,-3.88444e-02,-5.49236e-01,2.91609e-01,2.34110e-01,-1.61761e-01,1.01760e-02,2.13870e-02,1.57510e-01,1.33881e-01,-5.89884e-02,1.93017e-01,4.76733e-02,7.70860e-02,1.34442e-01,6.38544e-03,-1.55257e-01,-2.75668e-01,-4.78668e-01,-4.12754e-02,-3.84598e-01,-3.55613e-02,2.85441e-03,-5.42959e-02,-1.28603e-01,-1.81292e-01,-2.67971e-02,-2.20811e-01,4.94126e-02,
2.80561e-01,-1.99772e-01,2.92065e-01,3.06116e-02,-5.76167e-02,-1.14241e-01,2.40884e-01,-3.10116e-01,7.69810e-02,9.16130e-02,-3.45697e-01,3.38252e-01,-1.75870e-01,-2.75074e-01,1.34904e-01,-1.44646e-01,7.61773e-02,-3.00831e-01,6.72285e-02,2.12866e-03,-3.00759e-02,5.87788e-02,-2.11884e-02,2.13144e-03,1.60190e-01,6.42984e-02,3.14291e-02,5.75070e-02,2.20526e-01,-1.65052e-02,1.07871e-01,-2.02046e-01,-3.57408e-01,-2.86468e-02,1.27309e-01,-5.23149e-02,-2.66722e-02,-3.88595e-02,-4.46365e-02,-1.56129e-01,-6.07092e-02,2.07937e-02,-2.09840e-02,-1.21525e-01,2.12382e-01,
7.14850e-02,2.91008e-01,-6.71021e-01,-1.61220e-01,-3.61954e-01,-5.74126e-01,-2.19713e-01,-4.91995e-01,1.31614e-01,-3.93341e-01,-8.07839e-02,1.93863e-01,8.68389e-02,8.35652e-02,-1.08229e-01,-8.66091e-02,-9.09838e-02,-7.92036e-01,5.84845e-02,2.01812e-02,-8.52122e-02,1.02342e-02,-9.14029e-02,2.56793e-02,-6.15557e-01,1.45984e-01,-5.19177e-02,1.19828e-01,1.08978e-01,-4.81321e-01,-5.14622e-02,3.31615e-01,4.76377e-02,-1.54998e-01,2.16632e-01,-6.28229e-01,1.84871e-01,2.60373e-01,1.06532e-01,2.44550e-01,-2.27295e-01,-3.85931e-01,1.17630e-01,-9.51462e-03,-3.99088e-01,
5.20253e-02,-3.89710e-02,-2.46431e-01,-2.43179e-01,1.45617e-01,4.17893e-01,1.55597e-01,1.47342e-01,-1.16270e-01,3.15545e-01,-2.38051e-01,1.80481e-01,1.85626e-01,5.95276e-02,-1.83403e-03,5.35254e-02,-4.95608e-02,-1.13735e-01,3.80093e-02,2.25824e-01,1.67415e-01,-2.88156e-01,1.13566e-01,-9.30417e-02,1.29707e-01,-2.49334e-01,-1.36661e-01,3.20193e-01,3.90260e-01,1.24651e-01,2.80808e-01,-2.02403e-01,-1.77650e-01,-2.35384e-01,-2.93093e-01,-5.24963e-03,4.49454e-02,6.79928e-02,-2.51124e-01,1.40180e-03,2.23315e-01,2.01232e-01,-1.15326e-01,-1.01360e-01,-1.51206e-01,
-2.14127e-01,-5.96480e-02,-7.70973e-02,1.57155e-01,-1.04139e-01,-7.74974e-02,-9.20857e-02,-6.78808e-02,1.79351e-01,-1.45280e-01,7.53506e-02,7.53417e-02,-1.72336e-01,-3.45110e-01,-1.22566e-01,2.08947e-01,-1.32725e-01,1.28277e-01,2.68596e-01,-1.20011e-01,-2.31543e-01,2.19081e-01,-1.33147e-02,-4.22529e-02,-8.69477e-03,4.96493e-03,-3.09775e-01,5.85350e-02,2.58349e-01,3.42019e-02,2.13197e-01,-1.70899e-01,1.57984e-01,3.15703e-01,2.36400e-01,1.14464e-01,-4.34033e-02,-1.18259e-01,-1.08225e-01,9.45003e-02,-2.30495e-01,1.19201e-01,-1.66425e-02,1.85292e-02,9.32493e-02,
1.88289e-01,1.10615e-02,-7.74576e-02,2.11331e-01,1.34901e-01,3.86495e-02,-3.50619e-02,2.42757e-01,2.52237e-01,-4.90017e-02,1.49995e-01,3.10523e-03,-3.10051e-03,-1.28610e-01,9.89535e-02,-6.03141e-02,-8.80191e-02,2.45714e-01,-1.07024e-01,2.32172e-01,-2.34332e-01,2.29733e-01,4.64423e-02,1.38922e-02,1.88038e-02,-2.02498e-01,6.11206e-03,1.95453e-01,1.59309e-01,1.46530e-02,-6.94945e-02,1.74736e-01,2.48423e-01,5.79522e-03,1.69662e-01,-1.18137e-01,-4.04435e-03,-2.12532e-01,-1.04651e-01,-1.87543e-01,-1.07590e-01,-2.08024e-01,3.00021e-02,4.30405e-02,-3.33043e-01,
1.76405e-01,-1.55383e-01,2.21326e-01,2.29759e-01,-2.67830e-01,-4.83554e-01,7.90971e-02,-6.47018e-01,-1.74446e-01,-1.12746e-01,8.29627e-03,-5.27160e-02,1.75784e-01,2.44042e-02,9.83061e-02,1.25786e-01,-2.10582e-01,-8.80046e-03,1.42103e-01,-2.05015e-02,-1.18771e-01,2.70762e-01,7.37561e-02,3.18297e-02,3.00051e-01,2.81805e-01,6.60296e-01,-3.66016e-01,-1.20970e-01,-3.36564e-01,1.27254e-01,-3.99992e-02,3.37818e-02,3.74292e-02,1.06065e-02,-1.78809e-01,1.87495e-01,-4.01400e-02,-1.32680e-01,-2.39382e-01,1.11789e-01,-2.13676e-01,2.83751e-01,-1.79309e-01,1.95930e-01,
3.00389e-01,-5.05869e-01,-2.41725e-02,-1.49433e-01,1.64134e-01,-1.03235e-01,-6.57238e-02,1.32138e-01,9.33223e-03,-1.38309e-02,-1.31145e-01,2.47743e-01,-8.06654e-04,4.90500e-02,4.55346e-02,-3.11515e-01,-7.14262e-02,1.98642e-01,6.47934e-03,-1.09637e-01,2.53416e-01,-3.19524e-01,-2.44218e-01,2.27994e-01,8.67783e-02,-2.21790e-01,-3.05953e-01,-2.57679e-01,5.78435e-02,3.06234e-01,5.22253e-02,1.63812e-01,3.55837e-01,-2.42967e-01,-1.10133e-01,-2.95566e-01,1.36640e-01,1.32205e-01,1.70766e-01,-1.28888e-01,8.44731e-02,-2.27931e-01,1.41323e-01,9.54597e-02,-4.76195e-01,
1.24031e-01,8.89629e-02,2.05886e-01,4.56767e-01,-2.42384e-02,-1.49184e-01,2.90081e-01,-3.31413e-01,-1.94538e-01,2.65666e-01,1.04457e-01,2.42391e-01,1.92313e-01,-8.15419e-02,-2.68185e-02,-2.83417e-01,-6.95453e-02,-1.51017e-02,7.70889e-03,1.29379e-01,2.07298e-01,-7.60900e-02,-2.37787e-01,-1.92228e-01,-8.65811e-02,4.79686e-01,4.18992e-01,-2.37475e-02,-2.01740e-01,6.58668e-02,-1.64295e-01,-2.25139e-01,2.52987e-01,-6.48494e-02,2.09406e-01,-2.62820e-02,-2.19794e-01,2.59014e-01,5.60924e-02,9.14621e-02,-1.98234e-01,-1.27475e-01,2.14390e-01,-1.84984e-01,1.46114e-01,
5.66096e-02,-1.45127e-01,4.04297e-01,9.89357e-03,2.44037e-01,-2.17464e-01,-8.50019e-02,-4.08217e-01,-3.29692e-01,3.15435e-01,-3.02088e-01,-1.26256e-02,2.69724e-01,1.79844e-01,-1.42118e-01,-2.72112e-02,-1.42636e-01,-2.79186e-01,1.76751e-01,4.84812e-02,-3.35920e-02,1.67032e-01,-2.00422e-01,1.00552e-01,-8.38056e-02,6.92365e-02,-3.53206e-01,-2.22663e-01,-5.72106e-01,-2.15958e-01,1.08218e-01,1.02620e-01,-4.67605e-01,2.62711e-01,3.36385e-01,-1.58294e-01,2.93777e-02,-3.14998e-02,-1.56033e-01,2.68905e-01,1.20745e-01,-1.84388e-01,2.20210e-01,-7.60664e-02,2.16636e-01,
-2.81373e-01,-1.11592e-01,6.40271e-02,1.27094e-01,-2.32019e-02,-8.19188e-02,-1.38540e-01,2.44519e-01,1.19513e-01,1.05848e-02,-3.93461e-02,4.29598e-02,2.40460e-01,9.49965e-02,2.07190e-01,3.36736e-01,6.03808e-02,-1.66159e-01,5.42748e-02,5.37969e-03,-1.98050e-01,-7.91129e-02,-1.74263e-01,1.25613e-01,2.90928e-02,-2.16877e-01,4.86121e-01,-1.75163e-02,1.27523e-01,-2.82479e-02,-1.15143e-01,2.96002e-01,-2.06234e-01,-3.51492e-01,1.79349e-01,-7.39591e-02,1.30789e-01,4.72685e-03,-7.19654e-02,2.76655e-01,1.40410e-01,1.46244e-02,3.12979e-02,-1.12230e-01,2.35438e-01,
1.56674e-02,2.05834e-01,2.09674e-01,3.71784e-02,-7.57732e-02,-1.33594e-01,3.09572e-01,-3.29201e-01,2.47575e-01,2.09149e-01,-1.42826e-01,-1.68710e-01,-8.48925e-03,4.85321e-01,1.56653e-01,-4.18691e-02,3.51583e-01,-3.40519e-02,-2.66763e-01,1.57710e-01,-2.16598e-01,8.56105e-02,-9.14488e-02,-3.01477e-01,-5.30735e-02,-2.11658e-01,8.66365e-01,-9.92759e-02,-1.54109e-01,2.75840e-01,-5.75452e-02,2.99891e-01,4.49840e-01,1.27946e-01,-6.01465e-02,9.47380e-02,-4.89861e-01,-2.10883e-02,3.28639e-02,-1.84038e-01,-2.41383e-01,1.72751e-01,-1.20494e-01,-1.39719e-02,1.96662e-01,
-3.83645e-01,-5.83823e-01,1.45882e-01,-4.94875e-01,-1.81619e-01,-2.74254e-02,5.77535e-02,2.78586e-02,4.76678e-02,-1.92991e-01,-2.58860e-03,2.50244e-01,-1.81389e-01,3.70766e-02,1.39520e-01,1.69046e-01,-6.78840e-02,-1.57506e-01,-5.49469e-02,-2.15293e-01,1.13810e-01,6.23020e-02,-1.03955e-01,1.08297e-01,1.93295e-01,-4.38745e-01,-3.36447e-01,2.02831e-01,-1.39434e-01,1.78918e-01,2.33794e-01,-2.79196e-01,1.01925e-01,-1.68739e-01,-1.56503e-02,2.40196e-01,1.99492e-01,-1.56304e-01,-1.40385e-01,-1.19281e-01,2.77837e-01,2.62368e-01,1.14767e-01,-8.66242e-02,7.07997e-02,
-5.13768e-02,2.97274e-02,3.49579e-01,-7.25567e-02,-1.33592e-01,8.12956e-02,-2.57478e-02,2.94450e-01,-2.13860e-01,-2.47348e-01,1.27833e-01,-1.80775e-01,-5.11278e-02,-3.71328e-01,-1.14538e-01,-4.20911e-02,-2.44418e-01,2.56551e-01,9.82283e-02,2.24788e-01,-2.25918e-01,1.11178e-01,1.28121e-01,-8.57204e-02,3.50201e-01,-4.04924e-02,-2.78031e-01,-3.27518e-01,-1.57256e-01,-1.07659e-01,-1.04988e-01,2.98809e-01,-3.00407e-01,1.96879e-01,2.34782e-01,1.61652e-01,5.76931e-02,-8.88104e-03,1.29910e-01,6.59721e-02,1.23550e-01,-7.79076e-03,-5.29177e-02,1.24326e-02,-5.07687e-02,
-2.07625e-01,-6.76885e-01,1.75595e-01,-7.78621e-02,-8.82782e-02,1.67669e-01,1.90260e-01,-1.29318e-01,1.48252e-01,1.40707e-02,-1.43111e-01,3.95810e-05,5.59603e-02,2.07350e-01,2.52525e-02,1.48229e-01,4.59717e-02,-1.24599e-01,-3.44666e-01,-2.23953e-02,-1.37557e-01,1.34164e-01,-1.51750e-01,2.42987e-01,7.40385e-02,2.14122e-02,-3.70827e-01,1.43842e-01,-1.42154e-01,2.76266e-01,-1.57451e-01,-4.43952e-02,-1.29308e-01,-4.75383e-02,1.36191e-01,9.03313e-03,-8.43774e-03,2.26175e-01,-2.22725e-01,-1.03306e-01,-1.36439e-01,-2.70544e-01,-1.50870e-02,3.97112e-01,1.69625e-01,
-2.22004e-01,-1.40014e-01,-2.98151e-01,-2.55093e-01,-1.71237e-01,2.38967e-01,-3.66167e-02,3.32884e-01,1.71041e-01,-1.75602e-01,1.71293e-01,1.86730e-01,1.51215e-01,2.20060e-01,2.15589e-02,1.02749e-01,-1.28583e-01,3.42890e-01,2.54994e-02,-2.27095e-01,-1.50019e-01,-1.83671e-01,-1.97645e-01,-2.50299e-01,3.90938e-01,-5.76570e-02,-7.01467e-04,1.18531e-01,6.07841e-02,-1.28393e-01,-1.13364e-02,1.32385e-01,-8.80170e-02,2.21526e-01,-9.91480e-02,-2.10369e-01,8.56131e-02,-1.48303e-01,2.51532e-01,4.70685e-02,2.68475e-01,1.00361e-01,-6.99368e-02,-9.57322e-02,-3.93517e-01,
-8.35535e-01,-1.46920e-01,1.02223e-01,1.08533e-01,1.39680e-01,-5.59227e-01,1.76832e-01,-1.67495e-01,3.18495e-02,2.29946e-01,-3.87486e-01,-7.46299e-01,-2.34340e-01,-5.22648e-02,3.62858e-01,-2.89868e-02,-1.02534e-01,-2.44764e-01,-8.00823e-02,-5.18452e-02,-5.52972e-02,-1.87731e-01,-7.91006e-02,9.59752e-02,-7.31107e-02,3.05882e-01,-1.47187e-02,-7.89787e-02,-1.22397e-01,-4.16111e-02,1.44058e-01,-6.64896e-01,-1.58521e-01,-1.92999e-01,4.29065e-03,-1.52594e-01,-4.25714e-01,1.96105e-01,-2.19599e-01,-1.01050e-01,8.81401e-02,-1.88039e-01,-1.41376e-01,2.39942e-01,1.16490e-01,
-7.17828e-02,8.09464e-02,-2.57553e-02,9.88367e-02,2.62439e-01,4.23655e-01,-2.12483e-01,2.80391e-01,9.65991e-02,-2.24443e-01,1.23288e-01,-3.31818e-02,1.00298e-01,9.30285e-02,1.14516e-01,3.84624e-01,-1.49987e-01,1.18098e-01,2.17089e-01,-2.56654e-01,4.23956e-02,-2.94035e-02,1.67968e-01,1.53496e-01,1.62407e-01,-1.49132e-01,-6.31310e-01,1.29417e-01,-1.05313e-01,1.41980e-01,8.78141e-02,2.44883e-01,-1.83685e-01,-2.60893e-01,2.23411e-01,-1.61851e-02,-7.73463e-02,-1.62113e-01,-1.39911e-01,-5.64537e-02,-3.82080e-01,-1.03841e-01,-1.61808e-01,-3.84468e-01,-2.06257e-01,
-1.49755e-01,-1.12907e-01,8.67997e-03,1.09264e-01,1.59830e-02,-2.18848e-01,5.58006e-02,1.22968e-02,7.26855e-02,8.05087e-02,8.69734e-02,1.05333e-01,2.27967e-01,1.36082e-01,2.05564e-01,1.85026e-01,-1.73622e-02,1.80785e-02,-2.50266e-01,2.01179e-01,-1.54390e-01,-1.41939e-01,1.39603e-01,-1.81157e-01,1.57364e-01,1.85782e-01,-3.38092e-02,-2.20532e-01,-6.40280e-02,-2.49995e-01,-4.67558e-02,5.92220e-02,-1.55070e-01,-3.76073e-03,-3.12005e-04,1.80940e-01,1.56143e-01,-1.24115e-01,4.19320e-02,7.19599e-02,8.62351e-02,2.59610e-02,1.25856e-03,1.04463e-01,-1.95276e-01,
-1.18861e-02,-1.83320e-01,-2.32163e-01,-1.44475e-01,-6.67968e-03,3.93023e-01,7.94000e-03,1.09085e+00,2.62216e-01,-4.33044e-01,1.26900e-03,1.13834e-01,-2.12806e-01,1.89467e-02,-1.97799e-01,-6.60268e-02,-1.56443e-01,4.13319e-01,3.36664e-01,7.38762e-02,4.45911e-02,-1.23101e-01,-2.39577e-01,6.57845e-03,1.57031e-01,-6.73458e-01,-1.52245e-01,1.31917e-01,2.69233e-01,1.56403e-01,4.49973e-02,1.31112e-01,-3.39471e-01,-1.89651e-01,-6.92638e-02,1.76291e-01,-4.59246e-01,1.01263e-03,2.57475e-01,-1.69481e-01,1.38402e-01,9.82426e-02,-1.98180e-01,3.44052e-02,1.27243e-01,
-5.62483e-02,-3.57435e-01,-5.32068e-01,-4.25700e-01,-1.70149e-01,4.10643e-01,-2.22286e-01,4.80054e-01,3.15137e-01,-2.27632e-01,2.90741e-01,-7.56490e-02,1.43291e-01,2.15617e-01,2.47845e-02,3.75026e-02,-4.53816e-02,1.27309e-01,1.07462e-01,1.03860e-01,-1.62014e-01,-2.04809e-01,7.43137e-02,-1.02003e-02,5.07480e-03,-3.32376e-01,4.31820e-01,1.55620e-01,3.97956e-02,-1.19588e-01,-1.10646e-03,1.10352e-01,2.35476e-02,-2.94755e-01,-5.41534e-02,-2.89897e-01,-4.14421e-02,-4.08537e-01,-7.76558e-02,-7.07062e-02,-2.35695e-01,1.64962e-01,-1.03890e-01,-6.13951e-02,-2.11591e-01,
-1.63873e-01,2.67245e-02,2.08460e-01,2.68576e-01,-9.13015e-02,1.03394e-01,-2.04847e-01,3.17279e-01,-2.66806e-01,4.80649e-05,2.50700e-01,8.72714e-02,1.50846e-01,-1.17232e-01,2.05036e-01,1.73538e-01,-2.88007e-01,2.42012e-01,-2.62544e-01,6.30914e-02,5.70810e-02,4.24406e-02,1.80139e-01,2.03223e-01,3.31980e-01,1.37995e-01,5.04468e-01,-1.95844e-01,-3.02600e-01,-1.89800e-01,-1.43404e-01,3.25823e-01,3.29877e-01,-1.37081e-01,-2.62525e-01,-5.83416e-02,-1.25658e-01,8.10600e-02,-2.25679e-01,1.29283e-01,8.15052e-02,3.50063e-02,1.26804e-01,-9.53360e-02,-1.93611e-01,
-1.44482e-01,1.38822e-01,4.07602e-02,1.23540e-01,6.56976e-02,-2.79534e-02,-1.82072e-01,2.03297e-02,2.67704e-02,1.02912e-01,1.65324e-01,6.06241e-02,-2.03202e-01,2.06870e-01,-1.05673e-01,1.57476e-01,-1.13140e-01,-1.33567e-01,2.46288e-01,1.24645e-02,1.98437e-01,9.83079e-02,-1.66332e-01,-1.99738e-02,-2.64692e-01,-2.38835e-01,-7.94992e-02,-2.29614e-01,4.14241e-02,-2.02263e-01,-8.04573e-04,-1.22953e-01,-2.04498e-01,-2.42631e-01,-1.48660e-01,4.10564e-02,-2.37017e-01,1.28494e-01,-1.92852e-01,3.27685e-03,-1.41930e-01,-7.78356e-02,1.25057e-01,1.16600e-01,1.04807e-02,
-7.55212e-02,-3.36385e-01,3.85114e-01,3.43804e-01,1.98656e-01,-1.91952e-01,-6.59189e-04,2.05125e-02,-1.11382e-01,-2.10129e-01,3.43391e-01,-4.24020e-03,1.28755e-01,3.82660e-01,1.48625e-01,-3.29222e-01,-1.19658e-01,-1.50052e-01,-1.29792e-02,2.93679e-01,3.73042e-02,5.87720e-02,-2.53062e-01,-1.47898e-01,-1.76184e-01,1.21797e-01,-7.47920e-02,1.68679e-02,2.95360e-01,-6.84884e-03,-2.63730e-01,-8.13519e-02,7.71475e-03,9.43119e-02,-8.59925e-02,1.32661e-01,4.90298e-02,3.13075e-01,4.10704e-02,2.86227e-01,-1.94229e-01,1.30841e-01,-5.96049e-02,3.11196e-01,-2.32725e-02,
3.04893e-04,4.46416e-01,4.73395e-01,-5.51946e-01,-2.29809e-01,2.12036e-01,8.06261e-02,2.01779e-01,-1.38049e-01,-1.03354e-01,-3.58498e-01,2.58711e-01,-1.25828e-02,-6.02135e-01,-3.70863e-01,2.34780e-01,2.83893e-01,-1.14749e-01,1.73758e-02,-3.29231e-01,2.09695e-01,3.97458e-02,-7.40448e-02,-8.12432e-01,9.59367e-03,-2.35433e-02,1.34340e-01,1.71614e-01,2.17345e-03,1.94489e-01,1.91325e-01,3.33108e-01,-9.95463e-02,-2.04887e-01,-1.67838e-01,3.07903e-01,8.89323e-02,-3.10380e-01,1.73708e-01,-1.10241e-01,1.83791e-01,8.24929e-02,1.93846e-01,-1.69674e-01,-1.12134e+00,
2.71022e-01,-2.74498e-01,2.73010e-01,1.79080e-01,-8.15285e-02,-7.18413e-02,2.84640e-02,-6.14447e-01,-3.50320e-01,-1.40319e-01,-4.93644e-01,-2.26941e-01,-5.21596e-02,1.30826e-01,1.59376e-01,-6.46762e-01,-8.62111e-01,-3.86276e-01,2.33818e-01,3.05217e-02,4.64077e-02,1.92085e-01,3.39315e-03,2.42084e-01,-1.90086e-01,3.58315e-01,3.82124e-01,2.23789e-02,-9.25910e-02,-1.99097e-01,1.16535e-01,-1.16583e-01,-1.07683e-01,-1.33698e-01,7.26908e-02,-2.99655e-01,7.93023e-06,1.45036e-02,9.25291e-02,1.27146e-01,5.20211e-01,-1.48174e-01,-1.22977e-01,-2.63335e-01,3.03817e-01,
2.25119e-01,-3.51059e-01,-3.05152e-01,-3.27264e-01,3.57928e-02,1.17640e-01,6.75802e-02,1.87250e-01,-4.21415e-02,9.53377e-02,1.25389e-01,1.97442e-02,-2.55053e-01,5.89148e-02,2.83415e-01,2.24149e-01,1.89090e-01,-1.70871e-01,4.75556e-02,-3.06616e-01,9.40943e-02,-1.58864e-01,2.57575e-01,1.76853e-01,-2.42539e-01,2.12833e-01,-3.64987e-01,-5.59452e-02,-1.18166e-02,1.76300e-01,2.04873e-02,7.96554e-02,1.30736e-01,-1.52731e-01,1.63518e-01,7.70125e-03,1.13706e-02,-3.96866e-02,1.36813e-01,2.20960e-01,2.60161e-01,-8.37295e-02,7.23704e-02,-2.15037e-02,-3.62461e-01,
-2.84812e-02,1.06147e-01,-4.80683e-02,2.03761e-01,-2.13442e-02,1.40438e-02,1.97997e-01,-2.12149e-01,1.57838e-01,-8.13501e-02,6.33159e-02,4.51423e-02,2.74579e-01,-2.67962e-01,2.11117e-02,1.15924e-01,-1.35907e-01,2.29569e-01,3.26239e-03,-6.97767e-02,2.42867e-01,-1.28027e-01,2.58575e-01,-1.88829e-02,-1.28758e-02,3.91694e-01,-1.63600e-01,-3.53520e-02,-2.91646e-01,3.60374e-02,-2.23057e-01,-1.70005e-01,-1.34802e-01,-1.43750e-01,1.68788e-01,7.74701e-02,-1.02410e-01,1.36056e-01,-1.04577e-01,1.56369e-01,-9.77846e-02,-9.44575e-02,9.31864e-02,-1.65369e-01,2.51564e-01,
-1.44934e-02,1.39649e-01,-9.61449e-02,1.48015e-01,1.00466e-01,1.85539e-02,-2.34580e-01,5.81907e-01,-1.07456e-01,-1.79007e-01,1.38936e-01,1.25426e-01,3.26390e-02,-1.07224e+00,1.91204e-01,-1.48814e-01,-2.84712e-01,2.56642e-01,9.55392e-02,1.40836e-01,-5.41650e-02,-2.68305e-02,2.76213e-02,3.98564e-02,-1.22188e-01,-2.87604e-01,-4.37408e-01,8.00941e-04,-1.80629e-01,-1.93217e-01,3.03701e-01,1.24234e-01,-3.66926e-01,3.44133e-02,-2.78665e-01,1.35396e-02,-4.40910e-02,7.42023e-02,-2.58280e-01,-1.01805e-01,1.99928e-01,2.23967e-01,-2.70138e-01,-2.78779e-01,-3.02290e-01,
-1.41802e-02,-1.12295e-01,-2.83314e-01,6.87800e-02,-1.54386e-01,5.01617e-01,4.36917e-03,5.91427e-01,2.35906e-01,2.37544e-01,8.82123e-02,-2.47290e-01,8.66353e-03,1.15629e-02,-1.44465e-01,-7.99593e-02,6.39717e-02,1.62176e-01,-9.13421e-02,2.11204e-01,2.42378e-01,-3.01399e-02,6.33149e-02,-9.56252e-02,1.44150e-01,-3.76486e-01,-4.18369e-01,2.03712e-01,8.20002e-02,9.70698e-02,-4.16088e-03,1.70702e-01,-4.31453e-01,-8.29039e-02,-3.65792e-01,2.69429e-01,-2.75673e-02,4.69637e-01,2.29282e-01,1.65536e-01,7.53504e-02,2.05571e-01,-3.98721e-01,1.41966e-01,-2.77999e-01,
-1.55840e-01,1.12979e-01,1.74368e-01,-2.18075e-01,-2.32195e-01,1.72255e-01,1.09529e-01,-2.84134e-01,1.43307e-01,-2.94036e-01,-5.05994e-01,2.26332e-01,-2.53646e-02,1.27239e-01,-1.70941e-01,2.87110e-01,-2.92194e-02,-2.09705e-02,-1.60204e-01,1.78255e-01,1.84915e-01,-2.00457e-01,-2.77658e-01,-2.44738e-01,3.55256e-01,-2.79001e-01,-1.44758e-03,1.62904e-02,-2.44153e-01,1.76585e-02,-4.59038e-02,-9.41522e-02,-7.23332e-02,4.82592e-02,-1.75733e-01,1.29670e-01,-3.30446e-01,-2.10914e-01,2.03954e-01,-3.87938e-01,-4.11421e-01,2.62926e-01,2.33385e-01,-1.54315e-01,2.69071e-01,
3.19848e-01,-2.94970e-02,-1.70189e+00,2.80237e-01,1.79229e-02,8.94891e-02,1.56938e-02,1.67873e-01,7.90168e-02,8.41956e-02,-1.96430e-01,1.17490e-02,4.27613e-02,9.41101e-02,-1.26704e-01,2.08968e-01,-4.87578e-02,6.56664e-02,9.74145e-02,-1.85220e-01,-1.09709e-01,-3.37735e-01,3.06446e-01,1.79677e-01,-3.90753e-01,-3.37259e-01,-1.85386e-01,-1.11495e-01,-6.65826e-02,2.48976e-02,-6.11385e-01,-7.49680e-02,-1.81972e-01,-5.91272e-01,-2.37270e-01,-2.91861e-01,6.39019e-02,4.27314e-01,1.61817e-02,7.08385e-02,-2.06397e-02,-8.39024e-03,3.74839e-02,6.89424e-05,2.69222e-01,
1.89479e-01,-4.96860e-01,-3.61181e-01,-9.76053e-02,-3.97676e-01,3.47320e-01,-1.54676e-01,5.61164e-01,3.03428e-01,-8.15349e-01,5.83716e-03,-1.65212e-01,-3.75599e-02,-1.26205e-01,-3.59049e-01,-9.01803e-03,1.50892e-01,2.25061e-01,1.72764e-01,1.00462e-01,2.07850e-01,-2.60685e-01,-1.86027e-01,-8.48415e-02,-1.23488e-01,-2.68663e-01,-5.36799e-01,4.81444e-02,1.89267e-01,-2.37902e-02,-1.46270e-02,-1.93451e-01,-4.04585e-02,-1.35053e-01,-2.59548e-01,-1.49827e-01,-5.83649e-02,-2.92674e-01,1.36061e-02,1.29167e-01,1.32678e-01,3.48046e-01,-1.66204e-01,-1.36931e-01,6.45616e-04,
4.72236e-02,-1.54406e-01,3.19065e-01,-5.53805e-02,-5.69896e-03,-1.01829e+00,2.06227e-01,-6.07055e-01,-1.75197e-01,3.23703e-01,-3.42088e-03,-1.04944e-01,8.45082e-02,7.68632e-02,3.43548e-02,-2.67692e-01,-2.92643e-02,-3.13056e-01,-2.42066e-01,3.85583e-02,-3.34066e-02,-7.77282e-02,2.00932e-01,-3.39107e-02,-7.48704e-02,8.63706e-02,2.38252e-01,9.69396e-02,-1.54297e-01,-4.67487e-01,1.97989e-01,-6.47216e-02,-4.27940e-02,2.18912e-01,-2.54176e-02,1.44003e-01,5.86866e-02,-1.95433e-01,-5.52569e-03,2.25325e-01,1.05255e-01,-3.77159e-01,9.15524e-02,2.63111e-03,2.17352e-01,
-3.10232e-01,-3.62369e-01,-1.05567e-01,-1.08281e-01,5.14332e-02,9.99136e-02,1.23873e-01,9.00943e-02,2.04806e-01,1.70196e-02,5.89112e-02,1.57685e-01,1.89136e-01,1.05781e-01,1.57622e-01,3.78884e-01,-4.17792e-01,-1.07485e-01,-1.90096e-01,1.99173e-02,-2.55777e-01,4.48844e-02,-1.08055e-01,-2.54037e-01,-4.66221e-03,-4.57576e-01,-1.67378e-01,-1.83588e-02,2.90259e-01,-2.26538e-01,2.21894e-01,-3.04412e-01,-2.04103e-01,-2.07077e-01,-1.11753e-01,1.70128e-01,-1.53331e-01,-2.06054e-01,1.78994e-01,-1.22455e-01,1.12443e-01,-2.16021e-01,2.43471e-01,1.57077e-01,2.59570e-01,
-1.03153e-04,6.48863e-03,3.21782e-01,5.49500e-02,1.08720e-01,1.37454e-01,9.14436e-02,-3.23686e-01,4.58225e-02,-2.17880e-01,-2.46220e-02,1.48880e-01,9.53882e-02,-1.77068e-01,-1.05764e-01,5.79309e-02,2.19643e-01,-2.51607e-02,-8.05129e-02,-1.79995e-01,7.15593e-02,-1.00366e-02,2.04279e-01,2.98679e-01,-1.43186e-01,2.39775e-02,-1.78790e-02,2.03637e-01,-2.03526e-01,3.85356e-02,1.98587e-01,-2.76997e-02,1.24618e-01,2.38614e-02,2.20840e-01,-2.54929e-01,1.31783e-01,3.53105e-02,-1.47635e-01,1.90617e-02,8.76728e-02,7.08977e-02,7.87603e-02,-5.14787e-02,-1.53655e-01,
9.70768e-03,8.57150e-02,5.89672e-02,1.47612e-01,1.63159e-01,-3.97909e-01,-2.57490e-01,-5.90156e-01,-5.54943e-02,1.46047e-01,-2.09957e-01,3.14024e-01,1.26160e-02,1.70671e-01,-1.97854e-01,-2.44861e-01,1.39519e-01,-7.12842e-02,3.78689e-02,-1.55004e-01,1.35422e-01,1.99244e-01,-2.96313e-02,2.17125e-01,5.56743e-02,3.34732e-01,2.04178e-01,-4.89556e-04,-1.67069e-01,-3.28760e-01,-3.05286e-01,-9.78487e-02,-1.24556e-02,1.98054e-01,1.39939e-01,4.11463e-02,-8.00904e-02,1.46638e-01,7.04872e-02,2.47029e-01,2.63356e-01,6.73827e-02,3.62434e-03,1.13958e-02,-1.25046e-02,
-7.83740e-03,4.52586e-02,-4.57310e-02,2.68693e-01,1.23764e-02,2.25088e-01,1.52859e-01,5.40332e-01,9.31693e-02,4.04579e-02,-1.14605e-01,2.70723e-01,2.82602e-01,-2.49411e-02,4.88054e-02,1.85246e-02,1.97678e-01,-1.08786e-01,-1.38226e-01,1.76246e-01,-1.83084e-02,-8.99038e-02,2.44539e-01,-2.11419e-01,3.33842e-02,-5.34449e-02,6.23200e-01,-2.14187e-01,-6.88740e-02,-1.69950e-01,-2.31072e-01,3.09089e-01,1.04482e-01,9.18056e-02,-4.79649e-02,-1.69975e-01,-1.94113e-01,-5.37867e-02,-2.44297e-01,1.84807e-01,1.20249e-01,-6.72478e-02,1.07095e-01,-2.71573e-02,3.83143e-02,
1.98298e-01,4.29663e-01,-5.68727e-02,6.03664e-02,-2.24538e-01,5.75376e-01,3.25842e-01,-5.87661e-02,5.84490e-02,-2.73853e-01,-9.43108e-02,2.99749e-01,-1.02493e-01,-4.65080e-02,1.83962e-01,-1.17746e-02,8.64229e-02,-4.01063e-03,-9.96072e-03,5.64788e-02,2.29181e-01,-1.91566e-01,1.18558e-01,-2.11309e-01,3.66008e-02,-6.56766e-02,5.31943e-01,-1.83747e-01,2.60373e-02,-2.14342e-01,7.39571e-02,6.19370e-02,2.53405e-01,2.16460e-03,4.65921e-02,1.46650e-01,9.52868e-03,-7.75834e-02,2.37751e-01,2.51175e-02,4.07144e-02,1.98299e-01,6.32205e-02,7.14555e-02,-3.26802e-01,
-9.44805e-02,-7.50670e-03,3.43469e-01,3.56766e-02,-1.01203e-01,5.88416e-02,-3.02287e-01,-5.51838e-01,1.99657e-01,3.77704e-02,-9.72000e-02,1.71626e-01,-2.41165e-01,-2.43749e-01,1.81077e-01,-1.55276e-01,1.63362e-01,-2.38828e-01,-1.47614e-01,5.29433e-02,-6.55821e-02,1.56098e-01,7.15878e-03,4.30704e-01,-9.75182e-02,2.02533e-01,5.11852e-01,-1.24834e-02,-2.52428e-01,8.62896e-02,3.25893e-01,1.01726e-01,1.02672e-01,-2.24781e-01,1.50343e-01,2.98753e-02,2.74382e-01,-2.25435e-01,-1.02770e-01,-2.21632e-01,6.86977e-02,-1.31932e-01,1.76484e-01,-5.16443e-02,3.83085e-01,
-5.19743e-01,-3.93192e-01,5.13193e-02,4.21720e-01,1.59805e-01,-3.58762e-01,-8.43494e-02,-3.75092e-01,-1.48855e-01,2.70336e-01,-6.80638e-02,-5.17581e-01,-1.30162e-01,-5.59847e-02,2.77203e-01,4.37928e-01,-1.12755e-01,-2.67852e-01,-1.63791e-01,-1.05004e-01,-1.70036e-01,-3.77992e-03,-2.30783e-02,8.92781e-02,1.95760e-01,2.35386e-01,7.25196e-01,-3.64467e-03,-1.59985e-01,-9.81518e-02,4.54901e-02,1.76463e-01,2.45768e-01,-2.64615e-02,2.09094e-02,1.64056e-01,1.24251e-01,1.83484e-01,1.22391e-01,2.64796e-01,-5.41343e-01,-4.07863e-02,4.20334e-02,-1.97552e-01,3.10176e-01,
9.74505e-02,
5.26425e-02,
3.70884e-02,
2.18840e-02,
-2.71061e-01,
3.18408e-02,
1.55722e-02,
-3.46272e-03,
1.49984e-02,
-3.46809e-02,
1.24172e-02,
3.07988e-02,
-1.48478e-02,
1.49690e-02,
-4.33871e-02,
-2.99773e-02,
3.67351e-02,
7.50923e-02,
6.00213e-02,
2.33734e-02,
-1.25413e-01,
3.89486e-02,
8.09413e-03,
1.11683e-02,
-1.01608e-02,
-7.03907e-02,
-3.37927e-02,
4.54963e-02,
-3.11325e-02,
-2.20844e-02,
3.53831e-02,
4.50938e-02,
-6.94724e-03,
-4.84422e-02,
-4.79718e-02,
4.14364e-02,
2.56599e-02,
1.56748e-02,
1.27506e-02,
2.10709e-02,
1.70023e-02,
1.76424e-02,
5.61608e-03,
-2.47804e-03,
4.45696e-03,
2.93061e-01,-1.43524e-01,6.18381e-02,7.29030e-02,-3.92410e-01,1.67769e-01,1.68312e-01,1.04952e-01,-1.14308e-01,-1.00207e-02,-3.59301e-01,-1.84633e-02,-8.47776e-01,2.84936e-01,1.29421e-01,2.72315e-01,-8.26325e-02,-8.19824e-02,-3.30805e-01,1.40945e-01,8.13548e-02,3.58714e-02,-1.05669e-01,1.44664e-01,-1.97767e-02,1.89952e-01,1.43945e-01,-3.37218e-01,4.65205e-01,-1.68577e-01,1.22170e-01,-1.22192e-01,-2.99879e-01,2.46805e-01,-4.04211e-01,3.29649e-02,-7.20546e-02,-1.76562e-01,-2.20691e-01,-1.14801e-01,1.84414e-01,1.00186e-01,4.69810e-02,8.01207e-02,1.38186e-01,
-9.53986e-02,1.50489e-02,1.62127e-01,2.23767e-01,-4.68235e-02,1.51341e-01,2.52572e-01,-6.99689e-02,2.36695e-01,-4.29125e-02,7.44349e-02,-2.42626e-01,1.19858e-01,2.02175e-01,-1.47066e-01,-2.55798e-01,5.04754e-02,-2.76190e-01,-7.27913e-02,1.18388e-01,2.34814e-01,-4.62235e-02,-1.03754e-01,6.84391e-02,4.12292e-02,4.12300e-02,4.81658e-02,-3.65927e-02,6.34148e-01,-2.13778e-01,3.16808e-01,-2.47808e-01,-1.72138e-01,3.56554e-03,1.49554e-01,-2.33176e-01,-6.67718e-02,3.26784e-01,-1.15645e-01,2.08720e-01,5.21964e-02,1.27612e-01,2.25490e-01,-1.04399e-01,3.67007e-01,
1.04467e-01,3.45461e-01,1.06263e-01,1.60000e-01,1.01774e+00,2.99664e-01,5.49811e-03,3.05080e-01,3.43263e-03,2.58187e-01,-6.75169e-02,2.71852e-01,-2.99745e-02,1.23706e-01,8.45034e-02,3.92157e-02,4.44477e-01,-2.01813e-01,2.79531e-02,2.96848e-01,-4.25396e-01,-1.60324e-02,-1.52983e-01,-9.19647e-02,2.86542e-01,-1.46357e-01,9.74691e-02,-4.13347e-01,-2.18093e-01,2.36344e-01,2.61987e-01,3.90052e-02,-8.92275e-02,1.92996e-01,1.05452e-01,3.77608e-02,1.27779e-01,1.74717e-01,1.49400e-01,1.30394e-01,-6.53194e-02,-1.77744e-01,-1.93141e-02,8.98108e-02,-3.78384e-01,
-2.05625e-02,1.25063e-01,1.99556e-01,-2.29050e-01,-4.06644e-02,-2.11460e-01,-3.22902e-01,-8.49136e-02,1.37082e-02,-3.83622e-02,2.24226e-01,4.36260e-02,-2.97654e-01,-9.00911e-02,-6.07933e-02,9.11266e-02,-2.32747e-01,3.11495e-03,8.47277e-03,3.55237e-01,-2.51856e-01,-5.41425e-02,2.95220e-01,3.91302e-03,-4.02638e-01,2.82401e-01,1.62289e-02,1.42639e-01,-2.47355e-01,4.28276e-01,1.10900e-01,2.44846e-01,3.25635e-01,-2.26420e-01,-3.42821e-01,-6.47287e-01,1.13469e-01,-2.39745e-01,-2.85207e-01,1.31223e-01,-2.79606e-01,1.57748e-01,7.20533e-05,1.46881e-01,1.85085e-01,
1.42641e-01,5.36139e-02,-3.23932e-01,-2.23920e-01,1.40920e+00,-1.55520e-01,-3.59532e-01,1.83055e-01,6.86999e-02,4.03218e-02,-4.41809e-01,2.26909e-01,-9.91656e-02,-2.24299e-01,8.81224e-03,-8.36803e-02,1.03556e-01,1.08736e-01,1.37457e-01,3.37985e-01,5.46822e-01,1.36381e-01,8.65755e-02,-3.86492e-01,9.94836e-02,2.20278e-01,-2.16961e-01,1.26064e-01,7.16999e-02,3.53254e-01,6.74060e-02,1.15394e-01,2.53460e-01,1.18436e-01,2.09999e-01,-4.44993e-01,1.17363e-01,-1.89865e-01,2.59595e-01,-1.72801e-01,-7.30767e-02,2.09110e-01,2.32653e-02,-2.84876e-01,-2.28751e-01,
-1.51889e-01,1.29623e-02,1.19612e-01,1.67707e-01,1.50870e+00,1.01409e-01,3.11728e-01,3.52190e-02,-1.06636e-01,2.25632e-01,-1.36692e-01,-1.75480e-01,-7.38493e-01,6.04132e-02,5.16266e-02,-7.93974e-02,-2.90541e-01,3.28640e-01,-2.47661e-01,2.07273e-01,6.49053e-01,1.07974e-01,2.57517e-01,-1.25805e-01,8.11469e-02,2.21951e-01,-1.22859e-01,-1.21081e-01,6.41974e-01,1.14699e-01,-2.02305e-01,3.08420e-02,9.54666e-02,-2.51740e-01,-4.46211e-01,-5.78665e-02,-6.52607e-02,-4.25976e-01,-1.01787e-01,2.32116e-01,-2.25528e-01,1.72633e-01,2.41601e-01,-2.57224e-01,-2.22550e-01,
-2.53448e-01,-9.28098e-02,-2.47772e-01,-2.10150e-01,-2.16253e-01,-1.27940e-01,-1.07839e-01,1.38236e-01,1.31429e-01,7.66645e-02,-2.20392e-01,1.55933e-02,-2.14897e-01,-2.54342e-01,6.96873e-02,-1.97931e-01,5.13261e-02,1.36389e-01,-2.81934e-01,-2.30692e-01,-2.63578e-02,-4.64145e-02,4.56222e-02,-1.81450e-01,-1.47189e-01,1.03195e-01,1.40546e-01,-3.99702e-03,-1.74777e-01,-1.64237e-01,-1.48740e-01,-2.42180e-01,1.51475e-01,1.01862e-01,1.76536e-01,1.38941e-01,2.10183e-01,-9.92597e-02,-1.87156e-01,2.03946e-01,3.69160e-02,-1.66779e-01,4.42913e-02,2.33961e-01,-2.54375e-01,
1.54785e-01,3.81956e-02,1.08269e-02,-1.63365e-01,3.96255e-01,-2.39067e-01,-1.87298e-01,-2.05348e-02,9.86993e-02,7.94094e-02,-2.16417e-01,5.21980e-02,6.88065e-02,-9.98489e-03,-1.82448e-01,-6.55258e-03,1.00845e-01,2.64274e-01,-5.76717e-02,8.56957e-02,3.63496e-02,3.52870e-01,1.59180e-01,1.93406e-01,-2.56472e-02,2.98220e-02,1.49266e-01,1.45955e-01,2.27305e-01,-1.14094e-01,-1.36298e-02,3.13086e-01,4.28566e-01,-2.87527e-01,-2.02231e-01,-2.12579e-01,1.91850e-01,-3.47068e-01,-1.45453e-01,5.61807e-02,9.15652e-02,3.92944e-02,-2.27452e-01,1.44069e-01,6.32633e-02,
-6.89530e-02,1.32555e-01,4.20247e-02,-2.95773e-01,3.09196e-01,-1.64923e-01,-3.30324e-02,3.52703e-01,-5.88391e-03,-1.51120e-01,7.66438e-02,2.69109e-01,2.35199e-02,-1.56407e-01,1.80156e-01,4.64143e-01,1.24246e-01,1.34324e-01,2.54890e-01,-1.18660e-01,6.08421e-02,1.34030e-01,7.79315e-02,5.65207e-02,-4.47009e-01,-1.98915e-01,1.21306e-01,-2.09366e-02,-1.65993e-01,1.85270e-01,-1.26616e-01,7.75784e-02,1.56281e-01,-1.11851e-01,1.84782e-02,-5.21717e-01,2.75244e-01,1.77453e-02,-1.38812e-01,8.57306e-02,2.28464e-01,-8.65810e-02,1.57553e-01,1.33360e-01,-2.20306e-01,
-9.26301e-02,8.29415e-02,-1.44805e-01,2.77958e-01,4.99384e-01,-2.42725e-01,-3.35394e-01,-1.49851e-01,-1.10685e-01,8.29534e-02,9.05577e-02,2.00077e-01,-2.23934e-01,-1.71982e-01,2.50528e-02,2.52504e-01,-1.81159e-01,3.15749e-01,-5.14579e-02,2.10496e-01,5.83452e-02,2.14414e-01,1.23060e-01,-1.83203e-01,-1.64448e-01,1.60488e-01,-2.03582e-02,2.78858e-02,-2.85364e-02,1.22924e-01,-1.40436e-01,2.60033e-01,-1.11289e-01,-1.11093e-01,2.71242e-01,-2.09928e-01,3.27235e-02,-2.18581e-01,1.16744e-01,1.16522e-01,7.51804e-02,2.69248e-02,2.71917e-01,-7.47060e-03,1.43271e-01,
-4.52180e-02,1.69919e-01,3.75322e-01,5.79568e-02,1.86474e-01,-3.17632e-02,2.89678e-01,2.08691e-01,-3.22392e-01,-2.20088e-02,-2.21064e-02,-1.69719e-01,3.21794e-02,1.63965e-01,2.54044e-01,1.76931e-01,-1.89276e-01,-1.07880e-01,-3.31650e-01,7.57587e-02,1.82165e-01,-1.89717e-01,1.79275e-01,3.21049e-02,4.69480e-03,-2.23840e-02,-1.90860e-01,-2.69545e-01,3.81336e-02,4.71040e-02,-9.73685e-02,-3.18421e-02,-8.30434e-02,1.06314e-01,-9.77187e-02,4.27697e-01,-9.42716e-02,-3.84602e-01,-2.08890e-01,-1.69381e-01,9.37546e-02,2.46491e-01,2.02886e-01,-1.47772e-01,-3.49396e-01,
-1.20963e-01,-1.27287e-01,-1.34153e-01,-6.12317e-02,-2.19139e-01,6.80263e-02,4.55620e-02,-3.52321e-03,-2.42541e-01,-5.56556e-02,-4.50968e-02,-1.87482e-01,-2.13821e-01,-1.69014e-02,8.81911e-02,2.28326e-01,4.13302e-03,2.09316e-01,2.13882e-01,-1.00096e-01,1.04440e-02,-1.87592e-02,-1.74741e-01,-5.84047e-02,-4.83899e-02,-1.38381e-01,-1.66448e-01,-1.12857e-01,-1.68914e-01,-3.27435e-02,-1.47585e-01,2.71178e-02,-2.22560e-01,-9.85881e-02,2.66062e-02,-1.13319e-01,-1.43817e-02,4.27774e-02,-1.48508e-03,4.35961e-03,-8.14860e-02,-1.09076e-01,-8.94066e-02,1.41298e-01,-1.57154e-01,
8.42915e-02,2.08468e-01,-1.21309e-01,-3.02660e-01,7.43476e-01,-7.48549e-04,-5.27881e-01,3.30152e-01,1.14952e-01,2.64903e-01,-3.96269e-01,3.88685e-01,-2.51549e-02,-1.87563e-01,8.76501e-02,-3.24325e-01,-1.44954e-01,2.32405e-01,-1.40507e-01,1.86962e-01,6.80746e-01,2.56610e-01,7.64341e-02,-3.69617e-01,1.07181e-01,-1.11086e-01,-2.24106e-01,1.92624e-01,1.85821e-01,3.36487e-01,-2.27552e-02,1.03035e-01,2.49692e-01,1.61031e-02,-7.53249e-02,-2.92153e-01,-2.22430e-01,-4.09384e-01,-4.69371e-02,-1.33037e-01,4.70520e-02,-3.78551e-02,2.78292e-01,-1.88224e-01,-1.76085e-01,
9.12247e-02,2.15452e-01,-5.08546e-02,9.95313e-02,1.92007e+00,1.78964e-01,-1.12387e-01,5.13185e-02,-1.87897e-01,-2.58256e-02,-3.33640e-01,-7.66534e-02,3.89392e-03,-9.79667e-01,2.58393e-01,2.57110e-01,-1.18592e-01,3.64262e-02,-1.98089e-01,-1.48517e-01,9.13407e-01,2.29545e-02,-1.64597e-01,1.96639e-01,3.18464e-01,1.37926e-01,-1.14846e-01,-7.88086e-02,6.51113e-02,-2.43202e-01,1.24594e-01,2.34501e-01,-2.23446e-02,-2.52345e-01,2.11447e-01,7.24195e-01,1.20261e-01,8.40869e-02,2.38263e-01,-7.58250e-03,-1.23028e-01,7.23910e-02,-9.86687e-02,8.68153e-02,4.89584e-02,
1.10649e-01,9.83011e-02,2.31117e-01,-1.25944e-01,-2.69971e-01,-6.12656e-02,-5.09297e-02,1.86740e-02,1.69548e-01,-2.08655e-01,-6.73720e-02,2.20811e-01,-4.49656e-02,-1.84348e-02,2.32027e-02,-1.11697e-01,-3.38720e-01,3.46041e-01,-5.83474e-02,3.83361e-02,3.00366e-01,-1.72387e-02,1.06199e-01,-1.73717e+00,-4.73666e-01,1.31480e-01,1.98663e-01,5.12620e-02,-1.61548e-01,1.65830e-01,1.05452e-01,2.59360e-01,3.94399e-02,-6.98420e-01,-4.15400e-01,-1.80135e-01,-6.03119e-01,-2.34305e-01,7.67226e-02,1.04219e-01,-3.73680e-02,6.65035e-02,-2.79332e-01,1.61384e-03,2.13551e-01,
-7.21108e-01,8.84490e-02,6.03767e-02,-2.52682e-01,-8.70410e-02,-9.48202e-02,7.88325e-02,-3.38393e-01,1.44110e-01,1.85513e-01,-9.05454e-02,-9.43373e-02,1.20423e-01,-1.22629e-01,-1.68891e-01,3.43710e-02,-2.28734e-02,1.36123e-01,-4.32152e-02,-3.85537e-01,2.82196e-01,-8.81742e-02,-1.74526e-01,-2.03175e-01,6.13971e-02,4.78496e-01,8.02951e-02,1.09744e-01,7.74299e-02,5.34282e-03,-3.68202e-01,1.03249e-02,6.01766e-02,-7.92018e-02,-4.66454e-01,2.18525e-01,-1.53814e+00,-2.50291e-01,-1.54535e-01,-2.15377e-01,1.47252e-01,2.56412e-01,2.84602e-01,3.36144e-02,1.89361e-01,
-3.33715e-02,1.36592e-01,1.14863e-01,-2.65617e-01,-9.17309e-01,6.34155e-02,-4.95988e-01,2.67185e-01,2.33515e-01,-9.27702e-02,-3.68176e-01,2.21982e-01,-4.60935e-01,-5.87763e-01,1.51397e-02,-7.17780e-02,-1.58323e-01,4.13978e-01,-9.10693e-02,7.22904e-02,5.69766e-01,3.69821e-01,-3.03765e-02,-1.55974e-02,2.12859e-01,2.72623e-01,-2.03660e-01,-2.57518e-01,-2.13453e-01,3.01945e-01,-4.01636e-02,-2.34768e-02,4.78839e-01,2.53358e-01,-1.23034e-01,-9.31848e-02,5.06898e-03,-6.27001e-01,-1.82764e-01,-8.34523e-02,-1.14730e-01,5.29320e-02,1.31076e-01,-3.88658e-01,-2.12918e-01,
1.81654e-01,3.13323e-01,-2.35044e-01,-1.96238e-01,1.38667e-01,6.73958e-02,-4.63417e-02,-1.72006e-01,-2.00578e-02,-2.28912e-01,1.16194e-01,3.12325e-01,1.44489e-01,2.90891e-01,-2.50884e-02,-2.11853e-01,-2.02642e-01,1.08234e-01,4.19183e-02,8.18784e-02,-9.60728e-02,-1.70297e-01,1.12458e-01,-4.46459e-02,1.85443e-02,-2.35755e-01,2.29424e-01,-1.86163e-01,1.75111e-02,-3.60032e-02,1.71636e-01,2.79040e-02,2.93389e-01,-5.40197e-02,2.28525e-01,-3.23970e-01,2.30483e-01,-1.34937e-01,1.93618e-01,1.94606e-01,4.24873e-01,2.34143e-02,1.73210e-01,-8.68548e-02,-4.41345e-01,
-3.71749e-01,-6.19368e-02,2.99881e-01,1.03463e-01,1.53235e+00,4.99054e-03,7.78390e-02,-2.80493e-02,4.67865e-02,8.98078e-02,3.55642e-01,-9.16175e-03,-8.56293e-02,2.67355e-01,5.46465e-02,-9.48277e-02,-2.06097e-01,1.48375e-01,-1.42001e-01,1.32710e-02,-3.34979e-02,-2.04406e-01,-2.17867e-02,3.09948e-01,-6.70955e-02,3.64488e-01,1.51815e-01,-2.20838e-01,-1.64588e-02,-1.84716e-01,1.33522e-01,8.57540e-02,1.06588e-01,-3.43249e-01,3.37512e-01,-8.62397e-02,-2.71059e-01,3.44504e-01,-5.00019e-02,1.79254e-02,2.42176e-01,-2.17106e-01,-5.55671e-03,1.24556e-01,2.49429e-01,
-1.61590e-01,-1.56296e-01,-2.38942e-02,-6.78159e-02,5.37320e-01,8.56625e-02,6.63648e-02,-1.20395e-01,-8.84134e-02,-6.36482e-02,-2.19809e-01,-2.35704e-01,-1.84474e-01,6.99000e-02,5.97002e-03,2.00635e-01,-2.48673e-03,2.58185e-01,9.62224e-02,-2.61135e-01,-5.81935e-02,1.00864e-01,1.23854e-01,-4.74857e-03,-2.36088e-02,-1.28637e-01,9.63755e-02,-2.43302e-01,6.04257e-01,1.21033e-01,1.29868e-01,1.18945e-01,-3.84705e-02,-6.11369e-02,-4.08374e-01,-9.49860e-02,6.46370e-02,-1.02260e-01,1.32354e-01,1.59343e-01,2.57519e-01,2.74867e-01,6.33063e-02,1.45775e-02,2.14702e-01,
1.70366e-01,-2.17746e-04,3.33848e-03,8.59884e-02,1.09661e+00,4.57609e-03,2.22328e-01,3.90937e-03,1.55645e-01,5.95951e-02,-2.46583e-01,-3.98407e-02,1.10797e-02,-2.60169e-02,-2.11761e-01,-2.86099e-01,-1.55669e-01,-2.88584e-01,1.10825e-01,1.99141e-01,-1.43910e-01,-8.22335e-02,4.53089e-02,-1.66490e-01,-5.97723e-02,-5.60602e-02,1.12407e-01,2.30615e-01,8.27082e-02,1.13764e-01,1.18721e-01,-3.25853e-02,1.45405e-01,2.53880e-01,2.07282e-01,2.80992e-01,-4.17525e-01,5.42256e-03,-1.49974e-02,-2.57198e-01,2.88682e-01,1.94133e-01,-9.40756e-02,7.39072e-02,-9.23160e-02,
4.13979e-01,3.39586e-01,-1.99586e-01,-1.16110e-01,1.24003e+00,-1.34623e-01,-8.69520e-02,9.47194e-02,-3.37289e-01,1.43191e-01,2.39790e-01,2.99083e-01,-9.84495e-01,1.23628e-01,-1.05650e-01,-4.10348e-01,1.64100e-01,3.26559e-02,-1.73887e-01,1.27346e-01,-4.84762e-01,-2.30774e-01,3.61326e-02,1.43249e-01,2.69084e-01,5.81115e-02,-5.25965e-02,-2.87021e-01,-2.50248e-01,7.07859e-01,1.54537e-01,7.90039e-02,1.29612e-01,-2.32568e-01,-1.01260e-01,-8.60225e-02,-1.82268e-01,-9.89630e-02,2.87376e-01,1.51728e-01,1.09730e-01,-3.87629e-02,8.02338e-02,-1.17301e-01,-4.96275e-01,
1.95791e-01,-1.39860e-01,-7.93475e-02,1.67335e-01,1.57991e-01,-1.73161e-01,3.64246e-01,-1.79226e-01,-1.86087e-01,7.19644e-02,1.74909e-01,4.07612e-02,-2.32554e-01,1.55119e-02,2.02620e-02,2.67411e-02,-3.38842e-02,6.47504e-02,-9.60106e-02,1.46681e-01,2.86892e-02,-5.44355e-02,1.93764e-01,5.58429e-02,-1.51460e+00,-1.34336e-01,1.66309e-02,3.19782e-01,-1.93786e-01,9.19390e-03,-1.06625e-01,-6.83550e-02,-8.84515e-02,-1.08377e-01,-9.24333e-02,6.25279e-01,-9.84025e-02,1.15579e-01,6.87987e-02,-2.20694e-01,2.50840e-01,2.42069e-01,-3.22991e-01,-3.13850e-01,8.73214e-02,
2.50097e-01,-6.68654e-02,-9.16429e-02,-1.66462e-01,-2.43638e-01,-7.45322e-03,-3.11678e-01,5.54496e-02,1.47789e-01,1.14564e-01,1.49782e-01,1.73355e-01,-2.47493e-01,1.39287e-01,9.72551e-02,-9.16362e-03,1.40100e-01,-1.52002e-01,2.35367e-01,-1.19463e-01,-6.64605e-02,-1.66803e-01,9.68430e-02,4.03054e-01,2.36863e-02,2.91219e-03,2.21545e-01,1.52890e-01,-4.82666e-01,6.18073e-02,-8.64063e-02,-2.07276e-02,-2.41106e-01,-1.15627e-01,3.05623e-02,-9.07531e-02,4.70081e-01,-1.27542e-01,-1.93816e-01,-2.10897e-01,9.59255e-02,1.77449e-01,-3.30926e-02,-1.02894e-01,-2.43025e-01,
1.11384e-01,-1.65819e-01,2.23793e-01,1.36524e-01,2.00645e-01,1.24242e-02,-1.93566e-01,-5.08389e-01,8.22579e-02,-1.35199e-01,2.27205e-01,1.08733e-01,-2.45925e-02,1.79826e-02,-3.59454e-02,-5.02140e-02,2.43287e-01,-1.77051e-01,1.67439e-02,-1.02849e-01,6.38230e-02,-1.08415e-01,2.24483e-01,-1.67354e-01,-9.22581e-02,-7.12781e-02,-2.44249e-01,2.40780e-01,-7.33747e-01,-1.09207e-01,-8.98309e-03,1.68170e-01,-1.51401e-01,-4.53681e-02,-1.81915e-01,6.91186e-02,1.65486e-01,-9.99930e-02,2.86105e-02,-1.46948e-01,-4.40188e-02,-3.72398e-02,1.08662e-01,1.00798e-01,-9.03567e-02,
-1.53727e-01,-2.12776e-02,-7.16307e-02,1.52574e-01,2.33887e-01,1.53708e-01,3.76972e-04,-1.37005e-01,2.77115e-01,1.13202e-01,1.45460e-02,5.26569e-02,-1.08701e-01,2.50144e-02,1.76631e-01,-9.78003e-02,3.54859e-02,-6.99328e-02,8.93307e-02,-2.21580e-01,8.80843e-03,-6.25722e-02,2.06551e-02,4.19290e-01,-1.00948e-01,6.85516e-02,-1.72465e-01,1.45534e-01,-2.34499e-01,2.72829e-01,6.39224e-02,2.36755e-01,1.84659e-01,3.24719e-02,4.49845e-01,2.34150e-01,-1.58063e-01,-1.39232e-01,-1.93886e-01,1.42888e-01,6.89347e-02,3.35501e-02,1.92161e-02,2.43456e-01,-6.25731e-02,
2.00137e-02,-5.87504e-02,-9.65084e-03,-1.11586e-01,3.83379e-01,-3.06162e-02,-2.45504e-02,1.86982e-01,1.80454e-01,1.43953e-01,1.26799e-01,2.33507e-01,-2.41438e-01,-9.89381e-02,8.24360e-02,-8.44012e-03,1.52047e-01,1.47513e-01,1.25030e-01,2.07502e-01,-4.83198e-01,-1.51778e-01,2.25191e-01,-2.12720e-01,-3.29691e-01,9.01486e-02,-1.67653e-01,3.32095e-02,-3.03280e-01,2.61977e-02,-1.60411e-01,-1.31659e-01,-8.17656e-02,3.72233e-03,5.09532e-02,-9.31150e-02,2.96027e-01,2.16349e-01,-2.29699e-01,1.75801e-01,4.66447e-02,2.11314e-01,1.39530e-01,-1.29333e-01,-1.07245e-01,
6.94201e-02,-4.12894e-01,2.23573e-01,-9.96855e-02,-9.17740e-01,-1.13612e-01,3.66293e-01,6.91263e-02,3.25881e-02,2.25029e-01,8.20013e-02,-1.23351e-03,-4.09995e-01,-1.61677e-01,4.84986e-02,9.55088e-02,-9.09188e-02,-5.97137e-02,3.48501e-01,-3.55725e-01,-5.34352e-01,3.74164e-01,1.42792e-01,7.81769e-02,-1.45833e+00,-2.93458e-01,2.12047e-01,1.22392e-01,-2.27723e-01,2.75964e-01,3.82666e-02,2.01675e-02,1.31388e-01,2.28072e-01,-2.52630e-01,-2.20018e-01,4.97282e-03,1.11651e-01,-7.11385e-02,-2.14703e-01,-2.96569e-01,-2.78096e-01,-4.22631e-01,3.39010e-02,4.27341e-01,
1.45415e-01,1.46331e-01,1.16050e-01,3.68201e-01,5.40582e-01,-3.07689e-02,2.01318e-01,1.16834e-01,-5.69737e-02,1.98967e-02,-9.27412e-02,1.57428e-01,1.42074e-01,1.90638e-02,5.67883e-03,-1.12086e-01,-2.46519e-01,-1.87598e-01,-2.80131e-01,9.43807e-03,-4.37797e-02,-1.74129e-02,1.10596e-01,7.29347e-02,-4.38838e-02,-2.11233e-01,-1.61294e-02,2.91113e-02,3.40260e-01,-2.44159e-01,1.81303e-01,1.57732e-01,9.88521e-02,1.16091e-01,-3.90771e-01,1.30662e-01,-2.53408e-01,-2.73824e-02,-6.30212e-01,1.01475e-01,-6.73802e-02,-1.26021e-01,-3.65671e-02,-1.18562e-01,9.56155e-02,
2.90602e-01,-1.32651e-01,9.04548e-02,-2.32219e-01,1.38751e+00,-2.25920e-01,4.05648e-01,1.45863e-01,1.92374e-01,2.46924e-01,-9.55974e-02,-2.03607e-02,-2.94521e-01,-1.77712e-02,-6.54753e-02,1.05898e-01,-2.38129e-01,-1.07505e-03,-2.75827e-01,2.34949e-01,4.26744e-01,1.52671e-01,-7.71374e-02,-5.36838e-02,-1.79611e-01,2.67241e-01,6.92317e-02,5.30587e-02,7.64370e-01,2.10120e-01,3.58571e-02,-1.98314e-01,1.89147e-01,2.23152e-01,-6.23560e-02,-2.15205e-01,-3.54127e-01,-8.23503e-02,-1.30450e-02,-9.63132e-02,-5.91088e-02,1.04179e-01,2.47203e-01,-1.66250e-01,1.88658e-02,
1.62964e-01,1.59783e-02,-4.20007e-02,3.57974e-01,-7.28695e-01,-7.20362e-02,7.16878e-03,-2.43428e-02,-2.31040e-01,-1.70529e-02,-5.31291e-02,5.81228e-02,2.10758e-01,-7.02111e-02,6.90605e-02,2.63109e-01,-2.05864e-01,2.03469e-01,-1.37668e-01,1.85696e-01,-3.50148e-02,1.47202e-01,6.98181e-02,-3.44235e-01,-1.38143e-01,3.60182e-02,-8.24078e-02,8.38778e-02,-2.41815e-01,7.41519e-02,3.64600e-01,2.90551e-02,2.81596e-01,7.38813e-02,-2.43248e-02,9.20628e-02,1.01631e-01,1.65578e-01,-2.82151e-01,2.44890e-01,1.61962e-01,-1.91680e-01,-3.11317e-01,1.16837e-01,-1.64300e-01,
1.85596e-01,-6.27143e-02,2.92718e-01,-1.96622e-01,1.14328e+00,-1.44121e-01,-3.25624e-01,8.41560e-02,2.04928e-01,-1.75337e-01,-1.01371e-01,5.17719e-01,3.98740e-02,-1.89013e-01,-1.75049e-01,2.69483e-03,-3.31574e-01,3.91503e-01,7.45108e-02,-1.57285e-02,-3.33571e-01,6.53668e-03,4.24315e-02,-1.62804e-01,4.54217e-03,2.00457e-01,-2.01660e-01,-1.44687e-01,-4.57838e-02,3.33030e-01,1.02466e-01,1.06857e-01,1.07741e-02,2.37818e-01,-1.33653e-02,2.42241e-01,3.77470e-01,-1.95403e-01,-8.34777e-02,1.53996e-02,2.54038e-01,1.86687e-01,-1.67551e-01,5.88999e-03,-1.13176e-01,
-1.34622e-01,-7.94619e-02,-1.11936e-01,-7.79196e-02,1.41172e-01,-1.87112e-01,2.93845e-02,-3.60404e-01,-2.74659e-01,-1.69215e-01,3.92273e-01,1.78630e-01,1.20440e-02,3.62785e-01,2.11497e-01,2.50683e-01,-1.25501e-01,-2.00401e-03,-2.39513e-01,1.57610e-01,1.49120e-01,-6.27545e-02,2.71225e-01,-5.87704e-01,4.84305e-01,3.78762e-01,2.23427e-01,3.79208e-02,-1.41506e-01,-4.12926e-01,-2.99104e-02,9.34635e-02,1.14077e-01,-4.01430e-01,-4.81549e-01,1.10694e-01,-3.65654e-01,-6.32607e-03,-2.71270e-01,-1.10538e-01,1.64908e-01,1.70600e-01,2.78043e-01,1.00764e-01,2.12316e-02,
3.92603e-01,2.60048e-01,-1.36976e-01,-3.07748e-01,-1.82215e+00,1.50226e-01,1.85060e-02,-1.87470e-01,-3.91006e-02,2.24834e-01,-1.78975e-01,1.38558e-01,2.08526e-01,1.92861e-01,5.07342e-02,-3.21749e-01,-3.05813e-02,-4.54516e-02,-4.75351e-02,-1.33300e-01,-6.44899e-02,7.46683e-02,1.70879e-01,-4.88260e-01,1.55397e-01,-3.05577e-01,2.14039e-01,-5.56510e-03,-2.44140e-01,-1.62310e-01,6.49976e-03,3.60158e-02,5.05461e-02,-3.57440e-01,3.73707e-01,-3.42471e-01,2.41011e-01,-4.87204e-02,4.45949e-02,3.11671e-01,2.32156e-01,-1.16200e-01,-5.65124e-02,2.16492e-01,-2.52442e-01,
-8.36572e-02,1.64167e-01,8.88737e-02,1.43332e-01,6.96580e-02,-1.66634e-01,-1.88465e-01,2.89118e-01,-1.29696e-01,1.27855e-01,-1.61184e-01,-4.81027e-03,4.72787e-01,-1.61412e-03,2.33097e-01,3.18656e-01,1.29340e-01,-4.45396e-01,1.81307e-02,-1.56973e-01,-3.82110e-01,3.51840e-02,-4.16167e-02,2.31445e-01,3.15544e-01,5.28669e-01,1.05432e-01,-4.21207e-01,3.64209e-02,-3.38220e-01,3.49882e-02,-2.48219e-01,-9.35293e-02,-2.51230e-01,-3.35837e-01,1.28234e-01,1.83097e-01,1.98831e-01,1.55325e-01,-1.98708e-02,-2.57209e-01,6.58017e-02,1.05263e-01,5.93829e-02,8.96889e-02,
-1.76022e-01,3.52978e-02,-2.82720e-01,2.56065e-02,8.86937e-01,2.53853e-02,-1.71337e-01,-3.64826e-01,2.66446e-01,-2.04473e-02,-1.36567e-01,-9.38610e-02,-4.73870e-01,-2.02886e-01,3.54434e-01,1.42686e-01,1.74040e-02,-2.72488e-01,-2.54942e-01,2.04185e-01,-3.06321e-01,1.20609e-03,1.50572e-01,-3.62877e-01,-3.39405e-01,4.16804e-01,2.17302e-01,6.32921e-02,-1.84191e-01,2.59660e-01,6.43021e-03,1.32298e-01,-2.50072e-01,-3.76825e-01,-2.15052e-01,4.68117e-03,5.25773e-01,-1.23883e-01,9.04134e-02,-2.33832e-01,1.42750e-01,2.18724e-01,1.76504e-01,1.46755e-01,1.90113e-01,
7.34000e-02,1.96979e-01,1.67099e-01,-1.85900e-02,-7.11526e-01,-2.77120e-01,-2.88218e-02,-1.72680e-01,4.03687e-03,2.31795e-01,2.16722e-01,5.66606e-02,-2.06229e-01,-2.28848e-01,-1.96256e-01,1.37338e-01,-1.17712e-01,1.52246e-01,2.69999e-01,2.04888e-01,2.04373e-02,1.36823e-01,3.88636e-02,1.20962e-01,-4.34258e-01,1.05608e-01,2.05586e-01,3.43787e-01,-4.19039e-01,1.96353e-01,2.44013e-02,1.13508e-01,2.23129e-02,-1.73805e-01,1.07997e-01,6.61596e-02,3.31123e-02,1.36744e-01,-5.09122e-02,-1.49414e-01,1.57947e-01,3.35497e-02,-1.38410e-01,-2.73056e-01,-2.34852e-03,
-2.24814e-02,-9.78757e-02,3.02672e-01,1.28685e-01,-1.69293e-01,-3.10562e-01,1.76108e-01,-1.50109e-01,5.52737e-02,1.54034e-01,-9.32211e-02,6.18139e-02,5.49985e-02,-1.99367e-01,-9.89364e-02,-4.43786e-01,1.19953e-01,-1.16132e-01,-2.07364e-01,-4.97328e-02,1.63996e-01,1.29091e-01,3.85899e-04,7.00860e-03,6.08857e-01,3.15242e-01,2.40079e-01,3.18836e-01,5.27347e-01,5.94879e-02,-2.16432e-01,1.38043e-01,6.27666e-02,6.25521e-02,-9.08412e-02,2.23243e-01,1.84781e-01,-3.66316e-01,8.72630e-03,-2.92892e-02,-5.38901e-02,4.35767e-02,2.16549e-01,-1.02065e-01,-3.37285e-01,
1.23423e-01,-1.46900e-01,-1.14182e-01,1.56794e-01,7.87995e-01,-9.61010e-02,1.20024e-01,2.10136e-01,-4.45709e-02,-2.57667e-02,1.41357e-01,1.94814e-01,-4.45689e-01,1.56851e-01,-5.98811e-03,1.75160e-02,-1.86943e-01,1.02021e-01,1.66083e-01,1.45933e-01,-2.01578e-01,3.63188e-02,9.61697e-02,8.89716e-03,-1.20854e-01,1.59905e-01,2.28763e-01,1.60952e-01,-1.61073e-01,7.63427e-02,2.90042e-01,-8.95464e-02,2.72798e-01,3.17056e-02,1.06176e-01,4.17962e-01,2.30917e-01,1.48712e-01,5.90322e-03,-5.98430e-02,-1.33777e-01,8.93423e-03,1.33051e-01,-1.81074e-01,-4.50525e-02,
2.01487e-01,-1.57404e-01,2.22569e-01,7.36635e-02,-5.66274e-01,-1.00985e-01,5.28111e-01,-1.55628e-01,-3.58610e-02,1.91240e-01,-2.64632e-02,7.72098e-02,-1.19651e-01,-1.67650e-02,-1.49865e-01,9.73219e-02,-8.51703e-02,1.29546e-01,6.91659e-02,-2.89229e-02,-2.67888e-01,-2.87252e-01,-4.38100e-02,1.25053e-01,-3.05809e-01,-9.30607e-02,6.35518e-03,5.64058e-02,-1.57532e-01,1.48619e-01,-1.70010e-01,2.09446e-03,-7.63061e-02,2.55404e-01,6.01622e-01,-2.51266e-01,4.92195e-02,2.98506e-01,1.95528e-01,2.54422e-01,-1.33348e-01,-2.58387e-01,5.96755e-02,-1.24528e-01,2.26965e-01,
7.48374e-02,4.03244e-01,-3.45868e-01,-3.04706e-01,-4.18962e-01,2.69827e-01,-6.68333e-02,-5.59350e-02,1.10109e-01,1.03651e-01,-6.08862e-01,1.62181e-01,4.01662e-01,-3.71657e-01,-2.76711e-01,-1.31912e-01,3.82513e-01,2.01423e-01,-1.96126e-01,-1.69999e-01,2.40144e-02,-2.37682e-01,-1.11613e-02,-2.47045e-01,2.15726e-01,-1.17353e-01,1.54028e-01,7.61286e-02,-4.52462e-01,-5.38278e-01,-8.72744e-02,-7.07135e-04,3.22712e-01,-6.91412e-02,7.55764e-01,1.22831e-01,2.05377e-01,3.08343e-01,2.09771e-02,1.03176e-01,2.49913e-01,-1.11183e-01,5.61298e-02,7.06363e-02,-3.50523e-01,
7.83060e-03,-4.49291e-02,-1.03976e-01,-1.99987e-01,2.86357e-01,-1.40807e-01,-1.60333e-01,-2.25639e-01,2.33257e-01,8.93334e-02,9.27849e-02,-3.33268e-02,-2.85647e-01,-3.56049e-01,1.07641e-01,-1.97057e-01,-2.25651e-01,2.65752e-01,2.36101e-01,2.08049e-01,2.14545e-01,2.89341e-01,2.17590e-01,-2.84795e-01,-8.46750e-02,-1.40513e-01,-2.62118e-02,-7.59298e-02,4.13272e-01,5.88380e-01,7.46306e-02,1.74512e-01,3.06752e-01,5.05154e-02,-3.55735e-01,-2.90390e-02,1.65210e-01,-4.20408e-01,-4.16461e-01,2.94272e-03,-9.55141e-02,-1.24752e-01,1.82899e-01,1.45108e-01,-4.85989e-02,
9.32067e-02,9.73886e-02,5.14314e-02,-1.16016e-01,7.32624e-01,1.80924e-01,-2.19002e-01,1.48199e-01,3.17514e-01,-5.75509e-02,1.26969e-01,2.34420e-01,-2.39395e-02,1.38621e-01,-1.09803e-01,-4.80002e-01,5.38895e-02,-1.50418e-01,-1.74618e-01,-1.64326e-01,3.34733e-01,1.99924e-01,2.08757e-01,2.81878e-01,-1.27432e-01,-2.41448e-01,6.20288e-02,3.22145e-02,-1.58788e-03,-4.17124e-01,-3.53156e-02,-2.55772e-01,-1.76090e-01,1.32548e-01,-6.89474e-02,-3.92316e-01,7.25684e-03,3.12820e-01,-3.10300e-01,-9.29441e-02,2.74798e-02,-1.43164e-01,-1.89061e-02,9.77224e-02,-9.99071e-02,
1.76116e-01,4.50416e-02,1.70064e-01,-2.58384e-02,-2.34154e-02,7.78789e-03,-1.60127e-01,4.02187e-02,5.97431e-02,1.41330e-01,-3.15594e-01,-1.18946e-02,-2.60678e-01,-1.64818e-01,9.48354e-02,1.36825e-01,1.83938e-01,1.71617e-01,1.85061e-01,-3.42264e-02,-5.84670e-02,2.70461e-02,2.81561e-02,-2.11513e-01,1.88127e-01,-5.25968e-02,6.41044e-02,3.97282e-02,6.47080e-01,4.90144e-01,-1.77398e-01,5.62177e-02,-1.06987e-03,4.99554e-02,-3.82642e-01,-3.32036e-01,-4.16290e-02,6.30212e-02,1.07808e-01,-9.42251e-02,1.07218e-01,2.28992e-01,1.12045e-01,7.03826e-03,-1.23579e-01,
2.22919e-01,1.86730e-01,-2.94506e-02,8.59331e-02,5.92821e-01,8.72142e-02,-3.00706e-01,2.22235e-01,1.59187e-01,-1.81192e-01,-3.33511e-01,9.74990e-02,1.21360e-01,1.59434e-01,-7.00377e-02,1.51247e-01,8.83757e-02,3.34716e-02,-1.55625e-01,3.78338e-02,-3.12598e-01,5.15328e-02,1.65447e-01,-1.64280e-01,5.94365e-01,3.08887e-02,9.37631e-02,-1.98343e-01,2.76765e-01,-4.02749e-02,5.56743e-02,7.31187e-02,7.00430e-02,4.78126e-02,5.28698e-02,-1.48777e-01,-3.06700e-02,-2.17328e-01,-1.10197e-01,7.47768e-02,1.25538e-01,2.87074e-01,-1.19772e-02,-2.94471e-02,-4.68855e-01,
-5.73185e-02,
8.82411e-03,
-1.50497e-02,
6.66190e-02,
-4.77995e-03,
2.43421e-02,
-1.36948e-02,
1.04477e-02,
-2.24422e-02,
-2.78092e-02,
-2.97158e-02,
-6.13431e-03,
3.49045e-02,
-9.67406e-02,
2.02409e-02,
8.99344e-03,
4.70647e-02,
3.96506e-02,
-1.02986e-02,
4.21791e-02,
2.25714e-02,
1.77137e-03,
2.00398e-02,
3.64980e-02,
1.56949e-02,
3.70656e-03,
-1.07771e-02,
2.84969e-03,
1.04234e-02,
-1.96412e-02,
-6.08041e-03,
2.57519e-02,
-5.88315e-02,
6.23424e-02,
-1.45248e-01,
2.78452e-02,
-1.63039e-03,
3.20702e-02,
-1.84549e-02,
2.79044e-02,
-3.59669e-04,
6.57853e-02,
8.14914e-02,
8.46350e-03,
-5.86066e-03,
-3.41954e-02,3.29202e-02,-2.15052e-01,3.43002e-02,-4.09497e-02,6.76769e-02,7.02708e-02,9.55990e-02,5.02234e-02,9.68319e-02,2.41091e-01,2.40590e-01,5.65463e-02,5.66099e-01,-4.22597e-02,-4.16963e-02,-1.42622e-01,6.52628e-04,9.30395e-02,1.53397e-01,-1.23035e-01,-1.94547e-01,1.36191e-01,1.53980e-01,-1.38180e-01,-8.75017e-02,1.46943e-01,-6.95009e-02,3.51465e-02,-9.00263e-02,1.00951e-01,4.53720e-02,3.19282e-02,-5.11877e-03,1.08610e-01,-3.37500e-01,-9.85058e-02,-6.98189e-02,2.59469e-01,1.18653e-01,1.27238e-01,-1.78776e-01,8.44301e-02,1.80050e-01,1.80300e-01,
-3.67393e-01,-1.36170e-01,7.35020e-02,1.62022e-01,1.77035e-02,2.94334e-01,1.70174e-01,5.22020e-02,-4.54460e-02,7.41062e-02,8.68912e-02,-1.25558e-01,-7.92284e-02,-2.26259e-01,2.08471e-02,1.69656e-01,-1.10710e-01,-3.76610e-02,4.78265e-02,1.41976e-01,-5.40603e-02,2.88427e-01,-1.37590e-01,9.15628e-02,4.36265e-03,-2.23872e-01,1.49093e-01,9.48555e-02,9.55616e-02,-7.47055e-02,-1.39604e-01,2.96175e-01,2.64407e-01,-1.38478e-01,-6.18751e-02,-5.06639e-02,2.31782e-01,5.89439e-02,1.45749e-01,2.47099e-01,2.16559e-01,-1.12932e-01,3.54271e-02,1.06636e-01,-3.80792e-02,
-1.34411e-01,2.02324e-01,1.58110e-01,-8.36525e-02,2.12908e-01,1.91319e-01,-1.72727e-01,4.39828e-02,2.08525e-01,-1.26172e-01,-7.52565e-02,-9.89270e-02,1.48462e-01,-3.02396e-01,-1.92091e-01,-6.77638e-02,7.48772e-03,2.66772e-01,7.66183e-02,1.56375e-01,1.34086e-01,4.49731e-02,-1.56397e-01,-2.31797e-02,-2.10585e-01,-1.77802e-02,2.39730e-01,-5.98833e-01,-1.13355e-01,-1.89453e-01,3.54990e-01,-1.58241e-01,-3.15369e-01,2.59538e-01,-3.32853e-02,-1.20474e-02,-2.52640e-01,-1.50051e-01,-1.08424e-01,-3.94961e-02,3.19416e-01,1.54232e-01,1.79736e-01,-4.13576e-02,2.68654e-02,
-8.72782e-02,3.70007e-02,-6.60813e-02,-6.92212e-03,-1.41070e-01,2.48856e-01,1.04508e-02,2.86821e-01,4.41369e-02,1.01647e-01,-3.06711e-01,-1.38304e-01,-7.17456e-02,-4.38316e-01,-1.52623e-01,-2.98483e-02,-1.09569e-02,2.24295e-02,-1.40826e-01,1.75603e-01,-2.55437e-01,9.18980e-02,-1.92291e-02,2.59872e-01,4.28647e-02,-2.39071e-02,5.58142e-02,2.81639e-01,-4.04087e-02,-1.42146e-01,2.98565e-02,-1.64626e-01,4.77095e-01,-1.05088e-01,3.59193e-01,1.70286e-01,-1.84974e-01,9.05471e-02,7.69281e-02,-9.84238e-02,-3.21294e-01,-1.66719e-01,2.23195e-02,1.88866e-01,-1.00269e-01,
2.86659e-02,-1.30824e-01,-1.88406e-01,1.60724e-01,-4.26566e-01,1.83321e-01,3.91522e-02,-2.51227e-02,1.52914e-01,2.66479e-01,1.67957e-01,-7.27709e-02,2.69997e-01,-1.95363e-01,4.00674e-01,2.14627e-01,-5.68347e-01,2.00486e-01,5.60953e-02,4.76405e-02,-8.34091e-02,8.89636e-02,-1.21183e-01,-1.25095e-01,-1.39565e-01,-1.65008e-01,-5.92493e-02,-5.43193e-02,2.91079e-02,-2.64556e-01,2.05244e-01,1.10361e-01,3.18269e-01,3.10468e-01,5.08064e-01,9.49966e-03,1.16705e-01,-1.05350e-01,-7.01434e-02,-2.10292e-01,-1.40090e-01,3.65847e-02,8.59497e-03,-8.14512e-02,3.02764e-02,
-1.86079e-01,1.52326e-01,-2.62609e-01,-1.37291e-01,1.68768e-01,8.95868e-02,-2.14194e-01,-2.21246e-02,3.03635e-01,-4.76877e-02,3.98440e-02,-1.32920e-01,2.30064e-01,-5.36354e-02,-1.64846e-01,2.65959e-01,-2.52162e-01,1.14318e-01,2.27103e-01,1.83361e-01,2.88532e-01,1.88669e-01,1.64375e-01,4.56143e-03,1.16458e-01,-1.02810e-01,2.46010e-01,-5.57140e-03,-2.27847e-01,1.36774e-01,1.42413e-01,2.15082e-01,-2.44246e-02,-8.57206e-02,5.86860e-01,2.05782e-01,-2.28409e-01,2.43249e-01,2.04739e-01,3.23190e-03,7.83838e-02,1.89111e-01,-1.94896e-01,-2.32201e-01,-1.32854e-01,
-1.55055e-01,-1.70985e-01,-4.90713e-02,2.51116e-01,2.68055e-01,2.52661e-01,2.17239e-01,4.79449e-03,-6.11633e-02,2.30934e-01,-3.04779e-02,-6.96299e-02,1.81894e-01,1.39038e-01,4.19716e-01,-1.37504e-01,-5.53711e-01,-3.66005e-02,-5.43213e-01,1.07479e-01,-2.33165e-01,-1.07144e-01,-4.38868e-01,-8.39363e-02,1.75497e-01,-1.52072e-01,-2.32957e-02,-1.30311e-01,-4.72285e-01,1.78485e-01,-1.13653e-01,3.27058e-01,-1.93377e-01,-1.01507e-01,3.22204e-01,2.45487e-01,-1.62251e-01,2.26847e-02,-3.84128e-02,-3.36843e-01,7.12292e-02,3.71446e-01,6.22895e-02,1.73513e-01,1.57990e-01,
2.92892e-02,-2.39281e-01,5.86904e-02,-2.32043e-02,-4.94049e-01,1.71818e-01,-1.87845e-01,1.60951e-01,-6.68110e-02,-1.48766e-01,1.45486e-01,-1.99530e-02,-1.62601e-01,8.04662e-01,2.44627e-01,9.54844e-02,-3.54366e-01,-6.14720e-02,-2.91559e-01,1.02625e-01,-2.39129e-01,2.64716e-01,-5.31151e-02,1.10014e-01,1.46543e-01,-1.21388e-01,3.84580e-03,1.89570e-01,8.15868e-02,-1.91939e-01,-9.53342e-02,1.98640e-01,-2.47023e-01,-2.58423e-01,-6.80237e-02,-4.97940e-01,3.82896e-02,-4.09852e-02,7.91561e-02,4.77096e-02,-8.49404e-02,1.68439e-01,-9.45059e-03,5.25438e-02,1.84257e-01,
-4.40219e-01,-1.12394e-01,2.19657e-03,2.40821e-01,-7.26020e-01,-2.72898e-01,2.68714e-01,1.46435e-01,4.58721e-02,3.81843e-02,-3.46093e-01,2.06094e-01,3.20719e-01,-9.36024e-01,3.68851e-01,-2.95490e-01,-6.06282e-02,-2.47356e-02,-4.05768e-01,-2.67597e-01,-2.45618e-02,-1.77421e-01,3.35759e-01,-1.57870e-01,7.55548e-02,1.86452e-01,8.66095e-02,2.03243e-01,-1.73314e-01,-4.44059e-01,2.84660e-01,2.75745e-01,-1.07838e-01,1.16135e-01,4.34941e-01,7.51390e-02,2.60444e-01,-1.96360e-01,2.78576e-02,3.13519e-01,-5.66054e-02,-6.73665e-02,-2.80146e-01,-8.57194e-02,-5.74556e-02,
-4.33067e-01,-1.92597e-01,3.21795e-01,5.97224e-02,1.73440e-01,-4.90390e-01,-1.50882e-01,-2.24742e-01,2.27479e-01,7.71554e-02,-1.62526e-01,-2.05462e-01,-1.51705e-01,2.30023e-01,2.60228e-01,-6.35268e-02,3.97405e-01,3.24477e-02,-1.31854e-01,-2.56562e-01,5.37841e-02,4.55969e-01,2.35870e-01,2.63031e-01,1.63747e-01,8.46617e-02,-1.61748e-01,-2.32188e-01,-2.23266e-01,-4.49195e-01,2.00281e-01,1.91315e-01,1.52817e-01,1.99532e-01,-4.42398e-02,-1.06011e-01,2.45523e-01,-1.82573e-01,-6.68727e-04,-9.30445e-02,-1.35619e-01,-2.80681e-01,2.20564e-02,-2.54382e-01,7.34631e-02,
3.12407e-02,-2.22954e-01,1.07898e-02,2.15819e-01,3.99302e-02,1.55267e-01,2.44147e-01,4.27815e-01,3.94891e-02,3.79476e-02,8.35098e-02,2.24697e-01,3.61328e-01,2.66834e-02,3.61422e-01,-2.83383e-01,-5.36270e-01,8.72426e-02,-5.04536e-01,2.60264e-02,-1.75640e-01,-9.00692e-02,-7.98388e-02,2.14635e-01,-1.74467e-01,-1.42919e-02,3.51335e-02,-2.09844e-02,-9.25433e-02,-1.30138e-01,2.06378e-01,9.13702e-02,-5.89199e-01,-3.21619e-02,3.10499e-02,-8.99967e-02,-1.08823e-01,-6.88934e-02,5.31715e-02,3.52902e-02,9.46223e-02,1.87334e-01,-4.21938e-01,4.43481e-02,2.84165e-01,
2.13646e-03,1.35932e-01,-5.70582e-01,2.70326e-01,-1.30086e-01,4.12771e-02,-1.94015e-01,-5.75647e-02,9.64870e-02,-5.01243e-02,2.07598e-01,1.46526e-01,2.56472e-01,-4.88099e-01,1.12055e-01,2.22257e-02,7.83108e-02,-2.25695e-01,-9.87663e-03,-5.73018e-02,8.85155e-02,6.44527e-02,1.56122e-01,1.05030e-01,1.31452e-01,-1.96063e-01,3.32198e-01,1.63612e-01,-6.65935e-02,2.64413e-01,5.70531e-02,4.54073e-02,-2.83637e-02,2.30470e-02,1.06193e+00,9.41428e-02,1.51963e-01,-3.50817e-01,-6.59800e-02,1.75185e-01,-1.48690e-01,4.65561e-02,3.13887e-01,-2.36269e-01,-1.45379e-01,
-3.19671e-02,4.64841e-02,1.90174e-02,-2.13742e-01,5.86139e-01,4.12573e-01,1.57212e-01,2.08361e-01,-2.14287e-01,4.23425e-03,2.00657e-02,-3.58616e-03,1.58469e-01,5.49936e-01,9.74658e-02,-1.84563e-01,-3.20182e-01,1.41468e-01,3.75872e-01,4.18084e-02,4.72835e-02,7.65205e-02,1.09903e-01,-1.21995e-01,9.20015e-02,-1.37183e-01,-1.44161e-03,-2.52050e-01,3.02353e-01,2.96700e-01,-1.27112e-01,1.76851e-01,-8.24181e-02,-3.67992e-01,-3.35370e-01,4.09493e-02,-1.07816e-01,3.73727e-01,-1.94459e-01,6.59937e-02,-1.08648e-01,-9.55444e-02,-1.74804e-01,1.69750e-01,6.51017e-02,
-1.58646e-02,-2.40614e-01,3.64066e-03,8.12677e-03,4.10562e-03,-5.53776e-02,-1.68819e-01,3.80800e-02,2.01799e-01,-1.07933e-02,2.03465e-02,1.26067e-01,3.75753e-01,-2.13898e-01,-4.75921e-01,-7.47782e-01,3.02675e-02,-3.41843e-01,-2.15136e-01,-1.15327e-01,2.15548e-01,1.15012e-01,-8.40798e-02,1.60527e-01,-2.56504e-01,-1.05519e-01,-9.17126e-02,3.82476e-01,-5.22890e-02,1.49775e-01,1.54573e-01,-9.14835e-02,-6.70846e-01,-2.23069e-01,2.99103e-02,1.23976e-01,-4.07889e-02,8.21701e-03,-1.25704e-01,-4.93847e-02,2.77760e-01,-2.46741e-02,8.30017e-02,2.94283e-01,1.45036e-01,
-1.38490e-01,-9.05166e-02,4.22895e-01,1.40809e-01,-5.28923e-02,1.12960e-01,2.09432e-01,-1.35323e-01,3.44301e-01,8.78375e-02,-6.01440e-02,1.55718e-02,1.40751e-01,3.00190e-01,-1.17092e-01,-1.63277e-01,-1.48517e-01,4.03752e-01,2.98305e-02,-2.86330e-01,-1.84225e-01,3.99773e-01,-3.10525e-01,-1.39046e-01,-1.79100e-01,-2.52399e-01,1.01702e-01,-6.39836e-01,2.31226e-01,1.25518e-01,2.97717e-01,1.09281e-02,3.50540e-02,-1.84303e-01,1.02890e-01,-2.68534e-01,1.67218e-01,-1.28075e-01,3.51548e-01,-2.92374e-02,1.19883e-01,-1.81727e-01,-4.22148e-01,-4.40793e-02,8.39941e-02,
1.10037e-01,-5.64573e-02,-4.31419e-03,1.60589e-01,2.91039e-01,6.45700e-02,-1.97491e-02,-2.10895e-01,-1.38162e-01,-7.84108e-02,1.35582e-01,2.13470e-01,1.39413e-02,-3.25020e-02,4.02356e-03,4.32751e-01,2.20632e-01,4.65608e-02,3.49014e-01,1.42963e-01,-4.89456e-02,2.53696e-01,-2.48476e-01,-2.79015e-01,-7.05263e-03,-1.88596e-01,1.33931e-01,-4.85967e-01,1.15568e-01,3.69392e-01,-3.64733e-02,-2.07005e-01,-2.17499e-01,-3.28618e-01,1.15291e-01,-1.72951e-01,-1.54753e-01,1.10311e-01,-7.66885e-02,-1.00803e-01,1.95589e-02,1.99341e-01,1.25841e-01,2.65238e-01,-3.80591e-02,
-3.57102e-01,6.66219e-02,-2.38451e-01,2.34797e-01,-4.06575e-01,-3.52513e-01,1.33241e-01,3.34286e-01,1.57459e-02,-5.65606e-02,6.08385e-01,2.05153e-01,6.43696e-02,1.26635e-01,2.24400e-01,7.48729e-02,-1.61168e-01,-6.18320e-02,-5.17399e-01,-8.77362e-02,-1.80448e-01,-1.47212e-03,-6.31520e-03,4.00277e-02,7.88687e-02,2.52228e-01,-1.46129e-01,-8.51538e-02,-1.42170e-01,-1.36974e-01,1.42320e-01,-3.62030e-02,8.42945e-02,-1.89718e-01,2.11002e-01,-3.30391e-01,1.75105e-01,2.74087e-01,2.39882e-01,2.97505e-01,-8.03890e-03,1.30718e-01,-1.25470e-01,1.14832e-01,-2.62476e-01,
2.57437e-01,-1.30803e-01,3.31995e-02,-1.87424e-01,5.09060e-01,-1.59539e-01,1.78361e-01,5.29082e-02,-1.63981e-01,-6.54757e-02,2.38093e-01,-1.67439e-01,7.64093e-04,-9.23540e-02,-1.44008e-01,-1.58509e-01,-3.40295e-02,-8.35905e-03,1.78524e-01,-2.97020e-02,2.08131e-01,-1.80315e-01,1.40283e-01,-9.02865e-02,3.02785e-01,-1.90967e-01,-1.85768e-01,5.58016e-02,1.97833e-01,1.62468e-01,2.72323e-01,5.50324e-02,2.89689e-01,-1.39554e-01,-2.32728e-01,2.04508e-01,3.30446e-02,1.36752e-01,-9.98176e-02,8.67988e-02,-3.29888e-01,-3.78081e-01,-4.20883e-02,1.09009e-01,1.22575e-01,
-3.82454e-02,-2.23154e-02,-4.57068e-02,-3.71502e-02,1.19516e-01,-1.13233e-01,-2.43904e-01,-1.79658e-02,8.09008e-02,3.09105e-02,-3.39700e-03,5.77468e-02,2.06198e-01,5.45581e-01,-1.92535e-01,-1.51366e-02,-1.39552e-01,-2.32617e-02,7.84982e-02,8.50984e-02,1.70362e-01,1.13849e-01,2.39388e-03,-7.83992e-02,1.62326e-01,2.65840e-01,6.12009e-02,-2.45806e-01,1.71645e-01,1.47996e-01,-4.32926e-02,3.71240e-01,6.26858e-02,-1.73399e-01,-2.30753e-01,-8.34004e-02,2.94645e-02,1.42652e-01,-1.64662e-01,-6.24278e-02,-1.86807e-01,3.00359e-02,8.32802e-02,-1.73702e-01,9.74498e-02,
4.26054e-02,-3.85176e-02,2.26803e-01,1.18356e-02,-2.08476e-01,-1.47523e-01,-1.34230e-02,2.26597e-01,-9.59256e-02,5.17427e-02,7.50014e-02,2.19963e-01,-1.91972e-01,-4.09320e-02,-2.90708e-01,1.00375e-01,3.63048e-01,2.08462e-01,-4.44037e-02,3.85172e-02,1.05353e-01,3.60190e-02,-1.32779e-01,8.80165e-02,1.56503e-01,-6.14743e-02,1.64480e-01,5.13336e-02,2.92998e-01,-4.33743e-01,2.62547e-02,1.19184e-01,2.61520e-01,6.99717e-02,6.10825e-03,3.47262e-02,-1.33813e-01,-1.81421e-01,-7.64864e-02,-2.34766e-01,9.40541e-03,-1.79591e-01,8.74152e-03,1.65381e-01,1.58324e-01,
-3.95162e-01,-4.93137e-03,-1.36008e-01,9.82189e-02,7.78492e-02,-3.03415e-01,1.09161e-02,-1.15876e-01,-9.00292e-03,-3.95776e-02,-3.65053e-02,-1.73254e-02,-7.34214e-02,-2.25914e-01,-9.25029e-02,-8.58028e-04,4.72580e-01,-1.84136e-02,9.07795e-02,-2.17466e-01,-1.33985e-01,-2.92809e-01,4.43047e-01,2.98912e-01,-9.54950e-02,-1.68520e-01,2.29621e-01,-3.05799e-01,-4.47537e-01,-2.16167e-01,-9.13500e-02,-1.42255e-01,2.46666e-01,5.20088e-02,-3.64913e-01,1.17188e-01,2.07020e-01,-2.36133e-01,5.55725e-02,-1.82449e-02,2.60700e-02,-1.58875e-01,2.83960e-01,1.91674e-01,1.28814e-01,
-1.14219e-01,1.81717e-01,-2.68062e-01,-1.70582e-01,4.61545e-01,2.18186e-01,-1.53315e-01,-6.25852e-03,-1.08233e-01,1.76786e-01,-1.96375e-01,-2.22862e-01,1.01308e-01,4.66301e-02,-2.22372e-01,-4.46237e-01,-3.01023e-02,1.26915e-01,2.21602e-01,1.44288e-01,-4.32661e-02,3.58802e-02,-1.15456e-03,-2.52233e-01,1.38233e-01,8.18567e-02,5.68950e-02,-8.83776e-02,9.45412e-02,3.58833e-02,-6.61870e-02,-1.56641e-01,-8.54267e-02,-2.03355e-01,-3.15928e-01,-8.23178e-02,5.29545e-02,3.19682e-01,-1.51553e-01,-1.11803e-02,2.51734e-01,5.22349e-02,-3.84061e-01,5.71453e-02,1.17552e-01,
-9.46721e-01,1.13228e-02,8.60760e-02,1.32068e-01,-1.10035e-01,-3.33715e-01,1.27484e-01,-3.33887e-01,2.67449e-01,6.82316e-03,-1.60555e-01,-8.81972e-02,-3.81415e-01,-1.32383e-01,-2.21292e-01,-1.01766e-01,4.29169e-02,3.00983e-01,2.78782e-02,-2.12327e-01,1.14603e-01,-2.22255e-01,-1.66798e-01,2.33698e-01,-2.73650e-01,9.46278e-02,1.84650e-01,3.97417e-01,-4.23566e-02,-6.96013e-01,6.03462e-02,1.43585e-01,-2.81605e-01,1.16527e-01,-5.62331e-01,2.60998e-01,-1.85359e-01,-3.90420e-01,-2.57048e-01,-1.41878e-01,2.79410e-01,-7.93604e-01,-1.69098e-01,-1.80898e-01,1.69595e-01,
-2.50678e-01,3.89669e-03,-1.83150e-01,-9.52403e-02,2.58323e-01,4.14192e-01,1.42079e-01,4.99999e-02,-7.07720e-02,1.84574e-01,2.98452e-01,-1.25664e-01,1.18818e-01,8.18312e-01,-1.87309e-01,3.79010e-01,-2.16601e-01,-6.01625e-03,1.89581e-01,-1.14280e-01,-9.90644e-02,1.13678e-01,-4.41293e-02,-8.96711e-02,-2.66441e-01,1.86157e-01,-7.51466e-02,-1.79614e-01,2.29079e-01,2.18939e-01,-1.80808e-01,6.02655e-03,-4.24116e-01,-1.46359e-01,-9.52038e-02,2.09005e-01,3.52371e-02,-4.46080e-02,-1.03903e-01,3.89066e-02,1.32612e-01,2.67128e-01,3.05743e-02,1.28290e-01,-6.63167e-03,
-6.72228e-02,-1.87226e-02,-1.41875e-01,2.20013e-01,-1.58235e-01,-9.36640e-02,-1.39243e-01,-3.41687e-02,6.89061e-03,1.28524e-01,9.78126e-02,2.16675e-01,-2.50533e-01,4.15258e-01,3.27438e-02,-1.47323e-01,8.20644e-02,7.43917e-02,6.15412e-02,1.04297e-01,-1.72262e-01,-1.16510e-01,1.34751e-01,-1.07502e-01,-2.18459e-01,-2.07461e-01,-1.20356e-01,1.32868e-01,-7.52730e-02,9.43119e-02,6.57102e-02,-1.22787e-01,2.59490e-01,-2.05939e-01,1.07786e-01,-2.36250e-01,-1.22435e-01,-1.36109e-01,-2.50882e-01,1.72232e-01,-1.67397e-01,-5.66862e-02,-1.33155e-01,-1.93338e-01,8.96973e-02,
-1.84941e-02,-9.80931e-02,5.15849e-02,9.79359e-02,4.58873e-01,9.95761e-04,1.37640e-01,1.80970e-01,9.62564e-03,1.01045e-01,1.03373e-01,-2.43493e-01,2.54926e-01,4.63726e-03,5.63331e-02,-6.19076e-01,-1.74210e-03,9.22179e-02,-3.30140e-01,-4.77118e-02,8.88481e-02,-1.92926e-01,-2.86732e-01,1.80113e-01,-4.19838e-02,-1.36534e-01,-1.19557e-01,-6.50297e-02,-1.57044e-01,-2.31644e-01,-1.36092e-01,2.51351e-01,-4.37835e-01,-1.24562e-01,-3.51944e-01,1.19378e-01,1.23371e-01,3.02608e-01,-1.95509e-01,-3.79377e-01,2.07964e-01,1.00588e-01,-3.56083e-01,2.66979e-01,9.17186e-02,
1.71155e-01,-2.09078e-01,-2.71761e-01,4.01379e-03,-9.97429e-02,1.74215e-02,-2.41279e-01,-1.00136e-01,1.99708e-01,4.26125e-01,1.21013e-01,-2.22225e-01,-1.47526e-01,-9.99061e-02,6.38820e-02,3.18016e-01,-3.38679e-01,3.40922e-01,1.61574e-01,1.97451e-02,-3.19325e-01,8.71367e-02,3.31047e-01,-1.93045e-02,2.34778e-01,-8.70879e-03,2.47008e-01,5.78861e-01,-8.05741e-02,2.82430e-01,-1.09443e-01,1.99772e-01,5.02414e-01,-2.18745e-01,-5.05673e-01,1.53695e-01,2.06921e-01,-3.61003e-01,1.43901e-01,-2.21211e-02,-5.08573e-01,1.78367e-01,3.82441e-01,-2.54557e-01,-1.65621e-01,
-2.35895e-01,1.61855e-01,3.11181e-02,-6.13163e-02,2.86998e-01,-9.27290e-02,-1.99469e-01,-1.28705e-01,-1.35578e-01,1.11033e-01,-2.11275e-01,1.07415e-02,8.03640e-03,2.86243e-01,-4.08589e-01,-7.04778e-01,3.83155e-01,1.46154e-01,1.54773e-01,-6.32845e-02,-5.98467e-02,1.84509e-01,3.28190e-01,-1.08558e-01,2.30620e-02,1.70233e-01,-2.60680e-01,3.50105e-01,9.37612e-02,1.11885e-01,-3.18753e-01,5.55275e-02,-3.34570e-02,-1.03728e-01,-4.81574e-02,-1.13389e-01,-2.48008e-01,1.32982e-03,1.40067e-01,2.05410e-01,1.40662e-01,-2.59742e-01,-3.16866e-02,1.95530e-01,2.16441e-01,
-1.49762e-01,-2.03786e-01,-1.12008e-01,-1.83229e-01,-4.03312e-01,2.27331e-01,-1.93576e-01,2.18689e-01,1.64418e-01,-1.32335e-01,-3.54074e-01,1.92872e-01,-5.95170e-03,5.06676e-01,4.03595e-01,3.13376e-01,-2.04996e-01,1.64025e-01,1.13305e-02,1.74036e-01,1.53904e-01,-1.03162e-01,7.38101e-02,1.47186e-01,2.30407e-03,3.13701e-02,1.31867e-01,-2.29195e-01,1.56653e-01,8.42561e-02,1.69774e-01,1.48249e-01,3.33157e-02,-1.47527e-01,5.04426e-02,2.12523e-01,-2.26494e-01,5.52156e-02,2.49510e-01,-2.20167e-01,1.09035e-01,-3.50687e-02,2.58809e-01,2.43872e-01,-9.69254e-02,
1.72783e-01,1.87416e-01,1.14657e-01,-1.66558e-01,1.59681e-01,-1.91893e-01,-1.51136e-01,-2.58016e-01,-1.30285e-02,2.71634e-01,1.19708e-01,-2.39144e-01,-2.09783e-01,1.01517e-01,6.92306e-02,6.19438e-02,1.51951e-01,2.56127e-01,9.60676e-02,-2.38506e-01,-2.88983e-01,6.40363e-02,2.05599e-03,-1.41025e-01,9.54196e-02,-2.26177e-01,-1.15857e-01,1.69712e-01,-1.47948e-01,1.70687e-01,4.07038e-02,1.20533e-02,-2.45028e-01,-1.90580e-01,9.22957e-02,-3.33561e-01,9.82632e-03,-2.71429e-01,5.62013e-02,2.57788e-01,-1.73463e-01,2.54400e-01,1.52923e-02,-2.85964e-01,-1.84721e-01,
-3.96318e-01,1.97677e-02,5.63827e-03,2.41918e-01,8.13256e-02,-6.11067e-02,8.80268e-03,1.36226e-01,-1.68978e-01,1.90492e-01,1.71795e-01,-1.42519e-01,-1.13603e-02,-4.82681e-02,1.65089e-01,-3.94216e-02,-7.50414e-03,-4.12986e-01,2.98051e-02,-2.17946e-01,7.13722e-02,3.32587e-01,2.48819e-01,4.41030e-02,2.85633e-01,-1.04840e-01,-1.29577e-01,4.94070e-01,-3.22683e-04,2.87545e-01,-2.84916e-01,-1.02856e-01,2.07741e-01,-3.75249e-01,-6.48778e-01,8.40644e-02,-1.45148e-01,-1.03505e-01,2.18259e-01,2.22912e-01,-3.36259e-01,1.47215e-01,-2.06654e-01,-5.19220e-02,-2.97726e-01,
7.37832e-02,-1.38295e-01,1.12180e-01,2.24370e-01,1.21584e-01,1.30542e-01,-2.17232e-01,8.87641e-02,4.41983e-02,-9.03601e-02,-1.38063e-01,-1.72891e-01,2.34141e-01,-1.31810e-01,1.34983e-01,-2.05441e-01,-1.77038e-01,1.86813e-03,8.62408e-02,-1.00060e-01,-1.32125e-01,1.81813e-01,1.37921e-01,-2.01570e-01,-7.93583e-02,7.44647e-02,2.41900e-01,-2.71407e-01,1.61098e-01,-2.58075e-02,1.55935e-01,1.20485e-01,2.17790e-01,-8.66539e-02,4.80033e-02,-2.04635e-01,-1.22306e-01,-1.88269e-01,9.24915e-02,2.71630e-01,-2.73047e-03,-1.18541e-01,1.78893e-03,6.63741e-02,1.39873e-01,
-2.10918e-01,-3.40377e-01,-1.12620e-01,1.31372e-02,8.95420e-02,1.14379e-01,-2.40674e-01,3.23158e-03,1.27266e-01,2.14802e-01,2.14380e-01,2.48073e-01,1.18307e-01,9.25519e-01,-2.66977e-02,2.00084e-01,-6.95939e-01,1.46729e-01,-1.63124e-01,-3.13824e-01,2.86312e-01,2.75576e-01,1.57475e-01,8.54201e-02,-7.39754e-02,3.80475e-02,1.32114e-01,1.80079e-01,-1.11550e-01,4.48575e-01,1.09617e-01,1.16119e-01,1.16402e-01,-2.08929e-01,9.07311e-01,2.72149e-01,2.23001e-01,-1.58862e-01,1.78732e-02,-4.12668e-02,-1.54206e-01,1.15281e-01,1.40111e-01,-1.37180e-01,-3.51895e-01,
