// Neural Network File Format by Kyle Julian, Stanford 2016
7,4,9,45,
4,45,45,45,45,45,45,9,
0,
-8000.0,-100.0,-100.0,0.0,
8000.0,100.0,100.0,40.0,
0.0,0.0,0.0,20.0,-0.4325993796315559,
16000.0,200.0,200.0,40.0,3.102300000999995,
2.11237e-02,-5.53177e-01,-6.83895e-05,2.08876e-03,
9.37339e-01,4.73207e-02,-2.11166e-01,-3.57108e-01,
-8.77990e-01,-2.98936e-02,-8.97998e-02,6.16161e-02,
5.74312e-01,-2.56050e-01,2.54120e-03,-2.44970e-01,
5.09967e-01,3.92934e-01,-3.83552e-01,3.67007e-03,
-6.33047e-02,3.03436e-01,2.37774e-01,-7.29603e-02,
9.93038e-01,2.36441e-01,-2.02664e-01,-3.83098e-01,
-1.09501e+00,6.06159e-02,-8.48378e-02,-4.10861e-01,
-8.72431e-01,-1.62259e-01,-1.12055e-01,-2.47989e-01,
1.25858e+00,-3.85059e-02,5.18063e-02,3.79296e-02,
9.69384e-03,-1.47026e-01,2.13440e-02,-5.06151e-01,
7.73380e-01,-1.90634e-01,1.45490e-01,2.28042e-01,
5.13624e-01,1.44450e-01,-3.00248e-01,-1.59300e-01,
2.01088e-01,5.41952e-01,-1.90380e-01,3.91383e-02,
-5.54207e-02,1.68081e-01,-2.47408e-01,3.08372e-02,
-1.26480e+00,4.75381e-02,-1.45329e-01,-4.01125e-03,
-7.96276e-01,6.03719e-02,1.99823e-01,1.05106e-01,
-6.50001e-01,1.38883e-01,-1.07749e-01,3.16076e-01,
9.71329e-02,3.68691e-01,1.97630e-01,2.34621e-01,
2.57515e+00,-2.62806e-03,-8.41789e-03,-2.53006e-02,
-2.48721e-01,4.02068e-01,1.55456e-01,-8.75592e-02,
2.90726e-01,5.79907e-02,-8.63686e-02,2.97263e-01,
-2.76499e-01,-2.06967e-01,2.92685e-01,2.89759e-01,
3.98606e-01,1.96941e-01,-1.73243e-01,1.30362e-01,
-3.24711e-01,-3.03653e-02,-6.13659e-02,3.07933e-01,
1.09870e-01,-5.92597e-01,-1.08441e-02,4.82009e-04,
-1.00608e+00,-1.95506e-01,1.15379e-02,-2.60394e-01,
1.17784e+00,-2.10798e-01,5.77495e-02,-1.47436e-01,
-1.17092e+00,2.57911e-01,-2.38367e-01,-7.16559e-02,
-1.92189e-02,-4.28439e-01,4.10101e-01,-5.05073e-02,
-6.08292e-01,1.34876e-01,-1.43039e-01,-2.07765e-01,
-7.22719e-01,-1.81067e-01,-2.31677e-01,-9.38929e-02,
-3.44568e-02,-3.43370e-01,-2.59705e-01,8.55916e-02,
-4.32525e-01,1.86254e-01,-1.94428e-01,3.43743e-01,
7.44815e-01,1.18613e-01,1.50257e-01,7.57483e-02,
4.75374e-01,-4.15955e-01,-7.61795e-02,-5.19215e-02,
2.55421e-01,8.20159e-02,1.67125e-01,-4.18062e-01,
-1.01368e+00,1.41826e-01,-1.55767e-01,-3.29185e-01,
3.71315e-02,6.00649e-01,2.11027e-02,4.23877e-02,
-2.01267e-01,2.23052e-01,-2.00586e-01,-1.23601e-01,
-1.64819e+00,-4.20461e-02,1.51944e-01,-1.20401e-01,
-3.01259e-02,-6.78482e-01,-1.61039e-02,-2.27692e-03,
-2.42050e-01,4.05861e-02,-2.88376e-01,2.75140e-01,
9.28446e-01,-1.61659e-01,2.15099e-01,-4.57797e-02,
1.08075e+00,1.38015e-01,-1.11169e-01,-3.73563e-02,
7.36234e-02,
-6.42374e-02,
8.52882e-02,
2.76762e-02,
-6.01461e-02,
2.81120e-02,
-1.14325e-01,
-1.02791e-01,
-2.61958e-02,
4.19116e-02,
-7.36654e-02,
1.20250e-01,
6.18177e-03,
-4.88972e-02,
6.38409e-02,
1.42570e-02,
2.09430e-02,
1.41817e-01,
4.07596e-02,
2.16841e-02,
9.85087e-03,
1.29568e-01,
1.22368e-01,
4.45054e-02,
4.45309e-02,
7.53455e-02,
-2.50385e-02,
-2.77713e-03,
3.29080e-02,
-6.74235e-02,
-7.08165e-02,
1.41615e-02,
3.26318e-03,
1.17164e-01,
6.18317e-02,
1.44065e-02,
-9.85198e-02,
-3.66633e-02,
-3.00540e-02,
2.38097e-02,
4.09618e-02,
-7.71381e-02,
-1.32004e-02,
2.24774e-02,
8.63660e-02,
-8.78433e-02,-1.56717e-01,2.55928e-01,-2.48428e-01,-2.49808e-01,-3.43396e-01,1.74849e-02,-6.41074e-02,-7.31372e-02,-6.08463e-02,2.49935e-01,-3.78664e-02,-2.34016e-01,1.29598e-01,-1.09111e-01,8.54172e-02,-1.42085e-01,2.64878e-01,-1.04848e-02,4.44997e-02,-4.97117e-02,-2.11032e-02,-4.21398e-01,1.04145e-01,-1.77846e-01,-4.11089e-01,1.05190e-01,-5.58013e-01,2.75290e-01,9.03385e-01,1.96103e-01,2.30244e-02,-7.78403e-02,2.43326e-01,-3.58333e-02,-1.49588e-01,1.89095e-01,1.93936e-01,-2.24694e-01,2.37971e-01,-1.44499e-01,-1.07250e+00,2.12800e-02,-3.51825e-01,9.71664e-02,
-1.73785e+00,1.65485e-02,9.62603e-02,-7.07094e-02,1.16131e-01,-5.22819e-02,-9.90296e-02,-5.41502e-02,1.34443e-01,3.06316e-01,-1.57812e-01,-1.19986e-01,-7.82173e-02,1.33166e-01,-7.15102e-02,1.36281e-02,-2.80966e-01,5.38921e-02,-2.38060e-01,1.98546e-01,1.53502e-01,1.77643e-01,7.24438e-02,-5.71301e-02,1.78004e-01,-2.40388e+00,2.39070e-01,-8.48542e-03,1.19702e-01,2.56991e-01,1.54809e-01,1.29147e-01,-2.59755e-01,-1.70721e-01,-3.67352e-02,-5.52878e-01,-2.01516e-01,-2.18634e-02,1.80747e-01,9.12807e-02,1.66850e-01,1.49433e-01,2.19888e-01,1.81353e-01,1.55358e-01,
2.25827e-01,-9.08691e-02,-9.75439e-02,6.22968e-02,4.48572e-02,6.69271e-02,5.44687e-02,5.24625e-01,2.08383e-01,-1.17509e-01,1.13330e-01,-9.29274e-02,-3.04241e-01,-2.02109e-01,-4.57767e-01,2.68069e-01,-3.65616e-02,-3.82963e-02,9.07597e-02,-4.61932e-01,-6.37466e-04,2.68440e-01,2.91412e-01,-2.05522e-01,-8.38548e-02,-3.81412e-02,2.58775e-01,2.05076e-01,-1.81214e-01,-1.50851e-01,4.42141e-01,7.10115e-02,-1.32143e-01,-2.30662e-01,3.60557e-01,-6.53864e-02,2.13116e-02,2.08547e-01,-2.25827e-01,-3.42271e-01,9.84341e-02,-2.74767e-01,-5.44609e-02,2.66210e-01,-1.61241e-01,
2.32918e-01,-3.36127e-01,-1.20309e-01,1.23992e-01,3.70785e-02,1.21945e-01,1.66246e-01,1.57753e-01,8.31418e-02,-3.76155e-01,1.36840e-02,-3.59076e-02,-1.94982e-01,-1.49751e-01,-8.88366e-02,3.31085e-01,-2.33168e-01,2.80481e-01,-3.17194e-01,-1.70120e+00,5.08324e-03,-1.17082e-03,7.67227e-02,-2.92661e-01,1.75555e-01,-4.21002e-02,6.38231e-02,-3.67778e-02,4.29199e-01,1.14188e-01,1.73812e-01,-2.13386e-01,-8.32575e-02,2.08364e-01,-7.60139e-02,-1.48525e-01,2.56624e-01,2.57480e-01,5.81027e-02,2.49258e-01,2.77612e-01,2.48842e-01,-1.63202e-01,-1.09892e-01,-3.16142e-01,
3.27108e-01,1.82875e-01,2.06897e-02,2.10097e-02,1.50487e-02,-1.45566e-01,1.47966e-02,-4.35290e-01,-1.91821e-01,1.73265e-01,-1.74338e-01,1.10883e-01,1.68507e-01,-1.02601e-01,-1.21432e-01,-3.93935e-01,-3.45923e-03,-2.66411e-01,-1.39944e-01,-3.06218e-01,2.42533e-01,2.00386e-02,-3.35579e-02,3.98074e-01,-3.21873e-01,-3.92400e-02,-1.42951e-01,1.26495e-01,1.13161e-01,3.25342e-01,5.79420e-03,1.62775e-01,2.58850e-01,-3.11640e-01,-4.31488e-02,-2.89573e-02,-4.12258e-02,-1.19885e-01,1.82117e-01,-8.84852e-02,2.79991e-01,-4.23101e-02,-5.44479e-02,-1.83064e-01,-1.20855e-01,
-5.61113e-02,-4.56788e-02,1.21261e-01,1.42914e-01,-7.73132e-02,1.96489e-01,3.44349e-01,-3.37744e-01,-6.07284e-03,2.63376e-01,1.59501e-01,3.09069e-02,1.55102e-01,-4.31414e-02,-1.29114e-02,1.98246e-02,-3.37224e-02,-2.81673e-01,2.45782e-01,8.48448e-02,-1.66531e-01,-4.84575e-01,4.48733e-01,-9.20895e-02,1.47162e-01,-1.53624e-01,-1.92223e-02,6.27186e-02,-3.50290e-01,-2.74915e-01,4.87704e-02,-1.16904e-01,-6.30844e-02,-3.23485e-01,1.08502e-01,1.77894e-01,-8.53996e-02,-2.51758e-02,-1.17791e-01,-1.30389e-02,-2.52700e-01,3.40584e-02,-2.20772e-01,2.92367e-01,2.15996e-01,
1.58690e-01,1.08018e-01,-8.81387e-02,-6.55379e-02,1.01141e-01,1.93333e-01,1.80239e-01,1.69887e-01,2.16546e-01,-1.49519e-01,-1.85038e-01,8.78226e-02,2.94973e-01,-4.26869e-01,-2.60986e-01,6.47774e-02,1.84599e-01,5.26068e-02,3.57469e-01,-5.34430e-01,1.13314e-02,1.75539e-01,-2.00520e-01,4.36557e-02,-3.50814e-01,-2.29029e-01,2.09539e-01,2.70809e-01,-7.35055e-02,1.17200e-01,-5.25476e-02,-1.66010e-02,4.00719e-01,7.52004e-02,1.75423e-01,-1.19245e-01,5.79905e-02,-1.99342e-01,1.34941e-01,1.81192e-01,4.10975e-02,2.41680e-01,1.65251e-01,-1.72838e-01,-1.01659e-01,
-2.54000e-01,2.16244e-02,-1.96054e-01,-3.11393e-02,3.97975e-01,-6.73729e-02,4.25757e-01,2.02545e-01,1.58142e-01,-1.23389e-01,2.83709e-01,-1.42255e-01,1.46654e-01,-1.17045e-01,-1.24588e-01,-2.01381e-02,2.16578e-01,-8.69861e-01,-1.23080e-01,3.78033e-01,1.36152e-01,-2.37997e-01,-1.69293e-01,-2.43530e-01,6.00236e-01,1.20469e-01,-1.42316e-01,1.31084e-02,-2.19169e-01,-4.82115e-01,5.05329e-02,2.58503e-02,1.71968e-01,-4.26274e-01,-2.46630e-01,3.80766e-02,3.70861e-01,2.12782e-01,1.14261e-01,1.31659e-01,-2.39473e-01,-1.53517e-02,-7.80496e-03,-3.20585e-03,6.54911e-02,
1.64701e-01,3.37864e-01,-1.49301e-01,-1.86437e-01,2.16178e-01,9.65365e-02,3.27792e-01,-5.16586e-02,-1.65317e-01,3.56184e-01,1.29042e-01,4.43423e-01,-2.62391e-02,1.89121e-02,1.07983e-01,-7.45090e-02,-1.23202e-01,4.08830e-02,2.22381e-01,4.10209e-01,-8.62597e-02,-7.62850e-03,3.03573e-01,-9.89110e-02,-1.44152e-01,2.03825e-01,-2.18154e-01,7.76679e-02,-1.47877e-01,-2.38138e-01,1.74110e-01,7.87277e-03,-1.22922e-01,-5.85475e-02,2.89353e-02,6.19392e-02,9.35599e-02,-1.51084e-01,-1.90818e-01,1.51091e-01,-1.10971e-01,3.28476e-01,-8.22456e-02,1.42021e-01,-2.42607e-01,
1.58275e-01,-8.01192e-02,-2.71563e-01,1.00957e-01,-3.80703e-01,2.66038e-01,-5.64515e-02,-4.33086e-02,-9.56302e-03,-3.10509e-01,-1.05398e-01,-3.32268e-01,-2.03718e-02,2.10149e-01,6.90546e-02,2.83983e-01,3.66971e-02,-2.52524e-03,-2.50629e-02,-7.83551e-01,2.67668e-01,3.38778e-01,-1.08095e-01,1.82562e-01,3.82093e-02,-1.35362e-01,1.28505e-01,9.29732e-03,1.80891e-02,2.28468e-01,-1.15357e-03,5.40612e-02,6.20058e-02,-1.88389e-01,-2.96324e-01,2.66993e-01,1.90512e-01,2.54920e-01,3.15127e-01,3.04662e-03,1.42544e-01,2.52039e-01,9.93906e-02,-2.54212e-01,-2.25884e-01,
-6.83278e-05,2.43171e-01,-6.47718e-02,2.96572e-01,-7.02475e-02,-3.98795e-01,-6.62642e-02,2.40705e-01,1.18889e-01,3.36728e-01,1.23221e-02,4.07829e-01,2.14736e-01,6.71302e-02,-1.20995e-01,-7.44483e-01,3.71449e-03,1.50492e-01,-1.91805e-02,1.41801e-01,-6.51872e-02,-3.27910e-02,-5.12067e-02,1.09283e-01,1.49035e-01,5.39621e-02,-7.97767e-03,3.57338e-01,-4.13486e-01,-1.29576e-01,6.42352e-02,-2.30980e-01,-1.65512e-01,-3.37568e-01,-1.62580e-01,-6.50761e-02,2.86488e-02,-1.70753e-01,-3.29880e-01,1.91622e-01,-2.06553e-01,-1.83808e-01,-2.96477e-01,5.53866e-02,-4.05874e-03,
-4.82420e-01,-1.17301e-01,-8.45655e-02,9.66950e-02,-1.08700e-01,1.61390e-01,4.95746e-02,1.69365e-02,-2.01421e-02,-1.46204e-01,-1.25523e-01,-1.21323e-01,-1.20301e-02,-5.34457e-02,3.09853e-01,4.47863e-02,1.30595e-01,1.09653e-01,9.43950e-02,-4.30959e-02,1.47698e-01,-1.40549e-01,2.07214e-02,1.75793e-01,4.40228e-03,-1.55415e-01,-1.26987e-01,9.34541e-02,1.35412e-01,-3.39530e-01,-1.66992e-01,8.92499e-02,-2.72271e-01,-7.91086e-03,2.80477e-01,-2.58099e-01,1.57603e-01,-7.95152e-02,-1.22295e-01,4.40013e-02,2.14903e-01,-1.16330e+00,-1.33908e-01,-1.50575e-02,1.90374e-01,
1.72621e-02,-1.02977e-02,-2.00489e-04,8.47330e-02,2.37351e-02,1.36121e-01,2.12567e-02,2.41293e-01,-1.91054e-01,-1.47789e-02,3.32384e-01,7.42454e-02,1.25401e-01,7.48978e-02,-8.79426e-02,-4.94174e-01,-7.03836e-02,3.32892e-01,-3.38487e-02,-5.20451e-01,2.07476e-01,-2.66266e-02,-6.41415e-02,-1.20065e-01,1.37841e-02,3.79634e-02,1.37376e-01,-1.25981e-01,3.53700e-01,1.73687e-01,-2.24630e-01,-2.05885e-01,1.41718e-01,-1.37680e-01,-1.05828e-01,6.43128e-02,6.31206e-02,3.88603e-01,-1.49440e-01,3.80612e-02,-2.89830e-01,-5.53512e-02,-3.24464e-02,2.78262e-02,7.46477e-02,
1.86479e-01,3.02257e-01,2.90552e-02,-6.89111e-02,-1.49404e-01,-1.65210e-01,1.62965e-01,-6.64044e-01,-1.15481e-01,1.05930e-01,-2.55425e-01,2.84729e-01,-1.70303e-01,-1.72613e-01,8.69681e-02,-1.20785e-01,-1.62892e-01,7.14910e-02,-1.91406e-02,-3.33558e-01,-1.96840e-01,-3.11582e-01,1.99430e-01,-2.24022e-01,-2.47214e-02,3.41978e-01,-2.51923e-01,6.88696e-02,1.42955e-01,-4.59480e-02,5.15987e-01,-2.76649e-01,-3.06021e-01,-1.12867e-01,5.75041e-02,-4.09246e-01,-1.93137e-01,-6.63414e-02,-3.41191e-01,5.22084e-02,-3.00375e-01,-2.00447e-02,-1.95589e-02,1.63123e-01,1.74389e-01,
2.79762e-01,-1.00977e-01,-9.28981e-03,1.97155e-01,1.35179e-01,9.17871e-02,-5.11539e-02,-1.89872e-02,1.91903e-01,2.66907e-01,-1.10248e-01,2.15326e-02,8.29753e-02,3.66386e-02,-1.02377e-01,-1.04992e-01,9.08156e-02,-7.67533e-02,2.82177e-01,2.01162e-02,-6.12651e-02,-3.07614e-02,-1.28328e-01,1.45473e-02,1.60485e-03,3.16502e-01,1.65945e-01,-3.74514e-02,8.82902e-02,-1.19803e-02,-2.80910e-01,2.29185e-01,3.76796e-01,1.58483e-01,-5.02438e-02,2.87071e-01,1.13992e-02,1.91786e-01,3.48749e-01,3.29594e-01,2.16309e-01,4.00202e-01,1.05464e-01,9.41612e-02,-1.57204e-01,
-6.32518e-01,3.61019e-02,-3.06850e-01,1.52764e-01,-3.16739e-01,2.64297e-01,1.35555e-01,-5.82415e-03,1.32690e-01,2.47003e-01,1.45871e-01,1.18761e-01,2.34601e-01,-1.16669e-01,6.16094e-02,-2.18765e-01,-7.41504e-02,-1.84859e-01,1.87366e-01,4.79741e-02,4.08508e-02,-1.43397e-01,1.71615e-01,9.20456e-02,1.54765e-01,-5.38926e-01,-1.26601e-01,-2.53841e-02,2.75738e-02,-1.89346e-01,-7.01624e-02,-5.61913e-02,3.02425e-02,-2.94383e-01,1.11691e-01,-2.68807e-01,1.47921e-01,-1.71595e-01,-1.19173e-01,1.51812e-01,-2.07024e-01,3.96859e-01,-7.51505e-02,-1.83554e-01,1.39257e-02,
-6.21543e-01,-1.61634e-01,-2.74267e-01,-1.82284e-01,2.19901e-01,1.53795e-01,2.70393e-01,-8.96004e-02,-8.24621e-02,3.31752e-01,-3.61418e-01,-1.31977e-02,1.62014e-01,2.47203e-01,-2.55499e-01,3.48746e-01,9.30113e-03,1.95308e-01,-5.97408e-02,-4.66342e-02,-6.94545e-02,1.61319e-01,4.48125e-02,-6.52465e-02,-2.03264e-01,-6.99428e-01,-3.56768e-01,5.55481e-02,4.04056e-02,-8.66058e-02,-1.33738e-01,3.47478e-02,-3.62044e-02,-9.88587e-03,1.43917e-01,1.60386e-01,4.36270e-02,-1.86746e-01,-8.39813e-02,-1.40351e-01,-2.62792e-01,1.74842e-01,-7.30464e-03,1.16762e-01,2.00591e-01,
1.67946e-01,2.85415e-01,-9.91535e-02,1.63159e-01,1.26344e-01,-1.48956e-01,3.15307e-01,-6.37902e-02,-6.98670e-02,3.19295e-01,7.53263e-02,3.49791e-01,1.30696e-01,-1.40096e-01,-5.98393e-02,-5.55679e-01,-5.92607e-02,-9.49674e-01,-1.62778e-01,8.27470e-02,2.44464e-01,-6.84592e-01,2.20277e-02,1.75435e-02,7.56359e-01,2.36476e-01,6.49973e-02,1.93282e-01,-1.44317e-01,-4.92328e-01,-1.42861e-01,1.81128e-01,-9.22043e-02,-7.66442e-01,2.90456e-01,-2.26043e-01,1.21849e-01,2.28970e-02,8.89882e-02,3.16743e-01,-3.11432e-02,-5.17403e-02,-5.63473e-01,2.23174e-01,6.28776e-02,
-1.99476e-01,-3.30459e-01,-1.22769e-01,2.16505e-01,-1.13825e-01,-3.70009e-02,-8.08092e-02,-1.04183e-01,-1.24894e-01,-1.13686e-01,9.19457e-02,-9.73069e-02,-1.66438e-01,1.24391e-01,2.61385e-01,4.18889e-02,1.22917e-01,9.01693e-02,3.01563e-02,2.68810e-01,-5.37236e-01,2.60185e-01,1.88388e-01,-8.45847e-02,1.60868e-01,-1.49923e-01,2.06376e-02,9.27376e-03,-9.86724e-02,-4.86333e-01,-2.90133e-02,5.42093e-02,2.72411e-02,-1.64535e-01,2.47572e-01,-2.11659e-01,-5.46709e-01,1.87277e-01,1.05986e-01,-3.87403e-01,-1.36505e-01,-6.51702e-01,-1.20247e-02,-1.87224e-01,-1.12919e-01,
2.34368e-01,1.67095e-01,1.14041e-01,4.24116e-02,2.28030e-01,2.68105e-01,-1.75790e-02,-4.84783e-02,7.76867e-02,1.51144e-01,-1.12890e-01,-4.52948e-02,-1.40406e-01,4.37174e-02,5.28618e-02,-4.24892e-02,3.66271e-01,6.14252e-02,4.11352e-02,-1.32690e-01,2.41823e-01,-2.31445e-01,7.02322e-02,-1.85935e-01,-2.24310e-02,3.75343e-01,1.24015e-01,3.04684e-02,1.30100e-01,1.71805e-01,3.24757e-01,-1.17311e-01,-9.82757e-02,-2.33433e-01,2.55009e-01,1.42794e-01,-2.24776e-01,-7.23486e-02,9.69302e-02,1.98419e-01,1.09860e-01,4.01132e-01,1.24016e-01,3.07426e-01,-9.74938e-02,
-2.64053e-01,-2.45730e-02,-8.98805e-02,-3.61930e-02,-2.44639e-01,-1.60396e-01,-2.31044e-01,-7.73047e-03,-4.72613e-02,-1.27397e-01,4.15083e-02,5.06612e-02,-2.51001e-01,1.95985e-01,1.07854e-01,7.84719e-02,2.07533e-01,-1.56379e-01,-1.20965e-01,3.69683e-02,2.44804e-01,1.86428e-01,-2.56697e-01,5.40613e-02,1.89066e-01,1.17177e-01,8.50738e-02,-1.58969e-01,-1.25706e-01,2.02659e-01,-1.20532e-01,-1.79951e-01,-6.89837e-02,-1.74196e-01,-1.88187e-01,-6.72995e-02,-8.05626e-02,-2.38483e-01,-2.97213e-02,-1.99060e-01,-1.91131e-01,1.49157e-01,6.12348e-02,-1.89739e-01,-7.04184e-03,
2.32197e-01,-3.14158e-01,4.91450e-02,8.69708e-02,-1.06479e-01,2.92658e-01,-5.96087e-02,-3.20351e-02,1.94935e-01,-3.13282e-01,-1.35988e-01,-3.40832e-01,1.32582e-01,-1.38488e-01,1.81540e-01,1.05998e-01,2.87944e-02,-1.63905e-01,-6.05219e-04,-1.32841e-01,-1.57325e-01,1.47589e-01,8.40862e-02,1.62269e-01,-3.02723e-01,-1.34228e-01,6.14689e-02,-7.68007e-02,-2.26116e-01,-2.97977e-01,-9.54050e-02,2.12742e-01,-1.20457e-01,9.42690e-02,1.58324e-01,-1.83796e-01,-1.14672e-01,1.09025e-01,1.57524e-02,2.22215e-01,1.72490e-01,7.21116e-02,1.99693e-03,-5.48916e-02,-2.50721e-01,
5.62220e-02,-2.94602e-01,-7.56848e-02,1.57247e-01,-2.24222e-01,2.89434e-01,-6.83215e-02,-9.20931e-02,-7.72229e-02,2.31395e-01,2.27707e-03,-1.28532e-01,1.50564e-01,4.95531e-02,1.33068e-01,7.38135e-02,7.31118e-02,3.06420e-02,-5.06350e-03,3.40894e-01,9.62999e-02,-2.38219e-02,-2.18359e-01,-1.31720e-02,1.42465e-01,-5.09410e-03,6.08429e-02,-2.74259e-01,-1.74616e-01,-2.41391e-01,6.52224e-03,-2.51324e-02,2.74914e-02,1.34694e-01,-1.60609e-01,1.53409e-01,4.07342e-01,1.55155e-01,1.55024e-02,-1.59141e-01,-1.24665e-01,-2.57239e-02,2.24427e-01,2.78577e-02,1.54022e-01,
2.44299e-01,-1.10146e-01,1.25574e-01,-5.17759e-02,-3.83481e-01,-3.51984e-01,-1.40391e-01,8.94467e-02,7.63573e-02,1.41405e-01,2.52942e-01,1.25811e-01,1.83361e-01,-5.14295e-01,3.52135e-01,-1.74324e-01,-7.32523e-02,1.33239e-01,-1.83140e-01,2.84029e-01,-2.64097e-01,-1.62634e-01,-2.44785e-01,7.84474e-02,-1.26773e-01,-7.69398e-02,9.05314e-02,-1.46932e-01,-1.63100e-01,-7.40176e-01,7.11846e-02,1.34716e-01,2.01062e-01,9.58772e-02,3.73239e-02,-1.18295e-01,-6.15647e-02,-1.17689e-01,-9.06924e-01,-1.51284e-01,-1.79258e-01,-1.38734e-01,1.50504e-01,-1.94948e-01,-6.43858e-02,
-2.15807e-01,2.23214e-01,-2.47094e-01,2.37281e-01,2.30671e-01,-1.88396e-01,4.64544e-01,3.65040e-01,-1.88226e-01,1.68255e-01,1.93493e-01,6.85635e-02,-8.11628e-02,1.25022e-01,-5.73352e-02,-3.35837e-01,7.94611e-03,-1.80088e-01,2.47059e-01,-2.74508e-02,4.95965e-02,-8.24270e-02,4.46675e-01,-1.88475e-01,3.98655e-01,2.65799e-01,-4.52729e-03,-2.02336e-02,-2.54502e-02,-1.69515e-02,-2.13831e-01,1.52840e-01,1.18714e-01,-2.73664e-01,-2.08061e-01,-1.21025e-01,2.26691e-01,3.06972e-01,-7.58244e-02,-4.10494e-02,-1.19976e-02,2.12537e-01,-1.95184e-01,3.88466e-03,-2.99743e-01,
-1.01880e-01,-2.21887e-01,3.29436e-01,-6.01053e-02,-3.77960e-01,1.61451e-02,-2.35849e-01,4.22949e-02,2.98840e-01,-3.59042e-01,3.36909e-01,-4.70208e-01,-2.30848e-02,-2.38833e-01,1.93320e-01,1.30411e-01,-7.56276e-02,-7.92350e-02,-9.67524e-02,-7.78115e-01,1.97195e-01,4.03896e-01,-3.15984e-01,2.42500e-01,1.09597e-01,1.03247e-02,1.69839e-01,-2.91530e-01,-1.27063e-01,5.11414e-02,-9.61471e-03,2.25018e-01,-7.71435e-02,-1.49181e-01,-8.70043e-02,1.60331e-01,3.04089e-01,2.30959e-02,1.33800e-01,1.67127e-01,7.69971e-02,-6.36753e-03,3.73457e-01,7.03447e-02,-9.10488e-02,
-2.19252e-01,8.33710e-02,-3.33792e-01,3.23042e-01,1.97767e-01,6.37222e-02,-2.63756e-01,1.54555e-01,1.77088e-01,-1.88595e-01,3.11226e-01,-3.82117e-01,2.08599e-01,1.95857e-01,-9.37522e-03,6.84181e-02,-1.58519e-01,2.41349e-01,1.57675e-01,-1.55827e-01,4.40993e-02,2.35260e-01,-1.57200e-01,2.30552e-01,-1.78703e-01,-1.65870e-01,2.47128e-01,3.39094e-01,-1.12031e-01,2.29958e-01,1.38744e-01,-1.17939e-02,-3.19008e-01,2.00053e-01,-1.56023e-03,-7.18237e-04,2.61981e-01,-1.15874e-01,1.72474e-01,-9.02528e-02,6.40243e-02,2.51932e-01,-2.32332e-01,1.37369e-01,-1.37878e-01,
-3.31430e-02,-2.57244e-01,-7.89907e-02,-4.14704e-03,1.06123e-01,7.12453e-02,1.18316e-01,-3.86972e-01,-2.79587e-02,2.34457e-01,-5.93341e-02,3.62316e-01,-2.22185e-01,-8.61062e-02,-7.17468e-02,-6.69375e-01,-1.05911e-02,6.32821e-02,-5.02173e-02,6.66169e-02,3.74194e-02,9.10248e-02,-2.15739e-01,2.29821e-02,-2.33825e-01,2.36583e-01,-3.31251e-01,2.90684e-01,-4.17082e-01,5.95808e-02,9.08483e-02,1.09375e-01,-4.94386e-02,1.16473e-01,2.63878e-01,4.28501e-02,2.12696e-01,-2.41552e-01,-1.71519e-01,1.53520e-01,-2.68747e-01,1.22103e-01,-1.11395e-01,-1.42295e-02,2.29268e-01,
-8.50795e-02,-3.52950e-01,5.57093e-02,-1.45928e-01,3.66427e-01,1.80301e-02,-6.70500e-01,-1.83086e-01,2.48547e-01,1.94952e-01,-3.24685e-01,2.35503e-02,-1.01702e-01,1.91962e-01,-3.57389e-02,-4.05220e-02,4.23037e-02,1.75692e-01,-2.51293e-01,-1.35639e-01,-1.61625e-01,-1.17029e-02,1.06392e-01,-1.58512e-01,1.36389e-01,9.04402e-03,2.08457e-01,-1.81015e-01,3.20634e-02,2.62395e-01,4.69408e-01,2.20899e-02,7.97649e-02,-1.74156e-01,1.15583e-02,2.00839e-02,-2.69044e-01,-2.61420e-01,4.93742e-02,2.27452e-01,-2.16254e-02,3.88824e-02,-3.95212e-01,-1.06042e-01,3.60831e-02,
1.90199e-02,-8.28330e-03,2.44095e-01,1.32365e-01,-1.86597e-01,2.22340e-01,2.49166e-01,-4.90707e-01,9.55811e-02,-9.17385e-03,-1.05765e-01,-8.18076e-02,2.29898e-01,6.25936e-02,1.38885e-01,2.24019e-01,-2.00718e-01,-1.82568e-01,-1.23930e-01,2.09590e-01,6.89688e-02,-4.66886e-01,3.10165e-01,7.27938e-03,-3.03965e-01,-1.51318e-01,-1.28346e-01,-2.35746e-01,-4.51059e-01,1.76481e-01,3.99945e-02,8.58204e-02,8.92502e-02,-4.57579e-01,1.52747e-01,3.78254e-03,-2.39233e-01,-3.86210e-01,-9.03449e-02,-2.45056e-01,-4.94664e-02,8.62035e-02,-3.34627e-01,-1.34252e-01,1.59818e-01,
-4.22736e-02,3.96598e-02,-2.76867e-01,-5.14907e-02,3.05222e-01,1.02542e-01,-1.92795e-01,-3.88073e-02,1.37634e-02,1.23571e-01,1.67844e-01,-1.76959e-01,2.81279e-01,1.74073e-01,1.13598e-01,7.81147e-02,-1.91747e-01,2.88429e-01,-1.71294e-01,-8.06552e-02,-3.98598e-02,-1.31938e-01,-3.34835e-01,-1.57517e-01,1.82493e-02,-3.55007e-02,-3.30132e-01,3.44543e-02,1.33395e-01,4.01629e-01,9.17262e-02,3.66182e-02,2.45744e-01,2.45915e-01,1.17592e-01,-2.74029e-02,2.52401e-01,-1.08911e-01,1.38552e-01,1.75508e-01,-2.14987e-01,3.07962e-01,3.97221e-01,1.32831e-01,1.33696e-01,
-2.10155e-01,3.34698e-01,-3.56937e-01,2.74560e-01,-6.16244e-02,2.24769e-01,3.04883e-01,-2.44736e-02,1.62822e-01,3.50595e-01,1.67884e-01,6.33782e-02,-2.18869e-03,2.89099e-01,-1.96923e-01,-1.19408e-01,8.60119e-02,-1.86878e-01,2.09802e-01,-1.58829e-01,1.12868e-01,-2.57694e-02,-3.23315e-01,1.96277e-01,2.11087e-01,-1.27074e-01,3.59810e-01,8.20840e-02,-1.41714e-01,1.65097e-01,-1.44932e-01,-1.08913e-01,-1.02773e-01,1.79497e-01,1.92496e-01,4.67728e-02,-1.36639e-01,2.25513e-01,4.07390e-01,7.59913e-02,5.65100e-02,-3.61067e-02,3.60509e-02,-1.17650e-01,2.82040e-01,
2.72110e-01,-2.57456e-01,6.60731e-02,-1.24616e-01,-9.94086e-02,1.74291e-01,1.07317e-01,-1.31831e-01,-2.43188e-01,3.60345e-02,-5.86300e-01,7.82509e-02,-2.37500e-01,2.05263e-01,7.04376e-02,1.80097e-01,3.42026e-01,3.03009e-02,2.82869e-02,-1.92005e-01,4.47838e-02,5.44558e-02,2.43990e-01,3.78664e-02,-3.11176e-01,2.91799e-01,-5.09295e-01,1.94902e-01,2.26912e-01,-4.81017e-01,3.93527e-01,7.39004e-02,-2.28485e-01,-2.84437e-02,1.72781e-01,-4.41072e-01,-2.80152e-01,-1.45439e-02,2.68960e-01,2.81245e-01,-2.39019e-01,-1.84237e-01,1.02338e-01,1.11912e-01,-1.28311e-01,
2.64728e-01,-7.56860e-02,2.73865e-01,5.40268e-02,-3.01296e-01,1.66554e-01,2.46468e-01,9.96354e-02,-8.41368e-02,-2.15250e-01,7.56250e-02,-7.99620e-02,-1.36678e-01,-2.92964e-01,5.85957e-02,-1.16456e-01,7.73906e-02,2.13859e-01,-1.20973e-01,-8.02313e-01,8.59647e-03,5.03711e-03,8.82545e-02,1.97594e-01,-2.43325e-01,-2.26892e-01,-1.26870e-01,-1.60824e-01,1.27637e-01,-8.41241e-03,-9.94724e-02,3.05640e-01,-1.02321e-01,1.43151e-01,-2.97514e-01,-7.97143e-02,1.22414e-01,1.42400e-01,1.45887e-01,3.81102e-02,1.78538e-01,-1.51041e-01,-2.62352e-01,-5.23729e-02,-5.85017e-04,
-8.57397e-02,-2.13568e-01,1.92049e-01,-1.49873e-01,-3.36521e-01,2.27439e-01,-3.94416e-02,-2.46365e-02,2.28222e-01,1.64735e-02,-6.29325e-02,-2.08088e-01,9.15961e-02,-4.66403e-02,-1.37160e-01,-4.87306e-03,-2.27833e-01,-1.78616e-01,-1.31186e-02,-3.34405e-01,2.80174e-02,1.56962e-01,1.39572e-02,1.97488e-01,-5.10174e-02,-1.23649e-01,-1.69063e-01,-1.70791e-01,2.09725e-01,-1.56845e-01,-1.80470e-01,-1.05058e-01,1.29455e-01,9.53764e-02,-1.81810e-01,2.61450e-01,-2.00058e-01,1.34725e-01,-2.81700e-01,-6.79044e-02,7.84243e-02,-2.23244e-01,-2.29860e-01,3.94383e-02,3.03338e-01,
9.93375e-03,-1.11335e-01,2.94006e-01,-5.98274e-02,-3.65872e-01,-1.75105e-01,-5.16264e-01,-5.01832e-02,1.70944e-01,-1.62689e-01,-1.31900e-01,9.55432e-02,-3.69523e-01,-2.04142e-01,-4.47207e-01,3.04710e-01,2.73142e-01,2.13020e-02,1.69661e-01,-5.22295e-01,5.18304e-02,-1.19868e-01,1.56613e-01,8.48739e-02,-9.89684e-02,1.43853e-01,-8.41631e-02,-3.97162e-01,-4.84699e-01,6.88573e-02,-2.41601e-01,8.53491e-02,-1.36493e-01,-2.29041e-01,2.09035e-01,-6.79423e-02,-1.21640e-01,2.54369e-02,1.19159e-01,-2.74833e-01,3.18350e-01,-2.27238e-01,-1.11912e-01,1.32729e-01,-1.50255e-01,
-1.80525e-01,-5.34494e-02,8.33203e-02,1.15570e-01,9.89189e-02,8.20408e-03,-1.97755e-01,-5.46337e-03,-9.66581e-02,6.60738e-02,-6.04344e-03,-2.24657e-01,1.90307e-01,-1.78738e-01,3.24738e-01,-1.93134e-01,-1.62645e-01,2.05476e-02,-1.24166e-01,1.81592e-01,1.64459e-01,1.77603e-01,-1.99120e-01,1.09948e-01,-9.52376e-02,1.41744e-01,2.61108e-01,1.83321e-01,1.88581e-01,-8.14618e-02,-3.20578e-01,1.71812e-01,-1.03649e-01,4.05158e-01,-2.12060e-02,-2.55600e-01,1.75487e-02,-1.23126e-01,-2.45459e-01,1.86304e-01,1.07219e-01,-2.37984e-01,-2.00594e-01,-3.07695e-01,-6.30880e-02,
-1.12189e-01,-2.84290e-01,3.42030e-01,-8.57194e-02,-9.29720e-01,-1.69279e-01,9.49338e-02,-3.08882e-01,6.68702e-02,-3.97994e-01,8.35958e-02,-3.30077e-02,-1.06728e-01,-4.05417e-01,2.24311e-01,5.98858e-02,-4.01428e-02,-1.66412e-01,-1.79399e-01,-6.08196e-01,-1.45825e-01,1.54317e-01,1.53960e-01,2.13930e-01,-2.46550e-01,5.58897e-02,2.34192e-01,-3.07307e-01,-1.19857e-01,4.69823e-01,2.09533e-01,2.29721e-01,-1.58710e-01,1.39845e-01,-2.73393e-01,9.05707e-02,-3.93569e-01,-3.89613e-01,-1.64584e-01,-3.48642e-02,-5.01590e-02,-5.88802e-02,6.61583e-02,-1.22352e-01,1.61288e-01,
-7.83064e-02,1.16064e-01,-4.17486e-02,9.27429e-02,6.62897e-02,-2.12216e-01,-1.78567e-01,-2.44553e-01,6.49053e-02,-4.82917e-02,-5.36025e-02,-8.77472e-02,1.05964e-01,-6.34217e-02,8.70576e-02,-1.11786e-01,1.73493e-01,-9.59718e-03,4.35800e-02,-1.04503e-01,-5.91955e-02,-1.70085e-01,-1.78930e-01,-8.28723e-02,-2.09885e-01,1.77487e-01,-2.55534e-01,1.90872e-01,-2.18160e-01,8.08214e-02,1.59893e-02,-1.58483e-01,-1.66759e-01,1.33040e-01,-9.01531e-02,-1.25730e-01,-2.03692e-02,4.22846e-02,8.33979e-02,1.87082e-01,-1.46711e-01,1.59405e-01,1.96810e-01,-2.48974e-01,-5.95607e-02,
8.99272e-02,-1.26872e-02,4.20929e-02,1.13201e-01,-1.22945e-01,1.36304e-01,5.92825e-02,2.08485e-02,-1.83767e-01,9.10191e-03,-1.99661e-01,-1.15732e-01,-1.13196e-01,2.02434e-01,1.58891e-01,-1.42117e-01,-1.30464e-01,-7.77523e-02,-5.30873e-02,-3.21092e-01,4.63022e-03,9.93396e-02,-1.09308e-01,3.12710e-01,-3.81920e-02,1.29566e-01,1.06289e-01,-6.26253e-02,1.48054e-01,3.08768e-01,-9.99893e-02,-6.46149e-02,-1.80021e-01,6.60322e-02,-5.67717e-02,-2.60275e-02,1.28633e-02,1.63374e-01,2.37434e-01,2.68867e-01,-1.57623e-01,4.58141e-02,-1.74233e-02,-7.75499e-02,2.45237e-01,
-3.42131e-01,1.88871e-02,1.14626e-01,-1.04877e-01,2.97705e-01,1.65091e-01,1.58316e-01,-5.95170e-02,5.74234e-03,-1.53747e-01,5.42056e-02,-4.33837e-02,-5.53924e-02,3.35319e-02,-1.40388e-01,-2.62737e-01,-4.57583e-02,1.64820e-02,-8.35044e-02,-9.94353e-02,-2.33401e-01,2.27798e-01,1.39924e-01,-5.31224e-02,-6.85580e-02,-3.94819e-01,1.13668e-01,-6.50488e-02,-2.59420e-01,-1.29416e-01,-8.82894e-02,-2.15276e-01,-1.35120e-01,-5.72047e-02,1.35875e-01,-1.48585e-01,2.56541e-03,1.52184e-01,-5.34130e-01,1.29132e-01,1.73303e-01,-1.26226e+00,-4.42337e-02,1.64096e-01,2.03278e-01,
-2.36971e-01,1.76016e-01,-2.74897e-01,1.83362e-01,-4.24747e-01,1.03375e-01,-1.19510e-01,-1.18992e-01,1.33733e-01,1.87671e-01,-6.40004e-02,2.68946e-01,-1.95783e-02,-2.98564e-01,-4.16353e-02,-5.10010e-01,-1.22293e-01,-4.91564e-02,5.84751e-03,3.74823e-01,2.05373e-01,-2.89644e-01,1.66287e-02,-1.50605e-01,1.44683e-01,2.14856e-01,1.85624e-01,2.78424e-01,-1.05905e-01,-1.11721e-01,8.33782e-02,-8.11711e-02,6.74709e-02,-2.35960e-01,3.17110e-01,1.81402e-01,1.12046e-01,-2.83516e-01,-1.53275e-01,-3.39984e-03,-3.96842e-01,-2.47732e-01,1.03135e-01,2.61718e-01,2.32840e-01,
-2.56575e-01,6.18625e-02,-5.62663e-02,1.14959e-01,-1.31316e-01,2.98660e-02,-2.22825e-01,2.07620e-01,1.86172e-02,-9.75762e-02,9.28356e-02,2.73717e-04,1.44036e-05,-1.00908e-01,3.61110e-02,-2.90645e-01,-1.00125e-02,1.03972e-01,1.76607e-01,-3.52729e-02,9.46087e-02,4.82290e-01,-2.47866e-01,1.20636e-01,-4.16618e-01,-1.37734e-01,1.18410e-01,3.65574e-02,1.60755e-01,2.42169e-01,-7.80892e-03,-1.69683e-01,2.20892e-01,2.87392e-01,-1.70260e-01,1.44935e-01,-5.97023e-02,1.74523e-01,-8.29345e-02,1.91561e-01,2.27495e-01,1.13127e-01,-8.44585e-02,-1.37589e-01,-3.76190e-02,
-7.62907e-02,1.16538e-01,-1.81229e-01,-4.53986e-02,4.32561e-01,5.24464e-02,2.16203e-01,-4.19992e-02,1.78881e-01,-6.65707e-02,9.13479e-02,-2.36717e-02,1.96330e-01,1.56432e-01,2.43083e-01,1.15855e-01,9.16378e-02,1.95595e-01,6.61456e-02,2.52165e-01,-1.88852e-01,1.38013e-01,-8.47331e-02,-1.12530e-01,1.21284e-01,1.18926e-01,-3.27742e-02,9.32990e-02,-1.61638e-01,2.40636e-01,-1.62496e-01,1.06235e-01,-1.85025e-01,-1.69204e-01,2.89311e-01,-2.60325e-01,4.24265e-02,-2.05333e-01,-1.93490e-01,-1.45576e-01,-1.23868e-01,-2.98248e-01,3.69497e-01,1.54325e-01,-1.97039e-01,
1.21162e-02,-1.44681e-02,1.76642e-01,-2.62445e-01,-1.72881e-01,1.91133e-01,-3.49746e-01,2.34681e-01,1.10676e-01,-5.24850e-01,7.46905e-02,-3.94942e-01,-1.31789e-01,-2.38186e-01,-3.52493e-02,3.30370e-01,-5.38084e-03,1.18458e-01,7.01332e-02,-1.27282e+00,1.14521e-02,-1.25373e-02,-2.82910e-02,-8.34344e-02,2.01974e-01,-9.14167e-02,9.29272e-02,-2.85312e-01,4.68033e-01,1.07407e-01,-7.19906e-02,-1.08330e-02,-2.33089e-01,1.51862e-01,5.32548e-02,-8.18219e-03,-1.48432e-01,3.08105e-01,-4.44472e-02,-8.76717e-02,2.24482e-01,1.60759e-01,-9.05397e-02,1.24767e-01,-2.35219e-01,
2.45094e-02,
-1.97394e-02,
-1.97386e-02,
2.67820e-02,
7.23596e-02,
3.60634e-02,
-1.17749e-02,
-1.04906e-01,
-1.52056e-02,
-3.40022e-02,
7.46371e-02,
1.14848e-01,
1.71937e-02,
8.94012e-02,
-6.30407e-02,
8.18358e-02,
6.24957e-02,
3.07686e-02,
5.45360e-02,
-5.24751e-02,
-7.11721e-03,
8.40240e-02,
5.68084e-03,
9.00585e-02,
-1.51400e-02,
3.96442e-02,
-1.32092e-01,
7.74908e-02,
1.10353e-01,
7.59677e-02,
-5.74759e-02,
-7.79258e-02,
-8.80102e-02,
1.10757e-01,
1.07266e-01,
7.94277e-02,
7.32073e-02,
6.57336e-02,
-6.84785e-03,
2.96004e-02,
1.06625e-01,
5.11267e-02,
-1.67689e-02,
-4.61259e-03,
1.48265e-02,
-9.08961e-02,-7.26565e-02,-1.32294e-01,-3.49042e-01,4.06805e-01,-3.89605e-01,-1.71028e-01,-8.15987e-02,3.17094e-02,-5.96198e-02,-5.19359e-04,8.23558e-02,2.23452e-01,4.48273e-02,-1.69449e-01,1.79942e-01,2.18806e-01,4.68652e-02,8.12229e-02,3.20579e-01,8.58913e-02,1.41039e-01,6.81871e-02,2.37100e-02,1.46619e-01,-1.90620e-01,-7.89906e-01,2.53474e-01,6.57305e-02,-3.66821e-02,-1.03420e-01,-2.72361e-01,-1.91339e-01,-4.07342e-02,1.21744e-01,-1.47608e-01,-1.92765e-01,2.20641e-01,2.20144e-01,2.66881e-01,3.00839e-02,-4.65280e-02,-5.68471e-02,5.83570e-02,-5.42346e-01,
1.51294e-01,-2.88435e-01,-3.30053e-02,-4.22295e-01,-4.47113e-02,-2.96902e-01,-8.47678e-02,-1.62581e-01,-6.39107e-02,4.09560e-01,2.79341e-01,4.75461e-01,-1.86734e-02,1.18890e-02,-1.81958e-01,-3.12678e-02,-2.12457e-01,-7.46480e-03,1.77987e-01,2.33476e-01,-5.34234e-02,3.03759e-01,4.03928e-02,1.72903e-01,3.21359e-02,3.57760e-02,1.46820e-01,-8.46001e-02,-1.18572e-01,1.50392e-01,-1.54143e-01,1.07512e-01,1.50101e-02,-2.87812e-01,1.11963e-01,1.04430e-01,6.63532e-02,-1.84560e-01,2.33923e-02,-8.25273e-02,4.47735e-01,2.37028e-01,-2.35481e-01,1.65546e-01,-3.66630e-01,
1.40686e-01,-1.67085e-01,1.61013e-01,5.52302e-02,3.38687e-02,2.54905e-02,-1.60406e-01,-1.06827e-01,9.61199e-02,3.36126e-02,6.55570e-02,-2.66651e-01,1.98256e-01,-2.30312e-01,1.14010e-01,-1.32151e-01,-7.48623e-02,-1.25717e-01,6.31713e-02,2.12343e-01,-5.33704e-04,-1.29969e-01,8.75940e-02,1.61331e-01,1.21449e-01,-9.23499e-03,2.96972e-01,5.92390e-02,7.87892e-02,-3.34703e-01,1.31415e-01,2.94457e-01,-1.14344e-01,-1.32060e-01,9.95137e-02,-9.66458e-02,1.01636e-01,-1.99993e-01,-1.64944e-01,1.12657e-01,-4.08419e-01,8.37124e-02,1.24286e-01,-1.35827e-01,-3.01805e-01,
4.60542e-01,3.92643e-02,-3.49368e-01,-3.89718e-02,1.37550e-01,1.22171e-01,-1.26286e-01,-3.07278e-01,-9.20127e-02,1.25283e-01,1.41329e-02,1.44103e-01,-3.26758e-01,-2.44083e-01,1.51177e-01,-2.76553e-01,-1.94875e-02,-2.69787e-01,-3.78998e-02,-2.11048e-01,-1.98556e-01,-6.85300e-02,2.41076e-01,2.66603e-01,-4.73992e-01,-1.26347e-01,9.71051e-02,1.84055e-01,2.73632e-01,2.57597e-01,-2.08420e-01,1.89077e-01,7.23764e-02,3.96852e-02,1.30558e-01,-4.09688e-01,1.59343e-01,7.92390e-02,5.00789e-02,2.68100e-01,1.10280e-01,-1.47259e-01,1.64070e-01,-7.29445e-02,4.13431e-02,
-1.08656e+00,-1.30609e-01,-2.22135e-01,5.81692e-02,7.62225e-02,1.38639e-02,1.42090e-01,-1.31021e-02,1.90806e-01,1.85570e-01,-9.45269e-02,-1.73303e-01,-1.15346e-02,-1.15508e-01,3.60117e-01,-1.72294e-01,-1.33013e-01,-2.65812e-02,-5.73750e-01,3.14506e-01,2.34110e-01,-1.29752e-01,1.40619e-02,-1.89259e-03,1.63534e-01,1.24035e-01,-8.95911e-02,1.80307e-01,2.01984e-02,2.34655e-02,1.69471e-01,1.28887e-03,-2.22292e-01,-2.38870e-01,-3.92336e-01,-8.07746e-02,-3.81464e-01,4.46537e-02,2.85441e-03,1.58849e-04,-1.28603e-01,-1.81665e-01,-6.83845e-02,-1.94695e-01,8.18340e-02,
3.26252e-01,-1.35465e-01,2.91253e-01,1.39105e-03,-4.45330e-02,-1.16317e-01,2.32658e-01,-4.40650e-01,8.76873e-02,2.47690e-02,-3.34349e-01,3.47701e-01,-1.60796e-01,-2.72660e-01,1.40725e-01,-1.99324e-01,5.99838e-02,-3.29403e-01,8.67787e-02,-2.73140e-03,-3.00759e-02,6.41402e-02,-9.94368e-02,1.88908e-02,1.50995e-01,4.70112e-02,1.13627e-01,6.46642e-02,2.21830e-01,-8.46388e-03,7.61049e-02,-2.18786e-01,-3.67441e-01,-2.74799e-02,1.60960e-01,-4.01406e-02,-2.78079e-02,-6.70911e-02,-4.46365e-02,-1.49051e-01,-6.99536e-02,1.91403e-02,-2.38661e-02,-1.14618e-01,2.01500e-01,
1.27139e-01,2.90972e-01,-8.09277e-01,-2.29040e-01,-3.48268e-01,-6.93568e-01,-1.74980e-01,-4.87792e-01,1.39261e-01,-3.90791e-01,-5.93824e-03,1.84444e-01,7.40124e-02,1.11900e-01,-6.95570e-02,-1.18384e-01,-1.04524e-01,-8.67363e-01,5.38063e-02,2.19769e-02,-8.52122e-02,6.57109e-02,-1.13192e-01,4.55289e-02,-6.43349e-01,1.79601e-01,-1.15897e-01,9.99983e-02,8.15149e-02,-5.21697e-01,-8.28672e-02,3.12797e-01,5.78511e-02,-1.15763e-01,2.48393e-01,-5.54198e-01,2.17548e-01,2.62254e-01,1.06532e-01,2.22742e-01,-2.58217e-01,-4.14012e-01,1.37356e-01,-1.81765e-02,-3.75556e-01,
-4.50628e-03,-7.30587e-02,-2.04532e-01,-2.88259e-01,1.71801e-01,4.23986e-01,1.41641e-01,1.00633e-01,-1.10001e-01,3.43823e-01,-2.38895e-01,1.74758e-01,1.66038e-01,5.80108e-02,2.07006e-03,7.72644e-02,-6.76650e-02,-1.03464e-01,1.08131e-02,2.20466e-01,1.67415e-01,-2.80446e-01,1.29821e-01,-7.72939e-02,1.38383e-01,-2.73014e-01,-1.85755e-01,3.58687e-01,3.94557e-01,1.70923e-01,3.47724e-01,-1.90623e-01,-1.65287e-01,-2.64125e-01,-2.98806e-01,3.98297e-02,5.09709e-02,4.67687e-02,-2.51124e-01,3.27233e-02,1.75550e-01,1.78519e-01,-1.12773e-01,-1.58216e-01,-1.85476e-01,
-2.20580e-01,-6.51932e-02,-1.08868e-01,2.00068e-01,-8.61597e-02,-4.92811e-02,-9.11622e-02,-9.42220e-02,2.16698e-01,-2.29125e-01,5.52567e-02,8.40224e-02,-1.69114e-01,-3.40585e-01,-1.29333e-01,1.99298e-01,-1.46933e-01,1.43491e-01,2.97852e-01,-1.33955e-01,-2.31543e-01,1.67944e-01,-4.73226e-02,-2.78114e-02,-9.34332e-03,-8.74413e-03,-2.97618e-01,2.46453e-02,2.96881e-01,4.90034e-02,1.67910e-01,-1.77226e-01,1.20641e-01,3.10180e-01,2.32509e-01,8.73551e-02,-6.72616e-02,-8.82277e-02,-1.08225e-01,8.05153e-02,-2.45708e-01,1.22328e-01,-3.42362e-02,3.44670e-02,7.71079e-02,
1.99844e-01,6.52196e-02,-4.19624e-02,2.57734e-01,1.29895e-01,5.74595e-02,-5.51546e-02,2.64922e-01,2.53243e-01,-3.58409e-02,1.66974e-01,-7.62763e-02,-7.81188e-02,-1.32344e-01,1.17742e-01,-7.91907e-02,-4.83348e-02,2.60256e-01,-1.73739e-01,2.30211e-01,-2.34332e-01,2.20638e-01,3.65912e-02,4.87431e-02,-2.55512e-02,-1.57779e-01,3.92326e-02,1.85942e-01,1.58582e-01,6.97073e-02,-9.07389e-02,1.75550e-01,2.90380e-01,2.71525e-03,1.63491e-01,-1.40095e-01,-4.05201e-03,-2.25527e-01,-1.04651e-01,-2.28878e-01,-1.93925e-01,-2.10835e-01,-4.81453e-03,5.53824e-02,-2.97492e-01,
1.14861e-01,-1.68078e-01,2.20903e-01,2.32221e-01,-2.84108e-01,-4.89397e-01,6.54841e-02,-6.68559e-01,-1.83381e-01,-1.56501e-01,1.50253e-02,-3.31547e-02,1.88268e-01,7.98371e-02,1.04798e-01,1.66261e-01,-2.08744e-01,-2.52679e-02,1.65832e-01,-2.40957e-02,-1.18771e-01,2.57286e-01,4.13734e-02,5.04543e-02,3.14833e-01,3.11230e-01,6.58900e-01,-3.70237e-01,-1.64053e-01,-3.62999e-01,1.55340e-01,-3.62472e-02,3.42872e-02,4.49037e-02,2.47488e-03,-1.86721e-01,1.96133e-01,-5.98989e-02,-1.32680e-01,-2.54791e-01,1.59324e-01,-2.25901e-01,2.59223e-01,-1.60222e-01,1.29730e-01,
2.14077e-01,-5.24318e-01,-3.45075e-02,-8.08562e-02,2.21427e-01,-1.54595e-01,-7.33121e-02,1.11861e-01,-3.72961e-02,-4.53653e-02,-1.19821e-01,2.91741e-01,-3.44879e-02,5.04357e-02,2.04682e-02,-2.84338e-01,-1.03250e-01,1.91209e-01,2.91742e-02,-9.42337e-02,2.53416e-01,-3.11267e-01,-2.36291e-01,2.55243e-01,9.46245e-02,-2.36853e-01,-3.35426e-01,-2.73086e-01,-1.51896e-02,2.08195e-01,1.29437e-02,2.08604e-01,3.64790e-01,-2.73348e-01,-1.59312e-01,-2.98915e-01,1.52128e-01,1.62046e-01,1.70766e-01,-1.07520e-01,8.05874e-02,-2.05203e-01,1.52770e-01,9.36935e-02,-5.66810e-01,
7.49645e-02,8.10425e-02,1.70163e-01,4.87925e-01,-3.45719e-02,-1.48194e-01,2.83932e-01,-4.63081e-01,-1.83258e-01,2.89859e-01,1.36050e-01,2.48715e-01,1.96967e-01,-4.77600e-03,-5.90470e-02,-2.75054e-01,-6.52086e-02,-5.75615e-02,3.79198e-02,1.15271e-01,2.07298e-01,-6.63492e-02,-2.87311e-01,-1.62863e-01,-9.93897e-02,4.90877e-01,4.88813e-01,-2.46332e-03,-1.77895e-01,9.71534e-02,-1.63314e-01,-2.33965e-01,2.80699e-01,-3.91196e-02,2.03136e-01,1.32945e-02,-2.23314e-01,2.83038e-01,5.60924e-02,7.57949e-02,-1.41875e-01,-9.19840e-02,1.81892e-01,-1.77172e-01,1.49571e-01,
3.46020e-02,-1.33906e-01,3.90476e-01,-1.31356e-03,2.32131e-01,-2.14939e-01,-9.04891e-02,-4.32184e-01,-3.32299e-01,2.76366e-01,-3.25150e-01,1.69882e-02,2.67135e-01,1.89023e-01,-1.13757e-01,4.13495e-03,-1.29551e-01,-2.87814e-01,1.73163e-01,5.54544e-02,-3.35920e-02,1.38626e-01,-1.62935e-01,8.62795e-02,-6.11941e-02,6.57978e-02,-5.12957e-01,-1.80376e-01,-6.20835e-01,-2.72440e-01,1.35311e-01,1.20693e-01,-5.44916e-01,2.53040e-01,3.25496e-01,-1.61914e-01,3.95192e-02,4.26028e-03,-1.56033e-01,2.69355e-01,1.21835e-01,-2.32512e-01,2.18857e-01,-7.52540e-02,1.86994e-01,
-3.02353e-01,-8.93087e-02,6.58816e-02,1.19900e-01,-2.45983e-02,-1.46880e-01,-1.54970e-01,2.47144e-01,1.20071e-01,3.74194e-02,-3.09866e-03,2.87031e-02,2.89888e-01,1.13617e-01,2.00767e-01,3.04635e-01,4.87609e-02,-1.75197e-01,-2.05816e-02,2.06426e-02,-1.98050e-01,-1.14228e-01,-1.48755e-01,1.53921e-01,-3.44229e-02,-2.08637e-01,4.74012e-01,-2.41003e-02,1.24072e-01,-3.64317e-02,-8.21218e-02,3.30660e-01,-2.12736e-01,-4.07306e-01,1.78126e-01,-3.17632e-02,1.31521e-01,2.87092e-02,-7.19654e-02,3.15028e-01,1.25857e-01,-3.37301e-02,-3.35010e-03,-7.51525e-02,2.19193e-01,
-4.49966e-02,1.76543e-01,1.97660e-01,4.34835e-02,-9.58345e-02,-1.24051e-01,2.82399e-01,-2.22751e-01,2.36264e-01,1.95805e-01,-1.78816e-01,-2.07757e-01,-4.77836e-03,4.99435e-01,1.39168e-01,-2.20429e-02,3.66096e-01,-2.57168e-02,-2.58675e-01,1.50458e-01,-2.16598e-01,1.03075e-01,-1.33941e-01,-2.98002e-01,-3.47651e-02,-2.27071e-01,9.26168e-01,-9.84861e-02,-1.41568e-01,2.07763e-01,-4.50886e-02,3.10344e-01,5.16031e-01,1.38760e-01,-3.36872e-02,9.99442e-02,-4.98540e-01,-1.44865e-02,3.28639e-02,-1.92245e-01,-2.64995e-01,1.27292e-01,-1.54531e-01,-2.80353e-02,1.99788e-01,
-4.31723e-01,-5.11678e-01,1.90135e-01,-5.79286e-01,-1.62178e-01,-2.72631e-02,2.19967e-02,-2.52406e-02,5.15301e-02,-2.06960e-01,-1.62781e-02,2.33313e-01,-1.91126e-01,-3.50825e-03,1.22667e-01,2.06687e-01,-3.66943e-02,-1.67278e-01,-6.58558e-02,-2.29154e-01,1.13810e-01,5.75975e-02,-8.56340e-02,1.22771e-01,1.75768e-01,-4.30221e-01,-5.14218e-01,2.27755e-01,-1.10920e-01,2.25202e-01,1.82523e-01,-2.76800e-01,7.02446e-02,-1.72765e-01,1.12426e-02,2.88359e-01,1.88908e-01,-1.61546e-01,-1.40385e-01,-1.22265e-01,3.11201e-01,2.36132e-01,1.52941e-01,-1.12895e-01,2.02268e-01,
-8.42367e-02,6.12209e-04,4.16861e-01,-6.32887e-02,-1.14513e-01,7.47811e-02,-2.71581e-02,3.59959e-01,-2.22081e-01,-2.88445e-01,1.56256e-01,-1.75555e-01,-4.31183e-02,-4.21567e-01,-1.22946e-01,-8.64461e-02,-2.42899e-01,2.59619e-01,1.14722e-01,2.10718e-01,-2.25918e-01,1.31593e-01,9.92097e-02,-7.71930e-02,3.82176e-01,-1.00618e-02,-2.68372e-01,-3.26472e-01,-1.47358e-01,-1.41246e-01,-7.38946e-02,2.42691e-01,-2.83030e-01,1.85166e-01,2.03806e-01,1.74132e-01,6.87449e-02,-1.09909e-02,1.29910e-01,7.50966e-02,1.83782e-01,-1.10331e-02,-6.74939e-02,2.62739e-02,-8.92940e-02,
-2.25344e-01,-6.56418e-01,1.67353e-01,-6.43474e-02,-1.39523e-01,1.49461e-01,2.29325e-01,-8.06880e-02,1.61475e-01,7.85742e-02,-1.96818e-01,3.83403e-03,4.97840e-02,1.55146e-01,2.96720e-02,1.91671e-01,8.40935e-02,-1.63615e-01,-3.56508e-01,-2.57861e-02,-1.37557e-01,1.36011e-01,-9.93112e-02,2.23404e-01,-2.11625e-03,3.53122e-02,-3.43767e-01,1.59670e-01,-1.06377e-01,2.23919e-01,-2.41840e-01,-3.54282e-02,-1.25494e-01,-2.39115e-02,1.47450e-01,-4.32791e-02,-9.33409e-03,2.45106e-01,-2.22725e-01,-1.11237e-01,-1.37712e-01,-2.57759e-01,2.16662e-02,4.41066e-01,1.82683e-01,
-2.60375e-01,-1.18461e-01,-2.97834e-01,-3.05460e-01,-2.15273e-01,1.95045e-01,-2.03187e-02,3.92230e-01,1.62217e-01,-1.76166e-01,1.70220e-01,2.06664e-01,1.28652e-01,2.30449e-01,2.24821e-02,9.90839e-02,-1.40438e-01,3.26304e-01,3.81196e-02,-2.31537e-01,-1.50019e-01,-1.36529e-01,-2.49772e-01,-2.41078e-01,4.18981e-01,-6.55780e-04,1.55559e-01,1.08498e-01,9.01668e-02,-2.09697e-01,-5.74052e-02,1.00501e-01,-1.07706e-01,2.31239e-01,-6.96364e-02,-1.96842e-01,9.86998e-02,-1.45515e-01,2.51532e-01,3.57787e-02,2.48564e-01,7.27363e-02,-3.06450e-02,-1.02359e-01,-3.76902e-01,
-7.76458e-01,-1.46920e-01,6.89143e-02,8.09034e-02,1.74538e-01,-6.40876e-01,2.08458e-01,-2.57185e-01,3.36687e-02,2.60502e-01,-4.33541e-01,-4.80879e-01,-1.90267e-01,-2.41209e-01,3.92334e-01,-2.89868e-02,-1.02534e-01,-3.30213e-01,-5.57391e-02,-3.35043e-02,-5.52972e-02,-1.86391e-01,-4.23862e-02,1.08720e-01,-1.04176e-01,2.75151e-01,-3.90324e-01,-5.55215e-02,-1.06872e-01,-1.13850e-01,1.77169e-01,-9.59325e-01,-3.08250e-01,-1.96605e-01,-8.59009e-03,-1.40685e-01,-4.52009e-01,2.09680e-01,-2.19599e-01,-4.04936e-02,8.81401e-02,-2.61033e-01,-2.98179e-01,-3.00968e-02,1.14186e-01,
-1.48295e-01,8.15570e-02,1.26274e-02,1.11098e-01,2.43857e-01,4.28497e-01,-2.27662e-01,2.92891e-01,7.83266e-02,-1.65411e-01,1.18368e-01,-6.84758e-02,9.48696e-02,1.01014e-01,1.02776e-01,4.01352e-01,-2.03569e-01,1.31608e-01,1.85959e-01,-2.83708e-01,4.23956e-02,-4.56190e-02,1.57973e-01,1.45020e-01,1.58563e-01,-1.30509e-01,-6.12981e-01,7.48536e-02,-7.19537e-02,1.10339e-01,1.28376e-01,2.21377e-01,-1.63834e-01,-2.99871e-01,2.54931e-01,2.85427e-02,-5.70614e-02,-1.38378e-01,-1.39911e-01,-4.37734e-02,-3.98845e-01,-1.02514e-01,-1.68605e-01,-4.08995e-01,-1.31887e-01,
-2.20557e-01,-1.27982e-01,2.84912e-02,1.36358e-01,2.11557e-02,-1.88129e-01,6.58061e-02,3.15319e-02,5.24389e-02,1.14906e-01,8.42518e-02,1.10055e-01,2.27775e-01,1.23745e-01,1.73429e-01,1.38916e-01,-2.10374e-02,2.26896e-03,-2.96995e-01,2.36520e-01,-1.54390e-01,-1.49299e-01,1.12499e-01,-1.36045e-01,1.11447e-01,1.89726e-01,-1.41781e-01,-1.93061e-01,-4.79985e-02,-2.67114e-01,-3.09889e-02,4.47132e-02,-1.31238e-01,9.45756e-03,3.96006e-03,1.52708e-01,1.35150e-01,-1.73138e-01,4.19320e-02,9.74814e-02,3.18009e-02,2.58236e-02,-5.50830e-02,1.01263e-01,-2.19483e-01,
-2.17831e-02,-1.46070e-01,-2.51388e-01,-8.15622e-02,-2.90606e-02,4.04089e-01,2.90363e-02,1.10747e+00,2.60533e-01,-3.21302e-01,-4.74145e-02,9.45673e-02,-2.24931e-01,4.80992e-02,-2.05174e-01,-8.13762e-02,-1.35119e-01,4.13813e-01,3.92308e-01,3.84758e-02,4.45911e-02,-1.82635e-01,-2.38726e-01,-1.99084e-02,2.00444e-01,-6.95486e-01,-1.35113e-01,2.11763e-01,3.01681e-01,1.87619e-01,5.88443e-02,1.25404e-01,-3.55850e-01,-2.26955e-01,-1.28494e-01,2.18876e-01,-4.55966e-01,6.24951e-02,2.57475e-01,-1.82983e-01,1.15234e-01,1.18154e-01,-1.83953e-01,4.51404e-02,1.43652e-01,
-5.40935e-02,-2.63437e-01,-5.44323e-01,-6.26466e-01,-1.65568e-01,4.03000e-01,-2.28168e-01,3.82946e-01,3.33604e-01,-2.44639e-01,2.83823e-01,-7.16588e-02,1.25574e-01,2.29091e-01,2.92914e-02,3.17953e-02,-9.91977e-02,1.18563e-01,1.14958e-01,1.07709e-01,-1.62014e-01,-1.84492e-01,3.85012e-02,-9.53624e-03,1.14652e-02,-3.45109e-01,4.46320e-01,1.79757e-01,3.66384e-02,-1.27971e-01,-4.68299e-02,1.30165e-01,6.28564e-02,-3.13947e-01,-6.26007e-02,-3.02604e-01,-6.74058e-02,-4.29536e-01,-7.76558e-02,-3.30203e-02,-2.88928e-01,1.93102e-01,-1.71676e-01,-1.00183e-01,-1.29077e-01,
-1.48673e-01,8.88715e-03,2.31592e-01,2.43936e-01,-6.27561e-02,6.45817e-02,-2.33940e-01,2.89529e-01,-2.80621e-01,1.10389e-02,2.51850e-01,9.40297e-02,1.81404e-01,-1.62057e-01,2.01236e-01,1.58666e-01,-3.26657e-01,2.54793e-01,-3.00678e-01,6.37546e-02,5.70810e-02,3.03067e-02,1.54885e-01,2.19600e-01,3.79140e-01,1.69007e-01,5.52414e-01,-1.38602e-01,-3.41229e-01,-1.43994e-01,-9.16796e-02,3.44621e-01,3.70602e-01,-1.15446e-01,-2.54848e-01,-3.24135e-02,-1.14348e-01,9.05132e-02,-2.25679e-01,1.44344e-01,8.23587e-02,-5.96182e-02,1.29982e-01,-5.73579e-02,-2.05643e-01,
-1.44482e-01,1.38822e-01,4.07602e-02,1.23540e-01,6.56976e-02,-2.79534e-02,-1.82072e-01,2.03297e-02,2.67704e-02,1.02912e-01,1.65324e-01,6.06241e-02,-2.03202e-01,2.06870e-01,-1.05673e-01,1.57476e-01,-1.13140e-01,-1.33567e-01,2.46288e-01,1.24645e-02,1.98437e-01,9.83079e-02,-1.66332e-01,-1.99738e-02,-2.64692e-01,-2.38835e-01,-7.94992e-02,-2.29614e-01,4.14241e-02,-2.02263e-01,-8.04573e-04,-1.22953e-01,-2.04498e-01,-2.42631e-01,-1.48660e-01,4.10564e-02,-2.37017e-01,1.28494e-01,-1.92852e-01,3.27685e-03,-1.41930e-01,-7.78356e-02,1.25057e-01,1.16600e-01,1.04807e-02,
-1.33614e-01,-2.31282e-01,3.89453e-01,3.36071e-01,1.85773e-01,-1.68511e-01,9.84912e-03,2.16161e-02,-1.04370e-01,-2.43486e-01,3.56538e-01,-5.44821e-02,1.02738e-01,4.06017e-01,1.60843e-01,-3.59431e-01,-6.88625e-02,-1.61830e-01,1.13559e-02,2.98067e-01,3.73042e-02,6.99931e-02,-2.75245e-01,-1.30494e-01,-2.15953e-01,1.07362e-01,-1.19224e-01,-1.21808e-02,3.10590e-01,-1.76168e-02,-2.22058e-01,-7.44859e-02,-1.67127e-02,9.94663e-02,-8.79128e-02,1.20932e-01,3.56611e-02,2.88891e-01,4.10704e-02,2.93662e-01,-2.24763e-01,1.49997e-01,-7.68154e-02,2.92630e-01,-4.63104e-02,
4.31004e-03,5.50102e-01,3.60326e-01,-6.22944e-01,-2.07294e-01,1.69479e-01,1.11444e-01,1.30884e-01,-1.53267e-01,5.65286e-03,-3.47627e-01,2.61285e-01,-2.06992e-02,-5.32000e-01,-3.38413e-01,2.35215e-01,3.07050e-01,-7.12191e-02,3.94908e-02,-3.35365e-01,2.09695e-01,2.41732e-02,-4.25283e-02,-9.04790e-01,2.20652e-02,1.83549e-02,1.06381e-01,1.63533e-01,8.29685e-03,1.63903e-01,1.76573e-01,3.27984e-01,-5.04570e-02,-2.20397e-01,-1.57853e-01,2.47093e-01,7.71541e-02,-2.21088e-01,1.73708e-01,-1.05067e-01,1.67056e-01,3.39599e-02,1.97817e-01,-1.78659e-01,-1.64017e+00,
2.90419e-01,-2.17257e-01,2.82224e-01,1.62250e-01,-1.11805e-01,-7.99630e-02,4.22440e-02,-6.96993e-01,-2.97658e-01,-1.03777e-01,-4.06552e-01,-1.85524e-01,-4.15370e-02,3.22801e-01,1.57653e-01,-5.58419e-01,-1.14000e+00,-4.21345e-01,1.51235e-01,-1.33309e-02,4.64077e-02,1.75050e-01,6.78458e-02,2.83160e-01,-2.06962e-01,3.75330e-01,5.12834e-01,-1.89879e-02,-1.39032e-01,-2.08161e-01,9.13821e-02,-9.57841e-02,-3.72890e-02,-1.21106e-01,6.84036e-02,-3.00062e-01,-1.86758e-02,2.48275e-02,9.25291e-02,1.40569e-01,5.57363e-01,-8.29870e-02,-1.45588e-01,-3.09859e-01,2.66367e-01,
3.78224e-01,-4.21273e-01,-3.57777e-01,-3.84347e-01,-5.16843e-02,1.39837e-01,9.00272e-02,1.63882e-01,-2.78038e-02,8.89286e-02,1.15787e-01,4.89009e-02,-3.02264e-01,6.39016e-02,2.64410e-01,2.66439e-01,1.78326e-01,-1.57532e-01,2.98599e-02,-3.13736e-01,9.40943e-02,-1.51496e-01,2.96794e-01,1.84435e-01,-2.53226e-01,2.50249e-01,-4.54211e-01,-3.43342e-02,-6.28964e-02,2.14819e-01,-5.48371e-02,1.11164e-01,1.38278e-01,-1.40841e-01,1.50789e-01,2.57047e-02,2.41121e-02,3.20862e-02,1.36813e-01,2.21158e-01,2.08636e-01,-9.09373e-02,7.43626e-02,-3.74719e-03,-3.43356e-01,
-1.77463e-02,1.17278e-01,-2.03620e-03,1.75645e-01,-2.00513e-02,3.52826e-02,2.04963e-01,-2.12149e-01,1.81867e-01,-6.25839e-02,7.82748e-02,5.75355e-02,2.62327e-01,-3.41055e-01,1.68584e-02,1.14485e-01,-1.25386e-01,1.97672e-01,-3.33181e-02,-4.79675e-02,2.42867e-01,-1.23763e-01,2.85145e-01,-2.35137e-02,-7.49740e-04,3.91202e-01,-1.58390e-01,-3.47752e-02,-3.40739e-01,1.78544e-02,-2.00892e-01,-1.99472e-01,-1.11211e-01,-1.88699e-01,1.11217e-01,8.50634e-02,-1.14926e-01,1.28336e-01,-1.04577e-01,1.76703e-01,-9.92857e-02,-3.07901e-02,1.03026e-01,-2.12238e-01,2.62437e-01,
2.67928e-02,6.94338e-02,-8.75257e-02,1.80275e-01,9.02290e-02,5.88352e-02,-2.51547e-01,5.68243e-01,-1.34381e-01,-2.03678e-01,1.08479e-01,9.36338e-02,6.17073e-02,-1.13212e+00,1.60224e-01,-1.62756e-01,-2.86456e-01,3.06405e-01,2.52368e-01,1.24934e-01,-5.41650e-02,-1.96802e-02,-2.61731e-02,4.14602e-02,-1.03040e-01,-2.65596e-01,-4.69226e-01,-3.42894e-02,-1.38153e-01,-1.71465e-01,2.72088e-01,1.37903e-01,-1.48048e-01,6.21086e-02,-2.82584e-01,3.18548e-02,-4.04472e-02,1.43686e-01,-2.58280e-01,-6.76086e-02,2.12800e-01,2.13347e-01,-2.82605e-01,-2.57941e-01,-3.27051e-01,
-4.76458e-02,-1.33161e-01,-3.12813e-01,9.34149e-02,-1.38492e-01,4.93714e-01,4.02785e-02,6.14564e-01,2.10966e-01,2.45428e-01,1.12891e-01,-2.64744e-01,-2.06028e-02,3.42084e-02,-1.55543e-01,-5.86109e-02,3.62184e-02,1.59064e-01,-1.14767e-01,1.90431e-01,2.42378e-01,-2.06925e-02,8.27382e-02,-9.44041e-02,1.65939e-01,-4.38100e-01,-4.93405e-01,2.34209e-01,9.93752e-02,8.18506e-02,-2.33027e-02,1.76434e-01,-4.65120e-01,-9.38276e-02,-4.14638e-01,3.09314e-01,-9.10787e-03,4.75321e-01,2.29282e-01,1.37537e-01,3.66447e-02,2.37037e-01,-3.84544e-01,1.51196e-01,-2.66148e-01,
-2.81189e-01,1.67684e-01,1.94038e-01,-2.11438e-01,-1.72794e-01,1.90774e-01,1.25458e-01,-1.02726e-01,1.76655e-01,-3.58932e-01,-5.40917e-01,2.23985e-01,-8.06366e-02,7.83249e-02,-1.66537e-01,2.73797e-01,7.65142e-04,-1.44819e-01,-1.03884e-01,1.68467e-01,1.84915e-01,-1.79034e-01,-3.13096e-01,1.60169e-03,3.54982e-01,-3.47870e-01,-1.40731e-01,7.07789e-03,-2.31911e-01,9.38709e-02,1.50109e-01,-5.01871e-02,-9.09706e-02,1.80565e-02,-2.40610e-01,1.65509e-01,-4.02354e-01,-3.02980e-01,2.03954e-01,-3.18098e-01,-4.39358e-01,2.61376e-01,2.16705e-01,-3.31210e-02,2.81503e-01,
3.99819e-01,-3.03101e-02,-2.00428e+00,2.66830e-01,4.11848e-02,5.31889e-02,-5.07763e-02,2.51380e-01,8.26608e-02,-3.48835e-01,-1.70873e-01,9.26336e-03,-6.40974e-02,8.29119e-02,-1.15868e-01,1.59205e-01,6.78512e-03,1.11637e-01,1.18049e-01,-2.07899e-01,-1.09709e-01,-2.91472e-01,2.92500e-01,1.89239e-01,-4.37617e-01,-3.13531e-01,-2.48642e-01,-9.52518e-02,-4.27664e-02,-3.41123e-02,-7.52563e-01,-3.36226e-02,-2.09058e-01,-7.33095e-01,-1.87838e-01,-2.72116e-01,8.48443e-02,5.16882e-01,1.61817e-02,6.88131e-02,-1.02653e-02,-4.08375e-02,4.21010e-02,-4.61188e-02,3.51505e-01,
2.23600e-01,-5.19116e-01,-3.94208e-01,-3.26257e-01,-4.52966e-01,3.50004e-01,-1.94184e-01,4.99021e-01,3.11484e-01,-9.35194e-01,-2.07602e-02,-1.67086e-01,1.96946e-02,-1.86078e-01,-3.67655e-01,2.89796e-02,1.08630e-01,2.07679e-01,1.69462e-01,1.11296e-01,2.07850e-01,-3.49015e-01,-1.99320e-01,-1.24177e-01,-1.15963e-01,-3.03425e-01,-5.62225e-01,3.09579e-02,2.11777e-01,-3.71396e-02,-3.95421e-03,-2.21045e-01,-1.85757e-01,-1.77771e-01,-2.42255e-01,-1.26295e-01,-3.38658e-02,-1.37255e-01,1.36061e-02,1.12800e-01,1.97334e-01,3.27359e-01,-1.59973e-01,-9.69509e-02,-2.37676e-01,
-4.29843e-02,-1.56409e-01,3.40736e-01,-3.18201e-02,-3.94931e-03,-1.08472e+00,1.92165e-01,-7.21918e-01,-2.13218e-01,3.10116e-01,-2.04974e-02,-1.15760e-01,8.82614e-02,1.00758e-01,4.79249e-02,-2.59469e-01,1.39937e-02,-3.75006e-01,-2.39147e-01,4.38885e-02,-3.34066e-02,-6.82946e-02,1.62406e-01,-6.33780e-02,-3.56543e-02,1.04821e-01,2.87745e-01,1.52672e-01,-1.42159e-01,-5.37248e-01,1.91131e-01,-6.67126e-02,-1.98149e-02,2.11483e-01,-3.19478e-02,1.25072e-01,7.46113e-02,-2.53531e-01,-5.52569e-03,2.18548e-01,8.65092e-02,-4.48511e-01,1.17587e-01,2.80249e-02,2.08800e-01,
-3.82144e-01,-2.09697e-01,-5.13943e-02,-1.18530e-01,5.87523e-02,2.91933e-02,1.23668e-01,1.82091e-01,2.23251e-01,-3.38693e-03,6.10517e-02,2.00642e-01,1.96318e-01,5.68236e-02,1.33370e-01,4.01517e-01,-4.33295e-01,-6.13255e-02,-2.03864e-01,1.63379e-02,-2.55777e-01,7.22507e-02,-2.14114e-02,-3.32314e-01,-7.05849e-02,-5.21129e-01,-2.10437e-01,-5.11426e-03,3.15379e-01,-2.65467e-01,1.33938e-01,-3.15763e-01,-2.20455e-01,-1.75603e-01,-1.27024e-01,2.04550e-01,-1.79627e-01,-2.20276e-01,1.78994e-01,-1.01813e-01,1.35763e-01,-1.72767e-01,2.35714e-01,2.08953e-01,2.94308e-01,
-1.23843e-02,-3.25307e-02,2.83696e-01,7.91757e-02,1.04865e-01,1.58913e-01,9.78285e-02,-2.61914e-01,5.72144e-02,-2.07645e-01,-4.01641e-02,1.50925e-01,5.25788e-02,-1.45828e-01,-1.23764e-01,3.60857e-02,1.82876e-01,-5.54196e-02,-1.76407e-01,-1.91154e-01,7.15593e-02,-2.48426e-02,1.75515e-01,3.24474e-01,-1.34807e-01,1.59841e-02,-2.04458e-02,2.07765e-01,-1.93851e-01,9.64013e-02,2.53009e-01,-3.39825e-02,1.75785e-01,3.39711e-02,1.90933e-01,-2.77188e-01,1.60304e-01,7.58214e-02,-1.47635e-01,5.05211e-02,9.17979e-02,4.62737e-02,4.82676e-02,1.05857e-02,-1.88411e-01,
-6.41152e-02,1.60071e-01,7.81487e-02,1.41719e-01,1.76973e-01,-4.06260e-01,-2.89890e-01,-7.11742e-01,-8.64445e-02,4.90323e-02,-1.89122e-01,3.61050e-01,4.85420e-02,1.60042e-01,-2.03236e-01,-3.07605e-01,1.59897e-01,-7.34431e-02,-5.13058e-02,-1.53759e-01,1.35422e-01,1.57517e-01,-4.32563e-02,2.09174e-01,6.26098e-02,3.15526e-01,2.27639e-01,-1.41442e-02,-1.92917e-01,-3.31023e-01,-2.98712e-01,-8.01175e-02,-9.15789e-02,1.96367e-01,1.49601e-01,4.65523e-02,-5.15164e-02,1.62809e-01,7.04872e-02,2.74799e-01,2.38195e-01,5.01787e-02,-8.40038e-03,-3.92744e-02,-5.10584e-02,
-1.83904e-02,1.30214e-01,-5.64782e-02,2.36772e-01,5.43264e-02,2.24229e-01,1.11381e-01,5.81124e-01,9.74970e-02,-9.24187e-04,-1.16110e-01,2.97015e-01,2.76940e-01,-3.57124e-02,8.68381e-03,-1.02495e-02,1.90121e-01,-7.56544e-02,-1.60884e-01,1.47059e-01,-1.83084e-02,-1.11041e-01,2.14399e-01,-1.63881e-01,3.65202e-02,-5.32088e-02,6.81367e-01,-1.76764e-01,-6.43340e-02,-2.14357e-01,-2.28648e-01,3.14580e-01,8.97128e-02,8.98796e-02,1.05980e-02,-2.03709e-01,-2.04780e-01,6.12136e-03,-2.44297e-01,2.00478e-01,1.26463e-01,-8.77312e-02,1.12024e-01,-2.41231e-02,-2.10914e-03,
2.08351e-01,3.82995e-01,-7.14943e-02,5.98309e-02,-2.22352e-01,5.42500e-01,3.66457e-01,-3.72432e-02,7.47436e-02,-3.01378e-01,-8.70359e-02,2.90576e-01,-9.02400e-02,-6.97007e-02,1.96548e-01,1.02071e-03,5.37173e-02,1.77597e-02,-2.68766e-02,5.90041e-02,2.29181e-01,-2.15934e-01,9.85661e-02,-1.87825e-01,3.46387e-02,-3.75803e-02,6.54415e-01,-1.63069e-01,3.78546e-02,-1.87604e-01,1.20188e-01,8.09013e-02,3.05388e-01,1.86832e-02,4.25832e-02,1.88203e-01,-5.19399e-03,-3.92559e-02,2.37751e-01,1.72907e-02,3.57941e-03,1.96664e-01,8.71604e-02,6.12757e-02,-3.49404e-01,
-2.82081e-02,-5.88545e-02,3.83329e-01,-8.90192e-03,-1.03162e-01,6.58948e-02,-3.28477e-01,-5.05316e-01,1.77693e-01,-1.35927e-02,-4.32402e-02,1.42384e-01,-2.27690e-01,-2.65584e-01,1.69539e-01,-2.09315e-01,1.66943e-01,-2.54072e-01,-1.80572e-01,4.52960e-02,-6.55821e-02,1.74211e-01,-2.70481e-02,4.39613e-01,-1.30789e-01,2.08702e-01,6.45767e-01,-5.06589e-02,-2.28698e-01,9.62850e-02,3.12260e-01,7.22399e-02,8.90262e-02,-2.26654e-01,1.81695e-01,1.82863e-02,2.81045e-01,-1.92850e-01,-1.02770e-01,-2.29093e-01,8.76497e-02,-9.53849e-02,1.42586e-01,-8.97450e-03,3.21248e-01,
-5.45612e-01,-3.98379e-01,7.76367e-02,4.30447e-01,1.66253e-01,-2.89953e-01,-7.10748e-02,-4.86999e-01,-1.37784e-01,2.59660e-01,-5.82382e-02,-6.46675e-01,-1.30496e-01,-4.09012e-02,3.00702e-01,3.82540e-01,-1.02211e-01,-2.57531e-01,-1.95948e-01,-9.22285e-02,-1.70036e-01,9.13439e-03,1.20461e-02,1.05453e-01,1.99636e-01,2.50886e-01,7.71861e-01,-1.99601e-02,-1.48143e-01,-8.72693e-02,7.08516e-02,1.64594e-01,2.67126e-01,-9.24080e-03,2.84092e-02,1.73760e-01,1.13222e-01,1.80997e-01,1.22391e-01,2.29406e-01,-6.16221e-01,-3.44025e-02,2.02871e-02,-1.92710e-01,2.81213e-01,
1.10866e-01,
6.36492e-02,
5.13529e-02,
1.69477e-02,
-3.12220e-01,
3.96167e-02,
7.13127e-03,
-7.40903e-04,
2.00373e-02,
-3.99894e-02,
2.58149e-02,
5.41052e-02,
-1.14012e-02,
3.34119e-02,
-4.02753e-02,
-2.89783e-02,
4.15144e-02,
8.25826e-02,
5.66820e-02,
2.43933e-02,
-1.40951e-01,
5.73052e-02,
1.52975e-02,
-1.95709e-03,
2.45449e-03,
-7.01429e-02,
-3.37927e-02,
5.12372e-02,
-4.17645e-02,
-2.20134e-02,
4.94551e-02,
5.59076e-02,
1.11002e-03,
-5.55576e-02,
-6.02661e-02,
6.03852e-02,
2.64587e-02,
1.67719e-02,
1.93940e-03,
1.17146e-02,
2.71352e-02,
1.59161e-02,
-1.29212e-04,
9.55301e-03,
1.30312e-02,
2.91340e-01,-1.05287e-01,1.07492e-01,8.03600e-02,-7.57583e-01,1.19035e-01,1.47970e-01,8.31827e-02,-1.57265e-01,-3.05872e-03,-3.81736e-01,-3.01428e-02,-9.66139e-01,3.15212e-01,1.75426e-01,2.62305e-01,-8.16383e-02,-9.28361e-02,-3.39710e-01,1.25102e-01,-4.59448e-02,2.96045e-02,-7.19155e-02,1.34785e-01,1.07731e-02,2.09069e-01,1.43945e-01,-3.56925e-01,5.92864e-01,-1.02810e-01,1.69249e-01,-6.62741e-02,-3.03857e-01,2.18096e-01,-2.93717e-01,2.55615e-03,-7.71067e-02,-1.07794e-01,-1.60713e-01,-1.20828e-01,1.75107e-01,9.41525e-02,2.69294e-02,1.11446e-01,2.15032e-01,
-9.99903e-02,4.21550e-03,1.39373e-01,1.74636e-01,-1.23683e-01,1.44813e-01,2.18295e-01,-7.55595e-02,2.30321e-01,-6.56473e-02,3.63019e-02,-1.38166e-01,8.36035e-02,1.47964e-01,-1.02941e-01,-2.52892e-01,7.42692e-02,-2.89998e-01,-3.86244e-02,1.00095e-01,2.72686e-01,-4.48210e-02,-1.03080e-01,1.24784e-01,5.55353e-02,7.88900e-02,4.81658e-02,-5.23103e-02,6.68537e-01,-1.28143e-01,3.32596e-01,-2.64249e-01,-1.79288e-01,-2.51191e-02,2.20983e-01,1.45357e-02,-4.11249e-02,3.66848e-01,-1.80157e-01,2.19660e-01,2.24239e-02,1.42450e-01,2.51191e-01,-1.12426e-01,3.73042e-01,
1.15815e-01,3.69201e-01,1.00419e-01,1.53245e-01,1.15769e+00,2.89282e-01,-2.31079e-02,3.11509e-01,-2.51039e-02,2.33790e-01,-1.24137e-01,2.21786e-01,4.71485e-02,1.45058e-01,9.47910e-02,-6.03662e-02,5.03323e-01,-1.76600e-01,2.29776e-02,2.64913e-01,-5.14887e-01,1.36335e-02,-1.50500e-01,-7.43880e-02,2.82421e-01,-1.69751e-01,9.74691e-02,-4.19098e-01,-1.99590e-01,1.60298e-01,2.47969e-01,6.16690e-02,-1.62021e-01,1.62276e-01,7.22388e-03,8.32053e-02,1.30227e-01,1.02919e-01,1.99230e-01,1.02267e-01,-8.72933e-02,-1.79553e-01,-3.76275e-02,1.36433e-01,-4.26119e-01,
-2.85669e-02,1.49351e-01,1.97323e-01,-2.50420e-01,-1.25109e-02,-1.86780e-01,-3.01370e-01,-1.02552e-01,1.74298e-02,-2.45687e-02,2.14779e-01,6.03063e-02,-2.78521e-01,-6.28796e-02,-6.13575e-02,8.39235e-02,-2.66003e-01,2.91083e-02,1.19833e-02,3.91597e-01,-3.11817e-01,-6.08210e-02,2.86781e-01,3.57932e-02,-3.56978e-01,2.87600e-01,1.62289e-02,1.55560e-01,-2.45869e-01,4.19592e-01,9.87753e-02,2.29841e-01,2.82404e-01,-2.29402e-01,-3.41950e-01,-4.72839e-01,1.08750e-01,-2.71795e-01,-2.77912e-01,1.01897e-01,-2.70889e-01,1.31324e-01,1.61470e-02,1.27668e-01,1.96950e-01,
1.77855e-01,5.83880e-02,-2.85779e-01,-2.86695e-01,1.63900e+00,-2.05482e-01,-3.24615e-01,1.56661e-01,7.90011e-02,2.15008e-02,-4.90754e-01,2.82304e-01,-9.72662e-02,-2.51657e-01,2.83866e-03,-8.48872e-02,1.10022e-01,1.23269e-01,1.49552e-01,3.42193e-01,5.95529e-01,1.26005e-01,9.92604e-02,-3.93604e-01,6.04142e-02,2.54960e-01,-2.16961e-01,1.28764e-01,1.05111e-02,3.21809e-01,3.14597e-02,1.59630e-01,2.25385e-01,1.26185e-01,1.95787e-01,-5.83375e-01,1.34063e-01,-2.53601e-01,2.77980e-01,-1.83998e-01,-4.43938e-02,2.18047e-01,2.40416e-02,-2.80782e-01,-2.33300e-01,
-1.54396e-01,3.63728e-02,1.20572e-01,1.36375e-01,1.61396e+00,4.91004e-02,2.90086e-01,-5.75445e-03,-9.31427e-02,2.10986e-01,-1.23094e-01,-1.64676e-01,-7.06649e-01,7.68889e-02,3.53948e-02,-6.36646e-02,-2.67448e-01,3.46976e-01,-2.39173e-01,2.05119e-01,6.10820e-01,1.09634e-01,2.65462e-01,-1.35495e-01,7.61121e-02,2.28883e-01,-1.22859e-01,-8.61966e-02,7.17403e-01,-3.39146e-02,-2.04844e-01,4.40552e-02,1.07292e-01,-2.74909e-01,-3.08695e-01,-8.48015e-02,-5.67670e-02,-4.71831e-01,-8.26355e-02,2.29443e-01,-1.90023e-01,1.95891e-01,2.46256e-01,-2.50094e-01,-2.18339e-01,
-2.53448e-01,-9.28098e-02,-2.47772e-01,-2.10150e-01,-2.16253e-01,-1.27940e-01,-1.07839e-01,1.38236e-01,1.31429e-01,7.66645e-02,-2.20392e-01,1.55933e-02,-2.14897e-01,-2.54342e-01,6.96873e-02,-1.97931e-01,5.13261e-02,1.36389e-01,-2.81934e-01,-2.30692e-01,-2.63578e-02,-4.64145e-02,4.56222e-02,-1.81450e-01,-1.47189e-01,1.03195e-01,1.40546e-01,-3.99702e-03,-1.74777e-01,-1.64237e-01,-1.48740e-01,-2.42180e-01,1.51475e-01,1.01862e-01,1.76536e-01,1.38941e-01,2.10183e-01,-9.92597e-02,-1.87156e-01,2.03946e-01,3.69160e-02,-1.66779e-01,4.42913e-02,2.33961e-01,-2.54375e-01,
1.51201e-01,8.01832e-02,-3.10064e-02,-1.21504e-01,4.92621e-01,-1.96059e-01,-1.92595e-01,-1.14831e-02,6.44736e-02,4.76587e-02,-2.15091e-01,9.97742e-02,8.52615e-02,1.23271e-02,-1.86980e-01,-3.00834e-02,1.10327e-01,2.72790e-01,-7.11509e-02,5.11488e-02,1.63405e-01,3.42296e-01,1.50143e-01,2.28154e-01,-2.35697e-02,2.62951e-02,1.49266e-01,1.47509e-01,2.96542e-01,-1.35342e-01,2.53420e-03,2.88582e-01,4.47624e-01,-3.00940e-01,2.34468e-02,-9.19837e-02,1.98587e-01,-3.74553e-01,-1.66480e-01,1.77203e-02,1.17278e-01,2.65679e-02,-2.05562e-01,1.56586e-01,4.94308e-02,
-8.45058e-02,1.52138e-01,3.62402e-02,-3.75503e-01,2.06341e-01,-1.68956e-01,-3.24805e-02,4.13103e-01,2.71855e-03,-1.74084e-01,1.19047e-01,1.24836e-01,-1.57309e-02,-1.26197e-01,2.53015e-01,4.40755e-01,1.59755e-01,1.13443e-01,2.73419e-01,-1.63678e-01,4.92829e-02,1.39573e-01,1.21298e-01,2.82074e-02,-4.28669e-01,-2.27821e-01,1.21306e-01,-6.91190e-02,-7.31146e-02,2.06392e-01,-1.12475e-01,1.07266e-01,1.53834e-01,-1.17977e-01,-4.61491e-02,-4.47918e-01,2.65579e-01,-3.52264e-02,-1.79746e-01,1.05896e-01,2.49828e-01,-6.16950e-02,1.76511e-01,1.52724e-01,-2.06910e-01,
-1.04119e-01,1.18175e-01,-1.43896e-01,2.48591e-01,6.94276e-01,-2.69888e-01,-2.99166e-01,-1.70255e-01,-7.70007e-02,9.50402e-02,1.09632e-01,1.21548e-01,-1.89705e-01,-1.21375e-01,2.41806e-02,2.84332e-01,-1.21995e-01,3.44727e-01,-6.98461e-02,2.61676e-01,-4.82395e-02,1.97421e-01,1.33743e-01,-2.04712e-01,-2.16997e-01,1.12570e-01,-2.03582e-02,3.86794e-02,-4.81561e-02,1.02726e-01,-1.58044e-01,2.65074e-01,-8.14862e-02,-7.62969e-02,1.27932e-01,-2.48566e-01,-2.65593e-02,-3.27805e-01,1.33595e-01,1.36954e-01,4.23176e-02,2.70566e-02,2.55400e-01,4.99315e-02,9.58755e-02,
-4.19295e-02,1.55318e-01,4.26555e-01,2.36713e-02,-5.24316e-02,-6.99448e-02,2.65427e-01,2.12949e-01,-2.98777e-01,-1.03173e-02,-2.68037e-02,-2.04561e-01,4.40762e-02,1.94826e-01,2.27424e-01,1.63031e-01,-1.55325e-01,-1.24174e-01,-3.59097e-01,5.79273e-02,1.82165e-01,-1.72845e-01,1.91149e-01,3.31461e-03,9.31169e-03,5.15639e-03,-1.90860e-01,-2.79883e-01,1.03357e-01,8.38180e-02,-1.16214e-01,1.06930e-03,-5.12402e-02,9.88734e-02,-2.32308e-01,5.24858e-01,-1.25497e-01,-3.35534e-01,-7.79867e-02,-1.83058e-01,5.81975e-02,2.54304e-01,2.03265e-01,-1.41400e-01,-4.42469e-01,
-1.20963e-01,-1.27287e-01,-1.34153e-01,-6.12317e-02,-2.19139e-01,6.80263e-02,4.55620e-02,-3.52321e-03,-2.42541e-01,-5.56556e-02,-4.50968e-02,-1.87482e-01,-2.13821e-01,-1.69014e-02,8.81911e-02,2.28326e-01,4.13302e-03,2.09316e-01,2.13882e-01,-1.00096e-01,1.04440e-02,-1.87592e-02,-1.74741e-01,-5.84047e-02,-4.83899e-02,-1.38381e-01,-1.66448e-01,-1.12857e-01,-1.68914e-01,-3.27435e-02,-1.47585e-01,2.71178e-02,-2.22560e-01,-9.85881e-02,2.66062e-02,-1.13319e-01,-1.43817e-02,4.27774e-02,-1.48508e-03,4.35961e-03,-8.14860e-02,-1.09076e-01,-8.94066e-02,1.41298e-01,-1.57154e-01,
6.34696e-02,2.25091e-01,-1.39408e-01,-3.52100e-01,7.18540e-01,-2.21374e-02,-5.97740e-01,3.37333e-01,1.32556e-01,2.42288e-01,-3.79393e-01,4.39698e-01,-2.89657e-02,-2.03162e-01,1.41180e-01,-2.95450e-01,-8.22639e-02,2.43403e-01,-1.34188e-01,2.14576e-01,6.74035e-01,2.69742e-01,7.53965e-02,-4.11506e-01,9.32562e-02,-1.12001e-01,-2.24106e-01,1.85310e-01,1.79272e-01,3.18809e-01,-2.73061e-02,7.56022e-02,2.34290e-01,-3.29134e-02,-3.96676e-02,-1.64723e-01,-2.07487e-01,-3.62988e-01,3.49218e-02,-1.22503e-01,3.23323e-02,-1.84257e-02,2.79088e-01,-1.82579e-01,-1.61700e-01,
7.08214e-02,2.27421e-01,-3.03907e-02,4.55626e-02,2.12065e+00,1.69373e-01,-1.17735e-01,4.66079e-02,-2.18652e-01,-1.63533e-02,-3.31323e-01,-1.17752e-01,-5.30294e-02,-1.13457e+00,2.69136e-01,3.21929e-01,-1.23132e-01,6.71952e-02,-2.00107e-01,-1.72597e-01,9.67027e-01,1.00718e-02,-1.27060e-01,1.74101e-01,3.26053e-01,1.35881e-01,-1.14846e-01,-1.22777e-01,2.50975e-02,-2.36292e-01,1.09654e-01,2.39917e-01,-4.23512e-03,-2.73957e-01,1.31111e-01,8.89048e-01,1.04786e-01,1.25668e-01,2.53884e-01,-3.49543e-02,-2.42852e-01,8.08220e-02,-6.53018e-02,1.15874e-01,3.12146e-02,
1.22072e-01,1.10959e-01,2.19354e-01,-1.37772e-01,-2.38185e-01,-8.57774e-02,-1.48965e-01,1.21703e-02,1.32356e-01,-2.37589e-01,-6.16680e-02,2.57363e-01,-2.47890e-02,-2.33328e-03,4.08528e-02,-1.18363e-01,-3.72905e-01,3.60364e-01,-4.62275e-02,4.33407e-02,2.89852e-01,-4.24676e-03,1.04450e-01,-1.81855e+00,-4.72839e-01,9.92435e-02,1.98663e-01,5.65845e-02,-1.49428e-01,1.33869e-01,1.20511e-01,2.42543e-01,3.70902e-02,-7.61169e-01,-5.31180e-01,-9.33650e-02,-6.20203e-01,-3.20977e-01,6.20613e-02,1.02373e-01,-3.41236e-02,5.94739e-02,-2.98970e-01,2.30103e-02,1.98200e-01,
-8.08874e-01,1.00449e-01,1.04275e-01,-2.94523e-01,-1.91699e-01,-1.12421e-01,7.36613e-02,-3.49113e-01,1.35093e-01,2.24452e-01,-6.74296e-02,-3.88141e-01,9.36945e-02,-1.39982e-01,-1.42885e-01,5.10618e-02,-3.14302e-02,1.29349e-01,-2.32965e-02,-3.66799e-01,2.39014e-01,-9.71455e-02,-1.73414e-01,-1.86097e-01,-3.24180e-02,4.73413e-01,8.02951e-02,1.21815e-01,3.49500e-03,5.77432e-02,-4.16654e-01,-9.03465e-04,6.25043e-02,-1.12116e-01,-4.48242e-01,8.52877e-02,-2.43943e+00,-2.69575e-01,-2.09816e-01,-2.54103e-01,1.68244e-01,2.63853e-01,3.13768e-01,2.80446e-02,1.65346e-01,
-1.28364e-02,1.21276e-01,9.06665e-02,-2.89935e-01,-1.08006e+00,8.06335e-02,-4.95768e-01,2.58541e-01,2.17256e-01,-1.16684e-01,-3.74556e-01,2.27683e-01,-4.02031e-01,-5.97215e-01,5.68265e-02,-6.04352e-02,-1.31143e-01,4.22529e-01,-5.03727e-02,8.69105e-02,6.15238e-01,3.85565e-01,-1.10391e-02,-5.21871e-02,1.98518e-01,2.93932e-01,-2.03660e-01,-2.39146e-01,-1.76098e-01,3.41408e-01,-9.46286e-02,4.54743e-03,4.83496e-01,2.05201e-01,-1.50904e-01,-3.26442e-02,-3.92842e-02,-7.29156e-01,-1.71286e-01,-6.90482e-02,-1.15655e-01,5.56358e-02,8.82955e-02,-3.98473e-01,-2.56619e-01,
1.25344e-01,3.58290e-01,-2.14269e-01,-1.35299e-01,1.38667e-01,5.69602e-02,-5.73783e-03,-2.15139e-01,-4.97437e-03,-2.64787e-01,1.07505e-01,3.35177e-01,1.40143e-01,2.53626e-01,-4.66401e-02,-2.31975e-01,-1.95839e-01,1.18852e-01,4.48060e-02,6.41334e-02,2.86040e-02,-2.26249e-01,1.22971e-01,-2.93104e-02,-2.85586e-02,-2.21443e-01,2.29424e-01,-1.74193e-01,-1.51617e-02,-2.40798e-02,1.94804e-01,-5.94632e-04,2.54031e-01,-7.32877e-02,3.02342e-01,-3.66532e-01,2.92983e-01,-1.40037e-01,2.70592e-01,2.12500e-01,4.70100e-01,1.74930e-02,1.87888e-01,-8.28198e-02,-4.33870e-01,
-3.75228e-01,-5.16390e-02,2.91507e-01,1.45317e-01,1.55949e+00,-2.21452e-02,6.05331e-02,-5.98265e-02,6.88118e-02,1.17282e-01,3.45071e-01,-6.53531e-03,-7.05486e-02,2.91702e-01,2.20157e-02,-1.21126e-01,-1.78361e-01,1.46641e-01,-1.56126e-01,1.68089e-02,-7.36359e-03,-1.87497e-01,-8.67845e-03,3.21371e-01,-7.56744e-02,3.70151e-01,1.51815e-01,-2.32266e-01,3.62417e-02,-1.85579e-01,1.08950e-01,1.20902e-01,8.01103e-02,-4.05280e-01,2.32993e-01,4.11905e-03,-2.28973e-01,3.52815e-01,-8.43413e-02,9.64876e-03,2.41287e-01,-2.03436e-01,-9.31188e-03,9.65481e-02,2.42418e-01,
-1.08323e-01,-1.63091e-01,-1.17974e-01,-4.97180e-02,7.35401e-01,1.10587e-01,-1.44147e-02,-6.82281e-02,-7.15120e-02,-2.72581e-02,-2.84709e-01,-2.09557e-01,-1.44768e-01,4.16245e-02,5.03850e-03,1.28098e-01,5.03799e-02,2.61033e-01,1.14065e-01,-3.13798e-01,-1.40063e-01,1.20842e-01,1.09371e-01,-4.28898e-02,-1.12691e-02,-1.85387e-01,9.63755e-02,-2.41006e-01,6.03861e-01,1.05176e-01,1.36929e-01,1.11843e-01,-9.75148e-02,-6.00037e-02,-2.83759e-01,3.40680e-02,4.45848e-02,-1.30952e-01,1.35410e-01,1.54880e-01,2.51471e-01,2.95613e-01,6.03947e-02,-8.63912e-03,2.01791e-01,
1.17616e-01,3.06666e-04,-2.97808e-02,8.12654e-03,1.24457e+00,2.46916e-02,2.29364e-01,5.33139e-02,1.59161e-01,6.88056e-02,-2.72390e-01,-2.68588e-02,-3.69524e-04,-6.46440e-02,-1.98825e-01,-3.03127e-01,-1.82775e-01,-2.76469e-01,1.35059e-01,1.86372e-01,-3.77575e-02,-1.20440e-01,4.24210e-02,-1.47485e-01,-5.21245e-02,-1.31416e-02,1.12407e-01,2.30632e-01,7.34965e-02,1.12789e-01,1.76757e-01,1.62963e-02,1.04641e-01,2.35115e-01,2.74374e-01,2.60297e-01,-4.54178e-01,1.73865e-02,-9.70372e-02,-2.65781e-01,2.62456e-01,1.86170e-01,-5.29111e-02,7.69647e-02,-5.75019e-02,
4.22285e-01,3.46008e-01,-1.64618e-01,-9.86398e-02,1.23737e+00,-1.17949e-01,-2.67138e-02,9.83810e-02,-3.93704e-01,1.58069e-01,1.73431e-01,3.40612e-01,-1.07726e+00,8.61640e-02,-1.81791e-01,-4.01113e-01,1.61022e-01,3.33844e-02,-1.56682e-01,1.18608e-01,-1.18748e+00,-2.40287e-01,4.77499e-02,1.38856e-01,2.45284e-01,7.65447e-02,-5.25965e-02,-3.13637e-01,-2.70776e-01,6.71108e-01,1.73329e-01,1.10105e-01,2.02307e-01,-2.49478e-01,2.05437e-02,-2.11815e-02,-2.00459e-01,-9.65035e-02,2.84768e-01,1.33753e-01,5.91474e-02,-8.84335e-02,9.37229e-02,-4.79984e-02,-5.59825e-01,
2.23846e-01,-1.40566e-01,-1.13517e-01,1.53884e-01,2.98707e-01,-1.72848e-01,3.12483e-01,-1.04762e-01,-1.78865e-01,1.04629e-01,1.61145e-01,1.73459e-02,-2.05786e-01,3.67371e-02,4.36428e-02,4.93564e-02,-1.84156e-01,6.23408e-02,-1.10808e-01,8.48732e-02,1.32332e-03,-2.74627e-02,2.11872e-01,7.57895e-02,-1.85504e+00,-1.52553e-01,1.66309e-02,3.25840e-01,-8.08358e-02,6.00001e-04,-1.25745e-01,-5.61331e-02,-9.39961e-02,-6.85099e-02,-2.78755e-01,7.06920e-01,-3.15359e-01,1.11892e-01,8.03559e-02,-2.24096e-01,2.45021e-01,2.31462e-01,-2.84302e-01,-3.18651e-01,8.57525e-02,
2.30733e-01,-6.80273e-02,-7.86731e-02,-2.02054e-01,-4.45669e-01,8.87165e-03,-2.17577e-01,6.65085e-02,1.28351e-01,1.16774e-01,1.52042e-01,2.26904e-01,-2.30114e-01,1.22663e-01,1.61046e-01,-1.14100e-02,1.25447e-01,-1.11457e-01,2.12605e-01,-9.99172e-02,1.62744e-01,-2.40631e-01,9.79550e-02,4.29486e-01,3.94296e-02,2.63829e-02,2.21545e-01,1.46471e-01,-6.49715e-01,6.88208e-02,-9.50635e-02,-4.35877e-02,-1.71841e-01,-1.51348e-01,-2.03531e-02,-4.50349e-02,4.38385e-01,-1.63496e-01,-2.61798e-01,-1.95476e-01,1.12953e-01,2.17606e-01,-1.00730e-02,-9.69877e-02,-1.86363e-01,
1.27520e-01,-1.74926e-01,1.86713e-01,1.65298e-01,3.87283e-01,-3.11357e-02,-2.03422e-01,-5.75086e-01,9.92927e-02,-8.13870e-02,2.25886e-01,2.93697e-02,-3.03872e-02,-9.26012e-03,-5.26173e-03,-7.88193e-02,2.20574e-01,-1.86655e-01,2.65804e-03,-8.61800e-02,6.49645e-02,-4.32167e-02,2.01993e-01,-1.35588e-01,-1.21196e-01,-6.76723e-02,-2.44249e-01,2.28269e-01,-1.19074e+00,-1.10802e-01,-4.69412e-03,1.50264e-01,-7.63625e-02,-1.34109e-02,-5.28215e-01,1.20858e-01,1.96368e-01,-8.40551e-02,1.35641e-02,-1.19928e-01,-6.97702e-02,7.75039e-03,1.54840e-01,9.71790e-02,-1.28730e-01,
-1.59984e-01,-6.34421e-02,-5.56395e-02,1.51677e-01,5.67302e-01,1.92320e-01,-2.59751e-02,-1.18567e-01,2.72641e-01,1.19264e-01,-9.96607e-03,2.08551e-02,-1.16569e-01,-9.63010e-03,2.02245e-01,-1.08213e-01,-5.51352e-04,-7.10248e-02,6.91645e-02,-1.89572e-01,1.22517e-01,-6.27782e-02,1.55333e-02,4.19449e-01,-9.24363e-02,2.63539e-02,-1.72465e-01,1.07390e-01,-2.84811e-01,2.90271e-01,8.71062e-02,2.44578e-01,2.73234e-01,-2.76304e-02,5.22940e-01,8.82734e-02,-1.92934e-01,-2.01553e-01,-1.30587e-01,1.18299e-01,6.92630e-02,4.09714e-02,3.36349e-02,2.29529e-01,-8.49104e-02,
2.28737e-02,-3.88711e-02,-2.66938e-02,-5.90787e-02,2.65829e-01,-1.80316e-02,-2.17194e-02,2.13178e-01,1.91307e-01,1.73183e-01,1.07949e-01,2.03542e-01,-2.10962e-01,-1.12699e-01,1.05823e-02,2.93434e-02,1.37048e-01,1.75440e-01,9.85165e-02,1.59783e-01,-5.11161e-01,-7.68415e-02,2.37523e-01,-1.82633e-01,-3.39007e-01,7.95022e-02,-1.67653e-01,4.52567e-02,-3.69459e-01,2.52909e-02,-1.90280e-01,-1.27438e-01,-7.96101e-02,3.66175e-02,1.19502e-01,-1.29485e-01,3.48603e-01,2.33477e-01,-1.78163e-01,1.89295e-01,1.89878e-03,1.95965e-01,1.62859e-01,-1.29474e-01,-9.51612e-02,
5.14360e-02,-4.39125e-01,2.35631e-01,-8.54139e-02,-7.86932e-01,-1.17979e-01,3.35611e-01,3.22755e-02,2.59899e-02,2.16507e-01,5.90455e-02,-5.98924e-02,-4.10345e-01,-1.61148e-01,7.94187e-02,8.13253e-02,-1.04838e-01,-4.04619e-02,3.25685e-01,-3.50815e-01,-6.67742e-01,3.74051e-01,1.52572e-01,4.69383e-02,-1.56407e+00,-2.62724e-01,2.12047e-01,1.35607e-01,-2.27723e-01,2.76461e-01,-7.77842e-03,1.46366e-02,9.19523e-02,2.53689e-01,-3.70693e-01,-3.74207e-01,1.20560e-01,1.24631e-01,-9.59184e-02,-2.09320e-01,-3.54678e-01,-3.10417e-01,-3.98661e-01,2.89167e-02,4.68976e-01,
9.18603e-02,1.67618e-01,1.13804e-01,3.60752e-01,5.87443e-01,-5.42912e-02,2.12785e-01,9.52559e-02,-4.25363e-02,4.00939e-03,-8.31493e-02,1.61950e-01,1.08775e-01,2.62501e-02,-1.14524e-02,-1.23185e-01,-1.89260e-01,-1.88452e-01,-2.97439e-01,7.81230e-05,-6.02587e-02,-1.32420e-03,9.91953e-02,8.73188e-02,-1.10357e-01,-2.45742e-01,-1.61294e-02,3.75003e-02,3.86673e-01,-2.07552e-01,1.42059e-01,2.03068e-01,9.37382e-02,1.67962e-01,-4.23278e-01,1.50982e-01,-3.02367e-01,-1.11326e-01,-6.84333e-01,1.04694e-01,-7.93247e-02,-1.12361e-01,-3.73515e-02,-7.22285e-02,9.11077e-02,
2.79218e-01,-1.11544e-01,6.52222e-02,-2.34027e-01,1.69386e+00,-2.22859e-01,4.39795e-01,8.77696e-02,1.92205e-01,2.28527e-01,-9.53344e-02,-6.61601e-02,-3.00440e-01,-1.43605e-03,-8.80777e-02,1.38470e-01,-1.91738e-01,-7.21010e-03,-2.81092e-01,2.42829e-01,4.58379e-01,1.34199e-01,-9.42037e-02,-9.50096e-02,-1.84328e-01,2.51797e-01,6.92317e-02,4.76848e-02,9.06826e-01,1.46292e-02,6.33478e-02,-1.91612e-01,1.38126e-01,2.42660e-01,-2.30919e-01,-2.12444e-01,-3.22952e-01,-8.32260e-02,-8.22219e-02,-5.94941e-02,-6.56865e-02,7.20321e-02,2.42025e-01,-9.24379e-02,6.37495e-02,
1.69720e-01,1.69229e-02,-8.94349e-02,3.79064e-01,-8.20732e-01,-4.09826e-02,-1.68592e-02,-5.20516e-03,-2.79780e-01,-1.98537e-02,-6.50168e-02,1.73043e-02,2.23327e-01,-7.74247e-02,9.92859e-02,2.61358e-01,-2.62469e-01,1.79128e-01,-1.30168e-01,1.98476e-01,1.20423e-02,9.58599e-02,9.33442e-02,-2.89582e-01,-6.33546e-02,1.10710e-02,-8.24078e-02,6.49051e-02,-2.34535e-01,3.98356e-02,4.08762e-01,-1.14583e-03,2.65242e-01,1.20123e-01,8.92392e-02,5.74094e-02,6.49740e-02,1.42116e-01,-2.59052e-01,2.69444e-01,1.63495e-01,-1.69338e-01,-3.21492e-01,1.16352e-01,-1.76251e-01,
1.85955e-01,-8.92237e-02,3.19889e-01,-2.06642e-01,1.48725e+00,-1.47252e-01,-3.67515e-01,9.06195e-02,2.26580e-01,-1.75628e-01,-7.35616e-02,4.69756e-01,6.77156e-02,-1.81994e-01,-1.49665e-01,-1.64108e-02,-3.11294e-01,4.03562e-01,6.41585e-02,-2.40831e-02,-3.25127e-01,-3.76274e-02,8.26058e-03,-1.92774e-01,-4.70276e-02,1.64563e-01,-2.01660e-01,-1.42202e-01,-3.23373e-02,2.96461e-01,1.09943e-01,1.06805e-01,4.09918e-02,2.46168e-01,-5.05068e-02,1.75391e-01,3.37082e-01,-2.98964e-01,-1.27772e-01,2.90898e-02,2.12470e-01,1.81605e-01,-1.49560e-01,-2.23296e-02,-1.16032e-01,
-1.15753e-01,-7.36833e-02,-1.05490e-01,6.40208e-03,1.17632e-01,-2.38094e-01,2.17791e-02,-3.52140e-01,-2.83573e-01,-1.70428e-01,3.75293e-01,1.00701e-01,8.69216e-03,3.81764e-01,1.49949e-01,2.58539e-01,-1.23384e-01,2.36961e-02,-2.49097e-01,1.31530e-01,1.03678e-01,-4.87501e-02,2.58539e-01,-5.27223e-01,4.10868e-01,3.85436e-01,2.23427e-01,3.45589e-02,-1.21052e-01,-4.03372e-01,-2.74262e-02,9.53737e-02,1.65093e-01,-5.05046e-01,-5.86855e-01,-1.21718e-01,-5.03079e-01,5.44947e-02,-2.41802e-01,-9.67238e-02,1.33451e-01,1.63195e-01,2.80968e-01,1.18632e-01,3.44155e-02,
4.00176e-01,2.24959e-01,-1.16496e-01,-3.49225e-01,-2.18188e+00,1.65002e-01,-3.83511e-02,-1.70945e-01,-2.74743e-02,2.44208e-01,-1.80922e-01,1.51449e-01,2.16277e-01,1.61377e-01,7.90574e-02,-3.05594e-01,-5.86310e-02,-5.89089e-02,1.73501e-02,-1.51954e-01,-5.66906e-02,7.84007e-02,1.72602e-01,-4.84360e-01,2.03503e-01,-3.01318e-01,2.14039e-01,-1.19620e-02,-2.53186e-01,-1.90240e-01,4.35026e-02,1.48785e-02,3.88322e-02,-4.09599e-01,4.06468e-01,-3.89368e-01,2.53041e-01,-8.11524e-02,-3.22097e-02,3.12453e-01,2.31130e-01,-9.41472e-02,-4.85706e-02,1.61293e-01,-2.69561e-01,
-9.31883e-02,1.75109e-01,9.71636e-02,1.45808e-01,-3.37493e-01,-1.91620e-01,-1.87457e-01,2.96738e-01,-1.64123e-01,2.02874e-01,-1.72689e-01,-7.52694e-02,4.74785e-01,-1.40892e-02,2.34778e-01,3.42123e-01,1.91277e-01,-4.93239e-01,5.28218e-02,-1.22555e-01,-7.50612e-01,9.03433e-02,-2.16140e-02,1.78324e-01,2.66508e-01,5.41940e-01,1.05432e-01,-4.75828e-01,-2.93239e-02,-3.09118e-01,8.17014e-02,-2.66914e-01,-1.56378e-01,-2.55484e-01,-3.89897e-01,9.24151e-03,1.71749e-01,1.67768e-01,9.00386e-02,1.53618e-02,-2.84667e-01,8.80669e-02,1.12446e-01,5.83678e-02,1.06339e-01,
-2.27511e-01,6.23667e-02,-2.85000e-01,6.61404e-02,1.27232e+00,1.50063e-02,-2.62660e-01,-3.15047e-01,2.62766e-01,-1.14177e-02,-1.12582e-01,-1.06931e-01,-4.46252e-01,-2.25598e-01,4.03537e-01,1.75071e-01,9.54086e-02,-3.01471e-01,-2.46497e-01,2.19373e-01,-2.35596e-01,-1.74622e-02,1.29818e-01,-4.91627e-01,-3.20208e-01,3.78960e-01,2.17302e-01,4.23701e-02,-1.87864e-01,3.21540e-01,-1.02241e-02,1.64639e-01,-2.40701e-01,-4.35991e-01,-2.99882e-01,1.05861e-01,4.43636e-01,-2.19621e-01,-1.09763e-02,-2.02179e-01,1.16601e-01,2.54002e-01,1.86420e-01,1.53357e-01,2.25486e-01,
6.44928e-02,2.29358e-01,1.62539e-01,2.53711e-02,-7.70248e-01,-2.36773e-01,-3.61498e-02,-1.52019e-01,-2.50869e-03,2.37773e-01,2.05655e-01,-2.90614e-02,-1.80688e-01,-2.20514e-01,-2.66845e-01,1.44577e-01,-1.25756e-01,1.21354e-01,2.20791e-01,2.62361e-01,7.47517e-02,1.21507e-01,2.10562e-02,8.20997e-02,-3.88746e-01,5.64732e-02,2.05586e-01,3.37048e-01,-5.42300e-01,1.85593e-01,1.43466e-02,1.29264e-01,9.66199e-03,-1.47465e-01,6.54975e-02,4.12196e-02,4.91457e-02,1.10011e-01,2.59643e-02,-1.49923e-01,1.43370e-01,-3.20255e-02,-1.41722e-01,-2.80475e-01,-9.75109e-03,
4.39078e-04,-1.04922e-01,3.45694e-01,8.39622e-02,-1.49054e-01,-3.04497e-01,2.32845e-01,-1.75696e-01,2.32393e-02,1.67103e-01,-8.03498e-02,1.45512e-01,6.55239e-02,-1.48189e-01,-1.35412e-01,-4.21624e-01,9.27951e-02,-9.97671e-02,-1.68465e-01,-1.05594e-01,4.12428e-02,6.64684e-02,3.02236e-02,-7.06782e-03,6.26586e-01,3.27715e-01,2.40079e-01,3.55136e-01,5.94535e-01,-5.94098e-02,-2.09700e-01,1.94233e-01,5.82511e-02,7.17484e-02,6.32330e-02,1.88555e-01,1.98836e-01,-3.55664e-01,6.10341e-03,-9.03431e-02,-5.47333e-02,1.63660e-02,1.78450e-01,-1.03677e-01,-2.97389e-01,
1.20055e-01,-1.76603e-01,-1.44769e-01,1.51232e-01,9.37803e-01,-1.03806e-01,1.60071e-01,2.37527e-01,-5.79289e-02,-2.45945e-02,1.24632e-01,1.58306e-01,-4.44592e-01,1.57172e-01,6.24761e-02,-5.70774e-02,-2.08991e-01,7.39087e-02,2.29604e-01,1.21969e-01,-1.11545e-01,2.26381e-02,1.01823e-01,-3.27421e-03,-1.52958e-01,1.30755e-01,2.28763e-01,1.27701e-01,-1.13722e-01,1.41760e-01,3.07121e-01,-9.31573e-02,2.69398e-01,7.65654e-03,2.13830e-01,3.60544e-01,2.23995e-01,1.40138e-01,-6.58708e-02,-1.10838e-01,-1.76271e-01,2.55552e-02,1.41277e-01,-1.89236e-01,-3.47934e-02,
2.27749e-01,-1.44601e-01,2.26761e-01,6.07735e-02,-6.18316e-01,-1.28320e-01,5.24571e-01,-1.86447e-01,-2.20572e-02,1.72394e-01,-2.06178e-02,9.57677e-02,-1.29259e-01,-1.63452e-02,-4.00866e-02,1.10706e-01,-7.20502e-02,1.31984e-01,8.22551e-02,-1.93444e-02,-2.87099e-01,-3.12259e-01,-5.20536e-02,1.28854e-01,-2.90699e-01,-8.05041e-02,6.35518e-03,7.12156e-02,-1.79493e-01,1.70032e-01,-1.68808e-01,-1.04854e-02,-1.23511e-01,2.37840e-01,6.65971e-01,-4.10307e-01,4.84952e-02,2.80572e-01,1.92077e-01,2.70773e-01,-1.09068e-01,-2.63166e-01,5.97238e-02,-1.09138e-01,2.34262e-01,
8.06302e-02,3.37120e-01,-3.46955e-01,-2.42954e-01,-7.23608e-01,2.72693e-01,7.09582e-02,-1.30953e-01,1.21786e-01,1.08921e-01,-7.49433e-01,7.99761e-02,3.87751e-01,-3.95320e-01,-2.63500e-01,-1.54179e-01,3.87962e-01,2.06038e-01,-2.24270e-01,-1.50384e-01,1.80873e-01,-2.49052e-01,4.68457e-03,-2.49260e-01,1.57862e-01,-1.53074e-01,1.54028e-01,8.99777e-02,-3.80441e-01,-6.92448e-01,-1.34053e-01,-6.81257e-03,3.21980e-01,-4.41107e-02,6.48960e-01,-1.65209e-02,2.39810e-01,3.57532e-01,-3.46474e-02,1.03276e-01,2.99699e-01,-1.19130e-01,7.15991e-02,4.43103e-02,-3.49822e-01,
1.46611e-02,-4.75099e-02,-7.85820e-02,-1.97955e-01,2.91190e-01,-1.25185e-01,-1.73547e-01,-1.96264e-01,2.28502e-01,9.30624e-02,8.34585e-02,-9.61821e-03,-2.79232e-01,-3.26839e-01,7.20912e-02,-2.07541e-01,-2.07855e-01,2.23306e-01,2.65075e-01,1.91314e-01,2.26879e-01,2.77939e-01,2.11657e-01,-3.15909e-01,-1.17124e-01,-1.45619e-01,-2.62118e-02,-9.71360e-02,4.64807e-01,6.24746e-01,9.51202e-02,2.00298e-01,3.15946e-01,1.71266e-02,-3.95884e-01,-1.17904e-01,1.80384e-01,-4.94596e-01,-3.42461e-01,5.14717e-03,-1.09444e-01,-1.35029e-01,2.07199e-01,1.42778e-01,-6.73253e-02,
1.11293e-01,7.78445e-02,6.31962e-02,-1.42675e-01,7.66176e-01,1.83495e-01,-2.83703e-01,1.29755e-01,2.94369e-01,-2.93238e-02,1.36000e-01,2.56860e-01,-1.82892e-02,1.48048e-01,-1.25701e-01,-4.41012e-01,2.00170e-02,-1.79078e-01,-1.86941e-01,-1.83019e-01,4.10883e-01,2.57325e-01,1.94171e-01,2.46047e-01,-1.40857e-01,-2.94535e-01,6.20288e-02,5.05930e-02,1.87653e-02,-3.63950e-01,-5.41371e-02,-2.77343e-01,-1.15603e-01,6.92112e-02,-4.65436e-02,-3.92773e-01,3.66463e-02,3.26083e-01,-2.83596e-01,-8.19927e-02,3.96437e-02,-1.23325e-01,-2.06065e-02,9.36846e-02,-1.22207e-01,
1.44072e-01,1.96226e-02,1.70019e-01,2.43952e-03,-7.88170e-02,6.36118e-06,-1.12373e-01,8.48345e-03,1.66660e-03,1.31098e-01,-3.31738e-01,-1.21034e-02,-2.81576e-01,-1.17004e-01,1.00343e-01,9.80684e-02,1.68515e-01,1.69757e-01,1.91684e-01,-6.50251e-02,7.73479e-02,1.08340e-02,5.28864e-02,-2.25585e-01,2.23097e-01,-1.12204e-02,6.41044e-02,3.70617e-02,6.65583e-01,4.61974e-01,-2.10012e-01,2.77109e-02,-1.51220e-02,5.11618e-02,-4.06383e-01,-2.51922e-01,-1.73723e-02,7.49198e-02,5.38708e-02,-7.19235e-02,1.33726e-01,2.59980e-01,8.01282e-02,-3.16216e-02,-1.01457e-01,
2.08739e-01,1.84468e-01,-6.67673e-03,1.22939e-01,7.52907e-01,8.01432e-02,-3.23887e-01,2.21851e-01,1.68134e-01,-1.68727e-01,-3.12064e-01,7.55073e-02,1.17134e-01,1.72884e-01,-4.66414e-02,4.23389e-02,8.32254e-02,2.39946e-02,-1.92093e-01,2.33089e-02,-5.71952e-01,3.58838e-02,1.89070e-01,-2.12742e-01,5.65722e-01,4.13496e-02,9.37631e-02,-1.87955e-01,2.17915e-01,-5.31317e-02,2.74292e-02,9.92237e-02,3.97145e-02,2.80415e-02,6.32189e-02,-2.08450e-01,-9.89248e-02,-2.37352e-01,-1.50969e-01,3.78639e-02,1.53170e-01,3.36079e-01,-3.08974e-04,-6.00238e-02,-5.08402e-01,
-8.71850e-02,
1.00900e-02,
-1.34925e-02,
7.66782e-02,
3.28377e-03,
4.41346e-02,
-1.36948e-02,
1.00994e-02,
-3.23179e-02,
-1.78341e-02,
-3.89074e-02,
-6.13431e-03,
4.60527e-02,
-1.08795e-01,
3.39187e-02,
3.14726e-02,
4.42999e-02,
3.28180e-02,
-1.18008e-02,
5.56230e-02,
1.67373e-02,
-1.37535e-02,
1.82895e-02,
3.93584e-02,
1.55147e-02,
-1.00790e-03,
-1.02165e-02,
-4.67039e-03,
-4.44141e-03,
-2.25627e-02,
-1.32981e-02,
3.19734e-02,
-7.22730e-02,
6.80404e-02,
-1.67826e-01,
3.36898e-02,
-4.17663e-03,
2.92497e-02,
-2.63157e-02,
3.39451e-02,
1.34419e-03,
7.70991e-02,
9.32988e-02,
9.15749e-03,
-8.30949e-03,
7.14450e-03,3.92860e-02,-2.06923e-01,2.67618e-02,-4.57262e-02,5.03949e-02,7.02708e-02,1.48433e-01,1.20141e-02,8.16184e-02,2.22853e-01,2.40590e-01,4.47001e-02,5.91610e-01,-7.28497e-02,-6.44626e-02,-1.69558e-01,2.45744e-02,8.78226e-02,2.01865e-01,-1.08195e-01,-1.64210e-01,1.67610e-01,1.64501e-01,-1.49914e-01,-1.34594e-01,1.46660e-01,-4.80164e-02,3.94010e-02,-1.04890e-01,6.05739e-02,8.81417e-02,-1.08948e-02,-9.52020e-03,1.31643e-01,-3.59021e-01,-1.27756e-01,-5.29124e-02,2.58501e-01,1.01610e-01,1.18033e-01,-2.20786e-01,8.11134e-02,2.01557e-01,1.85758e-01,
-2.81956e-01,-1.22898e-01,5.58629e-02,1.05089e-01,-1.48438e-02,2.95246e-01,1.70174e-01,4.92633e-02,-5.79497e-02,9.28728e-02,1.01062e-01,-1.25558e-01,-9.50154e-02,-2.00782e-01,2.30709e-02,1.58507e-01,-9.63611e-02,-2.42223e-02,7.84342e-02,1.47591e-01,-4.67621e-02,2.77658e-01,-1.06907e-01,-1.08574e-02,1.10428e-03,-2.02503e-01,1.38685e-01,5.56433e-02,1.19530e-01,-3.22772e-02,-1.20444e-01,3.15252e-01,2.76978e-01,-1.33803e-01,-3.21053e-02,-1.33418e-01,2.00225e-01,5.04144e-02,1.05177e-01,2.15605e-01,2.68919e-01,-1.10439e-01,4.76011e-02,1.20558e-01,-2.25367e-02,
-1.25864e-01,1.75087e-01,1.87074e-01,-8.95839e-02,2.48955e-01,1.52662e-01,-1.72727e-01,4.81574e-02,2.23088e-01,-1.51929e-01,-3.00071e-02,-9.89270e-02,1.41371e-01,-3.99856e-01,-1.54257e-01,2.31487e-03,2.54944e-02,2.52774e-01,2.29395e-02,1.56243e-01,1.37979e-01,8.54866e-03,-1.92155e-01,4.25128e-03,-2.14977e-01,-1.19951e-02,2.06802e-01,-6.59877e-01,-4.69607e-02,-1.60067e-01,3.63104e-01,-1.58918e-01,-2.86201e-01,2.60746e-01,-2.12220e-02,1.38374e-03,-2.45482e-01,-1.40781e-01,-7.99252e-02,-7.48422e-02,2.90445e-01,9.82481e-02,1.56597e-01,3.11076e-03,8.81966e-03,
-1.19291e-01,2.51453e-02,-9.43428e-02,5.04459e-03,-1.66391e-01,2.52370e-01,1.04508e-02,2.79393e-01,7.58570e-02,1.27015e-01,-2.73921e-01,-1.38304e-01,-5.79538e-02,-4.74971e-01,-1.46275e-01,-9.77668e-03,-1.71847e-03,1.19710e-03,-1.32217e-01,1.78565e-01,-2.98640e-01,6.97499e-02,-9.11135e-02,2.15470e-01,5.36179e-02,-1.36259e-02,4.23859e-02,2.94816e-01,-6.54056e-02,-1.66447e-01,5.98768e-02,-1.94394e-01,4.58429e-01,-7.37271e-02,3.22107e-01,1.65823e-01,-1.44464e-01,1.01643e-01,1.28497e-01,-1.49223e-01,-3.60486e-01,-1.46839e-01,5.35093e-03,1.83205e-01,-1.03384e-01,
-1.31193e-02,-1.42015e-01,-1.98756e-01,1.63832e-01,-4.08634e-01,1.82003e-01,3.91522e-02,-4.87760e-02,9.71377e-02,2.68981e-01,1.87727e-01,-7.27709e-02,2.89324e-01,-3.30149e-01,3.97966e-01,1.97110e-01,-5.86898e-01,2.31559e-01,4.45842e-02,5.49603e-02,-5.73214e-02,4.93636e-02,-1.61748e-01,-1.02858e-01,-1.50536e-01,-1.70284e-01,-9.62175e-02,-3.23176e-02,3.08115e-02,-2.43337e-01,2.06923e-01,1.13695e-01,3.50690e-01,3.22995e-01,4.00910e-01,-6.49195e-02,1.46333e-01,-1.16849e-01,-9.96536e-02,-2.46323e-01,-1.80635e-01,4.36506e-02,3.40814e-03,-9.99421e-02,4.31860e-02,
-1.86131e-01,1.17645e-01,-2.61321e-01,-1.50001e-01,1.68312e-01,8.44484e-02,-2.14194e-01,-2.45786e-02,3.44298e-01,-1.07209e-02,5.96544e-02,-1.32920e-01,2.17376e-01,-5.99516e-02,-1.73613e-01,2.48453e-01,-2.22990e-01,1.28331e-01,2.31546e-01,1.37216e-01,2.80925e-01,2.04919e-01,1.80455e-01,-9.60088e-03,1.07358e-01,-8.14768e-02,2.28776e-01,-3.60518e-02,-2.05866e-01,1.31070e-01,1.13650e-01,2.40843e-01,6.15419e-03,-1.33322e-01,5.66015e-01,2.59216e-01,-2.15675e-01,2.58002e-01,2.21975e-01,-1.52199e-03,6.50363e-02,2.24579e-01,-1.81886e-01,-2.25703e-01,-1.39010e-01,
-1.43986e-01,-1.99624e-01,-3.51394e-02,2.52025e-01,2.47994e-01,2.70549e-01,2.17239e-01,-1.22728e-02,-7.76698e-02,2.39430e-01,-1.07509e-02,-6.96299e-02,1.96948e-01,1.62414e-01,4.50192e-01,-1.18388e-01,-5.48816e-01,-3.33304e-02,-5.91305e-01,9.32262e-02,-2.22631e-01,-1.56352e-01,-4.08125e-01,-7.66413e-02,1.78964e-01,-1.74071e-01,1.13046e-02,-3.33381e-02,-5.34072e-01,1.56456e-01,-1.26283e-01,3.39614e-01,-1.76383e-01,-1.48793e-01,3.29840e-01,2.24324e-01,-1.32579e-01,3.67471e-02,-7.73883e-02,-3.50309e-01,1.18504e-01,3.67660e-01,-8.43913e-03,1.70778e-01,1.83731e-01,
2.32294e-02,-2.47212e-01,5.42074e-02,-1.55889e-02,-5.22892e-01,1.67592e-01,-1.87845e-01,1.86500e-01,-5.56782e-02,-1.62181e-01,1.35242e-01,-1.99530e-02,-1.63082e-01,1.08615e+00,2.46796e-01,7.02868e-02,-3.26310e-01,-4.40162e-02,-3.02964e-01,9.20731e-02,-2.96860e-01,2.22503e-01,-6.00566e-02,1.31274e-01,1.62486e-01,-1.60208e-01,1.51288e-02,1.90163e-01,8.97394e-02,-2.21235e-01,-1.17142e-01,2.20595e-01,-1.47143e-01,-2.61548e-01,-1.40130e-01,-5.57551e-01,1.58203e-02,-6.10861e-02,1.57639e-01,8.09226e-02,-9.51973e-02,1.86419e-01,2.32294e-02,3.22729e-02,1.85943e-01,
-6.47578e-01,-1.11008e-01,-2.11195e-02,2.48938e-01,-8.21037e-01,-2.46051e-01,2.68714e-01,1.52252e-01,3.88463e-02,2.96597e-02,-3.49137e-01,2.06094e-01,3.30412e-01,-1.06817e+00,3.79581e-01,-3.17221e-01,-3.25361e-02,-4.50269e-02,-3.77857e-01,-2.83665e-01,-6.40039e-03,-2.12568e-01,3.32676e-01,-1.78497e-01,6.41511e-02,1.65667e-01,8.31770e-02,2.22990e-01,-1.37068e-01,-3.63710e-01,2.76173e-01,2.42832e-01,-2.02157e-02,1.04056e-01,1.71404e-01,-6.99855e-03,2.66960e-01,-1.84148e-01,4.39711e-02,2.77286e-01,-2.75465e-03,-2.66454e-02,-2.49968e-01,-6.99026e-02,-4.34853e-02,
-4.78896e-01,-1.99379e-01,3.12711e-01,8.43363e-02,1.80316e-01,-5.11938e-01,-1.50882e-01,-2.08422e-01,1.56456e-01,7.24678e-02,-1.68585e-01,-2.05462e-01,-1.67578e-01,1.33551e-01,2.30817e-01,-4.72992e-02,4.30564e-01,5.01246e-02,-1.09355e-01,-2.65576e-01,6.32450e-02,5.02697e-01,2.21964e-01,2.39605e-01,1.72347e-01,7.85463e-02,-1.24002e-01,-1.59280e-01,-2.17855e-01,-5.10044e-01,1.71173e-01,1.93181e-01,1.43942e-01,1.72718e-01,-5.70397e-02,-1.39637e-01,2.47090e-01,-2.16642e-01,4.22106e-02,-2.78523e-02,-1.62312e-01,-2.96547e-01,1.36874e-02,-2.64573e-01,7.54381e-02,
-4.03901e-03,-2.36784e-01,2.02008e-02,2.09517e-01,-5.01134e-03,1.65613e-01,2.44147e-01,4.38677e-01,4.46728e-02,8.64315e-02,6.05488e-02,2.24697e-01,3.29433e-01,1.29331e-01,4.03000e-01,-3.12217e-01,-5.21746e-01,7.49530e-02,-4.95967e-01,4.41109e-02,-1.84293e-01,-1.49674e-01,-6.01372e-02,1.99586e-01,-1.85661e-01,-2.47865e-02,1.48992e-02,-2.90818e-02,-8.44481e-02,-1.26513e-01,2.22845e-01,9.99464e-02,-6.03931e-01,3.26210e-04,8.41541e-04,-8.36205e-02,-9.46422e-02,-3.59663e-02,-5.44755e-02,7.80803e-03,3.29771e-02,1.63602e-01,-4.03821e-01,2.31510e-02,3.06933e-01,
-7.76152e-02,1.17578e-01,-6.62675e-01,2.58278e-01,-4.82213e-02,2.31695e-03,-1.94015e-01,-8.05969e-02,1.07072e-01,-4.39353e-02,2.66262e-01,1.46526e-01,2.92517e-01,-5.44834e-01,9.97636e-02,2.50458e-02,8.26385e-02,-1.93870e-01,4.03634e-02,-1.33934e-01,3.77207e-02,1.08841e-01,2.02871e-01,8.22419e-02,1.06697e-01,-1.75347e-01,3.16613e-01,9.73877e-02,-8.59235e-02,2.22508e-01,5.97215e-02,5.33818e-02,-4.75162e-02,4.72110e-02,1.10950e+00,8.73476e-02,1.29501e-01,-3.67196e-01,-5.96754e-02,1.58821e-01,-1.41953e-01,4.13507e-02,3.41509e-01,-2.58514e-01,-1.80661e-01,
3.32581e-03,4.79595e-02,2.19460e-02,-2.01290e-01,5.72611e-01,4.22768e-01,1.57212e-01,2.10179e-01,-2.39836e-01,2.79706e-02,3.81116e-02,-3.58616e-03,1.50938e-01,5.36777e-01,6.61958e-02,-2.27711e-01,-3.28644e-01,1.30277e-01,3.76711e-01,-3.30195e-03,4.97724e-02,1.26950e-01,1.04580e-01,-1.34926e-01,8.99291e-02,-1.34745e-01,1.05434e-02,-1.80302e-01,3.07090e-01,2.76595e-01,-8.96735e-02,1.67309e-01,-3.94024e-02,-3.90774e-01,-3.17567e-01,2.43508e-02,-9.72093e-02,3.68216e-01,-2.08083e-01,8.92691e-02,-1.00060e-01,-1.27298e-01,-1.79694e-01,1.48801e-01,5.08261e-02,
-5.88748e-02,-2.25404e-01,-2.17556e-02,2.94350e-02,2.18582e-02,-3.02200e-02,-1.68819e-01,4.42534e-02,2.33262e-01,-4.17282e-03,-3.18807e-02,1.26067e-01,3.84230e-01,-1.92617e-01,-5.65739e-01,-8.52777e-01,6.65633e-02,-3.53797e-01,-2.53809e-01,-7.95096e-02,1.87432e-01,9.21124e-02,4.34081e-03,1.28959e-01,-2.64864e-01,-1.03202e-01,-5.96021e-02,3.27091e-01,-6.71498e-02,1.39303e-01,2.09261e-01,-9.31248e-02,-6.15986e-01,-2.14081e-01,2.85318e-02,1.72682e-01,-5.66304e-02,-6.38237e-03,-1.38015e-01,-4.31223e-02,3.19989e-01,-1.54471e-02,4.52606e-02,2.97205e-01,1.66205e-01,
-1.28397e-01,-8.89439e-02,4.35077e-01,1.63434e-01,-6.28447e-02,1.26639e-01,2.09432e-01,-1.62531e-01,2.54472e-01,5.87916e-02,-6.31978e-02,1.55718e-02,1.37740e-01,3.20406e-01,-1.34824e-01,-3.28797e-03,-1.60114e-01,4.09816e-01,-3.02479e-03,-3.59883e-01,-1.91526e-01,4.24571e-01,-3.40675e-01,-1.12176e-01,-2.75855e-01,-2.82334e-01,1.47066e-01,-5.82351e-01,2.16787e-01,1.22929e-01,2.76150e-01,-8.41702e-03,3.73071e-02,-2.35072e-01,5.69313e-02,-2.94838e-01,1.80139e-01,-1.15019e-01,3.19646e-01,3.52596e-02,1.05834e-01,-1.69052e-01,-3.85237e-01,-1.40481e-02,6.26625e-02,
7.99082e-02,-4.96226e-02,-9.37273e-03,1.41060e-01,3.25902e-01,1.11935e-01,-1.97491e-02,-2.25082e-01,-1.09190e-01,-7.92951e-02,1.47494e-01,2.13470e-01,4.08098e-02,-3.59406e-02,-8.76188e-03,4.47434e-01,2.20157e-01,5.73737e-02,3.67632e-01,1.44787e-01,-2.95670e-02,2.42745e-01,-2.57032e-01,-2.52957e-01,-9.35049e-02,-2.93696e-01,1.19617e-01,-5.64730e-01,1.29678e-01,3.52173e-01,-2.42849e-02,-2.00364e-01,-2.18237e-01,-3.01940e-01,7.43125e-02,-1.54210e-01,-1.78259e-01,8.52255e-02,-4.66567e-02,-9.14091e-02,4.64564e-02,1.50584e-01,8.69068e-02,2.90592e-01,-1.36944e-02,
-4.54654e-01,4.29855e-02,-2.21731e-01,2.69277e-01,-4.31449e-01,-3.02548e-01,1.33241e-01,3.25600e-01,1.56910e-02,-6.08496e-02,5.56298e-01,2.05153e-01,1.43935e-01,1.48899e-01,2.14664e-01,2.04977e-02,-1.66643e-01,-2.54748e-02,-4.78320e-01,-1.36198e-01,-1.09589e-01,-6.81675e-02,-2.56899e-02,7.45172e-02,3.55780e-02,2.71120e-01,-1.79698e-01,-1.59238e-01,-1.95481e-01,-2.44797e-01,1.62501e-01,-3.44023e-02,5.77182e-02,-2.27868e-01,1.21060e-01,-3.80145e-01,1.68814e-01,2.89595e-01,2.83892e-01,3.02045e-01,1.80493e-02,1.31612e-01,-1.21451e-01,1.29912e-01,-2.73567e-01,
2.47538e-01,-1.08821e-01,4.91704e-02,-1.58833e-01,4.58997e-01,-1.31093e-01,1.78361e-01,2.26798e-02,-2.32605e-01,-6.07787e-02,2.66285e-01,-1.67439e-01,1.63096e-02,5.15590e-03,-1.86723e-01,-2.27645e-01,-5.94460e-02,-1.00623e-01,1.88881e-01,-4.58297e-02,2.70957e-01,-1.98796e-01,1.73586e-01,-8.08675e-02,2.98290e-01,-1.81121e-01,-2.16629e-01,-2.69190e-02,1.60954e-01,2.00645e-01,2.66239e-01,5.78754e-02,2.65957e-01,-1.07250e-01,-2.38191e-01,2.01745e-01,9.18036e-02,1.70475e-01,-9.71920e-02,1.19704e-01,-2.92682e-01,-4.26974e-01,-5.14389e-02,1.01437e-01,9.60199e-02,
1.70431e-02,-1.85153e-03,-5.33297e-02,-3.33579e-02,1.12456e-01,-1.39461e-01,-2.43904e-01,-1.55466e-02,1.55994e-01,7.40771e-03,-2.67000e-02,5.77468e-02,1.90312e-01,5.77805e-01,-1.33912e-01,4.83525e-02,-1.65147e-01,-5.51127e-02,1.34722e-01,1.01050e-01,1.46636e-01,1.05740e-01,3.51906e-02,-9.39657e-02,1.79886e-01,3.14524e-01,4.41334e-02,-2.98292e-01,1.63721e-01,1.47477e-01,-7.57626e-02,3.78281e-01,5.76892e-02,-2.03910e-01,-2.66390e-01,-1.22957e-01,-1.73758e-02,9.07624e-02,-1.68137e-01,4.55218e-03,-1.24683e-01,3.28348e-02,9.95379e-03,-2.02424e-01,7.29947e-02,
3.54652e-02,-2.07614e-02,2.15100e-01,1.44737e-02,-2.58357e-01,-1.27635e-01,-1.34230e-02,2.47858e-01,-9.65309e-02,4.37374e-02,1.08672e-01,2.19963e-01,-2.28236e-01,9.87550e-02,-2.73343e-01,8.90881e-02,3.08494e-01,1.94073e-01,-3.39646e-02,8.92388e-02,1.09049e-01,-3.24817e-02,-2.24659e-01,-1.58569e-02,1.83722e-01,-7.70243e-02,1.67011e-01,3.69397e-02,3.25809e-01,-4.20732e-01,1.10195e-02,1.29869e-01,2.47898e-01,7.80617e-02,1.50981e-02,-4.24882e-02,-1.59611e-01,-1.70243e-01,-1.25304e-02,-1.75135e-01,-5.40270e-02,-1.68465e-01,1.41617e-02,1.56905e-01,1.11546e-01,
-3.39677e-01,-3.30502e-02,-9.51567e-02,9.87459e-02,5.65033e-02,-3.34137e-01,1.09161e-02,-9.17436e-02,-7.33024e-02,-5.11190e-02,5.93194e-02,-1.73254e-02,-1.80012e-01,-3.62471e-01,-8.87588e-02,5.70238e-02,4.62569e-01,-4.07963e-02,1.17562e-01,-1.97497e-01,-1.68424e-01,-1.35603e-01,4.28815e-01,3.36691e-01,-8.57164e-02,-1.82750e-01,2.23599e-01,-3.71926e-01,-4.91236e-01,-1.64561e-01,-1.35703e-01,-1.53283e-01,2.56233e-01,1.03090e-02,-2.24248e-01,1.18970e-01,2.05486e-01,-2.69644e-01,1.21962e-01,2.05633e-02,4.09656e-02,-2.52310e-01,3.04857e-01,1.76954e-01,8.83394e-02,
-1.49370e-01,1.78774e-01,-2.31296e-01,-1.68452e-01,5.04819e-01,2.15821e-01,-1.53315e-01,1.27939e-03,-7.42299e-02,1.76287e-01,-2.04410e-01,-2.22862e-01,1.15723e-01,1.28084e-01,-2.39594e-01,-3.89331e-01,-2.92327e-02,1.08464e-01,2.45680e-01,1.54942e-01,-4.31763e-02,5.89602e-02,-7.82198e-03,-2.65083e-01,1.64425e-01,9.63945e-02,6.83890e-02,-6.04950e-02,9.73923e-02,3.10422e-02,-8.07497e-02,-1.38120e-01,-1.05037e-01,-1.92497e-01,-3.13223e-01,2.65664e-02,3.27163e-03,3.10406e-01,-1.85764e-01,-5.26605e-02,2.60734e-01,1.93429e-02,-3.58182e-01,3.32140e-02,1.13067e-01,
-9.53520e-01,-5.37861e-03,9.55547e-02,9.71404e-02,-1.67072e-01,-3.16868e-01,1.27484e-01,-3.72451e-01,2.49859e-01,1.23525e-01,-1.41396e-01,-8.81972e-02,-3.70329e-01,-2.69813e-01,-2.42696e-01,-1.00625e-01,3.90583e-01,3.35287e-01,3.28897e-02,-2.12702e-01,1.02026e-01,-2.14444e-01,-1.35361e-01,2.92340e-01,-3.01272e-01,8.46824e-02,2.38815e-01,2.56905e-01,-6.37219e-02,-7.97325e-01,8.41142e-02,1.98032e-01,-2.11726e-01,1.20561e-01,-8.54350e-01,2.82848e-01,-1.83464e-01,-5.29881e-01,-2.61455e-01,-2.67734e-01,2.78169e-01,-7.77614e-01,-1.65545e-01,-2.25170e-01,1.73710e-01,
-2.65097e-01,-2.54828e-02,-1.69159e-01,-9.72114e-02,2.62228e-01,4.07001e-01,1.42079e-01,5.07857e-02,-5.62458e-02,1.84856e-01,3.59364e-01,-1.25664e-01,1.00463e-01,8.74864e-01,-2.03680e-01,4.01751e-01,-1.92747e-01,2.05562e-02,2.24648e-01,-1.18308e-01,-8.63042e-02,1.43398e-01,-2.38434e-02,-3.29460e-02,-2.66104e-01,1.95991e-01,-9.57772e-02,-1.23069e-01,1.62722e-01,1.73600e-01,-2.01745e-01,5.44809e-03,-4.80003e-01,-1.31499e-01,-2.53956e-02,2.07299e-01,1.41166e-02,-7.18987e-02,-9.61685e-02,-5.58218e-02,1.20757e-01,3.01105e-01,3.49724e-02,1.04241e-01,3.41297e-03,
4.46844e-01,-8.71307e-02,-2.64070e-01,2.75325e-01,-2.96405e-01,-2.11439e-01,-1.39243e-01,-3.17423e-02,8.73298e-02,1.27729e-01,3.37848e-01,2.16675e-01,-4.48895e-01,6.55041e-01,1.04949e-01,4.29074e-02,2.25792e-01,4.31753e-02,1.06002e-01,2.17267e-01,-2.20530e-01,-1.25153e-01,1.03932e-01,-3.75976e-02,-2.22291e-01,-1.55010e-01,-5.99032e-02,1.24022e-01,-2.35845e-01,1.49313e-01,-8.96247e-02,-4.43047e-02,3.06301e-01,-2.81997e-01,1.76174e-01,-1.33261e-01,-1.39950e-01,-1.36707e-01,-4.16338e-01,8.49339e-02,-4.54470e-01,-2.42177e-01,-1.58125e-02,-1.79324e-01,1.00214e-01,
-5.19115e-02,-7.94472e-02,4.07187e-02,1.17825e-01,4.54096e-01,5.42363e-03,1.37640e-01,1.78782e-01,3.44820e-02,1.19596e-01,8.74524e-02,-2.43493e-01,2.72575e-01,1.98746e-03,3.42964e-02,-6.51407e-01,-4.55331e-02,6.85364e-02,-3.66560e-01,-3.44468e-02,7.08479e-02,-2.25924e-01,-2.83473e-01,1.52487e-01,7.17106e-03,-9.71854e-02,-8.64183e-02,-9.86388e-02,-1.48439e-01,-2.17244e-01,-1.51204e-01,2.76650e-01,-4.31367e-01,-1.36669e-01,-3.76098e-01,1.20640e-01,1.17293e-01,3.30935e-01,-1.32979e-01,-3.31726e-01,2.11716e-01,1.17328e-01,-3.70993e-01,2.64988e-01,7.67237e-02,
1.39530e-01,-2.30505e-01,-3.08147e-01,2.97530e-02,-7.45728e-02,6.33105e-02,-2.41279e-01,-6.76492e-02,2.29777e-01,4.23572e-01,6.77030e-02,-2.22225e-01,-9.36725e-02,-3.91278e-02,4.25230e-02,3.78289e-01,-3.21287e-01,3.52827e-01,1.59137e-01,-5.94529e-02,-2.34731e-01,1.84548e-01,4.00491e-01,-1.24182e-02,1.94507e-01,-2.85046e-02,2.87773e-01,5.33902e-01,-1.05698e-01,3.10601e-01,-6.90199e-02,1.77429e-01,4.53664e-01,-2.07503e-01,-2.79973e-01,1.54295e-01,2.25273e-01,-4.13726e-01,1.17392e-01,-2.61240e-02,-5.29706e-01,2.05904e-01,4.01654e-01,-2.91865e-01,-1.70961e-01,
-2.72689e-01,1.65470e-01,4.27391e-02,-5.87243e-02,3.46135e-01,-8.03325e-02,-1.99469e-01,-1.31956e-01,-2.12784e-01,1.35314e-01,-1.72035e-01,1.07415e-02,5.20057e-03,2.92434e-01,-5.03028e-01,-8.62384e-01,3.88085e-01,1.72449e-01,2.01187e-01,-6.89104e-02,-2.94254e-02,1.44184e-01,2.87430e-01,-1.24404e-01,-4.02547e-03,1.30203e-01,-2.20610e-01,2.87729e-01,6.70495e-02,1.39027e-01,-3.00582e-01,5.90081e-02,-6.02448e-02,-1.24562e-01,-8.68578e-02,-1.79308e-01,-2.91599e-01,-5.35409e-03,1.92194e-01,2.02680e-01,1.70834e-01,-2.55415e-01,-6.60896e-02,1.73464e-01,1.82031e-01,
-1.95600e-01,-2.30627e-01,-4.95766e-02,-1.83468e-01,-3.60119e-01,2.50812e-01,-1.93576e-01,2.25915e-01,1.64158e-01,-1.18874e-01,-3.47261e-01,1.92872e-01,9.04945e-05,6.21184e-01,3.79526e-01,3.14935e-01,-2.47716e-01,1.72817e-01,3.72082e-03,1.15650e-01,1.58663e-01,-7.68641e-02,-2.33092e-02,2.07606e-01,-1.29961e-02,3.70474e-03,1.08981e-01,-2.05034e-01,1.51296e-01,1.03709e-01,1.97884e-01,1.48384e-01,-8.63604e-03,-1.28416e-01,-4.81098e-02,1.45468e-01,-1.76188e-01,4.06704e-02,2.75627e-01,-3.13601e-01,4.01478e-02,-2.87855e-02,2.91675e-01,2.17317e-01,-8.82884e-02,
1.60255e-01,1.50462e-01,1.05690e-01,-8.32454e-02,1.90114e-01,-4.46802e-01,-1.51136e-01,-3.63484e-01,-1.61343e-01,2.01607e-01,6.35836e-02,-2.39144e-01,-3.20650e-01,1.02782e-01,5.91917e-02,1.86705e-02,1.74028e-01,1.93993e-01,1.41402e-01,-2.51264e-01,-3.84984e-01,1.26074e-01,-1.98010e-01,7.19481e-02,1.50113e-01,-2.30913e-01,2.83269e-02,1.73957e-01,-1.60293e-01,4.56186e-02,6.13122e-02,7.94002e-02,-3.18659e-01,-1.09173e-01,1.14894e-01,-5.73808e-01,-6.43767e-02,-1.60316e-01,7.08543e-02,2.80121e-01,-1.17824e-01,2.11155e-01,7.43454e-02,-3.58634e-01,-1.65634e-01,
-4.27615e-01,-2.56044e-02,-1.32645e-01,2.37143e-01,7.75391e-02,-5.44190e-02,8.80268e-03,1.40916e-01,-1.73845e-01,1.81046e-01,2.37323e-01,-1.42519e-01,5.81590e-03,-1.60405e-01,1.43049e-01,-6.10437e-02,3.22879e-02,-5.14140e-01,-1.06294e-02,-1.68191e-01,1.52774e-02,4.21919e-01,2.96633e-01,-3.90834e-03,2.65914e-01,-1.49407e-01,-1.46455e-01,4.97675e-01,8.86507e-02,2.86502e-01,-2.77553e-01,-9.70333e-02,1.56402e-01,-2.97934e-01,-5.37198e-01,2.32891e-01,-1.63829e-01,-8.25340e-02,1.84494e-01,2.14105e-01,-3.91949e-01,1.62199e-01,-2.01207e-01,-3.42486e-03,-3.01829e-01,
8.35529e-02,-1.37420e-01,8.61521e-02,1.87310e-01,1.20044e-01,1.28183e-01,-2.17232e-01,1.11359e-01,8.57719e-03,-1.18215e-01,-1.38610e-01,-1.72891e-01,2.19914e-01,-2.03138e-01,1.35263e-01,-2.85725e-01,-1.34572e-01,5.70922e-02,8.54390e-02,-4.70389e-02,-1.04958e-01,1.74815e-01,1.27087e-01,-2.32192e-01,-5.73810e-02,1.01934e-01,2.19960e-01,-2.40445e-01,1.63736e-01,6.55362e-03,1.55864e-01,1.49202e-01,1.88245e-01,-1.11017e-01,8.52046e-02,-1.30067e-01,-1.39070e-01,-2.07929e-01,9.67099e-02,2.37777e-01,-6.79181e-02,-1.61400e-01,4.24878e-03,5.81771e-02,1.81038e-01,
-2.59666e-01,-3.79192e-01,-1.43753e-01,3.53131e-02,1.07329e-01,9.58607e-02,-2.40674e-01,3.38704e-02,9.67745e-02,2.10409e-01,2.14370e-01,2.48073e-01,1.07883e-01,1.05366e+00,-1.27306e-02,1.78536e-01,-6.44801e-01,1.81933e-01,-1.27049e-01,-3.38550e-01,2.73692e-01,2.89394e-01,1.63542e-01,8.29655e-02,-7.44262e-02,1.58114e-02,8.97324e-02,2.27269e-01,-1.01741e-01,4.43943e-01,1.00406e-01,1.23959e-01,1.22311e-01,-2.29472e-01,8.65668e-01,2.47140e-01,2.55407e-01,-1.70053e-01,-2.29838e-03,-4.82645e-02,-1.08777e-01,9.45036e-02,1.43472e-01,-1.26893e-01,-3.38784e-01,
