// Neural Network File Format by Kyle Julian, Stanford 2016
7,4,9,45,
4,45,45,45,45,45,45,9,
0,
-8000.0,-100.0,-100.0,0.0,
8000.0,100.0,100.0,40.0,
0.0,0.0,0.0,20.0,-0.4325993796315559,
16000.0,200.0,200.0,40.0,3.102300000999995,
4.20706e-01,-9.01570e-01,1.72829e-02,4.28881e-03,
1.18322e+00,1.29655e-01,3.68361e-01,1.89467e-01,
-2.47918e-01,5.96485e-02,-1.67888e-01,-1.45619e-02,
1.57655e-01,-7.05773e-01,-2.57281e-03,-1.28166e-03,
2.60049e+00,5.13627e-04,-4.75404e-02,2.78393e-02,
-8.67908e-01,1.22151e-02,-1.16553e-01,-4.53476e-01,
2.16893e+00,-2.07369e-01,2.08658e-01,-7.94668e-02,
-9.39895e-03,1.78311e-01,-1.61324e-01,5.25795e-01,
2.82695e-01,-1.12830e-01,2.95788e-01,-3.19356e-02,
6.57453e-02,-8.38795e-02,-1.28490e-01,2.35427e-01,
-5.58016e-01,2.35872e-01,1.72887e-01,-3.91083e-01,
-4.76929e-02,3.43296e-01,-1.09672e-01,2.95834e-01,
-3.02453e+00,-1.49121e-02,8.84526e-02,2.52577e-02,
-1.87402e+00,1.41219e-01,-1.75850e-01,1.23498e-01,
-1.47432e+00,-5.58456e-02,9.39761e-02,-3.56294e-01,
2.68787e-02,-1.83662e-01,-1.05275e-01,-2.24241e-01,
-1.14408e+00,-1.03438e-01,-1.31683e-01,1.43951e-01,
-6.80934e-01,-8.61843e-02,9.84285e-02,-4.62402e-01,
-2.71671e-01,-3.16058e-01,1.72793e-01,3.05140e-01,
-2.43465e+00,7.51498e-02,-6.35186e-02,1.00843e-01,
-7.94486e-01,1.15620e-01,-1.25926e-01,3.02182e-01,
2.94473e+00,3.72592e-02,-7.09850e-02,3.85475e-02,
-7.91472e-01,-1.62945e-01,4.70324e-01,-3.57561e-02,
2.54813e-01,1.26683e-01,-4.92321e-02,-1.75594e-02,
-3.08475e-01,-2.54232e-01,2.02748e-01,3.76806e-01,
6.49808e-01,3.01876e-01,-3.87933e-01,1.36267e-01,
1.15348e+00,-5.27875e-01,-1.62007e-01,2.49449e-02,
1.53214e+00,8.09346e-02,1.63343e-01,-4.50992e-02,
1.68407e+00,-2.10778e-01,1.59872e-01,-1.03062e-02,
-8.51326e-02,-8.86040e-02,1.02430e-01,2.97395e-01,
-1.30466e-01,4.26497e-01,3.02346e-01,6.91982e-02,
-2.29557e-01,-4.18057e-01,4.33944e-01,1.66714e-01,
5.03278e-01,1.86674e-01,-2.57228e-01,3.42852e-01,
3.79635e-01,-5.69004e-02,-2.48038e-02,-7.18131e-01,
1.12532e+00,2.81504e-01,-2.11580e-01,-6.32160e-02,
1.11481e+00,-1.81141e-02,2.29390e-01,-7.11164e-04,
-8.32924e-01,5.20577e-01,5.33662e-02,-2.23307e-02,
3.80318e-01,6.88088e-02,8.14659e-02,-3.31685e-01,
9.76655e-01,2.23617e-01,9.14820e-02,8.65198e-02,
-4.55416e-01,8.06877e-02,9.29935e-02,2.51779e-01,
1.70178e+00,-1.70373e-01,1.98575e-01,2.77027e-01,
1.40423e+00,2.61225e-01,-2.35139e-01,-2.90877e-01,
-4.55357e-01,-5.98281e-01,-4.41396e-02,-4.28159e-02,
3.26237e-01,6.67456e-01,5.71430e-03,1.13192e-03,
5.87859e-02,4.77755e-01,-3.57407e-01,-4.23719e-03,
-8.81687e-02,
-4.10007e-02,
4.21749e-02,
9.31666e-02,
2.61711e-02,
-8.75809e-02,
2.52228e-02,
2.00548e-01,
5.64381e-05,
-1.07262e-02,
-6.57856e-02,
-2.76030e-03,
1.13956e-01,
7.92281e-02,
-9.12917e-02,
2.72206e-02,
7.97037e-02,
-2.20760e-01,
2.39728e-02,
1.15447e-01,
1.45005e-01,
1.33840e-01,
6.17315e-02,
1.63645e-02,
1.03797e-01,
4.06058e-03,
7.03360e-02,
2.95809e-02,
4.79553e-02,
1.29035e-01,
-4.33119e-02,
6.63060e-02,
1.31120e-01,
-1.30757e-01,
-2.29983e-02,
2.39282e-02,
-3.06842e-02,
-7.23941e-02,
6.33351e-02,
6.45983e-02,
1.58310e-01,
-2.65272e-02,
-2.99139e-02,
-8.22796e-02,
-3.92432e-02,
-2.73253e-01,-2.96847e-01,1.70263e-02,2.85228e-01,-5.12519e-02,-1.04131e-01,3.99872e-01,2.38121e-01,-2.23491e-01,-8.35032e-02,8.16309e-02,1.84660e-01,-4.14939e-01,-6.94136e-02,-1.52378e-01,2.23541e-01,-2.09165e-01,8.36493e-01,-2.01718e-01,-3.25563e-01,-1.26557e-01,2.86715e-01,3.15220e-01,1.11067e-01,-2.33986e-01,-6.60435e-01,-1.75847e-01,-1.47735e-01,-4.72620e-02,-1.88093e-01,3.51945e-01,3.81980e-01,1.80254e-01,7.52466e-02,-1.44571e-01,-9.90676e-02,-6.99396e-02,7.60562e-02,7.35641e-02,3.52009e-01,-3.05208e-02,2.34287e-01,-1.10747e-01,-2.52555e-01,1.00150e-01,
-1.49377e+00,-1.23725e-01,7.94335e-02,1.53023e-01,-3.10245e-02,7.44089e-02,-2.14726e-01,6.41306e-02,2.28725e-01,-7.02241e-02,-5.95195e-02,-2.30628e-01,-1.79893e-01,-1.50845e-01,-5.84989e-02,-1.25407e-01,-1.52893e-02,-6.16036e-01,-1.29735e-02,-1.25094e-01,-2.70045e-02,1.27369e-01,2.84052e-01,1.64325e-01,-7.87091e-02,1.38018e-02,1.45858e-02,8.38904e-02,-1.34788e-03,1.22595e-01,3.23289e-01,-1.31263e-01,2.45291e-01,-5.38160e-02,-3.37566e-02,2.29384e-01,-5.01684e-01,-5.08945e-02,2.53740e-01,-4.96285e-02,-1.06910e-01,2.93553e-01,-4.32566e-01,-3.47582e-01,8.28675e-02,
1.14318e-01,5.30291e-01,-5.16047e-01,1.47815e-01,-6.10774e-01,-7.52272e-01,4.64907e-01,-2.91534e-01,2.68192e-01,3.23140e-02,-8.14110e-02,-2.84926e-02,1.78429e-01,-4.03029e-01,-7.19204e-01,2.85958e-02,2.82808e-01,-1.35341e+00,4.95615e-01,7.39784e-02,-3.11854e-01,1.00507e-01,1.16350e-01,-2.84590e-01,4.15672e-01,-3.79701e-01,2.41964e-02,2.45948e-02,3.34319e-01,1.11977e-01,-2.48738e-01,2.28431e-01,-6.23893e-01,-1.68421e-01,-6.61517e-01,2.31804e-01,-1.82096e-01,-3.40519e-02,-1.02466e-01,5.73433e-02,2.51152e-01,4.03870e-02,-5.28314e-02,2.39735e-02,1.34029e+00,
-5.82364e-02,1.18354e-01,1.56575e-01,-2.05556e-01,1.18995e-01,-6.56471e-02,1.71207e-01,-2.32608e-01,-2.50083e-01,-1.60420e-01,-2.10333e-01,-3.91047e-01,1.29582e-01,1.86548e-01,-5.77963e-01,-1.89988e-01,1.11582e-01,-1.01802e-01,1.15418e-01,1.13529e-01,2.25053e-01,2.15045e-03,1.57800e-01,-1.05799e-01,2.68273e-01,-1.36143e-01,-2.46991e-02,-2.52143e-01,-1.81970e-01,8.14349e-02,-2.77557e-01,3.20858e-01,-7.06858e-02,-1.36662e-02,3.91320e-02,-1.03008e-01,-1.13772e-01,1.09593e-01,3.90352e-02,-4.14136e-01,2.14284e-01,1.12149e-01,-3.52495e-01,1.86377e-01,-3.01080e-01,
3.64838e-02,1.10235e-01,-2.83169e-02,-1.46023e-01,-1.88015e-02,3.53696e-01,-9.50599e-02,7.74442e-02,2.76508e-01,3.40452e-01,4.71899e-02,3.65358e-01,2.22641e-02,3.24478e-01,5.38446e-01,2.68229e-01,-4.80687e-01,8.13156e-01,-1.55633e-01,2.13300e-01,2.82475e-01,-3.29170e-01,2.10991e-01,1.68796e-01,6.15220e-02,2.10462e-01,-1.01818e-01,1.87024e-01,-1.49865e-01,-3.29698e-01,-3.01112e-02,-2.89565e-01,-1.33619e-01,4.03113e-01,9.00748e-02,2.02077e-02,2.74187e-02,2.68280e-01,-5.75120e-02,3.23394e-01,-2.69577e-01,2.30219e-01,-1.68796e-01,2.42302e-01,3.80961e-01,
-1.06035e-01,3.21419e-02,-1.88863e-01,2.19587e-01,-4.66091e-01,2.16073e-01,1.56914e-01,-6.97072e-02,1.10514e-01,-6.59967e-02,-2.12941e-01,3.82697e-01,7.02358e-02,-1.76358e-01,2.30295e-01,2.64413e-01,2.52497e-01,3.27460e-01,7.63967e-02,3.67566e-01,3.83587e-02,-5.47083e-01,3.40217e-01,-3.02236e-01,2.26841e-01,-3.35758e-01,-3.42826e-01,8.34006e-02,-5.79625e-02,1.13886e-01,-9.57219e-02,3.80439e-01,-2.82978e-01,2.09914e-01,5.43741e-01,1.90073e-01,-2.86562e-01,2.30409e-01,-3.33617e-01,-1.19785e-01,-1.48545e-01,1.37758e-01,3.47228e-01,1.78003e-01,-6.02156e-02,
2.83303e-02,1.62258e-01,3.88926e-01,-4.01291e-02,1.03485e-01,3.64735e-01,-1.97472e-01,-2.00328e-01,-1.86001e-01,-2.42920e-01,1.36916e-01,3.34391e-01,7.07908e-02,-2.74199e-01,-1.65426e-01,6.45786e-02,1.09863e-01,2.70290e-01,-5.47153e-02,4.44850e-02,-9.00870e-02,-2.53802e-02,-6.91465e-03,6.51159e-02,1.50721e-01,-1.73249e-01,3.32130e-01,-1.19118e-01,-1.53147e-01,9.34595e-02,2.86588e-01,-2.60980e-01,-7.94250e-02,1.48430e-01,1.00719e-01,-4.32420e-02,1.46049e-01,-1.34692e-01,1.19489e-03,3.70996e-01,1.23468e-01,6.65077e-02,1.75955e-01,1.23410e-01,-3.99027e-01,
-1.87683e-01,-1.27484e-01,3.67879e-01,3.23597e-01,2.25747e-01,-2.11478e-01,-7.30880e-02,-2.16559e-01,1.08641e-01,5.97525e-02,1.40566e-01,-2.59613e-01,-1.09130e-01,1.88887e-01,-6.47631e-02,-6.49544e-03,2.64771e-01,-5.07282e-02,5.50728e-03,7.61355e-02,1.12655e-01,1.63593e-01,-3.16265e-02,1.79426e-03,3.07408e-01,1.25840e-01,2.92596e-01,1.23291e-01,-1.26062e-01,1.49208e-01,-1.22087e-02,8.00149e-02,-2.60048e-01,3.14550e-02,-1.79932e-01,2.38803e-01,-7.97224e-01,1.70392e-01,-3.78291e-01,-2.20429e-01,5.58270e-02,-2.07457e-01,-1.53806e-01,-1.45648e+00,-2.09205e-02,
-1.40441e+00,3.04546e-02,1.46366e-01,-1.36551e+00,2.62204e-01,6.01601e-02,-9.31632e-03,3.03427e-03,8.49469e-02,-6.57794e-02,4.07564e-02,-5.96565e-02,-2.53352e-01,5.62013e-02,-7.52305e-02,7.48786e-02,6.03810e-02,-4.81807e-01,-2.23203e-01,-9.27895e-02,-3.01076e-02,8.80421e-02,2.74287e-02,2.36080e-01,7.10137e-02,1.82554e-01,-7.95273e-01,1.50743e-01,-2.41392e-01,-1.08894e-01,-6.54951e-02,-2.17565e-03,1.43383e-01,-7.23141e-02,7.31954e-02,2.84207e-05,-3.71223e-01,5.90304e-02,4.15017e-01,1.96792e-01,-4.92975e-02,6.18983e-02,-1.44593e+00,2.26315e-01,-1.98519e-02,
-2.41845e-01,-1.35289e-01,-2.56037e-01,1.68767e-01,-6.98250e-03,1.78809e-01,-1.68471e-01,-2.11758e-01,2.07327e-01,2.29268e-01,-1.35153e-01,-6.12614e-03,-1.57416e-02,-6.51330e-02,-2.05700e-01,-1.84520e-01,-5.22286e-03,-2.54082e-01,-1.36379e-01,-1.42251e-01,1.05000e-01,2.70820e-02,-1.71747e-01,-8.36450e-02,-1.57278e-01,-1.94472e-01,5.69385e-02,-1.10428e-01,-9.62314e-02,-1.06384e-01,2.82373e-02,-2.06869e-01,2.00974e-01,6.21614e-02,5.99807e-02,8.83573e-03,-2.23700e-01,-1.08893e-01,-2.96596e-02,9.17021e-02,-1.99236e-01,5.07509e-02,-2.57737e-01,-8.89330e-03,-1.43215e-01,
-2.38746e-01,7.50215e-02,-1.67748e-01,1.26689e-01,-4.77892e-01,-4.74361e-01,1.67405e-01,1.96607e-02,-2.86676e-02,5.30368e-02,-1.65795e-01,-2.62304e-01,-6.75077e-02,4.69661e-02,-2.39056e-03,1.95986e-01,3.56942e-02,-9.18671e-01,3.06892e-01,2.25354e-01,-1.62389e-01,3.56824e-01,2.01217e-01,-1.74428e-01,8.90869e-02,-4.37887e-01,1.57392e-01,2.65745e-01,-5.56153e-02,2.91513e-01,8.05585e-02,-1.30064e-03,-5.19907e-01,-4.25511e-01,-3.82188e-01,3.24010e-01,1.52349e-01,-1.16845e-01,3.32418e-01,-5.64834e-02,2.13481e-01,-2.52091e-01,2.95677e-01,-1.10977e-01,-7.06389e-01,
-4.78219e-02,3.08882e-01,2.74119e-01,-2.85505e-01,2.31982e-01,-3.13049e-02,-2.78154e-01,4.03821e-01,-6.68041e-02,2.90544e-01,6.26838e-02,-4.52092e-02,-2.10630e-01,2.83281e-01,-1.24552e-01,2.17402e-01,4.53244e-01,-1.20231e-01,-5.48426e-01,1.37882e-01,3.42451e-01,7.20518e-02,-7.06569e-02,-6.26319e-03,-4.69796e-01,3.48502e-01,1.68318e-01,2.85887e-01,-2.89754e-01,7.31207e-02,2.33217e-02,-6.43165e-01,2.48009e-01,-3.16464e-01,-2.25157e-01,5.41676e-02,-2.21519e-01,9.42094e-02,8.75537e-02,-4.92193e-02,-1.65341e-01,-8.39818e-02,-1.75357e-01,8.44997e-02,-5.55154e-02,
-2.45348e-01,9.12154e-02,-2.08275e-01,-1.05533e-01,-1.53158e-01,9.26894e-02,-5.93061e-02,-1.59755e-01,-8.49312e-02,9.02610e-02,-3.29612e-01,1.15269e-02,-2.55339e-02,-2.38288e-01,-1.31529e-01,-6.59413e-02,-5.02890e-03,1.44104e-02,-7.52895e-02,7.00066e-02,-1.52378e-01,8.00497e-02,3.64400e-01,8.04925e-02,-7.33872e-03,8.20530e-02,-1.61379e-01,-1.48940e-01,8.64360e-02,2.11512e-01,6.23591e-02,4.85366e-01,1.04314e-01,-9.83283e-02,1.80208e-01,1.29489e-01,-1.47458e-02,-2.91774e-01,-3.30696e-01,9.97118e-02,3.71695e-01,1.18648e-01,2.60546e-01,-1.10206e-01,-1.18626e-01,
-1.56835e-01,-2.92854e-01,1.41551e-01,7.74702e-02,-2.16680e-03,-4.22946e-01,-6.40852e-02,2.73490e-01,4.73471e-01,-1.06239e-01,1.04852e-01,2.95414e-02,-1.01668e+00,-4.88328e-01,-6.12636e-02,-3.88448e-01,2.94050e-01,-1.14347e-01,-1.50872e-02,2.03607e-02,-1.34922e-01,4.58407e-01,-1.18047e-01,1.59419e-01,1.21571e-01,-7.77481e-03,5.10492e-02,1.32667e-01,-1.00658e-02,1.65670e-01,-2.41273e-02,-6.47925e-01,-5.87395e-02,-1.11647e-01,-4.70887e-01,-8.74092e-02,-7.99700e-02,6.96155e-02,2.56066e-01,-3.17175e-01,4.11334e-01,-3.31251e-01,-2.49678e-02,-1.97541e-01,-5.16714e-01,
3.14392e-01,-2.48675e-01,2.62956e-01,7.76474e-02,-6.63281e-02,-5.89838e-02,3.94063e-01,9.39135e-02,-3.20176e-01,1.46520e-01,3.82755e-01,2.97146e-01,-3.09110e-01,-1.09233e-01,-2.27705e-01,1.36300e-01,-8.78027e-02,-4.48533e-01,-1.48561e-01,-4.12797e-01,-1.85484e-01,3.82522e-01,5.10489e-02,-8.11845e-02,-2.18345e-01,3.15927e-02,4.70658e-01,-4.61507e-01,4.10479e-01,-8.43605e-03,-1.09902e-01,1.19926e-01,2.56140e-01,-8.75859e-02,-7.56384e-02,-1.66828e-01,5.22189e-02,-1.86187e-01,-3.07806e-01,-1.48566e-01,3.66606e-01,-7.92835e-02,-1.44704e-01,-4.65152e-01,1.52783e-01,
-1.19030e+00,6.44582e-03,2.86471e-02,-3.27968e-01,-3.75077e-01,-1.51824e-01,2.84108e-02,8.38704e-02,-2.51918e-01,1.17176e-01,-1.04329e-01,9.48101e-02,3.88941e-01,1.75919e-01,-2.75087e-02,9.19301e-02,-2.27189e-01,9.54681e-02,4.45179e-02,1.68888e-01,1.20654e-01,-3.58970e-01,2.50807e-01,3.08594e-01,7.02172e-02,2.39026e-01,-2.05079e-01,-4.25858e-02,-3.83243e-01,-6.84390e-02,-4.39848e-02,-6.66632e-02,-1.22246e-01,7.25546e-03,-1.49594e-01,1.98424e-01,-2.56439e-01,1.38088e-01,2.00187e-01,-1.16588e-01,-1.74440e-01,3.71184e-02,-3.18161e-01,-1.97273e-01,-1.52902e-01,
-8.53176e-02,1.74872e-01,-6.58649e-02,-5.70891e-02,4.07934e-03,2.13702e-01,1.16411e-01,-6.93404e-01,-3.98407e-02,2.38763e-01,1.38227e-01,-2.11211e-01,-5.20822e-01,-4.03515e-01,-1.73881e-01,9.23212e-02,-1.83630e-01,-1.82787e+00,4.51237e-01,-3.16646e-01,-2.07595e-01,1.59102e-01,8.62024e-02,4.89547e-02,5.48044e-01,-9.84900e-02,9.57927e-02,-1.15331e-01,3.86894e-01,2.71981e-01,-1.45919e-01,1.74474e-01,-2.78305e-01,2.51588e-01,2.79270e-01,2.16584e-01,-1.73437e-02,1.29765e-01,9.50769e-02,1.23796e-01,3.14787e-01,3.77417e-01,5.44270e-02,-1.37531e-01,-4.81921e-03,
-1.71014e-01,-3.21721e-01,1.11388e-01,2.41755e-01,-9.79123e-01,1.94687e-01,-2.20841e-01,3.34578e-02,2.17053e-02,-1.91010e-01,2.43309e-01,2.24950e-02,3.71732e-01,-9.33628e-02,1.48095e-02,6.86630e-02,-2.42609e-02,6.68569e-01,2.89488e-02,3.84636e-01,3.27909e-01,-7.98712e-01,1.75599e-02,2.93493e-02,2.21255e-01,-2.23643e-01,-1.53751e-01,-1.58741e-01,-3.83501e-01,2.52640e-01,1.22573e-01,-5.13191e-02,1.00496e-01,3.88810e-01,-4.63399e-01,-9.11541e-02,1.85673e-01,-9.93109e-04,-1.27411e-01,2.01070e-01,-1.04345e-01,-1.92469e-01,-1.39329e-02,-2.81497e-03,7.20169e-03,
-1.30301e-01,4.69580e-02,1.76375e-01,1.11589e-01,2.88899e-02,8.93859e-02,-1.74787e-01,2.90096e-02,-1.50748e-02,-2.21171e-01,-1.98703e-01,-1.85888e-01,3.21484e-01,-1.15012e-02,-5.68752e-01,-2.94851e-01,7.23998e-02,2.17393e-01,-6.57514e-02,4.11176e-01,1.02122e-01,-5.34617e-01,1.46808e-01,1.11094e-01,1.96112e-01,-1.53514e-01,2.65570e-01,1.15935e-01,-1.46042e-01,6.06047e-02,-1.19520e-01,-8.58178e-02,-3.49884e-01,-2.34860e-01,1.92236e-02,4.46918e-02,-1.77884e-01,2.51397e-02,2.82478e-01,2.08667e-01,-4.93358e-02,5.97546e-02,-8.09928e-02,-9.49270e-02,-2.05773e-01,
9.53930e-02,1.85896e-01,1.39853e-01,3.64831e-01,-8.68932e-02,-3.60964e-02,-8.25476e-01,4.59742e-01,-3.60164e-01,-1.87484e-01,-1.23664e-01,-1.90895e-01,3.24289e-01,-9.91780e-02,-1.27150e-01,-3.48237e-02,4.78541e-02,-6.87837e-01,-1.99783e-01,8.95038e-03,1.28681e-01,-8.67840e-02,-2.60677e-02,2.19237e-01,-2.62953e-01,4.35903e-02,1.29214e-01,9.38772e-02,-2.37192e-01,-3.55077e-01,1.03637e-01,-2.08309e-01,6.06027e-02,-4.88872e-01,-1.35481e-01,9.42512e-02,-5.73828e-02,-1.16630e-02,1.94188e-01,7.66708e-02,-3.48306e-01,6.24572e-02,-1.63909e-01,8.00816e-02,1.93307e-01,
-1.86116e-01,6.26630e-02,1.53323e-01,-1.89082e-01,8.87471e-02,3.15870e-01,2.19602e-01,3.93178e-02,3.59354e-01,-5.11258e-02,1.77379e-01,-1.05645e-01,-3.77276e-01,2.69769e-01,-7.90765e-03,1.28576e-01,3.01720e-01,3.80989e-01,-1.25412e-01,-2.20464e-01,9.64620e-02,2.45888e-01,3.91089e-02,8.96468e-02,-1.83587e-01,4.28152e-01,8.12040e-02,3.15968e-02,3.36155e-02,1.71736e-01,-7.57892e-02,-2.29739e-01,2.61615e-01,1.49622e-01,3.71430e-02,1.61278e-01,-8.49774e-02,4.30318e-03,-1.82489e-01,-6.25304e-02,5.84564e-02,-4.30618e-01,5.31986e-02,-1.19481e-01,2.34787e-01,
-1.07197e-01,1.24848e-01,2.38257e-01,-1.11723e-02,-1.03609e-01,5.89265e-01,-3.97463e-02,-8.35106e-01,-7.08759e-02,4.40726e-01,4.42774e-01,-3.20186e-01,-1.80413e-01,-4.10828e-01,3.47284e-01,2.82700e-01,-9.00773e-02,-2.05356e-02,-5.23306e-01,-1.27936e+00,-6.92345e-01,2.40164e-01,8.64720e-02,1.98916e-01,4.85148e-02,6.93819e-02,5.67168e-02,2.89751e-02,-2.50366e-01,1.13340e+00,-1.16360e-01,-3.73947e-01,-2.69884e-01,6.20516e-01,1.09514e-01,2.24553e-01,-1.10745e-01,1.41787e-01,3.33477e-02,-2.78231e-01,-1.95506e-01,3.97277e-01,9.02379e-02,1.03695e-01,3.31361e-01,
-4.91511e-02,3.21938e-01,-1.43353e-01,2.77948e-01,7.36761e-02,-1.28425e-01,-2.13903e-01,6.41865e-01,-1.77063e-01,1.46675e-01,2.28047e-01,2.19232e-01,4.68414e-01,1.84820e-01,5.66212e-01,-2.55128e-02,-1.04722e-01,1.16259e+00,-1.86966e-01,-1.42279e-01,3.16449e-01,-3.67497e-01,1.29779e-01,2.91265e-01,-6.37066e-01,5.48269e-02,-5.50878e-03,1.71879e-01,-7.22191e-02,-4.96809e-01,-1.29225e-01,-2.28803e-01,3.77475e-01,-1.86322e-01,-1.22743e-01,-2.18035e-01,-3.06931e-02,-3.71768e-02,2.20685e-01,-5.30937e-01,-5.76044e-01,5.24669e-02,1.40697e-01,-1.18102e-01,2.33251e-01,
-1.11473e+00,-5.18161e-01,1.37711e-01,-9.90532e-01,1.33829e-01,1.63795e-02,6.54705e-02,6.20527e-03,2.59806e-01,-1.27733e-02,-5.22866e-02,-1.57231e-01,-1.30750e-01,1.13704e-01,2.94857e-01,-2.75516e-01,2.30845e-01,5.41272e-01,-5.73949e-02,2.14648e-01,-1.59607e-03,-2.10661e-01,-2.05148e-01,6.39471e-02,-8.69017e-02,1.89303e-01,9.38114e-02,4.52388e-01,-1.07909e-01,4.02261e-02,4.26131e-02,-1.05642e-01,-5.12144e-03,-1.42547e-01,-3.58135e-01,6.53528e-02,-3.01316e-01,3.31463e-01,2.91202e-01,-1.79440e-01,-2.19470e-01,2.34037e-01,-1.36198e-01,-4.79594e-02,2.52024e-02,
-1.31095e-01,-1.56301e-01,3.50595e-02,-1.62624e-01,4.01730e-01,4.72404e-02,1.11576e-01,-1.40810e-01,-2.50852e-02,1.82340e-01,-9.72359e-02,-1.12778e-01,-6.39454e-01,-5.65928e-01,1.06026e-02,-6.59708e-02,-9.05093e-02,-9.19431e-01,-7.63698e-02,-1.65852e-01,1.40049e-01,6.25235e-01,1.83749e-01,6.56211e-02,4.84356e-02,1.43973e-01,2.82379e-01,9.05541e-02,3.84750e-01,-1.20984e-01,9.39660e-02,1.19604e-02,-6.48583e-02,5.16217e-02,4.27135e-01,5.42192e-02,-2.16523e-01,9.98509e-02,-3.42239e-02,2.73831e-01,2.61945e-01,1.20871e-01,-2.10376e-01,1.41465e-01,1.18541e-01,
1.69746e-02,2.52326e-01,3.40464e-01,7.82234e-02,6.79926e-02,3.11993e-01,-1.17398e-01,2.84682e-01,2.92158e-01,1.15499e+00,2.04777e-01,-7.09255e-02,2.31378e-01,2.48120e-01,2.34331e-01,1.31256e-01,-8.23472e-02,-6.40988e-02,-8.05462e-02,-3.43767e-01,-3.21640e-01,8.67158e-02,2.86510e-01,-1.96263e-01,-1.43787e-01,3.15252e-01,8.50627e-02,-6.87242e-02,1.61988e-01,8.58742e-02,2.53315e-01,-3.75947e-01,2.07551e-01,5.53630e-01,-2.33408e-01,3.15588e-01,-3.62257e-01,5.26493e-01,-3.97619e-01,-2.64312e-01,-6.75749e-01,-5.32096e-02,2.93008e-01,-3.59478e-01,2.94119e-02,
1.34283e-01,2.83165e-01,-6.68862e-02,1.21702e-01,3.84188e-01,1.51825e-01,8.66163e-02,1.46529e-01,-5.03058e-02,-8.84901e-02,-1.55454e-01,1.02292e-01,-5.64629e-01,-5.10833e-01,-2.15857e-01,1.50716e-01,-3.48427e-01,6.20625e-01,-1.52410e-01,-6.07179e-01,4.56684e-02,3.40360e-01,-4.25021e-01,1.54899e-01,2.25617e-01,1.60002e-02,9.72681e-02,3.65245e-01,2.13963e-01,2.55266e-01,1.54151e-01,-1.88849e-01,5.32918e-02,4.89084e-01,3.77781e-02,2.76456e-01,-1.22065e-01,1.09208e-01,3.28497e-01,-1.95427e-01,1.96226e-01,4.00538e-01,-2.61249e-01,2.99263e-01,1.37731e-01,
2.39918e-01,1.83076e-01,-8.79897e-02,3.94846e-01,-1.97725e-01,2.74351e-02,1.00657e-01,-3.12484e-01,1.40069e-01,1.51366e-02,-4.28976e-02,-1.12072e-01,1.78380e-01,-7.55586e-02,-2.43799e-01,3.37578e-02,2.33751e-02,-4.48806e-02,1.84091e-01,3.54669e-01,-9.72189e-02,-1.94881e-01,-3.61498e-01,3.99093e-01,2.43970e-01,1.28904e-01,-5.24773e-02,-1.51377e-01,1.95161e-01,1.22686e-01,-4.23105e-01,8.74704e-02,1.45593e-01,-2.02355e-01,8.22920e-02,1.21317e-01,-8.50392e-01,-2.70426e-02,2.09801e-01,-1.32909e-01,1.04545e-01,-1.14584e-02,3.12931e-01,-6.28068e-01,1.48743e-01,
-1.85364e+00,1.14892e-01,1.57670e-01,-4.29564e-01,-3.37460e-02,1.53768e-01,-1.71882e-01,-1.07896e-01,-1.07026e-01,-1.28111e-01,2.06753e-01,1.92920e-01,8.45086e-02,-1.98998e-01,4.43829e-02,-2.03697e-02,-2.98878e-01,-2.80776e-01,5.63167e-02,1.47037e-01,3.71212e-01,-4.96140e-03,4.62490e-02,1.00657e-01,-3.23856e-01,-3.22064e-01,-1.09095e-01,-2.56903e-02,-7.92654e-02,3.93535e-03,1.96016e-01,-8.40442e-02,8.91660e-02,-1.37474e-01,-2.44259e-01,2.17164e-01,-1.04272e-02,1.37306e-02,1.28468e-07,1.29406e-01,9.88853e-02,8.81132e-02,-6.10124e-01,2.01016e-01,-2.47561e-01,
1.09599e-01,-2.46931e-01,-4.52876e-02,2.31173e-01,-3.22639e-01,-1.27390e-01,-2.77558e-01,-6.86168e-02,-3.89763e-02,1.54217e-01,-1.32814e-01,-1.81832e-01,1.33199e-01,1.84198e-01,9.93253e-02,7.48665e-02,4.24196e-01,4.92992e-01,2.29585e-01,3.17499e-02,1.80615e-01,-4.78166e-01,2.05503e-01,1.20840e-01,6.45316e-02,3.15338e-02,9.40144e-02,5.27698e-01,-2.04843e-01,9.22409e-02,2.69212e-01,-2.06513e-02,7.90697e-02,-6.56280e-02,-7.42657e-01,2.22714e-02,-7.37835e-01,2.04762e-01,-4.75625e-01,-3.53296e-01,-8.59524e-02,-2.45028e-01,2.39445e-01,-2.17108e-01,-3.48690e-01,
5.16344e-01,2.22244e-01,1.26617e-02,2.36827e-01,-3.21162e-01,3.61956e-02,1.23792e-01,-2.23579e-01,1.88765e-01,4.04025e-02,4.52795e-04,2.72105e-01,1.76047e-01,-1.28482e-01,-2.03658e-01,2.42648e-02,-5.95719e-02,1.26507e-01,3.73032e-01,-1.23323e-01,6.22605e-02,-2.85400e-01,4.08826e-01,2.31423e-01,2.48221e-01,-2.28403e-01,6.17161e-02,2.17929e-01,-6.20397e-02,-6.37711e-02,5.16289e-01,3.35374e-01,-6.76794e-02,2.96840e-01,4.14961e-01,-3.60355e-02,4.94803e-01,-4.79063e-02,1.09962e-01,1.02939e-01,-3.11949e-01,2.29348e-01,1.25805e-01,1.14154e-01,3.16898e-01,
5.62864e-01,-2.66020e-01,1.45279e-01,3.12495e-01,3.96038e-01,1.14489e-01,-2.00940e-01,-6.92934e-02,-4.42605e-02,-1.73853e-01,1.63944e-01,-2.01970e-03,4.28518e-02,8.50057e-02,-1.89475e-01,-2.88838e-01,2.03124e-01,-2.31134e-01,1.26571e-01,-1.52805e-01,1.65557e-01,-1.63874e-01,3.73221e-01,8.66242e-02,-1.73907e-01,-1.41938e-01,3.60186e-01,-1.43700e-01,1.31724e-01,-8.66885e-02,5.74311e-02,1.09072e-01,-4.93398e-02,-2.81769e-01,2.85150e-02,-5.36835e-02,8.96251e-02,-1.36510e-01,1.43633e-01,3.13077e-01,4.44882e-02,-2.81749e-01,3.51798e-01,1.63897e-01,3.38666e-01,
8.39012e-02,-3.02778e-02,-2.46521e-02,1.18408e-01,1.58042e-02,-3.87565e-01,2.12127e-01,-3.82045e-02,1.15450e-02,-2.81803e-01,8.41018e-02,-5.37215e-02,-4.63970e-01,-2.50935e-01,-4.70932e-01,7.10722e-02,-1.87501e-01,-1.70188e+00,-2.22964e-01,-6.96636e-02,-3.37726e-02,5.94879e-01,2.65703e-01,-3.12268e-02,-3.98921e-02,-4.08509e-02,1.44048e-02,2.11989e-01,1.67688e-01,3.17990e-01,-1.27618e-01,4.53241e-02,-1.60775e-03,-2.30739e-01,-6.76279e-02,8.48585e-02,-1.95440e-01,2.00171e-02,2.22677e-01,7.09683e-02,4.45432e-01,2.65039e-01,2.32171e-03,-2.51700e-01,-1.16938e-01,
5.40739e-01,-3.41751e-03,-1.54998e-01,9.38052e-02,-6.76901e-02,2.08589e-01,-7.24987e-02,3.72397e-02,-8.35852e-02,3.25887e-02,2.54362e-01,3.38911e-02,-2.35564e-02,5.54679e-02,2.51641e-01,-2.50691e-01,-1.15094e-01,1.45200e-01,2.13008e-01,9.21306e-02,1.61210e-01,1.86301e-01,7.24791e-02,2.94440e-01,1.14663e-01,1.11344e-01,1.45530e-01,-2.48787e-01,7.54176e-02,-2.80302e-01,-2.78822e-01,-1.33710e-01,-2.07122e-01,-1.61170e-01,2.35697e-01,-2.93044e-01,6.97002e-02,-5.47219e-03,-1.13158e-02,-4.17893e-02,6.78724e-02,5.88382e-02,4.16686e-01,-6.21280e-02,4.59834e-02,
-8.03890e-01,-8.62502e-02,-1.41554e-01,-2.31397e-02,3.15928e-02,7.31832e-01,7.29625e-02,1.52040e-01,-9.34574e-02,1.50285e-02,-1.86470e-01,-4.42766e-02,9.30979e-02,-1.68492e-01,6.83035e-01,-4.33480e-01,5.56350e-02,1.34321e+00,1.71200e-01,1.34263e-01,4.93274e-02,3.51894e-01,5.48456e-02,-2.40000e-03,1.38333e-01,-6.63623e-02,-2.49735e-01,-6.57645e-01,-3.19721e-01,-2.21289e-01,-2.51040e-01,-9.93975e-02,-6.25929e-02,-2.49354e-01,3.21586e-01,-2.72316e-01,4.66399e-02,-7.48223e-01,-1.49331e-03,1.46599e-01,3.28998e-01,-1.52605e-01,-8.10337e-02,-2.66504e-02,-3.75401e-01,
1.98516e-01,3.07353e-01,1.22603e-01,-2.42214e-02,-8.37561e-01,8.48285e-02,-5.57920e-02,-1.61017e-01,2.77736e-01,2.77210e-02,1.65788e-02,-5.10923e-02,4.37099e-01,3.41934e-01,2.04938e-01,4.94588e-02,-2.13701e-01,3.59848e-01,-1.01080e-01,3.69518e-01,2.02281e-02,-2.84344e-01,-3.02499e-02,-1.91529e-02,2.73871e-01,3.29965e-02,-1.05607e-01,-1.38633e-01,1.25538e-01,2.81891e-02,8.20414e-02,6.18999e-02,-1.36895e-01,-9.07441e-03,-2.05054e-01,1.90026e-01,1.61713e-01,-5.81152e-02,-4.68331e-02,1.47322e-01,-4.11315e-01,-1.65733e-01,-1.64480e-02,-2.30282e-02,2.28618e-02,
-1.01764e-01,-1.45183e-01,-1.16936e-01,-4.47393e-02,-2.74642e-01,5.12613e-02,-3.78445e-02,-3.31958e-01,-4.85826e-01,2.78111e-02,-1.22381e-02,-9.70882e-02,3.60131e-02,-4.21860e-01,8.14664e-02,2.01888e-01,-2.39551e-01,-5.92821e-01,2.62178e-01,9.16146e-02,-8.94882e-02,4.04431e-03,3.48626e-01,1.85310e-01,2.81840e-01,2.25553e-01,-1.78148e-01,-1.51537e-01,1.12360e-01,3.68454e-01,1.44441e-01,7.10305e-03,-1.82973e-01,2.37147e-01,1.22105e-01,1.54925e-01,1.91449e-01,2.51060e-01,-1.27805e-01,2.24693e-01,1.31244e-01,1.97113e-01,1.94897e-01,2.14126e-01,2.03232e-01,
2.50294e-01,-2.71529e-01,2.76376e-02,1.93129e-01,9.58887e-02,1.65233e-01,2.80866e-01,-3.63971e-01,1.78405e-01,-2.41928e-01,8.32210e-02,-1.46235e-01,-4.15367e-02,-4.47997e-01,-3.83508e-02,3.81560e-02,-2.22794e-01,-4.40124e-01,2.12405e-01,-4.60030e-01,-1.16232e-01,-2.68950e-02,-2.04574e-01,1.72668e-01,-2.04964e-01,-1.53391e-01,-1.11560e-01,-3.84644e-02,2.09435e-01,9.76977e-02,-8.11901e-02,1.63323e-01,-5.56073e-02,4.10307e-01,-8.34810e-02,1.42460e-01,-1.74825e-01,-3.96303e-02,1.33473e-01,1.98455e-01,6.89419e-02,1.38013e-01,-5.57322e-02,2.20563e-01,-7.79456e-02,
-1.72382e+00,1.10675e-01,2.61791e-01,-1.60750e+00,2.27871e-01,1.29361e-01,1.03183e-01,1.44631e-01,-7.93703e-02,-1.72956e-01,1.33650e-01,3.30567e-01,1.78714e-01,-1.71711e-01,-9.65036e-02,1.12569e-01,9.81143e-02,-1.53415e-01,-6.53699e-02,6.00545e-02,1.40737e-02,1.97205e-01,1.42654e-01,2.79476e-01,-6.70782e-02,2.37312e-01,-6.89160e-01,-6.83839e-02,-1.46660e-01,-1.80030e-01,2.02441e-01,-2.16899e-01,-1.47488e-01,-6.60928e-02,7.63749e-02,1.17642e-01,5.04649e-01,4.03965e-02,1.72787e-01,-6.61333e-02,1.80653e-01,-5.01467e-02,-2.71395e+00,6.51224e-01,3.95105e-01,
3.51588e-01,-8.55868e-02,1.02561e-01,-1.38189e-01,2.51803e-01,2.52601e-01,3.06716e-01,1.37585e-01,9.47510e-02,2.24530e-02,-8.91074e-02,2.75597e-01,2.12576e-02,1.63111e-02,4.33682e-01,4.37795e-01,-1.63666e-01,5.48311e-01,-3.11771e-01,-3.46595e-01,-1.14423e-01,3.05562e-01,-3.37319e-01,1.01402e-01,-2.99538e-01,-9.87511e-02,-1.80106e-01,-2.19586e-01,5.27036e-01,2.05669e-01,1.86882e-01,-2.26640e-01,-8.59366e-02,2.03536e-01,-1.81496e-01,-2.52803e-01,3.64130e-01,1.48623e-01,1.16887e-01,-9.80829e-02,2.41022e-01,-8.18486e-02,4.39130e-02,2.32210e-01,1.89984e-01,
-1.51947e+00,-2.74714e-01,-1.38861e-01,-3.54842e-01,-2.32691e-01,-3.42108e-01,1.39910e-02,2.15137e-01,-1.92426e-02,-2.41651e-01,1.50672e-01,3.16423e-01,-3.79637e-02,7.41994e-02,-1.55436e-01,-1.24246e-01,1.08120e-01,3.32565e-01,-4.72546e-01,1.08219e-01,1.72506e-01,1.01381e-01,8.11545e-02,-3.42739e-01,-2.21589e-01,1.35789e-01,-4.11304e-01,-1.85536e-01,1.19680e-01,1.69012e-01,3.76778e-01,1.24992e-01,-1.75282e-01,-1.70249e-01,-2.70574e-01,1.21831e-01,1.01619e-01,-6.62355e-01,-6.86159e-02,-7.95761e-03,1.52943e-01,-1.95296e-01,-4.88004e-01,1.09534e-01,1.50852e-01,
-5.23499e-02,-7.86963e-02,1.28195e-01,-3.31227e-01,1.81639e-01,-1.08678e-01,7.60939e-02,4.05506e-01,-4.11365e-01,-2.51343e-01,1.08746e-01,3.58845e-01,4.21123e-01,-1.18913e-01,2.60721e-01,3.65571e-01,2.75248e-03,-2.98536e-01,-2.95060e-01,2.38301e-01,1.74999e-01,-3.26541e-01,2.94577e-02,-6.56021e-02,-1.34477e-01,8.84127e-02,2.83278e-02,-2.73308e-01,7.19718e-02,-5.43768e-01,1.16666e-01,-1.06660e-01,1.83698e-01,1.73311e-01,2.71004e-02,-9.27848e-02,1.40988e-01,-1.80203e-01,-7.25860e-02,-4.28386e-01,-5.40195e-01,-9.32209e-02,2.75988e-01,4.46365e-01,-8.16359e-02,
-1.53710e-01,-3.67907e-01,9.19039e-02,6.21400e-02,-2.69459e-01,2.51712e-01,-3.43595e-01,2.87973e-01,-1.64654e-02,1.42200e-01,4.21886e-01,-1.27868e-01,2.55197e-01,2.68377e-01,1.38512e-01,-2.02202e-02,1.22861e-01,8.12189e-01,1.53842e-01,2.61150e-01,-2.33595e-02,-2.85619e-01,-2.52346e-01,-1.19636e-01,-4.14559e-01,2.13756e-01,1.52927e-01,-2.37124e-01,-3.42740e-01,-2.26651e-01,1.04101e-01,-1.07440e-01,2.99753e-01,1.07036e-01,-3.07711e-02,3.19981e-02,2.04560e-01,3.62598e-01,6.73082e-03,-2.02744e-01,-2.30857e-01,1.03185e-01,-9.56386e-02,1.92901e-01,-1.26112e-01,
2.56881e-01,-2.22065e-01,-3.17486e-02,2.83064e-01,-4.89150e-01,2.49216e-01,-3.16242e-01,5.23429e-02,-2.28699e-02,-9.43822e-03,-2.42165e-02,-2.14952e-01,5.23176e-01,1.67660e-01,-2.98129e-02,2.40302e-01,-2.30946e-01,-3.47922e-01,-4.64499e-02,3.74648e-01,-4.14183e-02,-6.12633e-01,3.67783e-01,2.35025e-01,3.54167e-02,-7.62849e-01,-2.67281e-01,-5.57166e-02,-2.63204e-01,2.22968e-01,1.93608e-01,2.31046e-02,-2.53627e-01,-2.07556e-02,-1.96722e-01,-1.32688e-01,-6.83399e-02,-3.58467e-02,-1.20398e-01,1.32408e-01,-3.13603e-01,-1.56625e-01,2.14775e-02,-9.45888e-03,-1.34100e-01,
2.85894e-01,1.20504e-01,2.44667e-02,3.55839e-03,-5.59813e-01,2.31963e-01,-6.67017e-02,1.96493e-02,-2.34111e-01,4.14128e-04,8.92446e-02,1.51591e-01,4.66950e-01,-4.27070e-02,4.61809e-01,3.18054e-01,4.30157e-02,-2.39707e-01,1.23027e-01,7.57578e-02,-1.58624e-01,-3.43923e-01,1.03276e-01,1.56372e-02,1.48512e-01,2.01712e-01,-9.92451e-02,-1.93937e-01,-2.16456e-01,-4.47625e-02,-1.88543e-01,-2.17917e-01,4.49854e-03,3.87308e-01,-7.23473e-02,-2.82088e-01,-1.36876e-01,-1.59379e-01,-7.56813e-02,8.10545e-02,-2.31763e-01,2.16554e-01,3.66154e-02,-1.52633e-01,-1.35104e-01,
3.28972e-02,
7.24471e-02,
-1.61980e-01,
1.06260e-01,
-4.06312e-02,
-7.84536e-02,
2.38207e-03,
4.06742e-02,
1.71149e-01,
-9.37242e-03,
5.94161e-02,
7.18977e-02,
1.80570e-02,
1.31774e-01,
1.23503e-02,
1.49996e-01,
2.31151e-02,
9.30983e-02,
1.71748e-01,
9.94021e-02,
-1.86064e-02,
-9.41769e-02,
4.14635e-02,
1.19619e-01,
4.46167e-02,
-8.49885e-02,
2.18194e-02,
2.79505e-02,
1.81337e-01,
-7.76005e-02,
-1.25757e-01,
-6.54015e-02,
1.58139e-01,
-4.71976e-02,
1.52796e-02,
1.03980e-01,
3.65272e-02,
9.59981e-02,
4.70901e-02,
-5.36820e-02,
1.08144e-01,
8.80072e-02,
5.03230e-02,
8.87093e-02,
7.54396e-02,
2.22321e-01,3.80540e-03,4.33694e-02,-1.38407e-01,-2.19856e-03,-3.30470e-01,3.03346e-01,-2.65492e-01,-4.15604e-01,1.80900e-01,2.32604e-01,-1.39809e-01,2.86796e-01,-1.23481e-01,-2.18687e-01,9.28282e-03,1.51505e-01,3.13745e-01,1.08679e-01,-2.31347e-01,-3.67068e-01,-2.04007e-02,-1.20211e-01,-6.14418e-01,1.29685e-01,5.68142e-02,2.11043e-01,-2.11319e-01,6.08741e-01,-2.97987e-01,-4.01292e-01,3.41262e-02,-1.21350e-01,-1.41257e-01,1.79549e-01,1.50639e-01,3.94784e-02,6.19464e-02,-4.18892e-01,-4.81021e-01,5.19747e-01,1.28798e-02,-1.68376e-01,6.36827e-02,1.56728e-01,
-1.36152e-02,5.40493e-02,-1.77181e-01,-1.89035e-01,8.27260e-02,-5.21698e-02,-7.46107e-02,1.09151e-01,-1.65830e-01,-1.81355e-01,-4.94331e-01,3.25335e-01,-2.71948e-01,3.77514e-01,1.58226e-01,-1.09890e-01,-3.17218e-01,1.36325e-01,-1.31006e-01,1.96466e-02,-3.90599e-02,1.11184e+00,1.18306e-01,4.84908e-02,1.22197e-01,-1.82846e-02,-4.77317e-02,-7.50307e-02,-2.13850e-01,-1.03806e-01,2.02774e-01,1.70924e-01,-4.96853e-02,-1.56039e-01,-4.24661e-02,-1.75081e-01,2.20665e-02,-2.89040e-01,8.71335e-02,6.77914e-02,3.49965e-01,-1.36462e-01,3.51209e-02,6.38031e-02,1.53659e-01,
2.58687e-01,-1.62536e-01,-9.17247e-01,-5.08920e-01,1.72716e-01,1.81547e-01,1.63836e-01,-1.30830e-01,-2.68524e-01,2.11505e-01,-4.72059e-01,-1.99084e-01,-3.22083e-01,-2.92751e-01,-5.37272e-01,2.89160e-02,-2.28176e-02,-3.74151e-02,7.28544e-02,1.29524e-01,-1.29756e-02,1.61689e-01,-1.71725e-01,-3.37097e-01,6.77635e-02,3.67798e-01,2.45220e-01,-2.07420e-01,1.20175e-01,-5.15733e-02,4.15278e-01,-4.55207e-02,-4.12134e-01,9.62262e-02,-5.34793e-01,8.77449e-02,4.95471e-02,9.02992e-02,-3.62528e-02,4.03314e-01,1.51220e-01,3.81165e-01,-1.49513e-01,-1.72492e-01,1.68195e-01,
2.56686e-01,2.09376e-01,-1.37007e-01,-3.53164e-02,2.66472e-03,-1.29187e-01,2.26737e-01,5.33176e-01,-3.04851e-01,-1.38839e-01,2.71326e-01,8.82082e-02,2.31827e-01,-1.68225e-01,-5.48448e-02,-7.33935e-02,-2.00122e-01,2.74502e-01,-8.04123e-03,2.26910e-01,-1.19590e-01,1.47899e-02,-3.90421e-02,-2.84370e-01,2.44086e-01,2.39589e-01,4.71264e-04,-1.22075e-01,-2.24244e-02,2.83556e-01,-3.96084e-01,-1.89755e-01,1.88392e-01,-3.55124e-01,-2.71849e-02,-5.88330e-02,5.72626e-02,4.30204e-03,-5.29160e-01,-2.70827e-01,2.00336e-01,-1.95542e-01,-1.49326e-02,-1.32437e-01,-2.03510e-01,
2.30881e-01,2.90216e-01,-3.91070e-01,-2.93911e-02,2.20879e-01,5.08390e-02,-9.20276e-02,3.78367e-01,-1.07729e-01,8.39150e-02,1.66102e-01,-8.28725e-03,-2.92617e-01,8.80961e-02,3.03124e-01,1.99358e-01,5.69055e-02,-1.38282e-01,2.10327e-01,2.10010e-01,-1.07371e-01,-2.64902e-01,6.93277e-02,1.17827e-01,9.89871e-02,-2.77763e-01,-3.34250e-02,7.17066e-02,2.30900e-01,1.21180e-01,2.10140e-01,2.49592e-01,1.61354e-02,-3.49967e-02,-4.03725e-02,-8.66445e-03,8.14345e-02,-2.85813e-01,-3.40732e-01,-2.48596e-01,-1.40047e-01,-1.08878e-01,-2.51073e-01,-1.76307e-02,-9.38095e-02,
2.97840e-01,-8.00413e-02,8.07852e-02,-1.82996e-01,1.67999e-01,-1.68061e-01,2.14620e-01,4.62146e-02,-2.68304e-01,1.45685e-01,1.18938e-01,-2.56200e-01,2.10834e-02,-1.58025e-01,-2.35584e-01,-1.02262e-01,3.03696e-01,1.59580e-01,-1.35810e-01,-8.06102e-03,3.24398e-02,-1.62565e-01,1.14502e-02,-7.92983e-03,6.50412e-02,1.78854e-02,5.58757e-02,5.37419e-02,3.29519e-01,-1.08926e-01,8.34536e-02,-3.73839e-01,4.03938e-01,2.28463e-02,-1.11398e-01,-1.35944e-02,7.46147e-02,1.71276e-01,-3.29658e-01,-1.27240e-01,-2.20607e-01,-1.58264e-01,-3.76553e-02,-7.88224e-02,2.04941e-01,
-1.85555e-01,8.92712e-03,-2.35740e+00,-3.54876e-01,2.79741e-01,7.91050e-03,-1.08288e-02,-1.43834e-01,-4.06333e-04,-1.21312e-01,5.14456e-02,-1.64841e-01,3.11025e-02,8.84480e-01,-1.64975e-01,-5.21772e-02,2.96388e-01,6.72654e-03,-9.00231e-01,-4.60727e-01,2.69194e-01,5.29933e-01,-2.57054e-01,-1.86622e-01,1.19167e-01,3.61577e-01,2.55909e-01,-1.59487e-02,-1.85298e-01,-2.51156e-01,3.29207e-02,-5.28428e-02,-1.91321e-01,1.12343e-01,-4.34552e-02,-6.40044e-02,4.56875e-02,-2.37654e-02,-9.30112e-02,3.24106e-01,-5.05609e-02,-1.29491e-02,-8.92735e-02,1.92339e-01,1.75890e-01,
7.29414e-02,3.98488e-01,-7.06876e-01,-2.45411e-01,2.71631e-01,-5.56337e-01,1.79399e-02,2.06748e-01,2.29364e-01,-2.27379e-01,1.52791e-01,2.54340e-01,2.84715e-02,-2.90106e-01,-1.51332e-01,1.86907e-02,-2.22517e-03,2.74190e-02,3.57939e-02,3.24778e-01,-6.66883e-02,4.15893e-01,2.29665e-02,-1.62818e-02,-2.94396e-01,2.16680e-01,-1.02912e-01,3.48719e-01,1.98206e-01,2.75204e-02,-4.41127e-01,-2.19519e-01,2.47095e-01,1.51092e-01,-5.29510e-02,-3.29709e-01,2.11299e-01,-1.97710e-01,-1.50188e-01,-1.00607e-01,9.54836e-02,5.28118e-02,-2.08585e-01,-2.88352e-01,7.76516e-02,
-1.48851e-01,-1.73741e-01,3.47705e-01,-4.17986e-02,-1.10596e-01,-2.80711e-01,7.15913e-02,-6.06732e-02,-1.83855e-01,7.57177e-02,-2.52288e-01,-6.13067e-02,-1.98820e-02,-1.84245e-01,-1.92997e-01,-1.02456e-02,-3.50965e-01,3.72309e-01,-1.81997e-01,3.12134e-01,-1.81738e-01,-7.71233e-01,-1.88764e-02,6.67226e-02,-1.96243e-01,-2.75593e-01,2.50505e-01,2.89435e-01,4.99547e-02,-5.90397e-01,4.84716e-01,-1.41631e-01,-9.03666e-02,-2.13685e-01,-1.60140e-02,2.31556e-01,-2.46544e-01,-3.50750e-01,5.61603e-01,2.54757e-01,1.34914e-01,3.74652e-01,2.24264e-01,-1.01074e-02,-1.14581e-01,
8.06671e-02,-1.44397e-01,7.19698e-01,1.52224e-02,-1.29477e-01,-1.07160e-02,-9.76116e-02,-1.09424e-01,-1.37476e-02,1.01619e-01,2.66237e-02,-2.19243e+00,3.11524e-01,-3.97234e-01,-1.32088e-01,1.72162e-01,2.48618e-01,1.57483e-01,-2.53257e-01,-9.92802e-02,5.26147e-02,1.40581e-01,-1.32691e-02,-2.83463e-01,-2.47799e-01,4.57938e-02,1.60397e-01,6.61828e-02,-4.27200e-02,3.53743e-01,2.77715e-01,4.91087e-03,2.09868e-01,1.32331e-01,2.00107e-01,1.58893e-01,1.72766e-01,-1.31394e-01,-1.18160e-01,-3.74810e-02,2.72001e-01,-5.31838e-01,-1.33390e-01,1.79969e-01,-5.31095e-02,
2.97315e-01,-4.77171e-02,-2.47981e-01,-1.76782e-01,-2.30000e-01,-1.52533e-01,-1.65521e-01,1.24444e-02,1.39294e-01,-1.20540e-01,4.26847e-01,9.23683e-02,-1.54954e-02,5.92290e-03,2.48629e-02,-4.45789e-02,2.45777e-01,-1.31420e-01,9.99545e-02,-5.22669e-02,-7.01005e-02,6.88840e-01,-5.06524e-01,-8.41804e-02,-2.62568e-02,2.30292e-01,-2.53026e-01,3.80092e-02,-9.97402e-02,-2.58468e-01,-1.93994e-01,2.59719e-01,2.37402e-01,-8.26781e-02,-1.44283e-01,6.15629e-03,3.43880e-01,2.68021e-01,1.75669e-01,-2.87178e-01,2.02872e-01,-1.26099e-01,-4.95222e-01,-1.63530e-01,-9.13951e-02,
3.03250e-01,2.18925e-01,-8.31388e-01,-4.34014e-01,3.12025e-01,2.22922e-01,-1.71209e-02,4.23123e-02,-1.07132e-01,3.58770e-02,-3.72381e-01,-1.50570e-01,-9.26354e-02,-1.55845e-01,3.16491e-01,3.85744e-01,-2.12996e-01,-2.53036e-01,-8.67650e-02,3.10347e-01,3.34740e-01,8.86582e-02,9.48696e-02,-5.94193e-02,-2.01675e-01,3.56215e-01,6.17921e-02,-2.76164e-01,1.79441e-01,-3.15933e-01,1.94969e-01,-5.15438e-03,2.23245e-02,1.90200e-01,-5.26460e-01,1.43082e-01,2.26498e-01,-1.13362e-01,-2.75733e-01,3.60875e-01,-6.94946e-02,2.12772e-01,2.41533e-01,1.01761e-01,2.67755e-01,
2.19877e-02,3.49555e-01,-9.43417e-01,1.66576e-01,-5.59393e-01,9.49578e-02,8.02145e-02,-7.13310e-01,2.08749e-01,-1.97419e-01,1.73576e-01,-2.22718e-01,1.91947e-01,-1.52551e-01,-6.73993e-01,2.17175e-01,-2.14240e-02,1.90254e-01,-1.37486e-01,-1.70489e-02,8.79892e-02,-2.50050e-01,-5.54172e-01,-6.87454e-03,-7.74045e-02,7.46881e-02,2.66638e-01,-1.31770e+00,1.87938e-01,2.35420e-01,1.34329e-01,-6.98916e-02,2.20085e-01,-2.25937e-01,-6.00635e-02,-1.95756e-02,-1.16355e-01,2.25727e-02,1.65513e-01,-1.21990e-02,4.41898e-02,-7.92931e-02,-6.98363e-01,4.30000e-02,9.89427e-02,
-3.29513e-02,1.74511e-01,-1.41600e-01,-1.80432e-01,3.25704e-01,-1.13258e-01,-1.85193e-03,2.38766e-01,7.32009e-02,2.24219e-01,-7.18065e-02,-2.60264e-01,-1.25675e-02,3.13475e-01,3.08915e-02,-5.89874e-02,-7.72448e-03,-1.26204e-01,-5.12338e-03,1.58366e-01,-4.15982e-02,-2.47045e-02,1.03941e-02,-3.55759e-01,3.33384e-02,-2.88386e-01,-6.44714e-02,6.86456e-02,2.70285e-01,-3.62782e-01,3.15705e-01,9.10285e-02,7.43194e-02,-1.85306e-01,-4.50914e-02,-3.78473e-01,8.52584e-02,-1.30270e-01,4.48457e-01,1.09010e-01,1.74280e-01,1.61280e-01,1.81109e-01,2.19995e-01,-1.34317e-01,
1.98484e-01,-7.61767e-02,-1.02873e+00,-1.09111e-01,1.17510e-01,2.91672e-01,-1.65588e-01,-1.74448e-01,-2.04566e-01,5.10284e-02,-1.02396e-01,-3.66317e-02,-7.16938e-02,4.80695e-01,4.94692e-02,-5.59882e-02,-1.09128e-01,2.04056e-01,-4.03544e-01,1.49110e-01,2.57982e-01,5.74954e-01,1.83900e-01,2.51682e-01,-4.80109e-01,5.03265e-01,-4.52635e-01,-9.94039e-02,-3.32181e-02,2.49237e-02,2.37394e-01,-1.26871e-01,-3.98543e-01,-8.14467e-02,-4.64458e-01,1.89524e-01,2.33281e-01,3.95372e-01,5.54584e-02,4.06990e-02,1.18815e-01,9.26523e-02,2.31261e-01,4.80877e-02,3.41586e-01,
-3.43341e-01,-2.34646e-02,-6.09456e-01,-1.49266e-02,9.89371e-02,-6.49315e-01,4.56639e-02,-2.21124e-02,-1.27506e-01,-2.54078e-01,4.99491e-02,-3.50606e-02,-7.70588e-02,-2.81773e-01,-9.77827e-02,3.09796e-01,-3.91045e-01,6.38064e-01,1.99025e-01,3.38679e-02,-2.02068e-01,-3.75549e-02,1.12417e-01,-6.53630e-02,-8.11074e-01,3.05600e-01,-8.94201e-01,-1.67664e-01,2.75053e-01,-3.81857e-01,4.13859e-02,-7.37434e-02,-3.85001e-01,-4.78187e-02,-1.99843e-01,3.81724e-01,4.38484e-02,-9.72543e-02,-3.37776e-02,-2.09238e-01,6.93806e-02,5.45230e-02,3.66954e-01,3.46352e-01,1.91618e-01,
2.32524e-01,-1.77258e-01,8.43319e-02,-5.21566e-01,-1.07620e-01,9.62909e-01,-8.63056e-01,-1.50876e-01,3.53727e-02,-2.28265e-01,-5.48563e-01,1.05630e-03,9.36981e-02,3.12195e-01,2.54397e-01,-1.90915e-01,-1.09253e-01,-2.30767e-01,-2.86901e+00,5.36916e-02,2.95330e-01,1.35694e-01,1.42083e-01,-9.17735e-02,3.11692e-01,1.95423e-01,-2.15858e-01,4.02454e-02,-2.63765e-01,-1.40031e+00,-1.02723e-01,-2.72003e-01,-3.25069e-02,-1.03956e-01,-1.90950e-01,-3.16076e-01,-5.25113e-01,-1.23349e-01,1.81540e-01,2.97963e-01,-1.21632e-01,9.57260e-02,2.47901e-01,-3.06983e-01,-1.39678e-01,
5.22100e-02,-5.04313e-03,5.44254e-03,3.20180e-01,3.25105e-01,5.31780e-02,2.07550e-01,-1.53877e-01,-1.38730e-01,-6.01487e-02,1.64303e-01,-3.66111e-01,1.47330e-01,-6.60588e-02,4.54777e-02,-2.32570e-01,5.13949e-01,-5.87961e-03,-9.56298e-02,-4.24581e-01,-2.53363e-01,6.67277e-01,-5.19917e-01,2.50562e-01,-3.02808e-02,2.37205e-01,2.55471e-01,2.72661e-01,-2.11293e-01,2.37665e-01,1.51001e-01,-8.63299e-02,6.90314e-02,6.80268e-02,1.01868e-01,-1.53640e-01,3.16757e-01,1.45817e-01,1.33786e-01,1.10042e-01,-3.30435e-01,-1.48651e-01,-2.02070e-01,-4.27056e-01,-7.36453e-02,
1.46604e-01,6.07714e-03,2.48394e-01,-6.01382e-02,7.96639e-02,-1.78395e-01,2.24656e-01,1.23249e-01,-2.14599e-01,-5.11596e-02,3.31795e-02,2.61533e-01,7.40793e-02,-1.31707e-01,-1.71563e-01,-5.48827e-01,-2.83778e-01,2.14601e-01,-2.00602e-01,3.14659e-01,-3.30112e-02,-3.91959e-01,1.87926e-01,-1.95638e-01,6.33791e-02,-8.51952e-04,1.23061e-01,2.32575e-01,-2.65049e-01,3.32721e-02,7.89828e-02,-2.08599e-01,-8.15878e-02,2.21983e-02,5.11385e-02,1.44336e-01,-1.46441e-01,1.82957e-01,2.37991e-01,-2.13688e-01,-2.53416e-01,1.68668e-02,1.94121e-01,2.52287e-01,4.30951e-01,
1.66687e-01,3.28574e-02,4.18063e-01,-7.72028e-02,-1.08030e-01,5.84799e-02,2.32656e-01,-4.22840e-03,2.37204e-01,-1.48541e-01,1.67901e-01,1.95983e-01,-2.50750e-02,-2.00826e-01,3.13436e-01,-1.24735e-01,-1.12289e-01,-1.49229e-01,1.04006e-02,-4.72611e-02,-1.55116e-01,3.24848e-01,2.29380e-01,5.23239e-01,1.13162e-01,-1.31409e-01,-2.19257e-01,4.19399e-01,-4.98533e-01,2.78974e-01,4.16619e-01,3.86445e-01,-5.62011e-02,2.32059e-01,1.73504e-03,-8.43833e-02,7.28723e-02,-8.38832e-02,1.90506e-01,2.00676e-01,-1.62633e-01,2.15471e-01,1.51259e-01,-1.24723e-01,-1.23063e-01,
2.81587e-01,-2.41847e-01,4.72776e-01,5.45617e-02,-1.79842e-01,-2.41717e-01,-5.17239e-01,-1.28989e-01,-5.48344e-02,-2.22346e-01,3.00029e-01,-4.06890e-01,3.59793e-01,1.14848e-01,1.60662e-01,-8.02613e-02,1.63148e-01,1.29439e-01,-1.57070e-01,1.10495e-01,-2.59815e-02,6.84919e-01,-1.00627e-02,-3.49842e-01,5.84571e-02,-6.98964e-02,2.66358e-01,7.74400e-03,-2.13078e-01,-1.48462e-01,-3.77004e-02,3.29965e-01,2.95768e-01,2.18458e-01,-2.35456e-01,-5.29953e-02,2.29277e-01,1.94004e-01,1.05524e-01,1.01256e-01,4.72865e-01,-4.18947e-01,-5.43831e-01,-3.79672e-01,-6.31031e-01,
9.48826e-02,3.14378e-02,1.21585e-01,1.93429e-02,-3.63781e-01,1.01407e-01,-2.63107e-02,2.99588e-01,-4.36724e+00,9.80377e-02,1.60585e-01,2.14101e-01,-4.52969e-03,-1.51938e-01,1.08592e-01,-4.65454e-01,1.22427e-01,8.25353e-02,-2.87055e-02,-7.16939e-02,1.77177e-01,-4.30151e-02,2.66157e-01,-8.60330e-01,6.85023e-03,4.32728e-01,-2.02141e-01,1.23764e-01,-6.96365e-01,1.58675e-01,1.17366e-02,4.57779e-02,2.26473e-01,5.48739e-02,4.91324e-02,1.44087e-01,2.29704e-01,-5.93366e-02,-3.48334e+00,2.00292e-02,-8.72556e-02,-1.84922e-03,1.09532e-01,1.14089e-01,2.67216e-01,
1.53056e-01,-8.31906e-02,-1.79145e-01,-2.07416e-01,8.66239e-02,-1.96510e-01,-9.55443e-02,-1.36435e-01,-1.74150e-01,3.08988e-02,-5.34604e-02,-2.42243e-01,-5.14850e-02,-2.55546e-01,1.12437e-02,-8.70937e-02,-1.99622e-01,3.21328e-02,-1.92620e-01,8.54771e-02,-1.58473e-01,7.07898e-02,-9.42210e-02,-1.65211e-01,5.39526e-02,-1.70480e-01,-7.25656e-02,-1.85716e-01,-2.21628e-01,1.69786e-01,1.26294e-01,1.46258e-01,-1.24875e-01,9.30764e-02,-1.66605e-01,2.36978e-01,1.72042e-01,1.26466e-01,-1.32687e-01,-2.61461e-01,1.64491e-01,-1.90454e-01,-2.25294e-01,-1.18173e-01,-1.28407e-01,
-7.04136e-02,1.56773e-01,-2.61985e-01,-8.85549e-02,-4.65795e-01,-6.05570e-02,4.01131e-02,-1.54191e-01,3.30824e-02,-2.02336e-01,-3.95441e-01,-6.02336e-03,1.99125e-02,4.18169e-01,-5.85391e-02,8.06790e-02,1.42580e-01,-1.38381e-01,1.47646e-01,1.22302e-01,-2.36119e-01,4.35761e-01,1.64723e-01,1.71987e-01,-2.15776e-01,3.14597e-01,-1.33492e-01,2.47355e-01,1.37714e-01,1.11279e-01,3.44079e-02,2.01674e-01,-1.65797e-01,8.37924e-02,-2.88373e-02,-1.60626e-01,1.19311e-01,1.57752e-01,-6.84162e-02,2.84461e-01,2.23189e-01,2.22810e-01,-2.25530e-01,1.66467e-01,7.09330e-02,
2.01244e-01,-8.16309e-02,5.42845e-02,5.73312e-02,2.36376e-01,2.54355e-02,8.74184e-02,-7.21230e-02,2.62601e-01,1.63312e-01,-4.78224e-01,2.42717e-01,-1.41972e-01,7.51064e-02,-8.45339e-03,-8.67030e-03,1.15295e-01,3.13656e-01,-8.45916e-02,-9.08648e-02,-1.62968e-01,5.08750e-01,1.20045e-01,9.91450e-03,4.54404e-02,2.37818e-01,6.28800e-02,3.59865e-01,-1.98514e-02,6.61338e-02,1.56260e-01,-3.43569e-01,-4.28186e-01,-3.24529e-01,-1.88372e-01,-3.65682e-02,-7.91825e-03,1.87463e-01,3.81125e-02,2.15873e-01,-1.14206e-01,1.96846e-01,-7.89730e-02,-2.26274e-01,1.01337e-01,
1.75468e-01,3.31707e-02,-2.44974e-01,-5.28144e-02,-6.71758e-02,-6.55597e-02,9.42899e-02,5.30424e-02,-1.55638e-01,-1.07634e-01,1.69190e-01,-3.90055e-01,1.26443e-02,-3.18592e-01,-1.07327e-01,5.94113e-02,4.14522e-01,-5.99230e-03,2.59625e-01,-3.54513e-01,7.22520e-02,4.10657e-01,-5.90294e-01,9.92109e-02,-3.16900e-02,1.63647e-01,2.70954e-01,-2.61544e-02,1.75506e-01,-1.56425e-01,3.60705e-02,-1.35018e-01,2.17943e-01,-1.61880e-01,-9.31257e-01,-2.30860e-01,1.92491e-01,3.09544e-01,1.67786e-01,2.20909e-01,2.45331e-01,7.59067e-02,-4.40726e-01,-1.79729e-01,1.58357e-01,
2.68040e-01,-1.04830e-01,-1.83914e-01,2.45572e-01,2.20266e-01,-2.87337e-01,-2.37372e-01,-3.30710e-04,1.36856e-01,-9.80521e-02,4.00492e-01,2.12337e-01,7.46483e-02,-8.67984e-02,-7.68407e-02,-2.66883e-01,5.18635e-02,1.36748e-01,-5.88450e-02,9.48923e-02,5.52563e-02,1.72946e-01,1.89591e-02,9.56876e-02,1.65715e-02,-3.55517e-01,-6.98395e-03,-1.02392e-01,-3.66696e-02,-1.11541e-01,4.80310e-01,6.49064e-02,8.67838e-02,-2.41594e-01,-2.07431e-01,7.85228e-02,-6.63647e-02,2.72001e-02,5.14355e-01,7.77117e-02,-9.31874e-03,-4.31511e-01,-1.19728e-01,-1.67274e-01,1.84653e-01,
2.22428e-02,3.89722e-02,1.67523e-01,-1.23021e-02,-2.42436e-01,-2.20520e-01,-2.07781e-01,8.20014e-02,-2.70843e-01,2.22257e-01,-2.57536e-01,5.53686e-02,5.98338e-02,-3.70877e-02,-2.38533e-01,-2.53741e-01,1.51698e-01,2.17561e-03,-5.66952e-02,-2.29562e-01,-1.53449e-01,-1.85162e-01,1.41291e-01,1.99187e-01,-2.16903e-01,1.24878e-01,-6.64444e-02,-2.12784e-01,-1.38605e-01,-1.10082e-01,-1.06307e-01,-3.60783e-02,-1.33195e-01,3.66598e-02,-1.40149e-01,-2.45220e-01,2.37394e-01,-1.57719e-01,5.21819e-02,4.83123e-02,-9.62818e-02,1.80194e-01,-5.15377e-02,-2.26346e-01,-1.39558e-01,
3.18185e-02,1.62635e-01,2.54784e-01,5.12987e-02,2.93918e-01,8.07813e-02,3.68909e-01,-2.78633e-01,4.47415e-01,-6.90000e-02,3.29075e-01,-1.93631e-01,-2.88937e-01,5.18497e-02,-2.61035e-02,1.82411e-01,-1.06327e-01,-1.36555e-01,8.91253e-03,-1.04035e-01,-1.35277e-01,2.21209e-02,-3.16934e-03,3.53874e-01,3.96530e-02,3.87437e-02,2.54238e-01,1.22141e-01,3.13877e-01,1.10142e-01,-3.84416e-01,-2.04639e-01,-4.56622e-02,-2.19409e-01,5.28624e-02,-1.07782e-01,1.95696e-01,1.09125e-01,2.45818e-01,2.01735e-02,1.69375e-01,3.01841e-01,-4.35043e-02,-3.25545e-01,-1.55755e-01,
-2.43490e-01,-2.61193e-01,2.20832e-01,3.04147e-01,3.70409e-01,-1.78178e-01,-2.71636e-02,-1.96675e-01,2.09788e-01,4.37375e-02,5.47334e-02,1.44882e-02,1.11218e-01,-3.35748e-01,-4.42832e-01,4.56265e-02,-5.00993e-01,2.31356e-01,9.60093e-02,-3.69013e-02,-1.24290e-01,2.51880e-01,-1.05156e-01,-2.66688e-01,-3.92106e-02,-1.08728e-01,1.80748e-01,-5.83232e-01,2.19850e-01,-5.01574e-01,-3.34517e-01,-1.02247e-01,-3.74573e-01,-4.61543e-01,1.35609e-01,1.50724e-01,2.71996e-02,-5.49848e-01,-1.72116e-01,-1.41364e-01,4.55804e-01,8.22365e-02,-4.32064e-02,-1.29865e-01,-7.95772e-02,
1.71878e-01,2.17391e-01,8.12168e-01,1.97324e-02,-4.05259e-01,-2.08981e-02,3.22218e-02,-1.89891e-01,2.40406e-01,8.39667e-02,1.03612e-01,3.64927e-01,4.56318e-02,-1.81245e-01,3.18618e-02,-6.54292e-02,1.77434e-01,-4.94713e-02,2.02179e-01,2.93747e-01,3.11937e-01,-1.27993e-01,-2.36243e-01,1.35277e-01,2.04938e-01,-1.22389e-01,-8.36321e-02,-3.36887e-01,-1.53079e-01,1.79731e-01,3.08256e-01,-1.99726e-03,1.78219e-01,-3.92950e-01,-9.57350e-02,8.03569e-02,1.45669e-02,8.76693e-02,1.83749e-02,-1.98223e-01,-2.66991e-01,-6.12125e-02,-3.21770e-02,3.54856e-02,-2.46126e-01,
-1.30656e-01,3.52685e-01,-1.06451e+00,1.63586e-01,1.93850e-01,-1.88638e-01,-4.30804e-02,3.51214e-02,-4.43740e-01,-5.56042e-02,1.22344e-01,2.43930e-01,-3.60658e-02,1.01416e-01,7.03206e-02,3.12270e-01,-2.88270e-01,1.66389e-01,8.48326e-02,1.81741e-01,5.48981e-02,2.43360e-01,-3.81479e-02,-8.24340e-02,-1.10629e-01,-1.46768e-01,5.68150e-02,9.15796e-03,5.16944e-01,-2.98972e-01,1.89965e-01,-1.08695e-01,1.19257e-01,1.25306e-01,3.71882e-01,1.03559e-01,8.04961e-02,-1.89732e-02,1.26118e-01,3.11314e-01,3.46883e-01,-2.68466e-01,-1.66376e-02,-8.41664e-02,-2.08202e-01,
1.79713e-01,-1.62954e-01,5.16139e-01,1.29679e-01,3.42740e-01,-7.36523e-02,-1.11666e-01,2.86697e-01,-2.83499e-01,2.15855e-01,-2.76074e-01,3.26061e-01,5.34487e-03,1.85283e-01,9.08477e-02,-2.73197e-01,-2.39840e-01,1.06700e-01,2.34838e-01,3.11718e-01,3.16282e-01,-1.93822e-02,1.74996e-01,2.95741e-02,-1.57256e-01,1.84693e-01,-1.93317e-01,1.63302e-01,-1.54329e-01,-9.23141e-02,-6.44922e-03,2.87450e-01,-5.17572e-02,-9.88369e-02,-1.14277e-01,1.15411e-01,-2.14559e-03,-1.95712e-01,-6.49962e-02,1.24881e-01,-1.14404e-02,2.30939e-01,4.48532e-01,-1.78554e-01,-1.87069e-01,
-4.28203e-02,-3.50569e-01,-3.42789e-01,-3.22933e-01,4.76001e-01,3.19584e-01,-9.51637e-02,-2.20175e-02,1.61113e-01,1.33974e-01,-6.90232e-01,1.12471e-01,2.89163e-01,9.74093e-02,3.06013e-01,-7.49920e-02,-2.98852e-01,1.62587e-01,-2.31731e-01,4.63511e-01,2.07860e-01,-3.84171e-01,3.24638e-01,-2.57681e-01,-2.51120e-03,1.56809e-01,-6.04344e-02,-6.64728e-03,-4.61165e-02,1.46153e-01,-1.74669e-02,-1.71380e-01,-1.87115e-01,-5.04776e-02,-3.26864e-01,-1.68372e-03,3.48744e-01,1.02472e-01,-1.58031e-01,3.13554e-01,2.08779e-01,2.16128e-01,1.73157e-01,-6.26328e-02,-2.65391e-01,
7.56044e-02,-2.08331e-02,-3.77171e-02,-3.68164e-01,5.04069e-01,1.76383e-01,1.03999e-01,2.52709e-01,9.52140e-04,7.15953e-02,1.43129e-01,-6.21109e-02,2.79973e-02,-1.65846e-01,2.04132e-01,7.67660e-02,2.49039e-01,-9.05258e-02,-4.15913e-01,9.13641e-02,-1.23986e-02,2.75402e-01,1.34543e-01,-2.48388e-01,6.75686e-02,4.50398e-01,3.85371e-02,1.13813e-01,4.54651e-01,2.75487e-01,2.90272e-01,2.35086e-01,-2.81552e-01,1.43746e-01,-4.65813e-01,-1.65785e-01,-2.26424e-02,1.93188e-02,1.12503e-01,-2.79783e-02,2.85041e-01,-1.23036e-01,1.25043e-01,-4.91476e-02,8.95216e-02,
-4.01512e-02,-3.09074e-01,-6.34466e-01,1.29005e-01,-1.17439e-01,2.58786e-01,1.82413e-01,9.16673e-02,-2.30646e-01,2.07265e-01,-6.66249e-02,1.05545e-02,3.07308e-01,3.93536e-01,2.30169e-01,-1.88290e-01,1.66146e-01,2.17105e-02,-4.17992e-04,-2.69010e-01,-1.25543e-01,4.10871e-01,4.23392e-02,-1.48705e-01,-1.68491e-01,2.22141e-01,2.26070e-01,7.30248e-02,-3.23429e-01,7.69732e-02,-2.14393e-02,-2.22895e-01,6.16155e-02,-4.39072e-02,7.05329e-02,-1.10870e-01,8.47173e-02,-5.71405e-03,-2.15199e-01,-1.23552e-01,-6.36056e-02,2.68019e-01,1.85348e-01,-1.91598e-02,6.20073e-02,
9.39705e-03,-1.14653e-01,1.52809e-01,-1.73183e-01,1.56607e-01,5.65369e-02,1.74948e-01,-1.17022e-01,7.03025e-02,1.91880e-01,-4.21802e-01,-2.06001e-02,1.04901e-01,-3.76404e-01,2.09420e-02,-5.19776e-01,-2.10329e-01,1.17418e-01,6.99903e-02,-2.36665e-01,-2.24867e-01,-1.36319e-01,-5.48865e-01,-3.00377e-01,-1.30706e-01,1.54414e-01,3.51680e-01,1.07998e-03,2.12383e-01,-1.94119e-01,2.00604e-01,-5.97490e-02,-1.87362e-01,9.16722e-02,-1.58433e-01,5.19515e-02,1.71019e-01,2.49969e-01,7.92418e-02,4.44689e-02,-3.07489e-01,4.06126e-02,3.75242e-02,5.14905e-03,2.83640e-02,
-6.88827e-02,-1.94367e-01,-3.49993e-01,-2.25950e-02,-1.48765e-01,2.32071e-01,9.40906e-02,-1.86662e-01,3.14161e-01,-1.03144e-01,6.88675e-02,-1.48971e-01,2.70092e-02,-2.01927e-01,-9.92450e-02,-4.52196e-01,9.33291e-03,1.25990e-01,-1.08172e-01,-1.46235e-01,6.00475e-02,-2.82941e-02,-1.16274e-01,-1.43063e-01,-9.45468e-03,-4.55135e-02,1.39287e-01,1.47755e-02,-1.04240e-01,-2.83431e-01,-9.35413e-02,1.56501e-01,1.32463e-01,1.26281e-01,-1.47197e-01,3.83907e-01,6.71822e-04,-8.14033e-02,4.10377e-01,1.10981e-01,3.49183e-01,-3.09238e-01,-6.18375e-02,-7.48243e-02,3.45645e-01,
1.88205e-01,4.49745e-01,4.45573e-01,1.00062e-01,6.24867e-02,-1.45414e-02,-1.35098e-01,2.38963e-01,-2.95016e-01,-2.55157e-01,-3.42741e-01,4.49685e-01,-1.80609e-01,-2.99089e-01,-5.44488e-02,3.21348e-01,-3.44078e-01,2.24970e-01,-1.72069e-01,-1.21220e-01,2.97716e-01,-8.17318e-02,1.40160e-01,1.82363e-01,-1.53051e-01,1.30140e-01,5.93490e-02,2.59678e-02,1.37048e-01,-1.55355e-01,2.34538e-01,-2.18219e-01,-2.71643e-01,5.29323e-02,-2.63508e-01,5.13872e-02,2.34610e-01,2.61982e-03,-2.97894e-01,1.99542e-02,-5.83493e-02,-7.45117e-02,1.61099e-02,2.75014e-01,-2.44772e-02,
-1.45088e-01,-3.25975e-02,-8.23447e-01,-7.34044e-02,2.75934e-03,5.69395e-01,9.36092e-02,-3.37350e-01,-2.34399e-02,-2.56248e-01,-2.59295e-01,2.49379e-01,5.75680e-02,-6.87658e-02,5.67150e-02,-4.63468e-03,-1.32828e+00,2.06064e-01,-1.18528e-01,3.54919e-01,7.05645e-02,-6.75290e-01,4.38309e-01,-1.65319e-01,-1.54537e-01,2.01409e-01,3.98731e-02,-9.06930e-02,1.81632e-01,-4.32359e-02,-1.93941e-01,-2.72899e-01,-7.02212e-02,2.59730e-01,-3.88518e-01,-2.95150e-02,-3.29467e-01,-4.48543e-01,5.74474e-02,6.10478e-02,-1.86892e-01,2.80906e-01,2.42687e-02,-1.31184e-01,3.47798e-01,
-3.68604e-01,7.37176e-02,-4.77056e-02,-1.04516e-01,-1.08422e-01,-3.56377e-01,1.36589e-01,3.43777e-01,1.58121e-01,2.73907e-02,-1.82614e-01,-1.30815e-01,-2.52375e-01,3.02158e-02,3.63144e-01,-4.16900e-02,-1.98823e-01,-3.66944e-02,2.03742e-01,9.67096e-02,2.64629e-01,-3.47308e-01,2.34444e-02,2.40500e-01,-2.53954e-01,-4.30980e-01,7.53960e-02,3.64821e-01,1.84749e-01,-1.65632e-01,3.12112e-01,-7.73874e-02,-6.42487e-02,2.15281e-01,-3.56844e-02,8.21162e-02,-4.30944e-01,1.59624e-01,-5.00939e-01,1.20521e-01,-1.98827e-02,-9.91357e-02,1.64132e-01,2.19334e-01,3.30177e-01,
-2.25401e-01,6.50495e-02,-3.64236e-01,-1.07320e-01,-5.46247e-01,1.35619e-01,1.34776e-01,5.21912e-02,3.13308e-01,-8.94468e-02,-2.04062e-02,1.59069e-01,3.09221e-01,1.84131e-01,-1.45174e-02,3.29706e-01,2.50581e-01,-1.33560e-01,-1.71182e-01,2.03099e-02,1.41654e-01,-5.76542e-02,-1.44649e-01,-2.30323e-01,-1.18909e-02,1.14711e-01,2.92513e-01,3.68950e-02,2.36631e-01,1.00267e-01,-1.21738e-01,-1.05401e-01,2.97149e-01,-3.78169e-01,5.74363e-02,2.33253e-01,-9.62634e-02,6.20572e-02,2.42574e-02,-2.94855e-02,3.93175e-01,1.56267e-02,6.80962e-02,-2.65985e-01,-2.59688e-01,
2.64593e-01,1.20829e-02,2.86187e-02,-5.84803e-02,-8.99694e-02,-4.51476e-01,1.45146e-02,8.00328e-02,1.28142e-01,-5.94387e-03,2.63621e-03,-8.23865e-02,-8.91055e-02,2.96602e-01,4.76349e-01,-1.82725e-01,3.20352e-01,-7.33980e-01,-3.22922e-01,-1.44993e-01,1.07438e-01,-3.19979e-03,-1.61829e-01,1.32456e-01,5.74968e-01,4.11375e-02,7.29556e-01,-8.43898e-02,3.77438e-01,-2.32242e-01,-2.99423e-02,1.29409e-01,5.09231e-01,1.21918e-01,9.78098e-02,-6.25118e-01,-9.36011e-02,7.94207e-02,6.83893e-02,3.42553e-01,1.15246e-01,-1.23807e-02,-1.91258e-01,-8.00716e-01,-2.71852e-01,
1.52103e-01,-4.21619e-01,-7.03993e-01,7.72901e-02,4.64563e-02,-7.10618e-02,1.84693e-01,2.53424e-01,5.86152e-01,1.16490e-02,8.93860e-02,-3.28048e-01,9.02721e-02,2.07735e-01,7.32486e-02,1.29889e-01,7.87222e-02,1.13256e-01,3.30030e-01,-3.60703e-02,-1.08199e+00,4.50284e-01,-1.52114e-02,-4.54128e-01,2.88497e-01,-5.23456e-02,1.53253e-01,4.10653e-02,7.41639e-02,1.35011e-01,-2.53694e-01,1.12496e-01,-8.28879e-01,-3.07724e-01,8.22434e-02,-6.23380e-02,-1.14895e-01,-4.90407e-01,-6.91906e-02,3.68925e-01,3.01198e-03,-3.27661e-01,-3.71844e-02,2.43587e-01,-3.27982e-02,
9.58350e-02,2.33166e-01,-5.63390e-01,-7.54525e-02,8.64430e-03,1.53464e-01,1.10384e-01,2.61361e-01,7.59023e-02,4.93374e-02,2.06359e-01,-5.26625e-02,-1.64970e-01,-1.90384e-01,-3.81750e-03,2.56725e-01,-5.84479e-02,-2.33015e-01,3.53817e-02,2.25050e-02,1.65040e-01,-1.70735e-01,-2.41041e-01,1.17188e-01,-6.63602e-02,9.03268e-02,3.07194e-01,3.25742e-01,2.56135e-01,3.97377e-01,1.68209e-01,3.48163e-01,4.57847e-02,1.06723e-01,2.85324e-01,-7.33159e-02,-3.86980e-02,2.07684e-01,-6.53520e-01,3.28304e-01,2.54456e-01,-1.88600e-01,-3.72180e-01,-1.06283e-01,2.44370e-01,
4.08980e-02,
-1.46010e-01,
-2.95836e-03,
2.04263e-01,
1.65559e-02,
1.55300e-01,
-1.55703e-01,
8.77842e-02,
-1.45884e-01,
-6.60880e-02,
1.65784e-01,
1.94984e-01,
-1.04358e-02,
-1.01692e-01,
-1.29148e-01,
-2.96344e-02,
-1.42296e-01,
-5.29193e-02,
9.79986e-03,
-6.73433e-02,
-2.57856e-01,
9.02786e-02,
-1.20842e-02,
9.14111e-03,
1.05519e-01,
7.39959e-03,
-8.24760e-03,
-5.23900e-03,
6.41794e-02,
1.01069e-01,
1.39998e-02,
-4.86021e-03,
-6.91869e-04,
-1.22180e-01,
-3.96097e-01,
1.85861e-01,
9.02189e-02,
5.98140e-02,
1.52873e-01,
2.17719e-02,
7.19835e-02,
6.71859e-02,
-7.25153e-03,
-9.98977e-03,
-4.23767e-02,
3.08438e-01,-7.45168e-01,4.02862e-01,2.04267e-01,-2.52378e-01,-1.36097e-01,-2.59531e+00,-1.71928e-01,1.75183e-01,-4.64981e-01,-1.97057e-01,-4.23573e-01,2.05470e-02,4.66121e-01,5.62968e-02,8.74076e-02,2.48454e-01,-2.05310e+00,1.08263e-01,3.75702e-01,4.13528e-01,1.87495e-03,-1.64605e-01,2.02883e-02,9.29028e-02,3.30080e-01,-1.00228e-01,2.10008e-01,-8.33415e-02,1.34041e-01,-8.16692e-02,-6.89060e-02,8.53817e-03,1.96976e-02,3.74120e-01,-4.59739e-02,-2.79312e-01,-2.12630e-01,1.77817e-01,1.07404e-01,-9.71030e-02,1.77795e-01,-1.09696e+00,3.36774e-01,-3.84374e-02,
1.97776e-01,-4.27465e-01,-3.76891e-01,-6.41412e-03,-1.38443e-01,-2.56506e-02,-1.10654e-01,3.72903e-01,-2.01175e-01,-6.04543e-01,-3.03912e-01,2.02799e-01,4.38261e-01,5.29740e-02,6.36222e-01,-1.17595e+00,2.22134e-02,-2.65552e-01,2.85864e-01,1.44541e-01,-4.80886e-01,-1.09368e-01,7.61954e-02,-1.23783e-01,-3.84727e-02,1.92092e-03,1.29152e-01,2.10690e-01,1.90117e-01,2.94607e-01,1.32936e-01,-6.80454e-02,1.85464e-01,4.69895e-01,1.67883e-01,-5.14702e-02,-1.98162e-01,-2.46943e-01,-2.43522e-01,-8.12363e-01,-2.62400e-02,-2.49696e-01,1.62023e-01,-5.83094e-01,7.30127e-02,
-4.39752e-02,9.82338e-02,-1.49491e-01,-1.11944e-01,2.68310e-02,5.36740e-05,6.45609e-02,-6.89531e-02,1.03408e-01,5.20545e-03,-2.03164e-01,-1.09061e-01,-9.93349e-02,-1.46821e-01,6.02001e-03,-2.52013e-01,-5.04282e-03,6.90322e-02,-2.41404e-01,-2.26441e-01,-1.00302e-01,-1.60549e-01,7.86964e-02,-1.93551e-01,1.38390e-01,-2.26981e-01,-2.30778e-02,4.29935e-02,-2.34344e-01,2.93614e-02,-1.83137e-01,-8.54701e-04,-1.05085e-01,2.05486e-01,7.33216e-02,1.33200e-01,1.83565e-01,3.49555e-02,-1.37797e-01,-1.11725e-01,-1.69591e-02,9.22555e-02,-7.84800e-02,-1.43734e-01,-9.33179e-02,
-8.93993e-02,-8.49897e-03,3.88305e-01,1.66736e-01,2.41756e-01,-2.08685e-01,-1.18695e-01,-1.22219e-01,-1.72172e-02,2.82687e-02,1.24326e-01,1.43951e-02,5.61597e-01,3.51757e-01,-1.47557e-01,1.31060e-01,-3.36430e-01,9.23076e-03,-5.33396e-02,3.04265e-02,-4.92637e-01,5.27666e-01,2.38588e-01,-1.53127e-02,1.55787e-01,3.56261e-01,2.46540e-01,2.93061e-02,2.41884e-02,1.45402e-01,-4.03514e-02,1.75880e-01,9.70128e-02,2.47415e-01,-1.88452e-01,-2.18922e-01,-2.00508e-01,1.31916e-01,-7.30928e-02,4.29943e-02,-2.48852e-01,-1.25761e-01,2.22563e-01,4.49782e-02,-1.42499e-01,
2.18495e-01,-5.53459e-01,2.17137e-01,2.96345e-01,-2.01402e-01,2.81941e-01,-8.97518e-01,9.05397e-02,3.77634e-02,-2.82694e-01,-3.49749e-01,1.94759e-01,1.48853e-01,-1.04336e-02,-1.68948e-01,-1.36200e-01,7.46514e-01,-6.10768e-02,-6.91840e-02,2.36140e-01,2.88202e-01,7.26920e-02,-1.99955e-01,6.87416e-02,8.36446e-02,-2.95628e-01,-4.43721e-04,1.19741e-02,1.51931e-01,-1.54514e-01,1.93932e-01,8.36484e-02,-1.33611e-01,-1.35957e-01,-2.78586e-01,-6.23181e-02,1.34545e-01,-2.36443e-01,2.92261e-01,-4.35230e-01,-4.46550e-01,-1.21390e-02,-8.20341e-02,-6.41032e-02,-2.44250e-01,
2.45423e-02,-6.79493e-02,4.94236e-01,1.14995e-02,2.83832e-01,-6.79537e-02,-9.68345e-02,3.96140e-01,4.35711e-01,1.35747e-01,2.27421e-03,-1.07994e-01,-1.39593e-01,1.30585e-01,1.96472e-01,-2.45652e-01,-2.88676e-01,-1.95952e-02,1.98175e-01,2.67014e-02,1.87525e-01,-3.17652e-01,-3.71954e-02,4.17999e-02,2.42715e-01,1.68208e-01,8.34131e-02,1.82221e-01,-1.20894e-01,-3.37906e-01,4.76562e-02,2.46761e-02,2.03117e-01,-4.19664e-01,-1.64990e-02,1.71245e-01,-4.83711e-02,-6.01862e-02,-6.63512e-02,-2.89319e-01,1.01538e-01,-1.04917e-01,-7.83616e-02,4.80622e-01,9.52224e-02,
-1.54369e-01,-4.53166e-01,2.36708e-01,2.58778e-01,6.89690e-02,4.44975e-03,2.88496e-01,-1.74778e-01,4.32222e-01,-2.76675e-01,9.88476e-02,-1.90849e-01,-8.08471e-02,2.41966e-01,4.14780e-01,-1.79699e-01,8.29792e-02,4.40488e-02,3.06873e-01,1.20951e-01,-8.48085e-02,-4.82304e-02,1.90890e-01,-1.19429e-01,1.21277e-01,-1.81912e-01,1.77445e-01,-1.26768e-01,2.74515e-01,-1.97604e-01,-3.33400e-01,3.37758e-01,-1.45792e-01,3.52982e-03,7.67376e-01,3.63220e-01,3.60867e-01,9.75620e-02,1.05113e-01,-2.61919e-01,-1.09861e-01,1.83943e-01,-2.08779e-01,1.94179e-01,2.30672e-01,
4.47142e-02,-3.52448e-01,1.36887e-01,2.95135e-02,1.25052e-01,5.80157e-02,-1.49417e-01,-1.17827e-01,4.07203e-01,4.91857e-01,-6.38726e-02,1.95260e-01,-1.01436e+00,-6.32196e-02,2.02003e-01,1.00593e-01,-2.53914e-02,-3.56535e-01,1.58822e-02,9.09354e-03,-1.26246e+00,9.47667e-02,-1.32009e-01,-7.86688e-02,-5.01258e-02,-4.59735e-01,1.96770e-01,1.64617e-01,-1.75592e-01,-2.82409e-01,6.03702e-01,-2.09841e-01,1.36536e-01,2.94034e-01,-1.62744e-03,-2.03831e-01,-8.78887e-02,8.98823e-02,2.69577e-01,-3.16660e-01,2.21795e-01,4.52471e-02,-4.16842e-01,-4.32133e-01,2.77327e-03,
2.92943e-01,-1.28209e+00,3.86093e-01,6.30811e-02,1.29260e-02,-6.21697e-01,-1.11351e-01,-1.29839e+00,2.00536e-01,-3.53276e-01,1.55206e-03,-3.98982e-01,8.17467e-02,1.02524e-01,-8.94417e-01,4.20142e-01,1.98326e-01,-3.16648e-01,-1.42864e-01,1.35133e-01,1.10380e-01,7.52623e-02,2.03438e-01,3.31427e-01,7.26319e-01,3.17145e-01,-3.50389e-01,-6.55252e-02,-3.82307e-01,1.38300e-02,1.24354e-01,-1.78290e-01,3.10607e-02,-9.51236e-01,4.71929e-01,-5.17928e-02,-3.15757e-01,1.06433e-02,2.41692e-01,2.23460e-02,-1.04781e-01,-8.56072e-02,-6.93330e-01,3.35653e-01,1.29875e-01,
4.13586e-02,2.52778e-01,-7.55503e-03,5.59818e-03,-2.04543e-01,1.26740e-01,-1.25183e-03,1.68272e-02,1.49339e-02,4.03533e-02,1.64186e-01,4.17531e-01,-2.84951e-01,-1.57758e-01,-2.83086e-01,-1.89106e-01,2.96939e-01,-4.75170e-01,4.13215e-03,-1.45660e-02,2.24406e-01,-1.62430e-01,-2.04388e-01,1.38604e-01,1.13556e-02,-3.42405e-03,-1.84451e-01,-2.34453e-01,3.05252e-01,-4.70946e-02,-1.18159e-01,-2.07391e-01,-3.30741e-01,-5.02574e-01,-4.21697e-01,-7.76004e-02,-5.72015e-02,3.22734e-01,2.30151e-01,-8.15781e-01,-1.07554e-01,7.98550e-02,-1.38444e-01,2.71469e-01,1.87867e-01,
-1.37297e-01,-3.13247e-01,3.67530e-01,-1.38261e-01,7.60704e-03,-2.48969e-01,-5.42141e-01,1.95382e-02,2.27385e-01,9.77997e-02,-4.03014e-02,1.16590e-01,-2.23200e-01,3.74044e-01,2.40280e-01,-3.84907e-01,5.15937e-01,-8.86442e-02,7.20747e-02,1.15618e-01,-1.14750e-01,-2.42713e-02,1.16582e-01,-2.25959e-01,2.56364e-01,-2.96097e-01,2.23197e-01,1.69284e-01,-1.27319e-01,-6.57882e-02,7.87782e-02,1.51774e-01,3.10421e-01,-4.91014e-02,2.69591e-01,1.30614e-01,-1.45758e-01,-1.52800e-02,2.95410e-01,-2.48998e-01,-1.33747e-02,-4.57584e-04,-8.03738e-02,7.57035e-02,1.22374e-01,
4.43290e-01,-1.65308e-01,3.41118e-01,-5.95064e-01,2.14644e-01,-3.13841e-01,-6.66765e-02,2.23382e-01,5.29039e-01,1.10990e-01,-1.80824e-01,-1.03405e-01,-2.49859e-01,8.51474e-02,-9.87321e-01,7.81643e-02,3.09401e-01,-4.97626e-02,2.94461e-01,2.12240e-01,1.61336e-02,1.72452e-01,6.81743e-02,-6.90422e-01,1.15414e-01,1.42704e-01,2.68029e-01,-2.56819e-01,6.39973e-02,-5.03388e-01,1.55290e-02,-1.23636e-01,-1.12114e+00,-1.03464e-01,6.99058e-01,-6.08587e-01,1.55018e-01,4.96950e-03,-1.86500e-01,-7.05696e-01,9.97846e-02,-9.44406e-02,9.81732e-02,-8.24921e-01,-3.60167e-01,
-1.81078e-01,-3.15300e-02,9.46541e-03,-1.07776e-01,2.15755e-02,-2.11242e-01,-2.54078e-02,3.72836e-02,-6.59545e-02,1.46449e-01,-7.07156e-03,1.48302e-01,2.09583e-01,-1.48803e-01,1.89479e-01,4.60547e-02,6.30505e-02,-4.59717e-02,-2.26263e-02,-1.15105e-01,4.78344e-02,-4.02856e-02,-2.23222e-02,6.22248e-02,-5.19468e-02,-2.58610e-01,6.82442e-02,-2.42984e-01,-1.13652e-01,1.66606e-01,1.79504e-01,-2.47965e-02,-2.35815e-01,-6.70834e-02,-1.83661e-01,-2.52062e-01,1.02169e-01,-1.83270e-01,-2.63537e-01,-2.20300e-01,5.27453e-02,-2.69462e-01,1.48761e-01,1.03806e-01,-1.17896e-01,
9.42908e-02,6.88804e-02,2.64027e-01,8.30495e-02,-1.67514e-01,9.12168e-02,-5.14289e-01,2.41366e-01,9.20258e-02,1.57557e-01,1.40583e-01,-1.30344e-02,3.96950e-02,2.78581e-03,-1.64621e-01,-2.13446e-01,1.22003e-01,-1.20524e-01,-2.75531e-01,-1.06655e-01,-8.55703e-02,-2.74576e-01,-2.31721e-01,9.29990e-02,-2.11984e-01,2.77741e-02,1.09740e-01,1.09865e-01,5.65363e-02,-1.94449e-01,-9.48284e-02,-6.44644e-02,1.48476e-01,9.84210e-02,-1.23914e-01,-1.43561e-01,7.82628e-02,1.05439e-01,1.26571e-01,7.94617e-02,2.71379e-02,-1.07145e-01,-1.74334e+00,1.68274e-01,-5.64623e-02,
-1.44107e-01,-4.54815e-01,-4.93254e-01,-3.32228e-01,1.04427e-01,1.58284e-02,4.41611e-01,-2.58100e-01,-5.63985e-02,1.33007e-01,-1.25106e-01,2.05840e-01,-2.54282e-01,7.84204e-02,-9.07806e-02,-9.83310e-02,5.72190e-01,1.74643e-01,-1.89935e-01,-1.38002e-01,5.68865e-01,1.83627e-01,-6.65629e-02,8.28435e-02,-2.63237e-01,-3.60286e-01,-3.43433e-01,1.74829e-01,-3.45878e-02,3.20022e-01,-3.44350e-01,-9.92176e-02,-1.89974e-01,1.14193e-01,-1.63234e-01,1.36447e-01,-9.75629e-02,3.34654e-01,2.47211e-01,5.53376e-01,-5.14159e-02,7.91191e-02,-1.06081e+00,3.27808e-02,-1.28427e-01,
-1.25743e-01,-4.44323e-01,-3.40887e-01,-1.16431e-01,-1.19808e-01,2.87101e-01,-1.73890e-01,-4.58458e-01,3.35089e-01,4.00895e-01,1.33435e-01,2.61977e-01,-1.72857e-01,-2.55515e-01,-5.27365e-01,-2.60005e-01,2.62854e-01,-6.51654e-02,-2.51169e-01,-1.39429e-01,3.37993e-01,2.05114e-01,1.94874e-01,1.37193e-01,-1.36924e-01,-3.19587e-01,-1.32924e-03,1.18545e-01,5.83050e-02,1.56330e-01,3.53054e-01,-3.88083e-01,-1.17656e-01,2.55710e-01,-4.88896e-01,-1.16897e-01,8.92719e-02,3.57237e-01,2.81641e-01,4.90915e-02,-1.49194e-01,2.51876e-01,-2.65440e-01,3.72670e-02,2.37714e-01,
-8.08996e-02,-1.74197e-01,2.60695e-02,-2.16616e-01,-5.19417e-02,6.16062e-02,-6.75186e-01,1.51547e-03,-2.45188e-01,-1.28571e-01,-2.22606e-01,4.57328e-01,5.34484e-02,-4.99755e-02,-2.72382e-01,3.03713e-02,8.00581e-02,-2.68166e-01,1.33376e-02,-2.41493e-01,-7.11188e-01,7.21296e-02,-1.65506e-03,1.50044e-01,-1.73768e-01,-2.98643e-01,-2.09196e-01,-1.40679e-01,2.61961e-01,-2.05934e-01,-3.97620e-02,-2.00655e-01,-4.86817e-02,1.49396e-01,-1.66823e-01,2.31903e-01,4.97182e-03,9.79955e-02,2.49200e-02,-9.30009e-01,1.97946e-01,-1.69655e-01,7.43441e-02,-2.89967e-01,-1.16687e-01,
-3.99895e-01,-2.57802e-01,4.60762e-01,3.40806e-02,-7.53123e-02,9.00837e-02,9.04038e-01,3.18886e-01,2.18688e-01,1.62196e-01,2.28457e-02,-1.57325e-01,2.54863e-01,-2.74497e-01,1.24172e-01,1.23486e-01,-4.19876e-01,1.22191e-01,-3.25563e-01,1.96398e-01,-2.93435e-01,3.84555e-02,8.53894e-02,2.68478e-01,3.05698e-01,6.11112e-02,-5.89878e-02,1.78046e-01,5.48912e-02,-1.16009e-01,-1.45505e-01,1.23509e-01,1.72266e-01,9.18831e-02,4.87704e-01,2.09864e-01,-1.61975e-01,1.29194e-01,-1.90454e-01,-8.55635e-03,8.07447e-02,-1.37514e-01,-1.21004e+00,-3.29945e-01,2.12017e-02,
-1.69907e-01,1.72029e-01,-3.18007e-02,1.88383e-01,-2.46523e-01,-4.06168e-02,-3.84899e-01,-7.95162e-03,-3.49736e-01,-4.36718e-02,8.96472e-02,1.13657e-01,-2.55038e-01,1.53137e-01,-4.81801e-03,9.48720e-02,5.54028e-01,1.81129e-02,-9.43757e-02,4.16375e-01,5.43130e-02,8.63639e-02,-4.06568e-02,-3.86516e-01,3.07395e-02,2.33606e-01,-2.74963e-01,-9.89939e-02,2.16326e-01,-1.47408e-01,1.91593e-01,-1.27383e-01,-8.67833e-02,2.28028e-01,1.47019e-01,7.04445e-02,2.68905e-01,1.19620e-01,-3.68312e-01,-1.36192e-01,7.01031e-02,1.17031e-01,-1.85889e-01,2.28043e-01,2.33471e-01,
-1.40649e-01,-6.07319e-02,1.05959e-01,-3.66119e-02,-5.90639e-02,1.88014e-01,2.51484e-01,-8.47820e-02,1.72613e-01,-6.82637e-02,2.02903e-02,3.33889e-01,1.29051e-01,3.43319e-01,3.76936e-01,-2.08451e-01,-4.92981e-01,-5.49605e-02,2.71020e-01,1.78945e-01,8.71146e-02,-1.83530e-01,1.67836e-01,6.68712e-02,1.66248e-01,-1.82333e-01,5.82323e-02,5.64111e-02,1.31387e-01,-1.44657e-02,-1.45007e-01,4.60725e-02,1.92344e-01,-1.96183e-01,5.62636e-01,-2.81669e-02,6.39119e-02,1.89987e-01,1.38268e-01,-4.50366e-01,-3.09561e-01,-2.11957e-02,-2.04345e-02,2.44929e-01,1.07709e-01,
3.26481e-01,1.14250e-01,1.81990e-01,1.84407e-01,-4.52643e-02,5.19047e-02,3.60554e-01,-9.62151e-02,-2.08808e-01,-4.27474e-01,-1.67078e-01,1.14622e-01,2.96853e-01,-1.42310e+00,5.42608e-01,2.12120e-02,-4.80792e-01,1.35127e-01,-1.64710e-01,-6.87130e-02,-3.10064e-01,-2.53703e-01,-1.14948e-01,1.34177e-01,2.34502e-02,-7.07727e-02,-4.94313e-01,8.62704e-03,-1.90923e-01,-3.92025e-01,2.74824e-01,-2.80064e-01,1.87946e-01,-2.91962e-01,-6.75915e-02,1.19651e-02,2.83674e-01,-1.65572e-01,6.30318e-02,-6.76899e-01,1.10509e-01,-1.70601e-03,-3.57987e-02,-2.12205e-01,5.35827e-02,
1.28969e-01,-6.84302e-01,-3.18972e-02,2.79031e-01,6.24934e-02,-2.64619e-01,-7.48619e-01,1.68694e-01,-5.60719e-01,-2.20182e-01,1.86037e-01,-2.77807e-02,-1.51145e-01,2.15069e-01,1.47536e-01,-2.44176e-01,-3.88782e-01,-3.51938e-02,-1.17644e-01,-2.51509e-01,-1.04277e-02,1.13606e-01,1.15960e-01,-1.69505e-01,2.63056e-01,-1.33996e-01,-2.89995e-01,-1.71395e-01,2.36809e-01,2.08165e-01,-3.60553e-01,1.89141e-01,1.52901e-01,2.62529e-02,-2.09361e-01,-2.42463e-01,2.12387e-01,2.22421e-01,2.63402e-01,-1.91347e-02,2.48138e-01,8.41974e-02,-6.68439e-02,4.60962e-01,-4.59679e-02,
-1.70014e-01,2.74232e-01,-1.33347e-01,-1.34088e-01,-1.95893e-01,-2.57002e-01,-1.35603e-01,-7.13760e-03,-1.62244e-01,-3.17584e-02,-2.39602e-01,-1.35753e-01,-2.03598e-01,-1.55457e-01,-5.75767e-01,-3.46090e-01,9.12748e-02,-1.79595e-01,2.28576e-02,1.69182e-01,-2.89490e-01,1.10876e-02,2.58709e-02,1.29293e-01,-1.53768e-01,-5.18327e-02,1.81189e-01,-2.13270e-01,-1.00650e-01,-2.31611e-01,2.87283e-02,-1.83842e-01,-1.47426e-01,2.48341e-01,-2.09268e-01,-1.79799e-01,2.54398e-01,-2.83883e-01,1.11736e-01,4.69822e-01,1.38220e-01,1.26519e-01,1.63463e-01,1.86769e-01,-3.32432e-01,
4.66523e-02,-2.21199e-01,-2.15333e-01,2.67432e-02,-2.46920e-01,5.97223e-02,-5.48029e-02,6.20481e-02,1.93032e-01,-2.07350e-01,-2.42264e-01,-1.22803e-01,-4.66401e-02,-1.60529e-01,4.08733e-02,1.49376e-01,-2.48010e-01,2.15497e-02,-2.08845e-01,-1.06595e-02,-8.02869e-02,2.07895e-01,1.67415e-01,-8.41052e-02,-7.01439e-02,-1.65003e-01,-2.00427e-01,2.53438e-01,9.82919e-02,-1.56713e-01,-6.24810e-02,-1.43763e-01,-1.19356e-01,9.31450e-02,-1.95559e-02,7.67085e-02,-2.62380e-01,-8.77537e-02,-8.64493e-02,-2.60372e-01,-1.96878e-01,-2.03656e-02,-1.46701e-01,1.92956e-01,3.01419e-02,
-1.87210e-02,-5.78936e-01,3.02209e-01,-1.68485e-01,-2.53971e-01,-1.36477e-01,-4.88971e-01,2.41480e-01,-4.85147e-02,-3.80346e-01,-1.90450e-01,3.43152e-01,-1.16352e-01,-6.78003e-02,3.48880e-01,7.99118e-02,-9.93781e-02,-2.17835e-01,9.99701e-02,-4.75338e-02,8.23913e-01,3.28837e-02,-2.25611e-01,3.80780e-01,3.82868e-01,1.40880e-02,-6.46834e-02,6.60579e-02,1.63585e-01,1.43711e-01,-2.05467e-01,-1.64919e-01,-1.15877e-01,6.07549e-02,-1.45451e-01,1.07344e-01,1.25533e-01,2.27777e-02,2.27624e-01,2.75237e-01,-8.20022e-03,-1.19760e-01,-1.32334e-01,1.33613e-01,9.63409e-02,
-2.59337e-01,-1.73127e-02,1.96890e-01,1.42386e-01,1.75870e-01,8.47155e-02,5.19217e-01,3.58174e-01,-4.29251e-01,1.16447e-01,2.59261e-02,8.26480e-04,4.62751e-01,-6.43842e-02,-1.48620e-02,1.55652e-01,-4.68704e-01,4.07686e-01,-1.73588e-01,2.01287e-01,-7.74598e-01,-4.67678e-01,1.33177e-01,-7.16365e-02,-1.73909e-02,1.69071e-01,3.75646e-02,-1.05563e-01,1.90015e-01,-9.54659e-02,1.22022e-01,-8.95759e-02,-5.22958e-02,8.11773e-02,4.83371e-01,1.41195e-01,-7.06646e-02,-3.90437e-02,-2.25081e-01,-4.64531e-03,4.36702e-02,-1.16080e-01,1.14737e-01,-1.05594e-01,-1.37133e-01,
-2.60090e-02,-3.80553e-01,5.97459e-03,-4.95991e-02,1.47556e-01,-2.83464e-01,7.50232e-02,1.44628e-01,-3.19474e-01,-1.11413e-01,-3.91509e-02,-5.93441e-02,-9.80338e-02,-1.24730e-01,1.76080e-01,-5.61516e-02,-1.88785e-01,2.21641e-03,2.03731e-01,-9.22996e-02,3.25473e-01,-5.79600e-02,1.57868e-01,-6.29548e-02,2.31380e-01,-2.10103e-01,-1.02461e-01,-1.00535e-01,-1.49239e-02,-1.93242e-01,3.47999e-01,2.23647e-01,2.02360e-01,-3.74454e-01,5.88287e-01,-7.51466e-02,-3.02216e-01,-1.19848e-01,1.02421e-01,2.14938e-01,8.32401e-02,4.56898e-01,-1.61642e-01,1.28978e-01,7.17804e-02,
-3.66865e-02,-1.22941e-01,2.06434e-01,1.72371e-01,8.11794e-02,8.19759e-02,-2.35826e-01,2.99413e-03,-6.61709e-01,-2.98870e-02,-6.67469e-02,-2.91854e-01,-1.31066e-02,-5.69344e-02,1.83185e-01,-5.61762e-02,3.80426e-01,-2.57710e-03,2.04671e-01,3.57920e-01,-4.68309e-01,3.49229e-01,-1.94399e-01,1.80924e-01,-1.96128e-01,2.02003e-01,2.27995e-01,-4.17642e-02,9.38762e-02,-1.37722e+00,8.32109e-02,-2.55877e-01,-1.22971e-01,1.34279e-01,-2.15703e-01,-3.48269e-02,6.19329e-02,1.59110e-01,-1.41295e-01,2.51493e-01,-1.73545e-02,-1.56093e-01,-1.12325e+00,2.11905e-01,-8.04819e-02,
-4.58757e-01,-2.47529e-01,1.95961e-01,3.99223e-02,2.94201e-02,-9.75106e-02,5.79786e-01,-1.53408e-01,-1.12122e+00,6.94787e-02,1.35327e-01,-1.55319e-01,1.87344e-01,-1.92797e+00,5.60564e-03,3.28586e-02,-6.62847e-01,-3.45066e-02,2.83139e-01,3.96834e-01,-3.89296e-01,4.38380e-01,-1.45861e-01,-1.33226e-01,5.59284e-02,-1.31170e-01,-1.49177e-02,1.70158e-01,-3.57721e-01,-1.77265e+00,3.58435e-02,-4.19783e-01,1.78572e-01,-6.88408e-02,-1.32074e-02,2.25915e-01,2.67015e-01,-1.75464e-02,-3.27539e-01,1.04223e-01,2.47806e-02,-3.29916e-01,-1.59109e+00,3.08579e-01,6.64254e-03,
2.92064e-01,1.52077e-01,1.94847e-02,4.10214e-02,2.97098e-02,1.00692e-01,-4.13389e-02,1.31650e-01,5.82526e-02,-1.77707e-01,3.03207e-01,3.55991e-02,1.15237e-01,-1.61153e-01,-1.75942e-03,-1.51595e-01,-4.21442e-02,2.49247e-01,-7.00758e-02,-3.27665e-01,-2.78680e-01,3.44578e-01,-6.03051e-02,2.20430e-01,-2.59903e-01,-1.99916e-02,-3.80188e-01,-5.84828e-03,-2.12018e-01,-3.85984e-02,1.61916e-02,3.86987e-02,1.96114e-01,1.25954e-01,-1.78838e-01,1.08051e-01,3.64089e-01,-5.69768e-02,-1.13061e-02,2.12804e-01,-2.29365e-01,8.85574e-03,2.77078e-02,1.86055e-01,1.36795e-01,
-2.97947e-01,1.45574e-02,3.45235e-01,-1.99774e-02,-2.73066e-01,-1.71824e-01,2.77379e-01,1.31186e-01,-3.19829e-01,2.33884e-01,-6.11607e-01,2.51509e-01,5.07442e-01,-2.94114e-01,4.00023e-01,-2.39182e-01,8.53395e-02,2.79983e-01,-1.92746e-01,5.25488e-02,-1.07572e+00,-1.21187e-01,1.83370e-01,-5.78445e-02,6.64159e-02,-4.57332e-01,-1.23985e-01,-2.78062e-02,-9.48873e-02,1.99455e-01,-1.60711e-02,6.97781e-02,4.04978e-01,3.11971e-01,3.80362e-01,-1.26061e-01,2.42090e-01,-1.80780e-01,1.27559e-01,1.42777e-01,-1.89429e-01,-4.72654e-02,2.91152e-01,4.35228e-01,-8.92225e-02,
1.27055e-01,2.69796e-01,-3.02703e-02,3.13821e-01,2.74421e-01,2.64953e-02,3.88879e-01,-6.90371e-02,2.69461e-01,2.37053e-01,2.66033e-01,7.61138e-02,3.14646e-01,1.50319e-01,-7.51953e-01,-6.70921e-02,-6.37385e-01,1.91657e-01,1.08260e-01,3.09184e-03,-7.55138e-01,-2.20562e-01,-1.67796e-01,1.19667e-01,-2.31675e-01,2.24291e-01,6.29688e-02,-3.12672e-04,-1.70586e-01,6.88286e-02,2.25786e-01,2.30853e-01,-2.49358e-01,6.86123e-02,8.06572e-03,-8.44193e-02,-2.79432e-02,1.00745e-01,-1.73049e-01,2.26773e-01,1.13097e-01,8.24784e-02,3.62528e-02,1.69841e-01,4.39097e-01,
-6.18715e-02,-3.15763e-01,2.87960e-01,5.02782e-02,2.58102e-01,-3.89877e-02,3.04012e-01,-1.31170e-01,-5.55436e-01,-6.30823e-02,-2.91857e-01,1.06051e-01,-4.53823e-01,-2.04315e-01,-3.05191e-02,4.95843e-02,-1.99400e-01,-1.56489e-01,9.77603e-02,3.92242e-02,-1.93241e-01,3.93096e-02,1.31787e-01,1.11941e-02,1.13307e-01,1.64013e-01,-7.87549e-03,-1.80418e-01,1.10720e-01,5.69343e-02,2.97063e-02,-4.38072e-03,4.20614e-02,-8.49234e-02,2.39083e-01,1.54015e-01,1.61923e-01,-2.73497e-01,3.13881e-01,3.84796e-01,-1.64561e-01,2.56161e-02,3.48446e-02,4.35763e-01,-1.42249e-01,
-2.58839e-01,-1.86041e-01,-2.23880e-01,-2.29583e-02,-1.31648e-01,-1.33472e-01,-2.59758e-01,-9.51651e-02,-6.80363e-02,1.38770e-01,-1.51625e-01,-1.53764e-01,-8.25293e-02,-1.72617e-01,1.58312e-01,1.86826e-01,-2.05789e-01,-8.65382e-02,-1.07823e-01,-1.63031e-01,-2.39181e-02,1.89021e-01,9.61002e-02,5.24660e-02,1.70049e-02,-4.33619e-02,-2.03917e-01,5.65329e-02,5.34595e-02,-1.77826e-01,-7.36085e-02,-9.25767e-02,7.77388e-04,1.62842e-01,-2.26867e-01,-1.76693e-01,7.74175e-03,-1.44727e-02,-1.62829e-01,-9.47680e-02,-1.70544e-01,2.51718e-01,1.77733e-03,-9.90848e-02,1.59119e-02,
-8.25089e-03,3.07135e-01,-1.63462e-01,1.61028e-01,1.73086e-02,-3.05982e-02,-5.44410e-01,-8.87274e-02,5.54399e-02,-2.72593e-01,1.51502e-01,-4.07048e-02,1.52230e-01,-3.68569e-02,-1.55331e-01,-4.79498e-01,3.45446e-01,1.14993e-01,5.02514e-01,-8.82842e-02,-2.07924e-01,-6.68225e-01,-9.91556e-02,7.97753e-02,-1.59599e-01,7.69264e-03,7.20780e-02,1.30149e-01,1.54708e-02,1.88171e-01,-9.82481e-02,-1.15248e-01,7.86958e-02,8.25040e-02,-3.33474e-01,2.10821e-02,9.07916e-02,2.77486e-01,-1.29339e-01,2.80731e-01,3.45215e-01,2.00836e-01,6.44350e-02,7.88019e-02,-6.37868e-03,
-4.23044e-02,1.18315e-01,2.82651e-01,-6.54206e-01,-4.61073e-01,-3.02567e-01,8.90047e-02,-2.60729e-02,-3.86692e-01,-1.68508e-01,-9.61059e-02,-4.06642e-02,4.60927e-01,1.64384e-01,-1.14592e-01,-2.35735e+00,-2.50793e-01,8.46711e-02,-1.03121e-01,1.43499e-01,-1.74840e-01,-7.45188e-01,-1.95598e-01,-1.79031e-02,1.32854e-01,1.22988e-01,2.62391e-01,-1.51508e-01,3.99567e-01,-1.66405e-02,2.02303e-01,5.73137e-02,-2.68387e-01,1.24530e-01,-9.64199e-02,-4.79031e-01,4.17677e-02,2.66318e-01,-1.93146e-01,4.06579e-01,-4.69852e-01,2.96461e-01,1.02382e-02,-2.24677e+00,-5.82171e-01,
-1.40832e-02,-6.84870e-01,3.87120e-02,-2.19074e-02,-6.81813e-02,5.67172e-02,-2.14889e+00,2.11805e-01,6.15841e-01,3.67654e-02,1.94017e-02,1.47282e-01,4.98511e-01,-3.95725e-02,-1.84604e-01,7.23527e-02,-2.26841e-01,-4.85957e-01,7.77356e-03,-9.00232e-02,-1.66133e-02,2.83604e-01,5.38490e-02,-1.19125e-01,-3.78981e-01,-6.35337e-01,-4.26362e-01,2.38043e-01,-1.31530e-01,1.79939e-03,-7.67446e-02,-3.07192e-01,2.06302e-01,2.20669e-01,-1.68354e-01,2.18694e-01,-1.26985e-01,-3.91707e-01,-1.26620e-01,-1.52012e-01,-6.70900e-02,2.50255e-01,3.30064e-02,-4.93384e-01,1.49586e-01,
2.70609e-01,2.07805e-01,-1.50980e-01,2.08725e-01,1.76403e-01,-9.63986e-02,3.01483e-01,1.69983e-01,3.05138e-01,7.95341e-02,3.23630e-01,-9.17014e-03,-1.74071e-01,-1.16516e-01,-2.70968e-01,-2.95231e-01,2.77937e-01,1.85818e-01,4.49220e-03,-3.62260e-02,-6.86001e-01,1.44639e-01,5.80278e-02,4.66053e-02,-2.53942e-01,3.71484e-01,1.82122e-02,-2.49155e-01,2.98057e-01,-2.12519e-02,-2.47130e-02,-1.95965e-01,-1.48952e-01,2.86313e-01,1.08897e-01,-4.45590e-02,-4.55318e-01,2.33911e-01,1.25329e-02,7.99972e-01,-2.11230e-01,-1.34996e-01,-9.61289e-02,4.34237e-01,1.91567e-01,
3.63882e-01,-1.73793e-01,-6.11870e-02,-1.57995e-02,-3.51190e-01,1.37717e-02,-1.53129e-01,2.40046e-01,1.61925e-01,1.59336e-01,-7.00370e-03,-3.61223e-01,-1.10760e-01,-1.23450e-01,1.83068e-02,5.27295e-02,-4.25389e-02,-1.46108e-02,1.94495e-01,-2.97021e-01,1.28932e-01,-1.81539e-01,5.68767e-02,9.25786e-03,2.69890e-01,-2.89195e-02,-3.41415e-02,2.18942e-02,3.18177e-02,1.81179e-01,-2.34113e-02,-2.46614e-01,1.55156e-01,-6.20700e-01,1.04539e-01,-1.44450e-01,-4.18704e-01,-1.34070e-01,-1.11053e-01,-4.57126e-02,4.34637e-02,2.01694e-01,-7.09066e-02,-8.73038e-02,-1.44953e-01,
1.18190e-01,-1.30713e-01,3.52136e-02,7.82278e-02,7.63243e-02,2.80843e-01,-8.79990e-02,5.06669e-02,-3.66386e-03,-2.42465e-01,-1.29115e-01,2.58497e-01,4.13786e-01,-8.58316e-02,3.27328e-01,-1.71817e-01,2.08371e-01,-2.16291e-02,2.55243e-01,5.86954e-02,2.68534e-01,3.78323e-01,-2.32150e-01,1.18710e-01,2.31538e-01,-1.91843e-01,3.87354e-02,-4.19079e-02,-1.49041e-02,1.20252e-01,-1.00530e-01,-1.10909e-03,-4.69875e-02,-1.26756e-01,-3.10752e-01,1.33489e-01,7.33425e-02,5.55183e-02,-1.82230e-02,-4.79540e-01,8.85728e-02,-1.09476e-01,-1.18772e-01,-4.50726e-01,6.53647e-02,
-3.43844e-01,-7.07462e-01,2.64585e-01,8.45713e-02,-8.76221e-02,-1.48029e-03,-3.08750e+00,7.99119e-02,-2.38058e-01,1.20187e-01,-3.97545e-01,1.42498e-01,-2.32596e-01,-1.50563e-01,3.59693e-01,3.09578e-01,-1.37155e-01,-9.50860e-01,-5.49531e-02,8.38039e-02,1.58550e+00,1.74587e-01,-1.01432e-01,2.30678e-01,1.37835e-01,-1.55143e+00,1.60996e-01,2.22884e-01,-1.13855e-02,1.46443e-01,-4.18996e-01,-3.23047e-01,1.36092e-01,2.27268e-01,2.83360e-01,9.18472e-02,-7.40698e-02,1.74485e-01,-4.31133e-02,3.21050e-03,-1.88126e-01,3.31576e-02,-1.11105e+00,1.18375e-01,-5.18419e-02,
-7.81427e-02,6.50832e-01,3.17422e-01,1.90974e-02,1.40452e-01,1.11156e-01,-1.89560e-01,3.38623e-02,-8.94576e-02,2.57710e-01,8.94813e-02,2.44775e-01,-4.96141e-01,-1.44906e-02,-1.46470e-01,-6.98403e-02,-4.39147e-01,-1.43444e-01,-2.10986e-01,-1.67417e-01,-5.93359e-01,2.29370e-01,9.44264e-03,-2.52878e-02,1.47012e-01,4.68492e-01,2.04101e-01,2.10860e-01,2.16160e-01,3.46625e-02,5.10754e-03,1.31358e-01,-1.66608e-01,-1.44516e-01,-8.39598e-03,-2.29164e-02,1.21468e-01,-2.67311e-01,-1.42328e-01,1.26488e-01,1.16066e-01,-1.49998e-01,-6.97081e-02,3.07392e-01,-3.70689e-02,
-1.19492e+00,-4.11997e-01,5.10957e-02,-3.55497e-01,1.20203e-01,-2.16932e-01,-4.58717e-02,-2.03891e-03,-1.34959e-01,-3.06727e-02,-2.18598e-01,-4.60787e-02,-4.68960e-01,-2.45217e-02,6.96778e-02,-3.57902e-02,-2.12887e-01,1.97204e-02,3.19463e-02,4.31155e-01,2.11228e-01,1.48615e-01,-1.59326e-01,1.76540e-01,-3.24795e-01,2.21027e-02,-2.64552e-01,-2.49075e-02,-2.72220e-01,2.54631e-01,-1.79510e-01,1.22826e-02,2.02526e-02,-1.18219e+00,1.09277e+00,-1.18613e-01,-2.57255e-01,-7.09357e-02,-3.62035e-01,-3.96924e-01,1.53200e-01,-4.59122e-01,2.12254e-01,-9.46016e-02,3.01634e-01,
7.80269e-02,-3.52397e-02,1.41157e-02,-2.64325e-01,6.98112e-02,3.42146e-02,-1.09489e+00,1.08828e-01,-2.74192e-01,-6.60058e-01,-8.71446e-01,2.72988e-01,-3.57192e-02,1.15411e-01,7.05585e-02,-1.78674e-02,5.96866e-01,-1.60022e+00,1.59245e-01,2.59115e-02,1.01289e+00,-9.15541e-02,1.41959e-01,-1.49072e-01,-4.58083e-02,-8.00663e-01,-4.70257e-02,2.17485e-01,2.24137e-01,1.03916e-01,-1.28221e-01,7.31860e-02,-6.03944e-02,1.37871e-02,-1.04679e+00,-8.86199e-03,3.02649e-01,-4.56626e-02,1.57043e-01,-1.76707e-01,-8.92749e-02,-5.74994e-02,1.99930e-01,7.82712e-02,-5.03413e-02,
3.10251e-01,-2.72447e-01,-2.36187e-02,-3.72225e-01,-1.54149e-02,2.15169e-01,-5.24991e-01,-1.85349e-01,2.01700e-01,8.52153e-02,3.41237e-03,2.45378e-01,7.55205e-02,8.82035e-02,1.90921e-01,-3.25063e-01,4.37912e-01,-3.24068e-01,3.71408e-01,-1.79632e-01,1.84270e-01,-2.80026e-01,1.39601e-01,1.34744e-01,2.33517e-01,1.18249e-01,1.93681e-01,8.46975e-02,-5.69218e-02,3.35900e-01,2.33049e-01,-1.80507e-01,2.48070e-01,-4.06535e-01,-1.86006e-01,2.02560e-01,4.00569e-01,1.24759e-01,1.30460e-01,-5.54385e-01,-7.65322e-03,-4.14789e-03,-1.43951e-01,-7.87572e-02,1.71343e-02,
2.76916e-03,
-1.02557e-01,
0.00000e+00,
-7.08899e-02,
1.69574e-01,
1.73731e-03,
-3.16500e-02,
1.66670e-01,
-9.38075e-02,
1.57339e-01,
5.14739e-02,
-2.02557e-01,
-8.08694e-02,
5.33955e-02,
1.12247e-01,
4.14804e-03,
2.51037e-01,
4.32654e-03,
2.21271e-02,
2.90710e-03,
2.58209e-02,
9.56840e-02,
-3.87347e-02,
-1.05248e-02,
-7.51705e-02,
7.45464e-03,
1.22105e-01,
-1.62393e-01,
-8.05922e-02,
1.51192e-02,
-1.34785e-01,
-7.16422e-02,
3.63111e-02,
-2.52864e-02,
1.20888e-01,
-1.22525e-01,
-2.74459e-02,
-1.45480e-02,
-3.68489e-02,
4.16365e-02,
-3.63128e-02,
5.86147e-03,
-5.89169e-01,
-3.74976e-02,
5.94879e-02,
2.67869e-01,2.97181e-01,-1.82171e-01,-4.96632e-02,-4.78206e-03,1.24070e-01,3.45503e-01,-1.36752e-01,6.42001e-02,9.81242e-02,3.52944e-02,1.90294e-02,1.53595e-03,-3.75012e-01,1.25962e-01,-1.21247e-01,8.61425e-02,3.61944e-02,2.88206e-01,2.26246e-01,1.01146e-01,-5.71385e-02,1.08476e-01,-8.61556e-02,-1.25304e-02,2.27531e-02,-1.93030e-02,-1.82529e-01,-1.11194e-01,1.80752e-01,-5.31736e-02,4.39617e-02,2.25389e-01,-1.15712e-01,-6.27589e-02,1.38001e-01,1.21193e-01,7.86576e-02,-1.38025e-01,1.89493e-01,-2.66386e-01,1.44022e-02,4.97054e-01,-2.13462e-01,2.17580e-01,
2.62850e-02,8.90845e-02,-3.63605e-02,-1.71879e-02,1.09653e-01,2.42954e-02,4.37449e-01,8.96162e-03,3.35597e-01,-1.77544e-01,1.89957e-01,5.52061e-01,1.50065e-01,-1.81496e-01,-3.59217e-01,1.02849e-01,-6.22475e-01,1.45761e-01,6.65523e-03,3.33688e-01,1.48692e-01,-1.19921e-01,4.82608e-02,-1.81048e-01,3.44939e-01,2.40257e-01,-1.24094e-01,-3.67631e-01,-6.67079e-01,4.81313e-01,-5.61800e-02,1.12870e-01,-6.46077e-01,1.93085e-01,1.87786e-01,1.16791e-01,-1.52337e-01,-1.43287e-03,3.98525e-01,-1.62163e-01,-3.53590e-01,-1.02474e-01,-8.85639e-01,1.32155e-01,-2.77804e-01,
-1.70517e-01,-1.90312e-01,8.27454e-02,1.38109e-01,-3.62634e-01,2.02950e-01,-1.61763e-01,-2.54717e-03,-2.17821e-01,-3.24879e-02,1.43742e-01,2.58548e-01,-1.09215e-01,-4.49368e-01,-3.40867e-01,3.09640e-01,1.69451e-01,-4.02907e-01,7.37678e-02,2.08129e-01,3.06482e-01,-1.07211e-01,1.03927e-01,-8.63059e-02,-7.93465e-02,-1.51660e-01,1.84543e-01,1.68521e-01,9.07900e-02,1.06045e-01,-4.48701e-02,1.84946e-01,-4.86521e-02,-1.69900e-01,2.60996e-01,-2.62307e-01,1.43124e-01,-9.45368e-02,3.72061e-01,6.99435e-02,-1.47976e-01,-1.21190e-01,3.58940e-01,-5.73394e-02,2.27704e-02,
1.30399e-01,1.34492e-01,-2.28866e-02,1.11762e-01,-2.28124e-01,-2.50732e-02,-1.21975e-01,-1.73765e-01,-1.47165e-01,1.50758e-01,-2.49241e-01,1.07172e-02,-5.32365e-02,1.53502e-01,-2.17154e-01,-8.14601e-02,1.05643e-01,-1.22599e-01,-1.29601e-01,2.32212e-01,2.50933e-01,3.55828e-02,-1.15983e-01,-6.48712e-02,-5.46619e-02,-2.27029e-01,-1.38461e-01,-2.25751e-01,7.01520e-03,-2.29586e-01,-2.40204e-01,-1.20790e-01,1.52228e-01,-1.05025e-01,-1.75327e-01,-1.49167e-02,1.99548e-01,-6.58327e-02,2.25591e-01,-2.21507e-01,-6.26927e-02,-2.30708e-01,1.02073e-01,-1.75805e-01,-7.45392e-02,
-9.00680e-02,-1.00824e-01,-1.70295e-01,-1.02757e-01,-1.16652e-02,-1.83438e-01,-1.12538e-01,-6.12134e-02,3.80762e-02,-1.89598e-02,-1.60781e-01,-1.55062e-01,-1.40300e-01,1.29692e-01,-6.65940e-02,-8.59944e-04,-5.54864e-02,-6.70165e-02,-2.49879e-03,-5.41715e-02,-2.39458e-01,6.30697e-02,1.88676e-01,-2.27088e-01,1.89065e-01,-1.57244e-01,-2.48507e-01,1.45541e-01,-1.91010e-01,3.03385e-02,4.42871e-02,6.77368e-02,5.99282e-02,1.07964e-01,-2.40996e-01,-1.49380e-01,-6.16697e-02,-1.36034e-02,-2.31951e-01,-2.95694e-02,-1.30731e-01,6.73487e-02,-6.56100e-03,6.50147e-03,4.40588e-02,
1.96149e-01,2.87335e-01,1.62756e-01,-8.96564e-02,1.20980e-01,-7.28433e-02,1.59225e-01,6.63161e-02,5.98026e-01,4.82792e-02,-4.83871e-02,-3.98251e-02,1.16337e-01,1.97626e-01,1.08405e-02,1.79911e-01,1.11468e-01,-1.85658e-03,3.92571e-01,1.01690e-01,-1.69014e-01,2.08901e-01,-4.48402e-01,-9.60788e-02,8.74007e-03,-1.69840e-01,-1.83386e-01,-1.85141e-01,3.30385e-01,1.38153e-01,1.21758e-01,-6.54890e-02,1.91632e-01,-7.88089e-02,-2.28697e-01,1.55176e-01,-1.40154e-01,-5.14460e-02,1.37349e-02,1.09263e-01,-7.36207e-02,1.41942e-01,1.34213e+00,-7.20417e-03,-1.21085e-01,
5.89407e-02,1.35504e-01,5.66401e-02,3.14145e-01,1.20205e-01,-1.85739e-02,2.12906e-01,-4.48481e-02,-9.59516e-02,-1.73968e-01,4.50443e-02,2.28126e-01,1.79590e-01,-2.79756e-01,4.03993e-01,-1.89442e-02,-1.27713e-01,2.69198e-01,-1.82726e-02,-6.44204e-02,6.85589e-01,-3.53016e-01,-1.77692e-01,-2.03130e-01,-1.76053e-01,-1.47178e-01,-4.86739e-01,-1.95346e-01,-6.59240e-02,-9.95531e-02,-3.94829e-01,5.36850e-02,-2.29005e-01,3.56531e-02,-2.59148e-01,7.18225e-03,4.82857e-01,4.40052e-02,7.05675e-02,2.06934e-01,-6.28298e-01,7.56108e-02,1.39067e+00,-2.92745e-01,2.18285e-01,
-1.36345e-01,-1.02643e-01,-2.45436e-01,1.47503e-01,-6.98944e-02,1.67681e-01,4.68419e-02,1.84860e-01,-2.09493e-02,-3.56738e-01,9.79412e-02,-3.45100e-01,-1.23806e-01,9.86099e-02,2.18078e-01,1.30872e-01,2.87479e-01,9.46243e-02,2.64207e-01,-2.17067e-01,-9.81607e-03,1.37697e-01,-4.69939e-01,-1.26433e-01,-7.92124e-02,-5.75933e-01,-2.94230e-02,-3.31360e-02,3.02076e-01,5.74899e-01,-1.34065e-01,-4.34208e-02,1.10043e-01,1.88301e-01,-4.89047e-01,-8.27443e-01,2.36109e-02,3.29300e-01,-4.41696e-02,4.01003e-01,-6.20417e-02,2.81102e-01,-3.36023e+00,-1.61246e-01,-2.39023e-01,
-8.48042e-01,-2.31138e-02,1.47620e-01,-1.07880e-01,-1.09585e-02,1.98342e-01,1.85807e-01,-5.51367e-01,-1.66298e-03,2.17770e-01,-3.14490e-01,3.07480e-02,2.29030e-01,3.61627e-02,7.91441e-01,3.89312e-02,-9.22852e-02,-3.48121e-01,2.53509e-01,1.03755e-01,1.20171e-02,-1.96651e-01,-1.71712e-01,1.45264e-01,-1.62033e-01,4.02396e-01,-2.09491e-01,7.01865e-02,-6.98332e-02,1.92268e-01,-2.25144e-02,4.20741e-02,1.30573e-01,-3.34303e-02,-2.64397e-01,-9.49736e-02,-4.77101e-01,-3.00163e-01,6.79254e-02,2.98571e-01,-2.16698e-01,1.31218e-01,3.56666e-01,-9.50082e-01,2.20116e-01,
8.11007e-03,-2.40151e-01,-1.78719e-01,-1.62733e-01,5.41492e-02,5.71185e-02,-2.03489e-01,-5.51914e-02,-1.60379e-01,2.21118e-01,-2.13561e-03,-3.50602e-01,2.01189e-01,-1.46884e-01,-9.01035e-02,1.61607e-01,4.72888e-02,1.44373e-01,2.66138e-01,3.79253e-01,3.44160e-01,1.49136e-01,-1.40650e-01,-5.25935e-02,-4.07548e-01,1.84889e-01,-1.38044e-01,-2.35272e-02,2.00090e-01,2.69511e-01,-1.54438e-01,-1.65813e-01,2.92935e-01,7.04722e-02,2.66784e-05,2.00896e-01,-2.05269e-01,2.75388e-01,4.56262e-01,4.41417e-02,-4.01106e-01,9.54458e-02,6.22962e-01,-2.96880e-01,1.78446e-02,
-2.70475e-01,2.26534e-01,-1.51155e-01,-1.96688e-01,2.72896e-01,2.43668e-02,1.23255e-01,-1.31578e-01,6.78673e-01,2.92637e-01,-3.97447e-02,-1.60537e-01,-2.58080e-02,4.02923e-02,-3.54910e-03,-5.00690e-01,5.38274e-01,-1.06064e-01,-4.67659e-02,2.01535e-01,1.38374e-01,-1.03263e-02,2.39040e-01,-2.24675e-01,-4.92715e-02,-5.49939e-02,-3.97620e-01,4.29939e-02,1.46276e-02,-1.06896e-01,-1.55016e-02,-4.32815e-01,-2.21679e-01,8.69677e-02,-1.85462e-01,-6.93183e-02,8.55239e-02,-2.63052e-01,-4.71217e-01,1.45430e-01,-5.45658e-01,1.94400e-01,-1.29649e+00,-6.02482e-01,1.26352e-01,
3.09957e-01,-2.73257e-01,-5.99070e-02,-4.85309e-01,-1.04987e-01,1.34509e-01,3.34852e-01,2.70455e-01,-4.97113e-01,2.39129e-01,-2.92905e-01,-1.55904e-01,-1.38936e-01,-7.24793e-02,5.14987e-02,-3.04034e-02,-9.97361e-02,-2.67841e-02,1.55518e-01,-3.70349e-02,3.21223e-01,2.93324e-01,-1.06012e+00,-2.17082e-01,-1.62496e-02,-3.88818e-01,4.42156e-02,-2.78524e-01,-1.15824e-01,-6.20291e-02,7.59845e-01,1.05202e-01,-2.22137e-01,6.64374e-02,-4.26770e-03,-1.32889e+00,-2.89483e-01,1.31786e-01,-3.89621e-01,-5.08863e-02,-1.04844e+00,1.20026e-01,-1.72806e+00,-1.22565e+00,-2.09459e-02,
-7.51602e-02,2.61328e-01,5.49638e-02,-2.69471e-01,5.78789e-02,-9.63463e-02,-5.01068e-02,-1.24633e-02,4.46396e-01,1.88899e-01,3.13504e-01,-3.53604e-01,-6.58721e-02,-4.09195e-01,4.40298e-02,-1.32120e-01,2.76375e-02,4.08563e-02,-8.45369e-02,1.51854e-01,5.54911e-02,3.56772e-01,-3.60974e-01,1.79815e-01,3.73420e-01,-3.04185e-01,5.59296e-02,5.18887e-01,-1.68781e-01,-1.63435e-01,-1.03238e-01,-3.65844e-01,1.06397e-01,-2.31726e-01,-1.91980e-02,-7.19112e-02,-1.35941e-01,-2.19576e-01,-7.83972e-02,-1.34053e-01,-2.50044e-01,1.55965e-01,1.43939e-01,1.70406e-01,1.81802e-01,
-1.81417e-01,2.94433e-02,-2.39974e-01,-2.88524e-01,1.82599e-01,1.77799e-01,1.33351e-01,-4.60787e-02,2.98290e-01,2.47876e-01,2.28426e-01,4.88737e-01,1.57046e-02,-1.07109e+00,-1.29541e-02,6.79252e-02,-1.11751e-01,-7.75200e-01,2.23824e-02,6.00435e-02,3.00563e-01,8.78547e-02,-1.13404e-01,1.55425e-01,-3.28243e-01,3.30165e-01,-2.15613e-01,-7.07567e-01,-1.35225e+00,-1.22175e-01,4.83774e-02,6.87292e-04,-5.41521e-02,-1.92474e-01,2.20019e-01,-6.76273e-03,-7.71843e-02,1.62113e-01,-3.46467e-01,-3.19719e-01,-9.78647e-01,2.89036e-01,-1.91481e+00,1.81524e-01,5.70398e-02,
1.03975e-01,-7.08045e-02,1.13373e-01,1.88742e-01,-2.02150e-01,-2.60721e-01,-1.70204e-01,-2.85258e-01,-9.50504e-02,1.76072e-01,-2.84895e-01,7.17774e-02,1.12975e-01,2.02244e-01,-8.54545e-02,-1.15928e-01,-1.65777e-02,2.08375e-01,-1.61367e-01,-5.06403e-02,-7.75639e-02,1.19818e-01,-5.20255e-02,5.25860e-02,-1.64254e-02,-1.58818e-01,-2.00565e-02,-2.65464e-02,-7.78259e-02,-1.53464e-01,1.85092e-01,-5.21286e-02,-6.91623e-02,-2.24470e-01,-1.30542e-01,-1.12276e-01,1.12234e-01,-2.38284e-01,1.55201e-01,-4.90522e-02,1.07512e-01,-1.54554e-01,-1.28250e-01,5.59234e-02,-3.68768e-02,
-2.22075e-01,-1.20508e-01,-1.06301e-01,1.83782e-01,-1.50479e-02,3.76766e-01,6.50598e-03,-3.63886e-01,5.53019e-02,1.26753e-01,-3.12569e-01,-2.79371e-01,1.29992e-01,-1.76813e-01,2.65651e-01,-1.08704e-01,3.80310e-02,5.66497e-02,2.77227e-01,2.35610e-01,-1.89267e-01,-6.27038e-02,1.42732e-01,2.46622e-01,-2.36722e-01,1.21588e-01,-5.82742e-02,-5.71548e-01,-2.45547e-01,-3.00479e-01,5.45751e-01,-1.52019e-02,5.34738e-02,1.68744e-01,-2.64872e-01,1.83922e-01,-9.24196e-05,-7.64542e-02,-1.14712e-01,8.30906e-02,-1.81752e-01,1.38073e-01,9.43730e-01,-4.74651e-01,2.14427e-01,
3.86761e-01,-6.03450e-02,2.27497e-02,-3.36932e-02,-1.57121e-02,1.69019e-01,-2.43577e-02,8.70984e-02,-1.55211e-01,-2.28756e-01,1.50776e-01,2.05263e-01,-1.54139e-01,-2.78446e-01,-2.70870e-01,-2.41481e-01,-2.56342e-02,-6.37660e-02,2.51927e-03,-3.50387e-02,-2.79387e-01,-1.13034e-01,5.25636e-02,4.51293e-02,-4.61507e-02,2.51768e-01,1.61836e-01,2.77167e-01,-3.39995e-01,-1.37608e-01,-7.23541e-04,-9.24221e-02,-1.17007e-01,8.05957e-02,1.23501e-01,-1.27179e-01,3.80360e-02,-5.73879e-02,3.73700e-02,2.34803e-01,-1.85952e-01,6.01473e-02,1.03475e+00,-3.90470e-01,2.03922e-01,
1.14873e-01,4.23419e-01,1.12549e-01,-2.28491e-01,-3.61032e-01,1.69296e-01,7.70381e-03,-1.11526e-01,-4.68471e-02,1.33320e-01,1.57937e-01,6.49058e-01,2.13694e-02,-6.33712e-01,-8.05656e-02,3.96527e-02,4.47165e-02,4.94706e-02,2.72937e-02,-2.72265e-01,-2.24848e-02,6.00244e-02,6.66295e-01,-2.02139e-01,1.11739e-01,3.21056e-01,4.46160e-02,-3.80887e-02,6.86537e-01,-1.33637e-01,-2.20659e-01,-3.43448e-02,1.04874e-02,-1.37431e-01,2.46829e-01,-2.45391e+00,-4.14419e-02,6.53130e-02,-2.63491e-01,1.68492e-01,4.87721e-02,-9.15541e-04,-7.24346e-01,-4.69307e-02,1.38717e-01,
6.08705e-02,-1.01009e-01,2.00505e-01,1.83251e-01,1.16477e-01,-1.44521e-01,-2.32417e-02,1.41854e-01,-1.22434e+00,1.18800e-01,-7.10735e-02,-1.28944e-01,-1.19507e-01,-8.72348e-02,5.85005e-02,-4.95913e-01,-2.13004e-01,-5.93751e-01,-1.32039e-01,-7.98096e-02,-4.10014e-01,6.78307e-02,3.63880e-02,8.32630e-02,-6.00158e-01,4.87755e-02,-1.88054e-01,-1.95906e+00,-1.84560e+00,1.04431e-01,1.55936e-01,2.66658e-01,-1.27356e-01,6.38137e-02,7.08380e-02,3.54561e-01,1.58357e-02,2.64985e-01,1.44346e-01,-1.71487e-02,-6.29218e-01,9.70614e-02,-1.90286e+00,-3.70902e-02,9.12048e-02,
-3.12086e-02,-4.44473e-01,-1.64367e-01,5.61598e-02,-1.55028e-01,-2.00548e-01,-2.98130e-02,5.05185e-02,3.14094e-01,-5.69946e-02,1.67435e-01,1.62620e-01,1.06243e-01,-6.29566e-02,-2.34022e-01,2.11840e-01,-2.83735e-01,-5.78829e-02,2.56176e-01,2.56645e-01,1.58922e-01,-1.52026e-01,-3.33895e-01,-2.14416e-01,8.60248e-02,1.27158e-01,3.66257e-02,-1.79381e-01,2.48006e-01,-9.57167e-03,5.35838e-01,2.03448e-02,1.55088e-01,2.41883e-01,-1.19322e-01,-9.84228e-02,1.07009e-01,2.88051e-01,-1.65032e-01,7.87383e-02,5.48808e-02,2.39497e-01,1.66238e+00,3.12802e-01,-1.46001e-01,
1.02759e-01,-9.07069e-01,9.80186e-03,-2.35635e-01,1.51597e-01,1.51137e-01,4.68204e-02,4.63472e-01,-5.52647e-01,-7.06507e-02,-2.08288e-01,-2.28912e-01,2.40423e-01,-2.54327e-01,3.01908e-01,6.52053e-02,-4.41854e-02,4.53633e-01,1.79855e-02,-3.14639e-01,2.42829e-01,4.08758e-02,-2.29720e-02,8.21800e-02,-5.11415e-01,6.90012e-02,-2.34886e-01,-2.59421e-01,-2.02823e-01,7.09498e-02,1.14745e-01,-8.71889e-03,-3.78266e-02,-2.22031e-01,-1.38503e-01,4.33614e-01,-3.38793e-02,-6.33010e-02,1.24300e-01,-8.98500e-02,2.16066e-02,-6.63133e-04,-1.64490e+00,9.07351e-03,3.30916e-01,
3.29845e-01,-3.62397e-01,-1.84543e-01,-8.39924e-02,-7.29557e-01,1.46333e-01,3.56001e-01,1.93288e-01,5.11434e-01,3.21044e-02,-3.94575e-01,6.94967e-02,1.54899e-01,1.25760e-01,-4.46555e-01,3.96023e-01,-7.87262e-01,-5.16749e-01,-2.12570e-01,-3.73283e-02,-3.65522e-01,-3.30834e-01,-1.37269e+00,2.44369e-01,-8.34992e-01,3.07503e-01,-3.09301e-02,2.11960e-01,-7.23181e-02,2.15273e-01,4.25382e-01,2.67220e-01,-1.64921e-01,-1.17419e-01,-2.35833e-01,3.06688e-02,4.93138e-01,1.31674e-01,2.87030e-03,-1.77019e-01,-1.07047e+00,3.56069e-01,-1.38938e+00,-6.39805e-02,-2.83097e-01,
1.03705e-01,-1.00831e-01,1.82224e-01,-1.91427e-01,1.39894e-01,-1.23540e-01,1.82087e-01,-1.77131e-01,-4.80934e-01,3.93827e-01,-1.39676e-01,6.28474e-02,1.93286e-01,-5.78729e-02,3.55936e-01,2.36950e-01,2.76446e-01,-2.26969e-02,-1.87237e-01,2.96394e-01,-7.71499e-02,-2.23968e-01,2.38008e-01,-3.78939e-02,-3.93519e-01,1.94433e-01,-2.18954e-01,-1.96778e-01,1.89051e-01,1.55414e-01,-5.79933e-01,1.24560e-01,-7.33612e-02,4.57000e-02,-1.33566e-01,-1.06201e-02,-1.63806e-01,-9.09719e-02,-2.84290e-01,2.14750e-01,-4.32861e-01,2.18715e-01,1.63966e+00,-1.92440e-01,1.24992e-01,
4.79433e-01,1.75580e-01,1.56338e-01,-4.27306e-02,2.88330e-02,1.07353e-01,-4.89960e-03,-3.12291e-01,-1.41895e-01,3.29771e-01,1.26699e-02,-1.32337e-01,-6.69932e-02,1.26604e-01,2.22433e-01,4.90742e-01,2.62204e-01,1.31532e-01,-5.03330e-02,6.99731e-02,-8.68984e-02,-1.85802e-01,9.78168e-02,-6.80861e-02,-3.65352e-01,1.66917e-01,-3.20482e-01,-1.59404e-01,1.07807e-01,2.54385e-01,-8.60732e-01,2.02125e-01,-1.91732e-01,1.14236e-02,-1.94156e-01,-7.68585e-02,-5.33435e-01,-1.76128e-01,-1.34172e-01,1.60343e-01,-7.94881e-01,2.67641e-01,6.24470e-01,-6.87126e-01,3.06124e-01,
7.85371e-02,-2.33656e-01,-2.07540e-01,2.08484e-01,-5.61577e-04,-3.26001e-02,2.22192e-01,-2.52944e-01,-3.77936e-01,-2.09666e-01,-3.21433e-02,-1.49524e-02,-1.29580e-01,4.99413e-01,-3.58103e-01,1.37757e-01,1.23373e-01,-1.09941e+00,5.85679e-02,-1.38407e-01,-3.91832e-01,1.33541e-01,-1.29393e-01,-1.54905e-01,-6.52966e-02,5.17690e-02,-1.32360e-01,-4.04586e-01,-6.76975e-01,2.83468e-01,-1.05290e-01,-1.82164e-01,1.16112e-01,-6.96680e-02,-1.07865e-01,9.93942e-02,3.12123e-01,3.05022e-01,-3.18100e-01,1.84825e-01,-1.02250e+00,4.77706e-02,-1.62164e+00,1.42749e-01,-1.81503e-01,
-7.78241e-02,-9.79567e-02,-1.21143e-01,-1.64317e-01,5.79966e-02,-8.70318e-02,1.91652e-01,-2.27541e-01,2.64921e-01,-1.00384e-02,-6.54622e-02,-3.11309e-01,7.79167e-02,-7.00509e-01,-2.11174e-01,-3.49008e-02,-4.22174e-01,-3.45443e-01,9.44463e-02,6.60486e-02,-1.43777e-01,-3.12497e-02,-1.91494e-01,-9.52073e-02,4.22566e-01,2.21005e-01,1.73881e-01,1.46303e-01,-3.92963e-02,-1.86900e-01,3.17570e-01,3.27273e-03,1.43285e-01,2.60382e-01,3.54146e-01,5.97165e-02,-3.44741e-01,2.53532e-01,3.10155e-01,7.20975e-02,1.59372e-01,-2.16056e-01,9.27934e-01,2.68904e-01,-9.44169e-03,
3.92304e-02,-1.69402e-01,1.39634e-01,2.26419e-01,-8.00418e-02,-4.10763e-02,-2.81868e-02,-4.66675e-02,4.70719e-01,2.10879e-01,2.45160e-02,-8.57827e-03,-1.52521e-01,2.46999e-01,4.12478e-02,4.91393e-03,-4.31297e-01,-5.04015e-02,1.35575e-01,2.87346e-01,8.40984e-02,-1.93390e-01,3.18093e-02,-1.19326e-01,-3.27935e-02,-7.67379e-05,-6.66846e-02,-2.11668e-01,8.59655e-02,1.82052e-01,2.02997e-01,1.86533e-01,6.71311e-02,-2.04797e-01,-1.53443e-02,3.47617e-01,-1.69295e-01,3.76362e-01,4.04084e-02,-2.38139e-01,3.96465e-01,3.21582e-01,3.49528e-03,-2.79825e-02,1.96068e-01,
-6.67516e-02,2.15324e-01,-3.08149e-02,-2.24519e-01,1.74021e-01,-1.15737e-01,2.18113e-01,4.97724e-02,-7.56975e-02,1.38857e-01,3.32400e-01,-3.61242e-01,-1.92278e-01,-3.53156e-01,1.83735e-01,-1.47413e-02,4.18733e-01,-2.06166e-01,-3.28263e-02,1.38460e-02,3.15961e-01,-1.66089e-01,5.33504e-01,2.61856e-04,-1.87507e-01,-1.98575e-01,1.95722e-01,-1.33370e-01,2.64128e-01,-2.89292e-02,-1.73831e-01,-1.00622e-01,-1.46645e-01,5.15077e-02,-1.09588e-02,-3.51155e+00,-1.14610e-01,1.07891e-01,1.44440e-01,1.24607e-01,1.46230e-01,-2.71095e-01,-1.87961e+00,1.82798e-01,-1.36631e-01,
1.20687e-01,-1.12527e-01,2.01549e-01,-1.42212e-01,-3.94623e-01,1.72325e-01,6.68512e-02,-7.40128e-02,-5.09935e-02,-1.96617e-01,2.40772e-01,1.38610e-01,1.05512e-01,-1.37103e-01,4.74039e-02,1.61438e-01,4.50382e-01,7.62491e-03,3.26696e-01,-6.56932e-02,1.79492e-02,-1.21239e-01,-1.01342e-01,3.31734e-02,-1.75409e-02,-1.81224e-01,-7.57971e-02,1.49871e-02,9.78579e-01,2.34950e-01,-2.41885e-01,7.40378e-02,7.48032e-03,4.20830e-02,8.99384e-02,1.66289e-01,2.25313e-01,1.57040e-01,-3.40629e-02,1.12420e-01,9.46615e-02,-1.11711e-01,-1.66232e+00,-1.51593e-01,-1.04400e-01,
-1.35004e-01,1.86132e-02,-7.78148e-02,2.88500e-01,-5.60813e-02,-2.48695e-02,2.03844e-01,-1.98045e-01,-3.94545e-01,1.00162e-01,1.92785e-01,-3.98576e-02,-7.22793e-04,-3.01269e-01,1.72730e-01,-6.96208e-03,-4.05899e-02,5.00812e-01,-1.29011e-01,7.40909e-02,1.18919e-01,5.38450e-02,1.67966e-02,-5.75245e-02,3.96619e-01,-1.55598e-01,-1.49417e-01,1.74735e-01,-2.38282e-01,-1.94014e-01,-2.18139e-01,-2.58323e-01,-1.26068e-01,1.36913e-01,3.16070e-02,5.40217e-01,1.79510e-01,3.95893e-01,-9.42422e-02,-7.20602e-02,-3.35233e-01,-7.45538e-02,-3.40504e-01,-1.05111e-01,1.90601e-01,
-4.53653e-01,1.80017e-01,4.40605e-02,-4.63159e-02,2.69719e-01,-3.17817e-01,8.76696e-02,3.84374e-01,2.51011e-01,2.16398e-01,-1.07615e-01,7.96134e-02,-1.75218e-01,2.76577e-01,-2.56592e-01,-6.17065e-02,-3.00396e-01,-4.04543e-01,8.75621e-02,2.08510e-01,4.71455e-01,2.11268e-01,2.21516e-01,-2.12104e-01,-2.78591e-01,-2.00465e-01,-1.56650e-01,-6.77524e-02,-8.86918e-01,-3.16338e-01,-3.61004e-01,-1.35964e-01,-6.57584e-01,-1.87963e-01,-8.78340e-02,1.52007e-01,4.77741e-01,2.44999e-01,-7.63619e-02,-1.15963e-01,-9.72161e-01,2.60582e-01,-1.13908e+00,4.17133e-01,-3.48025e-01,
-2.75849e-02,-2.53349e-01,-8.90648e-02,2.40244e-02,-1.24751e-01,1.29326e-01,-2.62326e-01,-6.04447e-02,-2.69279e-02,-3.38011e-01,3.83558e-02,6.99918e-02,-1.14260e-01,-4.72725e-02,-3.91002e-02,-5.37272e-02,-8.42192e-02,-1.42702e-01,8.26475e-03,4.66335e-02,-1.71489e-01,-2.58823e-02,-4.18358e-01,-3.54670e-03,1.80563e-01,-2.36362e-01,1.01072e-01,-1.16883e-01,3.59670e-01,3.55282e-02,2.69939e-01,1.98788e-01,7.28400e-02,-5.77465e-02,8.11800e-02,3.76549e-01,-2.26855e-02,1.65283e-01,-2.83459e-01,1.43850e-01,-1.44835e-01,-2.74761e-02,1.62004e+00,1.96568e-02,-7.61429e-02,
-3.12349e-01,-7.20530e-01,4.01594e-02,1.48842e-01,-3.46210e-01,1.60131e-01,1.43977e-01,6.12747e-02,2.26930e-01,-5.28585e-01,1.61664e-01,-4.78761e-01,-1.53565e-01,-8.71158e-03,-2.08037e-01,-1.85869e-02,-1.72000e-01,-1.25938e-01,-1.65270e-01,-2.17741e-02,4.18690e-01,3.01441e-01,-9.35480e-02,1.77292e-01,2.08390e-01,3.06733e-02,1.77170e-01,1.60536e-01,-1.11933e-01,-9.05229e-02,3.97257e-01,-2.99941e-01,1.06818e-01,1.48899e-02,5.56038e-02,-2.07983e-02,-7.72998e-02,-1.09568e-01,-1.30768e-01,-1.56131e-01,2.07718e-02,-1.44286e-01,-6.62784e-01,2.22550e-02,-1.83251e-01,
